
/* Species #731 : (Size 8) (AF 0) (Age 3)  */


/* Organism #0 Fitness: 0 Error: 0 */
genomestart 0
node 1 2 1 3
node 2 1 1 1
node 3 1 1 1
node 4 1 1 1
node 5 2 0 2
node 6 2 0 2
gene 2 1 5 1.01656 0 1 1.01656 1
gene 2 2 5 -0.229855 0 2 -0.229855 1
gene 3 3 5 2.7873 0 3 2.7873 1
gene 1 4 5 -8 0 4 -8 1
gene 2 1 6 0.685264 0 5 0.685264 1
gene 1 2 6 -3.21287 0 6 -3.21287 1
gene 1 3 6 0.327175 0 7 0.327175 1
gene 2 4 6 -0.110253 0 8 -0.110253 1
gene 1 6 5 -0.799894 0 72 -0.799894 1
genomeend 0

/* Organism #1 Fitness: 0 Error: 0 */
genomestart 1
node 1 2 1 3
node 2 1 1 1
node 3 1 1 1
node 4 1 1 1
node 5 2 0 2
node 6 2 0 2
gene 2 1 5 1.41944 0 1 1.41944 1
gene 2 2 5 1.07955 0 2 1.07955 1
gene 3 3 5 3.04187 0 3 3.04187 1
gene 1 4 5 -7.18414 0 4 -7.18414 1
gene 2 1 6 2.55923 0 5 2.55923 1
gene 1 2 6 -3.81484 0 6 -3.81484 1
gene 1 3 6 -1.56328 0 7 -1.56328 1
gene 2 4 6 -0.467618 0 8 -0.467618 1
gene 1 6 5 1.03616 0 72 1.03616 1
genomeend 1

/* Organism #2 Fitness: 0 Error: 0 */
genomestart 2
node 1 2 1 3
node 2 1 1 1
node 3 1 1 1
node 4 1 1 1
node 5 2 0 2
node 6 2 0 2
gene 2 1 5 1.19913 0 1 1.19913 1
gene 2 2 5 2.4232 0 2 2.4232 1
gene 3 3 5 2.1719 0 3 2.1719 1
gene 1 4 5 -8 0 4 -8 1
gene 2 1 6 0.958241 0 5 0.958241 1
gene 1 2 6 -3.63253 0 6 -3.63253 1
gene 1 3 6 0.514888 0 7 0.514888 1
gene 2 4 6 -0.764393 0 8 -0.764393 1
gene 1 6 5 -1.36751 0 72 -1.36751 1
genomeend 2

/* Organism #3 Fitness: 0 Error: 0 */
genomestart 3
node 1 2 1 3
node 2 1 1 1
node 3 1 1 1
node 4 1 1 1
node 5 2 0 2
node 6 2 0 2
gene 2 1 5 1.58614 0 1 1.58614 1
gene 2 2 5 -0.564138 0 2 -0.564138 1
gene 3 3 5 0.265896 0 3 0.265896 1
gene 1 4 5 -7.65945 0 4 -7.65945 1
gene 2 1 6 -1.05013 0 5 -1.05013 1
gene 1 2 6 -2.26942 0 6 -2.26942 1
gene 1 3 6 -0.200687 0 7 -0.200687 1
gene 2 4 6 -0.884889 0 8 -0.884889 1
gene 1 6 5 -0.159506 0 72 -0.159506 1
genomeend 3

/* Organism #4 Fitness: 0 Error: 0 */
genomestart 4
node 1 2 1 3
node 2 1 1 1
node 3 1 1 1
node 4 1 1 1
node 5 2 0 2
node 6 2 0 2
gene 2 1 5 2.98073 0 1 2.98073 1
gene 2 2 5 0.424119 0 2 0.424119 1
gene 3 3 5 0.17006 0 3 0.17006 1
gene 1 4 5 -8 0 4 -8 1
gene 2 1 6 0.791201 0 5 0.791201 1
gene 1 2 6 -1.61911 0 6 -1.61911 1
gene 1 3 6 -0.463909 0 7 -0.463909 1
gene 2 4 6 0.00589632 0 8 0.00589632 1
gene 1 6 5 0.196414 0 72 0.196414 1
genomeend 4

/* Organism #5 Fitness: 0 Error: 0 */
genomestart 5
node 1 2 1 3
node 2 1 1 1
node 3 1 1 1
node 4 1 1 1
node 5 2 0 2
node 6 2 0 2
gene 2 1 5 4.7167 0 1 4.7167 1
gene 2 2 5 -0.568546 0 2 -0.568546 1
gene 3 3 5 -0.259573 0 3 -0.259573 1
gene 1 4 5 -8 0 4 -8 1
gene 2 1 6 0.922756 0 5 0.922756 1
gene 1 2 6 -1.62808 0 6 -1.62808 1
gene 1 3 6 -1.97575 0 7 -1.97575 1
gene 2 4 6 0.513704 0 8 0.513704 1
gene 1 6 5 2.15008 0 72 2.15008 1
genomeend 5

/* Organism #6 Fitness: 0 Error: 0 */
genomestart 6
node 1 2 1 3
node 2 1 1 1
node 3 1 1 1
node 4 1 1 1
node 5 2 0 2
node 6 2 0 2
gene 2 1 5 2.41331 0 1 2.41331 1
gene 2 2 5 1.30764 0 2 1.30764 1
gene 3 3 5 1.15136 0 3 1.15136 1
gene 1 4 5 -8 0 4 -8 1
gene 2 1 6 -1.37557 0 5 -1.37557 1
gene 1 2 6 -1.55333 0 6 -1.55333 1
gene 1 3 6 -0.322421 0 7 -0.322421 1
gene 2 4 6 1.59239 0 8 1.59239 1
gene 1 6 5 -1.69399 0 72 -1.69399 1
genomeend 6

/* Organism #7 Fitness: 0 Error: 0 */
genomestart 7
node 1 2 1 3
node 2 1 1 1
node 3 1 1 1
node 4 1 1 1
node 5 2 0 2
node 6 2 0 2
gene 2 1 5 1.87969 0 1 1.87969 1
gene 2 2 5 -1.82569 0 2 -1.82569 1
gene 3 3 5 0.132573 0 3 0.132573 1
gene 1 4 5 -8 0 4 -8 1
gene 2 1 6 -0.253295 0 5 -0.253295 1
gene 1 2 6 -2.15635 0 6 -2.15635 1
gene 1 3 6 -1.96942 0 7 -1.96942 1
gene 2 4 6 -1.21823 0 8 -1.21823 1
gene 1 6 5 0.534273 0 72 0.534273 1
genomeend 7

/* Species #742 : (Size 7) (AF 0) (Age 2)  */


/* Organism #8 Fitness: 0 Error: 0 */
genomestart 8
node 1 2 1 3
node 2 1 1 1
node 3 1 1 1
node 4 1 1 1
node 5 2 0 2
node 6 1 0 2
gene 2 1 5 3.87324 0 1 3.87324 1
gene 2 2 5 0.323551 0 2 0.323551 1
gene 3 3 5 2.86283 0 3 2.86283 1
gene 1 4 5 -6.76435 0 4 -6.76435 1
gene 2 1 6 -1.11443 0 5 -1.11443 1
gene 1 2 6 -3.85743 0 6 -3.85743 1
gene 1 3 6 0.749424 0 7 0.749424 1
gene 2 4 6 -2.21899 0 8 -2.21899 1
gene 1 6 5 -0.0572385 0 72 -0.0572385 1
genomeend 8

/* Organism #9 Fitness: 0 Error: 0 */
genomestart 9
node 1 2 1 3
node 2 1 1 1
node 3 1 1 1
node 4 1 1 1
node 5 2 0 2
node 6 2 0 2
gene 2 1 5 2.9764 0 1 2.9764 1
gene 2 2 5 -0.255918 0 2 -0.255918 1
gene 3 3 5 1.0413 0 3 1.0413 1
gene 1 4 5 -8 0 4 -8 1
gene 2 1 6 0.149526 0 5 0.149526 1
gene 1 2 6 -4.6542 0 6 -4.6542 1
gene 1 3 6 -0.895778 0 7 -0.895778 1
gene 2 4 6 1.47268 0 8 1.47268 1
gene 1 6 5 -0.0774196 0 72 -0.0774196 1
genomeend 9

/* Organism #10 Fitness: 0 Error: 0 */
genomestart 10
node 1 2 1 3
node 2 1 1 1
node 3 1 1 1
node 4 1 1 1
node 5 2 0 2
node 6 2 0 2
gene 2 1 5 2.38536 0 1 2.38536 1
gene 2 2 5 0.323551 0 2 0.323551 1
gene 3 3 5 1.13621 0 3 1.13621 1
gene 1 4 5 -8 0 4 -8 1
gene 2 1 6 -1.44707 0 5 -1.44707 1
gene 1 2 6 -3.573 0 6 -3.573 1
gene 1 3 6 -0.9077 0 7 -0.9077 1
gene 2 4 6 -1.04189 0 8 -1.04189 1
gene 1 6 5 -2.06932 0 72 -2.06932 1
genomeend 10

/* Organism #11 Fitness: 0 Error: 0 */
genomestart 11
node 1 2 1 3
node 2 1 1 1
node 3 1 1 1
node 4 1 1 1
node 5 2 0 2
node 6 2 0 2
gene 2 1 5 5.63719 0 1 5.63719 1
gene 2 2 5 -1.23223 0 2 -1.23223 1
gene 3 3 5 1.7619 0 3 1.7619 1
gene 1 4 5 -8 0 4 -8 1
gene 2 1 6 -0.0661146 0 5 -0.0661146 1
gene 1 2 6 -4.56887 0 6 -4.56887 1
gene 1 3 6 1.08381 0 7 1.08381 1
gene 2 4 6 -0.536425 0 8 -0.536425 1
gene 1 6 5 0.389134 0 72 0.389134 1
genomeend 11

/* Organism #12 Fitness: 0 Error: 0 */
genomestart 12
node 1 2 1 3
node 2 1 1 1
node 3 1 1 1
node 4 1 1 1
node 5 2 0 2
node 6 2 0 2
gene 2 1 5 4.2256 0 1 4.2256 1
gene 2 2 5 2.26741 0 2 2.26741 1
gene 3 3 5 -0.146401 0 3 -0.146401 1
gene 1 4 5 -8 0 4 -8 1
gene 2 1 6 -0.0235684 0 5 -0.0235684 1
gene 1 2 6 -5.8488 0 6 -5.8488 1
gene 1 3 6 -1.01583 0 7 -1.01583 1
gene 2 4 6 -1.32724 0 8 -1.32724 1
gene 1 6 5 -0.0429316 0 72 -0.0429316 1
genomeend 12

/* Organism #13 Fitness: 0 Error: 0 */
genomestart 13
node 1 2 1 3
node 2 1 1 1
node 3 1 1 1
node 4 1 1 1
node 5 2 0 2
node 6 2 0 2
gene 2 1 5 5.51159 0 1 5.51159 1
gene 2 2 5 -2.06915 0 2 -2.06915 1
gene 3 3 5 1.29651 0 3 1.29651 1
gene 1 4 5 -5.82854 0 4 -5.82854 1
gene 2 1 6 0.392485 0 5 0.392485 1
gene 1 2 6 -4.70269 0 6 -4.70269 1
gene 1 3 6 -0.981456 0 7 -0.981456 1
gene 2 4 6 -0.938011 0 8 -0.938011 1
gene 1 6 5 0.220639 0 72 0.220639 1
genomeend 13

/* Organism #14 Fitness: 0 Error: 0 */
genomestart 14
node 1 2 1 3
node 2 1 1 1
node 3 1 1 1
node 4 1 1 1
node 5 2 0 2
node 6 2 0 2
gene 2 1 5 3.36549 0 1 3.36549 1
gene 2 2 5 -1.87507 0 2 -1.87507 1
gene 3 3 5 2.19226 0 3 2.19226 1
gene 1 4 5 -6.85909 0 4 -6.85909 1
gene 2 1 6 0.922756 0 5 0.922756 1
gene 1 2 6 -3.81484 0 6 -3.81484 1
gene 1 3 6 -1.40878 0 7 -1.40878 1
gene 2 4 6 0.210194 0 8 0.210194 1
gene 1 6 5 1.43978 0 72 1.43978 1
genomeend 14

/* Species #755 : (Size 67) (AF 0) (Age 2)  */


/* Organism #15 Fitness: 0 Error: 0 */
genomestart 15
node 1 2 1 3
node 2 1 1 1
node 3 1 1 1
node 4 1 1 1
node 5 2 0 2
node 6 2 0 2
gene 2 1 5 3.36549 0 1 3.36549 1
gene 2 2 5 0.323551 0 2 0.323551 1
gene 3 3 5 2.19226 0 3 2.19226 1
gene 1 4 5 -8 0 4 -8 1
gene 2 1 6 0.922756 0 5 0.922756 1
gene 1 2 6 -3.81484 0 6 -3.81484 1
gene 1 3 6 0.514888 0 7 0.514888 1
gene 2 4 6 -0.764393 0 8 -0.764393 1
gene 1 6 5 0.396248 0 72 0.396248 1
genomeend 15

/* Organism #16 Fitness: 0 Error: 0 */
genomestart 16
node 1 2 1 3
node 2 1 1 1
node 3 1 1 1
node 4 1 1 1
node 5 2 0 2
node 6 2 0 2
gene 2 1 5 1.00716 0 1 1.00716 1
gene 2 2 5 -0.567797 0 2 -0.567797 1
gene 3 3 5 0.606565 0 3 0.606565 1
gene 1 4 5 -8 0 4 -8 1
gene 2 1 6 2.13952 0 5 2.13952 1
gene 1 2 6 -0.00269731 0 6 -0.00269731 1
gene 1 3 6 1.70862 0 7 1.70862 1
gene 2 4 6 -2.74491 0 8 -2.74491 1
gene 1 6 5 -0.0299985 0 72 -0.0299985 1
genomeend 16

/* Organism #17 Fitness: 0 Error: 0 */
genomestart 17
node 1 2 1 3
node 2 1 1 1
node 3 1 1 1
node 4 1 1 1
node 5 2 0 2
node 6 2 0 2
gene 2 1 5 2.27253 0 1 2.27253 1
gene 2 2 5 -0.596882 0 2 -0.596882 1
gene 3 3 5 3.79624 0 3 3.79624 1
gene 1 4 5 -8 0 4 -8 1
gene 2 1 6 -0.462232 0 5 -0.462232 1
gene 1 2 6 -5.80939 0 6 -5.80939 1
gene 1 3 6 -1.24448 0 7 -1.24448 1
gene 2 4 6 -0.764393 0 8 -0.764393 1
gene 1 6 5 1.54202 0 72 1.54202 1
genomeend 17

/* Organism #18 Fitness: 0 Error: 0 */
genomestart 18
node 1 2 1 3
node 2 1 1 1
node 3 1 1 1
node 4 1 1 1
node 5 2 0 2
node 6 2 0 2
gene 2 1 5 5.43094 0 1 5.43094 1
gene 2 2 5 -0.0861864 0 2 -0.0861864 1
gene 3 3 5 3.55536 0 3 3.55536 1
gene 1 4 5 -8 0 4 -8 1
gene 2 1 6 -2.24679 0 5 -2.24679 1
gene 1 2 6 -3.67443 0 6 -3.67443 1
gene 1 3 6 1.38304 0 7 1.38304 1
gene 2 4 6 0.951259 0 8 0.951259 1
gene 1 6 5 -1.63617 0 72 -1.63617 1
genomeend 18

/* Organism #19 Fitness: 0 Error: 0 */
genomestart 19
node 1 2 1 3
node 2 1 1 1
node 3 1 1 1
node 4 1 1 1
node 5 2 0 2
node 6 2 0 2
node 31 1 0 0
gene 2 1 5 3.36549 0 1 3.36549 1
gene 2 2 5 0.323551 0 2 0.323551 1
gene 3 3 5 2.19226 0 3 2.19226 0
gene 1 4 5 -8 0 4 -8 1
gene 2 1 6 0.922756 0 5 0.922756 1
gene 1 2 6 -3.81484 0 6 -3.81484 1
gene 1 3 6 0.514888 0 7 0.514888 1
gene 2 4 6 -0.764393 0 8 -0.764393 1
gene 1 6 5 0.396248 0 72 0.396248 1
gene 3 3 31 1 0 214 0 1
gene 3 31 5 2.19226 0 215 0 1
genomeend 19

/* Organism #20 Fitness: 0 Error: 0 */
genomestart 20
node 1 2 1 3
node 2 1 1 1
node 3 1 1 1
node 4 1 1 1
node 5 2 0 2
node 6 2 0 2
gene 2 1 5 3.57022 0 1 3.57022 1
gene 2 2 5 -0.997292 0 2 -0.997292 1
gene 3 3 5 2.23084 0 3 2.23084 1
gene 1 4 5 -8 0 4 -8 1
gene 2 1 6 1.52284 0 5 1.52284 1
gene 1 2 6 -4.2522 0 6 -4.2522 1
gene 1 3 6 -0.810656 0 7 -0.810656 1
gene 2 4 6 -1.90513 0 8 -1.90513 1
gene 1 6 5 -0.373194 0 72 -0.373194 1
genomeend 20

/* Organism #21 Fitness: 0 Error: 0 */
genomestart 21
node 1 2 1 3
node 2 1 1 1
node 3 1 1 1
node 4 1 1 1
node 5 2 0 2
node 6 2 0 2
gene 2 1 5 5.06961 0 1 5.06961 1
gene 2 2 5 -1.63935 0 2 -1.63935 1
gene 3 3 5 2.19226 0 3 2.19226 1
gene 2 4 5 -8 0 4 -8 1
gene 2 1 6 1.53233 0 5 1.53233 1
gene 1 2 6 -3.07945 0 6 -3.07945 1
gene 1 3 6 -0.0520906 0 7 -0.0520906 1
gene 2 4 6 1.5488 0 8 1.5488 1
gene 1 6 5 2.18019 0 72 2.18019 1
genomeend 21

/* Organism #22 Fitness: 0 Error: 0 */
genomestart 22
node 1 2 1 3
node 2 1 1 1
node 3 1 1 1
node 4 1 1 1
node 5 2 0 2
node 6 2 0 2
gene 2 1 5 1.1285 0 1 1.1285 1
gene 2 2 5 -0.845818 0 2 -0.845818 1
gene 3 3 5 2.01954 0 3 2.01954 1
gene 1 4 5 -5.63089 0 4 -5.63089 1
gene 2 1 6 0.798302 0 5 0.798302 1
gene 1 2 6 -3.8934 0 6 -3.8934 1
gene 1 3 6 0.799979 0 7 0.799979 1
gene 2 4 6 -2.3013 0 8 -2.3013 1
gene 1 6 5 0.0658196 0 72 0.0658196 1
genomeend 22

/* Organism #23 Fitness: 0 Error: 0 */
genomestart 23
node 1 2 1 3
node 2 1 1 1
node 3 1 1 1
node 4 1 1 1
node 5 2 0 2
node 6 2 0 2
gene 2 1 5 3.36549 0 1 3.36549 1
gene 2 2 5 0.323551 0 2 0.323551 1
gene 3 3 5 2.19226 0 3 2.19226 1
gene 1 4 5 -8 0 4 -8 1
gene 2 1 6 0.922756 0 5 0.922756 1
gene 1 2 6 -3.81484 0 6 -3.81484 1
gene 1 3 6 0.514888 0 7 0.514888 1
gene 2 4 6 -0.764393 0 8 -0.764393 1
gene 1 6 5 0.396248 0 72 0.396248 1
genomeend 23

/* Organism #24 Fitness: 0 Error: 0 */
genomestart 24
node 1 2 1 3
node 2 1 1 1
node 3 1 1 1
node 4 1 1 1
node 5 2 0 2
node 6 2 0 2
gene 2 1 5 2.76227 0 1 2.76227 1
gene 2 2 5 1.77941 0 2 1.77941 1
gene 3 3 5 1.82428 0 3 1.82428 1
gene 1 4 5 -7.13935 0 4 -7.13935 1
gene 2 1 6 2.3837 0 5 2.3837 1
gene 1 2 6 -2.58752 0 6 -2.58752 1
gene 1 3 6 0.971224 0 7 0.971224 1
gene 2 4 6 -3.25944 0 8 -3.25944 1
gene 1 6 5 -1.0111 0 72 -1.0111 1
genomeend 24

/* Organism #25 Fitness: 0 Error: 0 */
genomestart 25
node 1 2 1 3
node 2 1 1 1
node 3 1 1 1
node 4 1 1 1
node 5 2 0 2
node 6 2 0 2
gene 2 1 5 3.36549 0 1 3.36549 1
gene 2 2 5 0.323551 0 2 0.323551 1
gene 3 3 5 2.19226 0 3 2.19226 1
gene 1 4 5 -8 0 4 -8 1
gene 2 1 6 0.922756 0 5 0.922756 1
gene 1 2 6 -3.81484 0 6 -3.81484 1
gene 1 3 6 0.514888 0 7 0.514888 1
gene 2 4 6 -0.764393 0 8 -0.764393 1
gene 1 6 5 0.396248 0 72 0.396248 1
genomeend 25

/* Organism #26 Fitness: 0 Error: 0 */
genomestart 26
node 1 2 1 3
node 2 1 1 1
node 3 1 1 1
node 4 1 1 1
node 5 2 0 2
node 6 2 0 2
gene 2 1 5 2.00213 0 1 2.00213 1
gene 2 2 5 1.61832 0 2 1.61832 1
gene 3 3 5 3.53575 0 3 3.53575 1
gene 1 4 5 -1.08798 0 4 -1.08798 1
gene 2 1 6 0.515779 0 5 0.515779 1
gene 1 2 6 -3.81484 0 6 -3.81484 1
gene 1 3 6 0.648652 0 7 0.648652 1
gene 2 4 6 -2.13939 0 8 -2.13939 1
gene 1 6 5 0.0792233 0 72 0.0792233 1
genomeend 26

/* Organism #27 Fitness: 0 Error: 0 */
genomestart 27
node 1 2 1 3
node 2 1 1 1
node 3 1 1 1
node 4 1 1 1
node 5 2 0 2
node 6 2 0 2
gene 2 1 5 1.82603 0 1 1.82603 1
gene 2 2 5 2.38129 0 2 2.38129 1
gene 3 3 5 3.01092 0 3 3.01092 1
gene 1 4 5 -8 0 4 -8 1
gene 2 1 6 0.81707 0 5 0.81707 1
gene 1 2 6 -5.11834 0 6 -5.11834 1
gene 1 3 6 0.791597 0 7 0.791597 1
gene 2 4 6 0.575767 0 8 0.575767 1
gene 1 6 5 -0.276123 0 72 -0.276123 1
genomeend 27

/* Organism #28 Fitness: 0 Error: 0 */
genomestart 28
node 1 2 1 3
node 2 1 1 1
node 3 1 1 1
node 4 1 1 1
node 5 2 0 2
node 6 2 0 2
gene 2 1 5 3.34638 0 1 3.34638 1
gene 2 2 5 0.064187 0 2 0.064187 1
gene 3 3 5 1.78324 0 3 1.78324 1
gene 1 4 5 -6.27972 0 4 -6.27972 1
gene 2 1 6 1.81882 0 5 1.81882 1
gene 1 2 6 -5.19537 0 6 -5.19537 1
gene 1 3 6 -2.09316 0 7 -2.09316 1
gene 2 4 6 -1.93893 0 8 -1.93893 1
gene 1 6 5 -1.47064 0 72 -1.47064 1
genomeend 28

/* Organism #29 Fitness: 0 Error: 0 */
genomestart 29
node 1 2 1 3
node 2 1 1 1
node 3 1 1 1
node 4 1 1 1
node 5 2 0 2
node 6 2 0 2
gene 2 1 5 3.36549 0 1 3.36549 1
gene 2 2 5 0.323551 0 2 0.323551 1
gene 3 3 5 2.19226 0 3 2.19226 1
gene 1 4 5 -8 0 4 -8 1
gene 2 1 6 0.922756 0 5 0.922756 1
gene 1 2 6 -3.81484 0 6 -3.81484 1
gene 1 3 6 0.514888 0 7 0.514888 1
gene 2 4 6 -0.764393 0 8 -0.764393 1
gene 1 6 5 0.396248 0 72 0.396248 1
genomeend 29

/* Organism #30 Fitness: 0 Error: 0 */
genomestart 30
node 1 2 1 3
node 2 1 1 1
node 3 1 1 1
node 4 1 1 1
node 5 2 0 2
node 6 2 0 2
gene 2 1 5 5.18775 0 1 5.18775 1
gene 2 2 5 -0.875421 0 2 -0.875421 1
gene 3 3 5 0.987667 0 3 0.987667 1
gene 1 4 5 -8 0 4 -8 1
gene 2 1 6 1.70732 0 5 1.70732 1
gene 1 2 6 -5.57368 0 6 -5.57368 1
gene 1 3 6 -0.512246 0 7 -0.512246 1
gene 2 4 6 -2.77139 0 8 -2.77139 1
gene 1 6 5 1.28828 0 72 1.28828 1
genomeend 30

/* Organism #31 Fitness: 0 Error: 0 */
genomestart 31
node 1 2 1 3
node 2 1 1 1
node 3 1 1 1
node 4 1 1 1
node 5 2 0 2
node 6 2 0 2
gene 2 1 5 3.36549 0 1 3.36549 1
gene 2 2 5 0.323551 0 2 0.323551 1
gene 3 3 5 2.19226 0 3 2.19226 1
gene 1 4 5 -8 0 4 -8 1
gene 2 1 6 0.922756 0 5 0.922756 1
gene 1 2 6 -3.81484 0 6 -3.81484 1
gene 1 3 6 0.514888 0 7 0.514888 1
gene 2 4 6 -0.764393 0 8 -0.764393 1
gene 1 6 5 0.396248 0 72 0.396248 1
genomeend 31

/* Organism #32 Fitness: 0 Error: 0 */
genomestart 32
node 1 2 1 3
node 2 1 1 1
node 3 1 1 1
node 4 1 1 1
node 5 2 0 2
node 6 2 0 2
gene 2 1 5 4.91274 0 1 4.91274 1
gene 2 2 5 1.61111 0 2 1.61111 1
gene 3 3 5 1.57155 0 3 1.57155 1
gene 1 4 5 -6.25005 0 4 -6.25005 1
gene 2 1 6 2.43563 0 5 2.43563 1
gene 1 2 6 -4.25796 0 6 -4.25796 1
gene 1 3 6 2.90943 0 7 2.90943 1
gene 2 4 6 1.72784 0 8 1.72784 1
gene 1 6 5 1.29704 0 72 1.29704 1
genomeend 32

/* Organism #33 Fitness: 0 Error: 0 */
genomestart 33
node 1 2 1 3
node 2 1 1 1
node 3 1 1 1
node 4 1 1 1
node 5 2 0 2
node 6 2 0 2
gene 2 1 5 3.06511 0 1 3.06511 1
gene 2 2 5 0.128785 0 2 0.128785 1
gene 3 3 5 3.05897 0 3 3.05897 1
gene 1 4 5 -8 0 4 -8 1
gene 2 1 6 0.488902 0 5 0.488902 1
gene 1 2 6 -1.36245 0 6 -1.36245 1
gene 1 3 6 0.775022 0 7 0.775022 1
gene 2 4 6 -2.11039 0 8 -2.11039 1
gene 1 6 5 0.595547 0 72 0.595547 1
genomeend 33

/* Organism #34 Fitness: 0 Error: 0 */
genomestart 34
node 1 2 1 3
node 2 1 1 1
node 3 1 1 1
node 4 1 1 1
node 5 2 0 2
node 6 2 0 2
gene 2 1 5 1.46176 0 1 1.46176 1
gene 2 2 5 -1.88204 0 2 -1.88204 1
gene 3 3 5 0.226196 0 3 0.226196 1
gene 1 4 5 -6.28919 0 4 -6.28919 1
gene 2 1 6 2.14401 0 5 2.14401 1
gene 1 2 6 -4.07633 0 6 -4.07633 1
gene 1 3 6 0.220485 0 7 0.220485 1
gene 2 4 6 -0.178798 0 8 -0.178798 1
gene 1 6 5 -1.41726 0 72 -1.41726 1
genomeend 34

/* Organism #35 Fitness: 0 Error: 0 */
genomestart 35
node 1 2 1 3
node 2 1 1 1
node 3 1 1 1
node 4 1 1 1
node 5 2 0 2
node 6 2 0 2
gene 2 1 5 2.56464 0 1 2.56464 1
gene 2 2 5 1.16024 0 2 1.16024 1
gene 3 3 5 3.35099 0 3 3.35099 1
gene 1 4 5 -7.38149 0 4 -7.38149 1
gene 2 1 6 0.522901 0 5 0.522901 1
gene 1 2 6 -4.05241 0 6 -4.05241 1
gene 1 3 6 0.24817 0 7 0.24817 1
gene 2 4 6 0.192168 0 8 0.192168 1
gene 1 6 5 -1.88031 0 72 -1.88031 1
genomeend 35

/* Organism #36 Fitness: 0 Error: 0 */
genomestart 36
node 1 2 1 3
node 2 1 1 1
node 3 1 1 1
node 4 1 1 1
node 5 2 0 2
node 6 2 0 2
gene 2 1 5 2.01967 0 1 2.01967 1
gene 2 2 5 0.578753 0 2 0.578753 1
gene 3 3 5 3.88463 0 3 3.88463 1
gene 1 4 5 -8 0 4 -8 1
gene 2 1 6 0.922756 0 5 0.922756 1
gene 1 2 6 0.934798 0 6 0.934798 1
gene 1 3 6 0.808748 0 7 0.808748 1
gene 2 4 6 -2.01661 0 8 -2.01661 1
gene 1 6 5 2.59359 0 72 2.59359 1
genomeend 36

/* Organism #37 Fitness: 0 Error: 0 */
genomestart 37
node 1 2 1 3
node 2 1 1 1
node 3 1 1 1
node 4 1 1 1
node 5 2 0 2
node 6 2 0 2
gene 2 1 5 3.36549 0 1 3.36549 1
gene 2 2 5 0.323551 0 2 0.323551 1
gene 3 3 5 2.19226 0 3 2.19226 1
gene 1 4 5 -8 0 4 -8 1
gene 2 1 6 0.922756 0 5 0.922756 1
gene 1 2 6 -3.81484 0 6 -3.81484 1
gene 1 3 6 0.514888 0 7 0.514888 1
gene 2 4 6 -0.764393 0 8 -0.764393 1
gene 1 6 5 0.396248 0 72 0.396248 1
genomeend 37

/* Organism #38 Fitness: 0 Error: 0 */
genomestart 38
node 1 2 1 3
node 2 1 1 1
node 3 1 1 1
node 4 1 1 1
node 5 2 0 2
node 6 2 0 2
gene 2 1 5 3.36549 0 1 3.36549 1
gene 2 2 5 -0.829794 0 2 -0.829794 1
gene 3 3 5 2.18154 0 3 2.18154 1
gene 1 4 5 -7.9834 0 4 -7.9834 1
gene 2 1 6 -0.0647778 0 5 -0.0647778 1
gene 1 2 6 -1.78055 0 6 -1.78055 1
gene 1 3 6 0.000728229 0 7 0.000728229 1
gene 2 4 6 0.117458 0 8 0.117458 1
gene 1 6 5 -1.59127 0 72 -1.59127 1
genomeend 38

/* Organism #39 Fitness: 0 Error: 0 */
genomestart 39
node 1 2 1 3
node 2 1 1 1
node 3 1 1 1
node 4 1 1 1
node 5 2 0 2
node 6 2 0 2
gene 2 1 5 5.0746 0 1 5.0746 1
gene 2 2 5 -1.43304 0 2 -1.43304 1
gene 3 3 5 3.63148 0 3 3.63148 1
gene 1 4 5 -7.76037 0 4 -7.76037 1
gene 2 1 6 1.05595 0 5 1.05595 1
gene 1 2 6 -4.29915 0 6 -4.29915 1
gene 1 3 6 1.0052 0 7 1.0052 1
gene 2 4 6 -1.29478 0 8 -1.29478 1
gene 1 6 5 -1.939 0 72 -1.939 1
genomeend 39

/* Organism #40 Fitness: 0 Error: 0 */
genomestart 40
node 1 2 1 3
node 2 1 1 1
node 3 1 1 1
node 4 1 1 1
node 5 2 0 2
node 6 2 0 2
gene 2 1 5 3.36549 0 1 3.36549 1
gene 2 2 5 0.323551 0 2 0.323551 1
gene 3 3 5 2.19226 0 3 2.19226 1
gene 1 4 5 -8 0 4 -8 1
gene 2 1 6 0.922756 0 5 0.922756 1
gene 1 2 6 -3.81484 0 6 -3.81484 1
gene 1 3 6 0.514888 0 7 0.514888 1
gene 2 4 6 -0.764393 0 8 -0.764393 1
gene 1 6 5 0.396248 0 72 0.396248 1
genomeend 40

/* Organism #41 Fitness: 0 Error: 0 */
genomestart 41
node 1 2 1 3
node 2 1 1 1
node 3 1 1 1
node 4 1 1 1
node 5 2 0 2
node 6 2 0 2
gene 2 1 5 2.47659 0 1 2.47659 1
gene 2 2 5 0.365671 0 2 0.365671 1
gene 3 3 5 2.76909 0 3 2.76909 1
gene 1 4 5 -8 0 4 -8 1
gene 2 1 6 2.5913 0 5 2.5913 1
gene 1 2 6 -3.81484 0 6 -3.81484 1
gene 1 3 6 0.879955 0 7 0.879955 1
gene 2 4 6 -0.201545 0 8 -0.201545 1
gene 1 6 5 -0.222714 0 72 -0.222714 1
genomeend 41

/* Organism #42 Fitness: 0 Error: 0 */
genomestart 42
node 1 2 1 3
node 2 1 1 1
node 3 1 1 1
node 4 1 1 1
node 5 2 0 2
node 6 2 0 2
gene 2 1 5 3.36549 0 1 3.36549 1
gene 2 2 5 0.323551 0 2 0.323551 1
gene 3 3 5 2.19226 0 3 2.19226 1
gene 1 4 5 -8 0 4 -8 1
gene 2 1 6 0.922756 0 5 0.922756 1
gene 1 2 6 -3.81484 0 6 -3.81484 1
gene 1 3 6 0.514888 0 7 0.514888 1
gene 2 4 6 -0.764393 0 8 -0.764393 1
gene 1 6 5 0.396248 0 72 0.396248 1
genomeend 42

/* Organism #43 Fitness: 0 Error: 0 */
genomestart 43
node 1 2 1 3
node 2 1 1 1
node 3 1 1 1
node 4 1 1 1
node 5 2 0 2
node 6 2 0 2
gene 2 1 5 5.20713 0 1 5.20713 1
gene 2 2 5 -2.07263 0 2 -2.07263 1
gene 3 3 5 4.20514 0 3 4.20514 1
gene 1 4 5 -8 0 4 -8 1
gene 2 1 6 0.113937 0 5 0.113937 1
gene 1 2 6 -3.18588 0 6 -3.18588 1
gene 1 3 6 3.00304 0 7 3.00304 1
gene 2 4 6 -1.14475 0 8 -1.14475 1
gene 1 6 5 -1.90863 0 72 -1.90863 1
genomeend 43

/* Organism #44 Fitness: 0 Error: 0 */
genomestart 44
node 1 2 1 3
node 2 1 1 1
node 3 1 1 1
node 4 1 1 1
node 5 2 0 2
node 6 2 0 2
gene 2 1 5 2.20154 0 1 2.20154 1
gene 2 2 5 0.323551 0 2 0.323551 1
gene 3 3 5 3.54293 0 3 3.54293 1
gene 1 4 5 -8 0 4 -8 1
gene 2 1 6 1.86527 0 5 1.86527 1
gene 1 2 6 -4.13097 0 6 -4.13097 1
gene 1 3 6 1.40466 0 7 1.40466 1
gene 2 4 6 -2.70013 0 8 -2.70013 1
gene 1 6 5 1.95623 0 72 1.95623 1
genomeend 44

/* Organism #45 Fitness: 0 Error: 0 */
genomestart 45
node 1 2 1 3
node 2 1 1 1
node 3 1 1 1
node 4 1 1 1
node 5 2 0 2
node 6 2 0 2
gene 2 1 5 4.34228 0 1 4.34228 1
gene 2 2 5 -1.98607 0 2 -1.98607 1
gene 3 3 5 4.53398 0 3 4.53398 1
gene 1 4 5 -8 0 4 -8 1
gene 2 1 6 1.0221 0 5 1.0221 1
gene 1 2 6 -5.48498 0 6 -5.48498 1
gene 1 3 6 -0.487494 0 7 -0.487494 1
gene 2 4 6 0.0602641 0 8 0.0602641 1
gene 1 6 5 -0.881041 0 72 -0.881041 1
genomeend 45

/* Organism #46 Fitness: 0 Error: 0 */
genomestart 46
node 1 2 1 3
node 2 1 1 1
node 3 1 1 1
node 4 1 1 1
node 5 2 0 2
node 6 2 0 2
gene 2 1 5 3.36549 0 1 3.36549 1
gene 2 2 5 1.45034 0 2 1.45034 1
gene 3 3 5 2.19226 0 3 2.19226 1
gene 1 4 5 -8 0 4 -8 1
gene 2 1 6 2.16047 0 5 2.16047 1
gene 1 2 6 -5.63628 0 6 -5.63628 1
gene 1 3 6 0.3086 0 7 0.3086 1
gene 2 4 6 -0.318001 0 8 -0.318001 1
gene 1 6 5 -1.5939 0 72 -1.5939 1
genomeend 46

/* Organism #47 Fitness: 0 Error: 0 */
genomestart 47
node 1 2 1 3
node 2 1 1 1
node 3 1 1 1
node 4 1 1 1
node 5 2 0 2
node 6 2 0 2
gene 2 1 5 3.36549 0 1 3.36549 1
gene 2 2 5 0.323551 0 2 0.323551 1
gene 3 3 5 2.19226 0 3 2.19226 1
gene 1 4 5 -8 0 4 -8 1
gene 2 1 6 0.922756 0 5 0.922756 1
gene 1 2 6 -3.81484 0 6 -3.81484 1
gene 1 3 6 0.514888 0 7 0.514888 1
gene 2 4 6 -0.764393 0 8 -0.764393 1
gene 1 6 5 0.396248 0 72 0.396248 1
genomeend 47

/* Organism #48 Fitness: 0 Error: 0 */
genomestart 48
node 1 2 1 3
node 2 1 1 1
node 3 1 1 1
node 4 1 1 1
node 5 2 0 2
node 6 2 0 2
gene 2 1 5 2.5361 0 1 2.5361 1
gene 2 2 5 0.903018 0 2 0.903018 1
gene 3 3 5 1.62996 0 3 1.62996 1
gene 1 4 5 -7.62212 0 4 -7.62212 1
gene 2 1 6 0.962124 0 5 0.962124 1
gene 1 2 6 -3.85021 0 6 -3.85021 1
gene 1 3 6 0.0109667 0 7 0.0109667 1
gene 2 4 6 -2.30776 0 8 -2.30776 1
gene 1 6 5 1.69278 0 72 1.69278 1
genomeend 48

/* Organism #49 Fitness: 0 Error: 0 */
genomestart 49
node 1 2 1 3
node 2 1 1 1
node 3 1 1 1
node 4 1 1 1
node 5 2 0 2
node 6 2 0 2
gene 2 1 5 5.32977 0 1 5.32977 1
gene 2 2 5 -1.04203 0 2 -1.04203 1
gene 3 3 5 3.67921 0 3 3.67921 1
gene 1 4 5 -8 0 4 -8 1
gene 2 1 6 0.645877 0 5 0.645877 1
gene 1 2 6 -3.4143 0 6 -3.4143 1
gene 1 3 6 0.446163 0 7 0.446163 1
gene 2 4 6 1.40664 0 8 1.40664 1
gene 1 6 5 -0.788853 0 72 -0.788853 1
genomeend 49

/* Organism #50 Fitness: 0 Error: 0 */
genomestart 50
node 1 2 1 3
node 2 1 1 1
node 3 1 1 1
node 4 1 1 1
node 5 2 0 2
node 6 2 0 2
gene 2 1 5 3.87209 0 1 3.87209 1
gene 2 2 5 -1.00819 0 2 -1.00819 1
gene 3 3 5 2.10888 0 3 2.10888 1
gene 1 4 5 -8 0 4 -8 1
gene 2 1 6 2.83281 0 5 2.83281 1
gene 1 2 6 -2.56829 0 6 -2.56829 1
gene 1 3 6 -0.0690283 0 7 -0.0690283 1
gene 2 4 6 -0.419033 0 8 -0.419033 1
gene 1 6 5 -1.43584 0 72 -1.43584 1
genomeend 50

/* Organism #51 Fitness: 0 Error: 0 */
genomestart 51
node 1 2 1 3
node 2 1 1 1
node 3 1 1 1
node 4 1 1 1
node 5 2 0 2
node 6 2 0 2
gene 2 1 5 2.93724 0 1 2.93724 1
gene 2 2 5 -0.310866 0 2 -0.310866 1
gene 3 3 5 0.747135 0 3 0.747135 1
gene 1 4 5 -6.24887 0 4 -6.24887 1
gene 2 1 6 -1.13131 0 5 -1.13131 1
gene 1 2 6 -3.43523 0 6 -3.43523 1
gene 1 3 6 2.90178 0 7 2.90178 1
gene 2 4 6 -2.52001 0 8 -2.52001 1
gene 1 6 5 2.31991 0 72 2.31991 1
genomeend 51

/* Organism #52 Fitness: 0 Error: 0 */
genomestart 52
node 1 2 1 3
node 2 1 1 1
node 3 1 1 1
node 4 1 1 1
node 5 2 0 2
node 6 2 0 2
gene 2 1 5 5.62249 0 1 5.62249 1
gene 2 2 5 1.76484 0 2 1.76484 1
gene 3 3 5 2.96386 0 3 2.96386 1
gene 1 4 5 -7.13116 0 4 -7.13116 1
gene 2 1 6 3.36996 0 5 3.36996 1
gene 1 2 6 -3.81484 0 6 -3.81484 1
gene 1 3 6 -0.734649 0 7 -0.734649 1
gene 2 4 6 -1.87679 0 8 -1.87679 1
gene 1 6 5 -1.73331 0 72 -1.73331 1
genomeend 52

/* Organism #53 Fitness: 0 Error: 0 */
genomestart 53
node 1 1 1 3
node 2 1 1 1
node 3 1 1 1
node 4 1 1 1
node 5 2 0 2
node 6 2 0 2
gene 2 1 5 1.1406 0 1 1.1406 1
gene 2 2 5 -0.226045 0 2 -0.226045 1
gene 3 3 5 0.540432 0 3 0.540432 1
gene 1 4 5 -5.6686 0 4 -5.6686 1
gene 2 1 6 0.372656 0 5 0.372656 1
gene 1 2 6 -3.2744 0 6 -3.2744 1
gene 1 3 6 2.20986 0 7 2.20986 1
gene 2 4 6 0.7525 0 8 0.7525 1
gene 1 6 5 -0.274332 0 72 -0.274332 1
genomeend 53

/* Organism #54 Fitness: 0 Error: 0 */
genomestart 54
node 1 2 1 3
node 2 1 1 1
node 3 1 1 1
node 4 1 1 1
node 5 2 0 2
node 6 2 0 2
gene 2 1 5 5.30181 0 1 5.30181 1
gene 2 2 5 2.74931 0 2 2.74931 1
gene 3 3 5 2.19226 0 3 2.19226 1
gene 1 4 5 -8 0 4 -8 1
gene 2 1 6 3.36125 0 5 3.36125 1
gene 1 2 6 -4.19577 0 6 -4.19577 1
gene 1 3 6 -0.0675118 0 7 -0.0675118 1
gene 2 4 6 0.0152941 0 8 0.0152941 1
gene 1 6 5 -1.68914 0 72 -1.68914 1
genomeend 54

/* Organism #55 Fitness: 0 Error: 0 */
genomestart 55
node 1 2 1 3
node 2 1 1 1
node 3 1 1 1
node 4 1 1 1
node 5 2 0 2
node 6 2 0 2
gene 2 1 5 3.36549 0 1 3.36549 1
gene 2 2 5 0.323551 0 2 0.323551 1
gene 3 3 5 2.19226 0 3 2.19226 1
gene 1 4 5 -8 0 4 -8 1
gene 2 1 6 0.922756 0 5 0.922756 1
gene 1 2 6 -3.81484 0 6 -3.81484 1
gene 1 3 6 0.514888 0 7 0.514888 1
gene 2 4 6 -0.764393 0 8 -0.764393 1
gene 1 6 5 0.396248 0 72 0.396248 1
genomeend 55

/* Organism #56 Fitness: 0 Error: 0 */
genomestart 56
node 1 2 1 3
node 2 1 1 1
node 3 1 1 1
node 4 1 1 1
node 5 2 0 2
node 6 2 0 2
gene 2 1 5 1.69231 0 1 1.69231 1
gene 2 2 5 2.8024 0 2 2.8024 1
gene 3 3 5 2.12136 0 3 2.12136 1
gene 1 4 5 -6.73664 0 4 -6.73664 1
gene 2 1 6 3.21431 0 5 3.21431 1
gene 1 2 6 -3.5268 0 6 -3.5268 1
gene 1 3 6 0.44173 0 7 0.44173 1
gene 2 4 6 -3.05052 0 8 -3.05052 1
gene 1 6 5 1.98597 0 72 1.98597 1
genomeend 56

/* Organism #57 Fitness: 0 Error: 0 */
genomestart 57
node 1 3 1 3
node 2 1 1 1
node 3 1 1 1
node 4 1 1 1
node 5 2 0 2
node 6 2 0 2
gene 2 1 5 1.95944 0 1 1.95944 1
gene 2 2 5 1.27854 0 2 1.27854 1
gene 3 3 5 1.98774 0 3 1.98774 1
gene 1 4 5 -8 0 4 -8 1
gene 2 1 6 0.971823 0 5 0.971823 1
gene 1 2 6 -4.99942 0 6 -4.99942 1
gene 1 3 6 2.06584 0 7 2.06584 1
gene 2 4 6 1.37534 0 8 1.37534 1
gene 1 6 5 -1.25545 0 72 -1.25545 1
genomeend 57

/* Organism #58 Fitness: 0 Error: 0 */
genomestart 58
node 1 2 1 3
node 2 1 1 1
node 3 1 1 1
node 4 1 1 1
node 5 2 0 2
node 6 2 0 2
gene 2 1 5 3.27696 0 1 3.27696 1
gene 2 2 5 1.12977 0 2 1.12977 1
gene 3 3 5 2.1757 0 3 2.1757 1
gene 1 4 5 -8 0 4 -8 1
gene 2 1 6 0.999075 0 5 0.999075 1
gene 1 2 6 -6.09966 0 6 -6.09966 1
gene 1 3 6 -1.84829 0 7 -1.84829 1
gene 2 4 6 -1.94611 0 8 -1.94611 1
gene 1 6 5 2.18355 0 72 2.18355 1
genomeend 58

/* Organism #59 Fitness: 0 Error: 0 */
genomestart 59
node 1 2 1 3
node 2 1 1 1
node 3 1 1 1
node 4 1 1 1
node 5 2 0 2
node 6 2 0 2
gene 2 1 5 2.88366 0 1 2.88366 1
gene 2 2 5 -0.699658 0 2 -0.699658 1
gene 3 3 5 1.03529 0 3 1.03529 1
gene 1 4 5 -8 0 4 -8 1
gene 2 1 6 1.86444 0 5 1.86444 1
gene 1 2 6 -2.64576 0 6 -2.64576 1
gene 1 3 6 1.35349 0 7 1.35349 1
gene 2 4 6 -1.87094 0 8 -1.87094 1
gene 1 6 5 -1.8501 0 72 -1.8501 1
genomeend 59

/* Organism #60 Fitness: 0 Error: 0 */
genomestart 60
node 1 2 1 3
node 2 1 1 1
node 3 1 1 1
node 4 1 1 1
node 5 2 0 2
node 6 2 0 2
gene 2 1 5 3.36549 0 1 3.36549 1
gene 2 2 5 0.323551 0 2 0.323551 1
gene 3 3 5 2.19226 0 3 2.19226 1
gene 1 4 5 -8 0 4 -8 1
gene 2 1 6 0.922756 0 5 0.922756 1
gene 1 2 6 -3.81484 0 6 -3.81484 1
gene 1 3 6 0.514888 0 7 0.514888 1
gene 2 4 6 -0.764393 0 8 -0.764393 1
gene 1 6 5 0.396248 0 72 0.396248 1
genomeend 60

/* Organism #61 Fitness: 0 Error: 0 */
genomestart 61
node 1 2 1 3
node 2 1 1 1
node 3 1 1 1
node 4 1 1 1
node 5 2 0 2
node 6 2 0 2
gene 2 1 5 5.67902 0 1 5.67902 1
gene 2 2 5 1.45163 0 2 1.45163 1
gene 3 3 5 1.51164 0 3 1.51164 1
gene 1 4 5 -7.21133 0 4 -7.21133 1
gene 2 1 6 0.459079 0 5 0.459079 1
gene 1 2 6 -4.72768 0 6 -4.72768 1
gene 1 3 6 1.23948 0 7 1.23948 1
gene 2 4 6 -2.34609 0 8 -2.34609 1
gene 1 6 5 2.77369 0 72 2.77369 1
genomeend 61

/* Organism #62 Fitness: 0 Error: 0 */
genomestart 62
node 1 2 1 3
node 2 1 1 1
node 3 1 1 1
node 4 1 1 1
node 5 2 0 2
node 6 2 0 2
gene 2 1 5 3.36549 0 1 3.36549 1
gene 2 2 5 0.323551 0 2 0.323551 1
gene 3 3 5 2.19226 0 3 2.19226 1
gene 1 4 5 -8 0 4 -8 1
gene 2 1 6 0.922756 0 5 0.922756 1
gene 1 2 6 -3.81484 0 6 -3.81484 1
gene 1 3 6 0.514888 0 7 0.514888 1
gene 2 4 6 -0.764393 0 8 -0.764393 1
gene 1 6 5 0.396248 0 72 0.396248 1
genomeend 62

/* Organism #63 Fitness: 0 Error: 0 */
genomestart 63
node 1 2 1 3
node 2 1 1 1
node 3 1 1 1
node 4 1 1 1
node 5 2 0 2
node 6 2 0 2
gene 2 1 5 2.36485 0 1 2.36485 1
gene 2 2 5 0.323551 0 2 0.323551 1
gene 3 3 5 2.19226 0 3 2.19226 1
gene 1 4 5 -7.84932 0 4 -7.84932 1
gene 2 1 6 0.690477 0 5 0.690477 1
gene 1 2 6 -0.751589 0 6 -0.751589 1
gene 1 3 6 -0.205965 0 7 -0.205965 1
gene 2 4 6 -3.01596 0 8 -3.01596 1
gene 1 6 5 -1.37085 0 72 -1.37085 1
genomeend 63

/* Organism #64 Fitness: 0 Error: 0 */
genomestart 64
node 1 2 1 3
node 2 1 1 1
node 3 1 1 1
node 4 1 1 1
node 5 2 0 2
node 6 2 0 2
gene 2 1 5 3.36549 0 1 3.36549 1
gene 2 2 5 0.323551 0 2 0.323551 1
gene 3 3 5 2.19226 0 3 2.19226 1
gene 1 4 5 -8 0 4 -8 1
gene 2 1 6 0.922756 0 5 0.922756 1
gene 1 2 6 -3.81484 0 6 -3.81484 1
gene 1 3 6 0.514888 0 7 0.514888 1
gene 2 4 6 -0.764393 0 8 -0.764393 1
gene 1 6 5 0.396248 0 72 0.396248 1
genomeend 64

/* Organism #65 Fitness: 0 Error: 0 */
genomestart 65
node 1 2 1 3
node 2 1 1 1
node 3 1 1 1
node 4 1 1 1
node 5 2 0 2
node 6 2 0 2
gene 3 1 5 3.36549 0 1 3.36549 1
gene 2 2 5 0.323551 0 2 0.323551 1
gene 3 3 5 1.88158 0 3 1.88158 1
gene 1 4 5 0.131121 0 4 0.131121 1
gene 2 1 6 -0.395839 0 5 -0.395839 1
gene 1 2 6 -3.81484 0 6 -3.81484 1
gene 1 3 6 -0.00656006 0 7 -0.00656006 1
gene 2 4 6 0.555275 0 8 0.555275 1
gene 1 6 5 -1.45253 0 72 -1.45253 1
genomeend 65

/* Organism #66 Fitness: 0 Error: 0 */
genomestart 66
node 1 2 1 3
node 2 1 1 1
node 3 1 1 1
node 4 1 1 1
node 5 2 0 2
node 6 2 0 2
gene 2 1 5 1.49729 0 1 1.49729 1
gene 2 2 5 0.950687 0 2 0.950687 1
gene 3 3 5 1.20274 0 3 1.20274 1
gene 1 4 5 -6.38619 0 4 -6.38619 1
gene 2 1 6 2.37988 0 5 2.37988 1
gene 1 2 6 -2.7368 0 6 -2.7368 1
gene 1 3 6 1.92804 0 7 1.92804 1
gene 2 4 6 -1.97404 0 8 -1.97404 1
gene 1 6 5 0.380645 0 72 0.380645 1
genomeend 66

/* Organism #67 Fitness: 0 Error: 0 */
genomestart 67
node 1 2 1 3
node 2 1 1 1
node 3 1 1 1
node 4 1 1 1
node 5 2 0 2
node 6 2 0 2
gene 2 1 5 2.9773 0 1 2.9773 1
gene 2 2 5 2.15423 0 2 2.15423 1
gene 3 3 5 -0.230253 0 3 -0.230253 1
gene 1 4 5 -6.12511 0 4 -6.12511 1
gene 2 1 6 -0.592092 0 5 -0.592092 1
gene 1 2 6 -2.78608 0 6 -2.78608 1
gene 1 3 6 0.537258 0 7 0.537258 1
gene 2 4 6 0.0372961 0 8 0.0372961 1
gene 1 6 5 -1.85729 0 72 -1.85729 1
genomeend 67

/* Organism #68 Fitness: 0 Error: 0 */
genomestart 68
node 1 2 1 3
node 2 1 1 1
node 3 1 1 1
node 4 1 1 1
node 5 2 0 2
node 6 2 0 2
gene 2 1 5 3.36549 0 1 3.36549 1
gene 2 2 5 0.323551 0 2 0.323551 1
gene 3 3 5 2.19226 0 3 2.19226 1
gene 1 4 5 -8 0 4 -8 1
gene 2 1 6 0.922756 0 5 0.922756 1
gene 1 2 6 -3.81484 0 6 -3.81484 1
gene 1 3 6 0.514888 0 7 0.514888 1
gene 2 4 6 -0.764393 0 8 -0.764393 1
gene 1 6 5 0.396248 0 72 0.396248 1
genomeend 68

/* Organism #69 Fitness: 0 Error: 0 */
genomestart 69
node 1 2 1 3
node 2 1 1 1
node 3 1 1 1
node 4 1 1 1
node 5 2 0 2
node 6 2 0 2
gene 2 1 5 1.68037 0 1 1.68037 1
gene 2 2 5 -1.7981 0 2 -1.7981 1
gene 3 3 5 3.11032 0 3 3.11032 1
gene 1 4 5 -6.62266 0 4 -6.62266 1
gene 2 1 6 0.109891 0 5 0.109891 1
gene 1 2 6 -5.92025 0 6 -5.92025 1
gene 1 3 6 0.458347 0 7 0.458347 1
gene 2 4 6 -2.85005 0 8 -2.85005 1
gene 1 6 5 0.976241 0 72 0.976241 1
genomeend 69

/* Organism #70 Fitness: 0 Error: 0 */
genomestart 70
node 1 2 1 3
node 2 1 1 1
node 3 1 1 1
node 4 1 1 1
node 5 2 0 2
node 6 2 0 2
gene 2 1 5 3.54178 0 1 3.54178 1
gene 2 2 5 2.57853 0 2 2.57853 1
gene 3 3 5 3.72526 0 3 3.72526 1
gene 1 4 5 -8 0 4 -8 1
gene 2 1 6 -0.546427 0 5 -0.546427 1
gene 1 2 6 -4.81592 0 6 -4.81592 1
gene 1 3 6 2.4897 0 7 2.4897 1
gene 2 4 6 -0.589698 0 8 -0.589698 1
gene 1 6 5 -0.439468 0 72 -0.439468 1
genomeend 70

/* Organism #71 Fitness: 0 Error: 0 */
genomestart 71
node 1 2 1 3
node 2 1 1 1
node 3 1 1 1
node 4 1 1 1
node 5 2 0 2
node 6 2 0 2
gene 2 1 5 2.15047 0 1 2.15047 1
gene 2 2 5 2.74879 0 2 2.74879 1
gene 3 3 5 1.30321 0 3 1.30321 1
gene 1 4 5 -6.94364 0 4 -6.94364 1
gene 2 1 6 2.56754 0 5 2.56754 1
gene 1 2 6 -3.6668 0 6 -3.6668 1
gene 1 3 6 1.44599 0 7 1.44599 1
gene 2 4 6 -3.10274 0 8 -3.10274 1
gene 1 6 5 -1.9727 0 72 -1.9727 1
genomeend 71

/* Organism #72 Fitness: 0 Error: 0 */
genomestart 72
node 1 2 1 3
node 2 1 1 1
node 3 1 1 1
node 4 2 1 1
node 5 2 0 2
node 6 2 0 2
gene 2 1 5 1.82866 0 1 1.82866 1
gene 2 2 5 -1.69528 0 2 -1.69528 1
gene 3 3 5 2.15428 0 3 2.15428 1
gene 1 4 5 -6.83077 0 4 -6.83077 1
gene 1 1 6 0.134974 0 5 0.134974 1
gene 1 2 6 -2.93871 0 6 -2.93871 1
gene 1 3 6 -0.774619 0 7 -0.774619 1
gene 2 4 6 1.34634 0 8 1.34634 1
gene 1 6 5 1.12256 0 72 1.12256 1
genomeend 72

/* Organism #73 Fitness: 0 Error: 0 */
genomestart 73
node 1 2 1 3
node 2 1 1 1
node 3 1 1 1
node 4 1 1 1
node 5 2 0 2
node 6 2 0 2
gene 2 1 5 4.29386 0 1 4.29386 1
gene 2 2 5 2.41468 0 2 2.41468 1
gene 3 3 5 1.5679 0 3 1.5679 1
gene 1 4 5 -8 0 4 -8 1
gene 2 1 6 2.43764 0 5 2.43764 1
gene 1 2 6 -2.25603 0 6 -2.25603 1
gene 1 3 6 -1.03761 0 7 -1.03761 1
gene 2 4 6 1.61859 0 8 1.61859 1
gene 1 6 5 1.36931 0 72 1.36931 1
genomeend 73

/* Organism #74 Fitness: 0 Error: 0 */
genomestart 74
node 1 2 1 3
node 2 1 1 1
node 3 1 1 1
node 4 1 1 1
node 5 2 0 2
node 6 2 0 2
gene 2 1 5 5.56559 0 1 5.56559 1
gene 2 2 5 -2.14207 0 2 -2.14207 1
gene 3 3 5 1.74432 0 3 1.74432 1
gene 1 4 5 -8 0 4 -8 1
gene 2 1 6 -0.201981 0 5 -0.201981 1
gene 1 2 6 -1.4549 0 6 -1.4549 1
gene 1 3 6 1.04482 0 7 1.04482 1
gene 2 4 6 1.53963 0 8 1.53963 1
gene 1 6 5 -1.33772 0 72 -1.33772 1
genomeend 74

/* Organism #75 Fitness: 0 Error: 0 */
genomestart 75
node 1 2 1 3
node 2 1 1 1
node 3 1 1 1
node 4 1 1 1
node 5 2 0 2
node 6 2 0 2
gene 2 1 5 2.26598 0 1 2.26598 1
gene 2 2 5 -1.62297 0 2 -1.62297 1
gene 3 3 5 2.4961 0 3 2.4961 1
gene 1 4 5 -6.20131 0 4 -6.20131 1
gene 2 1 6 0.149087 0 5 0.149087 1
gene 1 2 6 -4.85988 0 6 -4.85988 1
gene 1 3 6 -1.45582 0 7 -1.45582 1
gene 2 4 6 -2.11405 0 8 -2.11405 1
gene 1 6 5 -1.1498 0 72 -1.1498 1
genomeend 75

/* Organism #76 Fitness: 0 Error: 0 */
genomestart 76
node 1 2 1 3
node 2 1 1 1
node 3 1 1 1
node 4 1 1 1
node 5 2 0 2
node 6 2 0 2
gene 2 1 5 3.36549 0 1 3.36549 1
gene 2 2 5 0.323551 0 2 0.323551 1
gene 3 3 5 2.19226 0 3 2.19226 1
gene 1 4 5 -8 0 4 -8 1
gene 2 1 6 0.922756 0 5 0.922756 1
gene 1 2 6 -3.81484 0 6 -3.81484 1
gene 1 3 6 0.514888 0 7 0.514888 1
gene 2 4 6 -0.764393 0 8 -0.764393 1
gene 1 6 5 0.396248 0 72 0.396248 1
genomeend 76

/* Organism #77 Fitness: 0 Error: 0 */
genomestart 77
node 1 2 1 3
node 2 1 1 1
node 3 1 1 1
node 4 1 1 1
node 5 2 0 2
node 6 2 0 2
gene 2 1 5 2.77785 0 1 2.77785 1
gene 2 2 5 0.585037 0 2 0.585037 1
gene 3 3 5 3.83686 0 3 3.83686 1
gene 1 4 5 -8 0 4 -8 1
gene 2 1 6 3.19214 0 5 3.19214 1
gene 1 2 6 -4.08009 0 6 -4.08009 1
gene 1 3 6 2.68287 0 7 2.68287 1
gene 2 4 6 -1.96749 0 8 -1.96749 1
gene 1 6 5 -1.40963 0 72 -1.40963 1
genomeend 77

/* Organism #78 Fitness: 0 Error: 0 */
genomestart 78
node 1 2 1 3
node 2 1 1 1
node 3 1 1 1
node 4 1 1 1
node 5 2 0 2
node 6 2 0 2
gene 2 1 5 2.3423 0 1 2.3423 1
gene 2 2 5 -1.11844 0 2 -1.11844 1
gene 3 3 5 2.19226 0 3 2.19226 1
gene 1 4 5 -8 0 4 -8 1
gene 2 1 6 2.28085 0 5 2.28085 1
gene 1 2 6 -4.67426 0 6 -4.67426 1
gene 1 3 6 -0.869571 0 7 -0.869571 1
gene 2 4 6 -1.0666 0 8 -1.0666 1
gene 1 6 5 -1.82772 0 72 -1.82772 1
genomeend 78

/* Organism #79 Fitness: 0 Error: 0 */
genomestart 79
node 1 2 1 3
node 2 1 1 1
node 3 1 1 1
node 4 1 1 1
node 5 2 0 2
node 6 2 0 2
gene 2 1 5 4.82764 0 1 4.82764 1
gene 2 2 5 0.610377 0 2 0.610377 1
gene 3 3 5 4.61427 0 3 4.61427 1
gene 1 4 5 -6.77702 0 4 -6.77702 1
gene 2 1 6 2.55183 0 5 2.55183 1
gene 1 2 6 -3.09241 0 6 -3.09241 1
gene 1 3 6 1.20935 0 7 1.20935 1
gene 2 4 6 -1.4347 0 8 -1.4347 1
gene 1 6 5 2.37764 0 72 2.37764 1
genomeend 79

/* Organism #80 Fitness: 0 Error: 0 */
genomestart 80
node 1 2 1 3
node 2 1 1 1
node 3 1 1 1
node 4 1 1 1
node 5 2 0 2
node 6 2 0 2
gene 2 1 5 3.76854 0 1 3.76854 1
gene 2 2 5 0.323551 0 2 0.323551 1
gene 3 3 5 4.11932 0 3 4.11932 1
gene 1 4 5 -8 0 4 -8 1
gene 2 1 6 -0.749718 0 5 -0.749718 1
gene 1 2 6 -6.07491 0 6 -6.07491 1
gene 1 3 6 2.23098 0 7 2.23098 1
gene 2 4 6 1.18407 0 8 1.18407 1
gene 1 6 5 -1.02591 0 72 -1.02591 1
genomeend 80

/* Organism #81 Fitness: 0 Error: 0 */
genomestart 81
node 1 2 1 3
node 2 1 1 1
node 3 1 1 1
node 4 1 1 1
node 5 2 0 2
node 6 2 0 2
gene 2 1 5 1.27232 0 1 1.27232 1
gene 2 2 5 -2.14894 0 2 -2.14894 1
gene 3 3 5 3.84659 0 3 3.84659 1
gene 1 4 5 -6.72142 0 4 -6.72142 1
gene 2 1 6 -0.757331 0 5 -0.757331 1
gene 1 2 6 -3.82443 0 6 -3.82443 1
gene 1 3 6 0.992395 0 7 0.992395 1
gene 2 4 6 -1.58895 0 8 -1.58895 1
gene 1 6 5 2.05821 0 72 2.05821 1
genomeend 81

/* Species #760 : (Size 4) (AF 0) (Age 1)  */


/* Organism #82 Fitness: 0 Error: 0 */
genomestart 82
node 1 2 1 3
node 2 1 1 1
node 3 1 1 1
node 4 1 1 1
node 5 2 0 2
node 6 2 0 2
gene 2 1 5 0.950361 0 1 0.950361 1
gene 2 2 5 0.538314 0 2 0.538314 1
gene 3 3 5 0.316465 0 3 0.316465 1
gene 1 4 5 -1.27165 0 4 -1.27165 1
gene 2 1 6 0.385589 0 5 0.385589 1
gene 1 2 6 -5.72609 0 6 -5.72609 1
gene 1 3 6 1.04226 0 7 1.04226 1
gene 2 4 6 -0.646899 0 8 -0.646899 1
gene 1 6 5 0.634986 0 72 0.634986 1
genomeend 82

/* Organism #83 Fitness: 0 Error: 0 */
genomestart 83
node 1 2 1 3
node 2 1 1 1
node 3 1 1 1
node 4 1 1 1
node 5 2 0 2
node 6 2 0 2
gene 2 1 5 1.18129 0 1 1.18129 1
gene 2 2 5 1.59385 0 2 1.59385 1
gene 3 3 5 0.0499435 0 3 0.0499435 1
gene 1 4 5 -2.46352 0 4 -2.46352 1
gene 2 1 6 1.33369 0 5 1.33369 1
gene 1 2 6 -5.93134 0 6 -5.93134 1
gene 1 3 6 2.04043 0 7 2.04043 1
gene 2 4 6 0.933209 0 8 0.933209 1
gene 1 6 5 -0.155599 0 72 -0.155599 1
genomeend 83

/* Organism #84 Fitness: 0 Error: 0 */
genomestart 84
node 1 2 1 3
node 2 1 1 1
node 3 1 1 1
node 4 1 1 1
node 5 2 0 2
node 6 2 0 2
gene 2 1 5 2.43816 0 1 2.43816 1
gene 2 2 5 -0.640642 0 2 -0.640642 1
gene 3 3 5 1.60147 0 3 1.60147 1
gene 1 4 5 -1.08614 0 4 -1.08614 1
gene 2 1 6 0.922756 0 5 0.922756 1
gene 1 2 6 -5.50587 0 6 -5.50587 1
gene 1 3 6 0.514888 0 7 0.514888 1
gene 2 4 6 -0.913945 0 8 -0.913945 1
gene 1 6 5 -2.13213 0 72 -2.13213 1
genomeend 84

/* Organism #85 Fitness: 0 Error: 0 */
genomestart 85
node 1 2 1 3
node 2 1 1 1
node 3 1 1 1
node 4 1 1 1
node 5 3 0 2
node 6 2 0 2
gene 2 1 5 4.53122 0 1 4.53122 1
gene 2 2 5 -0.487279 0 2 -0.487279 1
gene 3 3 5 2.17757 0 3 2.17757 1
gene 1 4 5 0.0243287 0 4 0.0243287 1
gene 2 1 6 0.538921 0 5 0.538921 1
gene 1 2 6 -5.32019 0 6 -5.32019 1
gene 1 3 6 0.110177 0 7 0.110177 1
gene 2 4 6 -0.517381 0 8 -0.517381 1
gene 1 6 5 -1.69735 0 72 -1.69735 1
genomeend 85

/* Species #761 : (Size 2) (AF 0) (Age 1)  */


/* Organism #86 Fitness: 0 Error: 0 */
genomestart 86
node 1 2 1 3
node 2 1 1 1
node 3 1 1 1
node 4 1 1 1
node 5 2 0 2
node 6 2 0 2
gene 2 1 5 0.984969 0 1 0.984969 1
gene 2 2 5 -2.11101 0 2 -2.11101 1
gene 3 3 5 2.19226 0 3 2.19226 1
gene 1 4 5 -7.56388 0 4 -7.56388 1
gene 2 1 6 -0.991375 0 5 -0.991375 1
gene 1 2 6 -5.85555 0 6 -5.85555 1
gene 1 3 6 2.64336 0 7 2.64336 1
gene 2 4 6 -0.219905 0 8 -0.219905 1
gene 1 6 5 -1.58441 0 72 -1.58441 1
genomeend 86

/* Organism #87 Fitness: 0 Error: 0 */
genomestart 87
node 1 2 1 3
node 2 1 1 1
node 3 1 1 1
node 4 1 1 1
node 5 2 0 2
node 6 2 0 2
gene 2 1 5 0.350211 0 1 0.350211 1
gene 2 2 5 -1.91858 0 2 -1.91858 1
gene 3 3 5 3.15891 0 3 3.15891 1
gene 1 4 5 -8 0 4 -8 1
gene 2 1 6 -0.139486 0 5 -0.139486 1
gene 1 2 6 -5.50521 0 6 -5.50521 1
gene 1 3 6 -1.98091 0 7 -1.98091 1
gene 2 4 6 -0.579274 0 8 -0.579274 1
gene 1 6 5 2.87558 0 72 2.87558 1
genomeend 87

/* Species #762 : (Size 2) (AF 0) (Age 1)  */


/* Organism #88 Fitness: 0 Error: 0 */
genomestart 88
node 1 2 1 3
node 2 1 1 1
node 3 1 1 1
node 4 1 1 1
node 5 2 0 2
node 6 2 0 2
gene 2 1 5 3.4438 0 1 3.4438 1
gene 2 2 5 -0.803207 0 2 -0.803207 1
gene 3 3 5 2.07174 0 3 2.07174 1
gene 1 4 5 -0.586714 0 4 -0.586714 1
gene 2 1 6 -1.51942 0 5 -1.51942 1
gene 1 2 6 -4.45022 0 6 -4.45022 1
gene 1 3 6 -2.34986 0 7 -2.34986 1
gene 2 4 6 0.514747 0 8 0.514747 1
gene 1 6 5 1.71536 0 72 1.71536 1
genomeend 88

/* Organism #89 Fitness: 0 Error: 0 */
genomestart 89
node 1 2 1 3
node 2 1 1 1
node 3 1 1 1
node 4 1 1 1
node 5 2 0 2
node 6 2 0 2
gene 2 1 5 3.36549 0 1 3.36549 1
gene 2 2 5 -0.770125 0 2 -0.770125 1
gene 3 3 5 3.69901 0 3 3.69901 1
gene 1 4 5 1.78816 0 4 1.78816 1
gene 1 1 6 1.82572 0 5 1.82572 1
gene 1 2 6 -4.01837 0 6 -4.01837 1
gene 1 3 6 -0.0480702 0 7 -0.0480702 1
gene 2 4 6 0.926951 0 8 0.926951 1
gene 1 6 5 0.427712 0 72 0.427712 1
genomeend 89

/* Species #763 : (Size 3) (AF 0) (Age 1)  */


/* Organism #90 Fitness: 0 Error: 0 */
genomestart 90
node 1 2 1 3
node 2 1 1 1
node 3 1 1 1
node 4 1 1 1
node 5 2 0 2
node 6 2 0 2
gene 2 1 5 5.57658 0 1 5.57658 1
gene 2 2 5 -0.852164 0 2 -0.852164 1
gene 3 3 5 4.49983 0 3 4.49983 1
gene 1 4 5 -6.14552 0 4 -6.14552 1
gene 2 1 6 2.08162 0 5 2.08162 1
gene 1 2 6 -5.19148 0 6 -5.19148 1
gene 1 3 6 1.31229 0 7 1.31229 1
gene 2 4 6 0.297096 0 8 0.297096 1
gene 1 6 5 -1.55412 0 72 -1.55412 1
genomeend 90

/* Organism #91 Fitness: 0 Error: 0 */
genomestart 91
node 1 2 1 3
node 2 1 1 1
node 3 1 1 1
node 4 1 1 1
node 5 2 0 2
node 6 2 0 2
gene 2 1 5 5.61942 0 1 5.61942 1
gene 2 2 5 -2.16299 0 2 -2.16299 1
gene 3 3 5 1.30848 0 3 1.30848 1
gene 1 4 5 -6.20511 0 4 -6.20511 1
gene 2 1 6 2.5223 0 5 2.5223 1
gene 1 2 6 -5.67157 0 6 -5.67157 1
gene 1 3 6 -1.71646 0 7 -1.71646 1
gene 2 4 6 -0.511524 0 8 -0.511524 1
gene 1 6 5 -1.81195 0 72 -1.81195 1
genomeend 91

/* Organism #92 Fitness: 0 Error: 0 */
genomestart 92
node 1 2 1 3
node 2 1 1 1
node 3 1 1 1
node 4 1 1 1
node 5 2 0 2
node 6 2 0 2
gene 2 1 5 5.50023 0 1 5.50023 1
gene 2 2 5 -0.81651 0 2 -0.81651 1
gene 3 3 5 3.61079 0 3 3.61079 1
gene 3 4 5 -6.65213 0 4 -6.65213 1
gene 2 1 6 2.63836 0 5 2.63836 1
gene 1 2 6 -6.15262 0 6 -6.15262 1
gene 1 3 6 0.300908 0 7 0.300908 1
gene 2 4 6 1.04293 0 8 1.04293 1
gene 1 6 5 2.78572 0 72 2.78572 1
genomeend 92

/* Species #764 : (Size 3) (AF 0) (Age 1)  */


/* Organism #93 Fitness: 0 Error: 0 */
genomestart 93
node 1 2 1 3
node 2 1 1 1
node 3 1 1 1
node 4 1 1 1
node 5 2 0 2
node 6 2 0 2
gene 2 1 5 2.13215 0 1 2.13215 1
gene 2 2 5 -0.971038 0 2 -0.971038 1
gene 3 3 5 -0.178973 0 3 -0.178973 1
gene 1 4 5 -7.16223 0 4 -7.16223 1
gene 2 1 6 -1.45858 0 5 -1.45858 1
gene 1 2 6 2.31458 0 6 2.31458 1
gene 1 3 6 1.35337 0 7 1.35337 1
gene 2 4 6 -0.774612 0 8 -0.774612 1
gene 1 6 5 1.83009 0 72 1.83009 1
genomeend 93

/* Organism #94 Fitness: 0 Error: 0 */
genomestart 94
node 1 2 1 3
node 2 1 1 1
node 3 1 1 1
node 4 1 1 1
node 5 1 0 2
node 6 2 0 2
gene 2 1 5 2.39302 0 1 2.39302 1
gene 2 2 5 -0.556468 0 2 -0.556468 1
gene 3 3 5 0.642794 0 3 0.642794 1
gene 1 4 5 -6.18002 0 4 -6.18002 1
gene 2 1 6 -0.772397 0 5 -0.772397 1
gene 1 2 6 -2.30072 0 6 -2.30072 1
gene 1 3 6 2.5571 0 7 2.5571 1
gene 2 4 6 0.652357 0 8 0.652357 1
gene 1 6 5 2.80255 0 72 2.80255 1
genomeend 94

/* Organism #95 Fitness: 0 Error: 0 */
genomestart 95
node 1 2 1 3
node 2 1 1 1
node 3 1 1 1
node 4 1 1 1
node 5 2 0 2
node 6 2 0 2
gene 2 1 5 1.74963 0 1 1.74963 1
gene 2 2 5 1.01786 0 2 1.01786 1
gene 3 3 5 -1.40872 0 3 -1.40872 1
gene 1 4 5 -7.12511 0 4 -7.12511 1
gene 2 1 6 -0.0148507 0 5 -0.0148507 1
gene 1 2 6 0.940571 0 6 0.940571 1
gene 1 3 6 1.8281 0 7 1.8281 1
gene 2 4 6 -2.77243 0 8 -2.77243 1
gene 1 6 5 2.00298 0 72 2.00298 1
genomeend 95

/* Species #765 : (Size 1) (AF 0) (Age 1)  */


/* Organism #96 Fitness: 0 Error: 0 */
genomestart 96
node 1 2 1 3
node 2 1 1 1
node 3 1 1 1
node 4 1 1 1
node 5 2 0 2
node 6 2 0 2
gene 2 1 5 1.61748 0 1 1.61748 1
gene 2 2 5 1.83783 0 2 1.83783 1
gene 3 3 5 -0.221915 0 3 -0.221915 1
gene 1 4 5 -6.35683 0 4 -6.35683 1
gene 2 1 6 1.30245 0 5 1.30245 1
gene 1 2 6 -3.32946 0 6 -3.32946 1
gene 1 3 6 -0.671932 0 7 -0.671932 1
gene 2 4 6 -2.79386 0 8 -2.79386 1
gene 1 6 5 2.76117 0 72 2.76117 1
genomeend 96

/* Species #766 : (Size 1) (AF 0) (Age 1)  */


/* Organism #97 Fitness: 0 Error: 0 */
genomestart 97
node 1 2 1 3
node 2 1 1 1
node 3 1 1 1
node 4 1 1 1
node 5 2 0 2
node 6 2 0 2
gene 2 1 5 -1.5062 0 1 -1.5062 1
gene 2 2 5 -2.13266 0 2 -2.13266 1
gene 3 3 5 2.06985 0 3 2.06985 1
gene 1 4 5 -8 0 4 -8 1
gene 2 1 6 0.766406 0 5 0.766406 1
gene 1 2 6 2.28389 0 6 2.28389 1
gene 1 3 6 1.78623 0 7 1.78623 1
gene 2 4 6 -1.81944 0 8 -1.81944 1
gene 1 6 5 -2.03174 0 72 -2.03174 1
genomeend 97

/* Species #767 : (Size 1) (AF 0) (Age 1)  */


/* Organism #98 Fitness: 0 Error: 0 */
genomestart 98
node 1 2 1 3
node 2 1 1 1
node 3 1 1 1
node 4 1 1 1
node 5 2 0 2
node 6 2 0 2
gene 2 1 5 -0.526327 0 1 -0.526327 1
gene 2 2 5 -2.3588 0 2 -2.3588 1
gene 3 3 5 -2.14478 0 3 -2.14478 1
gene 1 4 5 -8 0 4 -8 1
gene 2 1 6 1.08457 0 5 1.08457 1
gene 1 2 6 -3.81484 0 6 -3.81484 1
gene 1 3 6 -0.467162 0 7 -0.467162 1
gene 2 4 6 -2.78914 0 8 -2.78914 1
gene 1 6 5 -1.53298 0 72 -1.53298 1
genomeend 98

/* Species #768 : (Size 1) (AF 0) (Age 1)  */


/* Organism #99 Fitness: 0 Error: 0 */
genomestart 99
node 1 2 1 3
node 2 1 1 1
node 3 1 1 1
node 4 1 1 1
node 5 2 0 2
node 6 2 0 2
gene 2 1 5 0.933127 0 1 0.933127 1
gene 2 2 5 -1.78018 0 2 -1.78018 1
gene 3 3 5 3.28252 0 3 3.28252 1
gene 1 4 5 -6.91323 0 4 -6.91323 1
gene 2 1 6 3.17141 0 5 3.17141 1
gene 1 2 6 -1.82717 0 6 -1.82717 1
gene 1 3 6 1.16885 0 7 1.16885 1
gene 2 4 6 -1.81167 0 8 -1.81167 1
gene 1 6 5 1.85229 0 72 1.85229 1
genomeend 99
