
/* Species #445 : (Size 12) (AF 54.1667) (Age 14)  */


/* Organism #0 Fitness: 0 Error: 0 */
genomestart 0
trait 1 0.179586 0.893586 0.569003 0 0 0.402085 0.0458676 0 
trait 2 0 0 0 0.270962 0 0 0.969702 0 
trait 3 0.3 0 0 0.39743 0 0.346381 0.115144 0 
node 1 3 1 3
node 2 3 1 1
node 3 3 1 1
node 4 2 1 1
node 5 3 0 2
node 6 3 0 2
gene 1 1 5 5.37938 0 1 5.37938 1
gene 3 2 5 -4.67223 0 2 -4.67223 1
gene 2 3 5 -4.6657 0 3 -4.6657 1
gene 1 4 5 -3.48755 0 4 -3.48755 1
gene 1 1 6 -2.5645 0 5 -2.5645 1
gene 1 2 6 -0.302013 0 6 -0.302013 1
gene 3 3 6 -8 0 7 -8 1
gene 1 4 6 8 0 8 8 1
gene 1 6 5 -4.90881 0 23 -4.90881 1
gene 3 5 5 -2.4066 1 74 -2.4066 1
gene 2 5 6 -3.86095 1 102 -3.86095 1
genomeend 0

/* Organism #1 Fitness: 84 Error: 0 */
genomestart 1
trait 1 0.179586 0.893586 0.569003 0 0 0.402085 0.0458676 0 
trait 2 0.05 0 0 0.203222 0 0 0.727276 0 
trait 3 0.3 0 0 0.39743 0 0.346381 0.115144 0 
node 1 3 1 3
node 2 3 1 1
node 3 3 1 1
node 4 2 1 1
node 5 3 0 2
node 6 3 0 2
gene 1 1 5 6.07166 0 1 6.07166 1
gene 3 2 5 -6.24898 0 2 -6.24898 1
gene 2 3 5 -6.56208 0 3 -6.56208 1
gene 1 4 5 -2.48444 0 4 -2.48444 1
gene 1 1 6 -4.24947 0 5 -4.24947 1
gene 1 2 6 1.55203 0 6 1.55203 1
gene 3 3 6 -7.78727 0 7 -7.78727 1
gene 1 4 6 6.19935 0 8 6.19935 1
gene 1 6 5 -3.92685 0 23 -3.92685 1
gene 3 5 5 0.548996 1 74 0.548996 1
gene 2 5 6 -3.31726 1 102 -3.31726 1
genomeend 1

/* Organism #2 Fitness: 0 Error: 0 */
genomestart 2
trait 1 0.179586 0.893586 0.569003 0 0 0.402085 0.0458676 0 
trait 2 0 0 0 0.270962 0 0 0.969702 0 
trait 3 0.3 0 0 0.39743 0 0.346381 0.115144 0 
node 1 3 1 3
node 2 3 1 1
node 3 3 1 1
node 4 2 1 1
node 5 3 0 2
node 6 3 0 2
gene 1 1 5 5.27362 0 1 5.27362 1
gene 3 2 5 -6.68849 0 2 -6.68849 1
gene 2 3 5 -6.65237 0 3 -6.65237 1
gene 1 4 5 -5.71846 0 4 -5.71846 1
gene 1 1 6 -0.344522 0 5 -0.344522 1
gene 1 2 6 1.28576 0 6 1.28576 1
gene 3 3 6 -5.86894 0 7 -5.86894 1
gene 1 4 6 8 0 8 8 1
gene 1 6 5 -6.0107 0 23 -6.0107 1
gene 3 5 5 -3.74453 1 74 -3.74453 1
gene 2 5 6 -3.92621 1 102 -3.92621 1
genomeend 2

/* Organism #3 Fitness: -6 Error: 0 */
genomestart 3
trait 1 0.179586 0.893586 0.569003 0 0 0.402085 0.0458676 0 
trait 2 0 0 0 0.270962 0 0 0.969702 0 
trait 3 0.3 0 0 0.39743 0 0.346381 0.115144 0 
node 1 3 1 3
node 2 3 1 1
node 3 3 1 1
node 4 2 1 1
node 5 3 0 2
node 6 3 0 2
gene 1 1 5 7.17294 0 1 7.17294 1
gene 3 2 5 -4.17701 0 2 -4.17701 1
gene 2 3 5 -3.59168 0 3 -3.59168 1
gene 1 4 5 -1.69189 0 4 -1.69189 1
gene 1 1 6 -2.5645 0 5 -2.5645 1
gene 1 2 6 -2.59316 0 6 -2.59316 1
gene 3 3 6 -8 0 7 -8 1
gene 1 4 6 7.81415 0 8 7.81415 1
gene 1 6 5 -4.9145 0 23 -4.9145 1
gene 3 5 5 1.45826 1 74 1.45826 1
gene 2 5 6 -2.36709 1 102 -2.36709 1
genomeend 3

/* Organism #4 Fitness: 0 Error: 0 */
genomestart 4
trait 1 0.179586 0.893586 0.569003 0 0 0.402085 0.0458676 0 
trait 2 0.1 0 0 0.135481 0 0 0.484851 0 
trait 3 0.3 0 0 0.39743 0 0.346381 0.115144 0 
node 1 3 1 3
node 2 3 1 1
node 3 3 1 1
node 4 2 1 1
node 5 3 0 2
node 6 3 0 2
gene 1 1 5 4.9366 0 1 4.9366 1
gene 3 2 5 -7.94534 0 2 -7.94534 1
gene 2 3 5 -4.90884 0 3 -4.90884 1
gene 1 4 5 -4.19102 0 4 -4.19102 1
gene 1 1 6 -3.15757 0 5 -3.15757 1
gene 1 2 6 1.14669 0 6 1.14669 1
gene 3 3 6 -6.29934 0 7 -6.29934 1
gene 1 4 6 6.42256 0 8 6.42256 1
gene 1 6 5 -2.25883 0 23 -2.25883 1
gene 3 5 5 -2.18367 1 74 -2.18367 1
gene 2 5 6 -4.82928 1 102 -4.82928 1
genomeend 4

/* Organism #5 Fitness: 0 Error: 0 */
genomestart 5
trait 1 0.179586 0.893586 0.569003 0 0 0.402085 0.0458676 0 
trait 2 0 0 0 0.270962 0 0 0.969702 0 
trait 3 0.3 0 0 0.39743 0 0.346381 0.115144 0 
node 1 3 1 3
node 2 3 1 1
node 3 3 1 1
node 4 2 1 1
node 5 3 0 2
node 6 3 0 2
gene 1 1 5 5.46074 0 1 5.46074 1
gene 3 2 5 -2.88208 0 2 -2.88208 1
gene 2 3 5 -6.05594 0 3 -6.05594 1
gene 1 4 5 -4.41594 0 4 -4.41594 1
gene 1 1 6 -3.73669 0 5 -3.73669 1
gene 1 2 6 -2.20018 0 6 -2.20018 1
gene 3 3 6 -8 0 7 -8 1
gene 1 4 6 6.04686 0 8 6.04686 1
gene 1 6 5 -2.78913 0 23 -2.78913 1
gene 3 5 5 -2.4066 1 74 -2.4066 1
gene 2 5 6 -3.86095 1 102 -3.86095 1
genomeend 5

/* Organism #6 Fitness: 87 Error: 0 */
genomestart 6
trait 1 0.179586 0.893586 0.569003 0 0 0.402085 0.0458676 0 
trait 2 0.05 0 0 0.203222 0 0 0.727276 0 
trait 3 0.3 0 0 0.39743 0 0.346381 0.115144 0 
node 1 3 1 3
node 2 3 1 1
node 3 3 1 1
node 4 2 1 1
node 5 3 0 2
node 6 3 0 2
gene 1 1 5 5.60925 0 1 5.60925 1
gene 3 2 5 -6.03603 0 2 -6.03603 1
gene 2 3 5 -4.11455 0 3 -4.11455 1
gene 1 4 5 -3.38012 0 4 -3.38012 1
gene 1 1 6 -3.41746 0 5 -3.41746 1
gene 1 2 6 -0.7441 0 6 -0.7441 1
gene 3 3 6 -7.81838 0 7 -7.81838 1
gene 1 4 6 7.39452 0 8 7.39452 1
gene 1 6 5 -4.6948 0 23 -4.6948 1
gene 3 5 5 -1.67735 1 74 -1.67735 1
gene 2 5 6 -3.31726 1 102 -3.31726 1
genomeend 6

/* Organism #7 Fitness: 310 Error: 0 */
genomestart 7
trait 1 0.179586 0.893586 0.569003 0 0 0.402085 0.0458676 0 
trait 2 0.1 0 0 0.135481 0 0 0.484851 0 
trait 3 0.3 0 0 0.39743 0 0.346381 0.115144 0 
node 1 3 1 3
node 2 3 1 1
node 3 3 1 1
node 4 2 1 1
node 5 3 0 2
node 6 3 0 2
gene 1 1 5 5.49705 0 1 5.49705 1
gene 3 2 5 -8 0 2 -8 1
gene 2 3 5 -4.81259 0 3 -4.81259 1
gene 1 4 5 -4.94588 0 4 -4.94588 1
gene 1 1 6 -3.43747 0 5 -3.43747 1
gene 1 2 6 -2.27559 0 6 -2.27559 1
gene 3 3 6 -8 0 7 -8 1
gene 1 4 6 8 0 8 8 1
gene 1 6 5 -5.0939 0 23 -5.0939 1
gene 3 5 5 -1.23185 1 74 -1.23185 1
gene 2 5 6 -2.77358 1 102 -2.77358 1
genomeend 7

/* Organism #8 Fitness: 0 Error: 0 */
genomestart 8
trait 1 0.179586 0.893586 0.569003 0 0 0.402085 0.0458676 0 
trait 2 0.05 0 0 0.203222 0 0 0.727276 0 
trait 3 0.3 0 0 0.39743 0 0.346381 0.115144 0 
node 1 3 1 3
node 2 3 1 1
node 3 3 1 1
node 4 2 1 1
node 5 3 0 2
node 6 3 0 2
gene 1 1 5 4.77816 0 1 4.77816 1
gene 3 2 5 -2.6261 0 2 -2.6261 1
gene 2 3 5 -3.02537 0 3 -3.02537 1
gene 1 4 5 -1.63625 0 4 -1.63625 1
gene 1 1 6 -2.35807 0 5 -2.35807 1
gene 1 2 6 -2.9786 0 6 -2.9786 1
gene 3 3 6 -5.43601 0 7 -5.43601 1
gene 1 4 6 7.09777 0 8 7.09777 1
gene 1 6 5 -3.68233 0 23 -3.68233 1
gene 3 5 5 -2.35801 1 74 -2.35801 1
gene 2 5 6 -2.77358 1 102 -2.77358 1
genomeend 8

/* Organism #9 Fitness: 88 Error: 0 */
genomestart 9
trait 1 0.179586 0.893586 0.569003 0 0 0.402085 0.0458676 0 
trait 2 0.05 0 0 0.203222 0 0 0.727276 0 
trait 3 0.3 0 0 0.39743 0 0.346381 0.115144 0 
node 1 3 1 3
node 2 3 1 1
node 3 3 1 1
node 4 2 1 1
node 5 3 0 2
node 6 3 0 2
gene 1 1 5 5.60925 0 1 5.60925 1
gene 3 2 5 -6.03603 0 2 -6.03603 1
gene 2 3 5 -4.11455 0 3 -4.11455 1
gene 1 4 5 -3.38012 0 4 -3.38012 1
gene 1 1 6 -3.41746 0 5 -3.41746 1
gene 1 2 6 -0.7441 0 6 -0.7441 1
gene 3 3 6 -7.81838 0 7 -7.81838 1
gene 1 4 6 7.39452 0 8 7.39452 1
gene 1 6 5 -4.6948 0 23 -4.6948 1
gene 3 5 5 -1.67735 1 74 -1.67735 1
gene 2 5 6 -3.31726 1 102 -3.31726 1
genomeend 9

/* Organism #10 Fitness: 0 Error: 0 */
genomestart 10
trait 1 0.179586 0.893586 0.569003 0 0 0.402085 0.0458676 0 
trait 2 0 0 0 0.270962 0 0 0.969702 0 
trait 3 0.3 0 0 0.39743 0 0.346381 0.115144 0 
node 1 3 1 3
node 2 3 1 1
node 3 3 1 1
node 4 2 1 1
node 5 3 0 2
node 6 3 0 2
gene 1 1 5 4.4536 0 1 4.4536 1
gene 3 2 5 -2.78874 0 2 -2.78874 1
gene 2 3 5 -3.27094 0 3 -3.27094 1
gene 1 4 5 -0.574479 0 4 -0.574479 1
gene 1 1 6 -2.3474 0 5 -2.3474 1
gene 1 2 6 -0.35492 0 6 -0.35492 1
gene 3 3 6 -8 0 7 -8 1
gene 1 4 6 6.27402 0 8 6.27402 1
gene 1 6 5 -5.61133 0 23 -5.61133 1
gene 3 5 5 -0.836605 1 74 -0.836605 1
gene 2 5 6 -2.80779 1 102 -2.80779 1
genomeend 10

/* Organism #11 Fitness: 87 Error: 0 */
genomestart 11
trait 1 0.139793 0.446793 0.284502 0 0 0.201042 0.0229338 0 
trait 2 0.34189 0.011151 0 0.365817 0 0 0.593713 0.00357252 
trait 3 0.225 0 0 0.198715 0.157191 0.17319 0.0575719 0 
node 1 3 1 3
node 2 3 1 1
node 3 3 1 1
node 4 2 1 1
node 5 3 0 2
node 6 3 0 2
gene 1 1 5 6.26494 0 1 6.26494 1
gene 1 2 5 -6.33612 0 2 -6.33612 1
gene 2 3 5 -3.68684 0 3 -3.68684 1
gene 1 4 5 -1.46481 0 4 -1.46481 1
gene 1 1 6 -3.93892 0 5 -3.93892 1
gene 1 2 6 0.303703 0 6 0.303703 1
gene 3 3 6 -4.89044 0 7 -4.89044 1
gene 1 4 6 4.63487 0 8 4.63487 1
gene 1 6 5 -4.90881 0 23 -4.90881 1
gene 3 5 5 -2.4066 1 74 -2.4066 1
gene 2 5 6 -3.86095 1 102 -3.86095 1
genomeend 11

/* Species #457 : (Size 2) (AF 151.5) (Age 14)  */


/* Organism #12 Fitness: 0 Error: 0 */
genomestart 12
trait 1 0 0 0 0.761746 0 0.0227195 0 0 
trait 2 0.2 0 0 0 0 0 0 0 
trait 3 0.15 0 0 0 0.314381 0 0 0 
node 1 3 1 3
node 2 3 1 1
node 3 3 1 1
node 4 3 1 1
node 5 3 0 2
node 6 3 0 2
node 17 1 0 0
gene 2 1 5 3.05099 0 1 3.05099 1
gene 2 2 5 -1.29843 0 2 -1.29843 1
gene 1 3 5 -0.564347 0 3 -0.564347 1
gene 1 4 5 1.4816 0 4 1.4816 1
gene 1 1 6 -6.08962 0 5 -6.08962 1
gene 1 2 6 5.66735 0 6 5.66735 1
gene 3 3 6 3.37595 0 7 3.37595 1
gene 1 4 6 6.18583 0 8 6.18583 1
gene 1 5 5 1.84054 1 48 1.84054 1
gene 1 5 17 0.252494 1 110 0.252494 1
gene 1 17 5 5.93667 0 111 5.93667 1
genomeend 12

/* Organism #13 Fitness: 303 Error: 0 */
genomestart 13
trait 1 0 0 0 0.761746 0 0.0227195 0 0 
trait 2 0.2 0 0 0 0 0 0 0 
trait 3 0.15 0 0 0 0.314381 0 0 0 
node 1 3 1 3
node 2 3 1 1
node 3 3 1 1
node 4 3 1 1
node 5 3 0 2
node 6 3 0 2
node 17 1 0 0
gene 2 1 5 3.63345 0 1 3.63345 1
gene 2 2 5 -2.72932 0 2 -2.72932 1
gene 1 3 5 -1.18306 0 3 -1.18306 1
gene 1 4 5 -0.970862 0 4 -0.970862 1
gene 1 1 6 -7.64142 0 5 -7.64142 1
gene 1 2 6 4.66809 0 6 4.66809 1
gene 3 3 6 1.98733 0 7 1.98733 1
gene 1 4 6 4.09501 0 8 4.09501 1
gene 1 5 5 1.44755 1 48 1.44755 1
gene 1 5 17 0.143837 1 110 0.143837 1
gene 1 17 5 3.30878 0 111 3.30878 1
genomeend 13

/* Species #544 : (Size 1) (AF 0) (Age 10)  */


/* Organism #14 Fitness: 0 Error: 0 */
genomestart 14
trait 1 0.623665 0 0 0.0843662 0 0 0 0.939929 
trait 2 0.100463 0 0 0.73031 0 0 0 0 
trait 3 0.15 0 0 0 0.314381 0 0 0 
node 1 3 1 3
node 2 3 1 1
node 3 3 1 1
node 4 3 1 1
node 5 1 0 2
node 6 3 0 2
gene 1 1 5 -1.27379 0 1 -1.27379 1
gene 1 2 5 -0.937014 0 2 -0.937014 1
gene 1 3 5 0.326857 0 3 0.326857 1
gene 1 4 5 1.47647 0 4 1.47647 1
gene 1 1 6 -5.93261 0 5 -5.93261 1
gene 1 2 6 3.48696 0 6 3.48696 1
gene 3 3 6 -3.84305 0 7 -3.84305 1
gene 1 4 6 1.35462 0 8 1.35462 1
gene 1 5 5 1.40344 1 48 1.40344 1
gene 2 5 6 1.02181 0 85 1.02181 1
gene 3 6 6 -4.09426 1 93 -4.09426 1
genomeend 14

/* Species #574 : (Size 1) (AF 0) (Age 9)  */


/* Organism #15 Fitness: 0 Error: 0 */
genomestart 15
trait 1 0.1 0 0 0 0 0 0 0 
trait 2 0.683779 0.0223019 0 0.460672 0 0 0.217724 0.00714504 
trait 3 0.15 0 0 0 0.314381 0 0 0 
node 1 3 1 3
node 2 3 1 1
node 3 3 1 1
node 4 2 1 1
node 5 3 0 2
node 6 3 0 2
gene 2 1 5 6.70065 0 1 6.70065 1
gene 1 2 5 -5.71151 0 2 -5.71151 1
gene 1 3 5 0.48179 0 3 0.48179 1
gene 1 4 5 -3.6565 0 4 -3.6565 1
gene 1 1 6 -5.66704 0 5 -5.66704 1
gene 1 2 6 2.80901 0 6 2.80901 1
gene 3 3 6 -2.79311 0 7 -2.79311 1
gene 1 4 6 1.66125 0 8 1.66125 1
gene 3 5 5 0.754171 1 48 0.754171 1
gene 2 5 6 0.859298 0 94 0.859298 1
genomeend 15

/* Species #594 : (Size 4) (AF 23.75) (Age 8)  */


/* Organism #16 Fitness: 0 Error: 0 */
genomestart 16
trait 1 0.1 0 0 0 0 0 0 0 
trait 2 0.100463 0 0 0.73031 0 0 0 0 
trait 3 0.15 0 0 0 0.314381 0 0 0 
node 1 3 1 3
node 2 3 1 1
node 3 3 1 1
node 4 3 1 1
node 5 3 0 2
node 6 3 0 2
gene 2 1 5 5.83424 0 1 5.83424 1
gene 1 2 5 -4.91563 0 2 -4.91563 1
gene 1 3 5 -1.04788 0 3 -1.04788 1
gene 1 4 5 -5.76942 0 4 -5.76942 1
gene 2 1 6 -6.76671 0 5 -6.76671 1
gene 1 2 6 3.61659 0 6 3.61659 1
gene 3 3 6 0.264543 0 7 0.264543 1
gene 1 4 6 -1.30448 0 8 -1.30448 1
gene 1 5 5 1.97375 1 48 1.97375 1
gene 2 5 6 0.398837 0 85 0.398837 1
gene 3 6 6 1.40921 1 93 1.40921 1
genomeend 16

/* Organism #17 Fitness: 7 Error: 0 */
genomestart 17
trait 1 0.1 0 0 0 0.507558 0.941999 0 0 
trait 2 0.100463 0 0 0.73031 0 0 0 0 
trait 3 0.15 0 0 0 0.314381 0 0 0 
node 1 3 1 3
node 2 3 1 1
node 3 3 1 1
node 4 3 1 1
node 5 3 0 2
node 6 3 0 2
gene 2 1 5 6.01974 0 1 6.01974 1
gene 1 2 5 -5.8543 0 2 -5.8543 1
gene 1 3 5 -1.07172 0 3 -1.07172 1
gene 1 4 5 -4.24811 0 4 -4.24811 1
gene 2 1 6 -6.25511 0 5 -6.25511 1
gene 1 2 6 4.21004 0 6 4.21004 1
gene 3 3 6 -0.247396 0 7 -0.247396 1
gene 1 4 6 -1.14898 0 8 -1.14898 1
gene 1 5 5 2.87849 1 48 2.87849 1
gene 2 5 6 0.946912 0 85 0.946912 1
gene 3 6 6 0.621486 1 93 0.621486 1
genomeend 17

/* Organism #18 Fitness: 88 Error: 0 */
genomestart 18
trait 1 0.1 0 0 0 0 0 0 0 
trait 2 0.100463 0 0 0.73031 0 0 0 0 
trait 3 0.15 0 0 0 0.314381 0 0 0 
node 1 3 1 3
node 2 3 1 1
node 3 3 1 1
node 4 3 1 1
node 5 3 0 2
node 6 3 0 2
gene 2 1 5 5.71225 0 1 5.71225 1
gene 1 2 5 -5.82878 0 2 -5.82878 1
gene 1 3 5 0.393065 0 3 0.393065 1
gene 1 4 5 -5.90548 0 4 -5.90548 1
gene 2 1 6 -4.87581 0 5 -4.87581 1
gene 1 2 6 2.03384 0 6 2.03384 1
gene 3 3 6 2.29788 0 7 2.29788 1
gene 1 4 6 -1.04009 0 8 -1.04009 1
gene 1 5 5 -0.291482 1 48 -0.291482 1
gene 2 5 6 -0.913643 0 85 -0.913643 1
gene 1 6 6 -0.365996 1 93 -0.365996 1
genomeend 18

/* Organism #19 Fitness: 0 Error: 0 */
genomestart 19
trait 1 0.1 0 0 0 0 0 0 0 
trait 2 0.100463 0 0 0.73031 0 0 0 0 
trait 3 0.15 0 0 0 0.314381 0 0 0 
node 1 3 1 3
node 2 3 1 1
node 3 3 1 1
node 4 3 1 1
node 5 3 0 2
node 6 3 0 2
gene 2 1 5 6.04848 0 1 6.04848 1
gene 1 2 5 -3.2832 0 2 -3.2832 1
gene 1 3 5 -0.646315 0 3 -0.646315 1
gene 1 4 5 -4.06522 0 4 -4.06522 1
gene 2 1 6 -7.04999 0 5 -7.04999 1
gene 1 2 6 2.65095 0 6 2.65095 1
gene 3 3 6 1.63085 0 7 1.63085 1
gene 1 4 6 -1.29802 0 8 -1.29802 1
gene 1 5 5 0.592446 1 48 0.592446 1
gene 2 5 6 -1.37991 0 85 -1.37991 1
gene 3 6 6 1.40921 1 93 1.40921 1
genomeend 19

/* Species #624 : (Size 6) (AF 28.3333) (Age 6)  */


/* Organism #20 Fitness: 0 Error: 0 */
genomestart 20
trait 1 0 0 0.23478 0.186566 0 0.0227195 0 0.928253 
trait 2 0.2 0 0 0 0 0 0 0 
trait 3 0.50247 0 0 0 0.314381 0 0 0 
node 1 3 1 3
node 2 3 1 1
node 3 1 1 1
node 4 3 1 1
node 5 3 0 2
node 6 3 0 2
node 17 1 0 0
gene 2 1 5 3.44361 0 1 3.44361 1
gene 1 2 5 -3.97859 0 2 -3.97859 1
gene 1 3 5 -3.92184 0 3 -3.92184 1
gene 1 4 5 -1.87789 0 4 -1.87789 1
gene 1 1 6 -8 0 5 -8 1
gene 1 2 6 4.24452 0 6 4.24452 1
gene 3 3 6 2.67199 0 7 2.67199 1
gene 1 4 6 -2.24655 0 8 -2.24655 1
gene 1 5 5 1.34508 1 48 1.34508 0
gene 1 5 17 -2.30113 1 110 -2.30113 1
gene 1 17 5 3.97123 0 111 3.97123 1
gene 3 3 17 -0.731739 0 129 -0.731739 1
genomeend 20

/* Organism #21 Fitness: 84 Error: 0 */
genomestart 21
trait 1 0 0 0.23478 0.186566 0 0.0227195 0 0.928253 
trait 2 0.2 0 0 0 0 0 0 0 
trait 3 0.50247 0 0 0 0.314381 0 0 0 
node 1 3 1 3
node 2 3 1 1
node 3 1 1 1
node 4 3 1 1
node 5 2 0 2
node 6 3 0 2
node 17 1 0 0
gene 2 1 5 1.19368 0 1 1.19368 1
gene 1 2 5 -4.14239 0 2 -4.14239 1
gene 1 3 5 -2.05751 0 3 -2.05751 1
gene 1 4 5 1.6243 0 4 1.6243 1
gene 1 1 6 -8 0 5 -8 1
gene 1 2 6 3.14333 0 6 3.14333 1
gene 3 3 6 1.66258 0 7 1.66258 1
gene 1 4 6 -2.23039 0 8 -2.23039 1
gene 1 5 5 4.20222 1 48 4.20222 0
gene 1 5 17 0.753415 1 110 0.753415 1
gene 1 17 5 3.89219 0 111 3.89219 1
gene 3 3 17 -0.731739 0 129 -0.731739 1
genomeend 21

/* Organism #22 Fitness: 0 Error: 0 */
genomestart 22
trait 1 0 0 0.23478 0.186566 0 0.0227195 0 0.928253 
trait 2 0.2 0 0 0 0 0 0 0 
trait 3 0.50247 0 0 0 0.314381 0 0 0 
node 1 3 1 3
node 2 3 1 1
node 3 1 1 1
node 4 3 1 1
node 5 3 0 2
node 6 3 0 2
node 17 1 0 0
gene 2 1 5 1.89557 0 1 1.89557 1
gene 1 2 5 -6.74309 0 2 -6.74309 1
gene 3 3 5 -0.0588316 0 3 -0.0588316 1
gene 1 4 5 2.80821 0 4 2.80821 1
gene 1 1 6 -8 0 5 -8 1
gene 1 2 6 4.98062 0 6 4.98062 1
gene 3 3 6 1.46898 0 7 1.46898 1
gene 1 4 6 -1.29713 0 8 -1.29713 1
gene 1 5 5 3.38877 1 48 3.38877 0
gene 1 5 17 -0.510431 1 110 -0.510431 1
gene 1 17 5 3.66465 0 111 3.66465 1
gene 3 3 17 2.29526 0 129 2.29526 1
genomeend 22

/* Organism #23 Fitness: 0 Error: 0 */
genomestart 23
trait 1 0 0 0.23478 0.186566 0 0.0227195 0 0.928253 
trait 2 0.2 0 0 0 0 0 0 0 
trait 3 0.50247 0 0 0 0.314381 0 0 0 
node 1 3 1 3
node 2 3 1 1
node 3 1 1 1
node 4 3 1 1
node 5 3 0 2
node 6 3 0 2
node 17 1 0 0
gene 2 1 5 3.48241 0 1 3.48241 1
gene 1 2 5 -5.18526 0 2 -5.18526 1
gene 1 3 5 -3.13444 0 3 -3.13444 1
gene 1 4 5 0.0598075 0 4 0.0598075 1
gene 1 1 6 -8 0 5 -8 1
gene 1 2 6 5.53866 0 6 5.53866 1
gene 3 3 6 -0.693319 0 7 -0.693319 1
gene 1 4 6 -4.65259 0 8 -4.65259 1
gene 1 5 5 4.17474 1 48 4.17474 0
gene 1 5 17 -1.12447 1 110 -1.12447 1
gene 1 17 5 2.88316 0 111 2.88316 1
gene 3 3 17 0.790017 0 129 0.790017 1
genomeend 23

/* Organism #24 Fitness: 0 Error: 0 */
genomestart 24
trait 1 0 0 0.23478 0.186566 0 0.0227195 0 0.928253 
trait 2 0.2 0 0 0 0 0 0 0 
trait 3 0.50247 0 0 0 0.314381 0 0 0 
node 1 3 1 3
node 2 3 1 1
node 3 1 1 1
node 4 3 1 1
node 5 3 0 2
node 6 3 0 2
node 17 1 0 0
gene 2 1 5 2.10098 0 1 2.10098 1
gene 1 2 5 -6.16609 0 2 -6.16609 1
gene 1 3 5 -3.40458 0 3 -3.40458 1
gene 1 4 5 2.03048 0 4 2.03048 1
gene 1 1 6 -8 0 5 -8 1
gene 1 2 6 0.819782 0 6 0.819782 1
gene 3 3 6 3.179 0 7 3.179 1
gene 1 4 6 -4.5124 0 8 -4.5124 1
gene 1 5 5 2.53347 1 48 2.53347 0
gene 1 5 17 -2.00289 1 110 -2.00289 1
gene 1 17 5 0.936 0 111 0.936 1
gene 3 3 17 -1.142 0 129 -1.142 1
genomeend 24

/* Organism #25 Fitness: 86 Error: 0 */
genomestart 25
trait 1 0 0 0.23478 0.186566 0 0.0227195 0 0.928253 
trait 2 0.2 0 0 0 0 0 0 0 
trait 3 0.50247 0 0 0 0.314381 0 0 0 
node 1 3 1 3
node 2 3 1 1
node 3 1 1 1
node 4 3 1 1
node 5 3 0 2
node 6 3 0 2
node 17 1 0 0
gene 2 1 5 4.5824 0 1 4.5824 1
gene 1 2 5 -7.18726 0 2 -7.18726 1
gene 1 3 5 -2.75432 0 3 -2.75432 1
gene 1 4 5 0.635661 0 4 0.635661 1
gene 1 1 6 -8 0 5 -8 1
gene 1 2 6 2.40766 0 6 2.40766 1
gene 3 3 6 2.73082 0 7 2.73082 1
gene 1 4 6 -4.79024 0 8 -4.79024 1
gene 1 5 5 2.30256 1 48 2.30256 0
gene 1 5 17 -3.87713 1 110 -3.87713 1
gene 1 17 5 0.936 0 111 0.936 1
gene 3 3 17 -0.151461 0 129 -0.151461 1
genomeend 25

/* Species #649 : (Size 2) (AF 149) (Age 5)  */


/* Organism #26 Fitness: 0 Error: 0 */
genomestart 26
trait 1 0 0 0 0.761746 0 0.0227195 0 0 
trait 2 0.2 0 0 0 0 0 0 0 
trait 3 0.15 0 0 0 0.314381 0 0 0 
node 1 3 1 3
node 2 3 1 1
node 3 3 1 1
node 4 3 1 1
node 5 3 0 2
node 6 3 0 2
node 17 1 0 0
gene 2 1 5 1.27163 0 1 1.27163 1
gene 1 2 5 -4.47662 0 2 -4.47662 1
gene 1 3 5 0.464959 0 3 0.464959 1
gene 1 4 5 -1.48206 0 4 -1.48206 1
gene 1 1 6 -8 0 5 -8 1
gene 1 2 6 3.44255 0 6 3.44255 1
gene 3 3 6 5.11592 0 7 5.11592 1
gene 1 4 6 4.72158 0 8 4.72158 1
gene 1 5 5 5.80439 1 48 5.80439 1
gene 1 5 17 0.284657 1 110 0.284657 1
gene 1 17 5 0.972306 0 111 0.972306 1
genomeend 26

/* Organism #27 Fitness: 298 Error: 0 */
genomestart 27
trait 1 0 0 0 0.761746 0 0.0227195 0 0 
trait 2 0.2 0 0 0 0 0 0 0 
trait 3 0.15 0 0 0 0.314381 0 0 0 
node 1 3 1 3
node 2 3 1 1
node 3 3 1 1
node 4 3 1 1
node 5 3 0 2
node 6 3 0 2
node 17 1 0 0
gene 2 1 5 2.48568 0 1 2.48568 1
gene 1 2 5 -5.65808 0 2 -5.65808 1
gene 1 3 5 0.283782 0 3 0.283782 1
gene 1 4 5 -2.62243 0 4 -2.62243 1
gene 1 1 6 -8 0 5 -8 1
gene 1 2 6 1.19214 0 6 1.19214 1
gene 3 3 6 2.83043 0 7 2.83043 1
gene 1 4 6 3.56286 0 8 3.56286 1
gene 1 5 5 4.05106 1 48 4.05106 0
gene 1 5 17 2.13898 1 110 2.13898 1
gene 1 17 5 -1.03376 0 111 -1.03376 1
gene 2 6 17 -0.519464 0 138 -0.519464 1
genomeend 27

/* Species #666 : (Size 2) (AF 85) (Age 5)  */


/* Organism #28 Fitness: 86 Error: 0 */
genomestart 28
trait 1 0 0 0.23478 0 0 0.0227195 0 1 
trait 2 0.2 0 0 0 0 0 0 0 
trait 3 0.15 0 0 0 0.314381 0 0 0 
node 1 3 1 3
node 2 3 1 1
node 3 3 1 1
node 4 3 1 1
node 5 3 0 2
node 6 3 0 2
node 17 1 0 0
gene 2 1 5 2.19804 0 1 2.19804 1
gene 1 2 5 -3.33579 0 2 -3.33579 1
gene 1 3 5 1.60207 0 3 1.60207 1
gene 1 4 5 -0.642574 0 4 -0.642574 1
gene 1 1 6 -7.34504 0 5 -7.34504 1
gene 1 2 6 3.00391 0 6 3.00391 1
gene 3 3 6 2.72527 0 7 2.72527 1
gene 1 4 6 -3.72655 0 8 -3.72655 1
gene 1 5 5 2.09923 1 48 2.09923 0
gene 1 5 17 -4.29117 1 110 -4.29117 1
gene 1 17 5 -2.0538 0 111 -2.0538 1
gene 3 17 6 0.93166 0 135 0.93166 1
genomeend 28

/* Organism #29 Fitness: 84 Error: 0 */
genomestart 29
trait 1 0 0 0.23478 0 0 0.0227195 0 1 
trait 2 0.2 0 0 0 0 0 0 0 
trait 3 0.15 0 0 0 0.314381 0 0 0 
node 1 3 1 3
node 2 3 1 1
node 3 3 1 1
node 4 3 1 1
node 5 3 0 2
node 6 3 0 2
node 17 1 0 0
gene 2 1 5 2.19804 0 1 2.19804 1
gene 1 2 5 -3.33579 0 2 -3.33579 1
gene 1 3 5 1.60207 0 3 1.60207 1
gene 1 4 5 -0.642574 0 4 -0.642574 1
gene 1 1 6 -7.34504 0 5 -7.34504 1
gene 1 2 6 3.00391 0 6 3.00391 1
gene 3 3 6 2.72527 0 7 2.72527 1
gene 1 4 6 -3.72655 0 8 -3.72655 1
gene 1 5 5 2.09923 1 48 2.09923 0
gene 1 5 17 -4.29117 1 110 -4.29117 1
gene 1 17 5 -2.0538 0 111 -2.0538 1
gene 3 17 6 0.93166 0 135 0.93166 1
gene 3 1 17 -0.869932 0 139 -0.869932 1
genomeend 29

/* Species #669 : (Size 20) (AF 71.2) (Age 5)  */


/* Organism #30 Fitness: 0 Error: 0 */
genomestart 30
trait 1 0 0 0.23478 0 0 0.0227195 0 1 
trait 2 0.2 0 0 0 0 0 0 0 
trait 3 0.15 0 0 0 0.314381 0 0 0 
node 1 3 1 3
node 2 3 1 1
node 3 3 1 1
node 4 3 1 1
node 5 3 0 2
node 6 3 0 2
node 17 1 0 0
gene 2 1 5 1.46681 0 1 1.46681 1
gene 1 2 5 -3.51239 0 2 -3.51239 1
gene 1 3 5 3.75628 0 3 3.75628 1
gene 1 4 5 -4.29467 0 4 -4.29467 1
gene 1 1 6 -7.06807 0 5 -7.06807 1
gene 1 2 6 1.5131 0 6 1.5131 1
gene 3 3 6 4.39258 0 7 4.39258 1
gene 1 4 6 -6.14354 0 8 -6.14354 1
gene 1 5 5 5.09637 1 48 5.09637 0
gene 1 5 17 -0.800405 1 110 -0.800405 1
gene 1 17 5 5.35831 0 111 5.35831 1
genomeend 30

/* Organism #31 Fitness: 85 Error: 0 */
genomestart 31
trait 1 0 0 0.23478 0 0 0.0227195 0 1 
trait 2 0.2 0 0 0 0 0 0 0 
trait 3 0.15 0 0 0 0.314381 0 0 0 
node 1 3 1 3
node 2 3 1 1
node 3 3 1 1
node 4 3 1 1
node 5 3 0 2
node 6 3 0 2
node 17 1 0 0
gene 2 1 5 0.305646 0 1 0.305646 1
gene 1 2 5 -4.13487 0 2 -4.13487 1
gene 1 3 5 5.95495 0 3 5.95495 1
gene 1 4 5 -4.35265 0 4 -4.35265 1
gene 1 1 6 -7.54008 0 5 -7.54008 1
gene 1 2 6 1.41551 0 6 1.41551 1
gene 3 3 6 3.17993 0 7 3.17993 1
gene 1 4 6 -5.65574 0 8 -5.65574 1
gene 1 5 5 7.16425 1 48 7.16425 0
gene 1 5 17 -2.60231 1 110 -2.60231 1
gene 1 17 5 5.35831 0 111 5.35831 1
genomeend 31

/* Organism #32 Fitness: 0 Error: 0 */
genomestart 32
trait 1 0 0 0.23478 0 0 0.0227195 0 1 
trait 2 0.2 0 0 0 0 0 0 0 
trait 3 0.15 0 0 0 0.314381 0 0 0 
node 1 2 1 3
node 2 3 1 1
node 3 3 1 1
node 4 3 1 1
node 5 3 0 2
node 6 3 0 2
node 17 1 0 0
gene 2 1 5 1.72531 0 1 1.72531 1
gene 1 2 5 -5.61349 0 2 -5.61349 1
gene 1 3 5 4.47502 0 3 4.47502 1
gene 1 4 5 -5.31729 0 4 -5.31729 1
gene 1 1 6 -5.44649 0 5 -5.44649 1
gene 1 2 6 3.24155 0 6 3.24155 1
gene 3 3 6 3.50443 0 7 3.50443 1
gene 1 4 6 -7.40845 0 8 -7.40845 1
gene 1 5 5 2.8294 1 48 2.8294 0
gene 1 5 17 -1.40123 1 110 -1.40123 1
gene 1 17 5 4.00689 0 111 4.00689 1
genomeend 32

/* Organism #33 Fitness: 87 Error: 0 */
genomestart 33
trait 1 0 0 0.23478 0 0 0.0227195 0 1 
trait 2 0.2 0 0 0 0 0 0 0 
trait 3 0.15 0 0 0 0.314381 0 0 0 
node 1 3 1 3
node 2 3 1 1
node 3 3 1 1
node 4 3 1 1
node 5 3 0 2
node 6 3 0 2
node 17 1 0 0
gene 2 1 5 2.40417 0 1 2.40417 1
gene 1 2 5 -5.19015 0 2 -5.19015 1
gene 1 3 5 2.44221 0 3 2.44221 1
gene 1 4 5 -2.46723 0 4 -2.46723 1
gene 1 1 6 -8 0 5 -8 1
gene 1 2 6 3.25622 0 6 3.25622 1
gene 3 3 6 2.4098 0 7 2.4098 1
gene 1 4 6 -6.58427 0 8 -6.58427 1
gene 1 5 5 5.6931 1 48 5.6931 0
gene 1 5 17 0.756392 1 110 0.756392 1
gene 1 17 5 5.35831 0 111 5.35831 1
genomeend 33

/* Organism #34 Fitness: 85 Error: 0 */
genomestart 34
trait 1 0 0 0.23478 0 0 0.0227195 0 1 
trait 2 0.2 0 0 0 0 0 0 0 
trait 3 0.15 0 0 0 0.314381 0 0 0 
node 1 3 1 3
node 2 3 1 1
node 3 3 1 1
node 4 3 1 1
node 5 3 0 2
node 6 3 0 2
node 17 1 0 0
gene 2 1 5 1.46681 0 1 1.46681 1
gene 1 2 5 -3.51239 0 2 -3.51239 1
gene 1 3 5 3.75628 0 3 3.75628 1
gene 1 4 5 -4.29467 0 4 -4.29467 1
gene 1 1 6 -7.06807 0 5 -7.06807 1
gene 1 2 6 1.5131 0 6 1.5131 1
gene 3 3 6 4.39258 0 7 4.39258 1
gene 1 4 6 -6.14354 0 8 -6.14354 1
gene 1 5 5 5.09637 1 48 5.09637 0
gene 1 5 17 -0.800405 1 110 -0.800405 1
gene 1 17 5 5.35831 0 111 5.35831 1
genomeend 34

/* Organism #35 Fitness: 0 Error: 0 */
genomestart 35
trait 1 0 0 0.23478 0 0 0.0227195 0 1 
trait 2 0.2 0 0 0 0 0 0 0 
trait 3 0.15 0 0 0 0.314381 0 0 0 
node 1 3 1 3
node 2 3 1 1
node 3 3 1 1
node 4 3 1 1
node 5 3 0 2
node 6 3 0 2
node 17 1 0 0
gene 2 1 5 3.25616 0 1 3.25616 1
gene 1 2 5 -1.21183 0 2 -1.21183 1
gene 1 3 5 4.97312 0 3 4.97312 1
gene 1 4 5 -4.29467 0 4 -4.29467 1
gene 1 1 6 -8 0 5 -8 1
gene 1 2 6 2.08056 0 6 2.08056 1
gene 3 3 6 5.8369 0 7 5.8369 1
gene 1 4 6 -7.83009 0 8 -7.83009 1
gene 1 5 5 6.20738 1 48 6.20738 0
gene 1 5 17 -2.10662 1 110 -2.10662 1
gene 1 17 5 5.35831 0 111 5.35831 1
genomeend 35

/* Organism #36 Fitness: 308 Error: 0 */
genomestart 36
trait 1 0 0 0.23478 0 0 0.0227195 0 1 
trait 2 0.2 0 0 0 0 0 0 0 
trait 3 0.15 0 0 0 0.314381 0 0 0 
node 1 3 1 3
node 2 3 1 1
node 3 3 1 1
node 4 3 1 1
node 5 3 0 2
node 6 3 0 2
node 17 1 0 0
gene 2 1 5 1.46681 0 1 1.46681 1
gene 1 2 5 -3.51239 0 2 -3.51239 1
gene 1 3 5 3.75628 0 3 3.75628 1
gene 1 4 5 -4.29467 0 4 -4.29467 1
gene 1 1 6 -7.06807 0 5 -7.06807 1
gene 1 2 6 1.5131 0 6 1.5131 1
gene 3 3 6 4.39258 0 7 4.39258 1
gene 1 4 6 -6.14354 0 8 -6.14354 1
gene 1 5 5 5.09637 1 48 5.09637 0
gene 1 5 17 -0.800405 1 110 -0.800405 1
gene 1 17 5 5.35831 0 111 5.35831 1
genomeend 36

/* Organism #37 Fitness: 86 Error: 0 */
genomestart 37
trait 1 0 0 0.23478 0 0 0.0227195 0 1 
trait 2 0.2 0 0 0 0 0 0 0 
trait 3 0.15 0 0 0 0.314381 0 0 0 
node 1 3 1 3
node 2 3 1 1
node 3 3 1 1
node 4 3 1 1
node 5 3 0 2
node 6 3 0 2
node 17 1 0 0
gene 2 1 5 -1.31187 0 1 -1.31187 1
gene 1 2 5 -2.51663 0 2 -2.51663 1
gene 1 3 5 4.41949 0 3 4.41949 1
gene 1 4 5 -6.21093 0 4 -6.21093 1
gene 1 1 6 -8 0 5 -8 1
gene 1 2 6 1.5131 0 6 1.5131 1
gene 3 3 6 6.00484 0 7 6.00484 1
gene 1 4 6 -6.29478 0 8 -6.29478 1
gene 1 5 5 5.40209 1 48 5.40209 0
gene 1 5 17 0.731522 1 110 0.731522 1
gene 1 17 5 1.83957 0 111 1.83957 1
genomeend 37

/* Organism #38 Fitness: 0 Error: 0 */
genomestart 38
trait 1 0 0 0.23478 0 0 0.0227195 0 1 
trait 2 0.2 0 0 0 0 0 0 0 
trait 3 0.15 0 0 0 0.314381 0 0 0 
node 1 3 1 3
node 2 3 1 1
node 3 3 1 1
node 4 3 1 1
node 5 3 0 2
node 6 3 0 2
node 17 1 0 0
gene 2 1 5 -0.545293 0 1 -0.545293 1
gene 1 2 5 -4.30968 0 2 -4.30968 1
gene 1 3 5 3.19094 0 3 3.19094 1
gene 2 4 5 -4.57567 0 4 -4.57567 1
gene 1 1 6 -7.06807 0 5 -7.06807 1
gene 1 2 6 -0.0821945 0 6 -0.0821945 1
gene 3 3 6 3.50309 0 7 3.50309 1
gene 1 4 6 -5.09077 0 8 -5.09077 1
gene 1 5 5 4.98952 1 48 4.98952 0
gene 1 5 17 -0.903934 1 110 -0.903934 1
gene 1 17 5 4.70829 0 111 4.70829 1
genomeend 38

/* Organism #39 Fitness: 0 Error: 0 */
genomestart 39
trait 1 0 0 0.23478 0 0 0.0227195 0 1 
trait 2 0.2 0 0 0 0 0 0 0 
trait 3 0.15 0 0 0 0.314381 0 0 0 
node 1 3 1 3
node 2 3 1 1
node 3 3 1 1
node 4 3 1 1
node 5 3 0 2
node 6 3 0 2
node 17 1 0 0
gene 2 1 5 1.11846 0 1 1.11846 1
gene 1 2 5 -1.6547 0 2 -1.6547 1
gene 1 3 5 5.75185 0 3 5.75185 1
gene 1 4 5 -5.66878 0 4 -5.66878 1
gene 1 1 6 -6.59144 0 5 -6.59144 1
gene 1 2 6 -0.974706 0 6 -0.974706 1
gene 3 3 6 3.01821 0 7 3.01821 1
gene 1 4 6 -4.56438 0 8 -4.56438 1
gene 1 5 5 7.16879 1 48 7.16879 0
gene 1 5 17 1.34158 1 110 1.34158 1
gene 1 17 5 5.35831 0 111 5.35831 1
genomeend 39

/* Organism #40 Fitness: 301 Error: 0 */
genomestart 40
trait 1 0 0 0.23478 0 0 0.0227195 0 1 
trait 2 0.2 0 0 0 0 0 0 0 
trait 3 0.15 0 0 0 0.314381 0 0 0 
node 1 3 1 3
node 2 3 1 1
node 3 3 1 1
node 4 3 1 1
node 5 3 0 2
node 6 3 0 2
node 17 1 0 0
gene 2 1 5 1.46681 0 1 1.46681 1
gene 1 2 5 -3.51239 0 2 -3.51239 1
gene 1 3 5 3.75628 0 3 3.75628 1
gene 1 4 5 -4.29467 0 4 -4.29467 1
gene 1 1 6 -7.06807 0 5 -7.06807 1
gene 1 2 6 1.5131 0 6 1.5131 1
gene 3 3 6 4.39258 0 7 4.39258 1
gene 1 4 6 -6.14354 0 8 -6.14354 1
gene 1 5 5 5.09637 1 48 5.09637 0
gene 1 5 17 -0.800405 1 110 -0.800405 1
gene 1 17 5 5.35831 0 111 5.35831 1
gene 2 6 17 -0.519464 0 138 0 1
genomeend 40

/* Organism #41 Fitness: -6 Error: 0 */
genomestart 41
trait 1 0 0 0.23478 0 0 0.0227195 0 1 
trait 2 0.2 0 0 0 0 0 0 0 
trait 3 0.15 0 0 0 0.314381 0 0 0 
node 1 3 1 3
node 2 3 1 1
node 3 3 1 1
node 4 3 1 1
node 5 3 0 2
node 6 3 0 2
node 17 1 0 0
gene 2 1 5 1.98717 0 1 1.98717 1
gene 1 2 5 -3.10458 0 2 -3.10458 1
gene 1 3 5 4.6417 0 3 4.6417 1
gene 1 4 5 -2.6937 0 4 -2.6937 1
gene 1 1 6 -8 0 5 -8 1
gene 1 2 6 -0.139448 0 6 -0.139448 1
gene 3 3 6 4.6098 0 7 4.6098 1
gene 1 4 6 -5.65546 0 8 -5.65546 1
gene 1 5 5 4.16033 1 48 4.16033 0
gene 1 5 17 0.0396737 1 110 0.0396737 1
gene 1 17 5 -1.89569 0 111 -1.89569 1
genomeend 41

/* Organism #42 Fitness: 83 Error: 0 */
genomestart 42
trait 1 0 0 0.23478 0 0 0.0227195 0 1 
trait 2 0.2 0 0 0 0 0 0 0 
trait 3 0.15 0 0 0 0.314381 0 0 0 
node 1 3 1 3
node 2 3 1 1
node 3 3 1 1
node 4 3 1 1
node 5 3 0 2
node 6 3 0 2
node 17 1 0 0
gene 2 1 5 0.293628 0 1 0.293628 1
gene 1 2 5 -3.51239 0 2 -3.51239 1
gene 1 3 5 1.43264 0 3 1.43264 1
gene 1 4 5 -4.9921 0 4 -4.9921 1
gene 1 1 6 -8 0 5 -8 1
gene 1 2 6 1.5131 0 6 1.5131 1
gene 3 3 6 2.78159 0 7 2.78159 1
gene 1 4 6 -7.80667 0 8 -7.80667 1
gene 1 5 5 -0.768503 1 48 -0.768503 0
gene 1 5 17 -0.800405 1 110 -0.800405 1
gene 1 17 5 6.3932 0 111 6.3932 1
genomeend 42

/* Organism #43 Fitness: 7 Error: 0 */
genomestart 43
trait 1 0 0 0.23478 0 0 0.0227195 0 1 
trait 2 0.2 0 0 0 0 0 0 0 
trait 3 0.15 0 0 0 0.314381 0 0 0 
node 1 3 1 3
node 2 3 1 1
node 3 3 1 1
node 4 3 1 1
node 5 3 0 2
node 6 3 0 2
node 17 1 0 0
gene 2 1 5 2.0243 0 1 2.0243 1
gene 1 2 5 -5.2381 0 2 -5.2381 1
gene 1 3 5 2.81951 0 3 2.81951 1
gene 1 4 5 -5.58753 0 4 -5.58753 1
gene 1 1 6 -5.45218 0 5 -5.45218 1
gene 1 2 6 0.899194 0 6 0.899194 1
gene 3 3 6 5.90448 0 7 5.90448 1
gene 1 4 6 -7.62276 0 8 -7.62276 1
gene 1 5 5 3.42604 1 48 3.42604 0
gene 1 5 17 -0.255763 1 110 -0.255763 1
gene 1 17 5 5.35831 0 111 5.35831 1
genomeend 43

/* Organism #44 Fitness: 85 Error: 0 */
genomestart 44
trait 1 0 0 0.23478 0 0 0.0227195 0 1 
trait 2 0.2 0 0 0 0 0 0 0 
trait 3 0.15 0 0 0 0.314381 0 0 0 
node 1 3 1 3
node 2 3 1 1
node 3 3 1 1
node 4 3 1 1
node 5 3 0 2
node 6 3 0 2
node 17 1 0 0
gene 2 1 5 1.46681 0 1 1.46681 1
gene 1 2 5 -3.51239 0 2 -3.51239 1
gene 1 3 5 3.75628 0 3 3.75628 1
gene 1 4 5 -4.29467 0 4 -4.29467 1
gene 1 1 6 -7.06807 0 5 -7.06807 1
gene 1 2 6 1.5131 0 6 1.5131 1
gene 3 3 6 4.39258 0 7 4.39258 1
gene 1 4 6 -6.14354 0 8 -6.14354 1
gene 1 5 5 5.09637 1 48 5.09637 0
gene 1 5 17 -0.800405 1 110 -0.800405 1
gene 1 17 5 5.35831 0 111 5.35831 1
genomeend 44

/* Organism #45 Fitness: 0 Error: 0 */
genomestart 45
trait 1 0 0 0.23478 0 0 0.0227195 0 1 
trait 2 0.2 0 0 0 0 0 0 0 
trait 3 0.15 0 0 0 0.314381 0 0 0 
node 1 3 1 3
node 2 3 1 1
node 3 3 1 1
node 4 3 1 1
node 5 3 0 2
node 6 3 0 2
node 17 1 0 0
gene 2 1 5 0.153276 0 1 0.153276 1
gene 1 2 5 -4.62385 0 2 -4.62385 1
gene 1 3 5 5.19167 0 3 5.19167 1
gene 1 4 5 -2.30012 0 4 -2.30012 1
gene 1 1 6 -7.46286 0 5 -7.46286 1
gene 1 2 6 -0.357435 0 6 -0.357435 1
gene 3 3 6 4.82803 0 7 4.82803 1
gene 1 4 6 -5.77605 0 8 -5.77605 1
gene 1 5 5 6.30097 1 48 6.30097 0
gene 1 5 17 -1.18694 1 110 -1.18694 1
gene 1 17 5 3.62084 0 111 3.62084 1
genomeend 45

/* Organism #46 Fitness: 303 Error: 0 */
genomestart 46
trait 1 0 0 0.23478 0 0 0.0227195 0 1 
trait 2 0.2 0 0 0 0 0 0 0 
trait 3 0.15 0 0 0 0.314381 0 0 0 
node 1 3 1 3
node 2 3 1 1
node 3 3 1 1
node 4 3 1 1
node 5 3 0 2
node 6 3 0 2
node 17 1 0 0
gene 2 1 5 1.46681 0 1 1.46681 1
gene 1 2 5 -3.51239 0 2 -3.51239 1
gene 1 3 5 3.75628 0 3 3.75628 1
gene 1 4 5 -4.29467 0 4 -4.29467 1
gene 1 1 6 -7.06807 0 5 -7.06807 1
gene 1 2 6 1.5131 0 6 1.5131 1
gene 3 3 6 4.39258 0 7 4.39258 1
gene 1 4 6 -6.14354 0 8 -6.14354 1
gene 1 5 5 5.09637 1 48 5.09637 0
gene 1 5 17 -0.800405 1 110 -0.800405 1
gene 1 17 5 5.35831 0 111 5.35831 1
gene 1 17 6 0.931082 0 140 0.931082 1
genomeend 46

/* Organism #47 Fitness: 0 Error: 0 */
genomestart 47
trait 1 0 0 0.23478 0 0 0.0227195 0 1 
trait 2 0.2 0 0 0 0 0 0 0 
trait 3 0.15 0 0 0 0.314381 0 0 0 
node 1 3 1 3
node 2 3 1 1
node 3 3 1 1
node 4 3 1 1
node 5 3 0 2
node 6 3 0 2
node 17 1 0 0
gene 2 1 5 1.21791 0 1 1.21791 1
gene 1 2 5 -0.890801 0 2 -0.890801 1
gene 1 3 5 3.32553 0 3 3.32553 1
gene 1 4 5 -6.67626 0 4 -6.67626 1
gene 1 1 6 -8 0 5 -8 1
gene 1 2 6 1.01669 0 6 1.01669 1
gene 3 3 6 4.39258 0 7 4.39258 1
gene 1 4 6 -6.46478 0 8 -6.46478 1
gene 1 5 5 4.57944 1 48 4.57944 0
gene 1 5 17 -0.800405 1 110 -0.800405 1
gene 1 17 5 2.44887 0 111 2.44887 1
genomeend 47

/* Organism #48 Fitness: 0 Error: 0 */
genomestart 48
trait 1 0 0 0.23478 0 0 0.0227195 0 1 
trait 2 0.2 0 0 0 0 0 0 0 
trait 3 0.15 0 0 0 0.314381 0 0 0 
node 1 3 1 3
node 2 3 1 1
node 3 3 1 1
node 4 3 1 1
node 5 3 0 2
node 6 3 0 2
node 17 1 0 0
gene 2 1 5 1.46681 0 1 1.46681 1
gene 1 2 5 -3.51239 0 2 -3.51239 1
gene 1 3 5 3.87767 0 3 3.87767 1
gene 1 4 5 -2.52675 0 4 -2.52675 1
gene 1 1 6 -6.63201 0 5 -6.63201 1
gene 1 2 6 3.991 0 6 3.991 1
gene 3 3 6 -1.17243 0 7 -1.17243 1
gene 1 4 6 -5.9059 0 8 -5.9059 1
gene 1 5 5 3.13342 1 48 3.13342 0
gene 1 5 17 1.59396 1 110 1.59396 1
gene 1 17 5 6.68832 0 111 6.68832 1
genomeend 48

/* Organism #49 Fitness: 0 Error: 0 */
genomestart 49
trait 1 0 0 0.23478 0 0 0.0227195 0 1 
trait 2 0.2 0 0 0 0 0 0 0 
trait 3 0.15 0 0 0 0.314381 0 0 0 
node 1 3 1 3
node 2 3 1 1
node 3 3 1 1
node 4 3 1 1
node 5 3 0 2
node 6 3 0 2
node 17 1 0 0
gene 2 1 5 1.01005 0 1 1.01005 1
gene 1 2 5 -1.92829 0 2 -1.92829 1
gene 1 3 5 1.31995 0 3 1.31995 1
gene 1 4 5 0.610279 0 4 0.610279 1
gene 1 1 6 -8 0 5 -8 1
gene 1 2 6 2.01439 0 6 2.01439 1
gene 3 3 6 3.55238 0 7 3.55238 1
gene 1 4 6 -5.1794 0 8 -5.1794 1
gene 1 5 5 4.96353 1 48 4.96353 0
gene 1 5 17 -2.82811 1 110 -2.82811 1
gene 1 17 5 7.04153 0 111 7.04153 1
genomeend 49

/* Species #697 : (Size 3) (AF 102) (Age 3)  */


/* Organism #50 Fitness: 0 Error: 0 */
genomestart 50
trait 1 0.1 0 0 0 0 0 0 0 
trait 2 0.683779 0.0223019 0 0.460672 0 0 0.217724 0.00714504 
trait 3 0.15 0 0 0 0.314381 0 0 0 
node 1 3 1 3
node 2 3 1 1
node 3 3 1 1
node 4 2 1 1
node 5 3 0 2
node 6 3 0 2
gene 2 1 5 6.33511 0 1 6.33511 1
gene 1 2 5 -8 0 2 -8 1
gene 1 3 5 -6.22316 0 3 -6.22316 1
gene 1 4 5 2.17829 0 4 2.17829 1
gene 1 1 6 -4.7212 0 5 -4.7212 1
gene 1 2 6 -2.2962 0 6 -2.2962 1
gene 3 3 6 0.676094 0 7 0.676094 1
gene 3 4 6 0.20478 0 8 0.20478 1
gene 3 5 5 1.6937 1 48 1.6937 1
gene 2 5 6 -0.166979 0 94 -0.166979 1
genomeend 50

/* Organism #51 Fitness: 312 Error: 0 */
genomestart 51
trait 1 0.1 0 0 0 0 0 0 0 
trait 2 0.683779 0.0223019 0 0.460672 0 0 0.217724 0.00714504 
trait 3 0.15 0 0 0 0.314381 0 0 0 
node 1 3 1 3
node 2 3 1 1
node 3 3 1 1
node 4 2 1 1
node 5 3 0 2
node 6 3 0 2
gene 2 1 5 6.80056 0 1 6.80056 1
gene 1 2 5 -8 0 2 -8 1
gene 1 3 5 -7.32737 0 3 -7.32737 1
gene 1 4 5 0.41191 0 4 0.41191 1
gene 1 1 6 -2.39885 0 5 -2.39885 1
gene 1 2 6 -2.0724 0 6 -2.0724 1
gene 3 3 6 -3.02072 0 7 -3.02072 1
gene 1 4 6 5.35083 0 8 5.35083 1
gene 3 5 5 4.13551 1 48 4.13551 1
gene 2 5 6 1.68342 0 94 1.68342 1
genomeend 51

/* Organism #52 Fitness: -6 Error: 0 */
genomestart 52
trait 1 0.1 0 0 0 0 0 0 0 
trait 2 0.683779 0.0223019 0 0.460672 0 0 0.217724 0.00714504 
trait 3 0.15 0 0 0 0.314381 0 0 0 
node 1 3 1 3
node 2 3 1 1
node 3 3 1 1
node 4 2 1 1
node 5 3 0 2
node 6 3 0 2
gene 2 1 5 5.60152 0 1 5.60152 1
gene 1 2 5 -6.60317 0 2 -6.60317 1
gene 1 3 5 -1.79131 0 3 -1.79131 1
gene 1 4 5 -1.99874 0 4 -1.99874 1
gene 1 1 6 -2.69736 0 5 -2.69736 1
gene 1 2 6 -3.95126 0 6 -3.95126 1
gene 3 3 6 -1.38854 0 7 -1.38854 1
gene 1 4 6 5.09388 0 8 5.09388 1
gene 3 5 5 0.783641 1 48 0.783641 1
gene 2 5 6 -0.0196894 0 94 -0.0196894 1
genomeend 52

/* Species #701 : (Size 1) (AF 0) (Age 3)  */


/* Organism #53 Fitness: 0 Error: 0 */
genomestart 53
trait 1 0.1 0 0 0 0 0 0 0 
trait 2 0.683779 0.0223019 0 0.460672 0 0 0.217724 0.00714504 
trait 3 0.15 0 0 0 0.314381 0 0 0 
node 1 3 1 3
node 2 3 1 1
node 3 3 1 1
node 4 2 1 1
node 5 3 0 2
node 6 3 0 2
gene 2 1 5 6.66858 0 1 6.66858 1
gene 1 2 5 -7.26571 0 2 -7.26571 1
gene 1 3 5 -0.983162 0 3 -0.983162 1
gene 1 4 5 -0.218489 0 4 -0.218489 1
gene 1 1 6 -7.17426 0 5 -7.17426 1
gene 1 2 6 1.42958 0 6 1.42958 1
gene 3 3 6 2.9128 0 7 2.9128 1
gene 1 4 6 0.796163 0 8 0.796163 1
gene 3 5 5 0.978815 1 48 0.978815 1
gene 2 5 6 3.1776 0 94 3.1776 1
genomeend 53

/* Species #708 : (Size 5) (AF 19.4) (Age 3)  */


/* Organism #54 Fitness: 0 Error: 0 */
genomestart 54
trait 1 0 0 0 0.761746 0 0.0227195 0 0 
trait 2 0.2 0 0 0 0 0 0 0 
trait 3 0.15 0 0 0 0.314381 0 0 0 
node 1 3 1 3
node 2 3 1 1
node 3 3 1 1
node 4 3 1 1
node 5 3 0 2
node 6 3 0 2
node 17 1 0 0
gene 2 1 5 1.99991 0 1 1.99991 1
gene 1 2 5 -6.00425 0 2 -6.00425 1
gene 1 3 5 3.77222 0 3 3.77222 1
gene 1 4 5 1.25645 0 4 1.25645 1
gene 1 1 6 -8 0 5 -8 1
gene 1 2 6 2.25617 0 6 2.25617 1
gene 3 3 6 -1.7182 0 7 -1.7182 1
gene 1 4 6 1.63499 0 8 1.63499 1
gene 1 5 5 2.95518 1 48 2.95518 0
gene 1 5 17 1.16083 1 110 1.16083 1
gene 1 17 5 -3.23492 0 111 -3.23492 1
genomeend 54

/* Organism #55 Fitness: 6 Error: 0 */
genomestart 55
trait 1 0.653981 0 0 0.691964 0 0 0 0 
trait 2 0.2 0 0 0 0 0 0 0 
trait 3 0.15 0 0 0 0.314381 0 0 0 
node 1 3 1 3
node 2 3 1 1
node 3 3 1 1
node 4 3 1 1
node 5 3 0 2
node 6 3 0 2
node 17 1 0 0
gene 2 1 5 1.95157 0 1 1.95157 1
gene 1 2 5 -7.14611 0 2 -7.14611 1
gene 1 3 5 5.9767 0 3 5.9767 1
gene 1 4 5 -0.369635 0 4 -0.369635 1
gene 1 1 6 -7.00964 0 5 -7.00964 1
gene 1 2 6 0.233992 0 6 0.233992 1
gene 3 3 6 -0.317588 0 7 -0.317588 1
gene 1 4 6 1.63499 0 8 1.63499 1
gene 1 5 5 1.54596 1 48 1.54596 0
gene 1 5 17 1.59207 1 110 1.59207 1
gene 1 17 5 -4.90393 0 111 -4.90393 1
genomeend 55

/* Organism #56 Fitness: 7 Error: 0 */
genomestart 56
trait 1 0 0 0 0.761746 0 0.0227195 0 0 
trait 2 0.2 0 0 0 0 0 0 0 
trait 3 0.15 0 0 0 0.314381 0 0 0 
node 1 3 1 3
node 2 3 1 1
node 3 3 1 1
node 4 3 1 1
node 5 3 0 2
node 6 3 0 2
node 17 1 0 0
gene 2 1 5 4.15042 0 1 4.15042 1
gene 1 2 5 -7.92458 0 2 -7.92458 1
gene 1 3 5 4.49179 0 3 4.49179 1
gene 1 4 5 3.68416 0 4 3.68416 1
gene 1 1 6 -8 0 5 -8 1
gene 1 2 6 2.61581 0 6 2.61581 1
gene 3 3 6 -2.32185 0 7 -2.32185 1
gene 2 4 6 -0.154219 0 8 -0.154219 1
gene 1 5 5 2.93115 1 48 2.93115 0
gene 1 5 17 1.1901 1 110 1.1901 1
gene 1 17 5 -2.30099 0 111 -2.30099 1
genomeend 56

/* Organism #57 Fitness: 0 Error: 0 */
genomestart 57
trait 1 0 0 0 0.761746 0 0.0227195 0 0 
trait 2 0.2 0 0 0 0 0 0 0 
trait 3 0.15 0 0 0 0.314381 0 0 0 
node 1 3 1 3
node 2 3 1 1
node 3 3 1 1
node 4 3 1 1
node 5 3 0 2
node 6 3 0 2
node 17 1 0 0
gene 2 1 5 1.21136 0 1 1.21136 1
gene 1 2 5 -8 0 2 -8 1
gene 1 3 5 3.24157 0 3 3.24157 1
gene 1 4 5 0.0479169 0 4 0.0479169 1
gene 1 1 6 -6.78341 0 5 -6.78341 1
gene 1 2 6 1.79226 0 6 1.79226 1
gene 3 3 6 -1.41699 0 7 -1.41699 1
gene 1 4 6 2.4302 0 8 2.4302 1
gene 1 5 5 1.90519 1 48 1.90519 0
gene 1 5 17 -0.103015 1 110 -0.103015 1
gene 1 17 5 -3.23492 0 111 -3.23492 1
genomeend 57

/* Organism #58 Fitness: 84 Error: 0 */
genomestart 58
trait 1 0 0 0 0.761746 0 0.0227195 0 0 
trait 2 0.2 0 0 0 0 0 0 0 
trait 3 0.15 0 0 0 0.314381 0 0 0 
node 1 3 1 3
node 2 3 1 1
node 3 3 1 1
node 4 3 1 1
node 5 3 0 2
node 6 3 0 2
node 17 1 0 0
gene 2 1 5 1.99991 0 1 1.99991 1
gene 1 2 5 -6.00425 0 2 -6.00425 1
gene 1 3 5 3.77222 0 3 3.77222 1
gene 1 4 5 1.25645 0 4 1.25645 1
gene 1 1 6 -8 0 5 -8 1
gene 1 2 6 2.25617 0 6 2.25617 1
gene 3 3 6 -1.7182 0 7 -1.7182 1
gene 1 4 6 1.63499 0 8 1.63499 1
gene 1 5 5 2.95518 1 48 2.95518 0
gene 1 5 17 1.16083 1 110 1.16083 1
gene 1 17 5 -3.23492 0 111 -3.23492 1
gene 2 6 5 0.0640605 0 141 0.0640605 1
genomeend 58

/* Species #713 : (Size 2) (AF 0) (Age 3)  */


/* Organism #59 Fitness: 0 Error: 0 */
genomestart 59
trait 1 0 0 0.23478 0 0 0.0227195 0 1 
trait 2 0.2 0 0 0 0 0 0 0 
trait 3 0.15 0 0 0 0.314381 0 0 0 
node 1 3 1 3
node 2 3 1 1
node 3 3 1 1
node 4 3 1 1
node 5 3 0 2
node 6 3 0 2
node 17 1 0 0
gene 2 1 5 -0.710844 0 1 -0.710844 1
gene 1 2 5 -4.0352 0 2 -4.0352 1
gene 1 3 5 -0.0433374 0 3 -0.0433374 1
gene 1 4 5 1.56142 0 4 1.56142 1
gene 1 1 6 -8 0 5 -8 1
gene 1 2 6 2.04048 0 6 2.04048 1
gene 3 3 6 2.9124 0 7 2.9124 1
gene 1 4 6 2.72986 0 8 2.72986 1
gene 1 5 5 -2.85426 1 48 -2.85426 0
gene 1 5 17 2.61357 1 110 2.61357 1
gene 1 17 5 -0.255936 0 111 -0.255936 1
genomeend 59

/* Organism #60 Fitness: 0 Error: 0 */
genomestart 60
trait 1 0 0 0.23478 0 0 0.0227195 0 1 
trait 2 0.2 0 0 0 0 0 0 0 
trait 3 0.15 0 0 0 0.314381 0 0 0 
node 1 3 1 3
node 2 3 1 1
node 3 3 1 1
node 4 3 1 1
node 5 3 0 2
node 6 3 0 2
node 17 3 0 0
gene 2 1 5 2.03151 0 1 2.03151 1
gene 1 2 5 -2.81526 0 2 -2.81526 1
gene 1 3 5 -1.62344 0 3 -1.62344 1
gene 1 4 5 -0.458311 0 4 -0.458311 1
gene 1 1 6 -8 0 5 -8 1
gene 1 2 6 2.04048 0 6 2.04048 1
gene 3 3 6 2.12585 0 7 2.12585 1
gene 1 4 6 4.41483 0 8 4.41483 1
gene 1 5 5 -1.60634 1 48 -1.60634 0
gene 1 5 17 0.605566 1 110 0.605566 1
gene 1 17 5 -3.24359 0 111 -3.24359 1
genomeend 60

/* Species #721 : (Size 4) (AF 1.75) (Age 2)  */


/* Organism #61 Fitness: 0 Error: 0 */
genomestart 61
trait 1 0 0.893586 0.569003 0 0.749025 0.402085 0.530626 0.918284 
trait 2 0.1 0 0 0.135481 0 0 0.484851 0 
trait 3 0.3 0 0 0.39743 0 0.346381 0.115144 0 
node 1 3 1 3
node 2 3 1 1
node 3 3 1 1
node 4 2 1 1
node 5 3 0 2
node 6 3 0 2
gene 1 1 5 6.13657 0 1 6.13657 1
gene 3 2 5 -5.9003 0 2 -5.9003 1
gene 2 3 5 -3.27172 0 3 -3.27172 1
gene 1 4 5 -3.94496 0 4 -3.94496 1
gene 1 1 6 -6.33003 0 5 -6.33003 1
gene 1 2 6 1.20598 0 6 1.20598 1
gene 3 3 6 0.836303 0 7 0.836303 1
gene 1 4 6 7.21465 0 8 7.21465 1
gene 1 6 5 -1.02066 0 23 -1.02066 1
gene 3 5 5 0.125623 1 74 0.125623 1
gene 2 5 6 -3.0194 1 102 -3.0194 1
genomeend 61

/* Organism #62 Fitness: 7 Error: 0 */
genomestart 62
trait 1 0 0.893586 0.569003 0 0.749025 0.402085 0.530626 0.918284 
trait 2 0.1 0 0 0.135481 0 0 0.484851 0 
trait 3 0.3 0 0 0.39743 0 0.346381 0.115144 0 
node 1 3 1 3
node 2 3 1 1
node 3 3 1 1
node 4 2 1 1
node 5 3 0 2
node 6 3 0 2
gene 1 1 5 7.13256 0 1 7.13256 1
gene 3 2 5 -8 0 2 -8 1
gene 2 3 5 -3.87868 0 3 -3.87868 1
gene 1 4 5 -2.67406 0 4 -2.67406 1
gene 1 1 6 -6.611 0 5 -6.611 1
gene 1 2 6 3.5088 0 6 3.5088 1
gene 3 3 6 -1.30797 0 7 -1.30797 1
gene 1 4 6 8 0 8 8 1
gene 1 6 5 -3.25817 0 23 -3.25817 1
gene 3 5 5 -2.09024 1 74 -2.09024 1
gene 2 5 6 -3.0194 1 102 -3.0194 1
genomeend 62

/* Organism #63 Fitness: 0 Error: 0 */
genomestart 63
trait 1 0 0.893586 0.569003 0 0.749025 0.402085 0.530626 0.918284 
trait 2 0.1 0 0 0.135481 0 0 0.484851 0 
trait 3 0.3 0 0 0.39743 0 0.346381 0.115144 0 
node 1 3 1 3
node 2 3 1 1
node 3 3 1 1
node 4 2 1 1
node 5 3 0 2
node 6 3 0 2
gene 1 1 5 4.4436 0 1 4.4436 1
gene 3 2 5 -3.60355 0 2 -3.60355 1
gene 2 3 5 -4.53849 0 3 -4.53849 1
gene 1 4 5 -2.03542 0 4 -2.03542 1
gene 1 1 6 -5.23249 0 5 -5.23249 1
gene 1 2 6 0.486221 0 6 0.486221 1
gene 3 3 6 1.01189 0 7 1.01189 1
gene 1 4 6 8 0 8 8 1
gene 1 6 5 -0.680264 0 23 -0.680264 1
gene 3 5 5 -1.5207 1 74 -1.5207 1
gene 2 5 6 -3.0194 1 102 -3.0194 1
genomeend 63

/* Organism #64 Fitness: 0 Error: 0 */
genomestart 64
trait 1 0 0.893586 0.569003 0 0.749025 0.402085 0.530626 0.918284 
trait 2 0.1 0 0 0.135481 0 0 0.484851 0 
trait 3 0.3 0 0 0.39743 0 0.346381 0.115144 0 
node 1 3 1 3
node 2 3 1 1
node 3 3 1 1
node 4 2 1 1
node 5 3 0 2
node 6 3 0 2
gene 1 1 5 6.59355 0 1 6.59355 1
gene 3 2 5 -0.421229 0 2 -0.421229 1
gene 2 3 5 -4.17636 0 3 -4.17636 1
gene 1 4 5 -4.61281 0 4 -4.61281 1
gene 1 1 6 -6.33003 0 5 -6.33003 1
gene 1 2 6 -0.832796 0 6 -0.832796 1
gene 3 3 6 1.33458 0 7 1.33458 1
gene 1 4 6 7.34043 0 8 7.34043 1
gene 1 6 5 1.1024 0 23 1.1024 1
gene 3 5 5 0.286219 1 74 0.286219 1
gene 2 5 6 -5.16908 1 102 -5.16908 1
genomeend 64

/* Species #722 : (Size 1) (AF 0) (Age 2)  */


/* Organism #65 Fitness: 0 Error: 0 */
genomestart 65
trait 1 0 0 0 0.761746 0 0.0227195 0 0 
trait 2 0.2 0 0 0 0 0 0 0 
trait 3 0.15 0 0 0 0.314381 0 0 0 
node 1 3 1 3
node 2 3 1 1
node 3 3 1 1
node 4 3 1 1
node 5 3 0 2
node 6 3 0 2
node 17 1 0 0
gene 2 1 5 0.492363 0 1 0.492363 1
gene 1 2 5 -3.86719 0 2 -3.86719 1
gene 1 3 5 0.690453 0 3 0.690453 1
gene 1 4 5 -1.50949 0 4 -1.50949 1
gene 1 1 6 -8 0 5 -8 1
gene 1 2 6 4.06418 0 6 4.06418 1
gene 3 3 6 4.44967 0 7 4.44967 1
gene 1 4 6 6.32779 0 8 6.32779 1
gene 1 5 5 4.93708 1 48 4.93708 1
gene 1 5 17 -1.00759 1 110 -1.00759 1
gene 1 17 5 -0.605071 0 111 -0.605071 1
genomeend 65

/* Species #724 : (Size 4) (AF 109) (Age 2)  */


/* Organism #66 Fitness: 326 Error: 0 */
genomestart 66
trait 1 0 0 0.23478 0.186566 0 0.0227195 0 0.928253 
trait 2 0.2 0 0 0 0 0 0 0 
trait 3 0.50247 0 0 0 0.314381 0 0 0 
node 1 3 1 3
node 2 3 1 1
node 3 1 1 1
node 4 3 1 1
node 5 3 0 2
node 6 3 0 2
node 17 1 0 0
gene 2 1 5 2.10098 0 1 2.10098 1
gene 1 2 5 -6.16609 0 2 -6.16609 1
gene 1 3 5 -3.40458 0 3 -3.40458 1
gene 1 4 5 2.03048 0 4 2.03048 1
gene 1 1 6 -8 0 5 -8 1
gene 1 2 6 0.819782 0 6 0.819782 1
gene 3 3 6 3.179 0 7 3.179 1
gene 1 4 6 -4.5124 0 8 -4.5124 1
gene 1 5 5 2.53347 1 48 2.53347 0
gene 1 5 17 -2.00289 1 110 -2.00289 1
gene 1 17 5 0.936 0 111 0.936 1
gene 3 3 17 -1.142 0 129 -1.142 1
gene 1 17 6 0.931082 0 140 0 1
genomeend 66

/* Organism #67 Fitness: 0 Error: 0 */
genomestart 67
trait 1 0 0 0.23478 0.186566 0 0.0227195 0 0.928253 
trait 2 0.2 0 0 0 0 0 0 0 
trait 3 0.50247 0 0 0 0.314381 0 0 0 
node 1 3 1 3
node 2 3 1 1
node 3 1 1 1
node 4 3 1 1
node 5 3 0 2
node 6 3 0 2
node 17 1 0 0
gene 2 1 5 2.87996 0 1 2.87996 1
gene 1 2 5 -8 0 2 -8 1
gene 1 3 5 -4.72326 0 3 -4.72326 1
gene 1 4 5 2.35684 0 4 2.35684 1
gene 1 1 6 -6.95139 0 5 -6.95139 1
gene 1 2 6 1.01085 0 6 1.01085 1
gene 3 3 6 -2.39306 0 7 -2.39306 1
gene 1 4 6 -4.78637 0 8 -4.78637 1
gene 1 5 5 2.53347 1 48 2.53347 0
gene 1 5 17 -3.89671 1 110 -3.89671 1
gene 1 17 5 -2.07966 0 111 -2.07966 1
gene 3 3 17 -1.142 0 129 -1.142 1
genomeend 67

/* Organism #68 Fitness: 7 Error: 0 */
genomestart 68
trait 1 0 0 0.23478 0.186566 0 0.0227195 0 0.928253 
trait 2 0.2 0 0 0 0 0 0 0 
trait 3 0.50247 0 0 0 0.314381 0 0 0 
node 1 3 1 3
node 2 3 1 1
node 3 1 1 1
node 4 3 1 1
node 5 3 0 2
node 6 3 0 2
node 17 1 0 0
gene 2 1 5 2.13476 0 1 2.13476 1
gene 1 2 5 -6.39441 0 2 -6.39441 1
gene 1 3 5 -4.17435 0 3 -4.17435 1
gene 1 4 5 3.39458 0 4 3.39458 1
gene 1 1 6 -8 0 5 -8 1
gene 1 2 6 1.84871 0 6 1.84871 1
gene 3 3 6 2.15509 0 7 2.15509 1
gene 1 4 6 -6.58448 0 8 -6.58448 1
gene 1 5 5 2.53347 1 48 2.53347 0
gene 1 5 17 -1.05374 1 110 -1.05374 1
gene 1 17 5 -1.33733 0 111 -1.33733 1
gene 3 3 17 1.44379 0 129 1.44379 1
genomeend 68

/* Organism #69 Fitness: 103 Error: 0 */
genomestart 69
trait 1 0 0 0.23478 0.186566 0 0.0227195 0 0.928253 
trait 2 0.2 0 0 0 0 0 0 0 
trait 3 0.50247 0 0 0 0.314381 0 0 0 
node 1 3 1 3
node 2 3 1 1
node 3 1 1 1
node 4 3 1 1
node 5 3 0 2
node 6 3 0 2
node 17 1 0 0
gene 2 1 5 0.749002 0 1 0.749002 1
gene 1 2 5 -4.46914 0 2 -4.46914 1
gene 1 3 5 -1.01763 0 3 -1.01763 1
gene 1 4 5 3.33057 0 4 3.33057 1
gene 1 1 6 -6.00088 0 5 -6.00088 1
gene 1 2 6 0.0909381 0 6 0.0909381 1
gene 3 3 6 1.7375 0 7 1.7375 1
gene 1 4 6 -6.46804 0 8 -6.46804 1
gene 1 5 5 0.418012 1 48 0.418012 0
gene 1 5 17 -1.47489 1 110 -1.47489 1
gene 1 17 5 1.28884 0 111 1.28884 1
gene 3 3 17 -2.56626 0 129 -2.56626 1
genomeend 69

/* Species #733 : (Size 1) (AF 0) (Age 2)  */


/* Organism #70 Fitness: 0 Error: 0 */
genomestart 70
trait 1 0 0 0.23478 0 0 0.0227195 0 1 
trait 2 0.2 0 0 0 0 0 0 0 
trait 3 0.15 0 0 0 0.314381 0 0 0 
node 1 3 1 3
node 2 3 1 1
node 3 3 1 1
node 4 3 1 1
node 5 3 0 2
node 6 1 0 2
node 17 1 0 0
gene 2 1 5 0.566202 0 1 0.566202 1
gene 1 2 5 -5.14069 0 2 -5.14069 1
gene 1 3 5 1.95375 0 3 1.95375 1
gene 1 4 5 -1.29246 0 4 -1.29246 1
gene 1 1 6 -6.6318 0 5 -6.6318 1
gene 1 2 6 1.5131 0 6 1.5131 1
gene 3 3 6 2.93104 0 7 2.93104 1
gene 1 4 6 0.311565 0 8 0.311565 1
gene 1 5 5 5.09637 1 48 5.09637 0
gene 1 5 17 1.67056 1 110 1.67056 1
gene 1 17 5 6.05165 0 111 6.05165 1
genomeend 70

/* Species #735 : (Size 5) (AF 20.4) (Age 2)  */


/* Organism #71 Fitness: 0 Error: 0 */
genomestart 71
trait 1 0 0 0.23478 0 0 0.0227195 0 1 
trait 2 0.2 0 0 0 0 0 0 0 
trait 3 0.15 0 0 0 0.314381 0 0 0 
node 1 3 1 3
node 2 3 1 1
node 3 3 1 1
node 4 3 1 1
node 5 3 0 2
node 6 3 0 2
node 17 1 0 0
gene 2 1 5 0.294919 0 1 0.294919 1
gene 1 2 5 -1.57202 0 2 -1.57202 1
gene 1 3 5 0.666389 0 3 0.666389 1
gene 1 4 5 -1.80918 0 4 -1.80918 1
gene 1 1 6 -8 0 5 -8 1
gene 1 2 6 4.03519 0 6 4.03519 1
gene 3 3 6 2.8731 0 7 2.8731 1
gene 1 4 6 -5.08822 0 8 -5.08822 1
gene 1 5 5 6.13706 1 48 6.13706 0
gene 1 5 17 -0.689566 1 110 -0.689566 1
gene 1 17 5 7.04153 0 111 7.04153 1
genomeend 71

/* Organism #72 Fitness: 102 Error: 0 */
genomestart 72
trait 1 0 0 0.23478 0 0 0.0227195 0 1 
trait 2 0.2 0 0 0 0 0 0 0 
trait 3 0.15 0 0 0 0.314381 0 0 0 
node 1 3 1 3
node 2 3 1 1
node 3 3 1 1
node 4 2 1 1
node 5 3 0 2
node 6 3 0 2
node 17 1 0 0
gene 2 1 5 0.294919 0 1 0.294919 1
gene 1 2 5 -1.57202 0 2 -1.57202 1
gene 1 3 5 0.666389 0 3 0.666389 1
gene 1 4 5 -1.80918 0 4 -1.80918 1
gene 1 1 6 -8 0 5 -8 1
gene 1 2 6 4.03519 0 6 4.03519 1
gene 3 3 6 2.8731 0 7 2.8731 1
gene 1 4 6 -5.08822 0 8 -5.08822 1
gene 1 5 5 6.13706 1 48 6.13706 0
gene 1 5 17 -0.689566 1 110 -0.689566 1
gene 1 17 5 7.04153 0 111 7.04153 1
genomeend 72

/* Organism #73 Fitness: 0 Error: 0 */
genomestart 73
trait 1 0 0 0.23478 0 0 0.0227195 0 1 
trait 2 0.2 0 0 0 0 0 0 0 
trait 3 0.15 0 0 0 0.314381 0 0 0 
node 1 3 1 3
node 2 3 1 1
node 3 3 1 1
node 4 3 1 1
node 5 3 0 2
node 6 3 0 2
node 17 1 0 0
gene 2 1 5 -1.67075 0 1 -1.67075 1
gene 1 2 5 -1.57091 0 2 -1.57091 1
gene 1 3 5 1.61538 0 3 1.61538 1
gene 1 4 5 -1.20452 0 4 -1.20452 1
gene 1 1 6 -6.06101 0 5 -6.06101 1
gene 1 2 6 3.98515 0 6 3.98515 1
gene 3 3 6 4.47157 0 7 4.47157 1
gene 1 4 6 -4.04729 0 8 -4.04729 1
gene 1 5 5 3.86047 1 48 3.86047 0
gene 1 5 17 -0.689566 1 110 -0.689566 1
gene 1 17 5 4.55114 0 111 4.55114 1
genomeend 73

/* Organism #74 Fitness: 0 Error: 0 */
genomestart 74
trait 1 0 0 0.23478 0 0 0.0227195 0 1 
trait 2 0.2 0 0 0 0 0 0 0 
trait 3 0.15 0 0 0 0.314381 0 0 0 
node 1 3 1 3
node 2 3 1 1
node 3 3 1 1
node 4 3 1 1
node 5 3 0 2
node 6 3 0 2
node 17 1 0 0
gene 2 1 5 -0.231695 0 1 -0.231695 1
gene 1 2 5 -2.26927 0 2 -2.26927 1
gene 1 3 5 0.885447 0 3 0.885447 1
gene 1 4 5 -0.481411 0 4 -0.481411 1
gene 1 1 6 -7.3168 0 5 -7.3168 1
gene 1 2 6 5.07883 0 6 5.07883 1
gene 3 3 6 0.428853 0 7 0.428853 1
gene 1 4 6 -4.99688 0 8 -4.99688 1
gene 1 5 5 4.96197 1 48 4.96197 0
gene 1 5 17 -1.1673 1 110 -1.1673 1
gene 1 17 5 2.40997 0 111 2.40997 1
genomeend 74

/* Organism #75 Fitness: 0 Error: 0 */
genomestart 75
trait 1 0 0 0.23478 0 0 0.0227195 0 1 
trait 2 0.2 0 0 0 0 0 0 0 
trait 3 0.15 0 0 0 0.314381 0 0 0 
node 1 3 1 3
node 2 3 1 1
node 3 3 1 1
node 4 3 1 1
node 5 3 0 2
node 6 3 0 2
node 17 1 0 0
gene 2 1 5 -0.699858 0 1 -0.699858 1
gene 1 2 5 -3.31361 0 2 -3.31361 1
gene 1 3 5 -0.0788149 0 3 -0.0788149 1
gene 1 4 5 -3.37363 0 4 -3.37363 1
gene 1 1 6 -8 0 5 -8 1
gene 1 2 6 4.82389 0 6 4.82389 1
gene 3 3 6 1.98235 0 7 1.98235 1
gene 1 4 6 -6.2839 0 8 -6.2839 1
gene 1 5 5 7.87619 1 48 7.87619 0
gene 1 5 17 2.28085 1 110 2.28085 1
gene 1 17 5 7.04153 0 111 7.04153 1
genomeend 75

/* Species #736 : (Size 6) (AF 18.5) (Age 2)  */


/* Organism #76 Fitness: 0 Error: 0 */
genomestart 76
trait 1 0 0 0.23478 0 0 0.0227195 0 1 
trait 2 0.2 0 0 0 0 0 0 0 
trait 3 0.15 0 0 0 0.314381 0 0 0 
node 1 3 1 3
node 2 3 1 1
node 3 3 1 1
node 4 3 1 1
node 5 3 0 2
node 6 3 0 2
node 17 1 0 0
gene 2 1 5 0.0456481 0 1 0.0456481 1
gene 1 2 5 -2.66781 0 2 -2.66781 1
gene 1 3 5 1.80066 0 3 1.80066 1
gene 1 4 5 -3.75415 0 4 -3.75415 1
gene 1 1 6 -8 0 5 -8 1
gene 1 2 6 2.673 0 6 2.673 1
gene 3 3 6 5.53682 0 7 5.53682 1
gene 1 4 6 -7.69943 0 8 -7.69943 1
gene 1 5 5 4.59206 1 48 4.59206 0
gene 1 5 17 -2.54168 1 110 -2.54168 1
gene 1 17 5 4.02619 0 111 4.02619 1
gene 2 1 17 -0.310414 0 136 -0.310414 1
genomeend 76

/* Organism #77 Fitness: 103 Error: 0 */
genomestart 77
trait 1 0 0 0.23478 0 0 0.0227195 0 1 
trait 2 0.2 0 0 0 0 0 0 0 
trait 3 0.15 0 0 0 0.314381 0 0 0 
node 1 3 1 3
node 2 3 1 1
node 3 3 1 1
node 4 3 1 1
node 5 3 0 2
node 6 3 0 2
node 17 1 0 0
gene 2 1 5 0.0456481 0 1 0.0456481 1
gene 1 2 5 -2.66781 0 2 -2.66781 1
gene 1 3 5 1.80066 0 3 1.80066 1
gene 1 4 5 -3.75415 0 4 -3.75415 1
gene 1 1 6 -8 0 5 -8 1
gene 1 2 6 2.673 0 6 2.673 1
gene 3 3 6 5.53682 0 7 5.53682 1
gene 1 4 6 -7.69943 0 8 -7.69943 1
gene 1 5 5 4.59206 1 48 4.59206 0
gene 1 5 17 -2.54168 1 110 -2.54168 1
gene 1 17 5 4.02619 0 111 4.02619 1
gene 2 1 17 -0.310414 0 136 -0.310414 1
genomeend 77

/* Organism #78 Fitness: 8 Error: 0 */
genomestart 78
trait 1 0 0 0.23478 0 0 0.0227195 0 1 
trait 2 0.2 0 0 0 0 0 0 0 
trait 3 0.15 0 0 0 0.314381 0 0 0 
node 1 3 1 3
node 2 3 1 1
node 3 3 1 1
node 4 3 1 1
node 5 3 0 2
node 6 3 0 2
node 17 1 0 0
gene 2 1 5 0.837245 0 1 0.837245 1
gene 1 2 5 -1.5766 0 2 -1.5766 1
gene 1 3 5 2.79318 0 3 2.79318 1
gene 1 4 5 -2.92455 0 4 -2.92455 1
gene 1 1 6 -8 0 5 -8 1
gene 1 2 6 3.3047 0 6 3.3047 1
gene 3 3 6 5.41781 0 7 5.41781 1
gene 1 4 6 -8 0 8 -8 1
gene 1 5 5 5.05819 1 48 5.05819 0
gene 1 5 17 -2.7791 1 110 -2.7791 1
gene 1 17 5 4.69694 0 111 4.69694 1
gene 2 1 17 -0.21039 0 136 -0.21039 1
genomeend 78

/* Organism #79 Fitness: 0 Error: 0 */
genomestart 79
trait 1 0 0 0.23478 0 0 0.0227195 0 1 
trait 2 0.2 0 0 0 0 0 0 0 
trait 3 0.15 0 0 0 0.314381 0 0 0 
node 1 3 1 3
node 2 3 1 1
node 3 3 1 1
node 4 3 1 1
node 5 3 0 2
node 6 3 0 2
node 17 1 0 0
gene 2 1 5 -1.62469 0 1 -1.62469 1
gene 1 2 5 -0.622509 0 2 -0.622509 1
gene 1 3 5 2.98481 0 3 2.98481 1
gene 1 4 5 -3.58819 0 4 -3.58819 1
gene 1 1 6 -8 0 5 -8 1
gene 1 2 6 1.20584 0 6 1.20584 1
gene 3 3 6 7.71261 0 7 7.71261 1
gene 1 4 6 -8 0 8 -8 1
gene 1 5 5 4.04312 1 48 4.04312 0
gene 1 5 17 -1.581 1 110 -1.581 1
gene 1 17 5 -0.139432 0 111 -0.139432 1
gene 2 1 17 -0.310414 0 136 -0.310414 1
genomeend 79

/* Organism #80 Fitness: 0 Error: 0 */
genomestart 80
trait 1 0 0 0.23478 0 0 0.0227195 0 1 
trait 2 0.2 0 0 0 0 0 0 0 
trait 3 0.15 0 0 0 0.314381 0 0 0 
node 1 3 1 3
node 2 3 1 1
node 3 3 1 1
node 4 3 1 1
node 5 3 0 2
node 6 3 0 2
node 17 1 0 0
gene 2 1 5 -1.03098 0 1 -1.03098 1
gene 1 2 5 -1.24695 0 2 -1.24695 1
gene 1 3 5 3.19199 0 3 3.19199 1
gene 1 4 5 -1.50729 0 4 -1.50729 1
gene 1 1 6 -6.175 0 5 -6.175 1
gene 1 2 6 3.54775 0 6 3.54775 1
gene 3 3 6 5.14985 0 7 5.14985 1
gene 1 4 6 -8 0 8 -8 1
gene 1 5 5 5.92901 1 48 5.92901 0
gene 1 5 17 -4.3896 1 110 -4.3896 1
gene 1 17 5 6.24655 0 111 6.24655 1
gene 2 1 17 2.10898 0 136 2.10898 1
genomeend 80

/* Organism #81 Fitness: 0 Error: 0 */
genomestart 81
trait 1 0 0 0.23478 0 0 0.0227195 0 1 
trait 2 0.2 0 0 0 0 0 0 0 
trait 3 0.15 0 0 0 0.314381 0 0 0 
node 1 3 1 3
node 2 3 1 1
node 3 3 1 1
node 4 3 1 1
node 5 3 0 2
node 6 3 0 2
node 17 1 0 0
gene 2 1 5 0.493778 0 1 0.493778 1
gene 1 2 5 -0.329315 0 2 -0.329315 1
gene 1 3 5 3.0881 0 3 3.0881 1
gene 1 4 5 -4.59539 0 4 -4.59539 1
gene 1 1 6 -8 0 5 -8 1
gene 1 2 6 2.67651 0 6 2.67651 1
gene 3 3 6 3.93339 0 7 3.93339 1
gene 1 4 6 -7.92182 0 8 -7.92182 1
gene 1 5 5 3.67856 1 48 3.67856 0
gene 1 5 17 -4.93833 1 110 -4.93833 1
gene 1 17 5 4.02619 0 111 4.02619 1
gene 2 1 17 0.15306 0 136 0.15306 1
genomeend 81

/* Species #742 : (Size 1) (AF 0) (Age 1)  */


/* Organism #82 Fitness: 0 Error: 0 */
genomestart 82
trait 1 0.179586 0.893586 0.569003 0 0 0.402085 0.0458676 0 
trait 2 0 0 0 0.270962 0 0 0.969702 0 
trait 3 0.3 0 0 0.39743 0 0.346381 0.115144 0 
node 1 3 1 3
node 2 3 1 1
node 3 3 1 1
node 4 2 1 1
node 5 3 0 2
node 6 3 0 2
gene 1 1 5 7.45901 0 1 7.45901 1
gene 3 2 5 -3.59588 0 2 -3.59588 1
gene 2 3 5 -4.71081 0 3 -4.71081 1
gene 1 4 5 -0.524245 0 4 -0.524245 1
gene 1 1 6 -1.80949 0 5 -1.80949 1
gene 1 2 6 -0.600368 0 6 -0.600368 1
gene 3 3 6 2.13617 0 7 2.13617 1
gene 1 4 6 6.48231 0 8 6.48231 1
gene 1 6 5 -0.882047 0 23 -0.882047 1
gene 3 5 5 -1.30785 1 74 -1.30785 1
gene 2 5 6 -6.14257 1 102 -6.14257 1
genomeend 82

/* Species #743 : (Size 1) (AF 0) (Age 1)  */


/* Organism #83 Fitness: 0 Error: 0 */
genomestart 83
trait 1 0.179586 0.893586 0.569003 0 0 0.402085 0.0458676 0 
trait 2 0.05 0 0 0.203222 0 0 0.727276 0 
trait 3 0.3 0 0 0.39743 0 0.346381 0.115144 0 
node 1 3 1 3
node 2 3 1 1
node 3 3 1 1
node 4 2 1 1
node 5 3 0 2
node 6 3 0 2
gene 1 1 5 5.37938 0 1 5.37938 1
gene 3 2 5 -7.11975 0 2 -7.11975 1
gene 2 3 5 -3.01508 0 3 -3.01508 1
gene 1 4 5 -2.75917 0 4 -2.75917 1
gene 1 1 6 -0.464123 0 5 -0.464123 1
gene 1 2 6 0.812737 0 6 0.812737 1
gene 3 3 6 -7.63677 0 7 -7.63677 1
gene 1 4 6 4.62975 0 8 4.62975 1
gene 1 6 5 -7.40217 0 23 -7.40217 1
gene 3 5 5 0.35684 1 74 0.35684 1
gene 2 5 6 -3.39588 1 102 -3.39588 1
genomeend 83

/* Species #744 : (Size 1) (AF 0) (Age 1)  */


/* Organism #84 Fitness: 0 Error: 0 */
genomestart 84
trait 1 0.179586 0.893586 0.569003 0 0 0.402085 0.0458676 0 
trait 2 0.05 0 0 0.203222 0 0 0.727276 0 
trait 3 0.3 0 0 0.39743 0 0.346381 0.115144 0 
node 1 3 1 3
node 2 3 1 1
node 3 3 1 1
node 4 2 1 1
node 5 3 0 2
node 6 3 0 2
gene 1 1 5 5.19794 0 1 5.19794 1
gene 3 2 5 -6.86519 0 2 -6.86519 1
gene 2 3 5 -3.18132 0 3 -3.18132 1
gene 1 4 5 -1.2097 0 4 -1.2097 1
gene 1 1 6 -1.71031 0 5 -1.71031 1
gene 1 2 6 -0.7441 0 6 -0.7441 1
gene 3 3 6 1.33341 0 7 1.33341 1
gene 1 4 6 5.51494 0 8 5.51494 1
gene 1 6 5 -6.66843 0 23 -6.66843 1
gene 3 5 5 -2.14664 1 74 -2.14664 1
gene 2 5 6 -2.51745 1 102 -2.51745 1
genomeend 84

/* Species #745 : (Size 1) (AF 83) (Age 1)  */


/* Organism #85 Fitness: 83 Error: 0 */
genomestart 85
trait 1 0 0 0 0.761746 0 0.0227195 0 0 
trait 2 0.2 0 0 0 0 0 0 0 
trait 3 0.15 0 0 0 0.314381 0 0 0 
node 1 3 1 3
node 2 3 1 1
node 3 3 1 1
node 4 3 1 1
node 5 3 0 2
node 6 3 0 2
node 17 1 0 0
gene 2 1 5 5.35918 0 1 5.35918 1
gene 1 2 5 -4.32721 0 2 -4.32721 1
gene 1 3 5 -3.24809 0 3 -3.24809 1
gene 1 4 5 -0.924559 0 4 -0.924559 1
gene 1 1 6 -7.55073 0 5 -7.55073 1
gene 1 2 6 4.80593 0 6 4.80593 1
gene 3 3 6 4.64926 0 7 4.64926 1
gene 1 4 6 2.83204 0 8 2.83204 1
gene 1 5 5 3.54643 1 48 3.54643 1
gene 1 5 17 -0.108023 1 110 -0.108023 1
gene 1 17 5 2.78858 0 111 2.78858 1
genomeend 85

/* Species #746 : (Size 1) (AF -6) (Age 1)  */


/* Organism #86 Fitness: -6 Error: 0 */
genomestart 86
trait 1 0 0 0 0.761746 0 0.0227195 0 0 
trait 2 0.2 0 0 0 0 0 0 0 
trait 3 0.15 0 0 0 0.314381 0 0 0 
node 1 3 1 3
node 2 3 1 1
node 3 3 1 1
node 4 3 1 1
node 5 3 0 2
node 6 3 0 2
node 17 1 0 0
gene 2 1 5 3.37696 0 1 3.37696 1
gene 2 2 5 -0.414948 0 2 -0.414948 1
gene 1 3 5 -2.30179 0 3 -2.30179 1
gene 1 4 5 -3.6158 0 4 -3.6158 1
gene 1 1 6 -4.84617 0 5 -4.84617 1
gene 1 2 6 1.40784 0 6 1.40784 1
gene 3 3 6 0.564327 0 7 0.564327 1
gene 1 4 6 -0.43959 0 8 -0.43959 1
gene 1 5 5 -0.354024 1 48 -0.354024 1
gene 1 5 17 -0.365539 1 110 -0.365539 1
gene 1 17 5 2.46352 0 111 2.46352 1
genomeend 86

/* Species #747 : (Size 1) (AF 0) (Age 1)  */


/* Organism #87 Fitness: 0 Error: 0 */
genomestart 87
trait 1 0.1 0 0 0 0 0 0 0 
trait 2 0.683779 0.0223019 0 0.460672 0 0 0.217724 0.00714504 
trait 3 0.15 0 0 0 0.314381 0 0 0 
node 1 3 1 3
node 2 3 1 1
node 3 3 1 1
node 4 2 1 1
node 5 3 0 2
node 6 3 0 2
gene 2 1 5 -1.85283 0 1 -1.85283 1
gene 1 2 5 -5.96774 0 2 -5.96774 1
gene 1 3 5 -1.63632 0 3 -1.63632 1
gene 1 4 5 -0.681838 0 4 -0.681838 1
gene 1 1 6 -0.949717 0 5 -0.949717 1
gene 1 2 6 5.25689 0 6 5.25689 1
gene 3 3 6 -2.2048 0 7 -2.2048 1
gene 1 4 6 4.19493 0 8 4.19493 1
gene 3 5 5 -1.93526 1 48 -1.93526 1
gene 2 5 6 0.200148 0 94 0.200148 1
genomeend 87

/* Species #748 : (Size 1) (AF 0) (Age 1)  */


/* Organism #88 Fitness: 0 Error: 0 */
genomestart 88
trait 1 0 0 0.23478 0 0 0.0227195 0 1 
trait 2 0.2 0 0 0 0 0 0 0 
trait 3 0.15 0 0 0 0.314381 0 0 0 
node 1 3 1 3
node 2 3 1 1
node 3 3 1 1
node 4 3 1 1
node 5 3 0 2
node 6 3 0 2
node 17 1 0 0
gene 2 1 5 0.954942 0 1 0.954942 1
gene 1 2 5 2.42383 0 2 2.42383 1
gene 1 3 5 2.61037 0 3 2.61037 1
gene 1 4 5 -2.87558 0 4 -2.87558 1
gene 1 1 6 -5.295 0 5 -5.295 1
gene 1 2 6 1.20384 0 6 1.20384 1
gene 3 3 6 2.72527 0 7 2.72527 1
gene 1 4 6 -2.24039 0 8 -2.24039 1
gene 1 5 5 0.238309 1 48 0.238309 0
gene 1 5 17 -4.29117 1 110 -4.29117 1
gene 1 17 5 2.35331 0 111 2.35331 1
gene 3 17 6 -0.460463 0 135 -0.460463 1
genomeend 88

/* Species #749 : (Size 1) (AF 0) (Age 1)  */


/* Organism #89 Fitness: 0 Error: 0 */
genomestart 89
trait 1 0 0 0.23478 0 0 0.0227195 0 1 
trait 2 0.2 0 0 0 0 0 0 0 
trait 3 0.15 0 0 0 0.314381 0 0 0 
node 1 3 1 3
node 2 3 1 1
node 3 3 1 1
node 4 3 1 1
node 5 3 0 2
node 6 3 0 2
node 17 1 0 0
gene 2 1 5 -0.00223488 0 1 -0.00223488 1
gene 1 2 5 1.34498 0 2 1.34498 1
gene 1 3 5 3.75628 0 3 3.75628 1
gene 1 4 5 0.982615 0 4 0.982615 1
gene 1 1 6 0.138119 0 5 0.138119 1
gene 1 2 6 -0.570369 0 6 -0.570369 1
gene 3 3 6 4.25681 0 7 4.25681 1
gene 1 4 6 -3.65888 0 8 -3.65888 1
gene 1 5 5 6.07149 1 48 6.07149 0
gene 1 5 17 -2.17653 1 110 -2.17653 1
gene 1 17 5 2.28106 0 111 2.28106 1
genomeend 89

/* Species #750 : (Size 1) (AF 87) (Age 1)  */


/* Organism #90 Fitness: 87 Error: 0 */
genomestart 90
trait 1 0 0 0.23478 0 0 0.0227195 0 1 
trait 2 0.2 0 0 0 0 0 0 0 
trait 3 0.15 0 0 0 0.314381 0 0 0 
node 1 3 1 3
node 2 3 1 1
node 3 3 1 1
node 4 3 1 1
node 5 3 0 2
node 6 3 0 2
node 17 1 0 0
gene 2 1 5 0.97389 0 1 0.97389 1
gene 1 2 5 -3.72569 0 2 -3.72569 1
gene 1 3 5 1.46584 0 3 1.46584 1
gene 1 4 5 1.74448 0 4 1.74448 1
gene 1 1 6 -6.05156 0 5 -6.05156 1
gene 1 2 6 1.6336 0 6 1.6336 1
gene 3 3 6 6.85821 0 7 6.85821 1
gene 1 4 6 -6.03107 0 8 -6.03107 1
gene 1 5 5 6.39297 1 48 6.39297 0
gene 1 5 17 1.59674 1 110 1.59674 1
gene 1 17 5 -0.437224 0 111 -0.437224 1
genomeend 90

/* Species #751 : (Size 1) (AF 85) (Age 1)  */


/* Organism #91 Fitness: 85 Error: 0 */
genomestart 91
trait 1 0 0 0.23478 0 0 0.0227195 0 1 
trait 2 0.2 0 0 0 0 0 0 0 
trait 3 0.15 0 0 0 0.314381 0 0 0 
node 1 3 1 3
node 2 3 1 1
node 3 3 1 1
node 4 3 1 1
node 5 3 0 2
node 6 3 0 2
node 17 1 0 0
gene 2 1 5 0.0918699 0 1 0.0918699 1
gene 1 2 5 -3.41047 0 2 -3.41047 1
gene 1 3 5 3.75628 0 3 3.75628 1
gene 1 4 5 -5.44219 0 4 -5.44219 1
gene 1 1 6 -8 0 5 -8 1
gene 1 2 6 1.5131 0 6 1.5131 1
gene 3 3 6 6.73739 0 7 6.73739 1
gene 1 4 6 -3.945 0 8 -3.945 1
gene 1 5 5 -1.28771 1 48 -1.28771 0
gene 1 5 17 -2.78996 1 110 -2.78996 1
gene 1 17 5 3.76569 0 111 3.76569 1
genomeend 91

/* Species #752 : (Size 1) (AF 0) (Age 1)  */


/* Organism #92 Fitness: 0 Error: 0 */
genomestart 92
trait 1 0 0 0.23478 0 0 0.0227195 0 1 
trait 2 0.2 0 0 0 0 0 0 0 
trait 3 0.15 0 0 0 0.314381 0 0 0 
node 1 3 1 3
node 2 3 1 1
node 3 3 1 1
node 4 3 1 1
node 5 3 0 2
node 6 3 0 2
node 17 1 0 0
gene 2 1 5 1.99359 0 1 1.99359 1
gene 1 2 5 -4.16024 0 2 -4.16024 1
gene 1 3 5 4.10805 0 3 4.10805 1
gene 1 4 5 -1.81648 0 4 -1.81648 1
gene 1 1 6 -4.86673 0 5 -4.86673 1
gene 1 2 6 3.96998 0 6 3.96998 1
gene 3 3 6 3.81732 0 7 3.81732 1
gene 1 4 6 -8 0 8 -8 1
gene 1 5 5 7.4431 1 48 7.4431 0
gene 1 5 17 1.34062 1 110 1.34062 1
gene 1 17 5 0.889692 0 111 0.889692 1
genomeend 92

/* Species #753 : (Size 1) (AF 0) (Age 1)  */


/* Organism #93 Fitness: 0 Error: 0 */
genomestart 93
trait 1 0 0 0.23478 0 0 0.0227195 0 1 
trait 2 0.2 0 0 0 0 0 0 0 
trait 3 0.15 0 0 0 0.314381 0 0 0 
node 1 3 1 3
node 2 3 1 1
node 3 3 1 1
node 4 3 1 1
node 5 3 0 2
node 6 3 0 2
node 17 1 0 0
gene 2 1 5 1.46681 0 1 1.46681 1
gene 1 2 5 -4.89706 0 2 -4.89706 1
gene 1 3 5 -0.195342 0 3 -0.195342 1
gene 1 4 5 -4.37926 0 4 -4.37926 1
gene 1 1 6 -2.4309 0 5 -2.4309 1
gene 1 2 6 -0.0941871 0 6 -0.0941871 1
gene 3 3 6 2.6055 0 7 2.6055 1
gene 1 4 6 -6.14354 0 8 -6.14354 1
gene 1 5 5 1.13028 1 48 1.13028 0
gene 1 5 17 -1.48481 1 110 -1.48481 1
gene 1 17 5 7.02673 0 111 7.02673 1
genomeend 93

/* Species #754 : (Size 1) (AF 0) (Age 1)  */


/* Organism #94 Fitness: 0 Error: 0 */
genomestart 94
trait 1 0 0 0 0.761746 0 0.0227195 0 0 
trait 2 0.2 0 0 0 0 0 0 0 
trait 3 0.15 0 0 0 0.314381 0 0 0 
node 1 3 1 3
node 2 3 1 1
node 3 3 1 1
node 4 3 1 1
node 5 3 0 2
node 6 3 0 2
node 17 1 0 0
gene 2 1 5 0.326763 0 1 0.326763 1
gene 1 2 5 -3.9561 0 2 -3.9561 1
gene 1 3 5 3.08411 0 3 3.08411 1
gene 1 4 5 0.370492 0 4 0.370492 1
gene 1 1 6 -0.265702 0 5 -0.265702 1
gene 1 2 6 1.99479 0 6 1.99479 1
gene 3 3 6 0.541884 0 7 0.541884 1
gene 1 4 6 1.63499 0 8 1.63499 1
gene 1 5 5 4.28668 1 48 4.28668 0
gene 1 5 17 1.8646 1 110 1.8646 1
gene 1 17 5 -5.71076 0 111 -5.71076 1
genomeend 94

/* Species #755 : (Size 1) (AF 85) (Age 1)  */


/* Organism #95 Fitness: 85 Error: 0 */
genomestart 95
trait 1 0 0 0.23478 0 0 0.0227195 0 1 
trait 2 0.2 0 0 0 0 0 0 0 
trait 3 0.15 0 0 0 0.314381 0 0 0 
node 1 3 1 3
node 2 3 1 1
node 3 3 1 1
node 4 3 1 1
node 5 3 0 2
node 6 3 0 2
node 17 1 0 0
gene 2 1 5 -1.73385 0 1 -1.73385 1
gene 1 2 5 -0.480791 0 2 -0.480791 1
gene 1 3 5 -0.390391 0 3 -0.390391 1
gene 1 4 5 1.59921 0 4 1.59921 1
gene 1 1 6 -6.89066 0 5 -6.89066 1
gene 1 2 6 3.67714 0 6 3.67714 1
gene 3 3 6 0.501875 0 7 0.501875 1
gene 1 4 6 -2.40269 0 8 -2.40269 1
gene 1 5 5 -1.03369 1 48 -1.03369 1
gene 1 5 17 -1.17544 1 110 -1.17544 1
gene 1 17 5 0.980973 0 111 0.980973 1
genomeend 95

/* Species #756 : (Size 1) (AF -7) (Age 1)  */


/* Organism #96 Fitness: -7 Error: 0 */
genomestart 96
trait 1 0 0 0.23478 0 0 0.0227195 0 1 
trait 2 0.2 0 0 0 0 0 0 0 
trait 3 0.15 0 0 0 0.314381 0 0 0 
node 1 3 1 3
node 2 3 1 1
node 3 3 1 1
node 4 3 1 1
node 5 3 0 2
node 6 3 0 2
node 17 1 0 0
gene 2 1 5 2.24418 0 1 2.24418 1
gene 1 2 5 -4.49418 0 2 -4.49418 1
gene 1 3 5 -0.126053 0 3 -0.126053 1
gene 1 4 5 -1.4743 0 4 -1.4743 1
gene 1 1 6 0.303324 0 5 0.303324 1
gene 1 2 6 1.15428 0 6 1.15428 1
gene 3 3 6 6.37922 0 7 6.37922 1
gene 1 4 6 1.26397 0 8 1.26397 1
gene 1 5 5 0.491447 1 48 0.491447 0
gene 1 5 17 -1.31618 1 110 -1.31618 1
gene 1 17 5 0.780197 0 111 0.780197 1
genomeend 96

/* Species #757 : (Size 1) (AF 0) (Age 1)  */


/* Organism #97 Fitness: 0 Error: 0 */
genomestart 97
trait 1 0 0.893586 0.569003 0 0.749025 0.402085 0.530626 0.918284 
trait 2 0.1 0 0 0.135481 0 0 0.484851 0 
trait 3 0.3 0 0 0.39743 0 0.346381 0.115144 0 
node 1 3 1 3
node 2 3 1 1
node 3 3 1 1
node 4 2 1 1
node 5 3 0 2
node 6 3 0 2
gene 1 1 5 3.9085 0 1 3.9085 1
gene 3 2 5 -7.81372 0 2 -7.81372 1
gene 2 3 5 1.13191 0 3 1.13191 1
gene 1 4 5 -4.9447 0 4 -4.9447 1
gene 1 1 6 -4.63927 0 5 -4.63927 1
gene 1 2 6 3.66392 0 6 3.66392 1
gene 3 3 6 0.106216 0 7 0.106216 1
gene 1 4 6 8 0 8 8 1
gene 1 6 5 -0.979352 0 23 -0.979352 1
gene 3 5 5 1.30659 1 74 1.30659 1
gene 2 5 6 -0.590036 1 102 -0.590036 1
genomeend 97

/* Species #758 : (Size 1) (AF -7) (Age 1)  */


/* Organism #98 Fitness: -7 Error: 0 */
genomestart 98
trait 1 0 0.893586 0.569003 0 0.749025 0.402085 0.530626 0.918284 
trait 2 0.1 0 0 0.135481 0 0 0.484851 0 
trait 3 0.3 0 0 0.39743 0 0.346381 0.115144 0 
node 1 3 1 3
node 2 3 1 1
node 3 3 1 1
node 4 2 1 1
node 5 3 0 2
node 6 3 0 2
gene 1 1 5 4.05653 0 1 4.05653 1
gene 3 2 5 -6.04516 0 2 -6.04516 1
gene 2 3 5 -3.37948 0 3 -3.37948 1
gene 1 4 5 -5.83061 0 4 -5.83061 1
gene 1 1 6 1.62985 0 5 1.62985 1
gene 1 2 6 1.81326 0 6 1.81326 1
gene 3 3 6 -0.800557 0 7 -0.800557 1
gene 1 4 6 7.21465 0 8 7.21465 1
gene 1 6 5 -0.633736 0 23 -0.633736 1
gene 3 5 5 -0.00860324 1 74 -0.00860324 1
gene 2 5 6 -4.75419 1 102 -4.75419 1
genomeend 98

/* Species #759 : (Size 1) (AF 0) (Age 1)  */


/* Organism #99 Fitness: 0 Error: 0 */
genomestart 99
trait 1 0 0 0.23478 0.186566 0 0.0227195 0 0.928253 
trait 2 0.2 0 0 0 0 0 0 0 
trait 3 0.50247 0 0 0 0.314381 0 0 0 
node 1 3 1 3
node 2 3 1 1
node 3 1 1 1
node 4 3 1 1
node 5 3 0 2
node 6 3 0 2
node 17 1 0 0
gene 2 1 5 0.388258 0 1 0.388258 1
gene 1 2 5 -6.16609 0 2 -6.16609 1
gene 1 3 5 -5.7685 0 3 -5.7685 1
gene 1 4 5 -0.193659 0 4 -0.193659 1
gene 1 1 6 -7.43302 0 5 -7.43302 1
gene 1 2 6 -1.59887 0 6 -1.59887 1
gene 3 3 6 4.29636 0 7 4.29636 1
gene 1 4 6 1.53371 0 8 1.53371 1
gene 1 5 5 4.29522 1 48 4.29522 0
gene 1 5 17 0.271599 1 110 0.271599 1
gene 1 17 5 2.61325 0 111 2.61325 1
gene 3 3 17 -2.13027 0 129 -2.13027 1
genomeend 99
