
/* Species #71 : (Size 4) (AF 10) (Age 6)  */


/* Organism #0 Fitness: 0 Error: 0 */
genomestart 0
trait 1 23347 0 701 6891 0 9032 18841 0 
trait 2 2 0 0 0 0 0 0 0 
trait 3 3 0 2636 30916 12021 33055 0 0 
node 1 2 1 3
node 2 2 1 1
node 3 1 1 1
node 4 3 1 1
node 5 1 0 2
node 6 2 0 2
node 9 1 0 0
gene 2 1 5 -314484 0 1 -314484 1
gene 2 2 5 -98051 0 2 -98051 0
gene 1 3 5 262270 0 3 262270 1
gene 1 4 5 -575003 0 4 -575003 1
gene 2 1 6 -189375 0 5 -189375 1
gene 1 2 6 -342340 0 6 -342340 1
gene 1 3 6 62642 0 7 62642 1
gene 1 4 6 -259706 0 8 -259706 1
gene 2 2 9 60592 0 25 60592 1
gene 2 9 5 86395 0 26 86395 1
genomeend 0

/* Organism #1 Fitness: 40 Error: 0 */
genomestart 1
trait 1 11674 0 350 3445 0 4516 9420 0 
trait 2 2 0 0 0 0 0 0 0 
trait 3 3 0 2636 30916 12021 33055 0 0 
node 1 2 1 3
node 2 2 1 1
node 3 1 1 1
node 4 3 1 1
node 5 1 0 2
node 6 2 0 2
node 9 1 0 0
gene 2 1 5 -250839 0 1 -250839 1
gene 2 2 5 -71108 0 2 -71108 0
gene 1 3 5 227641 0 3 227641 1
gene 1 4 5 -441269 0 4 -441269 1
gene 2 1 6 -65598 0 5 -65598 1
gene 1 2 6 -194968 0 6 -194968 1
gene 1 3 6 70832 0 7 70832 1
gene 1 4 6 -152306 0 8 -152306 1
gene 2 2 9 36307 0 25 36307 1
gene 2 9 5 -3137 0 26 -3137 1
genomeend 1

/* Organism #2 Fitness: 0 Error: 0 */
genomestart 2
trait 1 1 0 0 0 0 30124 0 0 
trait 2 2 0 0 0 0 0 0 0 
trait 3 3 0 2636 30916 12021 33055 0 0 
node 1 2 1 3
node 2 2 1 1
node 3 1 1 1
node 4 3 1 1
node 5 1 0 2
node 6 2 0 2
node 9 1 0 0
gene 2 1 5 -168489 0 1 -168489 1
gene 2 2 5 -368196 0 2 -368196 1
gene 1 3 5 287531 0 3 287531 1
gene 1 4 5 -295697 0 4 -295697 1
gene 2 1 6 -174957 0 5 -174957 1
gene 1 2 6 -100793 0 6 -100793 1
gene 1 3 6 208872 0 7 208872 1
gene 1 4 6 -9237 0 8 -9237 1
gene 2 2 9 -203699 0 25 -203699 1
gene 2 9 5 121591 0 26 121591 1
gene 1 6 6 75518 1 52 75518 1
genomeend 2

/* Organism #3 Fitness: 0 Error: 0 */
genomestart 3
trait 1 23347 0 701 6891 0 9032 18841 0 
trait 2 2 0 0 0 0 0 0 0 
trait 3 3 0 2636 2403 0 0 0 0 
node 1 2 1 3
node 2 2 1 1
node 3 1 1 1
node 4 3 1 1
node 5 1 0 2
node 6 2 0 2
node 9 1 0 0
gene 2 1 5 3120 0 1 3120 1
gene 2 2 5 -13795 0 2 -13795 0
gene 1 3 5 344725 0 3 344725 1
gene 1 4 5 52081 0 4 52081 1
gene 2 1 6 -338589 0 5 -338589 1
gene 1 2 6 -319142 0 6 -319142 1
gene 1 3 6 126138 0 7 126138 1
gene 1 4 6 -67200 0 8 -67200 1
gene 2 2 9 -189809 0 25 -189809 1
gene 2 9 5 107497 0 26 107497 1
genomeend 3

/* Species #128 : (Size 1) (AF 0) (Age 4)  */


/* Organism #4 Fitness: 0 Error: 0 */
genomestart 4
trait 1 23347 0 701 6891 0 9032 18841 0 
trait 2 2 0 0 0 0 0 0 0 
trait 3 3 0 2636 2403 0 0 0 0 
node 1 2 1 3
node 2 2 1 1
node 3 1 1 1
node 4 3 1 1
node 5 1 0 2
node 6 2 0 2
node 9 1 0 0
gene 2 1 5 19203 0 1 19203 1
gene 2 2 5 -280267 0 2 -280267 0
gene 1 3 5 790774 0 3 790774 1
gene 1 4 5 -151152 0 4 -151152 1
gene 2 1 6 -317919 0 5 -317919 1
gene 1 2 6 -54095 0 6 -54095 1
gene 1 3 6 156603 0 7 156603 1
gene 1 4 6 -230016 0 8 -230016 1
gene 2 2 9 -30026 0 25 -30026 1
gene 2 9 5 225480 0 26 225480 1
genomeend 4

/* Species #163 : (Size 4) (AF 20) (Age 3)  */


/* Organism #5 Fitness: 0 Error: 0 */
genomestart 5
trait 1 1 0 0 0 0 0 0 0 
trait 2 2 0 0 0 0 0 0 0 
trait 3 3 0 2636 2403 0 0 0 0 
node 1 2 1 3
node 2 2 1 1
node 3 1 1 1
node 4 3 1 1
node 5 1 0 2
node 6 2 0 2
node 9 1 0 0
gene 2 1 5 -288447 0 1 -288447 1
gene 2 2 5 -365150 0 2 -365150 0
gene 1 3 5 320185 0 3 320185 1
gene 1 4 5 -320681 0 4 -320681 1
gene 2 1 6 -356028 0 5 -356028 1
gene 3 2 6 -186079 0 6 -186079 1
gene 1 3 6 -259665 0 7 -259665 1
gene 1 4 6 111036 0 8 111036 1
gene 2 2 9 -459653 0 25 -459653 1
gene 2 9 5 278802 0 26 278802 1
genomeend 5

/* Organism #6 Fitness: 0 Error: 0 */
genomestart 6
trait 1 1 0 0 0 0 0 0 0 
trait 2 2 0 0 0 0 0 0 0 
trait 3 3 0 2636 2403 0 0 0 0 
node 1 2 1 3
node 2 2 1 1
node 3 1 1 1
node 4 3 1 1
node 5 1 0 2
node 6 2 0 2
node 9 1 0 0
gene 2 1 5 37332 0 1 37332 1
gene 2 2 5 -458807 0 2 -458807 0
gene 1 3 5 401701 0 3 401701 1
gene 1 4 5 -537674 0 4 -537674 1
gene 2 1 6 -176928 0 5 -176928 1
gene 3 2 6 37883 0 6 37883 1
gene 1 3 6 63000 0 7 63000 1
gene 1 4 6 59172 0 8 59172 1
gene 2 2 9 -259043 0 25 -259043 1
gene 2 9 5 332145 0 26 332145 1
genomeend 6

/* Organism #7 Fitness: 0 Error: 0 */
genomestart 7
trait 1 1 0 0 0 0 0 0 0 
trait 2 2 0 0 0 0 0 0 0 
trait 3 3 0 2636 2403 0 0 0 0 
node 1 2 1 3
node 2 2 1 1
node 3 1 1 1
node 4 3 1 1
node 5 1 0 2
node 6 2 0 2
node 9 1 0 0
gene 2 1 5 -339972 0 1 -339972 1
gene 2 2 5 -737558 0 2 -737558 0
gene 1 3 5 268414 0 3 268414 1
gene 1 4 5 -298721 0 4 -298721 1
gene 2 1 6 -302520 0 5 -302520 1
gene 3 2 6 42374 0 6 42374 1
gene 1 3 6 -15795 0 7 -15795 1
gene 1 4 6 67680 0 8 67680 1
gene 2 2 9 -290432 0 25 -290432 1
gene 2 9 5 -57537 0 26 -57537 1
genomeend 7

/* Organism #8 Fitness: 80 Error: 0 */
genomestart 8
trait 1 1 0 0 0 0 0 0 0 
trait 2 2 0 0 0 0 0 0 0 
trait 3 3 0 2636 2403 0 0 0 0 
node 1 2 1 3
node 2 2 1 1
node 3 1 1 1
node 4 3 1 1
node 5 1 0 2
node 6 2 0 2
node 9 1 0 0
gene 2 1 5 -218154 0 1 -218154 1
gene 2 2 5 -439454 0 2 -439454 0
gene 1 3 5 382903 0 3 382903 1
gene 1 4 5 -420149 0 4 -420149 1
gene 2 1 6 -314619 0 5 -314619 1
gene 3 2 6 -154597 0 6 -154597 1
gene 1 3 6 -195117 0 7 -195117 1
gene 1 4 6 100983 0 8 100983 1
gene 2 2 9 -373319 0 25 -373319 1
gene 2 9 5 112599 0 26 112599 1
gene 3 6 6 22061 1 53 22061 1
genomeend 8

/* Species #164 : (Size 1) (AF 0) (Age 3)  */


/* Organism #9 Fitness: 0 Error: 0 */
genomestart 9
trait 1 1 0 0 0 0 0 0 0 
trait 2 2 0 0 0 0 0 0 0 
trait 3 3 0 2636 30916 12021 33055 0 0 
node 1 2 1 3
node 2 2 1 1
node 3 1 1 1
node 4 3 1 1
node 5 1 0 2
node 6 2 0 2
node 9 1 0 0
gene 2 1 5 -230221 0 1 -230221 1
gene 2 2 5 -408561 0 2 -408561 0
gene 1 3 5 42848 0 3 42848 1
gene 1 4 5 -395912 0 4 -395912 1
gene 2 1 6 -276924 0 5 -276924 1
gene 1 2 6 -18190 0 6 -18190 1
gene 1 3 6 478656 0 7 478656 1
gene 1 4 6 -267510 0 8 -267510 1
gene 2 2 9 -450350 0 25 -450350 1
gene 2 9 5 31164 0 26 31164 1
genomeend 9

/* Species #165 : (Size 8) (AF 30) (Age 3)  */


/* Organism #10 Fitness: 0 Error: 0 */
genomestart 10
trait 1 1 0 0 0 0 0 0 0 
trait 2 2 0 0 0 0 0 0 0 
trait 3 3 33518 2636 5886 9879 0 0 83419 
node 1 2 1 3
node 2 2 1 1
node 3 1 1 1
node 4 3 1 1
node 5 1 0 2
node 6 2 0 2
node 9 1 0 0
gene 2 1 5 -123039 0 1 -123039 1
gene 2 2 5 301755 0 2 301755 0
gene 1 3 5 560847 0 3 560847 1
gene 1 4 5 -345173 0 4 -345173 1
gene 2 1 6 31455 0 5 31455 1
gene 1 2 6 -57442 0 6 -57442 1
gene 1 3 6 -311508 0 7 -311508 1
gene 3 4 6 -102660 0 8 -102660 1
gene 2 2 9 162990 0 25 162990 1
gene 2 9 5 -33491 0 26 -33491 1
genomeend 10

/* Organism #11 Fitness: 80 Error: 0 */
genomestart 11
trait 1 1 0 0 0 0 0 0 0 
trait 2 2 0 0 0 0 0 0 0 
trait 3 3 33518 2636 5886 9879 0 0 83419 
node 1 2 1 3
node 2 2 1 1
node 3 1 1 1
node 4 3 1 1
node 5 1 0 2
node 6 2 0 2
node 9 1 0 0
gene 2 1 5 -123039 0 1 -123039 1
gene 2 2 5 301755 0 2 301755 0
gene 1 3 5 560847 0 3 560847 1
gene 1 4 5 -345173 0 4 -345173 1
gene 2 1 6 31455 0 5 31455 1
gene 1 2 6 -57442 0 6 -57442 1
gene 1 3 6 -311508 0 7 -311508 1
gene 3 4 6 -102660 0 8 -102660 1
gene 2 2 9 162990 0 25 162990 1
gene 2 9 5 -33491 0 26 -33491 1
gene 3 5 6 61451 0 54 61451 1
genomeend 11

/* Organism #12 Fitness: 0 Error: 0 */
genomestart 12
trait 1 1 0 0 0 0 0 0 0 
trait 2 2 0 0 0 0 0 0 0 
trait 3 3 33518 2636 5886 9879 0 0 83419 
node 1 2 1 3
node 2 2 1 1
node 3 1 1 1
node 4 3 1 1
node 5 1 0 2
node 6 2 0 2
node 9 1 0 0
gene 2 1 5 -140454 0 1 -140454 1
gene 2 2 5 441342 0 2 441342 0
gene 1 3 5 675135 0 3 675135 1
gene 1 4 5 -215411 0 4 -215411 1
gene 2 1 6 319770 0 5 319770 1
gene 1 2 6 92480 0 6 92480 1
gene 1 3 6 -380046 0 7 -380046 1
gene 3 4 6 149592 0 8 149592 1
gene 2 2 9 331491 0 25 331491 1
gene 2 9 5 -172634 0 26 -172634 1
genomeend 12

/* Organism #13 Fitness: 120 Error: 0 */
genomestart 13
trait 1 1 0 0 0 0 0 0 0 
trait 2 2 0 0 0 0 0 0 0 
trait 3 3 33518 2636 5886 9879 0 0 83419 
node 1 2 1 3
node 2 2 1 1
node 3 1 1 1
node 4 3 1 1
node 5 1 0 2
node 6 2 0 2
node 9 1 0 0
gene 2 1 5 -123039 0 1 -123039 1
gene 2 2 5 301755 0 2 301755 0
gene 1 3 5 560847 0 3 560847 1
gene 1 4 5 -345173 0 4 -345173 1
gene 2 1 6 31455 0 5 31455 1
gene 1 2 6 -57442 0 6 -57442 1
gene 1 3 6 -311508 0 7 -311508 1
gene 3 4 6 -102660 0 8 -102660 1
gene 1 2 9 162990 0 25 162990 1
gene 2 9 5 -33491 0 26 -33491 1
genomeend 13

/* Organism #14 Fitness: 0 Error: 0 */
genomestart 14
trait 1 1 0 0 0 0 0 0 0 
trait 2 2 0 0 0 0 0 0 0 
trait 3 3 33518 2636 5886 9879 0 0 83419 
node 1 2 1 3
node 2 2 1 1
node 3 1 1 1
node 4 3 1 1
node 5 1 0 2
node 6 2 0 2
node 9 1 0 0
gene 2 1 5 -306216 0 1 -306216 1
gene 2 2 5 195225 0 2 195225 0
gene 1 3 5 549156 0 3 549156 1
gene 1 4 5 -75695 0 4 -75695 1
gene 2 1 6 -95976 0 5 -95976 1
gene 1 2 6 -56296 0 6 -56296 1
gene 1 3 6 -356232 0 7 -356232 1
gene 3 4 6 -296397 0 8 -296397 1
gene 2 2 9 77922 0 25 77922 1
gene 2 9 5 -291708 0 26 -291708 1
genomeend 14

/* Organism #15 Fitness: 0 Error: 0 */
genomestart 15
trait 1 1 0 0 0 0 0 0 0 
trait 2 2 0 0 0 0 0 0 0 
trait 3 3 33518 2636 5886 9879 0 0 83419 
node 1 2 1 3
node 2 2 1 1
node 3 1 1 1
node 4 3 1 1
node 5 1 0 2
node 6 2 0 2
node 9 1 0 0
gene 2 1 5 -73101 0 1 -73101 1
gene 2 2 5 282924 0 2 282924 0
gene 1 3 5 638148 0 3 638148 1
gene 1 4 5 -609692 0 4 -609692 1
gene 2 1 6 99810 0 5 99810 1
gene 1 2 6 133880 0 6 133880 1
gene 1 3 6 -294186 0 7 -294186 1
gene 3 4 6 -337728 0 8 -337728 1
gene 2 2 9 440403 0 25 440403 1
gene 2 9 5 -33491 0 26 -33491 1
genomeend 15

/* Organism #16 Fitness: 40 Error: 0 */
genomestart 16
trait 1 1 0 0 0 0 0 0 0 
trait 2 2 0 0 0 0 0 0 0 
trait 3 3 33518 2636 5886 9879 0 0 83419 
node 1 2 1 3
node 2 2 1 1
node 3 1 1 1
node 4 3 1 1
node 5 1 0 2
node 6 2 0 2
node 9 1 0 0
gene 2 1 5 -123039 0 1 -123039 1
gene 2 2 5 109398 0 2 109398 0
gene 1 3 5 665889 0 3 665889 1
gene 1 4 5 -251027 0 4 -251027 1
gene 2 1 6 -238665 0 5 -238665 1
gene 1 2 6 -67237 0 6 -67237 1
gene 1 3 6 -99354 0 7 -99354 1
gene 3 4 6 -77313 0 8 -77313 1
gene 2 2 9 320097 0 25 320097 1
gene 2 9 5 -319601 0 26 -319601 1
genomeend 16

/* Organism #17 Fitness: 0 Error: 0 */
genomestart 17
trait 1 1 0 0 0 0 0 0 0 
trait 2 2 0 0 0 0 0 0 0 
trait 3 3 33518 2636 5886 9879 0 0 83419 
node 1 2 1 3
node 2 2 1 1
node 3 1 1 1
node 4 3 1 1
node 5 1 0 2
node 6 2 0 2
node 9 1 0 0
gene 2 1 5 -301431 0 1 -301431 1
gene 2 2 5 335838 0 2 335838 0
gene 1 3 5 591675 0 3 591675 1
gene 1 4 5 -178061 0 4 -178061 1
gene 2 1 6 60975 0 5 60975 1
gene 1 2 6 121961 0 6 121961 1
gene 1 3 6 -385605 0 7 -385605 1
gene 3 4 6 -290151 0 8 -290151 1
gene 2 2 9 157593 0 25 157593 1
gene 2 9 5 -33491 0 26 -33491 1
genomeend 17

/* Species #166 : (Size 1) (AF 0) (Age 3)  */


/* Organism #18 Fitness: 0 Error: 0 */
genomestart 18
trait 1 1 0 0 0 0 0 0 0 
trait 2 2 0 0 0 0 0 0 0 
trait 3 3 0 2636 2403 0 0 0 0 
node 1 2 1 3
node 2 2 1 1
node 3 1 1 1
node 4 3 1 1
node 5 1 0 2
node 6 2 0 2
node 9 1 0 0
gene 2 1 5 -444240 0 1 -444240 1
gene 2 2 5 154588 0 2 154588 0
gene 1 3 5 143502 0 3 143502 1
gene 1 4 5 -795176 0 4 -795176 1
gene 2 1 6 97575 0 5 97575 1
gene 1 2 6 -119724 0 6 -119724 1
gene 1 3 6 -124533 0 7 -124533 1
gene 1 4 6 -394877 0 8 -394877 1
gene 2 2 9 -497738 0 25 -497738 1
gene 2 9 5 -251024 0 26 -251024 1
genomeend 18

/* Species #169 : (Size 3) (AF 13.3333) (Age 3)  */


/* Organism #19 Fitness: 0 Error: 0 */
genomestart 19
trait 1 1 0 0 0 0 0 0 0 
trait 2 2 0 0 0 0 0 0 0 
trait 3 3 0 2636 2403 0 0 0 0 
node 1 2 1 3
node 2 2 1 1
node 3 1 1 1
node 4 3 1 1
node 5 1 0 2
node 6 2 0 2
node 9 1 0 0
gene 2 1 5 -266574 0 1 -266574 1
gene 2 2 5 74965 0 2 74965 0
gene 1 3 5 479068 0 3 479068 1
gene 1 4 5 -722369 0 4 -722369 1
gene 2 1 6 333582 0 5 333582 1
gene 1 2 6 -153487 0 6 -153487 1
gene 1 3 6 209237 0 7 209237 1
gene 1 4 6 277825 0 8 277825 1
gene 2 2 9 95890 0 25 95890 1
gene 2 9 5 253699 0 26 253699 1
gene 3 1 9 71110 0 45 71110 1
genomeend 19

/* Organism #20 Fitness: 0 Error: 0 */
genomestart 20
trait 1 1 0 0 0 0 0 0 0 
trait 2 2 0 0 0 0 0 0 0 
trait 3 3 0 2636 2403 0 0 0 0 
node 1 2 1 3
node 2 2 1 1
node 3 1 1 1
node 4 3 1 1
node 5 1 0 2
node 6 2 0 2
node 9 1 0 0
gene 2 1 5 41511 0 1 41511 1
gene 2 2 5 322981 0 2 322981 0
gene 1 3 5 597172 0 3 597172 1
gene 1 4 5 -800000 0 4 -800000 1
gene 2 1 6 128082 0 5 128082 1
gene 1 2 6 -159640 0 6 -159640 1
gene 1 3 6 197256 0 7 197256 1
gene 1 4 6 461008 0 8 461008 1
gene 2 2 9 14412 0 25 14412 1
gene 2 9 5 200205 0 26 200205 1
gene 3 1 9 -165860 0 45 -165860 1
genomeend 20

/* Organism #21 Fitness: 40 Error: 0 */
genomestart 21
trait 1 1 0 0 0 0 0 0 0 
trait 2 2 0 0 0 0 0 0 0 
trait 3 3 0 2636 2403 0 0 0 0 
node 1 2 1 3
node 2 2 1 1
node 3 1 1 1
node 4 3 1 1
node 5 1 0 2
node 6 2 0 2
node 9 1 0 0
gene 2 1 5 -555192 0 1 -555192 1
gene 2 2 5 83251 0 2 83251 0
gene 1 3 5 260473 0 3 260473 1
gene 1 4 5 -754826 0 4 -754826 1
gene 2 1 6 167742 0 5 167742 1
gene 1 2 6 -119998 0 6 -119998 1
gene 1 3 6 47063 0 7 47063 1
gene 1 4 6 424702 0 8 424702 1
gene 2 2 9 -164339 0 25 -164339 1
gene 2 9 5 231507 0 26 231507 1
gene 3 1 9 71110 0 45 71110 1
genomeend 21

/* Species #172 : (Size 1) (AF 0) (Age 3)  */


/* Organism #22 Fitness: 0 Error: 0 */
genomestart 22
trait 1 23347 0 701 6891 0 9032 18841 0 
trait 2 2 0 0 0 0 0 0 0 
trait 3 3 0 2636 2403 0 0 0 0 
node 1 2 1 3
node 2 2 1 1
node 3 1 1 1
node 4 3 1 1
node 5 1 0 2
node 6 2 0 2
node 9 1 0 0
gene 2 1 5 -127089 0 1 -127089 1
gene 2 2 5 262210 0 2 262210 0
gene 1 3 5 -128604 0 3 -128604 1
gene 1 4 5 -712808 0 4 -712808 1
gene 2 1 6 2442 0 5 2442 1
gene 1 2 6 -246403 0 6 -246403 1
gene 1 3 6 296693 0 7 296693 1
gene 3 4 6 -312303 0 8 -312303 1
gene 2 2 9 -18747 0 25 -18747 1
gene 2 9 5 -158042 0 26 -158042 1
gene 1 5 5 125846 1 49 125846 1
genomeend 22

/* Species #183 : (Size 2) (AF 60) (Age 2)  */


/* Organism #23 Fitness: 0 Error: 0 */
genomestart 23
trait 1 1 0 0 0 0 0 0 0 
trait 2 2 0 0 0 0 0 0 0 
trait 3 3 33518 2636 5886 9879 0 0 83419 
node 1 2 1 3
node 2 2 1 1
node 3 1 1 1
node 4 3 1 1
node 5 1 0 2
node 6 2 0 2
node 9 1 0 0
gene 2 1 5 223170 0 1 223170 1
gene 2 2 5 325611 0 2 325611 0
gene 1 3 5 556062 0 3 556062 1
gene 1 4 5 -183230 0 4 -183230 1
gene 2 1 6 -42984 0 5 -42984 1
gene 1 2 6 93155 0 6 93155 1
gene 1 3 6 287220 0 7 287220 1
gene 3 4 6 -73644 0 8 -73644 1
gene 2 2 9 339093 0 25 339093 1
gene 2 9 5 -252053 0 26 -252053 1
genomeend 23

/* Organism #24 Fitness: 120 Error: 0 */
genomestart 24
trait 1 1 0 0 0 0 0 0 0 
trait 2 2 0 0 0 0 0 0 0 
trait 3 3 33518 2636 5886 9879 0 0 83419 
node 1 2 1 3
node 2 2 1 1
node 3 1 1 1
node 4 3 1 1
node 5 1 0 2
node 6 2 0 2
node 9 1 0 0
gene 2 1 5 109377 0 1 109377 1
gene 2 2 5 440589 0 2 440589 0
gene 1 3 5 451551 0 3 451551 1
gene 1 4 5 -448127 0 4 -448127 1
gene 2 1 6 -13839 0 5 -13839 1
gene 1 2 6 -73693 0 6 -73693 1
gene 1 3 6 60492 0 7 60492 1
gene 3 4 6 -158670 0 8 -158670 1
gene 2 2 9 283821 0 25 283821 1
gene 2 9 5 -252053 0 26 -252053 1
gene 2 3 9 73652 0 55 73652 1
genomeend 24

/* Species #184 : (Size 5) (AF 56) (Age 2)  */


/* Organism #25 Fitness: 0 Error: 0 */
genomestart 25
trait 1 23347 0 701 6891 0 9032 18841 0 
trait 2 2 0 0 0 0 0 0 0 
trait 3 3 0 2636 2403 0 0 0 0 
node 1 2 1 3
node 2 2 1 1
node 3 1 1 1
node 4 3 1 1
node 5 1 0 2
node 6 2 0 2
node 9 1 0 0
gene 2 1 5 -114099 0 1 -114099 1
gene 2 2 5 93805 0 2 93805 0
gene 1 3 5 429973 0 3 429973 1
gene 1 4 5 -391520 0 4 -391520 1
gene 1 1 6 139275 0 5 139275 1
gene 1 2 6 -202583 0 6 -202583 1
gene 1 3 6 104184 0 7 104184 1
gene 3 4 6 49073 0 8 49073 1
gene 2 2 9 56859 0 25 56859 1
gene 2 9 5 -3137 0 26 -2352 1
gene 1 6 5 39489 0 41 39489 1
genomeend 25

/* Organism #26 Fitness: 80 Error: 0 */
genomestart 26
trait 1 23347 0 701 6891 0 9032 18841 0 
trait 2 2 0 0 0 0 0 0 0 
trait 3 3 0 2636 2403 0 0 0 0 
node 1 2 1 3
node 2 2 1 1
node 3 1 1 1
node 4 3 1 1
node 5 1 0 2
node 6 2 0 2
node 9 1 0 0
gene 2 1 5 -114099 0 1 -114099 1
gene 2 2 5 93805 0 2 93805 0
gene 1 3 5 429973 0 3 429973 1
gene 1 4 5 -391520 0 4 -391520 1
gene 1 1 6 139275 0 5 139275 1
gene 1 2 6 -202583 0 6 -202583 1
gene 1 3 6 104184 0 7 104184 1
gene 3 4 6 49073 0 8 49073 1
gene 2 2 9 56859 0 25 56859 1
gene 2 9 5 -3137 0 26 -2352 1
gene 1 6 5 39489 0 41 39489 1
genomeend 26

/* Organism #27 Fitness: 80 Error: 0 */
genomestart 27
trait 1 23347 0 701 6891 0 9032 18841 0 
trait 2 2 0 0 0 0 0 0 0 
trait 3 3 0 2636 2403 0 0 0 0 
node 1 2 1 3
node 2 2 1 1
node 3 1 1 1
node 4 3 1 1
node 5 1 0 2
node 6 2 0 2
node 9 1 0 0
gene 2 1 5 -114099 0 1 -114099 1
gene 2 2 5 24208 0 2 24208 0
gene 1 3 5 589519 0 3 589519 1
gene 1 4 5 -90750 0 4 -90750 1
gene 1 1 6 22830 0 5 22830 1
gene 1 2 6 -13220 0 6 -13220 1
gene 1 3 6 80256 0 7 80256 1
gene 3 4 6 81539 0 8 81539 1
gene 2 2 9 -48957 0 25 -48957 1
gene 2 9 5 229744 0 26 229744 1
gene 1 6 5 198189 0 41 198189 1
genomeend 27

/* Organism #28 Fitness: 0 Error: 0 */
genomestart 28
trait 1 23347 0 701 6891 0 9032 18841 0 
trait 2 2 0 0 0 0 0 0 0 
trait 3 3 0 2636 2403 0 0 0 0 
node 1 2 1 3
node 2 2 1 1
node 3 1 1 1
node 4 3 1 1
node 5 1 0 2
node 6 2 0 2
node 9 1 0 0
gene 2 1 5 -96348 0 1 -96348 1
gene 2 2 5 239785 0 2 239785 0
gene 1 3 5 510694 0 3 510694 1
gene 1 4 5 -114848 0 4 -114848 1
gene 1 1 6 386394 0 5 386394 1
gene 1 2 6 -175859 0 6 -175859 1
gene 1 3 6 -41640 0 7 -41640 1
gene 3 4 6 -85138 0 8 -85138 1
gene 2 2 9 101661 0 25 101661 1
gene 2 9 5 274611 0 26 274611 1
gene 1 6 5 39489 0 41 39489 1
genomeend 28

/* Organism #29 Fitness: 120 Error: 0 */
genomestart 29
trait 1 23347 0 701 6891 0 9032 18841 0 
trait 2 2 0 0 0 0 0 0 0 
trait 3 3 0 2636 2403 0 0 0 0 
node 1 2 1 3
node 2 2 1 1
node 3 1 1 1
node 4 3 1 1
node 5 1 0 2
node 6 2 0 2
node 9 1 0 0
gene 2 1 5 -114099 0 1 -114099 1
gene 2 2 5 93805 0 2 93805 0
gene 1 3 5 429973 0 3 429973 1
gene 1 4 5 -391520 0 4 -391520 1
gene 1 1 6 139275 0 5 139275 1
gene 1 2 6 -202583 0 6 -202583 1
gene 1 3 6 104184 0 7 104184 1
gene 3 4 6 49073 0 8 49073 1
gene 2 2 9 56859 0 25 56859 1
gene 2 9 5 -3137 0 26 -2352 1
gene 1 6 5 39489 0 41 39489 1
genomeend 29

/* Species #188 : (Size 3) (AF 40) (Age 2)  */


/* Organism #30 Fitness: 0 Error: 0 */
genomestart 30
trait 1 1 0 0 0 0 0 0 0 
trait 2 2 0 0 0 0 0 0 0 
trait 3 3 0 2636 2403 0 0 0 0 
node 1 2 1 3
node 2 2 1 1
node 3 1 1 1
node 4 3 1 1
node 5 1 0 2
node 6 2 0 2
node 9 1 0 0
node 10 1 0 0
gene 2 1 5 -359949 0 1 -359949 1
gene 2 2 5 142567 0 2 142567 0
gene 1 3 5 730720 0 3 730720 1
gene 1 4 5 -199205 0 4 -199205 1
gene 2 1 6 368619 0 5 368619 1
gene 1 2 6 -95800 0 6 -95800 1
gene 1 3 6 131507 0 7 131507 0
gene 1 4 6 -40520 0 8 -40520 1
gene 2 2 9 -158111 0 25 -158111 1
gene 2 9 5 21174 0 26 21174 1
gene 1 3 10 1 0 43 0 1
gene 1 10 6 131507 0 44 0 1
genomeend 30

/* Organism #31 Fitness: 40 Error: 0 */
genomestart 31
trait 1 1 0 0 0 0 0 0 0 
trait 2 2 0 0 0 0 0 0 0 
trait 3 3 0 2636 2403 0 0 0 0 
node 1 2 1 3
node 2 2 1 1
node 3 1 1 1
node 4 3 1 1
node 5 1 0 2
node 6 2 0 2
node 9 1 0 0
node 10 1 0 0
gene 2 1 5 -399213 0 1 -399213 1
gene 2 2 5 219829 0 2 219829 0
gene 1 3 5 508519 0 3 508519 1
gene 1 4 5 -340430 0 4 -340430 1
gene 2 1 6 364194 0 5 364194 1
gene 1 2 6 -158956 0 6 -158956 1
gene 1 3 6 121298 0 7 121298 0
gene 1 4 6 -89528 0 8 -89528 1
gene 2 2 9 -21122 0 25 -21122 1
gene 2 9 5 66891 0 26 66891 1
gene 1 3 10 1 0 43 1 1
gene 1 10 6 131507 0 44 131507 1
genomeend 31

/* Organism #32 Fitness: 80 Error: 0 */
genomestart 32
trait 1 1 0 0 0 0 0 0 0 
trait 2 2 0 0 0 0 0 0 0 
trait 3 3 0 2636 2403 0 0 0 0 
node 1 2 1 3
node 2 2 1 1
node 3 1 1 1
node 4 3 1 1
node 5 1 0 2
node 6 2 0 2
node 9 1 0 0
node 10 1 0 0
gene 2 1 5 -359949 0 1 -359949 1
gene 2 2 5 142567 0 2 142567 0
gene 1 3 5 730720 0 3 730720 1
gene 1 4 5 -199205 0 4 -199205 1
gene 2 1 6 368619 0 5 368619 1
gene 1 2 6 -95800 0 6 -95800 1
gene 1 3 6 131507 0 7 131507 0
gene 1 4 6 -40520 0 8 -40520 1
gene 2 2 9 -158111 0 25 -158111 1
gene 2 9 5 21174 0 26 21174 1
gene 1 3 10 1 0 43 0 1
gene 1 10 6 131507 0 44 0 1
genomeend 32

/* Species #189 : (Size 3) (AF 0) (Age 2)  */


/* Organism #33 Fitness: 0 Error: 0 */
genomestart 33
trait 1 1 0 0 0 0 0 0 0 
trait 2 2 0 0 0 0 0 0 0 
trait 3 3 0 2636 2403 0 0 0 0 
node 1 2 1 3
node 2 2 1 1
node 3 3 1 1
node 4 3 1 1
node 5 1 0 2
node 6 2 0 2
node 9 1 0 0
gene 2 1 5 -407802 0 1 -407802 1
gene 2 2 5 359281 0 2 359281 0
gene 1 3 5 296851 0 3 296851 1
gene 1 4 5 165904 0 4 165904 1
gene 2 1 6 169125 0 5 169125 1
gene 1 2 6 -262543 0 6 -262543 1
gene 1 3 6 -209743 0 7 -209743 1
gene 1 4 6 102813 0 8 102813 1
gene 2 2 9 -41102 0 25 -41102 1
gene 2 9 5 331227 0 26 331227 1
genomeend 33

/* Organism #34 Fitness: 0 Error: 0 */
genomestart 34
trait 1 1 0 0 0 0 0 0 0 
trait 2 2 0 0 0 0 0 0 0 
trait 3 3 0 2636 2403 0 0 0 0 
node 1 2 1 3
node 2 2 1 1
node 3 3 1 1
node 4 3 1 1
node 5 1 0 2
node 6 2 0 2
node 9 1 0 0
gene 2 1 5 -496734 0 1 -496734 1
gene 2 2 5 354481 0 2 354481 0
gene 1 3 5 384796 0 3 384796 1
gene 1 4 5 140182 0 4 140182 1
gene 2 1 6 421587 0 5 421587 1
gene 1 2 6 -262543 0 6 -262543 1
gene 1 3 6 -209743 0 7 -209743 1
gene 1 4 6 282438 0 8 282438 1
gene 2 2 9 -255359 0 25 -255359 1
gene 2 9 5 316125 0 26 316125 1
genomeend 34

/* Organism #35 Fitness: 0 Error: 0 */
genomestart 35
trait 1 1 0 0 0 0 0 0 0 
trait 2 2 0 0 0 0 0 0 0 
trait 3 3 0 2636 2403 0 0 0 0 
node 1 2 1 3
node 2 2 1 1
node 3 3 1 1
node 4 3 1 1
node 5 1 0 2
node 6 2 0 2
node 9 1 0 0
node 11 1 0 0
gene 2 1 5 -496734 0 1 -496734 1
gene 2 2 5 354481 0 2 354481 0
gene 1 3 5 384796 0 3 384796 1
gene 1 4 5 140182 0 4 140182 1
gene 2 1 6 421587 0 5 421587 1
gene 1 2 6 -262543 0 6 -262543 0
gene 1 3 6 -209743 0 7 -209743 1
gene 1 4 6 282438 0 8 282438 1
gene 2 2 9 -255359 0 25 -255359 1
gene 2 9 5 316125 0 26 316125 1
gene 1 2 11 1 0 56 0 1
gene 1 11 6 -262543 0 57 0 1
genomeend 35

/* Species #190 : (Size 1) (AF 40) (Age 2)  */


/* Organism #36 Fitness: 40 Error: 0 */
genomestart 36
trait 1 1 0 0 0 0 0 0 0 
trait 2 2 0 0 0 0 0 0 0 
trait 3 3 0 2636 30916 12021 33055 0 0 
node 1 2 1 3
node 2 2 1 1
node 3 1 1 1
node 4 3 1 1
node 5 1 0 2
node 6 2 0 2
node 9 1 0 0
gene 2 1 5 -230221 0 1 -230221 1
gene 2 2 5 -408561 0 2 -408561 0
gene 1 3 5 42848 0 3 42848 1
gene 1 4 5 -395912 0 4 -395912 1
gene 2 1 6 -276924 0 5 -276924 1
gene 1 2 6 -18190 0 6 -18190 1
gene 1 3 6 478656 0 7 478656 1
gene 1 4 6 -267510 0 8 -267510 1
gene 2 2 9 -450350 0 25 -450350 1
gene 2 9 5 31164 0 26 31164 1
gene 3 6 5 47419 0 58 47419 1
genomeend 36

/* Species #202 : (Size 2) (AF 20) (Age 2)  */


/* Organism #37 Fitness: 40 Error: 0 */
genomestart 37
trait 1 1 0 0 0 13124 0 0 0 
trait 2 2 0 0 0 0 0 0 0 
trait 3 3 0 2636 2403 0 0 0 0 
node 1 2 1 3
node 2 2 1 1
node 3 1 1 1
node 4 3 1 1
node 5 1 0 2
node 6 2 0 2
node 9 1 0 0
gene 2 1 5 -588267 0 1 -588267 1
gene 2 2 5 -355178 0 2 -355178 0
gene 1 3 5 415561 0 3 415561 1
gene 1 4 5 -103503 0 4 -103503 1
gene 2 1 6 -504993 0 5 -504993 1
gene 1 2 6 -349078 0 6 -349078 1
gene 1 3 6 -142077 0 7 -142077 1
gene 1 4 6 -187878 0 8 -187878 1
gene 2 2 9 -214173 0 25 -214173 1
gene 2 9 5 -104265 0 26 -104265 1
genomeend 37

/* Organism #38 Fitness: 0 Error: 0 */
genomestart 38
trait 1 1 0 0 0 0 0 0 0 
trait 2 2 0 0 0 0 0 0 0 
trait 3 3 0 2636 2403 0 0 0 0 
node 1 2 1 3
node 2 2 1 1
node 3 1 1 1
node 4 3 1 1
node 5 1 0 2
node 6 2 0 2
node 9 1 0 0
gene 2 1 5 -528132 0 1 -528132 1
gene 2 2 5 -355178 0 2 -355178 0
gene 1 3 5 209506 0 3 209506 1
gene 1 4 5 -432977 0 4 -432977 1
gene 2 1 6 -431619 0 5 -431619 1
gene 1 2 6 -349078 0 6 -349078 1
gene 1 3 6 -11715 0 7 -11715 1
gene 1 4 6 62556 0 8 62556 1
gene 2 2 9 -26045 0 25 -26045 1
gene 2 9 5 -140589 0 26 -140589 1
gene 3 6 5 47419 0 58 0 1
genomeend 38

/* Species #203 : (Size 1) (AF 0) (Age 2)  */


/* Organism #39 Fitness: 0 Error: 0 */
genomestart 39
trait 1 1 0 0 0 0 0 0 0 
trait 2 2 0 0 0 0 0 0 0 
trait 3 3 0 2636 30916 12021 33055 0 0 
node 1 2 1 3
node 2 2 1 1
node 3 1 1 1
node 4 3 1 1
node 5 1 0 2
node 6 2 0 2
node 9 1 0 0
gene 2 1 5 99669 0 1 99669 1
gene 2 2 5 -161373 0 2 -161373 0
gene 1 3 5 110812 0 3 110812 1
gene 1 4 5 -420905 0 4 -420905 1
gene 2 1 6 176499 0 5 176499 1
gene 1 2 6 -196851 0 6 -196851 1
gene 1 3 6 572567 0 7 572567 1
gene 1 4 6 222175 0 8 222175 1
gene 2 2 9 -257000 0 25 -257000 1
gene 2 9 5 235515 0 26 235515 1
genomeend 39

/* Species #206 : (Size 2) (AF 0) (Age 2)  */


/* Organism #40 Fitness: 0 Error: 0 */
genomestart 40
trait 1 23347 0 701 6891 0 9032 18841 0 
trait 2 2 0 0 0 0 0 0 0 
trait 3 3 0 2636 2403 0 0 0 0 
node 1 2 1 3
node 2 2 1 1
node 3 1 1 1
node 4 3 1 1
node 5 2 0 2
node 6 2 0 2
node 9 1 0 0
gene 2 1 5 -33036 0 1 -33036 1
gene 2 2 5 262790 0 2 262790 0
gene 1 3 5 577045 0 3 577045 1
gene 1 4 5 252346 0 4 252346 1
gene 2 1 6 184053 0 5 184053 1
gene 1 2 6 23887 0 6 23887 1
gene 1 3 6 -61581 0 7 -61581 1
gene 1 4 6 -435288 0 8 -435288 1
gene 2 2 9 45532 0 25 45532 1
gene 2 9 5 -59516 0 26 -59516 1
genomeend 40

/* Organism #41 Fitness: 0 Error: 0 */
genomestart 41
trait 1 23347 0 701 6891 0 9032 18841 0 
trait 2 2 0 0 0 0 0 0 0 
trait 3 3 0 2636 2403 0 0 0 0 
node 1 2 1 3
node 2 2 1 1
node 3 1 1 1
node 4 3 1 1
node 5 1 0 2
node 6 2 0 2
node 9 1 0 0
gene 2 1 5 -198480 0 1 -198480 1
gene 2 2 5 106796 0 2 106796 0
gene 1 3 5 411301 0 3 411301 1
gene 1 4 5 173449 0 4 173449 1
gene 2 1 6 -250368 0 5 -250368 1
gene 1 2 6 -91817 0 6 -91817 1
gene 1 3 6 -233244 0 7 -233244 1
gene 1 4 6 -435429 0 8 -435429 1
gene 2 2 9 30265 0 25 30265 1
gene 2 9 5 -220308 0 26 -220308 1
genomeend 41

/* Species #210 : (Size 5) (AF 24) (Age 2)  */


/* Organism #42 Fitness: 0 Error: 0 */
genomestart 42
trait 1 1 0 0 0 0 0 0 0 
trait 2 2 0 0 0 0 0 0 0 
trait 3 3 0 2636 2403 0 0 0 0 
node 1 2 1 3
node 2 2 1 1
node 3 1 1 1
node 4 3 1 1
node 5 1 0 2
node 6 2 0 2
node 9 1 0 0
gene 2 1 5 -15186 0 1 -15186 1
gene 2 2 5 52927 0 2 52927 0
gene 1 3 5 71553 0 3 71553 1
gene 1 4 5 -796838 0 4 -796838 1
gene 2 1 6 568122 0 5 568122 1
gene 1 2 6 -153487 0 6 -153487 1
gene 1 3 6 -67438 0 7 -67438 1
gene 1 4 6 -3870 0 8 -3870 1
gene 2 2 9 -151790 0 25 -151790 1
gene 2 9 5 215853 0 26 215853 1
genomeend 42

/* Organism #43 Fitness: 0 Error: 0 */
genomestart 43
trait 1 1 0 0 0 0 0 0 0 
trait 2 2 0 0 0 0 0 0 0 
trait 3 3 0 2636 2403 0 0 0 0 
node 1 2 1 3
node 2 2 1 1
node 3 1 1 1
node 4 3 1 1
node 5 1 0 2
node 6 2 0 2
node 9 1 0 0
gene 2 1 5 232143 0 1 232143 1
gene 2 2 5 351061 0 2 351061 0
gene 1 3 5 194301 0 3 194301 1
gene 1 4 5 -800000 0 4 -800000 1
gene 2 1 6 534807 0 5 534807 1
gene 1 2 6 104588 0 6 104588 1
gene 1 3 6 -327865 0 7 -327865 1
gene 1 4 6 -7140 0 8 -7140 1
gene 2 2 9 -201431 0 25 -201431 1
gene 2 9 5 322686 0 26 322686 1
genomeend 43

/* Organism #44 Fitness: 0 Error: 0 */
genomestart 44
trait 1 1 0 0 0 0 0 0 0 
trait 2 2 0 0 0 0 0 0 0 
trait 3 3 0 2636 2403 0 0 0 0 
node 1 2 1 3
node 2 2 1 1
node 3 1 1 1
node 4 1 1 1
node 5 1 0 2
node 6 2 0 2
node 9 1 0 0
gene 2 1 5 129696 0 1 129696 1
gene 2 2 5 62686 0 2 62686 0
gene 1 3 5 53370 0 3 53370 1
gene 1 4 5 -800000 0 4 -800000 1
gene 2 1 6 714240 0 5 714240 1
gene 1 2 6 110555 0 6 110555 1
gene 1 3 6 -251734 0 7 -251734 1
gene 1 4 6 57354 0 8 57354 1
gene 2 2 9 -207242 0 25 -207242 1
gene 2 9 5 -14283 0 26 -14283 1
genomeend 44

/* Organism #45 Fitness: 40 Error: 0 */
genomestart 45
trait 1 1 0 0 0 0 0 0 0 
trait 2 2 0 0 0 0 0 0 0 
trait 3 3 0 2636 2403 0 0 0 0 
node 1 2 1 3
node 2 2 1 1
node 3 1 1 1
node 4 3 1 1
node 5 1 0 2
node 6 2 0 2
node 9 1 0 0
gene 2 1 5 -268107 0 1 -268107 1
gene 2 2 5 230533 0 2 230533 0
gene 1 3 5 313149 0 3 313149 1
gene 1 4 5 -800000 0 4 -800000 1
gene 2 1 6 528864 0 5 528864 1
gene 1 2 6 -444769 0 6 -444769 1
gene 1 3 6 -283888 0 7 -283888 1
gene 1 4 6 130428 0 8 130428 1
gene 2 2 9 -198128 0 25 -198128 1
gene 2 9 5 215853 0 26 215853 1
genomeend 45

/* Organism #46 Fitness: 80 Error: 0 */
genomestart 46
trait 1 1 0 0 0 0 0 0 0 
trait 2 2 0 0 0 0 0 0 0 
trait 3 3 0 2636 2403 0 0 0 0 
node 1 2 1 3
node 2 2 1 1
node 3 1 1 1
node 4 3 1 1
node 5 1 0 2
node 6 2 0 2
node 9 1 0 0
gene 2 1 5 -15186 0 1 -15186 1
gene 2 2 5 52927 0 2 52927 0
gene 1 3 5 71553 0 3 71553 1
gene 1 4 5 -796838 0 4 -796838 1
gene 2 1 6 568122 0 5 568122 1
gene 1 2 6 -153487 0 6 -153487 1
gene 1 3 6 -67438 0 7 -67438 1
gene 1 4 6 -3870 0 8 -3870 1
gene 2 2 9 -151790 0 25 -151790 1
gene 2 9 5 215853 0 26 215853 1
gene 3 9 6 20793 0 59 20793 1
genomeend 46

/* Species #213 : (Size 3) (AF 13.3333) (Age 2)  */


/* Organism #47 Fitness: 0 Error: 0 */
genomestart 47
trait 1 1 0 0 0 0 0 0 0 
trait 2 2 0 0 0 0 0 0 0 
trait 3 3 0 2636 30916 12021 33055 0 0 
node 1 2 1 3
node 2 2 1 1
node 3 1 1 1
node 4 3 1 1
node 5 1 0 2
node 6 2 0 2
node 9 1 0 0
gene 2 1 5 -205992 0 1 -205992 1
gene 2 2 5 -569525 0 2 -569525 0
gene 1 3 5 -168342 0 3 -168342 1
gene 1 4 5 -455897 0 4 -455897 1
gene 2 1 6 -294588 0 5 -294588 1
gene 1 2 6 -655006 0 6 -655006 1
gene 1 3 6 648545 0 7 648545 1
gene 1 4 6 245445 0 8 245445 1
gene 2 2 9 -180155 0 25 -180155 1
gene 2 9 5 418986 0 26 418986 1
genomeend 47

/* Organism #48 Fitness: 0 Error: 0 */
genomestart 48
trait 1 1 0 0 0 0 0 0 0 
trait 2 2 0 0 0 0 0 0 0 
trait 3 3 0 2636 30916 12021 33055 0 0 
node 1 2 1 3
node 2 2 1 1
node 3 1 1 1
node 4 3 1 1
node 5 1 0 2
node 6 2 0 2
node 9 1 0 0
gene 2 1 5 -78294 0 1 -78294 1
gene 2 2 5 -560126 0 2 -560126 0
gene 1 3 5 -15729 0 3 -15729 1
gene 1 4 5 -562208 0 4 -562208 1
gene 2 1 6 -13359 0 5 -13359 1
gene 1 2 6 -367804 0 6 -367804 1
gene 1 3 6 441338 0 7 441338 1
gene 1 4 6 278184 0 8 278184 1
gene 2 2 9 -377876 0 25 -377876 1
gene 2 9 5 418986 0 26 418986 1
genomeend 48

/* Organism #49 Fitness: 40 Error: 0 */
genomestart 49
trait 1 1 0 0 0 0 0 0 0 
trait 2 2 0 0 0 0 0 0 0 
trait 3 3 0 2636 30916 12021 33055 0 0 
node 1 2 1 3
node 2 2 1 1
node 3 1 1 1
node 4 3 1 1
node 5 1 0 2
node 6 2 0 2
node 9 1 0 0
gene 2 1 5 -78294 0 1 -78294 1
gene 2 2 5 -560126 0 2 -560126 0
gene 1 3 5 -15729 0 3 -15729 1
gene 1 4 5 -562208 0 4 -562208 1
gene 2 1 6 -13359 0 5 -13359 1
gene 1 2 6 -367804 0 6 -367804 1
gene 1 3 6 441338 0 7 441338 1
gene 1 4 6 278184 0 8 278184 1
gene 2 2 9 -377876 0 25 -377876 1
gene 2 9 5 418986 0 26 418986 1
gene 2 4 9 12349 0 60 12349 1
genomeend 49

/* Species #214 : (Size 1) (AF 0) (Age 2)  */


/* Organism #50 Fitness: 0 Error: 0 */
genomestart 50
trait 1 1 0 0 0 0 0 0 0 
trait 2 2 0 0 0 0 0 0 0 
trait 3 3 0 2636 30916 12021 33055 0 0 
node 1 2 1 3
node 2 2 1 1
node 3 1 1 1
node 4 3 1 1
node 5 1 0 2
node 6 2 0 2
node 9 1 0 0
gene 2 1 5 283197 0 1 283197 1
gene 2 2 5 -190590 0 2 -190590 0
gene 1 3 5 -57941 0 3 -57941 1
gene 1 4 5 -423467 0 4 -423467 1
gene 2 1 6 311448 0 5 311448 1
gene 1 2 6 -76687 0 6 -76687 1
gene 1 3 6 800000 0 7 800000 1
gene 1 4 6 -245564 0 8 -245564 1
gene 2 2 9 -195050 0 25 -195050 1
gene 2 9 5 -128319 0 26 -128319 1
genomeend 50

/* Species #215 : (Size 6) (AF 46.6667) (Age 2)  */


/* Organism #51 Fitness: 0 Error: 0 */
genomestart 51
trait 1 1 0 0 0 0 0 0 0 
trait 2 2 0 0 0 0 0 0 0 
trait 3 3 0 2636 30916 12021 33055 0 0 
node 1 2 1 3
node 2 2 1 1
node 3 1 1 1
node 4 3 1 1
node 5 1 0 2
node 6 2 0 2
node 9 1 0 0
gene 2 1 5 -268008 0 1 -268008 1
gene 2 2 5 -396296 0 2 -396296 1
gene 1 3 5 507946 0 3 507946 1
gene 1 4 5 -246716 0 4 -246716 1
gene 2 1 6 177585 0 5 177585 1
gene 1 2 6 -514954 0 6 -514954 1
gene 1 3 6 771740 0 7 771740 1
gene 1 4 6 -8669 0 8 -8669 1
gene 2 2 9 -53189 0 25 -53189 1
gene 2 9 5 116928 0 26 116928 1
gene 1 9 6 -135748 0 48 -135748 1
genomeend 51

/* Organism #52 Fitness: 0 Error: 0 */
genomestart 52
trait 1 1 0 0 0 0 0 0 0 
trait 2 2 0 0 0 0 0 0 0 
trait 3 3 0 2636 30916 12021 33055 0 0 
node 1 2 1 3
node 2 2 1 1
node 3 1 1 1
node 4 3 1 1
node 5 1 0 2
node 6 2 0 2
node 9 1 0 0
gene 2 1 5 -133029 0 1 -133029 1
gene 2 2 5 -417248 0 2 -417248 0
gene 1 3 5 560071 0 3 560071 1
gene 1 4 5 -39639 0 4 -39639 1
gene 2 1 6 211974 0 5 211974 1
gene 1 2 6 -495172 0 6 -495172 1
gene 1 3 6 743660 0 7 743660 1
gene 1 4 6 -83393 0 8 -83393 1
gene 2 2 9 -83219 0 25 -83219 1
gene 2 9 5 252087 0 26 252087 1
genomeend 52

/* Organism #53 Fitness: 0 Error: 0 */
genomestart 53
trait 1 1 0 0 0 0 0 0 0 
trait 2 2 0 0 0 0 0 0 0 
trait 3 3 0 2636 30916 12021 33055 0 0 
node 1 2 1 3
node 2 2 1 1
node 3 1 1 1
node 4 3 1 1
node 5 1 0 2
node 6 2 0 2
node 9 1 0 0
gene 2 1 5 -169183 0 1 -169183 1
gene 2 2 5 -231746 0 2 -231746 0
gene 1 3 5 289859 0 3 289859 1
gene 1 4 5 -157547 0 4 -157547 1
gene 2 1 6 4461 0 5 4461 1
gene 1 2 6 -570370 0 6 -570370 1
gene 1 3 6 800000 0 7 800000 1
gene 1 4 6 139621 0 8 139621 1
gene 2 2 9 97879 0 25 97879 1
gene 2 9 5 258349 0 26 258349 1
genomeend 53

/* Organism #54 Fitness: 120 Error: 0 */
genomestart 54
trait 1 1 0 0 0 0 0 0 0 
trait 2 2 0 0 0 0 0 0 0 
trait 3 3 0 2636 30916 12021 33055 0 0 
node 1 2 1 3
node 2 2 1 1
node 3 1 1 1
node 4 3 1 1
node 5 1 0 2
node 6 2 0 2
node 9 1 0 0
gene 2 1 5 -268008 0 1 -268008 1
gene 2 2 5 -417248 0 2 -417248 0
gene 1 3 5 507946 0 3 507946 1
gene 1 4 5 -39639 0 4 -39639 1
gene 2 1 6 177585 0 5 177585 1
gene 1 2 6 -495172 0 6 -495172 1
gene 1 3 6 743660 0 7 743660 1
gene 1 4 6 -83393 0 8 -83393 1
gene 2 2 9 -53189 0 25 -53189 1
gene 2 9 5 252087 0 26 252087 1
genomeend 54

/* Organism #55 Fitness: 80 Error: 0 */
genomestart 55
trait 1 1 0 0 0 0 0 0 0 
trait 2 2 0 0 0 0 0 0 0 
trait 3 3 0 2636 30916 12021 33055 0 0 
node 1 2 1 3
node 2 2 1 1
node 3 1 1 1
node 4 3 1 1
node 5 1 0 2
node 6 2 0 2
node 9 1 0 0
gene 2 1 5 -268008 0 1 -268008 1
gene 2 2 5 -417248 0 2 -417248 0
gene 1 3 5 507946 0 3 507946 1
gene 1 4 5 -39639 0 4 -39639 1
gene 2 1 6 177585 0 5 177585 1
gene 1 2 6 -495172 0 6 -495172 1
gene 1 3 6 743660 0 7 743660 1
gene 1 4 6 -8669 0 8 -8669 1
gene 2 2 9 -53189 0 25 -53189 1
gene 2 9 5 116928 0 26 116928 1
genomeend 55

/* Organism #56 Fitness: 80 Error: 0 */
genomestart 56
trait 1 1 0 0 0 0 0 0 0 
trait 2 2 0 0 0 0 0 0 0 
trait 3 3 0 2636 30916 12021 33055 0 0 
node 1 2 1 3
node 2 2 1 1
node 3 1 1 1
node 4 3 1 1
node 5 1 0 2
node 6 2 0 2
node 9 1 0 0
gene 2 1 5 -308850 0 1 -308850 1
gene 2 2 5 -508076 0 2 -508076 0
gene 1 3 5 532735 0 3 532735 1
gene 1 4 5 -236087 0 4 -236087 1
gene 2 1 6 150483 0 5 150483 1
gene 1 2 6 -252721 0 6 -252721 1
gene 1 3 6 711803 0 7 711803 1
gene 1 4 6 -306638 0 8 -306638 1
gene 2 2 9 -189611 0 25 -189611 1
gene 2 9 5 181866 0 26 181866 1
genomeend 56

/* Species #216 : (Size 1) (AF 0) (Age 2)  */


/* Organism #57 Fitness: 0 Error: 0 */
genomestart 57
trait 1 1 0 0 0 0 0 0 0 
trait 2 2 0 0 0 0 0 0 0 
trait 3 3 0 2636 30916 12021 33055 0 0 
node 1 2 1 3
node 2 2 1 1
node 3 1 1 1
node 4 3 1 1
node 5 1 0 2
node 6 2 0 2
node 9 1 0 0
gene 2 1 5 -15418 0 1 -15418 1
gene 2 2 5 208101 0 2 208101 0
gene 1 3 5 56474 0 3 56474 1
gene 3 4 5 -657410 0 4 -657410 1
gene 2 1 6 -5859 0 5 -5859 1
gene 1 2 6 239534 0 6 239534 1
gene 1 3 6 370005 0 7 370005 1
gene 1 4 6 -264060 0 8 -264060 1
gene 2 2 9 -450350 0 25 -450350 1
gene 2 9 5 287565 0 26 287565 1
genomeend 57

/* Species #218 : (Size 3) (AF 13.3333) (Age 2)  */


/* Organism #58 Fitness: 0 Error: 0 */
genomestart 58
trait 1 1 0 0 0 0 0 0 0 
trait 2 2 0 0 0 0 0 0 0 
trait 3 3 0 2636 2403 0 0 0 0 
node 1 2 1 3
node 2 2 1 1
node 3 1 1 1
node 4 3 1 1
node 5 3 0 2
node 6 2 0 2
node 9 1 0 0
gene 2 1 5 -333837 0 1 -333837 1
gene 2 2 5 430975 0 2 430975 0
gene 1 3 5 -204419 0 3 -204419 1
gene 1 4 5 -507986 0 4 -507986 1
gene 2 1 6 -55662 0 5 -55662 1
gene 1 2 6 -312043 0 6 -312043 1
gene 1 3 6 -28261 0 7 -28261 1
gene 1 4 6 -267344 0 8 -267344 1
gene 2 2 9 109911 0 25 109911 1
gene 2 9 5 175095 0 26 175095 1
gene 3 1 9 205205 0 37 205205 1
gene 3 6 5 47419 0 58 0 1
genomeend 58

/* Organism #59 Fitness: 0 Error: 0 */
genomestart 59
trait 1 1 0 0 0 0 0 0 0 
trait 2 2 0 0 0 0 0 0 0 
trait 3 3 0 2636 2403 0 0 0 0 
node 1 2 1 3
node 2 2 1 1
node 3 1 1 1
node 4 3 1 1
node 5 3 0 2
node 6 2 0 2
node 9 1 0 0
gene 2 1 5 -589680 0 1 -589680 1
gene 2 2 5 356737 0 2 356737 0
gene 1 3 5 -196187 0 3 -196187 1
gene 1 4 5 -708890 0 4 -708890 1
gene 2 1 6 159948 0 5 159948 1
gene 1 2 6 -303382 0 6 -303382 1
gene 1 3 6 245177 0 7 245177 1
gene 1 4 6 -96659 0 8 -96659 1
gene 2 2 9 121155 0 25 121155 1
gene 2 9 5 334857 0 26 334857 1
gene 3 1 9 -50794 0 37 -50794 1
genomeend 59

/* Organism #60 Fitness: 40 Error: 0 */
genomestart 60
trait 1 1 0 0 0 0 0 0 0 
trait 2 2 0 0 0 0 0 0 0 
trait 3 3 0 2636 2403 0 0 0 0 
node 1 2 1 3
node 2 2 1 1
node 3 1 1 1
node 4 3 1 1
node 5 3 0 2
node 6 2 0 2
node 9 1 0 0
gene 2 1 5 -333837 0 1 -333837 1
gene 2 2 5 430975 0 2 430975 0
gene 1 3 5 -204419 0 3 -204419 1
gene 1 4 5 -507986 0 4 -507986 1
gene 2 1 6 -55662 0 5 -55662 1
gene 1 2 6 -312043 0 6 -312043 1
gene 1 3 6 -28261 0 7 -28261 1
gene 1 4 6 -267344 0 8 -267344 1
gene 2 2 9 109911 0 25 109911 1
gene 2 9 5 175095 0 26 175095 1
gene 3 1 9 205205 0 37 205205 1
gene 3 6 5 47419 0 58 0 1
genomeend 60

/* Species #219 : (Size 2) (AF 0) (Age 1)  */


/* Organism #61 Fitness: 0 Error: 0 */
genomestart 61
trait 1 1 0 0 0 0 0 0 0 
trait 2 2 0 0 0 0 0 0 0 
trait 3 3 0 2636 30916 12021 33055 0 0 
node 1 2 1 3
node 2 2 1 1
node 3 1 1 1
node 4 3 1 1
node 5 1 0 2
node 6 2 0 2
node 9 1 0 0
gene 2 1 5 -534871 0 1 -534871 1
gene 2 2 5 -493755 0 2 -493755 0
gene 1 3 5 -297852 0 3 -297852 1
gene 1 4 5 -400814 0 4 -400814 1
gene 2 1 6 11223 0 5 11223 1
gene 1 2 6 19652 0 6 19652 1
gene 1 3 6 66822 0 7 66822 1
gene 1 4 6 -213699 0 8 -213699 1
gene 2 2 9 -276131 0 25 -276131 1
gene 2 9 5 160062 0 26 160062 1
genomeend 61

/* Organism #62 Fitness: 0 Error: 0 */
genomestart 62
trait 1 1 0 0 0 0 0 0 0 
trait 2 2 0 0 0 0 0 0 0 
trait 3 3 0 2636 2403 0 0 0 0 
node 1 2 1 3
node 2 2 1 1
node 3 1 1 1
node 4 3 1 1
node 5 1 0 2
node 6 2 0 2
node 9 1 0 0
gene 2 1 5 -528132 0 1 -528132 1
gene 2 2 5 -358493 0 2 -358493 0
gene 1 3 5 -65516 0 3 -65516 1
gene 1 4 5 -180296 0 4 -180296 1
gene 2 1 6 -63903 0 5 -63903 1
gene 1 2 6 -262459 0 6 -262459 1
gene 1 3 6 71817 0 7 71817 1
gene 1 4 6 155520 0 8 155520 1
gene 2 2 9 -197213 0 25 -197213 1
gene 2 9 5 91227 0 26 91227 1
genomeend 62

/* Species #220 : (Size 1) (AF 0) (Age 1)  */


/* Organism #63 Fitness: 0 Error: 0 */
genomestart 63
trait 1 1 0 0 0 0 0 0 0 
trait 2 2 0 0 0 0 0 0 0 
trait 3 3 0 2636 2403 0 0 0 0 
node 1 2 1 3
node 2 2 1 1
node 3 1 1 1
node 4 3 1 1
node 5 1 0 2
node 6 2 0 2
node 9 1 0 0
gene 2 1 5 -246807 0 1 -246807 1
gene 2 2 5 72061 0 2 72061 0
gene 1 3 5 800000 0 3 800000 1
gene 1 4 5 -89387 0 4 -89387 1
gene 2 1 6 -127188 0 5 -127188 1
gene 1 2 6 45158 0 6 45158 1
gene 1 3 6 455768 0 7 455768 1
gene 1 4 6 -561239 0 8 -561239 1
gene 2 2 9 -209564 0 25 -209564 1
gene 2 9 5 187540 0 26 187540 1
genomeend 63

/* Species #221 : (Size 1) (AF 80) (Age 1)  */


/* Organism #64 Fitness: 80 Error: 0 */
genomestart 64
trait 1 1 0 0 0 0 0 0 0 
trait 2 2 0 0 0 0 0 0 0 
trait 3 3 0 2636 2403 0 0 0 0 
node 1 2 1 3
node 2 2 1 1
node 3 1 1 1
node 4 3 1 1
node 5 1 0 2
node 6 2 0 2
node 9 1 0 0
gene 2 1 5 -506046 0 1 -506046 1
gene 2 2 5 151288 0 2 151288 0
gene 1 3 5 749636 0 3 749636 1
gene 1 4 5 -517157 0 4 -517157 1
gene 2 1 6 170571 0 5 170571 1
gene 1 2 6 -518296 0 6 -518296 1
gene 1 3 6 711989 0 7 711989 1
gene 1 4 6 -478433 0 8 -478433 1
gene 2 2 9 -662057 0 25 -662057 1
gene 2 9 5 -102984 0 26 -102984 1
genomeend 64

/* Species #222 : (Size 1) (AF 0) (Age 1)  */


/* Organism #65 Fitness: 0 Error: 0 */
genomestart 65
trait 1 1 0 0 0 0 0 0 0 
trait 2 0 0 0 0 0 6230 37261 53134 
trait 3 3 0 2636 2403 0 0 0 0 
node 1 2 1 3
node 2 2 1 1
node 3 1 1 1
node 4 3 1 1
node 5 1 0 2
node 6 2 0 2
node 9 1 0 0
gene 2 1 5 265599 0 1 265599 1
gene 2 2 5 -505427 0 2 -505427 0
gene 1 3 5 143065 0 3 143065 1
gene 1 4 5 230649 0 4 230649 1
gene 2 1 6 -314619 0 5 -314619 1
gene 3 2 6 -397237 0 6 -397237 1
gene 1 3 6 -159054 0 7 -159054 1
gene 1 4 6 329760 0 8 329760 1
gene 2 2 9 -100407 0 25 -100407 1
gene 2 9 5 270453 0 26 270453 1
genomeend 65

/* Species #223 : (Size 1) (AF 0) (Age 1)  */


/* Organism #66 Fitness: 0 Error: 0 */
genomestart 66
trait 1 1 0 0 0 0 0 0 0 
trait 2 2 0 0 0 0 0 0 0 
trait 3 3 0 2636 30916 12021 33055 0 0 
node 1 2 1 3
node 2 2 1 1
node 3 1 1 1
node 4 3 1 1
node 5 1 0 2
node 6 2 0 2
node 9 1 0 0
gene 2 1 5 -162934 0 1 -162934 1
gene 2 2 5 -550461 0 2 -550461 0
gene 1 3 5 -264339 0 3 -264339 1
gene 1 4 5 -295454 0 4 -295454 1
gene 2 1 6 -86343 0 5 -86343 1
gene 1 2 6 267183 0 6 267183 1
gene 1 3 6 329628 0 7 329628 1
gene 1 4 6 204159 0 8 204159 1
gene 2 2 9 -591827 0 25 -591827 1
gene 2 9 5 -170760 0 26 -170760 1
genomeend 66

/* Species #224 : (Size 1) (AF 0) (Age 1)  */


/* Organism #67 Fitness: 0 Error: 0 */
genomestart 67
trait 1 1 0 0 0 0 0 0 0 
trait 2 2 0 0 0 0 0 0 0 
trait 3 3 0 2636 30916 12021 33055 0 0 
node 1 2 1 3
node 2 2 1 1
node 3 1 1 1
node 4 3 1 1
node 5 1 0 2
node 6 2 0 2
node 9 1 0 0
gene 2 1 5 -277141 0 1 -277141 1
gene 2 2 5 -56568 0 2 -56568 0
gene 1 3 5 -176896 0 3 -176896 1
gene 1 4 5 -711185 0 4 -711185 1
gene 2 1 6 -98514 0 5 -98514 1
gene 1 2 6 100769 0 6 100769 1
gene 1 3 6 643584 0 7 643584 1
gene 1 4 6 50061 0 8 50061 1
gene 2 2 9 -362519 0 25 -362519 1
gene 2 9 5 -244413 0 26 -244413 1
genomeend 67

/* Species #225 : (Size 1) (AF 0) (Age 1)  */


/* Organism #68 Fitness: 0 Error: 0 */
genomestart 68
trait 1 1 0 0 0 0 0 0 0 
trait 2 2 0 0 0 0 0 0 0 
trait 3 3 0 2636 30916 12021 33055 0 0 
node 1 2 1 3
node 2 2 1 1
node 3 1 1 1
node 4 3 1 1
node 5 1 0 2
node 6 2 0 2
node 9 1 0 0
gene 2 1 5 110831 0 1 110831 1
gene 2 2 5 -510651 0 2 -510651 0
gene 1 3 5 324545 0 3 324545 1
gene 1 4 5 -283028 0 4 -283028 1
gene 2 1 6 -540456 0 5 -540456 1
gene 1 2 6 -324076 0 6 -324076 1
gene 1 3 6 315540 0 7 315540 1
gene 1 4 6 238266 0 8 238266 1
gene 2 2 9 -21542 0 25 -21542 1
gene 2 9 5 -89961 0 26 -89961 1
genomeend 68

/* Species #226 : (Size 1) (AF 80) (Age 1)  */


/* Organism #69 Fitness: 80 Error: 0 */
genomestart 69
trait 1 1 0 0 0 0 0 0 0 
trait 2 2 0 0 0 0 0 0 0 
trait 3 3 33518 2636 5886 9879 0 0 83419 
node 1 2 1 3
node 2 2 1 1
node 3 1 1 1
node 4 3 1 1
node 5 1 0 2
node 6 2 0 2
node 9 1 0 0
gene 2 1 5 -91815 0 1 -91815 1
gene 2 2 5 -88851 0 2 -88851 0
gene 1 3 5 720306 0 3 720306 1
gene 1 4 5 -572768 0 4 -572768 1
gene 2 1 6 -294075 0 5 -294075 1
gene 1 2 6 -28531 0 6 -28531 1
gene 1 3 6 -505116 0 7 -505116 1
gene 3 4 6 -87453 0 8 -87453 1
gene 2 2 9 238941 0 25 238941 1
gene 2 9 5 -90749 0 26 -90749 1
genomeend 69

/* Species #227 : (Size 1) (AF 0) (Age 1)  */


/* Organism #70 Fitness: 0 Error: 0 */
genomestart 70
trait 1 11674 0 350 3445 0 4516 9420 0 
trait 2 2 0 0 0 0 0 0 0 
trait 3 3 0 0 2403 0 0 0 0 
node 1 2 1 3
node 2 2 1 1
node 3 1 1 1
node 4 3 1 1
node 5 1 0 2
node 6 2 0 2
node 9 1 0 0
gene 2 1 5 -638769 0 1 -638769 1
gene 2 2 5 -257751 0 2 -257751 1
gene 1 3 5 5619 0 3 5619 1
gene 1 4 5 -584898 0 4 -584898 1
gene 2 1 6 167667 0 5 167667 1
gene 1 2 6 98048 0 6 98048 1
gene 2 3 6 -261287 0 7 -261287 1
gene 1 4 6 261920 0 8 261920 1
gene 2 2 9 -334465 0 25 -334465 1
gene 2 9 5 141166 0 26 141166 1
genomeend 70

/* Species #228 : (Size 1) (AF 0) (Age 1)  */


/* Organism #71 Fitness: 0 Error: 0 */
genomestart 71
trait 1 11674 0 350 3445 0 4516 9420 0 
trait 2 2 0 0 0 0 0 0 0 
trait 3 3 0 0 2403 0 0 0 0 
node 1 2 1 3
node 2 2 1 1
node 3 1 1 1
node 4 3 1 1
node 5 1 0 2
node 6 2 0 2
node 9 1 0 0
gene 2 1 5 -294102 0 1 -294102 1
gene 2 2 5 -281728 0 2 -281728 1
gene 1 3 5 343917 0 3 343917 1
gene 1 4 5 -176760 0 4 -176760 1
gene 2 1 6 -7122 0 5 -7122 1
gene 1 2 6 6164 0 6 6164 1
gene 2 3 6 250051 0 7 250051 1
gene 1 4 6 216563 0 8 216563 1
gene 2 2 9 -457240 0 25 -457240 1
gene 2 9 5 -321845 0 26 -321845 1
genomeend 71

/* Species #229 : (Size 1) (AF 0) (Age 1)  */


/* Organism #72 Fitness: 0 Error: 0 */
genomestart 72
trait 1 1 0 0 0 0 0 0 0 
trait 2 2 0 0 0 0 0 0 0 
trait 3 24365 0 2636 2403 0 4762 0 0 
node 1 2 1 3
node 2 2 1 1
node 3 1 1 1
node 4 3 1 1
node 5 1 0 2
node 6 2 0 2
node 9 1 0 0
gene 2 1 5 -554964 0 1 -554964 1
gene 2 2 5 191533 0 2 191533 0
gene 1 3 5 589675 0 3 589675 1
gene 1 4 5 -34557 0 4 -34557 1
gene 2 1 6 287829 0 5 287829 1
gene 1 2 6 128610 0 6 128610 1
gene 1 3 6 119447 0 7 119447 1
gene 1 4 6 -47736 0 8 -47736 1
gene 2 2 9 -183452 0 25 -183452 1
gene 2 9 5 253699 0 26 253699 1
gene 3 1 9 -199379 0 45 -199379 1
genomeend 72

/* Species #230 : (Size 1) (AF 0) (Age 1)  */


/* Organism #73 Fitness: 0 Error: 0 */
genomestart 73
trait 1 1 0 0 0 0 0 0 0 
trait 2 2 0 0 0 0 0 0 0 
trait 3 3 0 2636 2403 0 0 0 0 
node 1 2 1 3
node 2 2 1 1
node 3 1 1 1
node 4 3 1 1
node 5 1 0 2
node 6 2 0 2
node 9 1 0 0
gene 2 1 5 -305355 0 1 -305355 1
gene 2 2 5 -113417 0 2 -113417 0
gene 1 3 5 -125925 0 3 -125925 1
gene 1 4 5 -437075 0 4 -437075 1
gene 2 1 6 141906 0 5 141906 1
gene 1 2 6 -367900 0 6 -367900 1
gene 1 3 6 209237 0 7 209237 1
gene 1 4 6 -62655 0 8 -62655 1
gene 2 2 9 154009 0 25 154009 1
gene 2 9 5 -92457 0 26 -92457 1
gene 3 1 9 17440 0 45 17440 1
genomeend 73

/* Species #231 : (Size 1) (AF 0) (Age 1)  */


/* Organism #74 Fitness: 0 Error: 0 */
genomestart 74
trait 1 1 0 0 0 0 0 0 0 
trait 2 2 0 0 0 0 0 0 0 
trait 3 3 0 2636 2403 0 0 0 0 
node 1 2 1 3
node 2 2 1 1
node 3 1 1 1
node 4 1 1 1
node 5 1 0 2
node 6 2 0 2
node 9 1 0 0
gene 2 1 5 54009 0 1 54009 1
gene 2 2 5 65038 0 2 65038 0
gene 1 3 5 79881 0 3 79881 1
gene 1 4 5 -479087 0 4 -479087 1
gene 2 1 6 333582 0 5 333582 1
gene 1 2 6 94466 0 6 94466 1
gene 1 3 6 93887 0 7 93887 1
gene 1 4 6 277825 0 8 277825 1
gene 2 2 9 -116018 0 25 -116018 1
gene 2 9 5 290917 0 26 290917 1
gene 3 1 9 -61847 0 45 -61847 1
genomeend 74

/* Species #232 : (Size 1) (AF 0) (Age 1)  */


/* Organism #75 Fitness: 0 Error: 0 */
genomestart 75
trait 1 1 0 0 0 0 0 0 0 
trait 2 2 0 0 0 0 0 0 0 
trait 3 3 0 2636 2403 0 0 0 0 
node 1 2 1 3
node 2 2 1 1
node 3 1 1 1
node 4 3 1 1
node 5 1 0 2
node 6 2 0 2
node 9 1 0 0
gene 2 1 5 -689565 0 1 -689565 1
gene 2 2 5 132136 0 2 132136 1
gene 1 3 5 677504 0 3 677504 1
gene 1 4 5 -249572 0 4 -249572 1
gene 2 1 6 -275673 0 5 -275673 1
gene 1 2 6 -447531 0 6 -447531 1
gene 1 3 6 -295053 0 7 -295053 1
gene 1 4 6 35227 0 8 35227 1
gene 2 2 9 -387578 0 25 -387578 1
gene 2 9 5 -105233 0 26 -105233 1
genomeend 75

/* Species #233 : (Size 2) (AF 100) (Age 1)  */


/* Organism #76 Fitness: 80 Error: 0 */
genomestart 76
trait 1 1 0 0 0 0 0 0 0 
trait 2 2 0 0 0 0 0 0 0 
trait 3 3 0 2636 2403 0 0 0 0 
node 1 2 1 3
node 2 2 1 1
node 3 1 1 1
node 4 3 1 1
node 5 1 0 2
node 6 2 0 2
node 9 1 0 0
gene 2 1 5 -151029 0 1 -151029 1
gene 2 2 5 265531 0 2 265531 0
gene 1 3 5 800000 0 3 800000 1
gene 1 4 5 -543095 0 4 -543095 1
gene 2 1 6 -597987 0 5 -597987 1
gene 1 2 6 -428385 0 6 -428385 1
gene 1 3 6 69960 0 7 69960 1
gene 1 4 6 -276926 0 8 -276926 1
gene 2 2 9 -200225 0 25 -200225 1
gene 2 9 5 -74135 0 26 -74135 1
genomeend 76

/* Organism #77 Fitness: 120 Error: 0 */
genomestart 77
trait 1 1 0 0 0 0 0 0 0 
trait 2 2 0 0 0 0 0 0 0 
trait 3 3 0 2636 2403 0 0 0 0 
node 1 2 1 3
node 2 2 1 1
node 3 1 1 1
node 4 3 1 1
node 5 1 0 2
node 6 2 0 2
node 9 1 0 0
gene 2 1 5 -261906 0 1 -261906 1
gene 2 2 5 472996 0 2 472996 0
gene 1 3 5 692318 0 3 692318 1
gene 1 4 5 -505850 0 4 -505850 1
gene 2 1 6 -649431 0 5 -649431 1
gene 1 2 6 -441816 0 6 -441816 1
gene 1 3 6 64347 0 7 64347 1
gene 1 4 6 -152357 0 8 -152357 1
gene 2 2 9 -248336 0 25 -248336 1
gene 2 9 5 -275699 0 26 -275699 1
genomeend 77

/* Species #234 : (Size 1) (AF 0) (Age 1)  */


/* Organism #78 Fitness: 0 Error: 0 */
genomestart 78
trait 1 1 0 0 0 0 0 0 0 
trait 2 2 0 0 0 0 0 0 0 
trait 3 3 0 2636 30916 12021 33055 0 0 
node 1 2 1 3
node 2 2 1 1
node 3 1 1 1
node 4 3 1 1
node 5 1 0 2
node 6 2 0 2
node 9 1 0 0
gene 2 1 5 -166539 0 1 -166539 1
gene 2 2 5 -466097 0 2 -466097 0
gene 1 3 5 379387 0 3 379387 1
gene 1 4 5 -727751 0 4 -727751 1
gene 2 1 6 227625 0 5 227625 1
gene 1 2 6 -415765 0 6 -415765 1
gene 1 3 6 479975 0 7 479975 1
gene 1 4 6 -276434 0 8 -276434 1
gene 2 2 9 -169025 0 25 -169025 1
gene 2 9 5 127185 0 26 127185 1
gene 1 9 6 -216178 0 48 -216178 1
genomeend 78

/* Species #235 : (Size 1) (AF 0) (Age 1)  */


/* Organism #79 Fitness: 0 Error: 0 */
genomestart 79
trait 1 1 0 0 0 0 0 0 0 
trait 2 2 0 0 0 0 0 0 0 
trait 3 3 0 2636 30916 12021 33055 0 0 
node 1 2 1 3
node 2 2 1 1
node 3 1 1 1
node 4 3 1 1
node 5 1 0 2
node 6 2 0 2
node 9 1 0 0
gene 2 1 5 -13944 0 1 -13944 1
gene 2 2 5 -290255 0 2 -290255 0
gene 1 3 5 -175386 0 3 -175386 1
gene 1 4 5 -195149 0 4 -195149 1
gene 2 1 6 369789 0 5 369789 1
gene 1 2 6 -234472 0 6 -234472 1
gene 1 3 6 297536 0 7 297536 1
gene 1 4 6 296658 0 8 296658 1
gene 2 2 9 28563 0 25 28563 1
gene 2 9 5 -117744 0 26 -117744 1
gene 1 9 6 -50290 0 48 -50290 1
genomeend 79

/* Species #236 : (Size 1) (AF 0) (Age 1)  */


/* Organism #80 Fitness: 0 Error: 0 */
genomestart 80
trait 1 1 0 0 0 0 0 0 0 
trait 2 2 0 0 0 0 0 0 0 
trait 3 3 0 2636 2403 0 0 0 0 
node 1 2 1 3
node 2 2 1 1
node 3 2 1 1
node 4 3 1 1
node 5 1 0 2
node 6 2 0 2
node 9 1 0 0
gene 2 1 5 -378075 0 1 -378075 1
gene 2 2 5 499516 0 2 499516 0
gene 1 3 5 489715 0 3 489715 1
gene 1 4 5 -123417 0 4 -123417 1
gene 2 1 6 43446 0 5 43446 1
gene 1 2 6 -540997 0 6 -540997 1
gene 1 3 6 -194748 0 7 -194748 1
gene 1 4 6 -31893 0 8 -31893 1
gene 2 2 9 45594 0 25 45594 1
gene 2 9 5 -190407 0 26 -190407 1
gene 3 1 9 239609 0 37 239609 1
genomeend 80

/* Species #237 : (Size 2) (AF 0) (Age 1)  */


/* Organism #81 Fitness: 0 Error: 0 */
genomestart 81
trait 1 1 0 0 0 0 0 0 0 
trait 2 2 0 0 0 0 0 0 0 
trait 3 3 33518 2636 5886 9879 0 0 83419 
node 1 2 1 3
node 2 2 1 1
node 3 1 1 1
node 4 3 1 1
node 5 1 0 2
node 6 2 0 2
node 9 1 0 0
gene 2 1 5 210174 0 1 210174 1
gene 2 2 5 270495 0 2 270495 0
gene 1 3 5 251871 0 3 251871 1
gene 1 4 5 97935 0 4 97935 1
gene 1 1 6 149268 0 5 149268 1
gene 1 2 6 163910 0 6 163910 1
gene 1 3 6 -112473 0 7 -112473 1
gene 3 4 6 -39030 0 8 -39030 1
gene 2 2 9 302265 0 25 302265 1
gene 2 9 5 -221459 0 26 -221459 1
genomeend 81

/* Organism #82 Fitness: 0 Error: 0 */
genomestart 82
trait 1 1 0 0 0 0 0 0 0 
trait 2 2 0 0 0 0 0 0 0 
trait 3 3 33518 2636 5886 9879 0 0 83419 
node 1 2 1 3
node 2 2 1 1
node 3 1 1 1
node 4 3 1 1
node 5 1 0 2
node 6 2 0 2
node 9 1 0 0
gene 2 1 5 79317 0 1 79317 1
gene 2 2 5 155583 0 2 155583 0
gene 1 3 5 391794 0 3 391794 1
gene 1 4 5 -245009 0 4 -245009 1
gene 2 1 6 231147 0 5 231147 1
gene 1 2 6 42590 0 6 42590 1
gene 1 3 6 -163551 0 7 -163551 1
gene 3 4 6 -21558 0 8 -21558 1
gene 2 2 9 196371 0 25 196371 1
gene 2 9 5 -485477 0 26 -485477 1
genomeend 82

/* Species #238 : (Size 1) (AF 0) (Age 1)  */


/* Organism #83 Fitness: 0 Error: 0 */
genomestart 83
trait 1 1 0 0 0 0 0 0 0 
trait 2 2 0 0 0 0 0 0 0 
trait 3 3 33518 2636 5886 9879 0 0 83419 
node 1 2 1 3
node 2 2 1 1
node 3 1 1 1
node 4 3 1 1
node 5 1 0 2
node 6 2 0 2
node 9 1 0 0
gene 2 1 5 250017 0 1 250017 1
gene 2 2 5 32376 0 2 32376 0
gene 1 3 5 95142 0 3 95142 1
gene 1 4 5 -277049 0 4 -277049 1
gene 2 1 6 -271635 0 5 -271635 1
gene 1 2 6 123957 0 6 123957 1
gene 1 3 6 328935 0 7 328935 1
gene 3 4 6 -11631 0 8 -11631 1
gene 2 2 9 219573 0 25 219573 1
gene 2 9 5 276705 0 26 276705 1
genomeend 83

/* Species #239 : (Size 1) (AF 0) (Age 1)  */


/* Organism #84 Fitness: 0 Error: 0 */
genomestart 84
trait 1 23347 0 701 6891 0 9032 18841 0 
trait 2 2 0 0 0 0 0 0 0 
trait 3 3 0 2636 2403 0 0 0 0 
node 1 2 1 3
node 2 2 1 1
node 3 1 1 1
node 4 3 1 1
node 5 1 0 2
node 6 2 0 2
node 9 1 0 0
gene 2 1 5 -134601 0 1 -134601 1
gene 2 2 5 -224640 0 2 -224640 0
gene 1 3 5 332317 0 3 332317 1
gene 1 4 5 -391520 0 4 -391520 1
gene 1 1 6 139275 0 5 139275 1
gene 1 2 6 214788 0 6 214788 1
gene 1 3 6 212682 0 7 212682 1
gene 3 4 6 -201040 0 8 -201040 1
gene 2 2 9 -53574 0 25 -53574 1
gene 2 9 5 -201800 0 26 -201800 1
gene 1 6 5 320457 0 41 320457 1
genomeend 84

/* Species #240 : (Size 1) (AF 0) (Age 1)  */


/* Organism #85 Fitness: 0 Error: 0 */
genomestart 85
trait 1 23347 0 701 6891 0 9032 18841 0 
trait 2 2 0 0 0 0 0 0 0 
trait 3 3 0 2636 2403 0 0 0 0 
node 1 2 1 3
node 2 2 1 1
node 3 1 1 1
node 4 3 1 1
node 5 1 0 2
node 6 2 0 2
node 9 1 0 0
gene 2 1 5 -138045 0 1 -138045 1
gene 2 2 5 357577 0 2 357577 0
gene 1 3 5 110949 0 3 110949 1
gene 1 4 5 -301676 0 4 -301676 1
gene 2 1 6 347037 0 5 347037 1
gene 1 2 6 -240243 0 6 -240243 1
gene 1 3 6 22605 0 7 22605 1
gene 3 4 6 258776 0 8 258776 1
gene 2 2 9 268302 0 25 268302 1
gene 2 9 5 -243794 0 26 -243794 1
gene 1 6 5 214770 0 41 214770 1
genomeend 85

/* Species #241 : (Size 1) (AF 0) (Age 1)  */


/* Organism #86 Fitness: 0 Error: 0 */
genomestart 86
trait 1 23347 0 701 6891 0 9032 18841 0 
trait 2 2 0 0 0 0 0 0 0 
trait 3 3 0 2636 2403 0 0 0 0 
node 1 2 1 3
node 2 2 1 1
node 3 1 1 1
node 4 3 1 1
node 5 1 0 2
node 6 2 0 2
node 9 1 0 0
gene 2 1 5 -329949 0 1 -329949 1
gene 2 2 5 -109394 0 2 -109394 0
gene 1 3 5 168373 0 3 168373 1
gene 1 4 5 28440 0 4 28440 1
gene 1 1 6 355500 0 5 355500 1
gene 1 2 6 -202583 0 6 -202583 1
gene 1 3 6 106728 0 7 106728 1
gene 3 4 6 49073 0 8 49073 1
gene 2 2 9 -217974 0 25 -217974 1
gene 2 9 5 259903 0 26 259903 1
gene 1 6 5 -210693 0 41 -210693 1
genomeend 86

/* Species #242 : (Size 1) (AF 40) (Age 1)  */


/* Organism #87 Fitness: 40 Error: 0 */
genomestart 87
trait 1 23347 0 701 6891 0 9032 18841 0 
trait 2 2 0 0 0 0 0 0 0 
trait 3 3 0 2636 2403 0 0 0 0 
node 1 2 1 3
node 2 2 1 1
node 3 1 1 1
node 4 3 1 1
node 5 1 0 2
node 6 2 0 2
node 9 1 0 0
gene 2 1 5 58695 0 1 58695 1
gene 2 2 5 100021 0 2 100021 0
gene 1 3 5 178944 0 3 178944 1
gene 1 4 5 -581561 0 4 -581561 1
gene 1 1 6 398751 0 5 398751 1
gene 1 2 6 -221135 0 6 -221135 1
gene 1 3 6 -24642 0 7 -24642 1
gene 3 4 6 -202393 0 8 -202393 1
gene 2 2 9 94242 0 25 94242 1
gene 2 9 5 -247412 0 26 -247412 1
gene 1 6 5 -110664 0 41 -110664 1
genomeend 87

/* Species #243 : (Size 1) (AF 0) (Age 1)  */


/* Organism #88 Fitness: 0 Error: 0 */
genomestart 88
trait 1 1 0 0 0 0 0 0 0 
trait 2 2 0 0 0 0 0 0 0 
trait 3 3 0 2636 2403 0 0 0 0 
node 1 2 1 3
node 2 2 1 1
node 3 1 1 1
node 4 3 1 1
node 5 1 0 2
node 6 2 0 2
node 9 1 0 0
node 10 1 0 0
gene 2 1 5 -454044 0 1 -454044 1
gene 2 2 5 -83190 0 2 -83190 0
gene 1 3 5 433666 0 3 433666 1
gene 1 4 5 28767 0 4 28767 1
gene 2 1 6 72957 0 5 72957 1
gene 1 2 6 29846 0 6 29846 1
gene 1 3 6 164949 0 7 164949 0
gene 1 4 6 -180320 0 8 -180320 1
gene 2 2 9 -433475 0 25 -433475 1
gene 2 9 5 -267204 0 26 -267204 1
gene 1 3 10 -157068 0 43 -157068 1
gene 1 10 6 12923 0 44 12923 1
genomeend 88

/* Species #244 : (Size 1) (AF 0) (Age 1)  */


/* Organism #89 Fitness: 0 Error: 0 */
genomestart 89
trait 1 1 0 0 0 0 0 0 0 
trait 2 2 0 0 0 0 0 0 0 
trait 3 3 0 2636 2403 0 0 0 0 
node 1 2 1 3
node 2 2 1 1
node 3 1 1 1
node 4 3 1 1
node 5 1 0 2
node 6 2 0 2
node 9 1 0 0
node 10 1 0 0
gene 2 1 5 -483615 0 1 -483615 1
gene 2 2 5 142567 0 2 142567 0
gene 1 3 5 -126465 0 3 -126465 1
gene 1 4 5 -42698 0 4 -42698 1
gene 2 1 6 409827 0 5 409827 1
gene 1 2 6 16307 0 6 16307 1
gene 1 3 6 139793 0 7 139793 0
gene 1 4 6 -167285 0 8 -167285 1
gene 2 2 9 85402 0 25 85402 1
gene 2 9 5 195969 0 26 195969 1
gene 1 3 10 2647 0 43 2647 1
gene 1 10 6 -154054 0 44 -154054 1
genomeend 89

/* Species #245 : (Size 1) (AF 80) (Age 1)  */


/* Organism #90 Fitness: 80 Error: 0 */
genomestart 90
trait 1 1 0 0 0 0 0 0 0 
trait 2 2 0 0 0 0 0 0 0 
trait 3 3 0 2636 2403 0 0 0 0 
node 1 2 1 3
node 2 2 1 1
node 3 1 1 1
node 4 3 1 1
node 5 1 0 2
node 6 2 0 2
node 9 1 0 0
node 10 1 0 0
gene 2 1 5 -532998 0 1 -532998 1
gene 2 2 5 358570 0 2 358570 0
gene 1 3 5 508996 0 3 508996 1
gene 1 4 5 -381200 0 4 -381200 1
gene 2 1 6 485763 0 5 485763 1
gene 1 2 6 -384478 0 6 -384478 1
gene 1 3 6 -103492 0 7 -103492 0
gene 1 4 6 -130760 0 8 -130760 1
gene 2 2 9 -118484 0 25 -118484 1
gene 2 9 5 -237519 0 26 -237519 1
gene 1 3 10 1 0 43 1 1
gene 1 10 6 131507 0 44 131507 1
genomeend 90

/* Species #246 : (Size 1) (AF 40) (Age 1)  */


/* Organism #91 Fitness: 40 Error: 0 */
genomestart 91
trait 1 1 0 0 27987 70145 0 0 68444 
trait 2 2 0 0 0 0 0 0 0 
trait 3 3 0 2636 2403 0 0 0 0 
node 1 2 1 3
node 2 2 1 1
node 3 1 1 1
node 4 3 1 1
node 5 1 0 2
node 6 2 0 2
node 9 1 0 0
node 10 1 0 0
gene 2 1 5 -538695 0 1 -538695 1
gene 2 2 5 -232443 0 2 -232443 0
gene 1 3 5 727144 0 3 727144 1
gene 1 4 5 -199205 0 4 -199205 1
gene 2 1 6 594105 0 5 594105 1
gene 1 2 6 -370006 0 6 -370006 1
gene 1 3 6 -253005 0 7 -253005 0
gene 1 4 6 -304937 0 8 -304937 1
gene 2 2 9 140113 0 25 140113 1
gene 2 9 5 -14415 0 26 -14415 1
gene 1 3 10 143887 0 43 143887 1
gene 1 10 6 94433 0 44 94433 1
genomeend 91

/* Species #247 : (Size 1) (AF 40) (Age 1)  */


/* Organism #92 Fitness: 40 Error: 0 */
genomestart 92
trait 1 23347 0 701 6891 0 9032 18841 0 
trait 2 2 0 0 0 0 0 0 0 
trait 3 3 0 2636 2403 0 0 0 0 
node 1 2 1 3
node 2 2 1 1
node 3 1 1 1
node 4 3 1 1
node 5 1 0 2
node 6 2 0 2
node 9 1 0 0
gene 2 1 5 116532 0 1 116532 1
gene 2 2 5 220277 0 2 220277 0
gene 1 3 5 -293871 0 3 -293871 1
gene 1 4 5 -51663 0 4 -51663 1
gene 2 1 6 -309180 0 5 -309180 1
gene 1 2 6 57898 0 6 57898 1
gene 1 3 6 70752 0 7 70752 1
gene 1 4 6 73476 0 8 73476 1
gene 2 2 9 92005 0 25 92005 1
gene 2 9 5 120523 0 26 120523 1
genomeend 92

/* Species #248 : (Size 1) (AF 0) (Age 1)  */


/* Organism #93 Fitness: 0 Error: 0 */
genomestart 93
trait 1 1 0 0 0 0 0 0 0 
trait 2 2 0 0 0 0 0 0 0 
trait 3 3 0 2636 2403 0 0 0 0 
node 1 2 1 3
node 2 2 1 1
node 3 1 1 1
node 4 3 1 1
node 5 1 0 2
node 6 2 0 2
node 9 1 0 0
gene 2 1 5 -96237 0 1 -96237 1
gene 2 2 5 157543 0 2 157543 0
gene 1 3 5 -123768 0 3 -123768 1
gene 1 4 5 -500345 0 4 -500345 1
gene 2 1 6 613149 0 5 613149 1
gene 1 2 6 -292477 0 6 -292477 1
gene 1 3 6 156557 0 7 156557 1
gene 1 4 6 49659 0 8 49659 1
gene 2 2 9 61477 0 25 61477 1
gene 2 9 5 449391 0 26 449391 1
genomeend 93

/* Species #249 : (Size 1) (AF 80) (Age 1)  */


/* Organism #94 Fitness: 80 Error: 0 */
genomestart 94
trait 1 1 0 0 0 0 0 0 0 
trait 2 2 0 0 0 0 0 0 0 
trait 3 3 0 2636 30916 12021 33055 0 0 
node 1 3 1 3
node 2 2 1 1
node 3 1 1 1
node 4 3 1 1
node 5 1 0 2
node 6 2 0 2
node 9 1 0 0
gene 2 1 5 101061 0 1 101061 1
gene 2 2 5 -328425 0 2 -328425 0
gene 1 3 5 296962 0 3 296962 1
gene 1 4 5 -445877 0 4 -445877 1
gene 2 1 6 -25809 0 5 -25809 1
gene 1 2 6 -88474 0 6 -88474 1
gene 1 3 6 773828 0 7 773828 1
gene 1 4 6 170614 0 8 170614 1
gene 2 2 9 88366 0 25 88366 1
gene 2 9 5 -371784 0 26 -371784 1
genomeend 94

/* Species #250 : (Size 1) (AF 0) (Age 1)  */


/* Organism #95 Fitness: 0 Error: 0 */
genomestart 95
trait 1 1 0 0 0 0 0 0 0 
trait 2 2 0 0 0 0 0 0 0 
trait 3 3 0 2636 30916 12021 33055 0 0 
node 1 2 1 3
node 2 2 1 1
node 3 1 1 1
node 4 3 1 1
node 5 1 0 2
node 6 2 0 2
node 9 1 0 0
gene 2 1 5 -427389 0 1 -427389 1
gene 2 2 5 -627011 0 2 -627011 0
gene 1 3 5 486781 0 3 486781 1
gene 1 4 5 -36738 0 4 -36738 1
gene 2 1 6 2259 0 5 2259 1
gene 1 2 6 -574570 0 6 -574570 1
gene 1 3 6 640601 0 7 640601 1
gene 1 4 6 -329084 0 8 -329084 1
gene 2 2 9 96994 0 25 96994 1
gene 2 9 5 529422 0 26 529422 1
genomeend 95

/* Species #251 : (Size 1) (AF 80) (Age 1)  */


/* Organism #96 Fitness: 80 Error: 0 */
genomestart 96
trait 1 1 0 0 0 0 0 0 0 
trait 2 2 0 0 0 0 0 0 0 
trait 3 3 0 2636 30916 12021 33055 0 0 
node 1 2 1 3
node 2 2 1 1
node 3 1 1 1
node 4 3 1 1
node 5 1 0 2
node 6 2 0 2
node 9 1 0 0
gene 2 1 5 -449799 0 1 -449799 1
gene 2 2 5 -480605 0 2 -480605 0
gene 1 3 5 568190 0 3 568190 1
gene 1 4 5 -541340 0 4 -541340 1
gene 2 1 6 -103626 0 5 -103626 1
gene 1 2 6 -788563 0 6 -788563 1
gene 1 3 6 800000 0 7 800000 1
gene 1 4 6 25794 0 8 25794 1
gene 2 2 9 -87734 0 25 -87734 1
gene 2 9 5 -28560 0 26 -28560 1
genomeend 96

/* Species #252 : (Size 1) (AF 0) (Age 1)  */


/* Organism #97 Fitness: 0 Error: 0 */
genomestart 97
trait 1 1 0 0 0 0 0 0 0 
trait 2 2 0 0 0 0 0 0 0 
trait 3 3 0 2636 30916 12021 33055 0 0 
node 1 2 1 3
node 2 2 1 1
node 3 1 1 1
node 4 3 1 1
node 5 1 0 2
node 6 2 0 2
node 9 1 0 0
gene 2 1 5 -176730 0 1 -176730 1
gene 2 2 5 -188312 0 2 -188312 1
gene 1 3 5 405988 0 3 405988 1
gene 1 4 5 -324818 0 4 -324818 1
gene 2 1 6 -45795 0 5 -45795 1
gene 1 2 6 -701479 0 6 -701479 1
gene 1 3 6 505046 0 7 505046 1
gene 1 4 6 26260 0 8 26260 1
gene 2 2 9 183754 0 25 183754 1
gene 2 9 5 180846 0 26 180846 1
gene 1 9 6 -135748 0 48 -135748 1
genomeend 97

/* Species #253 : (Size 1) (AF 0) (Age 1)  */


/* Organism #98 Fitness: 0 Error: 0 */
genomestart 98
trait 1 1 0 0 0 0 0 0 0 
trait 2 2 0 0 0 0 0 0 0 
trait 3 3 0 2636 30916 12021 33055 0 0 
node 1 2 1 3
node 2 2 1 1
node 3 1 1 1
node 4 3 1 1
node 5 1 0 2
node 6 2 0 2
node 9 1 0 0
gene 2 1 5 -385200 0 1 -385200 1
gene 2 2 5 56613 0 2 56613 1
gene 1 3 5 348694 0 3 348694 1
gene 1 4 5 -324755 0 4 -324755 1
gene 2 1 6 177585 0 5 177585 1
gene 1 2 6 -166242 0 6 -166242 1
gene 1 3 6 515999 0 7 515999 1
gene 1 4 6 107896 0 8 107896 1
gene 2 2 9 90600 0 25 90600 1
gene 2 9 5 42624 0 26 42624 1
gene 1 9 6 2138 0 48 2138 1
genomeend 98

/* Species #254 : (Size 1) (AF 0) (Age 1)  */


/* Organism #99 Fitness: 0 Error: 0 */
genomestart 99
trait 1 1 0 0 0 0 0 0 0 
trait 2 2 0 0 0 0 0 0 0 
trait 3 3 0 2636 30916 12021 33055 0 0 
node 1 2 1 3
node 2 2 1 1
node 3 1 1 1
node 4 3 1 1
node 5 1 0 2
node 6 2 0 2
node 9 1 0 0
gene 2 1 5 -331330 0 1 -331330 1
gene 2 2 5 -525902 0 2 -525902 0
gene 1 3 5 534008 0 3 534008 1
gene 1 4 5 137962 0 4 137962 1
gene 2 1 6 4453 0 5 4453 1
gene 1 2 6 -396001 0 6 -396001 1
gene 1 3 6 795779 0 7 795779 1
gene 1 4 6 -247034 0 8 -247034 1
gene 2 2 9 -339338 0 25 -339338 1
gene 2 9 5 -37355 0 26 -37355 1
genomeend 99
