
/* Species #271 : (Size 56) (AF 25908.7) (Age 11)  */


/* Organism #0 Fitness: 0 Error: 0 */
genomestart 0
trait 1 0.1 0 0.259132 0.126735 0 0 0 0 
trait 2 0.2 0 0.038424 0 0.152127 0 0 0.0479083 
trait 3 0.215972 0.233002 0 0 0.00341516 0 0.174907 0 
node 1 3 1 3
node 2 2 1 1
node 3 3 1 1
node 4 1 1 1
node 5 3 0 2
node 6 3 0 2
gene 1 1 5 -0.822002 0 1 -0.822002 1
gene 1 2 5 -0.94568 0 2 -0.94568 1
gene 1 3 5 -0.0375817 0 3 -0.0375817 1
gene 1 4 5 0.649783 0 4 0.649783 1
gene 1 1 6 -0.809163 0 5 -0.809163 1
gene 2 2 6 -0.997756 0 6 -0.997756 1
gene 2 3 6 -2.38717 0 7 -2.38717 1
gene 2 4 6 7.27139 0 8 7.27139 1
gene 1 6 5 3.12195 0 40 3.12195 1
gene 1 6 6 -0.758648 1 82 -0.758648 1
genomeend 0

/* Organism #1 Fitness: 36 Error: 0 */
genomestart 1
trait 1 0.0627417 0 0.259132 0 0.363924 0 0 0 
trait 2 0.2 0 0.038424 0 0.152127 0 0 0.0479083 
trait 3 0.215972 0 0 0 0.00683032 0 0 0 
node 1 3 1 3
node 2 2 1 1
node 3 3 1 1
node 4 1 1 1
node 5 3 0 2
node 6 2 0 2
gene 1 1 5 0.0499331 0 1 0.0499331 1
gene 1 2 5 -0.349015 0 2 -0.349015 1
gene 1 3 5 -1.10004 0 3 -1.10004 1
gene 1 4 5 -0.0542573 0 4 -0.0542573 1
gene 1 1 6 -1.17352 0 5 -1.17352 1
gene 2 2 6 0.274405 0 6 0.274405 1
gene 2 3 6 -0.271248 0 7 -0.271248 1
gene 2 4 6 7.07277 0 8 7.07277 1
gene 1 6 5 4.31141 0 40 4.31141 1
genomeend 1

/* Organism #2 Fitness: 4436 Error: 0 */
genomestart 2
trait 1 0.1 0 0.259132 0.126735 0 0 0 0 
trait 2 0.2 0 0.038424 0 0.152127 0 0 0.0479083 
trait 3 0.215972 0 0 0 0.00683032 0 0 0 
node 1 3 1 3
node 2 2 1 1
node 3 3 1 1
node 4 1 1 1
node 5 1 0 2
node 6 3 0 2
gene 1 1 5 -0.822002 0 1 -0.822002 1
gene 1 2 5 -0.94568 0 2 -0.94568 1
gene 1 3 5 -0.0375817 0 3 -0.0375817 1
gene 1 4 5 0.649783 0 4 0.649783 1
gene 1 1 6 -0.809163 0 5 -0.809163 1
gene 3 2 6 -0.997756 0 6 -0.997756 1
gene 2 3 6 -2.38717 0 7 -2.38717 1
gene 2 4 6 7.27139 0 8 7.27139 1
gene 1 6 5 3.12195 0 40 3.12195 1
genomeend 2

/* Organism #3 Fitness: 5505 Error: 0 */
genomestart 3
trait 1 0.1 0 0.259132 0.126735 0 0 0 0 
trait 2 0.2 0 0.038424 0 0.152127 0 0 0.0479083 
trait 3 0.215972 0 0 0 0.00683032 0 0 0 
node 1 3 1 3
node 2 2 1 1
node 3 3 1 1
node 4 1 1 1
node 5 3 0 2
node 6 2 0 2
gene 1 1 5 -0.822002 0 1 -0.822002 1
gene 1 2 5 -0.94568 0 2 -0.94568 1
gene 1 3 5 -0.0375817 0 3 -0.0375817 1
gene 1 4 5 0.649783 0 4 0.649783 1
gene 1 1 6 -0.809163 0 5 -0.809163 1
gene 2 2 6 -0.997756 0 6 -0.997756 1
gene 2 3 6 -2.38717 0 7 -2.38717 1
gene 2 4 6 7.27139 0 8 7.27139 1
gene 1 6 5 3.12195 0 40 3.12195 1
genomeend 3

/* Organism #4 Fitness: 52910 Error: 0 */
genomestart 4
trait 1 0.1 0 0.259132 0.126735 0 0 0 0 
trait 2 0.2 0 0.038424 0 0.152127 0 0 0.0479083 
trait 3 0.215972 0 0 0 0.00683032 0 0 0 
node 1 3 1 3
node 2 2 1 1
node 3 3 1 1
node 4 1 1 1
node 5 3 0 2
node 6 3 0 2
gene 1 1 5 -0.822002 0 1 -0.822002 1
gene 1 2 5 -0.94568 0 2 -0.94568 1
gene 1 3 5 -0.0375817 0 3 -0.0375817 1
gene 1 4 5 0.649783 0 4 0.649783 1
gene 1 1 6 -0.809163 0 5 -0.809163 1
gene 2 2 6 -0.997756 0 6 -0.997756 1
gene 2 3 6 -2.38717 0 7 -2.38717 1
gene 2 4 6 7.27139 0 8 7.27139 1
gene 1 6 5 3.12195 0 40 3.12195 1
gene 1 6 6 -0.758648 1 82 -0.758648 1
genomeend 4

/* Organism #5 Fitness: 24595 Error: 0 */
genomestart 5
trait 1 0.1 0 0.259132 0.126735 0 0 0 0 
trait 2 0.2 0 0.038424 0 0.152127 0 0 0.0479083 
trait 3 0.215972 0 0 0 0.00683032 0 0 0 
node 1 3 1 3
node 2 2 1 1
node 3 3 1 1
node 4 1 1 1
node 5 3 0 2
node 6 3 0 2
gene 1 1 5 -0.822002 0 1 -0.822002 1
gene 1 2 5 -0.94568 0 2 -0.94568 1
gene 1 3 5 -0.0375817 0 3 -0.0375817 1
gene 1 4 5 0.649783 0 4 0.649783 1
gene 1 1 6 -0.809163 0 5 -0.809163 1
gene 2 2 6 -0.997756 0 6 -0.997756 1
gene 2 3 6 -2.38717 0 7 -2.38717 1
gene 2 4 6 7.27139 0 8 7.27139 1
gene 1 6 5 3.12195 0 40 3.12195 1
gene 1 6 6 -0.758648 1 82 -0.758648 1
genomeend 5

/* Organism #6 Fitness: 39 Error: 0 */
genomestart 6
trait 1 0.1 0 0.259132 0.126735 0 0 0 0 
trait 2 0.2 0 0.038424 0 0.152127 0 0 0.0479083 
trait 3 0.215972 0 0 0 0.00683032 0 0 0 
node 1 3 1 3
node 2 2 1 1
node 3 3 1 1
node 4 1 1 1
node 5 3 0 2
node 6 3 0 2
gene 1 1 5 -0.917356 0 1 -0.917356 1
gene 1 2 5 -0.0795762 0 2 -0.0795762 1
gene 1 3 5 0.953729 0 3 0.953729 1
gene 1 4 5 -1.13528 0 4 -1.13528 1
gene 1 1 6 -0.510417 0 5 -0.510417 1
gene 2 2 6 0.128487 0 6 0.128487 1
gene 2 3 6 -3.89555 0 7 -3.89555 1
gene 2 4 6 8 0 8 8 1
gene 1 6 5 2.91962 0 40 2.91962 1
genomeend 6

/* Organism #7 Fitness: 448 Error: 0 */
genomestart 7
trait 1 0.1 0 0.259132 0.126735 0 0 0 0 
trait 2 0 0 0.247105 0 1 0 0 0.976427 
trait 3 0.215972 0 0 0 0.00683032 0 0 0 
node 1 3 1 3
node 2 2 1 1
node 3 3 1 1
node 4 1 1 1
node 5 3 0 2
node 6 3 0 2
gene 1 1 5 -0.822002 0 1 -0.822002 1
gene 1 2 5 -0.94568 0 2 -0.94568 1
gene 1 3 5 -0.0375817 0 3 -0.0375817 1
gene 1 4 5 0.649783 0 4 0.649783 1
gene 1 1 6 -0.809163 0 5 -0.809163 1
gene 2 2 6 -0.997756 0 6 -0.997756 1
gene 2 3 6 -2.38717 0 7 -2.38717 1
gene 2 4 6 7.27139 0 8 7.27139 1
gene 1 6 5 3.12195 0 40 3.12195 1
genomeend 7

/* Organism #8 Fitness: 4 Error: 0 */
genomestart 8
trait 1 0.1 0 0.259132 0.126735 0 0 0 0 
trait 2 0.1 0 0.142765 0 0.576064 0 0 0.512168 
trait 3 0.215972 0 0 0 0.00683032 0 0 0 
node 1 3 1 3
node 2 2 1 1
node 3 3 1 1
node 4 1 1 1
node 5 3 0 2
node 6 3 0 2
gene 1 1 5 0.690021 0 1 0.690021 1
gene 1 2 5 -1.42755 0 2 -1.42755 1
gene 1 3 5 -1.83662 0 3 -1.83662 1
gene 1 4 5 2.39251 0 4 2.39251 1
gene 1 1 6 1.47861 0 5 1.47861 1
gene 2 2 6 -1.21531 0 6 -1.21531 1
gene 2 3 6 -4.12678 0 7 -4.12678 1
gene 2 4 6 7.60645 0 8 7.60645 1
gene 1 6 5 4.80387 0 40 4.80387 1
gene 1 6 6 0.525827 1 82 0.525827 1
genomeend 8

/* Organism #9 Fitness: 24404 Error: 0 */
genomestart 9
trait 1 0.1 0 0.259132 0.126735 0 0 0 0 
trait 2 0.2 0 0.038424 0 0.152127 0 0 0.0479083 
trait 3 0.215972 0 0 0 0.00683032 0 0 0 
node 1 3 1 3
node 2 2 1 1
node 3 3 1 1
node 4 1 1 1
node 5 3 0 2
node 6 3 0 2
gene 1 1 5 -0.822002 0 1 -0.822002 1
gene 1 2 5 -0.94568 0 2 -0.94568 1
gene 1 3 5 -0.0375817 0 3 -0.0375817 1
gene 1 4 5 0.649783 0 4 0.649783 1
gene 1 1 6 -0.809163 0 5 -0.809163 1
gene 2 2 6 -0.997756 0 6 -0.997756 1
gene 2 3 6 -2.38717 0 7 -2.38717 1
gene 2 4 6 7.27139 0 8 7.27139 1
gene 1 6 5 3.12195 0 40 3.12195 1
genomeend 9

/* Organism #10 Fitness: 2691 Error: 0 */
genomestart 10
trait 1 0.1 0 0.259132 0.126735 0 0 0 0 
trait 2 0.2 0 0.038424 0 0.152127 0 0 0.0479083 
trait 3 0.215972 0.116501 0 0 0.00512274 0 0.0874536 0 
node 1 3 1 3
node 2 2 1 1
node 3 3 1 1
node 4 1 1 1
node 5 3 0 2
node 6 3 0 2
gene 1 1 5 -0.822002 0 1 -0.822002 1
gene 1 2 5 -0.94568 0 2 -0.94568 1
gene 1 3 5 -0.0375817 0 3 -0.0375817 1
gene 1 4 5 0.649783 0 4 0.649783 1
gene 1 1 6 -0.809163 0 5 -0.809163 1
gene 2 2 6 -0.997756 0 6 -0.997756 1
gene 2 3 6 -2.38717 0 7 -2.38717 1
gene 2 4 6 7.27139 0 8 7.27139 1
gene 1 6 5 3.12195 0 40 3.12195 1
gene 1 6 6 -0.758648 1 82 -0.758648 1
genomeend 10

/* Organism #11 Fitness: 0 Error: 0 */
genomestart 11
trait 1 0.1 0 0.259132 0.126735 0 0 0 0 
trait 2 0.2 0 0.038424 0 0.152127 0 0 0.0479083 
trait 3 0.215972 0 0 0 0.00683032 0 0 0 
node 1 3 1 3
node 2 1 1 1
node 3 3 1 1
node 4 1 1 1
node 5 3 0 2
node 6 2 0 2
gene 1 1 5 -0.950615 0 1 -0.950615 1
gene 1 2 5 0.0196455 0 2 0.0196455 1
gene 1 3 5 -0.72556 0 3 -0.72556 1
gene 1 4 5 0.587153 0 4 0.587153 1
gene 1 1 6 0.506888 0 5 0.506888 1
gene 2 2 6 0.845634 0 6 0.845634 1
gene 2 3 6 -2.38717 0 7 -2.38717 1
gene 2 4 6 7.83716 0 8 7.83716 1
gene 1 6 5 4.22286 0 40 4.22286 1
genomeend 11

/* Organism #12 Fitness: 0 Error: 0 */
genomestart 12
trait 1 0.1 0 0.259132 0.126735 0 0 0 0 
trait 2 0.2 0 0.038424 0 0.152127 0 0 0.0479083 
trait 3 0.215972 0 0 0 0.00683032 0 0 0 
node 1 3 1 3
node 2 2 1 1
node 3 3 1 1
node 4 1 1 1
node 5 3 0 2
node 6 3 0 2
gene 1 1 5 1.59595 0 1 1.59595 1
gene 1 2 5 -1.55268 0 2 -1.55268 1
gene 1 3 5 -0.0375817 0 3 -0.0375817 1
gene 1 4 5 0.382692 0 4 0.382692 1
gene 1 1 6 -0.809163 0 5 -0.809163 1
gene 2 2 6 -1.89055 0 6 -1.89055 1
gene 2 3 6 -4.595 0 7 -4.595 1
gene 2 4 6 7.57829 0 8 7.57829 1
gene 1 6 5 3.77372 0 40 3.77372 1
genomeend 12

/* Organism #13 Fitness: 0 Error: 0 */
genomestart 13
trait 1 0.1 0 0.259132 0.126735 0 0 0 0 
trait 2 0.2 0 0.858043 0 0.152127 0 0 0.0479083 
trait 3 0.215972 0.116501 0 0 0.00512274 0 0.0874536 0 
node 1 3 1 3
node 2 2 1 1
node 3 3 1 1
node 4 1 1 1
node 5 3 0 2
node 6 3 0 2
gene 1 1 5 1.3789 0 1 1.3789 1
gene 1 2 5 1.30143 0 2 1.30143 1
gene 1 3 5 -0.245019 0 3 -0.245019 1
gene 1 4 5 -1.6695 0 4 -1.6695 1
gene 1 1 6 -1.21378 0 5 -1.21378 1
gene 2 2 6 1.1603 0 6 1.1603 1
gene 2 3 6 -2.75592 0 7 -2.75592 1
gene 2 4 6 6.00883 0 8 6.00883 1
gene 1 6 5 3.12195 0 40 3.12195 1
gene 1 6 6 -1.55361 1 82 -1.55361 1
genomeend 13

/* Organism #14 Fitness: 72903 Error: 0 */
genomestart 14
trait 1 0.1 0 0.259132 0.126735 0 0 0 0 
trait 2 0.2 0 0.038424 0 0.152127 0 0 0.0479083 
trait 3 0.215972 0.116501 0 0 0.00512274 0 0.0874536 0 
node 1 3 1 3
node 2 2 1 1
node 3 3 1 1
node 4 1 1 1
node 5 3 0 2
node 6 3 0 2
gene 1 1 5 -0.822002 0 1 -0.822002 1
gene 1 2 5 -0.94568 0 2 -0.94568 1
gene 1 3 5 -0.0375817 0 3 -0.0375817 1
gene 1 4 5 0.649783 0 4 0.649783 1
gene 1 1 6 -0.809163 0 5 -0.809163 1
gene 2 2 6 -0.997756 0 6 -0.997756 1
gene 2 3 6 -2.38717 0 7 -2.38717 1
gene 2 4 6 7.27139 0 8 7.27139 1
gene 1 6 5 3.12195 0 40 3.12195 1
gene 1 6 6 -0.758648 1 82 -0.758648 1
genomeend 14

/* Organism #15 Fitness: 0 Error: 0 */
genomestart 15
trait 1 0.1 0 0.259132 0.126735 0 0 0 0 
trait 2 0.2 0 0.038424 0 0.152127 0 0 0.0479083 
trait 3 0.215972 0 0 0 0.00683032 0 0 0.272118 
node 1 3 1 3
node 2 2 1 1
node 3 3 1 1
node 4 1 1 1
node 5 3 0 2
node 6 2 0 2
gene 1 1 5 -0.822002 0 1 -0.822002 1
gene 1 2 5 -3.42583 0 2 -3.42583 1
gene 1 3 5 -2.03659 0 3 -2.03659 1
gene 1 4 5 0.649783 0 4 0.649783 1
gene 1 1 6 1.08071 0 5 1.08071 1
gene 2 2 6 -1.20989 0 6 -1.20989 1
gene 2 3 6 -3.46287 0 7 -3.46287 1
gene 2 4 6 7.27139 0 8 7.27139 1
gene 1 6 5 3.97301 0 40 3.97301 1
genomeend 15

/* Organism #16 Fitness: 0 Error: 0 */
genomestart 16
trait 1 0.1 0 0.259132 0.126735 0 0 0 0 
trait 2 0.1 0 0.142765 0 0.576064 0 0 0.512168 
trait 3 0.215972 0.116501 0 0 0.00512274 0 0.0874536 0 
node 1 3 1 3
node 2 2 1 1
node 3 3 1 1
node 4 1 1 1
node 5 3 0 2
node 6 3 0 2
gene 1 1 5 -0.973528 0 1 -0.973528 1
gene 1 2 5 -2.50078 0 2 -2.50078 1
gene 1 3 5 -2.02338 0 3 -2.02338 1
gene 1 4 5 -1.31471 0 4 -1.31471 1
gene 1 1 6 1.64783 0 5 1.64783 1
gene 2 2 6 -0.216227 0 6 -0.216227 1
gene 2 3 6 -3.84773 0 7 -3.84773 1
gene 2 4 6 4.89063 0 8 4.89063 1
gene 1 6 5 4.18267 0 40 4.18267 1
gene 1 6 6 -0.758648 1 82 -0.758648 1
genomeend 16

/* Organism #17 Fitness: 0 Error: 0 */
genomestart 17
trait 1 0.1 0 0.259132 0.126735 0 0 0 0 
trait 2 0.1 0 0.142765 0 0.576064 0 0 0.512168 
trait 3 0.215972 0.116501 0 0 0.00512274 0 0.0874536 0 
node 1 3 1 3
node 2 2 1 1
node 3 3 1 1
node 4 1 1 1
node 5 2 0 2
node 6 3 0 2
gene 1 1 5 -2.75226 0 1 -2.75226 1
gene 1 2 5 -0.155502 0 2 -0.155502 1
gene 1 3 5 2.11234 0 3 2.11234 1
gene 1 4 5 0.649783 0 4 0.649783 1
gene 1 1 6 -1.8924 0 5 -1.8924 1
gene 2 2 6 -2.5445 0 6 -2.5445 1
gene 2 3 6 -2.03418 0 7 -2.03418 1
gene 2 4 6 8 0 8 8 1
gene 1 6 5 0.860893 0 40 0.860893 1
gene 1 6 6 -0.0956621 1 82 -0.0956621 1
genomeend 17

/* Organism #18 Fitness: 0 Error: 0 */
genomestart 18
trait 1 0.1 0 0.259132 0.126735 0 0 0 0 
trait 2 0.2 0 0.038424 0 0.152127 0 0 0.0479083 
trait 3 0.215972 0.116501 0 0 0.00512274 0 0.0874536 0 
node 1 3 1 3
node 2 2 1 1
node 3 3 1 1
node 4 1 1 1
node 5 3 0 2
node 6 3 0 2
gene 1 1 5 -3.30729 0 1 -3.30729 1
gene 1 2 5 -1.36906 0 2 -1.36906 1
gene 1 3 5 -0.0375817 0 3 -0.0375817 1
gene 1 4 5 2.64358 0 4 2.64358 1
gene 1 1 6 -0.307784 0 5 -0.307784 1
gene 2 2 6 -1.33719 0 6 -1.33719 1
gene 2 3 6 -2.33675 0 7 -2.33675 1
gene 2 4 6 2.27672 0 8 2.27672 1
gene 1 6 5 2.05493 0 40 2.05493 1
gene 1 6 6 -0.735444 1 82 -0.735444 1
genomeend 18

/* Organism #19 Fitness: 1.00012e+06 Error: 0 */
/* ##------$ WINNER 19 SPECIES #271 $------## */
genomestart 19
trait 1 0.1 0 0.259132 0.126735 0 0 0 0 
trait 2 0.2 0 0.038424 0 0.152127 0 0 0.0479083 
trait 3 0.215972 0 0 0 0.00683032 0 0 0 
node 1 3 1 3
node 2 2 1 1
node 3 3 1 1
node 4 1 1 1
node 5 3 0 2
node 6 3 0 2
gene 1 1 5 -2.39383 0 1 -2.39383 1
gene 1 2 5 -0.94568 0 2 -0.94568 1
gene 1 3 5 -0.461745 0 3 -0.461745 1
gene 1 4 5 0.306263 0 4 0.306263 1
gene 1 1 6 -2.26077 0 5 -2.26077 1
gene 2 2 6 -0.997756 0 6 -0.997756 1
gene 2 3 6 -1.60509 0 7 -1.60509 1
gene 2 4 6 6.81989 0 8 6.81989 1
gene 1 6 5 1.97567 0 40 1.97567 1
gene 1 6 6 0.92112 1 82 0.92112 1
genomeend 19

/* Organism #20 Fitness: 0 Error: 0 */
genomestart 20
trait 1 0.1 0 0.259132 0.126735 0 0 0 0 
trait 2 0.2 0 0.038424 0 0.152127 0 0 0.0479083 
trait 3 0.215972 0 0 0 0.00683032 0 0 0 
node 1 3 1 3
node 2 2 1 1
node 3 3 1 1
node 4 1 1 1
node 5 3 0 2
node 6 3 0 2
gene 1 1 5 -0.822002 0 1 -0.822002 1
gene 1 2 5 -0.94568 0 2 -0.94568 1
gene 1 3 5 -0.0375817 0 3 -0.0375817 1
gene 1 4 5 0.649783 0 4 0.649783 1
gene 1 1 6 -0.809163 0 5 -0.809163 1
gene 2 2 6 -0.997756 0 6 -0.997756 1
gene 2 3 6 -2.38717 0 7 -2.38717 1
gene 2 4 6 7.27139 0 8 7.27139 1
gene 1 6 5 3.12195 0 40 3.12195 1
genomeend 20

/* Organism #21 Fitness: 39 Error: 0 */
genomestart 21
trait 1 0.112687 0 0.259132 0.126735 0 0 0 0.481316 
trait 2 0.2 0 0.038424 0 0.152127 0 0 0.0479083 
trait 3 0.215972 0 0 0 0.00683032 0 0 0 
node 1 3 1 3
node 2 2 1 1
node 3 3 1 1
node 4 1 1 1
node 5 3 0 2
node 6 3 0 2
gene 1 1 5 1.06282 0 1 1.06282 1
gene 1 2 5 -0.94568 0 2 -0.94568 1
gene 1 3 5 0.18664 0 3 0.18664 1
gene 1 4 5 0.649783 0 4 0.649783 1
gene 1 1 6 -0.687436 0 5 -0.687436 1
gene 2 2 6 0.0756621 0 6 0.0756621 1
gene 2 3 6 -1.303 0 7 -1.303 1
gene 2 4 6 8 0 8 8 1
gene 1 6 5 0.239625 0 40 0.239625 1
genomeend 21

/* Organism #22 Fitness: 36 Error: 0 */
genomestart 22
trait 1 0.1 0 0.259132 0.126735 0 0 0 0 
trait 2 0.2 0 0.038424 0 0.152127 0 0 0.0479083 
trait 3 0.215972 0 0 0 0.00683032 0 0 0 
node 1 3 1 3
node 2 2 1 1
node 3 3 1 1
node 4 1 1 1
node 5 3 0 2
node 6 3 0 2
gene 1 1 5 -1.7569 0 1 -1.7569 1
gene 1 2 5 -1.92301 0 2 -1.92301 1
gene 1 3 5 0.281797 0 3 0.281797 1
gene 1 4 5 0.629611 0 4 0.629611 1
gene 1 1 6 -1.4366 0 5 -1.4366 1
gene 2 2 6 -1.90948 0 6 -1.90948 1
gene 2 3 6 -3.09813 0 7 -3.09813 1
gene 2 4 6 8 0 8 8 1
gene 1 6 5 4.50475 0 40 4.50475 1
genomeend 22

/* Organism #23 Fitness: 3471 Error: 0 */
genomestart 23
trait 1 0.1 0 0.259132 0.126735 0 0 0 0 
trait 2 0.2 0 0.038424 0 0.152127 0 0 0.0479083 
trait 3 0.215972 0 0 0 0.00683032 0 0 0 
node 1 3 1 3
node 2 2 1 1
node 3 3 1 1
node 4 1 1 1
node 5 3 0 2
node 6 3 0 2
gene 1 1 5 -0.822002 0 1 -0.822002 1
gene 1 2 5 -0.94568 0 2 -0.94568 1
gene 1 3 5 -0.0375817 0 3 -0.0375817 1
gene 1 4 5 0.649783 0 4 0.649783 1
gene 1 1 6 -0.809163 0 5 -0.809163 1
gene 2 2 6 -0.997756 0 6 -0.997756 1
gene 2 3 6 -2.38717 0 7 -2.38717 1
gene 2 4 6 7.27139 0 8 7.27139 1
gene 1 6 5 3.12195 0 40 3.12195 1
genomeend 23

/* Organism #24 Fitness: 3472 Error: 0 */
genomestart 24
trait 1 0.1 0 0.259132 0.126735 0 0 0 0 
trait 2 0.2 0 0.038424 0 0.152127 0 0 0.0479083 
trait 3 0.215972 0 0 0 0.00683032 0 0 0 
node 1 3 1 3
node 2 2 1 1
node 3 3 1 1
node 4 1 1 1
node 5 3 0 2
node 6 2 0 2
gene 1 1 5 -0.822002 0 1 -0.822002 1
gene 1 2 5 -0.94568 0 2 -0.94568 1
gene 1 3 5 -0.0375817 0 3 -0.0375817 1
gene 1 4 5 0.649783 0 4 0.649783 1
gene 1 1 6 -0.809163 0 5 -0.809163 1
gene 2 2 6 -0.997756 0 6 -0.997756 1
gene 2 3 6 -2.38717 0 7 -2.38717 1
gene 2 4 6 7.27139 0 8 7.27139 1
gene 1 6 5 3.12195 0 40 3.12195 1
genomeend 24

/* Organism #25 Fitness: 0 Error: 0 */
genomestart 25
trait 1 0.1 0 0.259132 0.126735 0 0 0 0 
trait 2 0.2 0 0.038424 0 0.152127 0 0 0.0479083 
trait 3 0.215972 0.116501 0 0 0.00512274 0 0.0874536 0 
node 1 3 1 3
node 2 2 1 1
node 3 3 1 1
node 4 1 1 1
node 5 3 0 2
node 6 3 0 2
gene 1 1 5 -1.41215 0 1 -1.41215 1
gene 1 2 5 -1.33045 0 2 -1.33045 1
gene 1 3 5 -1.07335 0 3 -1.07335 1
gene 1 4 5 0.443537 0 4 0.443537 1
gene 1 1 6 -2.85717 0 5 -2.85717 1
gene 2 2 6 -3.21876 0 6 -3.21876 1
gene 2 3 6 -4.38726 0 7 -4.38726 1
gene 2 4 6 8 0 8 8 1
gene 1 6 5 3.44563 0 40 3.44563 1
gene 1 6 6 1.36958 1 82 1.36958 1
genomeend 25

/* Organism #26 Fitness: 2632 Error: 0 */
genomestart 26
trait 1 0.1 0 0.259132 0.126735 0 0 0 0 
trait 2 0.2 0 0.038424 0 0.152127 0 0 0.0479083 
trait 3 0.215972 0.116501 0 0 0.00512274 0 0.0874536 0 
node 1 3 1 3
node 2 2 1 1
node 3 3 1 1
node 4 1 1 1
node 5 3 0 2
node 6 3 0 2
gene 1 1 5 -0.822002 0 1 -0.822002 1
gene 1 2 5 -0.94568 0 2 -0.94568 1
gene 1 3 5 -0.0375817 0 3 -0.0375817 1
gene 1 4 5 0.649783 0 4 0.649783 1
gene 1 1 6 -0.809163 0 5 -0.809163 1
gene 2 2 6 -0.997756 0 6 -0.997756 1
gene 2 3 6 -2.38717 0 7 -2.38717 1
gene 2 4 6 7.27139 0 8 7.27139 1
gene 1 6 5 3.12195 0 40 3.12195 1
gene 1 6 6 -0.758648 1 82 -0.758648 1
genomeend 26

/* Organism #27 Fitness: 1948 Error: 0 */
genomestart 27
trait 1 0.1 0 0.259132 0.126735 0 0 0 0 
trait 2 0.2 0 0.038424 0 0.152127 0 0 0.0479083 
trait 3 0.215972 0.116501 0 0 0.00512274 0 0.0874536 0 
node 1 3 1 3
node 2 2 1 1
node 3 3 1 1
node 4 1 1 1
node 5 3 0 2
node 6 3 0 2
gene 1 1 5 -0.822002 0 1 -0.822002 1
gene 1 2 5 -0.94568 0 2 -0.94568 1
gene 1 3 5 -0.0375817 0 3 -0.0375817 1
gene 1 4 5 0.649783 0 4 0.649783 1
gene 1 1 6 -0.809163 0 5 -0.809163 1
gene 2 2 6 -0.997756 0 6 -0.997756 1
gene 2 3 6 -2.38717 0 7 -2.38717 1
gene 2 4 6 7.27139 0 8 7.27139 1
gene 1 6 5 3.12195 0 40 3.12195 1
gene 1 6 6 -0.758648 1 82 -0.758648 1
genomeend 27

/* Organism #28 Fitness: 0 Error: 0 */
genomestart 28
trait 1 0.125374 0 0.259132 0.126735 0 0 0 0.962633 
trait 2 0.2 0 0.038424 0 0.152127 0 0 0.0479083 
trait 3 0.215972 0 0 0 0.00683032 0 0 0 
node 1 3 1 3
node 2 2 1 1
node 3 3 1 1
node 4 1 1 1
node 5 3 0 2
node 6 3 0 2
gene 1 1 5 0.17705 0 1 0.17705 1
gene 1 2 5 -0.935664 0 2 -0.935664 1
gene 1 3 5 -0.310833 0 3 -0.310833 1
gene 1 4 5 1.61119 0 4 1.61119 1
gene 1 1 6 -2.72432 0 5 -2.72432 1
gene 2 2 6 -0.96594 0 6 -0.96594 1
gene 2 3 6 -1.27003 0 7 -1.27003 1
gene 2 4 6 8 0 8 8 1
gene 1 6 5 0.879964 0 40 0.879964 1
genomeend 28

/* Organism #29 Fitness: 132193 Error: 0 */
/* ##------$ WINNER 29 SPECIES #271 $------## */
genomestart 29
trait 1 0.1 0 0.259132 0.126735 0 0 0 0 
trait 2 0.2 0 0.038424 0 0.152127 0 0 0.0479083 
trait 3 0.215972 0 0 0 0.00683032 0 0 0 
node 1 3 1 3
node 2 2 1 1
node 3 3 1 1
node 4 1 1 1
node 5 3 0 2
node 6 3 0 2
gene 1 1 5 -0.822002 0 1 -0.822002 1
gene 1 2 5 -0.94568 0 2 -0.94568 1
gene 1 3 5 -0.0375817 0 3 -0.0375817 1
gene 1 4 5 0.649783 0 4 0.649783 1
gene 1 1 6 -0.809163 0 5 -0.809163 1
gene 2 2 6 -0.997756 0 6 -0.997756 1
gene 2 3 6 -2.38717 0 7 -2.38717 1
gene 2 4 6 7.27139 0 8 7.27139 1
gene 1 6 5 3.12195 0 40 3.12195 1
genomeend 29

/* Organism #30 Fitness: 74 Error: 0 */
genomestart 30
trait 1 0.125374 0 0.259132 0.126735 0 0 0 0.962633 
trait 2 0.2 0 0.038424 0 0.152127 0 0 0.0479083 
trait 3 0.215972 0 0 0 0.00683032 0 0 0 
node 1 3 1 3
node 2 2 1 1
node 3 3 1 1
node 4 1 1 1
node 5 3 0 2
node 6 3 0 2
gene 1 1 5 -0.0693698 0 1 -0.0693698 1
gene 1 2 5 -1.09885 0 2 -1.09885 1
gene 1 3 5 0.712768 0 3 0.712768 1
gene 1 4 5 -1.5893 0 4 -1.5893 1
gene 1 1 6 -2.72271 0 5 -2.72271 1
gene 2 2 6 -0.63848 0 6 -0.63848 1
gene 2 3 6 -3.70945 0 7 -3.70945 1
gene 2 4 6 7.27139 0 8 7.27139 1
gene 1 6 5 2.70334 0 40 2.70334 1
genomeend 30

/* Organism #31 Fitness: 444 Error: 0 */
genomestart 31
trait 1 0.1 0 0.259132 0.126735 0 0 0 0 
trait 2 0.2 0 0.038424 0 0.152127 0 0 0.0479083 
trait 3 0.215972 0 0 0 0.00683032 0 0 0 
node 1 3 1 3
node 2 2 1 1
node 3 3 1 1
node 4 1 1 1
node 5 3 0 2
node 6 3 0 2
gene 1 1 5 -0.822002 0 1 -0.822002 1
gene 1 2 5 -0.94568 0 2 -0.94568 1
gene 1 3 5 -0.0375817 0 3 -0.0375817 1
gene 1 4 5 0.649783 0 4 0.649783 1
gene 1 1 6 -0.809163 0 5 -0.809163 1
gene 2 2 6 -0.997756 0 6 -0.997756 1
gene 2 3 6 -2.38717 0 7 -2.38717 1
gene 2 4 6 7.27139 0 8 7.27139 1
gene 1 6 5 3.12195 0 40 3.12195 1
genomeend 31

/* Organism #32 Fitness: 0 Error: 0 */
genomestart 32
trait 1 0.1 0 0.259132 0.126735 0 0 0 0 
trait 2 0.2 0 0.038424 0 0.152127 0 0 0.0479083 
trait 3 0.215972 0 0 0 0.00683032 0 0 0 
node 1 3 1 3
node 2 2 1 1
node 3 3 1 1
node 4 1 1 1
node 5 3 0 2
node 6 3 0 2
gene 1 1 5 0.248892 0 1 0.248892 1
gene 1 2 5 -2.57854 0 2 -2.57854 1
gene 1 3 5 0.393112 0 3 0.393112 1
gene 1 4 5 0.52004 0 4 0.52004 1
gene 1 1 6 -2.2207 0 5 -2.2207 1
gene 2 2 6 -2.56989 0 6 -2.56989 1
gene 2 3 6 -1.36895 0 7 -1.36895 1
gene 2 4 6 6.57597 0 8 6.57597 1
gene 1 6 5 3.05108 0 40 3.05108 1
genomeend 32

/* Organism #33 Fitness: 0 Error: 0 */
genomestart 33
trait 1 0.1 0 0.259132 0.126735 0 0 0 0 
trait 2 0.2 0 0.038424 0 0.152127 0 0 0.0479083 
trait 3 0.215972 0 0 0 0.00683032 0 0 0 
node 1 3 1 3
node 2 2 1 1
node 3 3 1 1
node 4 1 1 1
node 5 3 0 2
node 6 3 0 2
gene 1 1 5 0.241116 0 1 0.241116 1
gene 1 2 5 0.471369 0 2 0.471369 1
gene 1 3 5 -0.0268733 0 3 -0.0268733 1
gene 1 4 5 -0.143817 0 4 -0.143817 1
gene 1 1 6 -0.212951 0 5 -0.212951 1
gene 2 2 6 -1.90307 0 6 -1.90307 1
gene 2 3 6 -4.36988 0 7 -4.36988 1
gene 2 4 6 8 0 8 8 1
gene 1 6 5 3.76055 0 40 3.76055 1
gene 1 6 6 -0.758648 1 82 -0.758648 1
genomeend 33

/* Organism #34 Fitness: 0 Error: 0 */
genomestart 34
trait 1 0.1 0 0.259132 0.126735 0 0 0 0 
trait 2 0.2 0 0.038424 0 0.152127 0 0 0.0479083 
trait 3 0.215972 0.116501 0 0 0.00512274 0 0.0874536 0 
node 1 2 1 3
node 2 2 1 1
node 3 3 1 1
node 4 1 1 1
node 5 3 0 2
node 6 2 0 2
gene 1 1 5 -2.60083 0 1 -2.60083 1
gene 1 2 5 -0.492952 0 2 -0.492952 1
gene 1 3 5 0.436762 0 3 0.436762 1
gene 1 4 5 0.649783 0 4 0.649783 1
gene 1 1 6 -0.322716 0 5 -0.322716 1
gene 2 2 6 0.835712 0 6 0.835712 1
gene 2 3 6 -1.88634 0 7 -1.88634 1
gene 2 4 6 5.91209 0 8 5.91209 1
gene 1 6 5 -1.8082 0 40 -1.8082 1
gene 1 6 6 2.12258 1 82 2.12258 1
genomeend 34

/* Organism #35 Fitness: 19906 Error: 0 */
genomestart 35
trait 1 0.1 0 0.259132 0.126735 0 0 0 0 
trait 2 0.1 0 0.142765 0 0.576064 0 0 0.512168 
trait 3 0.215972 0 0 0 0.00683032 0 0 0 
node 1 3 1 3
node 2 2 1 1
node 3 3 1 1
node 4 1 1 1
node 5 3 0 2
node 6 2 0 2
gene 1 1 5 -0.822002 0 1 -0.822002 1
gene 1 2 5 -0.94568 0 2 -0.94568 1
gene 1 3 5 -0.0375817 0 3 -0.0375817 1
gene 1 4 5 0.649783 0 4 0.649783 1
gene 1 1 6 -0.809163 0 5 -0.809163 1
gene 2 2 6 -0.997756 0 6 -0.997756 1
gene 2 3 6 -2.38717 0 7 -2.38717 1
gene 2 4 6 7.27139 0 8 7.27139 1
gene 1 6 5 3.12195 0 40 3.12195 1
gene 2 6 6 0.559994 1 87 0.559994 1
genomeend 35

/* Organism #36 Fitness: 20186 Error: 0 */
genomestart 36
trait 1 0.1 0 0.259132 0.126735 0 0 0 0 
trait 2 0.1 0 0.142765 0 0.576064 0 0 0.512168 
trait 3 0.215972 0 0 0 0.00683032 0 0 0 
node 1 3 1 3
node 2 2 1 1
node 3 3 1 1
node 4 1 1 1
node 5 3 0 2
node 6 3 0 2
gene 1 1 5 -0.822002 0 1 -0.822002 1
gene 1 2 5 -0.94568 0 2 -0.94568 1
gene 1 3 5 -0.0375817 0 3 -0.0375817 1
gene 1 4 5 0.649783 0 4 0.649783 1
gene 1 1 6 -0.809163 0 5 -0.809163 1
gene 2 2 6 -0.997756 0 6 -0.997756 1
gene 2 3 6 -2.38717 0 7 -2.38717 1
gene 2 4 6 7.27139 0 8 7.27139 1
gene 1 6 5 3.12195 0 40 3.12195 1
genomeend 36

/* Organism #37 Fitness: 0 Error: 0 */
genomestart 37
trait 1 0.1 0 0.259132 0.126735 0 0 0 0 
trait 2 0.2 0 0.038424 0 0.152127 0 0 0.0479083 
trait 3 0.215972 0 0 0 0.00683032 0 0 0 
node 1 3 1 3
node 2 2 1 1
node 3 3 1 1
node 4 1 1 1
node 5 3 0 2
node 6 3 0 2
gene 1 1 5 1.21263 0 1 1.21263 1
gene 1 2 5 -0.212554 0 2 -0.212554 1
gene 1 3 5 -0.0375817 0 3 -0.0375817 1
gene 1 4 5 0.613695 0 4 0.613695 1
gene 1 1 6 -2.14298 0 5 -2.14298 1
gene 2 2 6 -1.9383 0 6 -1.9383 1
gene 2 3 6 -2.38717 0 7 -2.38717 1
gene 2 4 6 7.27139 0 8 7.27139 1
gene 1 6 5 3.59414 0 40 3.59414 1
genomeend 37

/* Organism #38 Fitness: 2662 Error: 0 */
genomestart 38
trait 1 0.1 0 0.259132 0.126735 0 0 0 0 
trait 2 0.2 0 0.038424 0 0.152127 0 0 0.0479083 
trait 3 0.215972 0.116501 0 0 0.00512274 0 0.0874536 0 
node 1 3 1 3
node 2 2 1 1
node 3 3 1 1
node 4 1 1 1
node 5 3 0 2
node 6 3 0 2
gene 1 1 5 -0.822002 0 1 -0.822002 1
gene 1 2 5 -0.94568 0 2 -0.94568 1
gene 1 3 5 -0.0375817 0 3 -0.0375817 1
gene 1 4 5 0.649783 0 4 0.649783 1
gene 1 1 6 -0.809163 0 5 -0.809163 1
gene 2 2 6 -0.997756 0 6 -0.997756 1
gene 2 3 6 -2.38717 0 7 -2.38717 1
gene 2 4 6 7.27139 0 8 7.27139 1
gene 1 6 5 3.12195 0 40 3.12195 1
gene 1 6 6 -0.758648 1 82 -0.758648 1
genomeend 38

/* Organism #39 Fitness: 0 Error: 0 */
genomestart 39
trait 1 0.1 0 0.259132 0.126735 0 0 0 0 
trait 2 0.2 0 0.038424 0 0.152127 0 0 0.0479083 
trait 3 0.215972 0 0 0 0.00683032 0 0 0 
node 1 3 1 3
node 2 2 1 1
node 3 3 1 1
node 4 1 1 1
node 5 3 0 2
node 6 3 0 2
gene 1 1 5 1.20122 0 1 1.20122 1
gene 1 2 5 2.24144 0 2 2.24144 1
gene 1 3 5 -0.0375817 0 3 -0.0375817 1
gene 1 4 5 0.649783 0 4 0.649783 1
gene 1 1 6 -0.682095 0 5 -0.682095 1
gene 2 2 6 -0.997756 0 6 -0.997756 1
gene 2 3 6 -2.68836 0 7 -2.68836 1
gene 2 4 6 7.27139 0 8 7.27139 1
gene 1 6 5 4.2387 0 40 4.2387 1
genomeend 39

/* Organism #40 Fitness: 1335 Error: 0 */
genomestart 40
trait 1 0.1 0 0.259132 0.126735 0 0 0 0 
trait 2 0.1 0 0.142765 0 0.576064 0 0 0.512168 
trait 3 0.215972 0 0 0 0.00683032 0 0 0 
node 1 3 1 3
node 2 2 1 1
node 3 3 1 1
node 4 1 1 1
node 5 3 0 2
node 6 3 0 2
gene 1 1 5 -0.822002 0 1 -0.822002 1
gene 1 2 5 -0.94568 0 2 -0.94568 1
gene 1 3 5 -0.0375817 0 3 -0.0375817 1
gene 1 4 5 0.649783 0 4 0.649783 1
gene 1 1 6 -0.809163 0 5 -0.809163 1
gene 2 2 6 -0.997756 0 6 -0.997756 1
gene 2 3 6 -2.38717 0 7 -2.38717 1
gene 2 4 6 7.27139 0 8 7.27139 1
gene 1 6 5 3.12195 0 40 3.12195 1
gene 3 5 6 -0.143979 1 88 -0.143979 1
genomeend 40

/* Organism #41 Fitness: 0 Error: 0 */
genomestart 41
trait 1 0.1 0 0.259132 0.126735 0 0 0 0 
trait 2 0.2 0 0.038424 0 0.152127 0 0 0.0479083 
trait 3 0.215972 0.116501 0 0 0.00512274 0 0.0874536 0 
node 1 3 1 3
node 2 2 1 1
node 3 3 1 1
node 4 1 1 1
node 5 3 0 2
node 6 3 0 2
gene 1 1 5 -2.96286 0 1 -2.96286 1
gene 1 2 5 -0.484633 0 2 -0.484633 1
gene 1 3 5 1.16119 0 3 1.16119 1
gene 1 4 5 -0.641916 0 4 -0.641916 1
gene 1 1 6 -3.12228 0 5 -3.12228 1
gene 2 2 6 -1.9894 0 6 -1.9894 1
gene 2 3 6 -0.860669 0 7 -0.860669 1
gene 2 4 6 6.0282 0 8 6.0282 1
gene 1 6 5 4.73905 0 40 4.73905 1
gene 1 6 6 1.20978 1 82 1.20978 1
genomeend 41

/* Organism #42 Fitness: 0 Error: 0 */
genomestart 42
trait 1 0.1 0 0.259132 0.126735 0 0 0 0 
trait 2 0.2 0 0.038424 0 0.152127 0 0 0.0479083 
trait 3 0.215972 0 0 0 0.00683032 0 0 0 
node 1 3 1 3
node 2 2 1 1
node 3 3 1 1
node 4 1 1 1
node 5 3 0 2
node 6 3 0 2
gene 1 1 5 -0.571378 0 1 -0.571378 1
gene 1 2 5 -0.94568 0 2 -0.94568 1
gene 1 3 5 -2.47393 0 3 -2.47393 1
gene 1 4 5 0.649783 0 4 0.649783 1
gene 1 1 6 1.49214 0 5 1.49214 1
gene 2 2 6 1.00347 0 6 1.00347 1
gene 2 3 6 -2.5038 0 7 -2.5038 1
gene 2 4 6 8 0 8 8 1
gene 1 6 5 2.37847 0 40 2.37847 1
genomeend 42

/* Organism #43 Fitness: 0 Error: 0 */
genomestart 43
trait 1 0.112687 0 0.259132 0.126735 0 0 0 0.481316 
trait 2 0.2 0 0.038424 0 0.152127 0 0 0.0479083 
trait 3 0.215972 0 0 0 0.00683032 0 0 0 
node 1 3 1 3
node 2 2 1 1
node 3 3 1 1
node 4 1 1 1
node 5 3 0 2
node 6 3 0 2
gene 1 1 5 -1.09171 0 1 -1.09171 1
gene 1 2 5 -0.94568 0 2 -0.94568 1
gene 1 3 5 -0.108919 0 3 -0.108919 1
gene 1 4 5 -0.617181 0 4 -0.617181 1
gene 1 1 6 -0.188202 0 5 -0.188202 1
gene 2 2 6 1.53582 0 6 1.53582 1
gene 2 3 6 -3.16253 0 7 -3.16253 1
gene 2 4 6 6.64707 0 8 6.64707 1
gene 1 6 5 1.76482 0 40 1.76482 1
genomeend 43

/* Organism #44 Fitness: 3409 Error: 0 */
genomestart 44
trait 1 0.1 0.0885683 0.259132 0.808972 0 0.0599349 0 0 
trait 2 0.1 0 0.142765 0 0.576064 0 0 0.512168 
trait 3 0.215972 0 0 0 0.00683032 0 0 0 
node 1 3 1 3
node 2 2 1 1
node 3 3 1 1
node 4 1 1 1
node 5 3 0 2
node 6 3 0 2
gene 1 1 5 -0.822002 0 1 -0.822002 1
gene 1 2 5 -0.94568 0 2 -0.94568 1
gene 1 3 5 -0.0375817 0 3 -0.0375817 1
gene 1 4 5 0.649783 0 4 0.649783 1
gene 1 1 6 -0.809163 0 5 -0.809163 1
gene 3 2 6 -0.997756 0 6 -0.997756 1
gene 2 3 6 -2.38717 0 7 -2.38717 1
gene 2 4 6 7.27139 0 8 7.27139 1
gene 1 6 5 3.12195 0 40 3.12195 1
genomeend 44

/* Organism #45 Fitness: 0 Error: 0 */
genomestart 45
trait 1 0.112687 0 0.259132 0.126735 0 0 0 0.481316 
trait 2 0.2 0 0.038424 0 0.152127 0 0 0.0479083 
trait 3 0.215972 0 0 0 0.00683032 0 0 0 
node 1 3 1 3
node 2 2 1 1
node 3 3 1 1
node 4 1 1 1
node 5 3 0 2
node 6 3 0 2
gene 1 1 5 -0.627656 0 1 -0.627656 1
gene 1 2 5 -2.22074 0 2 -2.22074 1
gene 1 3 5 0.0655241 0 3 0.0655241 1
gene 1 4 5 0.362136 0 4 0.362136 1
gene 1 1 6 0.34328 0 5 0.34328 1
gene 2 2 6 -2.64323 0 6 -2.64323 1
gene 2 3 6 -1.7779 0 7 -1.7779 1
gene 2 4 6 5.23519 0 8 5.23519 1
gene 1 6 5 2.37754 0 40 2.37754 1
genomeend 45

/* Organism #46 Fitness: 650 Error: 0 */
genomestart 46
trait 1 0.1 0 0.259132 0.126735 0 0 0 0 
trait 2 0.2 0 0.038424 0 0.152127 0 0 0.0479083 
trait 3 0.215972 0 0 0 0.00683032 0 0 0 
node 1 3 1 3
node 2 2 1 1
node 3 3 1 1
node 4 1 1 1
node 5 3 0 2
node 6 3 0 2
gene 1 1 5 -0.822002 0 1 -0.822002 1
gene 1 2 5 -3.13166 0 2 -3.13166 1
gene 1 3 5 -0.0375817 0 3 -0.0375817 1
gene 1 4 5 1.45994 0 4 1.45994 1
gene 1 1 6 -0.809163 0 5 -0.809163 1
gene 2 2 6 -3.17058 0 6 -3.17058 1
gene 2 3 6 -1.38483 0 7 -1.38483 1
gene 2 4 6 5.33737 0 8 5.33737 1
gene 1 6 5 -0.646037 0 40 -0.646037 1
gene 1 6 6 -0.570215 1 82 -0.570215 1
genomeend 46

/* Organism #47 Fitness: 3464 Error: 0 */
genomestart 47
trait 1 0.1 0 0.259132 0.126735 0 0 0 0 
trait 2 0.2 0 0.038424 0 0.152127 0 0 0.0479083 
trait 3 0.215972 0 0 0 0.00683032 0 0 0 
node 1 3 1 3
node 2 2 1 1
node 3 3 1 1
node 4 1 1 1
node 5 3 0 2
node 6 3 0 2
gene 1 1 5 -0.822002 0 1 -0.822002 1
gene 1 2 5 -0.94568 0 2 -0.94568 1
gene 1 3 5 -0.0375817 0 3 -0.0375817 1
gene 1 4 5 0.649783 0 4 0.649783 1
gene 1 1 6 -0.809163 0 5 -0.809163 1
gene 2 2 6 -0.997756 0 6 -0.997756 1
gene 2 3 6 -2.38717 0 7 -2.38717 1
gene 2 4 6 7.27139 0 8 7.27139 1
gene 1 6 5 3.12195 0 40 3.12195 1
genomeend 47

/* Organism #48 Fitness: 1968 Error: 0 */
genomestart 48
trait 1 0.1 0 0.259132 0.126735 0 0 0 0 
trait 2 0.2 0 0.038424 0 0.152127 0 0 0.0479083 
trait 3 0.215972 0 0 0 0.00683032 0 0 0 
node 1 3 1 3
node 2 2 1 1
node 3 3 1 1
node 4 1 1 1
node 5 3 0 2
node 6 3 0 2
gene 1 1 5 -0.822002 0 1 -0.822002 1
gene 1 2 5 -0.94568 0 2 -0.94568 1
gene 1 3 5 -0.0375817 0 3 -0.0375817 1
gene 1 4 5 0.649783 0 4 0.649783 1
gene 1 1 6 -0.809163 0 5 -0.809163 1
gene 2 2 6 -0.997756 0 6 -0.997756 1
gene 2 3 6 -2.38717 0 7 -2.38717 1
gene 2 4 6 7.27139 0 8 7.27139 1
gene 1 6 5 3.12195 0 40 3.12195 1
genomeend 48

/* Organism #49 Fitness: 0 Error: 0 */
genomestart 49
trait 1 0.112687 0 0.259132 0.126735 0 0 0 0.481316 
trait 2 0.2 0 0.038424 0 0.152127 0 0 0.0479083 
trait 3 0.215972 0.116501 0 0 0.00512274 0 0.0874536 0 
node 1 3 1 3
node 2 2 1 1
node 3 3 1 1
node 4 1 1 1
node 5 3 0 2
node 6 3 0 2
gene 1 1 5 -2.0777 0 1 -2.0777 1
gene 1 2 5 1.12171 0 2 1.12171 1
gene 1 3 5 2.45915 0 3 2.45915 1
gene 1 4 5 0.649783 0 4 0.649783 1
gene 1 1 6 -0.462079 0 5 -0.462079 1
gene 2 2 6 0.940567 0 6 0.940567 1
gene 2 3 6 -3.78116 0 7 -3.78116 1
gene 2 4 6 7.62976 0 8 7.62976 1
gene 1 6 5 4.73936 0 40 4.73936 1
gene 1 6 6 -1.2711 1 82 -1.2711 1
genomeend 49

/* Organism #50 Fitness: 64832 Error: 0 */
genomestart 50
trait 1 0.1 0 0.259132 0.126735 0 0 0 0 
trait 2 0.2 0 0.038424 0 0.152127 0 0 0.0479083 
trait 3 0.215972 0 0 0 0.00683032 0 0 0 
node 1 3 1 3
node 2 2 1 1
node 3 3 1 1
node 4 1 1 1
node 5 3 0 2
node 6 3 0 2
gene 1 1 5 -0.822002 0 1 -0.822002 1
gene 1 2 5 -0.94568 0 2 -0.94568 1
gene 1 3 5 -0.0375817 0 3 -0.0375817 1
gene 1 4 5 0.649783 0 4 0.649783 1
gene 1 1 6 -0.809163 0 5 -0.809163 1
gene 2 2 6 -0.997756 0 6 -0.997756 1
gene 2 3 6 -2.38717 0 7 -2.38717 1
gene 2 4 6 7.27139 0 8 7.27139 1
gene 1 6 5 3.12195 0 40 3.12195 1
gene 3 6 6 0.247883 1 76 0.247883 1
genomeend 50

/* Organism #51 Fitness: 38 Error: 0 */
genomestart 51
trait 1 0.1 0 0.259132 0.126735 0 0 0 0 
trait 2 0.1 0 0.142765 0 0.576064 0 0 0.512168 
trait 3 0.215972 0.116501 0 0 0.00512274 0 0.0874536 0 
node 1 3 1 3
node 2 2 1 1
node 3 3 1 1
node 4 1 1 1
node 5 3 0 2
node 6 3 0 2
gene 1 1 5 -2.48842 0 1 -2.48842 1
gene 1 2 5 -2.99951 0 2 -2.99951 1
gene 1 3 5 1.89171 0 3 1.89171 1
gene 1 4 5 -1.11437 0 4 -1.11437 1
gene 1 1 6 -3.18302 0 5 -3.18302 1
gene 2 2 6 -0.420726 0 6 -0.420726 1
gene 2 3 6 -4.29067 0 7 -4.29067 1
gene 2 4 6 8 0 8 8 1
gene 1 6 5 5.04669 0 40 5.04669 1
gene 1 6 6 -0.758648 1 82 -0.758648 1
genomeend 51

/* Organism #52 Fitness: 0 Error: 0 */
genomestart 52
trait 1 0.1 0 0.259132 0.126735 0 0 0 0 
trait 2 0.2 0 0.038424 0 0.152127 0 0 0.0479083 
trait 3 0.215972 0.233002 0 0 0.00341516 0 0.174907 0 
node 1 3 1 3
node 2 2 1 1
node 3 3 1 1
node 4 1 1 1
node 5 3 0 2
node 6 3 0 2
gene 1 1 5 -1.67629 0 1 -1.67629 1
gene 1 2 5 -1.3758 0 2 -1.3758 1
gene 1 3 5 -0.0375817 0 3 -0.0375817 1
gene 1 4 5 2.40758 0 4 2.40758 1
gene 1 1 6 -0.586877 0 5 -0.586877 1
gene 2 2 6 1.09758 0 6 1.09758 1
gene 2 3 6 -4.20972 0 7 -4.20972 1
gene 2 4 6 6.30621 0 8 6.30621 1
gene 1 6 5 2.24063 0 40 2.24063 1
gene 1 6 6 -0.141713 1 82 -0.141713 1
genomeend 52

/* Organism #53 Fitness: 0 Error: 0 */
genomestart 53
trait 1 0.112687 0 0.259132 0.126735 0 0 0 0.481316 
trait 2 0.2 0 0.038424 0 0.152127 0 0 0.0479083 
trait 3 0.215972 0 0 0 0.00683032 0 0 0 
node 1 3 1 3
node 2 2 1 1
node 3 3 1 1
node 4 1 1 1
node 5 3 0 2
node 6 2 0 2
gene 1 1 5 -2.96462 0 1 -2.96462 1
gene 1 2 5 -0.672985 0 2 -0.672985 1
gene 1 3 5 -0.698199 0 3 -0.698199 1
gene 1 4 5 2.35871 0 4 2.35871 1
gene 1 1 6 0.974214 0 5 0.974214 1
gene 2 2 6 -2.45242 0 6 -2.45242 1
gene 2 3 6 -2.38717 0 7 -2.38717 1
gene 2 4 6 7.27139 0 8 7.27139 1
gene 1 6 5 3.12195 0 40 3.12195 1
genomeend 53

/* Organism #54 Fitness: 39 Error: 0 */
genomestart 54
trait 1 0.1 0 0.259132 0.126735 0 0 0 0 
trait 2 0.2 0 0.038424 0 0.152127 0 0 0.0479083 
trait 3 0.215972 0.233002 0 0 0.00341516 0 0.174907 0 
node 1 3 1 3
node 2 2 1 1
node 3 3 1 1
node 4 1 1 1
node 5 3 0 2
node 6 3 0 2
gene 1 1 5 -0.822002 0 1 -0.822002 1
gene 1 2 5 -0.14101 0 2 -0.14101 1
gene 1 3 5 0.591005 0 3 0.591005 1
gene 1 4 5 2.84931 0 4 2.84931 1
gene 1 1 6 -1.3668 0 5 -1.3668 1
gene 2 2 6 1.64229 0 6 1.64229 1
gene 2 3 6 -4.10702 0 7 -4.10702 1
gene 2 4 6 6.6077 0 8 6.6077 1
gene 1 6 5 3.03614 0 40 3.03614 1
gene 1 6 6 -1.93153 1 82 -1.93153 1
genomeend 54

/* Organism #55 Fitness: 0 Error: 0 */
genomestart 55
trait 1 0.1 0 0.259132 0.126735 0 0 0 0 
trait 2 0.2 0 0.038424 0 0.152127 0 0 0 
trait 3 0.215972 0 0 0 0.00683032 0 0 0 
node 1 3 1 3
node 2 2 1 1
node 3 3 1 1
node 4 1 1 1
node 5 3 0 2
node 6 3 0 2
gene 1 1 5 1.38645 0 1 1.38645 1
gene 1 2 5 1.14127 0 2 1.14127 1
gene 1 3 5 0.257319 0 3 0.257319 1
gene 1 4 5 1.71022 0 4 1.71022 1
gene 1 1 6 -1.14773 0 5 -1.14773 1
gene 2 2 6 -0.931017 0 6 -0.931017 1
gene 2 3 6 -1.74376 0 7 -1.74376 1
gene 2 4 6 7.58653 0 8 7.58653 1
gene 1 6 5 0.691371 0 40 0.691371 1
gene 1 6 6 -1.67047 1 82 -1.67047 1
genomeend 55

/* Species #361 : (Size 3) (AF 25.6667) (Age 7)  */


/* Organism #56 Fitness: 38 Error: 0 */
genomestart 56
trait 1 0.1 0 0.259132 0.126735 0 0 0 0 
trait 2 0.2 0 0.038424 0 0.152127 0 0 0.0479083 
trait 3 0.215972 0 0 0 0.00683032 0 0 0 
node 1 3 1 3
node 2 2 1 1
node 3 3 1 1
node 4 1 1 1
node 5 3 0 2
node 6 2 0 2
gene 1 1 5 0.787908 0 1 0.787908 1
gene 1 2 5 -1.20091 0 2 -1.20091 1
gene 1 3 5 -1.58832 0 3 -1.58832 1
gene 1 4 5 -0.520812 0 4 -0.520812 1
gene 1 1 6 1.08046 0 5 1.08046 1
gene 2 2 6 0.772956 0 6 0.772956 1
gene 2 3 6 0.0933934 0 7 0.0933934 1
gene 2 4 6 8 0 8 8 1
gene 1 6 5 2.06824 0 40 2.06824 1
genomeend 56

/* Organism #57 Fitness: 39 Error: 0 */
genomestart 57
trait 1 0.1 0 0.259132 0.126735 0 0 0 0 
trait 2 0.2 0 0.038424 0 0.152127 0 0 0.0479083 
trait 3 0.215972 0.116501 0 0 0.00512274 0 0.0874536 0 
node 1 3 1 3
node 2 2 1 1
node 3 3 1 1
node 4 1 1 1
node 5 3 0 2
node 6 3 0 2
gene 1 1 5 2.01386 0 1 2.01386 1
gene 1 2 5 -0.981514 0 2 -0.981514 1
gene 1 3 5 -2.42526 0 3 -2.42526 1
gene 1 4 5 0.437877 0 4 0.437877 1
gene 1 1 6 -2.46454 0 5 -2.46454 1
gene 2 2 6 0.900724 0 6 0.900724 1
gene 2 3 6 -4.06403 0 7 -4.06403 1
gene 2 4 6 7.836 0 8 7.836 1
gene 1 6 5 -2.35128 0 40 -2.35128 1
gene 1 6 6 -1.57592 1 82 -1.57592 1
genomeend 57

/* Organism #58 Fitness: 0 Error: 0 */
genomestart 58
trait 1 0.1 0 0.259132 0.126735 0 0 0 0 
trait 2 0.2 0 0.038424 0 0.152127 0 0 0.0479083 
trait 3 0.215972 0 0 0 0.00683032 0 0 0 
node 1 1 1 3
node 2 2 1 1
node 3 3 1 1
node 4 1 1 1
node 5 3 0 2
node 6 3 0 2
gene 1 1 5 -0.961124 0 1 -0.961124 1
gene 1 2 5 0.821653 0 2 0.821653 1
gene 2 3 5 -4.78539 0 3 -4.78539 1
gene 1 4 5 1.82998 0 4 1.82998 1
gene 1 1 6 -0.13755 0 5 -0.13755 1
gene 2 2 6 2.60783 0 6 2.60783 1
gene 2 3 6 -0.816389 0 7 -0.816389 1
gene 2 4 6 8 0 8 8 1
gene 1 6 5 0.573666 0 40 0.573666 1
gene 1 6 6 1.47611 1 82 1.47611 1
genomeend 58

/* Species #409 : (Size 1) (AF 0) (Age 3)  */


/* Organism #59 Fitness: 0 Error: 0 */
genomestart 59
trait 1 0.1 0 0.259132 0.126735 0 0 0 0 
trait 2 0.2 0 0.038424 0 0.152127 0 0 0.0479083 
trait 3 0.215972 0 0 0 0.00683032 0 0 0 
node 1 3 1 3
node 2 2 1 1
node 3 3 1 1
node 4 1 1 1
node 5 3 0 2
node 6 3 0 2
gene 1 1 5 -0.100567 0 1 -0.100567 1
gene 1 2 5 -1.049 0 2 -1.049 1
gene 1 3 5 -0.0375817 0 3 -0.0375817 1
gene 1 4 5 2.66776 0 4 2.66776 1
gene 1 1 6 -2.88836 0 5 -2.88836 1
gene 2 2 6 -1.39596 0 6 -1.39596 1
gene 2 3 6 -0.713434 0 7 -0.713434 1
gene 2 4 6 6.18581 0 8 6.18581 1
gene 1 6 5 4.45219 0 40 4.45219 1
genomeend 59

/* Species #412 : (Size 3) (AF 25.6667) (Age 3)  */


/* Organism #60 Fitness: 0 Error: 0 */
genomestart 60
trait 1 0.1 0 0.259132 0.126735 0 0 0 0 
trait 2 0.2 0 0.038424 0 0.152127 0 0 0.0479083 
trait 3 0.215972 0 0 0 0.00683032 0 0 0 
node 1 3 1 3
node 2 2 1 1
node 3 3 1 1
node 4 1 1 1
node 5 3 0 2
node 6 3 0 2
gene 1 1 5 -1.20212 0 1 -1.20212 1
gene 1 2 5 -2.67094 0 2 -2.67094 1
gene 1 3 5 2.08892 0 3 2.08892 1
gene 1 4 5 0.991693 0 4 0.991693 1
gene 1 1 6 0.64284 0 5 0.64284 1
gene 2 2 6 -0.711789 0 6 -0.711789 1
gene 2 3 6 -4.35755 0 7 -4.35755 1
gene 2 4 6 6.44018 0 8 6.44018 1
gene 1 6 5 4.31685 0 40 4.31685 1
genomeend 60

/* Organism #61 Fitness: 39 Error: 0 */
genomestart 61
trait 1 0.1 0 0.259132 0.126735 0 0.578483 0.695949 0 
trait 2 0.2 0 0.038424 0 0.152127 0 0 0.0479083 
trait 3 0.215972 0 0 0 0.00683032 0 0 0 
node 1 3 1 3
node 2 2 1 1
node 3 3 1 1
node 4 1 1 1
node 5 3 0 2
node 6 2 0 2
gene 1 1 5 0.162339 0 1 0.162339 1
gene 1 2 5 -1.7072 0 2 -1.7072 1
gene 1 3 5 0.46175 0 3 0.46175 1
gene 1 4 5 -1.55006 0 4 -1.55006 1
gene 1 1 6 -0.708481 0 5 -0.708481 1
gene 2 2 6 0.756889 0 6 0.756889 1
gene 2 3 6 -3.10576 0 7 -3.10576 1
gene 2 4 6 4.78081 0 8 4.78081 1
gene 1 6 5 4.20759 0 40 4.20759 1
genomeend 61

/* Organism #62 Fitness: 38 Error: 0 */
genomestart 62
trait 1 0.05 0 0.129566 0.126735 0 0.366831 0.41027 0.03427 
trait 2 0.2 0 0.038424 0 0.152127 0 0 0.0479083 
trait 3 0.215972 0 0 0 0.00683032 0 0 0 
node 1 3 1 3
node 2 2 1 1
node 3 3 1 1
node 4 1 1 1
node 5 3 0 2
node 6 2 0 2
gene 1 1 5 -0.530412 0 1 -0.530412 1
gene 1 2 5 -4.07929 0 2 -4.07929 1
gene 1 3 5 0.432352 0 3 0.432352 1
gene 1 4 5 1.08327 0 4 1.08327 1
gene 1 1 6 -0.808997 0 5 -0.808997 1
gene 2 2 6 0.336084 0 6 0.336084 1
gene 2 3 6 -3.54523 0 7 -3.54523 1
gene 2 4 6 3.77417 0 8 3.77417 1
gene 1 6 5 4.4 0 40 4.4 1
gene 2 5 6 2.15849 1 79 2.15849 1
genomeend 62

/* Species #413 : (Size 1) (AF 0) (Age 3)  */


/* Organism #63 Fitness: 0 Error: 0 */
genomestart 63
trait 1 0.1 0 0.259132 0.126735 0 0 0 0 
trait 2 0.2 0 0.038424 0 0.152127 0 0 0.0479083 
trait 3 0.215972 0.233002 0 0 0.00341516 0 0.174907 0 
node 1 3 1 3
node 2 2 1 1
node 3 3 1 1
node 4 1 1 1
node 5 3 0 2
node 6 3 0 2
gene 1 1 5 -2.43643 0 1 -2.43643 1
gene 1 2 5 0.782828 0 2 0.782828 1
gene 1 3 5 0.00237554 0 3 0.00237554 1
gene 1 4 5 3.0332 0 4 3.0332 1
gene 1 1 6 -2.0519 0 5 -2.0519 1
gene 2 2 6 1.22733 0 6 1.22733 1
gene 2 3 6 -3.67574 0 7 -3.67574 1
gene 2 4 6 8 0 8 8 1
gene 1 6 5 1.19452 0 40 1.19452 1
gene 1 6 6 -3.09445 1 82 -3.09445 1
genomeend 63

/* Species #414 : (Size 3) (AF 39) (Age 3)  */


/* Organism #64 Fitness: 39 Error: 0 */
genomestart 64
trait 1 0.1 0 0.259132 0.126735 0 0 0 0 
trait 2 0.2 0 0.038424 0 0.152127 0 0 0.0479083 
trait 3 0.215972 0 0 0 0.00683032 0 0 0 
node 1 3 1 3
node 2 2 1 1
node 3 3 1 1
node 4 1 1 1
node 5 3 0 2
node 6 3 0 2
gene 1 1 5 -1.50629 0 1 -1.50629 1
gene 1 2 5 -2.14107 0 2 -2.14107 1
gene 1 3 5 1.58347 0 3 1.58347 1
gene 1 4 5 1.48281 0 4 1.48281 1
gene 1 1 6 -2.29765 0 5 -2.29765 1
gene 2 2 6 0.492819 0 6 0.492819 1
gene 2 3 6 -3.57303 0 7 -3.57303 1
gene 2 4 6 5.69085 0 8 5.69085 1
gene 1 6 5 4.00193 0 40 4.00193 1
genomeend 64

/* Organism #65 Fitness: 39 Error: 0 */
genomestart 65
trait 1 0.1 0 0.259132 0.126735 0 0 0 0 
trait 2 0.2 0 0.038424 0 0.152127 0 0 0.0479083 
trait 3 0 0 0 0 0.00683032 0 0.764417 0.243749 
node 1 3 1 3
node 2 2 1 1
node 3 3 1 1
node 4 1 1 1
node 5 3 0 2
node 6 3 0 2
gene 1 1 5 -0.0541898 0 1 -0.0541898 1
gene 1 2 5 -3.36417 0 2 -3.36417 1
gene 1 3 5 1.58217 0 3 1.58217 1
gene 1 4 5 1.06491 0 4 1.06491 1
gene 1 1 6 -2.54997 0 5 -2.54997 1
gene 2 2 6 1.06489 0 6 1.06489 1
gene 2 3 6 -3.87191 0 7 -3.87191 1
gene 2 4 6 6.32707 0 8 6.32707 1
gene 1 6 5 3.4831 0 40 3.4831 1
genomeend 65

/* Organism #66 Fitness: 39 Error: 0 */
genomestart 66
trait 1 0.1 0 0.259132 0.126735 0 0 0 0 
trait 2 0.1 0 0.142765 0 0.576064 0 0 0.512168 
trait 3 0.215972 0 0 0 0.00683032 0 0 0 
node 1 3 1 3
node 2 2 1 1
node 3 3 1 1
node 4 1 1 1
node 5 3 0 2
node 6 3 0 2
gene 1 1 5 -2.75957 0 1 -2.75957 1
gene 1 2 5 -0.274822 0 2 -0.274822 1
gene 1 3 5 1.92436 0 3 1.92436 1
gene 1 4 5 1.9898 0 4 1.9898 1
gene 1 1 6 -1.87865 0 5 -1.87865 1
gene 2 2 6 -0.254419 0 6 -0.254419 1
gene 2 3 6 -4.30658 0 7 -4.30658 1
gene 2 4 6 7.42893 0 8 7.42893 1
gene 1 6 5 3.23029 0 40 3.23029 1
genomeend 66

/* Species #418 : (Size 2) (AF 0) (Age 3)  */


/* Organism #67 Fitness: 0 Error: 0 */
genomestart 67
trait 1 0.1 0 0.259132 0.126735 0 0 0 0 
trait 2 0.2 0 0.038424 0 0.152127 0 0 0.0479083 
trait 3 0.215972 0 0 0 0.00683032 0 0 0 
node 1 3 1 3
node 2 2 1 1
node 3 3 1 1
node 4 1 1 1
node 5 3 0 2
node 6 3 0 2
gene 1 1 5 0.449522 0 1 0.449522 1
gene 1 2 5 0.88228 0 2 0.88228 1
gene 1 3 5 -2.01876 0 3 -2.01876 1
gene 1 4 5 1.47577 0 4 1.47577 1
gene 1 1 6 -0.833194 0 5 -0.833194 1
gene 2 2 6 0.120096 0 6 0.120096 1
gene 2 3 6 -0.386368 0 7 -0.386368 1
gene 1 4 6 8 0 8 8 1
gene 1 6 5 4.22422 0 40 4.22422 1
genomeend 67

/* Organism #68 Fitness: 0 Error: 0 */
genomestart 68
trait 1 0.125374 0 0.259132 0.126735 0 0 0 0.962633 
trait 2 0.2 0 0.038424 0 0.152127 0 0 0.0479083 
trait 3 0.215972 0 0 0 0.00683032 0 0 0 
node 1 3 1 3
node 2 2 1 1
node 3 3 1 1
node 4 1 1 1
node 5 3 0 2
node 6 3 0 2
gene 1 1 5 -0.627221 0 1 -0.627221 1
gene 1 2 5 0.133448 0 2 0.133448 1
gene 1 3 5 -2.03468 0 3 -2.03468 1
gene 1 4 5 -0.0799811 0 4 -0.0799811 1
gene 1 1 6 0.386039 0 5 0.386039 1
gene 2 2 6 0.160755 0 6 0.160755 1
gene 2 3 6 -0.0508724 0 7 -0.0508724 1
gene 2 4 6 8 0 8 8 1
gene 1 6 5 3.55256 0 40 3.55256 1
genomeend 68

/* Species #422 : (Size 1) (AF 0) (Age 2)  */


/* Organism #69 Fitness: 0 Error: 0 */
genomestart 69
trait 1 0.1 0 0.259132 0.126735 0 0 0 0 
trait 2 0.2 0 0.038424 0 0.152127 0 0 0.0479083 
trait 3 0.215972 0 0 0 0.00683032 0 0 0 
node 1 3 1 3
node 2 2 1 1
node 3 3 1 1
node 4 1 1 1
node 5 3 0 2
node 6 2 0 2
gene 1 1 5 0.851852 0 1 0.851852 1
gene 1 2 5 0.452477 0 2 0.452477 1
gene 1 3 5 -1.75605 0 3 -1.75605 1
gene 1 4 5 -2.17454 0 4 -2.17454 1
gene 1 1 6 2.21639 0 5 2.21639 1
gene 2 2 6 -0.165025 0 6 -0.165025 1
gene 2 3 6 -1.00837 0 7 -1.00837 1
gene 2 4 6 5.92422 0 8 5.92422 1
gene 1 6 5 1.49204 0 40 1.49204 1
genomeend 69

/* Species #423 : (Size 1) (AF 0) (Age 2)  */


/* Organism #70 Fitness: 0 Error: 0 */
genomestart 70
trait 1 0.1 0 0.259132 0.126735 0 0 0 0 
trait 2 0.2 0 0.038424 0 0.152127 0 0 0.0479083 
trait 3 0.215972 0 0 0 0.00683032 0 0 0 
node 1 3 1 3
node 2 2 1 1
node 3 3 1 1
node 4 1 1 1
node 5 3 0 2
node 6 3 0 2
gene 1 1 5 -1.61332 0 1 -1.61332 1
gene 1 2 5 0.779008 0 2 0.779008 1
gene 1 3 5 -0.0375817 0 3 -0.0375817 1
gene 1 4 5 -1.36069 0 4 -1.36069 1
gene 1 1 6 -1.91261 0 5 -1.91261 1
gene 2 2 6 0.302844 0 6 0.302844 1
gene 2 3 6 -1.00948 0 7 -1.00948 1
gene 2 4 6 -0.261803 0 8 -0.261803 1
gene 1 6 5 3.12195 0 40 3.12195 1
genomeend 70

/* Species #424 : (Size 6) (AF 19.1667) (Age 2)  */


/* Organism #71 Fitness: 0 Error: 0 */
genomestart 71
trait 1 0.1 0 0.259132 0.126735 0 0 0 0 
trait 2 0.2 0 0.038424 0 0.152127 0 0 0.0479083 
trait 3 0.215972 0 0 0 0.00683032 0 0 0 
node 1 3 1 3
node 2 2 1 1
node 3 3 1 1
node 4 1 1 1
node 5 3 0 2
node 6 3 0 2
gene 1 1 5 0.755334 0 1 0.755334 1
gene 1 2 5 -0.951633 0 2 -0.951633 1
gene 1 3 5 -1.41262 0 3 -1.41262 1
gene 1 4 5 0.939884 0 4 0.939884 1
gene 1 1 6 -2.8898 0 5 -2.8898 1
gene 2 2 6 -1.91648 0 6 -1.91648 1
gene 2 3 6 -3.04043 0 7 -3.04043 1
gene 2 4 6 0.959657 0 8 0.959657 1
gene 1 6 5 4.96344 0 40 4.96344 1
genomeend 71

/* Organism #72 Fitness: 39 Error: 0 */
genomestart 72
trait 1 0.1 0 0.259132 0.126735 0 0 0 0 
trait 2 0 0 0.247105 0 1 0 0 0.976427 
trait 3 0.215972 0 0 0 0.00683032 0 0 0 
node 1 3 1 3
node 2 2 1 1
node 3 3 1 1
node 4 1 1 1
node 5 3 0 2
node 6 3 0 2
gene 1 1 5 0.801656 0 1 0.801656 1
gene 1 2 5 -1.63548 0 2 -1.63548 1
gene 1 3 5 -0.186434 0 3 -0.186434 1
gene 1 4 5 2.96427 0 4 2.96427 1
gene 1 1 6 -2.37651 0 5 -2.37651 1
gene 2 2 6 0.997163 0 6 0.997163 1
gene 2 3 6 -3.21069 0 7 -3.21069 1
gene 2 4 6 -0.306696 0 8 -0.306696 1
gene 1 6 5 2.31323 0 40 2.31323 1
genomeend 72

/* Organism #73 Fitness: 39 Error: 0 */
genomestart 73
trait 1 0.1 0 0.753137 0.202175 0 0 0 0.713623 
trait 2 0.2 0 0.038424 0 0.152127 0 0 0.0479083 
trait 3 0.215972 0 0 0 0.00683032 0 0 0 
node 1 3 1 3
node 2 2 1 1
node 3 3 1 1
node 4 1 1 1
node 5 3 0 2
node 6 3 0 2
gene 1 1 5 -0.822002 0 1 -0.822002 1
gene 1 2 5 -3.10647 0 2 -3.10647 1
gene 1 3 5 -0.0375817 0 3 -0.0375817 1
gene 1 4 5 -0.935778 0 4 -0.935778 1
gene 1 1 6 -2.81047 0 5 -2.81047 1
gene 2 2 6 -0.869032 0 6 -0.869032 1
gene 2 3 6 -0.764157 0 7 -0.764157 1
gene 2 4 6 4.93245 0 8 4.93245 1
gene 1 6 5 2.02531 0 40 2.02531 1
genomeend 73

/* Organism #74 Fitness: 37 Error: 0 */
genomestart 74
trait 1 0.1 0 0.259132 0.126735 0 0 0 0 
trait 2 0.2 0 0.038424 0 0.152127 0 0 0.0479083 
trait 3 0.215972 0 0 0 0.00683032 0 0 0 
node 1 3 1 3
node 2 2 1 1
node 3 3 1 1
node 4 1 1 1
node 5 3 0 2
node 6 3 0 2
gene 1 1 5 1.2556 0 1 1.2556 1
gene 1 2 5 -1.81753 0 2 -1.81753 1
gene 1 3 5 0.991403 0 3 0.991403 1
gene 1 4 5 -0.453726 0 4 -0.453726 1
gene 1 1 6 0.480594 0 5 0.480594 1
gene 2 2 6 -1.5311 0 6 -1.5311 1
gene 2 3 6 -4.06295 0 7 -4.06295 1
gene 2 4 6 -1.01095 0 8 -1.01095 1
gene 1 6 5 2.92817 0 40 2.92817 1
genomeend 74

/* Organism #75 Fitness: 0 Error: 0 */
genomestart 75
trait 1 0.1 0 0.506134 0.164455 0 0 0 0.356811 
trait 2 0.2 0 0.038424 0 0.152127 0 0 0.0479083 
trait 3 0.215972 0 0 0 0.00683032 0 0 0 
node 1 3 1 3
node 2 2 1 1
node 3 3 1 1
node 4 1 1 1
node 5 3 0 2
node 6 3 0 2
gene 1 1 5 -0.822002 0 1 -0.822002 1
gene 1 2 5 -0.94568 0 2 -0.94568 1
gene 1 3 5 -0.484811 0 3 -0.484811 1
gene 1 4 5 1.01024 0 4 1.01024 1
gene 1 1 6 -2.81047 0 5 -2.81047 1
gene 2 2 6 -0.869032 0 6 -0.869032 1
gene 2 3 6 -0.764157 0 7 -0.764157 1
gene 2 4 6 -0.79914 0 8 -0.79914 1
gene 1 6 5 2.02531 0 40 2.02531 1
genomeend 75

/* Organism #76 Fitness: 0 Error: 0 */
genomestart 76
trait 1 0.1 0 0.259132 0.126735 0 0 0 0 
trait 2 0.1 0 0.142765 0 0.576064 0 0 0.512168 
trait 3 0.215972 0 0 0 0.00683032 0 0 0 
node 1 3 1 3
node 2 2 1 1
node 3 3 1 1
node 4 1 1 1
node 5 3 0 2
node 6 3 0 2
gene 1 1 5 0.999151 0 1 0.999151 1
gene 1 2 5 -0.8956 0 2 -0.8956 1
gene 1 3 5 -0.655332 0 3 -0.655332 1
gene 1 4 5 2.51751 0 4 2.51751 1
gene 1 1 6 -4.31816 0 5 -4.31816 1
gene 2 2 6 -1.85309 0 6 -1.85309 1
gene 2 3 6 -3.12828 0 7 -3.12828 1
gene 2 4 6 2.14513 0 8 2.14513 1
gene 1 6 5 2.64161 0 40 2.64161 1
genomeend 76

/* Species #426 : (Size 4) (AF 0) (Age 2)  */


/* Organism #77 Fitness: 0 Error: 0 */
genomestart 77
trait 1 0.1 0 0.259132 0.126735 0 0 0 0 
trait 2 0.2 0 0.038424 0 0.152127 0 0 0.0479083 
trait 3 0.215972 0 0 0 0.00683032 0 0 0 
node 1 3 1 3
node 2 2 1 1
node 3 3 1 1
node 4 1 1 1
node 5 3 0 2
node 6 3 0 2
gene 1 1 5 -3.07301 0 1 -3.07301 1
gene 1 2 5 -0.461945 0 2 -0.461945 1
gene 1 3 5 -0.904915 0 3 -0.904915 1
gene 1 4 5 1.34368 0 4 1.34368 1
gene 1 1 6 -3.02032 0 5 -3.02032 1
gene 2 2 6 -1.9038 0 6 -1.9038 1
gene 2 3 6 -0.719226 0 7 -0.719226 1
gene 2 4 6 6.84903 0 8 6.84903 1
gene 1 6 5 1.68035 0 40 1.68035 1
genomeend 77

/* Organism #78 Fitness: 0 Error: 0 */
genomestart 78
trait 1 0.1 0 0.259132 0.126735 0 0 0 0 
trait 2 0.2 0 0.038424 0 0.152127 0 0 0.0479083 
trait 3 0.215972 0 0 0 0.00683032 0 0 0 
node 1 3 1 3
node 2 2 1 1
node 3 3 1 1
node 4 1 1 1
node 5 3 0 2
node 6 3 0 2
gene 1 1 5 -3.04509 0 1 -3.04509 1
gene 1 2 5 -1.93893 0 2 -1.93893 1
gene 1 3 5 -0.662893 0 3 -0.662893 1
gene 1 4 5 2.8699 0 4 2.8699 1
gene 1 1 6 1.6845 0 5 1.6845 1
gene 2 2 6 -0.532338 0 6 -0.532338 1
gene 2 3 6 -1.49997 0 7 -1.49997 1
gene 2 4 6 6.44279 0 8 6.44279 1
gene 1 6 5 0.878073 0 40 0.878073 1
genomeend 78

/* Organism #79 Fitness: 0 Error: 0 */
genomestart 79
trait 1 0.1 0 0.259132 0.126735 0 0 0 0 
trait 2 0.2 0 0.038424 0 0.152127 0 0 0.0479083 
trait 3 0.215972 0 0 0 0.00683032 0 0 0 
node 1 3 1 3
node 2 2 1 1
node 3 3 1 1
node 4 1 1 1
node 5 3 0 2
node 6 2 0 2
gene 1 1 5 -0.100638 0 1 -0.100638 1
gene 1 2 5 -2.94709 0 2 -2.94709 1
gene 1 3 5 0.165271 0 3 0.165271 1
gene 1 4 5 -0.032747 0 4 -0.032747 1
gene 1 1 6 -1.32219 0 5 -1.32219 1
gene 2 2 6 -3.09965 0 6 -3.09965 1
gene 2 3 6 -0.795235 0 7 -0.795235 1
gene 2 4 6 6.1671 0 8 6.1671 1
gene 1 6 5 1.68378 0 40 1.68378 1
genomeend 79

/* Organism #80 Fitness: 0 Error: 0 */
genomestart 80
trait 1 0.1 0 0.259132 0.126735 0 0 0 0 
trait 2 0.1 0 0.142765 0 0.576064 0 0 0.512168 
trait 3 0.215972 0 0 0 0.00683032 0 0 0 
node 1 3 1 3
node 2 2 1 1
node 3 3 1 1
node 4 1 1 1
node 5 3 0 2
node 6 2 0 2
gene 1 1 5 -0.661299 0 1 -0.661299 1
gene 1 2 5 -1.02135 0 2 -1.02135 1
gene 1 3 5 0.178447 0 3 0.178447 1
gene 1 4 5 1.43345 0 4 1.43345 1
gene 1 1 6 1.05964 0 5 1.05964 1
gene 2 2 6 -2.95538 0 6 -2.95538 1
gene 2 3 6 -0.0368313 0 7 -0.0368313 1
gene 2 4 6 8 0 8 8 1
gene 1 6 5 -0.215393 0 40 -0.215393 1
genomeend 80

/* Species #430 : (Size 2) (AF 0) (Age 2)  */


/* Organism #81 Fitness: 0 Error: 0 */
genomestart 81
trait 1 0.1 0 0.259132 0.126735 0 0 0 0 
trait 2 0.2 0 0.038424 0 0.152127 0 0 0.0479083 
trait 3 0.215972 0 0 0 0.00683032 0 0 0 
node 1 3 1 3
node 2 2 1 1
node 3 3 1 1
node 4 1 1 1
node 5 3 0 2
node 6 3 0 2
gene 1 1 5 -0.236404 0 1 -0.236404 1
gene 1 2 5 -0.94568 0 2 -0.94568 1
gene 1 3 5 0.273299 0 3 0.273299 1
gene 1 4 5 -1.90193 0 4 -1.90193 1
gene 1 1 6 -0.672166 0 5 -0.672166 1
gene 2 2 6 -0.175961 0 6 -0.175961 1
gene 2 3 6 2.18782 0 7 2.18782 1
gene 2 4 6 -0.897499 0 8 -0.897499 1
gene 1 6 5 0.23656 0 40 0.23656 1
gene 2 5 5 0.751775 1 80 0.751775 1
gene 1 5 6 -0.0490671 1 84 -0.0490671 1
genomeend 81

/* Organism #82 Fitness: 0 Error: 0 */
genomestart 82
trait 1 0.1 0 0.259132 0.126735 0 0 0 0 
trait 2 0.2 0 0.038424 0 0.152127 0 0 0.0479083 
trait 3 0.215972 0 0 0 0.00683032 0 0 0 
node 1 3 1 3
node 2 2 1 1
node 3 3 1 1
node 4 1 1 1
node 5 3 0 2
node 6 3 0 2
gene 1 1 5 -2.14981 0 1 -2.14981 1
gene 1 2 5 -2.69225 0 2 -2.69225 1
gene 1 3 5 1.19696 0 3 1.19696 1
gene 1 4 5 -4.00432 0 4 -4.00432 1
gene 1 1 6 1.66457 0 5 1.66457 1
gene 2 2 6 -1.60718 0 6 -1.60718 1
gene 2 3 6 1.05773 0 7 1.05773 1
gene 2 4 6 -0.897499 0 8 -0.897499 1
gene 1 6 5 2.20083 0 40 2.20083 1
gene 2 5 5 -1.72488 1 80 -1.72488 1
gene 1 5 6 -0.0425001 1 84 -0.0425001 1
genomeend 82

/* Species #434 : (Size 2) (AF 0) (Age 1)  */


/* Organism #83 Fitness: 0 Error: 0 */
genomestart 83
trait 1 0.1 0 0.259132 0.126735 0 0 0 0 
trait 2 0.495614 0 0.215931 0.973819 0.152127 0.641587 0 0.40265 
trait 3 0.215972 0.116501 0 0 0.00512274 0 0.0874536 0 
node 1 3 1 3
node 2 2 1 1
node 3 3 1 1
node 4 1 1 1
node 5 3 0 2
node 6 3 0 2
gene 1 1 5 -0.972424 0 1 -0.972424 1
gene 1 2 5 -2.21791 0 2 -2.21791 1
gene 1 3 5 2.14381 0 3 2.14381 1
gene 1 4 5 1.90832 0 4 1.90832 1
gene 1 1 6 0.306097 0 5 0.306097 1
gene 2 2 6 -2.41368 0 6 -2.41368 1
gene 2 3 6 -2.38717 0 7 -2.38717 1
gene 2 4 6 0.497984 0 8 0.497984 1
gene 1 6 5 4.32949 0 40 4.32949 1
gene 1 6 6 -0.758648 1 82 -0.758648 1
genomeend 83

/* Organism #84 Fitness: 0 Error: 0 */
genomestart 84
trait 1 0.1 0 0.259132 0.126735 0 0 0 0 
trait 2 0.2 0 0.038424 0 0.152127 0 0 0.0479083 
trait 3 0.215972 0.233002 0 0 0.00341516 0 0.174907 0 
node 1 3 1 3
node 2 2 1 1
node 3 3 1 1
node 4 1 1 1
node 5 3 0 2
node 6 3 0 2
gene 1 1 5 -0.68297 0 1 -0.68297 1
gene 1 2 5 -2.4422 0 2 -2.4422 1
gene 1 3 5 -1.05605 0 3 -1.05605 1
gene 1 4 5 2.93774 0 4 2.93774 1
gene 1 1 6 -0.738724 0 5 -0.738724 1
gene 2 2 6 0.730064 0 6 0.730064 1
gene 2 3 6 -0.823002 0 7 -0.823002 1
gene 2 4 6 -1.26039 0 8 -1.26039 1
gene 1 6 5 4.73584 0 40 4.73584 1
gene 1 6 6 -0.485185 1 82 -0.485185 1
genomeend 84

/* Species #435 : (Size 4) (AF 0) (Age 1)  */


/* Organism #85 Fitness: 0 Error: 0 */
genomestart 85
trait 1 0.1 0 0.259132 0.126735 0 0 0 0 
trait 2 0.1 0 0.142765 0 0.576064 0 0 0.512168 
trait 3 0.215972 0 0 0 0.00683032 0 0 0 
node 1 3 1 3
node 2 2 1 1
node 3 3 1 1
node 4 1 1 1
node 5 3 0 2
node 6 3 0 2
gene 1 1 5 0.814125 0 1 0.814125 1
gene 1 2 5 0.686524 0 2 0.686524 1
gene 1 3 5 1.65092 0 3 1.65092 1
gene 1 4 5 3.00789 0 4 3.00789 1
gene 1 1 6 -2.51472 0 5 -2.51472 1
gene 2 2 6 -2.26821 0 6 -2.26821 1
gene 2 3 6 -2.42147 0 7 -2.42147 1
gene 2 4 6 6.32911 0 8 6.32911 1
gene 1 6 5 4.26134 0 40 4.26134 1
genomeend 85

/* Organism #86 Fitness: 0 Error: 0 */
genomestart 86
trait 1 0.1 0 0.259132 0.126735 0 0 0 0 
trait 2 0.2 0 0.038424 0 0.152127 0 0 0.0479083 
trait 3 0.215972 0 0 0 0.00683032 0 0 0 
node 1 3 1 3
node 2 2 1 1
node 3 3 1 1
node 4 1 1 1
node 5 3 0 2
node 6 3 0 2
gene 1 1 5 -1.25179 0 1 -1.25179 1
gene 1 2 5 0.0318528 0 2 0.0318528 1
gene 1 3 5 1.19374 0 3 1.19374 1
gene 1 4 5 2.77217 0 4 2.77217 1
gene 1 1 6 -1.36428 0 5 -1.36428 1
gene 2 2 6 -1.96422 0 6 -1.96422 1
gene 2 3 6 -3.97983 0 7 -3.97983 1
gene 2 4 6 7.75766 0 8 7.75766 1
gene 1 6 5 4.98929 0 40 4.98929 1
genomeend 86

/* Organism #87 Fitness: 0 Error: 0 */
genomestart 87
trait 1 0.1 0 0.259132 0.126735 0 0 0 0 
trait 2 0.2 0 0.038424 0 0.152127 0 0 0.0479083 
trait 3 0.215972 0 0 0 0.00683032 0 0 0 
node 1 3 1 3
node 2 2 1 1
node 3 3 1 1
node 4 1 1 1
node 5 3 0 2
node 6 3 0 2
gene 1 1 5 0.787202 0 1 0.787202 1
gene 1 2 5 0.352852 0 2 0.352852 1
gene 1 3 5 0.103461 0 3 0.103461 1
gene 1 4 5 1.88208 0 4 1.88208 1
gene 1 1 6 -2.65968 0 5 -2.65968 1
gene 2 2 6 -0.452713 0 6 -0.452713 1
gene 2 3 6 -3.1184 0 7 -3.1184 1
gene 2 4 6 8 0 8 8 1
gene 1 6 5 0.669545 0 40 0.669545 1
genomeend 87

/* Organism #88 Fitness: 0 Error: 0 */
genomestart 88
trait 1 0.1 0 0.259132 0.126735 0 0 0 0 
trait 2 0.2 0 0.038424 0 0.152127 0 0 0.0479083 
trait 3 0 0 0 0 0.00683032 0 0.764417 0.243749 
node 1 3 1 3
node 2 2 1 1
node 3 3 1 1
node 4 1 1 1
node 5 3 0 2
node 6 3 0 2
gene 1 1 5 2.46446 0 1 2.46446 1
gene 1 2 5 -3.14014 0 2 -3.14014 1
gene 1 3 5 2.89432 0 3 2.89432 1
gene 1 4 5 2.36762 0 4 2.36762 1
gene 1 1 6 -1.66146 0 5 -1.66146 1
gene 2 2 6 -0.341323 0 6 -0.341323 1
gene 2 3 6 -1.77157 0 7 -1.77157 1
gene 2 4 6 5.00976 0 8 5.00976 1
gene 1 6 5 3.8879 0 40 3.8879 1
genomeend 88

/* Species #436 : (Size 3) (AF 0) (Age 1)  */


/* Organism #89 Fitness: 0 Error: 0 */
genomestart 89
trait 1 0.1 0 0.259132 0.126735 0 0 0 0 
trait 2 0.2 0 0.038424 0 0.152127 0 0 0.0479083 
trait 3 0.215972 0 0 0 0.00683032 0 0 0 
node 1 3 1 3
node 2 2 1 1
node 3 3 1 1
node 4 1 1 1
node 5 3 0 2
node 6 3 0 2
gene 1 1 5 -3.22335 0 1 -3.22335 1
gene 1 2 5 -0.709491 0 2 -0.709491 1
gene 1 3 5 -1.7518 0 3 -1.7518 1
gene 1 4 5 0.649783 0 4 0.649783 1
gene 1 1 6 1.3582 0 5 1.3582 1
gene 2 2 6 2.41311 0 6 2.41311 1
gene 2 3 6 -1.51674 0 7 -1.51674 1
gene 2 4 6 6.23513 0 8 6.23513 1
gene 1 6 5 2.68256 0 40 2.68256 1
genomeend 89

/* Organism #90 Fitness: 0 Error: 0 */
genomestart 90
trait 1 0.1 0 0.259132 0.126735 0 0 0 0 
trait 2 0.2 0 0.038424 0 0.152127 0 0 0.0479083 
trait 3 0.215972 0 0 0 0.00683032 0 0 0 
node 1 3 1 3
node 2 2 1 1
node 3 3 1 1
node 4 1 1 1
node 5 3 0 2
node 6 2 0 2
gene 1 1 5 -2.8936 0 1 -2.8936 1
gene 1 2 5 0.769813 0 2 0.769813 1
gene 1 3 5 -0.0375817 0 3 -0.0375817 1
gene 1 4 5 -1.78644 0 4 -1.78644 1
gene 1 1 6 0.713712 0 5 0.713712 1
gene 2 2 6 0.781991 0 6 0.781991 1
gene 2 3 6 -1.9457 0 7 -1.9457 1
gene 2 4 6 5.05864 0 8 5.05864 1
gene 1 6 5 1.83554 0 40 1.83554 1
genomeend 90

/* Organism #91 Fitness: 0 Error: 0 */
genomestart 91
trait 1 0.1 0 0.259132 0.126735 0 0 0 0 
trait 2 0.2 0 0.038424 0 0.152127 0 0 0.0479083 
trait 3 0.215972 0 0 0 0.00683032 0 0 0 
node 1 3 1 3
node 2 2 1 1
node 3 3 1 1
node 4 1 1 1
node 5 3 0 2
node 6 3 0 2
gene 1 1 5 -2.79476 0 1 -2.79476 1
gene 1 2 5 -2.83221 0 2 -2.83221 1
gene 1 3 5 0.0418358 0 3 0.0418358 1
gene 1 4 5 -1.95101 0 4 -1.95101 1
gene 1 1 6 -0.606975 0 5 -0.606975 1
gene 2 2 6 1.44721 0 6 1.44721 1
gene 2 3 6 -1.30054 0 7 -1.30054 1
gene 2 4 6 6.05132 0 8 6.05132 1
gene 1 6 5 5.45118 0 40 5.45118 1
genomeend 91

/* Species #437 : (Size 3) (AF 0) (Age 1)  */


/* Organism #92 Fitness: 0 Error: 0 */
genomestart 92
trait 1 0.1 0 0.259132 0.126735 0 0 0 0 
trait 2 0.2 0 0.038424 0 0.152127 0 0 0.0479083 
trait 3 0.215972 0 0 0 0.00683032 0 0 0 
node 1 3 1 3
node 2 2 1 1
node 3 3 1 1
node 4 1 1 1
node 5 3 0 2
node 6 3 0 2
gene 1 1 5 0.101127 0 1 0.101127 1
gene 1 2 5 1.03985 0 2 1.03985 1
gene 1 3 5 2.08129 0 3 2.08129 1
gene 1 4 5 -0.928547 0 4 -0.928547 1
gene 1 1 6 -0.0794061 0 5 -0.0794061 1
gene 2 2 6 -2.43504 0 6 -2.43504 1
gene 2 3 6 1.51171 0 7 1.51171 1
gene 2 4 6 5.85502 0 8 5.85502 1
gene 1 6 5 1.20594 0 40 1.20594 1
genomeend 92

/* Organism #93 Fitness: 0 Error: 0 */
genomestart 93
trait 1 0.1 0 0.259132 0.126735 0 0 0 0 
trait 2 0.2 0 0.038424 0 0.152127 0 0 0.0479083 
trait 3 0.215972 0 0 0 0.00683032 0 0 0 
node 1 3 1 3
node 2 2 1 1
node 3 3 1 1
node 4 1 1 1
node 5 3 0 2
node 6 3 0 2
gene 1 1 5 1.05066 0 1 1.05066 1
gene 1 2 5 -1.32476 0 2 -1.32476 1
gene 1 3 5 1.72196 0 3 1.72196 1
gene 1 4 5 -1.39516 0 4 -1.39516 1
gene 1 1 6 0.966699 0 5 0.966699 1
gene 2 2 6 -3.15011 0 6 -3.15011 1
gene 2 3 6 -0.383671 0 7 -0.383671 1
gene 2 4 6 7.60178 0 8 7.60178 1
gene 1 6 5 4.45844 0 40 4.45844 1
genomeend 93

/* Organism #94 Fitness: 0 Error: 0 */
genomestart 94
trait 1 0.1 0 0.259132 0.126735 0 0 0 0 
trait 2 0.2 0 0.038424 0 0.152127 0 0 0.0479083 
trait 3 0.215972 0 0 0 0.00683032 0 0 0 
node 1 3 1 3
node 2 2 1 1
node 3 3 1 1
node 4 1 1 1
node 5 3 0 2
node 6 2 0 2
gene 1 1 5 -3.29549 0 1 -3.29549 1
gene 1 2 5 -2.67104 0 2 -2.67104 1
gene 1 3 5 2.06951 0 3 2.06951 1
gene 1 4 5 -0.553649 0 4 -0.553649 1
gene 1 1 6 1.96992 0 5 1.96992 1
gene 2 2 6 -2.13822 0 6 -2.13822 1
gene 2 3 6 -0.00512985 0 7 -0.00512985 1
gene 2 4 6 7.27139 0 8 7.27139 1
gene 1 6 5 1.30372 0 40 1.30372 1
genomeend 94

/* Species #438 : (Size 2) (AF 0) (Age 1)  */


/* Organism #95 Fitness: 0 Error: 0 */
genomestart 95
trait 1 0.1 0 0.259132 0.126735 0 0 0 0 
trait 2 0.2 0 0.038424 0 0.152127 0 0 0.0479083 
trait 3 0.215972 0 0 0 0.00683032 0 0 0 
node 1 3 1 3
node 2 2 1 1
node 3 3 1 1
node 4 1 1 1
node 5 3 0 2
node 6 3 0 2
gene 1 1 5 -1.24518 0 1 -1.24518 1
gene 1 2 5 -1.21287 0 2 -1.21287 1
gene 1 3 5 -1.7096 0 3 -1.7096 1
gene 1 4 5 2.50234 0 4 2.50234 1
gene 1 1 6 2.35669 0 5 2.35669 1
gene 2 2 6 -1.99728 0 6 -1.99728 1
gene 2 3 6 -3.72037 0 7 -3.72037 1
gene 2 4 6 5.5563 0 8 5.5563 1
gene 1 6 5 -0.874787 0 40 -0.874787 1
gene 3 6 6 0.247883 1 76 0.247883 1
genomeend 95

/* Organism #96 Fitness: 0 Error: 0 */
genomestart 96
trait 1 0.1 0 0.259132 0.126735 0 0 0 0 
trait 2 0.2 0 0.038424 0 0.152127 0 0 0.0479083 
trait 3 0.215972 0 0 0 0.00683032 0 0 0 
node 1 3 1 3
node 2 2 1 1
node 3 3 1 1
node 4 1 1 1
node 5 3 0 2
node 6 3 0 2
gene 1 1 5 -2.82381 0 1 -2.82381 1
gene 1 2 5 -0.900968 0 2 -0.900968 1
gene 1 3 5 -1.46265 0 3 -1.46265 1
gene 1 4 5 -1.04649 0 4 -1.04649 1
gene 1 1 6 0.195965 0 5 0.195965 1
gene 2 2 6 -1.89844 0 6 -1.89844 1
gene 2 3 6 -3.66652 0 7 -3.66652 1
gene 2 4 6 5.55222 0 8 5.55222 1
gene 1 6 5 2.88773 0 40 2.88773 1
gene 3 6 6 -1.20704 1 76 -1.20704 1
genomeend 96

/* Species #439 : (Size 1) (AF 0) (Age 1)  */


/* Organism #97 Fitness: 0 Error: 0 */
genomestart 97
trait 1 0.1 0 0.259132 0.126735 0 0 0 0 
trait 2 0.2 0 0.038424 0 0.152127 0 0 0.0479083 
trait 3 0.215972 0 0 0 0.00683032 0 0 0 
node 1 3 1 3
node 2 2 1 1
node 3 3 1 1
node 4 1 1 1
node 5 3 0 2
node 6 3 0 2
gene 1 1 5 -1.99598 0 1 -1.99598 1
gene 1 2 5 1.51104 0 2 1.51104 1
gene 1 3 5 0.0952409 0 3 0.0952409 1
gene 1 4 5 0.351439 0 4 0.351439 1
gene 1 1 6 -2.25944 0 5 -2.25944 1
gene 2 2 6 -0.76507 0 6 -0.76507 1
gene 2 3 6 -0.518438 0 7 -0.518438 1
gene 2 4 6 6.4249 0 8 6.4249 1
gene 1 6 5 4.24016 0 40 4.24016 1
gene 3 6 6 2.65157 1 76 2.65157 1
genomeend 97

/* Species #440 : (Size 1) (AF 39) (Age 1)  */


/* Organism #98 Fitness: 39 Error: 0 */
genomestart 98
trait 1 0.1 0 0.259132 0.126735 0 0 0 0 
trait 2 0.1 0 0.142765 0 0.576064 0 0 0.512168 
trait 3 0.215972 0.116501 0 0 0.00512274 0 0.0874536 0 
node 1 3 1 3
node 2 2 1 1
node 3 3 1 1
node 4 1 1 1
node 5 3 0 2
node 6 3 0 2
gene 1 1 5 0.613397 0 1 0.613397 1
gene 1 2 5 -0.528762 0 2 -0.528762 1
gene 1 3 5 2.04798 0 3 2.04798 1
gene 1 4 5 2.39169 0 4 2.39169 1
gene 1 1 6 -0.921116 0 5 -0.921116 1
gene 2 2 6 1.17896 0 6 1.17896 1
gene 2 3 6 1.73447 0 7 1.73447 1
gene 2 4 6 6.9201 0 8 6.9201 1
gene 1 6 5 5.3898 0 40 5.3898 1
gene 1 6 6 2.01036 1 82 2.01036 1
genomeend 98

/* Species #441 : (Size 1) (AF 0) (Age 1)  */


/* Organism #99 Fitness: 0 Error: 0 */
genomestart 99
trait 1 0.1 0 0.259132 0.126735 0 0 0 0 
trait 2 0.2 0 0.038424 0 0.152127 0 0 0.0479083 
trait 3 0.215972 0 0 0 0.00683032 0 0 0 
node 1 3 1 3
node 2 2 1 1
node 3 3 1 1
node 4 1 1 1
node 5 3 0 2
node 6 3 0 2
gene 1 1 5 0.491104 0 1 0.491104 1
gene 1 2 5 -1.47977 0 2 -1.47977 1
gene 1 3 5 1.22719 0 3 1.22719 1
gene 1 4 5 -1.27554 0 4 -1.27554 1
gene 1 1 6 0.544971 0 5 0.544971 1
gene 2 2 6 0.315117 0 6 0.315117 1
gene 2 3 6 -6.42978 0 7 -6.42978 1
gene 2 4 6 8 0 8 8 1
gene 1 6 5 3.50367 0 40 3.50367 1
genomeend 99
