
/* Species #71 : (Size 1) (AF 80) (Age 8)  */


/* Organism #0 Fitness: 80 Error: 0 */
genomestart 0
trait 1 1 0 0 0 0 0 0 0 
trait 2 2 0 0 0 0 53918 0 0 
trait 3 3 33518 2636 5886 9879 0 0 83419 
node 1 2 1 3
node 2 2 1 1
node 3 1 1 1
node 4 3 1 1
node 5 1 0 2
node 6 2 0 2
node 9 1 0 0
gene 2 1 5 -66138 0 1 -66138 1
gene 2 2 5 -11625 0 2 -11625 0
gene 1 3 5 135312 0 3 135312 1
gene 1 4 5 -623768 0 4 -623768 1
gene 2 1 6 -391548 0 5 -391548 1
gene 1 2 6 -106498 0 6 -106498 1
gene 1 3 6 -59622 0 7 -59622 1
gene 3 4 6 -590277 0 8 -590277 1
gene 2 2 9 -246690 0 25 -246690 1
gene 2 9 5 5731 0 26 5731 1
genomeend 0

/* Species #128 : (Size 6) (AF 60.1667) (Age 6)  */


/* Organism #1 Fitness: 0 Error: 0 */
genomestart 1
trait 1 1 0 0 0 0 0 0 0 
trait 2 2 0 0 0 0 0 0 0 
trait 3 3 33518 2636 5886 9879 0 0 83419 
node 1 2 1 3
node 2 2 1 1
node 3 1 1 1
node 4 3 1 1
node 5 1 0 2
node 6 2 0 2
node 9 1 0 0
gene 2 1 5 -125040 0 1 -125040 1
gene 2 2 5 -88851 0 2 -88851 0
gene 1 3 5 720306 0 3 720306 1
gene 1 4 5 -291530 0 4 -291530 1
gene 2 1 6 -427020 0 5 -427020 1
gene 1 2 6 -46738 0 6 -46738 1
gene 1 3 6 17373 0 7 17373 1
gene 3 4 6 -258294 0 8 -258294 1
gene 1 2 9 229410 0 25 229410 1
gene 2 9 5 -118583 0 26 -118583 1
genomeend 1

/* Organism #2 Fitness: 1 Error: 0 */
genomestart 2
trait 1 1 0 0 0 0 0 0 0 
trait 2 2 0 0 0 0 0 0 0 
trait 3 3 33518 2636 5886 9879 0 0 83419 
node 1 2 1 3
node 2 2 1 1
node 3 1 1 1
node 4 3 1 1
node 5 1 0 2
node 6 2 0 2
node 9 1 0 0
gene 2 1 5 -379185 0 1 -379185 1
gene 2 2 5 -245361 0 2 -245361 0
gene 1 3 5 720306 0 3 720306 1
gene 1 4 5 -312026 0 4 -312026 1
gene 2 1 6 -502293 0 5 -502293 1
gene 1 2 6 96101 0 6 96101 1
gene 1 3 6 48636 0 7 48636 1
gene 3 4 6 -258294 0 8 -258294 1
gene 1 2 9 453849 0 25 453849 1
gene 2 9 5 -290003 0 26 -290003 1
genomeend 2

/* Organism #3 Fitness: 80 Error: 0 */
genomestart 3
trait 1 1 0 0 0 0 0 0 0 
trait 2 2 0 0 0 0 0 0 0 
trait 3 3 33518 2636 5886 9879 0 0 83419 
node 1 2 1 3
node 2 2 1 1
node 3 1 1 1
node 4 3 1 1
node 5 1 0 2
node 6 2 0 2
node 9 1 0 0
gene 2 1 5 -125040 0 1 -125040 1
gene 2 2 5 -88851 0 2 -88851 0
gene 1 3 5 720306 0 3 720306 1
gene 1 4 5 -291530 0 4 -291530 1
gene 2 1 6 -427020 0 5 -427020 1
gene 1 2 6 -46738 0 6 -46738 1
gene 1 3 6 17373 0 7 17373 1
gene 3 4 6 -258294 0 8 -258294 1
gene 1 2 9 229410 0 25 229410 1
gene 2 9 5 -118583 0 26 -118583 1
genomeend 3

/* Organism #4 Fitness: 80 Error: 0 */
genomestart 4
trait 1 1 0 0 0 0 0 0 0 
trait 2 2 0 0 0 0 0 0 0 
trait 3 3 33518 2636 5886 9879 0 0 83419 
node 1 2 1 3
node 2 2 1 1
node 3 1 1 1
node 4 3 1 1
node 5 1 0 2
node 6 2 0 2
node 9 1 0 0
gene 2 1 5 25662 0 1 25662 1
gene 2 2 5 -132822 0 2 -132822 0
gene 1 3 5 800000 0 3 800000 1
gene 1 4 5 -491663 0 4 -491663 1
gene 2 1 6 -209295 0 5 -209295 1
gene 1 2 6 -317620 0 6 -317620 1
gene 1 3 6 -120213 0 7 -120213 1
gene 3 4 6 -87456 0 8 -87456 1
gene 1 2 9 189168 0 25 189168 1
gene 2 9 5 -118583 0 26 -118583 1
genomeend 4

/* Organism #5 Fitness: 80 Error: 0 */
genomestart 5
trait 1 1 0 0 0 0 0 0 0 
trait 2 2 0 0 0 0 0 0 0 
trait 3 3 33518 2636 5886 9879 0 0 83419 
node 1 2 1 3
node 2 2 1 1
node 3 1 1 1
node 4 3 1 1
node 5 1 0 2
node 6 2 0 2
node 9 1 0 0
gene 2 1 5 -190308 0 1 -190308 1
gene 2 2 5 -262191 0 2 -262191 0
gene 1 3 5 790356 0 3 790356 1
gene 1 4 5 -261248 0 4 -261248 1
gene 2 1 6 -224751 0 5 -224751 1
gene 1 2 6 -81685 0 6 -81685 1
gene 1 3 6 -41007 0 7 -41007 1
gene 3 4 6 -296448 0 8 -296448 1
gene 1 2 9 501471 0 25 501471 1
gene 2 9 5 -118583 0 26 -118583 1
genomeend 5

/* Organism #6 Fitness: 120 Error: 0 */
genomestart 6
trait 1 1 0 0 0 0 0 0 0 
trait 2 0 0 99077 0 0 0 0 22213 
trait 3 3 33518 2636 5886 9879 0 0 83419 
node 1 2 1 3
node 2 2 1 1
node 3 1 1 1
node 4 3 1 1
node 5 1 0 2
node 6 2 0 2
node 9 1 0 0
gene 2 1 5 -91815 0 1 -91815 1
gene 2 2 5 -88851 0 2 -88851 0
gene 1 3 5 720306 0 3 720306 1
gene 1 4 5 -572768 0 4 -572768 1
gene 2 1 6 -294075 0 5 -294075 1
gene 1 2 6 -28531 0 6 -28531 1
gene 1 3 6 -505116 0 7 -505116 1
gene 3 4 6 -87453 0 8 -87453 1
gene 2 2 9 238941 0 25 238941 1
gene 2 9 5 -90749 0 26 -90749 1
genomeend 6

/* Species #163 : (Size 2) (AF 40) (Age 5)  */


/* Organism #7 Fitness: 0 Error: 0 */
genomestart 7
trait 1 1 0 0 0 0 0 0 0 
trait 2 2 0 0 0 0 0 0 0 
trait 3 3 0 2636 2403 0 0 0 0 
node 1 2 1 3
node 2 2 1 1
node 3 1 1 1
node 4 3 1 1
node 5 1 0 2
node 6 2 0 2
node 9 1 0 0
gene 2 1 5 57093 0 1 57093 1
gene 2 2 5 -264794 0 2 -264794 0
gene 1 3 5 229108 0 3 229108 1
gene 1 4 5 -696926 0 4 -696926 1
gene 2 1 6 -305139 0 5 -305139 1
gene 3 2 6 75251 0 6 75251 1
gene 1 3 6 -220311 0 7 -220311 1
gene 1 4 6 -68571 0 8 -68571 1
gene 2 2 9 -159320 0 25 -159320 1
gene 2 9 5 23625 0 26 23625 1
gene 3 6 6 22061 1 53 22061 1
gene 1 5 6 39017 0 61 39017 1
genomeend 7

/* Organism #8 Fitness: 80 Error: 0 */
genomestart 8
trait 1 1 0 0 0 0 0 0 0 
trait 2 2 0 0 0 0 0 0 0 
trait 3 3 0 2636 2403 0 0 0 0 
node 1 2 1 3
node 2 2 1 1
node 3 1 1 1
node 4 3 1 1
node 5 1 0 2
node 6 2 0 2
node 9 1 0 0
gene 2 1 5 -202443 0 1 -202443 1
gene 2 2 5 -234224 0 2 -234224 0
gene 1 3 5 549499 0 3 549499 1
gene 1 4 5 -635333 0 4 -635333 1
gene 2 1 6 -458037 0 5 -458037 1
gene 3 2 6 -87886 0 6 -87886 1
gene 1 3 6 -83238 0 7 -83238 1
gene 1 4 6 357198 0 8 357198 1
gene 2 2 9 -110648 0 25 -110648 1
gene 2 9 5 347139 0 26 347139 1
gene 3 6 6 22061 1 53 22061 1
gene 1 5 6 81353 0 61 81353 1
genomeend 8

/* Species #164 : (Size 2) (AF 0) (Age 5)  */


/* Organism #9 Fitness: 0 Error: 0 */
genomestart 9
trait 1 1 0 0 0 0 0 0 0 
trait 2 2 0 0 0 0 0 0 0 
trait 3 3 0 2636 30916 12021 33055 0 0 
node 1 2 1 3
node 2 2 1 1
node 3 1 1 1
node 4 3 1 1
node 5 1 0 2
node 6 2 0 2
node 9 1 0 0
gene 2 1 5 -230221 0 1 -230221 1
gene 2 2 5 -408561 0 2 -408561 0
gene 1 3 5 42848 0 3 42848 1
gene 1 4 5 -395912 0 4 -395912 1
gene 2 1 6 -276924 0 5 -276924 1
gene 1 2 6 -18190 0 6 -18190 1
gene 1 3 6 478656 0 7 478656 1
gene 1 4 6 -267510 0 8 -267510 1
gene 2 2 9 -450350 0 25 -450350 1
gene 2 9 5 31164 0 26 31164 1
gene 3 6 5 47419 0 58 47419 1
genomeend 9

/* Organism #10 Fitness: 0 Error: 0 */
genomestart 10
trait 1 1 0 0 0 0 0 0 0 
trait 2 2 0 0 0 0 0 0 0 
trait 3 3 0 2636 30916 12021 33055 0 0 
node 1 2 1 3
node 2 2 1 1
node 3 1 1 1
node 4 3 1 1
node 5 1 0 2
node 6 2 0 2
node 9 1 0 0
gene 2 1 5 -133036 0 1 -133036 1
gene 2 2 5 -484074 0 2 -484074 0
gene 1 3 5 -292206 0 3 -292206 1
gene 1 4 5 -395912 0 4 -395912 1
gene 2 1 6 -257088 0 5 -257088 1
gene 1 2 6 299472 0 6 299472 1
gene 1 3 6 687918 0 7 687918 1
gene 1 4 6 -203214 0 8 -203214 1
gene 2 2 9 -655688 0 25 -655688 1
gene 2 9 5 -184035 0 26 -184035 1
gene 3 6 5 47419 0 58 47419 1
genomeend 10

/* Species #165 : (Size 4) (AF 30) (Age 5)  */


/* Organism #11 Fitness: 0 Error: 0 */
genomestart 11
trait 1 1 0 0 0 0 0 0 0 
trait 2 2 0 0 0 0 0 0 0 
trait 3 3 33518 2636 5886 9879 0 0 83419 
node 1 2 1 3
node 2 2 1 1
node 3 1 1 1
node 4 3 1 1
node 5 1 0 2
node 6 2 0 2
node 9 1 0 0
gene 2 1 5 -123039 0 1 -123039 1
gene 2 2 5 301755 0 2 301755 0
gene 1 3 5 560847 0 3 560847 1
gene 1 4 5 -345173 0 4 -345173 1
gene 2 1 6 31455 0 5 31455 1
gene 1 2 6 -57442 0 6 -57442 1
gene 1 3 6 -311508 0 7 -311508 1
gene 3 4 6 -102660 0 8 -102660 1
gene 1 2 9 162990 0 25 162990 1
gene 2 9 5 -33491 0 26 -33491 1
genomeend 11

/* Organism #12 Fitness: 40 Error: 0 */
genomestart 12
trait 1 1 0 0 0 0 0 0 0 
trait 2 2 0 0 0 0 0 0 0 
trait 3 3 33518 2636 5886 9879 0 0 83419 
node 1 2 1 3
node 2 2 1 1
node 3 1 1 1
node 4 3 1 1
node 5 1 0 2
node 6 2 0 2
node 9 1 0 0
gene 2 1 5 -190941 0 1 -190941 1
gene 2 2 5 389463 0 2 389463 0
gene 3 3 5 271098 0 3 271098 1
gene 1 4 5 -440507 0 4 -440507 1
gene 2 1 6 31455 0 5 31455 1
gene 1 2 6 -94377 0 6 -94377 1
gene 1 3 6 -241293 0 7 -241293 1
gene 3 4 6 -126279 0 8 -126279 1
gene 1 2 9 -90006 0 25 -90006 1
gene 2 9 5 256396 0 26 256396 1
genomeend 12

/* Organism #13 Fitness: 80 Error: 0 */
genomestart 13
trait 1 1 0 0 0 0 0 0 0 
trait 2 0 0 0 0 0 3316 0 3218 
trait 3 3 33518 2636 5886 9879 0 0 83419 
node 1 2 1 3
node 2 2 1 1
node 3 1 1 1
node 4 3 1 1
node 5 1 0 2
node 6 2 0 2
node 9 1 0 0
gene 2 1 5 -137271 0 1 -137271 1
gene 2 2 5 67839 0 2 67839 0
gene 1 3 5 465015 0 3 465015 1
gene 1 4 5 -417575 0 4 -417575 1
gene 2 1 6 65823 0 5 65823 1
gene 1 2 6 -86637 0 6 -86637 1
gene 1 3 6 -274221 0 7 -274221 1
gene 3 4 6 -102660 0 8 -102660 1
gene 1 2 9 -194433 0 25 -194433 1
gene 2 9 5 187765 0 26 187765 1
genomeend 13

/* Organism #14 Fitness: 0 Error: 0 */
genomestart 14
trait 1 1 0 0 0 0 0 0 0 
trait 2 2 0 0 0 0 0 0 0 
trait 3 3 33518 2636 5886 9879 0 0 83419 
node 1 2 1 3
node 2 2 1 1
node 3 1 1 1
node 4 3 1 1
node 5 1 0 2
node 6 2 0 2
node 9 1 0 0
gene 2 1 5 -19353 0 1 -19353 1
gene 2 2 5 211674 0 2 211674 0
gene 1 3 5 640563 0 3 640563 1
gene 1 4 5 -163046 0 4 -163046 1
gene 1 1 6 -101421 0 5 -101421 1
gene 1 2 6 -5854 0 6 -5854 1
gene 1 3 6 -317724 0 7 -317724 1
gene 3 4 6 -161205 0 8 -161205 1
gene 1 2 9 167973 0 25 167973 1
gene 2 9 5 212413 0 26 212413 1
genomeend 14

/* Species #183 : (Size 3) (AF 0) (Age 4)  */


/* Organism #15 Fitness: 0 Error: 0 */
genomestart 15
trait 1 1 0 0 0 0 0 0 0 
trait 2 2 0 0 0 0 0 0 0 
trait 3 3 33518 2636 5886 9879 0 0 83419 
node 1 2 1 3
node 2 2 1 1
node 3 1 1 1
node 4 3 1 1
node 5 1 0 2
node 6 2 0 2
node 9 1 0 0
gene 2 1 5 -263232 0 1 -263232 1
gene 2 2 5 373107 0 2 373107 0
gene 1 3 5 194280 0 3 194280 1
gene 1 4 5 10582 0 4 10582 1
gene 2 1 6 -49359 0 5 -49359 1
gene 1 2 6 239567 0 6 239567 1
gene 1 3 6 -431430 0 7 -431430 1
gene 3 4 6 -475281 0 8 -475281 1
gene 2 2 9 546234 0 25 546234 1
gene 2 9 5 7186 0 26 7186 1
gene 2 3 9 115052 0 55 115052 1
genomeend 15

/* Organism #16 Fitness: 0 Error: 0 */
genomestart 16
trait 1 1 0 0 0 0 0 0 0 
trait 2 2 0 0 0 0 0 0 0 
trait 3 3 33518 2636 5886 9879 0 0 83419 
node 1 2 1 3
node 2 2 1 1
node 3 1 1 1
node 4 3 1 1
node 5 1 0 2
node 6 2 0 2
node 9 1 0 0
gene 2 1 5 67443 0 1 67443 1
gene 2 2 5 657645 0 2 657645 0
gene 1 3 5 516666 0 3 516666 1
gene 1 4 5 -305675 0 4 -305675 1
gene 2 1 6 -135564 0 5 -135564 1
gene 1 2 6 62045 0 6 62045 1
gene 1 3 6 -111963 0 7 -111963 1
gene 3 4 6 -375792 0 8 -375792 1
gene 2 2 9 640131 0 25 640131 1
gene 2 9 5 -71954 0 26 -71954 1
gene 2 3 9 115052 0 55 115052 1
genomeend 16

/* Organism #17 Fitness: 0 Error: 0 */
genomestart 17
trait 1 1 0 0 0 0 0 0 0 
trait 2 2 0 0 0 0 0 0 0 
trait 3 3 33518 2636 5886 9879 0 0 83419 
node 1 2 1 3
node 2 2 1 1
node 3 1 1 1
node 4 3 1 1
node 5 1 0 2
node 6 2 0 2
node 9 1 0 0
gene 2 1 5 57423 0 1 57423 1
gene 2 2 5 314079 0 2 314079 0
gene 1 3 5 526230 0 3 526230 1
gene 1 4 5 -115436 0 4 -115436 1
gene 2 1 6 -145134 0 5 -145134 1
gene 1 2 6 255258 0 6 255258 1
gene 1 3 6 -239274 0 7 -239274 1
gene 3 4 6 -164850 0 8 -164850 1
gene 2 2 9 554469 0 25 554469 1
gene 2 9 5 207411 0 26 207411 1
gene 2 3 9 115052 0 55 115052 1
genomeend 17

/* Species #188 : (Size 3) (AF 66.6667) (Age 4)  */


/* Organism #18 Fitness: 0 Error: 0 */
genomestart 18
trait 1 1 0 0 0 0 0 0 0 
trait 2 2 0 0 0 0 0 0 0 
trait 3 3 0 2636 2403 0 0 0 0 
node 1 2 1 3
node 2 2 1 1
node 3 1 1 1
node 4 3 1 1
node 5 1 0 2
node 6 2 0 2
node 9 1 0 0
node 10 1 0 0
gene 2 1 5 -55206 0 1 -55206 1
gene 2 2 5 436165 0 2 436165 0
gene 1 3 5 738895 0 3 738895 1
gene 1 4 5 -426389 0 4 -426389 1
gene 2 1 6 223146 0 5 223146 1
gene 1 2 6 167255 0 6 167255 1
gene 1 3 6 -77395 0 7 -77395 0
gene 1 4 6 21775 0 8 21775 1
gene 2 2 9 -251885 0 25 -251885 1
gene 2 9 5 -338910 0 26 -338910 1
gene 1 3 10 -230504 0 43 -230504 1
gene 1 10 6 165815 0 44 165815 1
genomeend 18

/* Organism #19 Fitness: 80 Error: 0 */
genomestart 19
trait 1 1 0 0 0 0 0 0 0 
trait 2 2 0 0 0 0 0 0 0 
trait 3 3 0 2636 2403 0 0 0 0 
node 1 2 1 3
node 2 2 1 1
node 3 1 1 1
node 4 3 1 1
node 5 1 0 2
node 6 2 0 2
node 9 1 0 0
node 10 1 0 0
gene 2 1 5 -191895 0 1 -191895 1
gene 2 2 5 162691 0 2 162691 0
gene 1 3 5 489871 0 3 489871 1
gene 1 4 5 -228224 0 4 -228224 1
gene 2 1 6 312771 0 5 312771 1
gene 1 2 6 -39214 0 6 -39214 1
gene 1 3 6 -110437 0 7 -110437 0
gene 1 4 6 -181787 0 8 -181787 1
gene 2 2 9 -342869 0 25 -342869 1
gene 2 9 5 -277833 0 26 -277833 1
gene 1 3 10 -230504 0 43 -230504 1
gene 1 10 6 131507 0 44 131507 1
genomeend 19

/* Organism #20 Fitness: 120 Error: 0 */
genomestart 20
trait 1 1 0 0 0 0 0 0 0 
trait 2 2 0 0 0 0 0 0 0 
trait 3 3 0 2636 2403 0 0 0 0 
node 1 2 1 3
node 2 2 1 1
node 3 1 1 1
node 4 3 1 1
node 5 1 0 2
node 6 2 0 2
node 9 1 0 0
node 10 1 0 0
gene 2 1 5 -191895 0 1 -191895 1
gene 2 2 5 162691 0 2 162691 0
gene 1 3 5 489871 0 3 489871 1
gene 1 4 5 -228224 0 4 -228224 1
gene 2 1 6 312771 0 5 312771 1
gene 1 2 6 -39214 0 6 -39214 1
gene 1 3 6 -110437 0 7 -110437 0
gene 1 4 6 -181787 0 8 -181787 1
gene 2 2 9 -342869 0 25 -342869 1
gene 2 9 5 -277833 0 26 -277833 1
gene 1 3 10 -230504 0 43 -230504 1
gene 1 10 6 131507 0 44 131507 1
gene 3 5 6 13279 0 74 13279 1
genomeend 20

/* Species #210 : (Size 1) (AF 0) (Age 4)  */


/* Organism #21 Fitness: 0 Error: 0 */
genomestart 21
trait 1 1 0 0 0 0 0 0 0 
trait 2 2 0 0 0 0 0 0 0 
trait 3 3 0 2636 2403 0 0 0 0 
node 1 2 1 3
node 2 2 1 1
node 3 1 1 1
node 4 3 1 1
node 5 1 0 2
node 6 2 0 2
node 9 1 0 0
gene 2 1 5 -302253 0 1 -302253 1
gene 1 2 5 -20339 0 2 -20339 0
gene 1 3 5 -220098 0 3 -220098 1
gene 1 4 5 -800000 0 4 -800000 1
gene 2 1 6 550206 0 5 550206 1
gene 1 2 6 -266251 0 6 -266251 1
gene 1 3 6 -34996 0 7 -34996 1
gene 1 4 6 -69456 0 8 -69456 1
gene 2 2 9 -143405 0 25 -143405 1
gene 2 9 5 404163 0 26 404163 1
gene 3 9 6 -35265 0 59 -35265 1
genomeend 21

/* Species #215 : (Size 2) (AF 40) (Age 4)  */


/* Organism #22 Fitness: 0 Error: 0 */
genomestart 22
trait 1 1 0 0 0 0 0 0 0 
trait 2 2 0 0 0 0 0 0 0 
trait 3 3 0 2636 30916 12021 33055 0 0 
node 1 2 1 3
node 2 2 1 1
node 3 1 1 1
node 4 3 1 1
node 5 1 0 2
node 6 2 0 2
node 9 1 0 0
gene 2 1 5 -268008 0 1 -268008 1
gene 2 2 5 -462998 0 2 -462998 0
gene 1 3 5 743134 0 3 743134 1
gene 1 4 5 -165555 0 4 -165555 1
gene 2 1 6 177585 0 5 177585 1
gene 1 2 6 -426256 0 6 -426256 1
gene 1 3 6 730334 0 7 730334 1
gene 1 4 6 -251159 0 8 -251159 1
gene 2 2 9 -326630 0 25 -326630 1
gene 2 9 5 -84006 0 26 -84006 1
gene 3 5 6 13279 0 74 0 1
genomeend 22

/* Organism #23 Fitness: 80 Error: 0 */
genomestart 23
trait 1 1 0 0 0 0 0 0 0 
trait 2 2 0 0 0 0 0 0 0 
trait 3 3 0 2636 30916 12021 33055 0 0 
node 1 2 1 3
node 2 2 1 1
node 3 1 1 1
node 4 3 1 1
node 5 1 0 2
node 6 2 0 2
node 9 1 0 0
gene 2 1 5 -462993 0 1 -462993 1
gene 2 2 5 -590420 0 2 -590420 0
gene 1 3 5 733726 0 3 733726 1
gene 1 4 5 -345402 0 4 -345402 1
gene 2 1 6 223995 0 5 223995 1
gene 1 2 6 -666217 0 6 -666217 1
gene 1 3 6 524228 0 7 524228 1
gene 1 4 6 -350876 0 8 -350876 1
gene 2 2 9 -118295 0 25 -118295 1
gene 2 9 5 -141765 0 26 -141765 1
genomeend 23

/* Species #221 : (Size 1) (AF 80) (Age 3)  */


/* Organism #24 Fitness: 80 Error: 0 */
genomestart 24
trait 1 0 0 0 0 10417 0 0 24037 
trait 2 2 0 0 0 0 0 0 0 
trait 3 3 0 2636 2403 0 0 0 0 
node 1 2 1 3
node 2 2 1 1
node 3 1 1 1
node 4 3 1 1
node 5 1 0 2
node 6 2 0 2
node 9 1 0 0
gene 2 1 5 -177036 0 1 -177036 1
gene 2 2 5 -146759 0 2 -146759 0
gene 1 3 5 800000 0 3 800000 1
gene 1 4 5 -654059 0 4 -654059 1
gene 2 1 6 105330 0 5 105330 1
gene 1 2 6 -605944 0 6 -605944 1
gene 1 3 6 698708 0 7 698708 1
gene 1 4 6 -219848 0 8 -219848 1
gene 2 2 9 -654992 0 25 -654992 1
gene 2 9 5 -262659 0 26 -262659 1
genomeend 24

/* Species #226 : (Size 2) (AF 0) (Age 3)  */


/* Organism #25 Fitness: 0 Error: 0 */
genomestart 25
trait 1 1 0 0 0 0 0 0 0 
trait 2 0 0 99077 0 0 0 0 22213 
trait 3 3 33518 2636 5886 9879 0 0 83419 
node 1 2 1 3
node 2 2 1 1
node 3 1 1 1
node 4 3 1 1
node 5 1 0 2
node 6 2 0 2
node 9 1 0 0
gene 2 1 5 -2457 0 1 -2457 1
gene 2 2 5 -88851 0 2 -88851 0
gene 1 3 5 792111 0 3 792111 1
gene 1 4 5 -800000 0 4 -800000 1
gene 2 1 6 -191133 0 5 -191133 1
gene 1 2 6 230141 0 6 230141 1
gene 1 3 6 -516081 0 7 -516081 1
gene 3 4 6 -87453 0 8 -87453 1
gene 2 2 9 238941 0 25 238941 1
gene 2 9 5 90604 0 26 90604 1
genomeend 25

/* Organism #26 Fitness: 0 Error: 0 */
genomestart 26
trait 1 1 0 0 0 0 0 0 0 
trait 2 0 0 99077 0 0 0 0 22213 
trait 3 3 33518 2636 5886 9879 0 0 83419 
node 1 2 1 3
node 2 2 1 1
node 3 1 1 1
node 4 3 1 1
node 5 1 0 2
node 6 2 0 2
node 9 1 0 0
gene 2 1 5 130341 0 1 130341 1
gene 2 2 5 -128880 0 2 -128880 0
gene 1 3 5 670914 0 3 670914 1
gene 1 4 5 -680621 0 4 -680621 1
gene 2 1 6 -133959 0 5 -133959 1
gene 1 2 6 20180 0 6 20180 1
gene 1 3 6 -515478 0 7 -515478 1
gene 3 4 6 91851 0 8 91851 1
gene 2 2 9 -27492 0 25 -27492 1
gene 2 9 5 -230588 0 26 -230588 1
genomeend 26

/* Species #233 : (Size 1) (AF 0) (Age 3)  */


/* Organism #27 Fitness: 0 Error: 0 */
genomestart 27
trait 1 1 0 0 0 0 0 0 0 
trait 2 2 0 0 0 0 0 0 0 
trait 3 3 0 2636 2403 0 0 0 0 
node 1 2 1 3
node 2 2 1 1
node 3 1 1 1
node 4 3 1 1
node 5 1 0 2
node 6 2 0 2
node 9 1 0 0
gene 2 1 5 -261906 0 1 -261906 1
gene 2 2 5 472996 0 2 472996 0
gene 1 3 5 692318 0 3 692318 1
gene 1 4 5 -585989 0 4 -585989 1
gene 2 1 6 -626292 0 5 -626292 1
gene 1 2 6 -441816 0 6 -441816 1
gene 1 3 6 64347 0 7 64347 1
gene 1 4 6 -1580 0 8 -1580 1
gene 2 2 9 -248336 0 25 -248336 1
gene 2 9 5 -275699 0 26 -275699 1
gene 1 1 9 -87736 0 75 -87736 1
genomeend 27

/* Species #245 : (Size 2) (AF 20) (Age 3)  */


/* Organism #28 Fitness: 0 Error: 0 */
genomestart 28
trait 1 1 0 0 0 0 0 0 0 
trait 2 2 0 0 0 0 0 0 0 
trait 3 3 0 2636 2403 0 0 0 0 
node 1 2 1 3
node 2 2 1 1
node 3 1 1 1
node 4 3 1 1
node 5 1 0 2
node 6 2 0 2
node 9 1 0 0
node 10 1 0 0
gene 2 1 5 -501978 0 1 -501978 1
gene 2 2 5 431026 0 2 431026 0
gene 1 3 5 218764 0 3 218764 1
gene 1 4 5 -589205 0 4 -589205 1
gene 2 1 6 557529 0 5 557529 1
gene 1 2 6 -572071 0 6 -572071 1
gene 1 3 6 -276199 0 7 -276199 0
gene 1 4 6 -235934 0 8 -235934 1
gene 2 2 9 -396527 0 25 -396527 1
gene 2 9 5 -67386 0 26 -67386 1
gene 1 3 10 1 0 43 1 1
gene 1 10 6 -62992 0 44 -62992 1
genomeend 28

/* Organism #29 Fitness: 40 Error: 0 */
genomestart 29
trait 1 1 0 0 0 0 0 0 0 
trait 2 2 0 0 0 0 0 0 0 
trait 3 3 0 2636 2403 0 0 0 0 
node 1 2 1 3
node 2 2 1 1
node 3 1 1 1
node 4 3 1 1
node 5 1 0 2
node 6 2 0 2
node 9 1 0 0
node 10 1 0 0
gene 2 1 5 -628701 0 1 -628701 1
gene 2 2 5 346363 0 2 346363 0
gene 1 3 5 334459 0 3 334459 1
gene 1 4 5 -589205 0 4 -589205 1
gene 2 1 6 557529 0 5 557529 1
gene 1 2 6 -154723 0 6 -154723 1
gene 1 3 6 -276199 0 7 -276199 0
gene 1 4 6 -235934 0 8 -235934 1
gene 2 2 9 -396527 0 25 -396527 1
gene 2 9 5 -318369 0 26 -318369 1
gene 1 3 10 1 0 43 1 1
gene 1 10 6 -62992 0 44 -62992 1
genomeend 29

/* Species #246 : (Size 2) (AF 0) (Age 3)  */


/* Organism #30 Fitness: 0 Error: 0 */
genomestart 30
trait 1 1 0 0 27987 70145 0 0 68444 
trait 2 2 0 0 0 0 0 0 0 
trait 3 3 0 2636 2403 0 0 0 0 
node 1 2 1 3
node 2 2 1 1
node 3 1 1 1
node 4 3 1 1
node 5 1 0 2
node 6 2 0 2
node 9 1 0 0
node 10 1 0 0
gene 2 1 5 -611097 0 1 -611097 1
gene 2 2 5 -443538 0 2 -443538 0
gene 1 3 5 657340 0 3 657340 1
gene 1 4 5 -15872 0 4 -15872 1
gene 2 1 6 742416 0 5 742416 1
gene 1 2 6 -487855 0 6 -487855 1
gene 1 3 6 -158685 0 7 -158685 0
gene 1 4 6 -212261 0 8 -212261 1
gene 2 2 9 291160 0 25 291160 1
gene 2 9 5 -110301 0 26 -110301 1
gene 1 3 10 -25529 0 43 -25529 1
gene 1 10 6 372041 0 44 372041 1
genomeend 30

/* Organism #31 Fitness: 0 Error: 0 */
genomestart 31
trait 1 1 0 0 27987 70145 0 0 68444 
trait 2 2 0 0 0 0 0 0 0 
trait 3 3 0 2636 2403 0 0 0 0 
node 1 2 1 3
node 2 2 1 1
node 3 1 1 1
node 4 3 1 1
node 5 1 0 2
node 6 2 0 2
node 9 1 0 0
node 10 1 0 0
gene 2 1 5 -690291 0 1 -690291 1
gene 2 2 5 -392652 0 2 -392652 0
gene 1 3 5 429088 0 3 429088 1
gene 1 4 5 78744 0 4 78744 1
gene 2 1 6 594105 0 5 594105 1
gene 1 2 6 -370006 0 6 -370006 1
gene 1 3 6 -233634 0 7 -233634 0
gene 1 4 6 -412637 0 8 -412637 1
gene 2 2 9 61147 0 25 61147 1
gene 2 9 5 -231024 0 26 -231024 1
gene 1 3 10 94699 0 43 94699 1
gene 1 10 6 -203290 0 44 -203290 1
genomeend 31

/* Species #249 : (Size 1) (AF 0) (Age 3)  */


/* Organism #32 Fitness: 0 Error: 0 */
genomestart 32
trait 1 1 0 0 0 0 0 0 0 
trait 2 2 0 0 0 0 0 0 0 
trait 3 3 0 2636 30916 12021 33055 0 0 
node 1 3 1 3
node 2 2 1 1
node 3 1 1 1
node 4 3 1 1
node 5 1 0 2
node 6 2 0 2
node 9 1 0 0
gene 2 1 5 122904 0 1 122904 1
gene 2 2 5 -57504 0 2 -57504 0
gene 1 3 5 275199 0 3 275199 1
gene 1 4 5 -288210 0 4 -288210 1
gene 2 1 6 240474 0 5 240474 1
gene 1 2 6 -126445 0 6 -126445 1
gene 1 3 6 800000 0 7 800000 1
gene 1 4 6 -120834 0 8 -120834 1
gene 2 2 9 29112 0 25 29112 1
gene 2 9 5 -599160 0 26 -599160 1
gene 1 6 6 12660 1 68 12660 1
genomeend 32

/* Species #251 : (Size 2) (AF 60) (Age 3)  */


/* Organism #33 Fitness: 0 Error: 0 */
genomestart 33
trait 1 1 0 0 0 0 0 0 0 
trait 2 2 0 0 0 0 0 0 0 
trait 3 3 0 2636 30916 12021 33055 0 0 
node 1 2 1 3
node 2 2 1 1
node 3 1 1 1
node 4 3 1 1
node 5 1 0 2
node 6 2 0 2
node 9 1 0 0
gene 2 1 5 -573381 0 1 -573381 1
gene 2 2 5 -517610 0 2 -517610 0
gene 1 3 5 800000 0 3 800000 1
gene 1 4 5 -505505 0 4 -505505 1
gene 2 1 6 -386832 0 5 -386832 1
gene 1 2 6 -538573 0 6 -538573 1
gene 1 3 6 800000 0 7 800000 1
gene 1 4 6 -47520 0 8 -47520 1
gene 2 2 9 -135782 0 25 -135782 1
gene 2 9 5 -180027 0 26 -180027 1
gene 3 6 9 101270 0 71 101270 1
genomeend 33

/* Organism #34 Fitness: 120 Error: 0 */
genomestart 34
trait 1 1 0 0 0 0 0 0 0 
trait 2 2 0 0 0 0 0 0 0 
trait 3 3 0 2636 30916 12021 33055 0 0 
node 1 2 1 3
node 2 2 1 1
node 3 1 1 1
node 4 3 1 1
node 5 1 0 2
node 6 2 0 2
node 9 1 0 0
gene 2 1 5 -406662 0 1 -406662 1
gene 2 2 5 -549053 0 2 -549053 0
gene 1 3 5 800000 0 3 800000 1
gene 1 4 5 -373577 0 4 -373577 1
gene 2 1 6 -89886 0 5 -89886 1
gene 1 2 6 -800000 0 6 -800000 1
gene 1 3 6 584756 0 7 584756 1
gene 1 4 6 193659 0 8 193659 1
gene 2 2 9 -197294 0 25 -197294 1
gene 2 9 5 97734 0 26 97734 1
gene 3 6 9 -44098 0 71 -44098 1
genomeend 34

/* Species #257 : (Size 1) (AF 80) (Age 2)  */


/* Organism #35 Fitness: 80 Error: 0 */
genomestart 35
trait 1 1 0 0 0 0 0 0 0 
trait 2 2 0 0 0 0 0 0 0 
trait 3 3 33518 2636 5886 9879 0 0 83419 
node 1 2 1 3
node 2 2 1 1
node 3 1 1 1
node 4 3 1 1
node 5 1 0 2
node 6 2 0 2
node 9 1 0 0
gene 2 1 5 -333720 0 1 -333720 1
gene 2 2 5 205176 0 2 205176 0
gene 1 3 5 742767 0 3 742767 1
gene 1 4 5 -452546 0 4 -452546 1
gene 2 1 6 -153042 0 5 -153042 1
gene 1 2 6 -264415 0 6 -264415 1
gene 1 3 6 -469314 0 7 -469314 1
gene 3 4 6 -168123 0 8 -168123 1
gene 1 2 9 604629 0 25 604629 1
gene 2 9 5 227974 0 26 227974 1
genomeend 35

/* Species #266 : (Size 1) (AF 0) (Age 2)  */


/* Organism #36 Fitness: 0 Error: 0 */
genomestart 36
trait 1 1 0 0 0 0 0 0 0 
trait 2 68173 0 0 0 40144 0 69700 0 
trait 3 3 0 2636 2403 0 0 0 0 
node 1 2 1 3
node 2 2 1 1
node 3 1 1 1
node 4 3 1 1
node 5 1 0 2
node 6 2 0 2
node 9 1 0 0
gene 2 1 5 -416985 0 1 -416985 1
gene 2 2 5 -16268 0 2 -16268 0
gene 1 3 5 36639 0 3 36639 1
gene 1 4 5 -800000 0 4 -800000 1
gene 2 1 6 344100 0 5 344100 1
gene 1 2 6 -118620 0 6 -118620 1
gene 1 3 6 -395290 0 7 -395290 1
gene 1 4 6 -177381 0 8 -177381 1
gene 2 2 9 -8603 0 25 -8603 1
gene 2 9 5 406320 0 26 406320 1
genomeend 36

/* Species #268 : (Size 5) (AF 56) (Age 2)  */


/* Organism #37 Fitness: 0 Error: 0 */
genomestart 37
trait 1 1 0 0 0 0 0 0 0 
trait 2 2 0 0 0 0 0 0 0 
trait 3 3 0 2636 30916 12021 33055 0 0 
node 1 2 1 3
node 2 2 1 1
node 3 1 1 1
node 4 3 1 1
node 5 1 0 2
node 6 2 0 2
node 9 1 0 0
gene 2 1 5 -273624 0 1 -273624 1
gene 2 2 5 -165146 0 2 -165146 0
gene 1 3 5 606118 0 3 606118 1
gene 1 4 5 212157 0 4 212157 1
gene 2 1 6 464592 0 5 464592 1
gene 1 2 6 -716464 0 6 -716464 1
gene 1 3 6 453500 0 7 453500 1
gene 1 4 6 247576 0 8 247576 1
gene 2 2 9 -162575 0 25 -162575 1
gene 2 9 5 369789 0 26 369789 1
genomeend 37

/* Organism #38 Fitness: 0 Error: 0 */
genomestart 38
trait 1 1 0 0 0 0 0 0 0 
trait 2 2 0 0 0 0 0 0 0 
trait 3 3 0 2636 30916 12021 33055 0 0 
node 1 2 1 3
node 2 2 1 1
node 3 1 1 1
node 4 3 1 1
node 5 1 0 2
node 6 2 0 2
node 9 1 0 0
gene 2 1 5 -91068 0 1 -91068 1
gene 2 2 5 -299192 0 2 -299192 0
gene 1 3 5 628003 0 3 628003 1
gene 1 4 5 154782 0 4 154782 1
gene 2 1 6 675876 0 5 675876 1
gene 1 2 6 -800000 0 6 -800000 1
gene 1 3 6 155255 0 7 155255 1
gene 1 4 6 305806 0 8 305806 1
gene 2 2 9 -21683 0 25 -21683 1
gene 2 9 5 534897 0 26 534897 1
genomeend 38

/* Organism #39 Fitness: 80 Error: 0 */
genomestart 39
trait 1 1 0 0 0 0 0 0 0 
trait 2 2 0 0 0 0 0 0 0 
trait 3 3 0 2636 30916 12021 33055 0 0 
node 1 2 1 3
node 2 2 1 1
node 3 1 1 1
node 4 3 1 1
node 5 1 0 2
node 6 2 0 2
node 9 1 0 0
gene 2 1 5 -353877 0 1 -353877 1
gene 2 2 5 -42479 0 2 -42479 0
gene 1 3 5 741079 0 3 741079 1
gene 1 4 5 153822 0 4 153822 1
gene 2 1 6 470931 0 5 470931 1
gene 1 2 6 -557818 0 6 -557818 1
gene 1 3 6 416870 0 7 416870 1
gene 1 4 6 432262 0 8 432262 1
gene 2 2 9 -41102 0 25 -41102 1
gene 2 9 5 369789 0 26 369789 1
genomeend 39

/* Organism #40 Fitness: 80 Error: 0 */
genomestart 40
trait 1 1 0 0 0 0 0 0 0 
trait 2 2 0 0 0 0 0 0 0 
trait 3 3 0 2636 30916 12021 33055 0 0 
node 1 2 1 3
node 2 2 1 1
node 3 1 1 1
node 4 3 1 1
node 5 1 0 2
node 6 2 0 2
node 9 1 0 0
gene 2 1 5 -273624 0 1 -273624 1
gene 2 2 5 -165146 0 2 -165146 0
gene 1 3 5 606118 0 3 606118 1
gene 1 4 5 212157 0 4 212157 1
gene 2 1 6 464592 0 5 464592 1
gene 1 2 6 -716464 0 6 -716464 1
gene 1 3 6 453500 0 7 453500 1
gene 1 4 6 247576 0 8 247576 1
gene 2 2 9 -162575 0 25 -162575 1
gene 2 9 5 369789 0 26 369789 1
gene 1 6 5 81982 0 77 81982 1
genomeend 40

/* Organism #41 Fitness: 120 Error: 0 */
genomestart 41
trait 1 1 0 0 0 0 0 0 0 
trait 2 2 0 0 0 0 0 0 0 
trait 3 3 0 2636 30916 12021 33055 0 0 
node 1 2 1 3
node 2 2 1 1
node 3 1 1 1
node 4 3 1 1
node 5 1 0 2
node 6 2 0 2
node 9 1 0 0
gene 2 1 5 -273624 0 1 -273624 1
gene 2 2 5 -165146 0 2 -165146 0
gene 1 3 5 606118 0 3 606118 1
gene 1 4 5 212157 0 4 212157 1
gene 2 1 6 464592 0 5 464592 1
gene 1 2 6 -716464 0 6 -716464 1
gene 1 3 6 453500 0 7 453500 1
gene 1 4 6 247576 0 8 247576 1
gene 2 2 9 -162575 0 25 -162575 1
gene 2 9 5 369789 0 26 369789 1
gene 1 6 9 31652 0 76 0 1
genomeend 41

/* Species #270 : (Size 1) (AF 40) (Age 2)  */


/* Organism #42 Fitness: 40 Error: 0 */
genomestart 42
trait 1 1 0 0 0 0 0 0 0 
trait 2 2 0 0 0 0 0 0 0 
trait 3 3 0 2636 2403 0 0 0 0 
node 1 2 1 3
node 2 2 1 1
node 3 1 1 1
node 4 3 1 1
node 5 1 0 2
node 6 2 0 2
node 9 1 0 0
gene 2 1 5 -800000 0 1 -800000 1
gene 2 2 5 229981 0 2 229981 0
gene 1 3 5 800000 0 3 800000 1
gene 1 4 5 -261389 0 4 -261389 1
gene 2 1 6 -58911 0 5 -58911 1
gene 1 2 6 -525643 0 6 -525643 1
gene 1 3 6 679043 0 7 679043 1
gene 1 4 6 -589175 0 8 -589175 1
gene 2 2 9 -689897 0 25 -689897 1
gene 2 9 5 -258489 0 26 -258489 1
genomeend 42

/* Species #271 : (Size 1) (AF 40) (Age 2)  */


/* Organism #43 Fitness: 40 Error: 0 */
genomestart 43
trait 1 1 0 0 0 0 0 0 0 
trait 2 2 0 0 0 0 0 0 0 
trait 3 3 0 2636 2403 0 0 0 0 
node 1 2 1 3
node 2 2 1 1
node 3 1 1 1
node 4 3 1 1
node 5 1 0 2
node 6 2 0 2
node 9 1 0 0
gene 2 1 5 -362106 0 1 -362106 1
gene 2 2 5 32749 0 2 32749 0
gene 1 3 5 478796 0 3 478796 1
gene 1 4 5 -580247 0 4 -580247 1
gene 2 1 6 -88953 0 5 -88953 1
gene 1 2 6 -227827 0 6 -227827 1
gene 1 3 6 552083 0 7 552083 1
gene 1 4 6 -762971 0 8 -762971 1
gene 2 2 9 -800000 0 25 -800000 1
gene 2 9 5 146400 0 26 146400 1
gene 1 6 5 81982 0 77 0 1
genomeend 43

/* Species #276 : (Size 4) (AF 70) (Age 2)  */


/* Organism #44 Fitness: 0 Error: 0 */
genomestart 44
trait 1 1 0 0 0 0 0 0 0 
trait 2 2 0 0 0 0 0 0 0 
trait 3 3 0 2636 2403 0 0 0 0 
node 1 2 1 3
node 2 2 1 1
node 3 1 1 1
node 4 3 1 1
node 5 1 0 2
node 6 2 0 2
node 9 1 0 0
gene 2 1 5 -399915 0 1 -399915 1
gene 2 2 5 584383 0 2 584383 0
gene 1 3 5 776105 0 3 776105 1
gene 1 4 5 -800000 0 4 -800000 1
gene 2 1 6 -800000 0 5 -800000 1
gene 1 2 6 -531432 0 6 -531432 1
gene 1 3 6 -273381 0 7 -273381 1
gene 1 4 6 -372071 0 8 -372071 1
gene 2 2 9 42304 0 25 42304 1
gene 2 9 5 -521996 0 26 -521996 1
genomeend 44

/* Organism #45 Fitness: 120 Error: 0 */
genomestart 45
trait 1 1 0 0 0 0 0 0 0 
trait 2 2 0 0 0 0 0 0 0 
trait 3 3 0 2636 2403 0 0 0 0 
node 1 2 1 3
node 2 2 1 1
node 3 1 1 1
node 4 3 1 1
node 5 1 0 2
node 6 2 0 2
node 9 1 0 0
gene 2 1 5 -503988 0 1 -503988 1
gene 2 2 5 602617 0 2 602617 0
gene 1 3 5 800000 0 3 800000 1
gene 1 4 5 -776822 0 4 -776822 1
gene 2 1 6 -800000 0 5 -800000 1
gene 1 2 6 -264501 0 6 -264501 1
gene 1 3 6 -168729 0 7 -168729 1
gene 1 4 6 -94910 0 8 -94910 1
gene 2 2 9 -184838 0 25 -184838 1
gene 2 9 5 -521996 0 26 -521996 1
gene 3 5 6 13279 0 74 0 1
genomeend 45

/* Organism #46 Fitness: 80 Error: 0 */
genomestart 46
trait 1 1 0 0 0 0 0 0 0 
trait 2 2 0 0 0 0 0 0 0 
trait 3 3 0 2636 2403 0 0 0 0 
node 1 2 1 3
node 2 2 1 1
node 3 1 1 1
node 4 3 1 1
node 5 1 0 2
node 6 2 0 2
node 9 1 0 0
gene 2 1 5 -537255 0 1 -537255 1
gene 2 2 5 578884 0 2 578884 0
gene 1 3 5 614576 0 3 614576 1
gene 1 4 5 -573158 0 4 -573158 1
gene 2 1 6 -729695 0 5 -729695 1
gene 1 2 6 -92127 0 6 -92127 1
gene 1 3 6 -223128 0 7 -223128 1
gene 1 4 6 -286292 0 8 -286292 1
gene 2 2 9 -304883 0 25 -304883 1
gene 2 9 5 -521996 0 26 -521996 1
genomeend 46

/* Organism #47 Fitness: 80 Error: 0 */
genomestart 47
trait 1 1 0 0 0 0 0 0 0 
trait 2 2 0 0 0 0 0 0 0 
trait 3 3 0 2636 2403 0 0 0 0 
node 1 2 1 3
node 2 2 1 1
node 3 1 1 1
node 4 3 1 1
node 5 1 0 2
node 6 2 0 2
node 9 1 0 0
gene 2 1 5 -510192 0 1 -510192 1
gene 2 2 5 412312 0 2 412312 0
gene 1 3 5 800000 0 3 800000 1
gene 1 4 5 -800000 0 4 -800000 1
gene 2 1 6 -670604 0 5 -670604 1
gene 1 2 6 -453018 0 6 -453018 1
gene 1 3 6 -362805 0 7 -362805 1
gene 1 4 6 -117620 0 8 -117620 1
gene 2 2 9 -63209 0 25 -63209 1
gene 2 9 5 -521996 0 26 -521996 1
genomeend 47

/* Species #277 : (Size 3) (AF 13.3333) (Age 2)  */


/* Organism #48 Fitness: 0 Error: 0 */
genomestart 48
trait 1 1 0 0 0 0 0 0 0 
trait 2 2 0 0 0 0 0 0 0 
trait 3 3 0 2636 2403 0 0 0 0 
node 1 2 1 3
node 2 2 1 1
node 3 1 1 1
node 4 3 1 1
node 5 1 0 2
node 6 2 0 2
node 9 1 0 0
gene 2 1 5 20409 0 1 20409 1
gene 2 2 5 676261 0 2 676261 0
gene 1 3 5 570074 0 3 570074 1
gene 1 4 5 -340787 0 4 -340787 1
gene 2 1 6 -800000 0 5 -800000 1
gene 1 2 6 -628200 0 6 -628200 1
gene 1 3 6 -310614 0 7 -310614 1
gene 1 4 6 177094 0 8 177094 1
gene 3 2 9 -88772 0 25 -88772 1
gene 2 9 5 -300260 0 26 -300260 1
genomeend 48

/* Organism #49 Fitness: 40 Error: 0 */
genomestart 49
trait 1 1 0 0 0 0 0 0 0 
trait 2 2 0 0 0 0 0 0 0 
trait 3 3 0 2636 2403 0 0 0 0 
node 1 2 1 3
node 2 2 1 1
node 3 1 1 1
node 4 3 1 1
node 5 1 0 2
node 6 2 0 2
node 9 1 0 0
gene 2 1 5 -33954 0 1 -33954 1
gene 2 2 5 800000 0 2 800000 0
gene 1 3 5 405197 0 3 405197 1
gene 1 4 5 -604700 0 4 -604700 1
gene 2 1 6 -531537 0 5 -531537 1
gene 1 2 6 -709017 0 6 -709017 1
gene 1 3 6 -24648 0 7 -24648 1
gene 1 4 6 14532 0 8 14532 1
gene 2 2 9 54052 0 25 54052 1
gene 2 9 5 -284876 0 26 -284876 1
genomeend 49

/* Organism #50 Fitness: 0 Error: 0 */
genomestart 50
trait 1 0 0 90443 0 0 0 86554 0 
trait 2 2 0 0 0 0 0 0 0 
trait 3 3 0 2636 2403 0 0 0 0 
node 1 2 1 3
node 2 2 1 1
node 3 1 1 1
node 4 3 1 1
node 5 1 0 2
node 6 2 0 2
node 9 2 0 0
gene 2 1 5 85599 0 1 85599 1
gene 2 2 5 800000 0 2 800000 0
gene 1 3 5 455351 0 3 455351 1
gene 1 4 5 -79778 0 4 -79778 1
gene 2 1 6 -614802 0 5 -614802 1
gene 1 2 6 -604782 0 6 -604782 1
gene 1 3 6 -135867 0 7 -135867 1
gene 1 4 6 73987 0 8 73987 1
gene 2 2 9 117307 0 25 117307 1
gene 2 9 5 -15272 0 26 -15272 1
genomeend 50

/* Species #279 : (Size 2) (AF 40) (Age 2)  */


/* Organism #51 Fitness: 0 Error: 0 */
genomestart 51
trait 1 1 0 0 0 0 0 0 0 
trait 2 2 0 0 0 0 0 0 0 
trait 3 3 0 2636 2403 0 0 0 0 
node 1 2 1 3
node 2 2 1 1
node 3 1 1 1
node 4 3 1 1
node 5 1 0 2
node 6 2 0 2
node 9 1 0 0
gene 2 1 5 -654942 0 1 -654942 1
gene 2 2 5 523684 0 2 523684 0
gene 1 3 5 800000 0 3 800000 1
gene 1 4 5 -742244 0 4 -742244 1
gene 2 1 6 -660429 0 5 -660429 1
gene 1 2 6 -653520 0 6 -653520 1
gene 1 3 6 -301731 0 7 -301731 1
gene 1 4 6 80581 0 8 80581 1
gene 2 2 9 181651 0 25 181651 1
gene 2 9 5 -559103 0 26 -559103 1
genomeend 51

/* Organism #52 Fitness: 80 Error: 0 */
genomestart 52
trait 1 1 0 0 0 0 0 0 0 
trait 2 2 0 0 0 0 0 0 0 
trait 3 3 0 2636 2403 0 0 0 0 
node 1 2 1 3
node 2 2 1 1
node 3 1 1 1
node 4 3 1 1
node 5 1 0 2
node 6 2 0 2
node 9 1 0 0
gene 2 1 5 -529737 0 1 -529737 1
gene 2 2 5 365233 0 2 365233 0
gene 1 3 5 617327 0 3 617327 1
gene 1 4 5 -516515 0 4 -516515 1
gene 2 1 6 -514806 0 5 -514806 1
gene 1 2 6 -375843 0 6 -375843 1
gene 1 3 6 -334068 0 7 -334068 1
gene 1 4 6 -17732 0 8 -17732 1
gene 2 2 9 16777 0 25 16777 1
gene 2 9 5 -289131 0 26 -289131 1
genomeend 52

/* Species #282 : (Size 4) (AF 50) (Age 2)  */


/* Organism #53 Fitness: 0 Error: 0 */
genomestart 53
trait 1 23347 0 701 6891 0 9032 18841 0 
trait 2 2 0 0 0 0 0 0 0 
trait 3 3 0 2636 2403 0 0 0 0 
node 1 2 1 3
node 2 2 1 1
node 3 1 1 1
node 4 3 1 1
node 5 1 0 2
node 6 2 0 2
node 9 1 0 0
gene 2 1 5 58695 0 1 58695 1
gene 2 2 5 46003 0 2 46003 0
gene 1 3 5 71550 0 3 71550 1
gene 1 4 5 -404486 0 4 -404486 1
gene 1 1 6 242655 0 5 242655 1
gene 1 2 6 -506657 0 6 -506657 1
gene 1 3 6 196506 0 7 196506 1
gene 3 4 6 271485 0 8 271485 1
gene 2 2 9 -134022 0 25 -134022 1
gene 2 9 5 40207 0 26 40207 1
gene 1 6 5 -76095 0 41 -76095 1
genomeend 53

/* Organism #54 Fitness: 120 Error: 0 */
genomestart 54
trait 1 23347 0 701 6891 0 9032 18841 0 
trait 2 2 0 0 0 0 0 0 0 
trait 3 3 0 2636 2403 0 0 0 0 
node 1 2 1 3
node 2 2 1 1
node 3 1 1 1
node 4 3 1 1
node 5 1 0 2
node 6 2 0 2
node 9 1 0 0
gene 2 1 5 -35331 0 1 -35331 1
gene 2 2 5 30754 0 2 30754 0
gene 1 3 5 269208 0 3 269208 1
gene 1 4 5 -362810 0 4 -362810 1
gene 1 1 6 45333 0 5 45333 1
gene 1 2 6 -458978 0 6 -458978 1
gene 1 3 6 109122 0 7 109122 1
gene 3 4 6 220278 0 8 220278 1
gene 2 2 9 -212328 0 25 -212328 1
gene 2 9 5 -112353 0 26 -112353 1
gene 1 6 5 -76095 0 41 -76095 1
genomeend 54

/* Organism #55 Fitness: 80 Error: 0 */
genomestart 55
trait 1 23347 0 701 6891 0 9032 18841 0 
trait 2 2 0 0 0 0 0 0 0 
trait 3 3 0 2636 2403 0 0 0 0 
node 1 2 1 3
node 2 2 1 1
node 3 1 1 1
node 4 3 1 1
node 5 1 0 2
node 6 2 0 2
node 9 1 0 0
gene 2 1 5 -12786 0 1 -12786 1
gene 2 2 5 -162308 0 2 -162308 0
gene 1 3 5 -209847 0 3 -209847 1
gene 1 4 5 -684032 0 4 -684032 1
gene 1 1 6 255300 0 5 255300 1
gene 1 2 6 -727535 0 6 -727535 1
gene 1 3 6 243966 0 7 243966 1
gene 3 4 6 263601 0 8 263601 1
gene 2 2 9 -182445 0 25 -182445 1
gene 2 9 5 40207 0 26 40207 1
gene 1 6 5 -76095 0 41 -76095 1
genomeend 55

/* Organism #56 Fitness: 0 Error: 0 */
genomestart 56
trait 1 23347 0 701 6891 0 9032 18841 0 
trait 2 2 0 0 0 0 0 0 0 
trait 3 3 0 2636 2403 0 0 0 0 
node 1 2 1 3
node 2 2 1 1
node 3 1 1 1
node 4 3 1 1
node 5 1 0 2
node 6 2 0 2
node 9 1 0 0
gene 2 1 5 147939 0 1 147939 1
gene 2 2 5 46003 0 2 46003 0
gene 1 3 5 322479 0 3 322479 1
gene 1 4 5 -338471 0 4 -338471 1
gene 1 1 6 242655 0 5 242655 1
gene 1 2 6 -506657 0 6 -506657 1
gene 1 3 6 241656 0 7 241656 1
gene 3 4 6 266838 0 8 266838 1
gene 2 2 9 -45234 0 25 -45234 1
gene 2 9 5 316618 0 26 316618 1
gene 1 6 5 -55605 0 41 -55605 1
genomeend 56

/* Species #283 : (Size 1) (AF 0) (Age 2)  */


/* Organism #57 Fitness: 0 Error: 0 */
genomestart 57
trait 1 1 0 0 0 0 0 0 0 
trait 2 2 0 0 0 0 0 0 0 
trait 3 3 0 2636 2403 0 0 0 0 
node 1 2 1 3
node 2 2 1 1
node 3 1 1 1
node 4 3 1 1
node 5 1 0 2
node 6 2 0 2
node 9 1 0 0
node 10 1 0 0
gene 2 1 5 -760455 0 1 -760455 1
gene 2 2 5 -239937 0 2 -239937 0
gene 1 3 5 527656 0 3 527656 1
gene 1 4 5 -627533 0 4 -627533 1
gene 2 1 6 -119763 0 5 -119763 1
gene 1 2 6 -548110 0 6 -548110 1
gene 1 3 6 215835 0 7 215835 0
gene 1 4 6 22377 0 8 22377 1
gene 2 2 9 -202181 0 25 -202181 1
gene 2 9 5 -41652 0 26 -41652 1
gene 1 3 10 -27083 0 43 -27083 1
gene 1 10 6 219386 0 44 219386 1
gene 3 2 10 22452 0 78 22452 1
genomeend 57

/* Species #291 : (Size 6) (AF 53.3333) (Age 2)  */


/* Organism #58 Fitness: 0 Error: 0 */
genomestart 58
trait 1 1 0 0 0 0 0 0 0 
trait 2 2 0 0 0 0 0 0 0 
trait 3 3 0 2636 30916 12021 33055 0 0 
node 1 2 1 3
node 2 2 1 1
node 3 1 1 1
node 4 3 1 1
node 5 1 0 2
node 6 2 0 2
node 9 1 0 0
gene 2 1 5 213513 0 1 213513 1
gene 2 2 5 65856 0 2 65856 0
gene 1 3 5 385238 0 3 385238 1
gene 1 4 5 -780413 0 4 -780413 1
gene 2 1 6 67035 0 5 67035 1
gene 1 2 6 -788563 0 6 -788563 1
gene 1 3 6 606809 0 7 606809 1
gene 1 4 6 -233712 0 8 -233712 1
gene 2 2 9 207103 0 25 207103 1
gene 2 9 5 -143148 0 26 -143148 1
genomeend 58

/* Organism #59 Fitness: 0 Error: 0 */
genomestart 59
trait 1 1 0 0 0 0 0 0 0 
trait 2 2 0 0 0 0 0 0 0 
trait 3 3 0 2636 30916 12021 33055 0 0 
node 1 2 1 3
node 2 2 1 1
node 3 1 1 1
node 4 3 1 1
node 5 1 0 2
node 6 2 0 2
node 9 1 0 0
gene 2 1 5 16125 0 1 16125 1
gene 2 2 5 228807 0 2 228807 0
gene 1 3 5 385238 0 3 385238 1
gene 1 4 5 -780413 0 4 -780413 1
gene 2 1 6 113097 0 5 113097 1
gene 1 2 6 -694357 0 6 -694357 1
gene 1 3 6 658910 0 7 658910 1
gene 1 4 6 -158361 0 8 -158361 1
gene 2 2 9 327508 0 25 327508 1
gene 2 9 5 138255 0 26 138255 1
genomeend 59

/* Organism #60 Fitness: 0 Error: 0 */
genomestart 60
trait 1 1 0 0 0 0 0 0 0 
trait 2 2 0 0 0 0 0 0 0 
trait 3 3 0 2636 30916 12021 33055 0 0 
node 1 2 1 3
node 2 2 1 1
node 3 1 1 1
node 4 3 1 1
node 5 1 0 2
node 6 2 0 2
node 9 1 0 0
gene 2 1 5 419964 0 1 419964 1
gene 2 2 5 313545 0 2 313545 0
gene 1 3 5 510665 0 3 510665 1
gene 1 4 5 -638975 0 4 -638975 1
gene 2 1 6 163929 0 5 163929 1
gene 1 2 6 -800000 0 6 -800000 1
gene 1 3 6 607433 0 7 607433 1
gene 1 4 6 -283794 0 8 -283794 1
gene 2 2 9 168550 0 25 168550 1
gene 2 9 5 -143148 0 26 -143148 1
genomeend 60

/* Organism #61 Fitness: 120 Error: 0 */
genomestart 61
trait 1 1 0 0 0 0 0 0 0 
trait 2 2 0 0 0 0 0 0 0 
trait 3 3 0 2636 30916 12021 33055 0 0 
node 1 2 1 3
node 2 2 1 1
node 3 1 1 1
node 4 3 1 1
node 5 1 0 2
node 6 2 0 2
node 9 1 0 0
gene 2 1 5 213513 0 1 213513 1
gene 2 2 5 65856 0 2 65856 0
gene 1 3 5 385238 0 3 385238 1
gene 1 4 5 -780413 0 4 -780413 1
gene 2 1 6 67035 0 5 67035 1
gene 1 2 6 -788563 0 6 -788563 1
gene 1 3 6 606809 0 7 606809 1
gene 1 4 6 -233712 0 8 -233712 1
gene 2 2 9 207103 0 25 207103 1
gene 2 9 5 -143148 0 26 -143148 1
gene 2 6 6 -94544 1 79 -94544 1
genomeend 61

/* Organism #62 Fitness: 80 Error: 0 */
genomestart 62
trait 1 1 0 0 0 0 0 0 0 
trait 2 2 0 0 0 0 0 0 0 
trait 3 3 0 2636 30916 12021 33055 0 0 
node 1 2 1 3
node 2 2 1 1
node 3 1 1 1
node 4 3 1 1
node 5 1 0 2
node 6 2 0 2
node 9 1 0 0
gene 2 1 5 213513 0 1 213513 1
gene 2 2 5 65856 0 2 65856 0
gene 1 3 5 385238 0 3 385238 1
gene 1 4 5 -780413 0 4 -780413 1
gene 2 1 6 67035 0 5 67035 1
gene 1 2 6 -788563 0 6 -788563 1
gene 1 3 6 606809 0 7 606809 1
gene 1 4 6 -233712 0 8 -233712 1
gene 2 2 9 207103 0 25 207103 1
gene 2 9 5 -143148 0 26 -143148 1
gene 3 9 6 75017 0 80 75017 1
genomeend 62

/* Organism #63 Fitness: 120 Error: 0 */
genomestart 63
trait 1 1 0 0 0 0 0 0 0 
trait 2 2 0 0 0 0 0 0 0 
trait 3 3 0 2636 30916 12021 33055 0 0 
node 1 2 1 3
node 2 2 1 1
node 3 1 1 1
node 4 3 1 1
node 5 1 0 2
node 6 2 0 2
node 9 1 0 0
gene 2 1 5 347001 0 1 347001 1
gene 2 2 5 65856 0 2 65856 0
gene 1 3 5 316730 0 3 316730 1
gene 1 4 5 -800000 0 4 -800000 1
gene 2 1 6 -67752 0 5 -67752 1
gene 1 2 6 -716203 0 6 -716203 1
gene 1 3 6 120504 0 7 120504 1
gene 1 4 6 -281658 0 8 -281658 1
gene 2 2 9 173263 0 25 173263 1
gene 2 9 5 -260913 0 26 -260913 1
genomeend 63

/* Species #292 : (Size 1) (AF 0) (Age 1)  */


/* Organism #64 Fitness: 0 Error: 0 */
genomestart 64
trait 1 1 0 0 0 0 0 0 0 
trait 2 2 0 0 0 0 53918 0 0 
trait 3 3 33518 2636 5886 9879 0 0 83419 
node 1 2 1 3
node 2 2 1 1
node 3 1 1 1
node 4 3 1 1
node 5 2 0 2
node 6 2 0 2
node 9 1 0 0
gene 2 1 5 -463833 0 1 -463833 1
gene 2 2 5 42396 0 2 42396 0
gene 1 3 5 23451 0 3 23451 1
gene 1 4 5 -483392 0 4 -483392 1
gene 2 1 6 -23484 0 5 -23484 1
gene 1 2 6 -232567 0 6 -232567 1
gene 1 3 6 -248196 0 7 -248196 1
gene 3 4 6 -634008 0 8 -634008 1
gene 2 2 9 -168897 0 25 -168897 1
gene 2 9 5 -271911 0 26 -271911 1
genomeend 64

/* Species #293 : (Size 1) (AF 120) (Age 1)  */


/* Organism #65 Fitness: 120 Error: 0 */
genomestart 65
trait 1 1 0 0 0 0 0 0 0 
trait 2 2 0 0 0 0 0 0 0 
trait 3 3 33518 2636 5886 9879 0 0 83419 
node 1 2 1 3
node 2 2 1 1
node 3 3 1 1
node 4 3 1 1
node 5 1 0 2
node 6 2 0 2
node 9 1 0 0
gene 2 1 5 103554 0 1 103554 1
gene 2 2 5 -378621 0 2 -378621 0
gene 1 3 5 800000 0 3 800000 1
gene 1 4 5 -579434 0 4 -579434 1
gene 2 1 6 -179295 0 5 -179295 1
gene 1 2 6 -168718 0 6 -168718 1
gene 1 3 6 158664 0 7 158664 1
gene 3 4 6 -433665 0 8 -433665 1
gene 1 2 9 123276 0 25 123276 1
gene 2 9 5 -176685 0 26 -176685 1
genomeend 65

/* Species #294 : (Size 1) (AF 0) (Age 1)  */


/* Organism #66 Fitness: 0 Error: 0 */
genomestart 66
trait 1 1 0 0 0 0 0 0 0 
trait 2 2 0 0 0 0 0 0 0 
trait 3 3 0 2636 2403 0 0 0 0 
node 1 2 1 3
node 2 2 1 1
node 3 1 1 1
node 4 1 1 1
node 5 1 0 2
node 6 2 0 2
node 9 1 0 0
gene 2 1 5 -438348 0 1 -438348 1
gene 2 2 5 -704027 0 2 -704027 0
gene 1 3 5 382903 0 3 382903 1
gene 1 4 5 192012 0 4 192012 1
gene 2 1 6 -528087 0 5 -528087 1
gene 3 2 6 -68170 0 6 -68170 1
gene 1 3 6 -483567 0 7 -483567 1
gene 1 4 6 231618 0 8 231618 1
gene 2 2 9 -368477 0 25 -368477 1
gene 2 9 5 278433 0 26 278433 1
gene 3 6 6 -176689 1 53 -176689 1
gene 1 5 6 -202069 0 61 -202069 1
genomeend 66

/* Species #295 : (Size 1) (AF 80) (Age 1)  */


/* Organism #67 Fitness: 80 Error: 0 */
genomestart 67
trait 1 1 0 0 0 0 0 0 0 
trait 2 2 0 0 0 0 0 0 0 
trait 3 3 0 2636 2403 0 0 0 0 
node 1 2 1 3
node 2 2 1 1
node 3 1 1 1
node 4 3 1 1
node 5 1 0 2
node 6 2 0 2
node 9 1 0 0
gene 2 1 5 34782 0 1 34782 1
gene 2 2 5 -568361 0 2 -568361 0
gene 1 3 5 107974 0 3 107974 1
gene 1 4 5 -206192 0 4 -206192 1
gene 2 1 6 -304701 0 5 -304701 1
gene 3 2 6 -73323 0 6 -73323 1
gene 1 3 6 102102 0 7 102102 1
gene 1 4 6 326118 0 8 326118 1
gene 2 2 9 -176958 0 25 -176958 1
gene 2 9 5 158841 0 26 158841 1
gene 3 6 6 263921 1 53 263921 1
gene 1 5 6 72326 0 61 72326 1
genomeend 67

/* Species #296 : (Size 1) (AF 0) (Age 1)  */


/* Organism #68 Fitness: 0 Error: 0 */
genomestart 68
trait 1 1 0 0 0 0 0 0 0 
trait 2 2 0 0 0 0 0 0 0 
trait 3 3 33518 2636 5886 9879 0 0 83419 
node 1 2 1 3
node 2 2 1 1
node 3 1 1 1
node 4 3 1 1
node 5 1 0 2
node 6 2 0 2
node 9 1 0 0
gene 2 1 5 -122973 0 1 -122973 1
gene 2 2 5 170925 0 2 170925 0
gene 1 3 5 550869 0 3 550869 1
gene 1 4 5 246699 0 4 246699 1
gene 2 1 6 181548 0 5 181548 1
gene 1 2 6 -57442 0 6 -57442 1
gene 1 3 6 -360717 0 7 -360717 1
gene 3 4 6 -369573 0 8 -369573 1
gene 3 2 9 252003 0 25 252003 1
gene 2 9 5 -269492 0 26 -269492 1
genomeend 68

/* Species #297 : (Size 1) (AF 0) (Age 1)  */


/* Organism #69 Fitness: 0 Error: 0 */
genomestart 69
trait 1 1 0 0 0 0 0 0 0 
trait 2 2 0 0 0 0 0 0 0 
trait 3 3 33518 2636 5886 9879 0 0 83419 
node 1 2 1 3
node 2 2 1 1
node 3 1 1 1
node 4 3 1 1
node 5 1 0 2
node 6 2 0 2
node 9 1 0 0
gene 2 1 5 24141 0 1 24141 1
gene 2 2 5 588411 0 2 588411 0
gene 1 3 5 428574 0 3 428574 1
gene 1 4 5 -162998 0 4 -162998 1
gene 2 1 6 -147618 0 5 -147618 1
gene 1 2 6 -199810 0 6 -199810 1
gene 1 3 6 -477066 0 7 -477066 1
gene 3 4 6 55404 0 8 55404 1
gene 1 2 9 167433 0 25 167433 1
gene 2 9 5 239074 0 26 239074 1
genomeend 69

/* Species #298 : (Size 1) (AF 0) (Age 1)  */


/* Organism #70 Fitness: 0 Error: 0 */
genomestart 70
trait 1 1 0 0 0 0 0 0 0 
trait 2 2 0 0 0 0 0 0 0 
trait 3 3 33518 2636 5886 9879 0 0 83419 
node 1 2 1 3
node 2 2 1 1
node 3 1 1 1
node 4 3 1 1
node 5 1 0 2
node 6 2 0 2
node 9 1 0 0
gene 2 1 5 102072 0 1 102072 1
gene 2 2 5 48993 0 2 48993 0
gene 1 3 5 655347 0 3 655347 1
gene 1 4 5 -506996 0 4 -506996 1
gene 2 1 6 86448 0 5 86448 1
gene 1 2 6 75311 0 6 75311 1
gene 1 3 6 -52578 0 7 -52578 1
gene 3 4 6 -234774 0 8 -234774 1
gene 3 2 9 92766 0 25 92766 1
gene 2 9 5 266346 0 26 266346 1
genomeend 70

/* Species #299 : (Size 1) (AF 0) (Age 1)  */


/* Organism #71 Fitness: 0 Error: 0 */
genomestart 71
trait 1 1 0 0 0 0 0 0 0 
trait 2 2 0 0 0 0 0 0 0 
trait 3 3 33518 2636 5886 9879 0 0 83419 
node 1 2 1 3
node 2 2 1 1
node 3 1 1 1
node 4 3 1 1
node 5 1 0 2
node 6 2 0 2
node 9 1 0 0
gene 2 1 5 174786 0 1 174786 1
gene 2 2 5 201804 0 2 201804 0
gene 1 3 5 415467 0 3 415467 1
gene 1 4 5 -450215 0 4 -450215 1
gene 2 1 6 -342846 0 5 -342846 1
gene 1 2 6 -301138 0 6 -301138 1
gene 1 3 6 -246210 0 7 -246210 1
gene 3 4 6 -644112 0 8 -644112 1
gene 2 2 9 353115 0 25 353115 1
gene 2 9 5 49926 0 26 49926 1
gene 2 3 9 268544 0 55 268544 1
genomeend 71

/* Species #300 : (Size 1) (AF 0) (Age 1)  */


/* Organism #72 Fitness: 0 Error: 0 */
genomestart 72
trait 1 23347 0 701 6891 0 9032 18841 0 
trait 2 2 0 0 0 0 0 0 0 
trait 3 3 0 2636 2403 0 0 0 0 
node 1 2 1 3
node 2 2 1 1
node 3 1 1 1
node 4 3 1 1
node 5 1 0 2
node 6 2 0 2
node 9 1 0 0
node 12 1 0 0
gene 2 1 5 -114099 0 1 -114099 1
gene 2 2 5 171595 0 2 171595 0
gene 1 3 5 438072 0 3 438072 1
gene 1 4 5 -756755 0 4 -756755 1
gene 1 1 6 139275 0 5 139275 1
gene 1 2 6 -133364 0 6 -133364 0
gene 1 3 6 91899 0 7 91899 1
gene 3 4 6 49073 0 8 49073 1
gene 2 2 9 -100683 0 25 -100683 1
gene 2 9 5 -3137 0 26 -2352 1
gene 1 6 5 147900 0 41 147900 1
gene 1 2 12 1 0 72 0 1
gene 1 12 6 -133364 0 73 0 1
genomeend 72

/* Species #301 : (Size 1) (AF 120) (Age 1)  */


/* Organism #73 Fitness: 120 Error: 0 */
genomestart 73
trait 1 23347 0 701 6891 0 9032 18841 0 
trait 2 2 0 0 0 0 0 0 0 
trait 3 3 0 2636 2403 0 0 0 0 
node 1 2 1 3
node 2 2 1 1
node 3 1 1 1
node 4 3 1 1
node 5 1 0 2
node 6 2 0 2
node 9 1 0 0
gene 2 1 5 -162846 0 1 -162846 1
gene 2 2 5 171595 0 2 171595 0
gene 1 3 5 438072 0 3 438072 1
gene 1 4 5 -756755 0 4 -756755 1
gene 1 1 6 398751 0 5 398751 1
gene 1 2 6 -133364 0 6 -133364 1
gene 1 3 6 91899 0 7 91899 1
gene 3 4 6 -36397 0 8 -36397 1
gene 2 2 9 -100683 0 25 -100683 1
gene 2 9 5 -294117 0 26 -294117 1
gene 1 6 5 147900 0 41 147900 1
genomeend 73

/* Species #302 : (Size 1) (AF 0) (Age 1)  */


/* Organism #74 Fitness: 0 Error: 0 */
genomestart 74
trait 1 23347 0 701 6891 0 9032 18841 0 
trait 2 2 0 0 0 0 0 0 0 
trait 3 3 0 2636 2403 0 0 0 0 
node 1 2 1 3
node 2 2 1 1
node 3 1 1 1
node 4 3 1 1
node 5 1 0 2
node 6 2 0 2
node 9 1 0 0
gene 2 1 5 134646 0 1 134646 1
gene 2 2 5 410533 0 2 410533 0
gene 1 3 5 656556 0 3 656556 1
gene 1 4 5 -800000 0 4 -800000 1
gene 1 1 6 441687 0 5 441687 1
gene 1 2 6 152353 0 6 152353 1
gene 1 3 6 -201258 0 7 -201258 1
gene 3 4 6 -45358 0 8 -45358 1
gene 2 2 9 142299 0 25 142299 1
gene 2 9 5 -105954 0 26 -105954 1
gene 1 6 5 69069 0 41 69069 1
genomeend 74

/* Species #303 : (Size 1) (AF 120) (Age 1)  */


/* Organism #75 Fitness: 120 Error: 0 */
genomestart 75
trait 1 1 0 0 0 0 0 0 0 
trait 2 2 0 0 0 0 0 0 0 
trait 3 3 0 2636 2403 0 0 0 0 
node 1 2 1 3
node 2 2 1 1
node 3 1 1 1
node 4 3 1 1
node 5 1 0 2
node 6 2 0 2
node 9 1 0 0
node 10 1 0 0
gene 2 1 5 -213177 0 1 -213177 1
gene 2 2 5 -249936 0 2 -249936 0
gene 1 3 5 524941 0 3 524941 1
gene 1 4 5 -277535 0 4 -277535 1
gene 2 1 6 240168 0 5 240168 1
gene 1 2 6 -197029 0 6 -197029 1
gene 1 3 6 250806 0 7 250806 0
gene 1 4 6 261738 0 8 261738 1
gene 2 2 9 -540977 0 25 -540977 1
gene 2 9 5 -66633 0 26 -66633 1
gene 1 3 10 -325466 0 43 -325466 1
gene 1 10 6 241155 0 44 241155 1
genomeend 75

/* Species #304 : (Size 1) (AF 0) (Age 1)  */


/* Organism #76 Fitness: 0 Error: 0 */
genomestart 76
trait 1 1 0 0 0 0 0 0 0 
trait 2 2 0 0 0 0 0 0 0 
trait 3 3 0 2636 2403 0 0 0 0 
node 1 2 1 3
node 2 2 1 1
node 3 1 1 1
node 4 3 1 1
node 5 1 0 2
node 6 2 0 2
node 9 1 0 0
gene 2 1 5 -312051 0 1 -312051 1
gene 2 2 5 380185 0 2 380185 0
gene 1 3 5 268935 0 3 268935 1
gene 1 4 5 -584963 0 4 -584963 1
gene 2 1 6 494151 0 5 494151 1
gene 1 2 6 61553 0 6 61553 1
gene 1 3 6 -422785 0 7 -422785 1
gene 1 4 6 250515 0 8 250515 1
gene 2 2 9 142324 0 25 142324 1
gene 1 9 5 215853 0 26 215853 1
gene 3 9 6 -28269 0 59 -28269 1
genomeend 76

/* Species #305 : (Size 1) (AF 0) (Age 1)  */


/* Organism #77 Fitness: 0 Error: 0 */
genomestart 77
trait 1 1 0 0 0 0 0 0 0 
trait 2 2 0 0 0 0 0 0 0 
trait 3 3 0 2636 2403 0 0 0 0 
node 1 2 1 3
node 2 2 1 1
node 3 1 1 1
node 4 3 1 1
node 5 1 0 2
node 6 2 0 2
node 9 1 0 0
gene 2 1 5 -292416 0 1 -292416 1
gene 2 2 5 -35033 0 2 -35033 0
gene 1 3 5 -210597 0 3 -210597 1
gene 1 4 5 -800000 0 4 -800000 1
gene 2 1 6 297573 0 5 297573 1
gene 1 2 6 -375709 0 6 -375709 1
gene 1 3 6 -186976 0 7 -186976 1
gene 1 4 6 259980 0 8 259980 1
gene 2 2 9 -286676 0 25 -286676 1
gene 2 9 5 63309 0 26 63309 1
gene 3 9 6 20793 0 59 20793 1
genomeend 77

/* Species #306 : (Size 1) (AF 40) (Age 1)  */


/* Organism #78 Fitness: 40 Error: 0 */
genomestart 78
trait 1 1 0 0 0 0 0 0 0 
trait 2 2 0 0 0 0 0 0 0 
trait 3 3 0 2636 30916 12021 33055 0 0 
node 1 2 1 3
node 2 2 1 1
node 3 1 1 1
node 4 3 1 1
node 5 1 0 2
node 6 2 0 2
node 9 1 0 0
gene 2 1 5 -513843 0 1 -513843 1
gene 2 2 5 -661424 0 2 -661424 0
gene 1 3 5 443497 0 3 443497 1
gene 1 4 5 -315756 0 4 -315756 1
gene 2 1 6 29499 0 5 29499 1
gene 1 2 6 -387709 0 6 -387709 1
gene 1 3 6 800000 0 7 800000 1
gene 1 4 6 3517 0 8 3517 1
gene 2 2 9 -209267 0 25 -209267 1
gene 2 9 5 -84006 0 26 -84006 1
genomeend 78

/* Species #307 : (Size 1) (AF 0) (Age 1)  */


/* Organism #79 Fitness: 0 Error: 0 */
genomestart 79
trait 1 1 0 0 0 0 0 0 0 
trait 2 2 0 0 0 0 0 0 0 
trait 3 3 0 2636 2403 0 0 0 0 
node 1 2 1 3
node 2 2 1 1
node 3 1 1 1
node 4 3 1 1
node 5 1 0 2
node 6 2 0 2
node 9 1 0 0
gene 2 1 5 63183 0 1 63183 1
gene 2 2 5 242353 0 2 242353 1
gene 1 3 5 800000 0 3 800000 1
gene 1 4 5 -53177 0 4 -53177 1
gene 2 1 6 367998 0 5 367998 1
gene 1 2 6 -744221 0 6 -744221 1
gene 1 3 6 710738 0 7 710738 1
gene 1 4 6 262005 0 8 262005 1
gene 2 2 9 -800000 0 25 -800000 1
gene 2 9 5 290913 0 26 290913 1
genomeend 79

/* Species #308 : (Size 1) (AF 0) (Age 1)  */


/* Organism #80 Fitness: 0 Error: 0 */
genomestart 80
trait 1 1 0 0 0 0 0 0 0 
trait 2 0 0 99077 0 0 0 0 22213 
trait 3 3 33518 2636 5886 9879 0 0 83419 
node 1 2 1 3
node 2 3 1 1
node 3 1 1 1
node 4 3 1 1
node 5 1 0 2
node 6 2 0 2
node 9 1 0 0
gene 2 1 5 16980 0 1 16980 1
gene 2 2 5 134010 0 2 134010 0
gene 1 3 5 800000 0 3 800000 1
gene 1 4 5 -800000 0 4 -800000 1
gene 2 1 6 -128649 0 5 -128649 1
gene 1 2 6 195080 0 6 195080 1
gene 1 3 6 -394863 0 7 -394863 1
gene 3 4 6 -324477 0 8 -324477 1
gene 2 2 9 -217485 0 25 -217485 1
gene 2 9 5 148135 0 26 148135 1
genomeend 80

/* Species #309 : (Size 1) (AF 80) (Age 1)  */


/* Organism #81 Fitness: 80 Error: 0 */
genomestart 81
trait 1 1 0 0 0 0 0 0 0 
trait 2 2 0 0 0 0 0 0 0 
trait 3 3 0 2636 2403 0 0 0 0 
node 1 2 1 3
node 2 2 1 1
node 3 1 1 1
node 4 3 1 1
node 5 1 0 2
node 6 2 0 2
node 9 1 0 0
gene 2 1 5 71514 0 1 71514 1
gene 2 2 5 528368 0 2 528368 0
gene 1 3 5 764111 0 3 764111 1
gene 1 4 5 -724566 0 4 -724566 1
gene 2 1 6 -418156 0 5 -418156 1
gene 1 2 6 -547596 0 6 -547596 1
gene 1 3 6 -121226 0 7 -121226 1
gene 1 4 6 -76968 0 8 -76968 1
gene 2 2 9 -301340 0 25 -301340 1
gene 2 9 5 -241889 0 26 -241889 1
genomeend 81

/* Species #310 : (Size 1) (AF 120) (Age 1)  */


/* Organism #82 Fitness: 120 Error: 0 */
genomestart 82
trait 1 1 0 0 0 0 0 0 0 
trait 2 2 0 0 0 0 0 0 0 
trait 3 3 0 2636 2403 0 0 0 0 
node 1 2 1 3
node 2 2 1 1
node 3 1 1 1
node 4 3 1 1
node 5 1 0 2
node 6 2 0 2
node 9 1 0 0
gene 2 1 5 71958 0 1 71958 1
gene 2 2 5 697585 0 2 697585 0
gene 1 3 5 692318 0 3 692318 1
gene 1 4 5 -585989 0 4 -585989 1
gene 2 1 6 -626292 0 5 -626292 1
gene 1 2 6 -142590 0 6 -142590 1
gene 1 3 6 -2808 0 7 -2808 1
gene 1 4 6 -1580 0 8 -1580 1
gene 2 2 9 -248336 0 25 -248336 1
gene 2 9 5 -396353 0 26 -396353 1
gene 1 6 9 31652 0 76 31652 1
genomeend 82

/* Species #311 : (Size 1) (AF 80) (Age 1)  */


/* Organism #83 Fitness: 80 Error: 0 */
genomestart 83
trait 1 1 0 0 0 0 0 0 0 
trait 2 2 0 0 0 0 0 0 0 
trait 3 3 0 2636 2403 0 0 0 0 
node 1 2 1 3
node 2 2 1 1
node 3 1 1 1
node 4 3 1 1
node 5 1 0 2
node 6 2 0 2
node 9 1 0 0
gene 2 1 5 -46428 0 1 -46428 1
gene 2 2 5 179155 0 2 179155 0
gene 1 3 5 619847 0 3 619847 1
gene 1 4 5 -269924 0 4 -269924 1
gene 2 1 6 -558987 0 5 -558987 1
gene 1 2 6 -534495 0 6 -534495 1
gene 1 3 6 281268 0 7 281268 1
gene 1 4 6 -446015 0 8 -446015 1
gene 2 2 9 -316949 0 25 -316949 1
gene 2 9 5 -378410 0 26 -378410 1
gene 1 6 5 33598 0 66 33598 1
genomeend 83

/* Species #312 : (Size 1) (AF 0) (Age 1)  */


/* Organism #84 Fitness: 0 Error: 0 */
genomestart 84
trait 1 1 0 0 0 0 0 0 0 
trait 2 2 0 0 0 0 0 0 0 
trait 3 3 0 2636 30916 12021 33055 0 0 
node 1 3 1 3
node 2 2 1 1
node 3 1 1 1
node 4 3 1 1
node 5 1 0 2
node 6 2 0 2
node 9 1 0 0
gene 2 1 5 408975 0 1 408975 1
gene 2 2 5 -220482 0 2 -220482 0
gene 1 3 5 369859 0 3 369859 1
gene 1 4 5 -800000 0 4 -800000 1
gene 2 1 6 -544896 0 5 -544896 1
gene 1 2 6 -35272 0 6 -35272 1
gene 1 3 6 800000 0 7 800000 1
gene 1 4 6 284467 0 8 284467 1
gene 2 2 9 136255 0 25 136255 1
gene 2 9 5 -150660 0 26 -150660 1
genomeend 84

/* Species #313 : (Size 1) (AF 0) (Age 1)  */


/* Organism #85 Fitness: 0 Error: 0 */
genomestart 85
trait 1 1 0 0 0 0 0 0 0 
trait 2 2 0 0 0 0 0 0 0 
trait 3 3 33518 2636 5886 9879 0 0 83419 
node 1 2 1 3
node 2 1 1 1
node 3 1 1 1
node 4 3 1 1
node 5 1 0 2
node 6 2 0 2
node 9 1 0 0
gene 2 1 5 -269142 0 1 -269142 1
gene 2 2 5 262782 0 2 262782 0
gene 1 3 5 -194262 0 3 -194262 1
gene 1 4 5 -162038 0 4 -162038 1
gene 2 1 6 -226107 0 5 -226107 1
gene 1 2 6 -132388 0 6 -132388 1
gene 1 3 6 -499251 0 7 -499251 1
gene 3 4 6 -351648 0 8 -351648 1
gene 1 2 9 173091 0 25 173091 1
gene 2 9 5 -247371 0 26 -247371 1
genomeend 85

/* Species #314 : (Size 2) (AF 120) (Age 1)  */


/* Organism #86 Fitness: 120 Error: 0 */
genomestart 86
trait 1 1 0 0 0 0 0 0 0 
trait 2 2 0 0 0 0 0 0 0 
trait 3 3 33518 2636 5886 9879 0 0 83419 
node 1 2 1 3
node 2 2 1 1
node 3 1 1 1
node 4 3 1 1
node 5 1 0 2
node 6 2 0 2
node 9 1 0 0
gene 2 1 5 -365877 0 1 -365877 1
gene 2 2 5 490098 0 2 490098 0
gene 1 3 5 700050 0 3 700050 1
gene 1 4 5 -318191 0 4 -318191 1
gene 2 1 6 -359700 0 5 -359700 1
gene 1 2 6 -413536 0 6 -413536 1
gene 1 3 6 -358905 0 7 -358905 1
gene 3 4 6 298605 0 8 298605 1
gene 1 2 9 123954 0 25 123954 1
gene 2 9 5 314689 0 26 314689 1
genomeend 86

/* Organism #87 Fitness: 120 Error: 0 */
genomestart 87
trait 1 1 0 0 0 0 0 0 0 
trait 2 2 0 0 0 0 0 0 0 
trait 3 3 0 2636 2403 0 0 0 0 
node 1 2 1 3
node 2 2 1 1
node 3 1 1 1
node 4 3 1 1
node 5 1 0 2
node 6 2 0 2
node 9 1 0 0
gene 2 1 5 -327966 0 1 -327966 1
gene 2 2 5 800000 0 2 800000 0
gene 1 3 5 693098 0 3 693098 1
gene 1 4 5 -278735 0 4 -278735 1
gene 2 1 6 -468114 0 5 -468114 1
gene 1 2 6 -637020 0 6 -637020 1
gene 1 3 6 -52269 0 7 -52269 1
gene 1 4 6 302158 0 8 302158 1
gene 2 2 9 -40259 0 25 -40259 1
gene 2 9 5 170175 0 26 170175 1
genomeend 87

/* Species #315 : (Size 1) (AF 0) (Age 1)  */


/* Organism #88 Fitness: 0 Error: 0 */
genomestart 88
trait 1 1 0 0 0 0 0 0 0 
trait 2 68173 0 0 0 40144 0 69700 0 
trait 3 3 0 2636 2403 0 0 0 0 
node 1 2 1 3
node 2 2 1 1
node 3 1 1 1
node 4 3 1 1
node 5 1 0 2
node 6 2 0 2
node 9 1 0 0
gene 2 1 5 -483903 0 1 -483903 1
gene 2 2 5 233845 0 2 233845 0
gene 1 3 5 527394 0 3 527394 1
gene 1 4 5 -703382 0 4 -703382 1
gene 2 1 6 363600 0 5 363600 1
gene 1 2 6 158445 0 6 158445 1
gene 1 3 6 -549757 0 7 -549757 1
gene 1 4 6 44154 0 8 44154 1
gene 2 2 9 -339011 0 25 -339011 1
gene 2 9 5 442839 0 26 442839 1
genomeend 88

/* Species #316 : (Size 1) (AF 0) (Age 1)  */


/* Organism #89 Fitness: 0 Error: 0 */
genomestart 89
trait 1 1 0 0 0 0 0 0 0 
trait 2 2 64417 0 0 0 0 0 0 
trait 3 3 0 2636 30916 12021 33055 0 0 
node 1 2 1 3
node 2 2 1 1
node 3 1 1 1
node 4 3 1 1
node 5 1 0 2
node 6 2 0 2
node 9 1 0 0
gene 2 1 5 -565767 0 1 -565767 1
gene 2 2 5 -198404 0 2 -198404 0
gene 1 3 5 411940 0 3 411940 1
gene 1 4 5 376788 0 4 376788 1
gene 2 1 6 428274 0 5 428274 1
gene 1 2 6 -68370 0 6 -68370 1
gene 1 3 6 405707 0 7 405707 1
gene 1 4 6 55906 0 8 55906 1
gene 2 2 9 -260724 0 25 -260724 1
gene 2 9 5 513996 0 26 513996 1
genomeend 89

/* Species #317 : (Size 1) (AF 0) (Age 1)  */


/* Organism #90 Fitness: 0 Error: 0 */
genomestart 90
trait 1 1 0 0 0 0 0 0 0 
trait 2 2 0 0 0 0 0 0 0 
trait 3 3 0 2636 30916 12021 33055 0 0 
node 1 2 1 3
node 2 2 1 1
node 3 1 1 1
node 4 3 1 1
node 5 1 0 2
node 6 2 0 2
node 9 1 0 0
gene 2 1 5 -421356 0 1 -421356 1
gene 2 2 5 -8348 0 2 -8348 0
gene 1 3 5 345166 0 3 345166 1
gene 1 4 5 253431 0 4 253431 1
gene 2 1 6 584883 0 5 584883 1
gene 1 2 6 -800000 0 6 -800000 1
gene 1 3 6 174047 0 7 174047 1
gene 1 4 6 20605 0 8 20605 1
gene 2 2 9 -326879 0 25 -326879 1
gene 2 9 5 293046 0 26 293046 1
genomeend 90

/* Species #318 : (Size 1) (AF 0) (Age 1)  */


/* Organism #91 Fitness: 0 Error: 0 */
genomestart 91
trait 1 1 0 0 0 0 0 0 0 
trait 2 2 0 0 0 0 0 0 0 
trait 3 3 0 2636 30916 12021 33055 0 0 
node 1 2 1 3
node 2 2 1 1
node 3 1 1 1
node 4 3 1 1
node 5 1 0 2
node 6 2 0 2
node 9 1 0 0
gene 2 1 5 12996 0 1 12996 1
gene 2 2 5 58702 0 2 58702 0
gene 1 3 5 784174 0 3 784174 1
gene 1 4 5 337851 0 4 337851 1
gene 2 1 6 661149 0 5 661149 1
gene 1 2 6 -590947 0 6 -590947 1
gene 1 3 6 478358 0 7 478358 1
gene 1 4 6 246148 0 8 246148 1
gene 2 2 9 -359345 0 25 -359345 1
gene 2 9 5 207684 0 26 207684 1
genomeend 91

/* Species #319 : (Size 1) (AF 0) (Age 1)  */


/* Organism #92 Fitness: 0 Error: 0 */
genomestart 92
trait 1 1 0 0 0 0 0 0 0 
trait 2 2 0 0 0 0 0 0 0 
trait 3 3 0 2636 2403 0 0 0 0 
node 1 2 1 3
node 2 2 1 1
node 3 1 1 1
node 4 3 1 1
node 5 1 0 2
node 6 2 0 2
node 9 1 0 0
gene 2 1 5 -800000 0 1 -800000 1
gene 2 2 5 94222 0 2 94222 0
gene 1 3 5 776519 0 3 776519 1
gene 1 4 5 -516368 0 4 -516368 1
gene 2 1 6 -219033 0 5 -219033 1
gene 1 2 6 -800000 0 6 -800000 1
gene 1 3 6 639770 0 7 639770 1
gene 1 4 6 -800000 0 8 -800000 1
gene 2 2 9 -503795 0 25 -503795 1
gene 2 9 5 -109569 0 26 -109569 1
genomeend 92

/* Species #320 : (Size 1) (AF 0) (Age 1)  */


/* Organism #93 Fitness: 0 Error: 0 */
genomestart 93
trait 1 1 0 0 0 0 0 0 0 
trait 2 2 0 0 0 0 0 0 0 
trait 3 3 0 2636 2403 0 0 0 0 
node 1 2 1 3
node 2 2 1 1
node 3 1 1 1
node 4 3 1 1
node 5 1 0 2
node 6 2 0 2
node 9 1 0 0
gene 2 1 5 -649233 0 1 -649233 1
gene 2 2 5 -226955 0 2 -226955 0
gene 1 3 5 527192 0 3 527192 1
gene 1 4 5 -800000 0 4 -800000 1
gene 2 1 6 91230 0 5 91230 1
gene 1 2 6 -227827 0 6 -227827 1
gene 1 3 6 552083 0 7 552083 1
gene 1 4 6 4173 0 8 4173 1
gene 2 2 9 -535436 0 25 -535436 1
gene 2 9 5 -128832 0 26 -128832 1
genomeend 93

/* Species #321 : (Size 1) (AF 0) (Age 1)  */


/* Organism #94 Fitness: 0 Error: 0 */
genomestart 94
trait 1 1 0 0 0 0 0 0 0 
trait 2 2 0 0 0 0 0 0 0 
trait 3 3 33518 2636 5886 9879 0 0 83419 
node 1 2 1 3
node 2 2 1 1
node 3 1 1 1
node 4 3 1 1
node 5 1 0 2
node 6 2 0 2
node 9 1 0 0
gene 2 1 5 -264795 0 1 -264795 1
gene 2 2 5 -542040 0 2 -542040 0
gene 1 3 5 678735 0 3 678735 1
gene 1 4 5 -103775 0 4 -103775 1
gene 2 1 6 -180288 0 5 -180288 1
gene 1 2 6 -336532 0 6 -336532 1
gene 1 3 6 -325548 0 7 -325548 1
gene 3 4 6 -64260 0 8 -64260 1
gene 2 2 9 363726 0 25 363726 1
gene 2 9 5 17014 0 26 17014 1
genomeend 94

/* Species #322 : (Size 1) (AF 40) (Age 1)  */


/* Organism #95 Fitness: 40 Error: 0 */
genomestart 95
trait 1 1 0 0 0 0 0 0 0 
trait 2 2 0 0 0 0 0 0 0 
trait 3 3 33518 2636 5886 9879 0 0 83419 
node 1 2 1 3
node 2 2 1 1
node 3 1 1 1
node 4 3 1 1
node 5 1 0 2
node 6 2 0 2
node 9 1 0 0
gene 2 1 5 -359745 0 1 -359745 1
gene 2 2 5 -291102 0 2 -291102 0
gene 1 3 5 306189 0 3 306189 1
gene 1 4 5 -195731 0 4 -195731 1
gene 2 1 6 -17235 0 5 -17235 1
gene 1 2 6 -271264 0 6 -271264 1
gene 1 3 6 -396510 0 7 -396510 1
gene 3 4 6 -608844 0 8 -608844 1
gene 2 2 9 290499 0 25 290499 1
gene 2 9 5 -362861 0 26 -362861 1
genomeend 95

/* Species #323 : (Size 1) (AF 0) (Age 1)  */


/* Organism #96 Fitness: 0 Error: 0 */
genomestart 96
trait 1 1 0 0 0 0 0 0 0 
trait 2 2 0 0 0 0 0 0 0 
trait 3 3 0 2636 2403 0 0 0 0 
node 1 2 1 3
node 2 2 1 1
node 3 1 1 1
node 4 3 1 1
node 5 1 0 2
node 6 2 0 2
node 9 1 0 0
gene 2 1 5 56928 0 1 56928 1
gene 2 2 5 800000 0 2 800000 0
gene 1 3 5 130352 0 3 130352 1
gene 1 4 5 -261497 0 4 -261497 1
gene 2 1 6 -536505 0 5 -536505 1
gene 1 2 6 -493494 0 6 -493494 1
gene 1 3 6 -283605 0 7 -283605 1
gene 1 4 6 347560 0 8 347560 1
gene 2 2 9 -139505 0 25 -139505 1
gene 2 9 5 70111 0 26 70111 1
genomeend 96

/* Species #324 : (Size 1) (AF 0) (Age 1)  */


/* Organism #97 Fitness: 0 Error: 0 */
genomestart 97
trait 1 23347 0 701 6891 0 9032 18841 0 
trait 2 2 0 0 0 0 0 0 0 
trait 3 3 0 2636 2403 0 0 0 0 
node 1 2 1 3
node 2 2 1 1
node 3 1 1 1
node 4 3 1 1
node 5 1 0 2
node 6 2 0 2
node 9 1 0 0
gene 3 1 5 -203385 0 1 -203385 1
gene 2 2 5 266422 0 2 266422 0
gene 1 3 5 129162 0 3 129162 1
gene 1 4 5 -203462 0 4 -203462 1
gene 1 1 6 194922 0 5 194922 1
gene 1 2 6 90372 0 6 90372 1
gene 1 3 6 196506 0 7 196506 1
gene 3 4 6 564024 0 8 564024 1
gene 2 2 9 -134022 0 25 -134022 1
gene 2 9 5 -234617 0 26 -234617 1
gene 1 6 5 206676 0 41 206676 1
genomeend 97

/* Species #325 : (Size 1) (AF 0) (Age 1)  */


/* Organism #98 Fitness: 0 Error: 0 */
genomestart 98
trait 1 23347 0 701 6891 0 9032 18841 0 
trait 2 2 0 0 0 0 0 0 0 
trait 3 3 0 2636 2403 0 0 0 0 
node 1 2 1 3
node 2 2 1 1
node 3 1 1 1
node 4 3 1 1
node 5 1 0 2
node 6 2 0 2
node 9 1 0 0
gene 2 1 5 234960 0 1 234960 1
gene 2 2 5 46003 0 2 46003 0
gene 1 3 5 -184347 0 3 -184347 1
gene 1 4 5 -655847 0 4 -655847 1
gene 1 1 6 -172257 0 5 -172257 1
gene 1 2 6 -506657 0 6 -506657 1
gene 1 3 6 433965 0 7 433965 1
gene 3 4 6 255153 0 8 255153 1
gene 2 2 9 -134022 0 25 -134022 1
gene 2 9 5 -206778 0 26 -206778 1
gene 1 6 5 169674 0 41 169674 1
genomeend 98

/* Species #326 : (Size 1) (AF 80) (Age 1)  */


/* Organism #99 Fitness: 80 Error: 0 */
genomestart 99
trait 1 1 0 0 0 0 0 0 0 
trait 2 2 0 0 0 0 0 0 0 
trait 3 3 0 2636 2403 0 0 0 0 
node 1 2 1 3
node 2 2 1 1
node 3 1 1 1
node 4 3 1 1
node 5 1 0 2
node 6 2 0 2
node 9 1 0 0
node 10 1 0 0
gene 2 1 5 -507228 0 1 -507228 1
gene 2 2 5 -40938 0 2 -40938 0
gene 1 3 5 596149 0 3 596149 1
gene 1 4 5 31548 0 4 31548 1
gene 2 1 6 184503 0 5 184503 1
gene 1 2 6 -729862 0 6 -729862 1
gene 1 3 6 9153 0 7 9153 0
gene 1 4 6 22377 0 8 22377 1
gene 2 2 9 -449348 0 25 -449348 1
gene 2 9 5 148044 0 26 148044 1
gene 1 3 10 299646 0 43 299646 1
gene 1 10 6 440636 0 44 440636 1
genomeend 99
