
/* Species #1 : (Size 7) (AF 0) (Age 4)  */


/* Organism #0 Fitness: 0 Error: 0 */
genomestart 0
trait 1 88798 53798 99717 7258 24869 0 45412 0 
trait 2 2 0 0 0 0 0 0 0 
trait 3 3 0 0 0 0 0 0 0 
node 1 3 1 3
node 2 1 1 1
node 3 1 1 1
node 4 1 1 1
node 5 1 0 2
node 6 2 0 2
gene 2 1 5 129471 0 1 129471 1
gene 1 2 5 91542 0 2 91542 1
gene 2 3 5 -94923 0 3 -94923 1
gene 2 4 5 -89196 0 4 -89196 1
gene 3 1 6 102262 0 5 102262 1
gene 1 2 6 13643 0 6 13643 1
gene 2 3 6 -287473 0 7 -287473 1
gene 2 4 6 495969 0 8 495969 1
genomeend 0

/* Organism #1 Fitness: 0 Error: 0 */
genomestart 1
trait 1 88798 53798 99717 7258 24869 0 45412 0 
trait 2 2 0 0 0 0 0 60602 0 
trait 3 3 0 0 0 0 0 0 0 
node 1 3 1 3
node 2 1 1 1
node 3 1 1 1
node 4 1 1 1
node 5 1 0 2
node 6 2 0 2
gene 2 1 5 155133 0 1 155133 1
gene 1 2 5 -32784 0 2 -32784 1
gene 2 3 5 268005 0 3 268005 1
gene 2 4 5 -231765 0 4 -231765 1
gene 3 1 6 -82637 0 5 -82637 1
gene 1 2 6 99602 0 6 99602 1
gene 2 3 6 -124219 0 7 -124219 1
gene 2 4 6 354294 0 8 354294 1
genomeend 1

/* Organism #2 Fitness: 0 Error: 0 */
genomestart 2
trait 1 88798 53798 99717 7258 24869 0 45412 0 
trait 2 2 0 0 0 0 0 0 0 
trait 3 3 0 0 0 0 0 0 0 
node 1 3 1 3
node 2 1 1 1
node 3 1 1 1
node 4 1 1 1
node 5 1 0 2
node 6 2 0 2
gene 2 1 5 2547 0 1 2547 1
gene 1 2 5 247539 0 2 247539 1
gene 2 3 5 -156198 0 3 -156198 1
gene 2 4 5 126405 0 4 126405 1
gene 3 1 6 -52367 0 5 -52367 1
gene 1 2 6 31400 0 6 31400 1
gene 2 3 6 -91090 0 7 -91090 1
gene 2 4 6 167388 0 8 167388 1
genomeend 2

/* Organism #3 Fitness: 0 Error: 0 */
genomestart 3
trait 1 88798 53798 99717 7258 24869 0 45412 0 
trait 2 2 0 0 0 0 0 0 0 
trait 3 3 0 0 0 0 0 0 0 
node 1 3 1 3
node 2 1 1 1
node 3 1 1 1
node 4 1 1 1
node 5 1 0 2
node 6 2 0 2
gene 2 1 5 109107 0 1 109107 1
gene 1 2 5 44673 0 2 44673 1
gene 2 3 5 -10878 0 3 -10878 1
gene 2 4 5 -27150 0 4 -27150 1
gene 3 1 6 20460 0 5 20460 1
gene 1 2 6 -33685 0 6 -33685 1
gene 2 3 6 -235618 0 7 -235618 1
gene 2 4 6 505107 0 8 505107 1
genomeend 3

/* Organism #4 Fitness: 0 Error: 0 */
genomestart 4
trait 1 88798 53798 99717 7258 24869 0 45412 0 
trait 2 2 0 0 0 0 0 0 0 
trait 3 3 0 0 0 0 0 0 0 
node 1 3 1 3
node 2 1 1 1
node 3 1 1 1
node 4 1 1 1
node 5 1 0 2
node 6 2 0 2
gene 2 1 5 40128 0 1 40128 1
gene 1 2 5 -241071 0 2 -241071 1
gene 2 3 5 -100887 0 3 -100887 1
gene 2 4 5 326091 0 4 326091 1
gene 3 1 6 -115271 0 5 -115271 1
gene 1 2 6 -200626 0 6 -200626 1
gene 2 3 6 -240655 0 7 -240655 1
gene 2 4 6 168750 0 8 168750 1
genomeend 4

/* Organism #5 Fitness: 0 Error: 0 */
genomestart 5
trait 1 88798 53798 99717 7258 24869 0 45412 0 
trait 2 2 0 0 0 0 0 0 0 
trait 3 3 0 0 0 0 96015 0 37520 
node 1 3 1 3
node 2 1 1 1
node 3 1 1 1
node 4 1 1 1
node 5 1 0 2
node 6 2 0 2
gene 2 1 5 193281 0 1 193281 1
gene 1 2 5 -56193 0 2 -56193 1
gene 2 3 5 -52644 0 3 -52644 1
gene 2 4 5 -43206 0 4 -43206 1
gene 3 1 6 -76418 0 5 -76418 1
gene 1 2 6 -231250 0 6 -231250 1
gene 2 3 6 -236440 0 7 -236440 1
gene 2 4 6 450072 0 8 450072 1
genomeend 5

/* Organism #6 Fitness: 0 Error: 0 */
genomestart 6
trait 1 88798 35520 99717 0 24869 0 21531 4923 
trait 2 2 0 0 0 0 0 0 0 
trait 3 3 0 0 0 0 0 0 0 
node 1 3 1 3
node 2 1 1 1
node 3 1 1 1
node 4 1 1 1
node 5 1 0 2
node 6 2 0 2
gene 2 1 5 112518 0 1 112518 1
gene 1 2 5 -14580 0 2 -14580 1
gene 2 3 5 -75261 0 3 -75261 1
gene 2 4 5 211995 0 4 211995 1
gene 3 1 6 -142238 0 5 -142238 1
gene 1 2 6 -45169 0 6 -45169 1
gene 2 3 6 -358846 0 7 -358846 1
gene 2 4 6 141639 0 8 141639 1
genomeend 6

/* Species #5 : (Size 2) (AF 0) (Age 3)  */


/* Organism #7 Fitness: 0 Error: 0 */
genomestart 7
trait 1 88798 53798 99717 7258 24869 0 45412 0 
trait 2 2 0 0 0 0 0 0 0 
trait 3 3 0 0 0 0 0 0 0 
node 1 3 1 3
node 2 3 1 1
node 3 1 1 1
node 4 1 1 1
node 5 1 0 2
node 6 2 0 2
gene 2 1 5 315042 0 1 315042 1
gene 1 2 5 239073 0 2 239073 1
gene 2 3 5 -136227 0 3 -136227 1
gene 2 4 5 -85719 0 4 -85719 1
gene 3 1 6 62920 0 5 62920 1
gene 1 2 6 -257688 0 6 -257688 1
gene 2 3 6 112664 0 7 112664 1
gene 2 4 6 267225 0 8 267225 1
genomeend 7

/* Organism #8 Fitness: 0 Error: 0 */
genomestart 8
trait 1 88798 53798 99717 7258 24869 0 45412 0 
trait 2 2 0 0 0 0 0 0 0 
trait 3 3 0 0 0 0 0 0 0 
node 1 3 1 3
node 2 1 1 1
node 3 1 1 1
node 4 1 1 1
node 5 1 0 2
node 6 2 0 2
gene 2 1 5 388254 0 1 388254 1
gene 1 2 5 112881 0 2 112881 1
gene 2 3 5 -383517 0 3 -383517 1
gene 2 4 5 -123009 0 4 -123009 1
gene 3 1 6 -208307 0 5 -208307 1
gene 1 2 6 -273031 0 6 -273031 1
gene 2 3 6 -146341 0 7 -146341 1
gene 2 4 6 210060 0 8 210060 1
genomeend 8

/* Species #6 : (Size 16) (AF 25) (Age 3)  */


/* Organism #9 Fitness: 0 Error: 0 */
genomestart 9
trait 1 88798 53798 99717 7258 24869 0 45412 0 
trait 2 2 0 0 0 0 0 0 0 
trait 3 3 0 0 0 0 0 0 0 
node 1 3 1 3
node 2 1 1 1
node 3 1 1 1
node 4 1 1 1
node 5 1 0 2
node 6 2 0 2
gene 2 1 5 250173 0 1 250173 1
gene 1 2 5 172077 0 2 172077 1
gene 2 3 5 -276435 0 3 -276435 1
gene 2 4 5 46008 0 4 46008 1
gene 3 1 6 -36275 0 5 -36275 1
gene 1 2 6 12026 0 6 12026 1
gene 2 3 6 -141634 0 7 -141634 1
gene 2 4 6 253305 0 8 253305 1
genomeend 9

/* Organism #10 Fitness: 80 Error: 0 */
genomestart 10
trait 1 88798 53798 99717 7258 24869 0 45412 0 
trait 2 2 0 0 0 0 0 0 0 
trait 3 3 0 0 0 0 0 0 0 
node 1 3 1 3
node 2 1 1 1
node 3 1 1 1
node 4 1 1 1
node 5 1 0 2
node 6 2 0 2
gene 2 1 5 250173 0 1 250173 1
gene 1 2 5 172077 0 2 172077 1
gene 2 3 5 -276435 0 3 -276435 1
gene 2 4 5 46008 0 4 46008 1
gene 3 1 6 -36275 0 5 -36275 1
gene 1 2 6 12026 0 6 12026 1
gene 2 3 6 -141634 0 7 -141634 1
gene 2 4 6 253305 0 8 253305 1
genomeend 10

/* Organism #11 Fitness: 0 Error: 0 */
genomestart 11
trait 1 88798 53798 99717 7258 24869 0 45412 0 
trait 2 2 0 0 0 0 0 0 0 
trait 3 3 0 0 0 0 0 0 0 
node 1 3 1 3
node 2 1 1 1
node 3 1 1 1
node 4 1 1 1
node 5 1 0 2
node 6 2 0 2
gene 2 1 5 224748 0 1 224748 1
gene 1 2 5 -19437 0 2 -19437 1
gene 2 3 5 -159687 0 3 -159687 1
gene 2 4 5 46008 0 4 46008 1
gene 3 1 6 -45722 0 5 -45722 1
gene 1 2 6 -237463 0 6 -237463 1
gene 2 3 6 -432235 0 7 -432235 1
gene 2 4 6 483429 0 8 483429 1
genomeend 11

/* Organism #12 Fitness: 0 Error: 0 */
genomestart 12
trait 1 88798 53798 99717 7258 24869 0 45412 0 
trait 2 2 0 0 0 0 0 0 0 
trait 3 3 0 0 0 0 0 0 0 
node 1 3 1 3
node 2 1 1 1
node 3 1 1 1
node 4 1 1 1
node 5 1 0 2
node 6 2 0 2
gene 2 1 5 236139 0 1 236139 1
gene 1 2 5 47901 0 2 47901 1
gene 2 3 5 -8151 0 3 -8151 1
gene 2 4 5 -5796 0 4 -5796 1
gene 3 1 6 173887 0 5 173887 1
gene 1 2 6 -231484 0 6 -231484 1
gene 2 3 6 53597 0 7 53597 1
gene 2 4 6 377538 0 8 377538 1
genomeend 12

/* Organism #13 Fitness: 0 Error: 0 */
genomestart 13
trait 1 88798 53798 99717 7258 24869 0 45412 0 
trait 2 2 0 0 0 0 0 0 0 
trait 3 3 0 0 0 0 0 0 0 
node 1 3 1 3
node 2 1 1 1
node 3 1 1 1
node 4 1 1 1
node 5 1 0 2
node 6 2 0 2
gene 2 1 5 250173 0 1 250173 1
gene 1 2 5 172077 0 2 172077 1
gene 2 3 5 -276435 0 3 -276435 1
gene 2 4 5 46008 0 4 46008 1
gene 3 1 6 -36275 0 5 -36275 1
gene 1 2 6 12026 0 6 12026 1
gene 2 3 6 -141634 0 7 -141634 1
gene 2 4 6 253305 0 8 253305 1
genomeend 13

/* Organism #14 Fitness: 0 Error: 0 */
genomestart 14
trait 1 88798 53798 40150 0 18919 0 27916 30121 
trait 2 2 0 0 0 0 0 0 0 
trait 3 3 0 0 0 0 0 0 0 
node 1 3 1 3
node 2 1 1 1
node 3 1 1 1
node 4 1 1 1
node 5 1 0 2
node 6 2 0 2
gene 2 1 5 269910 0 1 269910 1
gene 1 2 5 72339 0 2 72339 1
gene 2 3 5 -453555 0 3 -453555 1
gene 2 4 5 97656 0 4 97656 1
gene 3 1 6 205975 0 5 205975 1
gene 1 2 6 -280711 0 6 -280711 1
gene 2 3 6 -176581 0 7 -176581 1
gene 2 4 6 241248 0 8 241248 1
genomeend 14

/* Organism #15 Fitness: 0 Error: 0 */
genomestart 15
trait 1 88798 53798 99717 7258 24869 0 45412 0 
trait 2 2 0 0 0 0 0 0 0 
trait 3 3 0 0 0 0 0 0 0 
node 1 3 1 3
node 2 1 1 1
node 3 1 1 1
node 4 1 1 1
node 5 1 0 2
node 6 2 0 2
gene 2 1 5 250173 0 1 250173 1
gene 1 2 5 172077 0 2 172077 1
gene 2 3 5 -276435 0 3 -276435 1
gene 2 4 5 46008 0 4 46008 1
gene 3 1 6 -36275 0 5 -36275 1
gene 1 2 6 12026 0 6 12026 1
gene 2 3 6 -141634 0 7 -141634 1
gene 2 4 6 253305 0 8 253305 1
genomeend 15

/* Organism #16 Fitness: 40 Error: 0 */
genomestart 16
trait 1 88798 53798 99717 7258 24869 0 45412 0 
trait 2 2 0 0 0 0 0 0 0 
trait 3 3 0 0 0 0 0 0 0 
node 1 3 1 3
node 2 1 1 1
node 3 1 1 1
node 4 1 1 1
node 5 1 0 2
node 6 2 0 2
gene 2 1 5 154080 0 1 154080 1
gene 1 2 5 -6270 0 2 -6270 1
gene 2 3 5 19791 0 3 19791 1
gene 2 4 5 -26931 0 4 -26931 1
gene 3 1 6 256072 0 5 256072 1
gene 1 2 6 -255955 0 6 -255955 1
gene 2 3 6 -52351 0 7 -52351 1
gene 2 4 6 458412 0 8 458412 1
genomeend 16

/* Organism #17 Fitness: 0 Error: 0 */
genomestart 17
trait 1 88798 53798 99717 7258 24869 0 45412 0 
trait 2 2 0 0 0 0 0 0 0 
trait 3 3 0 0 0 0 0 0 0 
node 1 3 1 3
node 2 1 1 1
node 3 1 1 1
node 4 1 1 1
node 5 1 0 2
node 6 2 0 2
gene 2 1 5 250173 0 1 250173 1
gene 1 2 5 172077 0 2 172077 1
gene 2 3 5 -276435 0 3 -276435 1
gene 2 4 5 46008 0 4 46008 1
gene 3 1 6 -36275 0 5 -36275 1
gene 1 2 6 12026 0 6 12026 1
gene 2 3 6 -141634 0 7 -141634 1
gene 2 4 6 253305 0 8 253305 1
genomeend 17

/* Organism #18 Fitness: 40 Error: 0 */
genomestart 18
trait 1 88798 53798 99717 7258 24869 0 45412 0 
trait 2 2 0 0 0 0 0 0 0 
trait 3 3 0 0 0 0 0 0 0 
node 1 3 1 3
node 2 1 1 1
node 3 3 1 1
node 4 1 1 1
node 5 1 0 2
node 6 2 0 2
gene 2 1 5 250173 0 1 250173 1
gene 1 2 5 172077 0 2 172077 1
gene 2 3 5 -276435 0 3 -276435 1
gene 2 4 5 46008 0 4 46008 1
gene 3 1 6 -36275 0 5 -36275 1
gene 1 2 6 12026 0 6 12026 1
gene 2 3 6 -141634 0 7 -141634 1
gene 2 4 6 253305 0 8 253305 1
genomeend 18

/* Organism #19 Fitness: 80 Error: 0 */
genomestart 19
trait 1 88798 53798 99717 7258 24869 0 45412 0 
trait 2 2 0 0 0 0 0 0 0 
trait 3 3 0 0 0 0 0 0 0 
node 1 3 1 3
node 2 1 1 1
node 3 1 1 1
node 4 1 1 1
node 5 1 0 2
node 6 2 0 2
gene 2 1 5 250173 0 1 250173 1
gene 1 2 5 172077 0 2 172077 1
gene 2 3 5 -276435 0 3 -276435 1
gene 2 4 5 46008 0 4 46008 1
gene 3 1 6 -36275 0 5 -36275 1
gene 1 2 6 12026 0 6 12026 1
gene 2 3 6 -141634 0 7 -141634 1
gene 2 4 6 253305 0 8 253305 1
genomeend 19

/* Organism #20 Fitness: 0 Error: 0 */
genomestart 20
trait 1 88798 53798 99717 7258 24869 0 45412 0 
trait 2 2 0 0 0 0 0 0 0 
trait 3 3 0 0 0 0 0 0 0 
node 1 3 1 3
node 2 1 1 1
node 3 1 1 1
node 4 1 1 1
node 5 1 0 2
node 6 2 0 2
gene 2 1 5 163326 0 1 163326 1
gene 1 2 5 137055 0 2 137055 1
gene 2 3 5 -157158 0 3 -157158 1
gene 2 4 5 290865 0 4 290865 1
gene 3 1 6 172905 0 5 172905 1
gene 1 2 6 -252583 0 6 -252583 1
gene 2 3 6 -93940 0 7 -93940 1
gene 2 4 6 333780 0 8 333780 1
genomeend 20

/* Organism #21 Fitness: 40 Error: 0 */
genomestart 21
trait 1 88798 53798 99717 7258 24869 0 45412 0 
trait 2 2 0 0 0 0 0 0 0 
trait 3 3 0 0 0 0 0 0 0 
node 1 3 1 3
node 2 1 1 1
node 3 3 1 1
node 4 1 1 1
node 5 1 0 2
node 6 2 0 2
gene 2 1 5 250173 0 1 250173 1
gene 1 2 5 172077 0 2 172077 1
gene 2 3 5 -276435 0 3 -276435 1
gene 2 4 5 46008 0 4 46008 1
gene 3 1 6 -36275 0 5 -36275 1
gene 1 2 6 12026 0 6 12026 1
gene 2 3 6 -141634 0 7 -141634 1
gene 2 4 6 253305 0 8 253305 1
genomeend 21

/* Organism #22 Fitness: 40 Error: 0 */
genomestart 22
trait 1 88798 53798 99717 7258 24869 0 45412 0 
trait 2 2 0 0 0 0 0 0 0 
trait 3 3 0 0 0 0 0 0 0 
node 1 3 1 3
node 2 1 1 1
node 3 1 1 1
node 4 1 1 1
node 5 1 0 2
node 6 2 0 2
gene 2 1 5 250173 0 1 250173 1
gene 1 2 5 172077 0 2 172077 1
gene 2 3 5 -276435 0 3 -276435 1
gene 2 4 5 46008 0 4 46008 1
gene 3 1 6 -36275 0 5 -36275 1
gene 1 2 6 12026 0 6 12026 1
gene 2 3 6 -141634 0 7 -141634 1
gene 2 4 6 253305 0 8 253305 1
genomeend 22

/* Organism #23 Fitness: 80 Error: 0 */
genomestart 23
trait 1 88798 53798 99717 7258 24869 0 45412 0 
trait 2 2 0 0 0 0 0 0 0 
trait 3 3 0 0 0 0 0 0 0 
node 1 3 1 3
node 2 1 1 1
node 3 1 1 1
node 4 1 1 1
node 5 1 0 2
node 6 2 0 2
gene 2 1 5 250173 0 1 250173 1
gene 1 2 5 172077 0 2 172077 1
gene 2 3 5 -276435 0 3 -276435 1
gene 2 4 5 46008 0 4 46008 1
gene 3 1 6 -36275 0 5 -36275 1
gene 1 2 6 12026 0 6 12026 1
gene 2 3 6 -141634 0 7 -141634 1
gene 2 4 6 253305 0 8 253305 1
genomeend 23

/* Organism #24 Fitness: 0 Error: 0 */
genomestart 24
trait 1 88798 53798 99717 7258 24869 0 45412 0 
trait 2 2 0 0 0 0 0 0 0 
trait 3 3 0 0 0 0 0 0 0 
node 1 3 1 3
node 2 1 1 1
node 3 1 1 1
node 4 1 1 1
node 5 1 0 2
node 6 2 0 2
gene 2 1 5 250173 0 1 250173 1
gene 1 2 5 172077 0 2 172077 1
gene 2 3 5 -276435 0 3 -276435 1
gene 2 4 5 46008 0 4 46008 1
gene 3 1 6 -36275 0 5 -36275 1
gene 1 2 6 12026 0 6 12026 1
gene 2 3 6 -141634 0 7 -141634 1
gene 2 4 6 253305 0 8 253305 1
genomeend 24

/* Species #7 : (Size 1) (AF 0) (Age 3)  */


/* Organism #25 Fitness: 0 Error: 0 */
genomestart 25
trait 1 88798 53798 99717 7258 24869 0 45412 0 
trait 2 2 0 0 0 0 0 0 0 
trait 3 3 0 0 0 0 0 0 0 
node 1 3 1 3
node 2 1 1 1
node 3 1 1 1
node 4 1 1 1
node 5 1 0 2
node 6 2 0 2
gene 2 1 5 289101 0 1 289101 1
gene 1 2 5 -2667 0 2 -2667 1
gene 2 3 5 -85386 0 3 -85386 1
gene 2 4 5 -39678 0 4 -39678 1
gene 3 1 6 -36275 0 5 -36275 1
gene 1 2 6 -47109 0 6 -47109 1
gene 2 3 6 -416401 0 7 -416401 1
gene 2 4 6 -24984 0 8 -24984 1
genomeend 25

/* Species #9 : (Size 2) (AF 0) (Age 3)  */


/* Organism #26 Fitness: 0 Error: 0 */
genomestart 26
trait 1 88798 53798 99717 7258 24869 0 45412 0 
trait 2 0 56910 19651 0 0 0 33343 0 
trait 3 3 0 0 0 0 0 0 0 
node 1 3 1 3
node 2 1 1 1
node 3 1 1 1
node 4 1 1 1
node 5 1 0 2
node 6 2 0 2
gene 2 1 5 -5400 0 1 -5400 1
gene 1 2 5 350658 0 2 350658 1
gene 2 3 5 -276435 0 3 -276435 1
gene 2 4 5 -7026 0 4 -7026 1
gene 3 1 6 101905 0 5 101905 1
gene 1 2 6 100457 0 6 100457 1
gene 2 3 6 -120694 0 7 -120694 1
gene 2 4 6 230301 0 8 230301 1
genomeend 26

/* Organism #27 Fitness: 0 Error: 0 */
genomestart 27
trait 1 88798 53798 99717 7258 24869 0 45412 0 
trait 2 2 0 0 0 0 0 0 0 
trait 3 3 0 0 0 0 0 0 0 
node 1 3 1 3
node 2 1 1 1
node 3 1 1 1
node 4 1 1 1
node 5 1 0 2
node 6 2 0 2
gene 2 1 5 113559 0 1 113559 1
gene 1 2 5 38679 0 2 38679 1
gene 2 3 5 -547587 0 3 -547587 1
gene 2 4 5 160170 0 4 160170 1
gene 3 1 6 200277 0 5 200277 1
gene 1 2 6 -232855 0 6 -232855 1
gene 2 3 6 -141634 0 7 -141634 1
gene 2 4 6 36210 0 8 36210 1
genomeend 27

/* Species #15 : (Size 1) (AF 0) (Age 3)  */


/* Organism #28 Fitness: 0 Error: 0 */
genomestart 28
trait 1 88798 53798 99717 7258 24869 0 45412 0 
trait 2 2 0 0 0 0 0 0 0 
trait 3 3 0 0 0 0 0 0 0 
node 1 3 1 3
node 2 1 1 1
node 3 1 1 1
node 4 3 1 1
node 5 1 0 2
node 6 2 0 2
gene 2 1 5 -43494 0 1 -43494 1
gene 1 2 5 193203 0 2 193203 1
gene 2 3 5 -73326 0 3 -73326 1
gene 2 4 5 207081 0 4 207081 1
gene 3 1 6 210310 0 5 210310 1
gene 1 2 6 12026 0 6 12026 1
gene 2 3 6 157001 0 7 157001 1
gene 2 4 6 253305 0 8 253305 1
genomeend 28

/* Species #16 : (Size 2) (AF 0) (Age 3)  */


/* Organism #29 Fitness: 0 Error: 0 */
genomestart 29
trait 1 88798 53798 99717 7258 24869 0 45412 0 
trait 2 2 0 0 0 0 0 0 0 
trait 3 3 0 0 0 0 0 0 0 
node 1 3 1 3
node 2 1 1 1
node 3 1 1 1
node 4 1 1 1
node 5 1 0 2
node 6 2 0 2
gene 2 1 5 311484 0 1 311484 1
gene 1 2 5 -91191 0 2 -91191 1
gene 2 3 5 11784 0 3 11784 1
gene 1 4 5 -59796 0 4 -59796 1
gene 3 1 6 -26336 0 5 -26336 1
gene 1 2 6 214520 0 6 214520 1
gene 2 3 6 13346 0 7 13346 1
gene 2 4 6 -4224 0 8 -4224 1
genomeend 29

/* Organism #30 Fitness: 0 Error: 0 */
genomestart 30
trait 1 88798 53798 99717 7258 24869 0 45412 0 
trait 2 2 0 0 0 0 0 0 0 
trait 3 3 0 0 0 0 0 0 0 
node 1 3 1 3
node 2 1 1 1
node 3 1 1 1
node 4 1 1 1
node 5 1 0 2
node 6 2 0 2
gene 2 1 5 491721 0 1 491721 1
gene 1 2 5 30111 0 2 30111 1
gene 2 3 5 -172428 0 3 -172428 1
gene 2 4 5 59577 0 4 59577 1
gene 3 1 6 293463 0 5 293463 1
gene 1 2 6 -263677 0 6 -263677 1
gene 2 3 6 -79153 0 7 -79153 1
gene 2 4 6 33 0 8 33 1
genomeend 30

/* Species #17 : (Size 40) (AF 5) (Age 3)  */


/* Organism #31 Fitness: 0 Error: 0 */
genomestart 31
trait 1 88798 53798 99717 7258 24869 0 45412 0 
trait 2 2 0 0 0 0 0 0 0 
trait 3 3 0 0 0 0 0 0 0 
node 1 3 1 3
node 2 1 1 1
node 3 1 1 1
node 4 1 1 1
node 5 1 0 2
node 6 2 0 2
gene 2 1 5 250173 0 1 250173 1
gene 1 2 5 425367 0 2 425367 1
gene 2 3 5 -571638 0 3 -571638 1
gene 2 4 5 30138 0 4 30138 1
gene 3 1 6 -104433 0 5 -104433 1
gene 1 2 6 -273918 0 6 -273918 1
gene 2 3 6 -82689 0 7 -82689 1
gene 2 4 6 102549 0 8 102549 1
genomeend 31

/* Organism #32 Fitness: 0 Error: 0 */
genomestart 32
trait 1 88798 53798 99717 7258 24869 0 45412 0 
trait 2 2 0 0 0 0 0 0 0 
trait 3 3 0 0 0 0 0 0 0 
node 1 3 1 3
node 2 1 1 1
node 3 1 1 1
node 4 1 1 1
node 5 1 0 2
node 6 2 0 2
gene 2 1 5 -26544 0 1 -26544 1
gene 1 2 5 168243 0 2 168243 1
gene 2 3 5 -469926 0 3 -469926 1
gene 2 4 5 46008 0 4 46008 1
gene 3 1 6 -11654 0 5 -11654 1
gene 1 2 6 -185902 0 6 -185902 1
gene 2 3 6 -138613 0 7 -138613 1
gene 2 4 6 401496 0 8 401496 1
genomeend 32

/* Organism #33 Fitness: 0 Error: 0 */
genomestart 33
trait 1 88798 53798 99717 7258 24869 0 45412 0 
trait 2 2 0 0 0 0 0 0 0 
trait 3 3 0 0 0 0 0 0 0 
node 1 3 1 3
node 2 1 1 1
node 3 1 1 1
node 4 1 1 1
node 5 1 0 2
node 6 2 0 2
gene 2 1 5 208152 0 1 208152 1
gene 1 2 5 51201 0 2 51201 1
gene 2 3 5 -172506 0 3 -172506 1
gene 2 4 5 66762 0 4 66762 1
gene 3 1 6 -95990 0 5 -95990 1
gene 1 2 6 128699 0 6 128699 1
gene 2 3 6 15432 0 7 15432 1
gene 2 4 6 538152 0 8 538152 1
genomeend 33

/* Organism #34 Fitness: 0 Error: 0 */
genomestart 34
trait 1 88798 53798 99717 7258 24869 0 45412 0 
trait 2 2 0 0 0 0 0 0 0 
trait 3 3 0 0 0 0 0 0 0 
node 1 3 1 3
node 2 1 1 1
node 3 1 1 1
node 4 1 1 1
node 5 1 0 2
node 6 2 0 2
gene 2 1 5 252075 0 1 252075 1
gene 1 2 5 177102 0 2 177102 1
gene 2 3 5 -72588 0 3 -72588 1
gene 2 4 5 28065 0 4 28065 1
gene 3 1 6 -273230 0 5 -273230 1
gene 1 2 6 175028 0 6 175028 1
gene 2 3 6 -52456 0 7 -52456 1
gene 2 4 6 118203 0 8 118203 1
genomeend 34

/* Organism #35 Fitness: 0 Error: 0 */
genomestart 35
trait 1 88798 53798 99717 7258 24869 0 45412 0 
trait 2 2 0 0 0 0 0 0 0 
trait 3 3 0 0 0 0 0 0 0 
node 1 3 1 3
node 2 1 1 1
node 3 1 1 1
node 4 1 1 1
node 5 1 0 2
node 6 2 0 2
gene 2 1 5 414402 0 1 414402 1
gene 1 2 5 116010 0 2 116010 1
gene 2 3 5 -452574 0 3 -452574 1
gene 2 4 5 136152 0 4 136152 1
gene 3 1 6 78805 0 5 78805 1
gene 1 2 6 22511 0 6 22511 1
gene 2 3 6 51101 0 7 51101 1
gene 2 4 6 496185 0 8 496185 1
genomeend 35

/* Organism #36 Fitness: 0 Error: 0 */
genomestart 36
trait 1 88798 53798 99717 7258 24869 0 45412 0 
trait 2 2 0 0 0 0 0 0 0 
trait 3 3 0 0 0 0 0 0 0 
node 1 3 1 3
node 2 1 1 1
node 3 1 1 1
node 4 1 1 1
node 5 1 0 2
node 6 2 0 2
gene 2 1 5 8043 0 1 8043 1
gene 1 2 5 337302 0 2 337302 1
gene 2 3 5 -291156 0 3 -291156 1
gene 2 4 5 105156 0 4 105156 1
gene 3 1 6 -35489 0 5 -35489 1
gene 1 2 6 256289 0 6 256289 1
gene 2 3 6 -141634 0 7 -141634 1
gene 2 4 6 8400 0 8 8400 1
genomeend 36

/* Organism #37 Fitness: 0 Error: 0 */
genomestart 37
trait 1 88798 53798 99717 7258 24869 0 45412 0 
trait 2 2 0 0 0 0 0 0 0 
trait 3 3 0 0 0 0 0 0 0 
node 1 3 1 3
node 2 1 1 1
node 3 1 1 1
node 4 1 1 1
node 5 1 0 2
node 6 2 0 2
gene 2 1 5 166050 0 1 166050 1
gene 1 2 5 172077 0 2 172077 1
gene 2 3 5 -164367 0 3 -164367 1
gene 2 4 5 51549 0 4 51549 1
gene 3 1 6 -18974 0 5 -18974 1
gene 1 2 6 241184 0 6 241184 1
gene 2 3 6 -141634 0 7 -141634 1
gene 2 4 6 155163 0 8 155163 1
genomeend 37

/* Organism #38 Fitness: 0 Error: 0 */
genomestart 38
trait 1 88798 53798 99717 7258 24869 0 45412 0 
trait 2 2 0 0 0 0 0 0 0 
trait 3 3 0 0 0 0 0 0 0 
node 1 3 1 3
node 2 1 1 1
node 3 1 1 1
node 4 1 1 1
node 5 1 0 2
node 6 2 0 2
gene 2 1 5 1170 0 1 1170 1
gene 1 2 5 90654 0 2 90654 1
gene 2 3 5 -503115 0 3 -503115 1
gene 2 4 5 -55392 0 4 -55392 1
gene 3 1 6 -97013 0 5 -97013 1
gene 1 2 6 29366 0 6 29366 1
gene 2 3 6 -55990 0 7 -55990 1
gene 2 4 6 480270 0 8 480270 1
genomeend 38

/* Organism #39 Fitness: 0 Error: 0 */
genomestart 39
trait 1 88798 53798 99717 7258 24869 0 45412 0 
trait 2 2 0 0 0 0 0 0 0 
trait 3 3 0 0 0 0 0 0 0 
node 1 3 1 3
node 2 1 1 1
node 3 1 1 1
node 4 1 1 1
node 5 1 0 2
node 6 2 0 2
gene 2 1 5 254958 0 1 254958 1
gene 1 2 5 9210 0 2 9210 1
gene 2 3 5 -473451 0 3 -473451 1
gene 2 4 5 -15282 0 4 -15282 1
gene 3 1 6 -5159 0 5 -5159 1
gene 1 2 6 26126 0 6 26126 1
gene 2 3 6 -367243 0 7 -367243 1
gene 2 4 6 435648 0 8 435648 1
genomeend 39

/* Organism #40 Fitness: 0 Error: 0 */
genomestart 40
trait 1 88798 53798 99717 7258 24869 0 45412 0 
trait 2 2 0 0 0 0 0 0 0 
trait 3 3 0 0 0 0 0 0 0 
node 1 3 1 3
node 2 1 1 1
node 3 1 1 1
node 4 1 1 1
node 5 1 0 2
node 6 2 0 2
gene 2 1 5 250173 0 1 250173 1
gene 1 2 5 172077 0 2 172077 1
gene 2 3 5 -276435 0 3 -276435 1
gene 2 4 5 46008 0 4 46008 1
gene 3 1 6 -36275 0 5 -36275 1
gene 1 2 6 12026 0 6 12026 1
gene 2 3 6 -141634 0 7 -141634 1
gene 2 4 6 253305 0 8 253305 1
gene 3 5 6 45422 0 19 45422 1
genomeend 40

/* Organism #41 Fitness: 0 Error: 0 */
genomestart 41
trait 1 88798 53798 99717 7258 24869 0 45412 0 
trait 2 2 0 0 0 0 0 0 0 
trait 3 3 0 0 0 0 0 0 0 
node 1 3 1 3
node 2 1 1 1
node 3 1 1 1
node 4 1 1 1
node 5 1 0 2
node 6 2 0 2
gene 2 1 5 408972 0 1 408972 1
gene 1 2 5 219537 0 2 219537 1
gene 2 3 5 -504618 0 3 -504618 1
gene 2 4 5 46008 0 4 46008 1
gene 3 1 6 107512 0 5 107512 1
gene 1 2 6 103601 0 6 103601 1
gene 3 3 6 -3697 0 7 -3697 1
gene 2 4 6 527769 0 8 527769 1
genomeend 41

/* Organism #42 Fitness: 0 Error: 0 */
genomestart 42
trait 1 88798 53798 99717 7258 24869 0 45412 0 
trait 2 2 0 0 0 0 0 0 0 
trait 3 3 0 0 0 0 0 0 0 
node 1 3 1 3
node 2 1 1 1
node 3 1 1 1
node 4 1 1 1
node 5 1 0 2
node 6 2 0 2
gene 2 1 5 356988 0 1 356988 1
gene 1 2 5 -3276 0 2 -3276 1
gene 2 3 5 -534228 0 3 -534228 1
gene 2 4 5 102645 0 4 102645 1
gene 3 1 6 -170654 0 5 -170654 1
gene 1 2 6 -33391 0 6 -33391 1
gene 3 3 6 -133051 0 7 -133051 1
gene 2 4 6 499299 0 8 499299 1
genomeend 42

/* Organism #43 Fitness: 0 Error: 0 */
genomestart 43
trait 1 88798 53798 99717 7258 24869 0 45412 0 
trait 2 2 0 0 0 0 0 0 0 
trait 3 3 0 0 0 0 0 0 0 
node 1 3 1 3
node 2 1 1 1
node 3 1 1 1
node 4 1 1 1
node 5 1 0 2
node 6 2 0 2
gene 2 1 5 327843 0 1 327843 1
gene 1 2 5 183858 0 2 183858 1
gene 2 3 5 -247335 0 3 -247335 1
gene 2 4 5 193212 0 4 193212 1
gene 3 1 6 -235664 0 5 -235664 1
gene 1 2 6 112697 0 6 112697 1
gene 2 3 6 75680 0 7 75680 1
gene 2 4 6 285084 0 8 285084 1
genomeend 43

/* Organism #44 Fitness: 0 Error: 0 */
genomestart 44
trait 1 88798 53798 99717 7258 24869 0 45412 0 
trait 2 2 0 0 0 0 0 0 0 
trait 3 3 0 0 0 0 0 0 0 
node 1 3 1 3
node 2 1 1 1
node 3 1 1 1
node 4 1 1 1
node 5 1 0 2
node 6 2 0 2
gene 2 1 5 316413 0 1 316413 1
gene 1 2 5 236202 0 2 236202 1
gene 2 3 5 -189906 0 3 -189906 1
gene 2 4 5 108156 0 4 108156 1
gene 3 1 6 -77261 0 5 -77261 1
gene 1 2 6 242438 0 6 242438 1
gene 2 3 6 158192 0 7 158192 1
gene 2 4 6 13260 0 8 13260 1
genomeend 44

/* Organism #45 Fitness: 0 Error: 0 */
genomestart 45
trait 1 88798 53798 99717 7258 24869 0 45412 0 
trait 2 2 0 0 0 0 0 0 0 
trait 3 3 0 0 0 0 0 0 0 
node 1 3 1 3
node 2 1 1 1
node 3 1 1 1
node 4 1 1 1
node 5 1 0 2
node 6 2 0 2
gene 2 1 5 250173 0 1 250173 1
gene 1 2 5 172077 0 2 172077 1
gene 2 3 5 -276435 0 3 -276435 1
gene 2 4 5 46008 0 4 46008 1
gene 3 1 6 -36275 0 5 -36275 1
gene 1 2 6 12026 0 6 12026 1
gene 2 3 6 -141634 0 7 -141634 1
gene 2 4 6 253305 0 8 253305 1
gene 3 5 6 45422 0 19 0 1
genomeend 45

/* Organism #46 Fitness: 0 Error: 0 */
genomestart 46
trait 1 88798 53798 99717 7258 24869 0 45412 0 
trait 2 2 0 0 0 0 0 0 0 
trait 3 3 0 0 0 0 0 0 0 
node 1 3 1 3
node 2 1 1 1
node 3 1 1 1
node 4 1 1 1
node 5 1 0 2
node 6 2 0 2
gene 2 1 5 220914 0 1 220914 1
gene 1 2 5 375954 0 2 375954 1
gene 2 3 5 -158676 0 3 -158676 1
gene 2 4 5 -11922 0 4 -11922 1
gene 3 1 6 75493 0 5 75493 1
gene 1 2 6 215522 0 6 215522 1
gene 2 3 6 -6993 0 7 -6993 1
gene 2 4 6 23655 0 8 23655 1
genomeend 46

/* Organism #47 Fitness: 0 Error: 0 */
genomestart 47
trait 1 88798 53798 99717 7258 24869 0 45412 0 
trait 2 2 0 0 0 0 0 0 0 
trait 3 3 0 0 0 0 0 0 0 
node 1 2 1 3
node 2 1 1 1
node 3 1 1 1
node 4 1 1 1
node 5 1 0 2
node 6 2 0 2
gene 2 1 5 204621 0 1 204621 1
gene 1 2 5 267357 0 2 267357 1
gene 2 3 5 -344055 0 3 -344055 1
gene 2 4 5 212460 0 4 212460 1
gene 3 1 6 131911 0 5 131911 1
gene 1 2 6 -33151 0 6 -33151 1
gene 2 3 6 -298507 0 7 -298507 1
gene 2 4 6 482085 0 8 482085 1
genomeend 47

/* Organism #48 Fitness: 0 Error: 0 */
genomestart 48
trait 1 88798 53798 99717 7258 24869 0 45412 0 
trait 2 2 0 0 0 0 0 0 0 
trait 3 3 0 0 0 0 0 0 0 
node 1 3 1 3
node 2 1 1 1
node 3 1 1 1
node 4 1 1 1
node 5 1 0 2
node 6 2 0 2
gene 2 1 5 116469 0 1 116469 1
gene 1 2 5 89052 0 2 89052 1
gene 2 3 5 -185292 0 3 -185292 1
gene 2 4 5 -36753 0 4 -36753 1
gene 3 1 6 -164324 0 5 -164324 1
gene 1 2 6 236153 0 6 236153 1
gene 2 3 6 -240958 0 7 -240958 1
gene 2 4 6 24897 0 8 24897 1
genomeend 48

/* Organism #49 Fitness: 0 Error: 0 */
genomestart 49
trait 1 88798 53798 99717 7258 24869 0 45412 0 
trait 2 2 0 0 0 0 0 0 0 
trait 3 3 0 0 0 0 0 0 0 
node 1 3 1 3
node 2 1 1 1
node 3 1 1 1
node 4 1 1 1
node 5 1 0 2
node 6 2 0 2
gene 2 1 5 -34557 0 1 -34557 1
gene 1 2 5 287850 0 2 287850 1
gene 2 3 5 -150798 0 3 -150798 1
gene 2 4 5 46008 0 4 46008 1
gene 3 1 6 -155250 0 5 -155250 1
gene 1 2 6 47756 0 6 47756 1
gene 2 3 6 37436 0 7 37436 1
gene 2 4 6 233283 0 8 233283 1
genomeend 49

/* Organism #50 Fitness: 0 Error: 0 */
genomestart 50
trait 1 88798 53798 99717 7258 24869 0 45412 0 
trait 2 2 0 0 0 0 0 0 0 
trait 3 3 0 0 0 0 0 0 0 
node 1 3 1 3
node 2 1 1 1
node 3 1 1 1
node 4 1 1 1
node 5 1 0 2
node 6 2 0 2
gene 2 1 5 314613 0 1 314613 1
gene 1 2 5 71904 0 2 71904 1
gene 2 3 5 -561027 0 3 -561027 1
gene 2 4 5 251769 0 4 251769 1
gene 3 1 6 28483 0 5 28483 1
gene 1 2 6 -173425 0 6 -173425 1
gene 2 3 6 -395608 0 7 -395608 1
gene 2 4 6 253305 0 8 253305 1
genomeend 50

/* Organism #51 Fitness: 0 Error: 0 */
genomestart 51
trait 1 88798 53798 99717 7258 24869 0 45412 0 
trait 2 2 0 0 0 0 0 0 0 
trait 3 3 0 0 0 0 0 0 0 
node 1 3 1 3
node 2 1 1 1
node 3 1 1 1
node 4 1 1 1
node 5 1 0 2
node 6 2 0 2
gene 2 1 5 263895 0 1 263895 1
gene 1 2 5 -111165 0 2 -111165 1
gene 2 3 5 -295278 0 3 -295278 1
gene 2 4 5 318555 0 4 318555 1
gene 3 1 6 112861 0 5 112861 1
gene 1 2 6 307835 0 6 307835 1
gene 2 3 6 -217111 0 7 -217111 1
gene 2 4 6 330027 0 8 330027 1
genomeend 51

/* Organism #52 Fitness: 0 Error: 0 */
genomestart 52
trait 1 88798 53798 99717 7258 24869 0 45412 0 
trait 2 2 0 0 0 0 0 0 0 
trait 3 3 0 0 0 0 0 0 0 
node 1 3 1 3
node 2 1 1 1
node 3 1 1 1
node 4 1 1 1
node 5 1 0 2
node 6 2 0 2
gene 2 1 5 334629 0 1 334629 1
gene 1 2 5 337776 0 2 337776 1
gene 2 3 5 -518133 0 3 -518133 1
gene 2 4 5 46008 0 4 46008 1
gene 3 1 6 98761 0 5 98761 1
gene 1 2 6 12026 0 6 12026 1
gene 2 3 6 -92977 0 7 -92977 1
gene 2 4 6 122760 0 8 122760 1
genomeend 52

/* Organism #53 Fitness: 0 Error: 0 */
genomestart 53
trait 1 88798 53798 99717 7258 24869 0 45412 0 
trait 2 2 0 0 0 0 0 0 0 
trait 3 3 0 0 0 0 0 0 0 
node 1 3 1 3
node 2 1 1 1
node 3 1 1 1
node 4 1 1 1
node 5 1 0 2
node 6 2 0 2
gene 2 1 5 136128 0 1 136128 1
gene 1 2 5 -22110 0 2 -22110 1
gene 2 3 5 18705 0 3 18705 1
gene 2 4 5 253854 0 4 253854 1
gene 3 1 6 -298571 0 5 -298571 1
gene 1 2 6 16127 0 6 16127 1
gene 2 3 6 -80251 0 7 -80251 1
gene 2 4 6 282972 0 8 282972 1
genomeend 53

/* Organism #54 Fitness: 0 Error: 0 */
genomestart 54
trait 1 88798 53798 99717 7258 24869 0 45412 0 
trait 2 2 0 0 0 0 0 0 0 
trait 3 3 0 0 0 0 0 0 0 
node 1 3 1 3
node 2 1 1 1
node 3 1 1 1
node 4 1 1 1
node 5 1 0 2
node 6 2 0 2
gene 2 1 5 250173 0 1 250173 1
gene 1 2 5 309027 0 2 309027 1
gene 2 3 5 -245874 0 3 -245874 1
gene 2 4 5 -130368 0 4 -130368 1
gene 3 1 6 -194018 0 5 -194018 1
gene 1 2 6 12026 0 6 12026 1
gene 2 3 6 -118339 0 7 -118339 1
gene 2 4 6 -15369 0 8 -15369 1
genomeend 54

/* Organism #55 Fitness: 80 Error: 0 */
genomestart 55
trait 1 88798 53798 99717 7258 24869 0 45412 0 
trait 2 2 0 0 0 0 0 0 0 
trait 3 3 0 0 0 0 0 0 0 
node 1 3 1 3
node 2 1 1 1
node 3 1 1 1
node 4 1 1 1
node 5 1 0 2
node 6 2 0 2
gene 2 1 5 383868 0 1 383868 1
gene 1 2 5 172077 0 2 172077 1
gene 2 3 5 -311121 0 3 -311121 1
gene 2 4 5 76329 0 4 76329 1
gene 3 1 6 -207422 0 5 -207422 1
gene 1 2 6 12026 0 6 12026 1
gene 2 3 6 -394759 0 7 -394759 1
gene 2 4 6 253305 0 8 253305 1
genomeend 55

/* Organism #56 Fitness: 0 Error: 0 */
genomestart 56
trait 1 88798 53798 99717 7258 24869 0 45412 0 
trait 2 2 0 0 0 0 0 0 0 
trait 3 3 0 0 0 0 0 0 0 
node 1 3 1 3
node 2 1 1 1
node 3 1 1 1
node 4 1 1 1
node 5 1 0 2
node 6 2 0 2
gene 2 1 5 -31902 0 1 -31902 1
gene 1 2 5 170394 0 2 170394 1
gene 2 3 5 -16875 0 3 -16875 1
gene 2 4 5 71106 0 4 71106 1
gene 3 1 6 -254096 0 5 -254096 1
gene 2 2 6 246875 0 6 246875 1
gene 2 3 6 -141634 0 7 -141634 1
gene 2 4 6 253305 0 8 253305 1
genomeend 56

/* Organism #57 Fitness: 0 Error: 0 */
genomestart 57
trait 1 88798 53798 99717 7258 24869 0 45412 0 
trait 2 2 0 0 0 0 0 0 0 
trait 3 3 0 0 0 0 0 0 0 
node 1 3 1 3
node 2 1 1 1
node 3 1 1 1
node 4 1 1 1
node 5 1 0 2
node 6 2 0 2
gene 2 1 5 460506 0 1 460506 1
gene 1 2 5 293994 0 2 293994 1
gene 2 3 5 -249246 0 3 -249246 1
gene 2 4 5 274662 0 4 274662 1
gene 3 1 6 -677 0 5 -677 1
gene 1 2 6 -53665 0 6 -53665 1
gene 2 3 6 -141634 0 7 -141634 1
gene 2 4 6 304557 0 8 304557 1
genomeend 57

/* Organism #58 Fitness: 0 Error: 0 */
genomestart 58
trait 1 88798 53798 99717 7258 24869 0 45412 0 
trait 2 2 0 0 0 0 0 0 0 
trait 3 3 0 0 0 0 0 0 0 
node 1 3 1 3
node 2 1 1 1
node 3 1 1 1
node 4 1 1 1
node 5 1 0 2
node 6 2 0 2
gene 2 1 5 250173 0 1 250173 1
gene 1 2 5 172077 0 2 172077 1
gene 2 3 5 -276435 0 3 -276435 1
gene 2 4 5 46008 0 4 46008 1
gene 3 1 6 -36275 0 5 -36275 1
gene 1 2 6 12026 0 6 12026 1
gene 2 3 6 -141634 0 7 -141634 1
gene 2 4 6 253305 0 8 253305 1
gene 3 6 6 95348 1 20 95348 1
genomeend 58

/* Organism #59 Fitness: 0 Error: 0 */
genomestart 59
trait 1 88798 53798 99717 7258 24869 0 45412 0 
trait 2 2 0 0 0 0 0 0 0 
trait 3 3 0 0 0 0 0 0 0 
node 1 3 1 3
node 2 1 1 1
node 3 1 1 1
node 4 1 1 1
node 5 1 0 2
node 6 2 0 2
gene 2 1 5 250173 0 1 250173 1
gene 1 2 5 172077 0 2 172077 1
gene 2 3 5 -276435 0 3 -276435 1
gene 2 4 5 46008 0 4 46008 1
gene 3 1 6 -36275 0 5 -36275 1
gene 1 2 6 12026 0 6 12026 1
gene 2 3 6 -141634 0 7 -141634 1
gene 2 4 6 253305 0 8 253305 1
gene 2 6 6 18457 1 21 18457 1
genomeend 59

/* Organism #60 Fitness: 40 Error: 0 */
genomestart 60
trait 1 88798 53798 99717 7258 24869 0 45412 0 
trait 2 2 0 0 0 0 0 0 0 
trait 3 3 0 0 0 0 0 0 0 
node 1 3 1 3
node 2 1 1 1
node 3 1 1 1
node 4 1 1 1
node 5 1 0 2
node 6 2 0 2
gene 2 1 5 250173 0 1 250173 1
gene 1 2 5 172077 0 2 172077 1
gene 2 3 5 -276435 0 3 -276435 1
gene 2 4 5 46008 0 4 46008 1
gene 3 1 6 -36275 0 5 -36275 1
gene 1 2 6 12026 0 6 12026 1
gene 2 3 6 -141634 0 7 -141634 1
gene 2 4 6 253305 0 8 253305 1
gene 3 5 6 45422 0 19 0 1
genomeend 60

/* Organism #61 Fitness: 0 Error: 0 */
genomestart 61
trait 1 88798 53798 99717 7258 24869 0 45412 0 
trait 2 2 0 0 0 0 0 0 0 
trait 3 3 0 0 0 0 0 0 0 
node 1 3 1 3
node 2 1 1 1
node 3 1 1 1
node 4 1 1 1
node 5 1 0 2
node 6 2 0 2
gene 2 1 5 286188 0 1 286188 1
gene 1 2 5 95808 0 2 95808 1
gene 2 3 5 4653 0 3 4653 1
gene 2 4 5 76203 0 4 76203 1
gene 3 1 6 21871 0 5 21871 1
gene 1 2 6 74501 0 6 74501 1
gene 2 3 6 190221 0 7 190221 1
gene 2 4 6 326268 0 8 326268 1
genomeend 61

/* Organism #62 Fitness: 40 Error: 0 */
genomestart 62
trait 1 88798 53798 99717 7258 24869 0 45412 0 
trait 2 2 0 0 0 0 0 0 0 
trait 3 3 0 0 0 0 0 0 0 
node 1 3 1 3
node 2 1 1 1
node 3 1 1 1
node 4 1 1 1
node 5 1 0 2
node 6 2 0 2
gene 2 1 5 250173 0 1 250173 1
gene 1 2 5 172077 0 2 172077 1
gene 2 3 5 -276435 0 3 -276435 1
gene 2 4 5 46008 0 4 46008 1
gene 3 1 6 -36275 0 5 -36275 1
gene 1 2 6 12026 0 6 12026 1
gene 2 3 6 -141634 0 7 -141634 1
gene 2 4 6 253305 0 8 253305 1
gene 3 5 6 45422 0 19 0 1
genomeend 62

/* Organism #63 Fitness: 0 Error: 0 */
genomestart 63
trait 1 88798 53798 99717 7258 24869 0 45412 0 
trait 2 2 0 0 0 0 0 0 0 
trait 3 3 0 0 0 0 0 0 0 
node 1 3 1 3
node 2 1 1 1
node 3 1 1 1
node 4 1 1 1
node 5 1 0 2
node 6 2 0 2
gene 2 1 5 250173 0 1 250173 1
gene 1 2 5 172077 0 2 172077 1
gene 2 3 5 -276435 0 3 -276435 1
gene 2 4 5 46008 0 4 46008 1
gene 3 1 6 -36275 0 5 -36275 1
gene 1 2 6 12026 0 6 12026 1
gene 2 3 6 -141634 0 7 -141634 1
gene 2 4 6 253305 0 8 253305 1
gene 3 5 6 45422 0 19 0 1
genomeend 63

/* Organism #64 Fitness: 0 Error: 0 */
genomestart 64
trait 1 88798 53798 99717 7258 24869 0 45412 0 
trait 2 2 0 0 0 0 0 0 0 
trait 3 3 0 0 0 0 0 0 0 
node 1 3 1 3
node 2 1 1 1
node 3 1 1 1
node 4 1 1 1
node 5 1 0 2
node 6 2 0 2
gene 2 1 5 64794 0 1 64794 1
gene 1 2 5 424461 0 2 424461 1
gene 2 3 5 11043 0 3 11043 1
gene 2 4 5 75327 0 4 75327 1
gene 3 1 6 -43892 0 5 -43892 1
gene 1 2 6 182102 0 6 182102 1
gene 2 3 6 -163387 0 7 -163387 1
gene 2 4 6 176628 0 8 176628 1
genomeend 64

/* Organism #65 Fitness: 0 Error: 0 */
genomestart 65
trait 1 88798 53798 99717 7258 24869 0 45412 0 
trait 2 2 0 0 0 0 0 0 0 
trait 3 3 0 0 0 0 0 0 0 
node 1 3 1 3
node 2 1 1 1
node 3 3 1 1
node 4 1 1 1
node 5 1 0 2
node 6 2 0 2
gene 2 1 5 66375 0 1 66375 1
gene 1 2 5 315348 0 2 315348 1
gene 2 3 5 -276435 0 3 -276435 1
gene 2 4 5 13941 0 4 13941 1
gene 3 1 6 -205046 0 5 -205046 1
gene 1 2 6 -224179 0 6 -224179 1
gene 2 3 6 -398140 0 7 -398140 1
gene 2 4 6 90189 0 8 90189 1
genomeend 65

/* Organism #66 Fitness: 40 Error: 0 */
genomestart 66
trait 1 88798 53798 99717 7258 24869 0 45412 0 
trait 2 2 0 0 0 0 0 0 0 
trait 3 3 0 0 0 0 0 0 0 
node 1 3 1 3
node 2 1 1 1
node 3 1 1 1
node 4 1 1 1
node 5 1 0 2
node 6 2 0 2
gene 2 1 5 250173 0 1 250173 1
gene 1 2 5 172077 0 2 172077 1
gene 2 3 5 -276435 0 3 -276435 1
gene 2 4 5 46008 0 4 46008 1
gene 3 1 6 -36275 0 5 -36275 1
gene 1 2 6 12026 0 6 12026 1
gene 2 3 6 -141634 0 7 -141634 1
gene 2 4 6 253305 0 8 253305 1
gene 3 5 5 13389 1 22 13389 1
genomeend 66

/* Organism #67 Fitness: 0 Error: 0 */
genomestart 67
trait 1 88798 53798 99717 7258 24869 0 45412 0 
trait 2 2 0 0 0 0 0 0 0 
trait 3 3 0 0 0 0 0 0 0 
node 1 3 1 3
node 2 1 1 1
node 3 1 1 1
node 4 1 1 1
node 5 1 0 2
node 6 2 0 2
gene 2 1 5 479247 0 1 479247 1
gene 1 2 5 41061 0 2 41061 1
gene 2 3 5 -134922 0 3 -134922 1
gene 2 4 5 152847 0 4 152847 1
gene 3 1 6 -91925 0 5 -91925 1
gene 1 2 6 185909 0 6 185909 1
gene 2 3 6 66500 0 7 66500 1
gene 2 4 6 264771 0 8 264771 1
genomeend 67

/* Organism #68 Fitness: 0 Error: 0 */
genomestart 68
trait 1 88798 53798 99717 7258 24869 0 45412 0 
trait 2 2 0 0 0 0 0 0 0 
trait 3 3 0 0 0 0 0 0 0 
node 1 3 1 3
node 2 1 1 1
node 3 1 1 1
node 4 1 1 1
node 5 1 0 2
node 6 2 0 2
gene 2 1 5 474471 0 1 474471 1
gene 1 2 5 123300 0 2 123300 1
gene 2 3 5 -362688 0 3 -362688 1
gene 2 4 5 184320 0 4 184320 1
gene 3 1 6 139246 0 5 139246 1
gene 1 2 6 144635 0 6 144635 1
gene 2 3 6 -141634 0 7 -141634 1
gene 2 4 6 349479 0 8 349479 1
genomeend 68

/* Organism #69 Fitness: 0 Error: 0 */
genomestart 69
trait 1 88798 53798 99717 7258 24869 0 45412 0 
trait 2 2 0 0 0 0 0 0 0 
trait 3 3 0 0 0 0 0 0 0 
node 1 3 1 3
node 2 1 1 1
node 3 1 1 1
node 4 1 1 1
node 5 1 0 2
node 6 2 0 2
gene 2 1 5 205929 0 1 205929 1
gene 1 2 5 339039 0 2 339039 1
gene 2 3 5 -440121 0 3 -440121 1
gene 2 4 5 204156 0 4 204156 1
gene 3 1 6 -34652 0 5 -34652 1
gene 1 2 6 194228 0 6 194228 1
gene 2 3 6 3503 0 7 3503 1
gene 2 4 6 473547 0 8 473547 1
genomeend 69

/* Organism #70 Fitness: 0 Error: 0 */
genomestart 70
trait 1 88798 53798 99717 7258 24869 0 45412 0 
trait 2 2 0 0 0 0 0 0 0 
trait 3 3 0 0 0 0 0 0 0 
node 1 3 1 3
node 2 1 1 1
node 3 1 1 1
node 4 1 1 1
node 5 1 0 2
node 6 2 0 2
gene 2 1 5 250173 0 1 250173 1
gene 1 2 5 216969 0 2 216969 1
gene 2 3 5 -22530 0 3 -22530 1
gene 2 4 5 180138 0 4 180138 1
gene 3 1 6 -334919 0 5 -334919 1
gene 1 2 6 -18397 0 6 -18397 1
gene 2 3 6 -381691 0 7 -381691 1
gene 2 4 6 354060 0 8 354060 1
genomeend 70

/* Species #26 : (Size 2) (AF 0) (Age 2)  */


/* Organism #71 Fitness: 0 Error: 0 */
genomestart 71
trait 1 88798 53798 99717 7258 24869 0 45412 0 
trait 2 2 0 0 0 0 0 0 0 
trait 3 3 0 0 0 0 0 0 0 
node 1 3 1 3
node 2 1 1 1
node 3 1 1 1
node 4 1 1 1
node 5 1 0 2
node 6 2 0 2
gene 2 1 5 153720 0 1 153720 1
gene 1 2 5 14274 0 2 14274 1
gene 2 3 5 -566025 0 3 -566025 1
gene 2 4 5 -103647 0 4 -103647 1
gene 3 1 6 210654 0 5 210654 1
gene 1 2 6 282378 0 6 282378 1
gene 2 3 6 -23863 0 7 -23863 1
gene 2 4 6 -1161 0 8 -1161 1
genomeend 71

/* Organism #72 Fitness: 0 Error: 0 */
genomestart 72
trait 1 88798 53798 99717 7258 24869 0 45412 0 
trait 2 2 0 0 0 0 0 0 0 
trait 3 3 0 0 0 0 0 0 0 
node 1 3 1 3
node 2 1 1 1
node 3 1 1 1
node 4 3 1 1
node 5 1 0 2
node 6 2 0 2
gene 2 1 5 301680 0 1 301680 1
gene 1 2 5 296784 0 2 296784 1
gene 2 3 5 -529593 0 3 -529593 1
gene 2 4 5 -218928 0 4 -218928 1
gene 3 1 6 66217 0 5 66217 1
gene 1 2 6 108296 0 6 108296 1
gene 2 3 6 55106 0 7 55106 1
gene 2 4 6 -36981 0 8 -36981 1
genomeend 72

/* Species #31 : (Size 1) (AF 0) (Age 1)  */


/* Organism #73 Fitness: 0 Error: 0 */
genomestart 73
trait 1 88798 53798 99717 7258 24869 0 45412 0 
trait 2 2 0 0 0 0 0 0 0 
trait 3 0 0 0 0 71893 35305 0 0 
node 1 3 1 3
node 2 1 1 1
node 3 1 1 1
node 4 1 1 1
node 5 1 0 2
node 6 2 0 2
gene 2 1 5 -5214 0 1 -5214 1
gene 1 2 5 -114138 0 2 -114138 1
gene 2 3 5 -403110 0 3 -403110 1
gene 2 4 5 264234 0 4 264234 1
gene 3 1 6 -119055 0 5 -119055 1
gene 1 2 6 12026 0 6 12026 1
gene 2 3 6 243651 0 7 243651 1
gene 2 4 6 20583 0 8 20583 1
genomeend 73

/* Species #32 : (Size 4) (AF 0) (Age 1)  */


/* Organism #74 Fitness: 0 Error: 0 */
genomestart 74
trait 1 88798 53798 99717 7258 24869 0 45412 0 
trait 2 2 0 0 0 0 0 0 0 
trait 3 3 0 0 0 0 0 0 0 
node 1 3 1 3
node 2 1 1 1
node 3 1 1 1
node 4 1 1 1
node 5 1 0 2
node 6 2 0 2
gene 2 1 5 28560 0 1 28560 1
gene 1 2 5 380370 0 2 380370 1
gene 2 3 5 -463632 0 3 -463632 1
gene 2 4 5 250083 0 4 250083 1
gene 3 1 6 -44981 0 5 -44981 1
gene 1 2 6 191750 0 6 191750 1
gene 2 3 6 -412369 0 7 -412369 1
gene 2 4 6 370254 0 8 370254 1
genomeend 74

/* Organism #75 Fitness: 0 Error: 0 */
genomestart 75
trait 1 88798 53798 99717 0 44991 0 45412 0 
trait 2 2 0 0 0 0 0 0 0 
trait 3 3 0 0 0 0 0 0 0 
node 1 3 1 3
node 2 1 1 1
node 3 1 1 1
node 4 1 1 1
node 5 1 0 2
node 6 2 0 2
gene 2 1 5 90414 0 1 90414 1
gene 1 2 5 453474 0 2 453474 1
gene 2 3 5 -335025 0 3 -335025 1
gene 2 4 5 291894 0 4 291894 1
gene 3 1 6 -14078 0 5 -14078 1
gene 1 2 6 -259338 0 6 -259338 1
gene 2 3 6 -354622 0 7 -354622 1
gene 2 4 6 122817 0 8 122817 1
genomeend 75

/* Organism #76 Fitness: 0 Error: 0 */
genomestart 76
trait 1 88798 53798 99717 7258 24869 0 45412 0 
trait 2 2 0 0 0 0 0 0 0 
trait 3 3 0 0 0 0 0 0 0 
node 1 3 1 3
node 2 1 1 1
node 3 1 1 1
node 4 1 1 1
node 5 1 0 2
node 6 2 0 2
gene 2 1 5 18954 0 1 18954 1
gene 1 2 5 136869 0 2 136869 1
gene 2 3 5 -270738 0 3 -270738 1
gene 2 4 5 42630 0 4 42630 1
gene 3 1 6 188707 0 5 188707 1
gene 1 2 6 271529 0 6 271529 1
gene 2 3 6 -361378 0 7 -361378 1
gene 2 4 6 521496 0 8 521496 1
genomeend 76

/* Organism #77 Fitness: 0 Error: 0 */
genomestart 77
trait 1 88798 53798 99717 7258 24869 0 45412 0 
trait 2 2 0 0 0 0 0 0 0 
trait 3 3 0 0 0 0 0 0 0 
node 1 3 1 3
node 2 1 1 1
node 3 1 1 1
node 4 3 1 1
node 5 1 0 2
node 6 2 0 2
gene 2 1 5 23568 0 1 23568 1
gene 1 2 5 -32784 0 2 -32784 1
gene 2 3 5 -20199 0 3 -20199 1
gene 2 4 5 300231 0 4 300231 1
gene 3 1 6 -36275 0 5 -36275 1
gene 1 2 6 75011 0 6 75011 1
gene 2 3 6 -440182 0 7 -440182 1
gene 2 4 6 253305 0 8 253305 1
genomeend 77

/* Species #33 : (Size 1) (AF 0) (Age 1)  */


/* Organism #78 Fitness: 0 Error: 0 */
genomestart 78
trait 1 88798 53798 99717 7258 24869 0 45412 0 
trait 2 2 0 0 0 0 0 0 0 
trait 3 3 0 0 0 0 0 0 0 
node 1 3 1 3
node 2 1 1 1
node 3 1 1 1
node 4 1 1 1
node 5 1 0 2
node 6 2 0 2
gene 2 1 5 -294075 0 1 -294075 1
gene 1 2 5 172077 0 2 172077 1
gene 2 3 5 -573678 0 3 -573678 1
gene 2 4 5 46398 0 4 46398 1
gene 3 1 6 -204374 0 5 -204374 1
gene 1 2 6 -263665 0 6 -263665 1
gene 2 3 6 -233416 0 7 -233416 1
gene 2 4 6 519924 0 8 519924 1
genomeend 78

/* Species #34 : (Size 3) (AF 0) (Age 1)  */


/* Organism #79 Fitness: 0 Error: 0 */
genomestart 79
trait 1 88798 53798 99717 7258 24869 0 45412 0 
trait 2 2 0 0 0 0 0 0 0 
trait 3 3 0 0 0 0 0 0 0 
node 1 3 1 3
node 2 1 1 1
node 3 1 1 1
node 4 2 1 1
node 5 1 0 2
node 6 2 0 2
gene 2 1 5 183591 0 1 183591 1
gene 1 2 5 -122634 0 2 -122634 1
gene 2 3 5 -450885 0 3 -450885 1
gene 2 4 5 -241425 0 4 -241425 1
gene 3 1 6 -303593 0 5 -303593 1
gene 1 2 6 266432 0 6 266432 1
gene 2 3 6 -28474 0 7 -28474 1
gene 2 4 6 80172 0 8 80172 1
genomeend 79

/* Organism #80 Fitness: 0 Error: 0 */
genomestart 80
trait 1 88798 53798 99717 7258 24869 0 45412 0 
trait 2 2 0 0 0 0 0 0 0 
trait 3 3 0 0 0 0 0 0 0 
node 1 3 1 3
node 2 1 1 1
node 3 1 1 1
node 4 1 1 1
node 5 1 0 2
node 6 2 0 2
gene 2 1 5 -11538 0 1 -11538 1
gene 1 2 5 264627 0 2 264627 1
gene 2 3 5 -439053 0 3 -439053 1
gene 2 4 5 -185376 0 4 -185376 1
gene 3 1 6 -288966 0 5 -288966 1
gene 1 2 6 266615 0 6 266615 1
gene 2 3 6 -325009 0 7 -325009 1
gene 2 4 6 140679 0 8 140679 1
genomeend 80

/* Organism #81 Fitness: 0 Error: 0 */
genomestart 81
trait 1 88798 53798 99717 7258 24869 0 45412 0 
trait 2 2 0 0 0 0 0 0 0 
trait 3 3 0 0 0 0 0 0 0 
node 1 3 1 3
node 2 1 1 1
node 3 1 1 1
node 4 1 1 1
node 5 1 0 2
node 6 2 0 2
gene 2 1 5 378384 0 1 378384 1
gene 1 2 5 21246 0 2 21246 1
gene 2 3 5 15882 0 3 15882 1
gene 2 4 5 -242004 0 4 -242004 1
gene 3 1 6 -316673 0 5 -316673 1
gene 1 2 6 3617 0 6 3617 1
gene 2 3 6 -93817 0 7 -93817 1
gene 2 4 6 117750 0 8 117750 1
genomeend 81

/* Species #35 : (Size 2) (AF 0) (Age 1)  */


/* Organism #82 Fitness: 0 Error: 0 */
genomestart 82
trait 1 88798 53798 99717 7258 24869 0 45412 0 
trait 2 2 0 0 0 0 0 0 0 
trait 3 3 0 0 0 0 0 0 0 
node 1 3 1 3
node 2 1 1 1
node 3 1 1 1
node 4 1 1 1
node 5 1 0 2
node 6 2 0 2
gene 2 1 5 351636 0 1 351636 1
gene 1 2 5 419643 0 2 419643 1
gene 2 3 5 -192540 0 3 -192540 1
gene 2 4 5 -249915 0 4 -249915 1
gene 3 1 6 -333269 0 5 -333269 1
gene 1 2 6 -274777 0 6 -274777 1
gene 2 3 6 -286783 0 7 -286783 1
gene 2 4 6 487572 0 8 487572 1
genomeend 82

/* Organism #83 Fitness: 0 Error: 0 */
genomestart 83
trait 1 88798 53798 99717 7258 24869 0 45412 0 
trait 2 2 0 0 0 0 0 0 0 
trait 3 3 0 0 0 0 0 0 0 
node 1 3 1 3
node 2 1 1 1
node 3 1 1 1
node 4 1 1 1
node 5 1 0 2
node 6 2 0 2
gene 2 1 5 394002 0 1 394002 1
gene 1 2 5 3948 0 2 3948 1
gene 2 3 5 -122571 0 3 -122571 1
gene 2 4 5 -204855 0 4 -204855 1
gene 3 1 6 -313724 0 5 -313724 1
gene 1 2 6 -97687 0 6 -97687 1
gene 2 3 6 -402193 0 7 -402193 1
gene 2 4 6 534048 0 8 534048 1
genomeend 83

/* Species #36 : (Size 7) (AF 0) (Age 1)  */


/* Organism #84 Fitness: 0 Error: 0 */
genomestart 84
trait 1 88798 53798 99717 7258 24869 0 45412 0 
trait 2 2 0 0 0 0 0 0 0 
trait 3 3 0 0 0 0 0 0 0 
node 1 3 1 3
node 2 1 1 1
node 3 1 1 1
node 4 1 1 1
node 5 1 0 2
node 6 2 0 2
gene 2 1 5 431436 0 1 431436 1
gene 1 2 5 3537 0 2 3537 1
gene 2 3 5 -522984 0 3 -522984 1
gene 2 4 5 185262 0 4 185262 1
gene 3 1 6 -231242 0 5 -231242 1
gene 1 2 6 12026 0 6 12026 1
gene 2 3 6 20393 0 7 20393 1
gene 2 4 6 370872 0 8 370872 1
genomeend 84

/* Organism #85 Fitness: 0 Error: 0 */
genomestart 85
trait 1 88798 53798 99717 7258 24869 0 45412 0 
trait 2 2 0 0 0 0 0 0 0 
trait 3 3 0 0 0 0 0 0 0 
node 1 3 1 3
node 2 1 1 1
node 3 1 1 1
node 4 1 1 1
node 5 1 0 2
node 6 2 0 2
gene 2 1 5 503811 0 1 503811 1
gene 1 2 5 84681 0 2 84681 1
gene 2 3 5 -455634 0 3 -455634 1
gene 2 4 5 -107466 0 4 -107466 1
gene 3 1 6 -286847 0 5 -286847 1
gene 1 2 6 120329 0 6 120329 1
gene 2 3 6 -333469 0 7 -333469 1
gene 2 4 6 379695 0 8 379695 1
genomeend 85

/* Organism #86 Fitness: 0 Error: 0 */
genomestart 86
trait 1 88798 53798 99717 7258 24869 0 45412 0 
trait 2 2 0 0 0 0 0 0 0 
trait 3 3 0 0 0 0 0 0 0 
node 1 3 1 3
node 2 1 1 1
node 3 1 1 1
node 4 1 1 1
node 5 1 0 2
node 6 2 0 2
gene 2 1 5 514650 0 1 514650 1
gene 1 2 5 135942 0 2 135942 1
gene 2 3 5 -539541 0 3 -539541 1
gene 2 4 5 317544 0 4 317544 1
gene 3 1 6 -123827 0 5 -123827 1
gene 1 2 6 -225631 0 6 -225631 1
gene 2 3 6 20765 0 7 20765 1
gene 2 4 6 381282 0 8 381282 1
genomeend 86

/* Organism #87 Fitness: 0 Error: 0 */
genomestart 87
trait 1 88798 53798 99717 7258 24869 0 45412 0 
trait 2 2 0 0 0 0 0 0 0 
trait 3 6560 0 0 0 0 0 0 0 
node 1 3 1 3
node 2 1 1 1
node 3 1 1 1
node 4 1 1 1
node 5 1 0 2
node 6 2 0 2
gene 2 1 5 467577 0 1 467577 1
gene 1 2 5 320814 0 2 320814 1
gene 2 3 5 -540627 0 3 -540627 1
gene 2 4 5 47685 0 4 47685 1
gene 3 1 6 -62225 0 5 -62225 1
gene 1 2 6 184007 0 6 184007 1
gene 2 3 6 144872 0 7 144872 1
gene 2 4 6 479040 0 8 479040 1
genomeend 87

/* Organism #88 Fitness: 0 Error: 0 */
genomestart 88
trait 1 88798 53798 99717 7258 24869 0 45412 0 
trait 2 2 0 0 0 0 0 0 0 
trait 3 3 0 0 0 0 0 0 0 
node 1 2 1 3
node 2 1 1 1
node 3 1 1 1
node 4 1 1 1
node 5 1 0 2
node 6 2 0 2
gene 2 1 5 511452 0 1 511452 1
gene 1 2 5 -115167 0 2 -115167 1
gene 2 3 5 -231165 0 3 -231165 1
gene 2 4 5 265161 0 4 265161 1
gene 3 1 6 -181091 0 5 -181091 1
gene 1 2 6 -156571 0 6 -156571 1
gene 2 3 6 -23680 0 7 -23680 1
gene 2 4 6 70827 0 8 70827 1
genomeend 88

/* Organism #89 Fitness: 0 Error: 0 */
genomestart 89
trait 1 88798 53798 99717 7258 24869 0 45412 0 
trait 2 2 0 0 0 0 0 0 0 
trait 3 3 0 0 0 0 0 0 0 
node 1 1 1 3
node 2 1 1 1
node 3 1 1 1
node 4 1 1 1
node 5 1 0 2
node 6 2 0 2
gene 2 1 5 169461 0 1 169461 1
gene 1 2 5 156759 0 2 156759 1
gene 2 3 5 -561858 0 3 -561858 1
gene 2 4 5 320694 0 4 320694 1
gene 3 1 6 -307736 0 5 -307736 1
gene 1 2 6 235034 0 6 235034 1
gene 2 3 6 84734 0 7 84734 1
gene 2 4 6 369591 0 8 369591 1
genomeend 89

/* Organism #90 Fitness: 0 Error: 0 */
genomestart 90
trait 1 88798 53798 99717 7258 24869 0 45412 0 
trait 2 38864 0 0 0 0 66960 76601 20203 
trait 3 3 0 0 0 0 0 0 0 
node 1 3 1 3
node 2 1 1 1
node 3 1 1 1
node 4 1 1 1
node 5 1 0 2
node 6 2 0 2
gene 2 1 5 522093 0 1 522093 1
gene 1 2 5 155454 0 2 155454 1
gene 2 3 5 -298920 0 3 -298920 1
gene 2 4 5 280944 0 4 280944 1
gene 3 1 6 -249491 0 5 -249491 1
gene 1 2 6 308537 0 6 308537 1
gene 2 3 6 -102829 0 7 -102829 1
gene 2 4 6 398544 0 8 398544 1
genomeend 90

/* Species #37 : (Size 3) (AF 0) (Age 1)  */


/* Organism #91 Fitness: 0 Error: 0 */
genomestart 91
trait 1 88798 53798 99717 7258 24869 0 45412 0 
trait 2 2 0 0 0 0 0 0 0 
trait 3 3 0 0 0 0 0 0 0 
node 1 3 1 3
node 2 1 1 1
node 3 1 1 1
node 4 1 1 1
node 5 1 0 2
node 6 2 0 2
gene 2 1 5 398550 0 1 398550 1
gene 1 2 5 296769 0 2 296769 1
gene 2 3 5 -420375 0 3 -420375 1
gene 2 4 5 334125 0 4 334125 1
gene 3 1 6 -182603 0 5 -182603 1
gene 1 2 6 -239671 0 6 -239671 1
gene 2 3 6 -210298 0 7 -210298 1
gene 2 4 6 26997 0 8 26997 1
genomeend 91

/* Organism #92 Fitness: 0 Error: 0 */
genomestart 92
trait 1 88798 53798 99717 7258 24869 0 45412 0 
trait 2 2 0 0 0 0 0 0 0 
trait 3 3 0 0 0 0 0 0 0 
node 1 3 1 3
node 2 1 1 1
node 3 1 1 1
node 4 1 1 1
node 5 1 0 2
node 6 2 0 2
gene 2 1 5 148932 0 1 148932 1
gene 1 2 5 342669 0 2 342669 1
gene 2 3 5 -74937 0 3 -74937 1
gene 2 4 5 224280 0 4 224280 1
gene 3 1 6 -289784 0 5 -289784 1
gene 1 2 6 -226330 0 6 -226330 1
gene 2 3 6 -363490 0 7 -363490 1
gene 2 4 6 112914 0 8 112914 1
genomeend 92

/* Organism #93 Fitness: 0 Error: 0 */
genomestart 93
trait 1 88798 53798 99717 7258 24869 0 45412 0 
trait 2 2 0 0 0 0 0 0 0 
trait 3 3 0 0 0 0 0 0 0 
node 1 3 1 3
node 2 1 1 1
node 3 1 1 1
node 4 1 1 1
node 5 1 0 2
node 6 2 0 2
gene 2 1 5 280011 0 1 280011 1
gene 1 2 5 464181 0 2 464181 1
gene 2 3 5 -72750 0 3 -72750 1
gene 2 4 5 317937 0 4 317937 1
gene 3 1 6 -277814 0 5 -277814 1
gene 1 2 6 -236797 0 6 -236797 1
gene 2 3 6 -27070 0 7 -27070 1
gene 2 4 6 221736 0 8 221736 1
genomeend 93

/* Species #38 : (Size 3) (AF 0) (Age 1)  */


/* Organism #94 Fitness: 0 Error: 0 */
genomestart 94
trait 1 88798 53798 99717 7258 24869 0 45412 0 
trait 2 2 0 0 0 0 0 0 0 
trait 3 3 0 0 0 0 0 0 0 
node 1 3 1 3
node 2 1 1 1
node 3 1 1 1
node 4 1 1 1
node 5 1 0 2
node 6 2 0 2
gene 2 1 5 113652 0 1 113652 1
gene 1 2 5 -79764 0 2 -79764 1
gene 2 3 5 -19899 0 3 -19899 1
gene 2 4 5 -97974 0 4 -97974 1
gene 3 1 6 -335261 0 5 -335261 1
gene 1 2 6 60695 0 6 60695 1
gene 2 3 6 -326137 0 7 -326137 1
gene 2 4 6 -21984 0 8 -21984 1
genomeend 94

/* Organism #95 Fitness: 0 Error: 0 */
genomestart 95
trait 1 88798 53798 99717 7258 24869 0 45412 0 
trait 2 2 0 0 0 0 0 0 0 
trait 3 3 0 0 0 0 0 0 0 
node 1 3 1 3
node 2 1 1 1
node 3 1 1 1
node 4 1 1 1
node 5 1 0 2
node 6 2 0 2
gene 2 1 5 541518 0 1 541518 1
gene 1 2 5 83139 0 2 83139 1
gene 2 3 5 14379 0 3 14379 1
gene 2 4 5 -83739 0 4 -83739 1
gene 3 1 6 13603 0 5 13603 1
gene 1 2 6 184935 0 6 184935 1
gene 2 3 6 -282582 0 7 -282582 1
gene 2 4 6 5880 0 8 5880 1
genomeend 95

/* Organism #96 Fitness: 0 Error: 0 */
genomestart 96
trait 1 88798 53798 99717 7258 24869 0 45412 0 
trait 2 2 0 0 0 0 0 0 0 
trait 3 3 0 0 0 0 0 0 0 
node 1 3 1 3
node 2 1 1 1
node 3 1 1 1
node 4 1 1 1
node 5 1 0 2
node 6 2 0 2
gene 2 1 5 16185 0 1 16185 1
gene 1 2 5 172077 0 2 172077 1
gene 2 3 5 -5460 0 3 -5460 1
gene 2 4 5 37923 0 4 37923 1
gene 3 1 6 -315971 0 5 -315971 1
gene 1 2 6 12026 0 6 12026 1
gene 2 3 6 -303655 0 7 -303655 1
gene 2 4 6 -223632 0 8 -223632 1
genomeend 96

/* Species #39 : (Size 1) (AF 0) (Age 1)  */


/* Organism #97 Fitness: 0 Error: 0 */
genomestart 97
trait 1 88798 53798 99717 7258 24869 0 45412 0 
trait 2 2 0 0 0 0 0 0 0 
trait 3 3 0 0 0 0 0 0 0 
node 1 3 1 3
node 2 1 1 1
node 3 1 1 1
node 4 1 1 1
node 5 1 0 2
node 6 2 0 2
gene 2 1 5 208071 0 1 208071 1
gene 1 2 5 432090 0 2 432090 1
gene 2 3 5 -565431 0 3 -565431 1
gene 2 4 5 290865 0 4 290865 1
gene 3 1 6 249562 0 5 249562 1
gene 1 2 6 254219 0 6 254219 1
gene 2 3 6 29894 0 7 29894 1
gene 2 4 6 500313 0 8 500313 1
genomeend 97

/* Species #40 : (Size 1) (AF 0) (Age 1)  */


/* Organism #98 Fitness: 0 Error: 0 */
genomestart 98
trait 1 88798 53798 99717 7258 24869 0 45412 0 
trait 2 2 0 0 0 0 0 0 0 
trait 3 3 0 0 0 0 0 0 0 
node 1 3 1 3
node 2 1 1 1
node 3 1 1 1
node 4 1 1 1
node 5 1 0 2
node 6 2 0 2
gene 2 1 5 38424 0 1 38424 1
gene 1 2 5 136254 0 2 136254 1
gene 2 3 5 -84624 0 3 -84624 1
gene 2 4 5 44487 0 4 44487 1
gene 3 1 6 -323066 0 5 -323066 1
gene 1 2 6 -198082 0 6 -198082 1
gene 2 3 6 -61468 0 7 -61468 1
gene 2 4 6 549807 0 8 549807 1
genomeend 98

/* Species #41 : (Size 1) (AF 0) (Age 1)  */


/* Organism #99 Fitness: 0 Error: 0 */
genomestart 99
trait 1 88798 53798 99717 7258 24869 0 45412 0 
trait 2 2 0 0 0 0 0 0 0 
trait 3 3 0 0 0 0 0 0 0 
node 1 2 1 3
node 2 1 1 1
node 3 1 1 1
node 4 1 1 1
node 5 1 0 2
node 6 2 0 2
gene 2 1 5 162621 0 1 162621 1
gene 1 2 5 -114105 0 2 -114105 1
gene 2 3 5 -401109 0 3 -401109 1
gene 2 4 5 43398 0 4 43398 1
gene 3 1 6 -329270 0 5 -329270 1
gene 1 2 6 119396 0 6 119396 1
gene 2 3 6 -291994 0 7 -291994 1
gene 2 4 6 496179 0 8 496179 1
genomeend 99
