
/* Species #311 : (Size 12) (AF 0) (Age 8)  */


/* Organism #0 Fitness: 0 Error: 0 */
genomestart 0
node 1 1 1 3
node 2 1 1 1
node 3 1 1 1
node 4 1 1 1
node 5 2 0 2
node 6 2 0 2
gene 2 1 5 -1.3904 0 1 -1.3904 1
gene 2 2 5 -1.62895 0 2 -1.62895 1
gene 3 3 5 -2.5285 0 3 -2.5285 1
gene 1 4 5 -4.09496 0 4 -4.09496 1
gene 2 1 6 -0.211482 0 5 -0.211482 1
gene 1 2 6 0.773502 0 6 0.773502 1
gene 1 3 6 -0.517338 0 7 -0.517338 1
gene 2 4 6 -5.73368 0 8 -5.73368 1
gene 1 6 5 1.03119 0 72 1.03119 1
genomeend 0

/* Organism #1 Fitness: 0 Error: 0 */
genomestart 1
node 1 1 1 3
node 2 1 1 1
node 3 1 1 1
node 4 1 1 1
node 5 2 0 2
node 6 2 0 2
gene 2 1 5 -1.30276 0 1 -1.30276 1
gene 2 2 5 0.0860852 0 2 0.0860852 1
gene 3 3 5 -2.92622 0 3 -2.92622 1
gene 1 4 5 -2.01256 0 4 -2.01256 1
gene 2 1 6 2.27931 0 5 2.27931 1
gene 1 2 6 -0.222994 0 6 -0.222994 1
gene 1 3 6 -2.69499 0 7 -2.69499 1
gene 2 4 6 -5.75178 0 8 -5.75178 1
gene 1 6 5 2.65727 0 72 2.65727 1
genomeend 1

/* Organism #2 Fitness: 0 Error: 0 */
genomestart 2
node 1 1 1 3
node 2 1 1 1
node 3 1 1 1
node 4 1 1 1
node 5 2 0 2
node 6 2 0 2
gene 2 1 5 -0.90046 0 1 -0.90046 1
gene 2 2 5 -0.417979 0 2 -0.417979 1
gene 3 3 5 -1.41939 0 3 -1.41939 1
gene 1 4 5 -1.1153 0 4 -1.1153 1
gene 2 1 6 0.0552188 0 5 0.0552188 1
gene 1 2 6 0.443496 0 6 0.443496 1
gene 1 3 6 -1.89881 0 7 -1.89881 1
gene 2 4 6 -6.69307 0 8 -6.69307 1
gene 1 6 5 2.68875 0 72 2.68875 1
genomeend 2

/* Organism #3 Fitness: 0 Error: 0 */
genomestart 3
node 1 1 1 3
node 2 1 1 1
node 3 2 1 1
node 4 1 1 1
node 5 2 0 2
node 6 2 0 2
gene 2 1 5 -1.44933 0 1 -1.44933 1
gene 2 2 5 0.261309 0 2 0.261309 1
gene 3 3 5 -0.929529 0 3 -0.929529 1
gene 1 4 5 -3.54082 0 4 -3.54082 1
gene 2 1 6 -0.321359 0 5 -0.321359 1
gene 1 2 6 1.79699 0 6 1.79699 1
gene 1 3 6 -1.29856 0 7 -1.29856 1
gene 2 4 6 -2.26141 0 8 -2.26141 1
gene 1 6 5 2.05656 0 72 2.05656 1
genomeend 3

/* Organism #4 Fitness: 0 Error: 0 */
genomestart 4
node 1 1 1 3
node 2 1 1 1
node 3 1 1 1
node 4 1 1 1
node 5 2 0 2
node 6 2 0 2
gene 2 1 5 -0.595519 0 1 -0.595519 1
gene 1 2 5 -2.93475 0 2 -2.93475 1
gene 3 3 5 -0.533832 0 3 -0.533832 1
gene 1 4 5 -0.263324 0 4 -0.263324 1
gene 2 1 6 1.81634 0 5 1.81634 1
gene 1 2 6 1.04833 0 6 1.04833 1
gene 1 3 6 -0.43003 0 7 -0.43003 1
gene 2 4 6 -5.33822 0 8 -5.33822 1
gene 1 6 5 -2.00527 0 72 -2.00527 1
genomeend 4

/* Organism #5 Fitness: 0 Error: 0 */
genomestart 5
node 1 1 1 3
node 2 1 1 1
node 3 1 1 1
node 4 1 1 1
node 5 3 0 2
node 6 2 0 2
gene 2 1 5 0.385306 0 1 0.385306 1
gene 2 2 5 0.62536 0 2 0.62536 1
gene 3 3 5 -1.5301 0 3 -1.5301 1
gene 1 4 5 -0.190782 0 4 -0.190782 1
gene 2 1 6 2.63037 0 5 2.63037 1
gene 1 2 6 0.0342823 0 6 0.0342823 1
gene 1 3 6 -2.34594 0 7 -2.34594 1
gene 2 4 6 -7.6133 0 8 -7.6133 1
gene 1 6 5 2.33946 0 72 2.33946 1
genomeend 5

/* Organism #6 Fitness: 0 Error: 0 */
genomestart 6
node 1 1 1 3
node 2 1 1 1
node 3 1 1 1
node 4 1 1 1
node 5 2 0 2
node 6 2 0 2
gene 2 1 5 -0.6885 0 1 -0.6885 1
gene 2 2 5 -1.80256 0 2 -1.80256 1
gene 3 3 5 0.280419 0 3 0.280419 1
gene 1 4 5 -1.12305 0 4 -1.12305 1
gene 2 1 6 1.89206 0 5 1.89206 1
gene 1 2 6 2.74523 0 6 2.74523 1
gene 1 3 6 -1.8181 0 7 -1.8181 1
gene 2 4 6 -8 0 8 -8 1
gene 1 6 5 0.923098 0 72 0.923098 1
genomeend 6

/* Organism #7 Fitness: 0 Error: 0 */
genomestart 7
node 1 1 1 3
node 2 1 1 1
node 3 1 1 1
node 4 1 1 1
node 5 2 0 2
node 6 2 0 2
gene 2 1 5 -0.108221 0 1 -0.108221 1
gene 2 2 5 -1.36963 0 2 -1.36963 1
gene 3 3 5 0.473972 0 3 0.473972 1
gene 1 4 5 2.20405 0 4 2.20405 1
gene 2 1 6 2.42774 0 5 2.42774 1
gene 1 2 6 1.88324 0 6 1.88324 1
gene 1 3 6 -3.21975 0 7 -3.21975 1
gene 2 4 6 -6.62338 0 8 -6.62338 1
gene 1 6 5 1.13307 0 72 1.13307 1
genomeend 7

/* Organism #8 Fitness: 0 Error: 0 */
genomestart 8
node 1 1 1 3
node 2 1 1 1
node 3 1 1 1
node 4 1 1 1
node 5 2 0 2
node 6 2 0 2
gene 2 1 5 -0.737044 0 1 -0.737044 1
gene 2 2 5 -1.24602 0 2 -1.24602 1
gene 3 3 5 0.584042 0 3 0.584042 1
gene 1 4 5 -2.91689 0 4 -2.91689 1
gene 2 1 6 1.09555 0 5 1.09555 1
gene 1 2 6 -0.455549 0 6 -0.455549 1
gene 1 3 6 -0.45509 0 7 -0.45509 1
gene 2 4 6 -8 0 8 -8 1
gene 1 6 5 2.1511 0 72 2.1511 1
genomeend 8

/* Organism #9 Fitness: 0 Error: 0 */
genomestart 9
node 1 1 1 3
node 2 1 1 1
node 3 1 1 1
node 4 1 1 1
node 5 2 0 2
node 6 2 0 2
gene 2 1 5 -0.0278731 0 1 -0.0278731 1
gene 2 2 5 -1.1411 0 2 -1.1411 1
gene 3 3 5 -0.492613 0 3 -0.492613 1
gene 1 4 5 0.856948 0 4 0.856948 1
gene 2 1 6 0.549819 0 5 0.549819 1
gene 1 2 6 -0.220908 0 6 -0.220908 1
gene 1 3 6 -3.55139 0 7 -3.55139 1
gene 2 4 6 -7.50018 0 8 -7.50018 1
gene 1 6 5 -0.0291164 0 72 -0.0291164 1
genomeend 9

/* Organism #10 Fitness: 0 Error: 0 */
genomestart 10
node 1 1 1 3
node 2 1 1 1
node 3 1 1 1
node 4 1 1 1
node 5 2 0 2
node 6 2 0 2
gene 2 1 5 -0.826558 0 1 -0.826558 1
gene 2 2 5 0.511479 0 2 0.511479 1
gene 3 3 5 -1.44147 0 3 -1.44147 1
gene 1 4 5 -0.837541 0 4 -0.837541 1
gene 2 1 6 -0.811879 0 5 -0.811879 1
gene 1 2 6 3.97227 0 6 3.97227 1
gene 1 3 6 -1.0034 0 7 -1.0034 1
gene 2 4 6 -6.1155 0 8 -6.1155 1
gene 1 6 5 0.43943 0 72 0.43943 1
genomeend 10

/* Organism #11 Fitness: 0 Error: 0 */
genomestart 11
node 1 1 1 3
node 2 1 1 1
node 3 1 1 1
node 4 1 1 1
node 5 2 0 2
node 6 2 0 2
gene 2 1 5 0.568293 0 1 0.568293 1
gene 2 2 5 -1.57743 0 2 -1.57743 1
gene 3 3 5 -0.926077 0 3 -0.926077 1
gene 1 4 5 -2.4811 0 4 -2.4811 1
gene 2 1 6 0.500492 0 5 0.500492 1
gene 1 2 6 0.798975 0 6 0.798975 1
gene 1 3 6 -0.0921703 0 7 -0.0921703 1
gene 2 4 6 -5.65243 0 8 -5.65243 1
gene 1 6 5 0.988454 0 72 0.988454 1
genomeend 11

/* Species #362 : (Size 30) (AF 0) (Age 3)  */


/* Organism #12 Fitness: 0 Error: 0 */
genomestart 12
node 1 1 1 3
node 2 1 1 1
node 3 1 1 1
node 4 1 1 1
node 5 2 0 2
node 6 2 0 2
gene 2 1 5 -1.89815 0 1 -1.89815 1
gene 2 2 5 -1.80256 0 2 -1.80256 1
gene 3 3 5 -1.5301 0 3 -1.5301 1
gene 1 4 5 -1.68224 0 4 -1.68224 1
gene 2 1 6 1.27628 0 5 1.27628 1
gene 1 2 6 1.88324 0 6 1.88324 1
gene 1 3 6 -1.8181 0 7 -1.8181 1
gene 2 4 6 -7.50018 0 8 -7.50018 1
gene 1 6 5 0.197945 0 72 0.197945 1
genomeend 12

/* Organism #13 Fitness: 0 Error: 0 */
genomestart 13
node 1 1 1 3
node 2 1 1 1
node 3 1 1 1
node 4 1 1 1
node 5 2 0 2
node 6 2 0 2
gene 2 1 5 -1.61415 0 1 -1.61415 1
gene 2 2 5 -0.103131 0 2 -0.103131 1
gene 3 3 5 -2.65998 0 3 -2.65998 1
gene 1 4 5 -1.70503 0 4 -1.70503 1
gene 2 1 6 0.00599693 0 5 0.00599693 1
gene 1 2 6 0.908759 0 6 0.908759 1
gene 1 3 6 -1.8181 0 7 -1.8181 1
gene 2 4 6 -7.41712 0 8 -7.41712 1
gene 1 6 5 -1.55152 0 72 -1.55152 1
genomeend 13

/* Organism #14 Fitness: 0 Error: 0 */
genomestart 14
node 1 1 1 3
node 2 1 1 1
node 3 1 1 1
node 4 1 1 1
node 5 2 0 2
node 6 2 0 2
gene 2 1 5 -1.89815 0 1 -1.89815 1
gene 2 2 5 -1.80256 0 2 -1.80256 1
gene 3 3 5 -1.5301 0 3 -1.5301 1
gene 1 4 5 -1.68224 0 4 -1.68224 1
gene 2 1 6 1.27628 0 5 1.27628 1
gene 1 2 6 1.88324 0 6 1.88324 1
gene 1 3 6 -1.8181 0 7 -1.8181 1
gene 2 4 6 -7.50018 0 8 -7.50018 1
gene 1 6 5 0.197945 0 72 0.197945 1
genomeend 14

/* Organism #15 Fitness: 0 Error: 0 */
genomestart 15
node 1 1 1 3
node 2 1 1 1
node 3 1 1 1
node 4 1 1 1
node 5 2 0 2
node 6 2 0 2
gene 2 1 5 -1.10694 0 1 -1.10694 1
gene 2 2 5 -0.235651 0 2 -0.235651 1
gene 3 3 5 -1.34248 0 3 -1.34248 1
gene 1 4 5 -1.66803 0 4 -1.66803 1
gene 2 1 6 0.59607 0 5 0.59607 1
gene 1 2 6 3.42046 0 6 3.42046 1
gene 1 3 6 -2.09953 0 7 -2.09953 1
gene 2 4 6 -7.15857 0 8 -7.15857 1
gene 1 6 5 -0.341753 0 72 -0.341753 1
genomeend 15

/* Organism #16 Fitness: 0 Error: 0 */
genomestart 16
node 1 1 1 3
node 2 1 1 1
node 3 1 1 1
node 4 1 1 1
node 5 2 0 2
node 6 2 0 2
gene 2 1 5 -1.77601 0 1 -1.77601 1
gene 2 2 5 -2.94851 0 2 -2.94851 1
gene 3 3 5 -2.41897 0 3 -2.41897 1
gene 1 4 5 -1.79107 0 4 -1.79107 1
gene 2 1 6 0.976213 0 5 0.976213 1
gene 1 2 6 2.64309 0 6 2.64309 1
gene 1 3 6 -3.44875 0 7 -3.44875 1
gene 2 4 6 -7.54755 0 8 -7.54755 1
gene 1 6 5 1.28578 0 72 1.28578 1
genomeend 16

/* Organism #17 Fitness: 0 Error: 0 */
genomestart 17
node 1 1 1 3
node 2 1 1 1
node 3 1 1 1
node 4 1 1 1
node 5 2 0 2
node 6 2 0 2
gene 2 1 5 -1.89815 0 1 -1.89815 1
gene 2 2 5 -1.80256 0 2 -1.80256 1
gene 3 3 5 -1.5301 0 3 -1.5301 1
gene 1 4 5 -1.68224 0 4 -1.68224 1
gene 2 1 6 1.27628 0 5 1.27628 1
gene 1 2 6 1.88324 0 6 1.88324 1
gene 1 3 6 -1.8181 0 7 -1.8181 1
gene 2 4 6 -7.50018 0 8 -7.50018 1
gene 1 6 5 0.197945 0 72 0.197945 1
genomeend 17

/* Organism #18 Fitness: 0 Error: 0 */
genomestart 18
node 1 1 1 3
node 2 1 1 1
node 3 1 1 1
node 4 1 1 1
node 5 2 0 2
node 6 2 0 2
gene 2 1 5 -1.89815 0 1 -1.89815 1
gene 2 2 5 -1.80256 0 2 -1.80256 1
gene 3 3 5 -1.5301 0 3 -1.5301 1
gene 1 4 5 -1.68224 0 4 -1.68224 1
gene 2 1 6 1.27628 0 5 1.27628 1
gene 1 2 6 1.88324 0 6 1.88324 1
gene 1 3 6 -1.8181 0 7 -1.8181 1
gene 2 4 6 -7.50018 0 8 -7.50018 1
gene 1 6 5 0.197945 0 72 0.197945 1
genomeend 18

/* Organism #19 Fitness: 0 Error: 0 */
genomestart 19
node 1 1 1 3
node 2 1 1 1
node 3 1 1 1
node 4 1 1 1
node 5 2 0 2
node 6 2 0 2
gene 2 1 5 -1.89815 0 1 -1.89815 1
gene 2 2 5 -1.80256 0 2 -1.80256 1
gene 3 3 5 -1.5301 0 3 -1.5301 1
gene 1 4 5 -1.68224 0 4 -1.68224 1
gene 2 1 6 1.27628 0 5 1.27628 1
gene 1 2 6 1.88324 0 6 1.88324 1
gene 1 3 6 -1.8181 0 7 -1.8181 1
gene 2 4 6 -7.50018 0 8 -7.50018 1
gene 1 6 5 0.197945 0 72 0.197945 1
genomeend 19

/* Organism #20 Fitness: 0 Error: 0 */
genomestart 20
node 1 1 1 3
node 2 1 1 1
node 3 1 1 1
node 4 1 1 1
node 5 2 0 2
node 6 2 0 2
gene 2 1 5 -2.53876 0 1 -2.53876 1
gene 2 2 5 -1.02623 0 2 -1.02623 1
gene 3 3 5 0.194061 0 3 0.194061 1
gene 1 4 5 -2.30722 0 4 -2.30722 1
gene 2 1 6 -1.58841 0 5 -1.58841 1
gene 1 2 6 2.91059 0 6 2.91059 1
gene 1 3 6 -0.299819 0 7 -0.299819 1
gene 2 4 6 -8 0 8 -8 1
gene 1 6 5 -1.81462 0 72 -1.81462 1
genomeend 20

/* Organism #21 Fitness: 0 Error: 0 */
genomestart 21
node 1 1 1 3
node 2 1 1 1
node 3 1 1 1
node 4 1 1 1
node 5 2 0 2
node 6 2 0 2
gene 2 1 5 -3.49065 0 1 -3.49065 1
gene 2 2 5 -1.77735 0 2 -1.77735 1
gene 3 3 5 0.477836 0 3 0.477836 1
gene 1 4 5 -0.755309 0 4 -0.755309 1
gene 2 1 6 -1.55912 0 5 -1.55912 1
gene 1 2 6 1.65208 0 6 1.65208 1
gene 1 3 6 -0.854705 0 7 -0.854705 1
gene 2 4 6 -8 0 8 -8 1
gene 1 6 5 1.20706 0 72 1.20706 1
genomeend 21

/* Organism #22 Fitness: 0 Error: 0 */
genomestart 22
node 1 1 1 3
node 2 1 1 1
node 3 1 1 1
node 4 1 1 1
node 5 2 0 2
node 6 2 0 2
gene 2 1 5 -1.89815 0 1 -1.89815 1
gene 2 2 5 -1.80256 0 2 -1.80256 1
gene 3 3 5 -1.5301 0 3 -1.5301 1
gene 1 4 5 -1.68224 0 4 -1.68224 1
gene 2 1 6 1.27628 0 5 1.27628 1
gene 1 2 6 1.88324 0 6 1.88324 1
gene 1 3 6 -1.8181 0 7 -1.8181 1
gene 2 4 6 -7.50018 0 8 -7.50018 1
gene 1 6 5 0.197945 0 72 0.197945 1
genomeend 22

/* Organism #23 Fitness: 0 Error: 0 */
genomestart 23
node 1 1 1 3
node 2 1 1 1
node 3 1 1 1
node 4 1 1 1
node 5 2 0 2
node 6 2 0 2
gene 2 1 5 -1.89815 0 1 -1.89815 1
gene 2 2 5 -1.80256 0 2 -1.80256 1
gene 3 3 5 -1.5301 0 3 -1.5301 1
gene 1 4 5 -1.68224 0 4 -1.68224 1
gene 2 1 6 1.27628 0 5 1.27628 1
gene 1 2 6 1.88324 0 6 1.88324 1
gene 1 3 6 -1.8181 0 7 -1.8181 1
gene 2 4 6 -7.50018 0 8 -7.50018 1
gene 1 6 5 0.197945 0 72 0.197945 1
genomeend 23

/* Organism #24 Fitness: 0 Error: 0 */
genomestart 24
node 1 1 1 3
node 2 1 1 1
node 3 1 1 1
node 4 1 1 1
node 5 2 0 2
node 6 2 0 2
gene 2 1 5 -2.0257 0 1 -2.0257 1
gene 2 2 5 -2.13527 0 2 -2.13527 1
gene 3 3 5 -2.75056 0 3 -2.75056 1
gene 1 4 5 -0.481775 0 4 -0.481775 1
gene 2 1 6 0.578191 0 5 0.578191 1
gene 1 2 6 4.25437 0 6 4.25437 1
gene 1 3 6 -1.34974 0 7 -1.34974 1
gene 2 4 6 -8 0 8 -8 1
gene 1 6 5 -0.421222 0 72 -0.421222 1
genomeend 24

/* Organism #25 Fitness: 0 Error: 0 */
genomestart 25
node 1 1 1 3
node 2 1 1 1
node 3 1 1 1
node 4 1 1 1
node 5 2 0 2
node 6 2 0 2
gene 2 1 5 -1.50681 0 1 -1.50681 1
gene 2 2 5 -1.78786 0 2 -1.78786 1
gene 3 3 5 -3.7309 0 3 -3.7309 1
gene 1 4 5 -1.68224 0 4 -1.68224 1
gene 2 1 6 -1.97471 0 5 -1.97471 1
gene 1 2 6 1.88324 0 6 1.88324 1
gene 1 3 6 -2.95307 0 7 -2.95307 1
gene 2 4 6 -7.04176 0 8 -7.04176 1
gene 1 6 5 0.703367 0 72 0.703367 1
genomeend 25

/* Organism #26 Fitness: 0 Error: 0 */
genomestart 26
node 1 1 1 3
node 2 1 1 1
node 3 1 1 1
node 4 1 1 1
node 5 2 0 2
node 6 2 0 2
gene 2 1 5 -1.89815 0 1 -1.89815 1
gene 2 2 5 -1.80256 0 2 -1.80256 1
gene 3 3 5 -1.5301 0 3 -1.5301 1
gene 1 4 5 -1.68224 0 4 -1.68224 1
gene 2 1 6 1.27628 0 5 1.27628 1
gene 1 2 6 1.88324 0 6 1.88324 1
gene 1 3 6 -1.8181 0 7 -1.8181 1
gene 2 4 6 -7.50018 0 8 -7.50018 1
gene 1 6 5 0.197945 0 72 0.197945 1
genomeend 26

/* Organism #27 Fitness: 0 Error: 0 */
genomestart 27
node 1 1 1 3
node 2 1 1 1
node 3 1 1 1
node 4 1 1 1
node 5 2 0 2
node 6 2 0 2
gene 2 1 5 -1.89815 0 1 -1.89815 1
gene 2 2 5 -4.06887 0 2 -4.06887 1
gene 3 3 5 -1.5301 0 3 -1.5301 1
gene 1 4 5 -0.719894 0 4 -0.719894 1
gene 2 1 6 0.834555 0 5 0.834555 1
gene 1 2 6 3.43444 0 6 3.43444 1
gene 1 3 6 -1.15723 0 7 -1.15723 1
gene 2 4 6 -5.73051 0 8 -5.73051 1
gene 1 6 5 -0.0765737 0 72 -0.0765737 1
genomeend 27

/* Organism #28 Fitness: 0 Error: 0 */
genomestart 28
node 1 1 1 3
node 2 1 1 1
node 3 1 1 1
node 4 1 1 1
node 5 2 0 2
node 6 2 0 2
gene 2 1 5 -1.89815 0 1 -1.89815 1
gene 2 2 5 -1.80256 0 2 -1.80256 1
gene 3 3 5 -1.5301 0 3 -1.5301 1
gene 1 4 5 -1.68224 0 4 -1.68224 1
gene 2 1 6 1.27628 0 5 1.27628 1
gene 1 2 6 1.88324 0 6 1.88324 1
gene 1 3 6 -1.8181 0 7 -1.8181 1
gene 2 4 6 -7.50018 0 8 -7.50018 1
gene 1 6 5 0.197945 0 72 0.197945 1
genomeend 28

/* Organism #29 Fitness: 0 Error: 0 */
genomestart 29
node 1 1 1 3
node 2 1 1 1
node 3 1 1 1
node 4 1 1 1
node 5 2 0 2
node 6 2 0 2
gene 2 1 5 -1.92906 0 1 -1.92906 1
gene 2 2 5 -0.54738 0 2 -0.54738 1
gene 3 3 5 -3.53512 0 3 -3.53512 1
gene 1 4 5 -0.440692 0 4 -0.440692 1
gene 2 1 6 -1.04627 0 5 -1.04627 1
gene 1 2 6 1.36861 0 6 1.36861 1
gene 1 3 6 -0.334463 0 7 -0.334463 1
gene 2 4 6 -7.09396 0 8 -7.09396 1
gene 1 6 5 -1.07155 0 72 -1.07155 1
genomeend 29

/* Organism #30 Fitness: 0 Error: 0 */
genomestart 30
node 1 1 1 3
node 2 1 1 1
node 3 1 1 1
node 4 1 1 1
node 5 2 0 2
node 6 2 0 2
gene 2 1 5 -1.62924 0 1 -1.62924 1
gene 2 2 5 -3.07472 0 2 -3.07472 1
gene 3 3 5 -1.81254 0 3 -1.81254 1
gene 1 4 5 0.5624 0 4 0.5624 1
gene 2 1 6 0.286041 0 5 0.286041 1
gene 1 2 6 4.16258 0 6 4.16258 1
gene 1 3 6 -3.85205 0 7 -3.85205 1
gene 2 4 6 -6.39407 0 8 -6.39407 1
gene 1 6 5 -2.16513 0 72 -2.16513 1
genomeend 30

/* Organism #31 Fitness: 0 Error: 0 */
genomestart 31
node 1 1 1 3
node 2 1 1 1
node 3 1 1 1
node 4 1 1 1
node 5 2 0 2
node 6 2 0 2
gene 2 1 5 -1.89815 0 1 -1.89815 1
gene 2 2 5 -1.80256 0 2 -1.80256 1
gene 3 3 5 -1.5301 0 3 -1.5301 1
gene 1 4 5 -1.68224 0 4 -1.68224 1
gene 2 1 6 1.27628 0 5 1.27628 1
gene 1 2 6 1.88324 0 6 1.88324 1
gene 1 3 6 -1.8181 0 7 -1.8181 1
gene 2 4 6 -7.50018 0 8 -7.50018 1
gene 1 6 5 0.197945 0 72 0.197945 1
genomeend 31

/* Organism #32 Fitness: 0 Error: 0 */
genomestart 32
node 1 1 1 3
node 2 1 1 1
node 3 1 1 1
node 4 1 1 1
node 5 2 0 2
node 6 2 0 2
gene 2 1 5 -1.89815 0 1 -1.89815 1
gene 2 2 5 -1.80256 0 2 -1.80256 1
gene 3 3 5 -1.5301 0 3 -1.5301 1
gene 1 4 5 -1.68224 0 4 -1.68224 1
gene 2 1 6 1.27628 0 5 1.27628 1
gene 1 2 6 1.88324 0 6 1.88324 1
gene 1 3 6 -1.8181 0 7 -1.8181 1
gene 2 4 6 -7.50018 0 8 -7.50018 1
gene 1 6 5 0.197945 0 72 0.197945 1
genomeend 32

/* Organism #33 Fitness: 0 Error: 0 */
genomestart 33
node 1 1 1 3
node 2 1 1 1
node 3 1 1 1
node 4 1 1 1
node 5 2 0 2
node 6 2 0 2
gene 2 1 5 -1.89815 0 1 -1.89815 1
gene 2 2 5 -1.80256 0 2 -1.80256 1
gene 3 3 5 -1.5301 0 3 -1.5301 1
gene 1 4 5 -1.68224 0 4 -1.68224 1
gene 2 1 6 1.27628 0 5 1.27628 1
gene 1 2 6 1.88324 0 6 1.88324 1
gene 1 3 6 -1.8181 0 7 -1.8181 1
gene 2 4 6 -7.50018 0 8 -7.50018 1
gene 1 6 5 0.197945 0 72 0.197945 1
genomeend 33

/* Organism #34 Fitness: 0 Error: 0 */
genomestart 34
node 1 1 1 3
node 2 1 1 1
node 3 1 1 1
node 4 1 1 1
node 5 2 0 2
node 6 2 0 2
gene 2 1 5 -3.83188 0 1 -3.83188 1
gene 2 2 5 -2.11086 0 2 -2.11086 1
gene 3 3 5 -0.301167 0 3 -0.301167 1
gene 1 4 5 -0.795737 0 4 -0.795737 1
gene 2 1 6 0.737282 0 5 0.737282 1
gene 1 2 6 3.09256 0 6 3.09256 1
gene 1 3 6 -2.74878 0 7 -2.74878 1
gene 2 4 6 -7.40714 0 8 -7.40714 1
gene 1 6 5 1.51631 0 72 1.51631 1
genomeend 34

/* Organism #35 Fitness: 0 Error: 0 */
genomestart 35
node 1 1 1 3
node 2 1 1 1
node 3 1 1 1
node 4 1 1 1
node 5 2 0 2
node 6 2 0 2
gene 2 1 5 -2.12595 0 1 -2.12595 1
gene 2 2 5 -3.11442 0 2 -3.11442 1
gene 3 3 5 -1.75541 0 3 -1.75541 1
gene 1 4 5 0.25775 0 4 0.25775 1
gene 2 1 6 1.02296 0 5 1.02296 1
gene 1 2 6 2.25428 0 6 2.25428 1
gene 1 3 6 -1.8181 0 7 -1.8181 1
gene 2 4 6 -5.16303 0 8 -5.16303 1
gene 1 6 5 -2.27035 0 72 -2.27035 1
genomeend 35

/* Organism #36 Fitness: 0 Error: 0 */
genomestart 36
node 1 1 1 3
node 2 1 1 1
node 3 1 1 1
node 4 1 1 1
node 5 2 0 2
node 6 2 0 2
gene 2 1 5 -2.18672 0 1 -2.18672 1
gene 2 2 5 -3.95437 0 2 -3.95437 1
gene 3 3 5 -2.74447 0 3 -2.74447 1
gene 1 4 5 -0.891604 0 4 -0.891604 1
gene 2 1 6 0.91213 0 5 0.91213 1
gene 1 2 6 0.211375 0 6 0.211375 1
gene 1 3 6 -3.69619 0 7 -3.69619 1
gene 2 4 6 -7.50018 0 8 -7.50018 1
gene 1 6 5 -0.619224 0 72 -0.619224 1
genomeend 36

/* Organism #37 Fitness: 0 Error: 0 */
genomestart 37
node 1 1 1 3
node 2 1 1 1
node 3 1 1 1
node 4 1 1 1
node 5 2 0 2
node 6 2 0 2
gene 2 1 5 -1.89815 0 1 -1.89815 1
gene 2 2 5 -1.80256 0 2 -1.80256 1
gene 3 3 5 -1.5301 0 3 -1.5301 1
gene 1 4 5 -1.68224 0 4 -1.68224 1
gene 2 1 6 1.27628 0 5 1.27628 1
gene 1 2 6 1.88324 0 6 1.88324 1
gene 1 3 6 -1.8181 0 7 -1.8181 1
gene 2 4 6 -7.50018 0 8 -7.50018 1
gene 1 6 5 0.197945 0 72 0.197945 1
genomeend 37

/* Organism #38 Fitness: 0 Error: 0 */
genomestart 38
node 1 1 1 3
node 2 1 1 1
node 3 1 1 1
node 4 1 1 1
node 5 2 0 2
node 6 2 0 2
gene 2 1 5 -1.89815 0 1 -1.89815 1
gene 2 2 5 -1.80256 0 2 -1.80256 1
gene 3 3 5 -1.5301 0 3 -1.5301 1
gene 1 4 5 -1.68224 0 4 -1.68224 1
gene 2 1 6 1.27628 0 5 1.27628 1
gene 1 2 6 1.88324 0 6 1.88324 1
gene 1 3 6 -1.8181 0 7 -1.8181 1
gene 2 4 6 -7.50018 0 8 -7.50018 1
gene 1 6 5 0.197945 0 72 0.197945 1
genomeend 38

/* Organism #39 Fitness: 0 Error: 0 */
genomestart 39
node 1 1 1 3
node 2 1 1 1
node 3 1 1 1
node 4 1 1 1
node 5 2 0 2
node 6 2 0 2
gene 2 1 5 -1.89815 0 1 -1.89815 1
gene 2 2 5 -1.80256 0 2 -1.80256 1
gene 3 3 5 -1.5301 0 3 -1.5301 1
gene 1 4 5 -1.68224 0 4 -1.68224 1
gene 2 1 6 1.27628 0 5 1.27628 1
gene 1 2 6 1.88324 0 6 1.88324 1
gene 1 3 6 -1.8181 0 7 -1.8181 1
gene 2 4 6 -7.50018 0 8 -7.50018 1
gene 1 6 5 0.197945 0 72 0.197945 1
genomeend 39

/* Organism #40 Fitness: 0 Error: 0 */
genomestart 40
node 1 1 1 3
node 2 1 1 1
node 3 1 1 1
node 4 1 1 1
node 5 2 0 2
node 6 2 0 2
gene 2 1 5 -1.89815 0 1 -1.89815 1
gene 2 2 5 -1.80256 0 2 -1.80256 1
gene 3 3 5 -1.5301 0 3 -1.5301 1
gene 1 4 5 -1.68224 0 4 -1.68224 1
gene 2 1 6 1.27628 0 5 1.27628 1
gene 1 2 6 1.88324 0 6 1.88324 1
gene 1 3 6 -1.8181 0 7 -1.8181 1
gene 2 4 6 -7.50018 0 8 -7.50018 1
gene 1 6 5 0.197945 0 72 0.197945 1
genomeend 40

/* Organism #41 Fitness: 0 Error: 0 */
genomestart 41
node 1 1 1 3
node 2 1 1 1
node 3 1 1 1
node 4 1 1 1
node 5 2 0 2
node 6 2 0 2
gene 2 1 5 -1.89815 0 1 -1.89815 1
gene 2 2 5 -1.80256 0 2 -1.80256 1
gene 3 3 5 -1.5301 0 3 -1.5301 1
gene 1 4 5 -1.68224 0 4 -1.68224 1
gene 2 1 6 1.27628 0 5 1.27628 1
gene 1 2 6 1.88324 0 6 1.88324 1
gene 1 3 6 -1.8181 0 7 -1.8181 1
gene 2 4 6 -7.50018 0 8 -7.50018 1
gene 1 6 5 0.197945 0 72 0.197945 1
genomeend 41

/* Species #374 : (Size 42) (AF 0) (Age 2)  */


/* Organism #42 Fitness: 0 Error: 0 */
genomestart 42
node 1 1 1 3
node 2 1 1 1
node 3 1 1 1
node 4 1 1 1
node 5 2 0 2
node 6 2 0 2
gene 2 1 5 -2.77332 0 1 -2.77332 1
gene 2 2 5 -0.944522 0 2 -0.944522 1
gene 3 3 5 -3.23396 0 3 -3.23396 1
gene 1 4 5 -1.74707 0 4 -1.74707 1
gene 2 1 6 1.10084 0 5 1.10084 1
gene 1 2 6 1.07238 0 6 1.07238 1
gene 1 3 6 -0.0262675 0 7 -0.0262675 1
gene 2 4 6 -8 0 8 -8 1
gene 1 6 5 1.37872 0 72 1.37872 1
genomeend 42

/* Organism #43 Fitness: 0 Error: 0 */
genomestart 43
node 1 1 1 3
node 2 1 1 1
node 3 1 1 1
node 4 3 1 1
node 5 2 0 2
node 6 2 0 2
gene 2 1 5 -3.14995 0 1 -3.14995 1
gene 2 2 5 0.231852 0 2 0.231852 1
gene 3 3 5 -2.556 0 3 -2.556 1
gene 1 4 5 -1.90179 0 4 -1.90179 1
gene 2 1 6 2.04762 0 5 2.04762 1
gene 1 2 6 -0.330491 0 6 -0.330491 1
gene 1 3 6 -3.06676 0 7 -3.06676 1
gene 2 4 6 -8 0 8 -8 1
gene 1 6 5 2.1665 0 72 2.1665 1
genomeend 43

/* Organism #44 Fitness: 0 Error: 0 */
genomestart 44
node 1 1 1 3
node 2 1 1 1
node 3 1 1 1
node 4 1 1 1
node 5 3 0 2
node 6 2 0 2
gene 2 1 5 0.285583 0 1 0.285583 1
gene 2 2 5 -2.59657 0 2 -2.59657 1
gene 3 3 5 -1.66839 0 3 -1.66839 1
gene 1 4 5 -1.48279 0 4 -1.48279 1
gene 2 1 6 1.04798 0 5 1.04798 1
gene 1 2 6 -1.71661 0 6 -1.71661 1
gene 1 3 6 -2.65867 0 7 -2.65867 1
gene 2 4 6 -7.90018 0 8 -7.90018 1
gene 1 6 5 0.18375 0 72 0.18375 1
genomeend 44

/* Organism #45 Fitness: 0 Error: 0 */
genomestart 45
node 1 1 1 3
node 2 1 1 1
node 3 1 1 1
node 4 1 1 1
node 5 2 0 2
node 6 2 0 2
gene 2 1 5 -3.39258 0 1 -3.39258 1
gene 2 2 5 -3.59661 0 2 -3.59661 1
gene 3 3 5 -2.69268 0 3 -2.69268 1
gene 1 4 5 -0.553246 0 4 -0.553246 1
gene 2 1 6 0.847299 0 5 0.847299 1
gene 1 2 6 2.75338 0 6 2.75338 1
gene 1 3 6 -0.91899 0 7 -0.91899 1
gene 2 4 6 -6.55413 0 8 -6.55413 1
gene 1 6 5 2.34118 0 72 2.34118 1
genomeend 45

/* Organism #46 Fitness: 0 Error: 0 */
genomestart 46
node 1 1 1 3
node 2 1 1 1
node 3 1 1 1
node 4 1 1 1
node 5 2 0 2
node 6 2 0 2
gene 2 1 5 -1.49696 0 1 -1.49696 1
gene 2 2 5 -4.08343 0 2 -4.08343 1
gene 3 3 5 -3.86711 0 3 -3.86711 1
gene 1 4 5 -2.33867 0 4 -2.33867 1
gene 2 1 6 0.9576 0 5 0.9576 1
gene 1 2 6 -0.021134 0 6 -0.021134 1
gene 1 3 6 -1.19887 0 7 -1.19887 1
gene 2 4 6 -7.50018 0 8 -7.50018 1
gene 1 6 5 1.73276 0 72 1.73276 1
genomeend 46

/* Organism #47 Fitness: 0 Error: 0 */
genomestart 47
node 1 1 1 3
node 2 1 1 1
node 3 1 1 1
node 4 1 1 1
node 5 2 0 2
node 6 2 0 2
gene 2 1 5 -1.89815 0 1 -1.89815 1
gene 2 2 5 0.268476 0 2 0.268476 1
gene 3 3 5 -3.22318 0 3 -3.22318 1
gene 1 4 5 -3.56786 0 4 -3.56786 1
gene 2 1 6 -1.02494 0 5 -1.02494 1
gene 1 2 6 2.92359 0 6 2.92359 1
gene 1 3 6 -2.84041 0 7 -2.84041 1
gene 2 4 6 -8 0 8 -8 1
gene 1 6 5 2.30589 0 72 2.30589 1
genomeend 47

/* Organism #48 Fitness: 0 Error: 0 */
genomestart 48
node 1 1 1 3
node 2 1 1 1
node 3 1 1 1
node 4 1 1 1
node 5 2 0 2
node 6 2 0 2
gene 2 1 5 -2.62773 0 1 -2.62773 1
gene 2 2 5 0.200853 0 2 0.200853 1
gene 3 3 5 -3.90376 0 3 -3.90376 1
gene 1 4 5 0.420341 0 4 0.420341 1
gene 2 1 6 3.10556 0 5 3.10556 1
gene 1 2 6 2.97317 0 6 2.97317 1
gene 1 3 6 -1.03034 0 7 -1.03034 1
gene 2 4 6 -8 0 8 -8 1
gene 1 6 5 -0.921041 0 72 -0.921041 1
genomeend 48

/* Organism #49 Fitness: 0 Error: 0 */
genomestart 49
node 1 1 1 3
node 2 1 1 1
node 3 1 1 1
node 4 1 1 1
node 5 2 0 2
node 6 2 0 2
gene 2 1 5 -4.2442 0 1 -4.2442 1
gene 2 2 5 -2.08434 0 2 -2.08434 1
gene 3 3 5 -2.80357 0 3 -2.80357 1
gene 1 4 5 -2.44359 0 4 -2.44359 1
gene 2 1 6 3.69248 0 5 3.69248 1
gene 1 2 6 0.337375 0 6 0.337375 1
gene 1 3 6 -2.95282 0 7 -2.95282 1
gene 2 4 6 -6.97628 0 8 -6.97628 1
gene 1 6 5 -2.12302 0 72 -2.12302 1
genomeend 49

/* Organism #50 Fitness: 0 Error: 0 */
genomestart 50
node 1 1 1 3
node 2 1 1 1
node 3 1 1 1
node 4 1 1 1
node 5 2 0 2
node 6 2 0 2
gene 2 1 5 -1.03993 0 1 -1.03993 1
gene 2 2 5 0.554181 0 2 0.554181 1
gene 3 3 5 -1.51187 0 3 -1.51187 1
gene 1 4 5 -3.26611 0 4 -3.26611 1
gene 2 1 6 1.27628 0 5 1.27628 1
gene 1 2 6 1.87884 0 6 1.87884 1
gene 1 3 6 0.678421 0 7 0.678421 1
gene 2 4 6 -8 0 8 -8 1
gene 1 6 5 1.62536 0 72 1.62536 1
genomeend 50

/* Organism #51 Fitness: 0 Error: 0 */
genomestart 51
node 1 1 1 3
node 2 1 1 1
node 3 1 1 1
node 4 1 1 1
node 5 2 0 2
node 6 2 0 2
gene 2 1 5 -2.09424 0 1 -2.09424 1
gene 2 2 5 -0.577193 0 2 -0.577193 1
gene 3 3 5 -0.440883 0 3 -0.440883 1
gene 1 4 5 -1.72615 0 4 -1.72615 1
gene 2 1 6 3.09973 0 5 3.09973 1
gene 1 2 6 1.11151 0 6 1.11151 1
gene 1 3 6 2.43304 0 7 2.43304 1
gene 2 4 6 -7.22718 0 8 -7.22718 1
gene 1 6 5 0.197945 0 72 0.197945 1
genomeend 51

/* Organism #52 Fitness: 0 Error: 0 */
genomestart 52
node 1 1 1 3
node 2 1 1 1
node 3 1 1 1
node 4 1 1 1
node 5 2 0 2
node 6 2 0 2
gene 2 1 5 -1.89815 0 1 -1.89815 1
gene 2 2 5 -3.14702 0 2 -3.14702 1
gene 3 3 5 -1.5301 0 3 -1.5301 1
gene 1 4 5 -1.68224 0 4 -1.68224 1
gene 2 1 6 0.473972 0 5 0.473972 1
gene 1 2 6 0.907391 0 6 0.907391 1
gene 1 3 6 -1.4372 0 7 -1.4372 1
gene 2 4 6 -7.97234 0 8 -7.97234 1
gene 1 6 5 -1.55733 0 72 -1.55733 1
genomeend 52

/* Organism #53 Fitness: 0 Error: 0 */
genomestart 53
node 1 1 1 3
node 2 1 1 1
node 3 1 1 1
node 4 1 1 1
node 5 2 0 2
node 6 2 0 2
gene 2 1 5 -3.56866 0 1 -3.56866 1
gene 2 2 5 -0.712144 0 2 -0.712144 1
gene 3 3 5 -3.74292 0 3 -3.74292 1
gene 1 4 5 -0.747277 0 4 -0.747277 1
gene 2 1 6 3.71354 0 5 3.71354 1
gene 1 2 6 1.16387 0 6 1.16387 1
gene 1 3 6 -0.333633 0 7 -0.333633 1
gene 2 4 6 -5.66728 0 8 -5.66728 1
gene 1 6 5 1.09228 0 72 1.09228 1
genomeend 53

/* Organism #54 Fitness: 0 Error: 0 */
genomestart 54
node 1 1 1 3
node 2 1 1 1
node 3 1 1 1
node 4 1 1 1
node 5 2 0 2
node 6 2 0 2
gene 2 1 5 0.115833 0 1 0.115833 1
gene 2 2 5 -1.83866 0 2 -1.83866 1
gene 3 3 5 -2.06725 0 3 -2.06725 1
gene 1 4 5 -2.03951 0 4 -2.03951 1
gene 2 1 6 3.47211 0 5 3.47211 1
gene 1 2 6 3.31447 0 6 3.31447 1
gene 1 3 6 -1.87539 0 7 -1.87539 1
gene 2 4 6 -6.18803 0 8 -6.18803 1
gene 1 6 5 -1.48903 0 72 -1.48903 1
genomeend 54

/* Organism #55 Fitness: 0 Error: 0 */
genomestart 55
node 1 1 1 3
node 2 1 1 1
node 3 1 1 1
node 4 1 1 1
node 5 2 0 2
node 6 2 0 2
gene 2 1 5 -4.11263 0 1 -4.11263 1
gene 2 2 5 -1.92268 0 2 -1.92268 1
gene 3 3 5 -1.5301 0 3 -1.5301 1
gene 1 4 5 -0.477046 0 4 -0.477046 1
gene 2 1 6 2.08266 0 5 2.08266 1
gene 1 2 6 4.13892 0 6 4.13892 1
gene 1 3 6 -1.04866 0 7 -1.04866 1
gene 2 4 6 -6.62703 0 8 -6.62703 1
gene 1 6 5 -0.461807 0 72 -0.461807 1
genomeend 55

/* Organism #56 Fitness: 0 Error: 0 */
genomestart 56
node 1 1 1 3
node 2 1 1 1
node 3 1 1 1
node 4 1 1 1
node 5 2 0 2
node 6 2 0 2
gene 2 1 5 -4.2556 0 1 -4.2556 1
gene 2 2 5 -2.22947 0 2 -2.22947 1
gene 3 3 5 0.129779 0 3 0.129779 1
gene 1 4 5 -4.00832 0 4 -4.00832 1
gene 2 1 6 1.22425 0 5 1.22425 1
gene 1 2 6 4.23484 0 6 4.23484 1
gene 1 3 6 -1.5475 0 7 -1.5475 1
gene 2 4 6 -8 0 8 -8 1
gene 1 6 5 0.0656459 0 72 0.0656459 1
genomeend 56

/* Organism #57 Fitness: 0 Error: 0 */
genomestart 57
node 1 1 1 3
node 2 1 1 1
node 3 1 1 1
node 4 1 1 1
node 5 2 0 2
node 6 2 0 2
gene 2 1 5 -3.07997 0 1 -3.07997 1
gene 2 2 5 -1.47136 0 2 -1.47136 1
gene 3 3 5 -3.28275 0 3 -3.28275 1
gene 1 4 5 -3.48159 0 4 -3.48159 1
gene 2 1 6 1.93924 0 5 1.93924 1
gene 1 2 6 0.302195 0 6 0.302195 1
gene 1 3 6 -4.14986 0 7 -4.14986 1
gene 2 4 6 -7.44562 0 8 -7.44562 1
gene 1 6 5 -1.66381 0 72 -1.66381 1
genomeend 57

/* Organism #58 Fitness: 0 Error: 0 */
genomestart 58
node 1 1 1 3
node 2 1 1 1
node 3 1 1 1
node 4 1 1 1
node 5 2 0 2
node 6 2 0 2
gene 2 1 5 -2.33236 0 1 -2.33236 1
gene 2 2 5 -0.915933 0 2 -0.915933 1
gene 3 3 5 -3.76946 0 3 -3.76946 1
gene 1 4 5 -3.20437 0 4 -3.20437 1
gene 2 1 6 -0.304852 0 5 -0.304852 1
gene 1 2 6 -0.560225 0 6 -0.560225 1
gene 1 3 6 -1.8181 0 7 -1.8181 1
gene 2 4 6 -7.52928 0 8 -7.52928 1
gene 1 6 5 -1.0036 0 72 -1.0036 1
genomeend 58

/* Organism #59 Fitness: 0 Error: 0 */
genomestart 59
node 1 1 1 3
node 2 1 1 1
node 3 1 1 1
node 4 1 1 1
node 5 2 0 2
node 6 1 0 2
gene 2 1 5 -3.82396 0 1 -3.82396 1
gene 2 2 5 -2.36697 0 2 -2.36697 1
gene 3 3 5 0.522277 0 3 0.522277 1
gene 1 4 5 0.635463 0 4 0.635463 1
gene 2 1 6 1.0877 0 5 1.0877 1
gene 1 2 6 2.1056 0 6 2.1056 1
gene 1 3 6 -0.778355 0 7 -0.778355 1
gene 2 4 6 -8 0 8 -8 1
gene 1 6 5 2.63724 0 72 2.63724 1
genomeend 59

/* Organism #60 Fitness: 0 Error: 0 */
genomestart 60
node 1 1 1 3
node 2 1 1 1
node 3 1 1 1
node 4 1 1 1
node 5 2 0 2
node 6 2 0 2
gene 2 1 5 -3.25966 0 1 -3.25966 1
gene 2 2 5 -3.31678 0 2 -3.31678 1
gene 3 3 5 0.433614 0 3 0.433614 1
gene 1 4 5 -1.99736 0 4 -1.99736 1
gene 2 1 6 2.11687 0 5 2.11687 1
gene 1 2 6 4.19205 0 6 4.19205 1
gene 1 3 6 -1.74718 0 7 -1.74718 1
gene 2 4 6 -5.64595 0 8 -5.64595 1
gene 1 6 5 0.981541 0 72 0.981541 1
genomeend 60

/* Organism #61 Fitness: 0 Error: 0 */
genomestart 61
node 1 1 1 3
node 2 1 1 1
node 3 1 1 1
node 4 1 1 1
node 5 2 0 2
node 6 2 0 2
gene 2 1 5 -2.54201 0 1 -2.54201 1
gene 2 2 5 -3.92144 0 2 -3.92144 1
gene 3 3 5 -1.04829 0 3 -1.04829 1
gene 1 4 5 -0.706205 0 4 -0.706205 1
gene 2 1 6 2.37271 0 5 2.37271 1
gene 1 2 6 -0.49543 0 6 -0.49543 1
gene 1 3 6 -0.930683 0 7 -0.930683 1
gene 2 4 6 -7.71574 0 8 -7.71574 1
gene 1 6 5 -1.28502 0 72 -1.28502 1
genomeend 61

/* Organism #62 Fitness: 0 Error: 0 */
genomestart 62
node 1 1 1 3
node 2 1 1 1
node 3 1 1 1
node 4 1 1 1
node 5 2 0 2
node 6 2 0 2
gene 2 1 5 -0.582888 0 1 -0.582888 1
gene 2 2 5 -3.46269 0 2 -3.46269 1
gene 3 3 5 -1.12097 0 3 -1.12097 1
gene 1 4 5 -2.88367 0 4 -2.88367 1
gene 2 1 6 0.347379 0 5 0.347379 1
gene 1 2 6 -0.419753 0 6 -0.419753 1
gene 1 3 6 -1.98461 0 7 -1.98461 1
gene 2 4 6 -8 0 8 -8 1
gene 1 6 5 -2.0983 0 72 -2.0983 1
genomeend 62

/* Organism #63 Fitness: 0 Error: 0 */
genomestart 63
node 1 1 1 3
node 2 1 1 1
node 3 1 1 1
node 4 1 1 1
node 5 2 0 2
node 6 2 0 2
gene 2 1 5 1.3912 0 1 1.3912 1
gene 2 2 5 -4.1935 0 2 -4.1935 1
gene 3 3 5 -0.385519 0 3 -0.385519 1
gene 1 4 5 -0.853392 0 4 -0.853392 1
gene 2 1 6 2.13613 0 5 2.13613 1
gene 1 2 6 0.613534 0 6 0.613534 1
gene 1 3 6 -2.49139 0 7 -2.49139 1
gene 2 4 6 -7.50018 0 8 -7.50018 1
gene 1 6 5 1.17511 0 72 1.17511 1
genomeend 63

/* Organism #64 Fitness: 0 Error: 0 */
genomestart 64
node 1 1 1 3
node 2 1 1 1
node 3 1 1 1
node 4 1 1 1
node 5 2 0 2
node 6 2 0 2
gene 2 1 5 -1.89815 0 1 -1.89815 1
gene 2 2 5 0.145902 0 2 0.145902 1
gene 3 3 5 -2.91173 0 3 -2.91173 1
gene 1 4 5 -2.05474 0 4 -2.05474 1
gene 2 1 6 -1.02301 0 5 -1.02301 1
gene 1 2 6 -0.00374854 0 6 -0.00374854 1
gene 1 3 6 -0.670734 0 7 -0.670734 1
gene 2 4 6 -8 0 8 -8 1
gene 2 6 5 -1.32246 0 72 -1.32246 1
genomeend 64

/* Organism #65 Fitness: 0 Error: 0 */
genomestart 65
node 1 1 1 3
node 2 1 1 1
node 3 1 1 1
node 4 1 1 1
node 5 2 0 2
node 6 2 0 2
gene 2 1 5 -0.989803 0 1 -0.989803 1
gene 2 2 5 -0.693457 0 2 -0.693457 1
gene 3 3 5 -0.960018 0 3 -0.960018 1
gene 1 4 5 0.22544 0 4 0.22544 1
gene 2 1 6 2.92013 0 5 2.92013 1
gene 1 2 6 3.07561 0 6 3.07561 1
gene 1 3 6 -0.891831 0 7 -0.891831 1
gene 2 4 6 -8 0 8 -8 1
gene 1 6 5 -1.04608 0 72 -1.04608 1
genomeend 65

/* Organism #66 Fitness: 0 Error: 0 */
genomestart 66
node 1 1 1 3
node 2 1 1 1
node 3 1 1 1
node 4 1 1 1
node 5 2 0 2
node 6 2 0 2
gene 2 1 5 -2.99093 0 1 -2.99093 1
gene 2 2 5 0.412754 0 2 0.412754 1
gene 3 3 5 -1.38285 0 3 -1.38285 1
gene 1 4 5 -3.44281 0 4 -3.44281 1
gene 2 1 6 2.36407 0 5 2.36407 1
gene 1 2 6 2.1521 0 6 2.1521 1
gene 1 3 6 -2.45686 0 7 -2.45686 1
gene 2 4 6 -5.82994 0 8 -5.82994 1
gene 1 6 5 2.42208 0 72 2.42208 1
genomeend 66

/* Organism #67 Fitness: 0 Error: 0 */
genomestart 67
node 1 1 1 3
node 2 3 1 1
node 3 1 1 1
node 4 1 1 1
node 5 2 0 2
node 6 2 0 2
gene 2 1 5 -0.887313 0 1 -0.887313 1
gene 2 2 5 -0.0618673 0 2 -0.0618673 1
gene 3 3 5 -0.709635 0 3 -0.709635 1
gene 1 4 5 -3.28481 0 4 -3.28481 1
gene 2 1 6 1.46489 0 5 1.46489 1
gene 1 2 6 3.22947 0 6 3.22947 1
gene 1 3 6 -0.045207 0 7 -0.045207 1
gene 2 4 6 -8 0 8 -8 1
gene 1 6 5 -1.88465 0 72 -1.88465 1
genomeend 67

/* Organism #68 Fitness: 0 Error: 0 */
genomestart 68
node 1 1 1 3
node 2 1 1 1
node 3 1 1 1
node 4 1 1 1
node 5 2 0 2
node 6 2 0 2
gene 2 1 5 -1.91863 0 1 -1.91863 1
gene 2 2 5 -2.5319 0 2 -2.5319 1
gene 3 3 5 -3.5101 0 3 -3.5101 1
gene 1 4 5 -2.82734 0 4 -2.82734 1
gene 2 1 6 -0.42692 0 5 -0.42692 1
gene 1 2 6 3.72532 0 6 3.72532 1
gene 3 3 6 -2.51541 0 7 -2.51541 1
gene 2 4 6 -8 0 8 -8 1
gene 1 6 5 1.52223 0 72 1.52223 1
genomeend 68

/* Organism #69 Fitness: 0 Error: 0 */
genomestart 69
node 1 1 1 3
node 2 1 1 1
node 3 1 1 1
node 4 1 1 1
node 5 2 0 2
node 6 2 0 2
gene 2 1 5 -1.89815 0 1 -1.89815 1
gene 2 2 5 -3.94578 0 2 -3.94578 1
gene 3 3 5 -1.5301 0 3 -1.5301 1
gene 1 4 5 -1.68224 0 4 -1.68224 1
gene 2 1 6 2.44648 0 5 2.44648 1
gene 1 2 6 0.392832 0 6 0.392832 1
gene 1 3 6 -3.17281 0 7 -3.17281 1
gene 2 4 6 -7.09484 0 8 -7.09484 1
gene 1 6 5 1.92665 0 72 1.92665 1
genomeend 69

/* Organism #70 Fitness: 0 Error: 0 */
genomestart 70
node 1 1 1 3
node 2 1 1 1
node 3 1 1 1
node 4 1 1 1
node 5 2 0 2
node 6 2 0 2
gene 2 1 5 -2.32175 0 1 -2.32175 1
gene 2 2 5 -1.56678 0 2 -1.56678 1
gene 3 3 5 -0.0948025 0 3 -0.0948025 1
gene 1 4 5 -3.56929 0 4 -3.56929 1
gene 2 1 6 0.566985 0 5 0.566985 1
gene 1 2 6 1.88324 0 6 1.88324 1
gene 1 3 6 0.357268 0 7 0.357268 1
gene 2 4 6 -7.08689 0 8 -7.08689 1
gene 1 6 5 -2.45623 0 72 -2.45623 1
genomeend 70

/* Organism #71 Fitness: 0 Error: 0 */
genomestart 71
node 1 1 1 3
node 2 1 1 1
node 3 1 1 1
node 4 1 1 1
node 5 2 0 2
node 6 2 0 2
gene 2 1 5 -0.855111 0 1 -0.855111 1
gene 2 2 5 1.24727 0 2 1.24727 1
gene 3 3 5 -1.66156 0 3 -1.66156 1
gene 1 4 5 -2.40644 0 4 -2.40644 1
gene 2 1 6 2.61211 0 5 2.61211 1
gene 1 2 6 0.578227 0 6 0.578227 1
gene 1 3 6 -3.55161 0 7 -3.55161 1
gene 2 4 6 -7.17408 0 8 -7.17408 1
gene 1 6 5 -1.78387 0 72 -1.78387 1
genomeend 71

/* Organism #72 Fitness: 0 Error: 0 */
genomestart 72
node 1 1 1 3
node 2 1 1 1
node 3 1 1 1
node 4 1 1 1
node 5 2 0 2
node 6 2 0 2
gene 2 1 5 -1.89815 0 1 -1.89815 1
gene 2 2 5 -1.80256 0 2 -1.80256 1
gene 3 3 5 -1.5301 0 3 -1.5301 1
gene 1 4 5 -1.68224 0 4 -1.68224 1
gene 2 1 6 1.27628 0 5 1.27628 1
gene 1 2 6 1.88324 0 6 1.88324 1
gene 1 3 6 -1.8181 0 7 -1.8181 1
gene 2 4 6 -7.50018 0 8 -7.50018 1
gene 1 6 5 0.197945 0 72 0.197945 1
gene 1 5 5 -0.00402778 1 123 -0.00402778 1
genomeend 72

/* Organism #73 Fitness: 0 Error: 0 */
genomestart 73
node 1 1 1 3
node 2 1 1 1
node 3 1 1 1
node 4 1 1 1
node 5 2 0 2
node 6 2 0 2
gene 2 1 5 0.456167 0 1 0.456167 1
gene 2 2 5 -3.12802 0 2 -3.12802 1
gene 3 3 5 -0.83281 0 3 -0.83281 1
gene 1 4 5 -3.33576 0 4 -3.33576 1
gene 2 1 6 0.987221 0 5 0.987221 1
gene 1 2 6 2.74784 0 6 2.74784 1
gene 1 3 6 0.136746 0 7 0.136746 1
gene 2 4 6 -5.5322 0 8 -5.5322 1
gene 1 6 5 2.32479 0 72 2.32479 1
genomeend 73

/* Organism #74 Fitness: 0 Error: 0 */
genomestart 74
node 1 1 1 3
node 2 1 1 1
node 3 1 1 1
node 4 2 1 1
node 5 2 0 2
node 6 2 0 2
gene 2 1 5 -1.73968 0 1 -1.73968 1
gene 2 2 5 -0.0874016 0 2 -0.0874016 1
gene 3 3 5 -2.3976 0 3 -2.3976 1
gene 1 4 5 -0.86974 0 4 -0.86974 1
gene 2 1 6 3.13236 0 5 3.13236 1
gene 1 2 6 -0.0448035 0 6 -0.0448035 1
gene 1 3 6 -3.96524 0 7 -3.96524 1
gene 2 4 6 -8 0 8 -8 1
gene 1 6 5 -1.87639 0 72 -1.87639 1
genomeend 74

/* Organism #75 Fitness: 0 Error: 0 */
genomestart 75
node 1 1 1 3
node 2 1 1 1
node 3 1 1 1
node 4 1 1 1
node 5 2 0 2
node 6 2 0 2
gene 2 1 5 -3.34072 0 1 -3.34072 1
gene 2 2 5 -2.37321 0 2 -2.37321 1
gene 3 3 5 -3.42629 0 3 -3.42629 1
gene 1 4 5 -1.04765 0 4 -1.04765 1
gene 2 1 6 3.45701 0 5 3.45701 1
gene 1 2 6 2.62318 0 6 2.62318 1
gene 1 3 6 -1.8181 0 7 -1.8181 1
gene 2 4 6 -7.61039 0 8 -7.61039 1
gene 1 6 5 -2.3001 0 72 -2.3001 1
genomeend 75

/* Organism #76 Fitness: 0 Error: 0 */
genomestart 76
node 1 1 1 3
node 2 1 1 1
node 3 1 1 1
node 4 1 1 1
node 5 2 0 2
node 6 2 0 2
gene 2 1 5 -4.32366 0 1 -4.32366 1
gene 2 2 5 -3.88211 0 2 -3.88211 1
gene 3 3 5 -0.274719 0 3 -0.274719 1
gene 1 4 5 -1.55729 0 4 -1.55729 1
gene 2 1 6 2.58087 0 5 2.58087 1
gene 1 2 6 1.27155 0 6 1.27155 1
gene 1 3 6 -4.25426 0 7 -4.25426 1
gene 2 4 6 -7.21386 0 8 -7.21386 1
gene 1 6 5 1.63184 0 72 1.63184 1
genomeend 76

/* Organism #77 Fitness: 0 Error: 0 */
genomestart 77
node 1 1 1 3
node 2 1 1 1
node 3 1 1 1
node 4 1 1 1
node 5 2 0 2
node 6 2 0 2
gene 2 1 5 -3.54091 0 1 -3.54091 1
gene 2 2 5 -0.0375494 0 2 -0.0375494 1
gene 3 3 5 -0.992001 0 3 -0.992001 1
gene 1 4 5 -3.19929 0 4 -3.19929 1
gene 2 1 6 -0.637988 0 5 -0.637988 1
gene 1 2 6 3.61067 0 6 3.61067 1
gene 1 3 6 -0.848267 0 7 -0.848267 1
gene 2 4 6 -5.33907 0 8 -5.33907 1
gene 1 6 5 -0.89198 0 72 -0.89198 1
genomeend 77

/* Organism #78 Fitness: 0 Error: 0 */
genomestart 78
node 1 1 1 3
node 2 1 1 1
node 3 1 1 1
node 4 1 1 1
node 5 2 0 2
node 6 2 0 2
gene 2 1 5 -2.74101 0 1 -2.74101 1
gene 2 2 5 0.612001 0 2 0.612001 1
gene 3 3 5 -0.106269 0 3 -0.106269 1
gene 1 4 5 0.721771 0 4 0.721771 1
gene 2 1 6 2.85592 0 5 2.85592 1
gene 1 2 6 3.66407 0 6 3.66407 1
gene 1 3 6 -1.8181 0 7 -1.8181 1
gene 2 4 6 -8 0 8 -8 1
gene 1 6 5 0.197945 0 72 0.197945 1
genomeend 78

/* Organism #79 Fitness: 0 Error: 0 */
genomestart 79
node 1 1 1 3
node 2 1 1 1
node 3 1 1 1
node 4 1 1 1
node 5 2 0 2
node 6 2 0 2
gene 2 1 5 -0.942219 0 1 -0.942219 1
gene 2 2 5 -2.56585 0 2 -2.56585 1
gene 3 3 5 -2.19814 0 3 -2.19814 1
gene 1 4 5 -2.23365 0 4 -2.23365 1
gene 2 1 6 3.4296 0 5 3.4296 1
gene 1 2 6 3.35737 0 6 3.35737 1
gene 1 3 6 -0.842317 0 7 -0.842317 1
gene 2 4 6 -8 0 8 -8 1
gene 1 6 5 1.44105 0 72 1.44105 1
genomeend 79

/* Organism #80 Fitness: 0 Error: 0 */
genomestart 80
node 1 1 1 3
node 2 1 1 1
node 3 1 1 1
node 4 1 1 1
node 5 2 0 2
node 6 2 0 2
gene 2 1 5 -0.462866 0 1 -0.462866 1
gene 2 2 5 0.25654 0 2 0.25654 1
gene 3 3 5 -2.08278 0 3 -2.08278 1
gene 1 4 5 -2.8879 0 4 -2.8879 1
gene 2 1 6 1.6284 0 5 1.6284 1
gene 1 2 6 2.49643 0 6 2.49643 1
gene 1 3 6 2.13269 0 7 2.13269 1
gene 2 4 6 -8 0 8 -8 1
gene 1 6 5 2.14843 0 72 2.14843 1
genomeend 80

/* Organism #81 Fitness: 0 Error: 0 */
genomestart 81
node 1 1 1 3
node 2 1 1 1
node 3 1 1 1
node 4 1 1 1
node 5 2 0 2
node 6 2 0 2
gene 2 1 5 -1.89815 0 1 -1.89815 1
gene 2 2 5 -1.80256 0 2 -1.80256 1
gene 3 3 5 -1.5301 0 3 -1.5301 1
gene 1 4 5 -1.68224 0 4 -1.68224 1
gene 2 1 6 1.27628 0 5 1.27628 1
gene 1 2 6 1.88324 0 6 1.88324 1
gene 1 3 6 -1.8181 0 7 -1.8181 1
gene 2 4 6 -7.50018 0 8 -7.50018 1
gene 1 6 5 0.197945 0 72 0.197945 1
gene 3 5 5 0.0254218 1 124 0.0254218 1
genomeend 81

/* Organism #82 Fitness: 0 Error: 0 */
genomestart 82
node 1 1 1 3
node 2 1 1 1
node 3 1 1 1
node 4 1 1 1
node 5 2 0 2
node 6 2 0 2
gene 2 1 5 -1.89815 0 1 -1.89815 1
gene 2 2 5 -1.80256 0 2 -1.80256 1
gene 3 3 5 -1.5301 0 3 -1.5301 1
gene 1 4 5 -1.68224 0 4 -1.68224 1
gene 2 1 6 1.27628 0 5 1.27628 1
gene 1 2 6 1.88324 0 6 1.88324 1
gene 1 3 6 -1.8181 0 7 -1.8181 1
gene 2 4 6 -7.50018 0 8 -7.50018 1
gene 1 6 5 0.197945 0 72 0.197945 1
gene 3 5 5 -0.729746 1 125 -0.729746 1
genomeend 82

/* Organism #83 Fitness: 0 Error: 0 */
genomestart 83
node 1 1 1 3
node 2 1 1 1
node 3 1 1 1
node 4 1 1 1
node 5 2 0 2
node 6 2 0 2
gene 2 1 5 -4.23429 0 1 -4.23429 1
gene 2 2 5 -2.42775 0 2 -2.42775 1
gene 3 3 5 -0.398093 0 3 -0.398093 1
gene 1 4 5 -2.62928 0 4 -2.62928 1
gene 2 1 6 3.71095 0 5 3.71095 1
gene 1 2 6 0.771128 0 6 0.771128 1
gene 1 3 6 -1.58208 0 7 -1.58208 1
gene 2 4 6 -5.6536 0 8 -5.6536 1
gene 1 6 5 0.794573 0 72 0.794573 1
genomeend 83

/* Species #378 : (Size 2) (AF 0) (Age 2)  */


/* Organism #84 Fitness: 0 Error: 0 */
genomestart 84
node 1 1 1 3
node 2 1 1 1
node 3 1 1 1
node 4 1 1 1
node 5 2 0 2
node 6 2 0 2
gene 2 1 5 -0.754898 0 1 -0.754898 1
gene 2 2 5 -1.80256 0 2 -1.80256 1
gene 3 3 5 -0.0820905 0 3 -0.0820905 1
gene 1 4 5 -2.19439 0 4 -2.19439 1
gene 2 1 6 -1.46646 0 5 -1.46646 1
gene 1 2 6 2.32498 0 6 2.32498 1
gene 1 3 6 1.77625 0 7 1.77625 1
gene 2 4 6 2.45736 0 8 2.45736 1
gene 1 6 5 1.12143 0 72 1.12143 1
genomeend 84

/* Organism #85 Fitness: 0 Error: 0 */
genomestart 85
node 1 1 1 3
node 2 1 1 1
node 3 1 1 1
node 4 1 1 1
node 5 2 0 2
node 6 2 0 2
gene 2 1 5 0.357614 0 1 0.357614 1
gene 2 2 5 0.147971 0 2 0.147971 1
gene 3 3 5 -2.69649 0 3 -2.69649 1
gene 1 4 5 -1.68224 0 4 -1.68224 1
gene 2 1 6 -2.15285 0 5 -2.15285 1
gene 1 2 6 2.83906 0 6 2.83906 1
gene 1 3 6 1.28251 0 7 1.28251 1
gene 2 4 6 -6.92437 0 8 -6.92437 1
gene 1 6 5 -0.392826 0 72 -0.392826 1
genomeend 85

/* Species #383 : (Size 1) (AF 0) (Age 1)  */


/* Organism #86 Fitness: 0 Error: 0 */
genomestart 86
node 1 1 1 3
node 2 1 1 1
node 3 1 1 1
node 4 1 1 1
node 5 2 0 2
node 6 2 0 2
gene 2 1 5 -2.36531 0 1 -2.36531 1
gene 2 2 5 -0.951572 0 2 -0.951572 1
gene 3 3 5 -3.88997 0 3 -3.88997 1
gene 1 4 5 0.721985 0 4 0.721985 1
gene 2 1 6 3.15685 0 5 3.15685 1
gene 1 2 6 4.02066 0 6 4.02066 1
gene 1 3 6 0.309903 0 7 0.309903 1
gene 2 4 6 -8 0 8 -8 1
gene 1 6 5 1.8534 0 72 1.8534 1
genomeend 86

/* Species #384 : (Size 1) (AF 0) (Age 1)  */


/* Organism #87 Fitness: 0 Error: 0 */
genomestart 87
node 1 1 1 3
node 2 1 1 1
node 3 1 1 1
node 4 1 1 1
node 5 2 0 2
node 6 2 0 2
gene 2 1 5 -2.54445 0 1 -2.54445 1
gene 2 2 5 -0.366977 0 2 -0.366977 1
gene 3 3 5 0.757582 0 3 0.757582 1
gene 1 4 5 -3.3709 0 4 -3.3709 1
gene 2 1 6 1.31505 0 5 1.31505 1
gene 1 2 6 3.75293 0 6 3.75293 1
gene 1 3 6 0.470848 0 7 0.470848 1
gene 2 4 6 -5.49229 0 8 -5.49229 1
gene 1 6 5 -1.38784 0 72 -1.38784 1
genomeend 87

/* Species #385 : (Size 1) (AF 0) (Age 1)  */


/* Organism #88 Fitness: 0 Error: 0 */
genomestart 88
node 1 1 1 3
node 2 1 1 1
node 3 1 1 1
node 4 1 1 1
node 5 2 0 2
node 6 2 0 2
gene 2 1 5 -0.0646739 0 1 -0.0646739 1
gene 2 2 5 -2.17742 0 2 -2.17742 1
gene 3 3 5 2.38898 0 3 2.38898 1
gene 1 4 5 -2.97625 0 4 -2.97625 1
gene 2 1 6 3.66989 0 5 3.66989 1
gene 1 2 6 -1.79632 0 6 -1.79632 1
gene 1 3 6 2.1738 0 7 2.1738 1
gene 2 4 6 -2.37065 0 8 -2.37065 1
gene 1 6 5 1.28701 0 72 1.28701 1
genomeend 88

/* Species #386 : (Size 1) (AF 0) (Age 1)  */


/* Organism #89 Fitness: 0 Error: 0 */
genomestart 89
node 1 1 1 3
node 2 1 1 1
node 3 1 1 1
node 4 1 1 1
node 5 2 0 2
node 6 2 0 2
gene 2 1 5 -2.66632 0 1 -2.66632 1
gene 2 2 5 0.415528 0 2 0.415528 1
gene 3 3 5 -1.5301 0 3 -1.5301 1
gene 1 4 5 0.235633 0 4 0.235633 1
gene 2 1 6 3.59654 0 5 3.59654 1
gene 1 2 6 4.17536 0 6 4.17536 1
gene 1 3 6 -1.85715 0 7 -1.85715 1
gene 2 4 6 -1.64154 0 8 -1.64154 1
gene 1 6 5 0.753081 0 72 0.753081 1
genomeend 89

/* Species #387 : (Size 1) (AF 0) (Age 1)  */


/* Organism #90 Fitness: 0 Error: 0 */
genomestart 90
node 1 1 1 3
node 2 1 1 1
node 3 1 1 1
node 4 1 1 1
node 5 2 0 2
node 6 2 0 2
gene 2 1 5 -3.76866 0 1 -3.76866 1
gene 2 2 5 -1.80256 0 2 -1.80256 1
gene 3 3 5 -2.40806 0 3 -2.40806 1
gene 1 4 5 -1.28853 0 4 -1.28853 1
gene 2 1 6 3.48406 0 5 3.48406 1
gene 1 2 6 1.88324 0 6 1.88324 1
gene 1 3 6 -4.17657 0 7 -4.17657 1
gene 2 4 6 1.06983 0 8 1.06983 1
gene 1 6 5 1.93595 0 72 1.93595 1
genomeend 90

/* Species #388 : (Size 3) (AF 0) (Age 1)  */


/* Organism #91 Fitness: 0 Error: 0 */
genomestart 91
node 1 1 1 3
node 2 1 1 1
node 3 1 1 1
node 4 1 1 1
node 5 2 0 2
node 6 2 0 2
gene 2 1 5 -0.199777 0 1 -0.199777 1
gene 2 2 5 -1.48058 0 2 -1.48058 1
gene 3 3 5 -2.05737 0 3 -2.05737 1
gene 1 4 5 -0.443379 0 4 -0.443379 1
gene 2 1 6 2.56654 0 5 2.56654 1
gene 1 2 6 0.205969 0 6 0.205969 1
gene 1 3 6 1.48068 0 7 1.48068 1
gene 2 4 6 0.137696 0 8 0.137696 1
gene 1 6 5 -0.0201319 0 72 -0.0201319 1
genomeend 91

/* Organism #92 Fitness: 0 Error: 0 */
genomestart 92
node 1 1 1 3
node 2 1 1 1
node 3 1 1 1
node 4 1 1 1
node 5 2 0 2
node 6 2 0 2
gene 2 1 5 -0.479485 0 1 -0.479485 1
gene 2 2 5 -1.80256 0 2 -1.80256 1
gene 3 3 5 1.91675 0 3 1.91675 1
gene 1 4 5 -0.140268 0 4 -0.140268 1
gene 3 1 6 0.447275 0 5 0.447275 1
gene 1 2 6 -0.380545 0 6 -0.380545 1
gene 1 3 6 0.333766 0 7 0.333766 1
gene 2 4 6 0.473359 0 8 0.473359 1
gene 1 6 5 -2.05927 0 72 -2.05927 1
genomeend 92

/* Organism #93 Fitness: 0 Error: 0 */
genomestart 93
node 1 1 1 3
node 2 1 1 1
node 3 1 1 1
node 4 1 1 1
node 5 2 0 2
node 6 2 0 2
gene 2 1 5 0.128063 0 1 0.128063 1
gene 2 2 5 -0.644376 0 2 -0.644376 1
gene 3 3 5 -3.55751 0 3 -3.55751 1
gene 1 4 5 -2.08725 0 4 -2.08725 1
gene 2 1 6 2.41933 0 5 2.41933 1
gene 1 2 6 2.80056 0 6 2.80056 1
gene 1 3 6 -0.457421 0 7 -0.457421 1
gene 2 4 6 1.3584 0 8 1.3584 1
gene 1 6 5 -2.11746 0 72 -2.11746 1
genomeend 93

/* Species #389 : (Size 1) (AF 0) (Age 1)  */


/* Organism #94 Fitness: 0 Error: 0 */
genomestart 94
node 1 1 1 3
node 2 1 1 1
node 3 1 1 1
node 4 1 1 1
node 5 2 0 2
node 6 2 0 2
gene 2 1 5 -4.31182 0 1 -4.31182 1
gene 2 2 5 -3.49524 0 2 -3.49524 1
gene 3 3 5 -1.59095 0 3 -1.59095 1
gene 1 4 5 0.593839 0 4 0.593839 1
gene 1 1 6 1.84628 0 5 1.84628 1
gene 1 2 6 -0.515194 0 6 -0.515194 1
gene 1 3 6 0.268553 0 7 0.268553 1
gene 2 4 6 -7.21823 0 8 -7.21823 1
gene 1 6 5 2.21639 0 72 2.21639 1
genomeend 94

/* Species #390 : (Size 1) (AF 0) (Age 1)  */


/* Organism #95 Fitness: 0 Error: 0 */
genomestart 95
node 1 1 1 3
node 2 1 1 1
node 3 1 1 1
node 4 1 1 1
node 5 2 0 2
node 6 2 0 2
gene 2 1 5 -0.93866 0 1 -0.93866 1
gene 2 2 5 2.20005 0 2 2.20005 1
gene 3 3 5 -2.72094 0 3 -2.72094 1
gene 1 4 5 -1.48872 0 4 -1.48872 1
gene 2 1 6 0.967675 0 5 0.967675 1
gene 1 2 6 1.88324 0 6 1.88324 1
gene 1 3 6 -3.68077 0 7 -3.68077 1
gene 3 4 6 -0.20866 0 8 -0.20866 1
gene 1 6 5 -2.05934 0 72 -2.05934 1
genomeend 95

/* Species #391 : (Size 1) (AF 0) (Age 1)  */


/* Organism #96 Fitness: 0 Error: 0 */
genomestart 96
node 1 2 1 3
node 2 1 1 1
node 3 1 1 1
node 4 1 1 1
node 5 2 0 2
node 6 2 0 2
gene 2 1 5 -3.82848 0 1 -3.82848 1
gene 2 2 5 2.38759 0 2 2.38759 1
gene 3 3 5 -3.79748 0 3 -3.79748 1
gene 1 4 5 -1.68224 0 4 -1.68224 1
gene 2 1 6 0.472077 0 5 0.472077 1
gene 1 2 6 2.09259 0 6 2.09259 1
gene 1 3 6 2.15531 0 7 2.15531 1
gene 2 4 6 -8 0 8 -8 1
gene 1 6 5 1.36731 0 72 1.36731 1
genomeend 96

/* Species #392 : (Size 1) (AF 0) (Age 1)  */


/* Organism #97 Fitness: 0 Error: 0 */
genomestart 97
node 1 1 1 3
node 2 1 1 1
node 3 1 1 1
node 4 1 1 1
node 5 2 0 2
node 6 2 0 2
gene 2 1 5 -2.17427 0 1 -2.17427 1
gene 2 2 5 -4.11424 0 2 -4.11424 1
gene 3 3 5 -2.13018 0 3 -2.13018 1
gene 1 4 5 -2.47032 0 4 -2.47032 1
gene 2 1 6 2.89602 0 5 2.89602 1
gene 1 2 6 -2.39711 0 6 -2.39711 1
gene 1 3 6 -1.8181 0 7 -1.8181 1
gene 2 4 6 -1.31491 0 8 -1.31491 1
gene 1 6 5 1.84968 0 72 1.84968 1
genomeend 97

/* Species #393 : (Size 1) (AF 0) (Age 1)  */


/* Organism #98 Fitness: 0 Error: 0 */
genomestart 98
node 1 1 1 3
node 2 1 1 1
node 3 1 1 1
node 4 1 1 1
node 5 2 0 2
node 6 2 0 2
gene 2 1 5 -1.90237 0 1 -1.90237 1
gene 2 2 5 -3.62376 0 2 -3.62376 1
gene 3 3 5 -3.99653 0 3 -3.99653 1
gene 1 4 5 1.8902 0 4 1.8902 1
gene 2 1 6 -0.209979 0 5 -0.209979 1
gene 1 2 6 0.258665 0 6 0.258665 1
gene 1 3 6 -2.14886 0 7 -2.14886 1
gene 2 4 6 -5.00274 0 8 -5.00274 1
gene 1 6 5 -1.92217 0 72 -1.92217 1
genomeend 98

/* Species #394 : (Size 1) (AF 0) (Age 1)  */


/* Organism #99 Fitness: 0 Error: 0 */
genomestart 99
node 1 1 1 3
node 2 1 1 1
node 3 1 1 1
node 4 1 1 1
node 5 2 0 2
node 6 2 0 2
gene 2 1 5 -1.16334 0 1 -1.16334 1
gene 2 2 5 -0.0194482 0 2 -0.0194482 1
gene 3 3 5 -3.72871 0 3 -3.72871 1
gene 1 4 5 -2.199 0 4 -2.199 1
gene 2 1 6 -0.970432 0 5 -0.970432 1
gene 1 2 6 -0.0339969 0 6 -0.0339969 1
gene 1 3 6 -3.06264 0 7 -3.06264 1
gene 2 4 6 -8 0 8 -8 1
gene 1 6 5 -2.19238 0 72 -2.19238 1
genomeend 99
