
/* Species #1 : (Size 53) (AF 12.5472) (Age 3)  */


/* Organism #0 Fitness: 4 Error: 0 */
genomestart 0
node 1 2 1 3
node 2 1 1 1
node 3 2 1 1
node 4 2 1 1
node 5 3 1 1
node 6 1 0 2
node 7 2 0 2
gene 3 1 6 0.162899 0 1 0.162899 1
gene 3 2 6 0.137663 0 2 0.137663 1
gene 3 3 6 -1.53845 0 3 -1.53845 1
gene 3 4 6 -0.951647 0 4 -0.951647 1
gene 2 5 6 -2.23814 0 5 -2.23814 1
gene 2 1 7 -1.14476 0 6 -1.14476 1
gene 3 2 7 0.120426 0 7 0.120426 1
gene 2 3 7 -2.29586 0 8 -2.29586 1
gene 2 4 7 0.789388 0 9 0.789388 1
gene 1 5 7 -0.166185 0 10 -0.166185 1
genomeend 0

/* Organism #1 Fitness: 21 Error: 0 */
genomestart 1
node 1 2 1 3
node 2 3 1 1
node 3 1 1 1
node 4 1 1 1
node 5 1 1 1
node 6 1 0 2
node 7 3 0 2
gene 2 1 6 -1.58997 0 1 -1.58997 1
gene 1 2 6 2.81271 0 2 2.81271 1
gene 3 3 6 0.611246 0 3 0.611246 1
gene 2 4 6 1.31519 0 4 1.31519 1
gene 2 5 6 -2.6936 0 5 -2.6936 1
gene 3 1 7 -0.45857 0 6 -0.45857 1
gene 1 2 7 -0.425402 0 7 -0.425402 1
gene 3 3 7 -2.02324 0 8 -2.02324 1
gene 3 4 7 -0.941824 0 9 -0.941824 1
gene 1 5 7 1.19364 0 10 1.19364 1
genomeend 1

/* Organism #2 Fitness: 4 Error: 0 */
genomestart 2
node 1 3 1 3
node 2 1 1 1
node 3 2 1 1
node 4 2 1 1
node 5 2 1 1
node 6 3 0 2
node 7 2 0 2
gene 2 1 6 -0.784321 0 1 -0.784321 1
gene 3 2 6 -2.98031 0 2 -2.98031 1
gene 2 3 6 -1.47619 0 3 -1.47619 1
gene 2 4 6 0.638818 0 4 0.638818 1
gene 2 5 6 -0.598687 0 5 -0.598687 1
gene 1 1 7 0.24248 0 6 0.24248 1
gene 2 2 7 1.86579 0 7 1.86579 1
gene 3 3 7 -1.89888 0 8 -1.89888 1
gene 2 4 7 -0.0330198 0 9 -0.0330198 1
gene 3 5 7 0.973424 0 10 0.973424 1
genomeend 2

/* Organism #3 Fitness: 17 Error: 0 */
genomestart 3
node 1 2 1 3
node 2 1 1 1
node 3 1 1 1
node 4 3 1 1
node 5 3 1 1
node 6 3 0 2
node 7 2 0 2
gene 1 1 6 -0.340149 0 1 -0.340149 1
gene 1 2 6 0.0471784 0 2 0.0471784 1
gene 1 3 6 -0.270756 0 3 -0.270756 1
gene 2 4 6 -2.2606 0 4 -2.2606 1
gene 1 5 6 -0.0841331 0 5 -0.0841331 1
gene 3 1 7 0.400388 0 6 0.400388 1
gene 2 2 7 -0.772214 0 7 -0.772214 1
gene 3 3 7 -0.165899 0 8 -0.165899 1
gene 2 4 7 -0.981458 0 9 -0.981458 1
gene 2 5 7 1.54813 0 10 1.54813 1
genomeend 3

/* Organism #4 Fitness: 6 Error: 0 */
genomestart 4
node 1 1 1 3
node 2 2 1 1
node 3 3 1 1
node 4 2 1 1
node 5 3 1 1
node 6 2 0 2
node 7 3 0 2
gene 3 1 6 1.11097 0 1 1.11097 1
gene 3 2 6 -1.37967 0 2 -1.37967 1
gene 1 3 6 -1.52387 0 3 -1.52387 1
gene 3 4 6 -0.860292 0 4 -0.860292 1
gene 2 5 6 -0.735903 0 5 -0.735903 1
gene 2 1 7 0.291683 0 6 0.291683 1
gene 3 2 7 2.0909 0 7 2.0909 1
gene 3 3 7 -1.11266 0 8 -1.11266 1
gene 2 4 7 1.0762 0 9 1.0762 1
gene 1 5 7 -2.18072 0 10 -2.18072 1
genomeend 4

/* Organism #5 Fitness: 1 Error: 0 */
genomestart 5
node 1 2 1 3
node 2 1 1 1
node 3 2 1 1
node 4 2 1 1
node 5 3 1 1
node 6 1 0 2
node 7 2 0 2
gene 1 1 6 -0.507376 0 1 -0.507376 1
gene 1 2 6 -0.254488 0 2 -0.254488 1
gene 1 3 6 -0.646743 0 3 -0.646743 1
gene 3 4 6 -0.430688 0 4 -0.430688 1
gene 1 5 6 -2.33857 0 5 -2.33857 1
gene 2 1 7 -1.8847 0 6 -1.8847 1
gene 3 2 7 1.09903 0 7 1.09903 1
gene 2 3 7 -3.25123 0 8 -3.25123 1
gene 2 4 7 -1.43856 0 9 -1.43856 1
gene 1 5 7 1.1536 0 10 1.1536 1
genomeend 5

/* Organism #6 Fitness: 11 Error: 0 */
genomestart 6
node 1 3 1 3
node 2 1 1 1
node 3 1 1 1
node 4 3 1 1
node 5 3 1 1
node 6 2 0 2
node 7 3 0 2
gene 1 1 6 1.43698 0 1 1.43698 1
gene 1 2 6 0.306711 0 2 0.306711 1
gene 1 3 6 -0.847485 0 3 -0.847485 1
gene 3 4 6 -1.36568 0 4 -1.36568 1
gene 3 5 6 0.0218408 0 5 0.0218408 1
gene 2 1 7 1.50062 0 6 1.50062 1
gene 3 2 7 1.83254 0 7 1.83254 1
gene 2 3 7 -2.10796 0 8 -2.10796 1
gene 3 4 7 0.724603 0 9 0.724603 1
gene 2 5 7 1.9054 0 10 1.9054 1
genomeend 6

/* Organism #7 Fitness: 13 Error: 0 */
genomestart 7
node 1 3 1 3
node 2 2 1 1
node 3 1 1 1
node 4 1 1 1
node 5 2 1 1
node 6 2 0 2
node 7 2 0 2
gene 2 1 6 0.649323 0 1 0.649323 1
gene 1 2 6 0.671319 0 2 0.671319 1
gene 3 3 6 -0.84155 0 3 -0.84155 1
gene 2 4 6 1.40303 0 4 1.40303 1
gene 2 5 6 0.565084 0 5 0.565084 1
gene 3 1 7 0.743557 0 6 0.743557 1
gene 3 2 7 -0.252314 0 7 -0.252314 1
gene 2 3 7 -1.35107 0 8 -1.35107 1
gene 3 4 7 1.17798 0 9 1.17798 1
gene 2 5 7 1.69447 0 10 1.69447 1
genomeend 7

/* Organism #8 Fitness: 38 Error: 0 */
genomestart 8
node 1 1 1 3
node 2 1 1 1
node 3 1 1 1
node 4 3 1 1
node 5 1 1 1
node 6 3 0 2
node 7 2 0 2
gene 3 1 6 -1.17166 0 1 -1.17166 1
gene 2 2 6 -1.57925 0 2 -1.57925 1
gene 1 3 6 1.95826 0 3 1.95826 1
gene 2 4 6 0.12483 0 4 0.12483 1
gene 3 5 6 -1.35315 0 5 -1.35315 1
gene 1 1 7 -1.85687 0 6 -1.85687 1
gene 1 2 7 0.687172 0 7 0.687172 1
gene 3 3 7 -0.599076 0 8 -0.599076 1
gene 3 4 7 -0.682301 0 9 -0.682301 1
gene 1 5 7 0.624225 0 10 0.624225 1
genomeend 8

/* Organism #9 Fitness: 2 Error: 0 */
genomestart 9
node 1 3 1 3
node 2 3 1 1
node 3 3 1 1
node 4 1 1 1
node 5 1 1 1
node 6 1 0 2
node 7 1 0 2
gene 3 1 6 -0.429429 0 1 -0.429429 1
gene 1 2 6 -0.463975 0 2 -0.463975 1
gene 1 3 6 -0.337887 0 3 -0.337887 1
gene 2 4 6 0.520494 0 4 0.520494 1
gene 1 5 6 -0.15044 0 5 -0.15044 1
gene 2 1 7 0.525159 0 6 0.525159 1
gene 2 2 7 -0.251674 0 7 -0.251674 1
gene 2 3 7 -0.123139 0 8 -0.123139 1
gene 1 4 7 0.165207 0 9 0.165207 1
gene 2 5 7 0.0854336 0 10 0.0854336 1
genomeend 9

/* Organism #10 Fitness: 9 Error: 0 */
genomestart 10
node 1 1 1 3
node 2 2 1 1
node 3 3 1 1
node 4 2 1 1
node 5 3 1 1
node 6 2 0 2
node 7 3 0 2
gene 1 1 6 1.1411 0 1 1.1411 1
gene 3 2 6 -1.40316 0 2 -1.40316 1
gene 1 3 6 -0.595155 0 3 -0.595155 1
gene 1 4 6 -1.39892 0 4 -1.39892 1
gene 2 5 6 -0.816478 0 5 -0.816478 1
gene 3 1 7 -0.602546 0 6 -0.602546 1
gene 2 2 7 0.586969 0 7 0.586969 1
gene 1 3 7 0.0605263 0 8 0.0605263 1
gene 2 4 7 -0.578764 0 9 -0.578764 1
gene 1 5 7 0.426418 0 10 0.426418 1
genomeend 10

/* Organism #11 Fitness: 8 Error: 0 */
genomestart 11
node 1 3 1 3
node 2 1 1 1
node 3 2 1 1
node 4 2 1 1
node 5 2 1 1
node 6 3 0 2
node 7 2 0 2
gene 3 1 6 0.0737775 0 1 0.0737775 1
gene 3 2 6 -0.919477 0 2 -0.919477 1
gene 1 3 6 -0.787296 0 3 -0.787296 1
gene 3 4 6 0.205667 0 4 0.205667 1
gene 2 5 6 -0.166321 0 5 -0.166321 1
gene 3 1 7 -0.317342 0 6 -0.317342 1
gene 2 2 7 0.105107 0 7 0.105107 1
gene 1 3 7 -0.0363183 0 8 -0.0363183 1
gene 1 4 7 0.125039 0 9 0.125039 1
gene 3 5 7 0.907999 0 10 0.907999 1
genomeend 11

/* Organism #12 Fitness: 27 Error: 0 */
genomestart 12
node 1 2 1 3
node 2 1 1 1
node 3 2 1 1
node 4 2 1 1
node 5 1 1 1
node 6 1 0 2
node 7 3 0 2
gene 3 1 6 -0.577838 0 1 -0.577838 1
gene 3 2 6 0.281153 0 2 0.281153 1
gene 3 3 6 0.918525 0 3 0.918525 1
gene 3 4 6 -0.80019 0 4 -0.80019 1
gene 2 5 6 -0.690353 0 5 -0.690353 1
gene 3 1 7 -0.157509 0 6 -0.157509 1
gene 3 2 7 -0.115481 0 7 -0.115481 1
gene 3 3 7 -0.236565 0 8 -0.236565 1
gene 2 4 7 0.215409 0 9 0.215409 1
gene 2 5 7 -0.0768439 0 10 -0.0768439 1
gene 3 7 6 -0.476283 0 12 0 1
genomeend 12

/* Organism #13 Fitness: 9 Error: 0 */
genomestart 13
node 1 3 1 3
node 2 2 1 1
node 3 1 1 1
node 4 2 1 1
node 5 3 1 1
node 6 2 0 2
node 7 3 0 2
gene 3 1 6 0.0269423 0 1 0.0269423 1
gene 3 2 6 2.65465 0 2 2.65465 1
gene 1 3 6 -0.818611 0 3 -0.818611 1
gene 2 4 6 0.831635 0 4 0.831635 1
gene 2 5 6 -3.78564 0 5 -3.78564 1
gene 3 1 7 3.3587 0 6 3.3587 1
gene 2 2 7 0.515731 0 7 0.515731 1
gene 1 3 7 -2.75936 0 8 -2.75936 1
gene 2 4 7 0.623327 0 9 0.623327 1
gene 1 5 7 -0.488087 0 10 -0.488087 1
genomeend 13

/* Organism #14 Fitness: 6 Error: 0 */
genomestart 14
node 1 3 1 3
node 2 2 1 1
node 3 1 1 1
node 4 2 1 1
node 5 3 1 1
node 6 2 0 2
node 7 3 0 2
gene 3 1 6 -0.600428 0 1 -0.600428 1
gene 3 2 6 2.15605 0 2 2.15605 1
gene 1 3 6 -1.08465 0 3 -1.08465 1
gene 2 4 6 0.575838 0 4 0.575838 1
gene 2 5 6 -1.35709 0 5 -1.35709 1
gene 3 1 7 0.559795 0 6 0.559795 1
gene 2 2 7 -1.6148 0 7 -1.6148 1
gene 1 3 7 -4.87748 0 8 -4.87748 1
gene 2 4 7 0.571501 0 9 0.571501 1
gene 1 5 7 2.5543 0 10 2.5543 1
genomeend 14

/* Organism #15 Fitness: 18 Error: 0 */
genomestart 15
node 1 3 1 3
node 2 2 1 1
node 3 1 1 1
node 4 2 1 1
node 5 3 1 1
node 6 2 0 2
node 7 3 0 2
gene 3 1 6 -0.0431022 0 1 -0.0431022 1
gene 3 2 6 3.14429 0 2 3.14429 1
gene 1 3 6 -0.385748 0 3 -0.385748 1
gene 2 4 6 -1.97524 0 4 -1.97524 1
gene 2 5 6 -1.83205 0 5 -1.83205 1
gene 3 1 7 -1.37948 0 6 -1.37948 1
gene 2 2 7 1.27925 0 7 1.27925 1
gene 1 3 7 -2.51305 0 8 -2.51305 1
gene 2 4 7 2.35786 0 9 2.35786 1
gene 1 5 7 2.78331 0 10 2.78331 1
genomeend 15

/* Organism #16 Fitness: 12 Error: 0 */
genomestart 16
node 1 3 1 3
node 2 2 1 1
node 3 1 1 1
node 4 2 1 1
node 5 3 1 1
node 6 2 0 2
node 7 3 0 2
gene 3 1 6 -0.793789 0 1 -0.793789 1
gene 3 2 6 1.47671 0 2 1.47671 1
gene 1 3 6 -0.0112255 0 3 -0.0112255 1
gene 2 4 6 -0.164966 0 4 -0.164966 1
gene 2 5 6 0.00298959 0 5 0.00298959 1
gene 3 1 7 2.44578 0 6 2.44578 1
gene 2 2 7 0.760136 0 7 0.760136 1
gene 1 3 7 -3.22411 0 8 -3.22411 1
gene 2 4 7 3.04232 0 9 3.04232 1
gene 1 5 7 -0.120443 0 10 -0.120443 1
genomeend 16

/* Organism #17 Fitness: 1 Error: 0 */
genomestart 17
node 1 2 1 3
node 2 1 1 1
node 3 2 1 1
node 4 2 1 1
node 5 3 1 1
node 6 1 0 2
node 7 2 0 2
gene 3 1 6 -0.517485 0 1 -0.517485 1
gene 3 2 6 0.140499 0 2 0.140499 1
gene 3 3 6 -2.6457 0 3 -2.6457 1
gene 2 4 6 -0.0936527 0 4 -0.0936527 1
gene 3 5 6 0.372458 0 5 0.372458 1
gene 3 1 7 4.69062 0 6 4.69062 1
gene 3 2 7 0.120426 0 7 0.120426 1
gene 2 3 7 -1.76116 0 8 -1.76116 1
gene 2 4 7 0.789388 0 9 0.789388 1
gene 1 5 7 -0.166185 0 10 -0.166185 1
genomeend 17

/* Organism #18 Fitness: 18 Error: 0 */
genomestart 18
node 1 3 1 3
node 2 1 1 1
node 3 2 1 1
node 4 2 1 1
node 5 3 1 1
node 6 1 0 2
node 7 3 0 2
gene 2 1 6 -1.38161 0 1 -1.38161 1
gene 2 2 6 -0.492811 0 2 -0.492811 1
gene 1 3 6 -1.60907 0 3 -1.60907 1
gene 2 4 6 -0.806534 0 4 -0.806534 1
gene 2 5 6 1.20538 0 5 1.20538 1
gene 3 1 7 1.29247 0 6 1.29247 1
gene 2 2 7 0.192397 0 7 0.192397 1
gene 1 3 7 0.184301 0 8 0.184301 1
gene 3 4 7 -0.915117 0 9 -0.915117 1
gene 2 5 7 -1.05087 0 10 -1.05087 1
genomeend 18

/* Organism #19 Fitness: 11 Error: 0 */
genomestart 19
node 1 2 1 3
node 2 3 1 1
node 3 3 1 1
node 4 2 1 1
node 5 3 1 1
node 6 1 0 2
node 7 2 0 2
gene 3 1 6 -2.1608 0 1 -2.1608 1
gene 2 2 6 -1.00599 0 2 -1.00599 1
gene 1 3 6 2.19891 0 3 2.19891 1
gene 2 4 6 0.77276 0 4 0.77276 1
gene 3 5 6 -2.34933 0 5 -2.34933 1
gene 3 1 7 0.000337596 0 6 0.000337596 1
gene 2 2 7 1.44437 0 7 1.44437 1
gene 3 3 7 -1.25288 0 8 -1.25288 1
gene 2 4 7 1.6512 0 9 1.6512 1
gene 3 5 7 -0.0437127 0 10 -0.0437127 1
genomeend 19

/* Organism #20 Fitness: 14 Error: 0 */
genomestart 20
node 1 2 1 3
node 2 1 1 1
node 3 2 1 1
node 4 2 1 1
node 5 3 1 1
node 6 1 0 2
node 7 2 0 2
gene 3 1 6 1.46429 0 1 1.46429 1
gene 3 2 6 -0.0839679 0 2 -0.0839679 1
gene 3 3 6 -1.99788 0 3 -1.99788 1
gene 2 4 6 1.56569 0 4 1.56569 1
gene 2 5 6 -0.625117 0 5 -0.625117 1
gene 2 1 7 2.86789 0 6 2.86789 1
gene 1 2 7 0.191388 0 7 0.191388 1
gene 3 3 7 -4.92134 0 8 -4.92134 1
gene 2 4 7 2.74585 0 9 2.74585 1
gene 1 5 7 -0.166185 0 10 -0.166185 1
genomeend 20

/* Organism #21 Fitness: 17 Error: 0 */
genomestart 21
node 1 2 1 3
node 2 1 1 1
node 3 2 1 1
node 4 2 1 1
node 5 1 1 1
node 6 3 0 2
node 7 1 0 2
gene 1 1 6 0.276047 0 1 0.276047 1
gene 3 2 6 -0.401209 0 2 -0.401209 1
gene 1 3 6 -0.758323 0 3 -0.758323 1
gene 2 4 6 -0.504018 0 4 -0.504018 1
gene 1 5 6 0.320968 0 5 0.320968 1
gene 1 1 7 -0.311355 0 6 -0.311355 1
gene 3 2 7 -0.578988 0 7 -0.578988 1
gene 3 3 7 -1.66192 0 8 -1.66192 1
gene 1 4 7 -0.930208 0 9 -0.930208 1
gene 3 5 7 -4.15531 0 10 -4.15531 1
genomeend 21

/* Organism #22 Fitness: 5 Error: 0 */
genomestart 22
node 1 2 1 3
node 2 2 1 1
node 3 3 1 1
node 4 2 1 1
node 5 3 1 1
node 6 1 0 2
node 7 3 0 2
gene 1 1 6 -0.980526 0 1 -0.980526 1
gene 1 2 6 1.65638 0 2 1.65638 1
gene 1 3 6 -0.434016 0 3 -0.434016 1
gene 1 4 6 -0.0446916 0 4 -0.0446916 1
gene 2 5 6 0.339901 0 5 0.339901 1
gene 2 1 7 0.498028 0 6 0.498028 1
gene 2 2 7 -2.07647 0 7 -2.07647 1
gene 3 3 7 -2.90703 0 8 -2.90703 1
gene 3 4 7 1.39697 0 9 1.39697 1
gene 1 5 7 1.07011 0 10 1.07011 1
genomeend 22

/* Organism #23 Fitness: 8 Error: 0 */
genomestart 23
node 1 3 1 3
node 2 3 1 1
node 3 3 1 1
node 4 1 1 1
node 5 1 1 1
node 6 1 0 2
node 7 1 0 2
gene 2 1 6 0.342869 0 1 0.342869 1
gene 3 2 6 1.14221 0 2 1.14221 1
gene 1 3 6 -0.198511 0 3 -0.198511 1
gene 1 4 6 -1.58205 0 4 -1.58205 1
gene 2 5 6 3.60025 0 5 3.60025 1
gene 2 1 7 -0.566173 0 6 -0.566173 1
gene 2 2 7 -2.17076 0 7 -2.17076 1
gene 2 3 7 -1.86134 0 8 -1.86134 1
gene 2 4 7 1.01572 0 9 1.01572 1
gene 2 5 7 1.68219 0 10 1.68219 1
genomeend 23

/* Organism #24 Fitness: 6 Error: 0 */
genomestart 24
node 1 3 1 3
node 2 3 1 1
node 3 3 1 1
node 4 1 1 1
node 5 1 1 1
node 6 1 0 2
node 7 1 0 2
gene 2 1 6 0.233804 0 1 0.233804 1
gene 3 2 6 1.88578 0 2 1.88578 1
gene 3 3 6 1.31817 0 3 1.31817 1
gene 1 4 6 1.86959 0 4 1.86959 1
gene 2 5 6 0.635976 0 5 0.635976 1
gene 2 1 7 1.39467 0 6 1.39467 1
gene 1 2 7 0.530381 0 7 0.530381 1
gene 3 3 7 -2.73105 0 8 -2.73105 1
gene 2 4 7 0.0534946 0 9 0.0534946 1
gene 3 5 7 0.238518 0 10 0.238518 1
genomeend 24

/* Organism #25 Fitness: 7 Error: 0 */
genomestart 25
node 1 3 1 3
node 2 2 1 1
node 3 1 1 1
node 4 2 1 1
node 5 3 1 1
node 6 2 0 2
node 7 3 0 2
gene 2 1 6 0.105274 0 1 0.105274 1
gene 2 2 6 1.5023 0 2 1.5023 1
gene 2 3 6 1.41328 0 3 1.41328 1
gene 2 4 6 1.13202 0 4 1.13202 1
gene 2 5 6 -2.76516 0 5 -2.76516 1
gene 3 1 7 0.862364 0 6 0.862364 1
gene 2 2 7 -0.568316 0 7 -0.568316 1
gene 1 3 7 -4.15673 0 8 -4.15673 1
gene 2 4 7 2.37071 0 9 2.37071 1
gene 1 5 7 -0.458031 0 10 -0.458031 1
genomeend 25

/* Organism #26 Fitness: 2 Error: 0 */
genomestart 26
node 1 3 1 3
node 2 2 1 1
node 3 1 1 1
node 4 2 1 1
node 5 3 1 1
node 6 2 0 2
node 7 3 0 2
gene 2 1 6 -0.544418 0 1 -0.544418 1
gene 2 2 6 0.519182 0 2 0.519182 1
gene 2 3 6 1.41328 0 3 1.41328 1
gene 2 4 6 0.589818 0 4 0.589818 1
gene 2 5 6 0.221357 0 5 0.221357 1
gene 3 1 7 -0.677235 0 6 -0.677235 1
gene 2 2 7 1.16794 0 7 1.16794 1
gene 3 3 7 -1.52981 0 8 -1.52981 1
gene 2 4 7 1.21754 0 9 1.21754 1
gene 1 5 7 1.70346 0 10 1.70346 1
genomeend 26

/* Organism #27 Fitness: 28 Error: 0 */
genomestart 27
node 1 1 1 3
node 2 3 1 1
node 3 3 1 1
node 4 2 1 1
node 5 2 1 1
node 6 3 0 2
node 7 2 0 2
gene 2 1 6 0.638809 0 1 0.638809 1
gene 3 2 6 -0.437592 0 2 -0.437592 1
gene 3 3 6 0.455191 0 3 0.455191 1
gene 2 4 6 0.356041 0 4 0.356041 1
gene 2 5 6 -0.827314 0 5 -0.827314 1
gene 2 1 7 1.24901 0 6 1.24901 1
gene 1 2 7 3.41514 0 7 3.41514 1
gene 3 3 7 -3.80895 0 8 -3.80895 1
gene 2 4 7 0.936992 0 9 0.936992 1
gene 3 5 7 -0.937064 0 10 -0.937064 1
genomeend 27

/* Organism #28 Fitness: 30 Error: 0 */
genomestart 28
node 1 1 1 3
node 2 3 1 1
node 3 3 1 1
node 4 3 1 1
node 5 2 1 1
node 6 3 0 2
node 7 1 0 2
gene 1 1 6 -1.9459 0 1 -1.9459 1
gene 3 2 6 1.4345 0 2 1.4345 1
gene 1 3 6 -0.160729 0 3 -0.160729 1
gene 2 4 6 -2.08002 0 4 -2.08002 1
gene 2 5 6 -2.57317 0 5 -2.57317 1
gene 1 1 7 -2.0923 0 6 -2.0923 1
gene 2 2 7 -0.358752 0 7 -0.358752 1
gene 3 3 7 -0.121772 0 8 -0.121772 1
gene 3 4 7 2.68678 0 9 2.68678 1
gene 3 5 7 0.662679 0 10 0.662679 1
genomeend 28

/* Organism #29 Fitness: 7 Error: 0 */
genomestart 29
node 1 1 1 3
node 2 3 1 1
node 3 3 1 1
node 4 3 1 1
node 5 2 1 1
node 6 3 0 2
node 7 1 0 2
gene 1 1 6 -3.61696 0 1 -3.61696 1
gene 3 2 6 0.283808 0 2 0.283808 1
gene 1 3 6 -2.40259 0 3 -2.40259 1
gene 2 4 6 -0.11925 0 4 -0.11925 1
gene 2 5 6 -1.73763 0 5 -1.73763 1
gene 1 1 7 -1.06939 0 6 -1.06939 1
gene 2 2 7 0.939474 0 7 0.939474 1
gene 3 3 7 0.361183 0 8 0.361183 1
gene 3 4 7 3.27626 0 9 3.27626 1
gene 3 5 7 -0.0433779 0 10 -0.0433779 1
genomeend 29

/* Organism #30 Fitness: 46 Error: 0 */
genomestart 30
node 1 1 1 3
node 2 3 1 1
node 3 3 1 1
node 4 3 1 1
node 5 2 1 1
node 6 3 0 2
node 7 1 0 2
gene 1 1 6 -3.21247 0 1 -3.21247 1
gene 3 2 6 1.09903 0 2 1.09903 1
gene 1 3 6 -0.455099 0 3 -0.455099 1
gene 2 4 6 -2.68533 0 4 -2.68533 1
gene 2 5 6 -2.46108 0 5 -2.46108 1
gene 1 1 7 -2.98974 0 6 -2.98974 1
gene 2 2 7 -0.661564 0 7 -0.661564 1
gene 3 3 7 -1.42932 0 8 -1.42932 1
gene 3 4 7 1.72149 0 9 1.72149 1
gene 3 5 7 0.662679 0 10 0.662679 1
genomeend 30

/* Organism #31 Fitness: 7 Error: 0 */
genomestart 31
node 1 2 1 3
node 2 1 1 1
node 3 2 1 1
node 4 2 1 1
node 5 3 1 1
node 6 1 0 2
node 7 2 0 2
gene 3 1 6 -1.5181 0 1 -1.5181 1
gene 3 2 6 -2.18625 0 2 -2.18625 1
gene 3 3 6 -1.27416 0 3 -1.27416 1
gene 3 4 6 0.247734 0 4 0.247734 1
gene 3 5 6 -2.94081 0 5 -2.94081 1
gene 2 1 7 -0.250784 0 6 -0.250784 1
gene 3 2 7 -0.444355 0 7 -0.444355 1
gene 1 3 7 3.1324 0 8 3.1324 1
gene 2 4 7 0.273903 0 9 0.273903 1
gene 2 5 7 0.702012 0 10 0.702012 1
genomeend 31

/* Organism #32 Fitness: 6 Error: 0 */
genomestart 32
node 1 3 1 3
node 2 1 1 1
node 3 1 1 1
node 4 3 1 1
node 5 3 1 1
node 6 2 0 2
node 7 3 0 2
gene 2 1 6 0.599231 0 1 0.599231 1
gene 1 2 6 0.346358 0 2 0.346358 1
gene 2 3 6 2.06589 0 3 2.06589 1
gene 2 4 6 0.185191 0 4 0.185191 1
gene 3 5 6 -2.0061 0 5 -2.0061 1
gene 2 1 7 -0.806594 0 6 -0.806594 1
gene 2 2 7 1.46665 0 7 1.46665 1
gene 1 3 7 2.17041 0 8 2.17041 1
gene 3 4 7 2.30182 0 9 2.30182 1
gene 2 5 7 -0.0369896 0 10 -0.0369896 1
genomeend 32

/* Organism #33 Fitness: 12 Error: 0 */
genomestart 33
node 1 1 1 3
node 2 3 1 1
node 3 3 1 1
node 4 3 1 1
node 5 2 1 1
node 6 3 0 2
node 7 1 0 2
gene 1 1 6 -1.9459 0 1 -1.9459 1
gene 3 2 6 1.4345 0 2 1.4345 1
gene 1 3 6 -0.160729 0 3 -0.160729 1
gene 2 4 6 -2.08002 0 4 -2.08002 1
gene 2 5 6 -2.57317 0 5 -2.57317 1
gene 1 1 7 -2.0923 0 6 -2.0923 1
gene 2 2 7 -0.358752 0 7 -0.358752 1
gene 3 3 7 -0.121772 0 8 -0.121772 1
gene 3 4 7 2.68678 0 9 2.68678 1
gene 3 5 7 0.662679 0 10 0.662679 1
genomeend 33

/* Organism #34 Fitness: 18 Error: 0 */
genomestart 34
node 1 1 1 3
node 2 3 1 1
node 3 3 1 1
node 4 3 1 1
node 5 2 1 1
node 6 3 0 2
node 7 1 0 2
gene 1 1 6 -2.67583 0 1 -2.67583 1
gene 3 2 6 1.4345 0 2 1.4345 1
gene 1 3 6 -0.652606 0 3 -0.652606 1
gene 2 4 6 -0.00344838 0 4 -0.00344838 1
gene 2 5 6 -2.23795 0 5 -2.23795 1
gene 1 1 7 -0.926171 0 6 -0.926171 1
gene 2 2 7 0.278341 0 7 0.278341 1
gene 3 3 7 -1.03006 0 8 -1.03006 1
gene 3 4 7 2.23985 0 9 2.23985 1
gene 3 5 7 1.54849 0 10 1.54849 1
genomeend 34

/* Organism #35 Fitness: 16 Error: 0 */
genomestart 35
node 1 3 1 3
node 2 1 1 1
node 3 1 1 1
node 4 3 1 1
node 5 3 1 1
node 6 2 0 2
node 7 3 0 2
gene 1 1 6 -1.9459 0 1 -1.9459 1
gene 1 2 6 1.31739 0 2 1.31739 1
gene 1 3 6 -0.160729 0 3 -0.160729 1
gene 2 4 6 0.00651221 0 4 0.00651221 1
gene 3 5 6 -0.672275 0 5 -0.672275 1
gene 1 1 7 -2.0923 0 6 -2.0923 1
gene 2 2 7 -0.358752 0 7 -0.358752 1
gene 1 3 7 0.747866 0 8 0.747866 1
gene 3 4 7 2.68678 0 9 2.68678 1
gene 3 5 7 0.662679 0 10 0.662679 1
genomeend 35

/* Organism #36 Fitness: 14 Error: 0 */
genomestart 36
node 1 1 1 3
node 2 1 1 1
node 3 3 1 1
node 4 1 1 1
node 5 2 1 1
node 6 2 0 2
node 7 1 0 2
gene 3 1 6 3.12301 0 1 3.12301 1
gene 3 2 6 0.793138 0 2 0.793138 1
gene 1 3 6 -2.3898 0 3 -2.3898 1
gene 2 4 6 -2.09742 0 4 -2.09742 1
gene 3 5 6 -0.251989 0 5 -0.251989 1
gene 1 1 7 -0.524901 0 6 -0.524901 1
gene 2 2 7 0.722292 0 7 0.722292 1
gene 3 3 7 -0.937354 0 8 -0.937354 1
gene 2 4 7 3.41083 0 9 3.41083 1
gene 2 5 7 0.617352 0 10 0.617352 1
genomeend 36

/* Organism #37 Fitness: 4 Error: 0 */
genomestart 37
node 1 3 1 3
node 2 3 1 1
node 3 2 1 1
node 4 2 1 1
node 5 3 1 1
node 6 1 0 2
node 7 3 0 2
gene 1 1 6 0.0422446 0 1 0.0422446 1
gene 2 2 6 0.576233 0 2 0.576233 1
gene 3 3 6 0.532087 0 3 0.532087 1
gene 2 4 6 -0.638452 0 4 -0.638452 1
gene 2 5 6 -1.66364 0 5 -1.66364 1
gene 2 1 7 0.749777 0 6 0.749777 1
gene 2 2 7 2.70582 0 7 2.70582 1
gene 2 3 7 -0.451114 0 8 -0.451114 1
gene 2 4 7 2.1255 0 9 2.1255 1
gene 2 5 7 1.98959 0 10 1.98959 1
genomeend 37

/* Organism #38 Fitness: 10 Error: 0 */
genomestart 38
node 1 3 1 3
node 2 3 1 1
node 3 2 1 1
node 4 2 1 1
node 5 3 1 1
node 6 1 0 2
node 7 3 0 2
gene 1 1 6 -0.614137 0 1 -0.614137 1
gene 2 2 6 -1.61931 0 2 -1.61931 1
gene 3 3 6 -0.35516 0 3 -0.35516 1
gene 2 4 6 -0.433508 0 4 -0.433508 1
gene 2 5 6 -2.30914 0 5 -2.30914 1
gene 2 1 7 -0.217095 0 6 -0.217095 1
gene 2 2 7 3.84416 0 7 3.84416 1
gene 2 3 7 -0.925906 0 8 -0.925906 1
gene 2 4 7 -2.33667 0 9 -2.33667 1
gene 2 5 7 -1.04888 0 10 -1.04888 1
genomeend 38

/* Organism #39 Fitness: 2 Error: 0 */
genomestart 39
node 1 3 1 3
node 2 3 1 1
node 3 2 1 1
node 4 2 1 1
node 5 3 1 1
node 6 1 0 2
node 7 3 0 2
gene 1 1 6 0.227763 0 1 0.227763 1
gene 2 2 6 2.20456 0 2 2.20456 1
gene 3 3 6 -2.3868 0 3 -2.3868 1
gene 2 4 6 -1.07728 0 4 -1.07728 1
gene 2 5 6 -2.05112 0 5 -2.05112 1
gene 2 1 7 3.60536 0 6 3.60536 1
gene 2 2 7 1.51871 0 7 1.51871 1
gene 2 3 7 -0.868145 0 8 -0.868145 1
gene 2 4 7 0.584595 0 9 0.584595 1
gene 2 5 7 2.01961 0 10 2.01961 1
genomeend 39

/* Organism #40 Fitness: 2 Error: 0 */
genomestart 40
node 1 1 1 3
node 2 1 1 1
node 3 3 1 1
node 4 1 1 1
node 5 2 1 1
node 6 2 0 2
node 7 1 0 2
gene 3 1 6 0.701928 0 1 0.701928 1
gene 3 2 6 2.51277 0 2 2.51277 1
gene 1 3 6 0.181028 0 3 0.181028 1
gene 2 4 6 1.868 0 4 1.868 1
gene 3 5 6 -1.91548 0 5 -1.91548 1
gene 1 1 7 1.78392 0 6 1.78392 1
gene 2 2 7 1.47917 0 7 1.47917 1
gene 3 3 7 -1.559 0 8 -1.559 1
gene 2 4 7 0.0962196 0 9 0.0962196 1
gene 2 5 7 -1.52886 0 10 -1.52886 1
genomeend 40

/* Organism #41 Fitness: 9 Error: 0 */
genomestart 41
node 1 1 1 3
node 2 3 1 1
node 3 3 1 1
node 4 2 1 1
node 5 2 1 1
node 6 3 0 2
node 7 2 0 2
gene 3 1 6 -2.67844 0 1 -2.67844 1
gene 3 2 6 -1.66331 0 2 -1.66331 1
gene 1 3 6 -2.16914 0 3 -2.16914 1
gene 1 4 6 -2.06087 0 4 -2.06087 1
gene 2 5 6 -0.361347 0 5 -0.361347 1
gene 3 1 7 -0.74048 0 6 -0.74048 1
gene 3 2 7 -0.780881 0 7 -0.780881 1
gene 2 3 7 -1.59337 0 8 -1.59337 1
gene 1 4 7 2.32935 0 9 2.32935 1
gene 3 5 7 -1.24585 0 10 -1.24585 1
genomeend 41

/* Organism #42 Fitness: 15 Error: 0 */
genomestart 42
node 1 1 1 3
node 2 3 1 1
node 3 3 1 1
node 4 2 1 1
node 5 2 1 1
node 6 3 0 2
node 7 2 0 2
gene 3 1 6 -1.19891 0 1 -1.19891 1
gene 3 2 6 -2.25715 0 2 -2.25715 1
gene 1 3 6 -1.01547 0 3 -1.01547 1
gene 1 4 6 -2.01474 0 4 -2.01474 1
gene 2 5 6 -0.380215 0 5 -0.380215 1
gene 3 1 7 -2.05205 0 6 -2.05205 1
gene 3 2 7 0.818697 0 7 0.818697 1
gene 2 3 7 -2.68911 0 8 -2.68911 1
gene 1 4 7 -1.93149 0 9 -1.93149 1
gene 3 5 7 -1.22008 0 10 -1.22008 1
genomeend 42

/* Organism #43 Fitness: 10 Error: 0 */
genomestart 43
node 1 1 1 3
node 2 3 1 1
node 3 3 1 1
node 4 2 1 1
node 5 2 1 1
node 6 3 0 2
node 7 2 0 2
gene 3 1 6 0.611448 0 1 0.611448 1
gene 3 2 6 -1.25413 0 2 -1.25413 1
gene 1 3 6 0.925233 0 3 0.925233 1
gene 1 4 6 -1.14192 0 4 -1.14192 1
gene 2 5 6 0.27193 0 5 0.27193 1
gene 3 1 7 -3.21433 0 6 -3.21433 1
gene 3 2 7 2.75729 0 7 2.75729 1
gene 2 3 7 -1.5236 0 8 -1.5236 1
gene 1 4 7 1.09353 0 9 1.09353 1
gene 3 5 7 0.579306 0 10 0.579306 1
genomeend 43

/* Organism #44 Fitness: 11 Error: 0 */
genomestart 44
node 1 3 1 3
node 2 1 1 1
node 3 2 1 1
node 4 2 1 1
node 5 3 1 1
node 6 1 0 2
node 7 3 0 2
gene 2 1 6 -0.374529 0 1 -0.374529 1
gene 2 2 6 -0.08626 0 2 -0.08626 1
gene 1 3 6 -2.70316 0 3 -2.70316 1
gene 2 4 6 -2.04892 0 4 -2.04892 1
gene 1 5 6 -2.09 0 5 -2.09 1
gene 2 1 7 0.149916 0 6 0.149916 1
gene 2 2 7 3.39332 0 7 3.39332 1
gene 2 3 7 -2.76739 0 8 -2.76739 1
gene 2 4 7 -1.3568 0 9 -1.3568 1
gene 2 5 7 1.05178 0 10 1.05178 1
genomeend 44

/* Organism #45 Fitness: 10 Error: 0 */
genomestart 45
node 1 3 1 3
node 2 1 1 1
node 3 2 1 1
node 4 2 1 1
node 5 3 1 1
node 6 1 0 2
node 7 3 0 2
gene 2 1 6 -0.374529 0 1 -0.374529 1
gene 2 2 6 -0.08626 0 2 -0.08626 1
gene 1 3 6 -2.70316 0 3 -2.70316 1
gene 2 4 6 -2.04892 0 4 -2.04892 1
gene 1 5 6 -2.09 0 5 -2.09 1
gene 2 1 7 0.149916 0 6 0.149916 1
gene 2 2 7 3.39332 0 7 3.39332 1
gene 2 3 7 -2.76739 0 8 -2.76739 1
gene 2 4 7 -1.3568 0 9 -1.3568 1
gene 2 5 7 1.05178 0 10 1.05178 1
genomeend 45

/* Organism #46 Fitness: 4 Error: 0 */
genomestart 46
node 1 2 1 3
node 2 3 1 1
node 3 3 1 1
node 4 2 1 1
node 5 3 1 1
node 6 1 0 2
node 7 2 0 2
gene 3 1 6 -3.67858 0 1 -3.67858 1
gene 2 2 6 -2.06192 0 2 -2.06192 1
gene 1 3 6 -0.444135 0 3 -0.444135 1
gene 2 4 6 -2.41407 0 4 -2.41407 1
gene 2 5 6 -2.53516 0 5 -2.53516 1
gene 1 1 7 -0.350712 0 6 -0.350712 1
gene 2 2 7 0.162245 0 7 0.162245 1
gene 3 3 7 -4.15559 0 8 -4.15559 1
gene 3 4 7 0.554494 0 9 0.554494 1
gene 2 5 7 -0.205147 0 10 -0.205147 1
genomeend 46

/* Organism #47 Fitness: 2 Error: 0 */
genomestart 47
node 1 3 1 3
node 2 1 1 1
node 3 2 1 1
node 4 2 1 1
node 5 3 1 1
node 6 1 0 2
node 7 3 0 2
gene 3 1 6 -2.02655 0 1 -2.02655 1
gene 2 2 6 -0.440852 0 2 -0.440852 1
gene 1 3 6 -1.38554 0 3 -1.38554 1
gene 2 4 6 -2.42732 0 4 -2.42732 1
gene 1 5 6 -1.41186 0 5 -1.41186 1
gene 2 1 7 0.814407 0 6 0.814407 1
gene 2 2 7 2.59621 0 7 2.59621 1
gene 3 3 7 -3.46149 0 8 -3.46149 1
gene 2 4 7 -1.01326 0 9 -1.01326 1
gene 2 5 7 1.63461 0 10 1.63461 1
genomeend 47

/* Organism #48 Fitness: 10 Error: 0 */
genomestart 48
node 1 3 1 3
node 2 1 1 1
node 3 2 1 1
node 4 2 1 1
node 5 3 1 1
node 6 1 0 2
node 7 3 0 2
gene 2 1 6 -2.02655 0 1 -2.02655 1
gene 2 2 6 -0.440852 0 2 -0.440852 1
gene 1 3 6 -1.38554 0 3 -1.38554 1
gene 2 4 6 -2.42732 0 4 -2.42732 1
gene 1 5 6 -1.41186 0 5 -1.41186 1
gene 2 1 7 0.814407 0 6 0.814407 1
gene 2 2 7 2.59621 0 7 2.59621 1
gene 3 3 7 -3.46149 0 8 -3.46149 1
gene 2 4 7 -1.01326 0 9 -1.01326 1
gene 2 5 7 1.63461 0 10 1.63461 1
genomeend 48

/* Organism #49 Fitness: 11 Error: 0 */
genomestart 49
node 1 3 1 3
node 2 1 1 1
node 3 2 1 1
node 4 2 1 1
node 5 3 1 1
node 6 1 0 2
node 7 3 0 2
gene 2 1 6 -0.214858 0 1 -0.214858 1
gene 2 2 6 1.65015 0 2 1.65015 1
gene 1 3 6 -1.93825 0 3 -1.93825 1
gene 2 4 6 0.0821102 0 4 0.0821102 1
gene 1 5 6 -4.11558 0 5 -4.11558 1
gene 2 1 7 -1.44031 0 6 -1.44031 1
gene 2 2 7 3.5885 0 7 3.5885 1
gene 2 3 7 -1.6031 0 8 -1.6031 1
gene 2 4 7 1.0052 0 9 1.0052 1
gene 2 5 7 0.735179 0 10 0.735179 1
genomeend 49

/* Organism #50 Fitness: 17 Error: 0 */
genomestart 50
node 1 3 1 3
node 2 1 1 1
node 3 2 1 1
node 4 2 1 1
node 5 3 1 1
node 6 1 0 2
node 7 3 0 2
gene 2 1 6 1.41108 0 1 1.41108 1
gene 2 2 6 0.525538 0 2 0.525538 1
gene 1 3 6 -2.10629 0 3 -2.10629 1
gene 2 4 6 -0.00444331 0 4 -0.00444331 1
gene 1 5 6 -3.40182 0 5 -3.40182 1
gene 2 1 7 0.328611 0 6 0.328611 1
gene 2 2 7 4.16771 0 7 4.16771 1
gene 2 3 7 -1.36408 0 8 -1.36408 1
gene 2 4 7 -0.00796033 0 9 -0.00796033 1
gene 2 5 7 1.05178 0 10 1.05178 1
genomeend 50

/* Organism #51 Fitness: 55 Error: 0 */
genomestart 51
node 1 1 1 3
node 2 3 1 1
node 3 3 1 1
node 4 3 1 1
node 5 2 1 1
node 6 3 0 2
node 7 1 0 2
gene 1 1 6 -0.390082 0 1 -0.390082 1
gene 3 2 6 1.19947 0 2 1.19947 1
gene 1 3 6 0.787247 0 3 0.787247 1
gene 1 4 6 -0.767041 0 4 -0.767041 1
gene 2 5 6 -1.22427 0 5 -1.22427 1
gene 3 1 7 1.37163 0 6 1.37163 1
gene 2 2 7 -0.377222 0 7 -0.377222 1
gene 3 3 7 -1.68022 0 8 -1.68022 1
gene 3 4 7 1.40957 0 9 1.40957 1
gene 2 5 7 -1.73552 0 10 -1.73552 1
genomeend 51

/* Organism #52 Fitness: 14 Error: 0 */
genomestart 52
node 1 3 1 3
node 2 2 1 1
node 3 3 1 1
node 4 1 1 1
node 5 1 1 1
node 6 1 0 2
node 7 2 0 2
gene 1 1 6 0.690612 0 1 0.690612 1
gene 2 2 6 -0.287406 0 2 -0.287406 1
gene 3 3 6 -2.33528 0 3 -2.33528 1
gene 3 4 6 -1.25133 0 4 -1.25133 1
gene 2 5 6 2.55282 0 5 2.55282 1
gene 3 1 7 -2.3626 0 6 -2.3626 1
gene 1 2 7 -2.83065 0 7 -2.83065 1
gene 1 3 7 -1.95376 0 8 -1.95376 1
gene 2 4 7 3.17677 0 9 3.17677 1
gene 1 5 7 1.06277 0 10 1.06277 1
genomeend 52

/* Species #2 : (Size 25) (AF 23.88) (Age 2)  */


/* Organism #53 Fitness: 22 Error: 0 */
genomestart 53
node 1 3 1 3
node 2 2 1 1
node 3 1 1 1
node 4 2 1 1
node 5 3 1 1
node 6 2 0 2
node 7 3 0 2
gene 3 1 6 -0.126319 0 1 -0.126319 1
gene 3 2 6 2.20514 0 2 2.20514 1
gene 1 3 6 -0.341401 0 3 -0.341401 1
gene 2 4 6 2.01059 0 4 2.01059 1
gene 2 5 6 -1.35709 0 5 -1.35709 1
gene 3 1 7 1.56713 0 6 1.56713 1
gene 2 2 7 -1.6148 0 7 -1.6148 1
gene 1 3 7 -2.51305 0 8 -2.51305 1
gene 2 4 7 2.80723 0 9 2.80723 1
gene 1 5 7 2.78331 0 10 2.78331 1
genomeend 53

/* Organism #54 Fitness: 25 Error: 0 */
genomestart 54
node 1 3 1 3
node 2 2 1 1
node 3 1 1 1
node 4 2 1 1
node 5 1 1 1
node 6 2 0 2
node 7 3 0 2
gene 3 1 6 -0.126319 0 1 -0.126319 1
gene 3 2 6 2.20514 0 2 2.20514 1
gene 1 3 6 -0.341401 0 3 -0.341401 1
gene 2 4 6 2.01059 0 4 2.01059 1
gene 2 5 6 -1.35709 0 5 -1.35709 1
gene 3 1 7 1.56713 0 6 1.56713 1
gene 2 2 7 -1.6148 0 7 -1.6148 1
gene 1 3 7 -2.51305 0 8 -2.51305 1
gene 2 4 7 2.80723 0 9 2.80723 1
gene 1 5 7 2.78331 0 10 2.78331 1
genomeend 54

/* Organism #55 Fitness: 10 Error: 0 */
genomestart 55
node 1 3 1 3
node 2 2 1 1
node 3 1 1 1
node 4 2 1 1
node 5 3 1 1
node 6 2 0 2
node 7 3 0 2
gene 3 1 6 -0.670404 0 1 -0.670404 1
gene 3 2 6 1.54727 0 2 1.54727 1
gene 1 3 6 0.459723 0 3 0.459723 1
gene 2 4 6 4.45918 0 4 4.45918 1
gene 2 5 6 -1.35709 0 5 -1.35709 1
gene 3 1 7 -0.523599 0 6 -0.523599 1
gene 2 2 7 -3.45373 0 7 -3.45373 1
gene 1 3 7 -2.45918 0 8 -2.45918 1
gene 2 4 7 2.80723 0 9 2.80723 1
gene 1 5 7 1.39713 0 10 1.39713 1
genomeend 55

/* Organism #56 Fitness: 14 Error: 0 */
genomestart 56
node 1 3 1 3
node 2 2 1 1
node 3 1 1 1
node 4 2 1 1
node 5 3 1 1
node 6 2 0 2
node 7 3 0 2
gene 3 1 6 1.72563 0 1 1.72563 1
gene 3 2 6 4.46552 0 2 4.46552 1
gene 1 3 6 -0.0416482 0 3 -0.0416482 1
gene 2 4 6 3.72743 0 4 3.72743 1
gene 2 5 6 -2.78003 0 5 -2.78003 1
gene 3 1 7 3.11901 0 6 3.11901 1
gene 2 2 7 -2.35095 0 7 -2.35095 1
gene 1 3 7 -4.61549 0 8 -4.61549 1
gene 2 4 7 1.30491 0 9 1.30491 1
gene 1 5 7 2.78331 0 10 2.78331 1
genomeend 56

/* Organism #57 Fitness: 11 Error: 0 */
genomestart 57
node 1 3 1 3
node 2 2 1 1
node 3 1 1 1
node 4 2 1 1
node 5 2 1 1
node 6 2 0 2
node 7 3 0 2
gene 3 1 6 -1.22724 0 1 -1.22724 1
gene 3 2 6 1.75647 0 2 1.75647 1
gene 1 3 6 1.40578 0 3 1.40578 1
gene 2 4 6 0.787727 0 4 0.787727 1
gene 2 5 6 -0.732708 0 5 -0.732708 1
gene 3 1 7 2.85696 0 6 2.85696 1
gene 2 2 7 -3.07027 0 7 -3.07027 1
gene 1 3 7 -4.02714 0 8 -4.02714 1
gene 2 4 7 2.72739 0 9 2.72739 1
gene 1 5 7 0.76457 0 10 0.76457 1
genomeend 57

/* Organism #58 Fitness: 26 Error: 0 */
genomestart 58
node 1 3 1 3
node 2 2 1 1
node 3 1 1 1
node 4 2 1 1
node 5 3 1 1
node 6 2 0 2
node 7 3 0 2
gene 3 1 6 2.12044 0 1 2.12044 1
gene 3 2 6 2.20514 0 2 2.20514 1
gene 1 3 6 -0.341401 0 3 -0.341401 1
gene 2 4 6 0.0395584 0 4 0.0395584 1
gene 2 5 6 0.65426 0 5 0.65426 1
gene 3 1 7 1.83329 0 6 1.83329 1
gene 2 2 7 -1.84564 0 7 -1.84564 1
gene 1 3 7 -0.471454 0 8 -0.471454 1
gene 2 4 7 1.8186 0 9 1.8186 1
gene 1 5 7 0.92334 0 10 0.92334 1
genomeend 58

/* Organism #59 Fitness: 16 Error: 0 */
genomestart 59
node 1 3 1 3
node 2 2 1 1
node 3 1 1 1
node 4 2 1 1
node 5 3 1 1
node 6 2 0 2
node 7 3 0 2
gene 3 1 6 -0.126319 0 1 -0.126319 1
gene 3 2 6 2.20514 0 2 2.20514 1
gene 1 3 6 -0.341401 0 3 -0.341401 1
gene 2 4 6 2.01059 0 4 2.01059 1
gene 2 5 6 -1.35709 0 5 -1.35709 1
gene 3 1 7 1.56713 0 6 1.56713 1
gene 2 2 7 -1.6148 0 7 -1.6148 1
gene 1 3 7 -2.51305 0 8 -2.51305 1
gene 2 4 7 2.80723 0 9 2.80723 1
gene 1 5 7 2.78331 0 10 2.78331 1
genomeend 59

/* Organism #60 Fitness: 104 Error: 0 */
genomestart 60
node 1 3 1 3
node 2 2 1 1
node 3 1 1 1
node 4 2 1 1
node 5 3 1 1
node 6 2 0 2
node 7 3 0 2
gene 3 1 6 -0.126319 0 1 -0.126319 1
gene 3 2 6 2.20514 0 2 2.20514 1
gene 1 3 6 -0.341401 0 3 -0.341401 1
gene 2 4 6 2.01059 0 4 2.01059 1
gene 2 5 6 -1.35709 0 5 -1.35709 1
gene 3 1 7 1.56713 0 6 1.56713 1
gene 2 2 7 -1.6148 0 7 -1.6148 1
gene 1 3 7 -2.51305 0 8 -2.51305 1
gene 2 4 7 2.80723 0 9 2.80723 1
gene 1 5 7 2.78331 0 10 2.78331 1
gene 1 6 7 -0.0852396 0 20 -0.0852396 1
genomeend 60

/* Organism #61 Fitness: 55 Error: 0 */
genomestart 61
node 1 3 1 3
node 2 2 1 1
node 3 1 1 1
node 4 2 1 1
node 5 3 1 1
node 6 2 0 2
node 7 3 0 2
gene 3 1 6 2.19535 0 1 2.19535 1
gene 3 2 6 -0.290441 0 2 -0.290441 1
gene 1 3 6 1.23297 0 3 1.23297 1
gene 2 4 6 2.0984 0 4 2.0984 1
gene 2 5 6 -1.35709 0 5 -1.35709 1
gene 2 1 7 2.52751 0 6 2.52751 1
gene 2 2 7 -2.57652 0 7 -2.57652 1
gene 1 3 7 -4.74256 0 8 -4.74256 1
gene 2 4 7 4.69539 0 9 4.69539 1
gene 1 5 7 4.45767 0 10 4.45767 1
genomeend 61

/* Organism #62 Fitness: 12 Error: 0 */
genomestart 62
node 1 3 1 3
node 2 2 1 1
node 3 1 1 1
node 4 2 1 1
node 5 3 1 1
node 6 2 0 2
node 7 3 0 2
gene 3 1 6 -1.58906 0 1 -1.58906 1
gene 3 2 6 2.1853 0 2 2.1853 1
gene 1 3 6 -2.15191 0 3 -2.15191 1
gene 2 4 6 1.48065 0 4 1.48065 1
gene 2 5 6 -3.06622 0 5 -3.06622 1
gene 3 1 7 3.7835 0 6 3.7835 1
gene 2 2 7 -1.95284 0 7 -1.95284 1
gene 1 3 7 -2.36743 0 8 -2.36743 1
gene 2 4 7 1.57474 0 9 1.57474 1
gene 1 5 7 4.79402 0 10 4.79402 1
genomeend 62

/* Organism #63 Fitness: 14 Error: 0 */
genomestart 63
node 1 3 1 3
node 2 2 1 1
node 3 1 1 1
node 4 2 1 1
node 5 3 1 1
node 6 2 0 2
node 7 3 0 2
gene 3 1 6 2.06288 0 1 2.06288 1
gene 3 2 6 2.20514 0 2 2.20514 1
gene 1 3 6 -2.27768 0 3 -2.27768 1
gene 3 4 6 1.62003 0 4 1.62003 1
gene 2 5 6 -2.30837 0 5 -2.30837 1
gene 3 1 7 1.92405 0 6 1.92405 1
gene 2 2 7 0.924834 0 7 0.924834 1
gene 1 3 7 -2.70286 0 8 -2.70286 1
gene 2 4 7 3.43696 0 9 3.43696 1
gene 1 5 7 2.78331 0 10 2.78331 1
genomeend 63

/* Organism #64 Fitness: 29 Error: 0 */
genomestart 64
node 1 3 1 3
node 2 2 1 1
node 3 1 1 1
node 4 2 1 1
node 5 3 1 1
node 6 2 0 2
node 7 3 0 2
gene 3 1 6 2.08763 0 1 2.08763 1
gene 3 2 6 4.23265 0 2 4.23265 1
gene 1 3 6 -2.65408 0 3 -2.65408 1
gene 2 4 6 4.2194 0 4 4.2194 1
gene 2 5 6 -2.74675 0 5 -2.74675 1
gene 3 1 7 0.360109 0 6 0.360109 1
gene 2 2 7 0.155319 0 7 0.155319 1
gene 1 3 7 -3.16137 0 8 -3.16137 1
gene 2 4 7 3.10527 0 9 3.10527 1
gene 1 5 7 2.78331 0 10 2.78331 1
genomeend 64

/* Organism #65 Fitness: 25 Error: 0 */
genomestart 65
node 1 3 1 3
node 2 2 1 1
node 3 1 1 1
node 4 2 1 1
node 5 3 1 1
node 6 2 0 2
node 7 3 0 2
gene 3 1 6 1.38302 0 1 1.38302 1
gene 3 2 6 1.47877 0 2 1.47877 1
gene 1 3 6 0.73439 0 3 0.73439 1
gene 2 4 6 4.49157 0 4 4.49157 1
gene 2 5 6 0.331965 0 5 0.331965 1
gene 3 1 7 1.38424 0 6 1.38424 1
gene 2 2 7 -1.72324 0 7 -1.72324 1
gene 1 3 7 -1.05734 0 8 -1.05734 1
gene 2 4 7 3.11485 0 9 3.11485 1
gene 1 5 7 2.78331 0 10 2.78331 1
genomeend 65

/* Organism #66 Fitness: 10 Error: 0 */
genomestart 66
node 1 3 1 3
node 2 2 1 1
node 3 1 1 1
node 4 2 1 1
node 5 3 1 1
node 6 2 0 2
node 7 3 0 2
gene 3 1 6 1.53875 0 1 1.53875 1
gene 3 2 6 0.448049 0 2 0.448049 1
gene 1 3 6 1.2098 0 3 1.2098 1
gene 2 4 6 2.72473 0 4 2.72473 1
gene 2 5 6 -2.18068 0 5 -2.18068 1
gene 3 1 7 3.49007 0 6 3.49007 1
gene 2 2 7 -2.073 0 7 -2.073 1
gene 1 3 7 -0.287097 0 8 -0.287097 1
gene 2 4 7 2.71918 0 9 2.71918 1
gene 1 5 7 4.43792 0 10 4.43792 1
genomeend 66

/* Organism #67 Fitness: 38 Error: 0 */
genomestart 67
node 1 3 1 3
node 2 3 1 1
node 3 3 1 1
node 4 1 1 1
node 5 1 1 1
node 6 1 0 2
node 7 1 0 2
gene 1 1 6 0.598838 0 1 0.598838 1
gene 3 2 6 2.77134 0 2 2.77134 1
gene 1 3 6 1.80525 0 3 1.80525 1
gene 1 4 6 0.323995 0 4 0.323995 1
gene 1 5 6 -1.01442 0 5 -1.01442 1
gene 2 1 7 -0.249625 0 6 -0.249625 1
gene 3 2 7 1.15584 0 7 1.15584 1
gene 2 3 7 -4.2663 0 8 -4.2663 1
gene 2 4 7 1.29267 0 9 1.29267 1
gene 2 5 7 1.66016 0 10 1.66016 1
genomeend 67

/* Organism #68 Fitness: 11 Error: 0 */
genomestart 68
node 1 2 1 3
node 2 2 1 1
node 3 3 1 1
node 4 2 1 1
node 5 3 1 1
node 6 1 0 2
node 7 3 0 2
gene 1 1 6 0.249327 0 1 0.249327 1
gene 1 2 6 1.65638 0 2 1.65638 1
gene 1 3 6 1.22166 0 3 1.22166 1
gene 1 4 6 1.70918 0 4 1.70918 1
gene 2 5 6 1.95934 0 5 1.95934 1
gene 2 1 7 0.677324 0 6 0.677324 1
gene 3 2 7 0.394427 0 7 0.394427 1
gene 3 3 7 -2.66835 0 8 -2.66835 1
gene 3 4 7 0.56913 0 9 0.56913 1
gene 1 5 7 1.07011 0 10 1.07011 1
genomeend 68

/* Organism #69 Fitness: 48 Error: 0 */
genomestart 69
node 1 3 1 3
node 2 2 1 1
node 3 1 1 1
node 4 2 1 1
node 5 3 1 1
node 6 2 0 2
node 7 3 0 2
gene 2 1 6 -1.14125 0 1 -1.14125 1
gene 2 2 6 1.5023 0 2 1.5023 1
gene 2 3 6 1.41328 0 3 1.41328 1
gene 2 4 6 1.47742 0 4 1.47742 1
gene 2 5 6 -0.787978 0 5 -0.787978 1
gene 3 1 7 0.366743 0 6 0.366743 1
gene 2 2 7 3.10056 0 7 3.10056 1
gene 1 3 7 -2.48579 0 8 -2.48579 1
gene 2 4 7 2.92937 0 9 2.92937 1
gene 1 5 7 -0.458031 0 10 -0.458031 1
genomeend 69

/* Organism #70 Fitness: 38 Error: 0 */
genomestart 70
node 1 3 1 3
node 2 2 1 1
node 3 1 1 1
node 4 2 1 1
node 5 3 1 1
node 6 2 0 2
node 7 3 0 2
gene 2 1 6 -1.14125 0 1 -1.14125 1
gene 2 2 6 1.5023 0 2 1.5023 1
gene 2 3 6 1.41328 0 3 1.41328 1
gene 2 4 6 1.47742 0 4 1.47742 1
gene 2 5 6 -0.787978 0 5 -0.787978 1
gene 3 1 7 0.366743 0 6 0.366743 1
gene 2 2 7 3.10056 0 7 3.10056 1
gene 1 3 7 -2.48579 0 8 -2.48579 1
gene 2 4 7 2.92937 0 9 2.92937 1
gene 1 5 7 -0.458031 0 10 -0.458031 1
genomeend 70

/* Organism #71 Fitness: 20 Error: 0 */
genomestart 71
node 1 3 1 3
node 2 2 1 1
node 3 1 1 1
node 4 2 1 1
node 5 3 1 1
node 6 2 0 2
node 7 3 0 2
gene 2 1 6 -2.26093 0 1 -2.26093 1
gene 2 2 6 2.87428 0 2 2.87428 1
gene 3 3 6 1.23606 0 3 1.23606 1
gene 2 4 6 1.57129 0 4 1.57129 1
gene 2 5 6 -1.17211 0 5 -1.17211 1
gene 3 1 7 -0.641038 0 6 -0.641038 1
gene 2 2 7 1.56033 0 7 1.56033 1
gene 1 3 7 -0.479714 0 8 -0.479714 1
gene 2 4 7 3.36398 0 9 3.36398 1
gene 1 5 7 1.43592 0 10 1.43592 1
genomeend 71

/* Organism #72 Fitness: 12 Error: 0 */
genomestart 72
node 1 3 1 3
node 2 2 1 1
node 3 1 1 1
node 4 2 1 1
node 5 3 1 1
node 6 2 0 2
node 7 3 0 2
gene 2 1 6 -2.86576 0 1 -2.86576 1
gene 2 2 6 3.62565 0 2 3.62565 1
gene 2 3 6 0.204785 0 3 0.204785 1
gene 2 4 6 1.43732 0 4 1.43732 1
gene 2 5 6 -0.627679 0 5 -0.627679 1
gene 3 1 7 1.21246 0 6 1.21246 1
gene 2 2 7 -1.68235 0 7 -1.68235 1
gene 1 3 7 -2.1362 0 8 -2.1362 1
gene 2 4 7 0.868425 0 9 0.868425 1
gene 1 5 7 -0.0759016 0 10 -0.0759016 1
genomeend 72

/* Organism #73 Fitness: 8 Error: 0 */
genomestart 73
node 1 1 1 3
node 2 3 1 1
node 3 3 1 1
node 4 3 1 1
node 5 2 1 1
node 6 3 0 2
node 7 1 0 2
gene 2 1 6 0.206866 0 1 0.206866 1
gene 1 2 6 2.17178 0 2 2.17178 1
gene 1 3 6 -0.578935 0 3 -0.578935 1
gene 2 4 6 -0.700933 0 4 -0.700933 1
gene 3 5 6 -0.877904 0 5 -0.877904 1
gene 1 1 7 -2.59609 0 6 -2.59609 1
gene 2 2 7 -3.51253 0 7 -3.51253 1
gene 3 3 7 -0.200123 0 8 -0.200123 1
gene 3 4 7 1.98498 0 9 1.98498 1
gene 2 5 7 3.00184 0 10 3.00184 1
genomeend 73

/* Organism #74 Fitness: 1 Error: 0 */
genomestart 74
node 1 3 1 3
node 2 3 1 1
node 3 2 1 1
node 4 2 1 1
node 5 3 1 1
node 6 1 0 2
node 7 3 0 2
gene 1 1 6 1.45426 0 1 1.45426 1
gene 2 2 6 1.21105 0 2 1.21105 1
gene 3 3 6 -0.236893 0 3 -0.236893 1
gene 2 4 6 1.40823 0 4 1.40823 1
gene 2 5 6 -1.47037 0 5 -1.47037 1
gene 2 1 7 2.98735 0 6 2.98735 1
gene 2 2 7 0.447145 0 7 0.447145 1
gene 2 3 7 0.262595 0 8 0.262595 1
gene 2 4 7 2.28043 0 9 2.28043 1
gene 2 5 7 0.617957 0 10 0.617957 1
genomeend 74

/* Organism #75 Fitness: 23 Error: 0 */
genomestart 75
node 1 1 1 3
node 2 3 1 1
node 3 3 1 1
node 4 2 1 1
node 5 2 1 1
node 6 3 0 2
node 7 2 0 2
gene 3 1 6 -0.0928852 0 1 -0.0928852 1
gene 3 2 6 -3.03922 0 2 -3.03922 1
gene 1 3 6 1.11492 0 3 1.11492 1
gene 1 4 6 1.91794 0 4 1.91794 1
gene 2 5 6 -0.641876 0 5 -0.641876 1
gene 3 1 7 -1.78662 0 6 -1.78662 1
gene 3 2 7 -1.2194 0 7 -1.2194 1
gene 2 3 7 -1.54091 0 8 -1.54091 1
gene 1 4 7 3.166 0 9 3.166 1
gene 3 5 7 0.991036 0 10 0.991036 1
genomeend 75

/* Organism #76 Fitness: 22 Error: 0 */
genomestart 76
node 1 1 1 3
node 2 3 1 1
node 3 3 1 1
node 4 3 1 1
node 5 2 1 1
node 6 3 0 2
node 7 1 0 2
gene 1 1 6 0.395085 0 1 0.395085 1
gene 3 2 6 2.4085 0 2 2.4085 1
gene 1 3 6 0.783328 0 3 0.783328 1
gene 1 4 6 0.0218128 0 4 0.0218128 1
gene 2 5 6 -3.37298 0 5 -3.37298 1
gene 3 1 7 2.35857 0 6 2.35857 1
gene 2 2 7 -1.08938 0 7 -1.08938 1
gene 3 3 7 -0.916157 0 8 -0.916157 1
gene 3 4 7 0.349713 0 9 0.349713 1
gene 2 5 7 3.61922 0 10 3.61922 1
genomeend 76

/* Organism #77 Fitness: 3 Error: 0 */
genomestart 77
node 1 3 1 3
node 2 2 1 1
node 3 1 1 1
node 4 1 1 1
node 5 3 1 1
node 6 1 0 2
node 7 2 0 2
gene 2 1 6 -1.70505 0 1 -1.70505 1
gene 1 2 6 -0.971146 0 2 -0.971146 1
gene 1 3 6 0.0137925 0 3 0.0137925 1
gene 1 4 6 2.17218 0 4 2.17218 1
gene 2 5 6 0.057432 0 5 0.057432 1
gene 3 1 7 1.63762 0 6 1.63762 1
gene 3 2 7 2.16054 0 7 2.16054 1
gene 1 3 7 -2.42404 0 8 -2.42404 1
gene 2 4 7 0.124184 0 9 0.124184 1
gene 2 5 7 2.19811 0 10 2.19811 1
genomeend 77

/* Species #3 : (Size 24) (AF 10.7083) (Age 2)  */


/* Organism #78 Fitness: 2 Error: 0 */
genomestart 78
node 1 3 1 3
node 2 1 1 1
node 3 2 1 1
node 4 2 1 1
node 5 3 1 1
node 6 1 0 2
node 7 3 0 2
gene 2 1 6 -2.08827 0 1 -2.08827 1
gene 2 2 6 -1.51578 0 2 -1.51578 1
gene 2 3 6 -0.957828 0 3 -0.957828 1
gene 2 4 6 0.426159 0 4 0.426159 1
gene 3 5 6 1.87629 0 5 1.87629 1
gene 2 1 7 1.20113 0 6 1.20113 1
gene 2 2 7 -0.843832 0 7 -0.843832 1
gene 1 3 7 -1.18305 0 8 -1.18305 1
gene 3 4 7 -1.43091 0 9 -1.43091 1
gene 2 5 7 -0.83584 0 10 -0.83584 1
genomeend 78

/* Organism #79 Fitness: 13 Error: 0 */
genomestart 79
node 1 2 1 3
node 2 3 1 1
node 3 3 1 1
node 4 2 1 1
node 5 3 1 1
node 6 1 0 2
node 7 2 0 2
gene 3 1 6 -1.54156 0 1 -1.54156 1
gene 2 2 6 -2.06192 0 2 -2.06192 1
gene 3 3 6 -0.210345 0 3 -0.210345 1
gene 2 4 6 -0.388517 0 4 -0.388517 1
gene 3 5 6 -0.677019 0 5 -0.677019 1
gene 3 1 7 2.36228 0 6 2.36228 1
gene 2 2 7 -0.333168 0 7 -0.333168 1
gene 3 3 7 1.05721 0 8 1.05721 1
gene 2 4 7 1.6512 0 9 1.6512 1
gene 2 5 7 1.44268 0 10 1.44268 1
genomeend 79

/* Organism #80 Fitness: 9 Error: 0 */
genomestart 80
node 1 1 1 3
node 2 1 1 1
node 3 1 1 1
node 4 1 1 1
node 5 1 1 1
node 6 3 0 2
node 7 1 0 2
gene 1 1 6 -2.16819 0 1 -2.16819 1
gene 3 2 6 -2.0589 0 2 -2.0589 1
gene 1 3 6 2.19891 0 3 2.19891 1
gene 2 4 6 -0.293157 0 4 -0.293157 1
gene 2 5 6 0.850117 0 5 0.850117 1
gene 1 1 7 2.41045 0 6 2.41045 1
gene 2 2 7 -0.937266 0 7 -0.937266 1
gene 3 3 7 -2.26463 0 8 -2.26463 1
gene 3 4 7 -0.39 0 9 -0.39 1
gene 3 5 7 2.07426 0 10 2.07426 1
genomeend 80

/* Organism #81 Fitness: 12 Error: 0 */
genomestart 81
node 1 1 1 3
node 2 1 1 1
node 3 1 1 1
node 4 1 1 1
node 5 1 1 1
node 6 3 0 2
node 7 1 0 2
gene 1 1 6 -3.76039 0 1 -3.76039 1
gene 3 2 6 -1.26481 0 2 -1.26481 1
gene 1 3 6 1.18944 0 3 1.18944 1
gene 2 4 6 -0.0177633 0 4 -0.0177633 1
gene 2 5 6 -0.101418 0 5 -0.101418 1
gene 1 1 7 2.04348 0 6 2.04348 1
gene 2 2 7 0.696786 0 7 0.696786 1
gene 3 3 7 -0.843772 0 8 -0.843772 1
gene 3 4 7 -2.84136 0 9 -2.84136 1
gene 3 5 7 2.07426 0 10 2.07426 1
genomeend 81

/* Organism #82 Fitness: 10 Error: 0 */
genomestart 82
node 1 2 1 3
node 2 3 1 1
node 3 3 1 1
node 4 2 1 1
node 5 3 1 1
node 6 1 0 2
node 7 2 0 2
gene 3 1 6 -1.54156 0 1 -1.54156 1
gene 3 2 6 -2.0589 0 2 -2.0589 1
gene 3 3 6 -0.210345 0 3 -0.210345 1
gene 2 4 6 -0.388517 0 4 -0.388517 1
gene 3 5 6 -0.677019 0 5 -0.677019 1
gene 3 1 7 2.36228 0 6 2.36228 1
gene 2 2 7 -0.333168 0 7 -0.333168 1
gene 3 3 7 1.05721 0 8 1.05721 1
gene 3 4 7 -0.39 0 9 -0.39 1
gene 3 5 7 2.07426 0 10 2.07426 1
genomeend 82

/* Organism #83 Fitness: 4 Error: 0 */
genomestart 83
node 1 2 1 3
node 2 3 1 1
node 3 3 1 1
node 4 2 1 1
node 5 3 1 1
node 6 1 0 2
node 7 2 0 2
gene 1 1 6 -2.16819 0 1 -2.16819 1
gene 3 2 6 -2.0589 0 2 -2.0589 1
gene 3 3 6 -0.210345 0 3 -0.210345 1
gene 2 4 6 -0.293157 0 4 -0.293157 1
gene 3 5 6 -0.677019 0 5 -0.677019 1
gene 1 1 7 2.41045 0 6 2.41045 1
gene 2 2 7 -0.937266 0 7 -0.937266 1
gene 3 3 7 1.05721 0 8 1.05721 1
gene 2 4 7 1.6512 0 9 1.6512 1
gene 3 5 7 2.07426 0 10 2.07426 1
genomeend 83

/* Organism #84 Fitness: 6 Error: 0 */
genomestart 84
node 1 3 1 3
node 2 1 1 1
node 3 2 1 1
node 4 2 1 1
node 5 3 1 1
node 6 1 0 2
node 7 3 0 2
gene 2 1 6 -2.08827 0 1 -2.08827 1
gene 2 2 6 -1.51578 0 2 -1.51578 1
gene 2 3 6 -0.957828 0 3 -0.957828 1
gene 2 4 6 -0.293157 0 4 -0.293157 1
gene 3 5 6 1.87629 0 5 1.87629 1
gene 1 1 7 2.41045 0 6 2.41045 1
gene 2 2 7 -0.937266 0 7 -0.937266 1
gene 3 3 7 -2.26463 0 8 -2.26463 1
gene 3 4 7 -0.39 0 9 -0.39 1
gene 3 5 7 2.07426 0 10 2.07426 1
genomeend 84

/* Organism #85 Fitness: 4 Error: 0 */
genomestart 85
node 1 3 1 3
node 2 2 1 1
node 3 1 1 1
node 4 2 1 1
node 5 3 1 1
node 6 2 0 2
node 7 3 0 2
gene 3 1 6 -1.54156 0 1 -1.54156 1
gene 3 2 6 0.530154 0 2 0.530154 1
gene 1 3 6 -2.26032 0 3 -2.26032 1
gene 2 4 6 -0.388517 0 4 -0.388517 1
gene 2 5 6 0.534469 0 5 0.534469 1
gene 3 1 7 2.36228 0 6 2.36228 1
gene 2 2 7 1.22863 0 7 1.22863 1
gene 3 3 7 1.05721 0 8 1.05721 1
gene 1 4 7 -0.39932 0 9 -0.39932 1
gene 2 5 7 1.44268 0 10 1.44268 1
genomeend 85

/* Organism #86 Fitness: 30 Error: 0 */
genomestart 86
node 1 2 1 3
node 2 2 1 1
node 3 3 1 1
node 4 2 1 1
node 5 3 1 1
node 6 1 0 2
node 7 3 0 2
gene 1 1 6 -1.84998 0 1 -1.84998 1
gene 1 2 6 0.541421 0 2 0.541421 1
gene 2 3 6 1.34794 0 3 1.34794 1
gene 1 4 6 2.73697 0 4 2.73697 1
gene 1 5 6 1.82305 0 5 1.82305 1
gene 2 1 7 1.21463 0 6 1.21463 1
gene 3 2 7 1.25414 0 7 1.25414 1
gene 3 3 7 -3.26502 0 8 -3.26502 1
gene 3 4 7 -0.0149894 0 9 -0.0149894 1
gene 1 5 7 0.726113 0 10 0.726113 1
genomeend 86

/* Organism #87 Fitness: 6 Error: 0 */
genomestart 87
node 1 2 1 3
node 2 2 1 1
node 3 3 1 1
node 4 2 1 1
node 5 3 1 1
node 6 1 0 2
node 7 3 0 2
gene 1 1 6 -0.975257 0 1 -0.975257 1
gene 3 2 6 0.368253 0 2 0.368253 1
gene 1 3 6 0.87126 0 3 0.87126 1
gene 1 4 6 1.40737 0 4 1.40737 1
gene 1 5 6 1.83283 0 5 1.83283 1
gene 2 1 7 1.34569 0 6 1.34569 1
gene 3 2 7 -0.300531 0 7 -0.300531 1
gene 3 3 7 -2.41708 0 8 -2.41708 1
gene 1 4 7 -0.731656 0 9 -0.731656 1
gene 3 5 7 -0.608078 0 10 -0.608078 1
genomeend 87

/* Organism #88 Fitness: 2 Error: 0 */
genomestart 88
node 1 1 1 3
node 2 3 1 1
node 3 3 1 1
node 4 2 1 1
node 5 2 1 1
node 6 3 0 2
node 7 2 0 2
gene 1 1 6 -1.75754 0 1 -1.75754 1
gene 3 2 6 1.35226 0 2 1.35226 1
gene 2 3 6 1.34245 0 3 1.34245 1
gene 2 4 6 3.06396 0 4 3.06396 1
gene 2 5 6 0.47031 0 5 0.47031 1
gene 2 1 7 0.43547 0 6 0.43547 1
gene 1 2 7 -0.202775 0 7 -0.202775 1
gene 3 3 7 -2.53348 0 8 -2.53348 1
gene 3 4 7 -1.26955 0 9 -1.26955 1
gene 3 5 7 -0.480509 0 10 -0.480509 1
genomeend 88

/* Organism #89 Fitness: 11 Error: 0 */
genomestart 89
node 1 2 1 3
node 2 1 1 1
node 3 2 1 1
node 4 2 1 1
node 5 1 1 1
node 6 3 0 2
node 7 1 0 2
gene 1 1 6 -0.0681382 0 1 -0.0681382 1
gene 3 2 6 -0.601475 0 2 -0.601475 1
gene 2 3 6 1.38618 0 3 1.38618 1
gene 2 4 6 -0.816869 0 4 -0.816869 1
gene 1 5 6 4.12093 0 5 4.12093 1
gene 2 1 7 3.41626 0 6 3.41626 1
gene 3 2 7 -0.288931 0 7 -0.288931 1
gene 3 3 7 -3.44842 0 8 -3.44842 1
gene 3 4 7 -1.39371 0 9 -1.39371 1
gene 1 5 7 -0.608078 0 10 -0.608078 1
genomeend 89

/* Organism #90 Fitness: 17 Error: 0 */
genomestart 90
node 1 2 1 3
node 2 2 1 1
node 3 3 1 1
node 4 2 1 1
node 5 3 1 1
node 6 1 0 2
node 7 1 0 2
gene 1 1 6 -2.89705 0 1 -2.89705 1
gene 1 2 6 -1.46072 0 2 -1.46072 1
gene 2 3 6 0.122706 0 3 0.122706 1
gene 1 4 6 1.73727 0 4 1.73727 1
gene 1 5 6 0.795002 0 5 0.795002 1
gene 2 1 7 3.1098 0 6 3.1098 1
gene 3 2 7 -1.15487 0 7 -1.15487 1
gene 3 3 7 -1.53601 0 8 -1.53601 1
gene 3 4 7 -1.44766 0 9 -1.44766 1
gene 1 5 7 1.93157 0 10 1.93157 1
genomeend 90

/* Organism #91 Fitness: 1 Error: 0 */
genomestart 91
node 1 2 1 3
node 2 2 1 1
node 3 3 1 1
node 4 2 1 1
node 5 3 1 1
node 6 1 0 2
node 7 3 0 2
gene 1 1 6 -1.84998 0 1 -1.84998 1
gene 1 2 6 0.541421 0 2 0.541421 1
gene 2 3 6 1.34794 0 3 1.34794 1
gene 1 4 6 2.73697 0 4 2.73697 1
gene 1 5 6 1.82305 0 5 1.82305 1
gene 2 1 7 1.21463 0 6 1.21463 1
gene 3 2 7 1.25414 0 7 1.25414 1
gene 3 3 7 -3.26502 0 8 -3.26502 1
gene 3 4 7 -0.0149894 0 9 -0.0149894 1
gene 1 5 7 0.726113 0 10 0.726113 1
genomeend 91

/* Organism #92 Fitness: 12 Error: 0 */
genomestart 92
node 1 3 1 3
node 2 2 1 1
node 3 1 1 1
node 4 2 1 1
node 5 3 1 1
node 6 2 0 2
node 7 3 0 2
gene 2 1 6 -0.655541 0 1 -0.655541 1
gene 2 2 6 -0.293939 0 2 -0.293939 1
gene 2 3 6 1.56932 0 3 1.56932 1
gene 2 4 6 -0.502382 0 4 -0.502382 1
gene 2 5 6 0.776769 0 5 0.776769 1
gene 3 1 7 2.19119 0 6 2.19119 1
gene 2 2 7 4.15614 0 7 4.15614 1
gene 1 3 7 -2.69275 0 8 -2.69275 1
gene 2 4 7 0.871281 0 9 0.871281 1
gene 1 5 7 -1.6361 0 10 -1.6361 1
genomeend 92

/* Organism #93 Fitness: 12 Error: 0 */
genomestart 93
node 1 1 1 3
node 2 3 1 1
node 3 3 1 1
node 4 2 1 1
node 5 2 1 1
node 6 3 0 2
node 7 2 0 2
gene 3 1 6 -2.44588 0 1 -2.44588 1
gene 3 2 6 -4.58353 0 2 -4.58353 1
gene 1 3 6 -0.381701 0 3 -0.381701 1
gene 1 4 6 -0.790781 0 4 -0.790781 1
gene 2 5 6 2.31036 0 5 2.31036 1
gene 3 1 7 0.944177 0 6 0.944177 1
gene 3 2 7 -0.301889 0 7 -0.301889 1
gene 2 3 7 -1.57473 0 8 -1.57473 1
gene 1 4 7 1.29223 0 9 1.29223 1
gene 3 5 7 0.579306 0 10 0.579306 1
genomeend 93

/* Organism #94 Fitness: 4 Error: 0 */
genomestart 94
node 1 1 1 3
node 2 3 1 1
node 3 3 1 1
node 4 2 1 1
node 5 2 1 1
node 6 2 0 2
node 7 2 0 2
gene 3 1 6 -1.84417 0 1 -1.84417 1
gene 3 2 6 -1.9285 0 2 -1.9285 1
gene 1 3 6 0.19296 0 3 0.19296 1
gene 1 4 6 -1.80089 0 4 -1.80089 1
gene 2 5 6 3.68243 0 5 3.68243 1
gene 3 1 7 -0.271178 0 6 -0.271178 1
gene 3 2 7 -0.295169 0 7 -0.295169 1
gene 2 3 7 -2.41782 0 8 -2.41782 1
gene 1 4 7 0.209634 0 9 0.209634 1
gene 3 5 7 0.367213 0 10 0.367213 1
genomeend 94

/* Organism #95 Fitness: 15 Error: 0 */
genomestart 95
node 1 1 1 3
node 2 3 1 1
node 3 3 1 1
node 4 2 1 1
node 5 2 1 1
node 6 3 0 2
node 7 2 0 2
gene 3 1 6 -1.67545 0 1 -1.67545 1
gene 3 2 6 -3.3946 0 2 -3.3946 1
gene 1 3 6 2.85385 0 3 2.85385 1
gene 1 4 6 -2.12893 0 4 -2.12893 1
gene 2 5 6 -0.822676 0 5 -0.822676 1
gene 3 1 7 -1.99426 0 6 -1.99426 1
gene 3 2 7 -1.04663 0 7 -1.04663 1
gene 2 3 7 -3.96423 0 8 -3.96423 1
gene 1 4 7 -0.894515 0 9 -0.894515 1
gene 3 5 7 0.734288 0 10 0.734288 1
genomeend 95

/* Organism #96 Fitness: 3 Error: 0 */
genomestart 96
node 1 1 1 3
node 2 3 1 1
node 3 3 1 1
node 4 3 1 1
node 5 2 1 1
node 6 3 0 2
node 7 1 0 2
gene 1 1 6 -1.45375 0 1 -1.45375 1
gene 3 2 6 -0.770402 0 2 -0.770402 1
gene 1 3 6 2.76868 0 3 2.76868 1
gene 1 4 6 3.61215 0 4 3.61215 1
gene 2 5 6 -2.78854 0 5 -2.78854 1
gene 3 1 7 1.30866 0 6 1.30866 1
gene 2 2 7 -0.0240453 0 7 -0.0240453 1
gene 3 3 7 -1.61499 0 8 -1.61499 1
gene 3 4 7 -1.05745 0 9 -1.05745 1
gene 2 5 7 3.26953 0 10 3.26953 1
genomeend 96

/* Organism #97 Fitness: 17 Error: 0 */
genomestart 97
node 1 3 1 3
node 2 2 1 1
node 3 1 1 1
node 4 1 1 1
node 5 3 1 1
node 6 1 0 2
node 7 2 0 2
gene 2 1 6 -1.44977 0 1 -1.44977 1
gene 1 2 6 -3.25894 0 2 -3.25894 1
gene 1 3 6 1.39122 0 3 1.39122 1
gene 1 4 6 0.409624 0 4 0.409624 1
gene 2 5 6 -0.0860678 0 5 -0.0860678 1
gene 3 1 7 1.63762 0 6 1.63762 1
gene 3 2 7 2.11872 0 7 2.11872 1
gene 1 3 7 -1.08072 0 8 -1.08072 1
gene 2 4 7 -2.25505 0 9 -2.25505 1
gene 1 5 7 1.51866 0 10 1.51866 1
genomeend 97

/* Organism #98 Fitness: 13 Error: 0 */
genomestart 98
node 1 3 1 3
node 2 2 1 1
node 3 1 1 1
node 4 1 1 1
node 5 3 1 1
node 6 1 0 2
node 7 2 0 2
gene 2 1 6 -1.94225 0 1 -1.94225 1
gene 1 2 6 -3.10181 0 2 -3.10181 1
gene 1 3 6 1.39122 0 3 1.39122 1
gene 1 4 6 0.409624 0 4 0.409624 1
gene 2 5 6 1.30891 0 5 1.30891 1
gene 3 1 7 3.53581 0 6 3.53581 1
gene 3 2 7 2.11872 0 7 2.11872 1
gene 1 3 7 -3.21898 0 8 -3.21898 1
gene 2 4 7 -0.299445 0 9 -0.299445 1
gene 1 5 7 0.887525 0 10 0.887525 1
genomeend 98

/* Organism #99 Fitness: 16 Error: 0 */
genomestart 99
node 1 3 1 3
node 2 2 1 1
node 3 1 1 1
node 4 1 1 1
node 5 3 1 1
node 6 1 0 2
node 7 2 0 2
gene 2 1 6 -1.44977 0 1 -1.44977 1
gene 1 2 6 -3.25894 0 2 -3.25894 1
gene 1 3 6 1.39122 0 3 1.39122 1
gene 1 4 6 0.409624 0 4 0.409624 1
gene 2 5 6 -0.0860678 0 5 -0.0860678 1
gene 3 1 7 1.63762 0 6 1.63762 1
gene 3 2 7 2.11872 0 7 2.11872 1
gene 1 3 7 -1.08072 0 8 -1.08072 1
gene 2 4 7 -2.25505 0 9 -2.25505 1
gene 1 5 7 1.51866 0 10 1.51866 1
genomeend 99

/* Organism #100 Fitness: 15 Error: 0 */
genomestart 100
node 1 3 1 3
node 2 2 1 1
node 3 1 1 1
node 4 1 1 1
node 5 3 1 1
node 6 1 0 2
node 7 2 0 2
gene 2 1 6 -0.690329 0 1 -0.690329 1
gene 1 2 6 -2.78973 0 2 -2.78973 1
gene 1 3 6 1.02538 0 3 1.02538 1
gene 1 4 6 1.79129 0 4 1.79129 1
gene 2 5 6 -0.671943 0 5 -0.671943 1
gene 3 1 7 3.10613 0 6 3.10613 1
gene 3 2 7 1.15017 0 7 1.15017 1
gene 1 3 7 0.377944 0 8 0.377944 1
gene 2 4 7 -0.21167 0 9 -0.21167 1
gene 1 5 7 1.33016 0 10 1.33016 1
genomeend 100

/* Organism #101 Fitness: 23 Error: 0 */
genomestart 101
node 1 3 1 3
node 2 2 1 1
node 3 1 1 1
node 4 1 1 1
node 5 3 1 1
node 6 1 0 2
node 7 2 0 2
gene 2 1 6 0.698161 0 1 0.698161 1
gene 1 2 6 -3.22779 0 2 -3.22779 1
gene 1 3 6 -0.303278 0 3 -0.303278 1
gene 1 4 6 1.24615 0 4 1.24615 1
gene 2 5 6 -0.811886 0 5 -0.811886 1
gene 3 1 7 2.67529 0 6 2.67529 1
gene 3 2 7 -0.207448 0 7 -0.207448 1
gene 1 3 7 -1.9717 0 8 -1.9717 1
gene 2 4 7 -1.27344 0 9 -1.27344 1
gene 1 5 7 0.525077 0 10 0.525077 1
genomeend 101

/* Species #4 : (Size 29) (AF 10.6207) (Age 2)  */


/* Organism #102 Fitness: 6 Error: 0 */
genomestart 102
node 1 1 1 3
node 2 3 1 1
node 3 3 1 1
node 4 2 1 1
node 5 2 1 1
node 6 3 0 2
node 7 2 0 2
gene 2 1 6 -1.88102 0 1 -1.88102 1
gene 3 2 6 1.00023 0 2 1.00023 1
gene 3 3 6 1.54096 0 3 1.54096 1
gene 2 4 6 3.05779 0 4 3.05779 1
gene 2 5 6 -0.823675 0 5 -0.823675 1
gene 2 1 7 2.64931 0 6 2.64931 1
gene 1 2 7 1.52604 0 7 1.52604 1
gene 3 3 7 -3.39042 0 8 -3.39042 1
gene 2 4 7 -1.04626 0 9 -1.04626 1
gene 3 5 7 -0.937064 0 10 -0.937064 1
genomeend 102

/* Organism #103 Fitness: 9 Error: 0 */
genomestart 103
node 1 3 1 3
node 2 3 1 1
node 3 3 1 1
node 4 1 1 1
node 5 1 1 1
node 6 1 0 2
node 7 1 0 2
gene 1 1 6 2.34863 0 1 2.34863 1
gene 3 2 6 2.77134 0 2 2.77134 1
gene 1 3 6 1.09539 0 3 1.09539 1
gene 1 4 6 0.681397 0 4 0.681397 1
gene 2 5 6 2.09563 0 5 2.09563 1
gene 2 1 7 0.140022 0 6 0.140022 1
gene 2 2 7 -0.465281 0 7 -0.465281 1
gene 2 3 7 -2.07168 0 8 -2.07168 1
gene 2 4 7 1.15325 0 9 1.15325 1
gene 2 5 7 1.4141 0 10 1.4141 1
genomeend 103

/* Organism #104 Fitness: 4 Error: 0 */
genomestart 104
node 1 2 1 3
node 2 1 1 1
node 3 2 1 1
node 4 2 1 1
node 5 1 1 1
node 6 3 0 2
node 7 1 0 2
gene 1 1 6 -0.100535 0 1 -0.100535 1
gene 3 2 6 0.195085 0 2 0.195085 1
gene 1 3 6 0.394583 0 3 0.394583 1
gene 2 4 6 0.0777786 0 4 0.0777786 1
gene 2 5 6 1.84262 0 5 1.84262 1
gene 1 1 7 1.47676 0 6 1.47676 1
gene 3 2 7 -1.8552 0 7 -1.8552 1
gene 3 3 7 -1.56913 0 8 -1.56913 1
gene 1 4 7 -1.44832 0 9 -1.44832 1
gene 3 5 7 -1.94227 0 10 -1.94227 1
genomeend 104

/* Organism #105 Fitness: 5 Error: 0 */
genomestart 105
node 1 2 1 3
node 2 1 1 1
node 3 2 1 1
node 4 2 1 1
node 5 1 1 1
node 6 3 0 2
node 7 1 0 2
gene 1 1 6 -0.100535 0 1 -0.100535 1
gene 3 2 6 0.195085 0 2 0.195085 1
gene 1 3 6 0.394583 0 3 0.394583 1
gene 2 4 6 0.0777786 0 4 0.0777786 1
gene 2 5 6 1.84262 0 5 1.84262 1
gene 1 1 7 1.47676 0 6 1.47676 1
gene 3 2 7 -1.8552 0 7 -1.8552 1
gene 3 3 7 -1.56913 0 8 -1.56913 1
gene 1 4 7 -1.44832 0 9 -1.44832 1
gene 3 5 7 -1.94227 0 10 -1.94227 1
genomeend 105

/* Organism #106 Fitness: 1 Error: 0 */
genomestart 106
node 1 2 1 3
node 2 2 1 1
node 3 3 1 1
node 4 2 1 1
node 5 3 1 1
node 6 1 0 2
node 7 3 0 2
gene 1 1 6 0.206027 0 1 0.206027 1
gene 1 2 6 2.64714 0 2 2.64714 1
gene 2 3 6 -0.0857715 0 3 -0.0857715 1
gene 1 4 6 0.918832 0 4 0.918832 1
gene 1 5 6 2.36233 0 5 2.36233 1
gene 2 1 7 -0.710258 0 6 -0.710258 1
gene 3 2 7 2.15683 0 7 2.15683 1
gene 3 3 7 -2.85147 0 8 -2.85147 1
gene 3 4 7 -0.509434 0 9 -0.509434 1
gene 1 5 7 -2.48987 0 10 -2.48987 1
genomeend 106

/* Organism #107 Fitness: 25 Error: 0 */
genomestart 107
node 1 2 1 3
node 2 2 1 1
node 3 3 1 1
node 4 2 1 1
node 5 3 1 1
node 6 1 0 2
node 7 3 0 2
gene 1 1 6 -1.84998 0 1 -1.84998 1
gene 3 2 6 2.77134 0 2 2.77134 1
gene 1 3 6 1.09539 0 3 1.09539 1
gene 1 4 6 0.681397 0 4 0.681397 1
gene 1 5 6 1.82305 0 5 1.82305 1
gene 2 1 7 0.140022 0 6 0.140022 1
gene 3 2 7 1.25414 0 7 1.25414 1
gene 3 3 7 -3.26502 0 8 -3.26502 1
gene 3 4 7 -0.0149894 0 9 -0.0149894 1
gene 2 5 7 1.4141 0 10 1.4141 1
gene 2 6 6 -0.019987 1 22 -0.019987 1
genomeend 107

/* Organism #108 Fitness: 4 Error: 0 */
genomestart 108
node 1 2 1 3
node 2 2 1 1
node 3 3 1 1
node 4 2 1 1
node 5 3 1 1
node 6 1 0 2
node 7 3 0 2
gene 1 1 6 -0.579745 0 1 -0.579745 1
gene 1 2 6 0.963651 0 2 0.963651 1
gene 2 3 6 -0.878404 0 3 -0.878404 1
gene 1 4 6 2.16593 0 4 2.16593 1
gene 1 5 6 2.85953 0 5 2.85953 1
gene 2 1 7 1.64617 0 6 1.64617 1
gene 3 2 7 -0.71354 0 7 -0.71354 1
gene 3 3 7 -5.61737 0 8 -5.61737 1
gene 3 4 7 -1.16888 0 9 -1.16888 1
gene 1 5 7 -0.0562327 0 10 -0.0562327 1
genomeend 108

/* Organism #109 Fitness: 5 Error: 0 */
genomestart 109
node 1 1 1 3
node 2 3 1 1
node 3 3 1 1
node 4 2 1 1
node 5 2 1 1
node 6 3 0 2
node 7 2 0 2
gene 2 1 6 -1.88102 0 1 -1.88102 1
gene 3 2 6 1.00023 0 2 1.00023 1
gene 3 3 6 1.54096 0 3 1.54096 1
gene 2 4 6 3.05779 0 4 3.05779 1
gene 2 5 6 -0.823675 0 5 -0.823675 1
gene 1 1 7 1.47676 0 6 1.47676 1
gene 3 2 7 -1.8552 0 7 -1.8552 1
gene 3 3 7 -3.39042 0 8 -3.39042 1
gene 1 4 7 -1.44832 0 9 -1.44832 1
gene 3 5 7 -1.94227 0 10 -1.94227 1
genomeend 109

/* Organism #110 Fitness: 3 Error: 0 */
genomestart 110
node 1 2 1 3
node 2 2 1 1
node 3 3 1 1
node 4 2 1 1
node 5 3 1 1
node 6 1 0 2
node 7 3 0 2
gene 1 1 6 -1.04014 0 1 -1.04014 1
gene 1 2 6 -1.30896 0 2 -1.30896 1
gene 2 3 6 1.31544 0 3 1.31544 1
gene 1 4 6 4.20797 0 4 4.20797 1
gene 1 5 6 0.211462 0 5 0.211462 1
gene 2 1 7 -0.532178 0 6 -0.532178 1
gene 3 2 7 -0.242378 0 7 -0.242378 1
gene 3 3 7 -0.491943 0 8 -0.491943 1
gene 1 4 7 1.01835 0 9 1.01835 1
gene 1 5 7 -0.638022 0 10 -0.638022 1
genomeend 110

/* Organism #111 Fitness: 6 Error: 0 */
genomestart 111
node 1 1 1 3
node 2 3 1 1
node 3 3 1 1
node 4 2 1 1
node 5 2 1 1
node 6 3 0 2
node 7 2 0 2
gene 2 1 6 -1.88102 0 1 -1.88102 1
gene 3 2 6 1.00023 0 2 1.00023 1
gene 2 3 6 1.34794 0 3 1.34794 1
gene 1 4 6 2.73697 0 4 2.73697 1
gene 1 5 6 1.82305 0 5 1.82305 1
gene 2 1 7 1.21463 0 6 1.21463 1
gene 3 2 7 1.25414 0 7 1.25414 1
gene 3 3 7 -3.26502 0 8 -3.26502 1
gene 3 4 7 -0.0149894 0 9 -0.0149894 1
gene 3 5 7 -0.937064 0 10 -0.937064 1
gene 1 6 7 -0.0852396 0 20 0 1
genomeend 111

/* Organism #112 Fitness: 3 Error: 0 */
genomestart 112
node 1 2 1 3
node 2 2 1 1
node 3 3 1 1
node 4 2 1 1
node 5 3 1 1
node 6 1 0 2
node 7 3 0 2
gene 1 1 6 1.36562 0 1 1.36562 1
gene 3 2 6 1.35717 0 2 1.35717 1
gene 2 3 6 3.60638 0 3 3.60638 1
gene 1 4 6 1.37169 0 4 1.37169 1
gene 2 5 6 2.60111 0 5 2.60111 1
gene 2 1 7 -1.5194 0 6 -1.5194 1
gene 2 2 7 0.375339 0 7 0.375339 1
gene 2 3 7 -3.46807 0 8 -3.46807 1
gene 3 4 7 0.364069 0 9 0.364069 1
gene 1 5 7 -0.949239 0 10 -0.949239 1
genomeend 112

/* Organism #113 Fitness: 2 Error: 0 */
genomestart 113
node 1 3 1 3
node 2 3 1 1
node 3 3 1 1
node 4 1 1 1
node 5 1 1 1
node 6 1 0 2
node 7 1 0 2
gene 1 1 6 2.56137 0 1 2.56137 1
gene 3 2 6 -0.393917 0 2 -0.393917 1
gene 3 3 6 2.25968 0 3 2.25968 1
gene 1 4 6 2.59956 0 4 2.59956 1
gene 2 5 6 2.13477 0 5 2.13477 1
gene 2 1 7 3.53875 0 6 3.53875 1
gene 1 2 7 1.19733 0 7 1.19733 1
gene 2 3 7 -4.12201 0 8 -4.12201 1
gene 2 4 7 1.69062 0 9 1.69062 1
gene 2 5 7 1.00594 0 10 1.00594 1
genomeend 113

/* Organism #114 Fitness: 7 Error: 0 */
genomestart 114
node 1 2 1 3
node 2 1 1 1
node 3 2 1 1
node 4 1 1 1
node 5 1 1 1
node 6 3 0 2
node 7 1 0 2
gene 1 1 6 -0.100535 0 1 -0.100535 1
gene 3 2 6 0.195085 0 2 0.195085 1
gene 1 3 6 0.394583 0 3 0.394583 1
gene 2 4 6 0.0777786 0 4 0.0777786 1
gene 2 5 6 1.84262 0 5 1.84262 1
gene 1 1 7 1.47676 0 6 1.47676 1
gene 3 2 7 -1.8552 0 7 -1.8552 1
gene 3 3 7 -1.56913 0 8 -1.56913 1
gene 1 4 7 -1.44832 0 9 -1.44832 1
gene 3 5 7 -1.94227 0 10 -1.94227 1
genomeend 114

/* Organism #115 Fitness: 7 Error: 0 */
genomestart 115
node 1 1 1 3
node 2 3 1 1
node 3 3 1 1
node 4 2 1 1
node 5 2 1 1
node 6 3 0 2
node 7 2 0 2
gene 2 1 6 -3.15338 0 1 -3.15338 1
gene 3 2 6 0.143967 0 2 0.143967 1
gene 3 3 6 1.75607 0 3 1.75607 1
gene 2 4 6 4.4833 0 4 4.4833 1
gene 2 5 6 -0.823675 0 5 -0.823675 1
gene 2 1 7 2.64931 0 6 2.64931 1
gene 1 2 7 2.79238 0 7 2.79238 1
gene 3 3 7 -1.74649 0 8 -1.74649 1
gene 2 4 7 -1.25546 0 9 -1.25546 1
gene 3 5 7 -1.63049 0 10 -1.63049 1
genomeend 115

/* Organism #116 Fitness: 7 Error: 0 */
genomestart 116
node 1 2 1 3
node 2 2 1 1
node 3 3 1 1
node 4 2 1 1
node 5 3 1 1
node 6 1 0 2
node 7 3 0 2
gene 1 1 6 -0.816561 0 1 -0.816561 1
gene 1 2 6 2.16128 0 2 2.16128 1
gene 2 3 6 2.99332 0 3 2.99332 1
gene 1 4 6 1.28424 0 4 1.28424 1
gene 1 5 6 -0.38046 0 5 -0.38046 1
gene 2 1 7 -0.454117 0 6 -0.454117 1
gene 3 2 7 0.381367 0 7 0.381367 1
gene 3 3 7 -3.97329 0 8 -3.97329 1
gene 3 4 7 -0.0837471 0 9 -0.0837471 1
gene 1 5 7 0.726113 0 10 0.726113 1
genomeend 116

/* Organism #117 Fitness: 14 Error: 0 */
genomestart 117
node 1 1 1 3
node 2 3 1 1
node 3 3 1 1
node 4 2 1 1
node 5 2 1 1
node 6 3 0 2
node 7 2 0 2
gene 2 1 6 1.41483 0 1 1.41483 1
gene 3 2 6 2.95038 0 2 2.95038 1
gene 3 3 6 1.64126 0 3 1.64126 1
gene 1 4 6 -0.271235 0 4 -0.271235 1
gene 2 5 6 1.92324 0 5 1.92324 1
gene 2 1 7 0.788321 0 6 0.788321 1
gene 2 2 7 2.49894 0 7 2.49894 1
gene 3 3 7 -4.98769 0 8 -4.98769 1
gene 2 4 7 0.234819 0 9 0.234819 1
gene 3 5 7 0.238518 0 10 0.238518 1
genomeend 117

/* Organism #118 Fitness: 15 Error: 0 */
genomestart 118
node 1 1 1 3
node 2 3 1 1
node 3 3 1 1
node 4 2 1 1
node 5 2 1 1
node 6 3 0 2
node 7 2 0 2
gene 2 1 6 -1.9503 0 1 -1.9503 1
gene 3 2 6 0.138115 0 2 0.138115 1
gene 2 3 6 1.41328 0 3 1.41328 1
gene 2 4 6 3.2543 0 4 3.2543 1
gene 2 5 6 -0.243439 0 5 -0.243439 1
gene 3 1 7 1.68118 0 6 1.68118 1
gene 2 2 7 4.18727 0 7 4.18727 1
gene 1 3 7 -0.562371 0 8 -0.562371 1
gene 2 4 7 1.50098 0 9 1.50098 1
gene 3 5 7 -1.27606 0 10 -1.27606 1
genomeend 118

/* Organism #119 Fitness: 18 Error: 0 */
genomestart 119
node 1 1 1 3
node 2 3 1 1
node 3 3 1 1
node 4 2 1 1
node 5 2 1 1
node 6 3 0 2
node 7 1 0 2
gene 2 1 6 -2.37037 0 1 -2.37037 1
gene 2 2 6 0.409861 0 2 0.409861 1
gene 2 3 6 2.87587 0 3 2.87587 1
gene 2 4 6 2.1302 0 4 2.1302 1
gene 2 5 6 -0.164568 0 5 -0.164568 1
gene 3 1 7 0.997176 0 6 0.997176 1
gene 1 2 7 1.55917 0 7 1.55917 1
gene 3 3 7 -3.68647 0 8 -3.68647 1
gene 2 4 7 3.60801 0 9 3.60801 1
gene 1 5 7 -1.86093 0 10 -1.86093 1
genomeend 119

/* Organism #120 Fitness: 21 Error: 0 */
genomestart 120
node 1 3 1 3
node 2 2 1 1
node 3 1 1 1
node 4 2 1 1
node 5 3 1 1
node 6 2 0 2
node 7 3 0 2
gene 2 1 6 -1.14125 0 1 -1.14125 1
gene 2 2 6 1.5023 0 2 1.5023 1
gene 2 3 6 1.41328 0 3 1.41328 1
gene 2 4 6 1.47742 0 4 1.47742 1
gene 2 5 6 -0.787978 0 5 -0.787978 1
gene 3 1 7 0.366743 0 6 0.366743 1
gene 1 2 7 2.96166 0 7 2.96166 1
gene 3 3 7 -4.63367 0 8 -4.63367 1
gene 2 4 7 2.92937 0 9 2.92937 1
gene 1 5 7 -0.458031 0 10 -0.458031 1
genomeend 120

/* Organism #121 Fitness: 11 Error: 0 */
genomestart 121
node 1 1 1 3
node 2 3 1 1
node 3 3 1 1
node 4 2 1 1
node 5 2 1 1
node 6 3 0 2
node 7 2 0 2
gene 3 1 6 -1.02951 0 1 -1.02951 1
gene 3 2 6 -2.63515 0 2 -2.63515 1
gene 1 3 6 1.34696 0 3 1.34696 1
gene 1 4 6 -2.0926 0 4 -2.0926 1
gene 2 5 6 1.39595 0 5 1.39595 1
gene 3 1 7 -2.05205 0 6 -2.05205 1
gene 3 2 7 1.14965 0 7 1.14965 1
gene 2 3 7 -3.09368 0 8 -3.09368 1
gene 1 4 7 0.832893 0 9 0.832893 1
gene 3 5 7 0.579306 0 10 0.579306 1
genomeend 121

/* Organism #122 Fitness: 31 Error: 0 */
genomestart 122
node 1 1 1 3
node 2 3 1 1
node 3 3 1 1
node 4 2 1 1
node 5 2 1 1
node 6 3 0 2
node 7 2 0 2
gene 3 1 6 -1.02951 0 1 -1.02951 1
gene 3 2 6 -2.63515 0 2 -2.63515 1
gene 1 3 6 1.34696 0 3 1.34696 1
gene 1 4 6 -2.0926 0 4 -2.0926 1
gene 2 5 6 1.39595 0 5 1.39595 1
gene 3 1 7 -2.05205 0 6 -2.05205 1
gene 3 2 7 1.14965 0 7 1.14965 1
gene 2 3 7 -3.09368 0 8 -3.09368 1
gene 1 4 7 0.832893 0 9 0.832893 1
gene 3 5 7 0.579306 0 10 0.579306 1
genomeend 122

/* Organism #123 Fitness: 38 Error: 0 */
genomestart 123
node 1 1 1 3
node 2 3 1 1
node 3 3 1 1
node 4 2 1 1
node 5 2 1 1
node 6 3 0 2
node 7 2 0 2
gene 3 1 6 -1.02951 0 1 -1.02951 1
gene 3 2 6 -2.63515 0 2 -2.63515 1
gene 1 3 6 1.34696 0 3 1.34696 1
gene 1 4 6 -2.0926 0 4 -2.0926 1
gene 2 5 6 1.39595 0 5 1.39595 1
gene 3 1 7 -2.05205 0 6 -2.05205 1
gene 3 2 7 1.14965 0 7 1.14965 1
gene 2 3 7 -3.09368 0 8 -3.09368 1
gene 1 4 7 0.832893 0 9 0.832893 1
gene 3 5 7 0.579306 0 10 0.579306 1
genomeend 123

/* Organism #124 Fitness: 13 Error: 0 */
genomestart 124
node 1 1 1 3
node 2 3 1 1
node 3 3 1 1
node 4 2 1 1
node 5 2 1 1
node 6 3 0 2
node 7 2 0 2
gene 3 1 6 -1.02951 0 1 -1.02951 1
gene 3 2 6 -2.63515 0 2 -2.63515 1
gene 1 3 6 1.34696 0 3 1.34696 1
gene 1 4 6 -2.0926 0 4 -2.0926 1
gene 2 5 6 1.39595 0 5 1.39595 1
gene 3 1 7 -2.05205 0 6 -2.05205 1
gene 3 2 7 1.14965 0 7 1.14965 1
gene 2 3 7 -3.09368 0 8 -3.09368 1
gene 1 4 7 0.832893 0 9 0.832893 1
gene 3 5 7 0.579306 0 10 0.579306 1
genomeend 124

/* Organism #125 Fitness: 1 Error: 0 */
genomestart 125
node 1 1 1 3
node 2 3 1 1
node 3 3 1 1
node 4 3 1 1
node 5 2 1 1
node 6 3 0 2
node 7 1 0 2
gene 1 1 6 -1.91998 0 1 -1.91998 1
gene 3 2 6 1.59678 0 2 1.59678 1
gene 1 3 6 1.16776 0 3 1.16776 1
gene 1 4 6 1.30719 0 4 1.30719 1
gene 2 5 6 -3.02271 0 5 -3.02271 1
gene 3 1 7 1.5045 0 6 1.5045 1
gene 2 2 7 0.490777 0 7 0.490777 1
gene 3 3 7 0.584628 0 8 0.584628 1
gene 3 4 7 -0.81857 0 9 -0.81857 1
gene 2 5 7 2.38696 0 10 2.38696 1
genomeend 125

/* Organism #126 Fitness: 9 Error: 0 */
genomestart 126
node 1 1 1 3
node 2 3 1 1
node 3 3 1 1
node 4 3 1 1
node 5 2 1 1
node 6 3 0 2
node 7 1 0 2
gene 1 1 6 -1.91998 0 1 -1.91998 1
gene 3 2 6 1.59678 0 2 1.59678 1
gene 1 3 6 1.16776 0 3 1.16776 1
gene 1 4 6 1.30719 0 4 1.30719 1
gene 2 5 6 -3.02271 0 5 -3.02271 1
gene 3 1 7 1.5045 0 6 1.5045 1
gene 1 2 7 0.490777 0 7 0.490777 1
gene 3 3 7 0.584628 0 8 0.584628 1
gene 3 4 7 -0.81857 0 9 -0.81857 1
gene 2 5 7 2.38696 0 10 2.38696 1
genomeend 126

/* Organism #127 Fitness: 18 Error: 0 */
genomestart 127
node 1 1 1 3
node 2 3 1 1
node 3 3 1 1
node 4 3 1 1
node 5 2 1 1
node 6 3 0 2
node 7 1 0 2
gene 1 1 6 -2.40092 0 1 -2.40092 1
gene 3 2 6 1.59678 0 2 1.59678 1
gene 1 3 6 1.94471 0 3 1.94471 1
gene 1 4 6 1.30719 0 4 1.30719 1
gene 2 5 6 -1.03577 0 5 -1.03577 1
gene 3 1 7 1.30373 0 6 1.30373 1
gene 2 2 7 2.79597 0 7 2.79597 1
gene 3 3 7 0.35338 0 8 0.35338 1
gene 3 4 7 -1.79056 0 9 -1.79056 1
gene 2 5 7 0.803767 0 10 0.803767 1
genomeend 127

/* Organism #128 Fitness: 12 Error: 0 */
genomestart 128
node 1 1 1 3
node 2 3 1 1
node 3 3 1 1
node 4 3 1 1
node 5 2 1 1
node 6 3 0 2
node 7 1 0 2
gene 1 1 6 -1.91998 0 1 -1.91998 1
gene 3 2 6 1.59678 0 2 1.59678 1
gene 1 3 6 1.16776 0 3 1.16776 1
gene 1 4 6 1.30719 0 4 1.30719 1
gene 2 5 6 -3.02271 0 5 -3.02271 1
gene 3 1 7 1.5045 0 6 1.5045 1
gene 2 2 7 0.490777 0 7 0.490777 1
gene 3 3 7 0.584628 0 8 0.584628 1
gene 3 4 7 -0.81857 0 9 -0.81857 1
gene 2 5 7 2.38696 0 10 2.38696 1
genomeend 128

/* Organism #129 Fitness: 8 Error: 0 */
genomestart 129
node 1 1 1 3
node 2 3 1 1
node 3 3 1 1
node 4 3 1 1
node 5 2 1 1
node 6 3 0 2
node 7 1 0 2
gene 1 1 6 -1.91998 0 1 -1.91998 1
gene 3 2 6 1.59678 0 2 1.59678 1
gene 1 3 6 1.16776 0 3 1.16776 1
gene 1 4 6 1.30719 0 4 1.30719 1
gene 2 5 6 -3.02271 0 5 -3.02271 1
gene 3 1 7 1.5045 0 6 1.5045 1
gene 2 2 7 0.490777 0 7 0.490777 1
gene 3 3 7 0.584628 0 8 0.584628 1
gene 3 4 7 -0.81857 0 9 -0.81857 1
gene 2 5 7 2.38696 0 10 2.38696 1
genomeend 129

/* Organism #130 Fitness: 5 Error: 0 */
genomestart 130
node 1 3 1 3
node 2 2 1 1
node 3 1 1 1
node 4 1 1 1
node 5 3 1 1
node 6 1 0 2
node 7 2 0 2
gene 2 1 6 0.5217 0 1 0.5217 1
gene 1 2 6 -1.46402 0 2 -1.46402 1
gene 1 3 6 1.39122 0 3 1.39122 1
gene 1 4 6 0.315729 0 4 0.315729 1
gene 3 5 6 1.73712 0 5 1.73712 1
gene 3 1 7 0.576066 0 6 0.576066 1
gene 3 2 7 3.90538 0 7 3.90538 1
gene 1 3 7 -0.69416 0 8 -0.69416 1
gene 2 4 7 -1.21132 0 9 -1.21132 1
gene 1 5 7 -0.0415141 0 10 -0.0415141 1
genomeend 130

/* Species #5 : (Size 6) (AF 22.3333) (Age 2)  */


/* Organism #131 Fitness: 15 Error: 0 */
genomestart 131
node 1 1 1 3
node 2 3 1 1
node 3 3 1 1
node 4 2 1 1
node 5 2 1 1
node 6 3 0 2
node 7 2 0 2
gene 2 1 6 -2.82922 0 1 -2.82922 1
gene 3 2 6 0.974872 0 2 0.974872 1
gene 3 3 6 3.04632 0 3 3.04632 1
gene 2 4 6 1.28556 0 4 1.28556 1
gene 2 5 6 -1.42224 0 5 -1.42224 1
gene 2 1 7 0.710899 0 6 0.710899 1
gene 1 2 7 2.96166 0 7 2.96166 1
gene 3 3 7 -4.63367 0 8 -4.63367 1
gene 2 4 7 2.42144 0 9 2.42144 1
gene 3 5 7 -0.937064 0 10 -0.937064 1
genomeend 131

/* Organism #132 Fitness: 21 Error: 0 */
genomestart 132
node 1 3 1 3
node 2 2 1 1
node 3 1 1 1
node 4 2 1 1
node 5 3 1 1
node 6 2 0 2
node 7 3 0 2
gene 2 1 6 -4.16659 0 1 -4.16659 1
gene 3 2 6 2.24299 0 2 2.24299 1
gene 2 3 6 4.40966 0 3 4.40966 1
gene 2 4 6 0.707273 0 4 0.707273 1
gene 2 5 6 -1.0464 0 5 -1.0464 1
gene 3 1 7 1.09277 0 6 1.09277 1
gene 2 2 7 5.03262 0 7 5.03262 1
gene 3 3 7 -2.50597 0 8 -2.50597 1
gene 2 4 7 2.17422 0 9 2.17422 1
gene 3 5 7 -0.697548 0 10 -0.697548 1
genomeend 132

/* Organism #133 Fitness: 8 Error: 0 */
genomestart 133
node 1 1 1 3
node 2 3 1 1
node 3 3 1 1
node 4 2 1 1
node 5 2 1 1
node 6 3 0 2
node 7 2 0 2
gene 2 1 6 -3.25823 0 1 -3.25823 1
gene 3 2 6 2.58652 0 2 2.58652 1
gene 3 3 6 2.28123 0 3 2.28123 1
gene 2 4 6 2.3456 0 4 2.3456 1
gene 2 5 6 -2.4084 0 5 -2.4084 1
gene 2 1 7 1.67633 0 6 1.67633 1
gene 1 2 7 1.49488 0 7 1.49488 1
gene 3 3 7 -3.53371 0 8 -3.53371 1
gene 2 4 7 4.38277 0 9 4.38277 1
gene 1 5 7 -0.937064 0 10 -0.937064 1
genomeend 133

/* Organism #134 Fitness: 30 Error: 0 */
genomestart 134
node 1 3 1 3
node 2 2 1 1
node 3 1 1 1
node 4 2 1 1
node 5 3 1 1
node 6 2 0 2
node 7 3 0 2
gene 2 1 6 -0.994419 0 1 -0.994419 1
gene 2 2 6 3.60616 0 2 3.60616 1
gene 2 3 6 2.0324 0 3 2.0324 1
gene 2 4 6 0.807204 0 4 0.807204 1
gene 2 5 6 -3.60793 0 5 -3.60793 1
gene 3 1 7 -0.616977 0 6 -0.616977 1
gene 2 2 7 2.49076 0 7 2.49076 1
gene 1 3 7 -4.06364 0 8 -4.06364 1
gene 2 4 7 4.48563 0 9 4.48563 1
gene 3 5 7 -2.79847 0 10 -2.79847 1
genomeend 134

/* Organism #135 Fitness: 51 Error: 0 */
genomestart 135
node 1 1 1 3
node 2 3 1 1
node 3 3 1 1
node 4 2 1 1
node 5 2 1 1
node 6 3 0 2
node 7 2 0 2
gene 2 1 6 -1.98523 0 1 -1.98523 1
gene 2 2 6 1.23858 0 2 1.23858 1
gene 3 3 6 2.2298 0 3 2.2298 1
gene 2 4 6 1.38149 0 4 1.38149 1
gene 2 5 6 -1.10511 0 5 -1.10511 1
gene 3 1 7 0.538821 0 6 0.538821 1
gene 2 2 7 3.03111 0 7 3.03111 1
gene 1 3 7 -3.55973 0 8 -3.55973 1
gene 2 4 7 2.67541 0 9 2.67541 1
gene 1 5 7 -0.697548 0 10 -0.697548 1
gene 3 6 6 0.842821 1 24 0.842821 1
genomeend 135

/* Organism #136 Fitness: 9 Error: 0 */
genomestart 136
node 1 1 1 3
node 2 3 1 1
node 3 3 1 1
node 4 2 1 1
node 5 2 1 1
node 6 3 0 2
node 7 3 0 2
gene 3 1 6 1.26426 0 1 1.26426 1
gene 3 2 6 -1.6984 0 2 -1.6984 1
gene 1 3 6 1.02011 0 3 1.02011 1
gene 1 4 6 -2.41822 0 4 -2.41822 1
gene 2 5 6 -0.412461 0 5 -0.412461 1
gene 3 1 7 0.139755 0 6 0.139755 1
gene 3 2 7 3.49525 0 7 3.49525 1
gene 2 3 7 -0.940247 0 8 -0.940247 1
gene 1 4 7 2.7113 0 9 2.7113 1
gene 3 5 7 -1.26301 0 10 -1.26301 1
genomeend 136

/* Species #6 : (Size 4) (AF 10.75) (Age 2)  */


/* Organism #137 Fitness: 7 Error: 0 */
genomestart 137
node 1 3 1 3
node 2 1 1 1
node 3 1 1 1
node 4 3 1 1
node 5 3 1 1
node 6 2 0 2
node 7 3 0 2
gene 2 1 6 2.41885 0 1 2.41885 1
gene 1 2 6 1.31739 0 2 1.31739 1
gene 2 3 6 1.63765 0 3 1.63765 1
gene 2 4 6 0.00651221 0 4 0.00651221 1
gene 3 5 6 -0.672275 0 5 -0.672275 1
gene 2 1 7 -2.29357 0 6 -2.29357 1
gene 2 2 7 -1.40472 0 7 -1.40472 1
gene 1 3 7 0.747866 0 8 0.747866 1
gene 3 4 7 3.78662 0 9 3.78662 1
gene 2 5 7 0.702012 0 10 0.702012 1
genomeend 137

/* Organism #138 Fitness: 14 Error: 0 */
genomestart 138
node 1 1 1 3
node 2 3 1 1
node 3 3 1 1
node 4 3 1 1
node 5 2 1 1
node 6 3 0 2
node 7 1 0 2
gene 1 1 6 -4.1266 0 1 -4.1266 1
gene 3 2 6 1.4345 0 2 1.4345 1
gene 2 3 6 -0.731838 0 3 -0.731838 1
gene 2 4 6 -2.40438 0 4 -2.40438 1
gene 3 5 6 -1.21391 0 5 -1.21391 1
gene 2 1 7 -0.786559 0 6 -0.786559 1
gene 2 2 7 -0.840874 0 7 -0.840874 1
gene 3 3 7 -0.454598 0 8 -0.454598 1
gene 3 4 7 2.14158 0 9 2.14158 1
gene 3 5 7 1.75336 0 10 1.75336 1
genomeend 138

/* Organism #139 Fitness: 7 Error: 0 */
genomestart 139
node 1 1 1 3
node 2 3 1 1
node 3 3 1 1
node 4 3 1 1
node 5 2 1 1
node 6 3 0 2
node 7 1 0 2
gene 1 1 6 -4.33042 0 1 -4.33042 1
gene 1 2 6 0.89467 0 2 0.89467 1
gene 1 3 6 -0.155478 0 3 -0.155478 1
gene 2 4 6 -1.37702 0 4 -1.37702 1
gene 3 5 6 -0.41942 0 5 -0.41942 1
gene 2 1 7 -1.837 0 6 -1.837 1
gene 2 2 7 -0.159346 0 7 -0.159346 1
gene 1 3 7 1.54468 0 8 1.54468 1
gene 3 4 7 3.74994 0 9 3.74994 1
gene 3 5 7 -0.653873 0 10 -0.653873 1
genomeend 139

/* Organism #140 Fitness: 15 Error: 0 */
genomestart 140
node 1 1 1 3
node 2 3 1 1
node 3 3 1 1
node 4 3 1 1
node 5 2 1 1
node 6 3 0 2
node 7 1 0 2
gene 1 1 6 -2.31382 0 1 -2.31382 1
gene 3 2 6 3.28839 0 2 3.28839 1
gene 1 3 6 -0.104207 0 3 -0.104207 1
gene 1 4 6 -0.016816 0 4 -0.016816 1
gene 2 5 6 -2.97856 0 5 -2.97856 1
gene 3 1 7 0.138665 0 6 0.138665 1
gene 2 2 7 -1.41199 0 7 -1.41199 1
gene 3 3 7 -0.59696 0 8 -0.59696 1
gene 3 4 7 -1.31376 0 9 -1.31376 1
gene 2 5 7 2.38696 0 10 2.38696 1
genomeend 140

/* Species #7 : (Size 12) (AF 12.25) (Age 2)  */


/* Organism #141 Fitness: 8 Error: 0 */
genomestart 141
node 1 3 1 3
node 2 3 1 1
node 3 2 1 1
node 4 2 1 1
node 5 3 1 1
node 6 1 0 2
node 7 3 0 2
gene 1 1 6 1.61622 0 1 1.61622 1
gene 2 2 6 -0.252989 0 2 -0.252989 1
gene 3 3 6 -1.88761 0 3 -1.88761 1
gene 2 4 6 -0.433508 0 4 -0.433508 1
gene 2 5 6 -0.478756 0 5 -0.478756 1
gene 2 1 7 1.83126 0 6 1.83126 1
gene 2 2 7 1.67546 0 7 1.67546 1
gene 2 3 7 0.767962 0 8 0.767962 1
gene 2 4 7 -0.140767 0 9 -0.140767 1
gene 2 5 7 1.98959 0 10 1.98959 1
genomeend 141

/* Organism #142 Fitness: 11 Error: 0 */
genomestart 142
node 1 1 1 3
node 2 1 1 1
node 3 3 1 1
node 4 1 1 1
node 5 2 1 1
node 6 2 0 2
node 7 1 0 2
gene 3 1 6 2.60266 0 1 2.60266 1
gene 3 2 6 1.97042 0 2 1.97042 1
gene 1 3 6 -2.07632 0 3 -2.07632 1
gene 2 4 6 -0.514976 0 4 -0.514976 1
gene 3 5 6 0.852189 0 5 0.852189 1
gene 1 1 7 0.452851 0 6 0.452851 1
gene 2 2 7 1.73931 0 7 1.73931 1
gene 3 3 7 0.0770389 0 8 0.0770389 1
gene 2 4 7 2.15307 0 9 2.15307 1
gene 2 5 7 1.32577 0 10 1.32577 1
genomeend 142

/* Organism #143 Fitness: 14 Error: 0 */
genomestart 143
node 1 1 1 3
node 2 1 1 1
node 3 3 1 1
node 4 1 1 1
node 5 2 1 1
node 6 2 0 2
node 7 1 0 2
gene 3 1 6 2.59354 0 1 2.59354 1
gene 3 2 6 -2.41985 0 2 -2.41985 1
gene 1 3 6 0.164006 0 3 0.164006 1
gene 2 4 6 1.67417 0 4 1.67417 1
gene 3 5 6 -0.29072 0 5 -0.29072 1
gene 1 1 7 1.62256 0 6 1.62256 1
gene 2 2 7 2.01762 0 7 2.01762 1
gene 3 3 7 -2.18176 0 8 -2.18176 1
gene 2 4 7 1.29444 0 9 1.29444 1
gene 2 5 7 0.865513 0 10 0.865513 1
genomeend 143

/* Organism #144 Fitness: 5 Error: 0 */
genomestart 144
node 1 3 1 3
node 2 3 1 1
node 3 2 1 1
node 4 2 1 1
node 5 3 1 1
node 6 1 0 2
node 7 3 0 2
gene 1 1 6 1.37474 0 1 1.37474 1
gene 2 2 6 -2.26643 0 2 -2.26643 1
gene 3 3 6 -0.271351 0 3 -0.271351 1
gene 2 4 6 0.00221217 0 4 0.00221217 1
gene 2 5 6 -1.76286 0 5 -1.76286 1
gene 2 1 7 2.45319 0 6 2.45319 1
gene 2 2 7 2.39603 0 7 2.39603 1
gene 2 3 7 -0.296798 0 8 -0.296798 1
gene 2 4 7 1.35984 0 9 1.35984 1
gene 2 5 7 1.98959 0 10 1.98959 1
genomeend 144

/* Organism #145 Fitness: 6 Error: 0 */
genomestart 145
node 1 3 1 3
node 2 3 1 1
node 3 2 1 1
node 4 2 1 1
node 5 3 1 1
node 6 1 0 2
node 7 3 0 2
gene 1 1 6 2.56673 0 1 2.56673 1
gene 2 2 6 1.28991 0 2 1.28991 1
gene 3 3 6 -3.54121 0 3 -3.54121 1
gene 2 4 6 0.114067 0 4 0.114067 1
gene 2 5 6 -0.904009 0 5 -0.904009 1
gene 2 1 7 1.28425 0 6 1.28425 1
gene 2 2 7 2.61192 0 7 2.61192 1
gene 2 3 7 -0.873937 0 8 -0.873937 1
gene 2 4 7 0.195649 0 9 0.195649 1
gene 2 5 7 -2.27488 0 10 -2.27488 1
genomeend 145

/* Organism #146 Fitness: 15 Error: 0 */
genomestart 146
node 1 3 1 3
node 2 3 1 1
node 3 2 1 1
node 4 2 1 1
node 5 3 1 1
node 6 1 0 2
node 7 3 0 2
gene 1 1 6 2.59633 0 1 2.59633 1
gene 2 2 6 -1.16551 0 2 -1.16551 1
gene 3 3 6 -3.47364 0 3 -3.47364 1
gene 2 4 6 1.91705 0 4 1.91705 1
gene 1 5 6 1.04008 0 5 1.04008 1
gene 2 1 7 0.907374 0 6 0.907374 1
gene 2 2 7 3.08454 0 7 3.08454 1
gene 2 3 7 1.38707 0 8 1.38707 1
gene 2 4 7 1.06458 0 9 1.06458 1
gene 2 5 7 1.68657 0 10 1.68657 1
genomeend 146

/* Organism #147 Fitness: 15 Error: 0 */
genomestart 147
node 1 1 1 3
node 2 1 1 1
node 3 3 1 1
node 4 1 1 1
node 5 1 1 1
node 6 2 0 2
node 7 1 0 2
gene 3 1 6 2.60266 0 1 2.60266 1
gene 3 2 6 1.97042 0 2 1.97042 1
gene 1 3 6 -2.07632 0 3 -2.07632 1
gene 2 4 6 -0.514976 0 4 -0.514976 1
gene 3 5 6 0.852189 0 5 0.852189 1
gene 1 1 7 0.452851 0 6 0.452851 1
gene 2 2 7 1.73931 0 7 1.73931 1
gene 3 3 7 0.0770389 0 8 0.0770389 1
gene 2 4 7 2.15307 0 9 2.15307 1
gene 2 5 7 1.32577 0 10 1.32577 1
genomeend 147

/* Organism #148 Fitness: 8 Error: 0 */
genomestart 148
node 1 3 1 3
node 2 3 1 1
node 3 2 1 1
node 4 2 1 1
node 5 3 1 1
node 6 1 0 2
node 7 3 0 2
gene 1 1 6 1.61622 0 1 1.61622 1
gene 3 2 6 1.97042 0 2 1.97042 1
gene 1 3 6 -2.07632 0 3 -2.07632 1
gene 2 4 6 -0.433508 0 4 -0.433508 1
gene 2 5 6 -0.478756 0 5 -0.478756 1
gene 2 1 7 1.83126 0 6 1.83126 1
gene 2 2 7 1.73931 0 7 1.73931 1
gene 2 3 7 0.767962 0 8 0.767962 1
gene 2 4 7 2.15307 0 9 2.15307 1
gene 2 5 7 1.32577 0 10 1.32577 1
genomeend 148

/* Organism #149 Fitness: 9 Error: 0 */
genomestart 149
node 1 1 1 3
node 2 1 1 1
node 3 3 1 1
node 4 1 1 1
node 5 2 1 1
node 6 2 0 2
node 7 1 0 2
gene 3 1 6 1.62054 0 1 1.62054 1
gene 3 2 6 0.812807 0 2 0.812807 1
gene 1 3 6 -0.182969 0 3 -0.182969 1
gene 2 4 6 0.0568586 0 4 0.0568586 1
gene 3 5 6 -0.847553 0 5 -0.847553 1
gene 1 1 7 2.77784 0 6 2.77784 1
gene 2 2 7 1.53692 0 7 1.53692 1
gene 3 3 7 2.2945 0 8 2.2945 1
gene 2 4 7 0.974647 0 9 0.974647 1
gene 2 5 7 3.79095 0 10 3.79095 1
genomeend 149

/* Organism #150 Fitness: 23 Error: 0 */
genomestart 150
node 1 1 1 3
node 2 1 1 1
node 3 3 1 1
node 4 1 1 1
node 5 2 1 1
node 6 2 0 2
node 7 1 0 2
gene 3 1 6 4.42855 0 1 4.42855 1
gene 3 2 6 2.37574 0 2 2.37574 1
gene 1 3 6 -0.406306 0 3 -0.406306 1
gene 2 4 6 -0.486972 0 4 -0.486972 1
gene 3 5 6 -0.581498 0 5 -0.581498 1
gene 1 1 7 0.915491 0 6 0.915491 1
gene 2 2 7 2.96328 0 7 2.96328 1
gene 3 3 7 1.66692 0 8 1.66692 1
gene 2 4 7 -0.184119 0 9 -0.184119 1
gene 2 5 7 3.6738 0 10 3.6738 1
genomeend 150

/* Organism #151 Fitness: 31 Error: 0 */
genomestart 151
node 1 3 1 3
node 2 3 1 1
node 3 2 1 1
node 4 3 1 1
node 5 3 1 1
node 6 1 0 2
node 7 3 0 2
gene 3 1 6 2.5525 0 1 2.5525 1
gene 3 2 6 3.14198 0 2 3.14198 1
gene 3 3 6 -0.50231 0 3 -0.50231 1
gene 2 4 6 0.261149 0 4 0.261149 1
gene 2 5 6 -1.35004 0 5 -1.35004 1
gene 2 1 7 -0.507555 0 6 -0.507555 1
gene 2 2 7 3.72585 0 7 3.72585 1
gene 3 3 7 0.695387 0 8 0.695387 1
gene 2 4 7 0.550176 0 9 0.550176 1
gene 2 5 7 1.98959 0 10 1.98959 1
genomeend 151

/* Organism #152 Fitness: 2 Error: 0 */
genomestart 152
node 1 1 1 3
node 2 1 1 1
node 3 3 1 1
node 4 1 1 1
node 5 2 1 1
node 6 2 0 2
node 7 1 0 2
gene 3 1 6 0.922254 0 1 0.922254 1
gene 3 2 6 1.6167 0 2 1.6167 1
gene 1 3 6 -3.10963 0 3 -3.10963 1
gene 2 4 6 1.89552 0 4 1.89552 1
gene 3 5 6 -0.023259 0 5 -0.023259 1
gene 1 1 7 0.452851 0 6 0.452851 1
gene 2 2 7 1.6101 0 7 1.6101 1
gene 3 3 7 0.212647 0 8 0.212647 1
gene 2 4 7 -0.33447 0 9 -0.33447 1
gene 2 5 7 1.23393 0 10 1.23393 1
genomeend 152

/* Species #8 : (Size 11) (AF 19.7273) (Age 2)  */


/* Organism #153 Fitness: 11 Error: 0 */
genomestart 153
node 1 1 1 3
node 2 3 1 1
node 3 3 1 1
node 4 2 1 1
node 5 2 1 1
node 6 3 0 2
node 7 2 0 2
gene 3 1 6 -1.05347 0 1 -1.05347 1
gene 3 2 6 -1.50793 0 2 -1.50793 1
gene 1 3 6 1.32697 0 3 1.32697 1
gene 1 4 6 -1.67843 0 4 -1.67843 1
gene 2 5 6 3.4455 0 5 3.4455 1
gene 3 1 7 -0.759525 0 6 -0.759525 1
gene 3 2 7 1.19832 0 7 1.19832 1
gene 2 3 7 0.0643891 0 8 0.0643891 1
gene 1 4 7 -0.957093 0 9 -0.957093 1
gene 3 5 7 -1.56499 0 10 -1.56499 1
genomeend 153

/* Organism #154 Fitness: 13 Error: 0 */
genomestart 154
node 1 1 1 3
node 2 3 1 1
node 3 3 1 1
node 4 2 1 1
node 5 2 1 1
node 6 3 0 2
node 7 2 0 2
gene 3 1 6 -0.846164 0 1 -0.846164 1
gene 3 2 6 -4.15535 0 2 -4.15535 1
gene 1 3 6 -2.43712 0 3 -2.43712 1
gene 1 4 6 -0.681219 0 4 -0.681219 1
gene 2 5 6 3.19473 0 5 3.19473 1
gene 3 1 7 -1.58866 0 6 -1.58866 1
gene 3 2 7 0.672926 0 7 0.672926 1
gene 2 3 7 -2.20278 0 8 -2.20278 1
gene 1 4 7 -1.12342 0 9 -1.12342 1
gene 3 5 7 3.02402 0 10 3.02402 1
genomeend 154

/* Organism #155 Fitness: 34 Error: 0 */
genomestart 155
node 1 1 1 3
node 2 3 1 1
node 3 3 1 1
node 4 2 1 1
node 5 2 1 1
node 6 3 0 2
node 7 2 0 2
gene 3 1 6 0.808818 0 1 0.808818 1
gene 3 2 6 -4.2268 0 2 -4.2268 1
gene 1 3 6 1.9111 0 3 1.9111 1
gene 1 4 6 -2.11019 0 4 -2.11019 1
gene 2 5 6 3.11495 0 5 3.11495 1
gene 3 1 7 -1.00996 0 6 -1.00996 1
gene 3 2 7 0.751316 0 7 0.751316 1
gene 2 3 7 -2.95441 0 8 -2.95441 1
gene 1 4 7 2.05664 0 9 2.05664 1
gene 3 5 7 0.593101 0 10 0.593101 1
genomeend 155

/* Organism #156 Fitness: 58 Error: 0 */
genomestart 156
node 1 1 1 3
node 2 3 1 1
node 3 3 1 1
node 4 2 1 1
node 5 2 1 1
node 6 3 0 2
node 7 2 0 2
gene 3 1 6 0.899849 0 1 0.899849 1
gene 3 2 6 -1.24968 0 2 -1.24968 1
gene 1 3 6 1.31397 0 3 1.31397 1
gene 1 4 6 -2.9455 0 4 -2.9455 1
gene 2 5 6 1.39595 0 5 1.39595 1
gene 3 1 7 -1.15675 0 6 -1.15675 1
gene 3 2 7 -0.964534 0 7 -0.964534 1
gene 2 3 7 -4.64472 0 8 -4.64472 1
gene 1 4 7 1.36416 0 9 1.36416 1
gene 3 5 7 2.38173 0 10 2.38173 1
genomeend 156

/* Organism #157 Fitness: 47 Error: 0 */
genomestart 157
node 1 1 1 3
node 2 3 1 1
node 3 3 1 1
node 4 2 1 1
node 5 2 1 1
node 6 3 0 2
node 7 2 0 2
gene 3 1 6 -2.09042 0 1 -2.09042 1
gene 3 2 6 -3.95145 0 2 -3.95145 1
gene 1 3 6 3.00885 0 3 3.00885 1
gene 1 4 6 0.188763 0 4 0.188763 1
gene 2 5 6 -1.02489 0 5 -1.02489 1
gene 3 1 7 -3.06242 0 6 -3.06242 1
gene 3 2 7 2.98487 0 7 2.98487 1
gene 2 3 7 -3.91249 0 8 -3.91249 1
gene 1 4 7 1.80139 0 9 1.80139 1
gene 3 5 7 0.719031 0 10 0.719031 1
genomeend 157

/* Organism #158 Fitness: 11 Error: 0 */
genomestart 158
node 1 1 1 3
node 2 3 1 1
node 3 3 1 1
node 4 2 1 1
node 5 2 1 1
node 6 3 0 2
node 7 2 0 2
gene 3 1 6 -1.02332 0 1 -1.02332 1
gene 3 2 6 -3.83164 0 2 -3.83164 1
gene 1 3 6 -0.979169 0 3 -0.979169 1
gene 1 4 6 -0.633343 0 4 -0.633343 1
gene 2 5 6 1.04966 0 5 1.04966 1
gene 3 1 7 -1.98834 0 6 -1.98834 1
gene 3 2 7 2.48449 0 7 2.48449 1
gene 2 3 7 -3.07053 0 8 -3.07053 1
gene 1 4 7 -1.49457 0 9 -1.49457 1
gene 3 5 7 1.46782 0 10 1.46782 1
genomeend 158

/* Organism #159 Fitness: 10 Error: 0 */
genomestart 159
node 1 1 1 3
node 2 3 1 1
node 3 3 1 1
node 4 2 1 1
node 5 2 1 1
node 6 3 0 2
node 7 2 0 2
gene 3 1 6 -2.03243 0 1 -2.03243 1
gene 3 2 6 -2.4791 0 2 -2.4791 1
gene 1 3 6 1.11392 0 3 1.11392 1
gene 1 4 6 -3.16905 0 4 -3.16905 1
gene 2 5 6 3.25832 0 5 3.25832 1
gene 3 1 7 -4.07852 0 6 -4.07852 1
gene 3 2 7 -0.440289 0 7 -0.440289 1
gene 2 3 7 -2.23424 0 8 -2.23424 1
gene 1 4 7 -1.12138 0 9 -1.12138 1
gene 3 5 7 1.28488 0 10 1.28488 1
genomeend 159

/* Organism #160 Fitness: 8 Error: 0 */
genomestart 160
node 1 1 1 3
node 2 3 1 1
node 3 3 1 1
node 4 2 1 1
node 5 2 1 1
node 6 3 0 2
node 7 2 0 2
gene 3 1 6 -3.4387 0 1 -3.4387 1
gene 3 2 6 -1.01993 0 2 -1.01993 1
gene 1 3 6 3.40624 0 3 3.40624 1
gene 1 4 6 -2.19183 0 4 -2.19183 1
gene 2 5 6 2.22105 0 5 2.22105 1
gene 3 1 7 -3.26253 0 6 -3.26253 1
gene 3 2 7 0.63976 0 7 0.63976 1
gene 2 3 7 -2.8508 0 8 -2.8508 1
gene 1 4 7 -2.31417 0 9 -2.31417 1
gene 3 5 7 2.03916 0 10 2.03916 1
genomeend 160

/* Organism #161 Fitness: 16 Error: 0 */
genomestart 161
node 1 1 1 3
node 2 3 1 1
node 3 3 1 1
node 4 2 1 1
node 5 2 1 1
node 6 3 0 2
node 7 2 0 2
gene 3 1 6 0.894149 0 1 0.894149 1
gene 3 2 6 -2.80123 0 2 -2.80123 1
gene 1 3 6 2.14241 0 3 2.14241 1
gene 1 4 6 -1.65833 0 4 -1.65833 1
gene 2 5 6 -0.752461 0 5 -0.752461 1
gene 3 1 7 -2.72287 0 6 -2.72287 1
gene 3 2 7 0.607354 0 7 0.607354 1
gene 2 3 7 -1.4671 0 8 -1.4671 1
gene 1 4 7 1.27288 0 9 1.27288 1
gene 3 5 7 2.2092 0 10 2.2092 1
genomeend 161

/* Organism #162 Fitness: 4 Error: 0 */
genomestart 162
node 1 1 1 3
node 2 3 1 1
node 3 3 1 1
node 4 2 1 1
node 5 2 1 1
node 6 3 0 2
node 7 2 0 2
gene 3 1 6 -1.38087 0 1 -1.38087 1
gene 3 2 6 -4.12844 0 2 -4.12844 1
gene 1 3 6 0.950708 0 3 0.950708 1
gene 1 4 6 -2.91979 0 4 -2.91979 1
gene 2 5 6 0.113895 0 5 0.113895 1
gene 3 1 7 -2.05205 0 6 -2.05205 1
gene 3 2 7 3.28695 0 7 3.28695 1
gene 2 3 7 -3.46233 0 8 -3.46233 1
gene 1 4 7 -1.40586 0 9 -1.40586 1
gene 3 5 7 2.21039 0 10 2.21039 1
genomeend 162

/* Organism #163 Fitness: 5 Error: 0 */
genomestart 163
node 1 1 1 3
node 2 3 1 1
node 3 3 1 1
node 4 2 1 1
node 5 2 1 1
node 6 3 0 2
node 7 2 0 2
gene 3 1 6 -1.02951 0 1 -1.02951 1
gene 3 2 6 -3.29265 0 2 -3.29265 1
gene 1 3 6 1.34696 0 3 1.34696 1
gene 1 4 6 -1.65601 0 4 -1.65601 1
gene 2 5 6 0.194588 0 5 0.194588 1
gene 3 1 7 -2.48955 0 6 -2.48955 1
gene 3 2 7 -1.61572 0 7 -1.61572 1
gene 2 3 7 -5.22559 0 8 -5.22559 1
gene 1 4 7 -1.83577 0 9 -1.83577 1
gene 3 5 7 0.86216 0 10 0.86216 1
genomeend 163

/* Species #9 : (Size 6) (AF 6.83333) (Age 2)  */


/* Organism #164 Fitness: 2 Error: 0 */
genomestart 164
node 1 2 1 3
node 2 3 1 1
node 3 3 1 1
node 4 2 1 1
node 5 3 1 1
node 6 1 0 2
node 7 2 0 2
gene 3 1 6 -3.67858 0 1 -3.67858 1
gene 2 2 6 -0.795445 0 2 -0.795445 1
gene 1 3 6 -0.0679179 0 3 -0.0679179 1
gene 2 4 6 -2.80572 0 4 -2.80572 1
gene 2 5 6 -0.733725 0 5 -0.733725 1
gene 1 1 7 1.4789 0 6 1.4789 1
gene 2 2 7 1.79909 0 7 1.79909 1
gene 3 3 7 -4.15559 0 8 -4.15559 1
gene 3 4 7 -0.66972 0 9 -0.66972 1
gene 2 5 7 2.21744 0 10 2.21744 1
genomeend 164

/* Organism #165 Fitness: 12 Error: 0 */
genomestart 165
node 1 2 1 3
node 2 3 1 1
node 3 3 1 1
node 4 2 1 1
node 5 3 1 1
node 6 2 0 2
node 7 2 0 2
gene 2 1 6 -0.374529 0 1 -0.374529 1
gene 2 2 6 -0.795445 0 2 -0.795445 1
gene 1 3 6 -0.0679179 0 3 -0.0679179 1
gene 2 4 6 -2.04892 0 4 -2.04892 1
gene 2 5 6 -0.733725 0 5 -0.733725 1
gene 1 1 7 1.4789 0 6 1.4789 1
gene 2 2 7 3.39332 0 7 3.39332 1
gene 3 3 7 -4.15559 0 8 -4.15559 1
gene 3 4 7 -0.66972 0 9 -0.66972 1
gene 2 5 7 2.21744 0 10 2.21744 1
genomeend 165

/* Organism #166 Fitness: 8 Error: 0 */
genomestart 166
node 1 2 1 3
node 2 3 1 1
node 3 3 1 1
node 4 2 1 1
node 5 3 1 1
node 6 1 0 2
node 7 2 0 2
gene 2 1 6 -0.374529 0 1 -0.374529 1
gene 2 2 6 -0.08626 0 2 -0.08626 1
gene 1 3 6 -2.70316 0 3 -2.70316 1
gene 2 4 6 -2.80572 0 4 -2.80572 1
gene 2 5 6 -0.733725 0 5 -0.733725 1
gene 2 1 7 0.149916 0 6 0.149916 1
gene 2 2 7 3.39332 0 7 3.39332 1
gene 3 3 7 -4.15559 0 8 -4.15559 1
gene 2 4 7 -1.3568 0 9 -1.3568 1
gene 2 5 7 2.21744 0 10 2.21744 1
genomeend 166

/* Organism #167 Fitness: 5 Error: 0 */
genomestart 167
node 1 3 1 3
node 2 1 1 1
node 3 2 1 1
node 4 2 1 1
node 5 3 1 1
node 6 1 0 2
node 7 3 0 2
gene 2 1 6 1.10679 0 1 1.10679 1
gene 2 2 6 -0.692295 0 2 -0.692295 1
gene 1 3 6 -4.5481 0 3 -4.5481 1
gene 2 4 6 -3.45422 0 4 -3.45422 1
gene 1 5 6 -0.249331 0 5 -0.249331 1
gene 2 1 7 1.97706 0 6 1.97706 1
gene 2 2 7 1.17395 0 7 1.17395 1
gene 2 3 7 -4.15039 0 8 -4.15039 1
gene 2 4 7 -0.951042 0 9 -0.951042 1
gene 2 5 7 2.7674 0 10 2.7674 1
genomeend 167

/* Organism #168 Fitness: 2 Error: 0 */
genomestart 168
node 1 3 1 3
node 2 1 1 1
node 3 2 1 1
node 4 2 1 1
node 5 3 1 1
node 6 1 0 2
node 7 3 0 2
gene 2 1 6 -0.374529 0 1 -0.374529 1
gene 2 2 6 -0.795445 0 2 -0.795445 1
gene 1 3 6 -2.70316 0 3 -2.70316 1
gene 2 4 6 -2.04892 0 4 -2.04892 1
gene 2 5 6 -0.733725 0 5 -0.733725 1
gene 2 1 7 0.149916 0 6 0.149916 1
gene 2 2 7 1.79909 0 7 1.79909 1
gene 3 3 7 -4.15559 0 8 -4.15559 1
gene 3 4 7 -0.66972 0 9 -0.66972 1
gene 2 5 7 2.21744 0 10 2.21744 1
gene 2 6 6 0.585707 1 25 0.585707 1
genomeend 168

/* Organism #169 Fitness: 12 Error: 0 */
genomestart 169
node 1 3 1 3
node 2 2 1 1
node 3 1 1 1
node 4 1 1 1
node 5 3 1 1
node 6 1 0 2
node 7 2 0 2
gene 2 1 6 -2.58544 0 1 -2.58544 1
gene 1 2 6 1.20224 0 2 1.20224 1
gene 1 3 6 -2.42442 0 3 -2.42442 1
gene 1 4 6 0.409624 0 4 0.409624 1
gene 2 5 6 -2.54154 0 5 -2.54154 1
gene 3 1 7 2.86292 0 6 2.86292 1
gene 3 2 7 3.35385 0 7 3.35385 1
gene 1 3 7 -2.28792 0 8 -2.28792 1
gene 2 4 7 -2.05311 0 9 -2.05311 1
gene 1 5 7 0.280392 0 10 0.280392 1
genomeend 169

/* Species #10 : (Size 16) (AF 10) (Age 2)  */


/* Organism #170 Fitness: 30 Error: 0 */
genomestart 170
node 1 1 1 3
node 2 3 1 1
node 3 3 1 1
node 4 3 1 1
node 5 2 1 1
node 6 3 0 2
node 7 1 0 2
gene 1 1 6 -0.775131 0 1 -0.775131 1
gene 3 2 6 -0.657418 0 2 -0.657418 1
gene 1 3 6 1.19848 0 3 1.19848 1
gene 1 4 6 0.642145 0 4 0.642145 1
gene 2 5 6 -5.03182 0 5 -5.03182 1
gene 3 1 7 2.10405 0 6 2.10405 1
gene 2 2 7 -0.115478 0 7 -0.115478 1
gene 3 3 7 -1.40019 0 8 -1.40019 1
gene 3 4 7 -2.93342 0 9 -2.93342 1
gene 2 5 7 2.40483 0 10 2.40483 1
genomeend 170

/* Organism #171 Fitness: 5 Error: 0 */
genomestart 171
node 1 1 1 3
node 2 3 1 1
node 3 3 1 1
node 4 3 1 1
node 5 2 1 1
node 6 3 0 2
node 7 1 0 2
gene 1 1 6 -2.50931 0 1 -2.50931 1
gene 3 2 6 1.94115 0 2 1.94115 1
gene 1 3 6 3.2079 0 3 3.2079 1
gene 1 4 6 3.25582 0 4 3.25582 1
gene 2 5 6 -3.02271 0 5 -3.02271 1
gene 3 1 7 -0.0856404 0 6 -0.0856404 1
gene 2 2 7 0.490777 0 7 0.490777 1
gene 3 3 7 1.75935 0 8 1.75935 1
gene 3 4 7 -1.41583 0 9 -1.41583 1
gene 2 5 7 0.773755 0 10 0.773755 1
genomeend 171

/* Organism #172 Fitness: 3 Error: 0 */
genomestart 172
node 1 1 1 3
node 2 1 1 1
node 3 3 1 1
node 4 3 1 1
node 5 2 1 1
node 6 3 0 2
node 7 1 0 2
gene 1 1 6 -1.08095 0 1 -1.08095 1
gene 3 2 6 -0.794371 0 2 -0.794371 1
gene 1 3 6 1.16776 0 3 1.16776 1
gene 1 4 6 1.16539 0 4 1.16539 1
gene 2 5 6 -1.95385 0 5 -1.95385 1
gene 3 1 7 2.20273 0 6 2.20273 1
gene 2 2 7 0.842838 0 7 0.842838 1
gene 3 3 7 2.62564 0 8 2.62564 1
gene 3 4 7 -2.42761 0 9 -2.42761 1
gene 2 5 7 2.74606 0 10 2.74606 1
genomeend 172

/* Organism #173 Fitness: 19 Error: 0 */
genomestart 173
node 1 1 1 3
node 2 3 1 1
node 3 3 1 1
node 4 3 1 1
node 5 2 1 1
node 6 3 0 2
node 7 1 0 2
gene 1 1 6 -1.91998 0 1 -1.91998 1
gene 3 2 6 1.59678 0 2 1.59678 1
gene 1 3 6 1.16776 0 3 1.16776 1
gene 1 4 6 1.30719 0 4 1.30719 1
gene 2 5 6 -3.02271 0 5 -3.02271 1
gene 3 1 7 1.5045 0 6 1.5045 1
gene 2 2 7 0.490777 0 7 0.490777 1
gene 3 3 7 0.584628 0 8 0.584628 1
gene 3 4 7 -0.81857 0 9 -0.81857 1
gene 2 5 7 2.38696 0 10 2.38696 1
gene 1 7 7 -0.83481 1 26 -0.83481 1
genomeend 173

/* Organism #174 Fitness: 10 Error: 0 */
genomestart 174
node 1 1 1 3
node 2 3 1 1
node 3 3 1 1
node 4 3 1 1
node 5 2 1 1
node 6 3 0 2
node 7 1 0 2
gene 1 1 6 0.0139969 0 1 0.0139969 1
gene 3 2 6 1.3484 0 2 1.3484 1
gene 1 3 6 0.862904 0 3 0.862904 1
gene 1 4 6 2.36065 0 4 2.36065 1
gene 2 5 6 -3.02047 0 5 -3.02047 1
gene 3 1 7 -1.69473 0 6 -1.69473 1
gene 2 2 7 0.923425 0 7 0.923425 1
gene 3 3 7 0.584628 0 8 0.584628 1
gene 3 4 7 -2.40802 0 9 -2.40802 1
gene 2 5 7 0.827671 0 10 0.827671 1
genomeend 174

/* Organism #175 Fitness: 10 Error: 0 */
genomestart 175
node 1 1 1 3
node 2 3 1 1
node 3 3 1 1
node 4 3 1 1
node 5 2 1 1
node 6 3 0 2
node 7 1 0 2
gene 1 1 6 -0.949443 0 1 -0.949443 1
gene 3 2 6 -0.2306 0 2 -0.2306 1
gene 1 3 6 0.0594469 0 3 0.0594469 1
gene 1 4 6 0.691094 0 4 0.691094 1
gene 2 5 6 -4.18762 0 5 -4.18762 1
gene 3 1 7 2.34534 0 6 2.34534 1
gene 2 2 7 -1.74789 0 7 -1.74789 1
gene 3 3 7 2.82379 0 8 2.82379 1
gene 3 4 7 0.521954 0 9 0.521954 1
gene 2 5 7 2.08194 0 10 2.08194 1
genomeend 175

/* Organism #176 Fitness: 12 Error: 0 */
genomestart 176
node 1 1 1 3
node 2 3 1 1
node 3 3 1 1
node 4 3 1 1
node 5 2 1 1
node 6 3 0 2
node 7 1 0 2
gene 1 1 6 -4.03676 0 1 -4.03676 1
gene 3 2 6 1.59678 0 2 1.59678 1
gene 1 3 6 1.16776 0 3 1.16776 1
gene 1 4 6 1.83125 0 4 1.83125 1
gene 2 5 6 -3.02271 0 5 -3.02271 1
gene 3 1 7 0.226623 0 6 0.226623 1
gene 2 2 7 -0.625113 0 7 -0.625113 1
gene 3 3 7 2.57286 0 8 2.57286 1
gene 3 4 7 1.53231 0 9 1.53231 1
gene 2 5 7 2.15089 0 10 2.15089 1
genomeend 176

/* Organism #177 Fitness: 20 Error: 0 */
genomestart 177
node 1 1 1 3
node 2 3 1 1
node 3 3 1 1
node 4 3 1 1
node 5 2 1 1
node 6 3 0 2
node 7 1 0 2
gene 1 1 6 0.464114 0 1 0.464114 1
gene 3 2 6 2.87753 0 2 2.87753 1
gene 1 3 6 1.70932 0 3 1.70932 1
gene 1 4 6 -0.539879 0 4 -0.539879 1
gene 2 5 6 -4.16363 0 5 -4.16363 1
gene 3 1 7 1.90184 0 6 1.90184 1
gene 2 2 7 0.934255 0 7 0.934255 1
gene 3 3 7 1.67718 0 8 1.67718 1
gene 3 4 7 -2.14377 0 9 -2.14377 1
gene 2 5 7 2.34469 0 10 2.34469 1
genomeend 177

/* Organism #178 Fitness: 16 Error: 0 */
genomestart 178
node 1 1 1 3
node 2 3 1 1
node 3 3 1 1
node 4 3 1 1
node 5 2 1 1
node 6 3 0 2
node 7 1 0 2
gene 1 1 6 -1.91998 0 1 -1.91998 1
gene 3 2 6 1.59678 0 2 1.59678 1
gene 1 3 6 1.16776 0 3 1.16776 1
gene 1 4 6 1.30719 0 4 1.30719 1
gene 2 5 6 -3.02271 0 5 -3.02271 1
gene 3 1 7 1.5045 0 6 1.5045 1
gene 2 2 7 0.490777 0 7 0.490777 1
gene 3 3 7 0.584628 0 8 0.584628 1
gene 3 4 7 -0.81857 0 9 -0.81857 1
gene 2 5 7 2.38696 0 10 2.38696 1
gene 3 7 6 -0.166284 0 19 0 1
genomeend 178

/* Organism #179 Fitness: 1 Error: 0 */
genomestart 179
node 1 1 1 3
node 2 3 1 1
node 3 3 1 1
node 4 3 1 1
node 5 2 1 1
node 6 3 0 2
node 7 1 0 2
gene 1 1 6 -1.27801 0 1 -1.27801 1
gene 3 2 6 0.78965 0 2 0.78965 1
gene 1 3 6 1.16776 0 3 1.16776 1
gene 1 4 6 0.417863 0 4 0.417863 1
gene 2 5 6 -3.91328 0 5 -3.91328 1
gene 3 1 7 1.38385 0 6 1.38385 1
gene 2 2 7 2.87724 0 7 2.87724 1
gene 3 3 7 -0.733123 0 8 -0.733123 1
gene 3 4 7 -2.05066 0 9 -2.05066 1
gene 2 5 7 2.38696 0 10 2.38696 1
genomeend 179

/* Organism #180 Fitness: 2 Error: 0 */
genomestart 180
node 1 1 1 3
node 2 3 1 1
node 3 3 1 1
node 4 3 1 1
node 5 2 1 1
node 6 3 0 2
node 7 1 0 2
gene 1 1 6 -1.07031 0 1 -1.07031 1
gene 3 2 6 1.26789 0 2 1.26789 1
gene 1 3 6 3.56367 0 3 3.56367 1
gene 1 4 6 2.12166 0 4 2.12166 1
gene 2 5 6 -2.17642 0 5 -2.17642 1
gene 3 1 7 1.76782 0 6 1.76782 1
gene 2 2 7 0.335555 0 7 0.335555 1
gene 3 3 7 2.01127 0 8 2.01127 1
gene 3 4 7 -2.81562 0 9 -2.81562 1
gene 2 5 7 0.789271 0 10 0.789271 1
genomeend 180

/* Organism #181 Fitness: 4 Error: 0 */
genomestart 181
node 1 1 1 3
node 2 3 1 1
node 3 3 1 1
node 4 3 1 1
node 5 2 1 1
node 6 3 0 2
node 7 1 0 2
gene 1 1 6 -0.452532 0 1 -0.452532 1
gene 3 2 6 2.3882 0 2 2.3882 1
gene 1 3 6 -0.963499 0 3 -0.963499 1
gene 1 4 6 1.72477 0 4 1.72477 1
gene 2 5 6 -0.825918 0 5 -0.825918 1
gene 3 1 7 3.46148 0 6 3.46148 1
gene 2 2 7 1.04386 0 7 1.04386 1
gene 3 3 7 0.869547 0 8 0.869547 1
gene 3 4 7 -2.26603 0 9 -2.26603 1
gene 2 5 7 1.58654 0 10 1.58654 1
genomeend 181

/* Organism #182 Fitness: 9 Error: 0 */
genomestart 182
node 1 1 1 3
node 2 3 1 1
node 3 3 1 1
node 4 3 1 1
node 5 2 1 1
node 6 3 0 2
node 7 1 0 2
gene 1 1 6 -1.92044 0 1 -1.92044 1
gene 3 2 6 -1.28577 0 2 -1.28577 1
gene 1 3 6 1.51872 0 3 1.51872 1
gene 1 4 6 1.30719 0 4 1.30719 1
gene 2 5 6 -3.02271 0 5 -3.02271 1
gene 3 1 7 -0.862656 0 6 -0.862656 1
gene 2 2 7 0.505215 0 7 0.505215 1
gene 3 3 7 2.09354 0 8 2.09354 1
gene 3 4 7 -2.30584 0 9 -2.30584 1
gene 2 5 7 2.38696 0 10 2.38696 1
genomeend 182

/* Organism #183 Fitness: 8 Error: 0 */
genomestart 183
node 1 1 1 3
node 2 3 1 1
node 3 3 1 1
node 4 3 1 1
node 5 2 1 1
node 6 3 0 2
node 7 1 0 2
gene 1 1 6 -1.53578 0 1 -1.53578 1
gene 3 2 6 2.69957 0 2 2.69957 1
gene 1 3 6 -0.253817 0 3 -0.253817 1
gene 1 4 6 3.65018 0 4 3.65018 1
gene 2 5 6 -1.92173 0 5 -1.92173 1
gene 3 1 7 -0.741754 0 6 -0.741754 1
gene 2 2 7 -0.821647 0 7 -0.821647 1
gene 3 3 7 0.582422 0 8 0.582422 1
gene 3 4 7 -3.11572 0 9 -3.11572 1
gene 2 5 7 2.38696 0 10 2.38696 1
genomeend 183

/* Organism #184 Fitness: 9 Error: 0 */
genomestart 184
node 1 1 1 3
node 2 3 1 1
node 3 3 1 1
node 4 3 1 1
node 5 2 1 1
node 6 3 0 2
node 7 1 0 2
gene 1 1 6 -0.249522 0 1 -0.249522 1
gene 3 2 6 0.236833 0 2 0.236833 1
gene 1 3 6 2.03828 0 3 2.03828 1
gene 1 4 6 0.18097 0 4 0.18097 1
gene 2 5 6 -2.66018 0 5 -2.66018 1
gene 3 1 7 -0.960876 0 6 -0.960876 1
gene 2 2 7 -1.59888 0 7 -1.59888 1
gene 3 3 7 0.496207 0 8 0.496207 1
gene 3 4 7 -1.07861 0 9 -1.07861 1
gene 2 5 7 3.41755 0 10 3.41755 1
genomeend 184

/* Organism #185 Fitness: 2 Error: 0 */
genomestart 185
node 1 1 1 3
node 2 3 1 1
node 3 3 1 1
node 4 3 1 1
node 5 2 1 1
node 6 3 0 2
node 7 1 0 2
gene 1 1 6 -1.91998 0 1 -1.91998 1
gene 3 2 6 1.59678 0 2 1.59678 1
gene 1 3 6 1.16776 0 3 1.16776 1
gene 1 4 6 1.30719 0 4 1.30719 1
gene 2 5 6 -3.02271 0 5 -3.02271 1
gene 3 1 7 1.5045 0 6 1.5045 1
gene 2 2 7 0.490777 0 7 0.490777 1
gene 3 3 7 0.584628 0 8 0.584628 1
gene 3 4 7 -0.81857 0 9 -0.81857 1
gene 2 5 7 2.38696 0 10 2.38696 1
gene 1 6 7 -0.0852396 0 20 0 1
genomeend 185

/* Species #11 : (Size 5) (AF 7.4) (Age 2)  */


/* Organism #186 Fitness: 7 Error: 0 */
genomestart 186
node 1 3 1 3
node 2 1 1 1
node 3 1 1 1
node 4 3 1 1
node 5 3 1 1
node 6 2 0 2
node 7 3 0 2
gene 2 1 6 2.81602 0 1 2.81602 1
gene 1 2 6 -0.00108025 0 2 -0.00108025 1
gene 2 3 6 -1.42296 0 3 -1.42296 1
gene 2 4 6 1.73151 0 4 1.73151 1
gene 3 5 6 -0.289374 0 5 -0.289374 1
gene 2 1 7 -3.64527 0 6 -3.64527 1
gene 2 2 7 -2.85744 0 7 -2.85744 1
gene 1 3 7 1.13503 0 8 1.13503 1
gene 3 4 7 3.45863 0 9 3.45863 1
gene 2 5 7 0.31686 0 10 0.31686 1
genomeend 186

/* Organism #187 Fitness: 10 Error: 0 */
genomestart 187
node 1 3 1 3
node 2 2 1 1
node 3 3 1 1
node 4 1 1 1
node 5 1 1 1
node 6 1 0 2
node 7 2 0 2
gene 1 1 6 -0.440495 0 1 -0.440495 1
gene 2 2 6 0.271935 0 2 0.271935 1
gene 3 3 6 -3.95081 0 3 -3.95081 1
gene 3 4 6 0.477977 0 4 0.477977 1
gene 2 5 6 3.2092 0 5 3.2092 1
gene 3 1 7 -3.05352 0 6 -3.05352 1
gene 1 2 7 -5.18398 0 7 -5.18398 1
gene 1 3 7 -1.93092 0 8 -1.93092 1
gene 2 4 7 4.63244 0 9 4.63244 1
gene 1 5 7 1.06277 0 10 1.06277 1
genomeend 187

/* Organism #188 Fitness: 2 Error: 0 */
genomestart 188
node 1 3 1 3
node 2 1 1 1
node 3 1 1 1
node 4 3 1 1
node 5 3 1 1
node 6 2 0 2
node 7 3 0 2
gene 2 1 6 0.54755 0 1 0.54755 1
gene 1 2 6 -1.30785 0 2 -1.30785 1
gene 2 3 6 -2.46485 0 3 -2.46485 1
gene 2 4 6 1.45697 0 4 1.45697 1
gene 3 5 6 0.286942 0 5 0.286942 1
gene 2 1 7 -3.76163 0 6 -3.76163 1
gene 2 2 7 -2.62831 0 7 -2.62831 1
gene 1 3 7 2.6631 0 8 2.6631 1
gene 3 4 7 3.32477 0 9 3.32477 1
gene 2 5 7 1.19072 0 10 1.19072 1
genomeend 188

/* Organism #189 Fitness: 10 Error: 0 */
genomestart 189
node 1 3 1 3
node 2 1 1 1
node 3 1 1 1
node 4 3 1 1
node 5 3 1 1
node 6 2 0 2
node 7 3 0 2
gene 2 1 6 2.81602 0 1 2.81602 1
gene 1 2 6 -0.00108025 0 2 -0.00108025 1
gene 2 3 6 -1.42296 0 3 -1.42296 1
gene 2 4 6 1.73151 0 4 1.73151 1
gene 3 5 6 -0.289374 0 5 -0.289374 1
gene 2 1 7 -3.64527 0 6 -3.64527 1
gene 2 2 7 -2.85744 0 7 -2.85744 1
gene 1 3 7 1.13503 0 8 1.13503 1
gene 3 4 7 3.45863 0 9 3.45863 1
gene 2 5 7 0.31686 0 10 0.31686 1
genomeend 189

/* Organism #190 Fitness: 8 Error: 0 */
genomestart 190
node 1 3 1 3
node 2 2 1 1
node 3 3 1 1
node 4 1 1 1
node 5 1 1 1
node 6 1 0 2
node 7 2 0 2
gene 1 1 6 3.17672 0 1 3.17672 1
gene 2 2 6 0.179632 0 2 0.179632 1
gene 3 3 6 -0.720313 0 3 -0.720313 1
gene 3 4 6 0.343461 0 4 0.343461 1
gene 2 5 6 3.25044 0 5 3.25044 1
gene 3 1 7 -3.27281 0 6 -3.27281 1
gene 1 2 7 -1.79062 0 7 -1.79062 1
gene 1 3 7 -1.74527 0 8 -1.74527 1
gene 2 4 7 3.51265 0 9 3.51265 1
gene 1 5 7 -1.70594 0 10 -1.70594 1
genomeend 190

/* Species #12 : (Size 3) (AF 26.6667) (Age 2)  */


/* Organism #191 Fitness: 10 Error: 0 */
genomestart 191
node 1 3 1 3
node 2 2 1 1
node 3 1 1 1
node 4 1 1 1
node 5 3 1 1
node 6 1 0 2
node 7 2 0 2
gene 2 1 6 0.179938 0 1 0.179938 1
gene 1 2 6 -5.51284 0 2 -5.51284 1
gene 1 3 6 2.9756 0 3 2.9756 1
gene 1 4 6 -0.368345 0 4 -0.368345 1
gene 2 5 6 -2.57681 0 5 -2.57681 1
gene 3 1 7 2.34991 0 6 2.34991 1
gene 3 2 7 2.11872 0 7 2.11872 1
gene 1 3 7 -2.3559 0 8 -2.3559 1
gene 2 4 7 -0.134505 0 9 -0.134505 1
gene 1 5 7 3.54482 0 10 3.54482 1
genomeend 191

/* Organism #192 Fitness: 63 Error: 0 */
genomestart 192
node 1 3 1 3
node 2 2 1 1
node 3 1 1 1
node 4 1 1 1
node 5 3 1 1
node 6 1 0 2
node 7 2 0 2
gene 2 1 6 0.2983 0 1 0.2983 1
gene 1 2 6 1.95187 0 2 1.95187 1
gene 1 3 6 1.39122 0 3 1.39122 1
gene 1 4 6 -0.738346 0 4 -0.738346 1
gene 2 5 6 0.210956 0 5 0.210956 1
gene 3 1 7 3.96509 0 6 3.96509 1
gene 3 2 7 1.69162 0 7 1.69162 1
gene 1 3 7 -0.663265 0 8 -0.663265 1
gene 2 4 7 -2.45132 0 9 -2.45132 1
gene 1 5 7 2.8482 0 10 2.8482 1
genomeend 192

/* Organism #193 Fitness: 7 Error: 0 */
genomestart 193
node 1 3 1 3
node 2 2 1 1
node 3 1 1 1
node 4 1 1 1
node 5 3 1 1
node 6 1 0 2
node 7 2 0 2
gene 2 1 6 -3.5078 0 1 -3.5078 1
gene 1 2 6 -3.4804 0 2 -3.4804 1
gene 1 3 6 3.87217 0 3 3.87217 1
gene 1 4 6 -0.581086 0 4 -0.581086 1
gene 2 5 6 -0.398661 0 5 -0.398661 1
gene 3 1 7 -0.352068 0 6 -0.352068 1
gene 3 2 7 2.59382 0 7 2.59382 1
gene 1 3 7 1.20411 0 8 1.20411 1
gene 2 4 7 -0.337512 0 9 -0.337512 1
gene 1 5 7 2.03121 0 10 2.03121 1
genomeend 193

/* Species #13 : (Size 13) (AF 7700.15) (Age 2)  */


/* Organism #194 Fitness: 12 Error: 0 */
genomestart 194
node 1 3 1 3
node 2 3 1 1
node 3 3 1 1
node 4 1 1 1
node 5 1 1 1
node 6 3 0 2
node 7 2 0 2
node 8 1 0 0
gene 3 1 6 0.136612 0 1 0.136612 1
gene 1 2 6 -0.836389 0 2 -0.836389 1
gene 1 3 6 -0.700991 0 3 -0.700991 1
gene 2 4 6 0.427736 0 4 0.427736 1
gene 1 5 6 0.281651 0 5 0.281651 1
gene 2 1 7 0.628479 0 6 0.628479 1
gene 1 2 7 -0.0380674 0 7 -0.0380674 1
gene 3 3 7 0.743732 0 8 0.743732 1
gene 1 4 7 0.617578 0 9 0.617578 1
gene 3 5 7 -0.122532 0 10 -0.122532 0
gene 3 5 8 1 0 14 0 1
gene 3 8 7 -0.122532 0 15 0 1
