
/* Species #887 : (Size 2) (AF 0) (Age 9)  */


/* Organism #0 Fitness: 0 Error: 0 */
genomestart 0
node 1 1 1 3
node 2 1 1 1
node 3 1 1 1
node 4 1 1 1
node 5 2 0 2
node 6 2 0 2
gene 2 1 5 -0.533303 0 1 -0.533303 1
gene 2 2 5 -1.56632 0 2 -1.56632 1
gene 3 3 5 1.38064 0 3 1.38064 1
gene 1 4 5 -2.0267 0 4 -2.0267 1
gene 2 1 6 -0.74949 0 5 -0.74949 1
gene 1 2 6 -1.59403 0 6 -1.59403 1
gene 1 3 6 1.65337 0 7 1.65337 1
gene 2 4 6 -5.4672 0 8 -5.4672 1
gene 1 6 5 3.33547 0 72 3.33547 1
genomeend 0

/* Organism #1 Fitness: 0 Error: 0 */
genomestart 1
node 1 1 1 3
node 2 1 1 1
node 3 1 1 1
node 4 1 1 1
node 5 2 0 2
node 6 2 0 2
gene 2 1 5 2.42336 0 1 2.42336 1
gene 2 2 5 1.75717 0 2 1.75717 1
gene 3 3 5 0.0508037 0 3 0.0508037 1
gene 1 4 5 -1.03783 0 4 -1.03783 1
gene 2 1 6 -1.72039 0 5 -1.72039 1
gene 1 2 6 0.842944 0 6 0.842944 1
gene 1 3 6 -1.0019 0 7 -1.0019 1
gene 2 4 6 -6.60825 0 8 -6.60825 1
gene 1 6 5 3.72601 0 72 3.72601 1
genomeend 1

/* Species #939 : (Size 2) (AF 0) (Age 4)  */


/* Organism #2 Fitness: 0 Error: 0 */
genomestart 2
node 1 1 1 3
node 2 1 1 1
node 3 1 1 1
node 4 1 1 1
node 5 2 0 2
node 6 2 0 2
gene 2 1 5 0.837281 0 1 0.837281 1
gene 2 2 5 3.54596 0 2 3.54596 1
gene 3 3 5 -1.78295 0 3 -1.78295 1
gene 1 4 5 -2.28443 0 4 -2.28443 1
gene 2 1 6 -2.00513 0 5 -2.00513 1
gene 1 2 6 0.681822 0 6 0.681822 1
gene 1 3 6 -3.32438 0 7 -3.32438 1
gene 2 4 6 -6.192 0 8 -6.192 1
gene 1 6 5 4.10399 0 72 4.10399 1
genomeend 2

/* Organism #3 Fitness: 0 Error: 0 */
genomestart 3
node 1 1 1 3
node 2 1 1 1
node 3 1 1 1
node 4 1 1 1
node 5 2 0 2
node 6 2 0 2
gene 2 1 5 -0.575513 0 1 -0.575513 1
gene 2 2 5 2.44657 0 2 2.44657 1
gene 3 3 5 -1.44646 0 3 -1.44646 1
gene 1 4 5 -2.63742 0 4 -2.63742 1
gene 2 1 6 -1.87878 0 5 -1.87878 1
gene 1 2 6 -0.0932921 0 6 -0.0932921 1
gene 1 3 6 -2.6147 0 7 -2.6147 1
gene 2 4 6 -7.60845 0 8 -7.60845 1
gene 1 6 5 2.80824 0 72 2.80824 1
genomeend 3

/* Species #941 : (Size 3) (AF 0) (Age 4)  */


/* Organism #4 Fitness: 0 Error: 0 */
genomestart 4
node 1 1 1 3
node 2 1 1 1
node 3 1 1 1
node 4 1 1 1
node 5 2 0 2
node 6 2 0 2
gene 2 1 5 4.20934 0 1 4.20934 1
gene 2 2 5 3.01608 0 2 3.01608 1
gene 3 3 5 -0.00410747 0 3 -0.00410747 1
gene 1 4 5 -2.3497 0 4 -2.3497 1
gene 2 1 6 -2.00549 0 5 -2.00549 1
gene 1 2 6 -2.54661 0 6 -2.54661 1
gene 1 3 6 -2.69587 0 7 -2.69587 1
gene 2 4 6 -4.61016 0 8 -4.61016 1
gene 1 6 5 -0.0608221 0 72 -0.0608221 1
genomeend 4

/* Organism #5 Fitness: 0 Error: 0 */
genomestart 5
node 1 1 1 3
node 2 1 1 1
node 3 1 1 1
node 4 1 1 1
node 5 2 0 2
node 6 2 0 2
gene 2 1 5 2.40769 0 1 2.40769 1
gene 2 2 5 2.44573 0 2 2.44573 1
gene 3 3 5 -2.63788 0 3 -2.63788 1
gene 1 4 5 -0.953084 0 4 -0.953084 1
gene 2 1 6 -2.47151 0 5 -2.47151 1
gene 1 2 6 -1.25009 0 6 -1.25009 1
gene 1 3 6 -2.32599 0 7 -2.32599 1
gene 2 4 6 -6.84155 0 8 -6.84155 1
gene 1 6 5 0.279235 0 72 0.279235 1
genomeend 5

/* Organism #6 Fitness: 0 Error: 0 */
genomestart 6
node 1 1 1 3
node 2 1 1 1
node 3 1 1 1
node 4 1 1 1
node 5 2 0 2
node 6 2 0 2
gene 2 1 5 2.15026 0 1 2.15026 1
gene 2 2 5 4.99597 0 2 4.99597 1
gene 3 3 5 -3.06409 0 3 -3.06409 1
gene 1 4 5 -1.55258 0 4 -1.55258 1
gene 2 1 6 -1.11537 0 5 -1.11537 1
gene 1 2 6 -2.14257 0 6 -2.14257 1
gene 1 3 6 1.03377 0 7 1.03377 1
gene 2 4 6 -6.57608 0 8 -6.57608 1
gene 1 6 5 1.08305 0 72 1.08305 1
genomeend 6

/* Species #959 : (Size 4) (AF 0) (Age 2)  */


/* Organism #7 Fitness: 0 Error: 0 */
genomestart 7
node 1 1 1 3
node 2 1 1 1
node 3 1 1 1
node 4 1 1 1
node 5 2 0 2
node 6 2 0 2
gene 2 1 5 1.21466 0 1 1.21466 1
gene 2 2 5 0.141205 0 2 0.141205 1
gene 3 3 5 -2.79777 0 3 -2.79777 1
gene 1 4 5 -2.3084 0 4 -2.3084 1
gene 2 1 6 -1.99736 0 5 -1.99736 1
gene 1 2 6 -3.22998 0 6 -3.22998 1
gene 1 3 6 1.13314 0 7 1.13314 1
gene 2 4 6 -1.29587 0 8 -1.29587 1
gene 1 6 5 1.19957 0 72 1.19957 1
genomeend 7

/* Organism #8 Fitness: 0 Error: 0 */
genomestart 8
node 1 1 1 3
node 2 1 1 1
node 3 1 1 1
node 4 1 1 1
node 5 2 0 2
node 6 2 0 2
gene 2 1 5 1.78291 0 1 1.78291 1
gene 2 2 5 3.81454 0 2 3.81454 1
gene 3 3 5 -4.19925 0 3 -4.19925 1
gene 1 4 5 -2.19905 0 4 -2.19905 1
gene 2 1 6 -0.601361 0 5 -0.601361 1
gene 1 2 6 -3.15172 0 6 -3.15172 1
gene 1 3 6 -0.912651 0 7 -0.912651 1
gene 2 4 6 -5.38221 0 8 -5.38221 1
gene 1 6 5 3.41594 0 72 3.41594 1
genomeend 8

/* Organism #9 Fitness: 0 Error: 0 */
genomestart 9
node 1 1 1 3
node 2 1 1 1
node 3 1 1 1
node 4 1 1 1
node 5 2 0 2
node 6 2 0 2
gene 2 1 5 -1.88177 0 1 -1.88177 1
gene 2 2 5 1.43004 0 2 1.43004 1
gene 3 3 5 -3.66409 0 3 -3.66409 1
gene 1 4 5 -0.919751 0 4 -0.919751 1
gene 2 1 6 0.24896 0 5 0.24896 1
gene 1 2 6 -2.19556 0 6 -2.19556 1
gene 1 3 6 -1.91492 0 7 -1.91492 1
gene 2 4 6 -4.24145 0 8 -4.24145 1
gene 1 6 5 -0.40831 0 72 -0.40831 1
genomeend 9

/* Organism #10 Fitness: 0 Error: 0 */
genomestart 10
node 1 1 1 3
node 2 1 1 1
node 3 1 1 1
node 4 1 1 1
node 5 2 0 2
node 6 2 0 2
gene 2 1 5 0.0316635 0 1 0.0316635 1
gene 2 2 5 3.00972 0 2 3.00972 1
gene 3 3 5 -1.52022 0 3 -1.52022 1
gene 1 4 5 -0.390992 0 4 -0.390992 1
gene 2 1 6 -0.220919 0 5 -0.220919 1
gene 1 2 6 -3.78336 0 6 -3.78336 1
gene 1 3 6 -0.145802 0 7 -0.145802 1
gene 2 4 6 -6.03767 0 8 -6.03767 1
gene 1 6 5 3.5832 0 72 3.5832 1
genomeend 10

/* Species #960 : (Size 73) (AF 0) (Age 2)  */


/* Organism #11 Fitness: 0 Error: 0 */
genomestart 11
node 1 1 1 3
node 2 1 1 1
node 3 1 1 1
node 4 1 1 1
node 5 2 0 2
node 6 2 0 2
gene 2 1 5 1.78291 0 1 1.78291 1
gene 2 2 5 3.5999 0 2 3.5999 1
gene 3 3 5 -2.12216 0 3 -2.12216 1
gene 1 4 5 -0.390992 0 4 -0.390992 1
gene 2 1 6 -0.0233976 0 5 -0.0233976 1
gene 1 2 6 -1.59403 0 6 -1.59403 1
gene 1 3 6 -0.912651 0 7 -0.912651 1
gene 2 4 6 -5.82126 0 8 -5.82126 1
gene 1 6 5 2.25903 0 72 2.25903 1
genomeend 11

/* Organism #12 Fitness: 0 Error: 0 */
genomestart 12
node 1 1 1 3
node 2 1 1 1
node 3 1 1 1
node 4 1 1 1
node 5 2 0 2
node 6 2 0 2
gene 2 1 5 3.47906 0 1 3.47906 1
gene 2 2 5 2.99313 0 2 2.99313 1
gene 3 3 5 -1.74731 0 3 -1.74731 1
gene 1 4 5 1.25493 0 4 1.25493 1
gene 2 1 6 1.07211 0 5 1.07211 1
gene 1 2 6 -3.04712 0 6 -3.04712 1
gene 1 3 6 -2.50027 0 7 -2.50027 1
gene 2 4 6 -3.63291 0 8 -3.63291 1
gene 1 6 5 1.52777 0 72 1.52777 1
genomeend 12

/* Organism #13 Fitness: 0 Error: 0 */
genomestart 13
node 1 1 1 3
node 2 1 1 1
node 3 1 1 1
node 4 1 1 1
node 5 2 0 2
node 6 2 0 2
gene 2 1 5 1.78291 0 1 1.78291 1
gene 2 2 5 3.5999 0 2 3.5999 1
gene 3 3 5 -2.12216 0 3 -2.12216 1
gene 1 4 5 -0.390992 0 4 -0.390992 1
gene 2 1 6 -0.0233976 0 5 -0.0233976 1
gene 1 2 6 -1.59403 0 6 -1.59403 1
gene 1 3 6 -0.912651 0 7 -0.912651 1
gene 2 4 6 -5.82126 0 8 -5.82126 1
gene 1 6 5 2.25903 0 72 2.25903 1
genomeend 13

/* Organism #14 Fitness: 0 Error: 0 */
genomestart 14
node 1 1 1 3
node 2 1 1 1
node 3 1 1 1
node 4 1 1 1
node 5 2 0 2
node 6 2 0 2
gene 2 1 5 2.1559 0 1 2.1559 1
gene 2 2 5 2.9199 0 2 2.9199 1
gene 3 3 5 -2.96493 0 3 -2.96493 1
gene 1 4 5 0.155006 0 4 0.155006 1
gene 2 1 6 1.23666 0 5 1.23666 1
gene 1 2 6 -3.20846 0 6 -3.20846 1
gene 1 3 6 0.549656 0 7 0.549656 1
gene 2 4 6 -5.43724 0 8 -5.43724 1
gene 1 6 5 3.62963 0 72 3.62963 1
genomeend 14

/* Organism #15 Fitness: 0 Error: 0 */
genomestart 15
node 1 1 1 3
node 2 1 1 1
node 3 1 1 1
node 4 1 1 1
node 5 2 0 2
node 6 2 0 2
gene 2 1 5 1.20524 0 1 1.20524 1
gene 2 2 5 2.92363 0 2 2.92363 1
gene 3 3 5 -2.83616 0 3 -2.83616 1
gene 1 4 5 0.270234 0 4 0.270234 1
gene 2 1 6 -2.40973 0 5 -2.40973 1
gene 1 2 6 -1.60997 0 6 -1.60997 1
gene 1 3 6 -3.34261 0 7 -3.34261 1
gene 2 4 6 -3.63977 0 8 -3.63977 1
gene 1 6 5 2.22162 0 72 2.22162 1
genomeend 15

/* Organism #16 Fitness: 0 Error: 0 */
genomestart 16
node 1 1 1 3
node 2 1 1 1
node 3 1 1 1
node 4 1 1 1
node 5 2 0 2
node 6 2 0 2
gene 2 1 5 1.78291 0 1 1.78291 1
gene 2 2 5 3.5999 0 2 3.5999 1
gene 3 3 5 -2.12216 0 3 -2.12216 1
gene 1 4 5 -0.390992 0 4 -0.390992 1
gene 2 1 6 -0.0233976 0 5 -0.0233976 1
gene 1 2 6 -1.59403 0 6 -1.59403 1
gene 1 3 6 -0.912651 0 7 -0.912651 1
gene 2 4 6 -5.82126 0 8 -5.82126 1
gene 1 6 5 2.25903 0 72 2.25903 1
genomeend 16

/* Organism #17 Fitness: 0 Error: 0 */
genomestart 17
node 1 1 1 3
node 2 1 1 1
node 3 1 1 1
node 4 1 1 1
node 5 2 0 2
node 6 2 0 2
gene 2 1 5 1.2035 0 1 1.2035 1
gene 2 2 5 5.82935 0 2 5.82935 1
gene 3 3 5 -0.121779 0 3 -0.121779 1
gene 1 4 5 0.840357 0 4 0.840357 1
gene 2 1 6 -0.557628 0 5 -0.557628 1
gene 1 2 6 -2.67947 0 6 -2.67947 1
gene 1 3 6 0.815678 0 7 0.815678 1
gene 2 4 6 -4.59019 0 8 -4.59019 1
gene 1 6 5 3.89884 0 72 3.89884 1
genomeend 17

/* Organism #18 Fitness: 0 Error: 0 */
genomestart 18
node 1 1 1 3
node 2 1 1 1
node 3 1 1 1
node 4 1 1 1
node 5 2 0 2
node 6 2 0 2
gene 2 1 5 3.93828 0 1 3.93828 1
gene 2 2 5 2.79985 0 2 2.79985 1
gene 3 3 5 -0.506043 0 3 -0.506043 1
gene 1 4 5 -0.259962 0 4 -0.259962 1
gene 3 1 6 -0.356829 0 5 -0.356829 1
gene 1 2 6 -2.23718 0 6 -2.23718 1
gene 1 3 6 -2.36233 0 7 -2.36233 1
gene 2 4 6 -4.67097 0 8 -4.67097 1
gene 1 6 5 0.988098 0 72 0.988098 1
genomeend 18

/* Organism #19 Fitness: 0 Error: 0 */
genomestart 19
node 1 1 1 3
node 2 1 1 1
node 3 1 1 1
node 4 1 1 1
node 5 2 0 2
node 6 2 0 2
gene 2 1 5 1.78291 0 1 1.78291 1
gene 2 2 5 3.5999 0 2 3.5999 1
gene 3 3 5 -2.12216 0 3 -2.12216 1
gene 1 4 5 -0.390992 0 4 -0.390992 1
gene 2 1 6 -0.0233976 0 5 -0.0233976 1
gene 1 2 6 -1.59403 0 6 -1.59403 1
gene 1 3 6 -0.912651 0 7 -0.912651 1
gene 2 4 6 -5.82126 0 8 -5.82126 1
gene 1 6 5 2.25903 0 72 2.25903 1
genomeend 19

/* Organism #20 Fitness: 0 Error: 0 */
genomestart 20
node 1 1 1 3
node 2 1 1 1
node 3 1 1 1
node 4 1 1 1
node 5 2 0 2
node 6 2 0 2
gene 2 1 5 1.78291 0 1 1.78291 1
gene 2 2 5 1.42691 0 2 1.42691 1
gene 3 3 5 -1.69414 0 3 -1.69414 1
gene 1 4 5 1.92472 0 4 1.92472 1
gene 2 1 6 -0.0720181 0 5 -0.0720181 1
gene 1 2 6 -0.493017 0 6 -0.493017 1
gene 1 3 6 -3.28574 0 7 -3.28574 1
gene 2 4 6 -5.82126 0 8 -5.82126 1
gene 1 6 5 3.83582 0 72 3.83582 1
genomeend 20

/* Organism #21 Fitness: 0 Error: 0 */
genomestart 21
node 1 1 1 3
node 2 1 1 1
node 3 1 1 1
node 4 1 1 1
node 5 2 0 2
node 6 2 0 2
gene 2 1 5 -0.634378 0 1 -0.634378 1
gene 2 2 5 3.59236 0 2 3.59236 1
gene 3 3 5 0.992972 0 3 0.992972 1
gene 1 4 5 -2.25156 0 4 -2.25156 1
gene 2 1 6 1.60889 0 5 1.60889 1
gene 1 2 6 -1.01495 0 6 -1.01495 1
gene 1 3 6 1.51689 0 7 1.51689 1
gene 2 4 6 -5.61181 0 8 -5.61181 1
gene 1 6 5 1.98225 0 72 1.98225 1
genomeend 21

/* Organism #22 Fitness: 0 Error: 0 */
genomestart 22
node 1 1 1 3
node 2 1 1 1
node 3 1 1 1
node 4 1 1 1
node 5 2 0 2
node 6 2 0 2
gene 2 1 5 2.00138 0 1 2.00138 1
gene 2 2 5 2.47198 0 2 2.47198 1
gene 3 3 5 -0.129615 0 3 -0.129615 1
gene 1 4 5 2.02717 0 4 2.02717 1
gene 2 1 6 -2.1004 0 5 -2.1004 1
gene 1 2 6 0.630263 0 6 0.630263 1
gene 1 3 6 -0.907852 0 7 -0.907852 1
gene 2 4 6 -5.28324 0 8 -5.28324 1
gene 1 6 5 1.15761 0 72 1.15761 1
genomeend 22

/* Organism #23 Fitness: 0 Error: 0 */
genomestart 23
node 1 1 1 3
node 2 1 1 1
node 3 1 1 1
node 4 1 1 1
node 5 2 0 2
node 6 2 0 2
gene 2 1 5 1.78291 0 1 1.78291 1
gene 2 2 5 3.99093 0 2 3.99093 1
gene 3 3 5 -0.294645 0 3 -0.294645 1
gene 1 4 5 1.71161 0 4 1.71161 1
gene 2 1 6 -2.14058 0 5 -2.14058 1
gene 1 2 6 1.49282 0 6 1.49282 1
gene 1 3 6 -1.97612 0 7 -1.97612 1
gene 2 4 6 -5.82126 0 8 -5.82126 1
gene 1 6 5 0.124615 0 72 0.124615 1
genomeend 23

/* Organism #24 Fitness: 0 Error: 0 */
genomestart 24
node 1 1 1 3
node 2 1 1 1
node 3 1 1 1
node 4 1 1 1
node 5 2 0 2
node 6 2 0 2
gene 2 1 5 1.78291 0 1 1.78291 1
gene 2 2 5 3.5999 0 2 3.5999 1
gene 3 3 5 -2.12216 0 3 -2.12216 1
gene 1 4 5 -0.390992 0 4 -0.390992 1
gene 2 1 6 -0.0233976 0 5 -0.0233976 1
gene 1 2 6 -1.59403 0 6 -1.59403 1
gene 1 3 6 -0.912651 0 7 -0.912651 1
gene 2 4 6 -5.82126 0 8 -5.82126 1
gene 1 6 5 2.25903 0 72 2.25903 1
genomeend 24

/* Organism #25 Fitness: 0 Error: 0 */
genomestart 25
node 1 1 1 3
node 2 1 1 1
node 3 1 1 1
node 4 1 1 1
node 5 2 0 2
node 6 2 0 2
gene 2 1 5 3.42256 0 1 3.42256 1
gene 2 2 5 5.33216 0 2 5.33216 1
gene 3 3 5 -0.29959 0 3 -0.29959 1
gene 1 4 5 -2.68687 0 4 -2.68687 1
gene 2 1 6 2.43205 0 5 2.43205 1
gene 1 2 6 -1.90447 0 6 -1.90447 1
gene 1 3 6 -2.44622 0 7 -2.44622 1
gene 2 4 6 -6.63029 0 8 -6.63029 1
gene 1 6 5 2.25903 0 72 2.25903 1
genomeend 25

/* Organism #26 Fitness: 0 Error: 0 */
genomestart 26
node 1 1 1 3
node 2 1 1 1
node 3 1 1 1
node 4 1 1 1
node 5 2 0 2
node 6 2 0 2
gene 2 1 5 3.38463 0 1 3.38463 1
gene 2 2 5 1.30096 0 2 1.30096 1
gene 3 3 5 -2.60845 0 3 -2.60845 1
gene 1 4 5 -2.01657 0 4 -2.01657 1
gene 2 1 6 0.491732 0 5 0.491732 1
gene 1 2 6 -0.484349 0 6 -0.484349 1
gene 1 3 6 -1.00045 0 7 -1.00045 1
gene 2 4 6 -5.63438 0 8 -5.63438 1
gene 1 6 5 -0.123213 0 72 -0.123213 1
genomeend 26

/* Organism #27 Fitness: 0 Error: 0 */
genomestart 27
node 1 1 1 3
node 2 1 1 1
node 3 1 1 1
node 4 1 1 1
node 5 2 0 2
node 6 2 0 2
gene 2 1 5 1.62722 0 1 1.62722 1
gene 2 2 5 4.46292 0 2 4.46292 1
gene 3 3 5 -3.74549 0 3 -3.74549 1
gene 1 4 5 1.93245 0 4 1.93245 1
gene 2 1 6 -2.09218 0 5 -2.09218 1
gene 1 2 6 -1.72627 0 6 -1.72627 1
gene 1 3 6 1.02991 0 7 1.02991 1
gene 2 4 6 -5.78414 0 8 -5.78414 1
gene 1 6 5 0.665999 0 72 0.665999 1
genomeend 27

/* Organism #28 Fitness: 0 Error: 0 */
genomestart 28
node 1 1 1 3
node 2 1 1 1
node 3 1 1 1
node 4 1 1 1
node 5 2 0 2
node 6 2 0 2
gene 2 1 5 1.78291 0 1 1.78291 1
gene 3 2 5 3.5999 0 2 3.5999 1
gene 3 3 5 -2.12216 0 3 -2.12216 1
gene 1 4 5 -0.390992 0 4 -0.390992 1
gene 2 1 6 -0.0233976 0 5 -0.0233976 1
gene 1 2 6 -1.59403 0 6 -1.59403 1
gene 1 3 6 -0.912651 0 7 -0.912651 1
gene 2 4 6 -5.82126 0 8 -5.82126 1
gene 1 6 5 2.25903 0 72 2.25903 1
genomeend 28

/* Organism #29 Fitness: 0 Error: 0 */
genomestart 29
node 1 1 1 3
node 2 1 1 1
node 3 1 1 1
node 4 1 1 1
node 5 2 0 2
node 6 2 0 2
gene 2 1 5 -0.365275 0 1 -0.365275 1
gene 2 2 5 2.60733 0 2 2.60733 1
gene 3 3 5 -0.215752 0 3 -0.215752 1
gene 3 4 5 -0.164108 0 4 -0.164108 1
gene 2 1 6 0.921759 0 5 0.921759 1
gene 1 2 6 -3.73006 0 6 -3.73006 1
gene 1 3 6 -3.15219 0 7 -3.15219 1
gene 2 4 6 -4.89766 0 8 -4.89766 1
gene 1 6 5 0.884103 0 72 0.884103 1
genomeend 29

/* Organism #30 Fitness: 0 Error: 0 */
genomestart 30
node 1 1 1 3
node 2 1 1 1
node 3 1 1 1
node 4 1 1 1
node 5 2 0 2
node 6 2 0 2
gene 2 1 5 0.542484 0 1 0.542484 1
gene 2 2 5 3.58654 0 2 3.58654 1
gene 3 3 5 -4.3878 0 3 -4.3878 1
gene 1 4 5 -0.627779 0 4 -0.627779 1
gene 2 1 6 2.37043 0 5 2.37043 1
gene 1 2 6 -2.4248 0 6 -2.4248 1
gene 1 3 6 1.46549 0 7 1.46549 1
gene 2 4 6 -5.14558 0 8 -5.14558 1
gene 1 6 5 1.48405 0 72 1.48405 1
genomeend 30

/* Organism #31 Fitness: 0 Error: 0 */
genomestart 31
node 1 1 1 3
node 2 1 1 1
node 3 1 1 1
node 4 1 1 1
node 5 2 0 2
node 6 2 0 2
gene 2 1 5 1.78291 0 1 1.78291 1
gene 2 2 5 0.799976 0 2 0.799976 1
gene 3 3 5 -0.0846479 0 3 -0.0846479 1
gene 1 4 5 0.206338 0 4 0.206338 1
gene 2 1 6 2.17796 0 5 2.17796 1
gene 1 2 6 -1.17248 0 6 -1.17248 1
gene 1 3 6 -1.64665 0 7 -1.64665 1
gene 2 4 6 -5.82126 0 8 -5.82126 1
gene 1 6 5 1.33038 0 72 1.33038 1
genomeend 31

/* Organism #32 Fitness: 0 Error: 0 */
genomestart 32
node 1 1 1 3
node 2 1 1 1
node 3 1 1 1
node 4 1 1 1
node 5 2 0 2
node 6 2 0 2
gene 2 1 5 1.6443 0 1 1.6443 1
gene 2 2 5 5.58751 0 2 5.58751 1
gene 3 3 5 -3.53817 0 3 -3.53817 1
gene 1 4 5 -1.74366 0 4 -1.74366 1
gene 2 1 6 -2.00959 0 5 -2.00959 1
gene 1 2 6 -3.57759 0 6 -3.57759 1
gene 1 3 6 -1.52645 0 7 -1.52645 1
gene 2 4 6 -4.2175 0 8 -4.2175 1
gene 1 6 5 -0.0506073 0 72 -0.0506073 1
genomeend 32

/* Organism #33 Fitness: 0 Error: 0 */
genomestart 33
node 1 1 1 3
node 2 1 1 1
node 3 1 1 1
node 4 1 1 1
node 5 2 0 2
node 6 2 0 2
gene 2 1 5 1.29951 0 1 1.29951 1
gene 2 2 5 2.02584 0 2 2.02584 1
gene 3 3 5 -3.53934 0 3 -3.53934 1
gene 1 4 5 -2.57688 0 4 -2.57688 1
gene 2 1 6 2.15387 0 5 2.15387 1
gene 1 2 6 -1.6096 0 6 -1.6096 1
gene 1 3 6 -3.20254 0 7 -3.20254 1
gene 2 4 6 -5.96058 0 8 -5.96058 1
gene 1 6 5 2.81219 0 72 2.81219 1
genomeend 33

/* Organism #34 Fitness: 0 Error: 0 */
genomestart 34
node 1 1 1 3
node 2 1 1 1
node 3 1 1 1
node 4 1 1 1
node 5 2 0 2
node 6 2 0 2
gene 2 1 5 1.82232 0 1 1.82232 1
gene 2 2 5 5.70154 0 2 5.70154 1
gene 3 3 5 -2.37403 0 3 -2.37403 1
gene 1 4 5 -2.30053 0 4 -2.30053 1
gene 2 1 6 -0.49656 0 5 -0.49656 1
gene 1 2 6 -0.280266 0 6 -0.280266 1
gene 1 3 6 -2.16034 0 7 -2.16034 1
gene 2 4 6 -3.68376 0 8 -3.68376 1
gene 1 6 5 1.42898 0 72 1.42898 1
genomeend 34

/* Organism #35 Fitness: 0 Error: 0 */
genomestart 35
node 1 1 1 3
node 2 1 1 1
node 3 1 1 1
node 4 1 1 1
node 5 2 0 2
node 6 2 0 2
gene 2 1 5 2.63125 0 1 2.63125 1
gene 2 2 5 5.8841 0 2 5.8841 1
gene 3 3 5 -1.00419 0 3 -1.00419 1
gene 1 4 5 -0.756191 0 4 -0.756191 1
gene 2 1 6 -0.0305605 0 5 -0.0305605 1
gene 1 2 6 -2.52735 0 6 -2.52735 1
gene 1 3 6 1.07102 0 7 1.07102 1
gene 2 4 6 -5.5228 0 8 -5.5228 1
gene 1 6 5 2.74048 0 72 2.74048 1
genomeend 35

/* Organism #36 Fitness: 0 Error: 0 */
genomestart 36
node 1 1 1 3
node 2 1 1 1
node 3 1 1 1
node 4 1 1 1
node 5 2 0 2
node 6 2 0 2
gene 2 1 5 3.03272 0 1 3.03272 1
gene 1 2 5 5.69435 0 2 5.69435 1
gene 3 3 5 -2.23338 0 3 -2.23338 1
gene 1 4 5 -0.177716 0 4 -0.177716 1
gene 2 1 6 -1.49326 0 5 -1.49326 1
gene 1 2 6 -4.00987 0 6 -4.00987 1
gene 1 3 6 1.29136 0 7 1.29136 1
gene 2 4 6 -5.28186 0 8 -5.28186 1
gene 1 6 5 3.41983 0 72 3.41983 1
genomeend 36

/* Organism #37 Fitness: 0 Error: 0 */
genomestart 37
node 1 1 1 3
node 2 1 1 1
node 3 1 1 1
node 4 1 1 1
node 5 2 0 2
node 6 2 0 2
gene 2 1 5 -0.102825 0 1 -0.102825 1
gene 2 2 5 3.83973 0 2 3.83973 1
gene 3 3 5 -2.5973 0 3 -2.5973 1
gene 1 4 5 -1.09308 0 4 -1.09308 1
gene 2 1 6 2.41692 0 5 2.41692 1
gene 1 2 6 -2.44335 0 6 -2.44335 1
gene 1 3 6 -3.21799 0 7 -3.21799 1
gene 2 4 6 -4.49178 0 8 -4.49178 1
gene 1 6 5 4.1938 0 72 4.1938 1
genomeend 37

/* Organism #38 Fitness: 0 Error: 0 */
genomestart 38
node 1 1 1 3
node 2 1 1 1
node 3 1 1 1
node 4 1 1 1
node 5 2 0 2
node 6 2 0 2
gene 2 1 5 1.78291 0 1 1.78291 1
gene 2 2 5 3.5999 0 2 3.5999 1
gene 3 3 5 -2.12216 0 3 -2.12216 1
gene 1 4 5 -0.390992 0 4 -0.390992 1
gene 2 1 6 -0.0233976 0 5 -0.0233976 1
gene 1 2 6 -1.59403 0 6 -1.59403 1
gene 1 3 6 -0.912651 0 7 -0.912651 1
gene 2 4 6 -5.82126 0 8 -5.82126 1
gene 1 6 5 2.25903 0 72 2.25903 1
genomeend 38

/* Organism #39 Fitness: 0 Error: 0 */
genomestart 39
node 1 1 1 3
node 2 1 1 1
node 3 1 1 1
node 4 1 1 1
node 5 2 0 2
node 6 2 0 2
gene 2 1 5 1.78291 0 1 1.78291 1
gene 2 2 5 3.5999 0 2 3.5999 1
gene 3 3 5 -2.12216 0 3 -2.12216 1
gene 1 4 5 -0.390992 0 4 -0.390992 1
gene 2 1 6 -0.0233976 0 5 -0.0233976 1
gene 1 2 6 -1.59403 0 6 -1.59403 1
gene 1 3 6 -0.912651 0 7 -0.912651 1
gene 2 4 6 -5.82126 0 8 -5.82126 1
gene 1 6 5 2.25903 0 72 2.25903 1
genomeend 39

/* Organism #40 Fitness: 0 Error: 0 */
genomestart 40
node 1 1 1 3
node 2 1 1 1
node 3 1 1 1
node 4 1 1 1
node 5 2 0 2
node 6 2 0 2
gene 2 1 5 3.37746 0 1 3.37746 1
gene 2 2 5 1.77778 0 2 1.77778 1
gene 3 3 5 0.598275 0 3 0.598275 1
gene 1 4 5 1.15008 0 4 1.15008 1
gene 2 1 6 -0.827617 0 5 -0.827617 1
gene 1 2 6 -2.54357 0 6 -2.54357 1
gene 1 3 6 -1.82188 0 7 -1.82188 1
gene 2 4 6 -6.46164 0 8 -6.46164 1
gene 1 6 5 3.79376 0 72 3.79376 1
genomeend 40

/* Organism #41 Fitness: 0 Error: 0 */
genomestart 41
node 1 1 1 3
node 2 1 1 1
node 3 1 1 1
node 4 1 1 1
node 5 2 0 2
node 6 2 0 2
gene 2 1 5 1.78291 0 1 1.78291 1
gene 2 2 5 3.5999 0 2 3.5999 1
gene 3 3 5 -2.12216 0 3 -2.12216 1
gene 1 4 5 -0.390992 0 4 -0.390992 1
gene 2 1 6 -0.0233976 0 5 -0.0233976 1
gene 1 2 6 -1.59403 0 6 -1.59403 1
gene 1 3 6 -0.912651 0 7 -0.912651 1
gene 2 4 6 -5.82126 0 8 -5.82126 1
gene 1 6 5 2.25903 0 72 2.25903 1
genomeend 41

/* Organism #42 Fitness: 0 Error: 0 */
genomestart 42
node 1 1 1 3
node 2 1 1 1
node 3 1 1 1
node 4 1 1 1
node 5 2 0 2
node 6 2 0 2
gene 2 1 5 2.66475 0 1 2.66475 1
gene 2 2 5 2.40214 0 2 2.40214 1
gene 3 3 5 -3.3419 0 3 -3.3419 1
gene 1 4 5 -1.57201 0 4 -1.57201 1
gene 2 1 6 1.00983 0 5 1.00983 1
gene 1 2 6 0.448207 0 6 0.448207 1
gene 1 3 6 -0.806615 0 7 -0.806615 1
gene 2 4 6 -3.91813 0 8 -3.91813 1
gene 1 6 5 2.58982 0 72 2.58982 1
genomeend 42

/* Organism #43 Fitness: 0 Error: 0 */
genomestart 43
node 1 1 1 3
node 2 1 1 1
node 3 1 1 1
node 4 1 1 1
node 5 2 0 2
node 6 2 0 2
gene 2 1 5 1.98935 0 1 1.98935 1
gene 2 2 5 2.9211 0 2 2.9211 1
gene 3 3 5 -1.93481 0 3 -1.93481 1
gene 1 4 5 0.0241489 0 4 0.0241489 1
gene 2 1 6 2.23196 0 5 2.23196 1
gene 1 2 6 -0.0916185 0 6 -0.0916185 1
gene 1 3 6 -2.31051 0 7 -2.31051 1
gene 2 4 6 -4.59924 0 8 -4.59924 1
gene 1 6 5 2.72343 0 72 2.72343 1
genomeend 43

/* Organism #44 Fitness: 0 Error: 0 */
genomestart 44
node 1 1 1 3
node 2 1 1 1
node 3 1 1 1
node 4 1 1 1
node 5 2 0 2
node 6 2 0 2
gene 2 1 5 3.1701 0 1 3.1701 1
gene 2 2 5 1.65625 0 2 1.65625 1
gene 3 3 5 -0.158721 0 3 -0.158721 1
gene 1 4 5 0.36337 0 4 0.36337 1
gene 2 1 6 1.41729 0 5 1.41729 1
gene 1 2 6 -3.65092 0 6 -3.65092 1
gene 1 3 6 0.985499 0 7 0.985499 1
gene 2 4 6 -4.4306 0 8 -4.4306 1
gene 1 6 5 1.74122 0 72 1.74122 1
genomeend 44

/* Organism #45 Fitness: 0 Error: 0 */
genomestart 45
node 1 1 1 3
node 2 1 1 1
node 3 1 1 1
node 4 1 1 1
node 5 2 0 2
node 6 2 0 2
gene 2 1 5 1.78291 0 1 1.78291 1
gene 2 2 5 3.5999 0 2 3.5999 1
gene 3 3 5 -2.12216 0 3 -2.12216 1
gene 1 4 5 -0.390992 0 4 -0.390992 1
gene 2 1 6 -0.0233976 0 5 -0.0233976 1
gene 1 2 6 -1.59403 0 6 -1.59403 1
gene 1 3 6 -0.912651 0 7 -0.912651 1
gene 2 4 6 -5.82126 0 8 -5.82126 1
gene 1 6 5 2.25903 0 72 2.25903 1
genomeend 45

/* Organism #46 Fitness: 0 Error: 0 */
genomestart 46
node 1 1 1 3
node 2 1 1 1
node 3 1 1 1
node 4 1 1 1
node 5 2 0 2
node 6 2 0 2
gene 2 1 5 2.56031 0 1 2.56031 1
gene 2 2 5 2.36509 0 2 2.36509 1
gene 3 3 5 -3.96775 0 3 -3.96775 1
gene 1 4 5 -2.82993 0 4 -2.82993 1
gene 2 1 6 -0.979781 0 5 -0.979781 1
gene 1 2 6 0.443583 0 6 0.443583 1
gene 1 3 6 -1.02596 0 7 -1.02596 1
gene 2 4 6 -5.85698 0 8 -5.85698 1
gene 1 6 5 2.64996 0 72 2.64996 1
genomeend 46

/* Organism #47 Fitness: 0 Error: 0 */
genomestart 47
node 1 1 1 3
node 2 1 1 1
node 3 1 1 1
node 4 1 1 1
node 5 2 0 2
node 6 2 0 2
gene 2 1 5 3.63949 0 1 3.63949 1
gene 3 2 5 4.77028 0 2 4.77028 1
gene 3 3 5 -0.779057 0 3 -0.779057 1
gene 1 4 5 -0.390992 0 4 -0.390992 1
gene 2 1 6 0.909382 0 5 0.909382 1
gene 1 2 6 -3.22434 0 6 -3.22434 1
gene 1 3 6 -0.732465 0 7 -0.732465 1
gene 2 4 6 -5.82126 0 8 -5.82126 1
gene 1 6 5 0.648035 0 72 0.648035 1
genomeend 47

/* Organism #48 Fitness: 0 Error: 0 */
genomestart 48
node 1 1 1 3
node 2 1 1 1
node 3 1 1 1
node 4 1 1 1
node 5 2 0 2
node 6 2 0 2
gene 2 1 5 1.78291 0 1 1.78291 1
gene 2 2 5 3.5999 0 2 3.5999 1
gene 3 3 5 -2.12216 0 3 -2.12216 1
gene 1 4 5 -0.390992 0 4 -0.390992 1
gene 2 1 6 -0.0233976 0 5 -0.0233976 1
gene 1 2 6 -1.59403 0 6 -1.59403 1
gene 1 3 6 -0.912651 0 7 -0.912651 1
gene 2 4 6 -5.82126 0 8 -5.82126 1
gene 1 6 5 2.25903 0 72 2.25903 1
genomeend 48

/* Organism #49 Fitness: 0 Error: 0 */
genomestart 49
node 1 1 1 3
node 2 1 1 1
node 3 1 1 1
node 4 1 1 1
node 5 2 0 2
node 6 2 0 2
gene 2 1 5 1.78291 0 1 1.78291 1
gene 2 2 5 4.23083 0 2 4.23083 1
gene 3 3 5 -2.08397 0 3 -2.08397 1
gene 1 4 5 1.57371 0 4 1.57371 1
gene 2 1 6 1.36521 0 5 1.36521 1
gene 1 2 6 -1.96695 0 6 -1.96695 1
gene 1 3 6 -1.01398 0 7 -1.01398 1
gene 2 4 6 -7.19585 0 8 -7.19585 1
gene 1 6 5 2.86339 0 72 2.86339 1
genomeend 49

/* Organism #50 Fitness: 0 Error: 0 */
genomestart 50
node 1 1 1 3
node 2 1 1 1
node 3 1 1 1
node 4 1 1 1
node 5 2 0 2
node 6 2 0 2
gene 2 1 5 3.54705 0 1 3.54705 1
gene 2 2 5 2.15082 0 2 2.15082 1
gene 3 3 5 -1.12908 0 3 -1.12908 1
gene 1 4 5 -2.09281 0 4 -2.09281 1
gene 2 1 6 0.73563 0 5 0.73563 1
gene 1 2 6 -1.20665 0 6 -1.20665 1
gene 1 3 6 0.0155557 0 7 0.0155557 1
gene 2 4 6 -6.6967 0 8 -6.6967 1
gene 1 6 5 3.35316 0 72 3.35316 1
genomeend 50

/* Organism #51 Fitness: 0 Error: 0 */
genomestart 51
node 1 1 1 3
node 2 1 1 1
node 3 1 1 1
node 4 1 1 1
node 5 2 0 2
node 6 2 0 2
gene 2 1 5 1.78291 0 1 1.78291 1
gene 2 2 5 1.91774 0 2 1.91774 1
gene 3 3 5 -2.37456 0 3 -2.37456 1
gene 1 4 5 -0.863485 0 4 -0.863485 1
gene 2 1 6 -0.78678 0 5 -0.78678 1
gene 1 2 6 0.379763 0 6 0.379763 1
gene 1 3 6 -1.48145 0 7 -1.48145 1
gene 2 4 6 -5.49088 0 8 -5.49088 1
gene 1 6 5 -1.89747 0 72 -1.89747 1
genomeend 51

/* Organism #52 Fitness: 0 Error: 0 */
genomestart 52
node 1 1 1 3
node 2 1 1 1
node 3 1 1 1
node 4 1 1 1
node 5 2 0 2
node 6 2 0 2
gene 2 1 5 3.39761 0 1 3.39761 1
gene 2 2 5 4.62465 0 2 4.62465 1
gene 3 3 5 -2.12778 0 3 -2.12778 1
gene 1 4 5 0.874049 0 4 0.874049 1
gene 2 1 6 1.03749 0 5 1.03749 1
gene 1 2 6 -1.53527 0 6 -1.53527 1
gene 1 3 6 -1.13581 0 7 -1.13581 1
gene 2 4 6 -7.5046 0 8 -7.5046 1
gene 1 6 5 4.43101 0 72 4.43101 1
genomeend 52

/* Organism #53 Fitness: 0 Error: 0 */
genomestart 53
node 1 1 1 3
node 2 1 1 1
node 3 1 1 1
node 4 1 1 1
node 5 2 0 2
node 6 2 0 2
gene 2 1 5 1.78291 0 1 1.78291 1
gene 2 2 5 3.5999 0 2 3.5999 1
gene 3 3 5 -2.12216 0 3 -2.12216 1
gene 1 4 5 -0.390992 0 4 -0.390992 1
gene 2 1 6 -0.0233976 0 5 -0.0233976 1
gene 1 2 6 -1.59403 0 6 -1.59403 1
gene 1 3 6 -0.912651 0 7 -0.912651 1
gene 2 4 6 -5.82126 0 8 -5.82126 1
gene 1 6 5 2.25903 0 72 2.25903 1
genomeend 53

/* Organism #54 Fitness: 0 Error: 0 */
genomestart 54
node 1 1 1 3
node 2 1 1 1
node 3 1 1 1
node 4 1 1 1
node 5 2 0 2
node 6 2 0 2
gene 2 1 5 1.78291 0 1 1.78291 1
gene 2 2 5 3.5999 0 2 3.5999 1
gene 3 3 5 -2.12216 0 3 -2.12216 1
gene 1 4 5 -0.390992 0 4 -0.390992 1
gene 2 1 6 -0.0233976 0 5 -0.0233976 1
gene 1 2 6 -1.59403 0 6 -1.59403 1
gene 1 3 6 -0.912651 0 7 -0.912651 1
gene 2 4 6 -5.82126 0 8 -5.82126 1
gene 1 6 5 2.25903 0 72 2.25903 1
genomeend 54

/* Organism #55 Fitness: 0 Error: 0 */
genomestart 55
node 1 1 1 3
node 2 1 1 1
node 3 1 1 1
node 4 1 1 1
node 5 2 0 2
node 6 2 0 2
gene 2 1 5 1.87564 0 1 1.87564 1
gene 2 2 5 4.8944 0 2 4.8944 1
gene 3 3 5 -4.32913 0 3 -4.32913 1
gene 1 4 5 -2.12483 0 4 -2.12483 1
gene 2 1 6 0.879141 0 5 0.879141 1
gene 1 2 6 0.246018 0 6 0.246018 1
gene 1 3 6 -0.533078 0 7 -0.533078 1
gene 2 4 6 -3.74568 0 8 -3.74568 1
gene 1 6 5 0.336752 0 72 0.336752 1
genomeend 55

/* Organism #56 Fitness: 0 Error: 0 */
genomestart 56
node 1 1 1 3
node 2 1 1 1
node 3 1 1 1
node 4 1 1 1
node 5 2 0 2
node 6 2 0 2
gene 2 1 5 2.5447 0 1 2.5447 1
gene 2 2 5 5.71741 0 2 5.71741 1
gene 3 3 5 -2.39714 0 3 -2.39714 1
gene 1 4 5 0.946179 0 4 0.946179 1
gene 2 1 6 1.11163 0 5 1.11163 1
gene 1 2 6 -0.537209 0 6 -0.537209 1
gene 1 3 6 -3.31012 0 7 -3.31012 1
gene 2 4 6 -4.19802 0 8 -4.19802 1
gene 1 6 5 1.5672 0 72 1.5672 1
genomeend 56

/* Organism #57 Fitness: 0 Error: 0 */
genomestart 57
node 1 1 1 3
node 2 1 1 1
node 3 1 1 1
node 4 1 1 1
node 5 2 0 2
node 6 2 0 2
gene 2 1 5 0.993665 0 1 0.993665 1
gene 2 2 5 3.5444 0 2 3.5444 1
gene 3 3 5 -3.26151 0 3 -3.26151 1
gene 1 4 5 0.921877 0 4 0.921877 1
gene 2 1 6 -0.339066 0 5 -0.339066 1
gene 1 2 6 -3.78193 0 6 -3.78193 1
gene 1 3 6 -2.26575 0 7 -2.26575 1
gene 2 4 6 -5.19972 0 8 -5.19972 1
gene 1 6 5 2.01614 0 72 2.01614 1
genomeend 57

/* Organism #58 Fitness: 0 Error: 0 */
genomestart 58
node 1 1 1 3
node 2 1 1 1
node 3 1 1 1
node 4 1 1 1
node 5 2 0 2
node 6 2 0 2
gene 2 1 5 3.14061 0 1 3.14061 1
gene 2 2 5 4.95859 0 2 4.95859 1
gene 3 3 5 -3.5161 0 3 -3.5161 1
gene 1 4 5 1.63192 0 4 1.63192 1
gene 2 1 6 1.61907 0 5 1.61907 1
gene 1 2 6 -2.17165 0 6 -2.17165 1
gene 1 3 6 -0.786296 0 7 -0.786296 1
gene 2 4 6 -5.41554 0 8 -5.41554 1
gene 1 6 5 0.706892 0 72 0.706892 1
genomeend 58

/* Organism #59 Fitness: 0 Error: 0 */
genomestart 59
node 1 1 1 3
node 2 1 1 1
node 3 1 1 1
node 4 1 1 1
node 5 2 0 2
node 6 2 0 2
gene 2 1 5 0.0775841 0 1 0.0775841 1
gene 2 2 5 1.44952 0 2 1.44952 1
gene 3 3 5 -2.4615 0 3 -2.4615 1
gene 1 4 5 1.89298 0 4 1.89298 1
gene 2 1 6 1.94968 0 5 1.94968 1
gene 1 2 6 -2.77001 0 6 -2.77001 1
gene 1 3 6 -2.20162 0 7 -2.20162 1
gene 2 4 6 -4.61489 0 8 -4.61489 1
gene 1 6 5 1.18318 0 72 1.18318 1
genomeend 59

/* Organism #60 Fitness: 0 Error: 0 */
genomestart 60
node 1 1 1 3
node 2 1 1 1
node 3 1 1 1
node 4 1 1 1
node 5 2 0 2
node 6 2 0 2
gene 2 1 5 1.78291 0 1 1.78291 1
gene 2 2 5 3.5999 0 2 3.5999 1
gene 3 3 5 -2.12216 0 3 -2.12216 1
gene 1 4 5 -0.390992 0 4 -0.390992 1
gene 2 1 6 -0.0233976 0 5 -0.0233976 1
gene 1 2 6 -1.59403 0 6 -1.59403 1
gene 1 3 6 -0.912651 0 7 -0.912651 1
gene 2 4 6 -5.82126 0 8 -5.82126 1
gene 1 6 5 2.25903 0 72 2.25903 1
genomeend 60

/* Organism #61 Fitness: 0 Error: 0 */
genomestart 61
node 1 1 1 3
node 2 1 1 1
node 3 1 1 1
node 4 1 1 1
node 5 2 0 2
node 6 2 0 2
gene 2 1 5 -0.528303 0 1 -0.528303 1
gene 2 2 5 5.88056 0 2 5.88056 1
gene 3 3 5 -2.37918 0 3 -2.37918 1
gene 1 4 5 -0.227593 0 4 -0.227593 1
gene 2 1 6 -2.49311 0 5 -2.49311 1
gene 1 2 6 -2.17928 0 6 -2.17928 1
gene 1 3 6 -1.11521 0 7 -1.11521 1
gene 2 4 6 -7.20878 0 8 -7.20878 1
gene 1 6 5 1.03392 0 72 1.03392 1
genomeend 61

/* Organism #62 Fitness: 0 Error: 0 */
genomestart 62
node 1 1 1 3
node 2 1 1 1
node 3 1 1 1
node 4 1 1 1
node 5 2 0 2
node 6 2 0 2
gene 2 1 5 1.78291 0 1 1.78291 1
gene 2 2 5 3.5999 0 2 3.5999 1
gene 3 3 5 -2.12216 0 3 -2.12216 1
gene 1 4 5 -0.390992 0 4 -0.390992 1
gene 2 1 6 -0.0233976 0 5 -0.0233976 1
gene 1 2 6 -1.59403 0 6 -1.59403 1
gene 1 3 6 -0.912651 0 7 -0.912651 1
gene 2 4 6 -5.82126 0 8 -5.82126 1
gene 1 6 5 2.25903 0 72 2.25903 1
genomeend 62

/* Organism #63 Fitness: 0 Error: 0 */
genomestart 63
node 1 1 1 3
node 2 1 1 1
node 3 1 1 1
node 4 1 1 1
node 5 2 0 2
node 6 1 0 2
gene 2 1 5 0.0958358 0 1 0.0958358 1
gene 2 2 5 5.56651 0 2 5.56651 1
gene 3 3 5 -1.91664 0 3 -1.91664 1
gene 1 4 5 -2.8266 0 4 -2.8266 1
gene 2 1 6 -1.63063 0 5 -1.63063 1
gene 1 2 6 -1.7804 0 6 -1.7804 1
gene 1 3 6 -0.176062 0 7 -0.176062 1
gene 2 4 6 -6.09709 0 8 -6.09709 1
gene 1 6 5 3.01832 0 72 3.01832 1
genomeend 63

/* Organism #64 Fitness: 0 Error: 0 */
genomestart 64
node 1 1 1 3
node 2 1 1 1
node 3 1 1 1
node 4 1 1 1
node 5 2 0 2
node 6 2 0 2
gene 2 1 5 0.50204 0 1 0.50204 1
gene 2 2 5 4.43304 0 2 4.43304 1
gene 3 3 5 -3.24388 0 3 -3.24388 1
gene 1 4 5 1.76385 0 4 1.76385 1
gene 2 1 6 -1.80629 0 5 -1.80629 1
gene 1 2 6 0.33039 0 6 0.33039 1
gene 1 3 6 0.3656 0 7 0.3656 1
gene 2 4 6 -5.59106 0 8 -5.59106 1
gene 1 6 5 2.24351 0 72 2.24351 1
genomeend 64

/* Organism #65 Fitness: 0 Error: 0 */
genomestart 65
node 1 1 1 3
node 2 1 1 1
node 3 1 1 1
node 4 1 1 1
node 5 2 0 2
node 6 2 0 2
gene 2 1 5 2.06536 0 1 2.06536 1
gene 2 2 5 5.97746 0 2 5.97746 1
gene 3 3 5 -1.94836 0 3 -1.94836 1
gene 1 4 5 1.20379 0 4 1.20379 1
gene 2 1 6 -0.526257 0 5 -0.526257 1
gene 1 2 6 0.467612 0 6 0.467612 1
gene 2 3 6 0.920665 0 7 0.920665 1
gene 2 4 6 -5.82126 0 8 -5.82126 1
gene 1 6 5 -2.14463 0 72 -2.14463 1
genomeend 65

/* Organism #66 Fitness: 0 Error: 0 */
genomestart 66
node 1 1 1 3
node 2 1 1 1
node 3 1 1 1
node 4 1 1 1
node 5 2 0 2
node 6 2 0 2
gene 2 1 5 1.78291 0 1 1.78291 1
gene 2 2 5 3.5999 0 2 3.5999 1
gene 3 3 5 -2.12216 0 3 -2.12216 1
gene 1 4 5 -0.390992 0 4 -0.390992 1
gene 2 1 6 -0.0233976 0 5 -0.0233976 1
gene 1 2 6 -1.59403 0 6 -1.59403 1
gene 1 3 6 -0.912651 0 7 -0.912651 1
gene 2 4 6 -5.82126 0 8 -5.82126 1
gene 1 6 5 2.25903 0 72 2.25903 1
genomeend 66

/* Organism #67 Fitness: 0 Error: 0 */
genomestart 67
node 1 1 1 3
node 2 1 1 1
node 3 1 1 1
node 4 1 1 1
node 5 2 0 2
node 6 2 0 2
gene 2 1 5 1.78291 0 1 1.78291 1
gene 2 2 5 3.5999 0 2 3.5999 1
gene 3 3 5 -2.12216 0 3 -2.12216 1
gene 1 4 5 -0.390992 0 4 -0.390992 1
gene 2 1 6 -0.0233976 0 5 -0.0233976 1
gene 1 2 6 -1.59403 0 6 -1.59403 1
gene 1 3 6 -0.912651 0 7 -0.912651 1
gene 2 4 6 -5.82126 0 8 -5.82126 1
gene 1 6 5 2.25903 0 72 2.25903 1
genomeend 67

/* Organism #68 Fitness: 0 Error: 0 */
genomestart 68
node 1 1 1 3
node 2 1 1 1
node 3 1 1 1
node 4 1 1 1
node 5 2 0 2
node 6 2 0 2
gene 2 1 5 2.77926 0 1 2.77926 1
gene 2 2 5 0.205503 0 2 0.205503 1
gene 3 3 5 0.456801 0 3 0.456801 1
gene 1 4 5 -1.5494 0 4 -1.5494 1
gene 2 1 6 0.793294 0 5 0.793294 1
gene 1 2 6 -3.14187 0 6 -3.14187 1
gene 1 3 6 -1.2615 0 7 -1.2615 1
gene 2 4 6 -3.53137 0 8 -3.53137 1
gene 1 6 5 2.37617 0 72 2.37617 1
genomeend 68

/* Organism #69 Fitness: 0 Error: 0 */
genomestart 69
node 1 1 1 3
node 2 1 1 1
node 3 1 1 1
node 4 1 1 1
node 5 2 0 2
node 6 2 0 2
gene 2 1 5 0.482529 0 1 0.482529 1
gene 2 2 5 3.7947 0 2 3.7947 1
gene 3 3 5 -3.55818 0 3 -3.55818 1
gene 1 4 5 -0.134865 0 4 -0.134865 1
gene 2 1 6 -2.30991 0 5 -2.30991 1
gene 1 2 6 -2.16872 0 6 -2.16872 1
gene 1 3 6 -0.315984 0 7 -0.315984 1
gene 2 4 6 -8 0 8 -8 1
gene 1 6 5 1.31117 0 72 1.31117 1
genomeend 69

/* Organism #70 Fitness: 0 Error: 0 */
genomestart 70
node 1 1 1 3
node 2 1 1 1
node 3 1 1 1
node 4 1 1 1
node 5 2 0 2
node 6 2 0 2
gene 2 1 5 1.78291 0 1 1.78291 1
gene 2 2 5 3.5999 0 2 3.5999 1
gene 3 3 5 -2.12216 0 3 -2.12216 1
gene 1 4 5 -0.390992 0 4 -0.390992 1
gene 2 1 6 -0.0233976 0 5 -0.0233976 1
gene 1 2 6 -1.59403 0 6 -1.59403 1
gene 1 3 6 -0.912651 0 7 -0.912651 1
gene 2 4 6 -5.82126 0 8 -5.82126 1
gene 1 6 5 2.25903 0 72 2.25903 1
genomeend 70

/* Organism #71 Fitness: 0 Error: 0 */
genomestart 71
node 1 1 1 3
node 2 1 1 1
node 3 1 1 1
node 4 1 1 1
node 5 2 0 2
node 6 2 0 2
gene 2 1 5 1.56567 0 1 1.56567 1
gene 2 2 5 4.56008 0 2 4.56008 1
gene 3 3 5 -3.18211 0 3 -3.18211 1
gene 1 4 5 -2.46317 0 4 -2.46317 1
gene 2 1 6 -0.581448 0 5 -0.581448 1
gene 1 2 6 0.497266 0 6 0.497266 1
gene 1 3 6 1.30234 0 7 1.30234 1
gene 2 4 6 -4.70371 0 8 -4.70371 1
gene 1 6 5 3.55205 0 72 3.55205 1
genomeend 71

/* Organism #72 Fitness: 0 Error: 0 */
genomestart 72
node 1 1 1 3
node 2 1 1 1
node 3 1 1 1
node 4 1 1 1
node 5 2 0 2
node 6 2 0 2
gene 2 1 5 0.493716 0 1 0.493716 1
gene 2 2 5 5.70793 0 2 5.70793 1
gene 3 3 5 -1.59274 0 3 -1.59274 1
gene 1 4 5 1.11954 0 4 1.11954 1
gene 2 1 6 1.176 0 5 1.176 1
gene 1 2 6 -1.77963 0 6 -1.77963 1
gene 1 3 6 -2.50632 0 7 -2.50632 1
gene 2 4 6 -4.46346 0 8 -4.46346 1
gene 1 6 5 -0.214955 0 72 -0.214955 1
genomeend 72

/* Organism #73 Fitness: 0 Error: 0 */
genomestart 73
node 1 2 1 3
node 2 1 1 1
node 3 1 1 1
node 4 1 1 1
node 5 2 0 2
node 6 2 0 2
gene 2 1 5 0.667492 0 1 0.667492 1
gene 2 2 5 3.24203 0 2 3.24203 1
gene 3 3 5 -0.622163 0 3 -0.622163 1
gene 1 4 5 -2.08515 0 4 -2.08515 1
gene 2 1 6 0.861941 0 5 0.861941 1
gene 1 2 6 -3.36361 0 6 -3.36361 1
gene 1 3 6 0.630383 0 7 0.630383 1
gene 2 4 6 -5.60695 0 8 -5.60695 1
gene 1 6 5 3.72748 0 72 3.72748 1
genomeend 73

/* Organism #74 Fitness: 0 Error: 0 */
genomestart 74
node 1 1 1 3
node 2 1 1 1
node 3 1 1 1
node 4 1 1 1
node 5 2 0 2
node 6 2 0 2
gene 2 1 5 2.24117 0 1 2.24117 1
gene 2 2 5 3.56148 0 2 3.56148 1
gene 3 3 5 -0.486097 0 3 -0.486097 1
gene 1 4 5 1.31743 0 4 1.31743 1
gene 2 1 6 -0.958147 0 5 -0.958147 1
gene 1 2 6 -0.264706 0 6 -0.264706 1
gene 1 3 6 1.26791 0 7 1.26791 1
gene 2 4 6 -3.48225 0 8 -3.48225 1
gene 1 6 5 4.5997 0 72 4.5997 1
genomeend 74

/* Organism #75 Fitness: 0 Error: 0 */
genomestart 75
node 1 1 1 3
node 2 1 1 1
node 3 1 1 1
node 4 1 1 1
node 5 2 0 2
node 6 2 0 2
gene 2 1 5 2.32797 0 1 2.32797 1
gene 2 2 5 1.22111 0 2 1.22111 1
gene 3 3 5 -4.07959 0 3 -4.07959 1
gene 1 4 5 -0.326683 0 4 -0.326683 1
gene 2 1 6 2.37327 0 5 2.37327 1
gene 1 2 6 -2.02391 0 6 -2.02391 1
gene 1 3 6 -0.389868 0 7 -0.389868 1
gene 2 4 6 -5.13969 0 8 -5.13969 1
gene 1 6 5 0.720159 0 72 0.720159 1
genomeend 75

/* Organism #76 Fitness: 0 Error: 0 */
genomestart 76
node 1 1 1 3
node 2 1 1 1
node 3 1 1 1
node 4 1 1 1
node 5 2 0 2
node 6 2 0 2
gene 2 1 5 1.78291 0 1 1.78291 1
gene 2 2 5 3.5999 0 2 3.5999 1
gene 3 3 5 -2.12216 0 3 -2.12216 1
gene 1 4 5 -0.390992 0 4 -0.390992 1
gene 2 1 6 -0.0233976 0 5 -0.0233976 1
gene 1 2 6 -1.59403 0 6 -1.59403 1
gene 1 3 6 -0.912651 0 7 -0.912651 1
gene 2 4 6 -5.82126 0 8 -5.82126 1
gene 1 6 5 2.25903 0 72 2.25903 1
genomeend 76

/* Organism #77 Fitness: 0 Error: 0 */
genomestart 77
node 1 1 1 3
node 2 1 1 1
node 3 1 1 1
node 4 1 1 1
node 5 2 0 2
node 6 2 0 2
gene 2 1 5 -0.250848 0 1 -0.250848 1
gene 2 2 5 5.46917 0 2 5.46917 1
gene 3 3 5 -2.65021 0 3 -2.65021 1
gene 1 4 5 -0.886569 0 4 -0.886569 1
gene 2 1 6 0.935323 0 5 0.935323 1
gene 1 2 6 0.2125 0 6 0.2125 1
gene 1 3 6 -1.53401 0 7 -1.53401 1
gene 2 4 6 -6.6914 0 8 -6.6914 1
gene 1 6 5 4.62348 0 72 4.62348 1
genomeend 77

/* Organism #78 Fitness: 0 Error: 0 */
genomestart 78
node 1 1 1 3
node 2 1 1 1
node 3 1 1 1
node 4 1 1 1
node 5 2 0 2
node 6 2 0 2
gene 2 1 5 1.78291 0 1 1.78291 1
gene 2 2 5 3.5999 0 2 3.5999 1
gene 3 3 5 -2.12216 0 3 -2.12216 1
gene 1 4 5 -0.390992 0 4 -0.390992 1
gene 2 1 6 -0.0233976 0 5 -0.0233976 1
gene 1 2 6 -1.59403 0 6 -1.59403 1
gene 1 3 6 -0.912651 0 7 -0.912651 1
gene 2 4 6 -5.82126 0 8 -5.82126 1
gene 1 6 5 2.25903 0 72 2.25903 1
genomeend 78

/* Organism #79 Fitness: 0 Error: 0 */
genomestart 79
node 1 1 1 3
node 2 1 1 1
node 3 1 1 1
node 4 1 1 1
node 5 2 0 2
node 6 2 0 2
gene 2 1 5 2.84343 0 1 2.84343 1
gene 2 2 5 5.91964 0 2 5.91964 1
gene 3 3 5 -1.88721 0 3 -1.88721 1
gene 1 4 5 -2.446 0 4 -2.446 1
gene 2 1 6 -1.68666 0 5 -1.68666 1
gene 1 2 6 -0.53253 0 6 -0.53253 1
gene 1 3 6 -1.96732 0 7 -1.96732 1
gene 2 4 6 -7.23687 0 8 -7.23687 1
gene 1 6 5 3.78265 0 72 3.78265 1
genomeend 79

/* Organism #80 Fitness: 0 Error: 0 */
genomestart 80
node 1 1 1 3
node 2 1 1 1
node 3 1 1 1
node 4 1 1 1
node 5 2 0 2
node 6 2 0 2
gene 2 1 5 2.86698 0 1 2.86698 1
gene 2 2 5 1.72002 0 2 1.72002 1
gene 3 3 5 -3.07675 0 3 -3.07675 1
gene 3 4 5 -0.148739 0 4 -0.148739 1
gene 2 1 6 2.15587 0 5 2.15587 1
gene 1 2 6 -2.08551 0 6 -2.08551 1
gene 1 3 6 0.682748 0 7 0.682748 1
gene 2 4 6 -5.00943 0 8 -5.00943 1
gene 1 6 5 4.16337 0 72 4.16337 1
genomeend 80

/* Organism #81 Fitness: 0 Error: 0 */
genomestart 81
node 1 1 1 3
node 2 1 1 1
node 3 1 1 1
node 4 1 1 1
node 5 2 0 2
node 6 2 0 2
gene 2 1 5 4.04293 0 1 4.04293 1
gene 2 2 5 4.94617 0 2 4.94617 1
gene 3 3 5 -2.34129 0 3 -2.34129 1
gene 1 4 5 -1.04907 0 4 -1.04907 1
gene 2 1 6 -0.784451 0 5 -0.784451 1
gene 1 2 6 -1.03975 0 6 -1.03975 1
gene 1 3 6 0.134731 0 7 0.134731 1
gene 2 4 6 -6.00031 0 8 -6.00031 1
gene 1 6 5 1.356 0 72 1.356 1
genomeend 81

/* Organism #82 Fitness: 0 Error: 0 */
genomestart 82
node 1 1 1 3
node 2 1 1 1
node 3 1 1 1
node 4 1 1 1
node 5 2 0 2
node 6 2 0 2
gene 2 1 5 2.05685 0 1 2.05685 1
gene 2 2 5 3.8232 0 2 3.8232 1
gene 3 3 5 -2.35647 0 3 -2.35647 1
gene 1 4 5 0.307968 0 4 0.307968 1
gene 2 1 6 1.467 0 5 1.467 1
gene 1 2 6 -3.57715 0 6 -3.57715 1
gene 1 3 6 -1.1492 0 7 -1.1492 1
gene 2 4 6 -6.32023 0 8 -6.32023 1
gene 3 6 5 3.01298 0 72 3.01298 1
genomeend 82

/* Organism #83 Fitness: 0 Error: 0 */
genomestart 83
node 1 1 1 3
node 2 1 1 1
node 3 1 1 1
node 4 1 1 1
node 5 2 0 2
node 6 2 0 2
gene 2 1 5 1.78291 0 1 1.78291 1
gene 2 2 5 3.5999 0 2 3.5999 1
gene 3 3 5 -2.12216 0 3 -2.12216 1
gene 1 4 5 -0.390992 0 4 -0.390992 1
gene 2 1 6 -0.0233976 0 5 -0.0233976 1
gene 1 2 6 -1.59403 0 6 -1.59403 1
gene 1 3 6 -0.912651 0 7 -0.912651 1
gene 2 4 6 -5.82126 0 8 -5.82126 1
gene 1 6 5 2.25903 0 72 2.25903 1
genomeend 83

/* Species #962 : (Size 1) (AF 0) (Age 2)  */


/* Organism #84 Fitness: 0 Error: 0 */
genomestart 84
node 1 1 1 3
node 2 1 1 1
node 3 1 1 1
node 4 1 1 1
node 5 2 0 2
node 6 2 0 2
gene 2 1 5 3.09873 0 1 3.09873 1
gene 2 2 5 1.63665 0 2 1.63665 1
gene 3 3 5 -2.62083 0 3 -2.62083 1
gene 1 4 5 -2.57241 0 4 -2.57241 1
gene 2 1 6 0.858186 0 5 0.858186 1
gene 1 2 6 -4.05553 0 6 -4.05553 1
gene 1 3 6 -3.18832 0 7 -3.18832 1
gene 2 4 6 -4.15296 0 8 -4.15296 1
gene 1 6 5 0.477799 0 72 0.477799 1
genomeend 84

/* Species #964 : (Size 1) (AF 0) (Age 2)  */


/* Organism #85 Fitness: 0 Error: 0 */
genomestart 85
node 1 1 1 3
node 2 1 1 1
node 3 1 1 1
node 4 1 1 1
node 5 2 0 2
node 6 2 0 2
gene 2 1 5 0.333506 0 1 0.333506 1
gene 2 2 5 4.63053 0 2 4.63053 1
gene 3 3 5 0.562002 0 3 0.562002 1
gene 3 4 5 -0.390992 0 4 -0.390992 1
gene 2 1 6 1.95305 0 5 1.95305 1
gene 1 2 6 -2.45219 0 6 -2.45219 1
gene 1 3 6 -1.09845 0 7 -1.09845 1
gene 2 4 6 1.2008 0 8 1.2008 1
gene 1 6 5 1.46435 0 72 1.46435 1
genomeend 85

/* Species #971 : (Size 4) (AF 0) (Age 1)  */


/* Organism #86 Fitness: 0 Error: 0 */
genomestart 86
node 1 1 1 3
node 2 1 1 1
node 3 1 1 1
node 4 1 1 1
node 5 2 0 2
node 6 2 0 2
gene 2 1 5 0.567227 0 1 0.567227 1
gene 2 2 5 5.78297 0 2 5.78297 1
gene 3 3 5 0.00884998 0 3 0.00884998 1
gene 1 4 5 -2.58992 0 4 -2.58992 1
gene 2 1 6 1.16269 0 5 1.16269 1
gene 1 2 6 0.390085 0 6 0.390085 1
gene 1 3 6 -1.46034 0 7 -1.46034 1
gene 2 4 6 -3.47768 0 8 -3.47768 1
gene 1 6 5 1.90352 0 72 1.90352 1
genomeend 86

/* Organism #87 Fitness: 0 Error: 0 */
genomestart 87
node 1 1 1 3
node 2 1 1 1
node 3 1 1 1
node 4 1 1 1
node 5 2 0 2
node 6 2 0 2
gene 2 1 5 1.78749 0 1 1.78749 1
gene 2 2 5 6.03097 0 2 6.03097 1
gene 3 3 5 -0.235786 0 3 -0.235786 1
gene 1 4 5 -2.42045 0 4 -2.42045 1
gene 2 1 6 2.19383 0 5 2.19383 1
gene 1 2 6 -2.34439 0 6 -2.34439 1
gene 1 3 6 -3.12257 0 7 -3.12257 1
gene 2 4 6 -6.69993 0 8 -6.69993 1
gene 1 6 5 0.308951 0 72 0.308951 1
genomeend 87

/* Organism #88 Fitness: 0 Error: 0 */
genomestart 88
node 1 1 1 3
node 2 1 1 1
node 3 1 1 1
node 4 1 1 1
node 5 2 0 2
node 6 2 0 2
gene 2 1 5 1.78291 0 1 1.78291 1
gene 2 2 5 5.10717 0 2 5.10717 1
gene 3 3 5 0.158741 0 3 0.158741 1
gene 1 4 5 -0.390992 0 4 -0.390992 1
gene 2 1 6 1.15483 0 5 1.15483 1
gene 1 2 6 -0.626944 0 6 -0.626944 1
gene 1 3 6 -0.912651 0 7 -0.912651 1
gene 2 4 6 1.23912 0 8 1.23912 1
gene 1 6 5 0.846892 0 72 0.846892 1
genomeend 88

/* Organism #89 Fitness: 0 Error: 0 */
genomestart 89
node 1 1 1 3
node 2 1 1 1
node 3 1 1 1
node 4 1 1 1
node 5 2 0 2
node 6 2 0 2
gene 2 1 5 -0.0099769 0 1 -0.0099769 1
gene 2 2 5 4.96131 0 2 4.96131 1
gene 3 3 5 -2.18612 0 3 -2.18612 1
gene 1 4 5 -2.84144 0 4 -2.84144 1
gene 2 1 6 2.26806 0 5 2.26806 1
gene 1 2 6 -0.109869 0 6 -0.109869 1
gene 1 3 6 -0.16192 0 7 -0.16192 1
gene 2 4 6 -3.34992 0 8 -3.34992 1
gene 1 6 5 1.09904 0 72 1.09904 1
genomeend 89

/* Species #972 : (Size 2) (AF 0) (Age 1)  */


/* Organism #90 Fitness: 0 Error: 0 */
genomestart 90
node 1 1 1 3
node 2 1 1 1
node 3 1 1 1
node 4 1 1 1
node 5 2 0 2
node 6 2 0 2
gene 2 1 5 0.587304 0 1 0.587304 1
gene 2 2 5 0.252732 0 2 0.252732 1
gene 3 3 5 -1.0961 0 3 -1.0961 1
gene 1 4 5 -0.0349693 0 4 -0.0349693 1
gene 2 1 6 0.898354 0 5 0.898354 1
gene 1 2 6 -0.724632 0 6 -0.724632 1
gene 1 3 6 0.362609 0 7 0.362609 1
gene 2 4 6 -8 0 8 -8 1
gene 1 6 5 -2.26814 0 72 -2.26814 1
genomeend 90

/* Organism #91 Fitness: 0 Error: 0 */
genomestart 91
node 1 1 1 3
node 2 1 1 1
node 3 1 1 1
node 4 1 1 1
node 5 2 0 2
node 6 2 0 2
gene 2 1 5 3.97322 0 1 3.97322 1
gene 2 2 5 -2.02228 0 2 -2.02228 1
gene 3 3 5 -0.259994 0 3 -0.259994 1
gene 1 4 5 -0.390992 0 4 -0.390992 1
gene 2 1 6 -0.106965 0 5 -0.106965 1
gene 1 2 6 -1.59403 0 6 -1.59403 1
gene 1 3 6 0.95307 0 7 0.95307 1
gene 2 4 6 -7.36514 0 8 -7.36514 1
gene 1 6 5 1.19566 0 72 1.19566 1
genomeend 91

/* Species #973 : (Size 1) (AF 0) (Age 1)  */


/* Organism #92 Fitness: 0 Error: 0 */
genomestart 92
node 1 2 1 3
node 2 1 1 1
node 3 1 1 1
node 4 1 1 1
node 5 2 0 2
node 6 2 0 2
gene 2 1 5 -0.699185 0 1 -0.699185 1
gene 2 2 5 5.75608 0 2 5.75608 1
gene 3 3 5 -3.25172 0 3 -3.25172 1
gene 1 4 5 1.92003 0 4 1.92003 1
gene 2 1 6 -0.56247 0 5 -0.56247 1
gene 1 2 6 -0.896784 0 6 -0.896784 1
gene 1 3 6 1.57561 0 7 1.57561 1
gene 2 4 6 -5.82126 0 8 -5.82126 1
gene 1 6 5 4.54925 0 72 4.54925 1
genomeend 92

/* Species #974 : (Size 2) (AF 0) (Age 1)  */


/* Organism #93 Fitness: 0 Error: 0 */
genomestart 93
node 1 1 1 3
node 2 1 1 1
node 3 1 1 1
node 4 1 1 1
node 5 2 0 2
node 6 2 0 2
gene 2 1 5 4.156 0 1 4.156 1
gene 2 2 5 1.38753 0 2 1.38753 1
gene 3 3 5 0.0566053 0 3 0.0566053 1
gene 2 4 5 -0.0673213 0 4 -0.0673213 1
gene 2 1 6 1.72626 0 5 1.72626 1
gene 1 2 6 -2.55101 0 6 -2.55101 1
gene 1 3 6 1.00093 0 7 1.00093 1
gene 2 4 6 -5.34445 0 8 -5.34445 1
gene 1 6 5 0.56854 0 72 0.56854 1
genomeend 93

/* Organism #94 Fitness: 0 Error: 0 */
genomestart 94
node 1 1 1 3
node 2 1 1 1
node 3 1 1 1
node 4 1 1 1
node 5 2 0 2
node 6 2 0 2
gene 2 1 5 3.02068 0 1 3.02068 1
gene 2 2 5 3.98647 0 2 3.98647 1
gene 3 3 5 -0.808742 0 3 -0.808742 1
gene 1 4 5 1.45972 0 4 1.45972 1
gene 2 1 6 -0.564838 0 5 -0.564838 1
gene 3 2 6 -3.48544 0 6 -3.48544 1
gene 1 3 6 0.680932 0 7 0.680932 1
gene 2 4 6 -2.33494 0 8 -2.33494 1
gene 1 6 5 0.978757 0 72 0.978757 1
genomeend 94

/* Species #975 : (Size 1) (AF 0) (Age 1)  */


/* Organism #95 Fitness: 0 Error: 0 */
genomestart 95
node 1 1 1 3
node 2 1 1 1
node 3 1 1 1
node 4 1 1 1
node 5 2 0 2
node 6 2 0 2
gene 2 1 5 1.78291 0 1 1.78291 1
gene 2 2 5 5.70894 0 2 5.70894 1
gene 3 3 5 -4.30203 0 3 -4.30203 1
gene 1 4 5 -1.77933 0 4 -1.77933 1
gene 2 1 6 -0.0233976 0 5 -0.0233976 1
gene 1 2 6 -1.35785 0 6 -1.35785 1
gene 1 3 6 -3.10053 0 7 -3.10053 1
gene 2 4 6 -3.52925 0 8 -3.52925 1
gene 1 6 5 -0.872897 0 72 -0.872897 1
genomeend 95

/* Species #976 : (Size 1) (AF 0) (Age 1)  */


/* Organism #96 Fitness: 0 Error: 0 */
genomestart 96
node 1 1 1 3
node 2 1 1 1
node 3 1 1 1
node 4 1 1 1
node 5 2 0 2
node 6 2 0 2
gene 2 1 5 0.407879 0 1 0.407879 1
gene 2 2 5 -2.35116 0 2 -2.35116 1
gene 3 3 5 -2.88237 0 3 -2.88237 1
gene 1 4 5 0.129484 0 4 0.129484 1
gene 2 1 6 1.98756 0 5 1.98756 1
gene 1 2 6 -1.59403 0 6 -1.59403 1
gene 1 3 6 -2.54548 0 7 -2.54548 1
gene 2 4 6 -0.849448 0 8 -0.849448 1
gene 1 6 5 4.48651 0 72 4.48651 1
genomeend 96

/* Species #977 : (Size 1) (AF 0) (Age 1)  */


/* Organism #97 Fitness: 0 Error: 0 */
genomestart 97
node 1 1 1 3
node 2 1 1 1
node 3 1 1 1
node 4 1 1 1
node 5 2 0 2
node 6 2 0 2
gene 2 1 5 1.1079 0 1 1.1079 1
gene 2 2 5 -0.89678 0 2 -0.89678 1
gene 3 3 5 -1.07414 0 3 -1.07414 1
gene 1 4 5 -0.0562364 0 4 -0.0562364 1
gene 2 1 6 1.85338 0 5 1.85338 1
gene 1 2 6 -0.757251 0 6 -0.757251 1
gene 1 3 6 -0.928631 0 7 -0.928631 1
gene 2 4 6 1.55218 0 8 1.55218 1
gene 1 6 5 0.0323318 0 72 0.0323318 1
genomeend 97

/* Species #978 : (Size 1) (AF 0) (Age 1)  */


/* Organism #98 Fitness: 0 Error: 0 */
genomestart 98
node 1 1 1 3
node 2 1 1 1
node 3 1 1 1
node 4 1 1 1
node 5 2 0 2
node 6 2 0 2
gene 2 1 5 2.73419 0 1 2.73419 1
gene 2 2 5 -1.75478 0 2 -1.75478 1
gene 3 3 5 -3.98992 0 3 -3.98992 1
gene 1 4 5 -0.931872 0 4 -0.931872 1
gene 2 1 6 0.552362 0 5 0.552362 1
gene 1 2 6 -0.0337622 0 6 -0.0337622 1
gene 1 3 6 0.64036 0 7 0.64036 1
gene 2 4 6 -8 0 8 -8 1
gene 1 6 5 3.7324 0 72 3.7324 1
genomeend 98

/* Species #979 : (Size 1) (AF 0) (Age 1)  */


/* Organism #99 Fitness: 0 Error: 0 */
genomestart 99
node 1 1 1 3
node 2 1 1 1
node 3 1 1 1
node 4 1 1 1
node 5 2 0 2
node 6 2 0 2
gene 2 1 5 0.541163 0 1 0.541163 1
gene 2 2 5 4.18998 0 2 4.18998 1
gene 3 3 5 -3.71805 0 3 -3.71805 1
gene 1 4 5 -0.410138 0 4 -0.410138 1
gene 2 1 6 -0.0233976 0 5 -0.0233976 1
gene 1 2 6 -3.24875 0 6 -3.24875 1
gene 1 3 6 2.2176 0 7 2.2176 1
gene 2 4 6 1.16642 0 8 1.16642 1
gene 1 6 5 1.12512 0 72 1.12512 1
genomeend 99
