
/* Species #433 : (Size 2) (AF 16.5) (Age 17)  */


/* Organism #0 Fitness: 0 Error: 0 */
genomestart 0
trait 1 0 0.886499 0 0 0 0 0 0 
trait 2 0.2 0 0 0 0 0 0 0 
trait 3 0.3 0 0 0 0 0 0 0 
node 1 3 1 3
node 2 2 1 1
node 3 1 1 1
node 4 2 1 1
node 5 3 0 2
node 6 3 0 2
gene 1 1 5 0.0420077 0 1 0.0420077 1
gene 3 2 5 -2.27088 0 2 -2.27088 1
gene 3 3 5 7.42904 0 3 7.42904 1
gene 3 4 5 1.72282 0 4 1.72282 1
gene 2 1 6 -7.40322 0 5 -7.40322 1
gene 3 2 6 -0.606674 0 6 -0.606674 1
gene 1 3 6 -1.66272 0 7 -1.66272 1
gene 1 4 6 -8 0 8 -8 1
gene 1 5 6 -2.71626 0 20 -2.71626 1
gene 1 6 5 0.146758 1 24 0.146758 1
genomeend 0

/* Organism #1 Fitness: 33 Error: 0 */
genomestart 1
trait 1 0 0.886499 0 0 0 0 0 0 
trait 2 0.2 0 0 0 0 0 0 0 
trait 3 0.3 0 0 0 0 0 0 0 
node 1 3 1 3
node 2 2 1 1
node 3 1 1 1
node 4 2 1 1
node 5 3 0 2
node 6 3 0 2
gene 1 1 5 -2.28689 0 1 -2.28689 1
gene 3 2 5 -2.90265 0 2 -2.90265 1
gene 3 3 5 7.19121 0 3 7.19121 1
gene 3 4 5 -0.740831 0 4 -0.740831 1
gene 2 1 6 -6.95232 0 5 -6.95232 1
gene 3 2 6 -0.568841 0 6 -0.568841 1
gene 1 3 6 0.350792 0 7 0.350792 1
gene 1 4 6 -8 0 8 -8 1
gene 1 5 6 -4.28277 0 20 -4.28277 1
gene 1 6 5 -1.63897 1 24 -1.63897 1
genomeend 1

/* Species #523 : (Size 2) (AF 18.5) (Age 12)  */


/* Organism #2 Fitness: 0 Error: 0 */
genomestart 2
trait 1 0.213754 0.503875 0 0 0 0 0 0 
trait 2 0.34554 0.123929 0 0.0121227 1 0.353068 0 0.0902295 
trait 3 0.3 0 0 0.289217 0 0 0 0 
node 1 2 1 3
node 2 3 1 1
node 3 2 1 1
node 4 1 1 1
node 5 2 0 2
node 6 3 0 2
gene 1 1 5 -2.00739 0 1 -2.00739 1
gene 1 2 5 -8 0 2 -8 1
gene 1 3 5 -1.14464 0 3 -1.14464 1
gene 3 4 5 -3.80133 0 4 -3.80133 1
gene 1 1 6 -6.25401 0 5 -6.25401 1
gene 1 2 6 0.452038 0 6 0.452038 1
gene 2 3 6 6.54453 0 7 6.54453 1
gene 3 4 6 1.79388 0 8 1.79388 1
gene 2 5 5 -1.52139 1 49 -1.52139 1
gene 3 6 5 -1.3391 0 54 -1.3391 1
genomeend 2

/* Organism #3 Fitness: 37 Error: 0 */
genomestart 3
trait 1 0.213754 0.19313 0 0 0 0 0 0 
trait 2 0.34554 0.123929 0 0.0121227 1 0.353068 0 0.0902295 
trait 3 0.3 0 0 0.289217 0 0 0 0 
node 1 2 1 3
node 2 3 1 1
node 3 2 1 1
node 4 1 1 1
node 5 2 0 2
node 6 3 0 2
gene 1 1 5 -3.05765 0 1 -3.05765 1
gene 1 2 5 -7.80944 0 2 -7.80944 1
gene 1 3 5 -0.877734 0 3 -0.877734 1
gene 3 4 5 0.193923 0 4 0.193923 1
gene 1 1 6 -6.87999 0 5 -6.87999 1
gene 1 2 6 1.1889 0 6 1.1889 1
gene 2 3 6 7.72343 0 7 7.72343 1
gene 3 4 6 1.27403 0 8 1.27403 1
gene 2 5 5 -4.47296 1 49 -4.47296 1
gene 3 6 5 0.351514 0 54 0.351514 1
genomeend 3

/* Species #539 : (Size 7) (AF 48.8571) (Age 12)  */


/* Organism #4 Fitness: 0 Error: 0 */
genomestart 4
trait 1 0.327507 0.386259 0 0 0 0 0 0 
trait 2 0.49108 0.247858 0 0.0242454 1 0.706136 0 0 
trait 3 1 0.561895 0.223777 0.00551368 0.842129 0 0.819192 0 
node 1 1 1 3
node 2 3 1 1
node 3 2 1 1
node 4 3 1 1
node 5 2 0 2
node 6 2 0 2
gene 2 1 5 6.29434 0 1 6.29434 1
gene 1 2 5 -4.71306 0 2 -4.71306 1
gene 1 3 5 -2.58834 0 3 -2.58834 1
gene 2 4 5 6.02069 0 4 6.02069 1
gene 1 1 6 -5.93916 0 5 -5.93916 1
gene 1 2 6 -2.50401 0 6 -2.50401 1
gene 2 3 6 3.07042 0 7 3.07042 1
gene 3 4 6 0.815914 0 8 0.815914 1
gene 2 5 5 -1.48834 1 49 -1.48834 1
gene 3 6 5 0.298021 0 54 0.298021 1
genomeend 4

/* Organism #5 Fitness: 37 Error: 0 */
genomestart 5
trait 1 0.327507 0.386259 0 0 0 0 0 0 
trait 2 0.49108 0.247858 0 0.0242454 1 0.706136 0 0 
trait 3 1 0.561895 0.223777 0.00551368 0.842129 0 0.819192 0 
node 1 1 1 3
node 2 3 1 1
node 3 2 1 1
node 4 3 1 1
node 5 2 0 2
node 6 2 0 2
gene 2 1 5 7.8172 0 1 7.8172 1
gene 1 2 5 -7.13853 0 2 -7.13853 1
gene 1 3 5 -4.75236 0 3 -4.75236 1
gene 2 4 5 6.07984 0 4 6.07984 1
gene 1 1 6 -4.06125 0 5 -4.06125 1
gene 1 2 6 -1.1833 0 6 -1.1833 1
gene 2 3 6 2.99134 0 7 2.99134 1
gene 3 4 6 0.989172 0 8 0.989172 1
gene 2 5 5 -1.04639 1 49 -1.04639 1
gene 3 6 5 0.298021 0 54 0.298021 1
genomeend 5

/* Organism #6 Fitness: 74 Error: 0 */
genomestart 6
trait 1 0.327507 0.922367 0.61833 0.266109 0 0 0 0 
trait 2 0.49108 0.247858 0 0.0242454 1 0.706136 0 0 
trait 3 1 0.561895 0.223777 0.00551368 0.842129 0 0.819192 0 
node 1 1 1 3
node 2 3 1 1
node 3 2 1 1
node 4 3 1 1
node 5 2 0 2
node 6 2 0 2
gene 2 1 5 6.29434 0 1 6.29434 1
gene 1 2 5 -4.71306 0 2 -4.71306 1
gene 1 3 5 -2.58834 0 3 -2.58834 1
gene 2 4 5 6.02069 0 4 6.02069 1
gene 1 1 6 -5.93916 0 5 -5.93916 1
gene 1 2 6 -2.50401 0 6 -2.50401 1
gene 2 3 6 3.07042 0 7 3.07042 1
gene 3 4 6 0.815914 0 8 0.815914 1
gene 2 5 5 -1.48834 1 49 -1.48834 1
gene 3 6 5 0.298021 0 54 0.298021 1
genomeend 6

/* Organism #7 Fitness: 151 Error: 0 */
genomestart 7
trait 1 0.327507 0.386259 0 0 0 0 0 0 
trait 2 0.49108 0.247858 0 0.0242454 1 0.706136 0 0 
trait 3 1 0.561895 0.223777 0.00551368 0.842129 0 0.819192 0 
node 1 1 1 3
node 2 3 1 1
node 3 2 1 1
node 4 3 1 1
node 5 2 0 2
node 6 2 0 2
gene 2 1 5 6.25182 0 1 6.25182 1
gene 1 2 5 -6.64009 0 2 -6.64009 1
gene 1 3 5 -2.86026 0 3 -2.86026 1
gene 2 4 5 6.18395 0 4 6.18395 1
gene 1 1 6 -3.63496 0 5 -3.63496 1
gene 1 2 6 -4.27734 0 6 -4.27734 1
gene 2 3 6 5.04481 0 7 5.04481 1
gene 3 4 6 0.742211 0 8 0.742211 1
gene 2 5 5 -2.98767 1 49 -2.98767 1
gene 3 6 5 -0.74854 0 54 -0.74854 1
genomeend 7

/* Organism #8 Fitness: 38 Error: 0 */
genomestart 8
trait 1 0.327507 0.386259 0 0 0 0 0 0 
trait 2 0.49108 0.247858 0 0.0242454 1 0.706136 0 0 
trait 3 1 0.561895 0.223777 0.00551368 0.842129 0 0.819192 0 
node 1 1 1 3
node 2 3 1 1
node 3 2 1 1
node 4 3 1 1
node 5 2 0 2
node 6 2 0 2
gene 2 1 5 6.29434 0 1 6.29434 1
gene 1 2 5 -3.83428 0 2 -3.83428 1
gene 1 3 5 -3.03048 0 3 -3.03048 1
gene 2 4 5 -0.481179 0 4 -0.481179 1
gene 1 1 6 -8 0 5 -8 1
gene 1 2 6 -0.219804 0 6 -0.219804 1
gene 2 3 6 4.50034 0 7 4.50034 1
gene 3 4 6 -0.0319561 0 8 -0.0319561 1
gene 2 5 5 -1.48834 1 49 -1.48834 1
gene 3 6 5 0.527145 0 54 0.527145 1
genomeend 8

/* Organism #9 Fitness: 38 Error: 0 */
genomestart 9
trait 1 0.327507 0.386259 0 0 0 0 0 0 
trait 2 0.49108 0.247858 0 0.0242454 1 0.706136 0 0 
trait 3 1 0.561895 0.223777 0.00551368 0.842129 0 0.819192 0 
node 1 1 1 3
node 2 3 1 1
node 3 2 1 1
node 4 3 1 1
node 5 2 0 2
node 6 2 0 2
gene 2 1 5 7.52651 0 1 7.52651 1
gene 1 2 5 -5.67711 0 2 -5.67711 1
gene 1 3 5 -4.41579 0 3 -4.41579 1
gene 2 4 5 5.04067 0 4 5.04067 1
gene 1 1 6 -6.65826 0 5 -6.65826 1
gene 1 2 6 -0.817955 0 6 -0.817955 1
gene 2 3 6 4.40633 0 7 4.40633 1
gene 3 4 6 -0.729315 0 8 -0.729315 1
gene 2 5 5 -1.48365 1 49 -1.48365 1
gene 3 6 5 1.39987 0 54 1.39987 1
genomeend 9

/* Organism #10 Fitness: 4 Error: 0 */
genomestart 10
trait 1 0.327507 0.386259 0 0 0 0 0 0 
trait 2 0.49108 0.247858 0 0.0242454 1 0.706136 0 0 
trait 3 1 0.561895 0.223777 0.00551368 0.842129 0 0.819192 0 
node 1 1 1 3
node 2 3 1 1
node 3 2 1 1
node 4 3 1 1
node 5 2 0 2
node 6 2 0 2
gene 2 1 5 4.76582 0 1 4.76582 1
gene 1 2 5 -5.36764 0 2 -5.36764 1
gene 1 3 5 -3.33562 0 3 -3.33562 1
gene 2 4 5 5.58737 0 4 5.58737 1
gene 1 1 6 -4.95674 0 5 -4.95674 1
gene 1 2 6 -3.52471 0 6 -3.52471 1
gene 2 3 6 4.88332 0 7 4.88332 1
gene 3 4 6 0.265765 0 8 0.265765 1
gene 2 5 5 0.468366 1 49 0.468366 1
gene 3 6 5 0.298021 0 54 0.298021 1
genomeend 10

/* Species #617 : (Size 5) (AF 22.8) (Age 8)  */


/* Organism #11 Fitness: 38 Error: 0 */
genomestart 11
trait 1 0.327507 0.386259 0 0 0 0 0 0 
trait 2 0.49108 0.247858 0 0.0242454 1 0.706136 0 0 
trait 3 0.3 0.316233 0.0457153 0.599125 0.902556 0.813484 0 0.416104 
node 1 3 1 3
node 2 3 1 1
node 3 3 1 1
node 4 3 1 1
node 5 3 0 2
node 6 3 0 2
gene 2 1 5 1.78191 0 1 1.78191 1
gene 1 2 5 -4.95918 0 2 -4.95918 1
gene 1 3 5 -0.429306 0 3 -0.429306 1
gene 2 4 5 4.08756 0 4 4.08756 1
gene 1 1 6 -1.20203 0 5 -1.20203 1
gene 3 2 6 -0.418941 0 6 -0.418941 1
gene 2 3 6 -5.6639 0 7 -5.6639 1
gene 3 4 6 6.90173 0 8 6.90173 1
gene 2 5 5 -1.61772 1 49 -1.61772 1
gene 3 6 5 -0.63828 0 54 -0.63828 1
genomeend 11

/* Organism #12 Fitness: 38 Error: 0 */
genomestart 12
trait 1 0.327507 0.386259 0 0 0 0 0 0 
trait 2 0.49108 0.247858 0 0.0242454 1 0.706136 0 0 
trait 3 0.3 0.0123283 0 0.157963 0 0 0 0 
node 1 3 1 3
node 2 3 1 1
node 3 3 1 1
node 4 3 1 1
node 5 3 0 2
node 6 3 0 2
gene 2 1 5 3.21462 0 1 3.21462 1
gene 1 2 5 -4.95918 0 2 -4.95918 1
gene 1 3 5 -0.422909 0 3 -0.422909 1
gene 2 4 5 5.80248 0 4 5.80248 1
gene 1 1 6 -1.01036 0 5 -1.01036 1
gene 3 2 6 -3.29173 0 6 -3.29173 1
gene 2 3 6 -7.7875 0 7 -7.7875 1
gene 3 4 6 6.90173 0 8 6.90173 1
gene 2 5 5 0.428354 1 49 0.428354 1
gene 3 6 5 -1.51952 0 54 -1.51952 1
genomeend 12

/* Organism #13 Fitness: 0 Error: 0 */
genomestart 13
trait 1 0.327507 0.386259 0 0 0 0 0 0 
trait 2 0.49108 0.247858 0 0.0242454 1 0.706136 0 0 
trait 3 0.3 0.0123283 0 0.157963 0 0 0 0 
node 1 3 1 3
node 2 3 1 1
node 3 3 1 1
node 4 3 1 1
node 5 3 0 2
node 6 3 0 2
gene 2 1 5 2.93765 0 1 2.93765 1
gene 1 2 5 -5.52675 0 2 -5.52675 1
gene 1 3 5 -0.422909 0 3 -0.422909 1
gene 2 4 5 -0.953579 0 4 -0.953579 1
gene 1 1 6 -1.7352 0 5 -1.7352 1
gene 3 2 6 -4.58556 0 6 -4.58556 1
gene 2 3 6 -7.7875 0 7 -7.7875 1
gene 3 4 6 8 0 8 8 1
gene 2 5 5 2.21384 1 49 2.21384 1
gene 3 6 5 -3.27053 0 54 -3.27053 1
genomeend 13

/* Organism #14 Fitness: 0 Error: 0 */
genomestart 14
trait 1 0.327507 0.386259 0 0 0 0 0 0 
trait 2 0.49108 0.247858 0 0.0242454 1 0.706136 0 0 
trait 3 0.3 0.0123283 0 0.157963 0 0 0 0 
node 1 3 1 3
node 2 3 1 1
node 3 3 1 1
node 4 3 1 1
node 5 3 0 2
node 6 3 0 2
gene 2 1 5 4.34083 0 1 4.34083 1
gene 1 2 5 -8 0 2 -8 1
gene 1 3 5 -0.948566 0 3 -0.948566 1
gene 2 4 5 5.46737 0 4 5.46737 1
gene 1 1 6 -3.26203 0 5 -3.26203 1
gene 1 2 6 -1.39673 0 6 -1.39673 1
gene 2 3 6 -6.59786 0 7 -6.59786 1
gene 3 4 6 7.29534 0 8 7.29534 1
gene 2 5 5 -1.90191 1 49 -1.90191 1
gene 3 6 5 -2.25323 0 54 -2.25323 1
genomeend 14

/* Organism #15 Fitness: 38 Error: 0 */
genomestart 15
trait 1 0.327507 0.386259 0 0 0 0 0 0 
trait 2 0.49108 0.247858 0 0.0242454 1 0.706136 0 0 
trait 3 0.3 0.0123283 0 0.157963 0 0 0 0 
node 1 3 1 3
node 2 3 1 1
node 3 3 1 1
node 4 3 1 1
node 5 3 0 2
node 6 3 0 2
gene 2 1 5 4.48696 0 1 4.48696 1
gene 1 2 5 -6.7422 0 2 -6.7422 1
gene 1 3 5 -2.58395 0 3 -2.58395 1
gene 2 4 5 5.73316 0 4 5.73316 1
gene 1 1 6 -0.433033 0 5 -0.433033 1
gene 1 2 6 -0.0138798 0 6 -0.0138798 1
gene 2 3 6 -6.99717 0 7 -6.99717 1
gene 3 4 6 6.3204 0 8 6.3204 1
gene 2 5 5 0.113297 1 49 0.113297 1
gene 3 6 5 -2.44855 0 54 -2.44855 1
genomeend 15

/* Species #627 : (Size 1) (AF 0) (Age 8)  */


/* Organism #16 Fitness: 0 Error: 0 */
genomestart 16
trait 1 0.327507 0.386259 0 0 0 0 0 0 
trait 2 0.49108 0.247858 0 0.0242454 1 0.706136 0 0 
trait 3 0 0.0123283 0 0.157963 0.577441 0.283661 0 0 
node 1 3 1 3
node 2 1 1 1
node 3 3 1 1
node 4 3 1 1
node 5 1 0 2
node 6 3 0 2
gene 2 1 5 1.03737 0 1 1.03737 1
gene 1 2 5 -7.77346 0 2 -7.77346 1
gene 1 3 5 6.35365 0 3 6.35365 1
gene 2 4 5 4.77532 0 4 4.77532 1
gene 1 1 6 -5.87919 0 5 -5.87919 1
gene 1 2 6 -0.953929 0 6 -0.953929 1
gene 2 3 6 1.22389 0 7 1.22389 1
gene 3 4 6 -0.636655 0 8 -0.636655 1
gene 2 5 5 2.19747 1 49 2.19747 1
gene 3 6 5 1.96962 0 54 1.96962 1
gene 2 5 6 -0.638552 1 98 -0.638552 1
genomeend 16

/* Species #640 : (Size 2) (AF 38) (Age 7)  */


/* Organism #17 Fitness: 38 Error: 0 */
genomestart 17
trait 1 0.327507 0.386259 0 0 0 0 0 0 
trait 2 0.49108 0.247858 0 0.0242454 1 0.706136 0 0 
trait 3 0 0.0123283 0 0.157963 0.577441 0.283661 0 0 
node 1 3 1 3
node 2 1 1 1
node 3 3 1 1
node 4 3 1 1
node 5 1 0 2
node 6 3 0 2
gene 2 1 5 -2.84043 0 1 -2.84043 1
gene 1 2 5 -6.09871 0 2 -6.09871 1
gene 1 3 5 7.86398 0 3 7.86398 1
gene 2 4 5 0.361381 0 4 0.361381 1
gene 1 1 6 -6.17089 0 5 -6.17089 1
gene 1 2 6 2.23344 0 6 2.23344 1
gene 2 3 6 -2.28226 0 7 -2.28226 1
gene 3 4 6 7.13082 0 8 7.13082 1
gene 2 5 5 -5.8262 1 49 -5.8262 1
gene 3 6 5 -0.44594 0 54 -0.44594 1
gene 2 5 6 -0.847753 1 98 -0.847753 1
genomeend 17

/* Organism #18 Fitness: 38 Error: 0 */
genomestart 18
trait 1 0.327507 0.386259 0 0 0 0 0 0 
trait 2 0.49108 0.247858 0 0.0242454 1 0.706136 0 0 
trait 3 0 0.0123283 0 0.157963 0.577441 0.283661 0 0 
node 1 3 1 3
node 2 1 1 1
node 3 3 1 1
node 4 3 1 1
node 5 1 0 2
node 6 3 0 2
gene 2 1 5 -1.43676 0 1 -1.43676 1
gene 1 2 5 -8 0 2 -8 1
gene 1 3 5 8 0 3 8 1
gene 2 4 5 2.83368 0 4 2.83368 1
gene 1 1 6 -8 0 5 -8 1
gene 1 2 6 3.99148 0 6 3.99148 1
gene 2 3 6 -1.30658 0 7 -1.30658 1
gene 3 4 6 5.72734 0 8 5.72734 1
gene 2 5 5 -6.48262 1 49 -6.48262 1
gene 3 6 5 0.985815 0 54 0.985815 1
gene 2 5 6 -1.04005 1 98 -1.04005 1
genomeend 18

/* Species #644 : (Size 2) (AF 19) (Age 7)  */


/* Organism #19 Fitness: 0 Error: 0 */
genomestart 19
trait 1 0.327507 0.386259 0 0 0 0 0 0 
trait 2 0.790465 0.247858 0 0.0242454 1 0.706136 0 0.437808 
trait 3 0.3 0 0 0 0 0 0 0 
node 1 3 1 3
node 2 2 1 1
node 3 3 1 1
node 4 3 1 1
node 5 3 0 2
node 6 3 0 2
gene 2 1 5 -1.64822 0 1 -1.64822 1
gene 1 2 5 -5.10742 0 2 -5.10742 1
gene 1 3 5 1.69422 0 3 1.69422 1
gene 2 4 5 0.681771 0 4 0.681771 1
gene 1 1 6 -4.61918 0 5 -4.61918 1
gene 1 2 6 -0.535039 0 6 -0.535039 1
gene 2 3 6 -2.6336 0 7 -2.6336 1
gene 3 4 6 2.26467 0 8 2.26467 1
gene 2 5 5 5.92084 1 49 5.92084 1
gene 3 6 5 0.415218 0 54 0.415218 1
gene 2 5 6 0.941416 1 98 0.941416 1
genomeend 19

/* Organism #20 Fitness: 38 Error: 0 */
genomestart 20
trait 1 0.327507 0.386259 0 0 0 0 0 0 
trait 2 0.790465 0.247858 0 0.0242454 1 0.706136 0 0.437808 
trait 3 0.3 0 0 0 0 0 0 0 
node 1 3 1 3
node 2 2 1 1
node 3 3 1 1
node 4 3 1 1
node 5 3 0 2
node 6 3 0 2
gene 2 1 5 -1.07778 0 1 -1.07778 1
gene 1 2 5 -4.91184 0 2 -4.91184 1
gene 1 3 5 3.77919 0 3 3.77919 1
gene 2 4 5 0.804578 0 4 0.804578 1
gene 1 1 6 -3.67622 0 5 -3.67622 1
gene 1 2 6 -2.36166 0 6 -2.36166 1
gene 2 3 6 -1.38377 0 7 -1.38377 1
gene 3 4 6 0.026539 0 8 0.026539 1
gene 2 5 5 4.73812 1 49 4.73812 1
gene 3 6 5 0.415218 0 54 0.415218 1
gene 2 5 6 0.225446 1 98 0.225446 1
genomeend 20

/* Species #655 : (Size 6) (AF 24.5) (Age 6)  */


/* Organism #21 Fitness: 0 Error: 0 */
genomestart 21
trait 1 0 0.386259 0 0 0 0 0 0 
trait 2 0.49108 0.247858 0 0.0242454 1 0.706136 0 0 
trait 3 0.3 0.0123283 0 0.157963 0 0 0 0 
node 1 3 1 3
node 2 2 1 1
node 3 3 1 1
node 4 3 1 1
node 5 2 0 2
node 6 3 0 2
gene 2 1 5 4.19418 0 1 4.19418 1
gene 1 2 5 -5.50222 0 2 -5.50222 1
gene 1 3 5 2.51451 0 3 2.51451 1
gene 3 4 5 -0.254953 0 4 -0.254953 1
gene 1 1 6 -1.24318 0 5 -1.24318 1
gene 1 2 6 -4.56717 0 6 -4.56717 1
gene 2 3 6 5.55222 0 7 5.55222 1
gene 3 4 6 1.7741 0 8 1.7741 1
gene 2 5 5 2.46622 1 49 2.46622 1
gene 3 6 5 1.87593 0 54 1.87593 1
gene 2 5 6 -1.00424 1 98 -1.00424 1
genomeend 21

/* Organism #22 Fitness: 72 Error: 0 */
genomestart 22
trait 1 0 0.386259 0 0 0 0 0 0 
trait 2 0.49108 0.247858 0 0.0242454 1 0.706136 0 0 
trait 3 0.3 0.0123283 0 0.157963 0 0 0 0 
node 1 3 1 3
node 2 2 1 1
node 3 3 1 1
node 4 3 1 1
node 5 2 0 2
node 6 3 0 2
gene 2 1 5 4.19418 0 1 4.19418 1
gene 1 2 5 -5.50222 0 2 -5.50222 1
gene 1 3 5 2.51451 0 3 2.51451 1
gene 3 4 5 -0.254953 0 4 -0.254953 1
gene 1 1 6 -1.24318 0 5 -1.24318 1
gene 1 2 6 -4.56717 0 6 -4.56717 1
gene 2 3 6 5.55222 0 7 5.55222 1
gene 3 4 6 1.7741 0 8 1.7741 1
gene 2 5 5 2.46622 1 49 2.46622 1
gene 3 6 5 1.87593 0 54 1.87593 1
gene 2 5 6 -1.00424 1 98 -1.00424 1
genomeend 22

/* Organism #23 Fitness: 38 Error: 0 */
genomestart 23
trait 1 0 0.386259 0 0 0 0 0 0 
trait 2 0.49108 0.247858 0 0.0242454 1 0.706136 0 0 
trait 3 0.3 0.0123283 0 0.157963 0 0 0 0 
node 1 3 1 3
node 2 2 1 1
node 3 3 1 1
node 4 3 1 1
node 5 2 0 2
node 6 3 0 2
gene 2 1 5 2.57526 0 1 2.57526 1
gene 1 2 5 -5.70894 0 2 -5.70894 1
gene 1 3 5 0.239123 0 3 0.239123 1
gene 3 4 5 -0.640347 0 4 -0.640347 1
gene 1 1 6 -0.122763 0 5 -0.122763 1
gene 1 2 6 -2.61883 0 6 -2.61883 1
gene 2 3 6 7.81847 0 7 7.81847 1
gene 3 4 6 2.0508 0 8 2.0508 1
gene 2 5 5 2.99373 1 49 2.99373 1
gene 3 6 5 1.87593 0 54 1.87593 1
gene 2 5 6 2.0748 1 98 2.0748 1
genomeend 23

/* Organism #24 Fitness: 0 Error: 0 */
genomestart 24
trait 1 0 0.386259 0 0 0 0 0 0 
trait 2 0.49108 0.247858 0 0.0242454 1 0.706136 0 0 
trait 3 0.3 0.0123283 0 0.157963 0 0 0 0 
node 1 3 1 3
node 2 2 1 1
node 3 3 1 1
node 4 3 1 1
node 5 2 0 2
node 6 3 0 2
gene 2 1 5 6.51613 0 1 6.51613 1
gene 1 2 5 -5.33695 0 2 -5.33695 1
gene 1 3 5 1.67409 0 3 1.67409 1
gene 3 4 5 0.0699826 0 4 0.0699826 1
gene 1 1 6 -3.20833 0 5 -3.20833 1
gene 1 2 6 -6.56133 0 6 -6.56133 1
gene 2 3 6 7.61238 0 7 7.61238 1
gene 3 4 6 1.63591 0 8 1.63591 1
gene 2 5 5 3.97045 1 49 3.97045 1
gene 3 6 5 0.116291 0 54 0.116291 1
gene 2 5 6 0.495949 1 98 0.495949 1
genomeend 24

/* Organism #25 Fitness: 0 Error: 0 */
genomestart 25
trait 1 0 0.386259 0 0 0 0 0 0 
trait 2 0.49108 0.247858 0 0.0242454 1 0.706136 0 0 
trait 3 0.3 0.0123283 0 0.157963 0 0 0 0 
node 1 3 1 3
node 2 2 1 1
node 3 3 1 1
node 4 3 1 1
node 5 2 0 2
node 6 3 0 2
gene 2 1 5 6.44696 0 1 6.44696 1
gene 1 2 5 -3.39684 0 2 -3.39684 1
gene 1 3 5 3.59978 0 3 3.59978 1
gene 3 4 5 1.64832 0 4 1.64832 1
gene 1 1 6 -0.340956 0 5 -0.340956 1
gene 1 2 6 -6.14934 0 6 -6.14934 1
gene 2 3 6 5.57508 0 7 5.57508 1
gene 3 4 6 0.823188 0 8 0.823188 1
gene 2 5 5 4.50483 1 49 4.50483 1
gene 3 6 5 1.87593 0 54 1.87593 1
gene 2 5 6 0.729313 1 98 0.729313 1
genomeend 25

/* Organism #26 Fitness: 37 Error: 0 */
genomestart 26
trait 1 0 0.386259 0 0 0 0 0 0 
trait 2 0.49108 0.247858 0 0.0242454 1 0.706136 0 0 
trait 3 0.3 0.0123283 0 0.157963 0 0 0 0 
node 1 3 1 3
node 2 2 1 1
node 3 3 1 1
node 4 3 1 1
node 5 2 0 2
node 6 3 0 2
gene 2 1 5 3.95226 0 1 3.95226 1
gene 1 2 5 -6.34139 0 2 -6.34139 1
gene 1 3 5 1.12156 0 3 1.12156 1
gene 3 4 5 -0.375927 0 4 -0.375927 1
gene 1 1 6 -2.05259 0 5 -2.05259 1
gene 1 2 6 1.57333 0 6 1.57333 1
gene 2 3 6 5.99145 0 7 5.99145 1
gene 3 4 6 3.62906 0 8 3.62906 1
gene 2 5 5 3.40248 1 49 3.40248 1
gene 3 6 5 1.00768 0 54 1.00768 1
gene 2 5 6 -0.513449 1 98 -0.513449 1
genomeend 26

/* Species #667 : (Size 2) (AF 0) (Age 6)  */


/* Organism #27 Fitness: 0 Error: 0 */
genomestart 27
trait 1 0.327507 0.386259 0 0 0 0 0 0 
trait 2 0.49108 0.247858 0 0.0242454 1 0.706136 0 0 
trait 3 0.601177 0.0123283 0 0.157963 0 0 0 0 
node 1 3 1 3
node 2 3 1 1
node 3 3 1 1
node 4 3 1 1
node 5 2 0 2
node 6 3 0 2
gene 2 1 5 0.470506 0 1 0.470506 1
gene 1 2 5 -5.41043 0 2 -5.41043 1
gene 1 3 5 2.29551 0 3 2.29551 1
gene 2 4 5 -3.48099 0 4 -3.48099 1
gene 1 1 6 -2.20396 0 5 -2.20396 1
gene 1 2 6 -0.0802792 0 6 -0.0802792 1
gene 2 3 6 0.471146 0 7 0.471146 1
gene 3 4 6 -2.81516 0 8 -2.81516 1
gene 2 5 5 -0.463675 1 49 -0.463675 1
gene 3 6 5 -8 0 54 -8 1
gene 1 6 6 0.489609 1 128 0.489609 1
genomeend 27

/* Organism #28 Fitness: 0 Error: 0 */
genomestart 28
trait 1 0.327507 0.386259 0 0 0 0 0 0 
trait 2 0.49108 0.247858 0 0.0242454 1 0.706136 0 0 
trait 3 0.601177 0.0123283 0 0.157963 0 0 0 0 
node 1 3 1 3
node 2 3 1 1
node 3 3 1 1
node 4 3 1 1
node 5 2 0 2
node 6 1 0 2
gene 2 1 5 1.29347 0 1 1.29347 1
gene 1 2 5 -5.52851 0 2 -5.52851 1
gene 1 3 5 4.64531 0 3 4.64531 1
gene 2 4 5 -5.93934 0 4 -5.93934 1
gene 1 1 6 -0.144734 0 5 -0.144734 1
gene 1 2 6 1.9282 0 6 1.9282 1
gene 2 3 6 -0.07215 0 7 -0.07215 1
gene 3 4 6 -4.179 0 8 -4.179 1
gene 2 5 5 -0.544172 1 49 -0.544172 1
gene 3 6 5 -6.60201 0 54 -6.60201 1
gene 1 6 6 0.489609 1 128 0.489609 1
genomeend 28

/* Species #674 : (Size 1) (AF 0) (Age 5)  */


/* Organism #29 Fitness: 0 Error: 0 */
genomestart 29
trait 1 0.327507 0.386259 0 0 0 0 0 0 
trait 2 0.49108 0.247858 0 0.0242454 1 0.706136 0 0 
trait 3 0.3 0.0123283 0 0.157963 0 0 0 0 
node 1 3 1 3
node 2 3 1 1
node 3 3 1 1
node 4 3 1 1
node 5 2 0 2
node 6 1 0 2
gene 2 1 5 0.765144 0 1 0.765144 1
gene 1 2 5 -5.06805 0 2 -5.06805 1
gene 1 3 5 -4.7379 0 3 -4.7379 1
gene 2 4 5 -2.63493 0 4 -2.63493 1
gene 1 1 6 -6.81466 0 5 -6.81466 1
gene 1 2 6 0.186038 0 6 0.186038 1
gene 2 3 6 -8 0 7 -8 1
gene 3 4 6 4.8811 0 8 4.8811 1
gene 2 5 5 -1.73256 1 49 -1.73256 1
gene 3 6 5 2.19247 0 54 2.19247 1
genomeend 29

/* Species #675 : (Size 1) (AF 143) (Age 5)  */


/* Organism #30 Fitness: 143 Error: 0 */
genomestart 30
trait 1 0.327507 0.386259 0 0 0 0 0 0 
trait 2 0.49108 0.247858 0 0.0242454 1 0.706136 0 0 
trait 3 0.3 0.0123283 0 0.157963 0 0 0 0 
node 1 3 1 3
node 2 2 1 1
node 3 3 1 1
node 4 3 1 1
node 5 1 0 2
node 6 3 0 2
gene 2 1 5 -1.63221 0 1 -1.63221 1
gene 1 2 5 -3.5056 0 2 -3.5056 1
gene 1 3 5 8 0 3 8 1
gene 2 4 5 1.26535 0 4 1.26535 1
gene 1 1 6 -6.01894 0 5 -6.01894 1
gene 1 2 6 -2.55004 0 6 -2.55004 1
gene 2 3 6 3.83438 0 7 3.83438 1
gene 3 4 6 0.305047 0 8 0.305047 1
gene 2 5 5 0.903432 1 49 0.903432 1
gene 3 6 5 4.30479 0 54 4.30479 1
gene 2 5 6 -0.651329 1 98 -0.651329 1
gene 2 6 6 2.68573 1 129 2.68573 1
genomeend 30

/* Species #679 : (Size 2) (AF 0) (Age 5)  */


/* Organism #31 Fitness: 0 Error: 0 */
genomestart 31
trait 1 0.327507 0.386259 0 0 0 0 0 0 
trait 2 0.49108 0.247858 0 0.0242454 1 0.706136 0 0 
trait 3 0.3 0.0123283 0 0.157963 0 0 0 0 
node 1 3 1 3
node 2 2 1 1
node 3 3 1 1
node 4 3 1 1
node 5 2 0 2
node 6 3 0 2
gene 2 1 5 -1.78251 0 1 -1.78251 1
gene 1 2 5 -6.11689 0 2 -6.11689 1
gene 1 3 5 1.86191 0 3 1.86191 1
gene 2 4 5 -0.44224 0 4 -0.44224 1
gene 1 1 6 -4.27182 0 5 -4.27182 1
gene 1 2 6 -1.80656 0 6 -1.80656 1
gene 2 3 6 2.40864 0 7 2.40864 1
gene 3 4 6 1.34675 0 8 1.34675 1
gene 2 5 5 -1.98005 1 49 -1.98005 1
gene 3 6 5 -3.98807 0 54 -3.98807 1
gene 2 5 6 -1.40752 1 98 -1.40752 1
genomeend 31

/* Organism #32 Fitness: 0 Error: 0 */
genomestart 32
trait 1 0.327507 0.386259 0 0 0 0 0 0 
trait 2 0.49108 0.247858 0 0.0242454 1 0.706136 0 0 
trait 3 0.3 0.0123283 0 0.157963 0 0 0 0 
node 1 3 1 3
node 2 1 1 1
node 3 3 1 1
node 4 3 1 1
node 5 2 0 2
node 6 3 0 2
gene 2 1 5 -0.69239 0 1 -0.69239 1
gene 1 2 5 -8 0 2 -8 1
gene 1 3 5 2.30977 0 3 2.30977 1
gene 2 4 5 1.64869 0 4 1.64869 1
gene 1 1 6 -6.22163 0 5 -6.22163 1
gene 1 2 6 -4.31115 0 6 -4.31115 1
gene 2 3 6 -1.72679 0 7 -1.72679 1
gene 3 4 6 -0.143861 0 8 -0.143861 1
gene 2 5 5 0.463716 1 49 0.463716 1
gene 3 6 5 -1.32393 0 54 -1.32393 1
gene 2 5 6 0.269176 1 98 0.269176 1
genomeend 32

/* Species #681 : (Size 4) (AF 30.25) (Age 5)  */


/* Organism #33 Fitness: 0 Error: 0 */
genomestart 33
trait 1 0.327507 0.386259 0 0 0 0 0 0 
trait 2 0.49108 0.247858 0 0.0242454 1 0.706136 0 0 
trait 3 0.3 0.0123283 0 0.157963 0 0 0 0 
node 1 3 1 3
node 2 2 1 1
node 3 3 1 1
node 4 1 1 1
node 5 2 0 2
node 6 3 0 2
gene 2 1 5 1.53492 0 1 1.53492 1
gene 1 2 5 -3.13372 0 2 -3.13372 1
gene 3 3 5 -0.63615 0 3 -0.63615 1
gene 2 4 5 -4.49437 0 4 -4.49437 1
gene 1 1 6 -8 0 5 -8 1
gene 1 2 6 -1.5052 0 6 -1.5052 1
gene 2 3 6 5.84405 0 7 5.84405 1
gene 3 4 6 -4.9653 0 8 -4.9653 1
gene 2 5 5 0.656365 1 49 0.656365 1
gene 3 6 5 3.77492 0 54 3.77492 1
gene 2 5 6 -0.990788 1 98 -0.990788 1
genomeend 33

/* Organism #34 Fitness: 73 Error: 0 */
genomestart 34
trait 1 0.327507 0.386259 0 0 0 0 0 0 
trait 2 0.49108 0.247858 0 0.0242454 1 0.706136 0 0 
trait 3 0.3 0.0123283 0 0.157963 0 0 0 0 
node 1 3 1 3
node 2 2 1 1
node 3 3 1 1
node 4 1 1 1
node 5 2 0 2
node 6 3 0 2
gene 2 1 5 4.0282 0 1 4.0282 1
gene 1 2 5 -3.16656 0 2 -3.16656 1
gene 3 3 5 0.519799 0 3 0.519799 1
gene 2 4 5 -5.34153 0 4 -5.34153 1
gene 1 1 6 -6.88049 0 5 -6.88049 1
gene 1 2 6 -1.5052 0 6 -1.5052 1
gene 2 3 6 3.46928 0 7 3.46928 1
gene 3 4 6 -3.53187 0 8 -3.53187 1
gene 2 5 5 4.06937 1 49 4.06937 1
gene 3 6 5 1.87593 0 54 1.87593 1
gene 2 5 6 -0.28404 1 98 -0.28404 1
genomeend 34

/* Organism #35 Fitness: 11 Error: 0 */
genomestart 35
trait 1 0.327507 0.386259 0 0 0 0 0 0 
trait 2 0.49108 0.247858 0 0.0242454 1 0.706136 0 0 
trait 3 0.3 0.0123283 0 0.157963 0 0 0 0 
node 1 3 1 3
node 2 2 1 1
node 3 3 1 1
node 4 1 1 1
node 5 2 0 2
node 6 3 0 2
gene 2 1 5 5.86793 0 1 5.86793 1
gene 1 2 5 -3.78578 0 2 -3.78578 1
gene 3 3 5 -1.24984 0 3 -1.24984 1
gene 2 4 5 -4.63758 0 4 -4.63758 1
gene 1 1 6 -8 0 5 -8 1
gene 1 2 6 -2.21345 0 6 -2.21345 1
gene 2 3 6 5.88771 0 7 5.88771 1
gene 3 4 6 -4.7178 0 8 -4.7178 1
gene 2 5 5 3.3372 1 49 3.3372 1
gene 3 6 5 1.87593 0 54 1.87593 1
gene 2 5 6 -1.38437 1 98 -1.38437 1
genomeend 35

/* Organism #36 Fitness: 37 Error: 0 */
genomestart 36
trait 1 0.327507 0.386259 0 0 0 0 0 0 
trait 2 0.49108 0.247858 0 0.0242454 1 0.706136 0 0 
trait 3 0.3 0.0123283 0 0.157963 0 0 0 0 
node 1 3 1 3
node 2 2 1 1
node 3 3 1 1
node 4 1 1 1
node 5 2 0 2
node 6 3 0 2
gene 2 1 5 3.00654 0 1 3.00654 1
gene 1 2 5 -3.92872 0 2 -3.92872 1
gene 3 3 5 0.887576 0 3 0.887576 1
gene 2 4 5 -5.72113 0 4 -5.72113 1
gene 1 1 6 -5.82582 0 5 -5.82582 1
gene 1 2 6 -1.82829 0 6 -1.82829 1
gene 2 3 6 7.15341 0 7 7.15341 1
gene 3 4 6 -4.04027 0 8 -4.04027 1
gene 2 5 5 2.09339 1 49 2.09339 1
gene 3 6 5 1.87593 0 54 1.87593 1
gene 2 5 6 -1.58142 1 98 -1.58142 1
genomeend 36

/* Species #683 : (Size 1) (AF 37) (Age 5)  */


/* Organism #37 Fitness: 37 Error: 0 */
genomestart 37
trait 1 0.327507 0.386259 0 0 0 0 0 0 
trait 2 0.49108 0.247858 0 0.0242454 1 0.706136 0 0 
trait 3 0 0.0123283 0 0.157963 0.577441 0.283661 0 0 
node 1 3 1 3
node 2 2 1 1
node 3 3 1 1
node 4 3 1 1
node 5 1 0 2
node 6 3 0 2
gene 2 1 5 -0.202015 0 1 -0.202015 1
gene 1 2 5 -8 0 2 -8 1
gene 1 3 5 -2.06824 0 3 -2.06824 1
gene 2 4 5 -0.746997 0 4 -0.746997 1
gene 1 1 6 -6.69183 0 5 -6.69183 1
gene 1 2 6 0.0947762 0 6 0.0947762 1
gene 2 3 6 -3.0522 0 7 -3.0522 1
gene 3 4 6 -1.92816 0 8 -1.92816 1
gene 2 5 5 -5.67 1 49 -5.67 1
gene 3 6 5 0.580095 0 54 0.580095 1
gene 2 5 6 -0.32128 1 98 -0.32128 1
genomeend 37

/* Species #694 : (Size 2) (AF 18.5) (Age 4)  */


/* Organism #38 Fitness: 0 Error: 0 */
genomestart 38
trait 1 0.327507 0.386259 0 0 0 0 0 0 
trait 2 0.49108 0.247858 0.334975 0.0242454 1 0.706136 0 0 
trait 3 0.3 0.0123283 0 0.157963 0 0 0 0 
node 1 3 1 3
node 2 3 1 1
node 3 3 1 1
node 4 3 1 1
node 5 2 0 2
node 6 2 0 2
gene 2 1 5 4.8232 0 1 4.8232 1
gene 3 2 5 -6.85368 0 2 -6.85368 1
gene 1 3 5 -0.16777 0 3 -0.16777 1
gene 2 4 5 0.699691 0 4 0.699691 1
gene 1 1 6 -2.8167 0 5 -2.8167 1
gene 1 2 6 -1.95221 0 6 -1.95221 1
gene 2 3 6 -4.22869 0 7 -4.22869 1
gene 3 4 6 -1.21341 0 8 -1.21341 1
gene 1 5 5 -0.653062 1 49 -0.653062 1
gene 3 6 5 3.72151 0 54 3.72151 1
genomeend 38

/* Organism #39 Fitness: 37 Error: 0 */
genomestart 39
trait 1 0.327507 0.386259 0 0 0 0 0 0 
trait 2 0.49108 0.247858 0.334975 0.0242454 1 0.706136 0 0 
trait 3 0.3 0.0123283 0 0.157963 0 0 0 0 
node 1 3 1 3
node 2 3 1 1
node 3 3 1 1
node 4 3 1 1
node 5 2 0 2
node 6 2 0 2
gene 2 1 5 4.05339 0 1 4.05339 1
gene 3 2 5 -7.17138 0 2 -7.17138 1
gene 1 3 5 -3.16732 0 3 -3.16732 1
gene 2 4 5 -0.556362 0 4 -0.556362 1
gene 1 1 6 -0.778869 0 5 -0.778869 1
gene 1 2 6 -4.06962 0 6 -4.06962 1
gene 3 3 6 -2.60275 0 7 -2.60275 1
gene 3 4 6 2.25031 0 8 2.25031 1
gene 1 5 5 -5.84777 1 49 -5.84777 1
gene 3 6 5 2.06816 0 54 2.06816 1
genomeend 39

/* Species #696 : (Size 2) (AF 19) (Age 4)  */


/* Organism #40 Fitness: 0 Error: 0 */
genomestart 40
trait 1 0.327507 0.386259 0 0 0 0 0 0 
trait 2 0.49108 0.247858 0 0.0242454 1 0.706136 0 0 
trait 3 0.3 0.0123283 0 0.157963 0 0 0 0 
node 1 3 1 3
node 2 2 1 1
node 3 3 1 1
node 4 1 1 1
node 5 2 0 2
node 6 3 0 2
gene 2 1 5 7.03492 0 1 7.03492 1
gene 1 2 5 -6.38569 0 2 -6.38569 1
gene 1 3 5 2.37689 0 3 2.37689 1
gene 2 4 5 0.61876 0 4 0.61876 1
gene 3 1 6 -1.01569 0 5 -1.01569 1
gene 1 2 6 -2.10063 0 6 -2.10063 1
gene 2 3 6 -0.442015 0 7 -0.442015 1
gene 3 4 6 0.114547 0 8 0.114547 1
gene 1 5 5 -2.22446 1 49 -2.22446 1
gene 3 6 5 -1.19083 0 54 -1.19083 1
gene 2 5 6 2.57837 1 98 2.57837 1
gene 2 6 6 -2.39742 1 127 -2.39742 1
genomeend 40

/* Organism #41 Fitness: 38 Error: 0 */
genomestart 41
trait 1 0.327507 0.386259 0 0 0 0 0 0 
trait 2 0.49108 0.247858 0 0.0242454 1 0.706136 0 0 
trait 3 0.3 0.0123283 0 0.157963 0 0 0 0 
node 1 3 1 3
node 2 2 1 1
node 3 3 1 1
node 4 1 1 1
node 5 2 0 2
node 6 3 0 2
gene 2 1 5 8 0 1 8 1
gene 1 2 5 -5.81867 0 2 -5.81867 1
gene 1 3 5 -0.0288654 0 3 -0.0288654 1
gene 2 4 5 0.79286 0 4 0.79286 1
gene 3 1 6 -2.47513 0 5 -2.47513 1
gene 1 2 6 -0.850394 0 6 -0.850394 1
gene 2 3 6 0.360845 0 7 0.360845 1
gene 3 4 6 1.00282 0 8 1.00282 1
gene 1 5 5 -1.2624 1 49 -1.2624 1
gene 3 6 5 -0.198368 0 54 -0.198368 1
gene 2 5 6 0.77171 1 98 0.77171 1
gene 2 6 6 -2.45014 1 127 -2.45014 1
genomeend 41

/* Species #698 : (Size 4) (AF 27.5) (Age 4)  */


/* Organism #42 Fitness: 0 Error: 0 */
genomestart 42
trait 1 0.327507 0.386259 0 0 0 0 0 0 
trait 2 0.49108 0.247858 0 0.0242454 1 0.706136 0 0 
trait 3 0.3 0 0 0 0 0 0 0 
node 1 3 1 3
node 2 2 1 1
node 3 3 1 1
node 4 3 1 1
node 5 2 0 2
node 6 3 0 2
gene 2 1 5 -0.835203 0 1 -0.835203 1
gene 1 2 5 -1.46645 0 2 -1.46645 1
gene 1 3 5 3.28457 0 3 3.28457 1
gene 2 4 5 0.378463 0 4 0.378463 1
gene 1 1 6 -5.11739 0 5 -5.11739 1
gene 1 2 6 0.316812 0 6 0.316812 1
gene 2 3 6 0.842495 0 7 0.842495 1
gene 1 4 6 -1.66883 0 8 -1.66883 1
gene 2 5 5 7.37259 1 49 7.37259 1
gene 3 6 5 2.07081 0 54 2.07081 1
gene 2 5 6 1.4692 1 98 1.4692 1
genomeend 42

/* Organism #43 Fitness: 37 Error: 0 */
genomestart 43
trait 1 0.327507 0.386259 0 0 0 0 0 0 
trait 2 0.49108 0.247858 0 0.0242454 1 0.706136 0 0 
trait 3 0.3 0 0 0 0 0 0 0 
node 1 3 1 3
node 2 2 1 1
node 3 3 1 1
node 4 3 1 1
node 5 2 0 2
node 6 1 0 2
gene 2 1 5 2.05027 0 1 2.05027 1
gene 1 2 5 -3.47959 0 2 -3.47959 1
gene 1 3 5 2.4801 0 3 2.4801 1
gene 2 4 5 0.171121 0 4 0.171121 1
gene 1 1 6 -4.2908 0 5 -4.2908 1
gene 1 2 6 -0.0996512 0 6 -0.0996512 1
gene 2 3 6 -1.79272 0 7 -1.79272 1
gene 1 4 6 -3.8299 0 8 -3.8299 1
gene 2 5 5 2.16708 1 49 2.16708 1
gene 3 6 5 -1.72761 0 54 -1.72761 1
gene 2 5 6 1.4692 1 98 1.4692 1
genomeend 43

/* Organism #44 Fitness: 36 Error: 0 */
genomestart 44
trait 1 0.327507 0.386259 0 0 0 0 0 0 
trait 2 0.49108 0.247858 0 0.0242454 1 0.706136 0 0 
trait 3 0.3 0 0 0 0 0 0 0 
node 1 3 1 3
node 2 2 1 1
node 3 3 1 1
node 4 3 1 1
node 5 2 0 2
node 6 3 0 2
gene 2 1 5 2.38463 0 1 2.38463 1
gene 1 2 5 -1.23201 0 2 -1.23201 1
gene 1 3 5 4.10036 0 3 4.10036 1
gene 2 4 5 1.81777 0 4 1.81777 1
gene 1 1 6 -5.64728 0 5 -5.64728 1
gene 1 2 6 -0.4149 0 6 -0.4149 1
gene 2 3 6 1.22622 0 7 1.22622 1
gene 1 4 6 -4.10841 0 8 -4.10841 1
gene 2 5 5 3.98724 1 49 3.98724 1
gene 3 6 5 -1.46315 0 54 -1.46315 1
gene 2 5 6 3.95727 1 98 3.95727 1
genomeend 44

/* Organism #45 Fitness: 37 Error: 0 */
genomestart 45
trait 1 0.327507 0.386259 0 0 0 0 0 0 
trait 2 0.49108 0.247858 0 0.0242454 1 0.706136 0 0 
trait 3 0.3 0 0 0 0 0 0 0 
node 1 3 1 3
node 2 2 1 1
node 3 3 1 1
node 4 3 1 1
node 5 2 0 2
node 6 3 0 2
gene 2 1 5 -0.728941 0 1 -0.728941 1
gene 1 2 5 -1.24777 0 2 -1.24777 1
gene 1 3 5 2.39515 0 3 2.39515 1
gene 2 4 5 0.754939 0 4 0.754939 1
gene 1 1 6 -5.49582 0 5 -5.49582 1
gene 1 2 6 2.71181 0 6 2.71181 1
gene 2 3 6 1.06629 0 7 1.06629 1
gene 1 4 6 -2.20868 0 8 -2.20868 1
gene 2 5 5 6.93765 1 49 6.93765 1
gene 3 6 5 -3.03404 0 54 -3.03404 1
gene 2 5 6 1.84209 1 98 1.84209 1
genomeend 45

/* Species #700 : (Size 5) (AF 48.6) (Age 4)  */


/* Organism #46 Fitness: 0 Error: 0 */
genomestart 46
trait 1 0.327507 0.386259 0 0 0 0 0 0 
trait 2 0.49108 0.247858 0 0.0242454 1 0.706136 0 0 
trait 3 0.3 0.0123283 0 0.157963 0 0 0 0 
node 1 3 1 3
node 2 2 1 1
node 3 3 1 1
node 4 1 1 1
node 5 2 0 2
node 6 3 0 2
gene 2 1 5 4.95828 0 1 4.95828 1
gene 1 2 5 -2.99261 0 2 -2.99261 1
gene 3 3 5 -0.87809 0 3 -0.87809 1
gene 2 4 5 -3.05692 0 4 -3.05692 1
gene 1 1 6 -6.07861 0 5 -6.07861 1
gene 1 2 6 -1.4885 0 6 -1.4885 1
gene 2 3 6 5.32134 0 7 5.32134 1
gene 3 4 6 4.15272 0 8 4.15272 1
gene 2 5 5 7.29501 1 49 7.29501 1
gene 3 6 5 2.33443 0 54 2.33443 1
gene 2 5 6 0.438022 1 98 0.438022 1
genomeend 46

/* Organism #47 Fitness: 38 Error: 0 */
genomestart 47
trait 1 0.327507 0.386259 0 0 0 0 0 0 
trait 2 0.49108 0.247858 0 0.0242454 1 0.706136 0 0 
trait 3 0.3 0.0123283 0 0.157963 0 0 0 0 
node 1 3 1 3
node 2 2 1 1
node 3 3 1 1
node 4 1 1 1
node 5 2 0 2
node 6 3 0 2
gene 2 1 5 5.95512 0 1 5.95512 1
gene 1 2 5 -2.91582 0 2 -2.91582 1
gene 3 3 5 1.53291 0 3 1.53291 1
gene 2 4 5 -3.62283 0 4 -3.62283 1
gene 1 1 6 -5.2373 0 5 -5.2373 1
gene 1 2 6 0.517236 0 6 0.517236 1
gene 2 3 6 7.2659 0 7 7.2659 1
gene 3 4 6 2.95136 0 8 2.95136 1
gene 2 5 5 7.89469 1 49 7.89469 1
gene 3 6 5 2.33443 0 54 2.33443 1
gene 2 5 6 0.438022 1 98 0.438022 1
genomeend 47

/* Organism #48 Fitness: 167 Error: 0 */
genomestart 48
trait 1 0.327507 0.386259 0 0 0 0 0 0 
trait 2 0.49108 0.247858 0 0.0242454 1 0.706136 0 0 
trait 3 0.3 0.0123283 0 0.157963 0 0 0 0 
node 1 3 1 3
node 2 2 1 1
node 3 3 1 1
node 4 1 1 1
node 5 2 0 2
node 6 3 0 2
gene 2 1 5 4.95828 0 1 4.95828 1
gene 1 2 5 -2.99261 0 2 -2.99261 1
gene 3 3 5 -0.87809 0 3 -0.87809 1
gene 2 4 5 -3.05692 0 4 -3.05692 1
gene 1 1 6 -6.07861 0 5 -6.07861 1
gene 1 2 6 -1.4885 0 6 -1.4885 1
gene 2 3 6 5.32134 0 7 5.32134 1
gene 3 4 6 4.15272 0 8 4.15272 1
gene 2 5 5 7.29501 1 49 7.29501 1
gene 3 6 5 2.33443 0 54 2.33443 1
gene 2 5 6 0.438022 1 98 0.438022 1
genomeend 48

/* Organism #49 Fitness: 0 Error: 0 */
genomestart 49
trait 1 0.327507 0.386259 0 0 0 0 0 0 
trait 2 0.49108 0.247858 0 0.0242454 1 0.706136 0 0 
trait 3 0.3 0.0123283 0 0.157963 0 0 0 0 
node 1 3 1 3
node 2 2 1 1
node 3 3 1 1
node 4 1 1 1
node 5 2 0 2
node 6 3 0 2
gene 2 1 5 2.67227 0 1 2.67227 1
gene 1 2 5 -4.13362 0 2 -4.13362 1
gene 3 3 5 0.0183863 0 3 0.0183863 1
gene 2 4 5 -1.61461 0 4 -1.61461 1
gene 1 1 6 -6.29653 0 5 -6.29653 1
gene 1 2 6 -3.86494 0 6 -3.86494 1
gene 2 3 6 3.87666 0 7 3.87666 1
gene 3 4 6 3.43254 0 8 3.43254 1
gene 2 5 5 6.2271 1 49 6.2271 1
gene 3 6 5 3.12375 0 54 3.12375 1
gene 2 5 6 2.58132 1 98 2.58132 1
genomeend 49

/* Organism #50 Fitness: 38 Error: 0 */
genomestart 50
trait 1 0.327507 0.386259 0 0 0 0 0 0 
trait 2 0.49108 0.247858 0 0.0242454 1 0.706136 0 0 
trait 3 0.3 0.0123283 0 0.157963 0 0 0 0 
node 1 3 1 3
node 2 2 1 1
node 3 3 1 1
node 4 1 1 1
node 5 2 0 2
node 6 3 0 2
gene 2 1 5 4.66967 0 1 4.66967 1
gene 1 2 5 -5.29878 0 2 -5.29878 1
gene 3 3 5 0.874176 0 3 0.874176 1
gene 2 4 5 -4.51602 0 4 -4.51602 1
gene 1 1 6 -5.38436 0 5 -5.38436 1
gene 1 2 6 -0.0353425 0 6 -0.0353425 1
gene 2 3 6 3.19506 0 7 3.19506 1
gene 3 4 6 4.12508 0 8 4.12508 1
gene 2 5 5 5.27285 1 49 5.27285 1
gene 3 6 5 2.90979 0 54 2.90979 1
gene 2 5 6 2.86572 1 98 2.86572 1
genomeend 50

/* Species #706 : (Size 1) (AF 73) (Age 3)  */


/* Organism #51 Fitness: 73 Error: 0 */
genomestart 51
trait 1 0.327507 0.386259 0 0 0 0 0 0 
trait 2 0 0.153361 0 0.0242454 0.365747 0.706136 0 0 
trait 3 0.3 0.0123283 0 0.157963 0 0 0 0 
node 1 3 1 3
node 2 3 1 1
node 3 3 1 1
node 4 3 1 1
node 5 2 0 2
node 6 3 0 2
gene 3 1 5 1.1679 0 1 1.1679 1
gene 1 2 5 -1.72041 0 2 -1.72041 1
gene 1 3 5 0.121275 0 3 0.121275 1
gene 2 4 5 0.543325 0 4 0.543325 1
gene 1 1 6 -7.05564 0 5 -7.05564 1
gene 1 2 6 -0.173461 0 6 -0.173461 1
gene 2 3 6 -1.38932 0 7 -1.38932 1
gene 3 4 6 7.80962 0 8 7.80962 1
gene 2 5 5 -3.04123 1 49 -3.04123 1
gene 3 6 5 -1.452 0 54 -1.452 1
gene 1 6 6 0.656204 1 131 0.656204 1
genomeend 51

/* Species #707 : (Size 3) (AF 25.3333) (Age 3)  */


/* Organism #52 Fitness: 0 Error: 0 */
genomestart 52
trait 1 0.327507 0.386259 0 0 0 0 0 0 
trait 2 0.49108 0.247858 0 0.0242454 1 0.706136 0 0 
trait 3 0.3 0.0123283 0 0.157963 0 0 0 0 
node 1 3 1 3
node 2 3 1 1
node 3 3 1 1
node 4 1 1 1
node 5 3 0 2
node 6 3 0 2
gene 2 1 5 1.10305 0 1 1.10305 1
gene 1 2 5 -0.476295 0 2 -0.476295 1
gene 1 3 5 -1.5875 0 3 -1.5875 1
gene 2 4 5 4.20145 0 4 4.20145 1
gene 1 1 6 -0.901727 0 5 -0.901727 1
gene 1 2 6 0.107037 0 6 0.107037 1
gene 2 3 6 -3.47888 0 7 -3.47888 1
gene 3 4 6 -2.72345 0 8 -2.72345 1
gene 2 5 5 -0.143867 1 49 -0.143867 1
gene 3 6 5 -0.795543 0 54 -0.795543 1
genomeend 52

/* Organism #53 Fitness: 38 Error: 0 */
genomestart 53
trait 1 0.327507 0.386259 0 0 0 0 0 0 
trait 2 0.49108 0.247858 0 0.0242454 1 0.706136 0 0 
trait 3 0.3 0.0123283 0 0.157963 0 0 0 0 
node 1 3 1 3
node 2 3 1 1
node 3 3 1 1
node 4 3 1 1
node 5 3 0 2
node 6 3 0 2
gene 2 1 5 2.98118 0 1 2.98118 1
gene 1 2 5 -2.71739 0 2 -2.71739 1
gene 1 3 5 -3.46204 0 3 -3.46204 1
gene 2 4 5 4.41782 0 4 4.41782 1
gene 1 1 6 -0.985535 0 5 -0.985535 1
gene 1 2 6 -0.167276 0 6 -0.167276 1
gene 2 3 6 -3.51725 0 7 -3.51725 1
gene 3 4 6 -3.27165 0 8 -3.27165 1
gene 2 5 5 0.68132 1 49 0.68132 1
gene 3 6 5 -0.795543 0 54 -0.795543 1
genomeend 53

/* Organism #54 Fitness: 38 Error: 0 */
genomestart 54
trait 1 0.327507 0.386259 0 0 0 0 0 0 
trait 2 0.49108 0.247858 0 0.0242454 1 0.706136 0 0 
trait 3 0.3 0.0123283 0 0.157963 0 0 0.542112 0 
node 1 3 1 3
node 2 3 1 1
node 3 3 1 1
node 4 3 1 1
node 5 3 0 2
node 6 3 0 2
gene 2 1 5 1.10305 0 1 1.10305 1
gene 1 2 5 -0.476295 0 2 -0.476295 1
gene 1 3 5 -1.5875 0 3 -1.5875 1
gene 2 4 5 4.20145 0 4 4.20145 1
gene 1 1 6 -0.901727 0 5 -0.901727 1
gene 1 2 6 0.107037 0 6 0.107037 1
gene 2 3 6 -3.47888 0 7 -3.47888 1
gene 3 4 6 -2.72345 0 8 -2.72345 1
gene 2 5 5 -0.143867 1 49 -0.143867 1
gene 3 6 5 -0.795543 0 54 -0.795543 1
genomeend 54

/* Species #710 : (Size 1) (AF 0) (Age 3)  */


/* Organism #55 Fitness: 0 Error: 0 */
genomestart 55
trait 1 0.327507 0.386259 0 0 0 0 0 0 
trait 2 0.49108 0.247858 0 0.0242454 1 0.706136 0 0 
trait 3 0 0.0123283 0 0.157963 0.577441 0.283661 0 0 
node 1 3 1 3
node 2 1 1 1
node 3 3 1 1
node 4 3 1 1
node 5 1 0 2
node 6 3 0 2
gene 2 1 5 -2.79327 0 1 -2.79327 1
gene 1 2 5 -8 0 2 -8 1
gene 1 3 5 3.46738 0 3 3.46738 1
gene 2 4 5 -0.481322 0 4 -0.481322 1
gene 1 1 6 -6.5254 0 5 -6.5254 1
gene 1 2 6 2.19991 0 6 2.19991 1
gene 2 3 6 3.99152 0 7 3.99152 1
gene 3 4 6 6.95408 0 8 6.95408 1
gene 2 5 5 -7.46702 1 49 -7.46702 1
gene 3 6 5 0.00858704 0 54 0.00858704 1
gene 2 5 6 -1.14876 1 98 -1.14876 1
genomeend 55

/* Species #714 : (Size 3) (AF 12.3333) (Age 3)  */


/* Organism #56 Fitness: 0 Error: 0 */
genomestart 56
trait 1 0.327507 0.386259 0 0 0 0 0 0 
trait 2 0.49108 0.247858 0 0.0242454 1 0.706136 0 0 
trait 3 0 0.0123283 0 0.157963 0.577441 0.283661 0 0 
node 1 3 1 3
node 2 2 1 1
node 3 3 1 1
node 4 3 1 1
node 5 1 0 2
node 6 3 0 2
gene 2 1 5 -0.199626 0 1 -0.199626 1
gene 1 2 5 -2.31642 0 2 -2.31642 1
gene 1 3 5 -3.44585 0 3 -3.44585 1
gene 2 4 5 3.86135 0 4 3.86135 1
gene 1 1 6 -0.955271 0 5 -0.955271 1
gene 1 2 6 4.7442 0 6 4.7442 1
gene 2 3 6 0.436372 0 7 0.436372 1
gene 3 4 6 4.0357 0 8 4.0357 1
gene 2 5 5 -3.45835 1 49 -3.45835 1
gene 3 6 5 -0.389239 0 54 -0.389239 1
gene 2 5 6 -1.88955 1 98 -1.88955 1
genomeend 56

/* Organism #57 Fitness: 37 Error: 0 */
genomestart 57
trait 1 0.327507 0.386259 0 0 0 0 0 0 
trait 2 0.49108 0.247858 0 0.0242454 1 0.706136 0 0 
trait 3 0 0.0123283 0 0.157963 0.577441 0.283661 0 0 
node 1 3 1 3
node 2 2 1 1
node 3 3 1 1
node 4 3 1 1
node 5 1 0 2
node 6 3 0 2
gene 2 1 5 2.01281 0 1 2.01281 1
gene 1 2 5 -3.68294 0 2 -3.68294 1
gene 1 3 5 -1.09947 0 3 -1.09947 1
gene 2 4 5 4.88959 0 4 4.88959 1
gene 1 1 6 0.149476 0 5 0.149476 1
gene 1 2 6 -0.839582 0 6 -0.839582 1
gene 2 3 6 -1.77456 0 7 -1.77456 1
gene 3 4 6 5.08752 0 8 5.08752 1
gene 2 5 5 -0.753296 1 49 -0.753296 1
gene 3 6 5 -1.0184 0 54 -1.0184 1
gene 2 5 6 -3.45103 1 98 -3.45103 1
genomeend 57

/* Organism #58 Fitness: 0 Error: 0 */
genomestart 58
trait 1 0.327507 0.386259 0 0 0 0 0 0 
trait 2 0.49108 0.247858 0 0.0242454 1 0.706136 0 0 
trait 3 0 0.0123283 0 0.157963 0.577441 0.283661 0 0 
node 1 3 1 3
node 2 2 1 1
node 3 3 1 1
node 4 3 1 1
node 5 1 0 2
node 6 3 0 2
gene 2 1 5 0.902399 0 1 0.902399 1
gene 1 2 5 -3.11318 0 2 -3.11318 1
gene 1 3 5 -2.63591 0 3 -2.63591 1
gene 2 4 5 5.71685 0 4 5.71685 1
gene 1 1 6 -1.81552 0 5 -1.81552 1
gene 1 2 6 1.02758 0 6 1.02758 1
gene 2 3 6 2.14704 0 7 2.14704 1
gene 3 4 6 4.34639 0 8 4.34639 1
gene 2 5 5 -1.87925 1 49 -1.87925 1
gene 3 6 5 2.18925 0 54 2.18925 1
gene 2 5 6 0.64704 1 98 0.64704 1
genomeend 58

/* Species #715 : (Size 2) (AF 19) (Age 3)  */


/* Organism #59 Fitness: 0 Error: 0 */
genomestart 59
trait 1 0.327507 0.386259 0 0 0 0 0 0 
trait 2 0.49108 0.247858 0 0.0242454 1 0.706136 0 0 
trait 3 0.54223 0.0123283 0 0 0 0.380737 0.581797 0 
node 1 1 1 3
node 2 2 1 1
node 3 3 1 1
node 4 3 1 1
node 5 2 0 2
node 6 3 0 2
gene 2 1 5 3.92674 0 1 3.92674 1
gene 1 2 5 -5.92619 0 2 -5.92619 1
gene 1 3 5 3.455 0 3 3.455 1
gene 2 4 5 -1.2099 0 4 -1.2099 1
gene 1 1 6 -7.31658 0 5 -7.31658 1
gene 1 2 6 3.81231 0 6 3.81231 1
gene 2 3 6 -0.214108 0 7 -0.214108 1
gene 3 4 6 1.65394 0 8 1.65394 1
gene 2 5 5 -0.01633 1 49 -0.01633 1
gene 3 6 5 0.734904 0 54 0.734904 1
genomeend 59

/* Organism #60 Fitness: 38 Error: 0 */
genomestart 60
trait 1 0.327507 0.386259 0 0 0 0 0 0 
trait 2 0.49108 0.247858 0 0.0242454 1 0.706136 0 0 
trait 3 0.601177 0.0123283 0 0.157963 0 0 0 0 
node 1 1 1 3
node 2 2 1 1
node 3 3 1 1
node 4 3 1 1
node 5 2 0 2
node 6 3 0 2
gene 2 1 5 4.20981 0 1 4.20981 1
gene 1 2 5 -3.77006 0 2 -3.77006 1
gene 1 3 5 3.99718 0 3 3.99718 1
gene 2 4 5 -1.19853 0 4 -1.19853 1
gene 1 1 6 -8 0 5 -8 1
gene 1 2 6 2.41338 0 6 2.41338 1
gene 2 3 6 -0.657098 0 7 -0.657098 1
gene 3 4 6 -0.625152 0 8 -0.625152 1
gene 2 5 5 0.450838 1 49 0.450838 1
gene 3 6 5 0.0414622 0 54 0.0414622 1
genomeend 60

/* Species #722 : (Size 2) (AF 37) (Age 2)  */


/* Organism #61 Fitness: 37 Error: 0 */
genomestart 61
trait 1 0 0.886499 0 0 0 0 0 0 
trait 2 0.2 0 0 0 0 0 0 0 
trait 3 0.3 0 0 0 0 0 0 0 
node 1 3 1 3
node 2 2 1 1
node 3 1 1 1
node 4 2 1 1
node 5 3 0 2
node 6 3 0 2
gene 1 1 5 -4.28245 0 1 -4.28245 1
gene 3 2 5 -4.87716 0 2 -4.87716 1
gene 3 3 5 6.28058 0 3 6.28058 1
gene 3 4 5 -1.45587 0 4 -1.45587 1
gene 2 1 6 -6.77308 0 5 -6.77308 1
gene 3 2 6 1.54791 0 6 1.54791 1
gene 1 3 6 -0.164234 0 7 -0.164234 1
gene 1 4 6 -5.67652 0 8 -5.67652 1
gene 1 5 6 -3.96923 0 20 -3.96923 1
gene 1 6 5 -1.63897 1 24 -1.63897 1
genomeend 61

/* Organism #62 Fitness: 37 Error: 0 */
genomestart 62
trait 1 0 0.886499 0 0 0 0 0 0 
trait 2 0.2 0 0 0 0 0 0 0 
trait 3 0.3 0 0 0 0 0 0 0 
node 1 3 1 3
node 2 2 1 1
node 3 1 1 1
node 4 2 1 1
node 5 3 0 2
node 6 3 0 2
gene 1 1 5 -3.07131 0 1 -3.07131 1
gene 3 2 5 -3.62192 0 2 -3.62192 1
gene 3 3 5 5.23453 0 3 5.23453 1
gene 3 4 5 -2.89116 0 4 -2.89116 1
gene 2 1 6 -8 0 5 -8 1
gene 3 2 6 -0.605022 0 6 -0.605022 1
gene 1 3 6 0.215669 0 7 0.215669 1
gene 1 4 6 -8 0 8 -8 1
gene 1 5 6 -2.06082 0 20 -2.06082 1
gene 1 6 5 -1.63897 1 24 -1.63897 1
genomeend 62

/* Species #728 : (Size 1) (AF 37) (Age 2)  */


/* Organism #63 Fitness: 37 Error: 0 */
genomestart 63
trait 1 0.327507 0.386259 0 0 0 0 0 0 
trait 2 0.49108 0.247858 0 0.0242454 1 0.706136 0 0 
trait 3 0.3 0.0123283 0 0.157963 0 0 0 0 
node 1 3 1 3
node 2 3 1 1
node 3 3 1 1
node 4 3 1 1
node 5 3 0 2
node 6 3 0 2
gene 2 1 5 2.29443 0 1 2.29443 1
gene 1 2 5 -6.7422 0 2 -6.7422 1
gene 1 3 5 -2.58395 0 3 -2.58395 1
gene 2 4 5 5.73316 0 4 5.73316 1
gene 1 1 6 -2.01607 0 5 -2.01607 1
gene 1 2 6 -1.39673 0 6 -1.39673 1
gene 2 3 6 -5.67142 0 7 -5.67142 1
gene 3 4 6 8 0 8 8 1
gene 2 5 5 -1.90191 1 49 -1.90191 1
gene 3 6 5 -3.67978 0 54 -3.67978 1
genomeend 63

/* Species #729 : (Size 1) (AF 38) (Age 2)  */


/* Organism #64 Fitness: 38 Error: 0 */
genomestart 64
trait 1 0.327507 0.386259 0 0 0 0 0 0 
trait 2 0.49108 0.247858 0 0.0242454 1 0.706136 0 0 
trait 3 0.3 0.0123283 0 0.157963 0 0 0 0 
node 1 3 1 3
node 2 2 1 1
node 3 3 1 1
node 4 3 1 1
node 5 2 0 2
node 6 3 0 2
gene 2 1 5 1.4041 0 1 1.4041 1
gene 1 2 5 -6.93254 0 2 -6.93254 1
gene 1 3 5 -0.0768253 0 3 -0.0768253 1
gene 2 4 5 1.18047 0 4 1.18047 1
gene 1 1 6 -1.531 0 5 -1.531 1
gene 1 2 6 -3.60631 0 6 -3.60631 1
gene 2 3 6 -0.426104 0 7 -0.426104 1
gene 3 4 6 1.83413 0 8 1.83413 1
gene 2 5 5 1.18518 1 49 1.18518 1
gene 2 6 5 0.236874 0 54 0.236874 1
gene 2 5 6 1.2268 1 98 1.2268 1
genomeend 64

/* Species #738 : (Size 5) (AF 29.8) (Age 2)  */


/* Organism #65 Fitness: 37 Error: 0 */
genomestart 65
trait 1 0.327507 1 0 0 0.209301 0 0 0 
trait 2 0.49108 0.247858 0 0.0242454 1 0.706136 0 0 
trait 3 0.3 0.0123283 0 0.157963 0 0 0 0 
node 1 3 1 3
node 2 2 1 1
node 3 3 1 1
node 4 1 1 1
node 5 2 0 2
node 6 3 0 2
gene 2 1 5 3.24709 0 1 3.24709 1
gene 1 2 5 -4.57513 0 2 -4.57513 1
gene 3 3 5 0.0574506 0 3 0.0574506 1
gene 2 4 5 -4.47947 0 4 -4.47947 1
gene 1 1 6 -8 0 5 -8 1
gene 1 2 6 -1.37632 0 6 -1.37632 1
gene 2 3 6 3.95637 0 7 3.95637 1
gene 3 4 6 -3.53187 0 8 -3.53187 1
gene 2 5 5 4.06937 1 49 4.06937 1
gene 3 6 5 -2.31848 0 54 -2.31848 1
gene 2 5 6 -0.807811 1 98 -0.807811 1
genomeend 65

/* Organism #66 Fitness: 0 Error: 0 */
genomestart 66
trait 1 0.327507 0.69313 0 0 0.10465 0 0 0 
trait 2 0.49108 0.247858 0 0.0242454 1 0.706136 0 0 
trait 3 0.3 0.0123283 0 0.157963 0 0 0 0 
node 1 3 1 3
node 2 2 1 1
node 3 3 1 1
node 4 1 1 1
node 5 2 0 2
node 6 3 0 2
gene 2 1 5 3.24709 0 1 3.24709 1
gene 1 2 5 -4.54226 0 2 -4.54226 1
gene 3 3 5 0.0574506 0 3 0.0574506 1
gene 2 4 5 -4.47947 0 4 -4.47947 1
gene 1 1 6 -8 0 5 -8 1
gene 1 2 6 -1.40066 0 6 -1.40066 1
gene 2 3 6 -0.378897 0 7 -0.378897 1
gene 3 4 6 -3.53187 0 8 -3.53187 1
gene 2 5 5 5.43291 1 49 5.43291 1
gene 3 6 5 -2.31848 0 54 -2.31848 1
gene 2 5 6 -1.24801 1 98 -1.24801 1
genomeend 66

/* Organism #67 Fitness: 37 Error: 0 */
genomestart 67
trait 1 0.327507 0.386259 0 0 0 0 0 0 
trait 2 0.49108 0.247858 0 0.0242454 1 0.706136 0 0 
trait 3 0.3 0.0123283 0 0.157963 0 0 0 0 
node 1 3 1 3
node 2 2 1 1
node 3 3 1 1
node 4 1 1 1
node 5 2 0 2
node 6 3 0 2
gene 2 1 5 4.9444 0 1 4.9444 1
gene 1 2 5 -2.52999 0 2 -2.52999 1
gene 3 3 5 -1.26704 0 3 -1.26704 1
gene 2 4 5 -0.18601 0 4 -0.18601 1
gene 1 1 6 -5.45133 0 5 -5.45133 1
gene 1 2 6 -0.291754 0 6 -0.291754 1
gene 2 3 6 -2.48218 0 7 -2.48218 1
gene 3 4 6 -5.46682 0 8 -5.46682 1
gene 2 5 5 7.07129 1 49 7.07129 1
gene 3 6 5 -1.17526 0 54 -1.17526 1
gene 2 5 6 -1.24801 1 98 -1.24801 1
genomeend 67

/* Organism #68 Fitness: 37 Error: 0 */
genomestart 68
trait 1 0.327507 0.69313 0 0 0.10465 0 0 0 
trait 2 0.49108 0.247858 0 0.0242454 1 0.706136 0 0 
trait 3 0.3 0.0123283 0 0.157963 0 0 0 0 
node 1 3 1 3
node 2 2 1 1
node 3 3 1 1
node 4 1 1 1
node 5 2 0 2
node 6 3 0 2
gene 2 1 5 2.64118 0 1 2.64118 1
gene 1 2 5 -4.54226 0 2 -4.54226 1
gene 3 3 5 -0.037079 0 3 -0.037079 1
gene 2 4 5 0.0722556 0 4 0.0722556 1
gene 2 1 6 -8 0 5 -8 1
gene 1 2 6 -1.37632 0 6 -1.37632 1
gene 2 3 6 3.95637 0 7 3.95637 1
gene 3 4 6 -3.53187 0 8 -3.53187 1
gene 2 5 5 4.06937 1 49 4.06937 1
gene 3 6 5 -2.31848 0 54 -2.31848 1
gene 2 5 6 -1.24801 1 98 -1.24801 1
genomeend 68

/* Organism #69 Fitness: 38 Error: 0 */
genomestart 69
trait 1 0.327507 0.386259 0 0 0 0 0 0 
trait 2 0.49108 0.247858 0 0.0242454 1 0.706136 0 0 
trait 3 0.3 0.0123283 0 0.157963 0 0 0 0 
node 1 3 1 3
node 2 2 1 1
node 3 3 1 1
node 4 1 1 1
node 5 2 0 2
node 6 3 0 2
gene 2 1 5 3.36041 0 1 3.36041 1
gene 1 2 5 -4.95307 0 2 -4.95307 1
gene 3 3 5 1.98552 0 3 1.98552 1
gene 2 4 5 -1.27546 0 4 -1.27546 1
gene 1 1 6 -8 0 5 -8 1
gene 1 2 6 -2.31656 0 6 -2.31656 1
gene 2 3 6 1.14059 0 7 1.14059 1
gene 3 4 6 -5.9208 0 8 -5.9208 1
gene 2 5 5 4.20609 1 49 4.20609 1
gene 3 6 5 2.38505 0 54 2.38505 1
gene 2 5 6 -0.0587738 1 98 -0.0587738 1
genomeend 69

/* Species #740 : (Size 4) (AF 28.5) (Age 2)  */


/* Organism #70 Fitness: 0 Error: 0 */
genomestart 70
trait 1 0.327507 0.386259 0 0 0 0 0 0 
trait 2 0.49108 0.247858 0 0.0242454 1 0.706136 0 0 
trait 3 0.3 0.0123283 0 0.157963 0 0 0 0 
node 1 3 1 3
node 2 1 1 1
node 3 3 1 1
node 4 3 1 1
node 5 3 0 2
node 6 3 0 2
gene 2 1 5 -0.306896 0 1 -0.306896 1
gene 1 2 5 -5.04413 0 2 -5.04413 1
gene 1 3 5 3.82533 0 3 3.82533 1
gene 2 4 5 4.6047 0 4 4.6047 1
gene 1 1 6 -1.06172 0 5 -1.06172 1
gene 1 2 6 -0.694659 0 6 -0.694659 1
gene 2 3 6 -5.49552 0 7 -5.49552 1
gene 3 4 6 1.77819 0 8 1.77819 1
gene 2 5 5 0.514429 1 49 0.514429 1
gene 3 6 5 -0.373338 0 54 -0.373338 1
genomeend 70

/* Organism #71 Fitness: 38 Error: 0 */
genomestart 71
trait 1 0.327507 0.386259 0 0 0 0 0 0 
trait 2 0.49108 0.247858 0 0.0242454 1 0.706136 0 0 
trait 3 0.3 0.0123283 0 0.157963 0 0 0 0 
node 1 3 1 3
node 2 1 1 1
node 3 3 1 1
node 4 3 1 1
node 5 3 0 2
node 6 3 0 2
gene 2 1 5 1.95239 0 1 1.95239 1
gene 1 2 5 -2.77689 0 2 -2.77689 1
gene 1 3 5 4.51617 0 3 4.51617 1
gene 2 4 5 3.55768 0 4 3.55768 1
gene 1 1 6 1.05392 0 5 1.05392 1
gene 1 2 6 -0.694659 0 6 -0.694659 1
gene 2 3 6 -5.84601 0 7 -5.84601 1
gene 3 4 6 3.54132 0 8 3.54132 1
gene 2 5 5 -1.39744 1 49 -1.39744 1
gene 2 6 5 -0.373338 0 54 -0.373338 1
genomeend 71

/* Organism #72 Fitness: 38 Error: 0 */
genomestart 72
trait 1 0.327507 0.386259 0 0 0.551115 0 0 0 
trait 2 0.49108 0.247858 0 0.0242454 1 0.706136 0 0 
trait 3 0.3 0.0123283 0 0.157963 0 0 0 0 
node 1 3 1 3
node 2 1 1 1
node 3 1 1 1
node 4 3 1 1
node 5 3 0 2
node 6 3 0 2
gene 2 1 5 3.54223 0 1 3.54223 1
gene 1 2 5 -2.09239 0 2 -2.09239 1
gene 1 3 5 2.56576 0 3 2.56576 1
gene 2 4 5 5.49952 0 4 5.49952 1
gene 1 1 6 0.425908 0 5 0.425908 1
gene 1 2 6 -0.271502 0 6 -0.271502 1
gene 2 3 6 -4.70523 0 7 -4.70523 1
gene 3 4 6 3.76161 0 8 3.76161 1
gene 2 5 5 -1.39744 1 49 -1.39744 1
gene 3 6 5 -0.373338 0 54 -0.373338 1
genomeend 72

/* Organism #73 Fitness: 38 Error: 0 */
genomestart 73
trait 1 0.327507 0.386259 0 0 0 0 0 0 
trait 2 0.49108 0.247858 0 0.0242454 1 0.706136 0 0 
trait 3 0.3 0.0123283 0 0.157963 0 0 0 0 
node 1 3 1 3
node 2 1 1 1
node 3 3 1 1
node 4 3 1 1
node 5 3 0 2
node 6 3 0 2
gene 2 1 5 1.53851 0 1 1.53851 1
gene 1 2 5 -4.13753 0 2 -4.13753 1
gene 1 3 5 6.63869 0 3 6.63869 1
gene 2 4 5 5.56575 0 4 5.56575 1
gene 1 1 6 0.0606656 0 5 0.0606656 1
gene 1 2 6 1.39816 0 6 1.39816 1
gene 2 3 6 -3.54621 0 7 -3.54621 1
gene 3 4 6 4.79336 0 8 4.79336 1
gene 2 5 5 -0.759395 1 49 -0.759395 1
gene 3 6 5 -1.55552 0 54 -1.55552 1
genomeend 73

/* Species #741 : (Size 1) (AF 38) (Age 2)  */


/* Organism #74 Fitness: 38 Error: 0 */
genomestart 74
trait 1 0.327507 0.386259 0 0 0 0 0 0 
trait 2 0.49108 0.247858 0 0.0242454 1 0.706136 0 0 
trait 3 0 0.0123283 0 0.157963 0.577441 0.283661 0 0 
node 1 3 1 3
node 2 1 1 1
node 3 3 1 1
node 4 3 1 1
node 5 1 0 2
node 6 3 0 2
gene 2 1 5 -1.62919 0 1 -1.62919 1
gene 1 2 5 -8 0 2 -8 1
gene 1 3 5 8 0 3 8 1
gene 2 4 5 5.24728 0 4 5.24728 1
gene 1 1 6 -3.00411 0 5 -3.00411 1
gene 1 2 6 -1.115 0 6 -1.115 1
gene 2 3 6 1.41565 0 7 1.41565 1
gene 3 4 6 4.83854 0 8 4.83854 1
gene 2 5 5 -1.16922 1 49 -1.16922 1
gene 3 6 5 0.523563 0 54 0.523563 1
gene 2 5 6 1.4481 1 98 1.4481 1
genomeend 74

/* Species #743 : (Size 3) (AF 5.66667) (Age 2)  */


/* Organism #75 Fitness: 0 Error: 0 */
genomestart 75
trait 1 0.327507 0.386259 0 0 0 0 0 0 
trait 2 0.49108 0.247858 0 0.0242454 1 0.706136 0 0 
trait 3 0 0.0123283 0 0.989125 0.577441 1 0 0 
node 1 3 1 3
node 2 2 1 1
node 3 1 1 1
node 4 3 1 1
node 5 1 0 2
node 6 3 0 2
gene 2 1 5 0.67207 0 1 0.67207 1
gene 1 2 5 -5.10465 0 2 -5.10465 1
gene 1 3 5 0.845872 0 3 0.845872 1
gene 2 4 5 6.70121 0 4 6.70121 1
gene 1 1 6 -0.841254 0 5 -0.841254 1
gene 1 2 6 1.72786 0 6 1.72786 1
gene 2 3 6 1.98587 0 7 1.98587 1
gene 3 4 6 5.81534 0 8 5.81534 1
gene 2 5 5 0.914787 1 49 0.914787 1
gene 3 6 5 0.956909 0 54 0.956909 1
gene 2 5 6 -1.59031 1 98 -1.59031 1
genomeend 75

/* Organism #76 Fitness: 0 Error: 0 */
genomestart 76
trait 1 0.327507 0.386259 0 0 0 0 0 0 
trait 2 0.49108 0.247858 0 0.0242454 1 0.706136 0 0 
trait 3 0 0.0123283 0 0.157963 0.577441 0.283661 0 0 
node 1 3 1 3
node 2 2 1 1
node 3 3 1 1
node 4 3 1 1
node 5 1 0 2
node 6 3 0 2
gene 2 1 5 -0.76004 0 1 -0.76004 1
gene 1 2 5 -2.36739 0 2 -2.36739 1
gene 1 3 5 -0.283625 0 3 -0.283625 1
gene 2 4 5 7.33188 0 4 7.33188 1
gene 1 1 6 -3.53831 0 5 -3.53831 1
gene 1 2 6 -2.31856 0 6 -2.31856 1
gene 2 3 6 1.89696 0 7 1.89696 1
gene 3 4 6 3.07686 0 8 3.07686 1
gene 2 5 5 -2.51186 1 49 -2.51186 1
gene 3 6 5 1.72134 0 54 1.72134 1
gene 2 5 6 1.79989 1 98 1.79989 1
genomeend 76

/* Organism #77 Fitness: 17 Error: 0 */
genomestart 77
trait 1 0.327507 0.386259 0 0 0 0 0 0 
trait 2 0.49108 0.247858 0 0.0242454 1 0.706136 0 0 
trait 3 0 0.0123283 0 0.157963 0.577441 0.283661 0 0 
node 1 3 1 3
node 2 2 1 1
node 3 3 1 1
node 4 3 1 1
node 5 1 0 2
node 6 3 0 2
gene 2 1 5 -3.354 0 1 -3.354 1
gene 1 2 5 -2.506 0 2 -2.506 1
gene 1 3 5 -3.91647 0 3 -3.91647 1
gene 2 4 5 6.46393 0 4 6.46393 1
gene 1 1 6 -4.96048 0 5 -4.96048 1
gene 1 2 6 0.330776 0 6 0.330776 1
gene 2 3 6 0.247818 0 7 0.247818 1
gene 3 4 6 2.4838 0 8 2.4838 1
gene 2 5 5 -1.06633 1 49 -1.06633 1
gene 3 6 5 -0.121791 0 54 -0.121791 1
gene 2 5 6 -0.821761 1 98 -0.821761 1
genomeend 77

/* Species #745 : (Size 1) (AF 0) (Age 1)  */


/* Organism #78 Fitness: 0 Error: 0 */
genomestart 78
trait 1 0.327507 0.386259 0 0 0 0 0 0 
trait 2 0 0.153361 0 0.0242454 0.365747 0.706136 0 0 
trait 3 0.3 0.0123283 0 0.157963 0 0 0 0 
node 1 3 1 3
node 2 3 1 1
node 3 3 1 1
node 4 3 1 1
node 5 2 0 2
node 6 3 0 2
gene 3 1 5 -3.75139 0 1 -3.75139 1
gene 1 2 5 -0.0333248 0 2 -0.0333248 1
gene 1 3 5 1.38099 0 3 1.38099 1
gene 2 4 5 -3.14255 0 4 -3.14255 1
gene 1 1 6 -6.55871 0 5 -6.55871 1
gene 1 2 6 0.292334 0 6 0.292334 1
gene 2 3 6 -1.60787 0 7 -1.60787 1
gene 3 4 6 0.607387 0 8 0.607387 1
gene 2 5 5 -5.35613 1 49 -5.35613 1
gene 3 6 5 -1.16043 0 54 -1.16043 1
genomeend 78

/* Species #746 : (Size 1) (AF 0) (Age 1)  */


/* Organism #79 Fitness: 0 Error: 0 */
genomestart 79
trait 1 0.327507 0.386259 0 0 0 0 0 0 
trait 2 0.49108 0.247858 0 0.0242454 1 0.706136 0 0 
trait 3 0.3 0.0123283 0 0.157963 0 0 0 0 
node 1 3 1 3
node 2 3 1 1
node 3 3 1 1
node 4 3 1 1
node 5 3 0 2
node 6 3 0 2
gene 2 1 5 4.46221 0 1 4.46221 1
gene 1 2 5 -7.25831 0 2 -7.25831 1
gene 1 3 5 -0.343321 0 3 -0.343321 1
gene 2 4 5 3.91622 0 4 3.91622 1
gene 1 1 6 0.86835 0 5 0.86835 1
gene 3 2 6 -1.5367 0 6 -1.5367 1
gene 2 3 6 -8 0 7 -8 1
gene 3 4 6 -0.380577 0 8 -0.380577 1
gene 2 5 5 0.356875 1 49 0.356875 1
gene 3 6 5 0.0327596 0 54 0.0327596 1
genomeend 79

/* Species #747 : (Size 2) (AF 10) (Age 1)  */


/* Organism #80 Fitness: 0 Error: 0 */
genomestart 80
trait 1 0.327507 0.386259 0 0 0 0 0 0 
trait 2 0.49108 0.247858 0 0.0242454 1 0.706136 0 0 
trait 3 0 0.0123283 0 0.157963 0.577441 0.283661 0 0 
node 1 3 1 3
node 2 1 1 1
node 3 3 1 1
node 4 3 1 1
node 5 1 0 2
node 6 3 0 2
gene 2 1 5 1.16143 0 1 1.16143 1
gene 1 2 5 -8 0 2 -8 1
gene 1 3 5 8 0 3 8 1
gene 2 4 5 4.69188 0 4 4.69188 1
gene 1 1 6 -1.11145 0 5 -1.11145 1
gene 1 2 6 3.74676 0 6 3.74676 1
gene 2 3 6 -3.45983 0 7 -3.45983 1
gene 3 4 6 3.23493 0 8 3.23493 1
gene 2 5 5 -6.89736 1 49 -6.89736 1
gene 3 6 5 0.985815 0 54 0.985815 1
gene 2 5 6 0.507708 1 98 0.507708 1
genomeend 80

/* Organism #81 Fitness: 20 Error: 0 */
genomestart 81
trait 1 0.327507 0.386259 0 0 0 0 0 0 
trait 2 0.49108 0.247858 0 0.0242454 1 0.706136 0 0 
trait 3 0 0.0123283 0 0.157963 0.577441 0.283661 0 0 
node 1 3 1 3
node 2 1 1 1
node 3 3 1 1
node 4 3 1 1
node 5 1 0 2
node 6 3 0 2
gene 2 1 5 0.890189 0 1 0.890189 1
gene 1 2 5 -6.12708 0 2 -6.12708 1
gene 1 3 5 8 0 3 8 1
gene 2 4 5 2.83368 0 4 2.83368 1
gene 1 1 6 1.33899 0 5 1.33899 1
gene 1 2 6 -1.75086 0 6 -1.75086 1
gene 2 3 6 -3.2637 0 7 -3.2637 1
gene 3 4 6 5.12545 0 8 5.12545 1
gene 2 5 5 -6.99017 1 49 -6.99017 1
gene 3 6 5 2.71085 0 54 2.71085 1
gene 2 5 6 0.583621 1 98 0.583621 1
genomeend 81

/* Species #748 : (Size 1) (AF 0) (Age 1)  */


/* Organism #82 Fitness: 0 Error: 0 */
genomestart 82
trait 1 0.327507 0.386259 0 0 0 0 0 0 
trait 2 0.49108 0.247858 0 0.0242454 1 0.706136 0 0 
trait 3 0.3 0.0123283 0 0.157963 0 0 0 0 
node 1 3 1 3
node 2 3 1 1
node 3 3 1 1
node 4 3 1 1
node 5 2 0 2
node 6 1 0 2
gene 2 1 5 -0.384807 0 1 -0.384807 1
gene 1 2 5 -5.05256 0 2 -5.05256 1
gene 1 3 5 -3.42016 0 3 -3.42016 1
gene 2 4 5 -0.169242 0 4 -0.169242 1
gene 1 1 6 -0.216477 0 5 -0.216477 1
gene 1 2 6 0.436525 0 6 0.436525 1
gene 2 3 6 -8 0 7 -8 1
gene 3 4 6 3.75329 0 8 3.75329 1
gene 2 5 5 -0.14937 1 49 -0.14937 1
gene 3 6 5 -1.50436 0 54 -1.50436 1
genomeend 82

/* Species #749 : (Size 1) (AF 0) (Age 1)  */


/* Organism #83 Fitness: 0 Error: 0 */
genomestart 83
trait 1 0.327507 0.386259 0 0 0 0 0 0 
trait 2 0.49108 0.247858 0 0.0242454 1 0.706136 0 0 
trait 3 0.3 0.0123283 0 0.157963 0 0 0 0 
node 1 3 1 3
node 2 2 1 1
node 3 3 1 1
node 4 3 1 1
node 5 1 0 2
node 6 3 0 2
gene 2 1 5 1.76127 0 1 1.76127 1
gene 1 2 5 -5.70933 0 2 -5.70933 1
gene 1 3 5 -1.66722 0 3 -1.66722 1
gene 2 4 5 2.01919 0 4 2.01919 1
gene 1 1 6 -8 0 5 -8 1
gene 1 2 6 -1.52765 0 6 -1.52765 1
gene 2 3 6 4.60497 0 7 4.60497 1
gene 3 4 6 0.104296 0 8 0.104296 1
gene 2 5 5 1.98336 1 49 1.98336 1
gene 3 6 5 3.19735 0 54 3.19735 1
gene 2 5 6 -2.74793 1 98 -2.74793 1
gene 2 6 6 0.874496 1 129 0.874496 1
genomeend 83

/* Species #750 : (Size 1) (AF 136) (Age 1)  */


/* Organism #84 Fitness: 136 Error: 0 */
genomestart 84
trait 1 0.327507 0.386259 0 0 0 0 0 0 
trait 2 0.49108 0.247858 0 0.0242454 1 0.706136 0 0 
trait 3 0.3 0.0123283 0 0.157963 0 0 0 0 
node 1 3 1 3
node 2 2 1 1
node 3 3 1 1
node 4 1 1 1
node 5 2 0 2
node 6 3 0 2
gene 2 1 5 3.87138 0 1 3.87138 1
gene 1 2 5 -3.13372 0 2 -3.13372 1
gene 3 3 5 -0.63615 0 3 -0.63615 1
gene 2 4 5 -5.23364 0 4 -5.23364 1
gene 1 1 6 -0.899226 0 5 -0.899226 1
gene 1 2 6 -2.35455 0 6 -2.35455 1
gene 2 3 6 5.84405 0 7 5.84405 1
gene 3 4 6 -6.45925 0 8 -6.45925 1
gene 2 5 5 1.64706 1 49 1.64706 1
gene 3 6 5 0.566509 0 54 0.566509 1
gene 2 5 6 -0.698736 1 98 -0.698736 1
genomeend 84

/* Species #751 : (Size 2) (AF 78) (Age 1)  */


/* Organism #85 Fitness: 38 Error: 0 */
genomestart 85
trait 1 0.327507 0.386259 0 0 0 0 0 0 
trait 2 0.49108 0.247858 0 0.0242454 1 0.706136 0 0 
trait 3 0.3 0.0123283 0 0.157963 0 0 0 0 
node 1 3 1 3
node 2 2 1 1
node 3 3 1 1
node 4 1 1 1
node 5 2 0 2
node 6 3 0 2
gene 2 1 5 4.3888 0 1 4.3888 1
gene 1 2 5 -3.47375 0 2 -3.47375 1
gene 3 3 5 0.519799 0 3 0.519799 1
gene 2 4 5 -3.19277 0 4 -3.19277 1
gene 1 1 6 -6.06274 0 5 -6.06274 1
gene 1 2 6 0.579663 0 6 0.579663 1
gene 2 3 6 3.46928 0 7 3.46928 1
gene 3 4 6 -3.92265 0 8 -3.92265 1
gene 2 5 5 4.68157 1 49 4.68157 1
gene 3 6 5 1.87593 0 54 1.87593 1
gene 2 5 6 1.2384 1 98 1.2384 1
genomeend 85

/* Organism #86 Fitness: 118 Error: 0 */
genomestart 86
trait 1 0.327507 0.386259 0 0 0 0 0 0 
trait 2 0.49108 0.247858 0 0.0242454 1 0.706136 0 0 
trait 3 0.3 0.0123283 0 0.157963 0 0 0 0 
node 1 3 1 3
node 2 2 1 1
node 3 3 1 1
node 4 1 1 1
node 5 2 0 2
node 6 3 0 2
gene 2 1 5 4.0282 0 1 4.0282 1
gene 1 2 5 -2.25303 0 2 -2.25303 1
gene 3 3 5 0.519799 0 3 0.519799 1
gene 2 4 5 -4.39787 0 4 -4.39787 1
gene 1 1 6 1.64487 0 5 1.64487 1
gene 1 2 6 -1.86715 0 6 -1.86715 1
gene 2 3 6 3.46928 0 7 3.46928 1
gene 3 4 6 -3.53187 0 8 -3.53187 1
gene 2 5 5 4.83963 1 49 4.83963 1
gene 3 6 5 -0.296193 0 54 -0.296193 1
gene 2 5 6 1.51143 1 98 1.51143 1
genomeend 86

/* Species #752 : (Size 1) (AF 0) (Age 1)  */


/* Organism #87 Fitness: 0 Error: 0 */
genomestart 87
trait 1 0.327507 0.386259 0 0 0 0 0 0 
trait 2 0.49108 0.247858 0 0.0242454 1 0.706136 0 0 
trait 3 0.3 0.0123283 0 0.157963 0 0 0 0 
node 1 3 1 3
node 2 2 1 1
node 3 3 1 1
node 4 1 1 1
node 5 2 0 2
node 6 3 0 2
gene 2 1 5 3.95927 0 1 3.95927 1
gene 1 2 5 -1.54154 0 2 -1.54154 1
gene 3 3 5 2.70372 0 3 2.70372 1
gene 2 4 5 -6.89869 0 4 -6.89869 1
gene 1 1 6 -5.06958 0 5 -5.06958 1
gene 1 2 6 -3.66143 0 6 -3.66143 1
gene 2 3 6 4.15008 0 7 4.15008 1
gene 3 4 6 -4.35043 0 8 -4.35043 1
gene 2 5 5 4.89144 1 49 4.89144 1
gene 3 6 5 0.726721 0 54 0.726721 1
gene 2 5 6 -1.67172 1 98 -1.67172 1
genomeend 87

/* Species #753 : (Size 1) (AF 0) (Age 1)  */


/* Organism #88 Fitness: 0 Error: 0 */
genomestart 88
trait 1 0.327507 0.386259 0 0 0 0 0 0 
trait 2 0.49108 0.247858 0 0.0242454 1 0.706136 0 0 
trait 3 0 0.0123283 0 0.157963 0.577441 0.283661 0 0 
node 1 3 1 3
node 2 2 1 1
node 3 3 1 1
node 4 3 1 1
node 5 1 0 2
node 6 3 0 2
gene 2 1 5 2.52204 0 1 2.52204 1
gene 1 2 5 -5.80023 0 2 -5.80023 1
gene 1 3 5 -0.538393 0 3 -0.538393 1
gene 2 4 5 -2.0816 0 4 -2.0816 1
gene 1 1 6 -1.97632 0 5 -1.97632 1
gene 1 2 6 -1.12557 0 6 -1.12557 1
gene 2 3 6 -1.92342 0 7 -1.92342 1
gene 3 4 6 -1.62478 0 8 -1.62478 1
gene 2 5 5 -6.48253 1 49 -6.48253 1
gene 3 6 5 0.603986 0 54 0.603986 1
gene 2 5 6 1.76744 1 98 1.76744 1
genomeend 88

/* Species #754 : (Size 1) (AF 36) (Age 1)  */


/* Organism #89 Fitness: 36 Error: 0 */
genomestart 89
trait 1 0.327507 0.386259 0 0 0 0 0 0 
trait 2 0.49108 0.247858 0 0.0242454 1 0.706136 0 0 
trait 3 0.3 0.0123283 0 0.157963 0 0 0 0 
node 1 3 1 3
node 2 2 1 1
node 3 3 1 1
node 4 1 1 1
node 5 2 0 2
node 6 3 0 2
gene 2 1 5 7.00677 0 1 7.00677 1
gene 1 2 5 -1.51051 0 2 -1.51051 1
gene 3 3 5 -0.87809 0 3 -0.87809 1
gene 2 4 5 -3.83322 0 4 -3.83322 1
gene 1 1 6 -7.35669 0 5 -7.35669 1
gene 1 2 6 -0.0984942 0 6 -0.0984942 1
gene 2 3 6 2.98989 0 7 2.98989 1
gene 3 4 6 1.78204 0 8 1.78204 1
gene 2 5 5 8 1 49 8 1
gene 3 6 5 -1.07977 0 54 -1.07977 1
gene 2 5 6 2.16259 1 98 2.16259 1
genomeend 89

/* Species #755 : (Size 1) (AF 0) (Age 1)  */


/* Organism #90 Fitness: 0 Error: 0 */
genomestart 90
trait 1 0.327507 0.386259 0 0 0 0 0 0 
trait 2 0.49108 0.247858 0 0.0242454 1 0.706136 0 0 
trait 3 0.3 0.0123283 0 0.157963 0 0 0 0 
node 1 3 1 3
node 2 2 1 1
node 3 3 1 1
node 4 1 1 1
node 5 2 0 2
node 6 3 0 2
gene 2 1 5 3.18927 0 1 3.18927 1
gene 1 2 5 -0.556756 0 2 -0.556756 1
gene 3 3 5 -3.19719 0 3 -3.19719 1
gene 2 4 5 -5.34935 0 4 -5.34935 1
gene 1 1 6 -4.13381 0 5 -4.13381 1
gene 3 2 6 -1.66008 0 6 -1.66008 1
gene 2 3 6 7.72549 0 7 7.72549 1
gene 3 4 6 4.0177 0 8 4.0177 1
gene 2 5 5 8 1 49 8 1
gene 3 6 5 3.48593 0 54 3.48593 1
gene 2 5 6 2.14099 1 98 2.14099 1
genomeend 90

/* Species #756 : (Size 1) (AF 0) (Age 1)  */


/* Organism #91 Fitness: 0 Error: 0 */
genomestart 91
trait 1 0.327507 0.386259 0 0 0 0 0 0 
trait 2 0 0.153361 0 0.0242454 0.365747 0.706136 0 0 
trait 3 0.3 0.0123283 0 0.157963 0 0 0 0 
node 1 3 1 3
node 2 3 1 1
node 3 3 1 1
node 4 3 1 1
node 5 2 0 2
node 6 3 0 2
gene 3 1 5 3.31178 0 1 3.31178 1
gene 1 2 5 -3.75436 0 2 -3.75436 1
gene 1 3 5 3.75008 0 3 3.75008 1
gene 2 4 5 -2.82222 0 4 -2.82222 1
gene 1 1 6 -8 0 5 -8 1
gene 1 2 6 1.33785 0 6 1.33785 1
gene 2 3 6 -4.06503 0 7 -4.06503 1
gene 3 4 6 5.59303 0 8 5.59303 1
gene 2 5 5 0.727521 1 49 0.727521 1
gene 3 6 5 -0.579941 0 54 -0.579941 1
gene 2 6 6 0.338797 1 130 0.338797 1
genomeend 91

/* Species #757 : (Size 1) (AF 38) (Age 1)  */


/* Organism #92 Fitness: 38 Error: 0 */
genomestart 92
trait 1 0.327507 0.386259 0 0 0 0 0 0 
trait 2 0 0.153361 0 0.0242454 0.365747 0.706136 0 0 
trait 3 0.3 0.0123283 0 0.157963 0 0 0 0 
node 1 3 1 3
node 2 3 1 1
node 3 3 1 1
node 4 3 1 1
node 5 2 0 2
node 6 3 0 2
gene 3 1 5 4.73153 0 1 4.73153 1
gene 1 2 5 -3.13364 0 2 -3.13364 1
gene 1 3 5 3.43582 0 3 3.43582 1
gene 2 4 5 -0.918721 0 4 -0.918721 1
gene 1 1 6 -6.59233 0 5 -6.59233 1
gene 1 2 6 0.12017 0 6 0.12017 1
gene 2 3 6 -1.75923 0 7 -1.75923 1
gene 3 4 6 5.90867 0 8 5.90867 1
gene 2 5 5 2.81099 1 49 2.81099 1
gene 3 6 5 -0.579941 0 54 -0.579941 1
genomeend 92

/* Species #758 : (Size 1) (AF 0) (Age 1)  */


/* Organism #93 Fitness: 0 Error: 0 */
genomestart 93
trait 1 0.327507 0.386259 0 0 0 0 0 0 
trait 2 0.49108 0.247858 0 0.0242454 1 0.706136 0 0 
trait 3 0 0.0123283 0 0.157963 0.577441 0.283661 0 0 
node 1 3 1 3
node 2 2 1 1
node 3 3 1 1
node 4 3 1 1
node 5 1 0 2
node 6 3 0 2
gene 2 1 5 2.63042 0 1 2.63042 1
gene 1 2 5 1.75905 0 2 1.75905 1
gene 1 3 5 -3.31423 0 3 -3.31423 1
gene 2 4 5 4.18894 0 4 4.18894 1
gene 1 1 6 -2.56559 0 5 -2.56559 1
gene 1 2 6 1.78711 0 6 1.78711 1
gene 2 3 6 -3.89133 0 7 -3.89133 1
gene 3 4 6 5.63815 0 8 5.63815 1
gene 2 5 5 -0.531424 1 49 -0.531424 1
gene 3 6 5 1.60428 0 54 1.60428 1
gene 2 5 6 1.23502 1 98 1.23502 1
genomeend 93

/* Species #759 : (Size 1) (AF 38) (Age 1)  */


/* Organism #94 Fitness: 38 Error: 0 */
genomestart 94
trait 1 0.327507 0.386259 0 0 0 0 0 0 
trait 2 0.49108 0.247858 0 0.0242454 1 0.706136 0 0 
trait 3 0.601177 0.0123283 0 0.157963 0 0 0 0 
node 1 1 1 3
node 2 2 1 1
node 3 3 1 1
node 4 3 1 1
node 5 2 0 2
node 6 3 0 2
gene 2 1 5 4.1185 0 1 4.1185 1
gene 1 2 5 -4.78862 0 2 -4.78862 1
gene 1 3 5 0.814789 0 3 0.814789 1
gene 2 4 5 -0.227346 0 4 -0.227346 1
gene 1 1 6 0.909998 0 5 0.909998 1
gene 1 2 6 2.39778 0 6 2.39778 1
gene 2 3 6 -2.22182 0 7 -2.22182 1
gene 3 4 6 2.7149 0 8 2.7149 1
gene 2 5 5 1.46108 1 49 1.46108 1
gene 3 6 5 -3.66488 0 54 -3.66488 1
genomeend 94

/* Species #760 : (Size 1) (AF 0) (Age 1)  */


/* Organism #95 Fitness: 0 Error: 0 */
genomestart 95
trait 1 0.327507 0.386259 0 0 0 0 0 0 
trait 2 0.49108 0.247858 0 0.0242454 1 0.706136 0 0 
trait 3 0.601177 0.0123283 0 0.157963 0 0 0 0 
node 1 1 1 3
node 2 2 1 1
node 3 3 1 1
node 4 3 1 1
node 5 2 0 2
node 6 3 0 2
gene 2 1 5 2.09207 0 1 2.09207 1
gene 1 2 5 0.706159 0 2 0.706159 1
gene 1 3 5 0.0564285 0 3 0.0564285 1
gene 2 4 5 -3.73268 0 4 -3.73268 1
gene 1 1 6 -7.02533 0 5 -7.02533 1
gene 1 2 6 -1.52316 0 6 -1.52316 1
gene 2 3 6 -2.7075 0 7 -2.7075 1
gene 3 4 6 -1.29219 0 8 -1.29219 1
gene 2 5 5 0.136902 1 49 0.136902 1
gene 3 6 5 -0.274987 0 54 -0.274987 1
genomeend 95

/* Species #761 : (Size 1) (AF 37) (Age 1)  */


/* Organism #96 Fitness: 37 Error: 0 */
genomestart 96
trait 1 0 0.886499 0 0 0 0 0 0 
trait 2 0.2 0 0 0 0 0 0 0 
trait 3 0.3 0 0 0 0 0 0 0 
node 1 3 1 3
node 2 2 1 1
node 3 1 1 1
node 4 2 1 1
node 5 3 0 2
node 6 3 0 2
gene 1 1 5 1.85784 0 1 1.85784 1
gene 3 2 5 -3.14974 0 2 -3.14974 1
gene 3 3 5 7.24633 0 3 7.24633 1
gene 3 4 5 -2.74807 0 4 -2.74807 1
gene 2 1 6 -0.00853884 0 5 -0.00853884 1
gene 3 2 6 -1.75085 0 6 -1.75085 1
gene 1 3 6 -0.517894 0 7 -0.517894 1
gene 1 4 6 0.746949 0 8 0.746949 1
gene 1 5 6 -3.8673 0 20 -3.8673 1
gene 1 6 5 -1.63897 1 24 -1.63897 1
genomeend 96

/* Species #762 : (Size 1) (AF 38) (Age 1)  */


/* Organism #97 Fitness: 38 Error: 0 */
genomestart 97
trait 1 0.327507 0.386259 0 0 0 0 0 0 
trait 2 0.49108 0.247858 0 0.0242454 1 0.706136 0 0 
trait 3 0.3 0.0123283 0 0.157963 0 0 0 0 
node 1 3 1 3
node 2 3 1 1
node 3 3 1 1
node 4 3 1 1
node 5 3 0 2
node 6 3 0 2
gene 2 1 5 1.36131 0 1 1.36131 1
gene 1 2 5 -6.7422 0 2 -6.7422 1
gene 1 3 5 -0.88722 0 3 -0.88722 1
gene 2 4 5 5.73316 0 4 5.73316 1
gene 1 1 6 -3.61133 0 5 -3.61133 1
gene 1 2 6 -0.251319 0 6 -0.251319 1
gene 2 3 6 2.095 0 7 2.095 1
gene 3 4 6 8 0 8 8 1
gene 2 5 5 -2.83228 1 49 -2.83228 1
gene 3 6 5 2.46267 0 54 2.46267 1
genomeend 97

/* Species #763 : (Size 1) (AF 37) (Age 1)  */


/* Organism #98 Fitness: 37 Error: 0 */
genomestart 98
trait 1 0.327507 0.386259 0 0 0 0 0 0 
trait 2 0.49108 0.247858 0 0.0242454 1 0.706136 0 0 
trait 3 0 0.0123283 0 0.157963 0.577441 0.283661 0 0 
node 1 3 1 3
node 2 1 1 1
node 3 3 1 1
node 4 3 1 1
node 5 1 0 2
node 6 3 0 2
gene 2 1 5 1.42499 0 1 1.42499 1
gene 1 2 5 -5.8298 0 2 -5.8298 1
gene 1 3 5 -1.82511 0 3 -1.82511 1
gene 2 4 5 2.76887 0 4 2.76887 1
gene 1 1 6 -3.6293 0 5 -3.6293 1
gene 1 2 6 0.24695 0 6 0.24695 1
gene 2 3 6 2.04258 0 7 2.04258 1
gene 3 4 6 3.54341 0 8 3.54341 1
gene 2 5 5 1.76677 1 49 1.76677 1
gene 3 6 5 -0.746572 0 54 -0.746572 1
gene 2 5 6 -1.22751 1 98 -1.22751 1
genomeend 98

/* Species #764 : (Size 1) (AF 37) (Age 1)  */


/* Organism #99 Fitness: 37 Error: 0 */
genomestart 99
trait 1 0.327507 0.386259 0 0 0 0 0 0 
trait 2 0.49108 0.247858 0 0.0242454 1 0.706136 0 0 
trait 3 0 0.0123283 0 0.157963 0.577441 0.283661 0 0 
node 1 3 1 3
node 2 2 1 1
node 3 3 1 1
node 4 3 1 1
node 5 1 0 2
node 6 3 0 2
gene 2 1 5 -2.36435 0 1 -2.36435 1
gene 1 2 5 -7.00064 0 2 -7.00064 1
gene 1 3 5 4.58886 0 3 4.58886 1
gene 2 4 5 0.716072 0 4 0.716072 1
gene 1 1 6 -3.178 0 5 -3.178 1
gene 1 2 6 -0.994874 0 6 -0.994874 1
gene 2 3 6 -2.26168 0 7 -2.26168 1
gene 3 4 6 5.85913 0 8 5.85913 1
gene 3 5 5 0.25755 1 49 0.25755 1
gene 3 6 5 1.54644 0 54 1.54644 1
gene 2 5 6 -0.883643 1 98 -0.883643 1
genomeend 99
