
/* Species #504 : (Size 8) (AF 0) (Age 7)  */


/* Organism #0 Fitness: 0 Error: 0 */
genomestart 0
node 1 2 1 3
node 2 1 1 1
node 3 2 1 1
node 4 1 1 1
node 5 2 0 2
node 6 2 0 2
gene 2 1 5 -0.980631 0 1 -0.980631 1
gene 2 2 5 4.28905 0 2 4.28905 1
gene 3 3 5 0.3254 0 3 0.3254 1
gene 1 4 5 1.74181 0 4 1.74181 1
gene 2 1 6 1.02649 0 5 1.02649 1
gene 1 2 6 1.3409 0 6 1.3409 1
gene 1 3 6 3.00532 0 7 3.00532 1
gene 2 4 6 -1.30219 0 8 -1.30219 1
gene 1 6 5 0.988114 0 72 0.988114 1
genomeend 0

/* Organism #1 Fitness: 0 Error: 0 */
genomestart 1
node 1 2 1 3
node 2 1 1 1
node 3 1 1 1
node 4 1 1 1
node 5 2 0 2
node 6 2 0 2
gene 2 1 5 0.346846 0 1 0.346846 1
gene 2 2 5 3.94577 0 2 3.94577 1
gene 3 3 5 -0.793696 0 3 -0.793696 1
gene 1 4 5 -2.40926 0 4 -2.40926 1
gene 2 1 6 2.00877 0 5 2.00877 1
gene 1 2 6 -1.63363 0 6 -1.63363 1
gene 1 3 6 0.928908 0 7 0.928908 1
gene 2 4 6 -0.926671 0 8 -0.926671 1
gene 1 6 5 1.0357 0 72 1.0357 1
genomeend 1

/* Organism #2 Fitness: 0 Error: 0 */
genomestart 2
node 1 2 1 3
node 2 1 1 1
node 3 1 1 1
node 4 1 1 1
node 5 2 0 2
node 6 2 0 2
gene 2 1 5 0.465079 0 1 0.465079 1
gene 2 2 5 6.61433 0 2 6.61433 1
gene 3 3 5 0.0811225 0 3 0.0811225 1
gene 1 4 5 0.1596 0 4 0.1596 1
gene 2 1 6 3.25093 0 5 3.25093 1
gene 1 2 6 -1.05127 0 6 -1.05127 1
gene 1 3 6 2.757 0 7 2.757 1
gene 2 4 6 -1.3129 0 8 -1.3129 1
gene 1 6 5 0.403357 0 72 0.403357 1
genomeend 2

/* Organism #3 Fitness: 0 Error: 0 */
genomestart 3
node 1 2 1 3
node 2 1 1 1
node 3 1 1 1
node 4 1 1 1
node 5 2 0 2
node 6 2 0 2
gene 2 1 5 1.44003 0 1 1.44003 1
gene 2 2 5 5.78721 0 2 5.78721 1
gene 3 3 5 1.34831 0 3 1.34831 1
gene 1 4 5 -1.76478 0 4 -1.76478 1
gene 2 1 6 1.61085 0 5 1.61085 1
gene 1 2 6 -0.529534 0 6 -0.529534 1
gene 1 3 6 1.18915 0 7 1.18915 1
gene 2 4 6 1.2422 0 8 1.2422 1
gene 1 6 5 0.679715 0 72 0.679715 1
genomeend 3

/* Organism #4 Fitness: 0 Error: 0 */
genomestart 4
node 1 2 1 3
node 2 1 1 1
node 3 1 1 1
node 4 1 1 1
node 5 2 0 2
node 6 2 0 2
gene 2 1 5 -1.62867 0 1 -1.62867 1
gene 2 2 5 7.17483 0 2 7.17483 1
gene 3 3 5 -1.06101 0 3 -1.06101 1
gene 1 4 5 -0.62146 0 4 -0.62146 1
gene 2 1 6 3.89294 0 5 3.89294 1
gene 1 2 6 0.241435 0 6 0.241435 1
gene 1 3 6 3.00532 0 7 3.00532 1
gene 2 4 6 -1.34076 0 8 -1.34076 1
gene 1 6 5 2.41953 0 72 2.41953 1
genomeend 4

/* Organism #5 Fitness: 0 Error: 0 */
genomestart 5
node 1 2 1 3
node 2 1 1 1
node 3 1 1 1
node 4 1 1 1
node 5 2 0 2
node 6 2 0 2
gene 2 1 5 1.00462 0 1 1.00462 1
gene 2 2 5 2.21843 0 2 2.21843 1
gene 3 3 5 -2.35438 0 3 -2.35438 1
gene 1 4 5 -0.326406 0 4 -0.326406 1
gene 2 1 6 1.02084 0 5 1.02084 1
gene 1 2 6 0.0902122 0 6 0.0902122 1
gene 1 3 6 3.00532 0 7 3.00532 1
gene 2 4 6 0.922883 0 8 0.922883 1
gene 1 6 5 2.24223 0 72 2.24223 1
genomeend 5

/* Organism #6 Fitness: 0 Error: 0 */
genomestart 6
node 1 2 1 3
node 2 1 1 1
node 3 1 1 1
node 4 1 1 1
node 5 2 0 2
node 6 2 0 2
gene 2 1 5 -2.00697 0 1 -2.00697 1
gene 2 2 5 4.63821 0 2 4.63821 1
gene 3 3 5 -2.08808 0 3 -2.08808 1
gene 1 4 5 -2.23073 0 4 -2.23073 1
gene 2 1 6 3.52483 0 5 3.52483 1
gene 1 2 6 -1.14242 0 6 -1.14242 1
gene 1 3 6 1.04445 0 7 1.04445 1
gene 2 4 6 -1.30288 0 8 -1.30288 1
gene 1 6 5 2.82321 0 72 2.82321 1
genomeend 6

/* Organism #7 Fitness: 0 Error: 0 */
genomestart 7
node 1 2 1 3
node 2 1 1 1
node 3 1 1 1
node 4 1 1 1
node 5 2 0 2
node 6 2 0 2
gene 2 1 5 -2.03438 0 1 -2.03438 1
gene 2 2 5 2.28496 0 2 2.28496 1
gene 3 3 5 1.2653 0 3 1.2653 1
gene 1 4 5 -2.17907 0 4 -2.17907 1
gene 2 1 6 1.00325 0 5 1.00325 1
gene 1 2 6 -1.31076 0 6 -1.31076 1
gene 1 3 6 1.73644 0 7 1.73644 1
gene 2 4 6 0.721557 0 8 0.721557 1
gene 1 6 5 -0.836184 0 72 -0.836184 1
genomeend 7

/* Species #505 : (Size 30) (AF 0) (Age 7)  */


/* Organism #8 Fitness: 0 Error: 0 */
genomestart 8
node 1 2 1 3
node 2 1 1 1
node 3 1 1 1
node 4 1 1 1
node 5 2 0 2
node 6 2 0 2
gene 2 1 5 -0.980631 0 1 -0.980631 1
gene 2 2 5 5.78721 0 2 5.78721 1
gene 3 3 5 -0.985163 0 3 -0.985163 1
gene 1 4 5 2.06547 0 4 2.06547 1
gene 2 1 6 1.61085 0 5 1.61085 1
gene 1 2 6 0.372277 0 6 0.372277 1
gene 1 3 6 3.00532 0 7 3.00532 1
gene 2 4 6 0.922883 0 8 0.922883 1
gene 1 6 5 0.528503 0 72 0.528503 1
genomeend 8

/* Organism #9 Fitness: 0 Error: 0 */
genomestart 9
node 1 2 1 3
node 2 1 1 1
node 3 1 1 1
node 4 1 1 1
node 5 2 0 2
node 6 2 0 2
gene 2 1 5 -0.980631 0 1 -0.980631 1
gene 2 2 5 5.78721 0 2 5.78721 1
gene 3 3 5 -0.985163 0 3 -0.985163 1
gene 1 4 5 2.06547 0 4 2.06547 1
gene 2 1 6 1.61085 0 5 1.61085 1
gene 1 2 6 0.372277 0 6 0.372277 1
gene 1 3 6 3.00532 0 7 3.00532 1
gene 2 4 6 0.922883 0 8 0.922883 1
gene 1 6 5 0.528503 0 72 0.528503 1
genomeend 9

/* Organism #10 Fitness: 0 Error: 0 */
genomestart 10
node 1 2 1 3
node 2 1 1 1
node 3 1 1 1
node 4 1 1 1
node 5 2 0 2
node 6 2 0 2
gene 2 1 5 -3.44359 0 1 -3.44359 1
gene 2 2 5 4.37696 0 2 4.37696 1
gene 3 3 5 -2.70829 0 3 -2.70829 1
gene 1 4 5 1.27924 0 4 1.27924 1
gene 2 1 6 1.19322 0 5 1.19322 1
gene 1 2 6 0.783942 0 6 0.783942 1
gene 1 3 6 3.23328 0 7 3.23328 1
gene 2 4 6 0.645436 0 8 0.645436 1
gene 1 6 5 1.43978 0 72 1.43978 1
genomeend 10

/* Organism #11 Fitness: 0 Error: 0 */
genomestart 11
node 1 2 1 3
node 2 1 1 1
node 3 1 1 1
node 4 1 1 1
node 5 2 0 2
node 6 2 0 2
gene 2 1 5 -0.980631 0 1 -0.980631 1
gene 2 2 5 5.78721 0 2 5.78721 1
gene 3 3 5 -0.985163 0 3 -0.985163 1
gene 1 4 5 2.06547 0 4 2.06547 1
gene 2 1 6 1.61085 0 5 1.61085 1
gene 1 2 6 0.372277 0 6 0.372277 1
gene 1 3 6 3.00532 0 7 3.00532 1
gene 2 4 6 0.922883 0 8 0.922883 1
gene 1 6 5 0.528503 0 72 0.528503 1
genomeend 11

/* Organism #12 Fitness: 0 Error: 0 */
genomestart 12
node 1 2 1 3
node 2 1 1 1
node 3 1 1 1
node 4 1 1 1
node 5 2 0 2
node 6 2 0 2
gene 2 1 5 -1.55119 0 1 -1.55119 1
gene 2 2 5 3.41837 0 2 3.41837 1
gene 3 3 5 -0.598827 0 3 -0.598827 1
gene 1 4 5 2.3193 0 4 2.3193 1
gene 2 1 6 0.959399 0 5 0.959399 1
gene 1 2 6 1.95772 0 6 1.95772 1
gene 1 3 6 2.66188 0 7 2.66188 1
gene 2 4 6 2.79459 0 8 2.79459 1
gene 1 6 5 1.4063 0 72 1.4063 1
genomeend 12

/* Organism #13 Fitness: 0 Error: 0 */
genomestart 13
node 1 2 1 3
node 2 1 1 1
node 3 1 1 1
node 4 1 1 1
node 5 2 0 2
node 6 2 0 2
gene 2 1 5 -0.0805614 0 1 -0.0805614 1
gene 2 2 5 5.78721 0 2 5.78721 1
gene 3 3 5 -1.57505 0 3 -1.57505 1
gene 1 4 5 4.40556 0 4 4.40556 1
gene 2 1 6 0.581763 0 5 0.581763 1
gene 1 2 6 1.48653 0 6 1.48653 1
gene 1 3 6 3.00532 0 7 3.00532 1
gene 2 4 6 -0.922732 0 8 -0.922732 1
gene 1 6 5 1.78637 0 72 1.78637 1
genomeend 13

/* Organism #14 Fitness: 0 Error: 0 */
genomestart 14
node 1 2 1 3
node 2 1 1 1
node 3 1 1 1
node 4 1 1 1
node 5 1 0 2
node 6 2 0 2
gene 2 1 5 1.11522 0 1 1.11522 1
gene 2 2 5 3.52513 0 2 3.52513 1
gene 3 3 5 0.875646 0 3 0.875646 1
gene 1 4 5 2.33738 0 4 2.33738 1
gene 2 1 6 2.35473 0 5 2.35473 1
gene 1 2 6 1.31181 0 6 1.31181 1
gene 1 3 6 2.4944 0 7 2.4944 1
gene 2 4 6 0.918409 0 8 0.918409 1
gene 1 6 5 0.372557 0 72 0.372557 1
genomeend 14

/* Organism #15 Fitness: 0 Error: 0 */
genomestart 15
node 1 2 1 3
node 2 1 1 1
node 3 1 1 1
node 4 1 1 1
node 5 2 0 2
node 6 2 0 2
gene 2 1 5 1.44711 0 1 1.44711 1
gene 2 2 5 4.07202 0 2 4.07202 1
gene 3 3 5 0.299393 0 3 0.299393 1
gene 1 4 5 -0.0846132 0 4 -0.0846132 1
gene 2 1 6 -0.180991 0 5 -0.180991 1
gene 1 2 6 1.39068 0 6 1.39068 1
gene 1 3 6 -1.06772 0 7 -1.06772 1
gene 2 4 6 0.543639 0 8 0.543639 1
gene 1 6 5 -0.43795 0 72 -0.43795 1
genomeend 15

/* Organism #16 Fitness: 0 Error: 0 */
genomestart 16
node 1 2 1 3
node 2 1 1 1
node 3 1 1 1
node 4 1 1 1
node 5 2 0 2
node 6 2 0 2
gene 2 1 5 -0.980631 0 1 -0.980631 1
gene 2 2 5 5.78721 0 2 5.78721 1
gene 3 3 5 -0.985163 0 3 -0.985163 1
gene 1 4 5 2.06547 0 4 2.06547 1
gene 2 1 6 1.61085 0 5 1.61085 1
gene 1 2 6 0.372277 0 6 0.372277 1
gene 1 3 6 3.00532 0 7 3.00532 1
gene 2 4 6 0.922883 0 8 0.922883 1
gene 1 6 5 0.528503 0 72 0.528503 1
genomeend 16

/* Organism #17 Fitness: 0 Error: 0 */
genomestart 17
node 1 2 1 3
node 2 1 1 1
node 3 1 1 1
node 4 1 1 1
node 5 2 0 2
node 6 2 0 2
gene 2 1 5 0.796095 0 1 0.796095 1
gene 2 2 5 5.63747 0 2 5.63747 1
gene 3 3 5 -0.985163 0 3 -0.985163 1
gene 1 4 5 1.09676 0 4 1.09676 1
gene 2 1 6 1.94499 0 5 1.94499 1
gene 1 2 6 -1.16285 0 6 -1.16285 1
gene 1 3 6 2.24332 0 7 2.24332 1
gene 2 4 6 -0.562196 0 8 -0.562196 1
gene 1 6 5 -0.543114 0 72 -0.543114 1
genomeend 17

/* Organism #18 Fitness: 0 Error: 0 */
genomestart 18
node 1 2 1 3
node 2 1 1 1
node 3 1 1 1
node 4 1 1 1
node 5 2 0 2
node 6 2 0 2
gene 2 1 5 -0.980631 0 1 -0.980631 1
gene 2 2 5 5.78721 0 2 5.78721 1
gene 3 3 5 -0.985163 0 3 -0.985163 1
gene 1 4 5 2.06547 0 4 2.06547 1
gene 2 1 6 1.61085 0 5 1.61085 1
gene 1 2 6 0.372277 0 6 0.372277 1
gene 1 3 6 3.00532 0 7 3.00532 1
gene 2 4 6 0.922883 0 8 0.922883 1
gene 1 6 5 0.528503 0 72 0.528503 1
genomeend 18

/* Organism #19 Fitness: 0 Error: 0 */
genomestart 19
node 1 2 1 3
node 2 1 1 1
node 3 1 1 1
node 4 1 1 1
node 5 2 0 2
node 6 2 0 2
gene 2 1 5 2.18235 0 1 2.18235 1
gene 2 2 5 5.78721 0 2 5.78721 1
gene 3 3 5 0.939222 0 3 0.939222 1
gene 1 4 5 0.474993 0 4 0.474993 1
gene 2 1 6 2.89826 0 5 2.89826 1
gene 1 2 6 0.49422 0 6 0.49422 1
gene 1 3 6 1.91469 0 7 1.91469 1
gene 2 4 6 -0.948895 0 8 -0.948895 1
gene 1 6 5 -1.4251 0 72 -1.4251 1
genomeend 19

/* Organism #20 Fitness: 0 Error: 0 */
genomestart 20
node 1 2 1 3
node 2 1 1 1
node 3 1 1 1
node 4 1 1 1
node 5 2 0 2
node 6 2 0 2
gene 2 1 5 -0.980631 0 1 -0.980631 1
gene 2 2 5 5.78721 0 2 5.78721 1
gene 3 3 5 -0.985163 0 3 -0.985163 1
gene 1 4 5 2.06547 0 4 2.06547 1
gene 2 1 6 1.61085 0 5 1.61085 1
gene 1 2 6 0.372277 0 6 0.372277 1
gene 1 3 6 3.00532 0 7 3.00532 1
gene 2 4 6 0.922883 0 8 0.922883 1
gene 1 6 5 0.528503 0 72 0.528503 1
genomeend 20

/* Organism #21 Fitness: 0 Error: 0 */
genomestart 21
node 1 2 1 3
node 2 1 1 1
node 3 1 1 1
node 4 1 1 1
node 5 2 0 2
node 6 2 0 2
gene 2 1 5 -0.980631 0 1 -0.980631 1
gene 2 2 5 5.78721 0 2 5.78721 1
gene 3 3 5 -0.985163 0 3 -0.985163 1
gene 1 4 5 2.06547 0 4 2.06547 1
gene 2 1 6 1.61085 0 5 1.61085 1
gene 1 2 6 0.372277 0 6 0.372277 1
gene 1 3 6 3.00532 0 7 3.00532 1
gene 2 4 6 0.922883 0 8 0.922883 1
gene 1 6 5 0.528503 0 72 0.528503 1
genomeend 21

/* Organism #22 Fitness: 0 Error: 0 */
genomestart 22
node 1 2 1 3
node 2 1 1 1
node 3 1 1 1
node 4 1 1 1
node 5 2 0 2
node 6 2 0 2
gene 2 1 5 -1.053 0 1 -1.053 1
gene 2 2 5 5.61468 0 2 5.61468 1
gene 3 3 5 0.101377 0 3 0.101377 1
gene 1 4 5 -0.208619 0 4 -0.208619 1
gene 2 1 6 -0.0469426 0 5 -0.0469426 1
gene 1 2 6 0.0773143 0 6 0.0773143 1
gene 1 3 6 1.25435 0 7 1.25435 1
gene 2 4 6 -1.44813 0 8 -1.44813 1
gene 1 6 5 -0.950862 0 72 -0.950862 1
genomeend 22

/* Organism #23 Fitness: 0 Error: 0 */
genomestart 23
node 1 2 1 3
node 2 1 1 1
node 3 1 1 1
node 4 1 1 1
node 5 2 0 2
node 6 2 0 2
gene 2 1 5 1.23063 0 1 1.23063 1
gene 2 2 5 5.45218 0 2 5.45218 1
gene 3 3 5 -2.62822 0 3 -2.62822 1
gene 1 4 5 1.76616 0 4 1.76616 1
gene 2 1 6 1.91244 0 5 1.91244 1
gene 1 2 6 -1.6042 0 6 -1.6042 1
gene 1 3 6 2.69605 0 7 2.69605 1
gene 2 4 6 -1.31556 0 8 -1.31556 1
gene 1 6 5 0.528503 0 72 0.528503 1
genomeend 23

/* Organism #24 Fitness: 0 Error: 0 */
genomestart 24
node 1 2 1 3
node 2 1 1 1
node 3 1 1 1
node 4 1 1 1
node 5 2 0 2
node 6 2 0 2
gene 2 1 5 -0.980631 0 1 -0.980631 1
gene 2 2 5 5.78721 0 2 5.78721 1
gene 3 3 5 -0.985163 0 3 -0.985163 1
gene 1 4 5 2.06547 0 4 2.06547 1
gene 2 1 6 1.61085 0 5 1.61085 1
gene 1 2 6 0.372277 0 6 0.372277 1
gene 1 3 6 3.00532 0 7 3.00532 1
gene 2 4 6 0.922883 0 8 0.922883 1
gene 1 6 5 0.528503 0 72 0.528503 1
genomeend 24

/* Organism #25 Fitness: 0 Error: 0 */
genomestart 25
node 1 2 1 3
node 2 1 1 1
node 3 1 1 1
node 4 1 1 1
node 5 2 0 2
node 6 2 0 2
gene 2 1 5 -0.980631 0 1 -0.980631 1
gene 2 2 5 5.78721 0 2 5.78721 1
gene 3 3 5 -0.985163 0 3 -0.985163 1
gene 1 4 5 2.06547 0 4 2.06547 1
gene 2 1 6 1.61085 0 5 1.61085 1
gene 1 2 6 0.372277 0 6 0.372277 1
gene 1 3 6 3.00532 0 7 3.00532 1
gene 2 4 6 0.922883 0 8 0.922883 1
gene 1 6 5 0.528503 0 72 0.528503 1
genomeend 25

/* Organism #26 Fitness: 0 Error: 0 */
genomestart 26
node 1 2 1 3
node 2 1 1 1
node 3 1 1 1
node 4 1 1 1
node 5 2 0 2
node 6 2 0 2
gene 2 1 5 -0.980631 0 1 -0.980631 1
gene 2 2 5 5.78721 0 2 5.78721 1
gene 3 3 5 -0.985163 0 3 -0.985163 1
gene 1 4 5 2.06547 0 4 2.06547 1
gene 2 1 6 1.61085 0 5 1.61085 1
gene 1 2 6 0.372277 0 6 0.372277 1
gene 1 3 6 3.00532 0 7 3.00532 1
gene 2 4 6 0.922883 0 8 0.922883 1
gene 1 6 5 0.528503 0 72 0.528503 1
genomeend 26

/* Organism #27 Fitness: 0 Error: 0 */
genomestart 27
node 1 2 1 3
node 2 1 1 1
node 3 1 1 1
node 4 1 1 1
node 5 2 0 2
node 6 2 0 2
gene 2 1 5 -0.980631 0 1 -0.980631 1
gene 2 2 5 5.78721 0 2 5.78721 1
gene 3 3 5 -0.985163 0 3 -0.985163 1
gene 1 4 5 2.06547 0 4 2.06547 1
gene 2 1 6 1.61085 0 5 1.61085 1
gene 1 2 6 0.372277 0 6 0.372277 1
gene 1 3 6 3.00532 0 7 3.00532 1
gene 2 4 6 0.922883 0 8 0.922883 1
gene 1 6 5 0.528503 0 72 0.528503 1
genomeend 27

/* Organism #28 Fitness: 0 Error: 0 */
genomestart 28
node 1 2 1 3
node 2 1 1 1
node 3 1 1 1
node 4 1 1 1
node 5 2 0 2
node 6 2 0 2
gene 2 1 5 -0.980631 0 1 -0.980631 1
gene 2 2 5 5.78721 0 2 5.78721 1
gene 3 3 5 -0.985163 0 3 -0.985163 1
gene 1 4 5 2.06547 0 4 2.06547 1
gene 2 1 6 1.61085 0 5 1.61085 1
gene 1 2 6 0.372277 0 6 0.372277 1
gene 1 3 6 3.00532 0 7 3.00532 1
gene 2 4 6 0.922883 0 8 0.922883 1
gene 1 6 5 0.528503 0 72 0.528503 1
genomeend 28

/* Organism #29 Fitness: 0 Error: 0 */
genomestart 29
node 1 2 1 3
node 2 1 1 1
node 3 1 1 1
node 4 1 1 1
node 5 2 0 2
node 6 2 0 2
gene 2 1 5 -0.980631 0 1 -0.980631 1
gene 2 2 5 5.78721 0 2 5.78721 1
gene 3 3 5 -0.985163 0 3 -0.985163 1
gene 1 4 5 2.06547 0 4 2.06547 1
gene 2 1 6 1.61085 0 5 1.61085 1
gene 1 2 6 0.372277 0 6 0.372277 1
gene 1 3 6 3.00532 0 7 3.00532 1
gene 2 4 6 0.922883 0 8 0.922883 1
gene 1 6 5 0.528503 0 72 0.528503 1
genomeend 29

/* Organism #30 Fitness: 0 Error: 0 */
genomestart 30
node 1 2 1 3
node 2 1 1 1
node 3 1 1 1
node 4 1 1 1
node 5 2 0 2
node 6 2 0 2
gene 2 1 5 -3.46957 0 1 -3.46957 1
gene 2 2 5 3.77287 0 2 3.77287 1
gene 3 3 5 -1.32514 0 3 -1.32514 1
gene 1 4 5 -0.344567 0 4 -0.344567 1
gene 2 1 6 -0.0674284 0 5 -0.0674284 1
gene 1 2 6 2.77712 0 6 2.77712 1
gene 1 3 6 3.00532 0 7 3.00532 1
gene 2 4 6 -2.07534 0 8 -2.07534 1
gene 1 6 5 0.0755396 0 72 0.0755396 1
genomeend 30

/* Organism #31 Fitness: 0 Error: 0 */
genomestart 31
node 1 2 1 3
node 2 1 1 1
node 3 1 1 1
node 4 1 1 1
node 5 2 0 2
node 6 2 0 2
gene 2 1 5 -0.980631 0 1 -0.980631 1
gene 2 2 5 5.78721 0 2 5.78721 1
gene 3 3 5 -0.985163 0 3 -0.985163 1
gene 1 4 5 2.06547 0 4 2.06547 1
gene 2 1 6 1.61085 0 5 1.61085 1
gene 1 2 6 0.372277 0 6 0.372277 1
gene 1 3 6 3.00532 0 7 3.00532 1
gene 2 4 6 0.922883 0 8 0.922883 1
gene 1 6 5 0.528503 0 72 0.528503 1
genomeend 31

/* Organism #32 Fitness: 0 Error: 0 */
genomestart 32
node 1 2 1 3
node 2 1 1 1
node 3 1 1 1
node 4 1 1 1
node 5 2 0 2
node 6 2 0 2
gene 2 1 5 -0.980631 0 1 -0.980631 1
gene 2 2 5 5.78721 0 2 5.78721 1
gene 3 3 5 -0.985163 0 3 -0.985163 1
gene 1 4 5 2.06547 0 4 2.06547 1
gene 2 1 6 1.61085 0 5 1.61085 1
gene 1 2 6 0.372277 0 6 0.372277 1
gene 1 3 6 3.00532 0 7 3.00532 1
gene 2 4 6 0.922883 0 8 0.922883 1
gene 1 6 5 0.528503 0 72 0.528503 1
genomeend 32

/* Organism #33 Fitness: 0 Error: 0 */
genomestart 33
node 1 2 1 3
node 2 1 1 1
node 3 1 1 1
node 4 1 1 1
node 5 2 0 2
node 6 2 0 2
gene 2 1 5 2.18968 0 1 2.18968 1
gene 2 2 5 7.02581 0 2 7.02581 1
gene 3 3 5 0.786254 0 3 0.786254 1
gene 1 4 5 1.60632 0 4 1.60632 1
gene 2 1 6 1.64123 0 5 1.64123 1
gene 1 2 6 1.86479 0 6 1.86479 1
gene 1 3 6 2.52848 0 7 2.52848 1
gene 2 4 6 0.922883 0 8 0.922883 1
gene 1 6 5 2.66228 0 72 2.66228 1
genomeend 33

/* Organism #34 Fitness: 0 Error: 0 */
genomestart 34
node 1 2 1 3
node 2 1 1 1
node 3 1 1 1
node 4 1 1 1
node 5 2 0 2
node 6 2 0 2
gene 2 1 5 -1.50036 0 1 -1.50036 1
gene 2 2 5 5.21524 0 2 5.21524 1
gene 3 3 5 -0.343125 0 3 -0.343125 1
gene 1 4 5 0.938915 0 4 0.938915 1
gene 2 1 6 0.642997 0 5 0.642997 1
gene 1 2 6 0.893727 0 6 0.893727 1
gene 1 3 6 3.72038 0 7 3.72038 1
gene 2 4 6 0.190635 0 8 0.190635 1
gene 1 6 5 -0.0735794 0 72 -0.0735794 1
genomeend 34

/* Organism #35 Fitness: 0 Error: 0 */
genomestart 35
node 1 2 1 3
node 2 1 1 1
node 3 1 1 1
node 4 1 1 1
node 5 2 0 2
node 6 2 0 2
gene 2 1 5 0.831284 0 1 0.831284 1
gene 2 2 5 4.08283 0 2 4.08283 1
gene 3 3 5 -1.78917 0 3 -1.78917 1
gene 1 4 5 0.714225 0 4 0.714225 1
gene 2 1 6 1.65405 0 5 1.65405 1
gene 1 2 6 2.83792 0 6 2.83792 1
gene 1 3 6 3.51754 0 7 3.51754 1
gene 2 4 6 1.07287 0 8 1.07287 1
gene 1 6 5 0.12026 0 72 0.12026 1
genomeend 35

/* Organism #36 Fitness: 0 Error: 0 */
genomestart 36
node 1 2 1 3
node 2 1 1 1
node 3 1 1 1
node 4 1 1 1
node 5 2 0 2
node 6 2 0 2
gene 2 1 5 -0.980631 0 1 -0.980631 1
gene 2 2 5 5.78721 0 2 5.78721 1
gene 3 3 5 -0.985163 0 3 -0.985163 1
gene 1 4 5 2.06547 0 4 2.06547 1
gene 2 1 6 1.61085 0 5 1.61085 1
gene 1 2 6 0.372277 0 6 0.372277 1
gene 1 3 6 3.00532 0 7 3.00532 1
gene 2 4 6 0.922883 0 8 0.922883 1
gene 1 6 5 0.528503 0 72 0.528503 1
genomeend 36

/* Organism #37 Fitness: 0 Error: 0 */
genomestart 37
node 1 2 1 3
node 2 1 1 1
node 3 1 1 1
node 4 1 1 1
node 5 2 0 2
node 6 2 0 2
gene 2 1 5 0.358569 0 1 0.358569 1
gene 2 2 5 3.51076 0 2 3.51076 1
gene 3 3 5 1.2294 0 3 1.2294 1
gene 1 4 5 2.86003 0 4 2.86003 1
gene 2 1 6 1.32888 0 5 1.32888 1
gene 1 2 6 0.368829 0 6 0.368829 1
gene 1 3 6 5.19176 0 7 5.19176 1
gene 2 4 6 -1.02284 0 8 -1.02284 1
gene 1 6 5 0.563782 0 72 0.563782 1
genomeend 37

/* Species #526 : (Size 4) (AF 0) (Age 5)  */


/* Organism #38 Fitness: 0 Error: 0 */
genomestart 38
node 1 2 1 3
node 2 1 1 1
node 3 1 1 1
node 4 1 1 1
node 5 2 0 2
node 6 2 0 2
gene 2 1 5 -0.599621 0 1 -0.599621 1
gene 2 2 5 1.60195 0 2 1.60195 1
gene 3 3 5 -0.327505 0 3 -0.327505 1
gene 1 4 5 3.95922 0 4 3.95922 1
gene 2 1 6 1.42191 0 5 1.42191 1
gene 1 2 6 1.28861 0 6 1.28861 1
gene 1 3 6 4.34223 0 7 4.34223 1
gene 2 4 6 0.167814 0 8 0.167814 1
gene 1 6 5 -0.311921 0 72 -0.311921 1
genomeend 38

/* Organism #39 Fitness: 0 Error: 0 */
genomestart 39
node 1 2 1 3
node 2 1 1 1
node 3 1 1 1
node 4 1 1 1
node 5 2 0 2
node 6 2 0 2
gene 2 1 5 0.532328 0 1 0.532328 1
gene 2 2 5 1.57773 0 2 1.57773 1
gene 3 3 5 1.89066 0 3 1.89066 1
gene 1 4 5 0.868725 0 4 0.868725 1
gene 2 1 6 0.208264 0 5 0.208264 1
gene 1 2 6 1.31415 0 6 1.31415 1
gene 1 3 6 5.44782 0 7 5.44782 1
gene 2 4 6 0.922883 0 8 0.922883 1
gene 1 6 5 0.0786388 0 72 0.0786388 1
genomeend 39

/* Organism #40 Fitness: 0 Error: 0 */
genomestart 40
node 1 2 1 3
node 2 1 1 1
node 3 1 1 1
node 4 1 1 1
node 5 2 0 2
node 6 2 0 2
gene 2 1 5 -0.980631 0 1 -0.980631 1
gene 2 2 5 0.971812 0 2 0.971812 1
gene 3 3 5 1.48666 0 3 1.48666 1
gene 1 4 5 2.31534 0 4 2.31534 1
gene 2 1 6 1.61085 0 5 1.61085 1
gene 1 2 6 1.41925 0 6 1.41925 1
gene 1 3 6 4.31305 0 7 4.31305 1
gene 2 4 6 1.16257 0 8 1.16257 1
gene 1 6 5 -0.392007 0 72 -0.392007 1
genomeend 40

/* Organism #41 Fitness: 0 Error: 0 */
genomestart 41
node 1 2 1 3
node 2 1 1 1
node 3 1 1 1
node 4 1 1 1
node 5 2 0 2
node 6 2 0 2
gene 2 1 5 -0.176248 0 1 -0.176248 1
gene 2 2 5 3.81316 0 2 3.81316 1
gene 3 3 5 -3.0846 0 3 -3.0846 1
gene 1 4 5 2.72545 0 4 2.72545 1
gene 2 1 6 4.03397 0 5 4.03397 1
gene 1 2 6 1.01189 0 6 1.01189 1
gene 1 3 6 4.07572 0 7 4.07572 1
gene 2 4 6 0.260093 0 8 0.260093 1
gene 1 6 5 1.73484 0 72 1.73484 1
genomeend 41

/* Species #527 : (Size 13) (AF 0) (Age 5)  */


/* Organism #42 Fitness: 0 Error: 0 */
genomestart 42
node 1 2 1 3
node 2 1 1 1
node 3 1 1 1
node 4 1 1 1
node 5 2 0 2
node 6 2 0 2
gene 2 1 5 -2.38741 0 1 -2.38741 1
gene 2 2 5 7.03213 0 2 7.03213 1
gene 3 3 5 0.946676 0 3 0.946676 1
gene 1 4 5 0.274452 0 4 0.274452 1
gene 2 1 6 2.25903 0 5 2.25903 1
gene 1 2 6 -0.522808 0 6 -0.522808 1
gene 1 3 6 4.26866 0 7 4.26866 1
gene 2 4 6 2.5829 0 8 2.5829 1
gene 1 6 5 1.18784 0 72 1.18784 1
genomeend 42

/* Organism #43 Fitness: 0 Error: 0 */
genomestart 43
node 1 2 1 3
node 2 1 1 1
node 3 1 1 1
node 4 1 1 1
node 5 2 0 2
node 6 2 0 2
gene 2 1 5 -1.26899 0 1 -1.26899 1
gene 2 2 5 6.02837 0 2 6.02837 1
gene 3 3 5 0.638645 0 3 0.638645 1
gene 1 4 5 0.524248 0 4 0.524248 1
gene 2 1 6 -0.561514 0 5 -0.561514 1
gene 1 2 6 0.904321 0 6 0.904321 1
gene 1 3 6 3.00532 0 7 3.00532 1
gene 2 4 6 1.89479 0 8 1.89479 1
gene 1 6 5 0.487507 0 72 0.487507 1
genomeend 43

/* Organism #44 Fitness: 0 Error: 0 */
genomestart 44
node 1 2 1 3
node 2 1 1 1
node 3 1 1 1
node 4 1 1 1
node 5 2 0 2
node 6 2 0 2
gene 2 1 5 -1.6458 0 1 -1.6458 1
gene 2 2 5 5.69683 0 2 5.69683 1
gene 3 3 5 -0.243069 0 3 -0.243069 1
gene 1 4 5 1.53065 0 4 1.53065 1
gene 2 1 6 0.467895 0 5 0.467895 1
gene 1 2 6 1.97835 0 6 1.97835 1
gene 1 3 6 4.15633 0 7 4.15633 1
gene 2 4 6 -0.105014 0 8 -0.105014 1
gene 1 6 5 -0.655767 0 72 -0.655767 1
genomeend 44

/* Organism #45 Fitness: 0 Error: 0 */
genomestart 45
node 1 2 1 3
node 2 1 1 1
node 3 1 1 1
node 4 1 1 1
node 5 2 0 2
node 6 2 0 2
gene 2 1 5 -2.41008 0 1 -2.41008 1
gene 2 2 5 4.72478 0 2 4.72478 1
gene 3 3 5 -3.14255 0 3 -3.14255 1
gene 1 4 5 0.00525031 0 4 0.00525031 1
gene 2 1 6 3.00593 0 5 3.00593 1
gene 1 2 6 -2.08446 0 6 -2.08446 1
gene 1 3 6 3.35624 0 7 3.35624 1
gene 2 4 6 -0.237704 0 8 -0.237704 1
gene 1 6 5 -1.55211 0 72 -1.55211 1
genomeend 45

/* Organism #46 Fitness: 0 Error: 0 */
genomestart 46
node 1 3 1 3
node 2 1 1 1
node 3 1 1 1
node 4 1 1 1
node 5 2 0 2
node 6 2 0 2
gene 2 1 5 -0.595698 0 1 -0.595698 1
gene 2 2 5 8 0 2 8 1
gene 3 3 5 0.33474 0 3 0.33474 1
gene 1 4 5 0.773316 0 4 0.773316 1
gene 2 1 6 2.46665 0 5 2.46665 1
gene 1 2 6 1.78344 0 6 1.78344 1
gene 1 3 6 3.51056 0 7 3.51056 1
gene 2 4 6 -0.785516 0 8 -0.785516 1
gene 1 6 5 -0.889797 0 72 -0.889797 1
genomeend 46

/* Organism #47 Fitness: 0 Error: 0 */
genomestart 47
node 1 2 1 3
node 2 1 1 1
node 3 1 1 1
node 4 1 1 1
node 5 2 0 2
node 6 2 0 2
gene 2 1 5 -2.10761 0 1 -2.10761 1
gene 2 2 5 6.73667 0 2 6.73667 1
gene 3 3 5 0.672493 0 3 0.672493 1
gene 1 4 5 2.60867 0 4 2.60867 1
gene 2 1 6 2.95253 0 5 2.95253 1
gene 1 2 6 -1.95049 0 6 -1.95049 1
gene 1 3 6 1.08101 0 7 1.08101 1
gene 2 4 6 0.815247 0 8 0.815247 1
gene 1 6 5 -0.598776 0 72 -0.598776 1
genomeend 47

/* Organism #48 Fitness: 0 Error: 0 */
genomestart 48
node 1 2 1 3
node 2 1 1 1
node 3 1 1 1
node 4 1 1 1
node 5 2 0 2
node 6 2 0 2
gene 2 1 5 -1.75686 0 1 -1.75686 1
gene 2 2 5 7.75783 0 2 7.75783 1
gene 3 3 5 -0.821873 0 3 -0.821873 1
gene 1 4 5 0.824079 0 4 0.824079 1
gene 2 1 6 4.04596 0 5 4.04596 1
gene 1 2 6 -1.07926 0 6 -1.07926 1
gene 1 3 6 1.93387 0 7 1.93387 1
gene 2 4 6 0.72881 0 8 0.72881 1
gene 1 6 5 -1.09091 0 72 -1.09091 1
genomeend 48

/* Organism #49 Fitness: 0 Error: 0 */
genomestart 49
node 1 2 1 3
node 2 1 1 1
node 3 1 1 1
node 4 1 1 1
node 5 2 0 2
node 6 2 0 2
gene 2 1 5 -2.08226 0 1 -2.08226 1
gene 2 2 5 5.49156 0 2 5.49156 1
gene 3 3 5 -0.352138 0 3 -0.352138 1
gene 1 4 5 2.12041 0 4 2.12041 1
gene 2 1 6 3.04407 0 5 3.04407 1
gene 1 2 6 -1.12934 0 6 -1.12934 1
gene 1 3 6 2.86318 0 7 2.86318 1
gene 2 4 6 -1.18093 0 8 -1.18093 1
gene 1 6 5 -0.456912 0 72 -0.456912 1
genomeend 49

/* Organism #50 Fitness: 0 Error: 0 */
genomestart 50
node 1 2 1 3
node 2 1 1 1
node 3 1 1 1
node 4 1 1 1
node 5 2 0 2
node 6 2 0 2
gene 2 1 5 -3.30184 0 1 -3.30184 1
gene 2 2 5 6.99586 0 2 6.99586 1
gene 3 3 5 -0.337156 0 3 -0.337156 1
gene 1 4 5 0.697018 0 4 0.697018 1
gene 2 1 6 2.73929 0 5 2.73929 1
gene 1 2 6 -1.21717 0 6 -1.21717 1
gene 1 3 6 1.52856 0 7 1.52856 1
gene 2 4 6 3.23226 0 8 3.23226 1
gene 1 6 5 0.402051 0 72 0.402051 1
genomeend 50

/* Organism #51 Fitness: 0 Error: 0 */
genomestart 51
node 1 2 1 3
node 2 1 1 1
node 3 1 1 1
node 4 1 1 1
node 5 2 0 2
node 6 2 0 2
gene 2 1 5 -1.0308 0 1 -1.0308 1
gene 2 2 5 5.3841 0 2 5.3841 1
gene 3 3 5 -2.35241 0 3 -2.35241 1
gene 1 4 5 3.67263 0 4 3.67263 1
gene 2 1 6 1.47217 0 5 1.47217 1
gene 1 2 6 0.372277 0 6 0.372277 1
gene 1 3 6 4.09512 0 7 4.09512 1
gene 2 4 6 1.84666 0 8 1.84666 1
gene 1 6 5 0.39526 0 72 0.39526 1
genomeend 51

/* Organism #52 Fitness: 0 Error: 0 */
genomestart 52
node 1 2 1 3
node 2 1 1 1
node 3 1 1 1
node 4 1 1 1
node 5 2 0 2
node 6 2 0 2
gene 2 1 5 1.33621 0 1 1.33621 1
gene 2 2 5 4.02608 0 2 4.02608 1
gene 3 3 5 -2.65462 0 3 -2.65462 1
gene 1 4 5 0.579672 0 4 0.579672 1
gene 2 1 6 2.92518 0 5 2.92518 1
gene 1 2 6 1.66474 0 6 1.66474 1
gene 1 3 6 2.57752 0 7 2.57752 1
gene 2 4 6 1.16004 0 8 1.16004 1
gene 1 6 5 -1.83486 0 72 -1.83486 1
genomeend 52

/* Organism #53 Fitness: 0 Error: 0 */
genomestart 53
node 1 2 1 3
node 2 1 1 1
node 3 1 1 1
node 4 1 1 1
node 5 2 0 2
node 6 2 0 2
gene 2 1 5 0.425632 0 1 0.425632 1
gene 2 2 5 3.9219 0 2 3.9219 1
gene 3 3 5 -0.656993 0 3 -0.656993 1
gene 1 4 5 3.82675 0 4 3.82675 1
gene 2 1 6 2.4411 0 5 2.4411 1
gene 1 2 6 -0.274016 0 6 -0.274016 1
gene 1 3 6 2.60642 0 7 2.60642 1
gene 2 4 6 3.30931 0 8 3.30931 1
gene 1 6 5 0.724668 0 72 0.724668 1
genomeend 53

/* Organism #54 Fitness: 0 Error: 0 */
genomestart 54
node 1 2 1 3
node 2 1 1 1
node 3 1 1 1
node 4 1 1 1
node 5 2 0 2
node 6 2 0 2
gene 2 1 5 1.11029 0 1 1.11029 1
gene 2 2 5 1.70918 0 2 1.70918 1
gene 3 3 5 -2.71242 0 3 -2.71242 1
gene 1 4 5 2.3815 0 4 2.3815 1
gene 2 1 6 3.45841 0 5 3.45841 1
gene 1 2 6 0.79741 0 6 0.79741 1
gene 1 3 6 3.00532 0 7 3.00532 1
gene 2 4 6 0.46982 0 8 0.46982 1
gene 1 6 5 -0.246927 0 72 -0.246927 1
genomeend 54

/* Species #529 : (Size 7) (AF 0) (Age 4)  */


/* Organism #55 Fitness: 0 Error: 0 */
genomestart 55
node 1 2 1 3
node 2 1 1 1
node 3 1 1 1
node 4 2 1 1
node 5 2 0 2
node 6 2 0 2
gene 2 1 5 0.166833 0 1 0.166833 1
gene 2 2 5 6.13225 0 2 6.13225 1
gene 3 3 5 -0.201968 0 3 -0.201968 1
gene 1 4 5 2.85256 0 4 2.85256 1
gene 2 1 6 2.21696 0 5 2.21696 1
gene 1 2 6 0.393307 0 6 0.393307 1
gene 1 3 6 1.48291 0 7 1.48291 1
gene 2 4 6 2.7045 0 8 2.7045 1
gene 1 6 5 -0.346633 0 72 -0.346633 1
genomeend 55

/* Organism #56 Fitness: 0 Error: 0 */
genomestart 56
node 1 2 1 3
node 2 1 1 1
node 3 1 1 1
node 4 1 1 1
node 5 2 0 2
node 6 2 0 2
gene 2 1 5 1.55557 0 1 1.55557 1
gene 2 2 5 7.00938 0 2 7.00938 1
gene 3 3 5 -2.12309 0 3 -2.12309 1
gene 1 4 5 1.86072 0 4 1.86072 1
gene 2 1 6 2.48201 0 5 2.48201 1
gene 1 2 6 -0.146534 0 6 -0.146534 1
gene 1 3 6 2.09939 0 7 2.09939 1
gene 2 4 6 0.982919 0 8 0.982919 1
gene 1 6 5 0.0818676 0 72 0.0818676 1
genomeend 56

/* Organism #57 Fitness: 0 Error: 0 */
genomestart 57
node 1 2 1 3
node 2 1 1 1
node 3 1 1 1
node 4 1 1 1
node 5 2 0 2
node 6 2 0 2
gene 2 1 5 -0.625692 0 1 -0.625692 1
gene 2 2 5 5.10193 0 2 5.10193 1
gene 3 3 5 -2.24117 0 3 -2.24117 1
gene 1 4 5 2.21502 0 4 2.21502 1
gene 2 1 6 0.589446 0 5 0.589446 1
gene 1 2 6 -0.957587 0 6 -0.957587 1
gene 1 3 6 2.42226 0 7 2.42226 1
gene 2 4 6 2.92888 0 8 2.92888 1
gene 1 6 5 -0.994638 0 72 -0.994638 1
genomeend 57

/* Organism #58 Fitness: 0 Error: 0 */
genomestart 58
node 1 2 1 3
node 2 1 1 1
node 3 1 1 1
node 4 1 1 1
node 5 2 0 2
node 6 2 0 2
gene 2 1 5 -2.62453 0 1 -2.62453 1
gene 2 2 5 5.59604 0 2 5.59604 1
gene 3 3 5 -2.77328 0 3 -2.77328 1
gene 1 4 5 2.4712 0 4 2.4712 1
gene 2 1 6 3.03197 0 5 3.03197 1
gene 1 2 6 -1.49848 0 6 -1.49848 1
gene 1 3 6 0.585345 0 7 0.585345 1
gene 2 4 6 0.922883 0 8 0.922883 1
gene 1 6 5 1.82671 0 72 1.82671 1
genomeend 58

/* Organism #59 Fitness: 0 Error: 0 */
genomestart 59
node 1 2 1 3
node 2 1 1 1
node 3 1 1 1
node 4 1 1 1
node 5 2 0 2
node 6 2 0 2
gene 2 1 5 -2.10253 0 1 -2.10253 1
gene 2 2 5 7.41643 0 2 7.41643 1
gene 3 3 5 -0.836152 0 3 -0.836152 1
gene 1 4 5 3.61156 0 4 3.61156 1
gene 2 1 6 2.8528 0 5 2.8528 1
gene 1 2 6 1.69961 0 6 1.69961 1
gene 1 3 6 3.42564 0 7 3.42564 1
gene 2 4 6 -0.223036 0 8 -0.223036 1
gene 1 6 5 0.997864 0 72 0.997864 1
genomeend 59

/* Organism #60 Fitness: 0 Error: 0 */
genomestart 60
node 1 2 1 3
node 2 1 1 1
node 3 1 1 1
node 4 1 1 1
node 5 2 0 2
node 6 2 0 2
gene 2 1 5 -0.758266 0 1 -0.758266 1
gene 2 2 5 5.78721 0 2 5.78721 1
gene 3 3 5 -0.985163 0 3 -0.985163 1
gene 1 4 5 2.59546 0 4 2.59546 1
gene 2 1 6 1.52624 0 5 1.52624 1
gene 1 2 6 -1.21793 0 6 -1.21793 1
gene 1 3 6 4.19141 0 7 4.19141 1
gene 2 4 6 0.312023 0 8 0.312023 1
gene 1 6 5 2.67751 0 72 2.67751 1
genomeend 60

/* Organism #61 Fitness: 0 Error: 0 */
genomestart 61
node 1 2 1 3
node 2 1 1 1
node 3 1 1 1
node 4 1 1 1
node 5 2 0 2
node 6 2 0 2
gene 2 1 5 -0.193692 0 1 -0.193692 1
gene 2 2 5 7.24438 0 2 7.24438 1
gene 3 3 5 -2.66617 0 3 -2.66617 1
gene 1 4 5 3.02642 0 4 3.02642 1
gene 2 1 6 1.88375 0 5 1.88375 1
gene 1 2 6 -1.25518 0 6 -1.25518 1
gene 1 3 6 3.05316 0 7 3.05316 1
gene 2 4 6 1.6968 0 8 1.6968 1
gene 1 6 5 -1.02465 0 72 -1.02465 1
genomeend 61

/* Species #534 : (Size 26) (AF 0) (Age 4)  */


/* Organism #62 Fitness: 0 Error: 0 */
genomestart 62
node 1 2 1 3
node 2 1 1 1
node 3 1 1 1
node 4 1 1 1
node 5 2 0 2
node 6 2 0 2
gene 2 1 5 -1.26788 0 1 -1.26788 1
gene 2 2 5 7.05802 0 2 7.05802 1
gene 3 3 5 -1.38494 0 3 -1.38494 1
gene 1 4 5 0.291265 0 4 0.291265 1
gene 2 1 6 -1.36495 0 5 -1.36495 1
gene 1 2 6 0.372277 0 6 0.372277 1
gene 1 3 6 3.65025 0 7 3.65025 1
gene 2 4 6 -0.546548 0 8 -0.546548 1
gene 1 6 5 -0.596884 0 72 -0.596884 1
genomeend 62

/* Organism #63 Fitness: 0 Error: 0 */
genomestart 63
node 1 2 1 3
node 2 1 1 1
node 3 1 1 1
node 4 1 1 1
node 5 2 0 2
node 6 2 0 2
gene 2 1 5 -0.980631 0 1 -0.980631 1
gene 2 2 5 5.34916 0 2 5.34916 1
gene 3 3 5 1.37536 0 3 1.37536 1
gene 1 4 5 2.72486 0 4 2.72486 1
gene 2 1 6 1.34423 0 5 1.34423 1
gene 1 2 6 0.561972 0 6 0.561972 1
gene 1 3 6 1.23699 0 7 1.23699 1
gene 2 4 6 2.00875 0 8 2.00875 1
gene 1 6 5 2.31615 0 72 2.31615 1
genomeend 63

/* Organism #64 Fitness: 0 Error: 0 */
genomestart 64
node 1 2 1 3
node 2 1 1 1
node 3 1 1 1
node 4 1 1 1
node 5 2 0 2
node 6 2 0 2
gene 2 1 5 -3.07484 0 1 -3.07484 1
gene 2 2 5 4.57649 0 2 4.57649 1
gene 3 3 5 -0.00616238 0 3 -0.00616238 1
gene 1 4 5 2.32871 0 4 2.32871 1
gene 2 1 6 0.721584 0 5 0.721584 1
gene 1 2 6 2.76838 0 6 2.76838 1
gene 1 3 6 1.70722 0 7 1.70722 1
gene 2 4 6 0.953834 0 8 0.953834 1
gene 1 6 5 -1.20356 0 72 -1.20356 1
genomeend 64

/* Organism #65 Fitness: 0 Error: 0 */
genomestart 65
node 1 2 1 3
node 2 1 1 1
node 3 2 1 1
node 4 1 1 1
node 5 2 0 2
node 6 2 0 2
gene 2 1 5 -2.09549 0 1 -2.09549 1
gene 2 2 5 7.97208 0 2 7.97208 1
gene 3 3 5 -2.35121 0 3 -2.35121 1
gene 1 4 5 2.06547 0 4 2.06547 1
gene 2 1 6 0.0570251 0 5 0.0570251 1
gene 1 2 6 1.04456 0 6 1.04456 1
gene 1 3 6 4.49868 0 7 4.49868 1
gene 2 4 6 1.11785 0 8 1.11785 1
gene 1 6 5 -1.14359 0 72 -1.14359 1
genomeend 65

/* Organism #66 Fitness: 0 Error: 0 */
genomestart 66
node 1 2 1 3
node 2 1 1 1
node 3 1 1 1
node 4 1 1 1
node 5 2 0 2
node 6 2 0 2
gene 2 1 5 -1.93624 0 1 -1.93624 1
gene 2 2 5 5.36941 0 2 5.36941 1
gene 3 3 5 1.32992 0 3 1.32992 1
gene 1 4 5 4.23327 0 4 4.23327 1
gene 2 1 6 0.0446537 0 5 0.0446537 1
gene 1 2 6 -0.639294 0 6 -0.639294 1
gene 1 3 6 4.74555 0 7 4.74555 1
gene 2 4 6 -1.17546 0 8 -1.17546 1
gene 1 6 5 0.345252 0 72 0.345252 1
genomeend 66

/* Organism #67 Fitness: 0 Error: 0 */
genomestart 67
node 1 2 1 3
node 2 1 1 1
node 3 1 1 1
node 4 1 1 1
node 5 2 0 2
node 6 1 0 2
gene 2 1 5 0.315767 0 1 0.315767 1
gene 2 2 5 5.793 0 2 5.793 1
gene 3 3 5 -1.0585 0 3 -1.0585 1
gene 1 4 5 3.23148 0 4 3.23148 1
gene 2 1 6 0.619327 0 5 0.619327 1
gene 1 2 6 2.69744 0 6 2.69744 1
gene 1 3 6 4.17678 0 7 4.17678 1
gene 2 4 6 1.99169 0 8 1.99169 1
gene 1 6 5 0.423954 0 72 0.423954 1
genomeend 67

/* Organism #68 Fitness: 0 Error: 0 */
genomestart 68
node 1 2 1 3
node 2 1 1 1
node 3 1 1 1
node 4 1 1 1
node 5 2 0 2
node 6 2 0 2
gene 2 1 5 0.78312 0 1 0.78312 1
gene 2 2 5 4.66694 0 2 4.66694 1
gene 3 3 5 -1.97367 0 3 -1.97367 1
gene 1 4 5 2.07512 0 4 2.07512 1
gene 2 1 6 3.12649 0 5 3.12649 1
gene 1 2 6 -1.88314 0 6 -1.88314 1
gene 1 3 6 1.06115 0 7 1.06115 1
gene 2 4 6 0.848858 0 8 0.848858 1
gene 1 6 5 2.28053 0 72 2.28053 1
genomeend 68

/* Organism #69 Fitness: 0 Error: 0 */
genomestart 69
node 1 2 1 3
node 2 1 1 1
node 3 1 1 1
node 4 1 1 1
node 5 2 0 2
node 6 2 0 2
gene 2 1 5 -0.980631 0 1 -0.980631 1
gene 2 2 5 5.78721 0 2 5.78721 1
gene 3 3 5 -0.985163 0 3 -0.985163 1
gene 1 4 5 2.06547 0 4 2.06547 1
gene 2 1 6 1.61085 0 5 1.61085 1
gene 1 2 6 0.372277 0 6 0.372277 1
gene 1 3 6 3.00532 0 7 3.00532 1
gene 2 4 6 0.922883 0 8 0.922883 1
gene 1 6 5 0.528503 0 72 0.528503 1
gene 1 5 5 -0.101194 1 169 -0.101194 1
genomeend 69

/* Organism #70 Fitness: 0 Error: 0 */
genomestart 70
node 1 2 1 3
node 2 1 1 1
node 3 1 1 1
node 4 1 1 1
node 5 2 0 2
node 6 2 0 2
gene 2 1 5 -0.26395 0 1 -0.26395 1
gene 2 2 5 8 0 2 8 1
gene 3 3 5 -0.323843 0 3 -0.323843 1
gene 1 4 5 -0.403871 0 4 -0.403871 1
gene 2 1 6 2.46195 0 5 2.46195 1
gene 1 2 6 2.18377 0 6 2.18377 1
gene 1 3 6 3.10642 0 7 3.10642 1
gene 2 4 6 3.30523 0 8 3.30523 1
gene 1 6 5 0.0929356 0 72 0.0929356 1
genomeend 70

/* Organism #71 Fitness: 0 Error: 0 */
genomestart 71
node 1 2 1 3
node 2 1 1 1
node 3 1 1 1
node 4 1 1 1
node 5 2 0 2
node 6 2 0 2
gene 2 1 5 0.194798 0 1 0.194798 1
gene 2 2 5 6.14047 0 2 6.14047 1
gene 3 3 5 1.02075 0 3 1.02075 1
gene 1 4 5 0.45972 0 4 0.45972 1
gene 2 1 6 3.30877 0 5 3.30877 1
gene 1 2 6 1.81224 0 6 1.81224 1
gene 1 3 6 0.241469 0 7 0.241469 1
gene 2 4 6 0.922883 0 8 0.922883 1
gene 1 6 5 -1.83817 0 72 -1.83817 1
genomeend 71

/* Organism #72 Fitness: 0 Error: 0 */
genomestart 72
node 1 2 1 3
node 2 1 1 1
node 3 1 1 1
node 4 1 1 1
node 5 2 0 2
node 6 3 0 2
gene 2 1 5 -3.45125 0 1 -3.45125 1
gene 2 2 5 6.19655 0 2 6.19655 1
gene 3 3 5 -0.985163 0 3 -0.985163 1
gene 1 4 5 3.80717 0 4 3.80717 1
gene 2 1 6 1.84864 0 5 1.84864 1
gene 1 2 6 -0.912804 0 6 -0.912804 1
gene 1 3 6 0.962014 0 7 0.962014 1
gene 2 4 6 2.39379 0 8 2.39379 1
gene 1 6 5 -0.98836 0 72 -0.98836 1
genomeend 72

/* Organism #73 Fitness: 0 Error: 0 */
genomestart 73
node 1 2 1 3
node 2 1 1 1
node 3 1 1 1
node 4 1 1 1
node 5 2 0 2
node 6 2 0 2
gene 2 1 5 0.768628 0 1 0.768628 1
gene 2 2 5 7.01556 0 2 7.01556 1
gene 3 3 5 -2.34675 0 3 -2.34675 1
gene 1 4 5 3.0054 0 4 3.0054 1
gene 2 1 6 0.0040956 0 5 0.0040956 1
gene 1 2 6 2.83518 0 6 2.83518 1
gene 1 3 6 1.59213 0 7 1.59213 1
gene 2 4 6 0.0527523 0 8 0.0527523 1
gene 1 6 5 -0.477899 0 72 -0.477899 1
genomeend 73

/* Organism #74 Fitness: 0 Error: 0 */
genomestart 74
node 1 2 1 3
node 2 1 1 1
node 3 1 1 1
node 4 1 1 1
node 5 2 0 2
node 6 2 0 2
gene 2 1 5 -0.146672 0 1 -0.146672 1
gene 2 2 5 7.51708 0 2 7.51708 1
gene 3 3 5 0.972477 0 3 0.972477 1
gene 1 4 5 2.06547 0 4 2.06547 1
gene 2 1 6 1.35032 0 5 1.35032 1
gene 1 2 6 -0.0803378 0 6 -0.0803378 1
gene 1 3 6 0.848385 0 7 0.848385 1
gene 2 4 6 1.0995 0 8 1.0995 1
gene 1 6 5 0.165702 0 72 0.165702 1
genomeend 74

/* Organism #75 Fitness: 0 Error: 0 */
genomestart 75
node 1 2 1 3
node 2 1 1 1
node 3 1 1 1
node 4 1 1 1
node 5 2 0 2
node 6 2 0 2
gene 2 1 5 0.665326 0 1 0.665326 1
gene 2 2 5 3.4588 0 2 3.4588 1
gene 3 3 5 1.17312 0 3 1.17312 1
gene 1 4 5 3.92078 0 4 3.92078 1
gene 2 1 6 -0.857387 0 5 -0.857387 1
gene 1 2 6 -0.0827799 0 6 -0.0827799 1
gene 1 3 6 3.83464 0 7 3.83464 1
gene 2 4 6 1.98489 0 8 1.98489 1
gene 1 6 5 0.984 0 72 0.984 1
genomeend 75

/* Organism #76 Fitness: 0 Error: 0 */
genomestart 76
node 1 2 1 3
node 2 1 1 1
node 3 1 1 1
node 4 1 1 1
node 5 2 0 2
node 6 2 0 2
gene 2 1 5 -2.473 0 1 -2.473 1
gene 2 2 5 5.74866 0 2 5.74866 1
gene 3 3 5 -3.24405 0 3 -3.24405 1
gene 1 4 5 3.53531 0 4 3.53531 1
gene 2 1 6 3.38545 0 5 3.38545 1
gene 1 2 6 1.84581 0 6 1.84581 1
gene 1 3 6 4.28503 0 7 4.28503 1
gene 2 4 6 3.39356 0 8 3.39356 1
gene 1 6 5 -0.637156 0 72 -0.637156 1
genomeend 76

/* Organism #77 Fitness: 0 Error: 0 */
genomestart 77
node 1 2 1 3
node 2 1 1 1
node 3 1 1 1
node 4 1 1 1
node 5 2 0 2
node 6 2 0 2
gene 2 1 5 0.621363 0 1 0.621363 1
gene 2 2 5 7.53171 0 2 7.53171 1
gene 3 3 5 0.254465 0 3 0.254465 1
gene 1 4 5 1.94103 0 4 1.94103 1
gene 2 1 6 -0.138765 0 5 -0.138765 1
gene 1 2 6 -1.99534 0 6 -1.99534 1
gene 1 3 6 1.41704 0 7 1.41704 1
gene 2 4 6 1.58052 0 8 1.58052 1
gene 1 6 5 -1.79697 0 72 -1.79697 1
genomeend 77

/* Organism #78 Fitness: 0 Error: 0 */
genomestart 78
node 1 2 1 3
node 2 1 1 1
node 3 1 1 1
node 4 1 1 1
node 5 2 0 2
node 6 2 0 2
gene 2 1 5 -1.86361 0 1 -1.86361 1
gene 2 2 5 8 0 2 8 1
gene 3 3 5 -1.30263 0 3 -1.30263 1
gene 1 4 5 3.59857 0 4 3.59857 1
gene 2 1 6 -0.523886 0 5 -0.523886 1
gene 1 2 6 1.62641 0 6 1.62641 1
gene 1 3 6 4.64181 0 7 4.64181 1
gene 2 4 6 -0.77445 0 8 -0.77445 1
gene 1 6 5 0.810874 0 72 0.810874 1
genomeend 78

/* Organism #79 Fitness: 0 Error: 0 */
genomestart 79
node 1 2 1 3
node 2 2 1 1
node 3 1 1 1
node 4 1 1 1
node 5 2 0 2
node 6 2 0 2
gene 2 1 5 -1.33577 0 1 -1.33577 1
gene 2 2 5 4.36424 0 2 4.36424 1
gene 3 3 5 -0.92861 0 3 -0.92861 1
gene 1 4 5 3.47519 0 4 3.47519 1
gene 2 1 6 -2.04629 0 5 -2.04629 1
gene 1 2 6 1.70671 0 6 1.70671 1
gene 1 3 6 4.01905 0 7 4.01905 1
gene 2 4 6 1.7493 0 8 1.7493 1
gene 1 6 5 0.75652 0 72 0.75652 1
genomeend 79

/* Organism #80 Fitness: 0 Error: 0 */
genomestart 80
node 1 2 1 3
node 2 1 1 1
node 3 1 1 1
node 4 1 1 1
node 5 2 0 2
node 6 2 0 2
gene 2 1 5 1.43864 0 1 1.43864 1
gene 2 2 5 4.28119 0 2 4.28119 1
gene 3 3 5 -0.781582 0 3 -0.781582 1
gene 1 4 5 1.94643 0 4 1.94643 1
gene 2 1 6 3.16107 0 5 3.16107 1
gene 1 2 6 1.81647 0 6 1.81647 1
gene 1 3 6 1.87087 0 7 1.87087 1
gene 2 4 6 3.15491 0 8 3.15491 1
gene 1 6 5 1.68687 0 72 1.68687 1
genomeend 80

/* Organism #81 Fitness: 0 Error: 0 */
genomestart 81
node 1 2 1 3
node 2 1 1 1
node 3 1 1 1
node 4 1 1 1
node 5 2 0 2
node 6 2 0 2
gene 2 1 5 -2.29243 0 1 -2.29243 1
gene 2 2 5 6.39572 0 2 6.39572 1
gene 3 3 5 -0.381887 0 3 -0.381887 1
gene 1 4 5 4.54074 0 4 4.54074 1
gene 2 1 6 1.78419 0 5 1.78419 1
gene 1 2 6 0.679079 0 6 0.679079 1
gene 1 3 6 5.31358 0 7 5.31358 1
gene 2 4 6 0.910995 0 8 0.910995 1
gene 1 6 5 2.38659 0 72 2.38659 1
genomeend 81

/* Organism #82 Fitness: 0 Error: 0 */
genomestart 82
node 1 2 1 3
node 2 1 1 1
node 3 1 1 1
node 4 1 1 1
node 5 2 0 2
node 6 2 0 2
gene 2 1 5 0.120178 0 1 0.120178 1
gene 2 2 5 5.70075 0 2 5.70075 1
gene 3 3 5 -2.97616 0 3 -2.97616 1
gene 1 4 5 4.04052 0 4 4.04052 1
gene 2 1 6 2.01762 0 5 2.01762 1
gene 1 2 6 -0.98402 0 6 -0.98402 1
gene 1 3 6 1.0752 0 7 1.0752 1
gene 2 4 6 -1.29307 0 8 -1.29307 1
gene 1 6 5 -0.521496 0 72 -0.521496 1
genomeend 82

/* Organism #83 Fitness: 0 Error: 0 */
genomestart 83
node 1 2 1 3
node 2 1 1 1
node 3 1 1 1
node 4 1 1 1
node 5 2 0 2
node 6 2 0 2
gene 2 1 5 -2.97081 0 1 -2.97081 1
gene 2 2 5 4.90678 0 2 4.90678 1
gene 3 3 5 1.27723 0 3 1.27723 1
gene 1 4 5 4.56366 0 4 4.56366 1
gene 2 1 6 -0.285546 0 5 -0.285546 1
gene 1 2 6 1.26381 0 6 1.26381 1
gene 1 3 6 4.03478 0 7 4.03478 1
gene 2 4 6 0.17657 0 8 0.17657 1
gene 1 6 5 0.996327 0 72 0.996327 1
genomeend 83

/* Organism #84 Fitness: 0 Error: 0 */
genomestart 84
node 1 2 1 3
node 2 1 1 1
node 3 1 1 1
node 4 1 1 1
node 5 2 0 2
node 6 2 0 2
gene 2 1 5 -0.596444 0 1 -0.596444 1
gene 2 2 5 7.3976 0 2 7.3976 1
gene 3 3 5 -1.56752 0 3 -1.56752 1
gene 1 4 5 0.711877 0 4 0.711877 1
gene 2 1 6 2.34033 0 5 2.34033 1
gene 1 2 6 2.75062 0 6 2.75062 1
gene 1 3 6 4.67574 0 7 4.67574 1
gene 2 4 6 1.85978 0 8 1.85978 1
gene 1 6 5 -0.972594 0 72 -0.972594 1
genomeend 84

/* Organism #85 Fitness: 0 Error: 0 */
genomestart 85
node 1 2 1 3
node 2 1 1 1
node 3 1 1 1
node 4 1 1 1
node 5 2 0 2
node 6 2 0 2
gene 2 1 5 -2.10617 0 1 -2.10617 1
gene 2 2 5 4.83016 0 2 4.83016 1
gene 3 3 5 -1.5332 0 3 -1.5332 1
gene 1 4 5 3.70548 0 4 3.70548 1
gene 2 1 6 1.61085 0 5 1.61085 1
gene 1 2 6 1.09376 0 6 1.09376 1
gene 1 3 6 1.10306 0 7 1.10306 1
gene 2 4 6 3.17056 0 8 3.17056 1
gene 1 6 5 -1.94505 0 72 -1.94505 1
genomeend 85

/* Organism #86 Fitness: 0 Error: 0 */
genomestart 86
node 1 2 1 3
node 2 1 1 1
node 3 1 1 1
node 4 1 1 1
node 5 2 0 2
node 6 2 0 2
gene 2 1 5 -3.40168 0 1 -3.40168 1
gene 2 2 5 7.01012 0 2 7.01012 1
gene 3 3 5 0.0720011 0 3 0.0720011 1
gene 1 4 5 2.38681 0 4 2.38681 1
gene 2 1 6 1.8023 0 5 1.8023 1
gene 1 2 6 2.30047 0 6 2.30047 1
gene 1 3 6 1.48455 0 7 1.48455 1
gene 2 4 6 -0.254709 0 8 -0.254709 1
gene 1 6 5 2.52205 0 72 2.52205 1
genomeend 86

/* Organism #87 Fitness: 0 Error: 0 */
genomestart 87
node 1 2 1 3
node 2 1 1 1
node 3 1 1 1
node 4 1 1 1
node 5 2 0 2
node 6 2 0 2
gene 2 1 5 0.322296 0 1 0.322296 1
gene 2 2 5 4.40595 0 2 4.40595 1
gene 3 3 5 -1.90679 0 3 -1.90679 1
gene 1 4 5 1.9948 0 4 1.9948 1
gene 2 1 6 3.39208 0 5 3.39208 1
gene 1 2 6 1.62165 0 6 1.62165 1
gene 1 3 6 1.39428 0 7 1.39428 1
gene 2 4 6 2.88174 0 8 2.88174 1
gene 1 6 5 -1.68298 0 72 -1.68298 1
genomeend 87

/* Species #538 : (Size 1) (AF 0) (Age 3)  */


/* Organism #88 Fitness: 0 Error: 0 */
genomestart 88
node 1 2 1 3
node 2 1 1 1
node 3 1 1 1
node 4 1 1 1
node 5 2 0 2
node 6 2 0 2
gene 2 1 5 -1.15841 0 1 -1.15841 1
gene 2 2 5 1.90371 0 2 1.90371 1
gene 3 3 5 -0.654819 0 3 -0.654819 1
gene 1 4 5 1.23249 0 4 1.23249 1
gene 2 1 6 -0.0196073 0 5 -0.0196073 1
gene 1 2 6 2.67129 0 6 2.67129 1
gene 1 3 6 1.1656 0 7 1.1656 1
gene 2 4 6 -1.52046 0 8 -1.52046 1
gene 1 6 5 -1.50953 0 72 -1.50953 1
genomeend 88

/* Species #550 : (Size 2) (AF 0) (Age 1)  */


/* Organism #89 Fitness: 0 Error: 0 */
genomestart 89
node 1 2 1 3
node 2 1 1 1
node 3 1 1 1
node 4 1 1 1
node 5 2 0 2
node 6 2 0 2
gene 2 1 5 -3.15605 0 1 -3.15605 1
gene 2 2 5 5.68854 0 2 5.68854 1
gene 3 3 5 -1.5867 0 3 -1.5867 1
gene 1 4 5 4.47523 0 4 4.47523 1
gene 2 1 6 3.08511 0 5 3.08511 1
gene 1 2 6 1.64944 0 6 1.64944 1
gene 1 3 6 -1.41301 0 7 -1.41301 1
gene 2 4 6 -1.25058 0 8 -1.25058 1
gene 3 6 5 0.544618 0 72 0.544618 1
genomeend 89

/* Organism #90 Fitness: 0 Error: 0 */
genomestart 90
node 1 2 1 3
node 2 1 1 1
node 3 1 1 1
node 4 1 1 1
node 5 2 0 2
node 6 2 0 2
gene 2 1 5 -3.01436 0 1 -3.01436 1
gene 2 2 5 7.11112 0 2 7.11112 1
gene 3 3 5 -1.34419 0 3 -1.34419 1
gene 1 4 5 0.680546 0 4 0.680546 1
gene 2 1 6 0.0928786 0 5 0.0928786 1
gene 1 2 6 2.03287 0 6 2.03287 1
gene 1 3 6 0.832754 0 7 0.832754 1
gene 2 4 6 -1.50467 0 8 -1.50467 1
gene 1 6 5 2.4806 0 72 2.4806 1
genomeend 90

/* Species #551 : (Size 1) (AF 0) (Age 1)  */


/* Organism #91 Fitness: 0 Error: 0 */
genomestart 91
node 1 2 1 3
node 2 1 1 1
node 3 1 1 1
node 4 1 1 1
node 5 2 0 2
node 6 2 0 2
gene 2 1 5 -2.97717 0 1 -2.97717 1
gene 2 2 5 7.0879 0 2 7.0879 1
gene 3 3 5 -2.45854 0 3 -2.45854 1
gene 1 4 5 3.93683 0 4 3.93683 1
gene 2 1 6 1.02495 0 5 1.02495 1
gene 1 2 6 -1.93197 0 6 -1.93197 1
gene 1 3 6 1.92936 0 7 1.92936 1
gene 2 4 6 2.00372 0 8 2.00372 1
gene 1 6 5 -1.84738 0 72 -1.84738 1
genomeend 91

/* Species #552 : (Size 2) (AF 0) (Age 1)  */


/* Organism #92 Fitness: 0 Error: 0 */
genomestart 92
node 1 2 1 3
node 2 1 1 1
node 3 1 1 1
node 4 1 1 1
node 5 2 0 2
node 6 2 0 2
gene 2 1 5 -0.980631 0 1 -0.980631 1
gene 2 2 5 5.77359 0 2 5.77359 1
gene 3 3 5 -0.586049 0 3 -0.586049 1
gene 1 4 5 -2.49197 0 4 -2.49197 1
gene 2 1 6 -0.448706 0 5 -0.448706 1
gene 1 2 6 -1.49346 0 6 -1.49346 1
gene 1 3 6 -2.06035 0 7 -2.06035 1
gene 2 4 6 -0.388712 0 8 -0.388712 1
gene 1 6 5 2.4847 0 72 2.4847 1
genomeend 92

/* Organism #93 Fitness: 0 Error: 0 */
genomestart 93
node 1 2 1 3
node 2 1 1 1
node 3 1 1 1
node 4 1 1 1
node 5 2 0 2
node 6 2 0 2
gene 2 1 5 0.884508 0 1 0.884508 1
gene 2 2 5 5.78721 0 2 5.78721 1
gene 3 3 5 -1.7257 0 3 -1.7257 1
gene 1 4 5 0.319177 0 4 0.319177 1
gene 2 1 6 0.63949 0 5 0.63949 1
gene 1 2 6 0.0307201 0 6 0.0307201 1
gene 1 3 6 -2.46069 0 7 -2.46069 1
gene 2 4 6 -1.78678 0 8 -1.78678 1
gene 1 6 5 1.11211 0 72 1.11211 1
genomeend 93

/* Species #553 : (Size 1) (AF 0) (Age 1)  */


/* Organism #94 Fitness: 0 Error: 0 */
genomestart 94
node 1 2 1 3
node 2 1 1 1
node 3 1 1 1
node 4 1 1 1
node 5 2 0 2
node 6 2 0 2
gene 2 1 5 0.648476 0 1 0.648476 1
gene 2 2 5 7.72488 0 2 7.72488 1
gene 3 3 5 1.20672 0 3 1.20672 1
gene 1 4 5 4.51347 0 4 4.51347 1
gene 2 1 6 2.4578 0 5 2.4578 1
gene 1 2 6 2.47902 0 6 2.47902 1
gene 1 3 6 2.01587 0 7 2.01587 1
gene 2 4 6 -0.40674 0 8 -0.40674 1
gene 1 6 5 0.659717 0 72 0.659717 1
genomeend 94

/* Species #554 : (Size 2) (AF 0) (Age 1)  */


/* Organism #95 Fitness: 0 Error: 0 */
genomestart 95
node 1 2 1 3
node 2 1 1 1
node 3 1 1 1
node 4 1 1 1
node 5 2 0 2
node 6 2 0 2
gene 2 1 5 1.37483 0 1 1.37483 1
gene 2 2 5 3.48111 0 2 3.48111 1
gene 3 3 5 1.37292 0 3 1.37292 1
gene 1 4 5 2.3726 0 4 2.3726 1
gene 2 1 6 2.14488 0 5 2.14488 1
gene 1 2 6 -1.31423 0 6 -1.31423 1
gene 1 3 6 -1.49102 0 7 -1.49102 1
gene 2 4 6 2.4816 0 8 2.4816 1
gene 1 6 5 -0.644109 0 72 -0.644109 1
genomeend 95

/* Organism #96 Fitness: 0 Error: 0 */
genomestart 96
node 1 2 1 3
node 2 1 1 1
node 3 1 1 1
node 4 1 1 1
node 5 2 0 2
node 6 2 0 2
gene 2 1 5 -1.47651 0 1 -1.47651 1
gene 2 2 5 1.93781 0 2 1.93781 1
gene 3 3 5 -1.49921 0 3 -1.49921 1
gene 1 4 5 2.18153 0 4 2.18153 1
gene 2 1 6 0.50901 0 5 0.50901 1
gene 1 2 6 -1.53251 0 6 -1.53251 1
gene 1 3 6 -1.99275 0 7 -1.99275 1
gene 2 4 6 1.54015 0 8 1.54015 1
gene 1 6 5 0.00883707 0 72 0.00883707 1
genomeend 96

/* Species #555 : (Size 1) (AF 0) (Age 1)  */


/* Organism #97 Fitness: 0 Error: 0 */
genomestart 97
node 1 2 1 3
node 2 1 1 1
node 3 1 1 1
node 4 1 1 1
node 5 2 0 2
node 6 2 0 2
gene 2 1 5 -1.0692 0 1 -1.0692 1
gene 2 2 5 0.0877168 0 2 0.0877168 1
gene 3 3 5 -3.16722 0 3 -3.16722 1
gene 1 4 5 2.75746 0 4 2.75746 1
gene 2 1 6 -0.261993 0 5 -0.261993 1
gene 1 2 6 0.372277 0 6 0.372277 1
gene 1 3 6 4.99802 0 7 4.99802 1
gene 2 4 6 -0.0448456 0 8 -0.0448456 1
gene 1 6 5 2.64368 0 72 2.64368 1
genomeend 97

/* Species #556 : (Size 2) (AF 0) (Age 1)  */


/* Organism #98 Fitness: 0 Error: 0 */
genomestart 98
node 1 2 1 3
node 2 1 1 1
node 3 1 1 1
node 4 1 1 1
node 5 2 0 2
node 6 2 0 2
gene 2 1 5 -1.466 0 1 -1.466 1
gene 2 2 5 7.21503 0 2 7.21503 1
gene 3 3 5 0.412898 0 3 0.412898 1
gene 1 4 5 3.095 0 4 3.095 1
gene 2 1 6 -0.0127756 0 5 -0.0127756 1
gene 1 2 6 -1.92959 0 6 -1.92959 1
gene 1 3 6 4.21661 0 7 4.21661 1
gene 2 4 6 3.25714 0 8 3.25714 1
gene 1 6 5 2.50142 0 72 2.50142 1
genomeend 98

/* Organism #99 Fitness: 0 Error: 0 */
genomestart 99
node 1 2 1 3
node 2 1 1 1
node 3 1 1 1
node 4 1 1 1
node 5 2 0 2
node 6 2 0 2
gene 2 1 5 1.58673 0 1 1.58673 1
gene 2 2 5 5.78721 0 2 5.78721 1
gene 3 3 5 2.2857 0 3 2.2857 1
gene 1 4 5 4.42323 0 4 4.42323 1
gene 2 1 6 -0.445741 0 5 -0.445741 1
gene 1 2 6 0.372277 0 6 0.372277 1
gene 1 3 6 2.28338 0 7 2.28338 1
gene 2 4 6 3.09778 0 8 3.09778 1
gene 1 6 5 1.84586 0 72 1.84586 1
genomeend 99
