
/* Species #1 : (Size 2) (AF 7.5) (Age 8)  */


/* Organism #0 Fitness: 7 Error: 0 */
genomestart 0
node 1 3 1 3
node 2 2 1 1
node 3 1 1 1
node 4 3 1 1
node 5 1 1 1
node 6 2 0 2
node 7 3 0 2
gene 2 1 6 0.396979 0 1 0.396979 1
gene 3 2 6 -0.626175 0 2 -0.626175 1
gene 1 3 6 -0.290136 0 3 -0.290136 1
gene 3 4 6 -2.14427 0 4 -2.14427 1
gene 1 5 6 -1.10447 0 5 -1.10447 1
gene 1 1 7 0.220498 0 6 0.220498 1
gene 1 2 7 1.2821 0 7 1.2821 1
gene 2 3 7 -0.49312 0 8 -0.49312 1
gene 3 4 7 -0.979481 0 9 -0.979481 1
gene 3 5 7 -0.188995 0 10 -0.188995 1
gene 3 6 7 0.259774 0 35 0.259774 1
genomeend 0

/* Organism #1 Fitness: 8 Error: 0 */
genomestart 1
node 1 3 1 3
node 2 2 1 1
node 3 1 1 1
node 4 1 1 1
node 5 2 1 1
node 6 2 0 2
node 7 3 0 2
gene 2 1 6 1.73384 0 1 1.73384 1
gene 3 2 6 1.26399 0 2 1.26399 1
gene 3 3 6 2.91464 0 3 2.91464 1
gene 3 4 6 -4.22877 0 4 -4.22877 1
gene 2 5 6 -1.02982 0 5 -1.02982 1
gene 2 1 7 0.807953 0 6 0.807953 1
gene 2 2 7 0.876717 0 7 0.876717 1
gene 2 3 7 -2.60775 0 8 -2.60775 1
gene 2 4 7 0.557913 0 9 0.557913 1
gene 1 5 7 0.645709 0 10 0.645709 1
gene 3 6 7 0.69452 0 35 0.69452 1
genomeend 1

/* Species #4 : (Size 2) (AF 25.5) (Age 7)  */


/* Organism #2 Fitness: 6 Error: 0 */
genomestart 2
node 1 3 1 3
node 2 1 1 1
node 3 2 1 1
node 4 1 1 1
node 5 3 1 1
node 6 2 0 2
node 7 2 0 2
gene 1 1 6 -0.642076 0 1 -0.642076 1
gene 2 2 6 6.19331 0 2 6.19331 1
gene 1 3 6 2.70144 0 3 2.70144 1
gene 2 4 6 2.63013 0 4 2.63013 1
gene 1 5 6 -2.22611 0 5 -2.22611 1
gene 1 1 7 1.4447 0 6 1.4447 1
gene 1 2 7 2.83355 0 7 2.83355 1
gene 2 3 7 -3.22247 0 8 -3.22247 1
gene 2 4 7 1.83235 0 9 1.83235 1
gene 3 5 7 2.09879 0 10 2.09879 1
gene 2 6 7 -0.282863 0 55 -0.282863 1
genomeend 2

/* Organism #3 Fitness: 45 Error: 0 */
genomestart 3
node 1 3 1 3
node 2 1 1 1
node 3 2 1 1
node 4 1 1 1
node 5 1 1 1
node 6 3 0 2
node 7 1 0 2
gene 2 1 6 -0.0389933 0 1 -0.0389933 1
gene 2 2 6 4.66521 0 2 4.66521 1
gene 3 3 6 -0.545623 0 3 -0.545623 1
gene 3 4 6 2.4231 0 4 2.4231 1
gene 2 5 6 -3.14351 0 5 -3.14351 1
gene 1 1 7 1.2538 0 6 1.2538 1
gene 3 2 7 0.175509 0 7 0.175509 1
gene 1 3 7 0.973621 0 8 0.973621 1
gene 3 4 7 1.96862 0 9 1.96862 1
gene 1 5 7 2.25188 0 10 2.25188 1
genomeend 3

/* Species #6 : (Size 3) (AF 8.33333) (Age 7)  */


/* Organism #4 Fitness: 1 Error: 0 */
genomestart 4
node 1 1 1 3
node 2 1 1 1
node 3 3 1 1
node 4 2 1 1
node 5 3 1 1
node 6 3 0 2
node 7 2 0 2
gene 2 1 6 -0.419458 0 1 -0.419458 1
gene 3 2 6 1.35441 0 2 1.35441 1
gene 3 3 6 6.22222 0 3 6.22222 1
gene 3 4 6 -4.0061 0 4 -4.0061 1
gene 2 5 6 2.31408 0 5 2.31408 1
gene 2 1 7 3.81793 0 6 3.81793 1
gene 3 2 7 3.44482 0 7 3.44482 1
gene 1 3 7 -1.61102 0 8 -1.61102 1
gene 3 4 7 5.95415 0 9 5.95415 1
gene 3 5 7 0.757697 0 10 0.757697 1
genomeend 4

/* Organism #5 Fitness: 4 Error: 0 */
genomestart 5
node 1 1 1 3
node 2 1 1 1
node 3 3 1 1
node 4 2 1 1
node 5 3 1 1
node 6 3 0 2
node 7 2 0 2
gene 2 1 6 -0.248789 0 1 -0.248789 1
gene 3 2 6 3.72994 0 2 3.72994 1
gene 3 3 6 5.07952 0 3 5.07952 1
gene 3 4 6 -0.122085 0 4 -0.122085 1
gene 2 5 6 1.47325 0 5 1.47325 1
gene 2 1 7 1.90246 0 6 1.90246 1
gene 3 2 7 0.314049 0 7 0.314049 1
gene 1 3 7 -1.48957 0 8 -1.48957 1
gene 3 4 7 3.00977 0 9 3.00977 1
gene 3 5 7 1.80702 0 10 1.80702 1
genomeend 5

/* Organism #6 Fitness: 20 Error: 0 */
genomestart 6
node 1 1 1 3
node 2 1 1 1
node 3 3 1 1
node 4 2 1 1
node 5 3 1 1
node 6 3 0 2
node 7 2 0 2
gene 2 1 6 0.610403 0 1 0.610403 1
gene 3 2 6 1.57671 0 2 1.57671 1
gene 3 3 6 6.19221 0 3 6.19221 1
gene 3 4 6 1.1871 0 4 1.1871 1
gene 2 5 6 -0.0857462 0 5 -0.0857462 1
gene 2 1 7 2.59608 0 6 2.59608 1
gene 3 2 7 -0.484 0 7 -0.484 1
gene 1 3 7 -1.59153 0 8 -1.59153 1
gene 3 4 7 2.13737 0 9 2.13737 1
gene 3 5 7 1.13166 0 10 1.13166 1
genomeend 6

/* Species #7 : (Size 1) (AF 15) (Age 7)  */


/* Organism #7 Fitness: 15 Error: 0 */
genomestart 7
node 1 3 1 3
node 2 2 1 1
node 3 1 1 1
node 4 1 1 1
node 5 2 1 1
node 6 2 0 2
node 7 3 0 2
gene 2 1 6 -1.83715 0 1 -1.83715 1
gene 3 2 6 4.93609 0 2 4.93609 1
gene 3 3 6 1.34173 0 3 1.34173 1
gene 3 4 6 -2.67175 0 4 -2.67175 1
gene 2 5 6 -2.94906 0 5 -2.94906 1
gene 2 1 7 2.44904 0 6 2.44904 1
gene 2 2 7 -1.86949 0 7 -1.86949 1
gene 2 3 7 -8 0 8 -8 1
gene 2 4 7 -0.0393595 0 9 -0.0393595 1
gene 1 5 7 0.956283 0 10 0.956283 1
genomeend 7

/* Species #8 : (Size 2) (AF 11) (Age 7)  */


/* Organism #8 Fitness: 14 Error: 0 */
genomestart 8
node 1 3 1 3
node 2 1 1 1
node 3 2 1 1
node 4 1 1 1
node 5 1 1 1
node 6 3 0 2
node 7 1 0 2
gene 2 1 6 3.86069 0 1 3.86069 1
gene 3 2 6 0.70305 0 2 0.70305 1
gene 1 3 6 -0.467951 0 3 -0.467951 1
gene 2 4 6 4.26525 0 4 4.26525 1
gene 2 5 6 2.53392 0 5 2.53392 1
gene 1 1 7 -1.42577 0 6 -1.42577 1
gene 2 2 7 0.261762 0 7 0.261762 1
gene 3 3 7 -4.10472 0 8 -4.10472 1
gene 1 4 7 0.776682 0 9 0.776682 1
gene 1 5 7 -1.03803 0 10 -1.03803 1
genomeend 8

/* Organism #9 Fitness: 8 Error: 0 */
genomestart 9
node 1 3 1 3
node 2 1 1 1
node 3 2 1 1
node 4 1 1 1
node 5 1 1 1
node 6 3 0 2
node 7 1 0 2
gene 2 1 6 5.48553 0 1 5.48553 1
gene 3 2 6 -1.10993 0 2 -1.10993 1
gene 1 3 6 0.155434 0 3 0.155434 1
gene 2 4 6 5.23265 0 4 5.23265 1
gene 2 5 6 3.39741 0 5 3.39741 1
gene 1 1 7 -2.10236 0 6 -2.10236 1
gene 2 2 7 2.54113 0 7 2.54113 1
gene 3 3 7 -3.94222 0 8 -3.94222 1
gene 1 4 7 -0.602311 0 9 -0.602311 1
gene 1 5 7 -1.03803 0 10 -1.03803 1
genomeend 9

/* Species #12 : (Size 33) (AF 207.848) (Age 7)  */


/* Organism #10 Fitness: 1 Error: 0 */
genomestart 10
node 1 3 1 3
node 2 2 1 1
node 3 1 1 1
node 4 1 1 1
node 5 2 1 1
node 6 2 0 2
node 7 3 0 2
gene 2 1 6 -0.164571 0 1 -0.164571 1
gene 3 2 6 -2.20129 0 2 -2.20129 1
gene 3 3 6 -2.70449 0 3 -2.70449 1
gene 3 4 6 -4.53509 0 4 -4.53509 1
gene 2 5 6 -3.7876 0 5 -3.7876 1
gene 2 1 7 -2.75904 0 6 -2.75904 1
gene 2 2 7 -2.47448 0 7 -2.47448 1
gene 2 3 7 -3.13614 0 8 -3.13614 1
gene 2 4 7 -2.26169 0 9 -2.26169 1
gene 1 5 7 -0.456777 0 10 -0.456777 1
gene 1 6 7 -2.37719 0 18 -2.37719 1
genomeend 10

/* Organism #11 Fitness: 11 Error: 0 */
genomestart 11
node 1 3 1 3
node 2 2 1 1
node 3 1 1 1
node 4 1 1 1
node 5 2 1 1
node 6 2 0 2
node 7 3 0 2
gene 2 1 6 -0.164571 0 1 -0.164571 1
gene 3 2 6 -1.36559 0 2 -1.36559 1
gene 3 3 6 -4.26266 0 3 -4.26266 1
gene 3 4 6 -5.37274 0 4 -5.37274 1
gene 2 5 6 -4.06564 0 5 -4.06564 1
gene 2 1 7 -0.853553 0 6 -0.853553 1
gene 2 2 7 -3.26152 0 7 -3.26152 1
gene 2 3 7 -1.27432 0 8 -1.27432 1
gene 2 4 7 -1.75909 0 9 -1.75909 1
gene 1 5 7 -0.456777 0 10 -0.456777 1
gene 1 6 7 -1.71358 0 18 -1.71358 1
genomeend 11

/* Organism #12 Fitness: 21 Error: 0 */
genomestart 12
node 1 3 1 3
node 2 2 1 1
node 3 1 1 1
node 4 1 1 1
node 5 2 1 1
node 6 2 0 2
node 7 3 0 2
gene 2 1 6 -0.201412 0 1 -0.201412 1
gene 3 2 6 -1.83526 0 2 -1.83526 1
gene 3 3 6 -2.33221 0 3 -2.33221 1
gene 3 4 6 -2.70944 0 4 -2.70944 1
gene 2 5 6 -5.97532 0 5 -5.97532 1
gene 2 1 7 -2.58552 0 6 -2.58552 1
gene 2 2 7 -1.28388 0 7 -1.28388 1
gene 2 3 7 -2.32483 0 8 -2.32483 1
gene 2 4 7 -0.822804 0 9 -0.822804 1
gene 1 5 7 -0.0200202 0 10 -0.0200202 1
gene 1 6 7 -2.37719 0 18 -2.37719 1
genomeend 12

/* Organism #13 Fitness: 8 Error: 0 */
genomestart 13
node 1 3 1 3
node 2 2 1 1
node 3 1 1 1
node 4 1 1 1
node 5 2 1 1
node 6 2 0 2
node 7 3 0 2
gene 2 1 6 -1.73027 0 1 -1.73027 1
gene 3 2 6 -4.24969 0 2 -4.24969 1
gene 3 3 6 -5.03321 0 3 -5.03321 1
gene 3 4 6 -3.78543 0 4 -3.78543 1
gene 2 5 6 -3.90183 0 5 -3.90183 1
gene 2 1 7 -3.06682 0 6 -3.06682 1
gene 2 2 7 -2.17646 0 7 -2.17646 1
gene 2 3 7 -2.56281 0 8 -2.56281 1
gene 2 4 7 -1.08576 0 9 -1.08576 1
gene 1 5 7 -0.456777 0 10 -0.456777 1
gene 1 6 7 0.117428 0 18 0.117428 1
genomeend 13

/* Organism #14 Fitness: 3 Error: 0 */
genomestart 14
node 1 3 1 3
node 2 2 1 1
node 3 1 1 1
node 4 1 1 1
node 5 2 1 1
node 6 2 0 2
node 7 3 0 2
gene 2 1 6 -2.65437 0 1 -2.65437 1
gene 3 2 6 -0.167997 0 2 -0.167997 1
gene 3 3 6 -4.34359 0 3 -4.34359 1
gene 3 4 6 -4.88211 0 4 -4.88211 1
gene 2 5 6 -2.9561 0 5 -2.9561 1
gene 2 1 7 -2.46183 0 6 -2.46183 1
gene 2 2 7 -1.8997 0 7 -1.8997 1
gene 2 3 7 -1.96403 0 8 -1.96403 1
gene 2 4 7 -0.748707 0 9 -0.748707 1
gene 1 5 7 -0.456777 0 10 -0.456777 1
gene 1 6 7 -2.49251 0 18 -2.49251 1
genomeend 14

/* Organism #15 Fitness: 61 Error: 0 */
genomestart 15
node 1 3 1 3
node 2 2 1 1
node 3 1 1 1
node 4 1 1 1
node 5 2 1 1
node 6 2 0 2
node 7 3 0 2
gene 2 1 6 -0.164571 0 1 -0.164571 1
gene 3 2 6 -2.20129 0 2 -2.20129 1
gene 3 3 6 -2.70449 0 3 -2.70449 1
gene 3 4 6 -4.53509 0 4 -4.53509 1
gene 2 5 6 -3.7876 0 5 -3.7876 1
gene 2 1 7 -2.75904 0 6 -2.75904 1
gene 2 2 7 -2.47448 0 7 -2.47448 1
gene 2 3 7 -3.13614 0 8 -3.13614 1
gene 2 4 7 -2.26169 0 9 -2.26169 1
gene 1 5 7 -0.456777 0 10 -0.456777 1
gene 1 6 7 -2.37719 0 18 -2.37719 1
genomeend 15

/* Organism #16 Fitness: 6 Error: 0 */
genomestart 16
node 1 3 1 3
node 2 2 1 1
node 3 1 1 1
node 4 1 1 1
node 5 2 1 1
node 6 2 0 2
node 7 3 0 2
gene 2 1 6 1.63039 0 1 1.63039 1
gene 3 2 6 -0.817278 0 2 -0.817278 1
gene 3 3 6 -2.77855 0 3 -2.77855 1
gene 3 4 6 -2.55494 0 4 -2.55494 1
gene 2 5 6 -3.09176 0 5 -3.09176 1
gene 2 1 7 -2.54005 0 6 -2.54005 1
gene 2 2 7 -0.829589 0 7 -0.829589 1
gene 2 3 7 -3.29768 0 8 -3.29768 1
gene 2 4 7 -1.20116 0 9 -1.20116 1
gene 1 5 7 -0.538269 0 10 -0.538269 1
gene 1 6 7 -0.737466 0 18 -0.737466 1
genomeend 16

/* Organism #17 Fitness: 7 Error: 0 */
genomestart 17
node 1 3 1 3
node 2 2 1 1
node 3 1 1 1
node 4 1 1 1
node 5 2 1 1
node 6 2 0 2
node 7 3 0 2
gene 2 1 6 1.88651 0 1 1.88651 1
gene 3 2 6 -0.031685 0 2 -0.031685 1
gene 3 3 6 -2.70449 0 3 -2.70449 1
gene 3 4 6 -6.91552 0 4 -6.91552 1
gene 2 5 6 -0.467514 0 5 -0.467514 1
gene 2 1 7 -0.883221 0 6 -0.883221 1
gene 2 2 7 -1.5769 0 7 -1.5769 1
gene 2 3 7 -2.69437 0 8 -2.69437 1
gene 2 4 7 -2.29058 0 9 -2.29058 1
gene 1 5 7 -0.658872 0 10 -0.658872 1
gene 1 6 7 -3.80105 0 18 -3.80105 1
genomeend 17

/* Organism #18 Fitness: 417 Error: 0 */
genomestart 18
node 1 3 1 3
node 2 2 1 1
node 3 1 1 1
node 4 1 1 1
node 5 2 1 1
node 6 2 0 2
node 7 3 0 2
gene 2 1 6 -1.67158 0 1 -1.67158 1
gene 3 2 6 -0.857905 0 2 -0.857905 1
gene 3 3 6 -5.05681 0 3 -5.05681 1
gene 3 4 6 -5.28381 0 4 -5.28381 1
gene 2 5 6 -5.67795 0 5 -5.67795 1
gene 2 1 7 -4.98781 0 6 -4.98781 1
gene 2 2 7 -3.27574 0 7 -3.27574 1
gene 2 3 7 -1.98088 0 8 -1.98088 1
gene 2 4 7 -3.80293 0 9 -3.80293 1
gene 1 5 7 0.356922 0 10 0.356922 1
gene 1 6 7 -0.927182 0 18 -0.927182 1
genomeend 18

/* Organism #19 Fitness: 9 Error: 0 */
genomestart 19
node 1 3 1 3
node 2 2 1 1
node 3 1 1 1
node 4 1 1 1
node 5 2 1 1
node 6 2 0 2
node 7 1 0 2
gene 2 1 6 -0.355446 0 1 -0.355446 1
gene 3 2 6 -0.164676 0 2 -0.164676 1
gene 3 3 6 -4.59775 0 3 -4.59775 1
gene 3 4 6 -4.02131 0 4 -4.02131 1
gene 2 5 6 -4.55582 0 5 -4.55582 1
gene 2 1 7 -2.25014 0 6 -2.25014 1
gene 2 2 7 -0.776818 0 7 -0.776818 1
gene 2 3 7 -1.85481 0 8 -1.85481 1
gene 2 4 7 -2.26169 0 9 -2.26169 1
gene 1 5 7 0.0393649 0 10 0.0393649 1
gene 1 6 7 2.03856 0 18 2.03856 1
genomeend 19

/* Organism #20 Fitness: 12 Error: 0 */
genomestart 20
node 1 3 1 3
node 2 2 1 1
node 3 1 1 1
node 4 1 1 1
node 5 2 1 1
node 6 2 0 2
node 7 3 0 2
gene 2 1 6 1.69214 0 1 1.69214 1
gene 3 2 6 -1.85289 0 2 -1.85289 1
gene 3 3 6 -1.99823 0 3 -1.99823 1
gene 3 4 6 -6.43566 0 4 -6.43566 1
gene 2 5 6 -5.82799 0 5 -5.82799 1
gene 2 1 7 -3.75182 0 6 -3.75182 1
gene 2 2 7 -2.10805 0 7 -2.10805 1
gene 2 3 7 -3.39195 0 8 -3.39195 1
gene 2 4 7 -3.09053 0 9 -3.09053 1
gene 1 5 7 -1.87074 0 10 -1.87074 1
gene 1 6 7 -4.05374 0 18 -4.05374 1
genomeend 20

/* Organism #21 Fitness: 153 Error: 0 */
genomestart 21
node 1 3 1 3
node 2 2 1 1
node 3 1 1 1
node 4 1 1 1
node 5 2 1 1
node 6 2 0 2
node 7 3 0 2
gene 2 1 6 -0.164571 0 1 -0.164571 1
gene 3 2 6 -2.20129 0 2 -2.20129 1
gene 3 3 6 -2.70449 0 3 -2.70449 1
gene 3 4 6 -4.53509 0 4 -4.53509 1
gene 2 5 6 -3.7876 0 5 -3.7876 1
gene 2 1 7 -2.75904 0 6 -2.75904 1
gene 2 2 7 -2.47448 0 7 -2.47448 1
gene 2 3 7 -3.13614 0 8 -3.13614 1
gene 2 4 7 -2.26169 0 9 -2.26169 1
gene 1 5 7 -0.456777 0 10 -0.456777 1
gene 1 6 7 -2.37719 0 18 -2.37719 1
genomeend 21

/* Organism #22 Fitness: 5 Error: 0 */
genomestart 22
node 1 3 1 3
node 2 2 1 1
node 3 1 1 1
node 4 1 1 1
node 5 2 1 1
node 6 2 0 2
node 7 3 0 2
gene 2 1 6 -1.46102 0 1 -1.46102 1
gene 3 2 6 -4.07579 0 2 -4.07579 1
gene 3 3 6 -2.6026 0 3 -2.6026 1
gene 3 4 6 -5.54987 0 4 -5.54987 1
gene 2 5 6 -2.20563 0 5 -2.20563 1
gene 2 1 7 -0.515629 0 6 -0.515629 1
gene 2 2 7 -0.169335 0 7 -0.169335 1
gene 2 3 7 -4.46893 0 8 -4.46893 1
gene 2 4 7 0.0157708 0 9 0.0157708 1
gene 1 5 7 -0.426594 0 10 -0.426594 1
gene 1 6 7 -3.45987 0 18 -3.45987 1
genomeend 22

/* Organism #23 Fitness: 8 Error: 0 */
genomestart 23
node 1 3 1 3
node 2 2 1 1
node 3 1 1 1
node 4 1 1 1
node 5 2 1 1
node 6 2 0 2
node 7 3 0 2
gene 2 1 6 1.31941 0 1 1.31941 1
gene 3 2 6 0.105793 0 2 0.105793 1
gene 3 3 6 -4.7847 0 3 -4.7847 1
gene 3 4 6 -2.47291 0 4 -2.47291 1
gene 2 5 6 -2.34904 0 5 -2.34904 1
gene 2 1 7 -4.52325 0 6 -4.52325 1
gene 2 2 7 -1.42075 0 7 -1.42075 1
gene 2 3 7 -4.20873 0 8 -4.20873 1
gene 2 4 7 -3.75044 0 9 -3.75044 1
gene 1 5 7 -0.75881 0 10 -0.75881 1
gene 1 6 7 -3.0606 0 18 -3.0606 1
genomeend 23

/* Organism #24 Fitness: 12 Error: 0 */
genomestart 24
node 1 3 1 3
node 2 2 1 1
node 3 1 1 1
node 4 1 1 1
node 5 2 1 1
node 6 2 0 2
node 7 3 0 2
gene 2 1 6 -2.39262 0 1 -2.39262 1
gene 3 2 6 -4.00524 0 2 -4.00524 1
gene 3 3 6 -3.13318 0 3 -3.13318 1
gene 3 4 6 -1.63027 0 4 -1.63027 1
gene 2 5 6 -2.6207 0 5 -2.6207 1
gene 2 1 7 -3.49004 0 6 -3.49004 1
gene 2 2 7 -4.06404 0 7 -4.06404 1
gene 2 3 7 -2.41155 0 8 -2.41155 1
gene 2 4 7 -0.965598 0 9 -0.965598 1
gene 1 5 7 -2.01527 0 10 -2.01527 1
gene 1 6 7 -2.37719 0 18 -2.37719 1
genomeend 24

/* Organism #25 Fitness: 136 Error: 0 */
genomestart 25
node 1 1 1 3
node 2 2 1 1
node 3 1 1 1
node 4 1 1 1
node 5 2 1 1
node 6 2 0 2
node 7 3 0 2
gene 2 1 6 -1.76474 0 1 -1.76474 1
gene 3 2 6 -0.254424 0 2 -0.254424 1
gene 3 3 6 -4.79447 0 3 -4.79447 1
gene 3 4 6 -6.88591 0 4 -6.88591 1
gene 2 5 6 -5.85835 0 5 -5.85835 1
gene 2 1 7 -3.81288 0 6 -3.81288 1
gene 2 2 7 -2.95748 0 7 -2.95748 1
gene 2 3 7 -3.06255 0 8 -3.06255 1
gene 1 4 7 -1.84924 0 9 -1.84924 1
gene 1 5 7 -0.456777 0 10 -0.456777 1
gene 1 6 7 -1.40463 0 18 -1.40463 1
genomeend 25

/* Organism #26 Fitness: 24 Error: 0 */
genomestart 26
node 1 3 1 3
node 2 2 1 1
node 3 1 1 1
node 4 1 1 1
node 5 2 1 1
node 6 2 0 2
node 7 3 0 2
gene 2 1 6 -0.723397 0 1 -0.723397 1
gene 3 2 6 -3.8169 0 2 -3.8169 1
gene 3 3 6 -1.18643 0 3 -1.18643 1
gene 3 4 6 -6.61489 0 4 -6.61489 1
gene 2 5 6 -4.65385 0 5 -4.65385 1
gene 2 1 7 -3.7572 0 6 -3.7572 1
gene 2 2 7 -0.726158 0 7 -0.726158 1
gene 2 3 7 -3.43401 0 8 -3.43401 1
gene 2 4 7 -3.8302 0 9 -3.8302 1
gene 1 5 7 -0.587218 0 10 -0.587218 1
gene 1 6 7 -1.0701 0 18 -1.0701 1
genomeend 26

/* Organism #27 Fitness: 67 Error: 0 */
genomestart 27
node 1 3 1 3
node 2 2 1 1
node 3 1 1 1
node 4 1 1 1
node 5 2 1 1
node 6 2 0 2
node 7 3 0 2
gene 2 1 6 1.53574 0 1 1.53574 1
gene 3 2 6 -2.51105 0 2 -2.51105 1
gene 3 3 6 -1.50764 0 3 -1.50764 1
gene 3 4 6 -6.86027 0 4 -6.86027 1
gene 2 5 6 -5.11946 0 5 -5.11946 1
gene 2 1 7 -0.481325 0 6 -0.481325 1
gene 2 2 7 -4.8217 0 7 -4.8217 1
gene 2 3 7 -5.12135 0 8 -5.12135 1
gene 2 4 7 -2.1728 0 9 -2.1728 1
gene 1 5 7 -0.456777 0 10 -0.456777 1
gene 1 6 7 -4.2109 0 18 -4.2109 1
genomeend 27

/* Organism #28 Fitness: 22 Error: 0 */
genomestart 28
node 1 3 1 3
node 2 2 1 1
node 3 1 1 1
node 4 1 1 1
node 5 2 1 1
node 6 2 0 2
node 7 3 0 2
gene 2 1 6 0.161069 0 1 0.161069 1
gene 3 2 6 -1.86257 0 2 -1.86257 1
gene 3 3 6 -4.01423 0 3 -4.01423 1
gene 3 4 6 -6.26137 0 4 -6.26137 1
gene 2 5 6 -5.92736 0 5 -5.92736 1
gene 2 1 7 -2.86292 0 6 -2.86292 1
gene 2 2 7 -1.12944 0 7 -1.12944 1
gene 2 3 7 -1.95487 0 8 -1.95487 1
gene 2 4 7 -2.67109 0 9 -2.67109 1
gene 1 5 7 -0.456777 0 10 -0.456777 1
gene 1 6 7 -2.37719 0 18 -2.37719 1
genomeend 28

/* Organism #29 Fitness: 6 Error: 0 */
genomestart 29
node 1 3 1 3
node 2 2 1 1
node 3 1 1 1
node 4 1 1 1
node 5 2 1 1
node 6 2 0 2
node 7 3 0 2
gene 3 1 6 -0.518399 0 1 -0.518399 1
gene 3 2 6 -2.70568 0 2 -2.70568 1
gene 3 3 6 -2.68698 0 3 -2.68698 1
gene 3 4 6 -6.76684 0 4 -6.76684 1
gene 2 5 6 -3.03687 0 5 -3.03687 1
gene 2 1 7 -4.77648 0 6 -4.77648 1
gene 2 2 7 -4.46029 0 7 -4.46029 1
gene 2 3 7 -5.15436 0 8 -5.15436 1
gene 2 4 7 -4.59956 0 9 -4.59956 1
gene 1 5 7 0.737287 0 10 0.737287 1
gene 1 6 7 -3.82192 0 18 -3.82192 1
genomeend 29

/* Organism #30 Fitness: 109 Error: 0 */
genomestart 30
node 1 3 1 3
node 2 2 1 1
node 3 1 1 1
node 4 1 1 1
node 5 2 1 1
node 6 2 0 2
node 7 3 0 2
gene 2 1 6 -0.164571 0 1 -0.164571 1
gene 3 2 6 -2.20129 0 2 -2.20129 1
gene 3 3 6 -2.70449 0 3 -2.70449 1
gene 3 4 6 -4.53509 0 4 -4.53509 1
gene 2 5 6 -3.7876 0 5 -3.7876 1
gene 2 1 7 -2.75904 0 6 -2.75904 1
gene 2 2 7 -2.47448 0 7 -2.47448 1
gene 2 3 7 -3.13614 0 8 -3.13614 1
gene 2 4 7 -2.26169 0 9 -2.26169 1
gene 1 5 7 -0.456777 0 10 -0.456777 1
gene 1 6 7 -2.37719 0 18 -2.37719 1
genomeend 30

/* Organism #31 Fitness: 9 Error: 0 */
genomestart 31
node 1 3 1 3
node 2 2 1 1
node 3 1 1 1
node 4 1 1 1
node 5 2 1 1
node 6 2 0 2
node 7 3 0 2
gene 2 1 6 0.731365 0 1 0.731365 1
gene 3 2 6 -1.29434 0 2 -1.29434 1
gene 3 3 6 -3.32863 0 3 -3.32863 1
gene 3 4 6 -2.505 0 4 -2.505 1
gene 2 5 6 -4.23924 0 5 -4.23924 1
gene 2 1 7 -2.75904 0 6 -2.75904 1
gene 2 2 7 -2.47448 0 7 -2.47448 1
gene 2 3 7 -2.64064 0 8 -2.64064 1
gene 2 4 7 -2.28199 0 9 -2.28199 1
gene 1 5 7 -0.698439 0 10 -0.698439 1
gene 1 6 7 -3.17895 0 18 -3.17895 1
genomeend 31

/* Organism #32 Fitness: 3 Error: 0 */
genomestart 32
node 1 3 1 3
node 2 2 1 1
node 3 1 1 1
node 4 1 1 1
node 5 2 1 1
node 6 2 0 2
node 7 3 0 2
gene 2 1 6 -0.314926 0 1 -0.314926 1
gene 3 2 6 -0.785314 0 2 -0.785314 1
gene 3 3 6 -2.439 0 3 -2.439 1
gene 3 4 6 -2.77071 0 4 -2.77071 1
gene 2 5 6 -2.57703 0 5 -2.57703 1
gene 2 1 7 -2.49804 0 6 -2.49804 1
gene 2 2 7 -2.47448 0 7 -2.47448 1
gene 2 3 7 -2.13528 0 8 -2.13528 1
gene 2 4 7 -3.61469 0 9 -3.61469 1
gene 1 5 7 -1.64095 0 10 -1.64095 1
gene 1 6 7 -1.17144 0 18 -1.17144 1
genomeend 32

/* Organism #33 Fitness: 1 Error: 0 */
genomestart 33
node 1 3 1 3
node 2 2 1 1
node 3 1 1 1
node 4 1 1 1
node 5 2 1 1
node 6 2 0 2
node 7 3 0 2
gene 2 1 6 -0.164571 0 1 -0.164571 1
gene 3 2 6 -2.20129 0 2 -2.20129 1
gene 3 3 6 -2.70449 0 3 -2.70449 1
gene 3 4 6 -4.53509 0 4 -4.53509 1
gene 2 5 6 -3.7876 0 5 -3.7876 1
gene 2 1 7 -2.75904 0 6 -2.75904 1
gene 2 2 7 -2.47448 0 7 -2.47448 1
gene 2 3 7 -3.13614 0 8 -3.13614 1
gene 2 4 7 -2.26169 0 9 -2.26169 1
gene 1 5 7 -0.456777 0 10 -0.456777 1
gene 1 6 7 -2.37719 0 18 -2.37719 1
genomeend 33

/* Organism #34 Fitness: 14 Error: 0 */
genomestart 34
node 1 3 1 3
node 2 2 1 1
node 3 1 1 1
node 4 1 1 1
node 5 2 1 1
node 6 2 0 2
node 7 3 0 2
gene 2 1 6 -0.695242 0 1 -0.695242 1
gene 3 2 6 -2.2917 0 2 -2.2917 1
gene 3 3 6 -1.52918 0 3 -1.52918 1
gene 3 4 6 -4.53509 0 4 -4.53509 1
gene 2 5 6 -2.011 0 5 -2.011 1
gene 2 1 7 -5.16923 0 6 -5.16923 1
gene 2 2 7 -2.47448 0 7 -2.47448 1
gene 2 3 7 -2.19856 0 8 -2.19856 1
gene 2 4 7 -0.648317 0 9 -0.648317 1
gene 1 5 7 -2.00994 0 10 -2.00994 1
gene 1 6 7 -4.1591 0 18 -4.1591 1
genomeend 34

/* Organism #35 Fitness: 39 Error: 0 */
genomestart 35
node 1 3 1 3
node 2 2 1 1
node 3 1 1 1
node 4 1 1 1
node 5 2 1 1
node 6 2 0 2
node 7 3 0 2
gene 2 1 6 0.0563503 0 1 0.0563503 1
gene 3 2 6 -3.74239 0 2 -3.74239 1
gene 2 3 6 -2.70449 0 3 -2.70449 1
gene 3 4 6 -6.18085 0 4 -6.18085 1
gene 2 5 6 -5.41144 0 5 -5.41144 1
gene 2 1 7 -2.76309 0 6 -2.76309 1
gene 2 2 7 -1.35083 0 7 -1.35083 1
gene 2 3 7 -4.85506 0 8 -4.85506 1
gene 2 4 7 -1.13366 0 9 -1.13366 1
gene 1 5 7 0.0770028 0 10 0.0770028 1
gene 1 6 7 -4.13456 0 18 -4.13456 1
genomeend 35

/* Organism #36 Fitness: 4 Error: 0 */
genomestart 36
node 1 3 1 3
node 2 2 1 1
node 3 1 1 1
node 4 1 1 1
node 5 2 1 1
node 6 2 0 2
node 7 3 0 2
gene 2 1 6 -0.164571 0 1 -0.164571 1
gene 3 2 6 -2.20129 0 2 -2.20129 1
gene 3 3 6 -2.70449 0 3 -2.70449 1
gene 3 4 6 -4.53509 0 4 -4.53509 1
gene 2 5 6 -3.7876 0 5 -3.7876 1
gene 2 1 7 -2.75904 0 6 -2.75904 1
gene 2 2 7 -2.47448 0 7 -2.47448 1
gene 2 3 7 -3.13614 0 8 -3.13614 1
gene 2 4 7 -2.26169 0 9 -2.26169 1
gene 1 5 7 -0.456777 0 10 -0.456777 1
gene 1 6 7 -2.37719 0 18 -2.37719 1
genomeend 36

/* Organism #37 Fitness: 10 Error: 0 */
genomestart 37
node 1 3 1 3
node 2 2 1 1
node 3 1 1 1
node 4 1 1 1
node 5 2 1 1
node 6 2 0 2
node 7 1 0 2
gene 2 1 6 1.32713 0 1 1.32713 1
gene 3 2 6 -1.61108 0 2 -1.61108 1
gene 3 3 6 -3.38587 0 3 -3.38587 1
gene 3 4 6 -3.86194 0 4 -3.86194 1
gene 2 5 6 -3.71383 0 5 -3.71383 1
gene 2 1 7 -0.833161 0 6 -0.833161 1
gene 2 2 7 -4.03 0 7 -4.03 1
gene 2 3 7 -4.70568 0 8 -4.70568 1
gene 2 4 7 -2.44955 0 9 -2.44955 1
gene 1 5 7 1.6802 0 10 1.6802 1
gene 1 6 7 -2.37719 0 18 -2.37719 1
genomeend 37

/* Organism #38 Fitness: 91 Error: 0 */
genomestart 38
node 1 3 1 3
node 2 2 1 1
node 3 1 1 1
node 4 1 1 1
node 5 2 1 1
node 6 2 0 2
node 7 3 0 2
gene 2 1 6 -0.164571 0 1 -0.164571 1
gene 3 2 6 -2.20129 0 2 -2.20129 1
gene 3 3 6 -2.70449 0 3 -2.70449 1
gene 3 4 6 -4.53509 0 4 -4.53509 1
gene 2 5 6 -3.7876 0 5 -3.7876 1
gene 2 1 7 -2.75904 0 6 -2.75904 1
gene 2 2 7 -2.47448 0 7 -2.47448 1
gene 2 3 7 -3.13614 0 8 -3.13614 1
gene 2 4 7 -2.26169 0 9 -2.26169 1
gene 1 5 7 -0.456777 0 10 -0.456777 1
gene 1 6 7 -2.37719 0 18 -2.37719 1
genomeend 38

/* Organism #39 Fitness: 43 Error: 0 */
genomestart 39
node 1 3 1 3
node 2 2 1 1
node 3 1 1 1
node 4 1 1 1
node 5 2 1 1
node 6 2 0 2
node 7 3 0 2
gene 2 1 6 -0.164571 0 1 -0.164571 1
gene 3 2 6 -2.20129 0 2 -2.20129 1
gene 3 3 6 -2.70449 0 3 -2.70449 1
gene 3 4 6 -4.53509 0 4 -4.53509 1
gene 2 5 6 -3.7876 0 5 -3.7876 1
gene 2 1 7 -2.75904 0 6 -2.75904 1
gene 2 2 7 -2.47448 0 7 -2.47448 1
gene 2 3 7 -3.13614 0 8 -3.13614 1
gene 2 4 7 -2.26169 0 9 -2.26169 1
gene 1 5 7 -0.456777 0 10 -0.456777 1
gene 1 6 7 -2.37719 0 18 -2.37719 1
genomeend 39

/* Organism #40 Fitness: 812 Error: 0 */
genomestart 40
node 1 3 1 3
node 2 2 1 1
node 3 1 1 1
node 4 1 1 1
node 5 2 1 1
node 6 2 0 2
node 7 3 0 2
gene 2 1 6 -0.164571 0 1 -0.164571 1
gene 3 2 6 -2.20129 0 2 -2.20129 1
gene 3 3 6 -2.70449 0 3 -2.70449 1
gene 3 4 6 -4.53509 0 4 -4.53509 1
gene 2 5 6 -3.7876 0 5 -3.7876 1
gene 2 1 7 -2.75904 0 6 -2.75904 1
gene 2 2 7 -2.47448 0 7 -2.47448 1
gene 2 3 7 -3.13614 0 8 -3.13614 1
gene 2 4 7 -2.26169 0 9 -2.26169 1
gene 1 5 7 -0.456777 0 10 -0.456777 1
gene 1 6 7 -2.37719 0 18 -2.37719 1
genomeend 40

/* Organism #41 Fitness: 336 Error: 0 */
genomestart 41
node 1 3 1 3
node 2 2 1 1
node 3 1 1 1
node 4 1 1 1
node 5 2 1 1
node 6 2 0 2
node 7 3 0 2
gene 2 1 6 -0.164571 0 1 -0.164571 1
gene 3 2 6 -2.20129 0 2 -2.20129 1
gene 3 3 6 -2.70449 0 3 -2.70449 1
gene 3 4 6 -4.53509 0 4 -4.53509 1
gene 2 5 6 -3.7876 0 5 -3.7876 1
gene 2 1 7 -2.75904 0 6 -2.75904 1
gene 2 2 7 -2.47448 0 7 -2.47448 1
gene 2 3 7 -3.13614 0 8 -3.13614 1
gene 2 4 7 -2.26169 0 9 -2.26169 1
gene 1 5 7 -0.456777 0 10 -0.456777 1
gene 1 6 7 -2.37719 0 18 -2.37719 1
gene 3 7 7 0.763095 1 56 0.763095 1
genomeend 41

/* Organism #42 Fitness: 4399 Error: 0 */
genomestart 42
node 1 3 1 3
node 2 2 1 1
node 3 1 1 1
node 4 1 1 1
node 5 2 1 1
node 6 2 0 2
node 7 3 0 2
gene 2 1 6 -0.164571 0 1 -0.164571 1
gene 3 2 6 -2.20129 0 2 -2.20129 1
gene 3 3 6 -2.70449 0 3 -2.70449 1
gene 3 4 6 -4.53509 0 4 -4.53509 1
gene 2 5 6 -3.7876 0 5 -3.7876 1
gene 2 1 7 -2.75904 0 6 -2.75904 1
gene 2 2 7 -2.47448 0 7 -2.47448 1
gene 2 3 7 -3.13614 0 8 -3.13614 1
gene 2 4 7 -2.26169 0 9 -2.26169 1
gene 1 5 7 -0.456777 0 10 -0.456777 1
gene 1 6 7 -2.37719 0 18 -2.37719 1
genomeend 42

/* Species #13 : (Size 2) (AF 19.5) (Age 6)  */


/* Organism #43 Fitness: 34 Error: 0 */
genomestart 43
node 1 3 1 3
node 2 2 1 1
node 3 2 1 1
node 4 2 1 1
node 5 3 1 1
node 6 1 0 2
node 7 2 0 2
gene 2 1 6 -0.612154 0 1 -0.612154 1
gene 3 2 6 -3.59272 0 2 -3.59272 1
gene 1 3 6 -0.781602 0 3 -0.781602 1
gene 2 4 6 -2.08396 0 4 -2.08396 1
gene 3 5 6 0.746573 0 5 0.746573 1
gene 1 1 7 -1.18155 0 6 -1.18155 1
gene 2 2 7 2.80566 0 7 2.80566 1
gene 1 3 7 -6.28784 0 8 -6.28784 1
gene 1 4 7 2.0346 0 9 2.0346 1
gene 1 5 7 3.02199 0 10 3.02199 1
gene 2 6 7 -8 0 11 -8 1
genomeend 43

/* Organism #44 Fitness: 5 Error: 0 */
genomestart 44
node 1 3 1 3
node 2 2 1 1
node 3 2 1 1
node 4 2 1 1
node 5 3 1 1
node 6 1 0 2
node 7 2 0 2
gene 2 1 6 1.93727 0 1 1.93727 1
gene 3 2 6 -3.71212 0 2 -3.71212 1
gene 1 3 6 -3.29263 0 3 -3.29263 1
gene 2 4 6 -1.46415 0 4 -1.46415 1
gene 3 5 6 -0.601005 0 5 -0.601005 1
gene 1 1 7 -2.02317 0 6 -2.02317 1
gene 2 2 7 -0.123627 0 7 -0.123627 1
gene 1 3 7 -6.50105 0 8 -6.50105 1
gene 1 4 7 2.04899 0 9 2.04899 1
gene 1 5 7 3.02199 0 10 3.02199 1
gene 2 6 7 -6.49886 0 11 -6.49886 1
genomeend 44

/* Species #15 : (Size 3) (AF 19) (Age 6)  */


/* Organism #45 Fitness: 22 Error: 0 */
genomestart 45
node 1 3 1 3
node 2 3 1 1
node 3 3 1 1
node 4 2 1 1
node 5 3 1 1
node 6 3 0 2
node 7 2 0 2
gene 2 1 6 -1.97137 0 1 -1.97137 1
gene 1 2 6 0.3585 0 2 0.3585 1
gene 1 3 6 1.18875 0 3 1.18875 1
gene 1 4 6 -3.73118 0 4 -3.73118 1
gene 2 5 6 -6.66993 0 5 -6.66993 1
gene 1 1 7 -7.37042 0 6 -7.37042 1
gene 2 2 7 -4.9071 0 7 -4.9071 1
gene 2 3 7 -4.63158 0 8 -4.63158 1
gene 2 4 7 1.46385 0 9 1.46385 1
gene 2 5 7 -2.53816 0 10 -2.53816 1
genomeend 45

/* Organism #46 Fitness: 21 Error: 0 */
genomestart 46
node 1 3 1 3
node 2 3 1 1
node 3 3 1 1
node 4 2 1 1
node 5 3 1 1
node 6 3 0 2
node 7 2 0 2
gene 2 1 6 -3.32934 0 1 -3.32934 1
gene 1 2 6 -1.28685 0 2 -1.28685 1
gene 1 3 6 -0.536224 0 3 -0.536224 1
gene 1 4 6 -4.34014 0 4 -4.34014 1
gene 2 5 6 -4.81919 0 5 -4.81919 1
gene 1 1 7 -5.74488 0 6 -5.74488 1
gene 2 2 7 -4.71334 0 7 -4.71334 1
gene 2 3 7 -6.51457 0 8 -6.51457 1
gene 2 4 7 2.50652 0 9 2.50652 1
gene 2 5 7 -0.723256 0 10 -0.723256 1
genomeend 46

/* Organism #47 Fitness: 14 Error: 0 */
genomestart 47
node 1 3 1 3
node 2 3 1 1
node 3 3 1 1
node 4 2 1 1
node 5 3 1 1
node 6 3 0 2
node 7 2 0 2
gene 2 1 6 -1.45307 0 1 -1.45307 1
gene 1 2 6 1.03379 0 2 1.03379 1
gene 1 3 6 0.722588 0 3 0.722588 1
gene 1 4 6 -3.08619 0 4 -3.08619 1
gene 2 5 6 -5.56739 0 5 -5.56739 1
gene 1 1 7 -6.14798 0 6 -6.14798 1
gene 2 2 7 -4.62746 0 7 -4.62746 1
gene 2 3 7 -8 0 8 -8 1
gene 2 4 7 3.16 0 9 3.16 1
gene 2 5 7 0.14637 0 10 0.14637 1
genomeend 47

/* Species #16 : (Size 1) (AF 3) (Age 6)  */


/* Organism #48 Fitness: 3 Error: 0 */
genomestart 48
node 1 2 1 3
node 2 3 1 1
node 3 3 1 1
node 4 1 1 1
node 5 3 1 1
node 6 2 0 2
node 7 1 0 2
gene 2 1 6 1.69072 0 1 1.69072 1
gene 3 2 6 -6.14778 0 2 -6.14778 1
gene 1 3 6 0.614071 0 3 0.614071 1
gene 3 4 6 6.54438 0 4 6.54438 1
gene 2 5 6 -4.36826 0 5 -4.36826 1
gene 1 1 7 1.68344 0 6 1.68344 1
gene 2 2 7 -0.913324 0 7 -0.913324 1
gene 1 3 7 -2.9703 0 8 -2.9703 1
gene 2 4 7 5.02817 0 9 5.02817 1
gene 2 5 7 0.153486 0 10 0.153486 1
gene 2 7 6 0.59383 0 17 0.59383 1
genomeend 48

/* Species #19 : (Size 1) (AF 13) (Age 6)  */


/* Organism #49 Fitness: 13 Error: 0 */
genomestart 49
node 1 1 1 3
node 2 3 1 1
node 3 2 1 1
node 4 1 1 1
node 5 3 1 1
node 6 1 0 2
node 7 1 0 2
gene 2 1 6 -2.16326 0 1 -2.16326 1
gene 2 2 6 0.435642 0 2 0.435642 1
gene 3 3 6 -2.89162 0 3 -2.89162 1
gene 1 4 6 2.27646 0 4 2.27646 1
gene 3 5 6 -1.88125 0 5 -1.88125 1
gene 1 1 7 3.89548 0 6 3.89548 1
gene 3 2 7 -3.1797 0 7 -3.1797 1
gene 1 3 7 -4.74303 0 8 -4.74303 1
gene 1 4 7 0.407271 0 9 0.407271 1
gene 1 5 7 -1.74585 0 10 -1.74585 1
gene 1 6 7 -0.175003 0 33 -0.175003 1
genomeend 49

/* Species #21 : (Size 1) (AF 2) (Age 6)  */


/* Organism #50 Fitness: 2 Error: 0 */
genomestart 50
node 1 2 1 3
node 2 1 1 1
node 3 2 1 1
node 4 1 1 1
node 5 1 1 1
node 6 2 0 2
node 7 2 0 2
gene 2 1 6 -4.43063 0 1 -4.43063 1
gene 2 2 6 2.24871 0 2 2.24871 1
gene 1 3 6 1.34764 0 3 1.34764 1
gene 2 4 6 0.113997 0 4 0.113997 1
gene 2 5 6 -4.23177 0 5 -4.23177 1
gene 1 1 7 7.45281 0 6 7.45281 1
gene 2 2 7 1.35123 0 7 1.35123 1
gene 3 3 7 -0.00696543 0 8 -0.00696543 1
gene 1 4 7 0.980269 0 9 0.980269 1
gene 1 5 7 1.4313 0 10 1.4313 1
genomeend 50

/* Species #22 : (Size 1) (AF 19) (Age 6)  */


/* Organism #51 Fitness: 19 Error: 0 */
genomestart 51
node 1 3 1 3
node 2 2 1 1
node 3 1 1 1
node 4 1 1 1
node 5 3 1 1
node 6 2 0 2
node 7 3 0 2
gene 2 1 6 6.14629 0 1 6.14629 1
gene 3 2 6 2.40493 0 2 2.40493 1
gene 3 3 6 -0.759688 0 3 -0.759688 1
gene 3 4 6 0.198956 0 4 0.198956 1
gene 2 5 6 -2.15576 0 5 -2.15576 1
gene 2 1 7 -3.96394 0 6 -3.96394 1
gene 2 2 7 -5.49025 0 7 -5.49025 1
gene 2 3 7 -2.34228 0 8 -2.34228 1
gene 2 4 7 0.601559 0 9 0.601559 1
gene 1 5 7 4.47976 0 10 4.47976 1
genomeend 51

/* Species #23 : (Size 1) (AF 11) (Age 6)  */


/* Organism #52 Fitness: 11 Error: 0 */
genomestart 52
node 1 3 1 3
node 2 2 1 1
node 3 1 1 1
node 4 1 1 1
node 5 2 1 1
node 6 2 0 2
node 7 3 0 2
gene 2 1 6 2.81579 0 1 2.81579 1
gene 3 2 6 -0.713017 0 2 -0.713017 1
gene 3 3 6 -4.09211 0 3 -4.09211 1
gene 3 4 6 -1.39156 0 4 -1.39156 1
gene 2 5 6 -5.02611 0 5 -5.02611 1
gene 2 1 7 -4.2514 0 6 -4.2514 1
gene 2 2 7 3.17922 0 7 3.17922 1
gene 2 3 7 -2.42498 0 8 -2.42498 1
gene 2 4 7 -1.05208 0 9 -1.05208 1
gene 1 5 7 0.103216 0 10 0.103216 1
gene 1 6 7 0.871756 0 18 0.871756 1
genomeend 52

/* Species #24 : (Size 2) (AF 5) (Age 6)  */


/* Organism #53 Fitness: 6 Error: 0 */
genomestart 53
node 1 1 1 3
node 2 1 1 1
node 3 2 1 1
node 4 1 1 1
node 5 3 1 1
node 6 1 0 2
node 7 1 0 2
gene 2 1 6 6.93546 0 1 6.93546 1
gene 3 2 6 -1.81524 0 2 -1.81524 1
gene 3 3 6 0.151687 0 3 0.151687 1
gene 3 4 6 -0.290308 0 4 -0.290308 1
gene 2 5 6 -4.18099 0 5 -4.18099 1
gene 3 1 7 0.494014 0 6 0.494014 1
gene 2 2 7 3.75468 0 7 3.75468 1
gene 3 3 7 -0.617487 0 8 -0.617487 1
gene 1 4 7 1.1404 0 9 1.1404 1
gene 1 5 7 -3.46777 0 10 -3.46777 1
gene 1 7 6 2.36491 0 32 2.36491 1
genomeend 53

/* Organism #54 Fitness: 4 Error: 0 */
genomestart 54
node 1 1 1 3
node 2 1 1 1
node 3 2 1 1
node 4 1 1 1
node 5 3 1 1
node 6 1 0 2
node 7 1 0 2
gene 2 1 6 5.36694 0 1 5.36694 1
gene 3 2 6 -4.09705 0 2 -4.09705 1
gene 3 3 6 2.44442 0 3 2.44442 1
gene 3 4 6 -0.407885 0 4 -0.407885 1
gene 2 5 6 -5.8664 0 5 -5.8664 1
gene 3 1 7 1.2391 0 6 1.2391 1
gene 2 2 7 2.89859 0 7 2.89859 1
gene 3 3 7 1.75353 0 8 1.75353 1
gene 1 4 7 -0.175422 0 9 -0.175422 1
gene 1 5 7 -2.02538 0 10 -2.02538 1
gene 1 7 6 0.837475 0 32 0.837475 1
genomeend 54

/* Species #26 : (Size 1) (AF 8) (Age 6)  */


/* Organism #55 Fitness: 8 Error: 0 */
genomestart 55
node 1 2 1 3
node 2 3 1 1
node 3 2 1 1
node 4 1 1 1
node 5 3 1 1
node 6 1 0 2
node 7 1 0 2
gene 2 1 6 1.33989 0 1 1.33989 1
gene 3 2 6 -3.04807 0 2 -3.04807 1
gene 3 3 6 -3.28605 0 3 -3.28605 1
gene 2 4 6 1.9605 0 4 1.9605 1
gene 3 5 6 -2.36771 0 5 -2.36771 1
gene 1 1 7 -1.78386 0 6 -1.78386 1
gene 1 2 7 3.39049 0 7 3.39049 1
gene 1 3 7 -3.33605 0 8 -3.33605 1
gene 3 4 7 -0.537899 0 9 -0.537899 1
gene 1 5 7 -2.04451 0 10 -2.04451 1
genomeend 55

/* Species #27 : (Size 2) (AF 13.5) (Age 6)  */


/* Organism #56 Fitness: 15 Error: 0 */
genomestart 56
node 1 3 1 3
node 2 2 1 1
node 3 1 1 1
node 4 1 1 1
node 5 2 1 1
node 6 2 0 2
node 7 3 0 2
node 8 1 0 0
gene 2 1 6 -3.95977 0 1 -3.95977 1
gene 3 2 6 -1.23045 0 2 -1.23045 1
gene 2 3 6 1.66895 0 3 1.66895 1
gene 3 4 6 -0.630894 0 4 -0.630894 0
gene 3 5 6 0.452959 0 5 0.452959 1
gene 1 1 7 0.215842 0 6 0.215842 1
gene 2 2 7 -1.15022 0 7 -1.15022 1
gene 1 3 7 -5.76715 0 8 -5.76715 1
gene 3 4 7 1.79692 0 9 1.79692 1
gene 3 5 7 0.212685 0 10 0.212685 1
gene 3 4 8 -1.39479 0 20 -1.39479 1
gene 3 8 6 1.10584 0 21 1.10584 1
gene 1 2 8 0.532389 0 48 0.532389 1
genomeend 56

/* Organism #57 Fitness: 12 Error: 0 */
genomestart 57
node 1 3 1 3
node 2 2 1 1
node 3 1 1 1
node 4 1 1 1
node 5 2 1 1
node 6 2 0 2
node 7 3 0 2
node 8 1 0 0
gene 2 1 6 -5.98221 0 1 -5.98221 1
gene 3 2 6 0.472719 0 2 0.472719 1
gene 2 3 6 1.42818 0 3 1.42818 1
gene 3 4 6 -2.5612 0 4 -2.5612 0
gene 3 5 6 -1.64521 0 5 -1.64521 1
gene 1 1 7 -0.00878782 0 6 -0.00878782 1
gene 2 2 7 -3.26699 0 7 -3.26699 1
gene 1 3 7 -3.11805 0 8 -3.11805 1
gene 3 4 7 5.03432 0 9 5.03432 1
gene 3 5 7 0.728757 0 10 0.728757 1
gene 3 4 8 -0.578388 0 20 -0.578388 1
gene 3 8 6 -1.76042 0 21 -1.76042 1
gene 1 2 8 2.64349 0 48 2.64349 1
genomeend 57

/* Species #30 : (Size 1) (AF 13) (Age 6)  */


/* Organism #58 Fitness: 13 Error: 0 */
genomestart 58
node 1 3 1 3
node 2 2 1 1
node 3 1 1 1
node 4 1 1 1
node 5 2 1 1
node 6 2 0 2
node 7 3 0 2
gene 2 1 6 1.23713 0 1 1.23713 1
gene 3 2 6 -3.09202 0 2 -3.09202 1
gene 3 3 6 1.71295 0 3 1.71295 1
gene 3 4 6 -3.51276 0 4 -3.51276 1
gene 2 5 6 -3.26291 0 5 -3.26291 1
gene 2 1 7 5.90974 0 6 5.90974 1
gene 2 2 7 0.570112 0 7 0.570112 1
gene 2 3 7 -4.15997 0 8 -4.15997 1
gene 2 4 7 2.04232 0 9 2.04232 1
gene 1 5 7 2.16787 0 10 2.16787 1
genomeend 58

/* Species #33 : (Size 1) (AF 4) (Age 6)  */


/* Organism #59 Fitness: 4 Error: 0 */
genomestart 59
node 1 2 1 3
node 2 3 1 1
node 3 2 1 1
node 4 1 1 1
node 5 1 1 1
node 6 2 0 2
node 7 2 0 2
gene 2 1 6 -2.05171 0 1 -2.05171 1
gene 2 2 6 2.02383 0 2 2.02383 1
gene 1 3 6 -1.11132 0 3 -1.11132 1
gene 2 4 6 0.113997 0 4 0.113997 1
gene 2 5 6 -1.94379 0 5 -1.94379 1
gene 1 1 7 6.5242 0 6 6.5242 1
gene 2 2 7 3.68144 0 7 3.68144 1
gene 3 3 7 3.10457 0 8 3.10457 1
gene 1 4 7 0.0448771 0 9 0.0448771 1
gene 1 5 7 -1.03096 0 10 -1.03096 1
genomeend 59

/* Species #39 : (Size 1) (AF 7) (Age 6)  */


/* Organism #60 Fitness: 7 Error: 0 */
genomestart 60
node 1 3 1 3
node 2 3 1 1
node 3 1 1 1
node 4 1 1 1
node 5 3 1 1
node 6 3 0 2
node 7 2 0 2
gene 1 1 6 -3.43145 0 1 -3.43145 1
gene 1 2 6 -3.762 0 2 -3.762 1
gene 3 3 6 0.471088 0 3 0.471088 1
gene 1 4 6 -0.45296 0 4 -0.45296 1
gene 2 5 6 0.494472 0 5 0.494472 1
gene 3 1 7 -8 0 6 -8 1
gene 1 2 7 -3.67058 0 7 -3.67058 1
gene 1 3 7 2.1783 0 8 2.1783 1
gene 3 4 7 0.229968 0 9 0.229968 1
gene 3 5 7 -7.33154 0 10 -7.33154 1
gene 3 7 6 -0.884492 0 57 -0.884492 1
genomeend 60

/* Species #40 : (Size 1) (AF 8) (Age 6)  */


/* Organism #61 Fitness: 8 Error: 0 */
genomestart 61
node 1 3 1 3
node 2 2 1 1
node 3 3 1 1
node 4 3 1 1
node 5 1 1 1
node 6 2 0 2
node 7 3 0 2
gene 2 1 6 4.83266 0 1 4.83266 1
gene 3 2 6 -0.80605 0 2 -0.80605 1
gene 1 3 6 2.72579 0 3 2.72579 1
gene 1 4 6 -2.24042 0 4 -2.24042 1
gene 2 5 6 2.57696 0 5 2.57696 1
gene 1 1 7 2.41802 0 6 2.41802 1
gene 1 2 7 -0.369512 0 7 -0.369512 1
gene 2 3 7 -5.03643 0 8 -5.03643 1
gene 3 4 7 1.20247 0 9 1.20247 1
gene 3 5 7 1.17784 0 10 1.17784 1
gene 1 6 7 -1.67717 0 33 -1.67717 1
genomeend 61

/* Species #43 : (Size 1) (AF 8) (Age 6)  */


/* Organism #62 Fitness: 8 Error: 0 */
genomestart 62
node 1 3 1 3
node 2 3 1 1
node 3 2 1 1
node 4 3 1 1
node 5 1 1 1
node 6 1 0 2
node 7 1 0 2
gene 2 1 6 3.67971 0 1 3.67971 1
gene 3 2 6 0.934298 0 2 0.934298 1
gene 3 3 6 -4.9413 0 3 -4.9413 1
gene 3 4 6 1.49653 0 4 1.49653 1
gene 3 5 6 1.89048 0 5 1.89048 1
gene 3 1 7 5.64085 0 6 5.64085 1
gene 2 2 7 1.85364 0 7 1.85364 1
gene 1 3 7 -1.10837 0 8 -1.10837 1
gene 1 4 7 2.70358 0 9 2.70358 1
gene 3 5 7 0.969349 0 10 0.969349 1
genomeend 62

/* Species #46 : (Size 2) (AF 8.5) (Age 6)  */


/* Organism #63 Fitness: 9 Error: 0 */
genomestart 63
node 1 3 1 3
node 2 3 1 1
node 3 1 1 1
node 4 1 1 1
node 5 3 1 1
node 6 3 0 2
node 7 2 0 2
gene 1 1 6 -1.54033 0 1 -1.54033 1
gene 1 2 6 -0.902759 0 2 -0.902759 1
gene 3 3 6 -3.37147 0 3 -3.37147 1
gene 1 4 6 -6.86661 0 4 -6.86661 1
gene 2 5 6 -1.45969 0 5 -1.45969 1
gene 2 1 7 3.01352 0 6 3.01352 1
gene 1 2 7 0.974745 0 7 0.974745 1
gene 1 3 7 -3.40087 0 8 -3.40087 1
gene 3 4 7 -3.30252 0 9 -3.30252 1
gene 1 5 7 -1.46345 0 10 -1.46345 1
genomeend 63

/* Organism #64 Fitness: 8 Error: 0 */
genomestart 64
node 1 3 1 3
node 2 2 1 1
node 3 1 1 1
node 4 1 1 1
node 5 2 1 1
node 6 2 0 2
node 7 3 0 2
gene 2 1 6 1.21356 0 1 1.21356 1
gene 3 2 6 -1.6416 0 2 -1.6416 1
gene 3 3 6 -3.78003 0 3 -3.78003 1
gene 3 4 6 -5.46887 0 4 -5.46887 1
gene 2 5 6 -1.87465 0 5 -1.87465 1
gene 2 1 7 0.385383 0 6 0.385383 1
gene 2 2 7 2.98856 0 7 2.98856 1
gene 2 3 7 -5.51172 0 8 -5.51172 1
gene 2 4 7 -1.27082 0 9 -1.27082 1
gene 1 5 7 2.62812 0 10 2.62812 1
genomeend 64

/* Species #52 : (Size 4) (AF 10.75) (Age 5)  */


/* Organism #65 Fitness: 11 Error: 0 */
genomestart 65
node 1 1 1 3
node 2 3 1 1
node 3 2 1 1
node 4 1 1 1
node 5 3 1 1
node 6 1 0 2
node 7 1 0 2
gene 2 1 6 1.71941 0 1 1.71941 1
gene 3 2 6 -0.121059 0 2 -0.121059 1
gene 3 3 6 -1.27835 0 3 -1.27835 1
gene 2 4 6 -1.00912 0 4 -1.00912 1
gene 3 5 6 -1.54073 0 5 -1.54073 1
gene 1 1 7 -3.09078 0 6 -3.09078 1
gene 1 2 7 1.38306 0 7 1.38306 1
gene 1 3 7 -4.47162 0 8 -4.47162 1
gene 3 4 7 -2.12641 0 9 -2.12641 1
gene 1 5 7 0.425599 0 10 0.425599 1
genomeend 65

/* Organism #66 Fitness: 11 Error: 0 */
genomestart 66
node 1 3 1 3
node 2 2 1 1
node 3 1 1 1
node 4 1 1 1
node 5 2 1 1
node 6 2 0 2
node 7 3 0 2
gene 2 1 6 -0.888908 0 1 -0.888908 1
gene 3 2 6 -0.873313 0 2 -0.873313 1
gene 3 3 6 0.51994 0 3 0.51994 1
gene 1 4 6 0.470231 0 4 0.470231 1
gene 2 5 6 -0.0758299 0 5 -0.0758299 1
gene 1 1 7 0.287067 0 6 0.287067 1
gene 2 2 7 -1.40007 0 7 -1.40007 1
gene 2 3 7 -4.21265 0 8 -4.21265 1
gene 2 4 7 -1.19021 0 9 -1.19021 1
gene 1 5 7 0.868667 0 10 0.868667 1
genomeend 66

/* Organism #67 Fitness: 8 Error: 0 */
genomestart 67
node 1 1 1 3
node 2 2 1 1
node 3 1 1 1
node 4 1 1 1
node 5 2 1 1
node 6 2 0 2
node 7 3 0 2
gene 2 1 6 -0.633841 0 1 -0.633841 1
gene 3 2 6 -3.03906 0 2 -3.03906 1
gene 3 3 6 -1.87547 0 3 -1.87547 1
gene 3 4 6 0.75817 0 4 0.75817 1
gene 2 5 6 -0.743806 0 5 -0.743806 1
gene 2 1 7 -1.17428 0 6 -1.17428 1
gene 2 2 7 3.39523 0 7 3.39523 1
gene 2 3 7 -0.728811 0 8 -0.728811 1
gene 2 4 7 -0.571238 0 9 -0.571238 1
gene 1 5 7 -1.04847 0 10 -1.04847 1
genomeend 67

/* Organism #68 Fitness: 13 Error: 0 */
genomestart 68
node 1 1 1 3
node 2 1 1 1
node 3 3 1 1
node 4 2 1 1
node 5 3 1 1
node 6 3 0 2
node 7 2 0 2
gene 2 1 6 1.84022 0 1 1.84022 1
gene 3 2 6 -0.147997 0 2 -0.147997 1
gene 3 3 6 -1.02188 0 3 -1.02188 1
gene 3 4 6 0.918103 0 4 0.918103 1
gene 3 5 6 -2.07884 0 5 -2.07884 1
gene 1 1 7 -4.82601 0 6 -4.82601 1
gene 2 2 7 -1.54071 0 7 -1.54071 1
gene 2 3 7 -2.99727 0 8 -2.99727 1
gene 1 4 7 -0.161278 0 9 -0.161278 1
gene 3 5 7 2.07912 0 10 2.07912 1
genomeend 68

/* Species #56 : (Size 1) (AF 6) (Age 5)  */


/* Organism #69 Fitness: 6 Error: 0 */
genomestart 69
node 1 3 1 3
node 2 1 1 1
node 3 2 1 1
node 4 1 1 1
node 5 1 1 1
node 6 3 0 2
node 7 1 0 2
gene 2 1 6 -1.29978 0 1 -1.29978 1
gene 2 2 6 2.02618 0 2 2.02618 1
gene 3 3 6 0.0906523 0 3 0.0906523 1
gene 1 4 6 2.0186 0 4 2.0186 1
gene 3 5 6 -5.07667 0 5 -5.07667 1
gene 1 1 7 -3.5714 0 6 -3.5714 1
gene 1 2 7 5.93513 0 7 5.93513 1
gene 2 3 7 2.47694 0 8 2.47694 1
gene 2 4 7 -1.94949 0 9 -1.94949 1
gene 1 5 7 4.26213 0 10 4.26213 1
genomeend 69

/* Species #58 : (Size 2) (AF 7.5) (Age 5)  */


/* Organism #70 Fitness: 11 Error: 0 */
genomestart 70
node 1 2 1 3
node 2 3 1 1
node 3 2 1 1
node 4 1 1 1
node 5 1 1 1
node 6 2 0 2
node 7 2 0 2
gene 2 1 6 2.74558 0 1 2.74558 1
gene 2 2 6 4.27044 0 2 4.27044 1
gene 1 3 6 -0.156537 0 3 -0.156537 1
gene 2 4 6 1.94021 0 4 1.94021 1
gene 2 5 6 -1.3 0 5 -1.3 1
gene 1 1 7 4.49106 0 6 4.49106 1
gene 2 2 7 -5.4393 0 7 -5.4393 1
gene 3 3 7 7.91901 0 8 7.91901 1
gene 1 4 7 0.660355 0 9 0.660355 1
gene 1 5 7 0.0620027 0 10 0.0620027 1
genomeend 70

/* Organism #71 Fitness: 4 Error: 0 */
genomestart 71
node 1 2 1 3
node 2 3 1 1
node 3 2 1 1
node 4 1 1 1
node 5 1 1 1
node 6 2 0 2
node 7 2 0 2
gene 2 1 6 0.838423 0 1 0.838423 1
gene 2 2 6 4.30874 0 2 4.30874 1
gene 1 3 6 -1.96761 0 3 -1.96761 1
gene 2 4 6 -1.40695 0 4 -1.40695 1
gene 2 5 6 -3.63753 0 5 -3.63753 1
gene 1 1 7 5.74307 0 6 5.74307 1
gene 2 2 7 -2.91319 0 7 -2.91319 1
gene 3 3 7 7.93099 0 8 7.93099 1
gene 1 4 7 0.854443 0 9 0.854443 1
gene 1 5 7 1.83842 0 10 1.83842 1
genomeend 71

/* Species #64 : (Size 1) (AF 1) (Age 5)  */


/* Organism #72 Fitness: 1 Error: 0 */
genomestart 72
node 1 3 1 3
node 2 3 1 1
node 3 2 1 1
node 4 3 1 1
node 5 2 1 1
node 6 1 0 2
node 7 3 0 2
gene 2 1 6 -2.96895 0 1 -2.96895 1
gene 3 2 6 -8 0 2 -8 1
gene 3 3 6 -2.54761 0 3 -2.54761 1
gene 3 4 6 2.38732 0 4 2.38732 1
gene 3 5 6 3.8093 0 5 3.8093 1
gene 3 1 7 -0.837005 0 6 -0.837005 1
gene 2 2 7 2.78386 0 7 2.78386 1
gene 1 3 7 -0.947581 0 8 -0.947581 1
gene 2 4 7 1.01632 0 9 1.01632 1
gene 3 5 7 -0.0664355 0 10 -0.0664355 1
gene 2 6 7 -0.282863 0 55 0 1
genomeend 72

/* Species #71 : (Size 2) (AF 13.5) (Age 5)  */


/* Organism #73 Fitness: 14 Error: 0 */
genomestart 73
node 1 3 1 3
node 2 1 1 1
node 3 2 1 1
node 4 1 1 1
node 5 1 1 1
node 6 3 0 2
node 7 1 0 2
gene 2 1 6 4.46283 0 1 4.46283 1
gene 2 2 6 3.88481 0 2 3.88481 1
gene 3 3 6 -4.3374 0 3 -4.3374 1
gene 1 4 6 -4.48722 0 4 -4.48722 1
gene 2 5 6 -4.0875 0 5 -4.0875 1
gene 1 1 7 3.15679 0 6 3.15679 1
gene 1 2 7 -1.13451 0 7 -1.13451 1
gene 2 3 7 -0.279238 0 8 -0.279238 1
gene 1 4 7 2.78061 0 9 2.78061 1
gene 1 5 7 0.653856 0 10 0.653856 1
genomeend 73

/* Organism #74 Fitness: 13 Error: 0 */
genomestart 74
node 1 3 1 3
node 2 1 1 1
node 3 2 1 1
node 4 1 1 1
node 5 1 1 1
node 6 1 0 2
node 7 1 0 2
gene 2 1 6 5.83803 0 1 5.83803 1
gene 2 2 6 4.81196 0 2 4.81196 1
gene 3 3 6 -8 0 3 -8 1
gene 1 4 6 -0.30632 0 4 -0.30632 1
gene 2 5 6 -2.66412 0 5 -2.66412 1
gene 1 1 7 3.15726 0 6 3.15726 1
gene 1 2 7 -0.694834 0 7 -0.694834 1
gene 2 3 7 -0.783405 0 8 -0.783405 1
gene 1 4 7 1.12948 0 9 1.12948 1
gene 1 5 7 -0.541285 0 10 -0.541285 1
genomeend 74

/* Species #76 : (Size 3) (AF 11.6667) (Age 5)  */


/* Organism #75 Fitness: 8 Error: 0 */
genomestart 75
node 1 3 1 3
node 2 2 1 1
node 3 1 1 1
node 4 1 1 1
node 5 2 1 1
node 6 2 0 2
node 7 3 0 2
gene 2 1 6 7.03558 0 1 7.03558 1
gene 3 2 6 -2.47376 0 2 -2.47376 1
gene 3 3 6 -4.31722 0 3 -4.31722 1
gene 1 4 6 -2.42188 0 4 -2.42188 1
gene 2 5 6 0.786965 0 5 0.786965 1
gene 1 1 7 2.76509 0 6 2.76509 1
gene 2 2 7 -5.67746 0 7 -5.67746 1
gene 2 3 7 -3.11316 0 8 -3.11316 1
gene 2 4 7 1.00574 0 9 1.00574 1
gene 1 5 7 2.94998 0 10 2.94998 1
gene 2 6 7 -0.282863 0 55 0 1
genomeend 75

/* Organism #76 Fitness: 10 Error: 0 */
genomestart 76
node 1 3 1 3
node 2 2 1 1
node 3 1 1 1
node 4 1 1 1
node 5 2 1 1
node 6 2 0 2
node 7 3 0 2
gene 2 1 6 8 0 1 8 1
gene 3 2 6 -0.0924139 0 2 -0.0924139 1
gene 3 3 6 -3.6059 0 3 -3.6059 1
gene 1 4 6 -0.515553 0 4 -0.515553 1
gene 2 5 6 -1.3284 0 5 -1.3284 1
gene 1 1 7 4.13241 0 6 4.13241 1
gene 2 2 7 -4.34046 0 7 -4.34046 1
gene 2 3 7 -2.6762 0 8 -2.6762 1
gene 2 4 7 -1.45606 0 9 -1.45606 1
gene 1 5 7 3.40511 0 10 3.40511 1
genomeend 76

/* Organism #77 Fitness: 17 Error: 0 */
genomestart 77
node 1 3 1 3
node 2 2 1 1
node 3 1 1 1
node 4 1 1 1
node 5 2 1 1
node 6 2 0 2
node 7 3 0 2
gene 2 1 6 7.921 0 1 7.921 1
gene 3 2 6 -1.48917 0 2 -1.48917 1
gene 3 3 6 -5.73442 0 3 -5.73442 1
gene 1 4 6 -1.36874 0 4 -1.36874 1
gene 2 5 6 0.786965 0 5 0.786965 1
gene 1 1 7 0.841754 0 6 0.841754 1
gene 2 2 7 -5.67746 0 7 -5.67746 1
gene 2 3 7 -5.34257 0 8 -5.34257 1
gene 2 4 7 2.17298 0 9 2.17298 1
gene 1 5 7 -0.0441276 0 10 -0.0441276 1
genomeend 77

/* Species #77 : (Size 1) (AF 6) (Age 5)  */


/* Organism #78 Fitness: 6 Error: 0 */
genomestart 78
node 1 3 1 3
node 2 2 1 1
node 3 1 1 1
node 4 1 1 1
node 5 2 1 1
node 6 2 0 2
node 7 3 0 2
node 8 1 0 0
gene 2 1 6 -2.9134 0 1 -2.9134 1
gene 3 2 6 -0.45645 0 2 -0.45645 1
gene 2 3 6 -0.553198 0 3 -0.553198 1
gene 3 4 6 2.49666 0 4 2.49666 0
gene 3 5 6 3.09089 0 5 3.09089 1
gene 1 1 7 0.414759 0 6 0.414759 1
gene 2 2 7 -1.85363 0 7 -1.85363 1
gene 2 3 7 -1.52558 0 8 -1.52558 1
gene 3 4 7 -2.69287 0 9 -2.69287 1
gene 3 5 7 -1.17221 0 10 -1.17221 1
gene 3 4 8 1.63193 0 20 1.63193 1
gene 3 8 6 1.88449 0 21 1.88449 1
genomeend 78

/* Species #86 : (Size 1) (AF 12) (Age 5)  */


/* Organism #79 Fitness: 12 Error: 0 */
genomestart 79
node 1 3 1 3
node 2 3 1 1
node 3 1 1 1
node 4 1 1 1
node 5 3 1 1
node 6 3 0 2
node 7 2 0 2
gene 1 1 6 1.63109 0 1 1.63109 1
gene 1 2 6 -2.75497 0 2 -2.75497 1
gene 3 3 6 -1.67015 0 3 -1.67015 1
gene 1 4 6 -1.50447 0 4 -1.50447 1
gene 2 5 6 -1.34589 0 5 -1.34589 1
gene 2 1 7 -7.26595 0 6 -7.26595 1
gene 1 2 7 0.150429 0 7 0.150429 1
gene 1 3 7 -3.15457 0 8 -3.15457 1
gene 3 4 7 -1.45355 0 9 -1.45355 1
gene 1 5 7 -2.74975 0 10 -2.74975 1
gene 2 7 6 1.33515 0 36 1.33515 1
genomeend 79

/* Species #90 : (Size 4) (AF 21.25) (Age 4)  */


/* Organism #80 Fitness: 7 Error: 0 */
genomestart 80
node 1 1 1 3
node 2 3 1 1
node 3 1 1 1
node 4 1 1 1
node 5 3 1 1
node 6 3 0 2
node 7 1 0 2
gene 1 1 6 2.03862 0 1 2.03862 1
gene 1 2 6 -5.19133 0 2 -5.19133 1
gene 3 3 6 3.02529 0 3 3.02529 1
gene 1 4 6 -2.9669 0 4 -2.9669 1
gene 2 5 6 -2.85416 0 5 -2.85416 1
gene 2 1 7 0.0492439 0 6 0.0492439 1
gene 1 2 7 -4.70876 0 7 -4.70876 1
gene 1 3 7 -2.90408 0 8 -2.90408 1
gene 3 4 7 -3.83314 0 9 -3.83314 1
gene 3 5 7 -0.468754 0 10 -0.468754 1
gene 3 7 6 -0.900916 0 46 -0.900916 1
genomeend 80

/* Organism #81 Fitness: 39 Error: 0 */
genomestart 81
node 1 1 1 3
node 2 3 1 1
node 3 1 1 1
node 4 1 1 1
node 5 3 1 1
node 6 3 0 2
node 7 1 0 2
gene 1 1 6 1.90035 0 1 1.90035 1
gene 1 2 6 -5.68134 0 2 -5.68134 1
gene 3 3 6 4.97888 0 3 4.97888 1
gene 1 4 6 -1.41245 0 4 -1.41245 1
gene 2 5 6 -2.86085 0 5 -2.86085 1
gene 2 1 7 0.969517 0 6 0.969517 1
gene 1 2 7 -4.55815 0 7 -4.55815 1
gene 1 3 7 -1.56128 0 8 -1.56128 1
gene 3 4 7 0.0125575 0 9 0.0125575 1
gene 3 5 7 1.83136 0 10 1.83136 1
gene 3 7 6 0.366615 0 46 0.366615 1
genomeend 81

/* Organism #82 Fitness: 22 Error: 0 */
genomestart 82
node 1 1 1 3
node 2 3 1 1
node 3 1 1 1
node 4 1 1 1
node 5 3 1 1
node 6 3 0 2
node 7 1 0 2
gene 2 1 6 1.03927 0 1 1.03927 1
gene 1 2 6 -4.39702 0 2 -4.39702 1
gene 3 3 6 3.55462 0 3 3.55462 1
gene 1 4 6 -3.42958 0 4 -3.42958 1
gene 2 5 6 -2.99151 0 5 -2.99151 1
gene 2 1 7 -1.3286 0 6 -1.3286 1
gene 1 2 7 -1.48364 0 7 -1.48364 1
gene 1 3 7 0.213591 0 8 0.213591 1
gene 3 4 7 -3.44991 0 9 -3.44991 1
gene 3 5 7 -0.468754 0 10 -0.468754 1
gene 3 7 6 -1.31879 0 46 -1.31879 1
genomeend 82

/* Organism #83 Fitness: 17 Error: 0 */
genomestart 83
node 1 1 1 3
node 2 3 1 1
node 3 1 1 1
node 4 3 1 1
node 5 3 1 1
node 6 3 0 2
node 7 1 0 2
gene 1 1 6 0.586331 0 1 0.586331 1
gene 1 2 6 -6.79852 0 2 -6.79852 1
gene 3 3 6 4.72805 0 3 4.72805 1
gene 1 4 6 -0.485618 0 4 -0.485618 1
gene 2 5 6 -5.21422 0 5 -5.21422 1
gene 2 1 7 1.88259 0 6 1.88259 1
gene 1 2 7 -3.829 0 7 -3.829 1
gene 1 3 7 -2.27538 0 8 -2.27538 1
gene 3 4 7 -2.89662 0 9 -2.89662 1
gene 3 5 7 -0.51575 0 10 -0.51575 1
gene 3 7 6 1.2028 0 46 1.2028 1
genomeend 83

/* Species #93 : (Size 1) (AF 14) (Age 4)  */


/* Organism #84 Fitness: 14 Error: 0 */
genomestart 84
node 1 3 1 3
node 2 2 1 1
node 3 1 1 1
node 4 1 1 1
node 5 2 1 1
node 6 2 0 2
node 7 3 0 2
gene 2 1 6 -0.646355 0 1 -0.646355 1
gene 3 2 6 -7.11787 0 2 -7.11787 1
gene 1 3 6 -2.3363 0 3 -2.3363 1
gene 3 4 6 -0.00563136 0 4 -0.00563136 1
gene 2 5 6 -4.561 0 5 -4.561 1
gene 3 1 7 6.76997 0 6 6.76997 1
gene 2 2 7 -5.84405 0 7 -5.84405 1
gene 1 3 7 1.1432 0 8 1.1432 1
gene 2 4 7 0.929811 0 9 0.929811 1
gene 2 5 7 3.01659 0 10 3.01659 1
genomeend 84

/* Species #94 : (Size 2) (AF 10.5) (Age 4)  */


/* Organism #85 Fitness: 12 Error: 0 */
genomestart 85
node 1 3 1 3
node 2 2 1 1
node 3 1 1 1
node 4 1 1 1
node 5 2 1 1
node 6 2 0 2
node 7 3 0 2
gene 2 1 6 2.67394 0 1 2.67394 1
gene 3 2 6 -0.0284718 0 2 -0.0284718 1
gene 3 3 6 -2.31155 0 3 -2.31155 1
gene 3 4 6 -1.87293 0 4 -1.87293 1
gene 2 5 6 -7.20207 0 5 -7.20207 1
gene 2 1 7 5.64277 0 6 5.64277 1
gene 2 2 7 -8 0 7 -8 1
gene 2 3 7 -4.85556 0 8 -4.85556 1
gene 2 4 7 -3.55743 0 9 -3.55743 1
gene 1 5 7 -0.866081 0 10 -0.866081 1
genomeend 85

/* Organism #86 Fitness: 9 Error: 0 */
genomestart 86
node 1 3 1 3
node 2 2 1 1
node 3 1 1 1
node 4 1 1 1
node 5 2 1 1
node 6 2 0 2
node 7 3 0 2
gene 2 1 6 1.48906 0 1 1.48906 1
gene 3 2 6 1.28033 0 2 1.28033 1
gene 3 3 6 -2.40445 0 3 -2.40445 1
gene 3 4 6 -2.74619 0 4 -2.74619 1
gene 2 5 6 -7.1137 0 5 -7.1137 1
gene 2 1 7 4.50894 0 6 4.50894 1
gene 2 2 7 -7.57581 0 7 -7.57581 1
gene 2 3 7 -4.58181 0 8 -4.58181 1
gene 2 4 7 -5.76696 0 9 -5.76696 1
gene 1 5 7 -1.95344 0 10 -1.95344 1
genomeend 86

/* Species #97 : (Size 1) (AF 5) (Age 4)  */


/* Organism #87 Fitness: 5 Error: 0 */
genomestart 87
node 1 2 1 3
node 2 3 1 1
node 3 2 1 1
node 4 1 1 1
node 5 1 1 1
node 6 2 0 2
node 7 2 0 2
gene 2 1 6 -2.20945 0 1 -2.20945 1
gene 2 2 6 1.11844 0 2 1.11844 1
gene 1 3 6 -1.75103 0 3 -1.75103 1
gene 2 4 6 2.44276 0 4 2.44276 1
gene 2 5 6 -2.11349 0 5 -2.11349 1
gene 1 1 7 2.06833 0 6 2.06833 1
gene 1 2 7 -0.296215 0 7 -0.296215 1
gene 3 3 7 -6.26833 0 8 -6.26833 1
gene 1 4 7 3.78775 0 9 3.78775 1
gene 1 5 7 -1.66608 0 10 -1.66608 1
genomeend 87

/* Species #100 : (Size 1) (AF 5) (Age 4)  */


/* Organism #88 Fitness: 5 Error: 0 */
genomestart 88
node 1 1 1 3
node 2 1 1 1
node 3 3 1 1
node 4 2 1 1
node 5 3 1 1
node 6 3 0 2
node 7 2 0 2
gene 2 1 6 4.5817 0 1 4.5817 1
gene 3 2 6 -2.88456 0 2 -2.88456 1
gene 3 3 6 5.36175 0 3 5.36175 1
gene 3 4 6 -0.299926 0 4 -0.299926 1
gene 3 5 6 0.407883 0 5 0.407883 1
gene 2 1 7 1.80006 0 6 1.80006 1
gene 3 2 7 -4.63114 0 7 -4.63114 1
gene 1 3 7 0.540752 0 8 0.540752 1
gene 3 4 7 4.71271 0 9 4.71271 1
gene 3 5 7 3.51876 0 10 3.51876 1
genomeend 88

/* Species #102 : (Size 1) (AF 19) (Age 4)  */


/* Organism #89 Fitness: 19 Error: 0 */
genomestart 89
node 1 1 1 3
node 2 3 1 1
node 3 2 1 1
node 4 1 1 1
node 5 1 1 1
node 6 1 0 2
node 7 1 0 2
gene 2 1 6 -0.0242953 0 1 -0.0242953 1
gene 2 2 6 2.96297 0 2 2.96297 1
gene 3 3 6 0.515601 0 3 0.515601 1
gene 2 4 6 2.43819 0 4 2.43819 1
gene 3 5 6 -4.21123 0 5 -4.21123 1
gene 1 1 7 6.80771 0 6 6.80771 1
gene 3 2 7 -7.19308 0 7 -7.19308 1
gene 1 3 7 -2.23055 0 8 -2.23055 1
gene 3 4 7 -0.587086 0 9 -0.587086 1
gene 1 5 7 0.0707728 0 10 0.0707728 1
gene 1 7 6 0.51507 0 32 0.51507 1
gene 1 6 6 0.914211 1 49 0.914211 1
genomeend 89

/* Species #105 : (Size 2) (AF 4.5) (Age 4)  */


/* Organism #90 Fitness: 5 Error: 0 */
genomestart 90
node 1 1 1 3
node 2 1 1 1
node 3 2 1 1
node 4 1 1 1
node 5 3 1 1
node 6 1 0 2
node 7 1 0 2
gene 2 1 6 -0.688045 0 1 -0.688045 1
gene 3 2 6 -7.93447 0 2 -7.93447 1
gene 1 3 6 1.04435 0 3 1.04435 1
gene 3 4 6 -1.39675 0 4 -1.39675 1
gene 1 5 6 -1.04968 0 5 -1.04968 1
gene 2 1 7 0.275795 0 6 0.275795 1
gene 2 2 7 -4.96019 0 7 -4.96019 1
gene 1 3 7 -5.73997 0 8 -5.73997 1
gene 1 4 7 0.686075 0 9 0.686075 1
gene 1 5 7 -0.907775 0 10 -0.907775 1
gene 2 7 6 -3.20473 0 17 -3.20473 1
genomeend 90

/* Organism #91 Fitness: 4 Error: 0 */
genomestart 91
node 1 1 1 3
node 2 1 1 1
node 3 2 1 1
node 4 1 1 1
node 5 3 1 1
node 6 1 0 2
node 7 1 0 2
gene 2 1 6 -1.92718 0 1 -1.92718 1
gene 3 2 6 -5.08634 0 2 -5.08634 1
gene 1 3 6 -1.48057 0 3 -1.48057 1
gene 3 4 6 -2.41627 0 4 -2.41627 1
gene 1 5 6 1.2603 0 5 1.2603 1
gene 2 1 7 2.10595 0 6 2.10595 1
gene 2 2 7 -3.55676 0 7 -3.55676 1
gene 1 3 7 -6.12087 0 8 -6.12087 1
gene 1 4 7 -0.131491 0 9 -0.131491 1
gene 1 5 7 -1.45131 0 10 -1.45131 1
gene 2 7 6 -0.397074 0 17 -0.397074 1
genomeend 91

/* Species #106 : (Size 1) (AF 9) (Age 4)  */


/* Organism #92 Fitness: 9 Error: 0 */
genomestart 92
node 1 2 1 3
node 2 1 1 1
node 3 3 1 1
node 4 2 1 1
node 5 2 1 1
node 6 2 0 2
node 7 1 0 2
gene 3 1 6 0.00406759 0 1 0.00406759 1
gene 3 2 6 -1.63389 0 2 -1.63389 1
gene 3 3 6 -7.12688 0 3 -7.12688 1
gene 3 4 6 0.994004 0 4 0.994004 1
gene 3 5 6 -0.210758 0 5 -0.210758 1
gene 3 1 7 0.297009 0 6 0.297009 1
gene 2 2 7 3.84314 0 7 3.84314 1
gene 2 3 7 -1.39759 0 8 -1.39759 1
gene 2 4 7 1.86391 0 9 1.86391 1
gene 2 5 7 5.86125 0 10 5.86125 1
genomeend 92

/* Species #107 : (Size 3) (AF 20.6667) (Age 4)  */


/* Organism #93 Fitness: 29 Error: 0 */
genomestart 93
node 1 1 1 3
node 2 1 1 1
node 3 3 1 1
node 4 2 1 1
node 5 3 1 1
node 6 3 0 2
node 7 2 0 2
gene 2 1 6 6.00196 0 1 6.00196 1
gene 3 2 6 -4.37697 0 2 -4.37697 1
gene 3 3 6 2.3077 0 3 2.3077 1
gene 3 4 6 -2.89633 0 4 -2.89633 1
gene 2 5 6 -1.80371 0 5 -1.80371 1
gene 2 1 7 -1.25057 0 6 -1.25057 1
gene 3 2 7 6.21366 0 7 6.21366 1
gene 1 3 7 -3.72632 0 8 -3.72632 1
gene 3 4 7 4.07153 0 9 4.07153 1
gene 3 5 7 -0.148959 0 10 -0.148959 1
genomeend 93

/* Organism #94 Fitness: 8 Error: 0 */
genomestart 94
node 1 1 1 3
node 2 1 1 1
node 3 3 1 1
node 4 2 1 1
node 5 3 1 1
node 6 3 0 2
node 7 2 0 2
gene 2 1 6 3.14149 0 1 3.14149 1
gene 3 2 6 -1.05408 0 2 -1.05408 1
gene 3 3 6 5.78904 0 3 5.78904 1
gene 3 4 6 -3.97604 0 4 -3.97604 1
gene 2 5 6 -2.12267 0 5 -2.12267 1
gene 2 1 7 0.172334 0 6 0.172334 1
gene 3 2 7 3.54375 0 7 3.54375 1
gene 1 3 7 -2.39472 0 8 -2.39472 1
gene 3 4 7 4.82026 0 9 4.82026 1
gene 3 5 7 1.4368 0 10 1.4368 1
genomeend 94

/* Organism #95 Fitness: 25 Error: 0 */
genomestart 95
node 1 1 1 3
node 2 1 1 1
node 3 3 1 1
node 4 2 1 1
node 5 3 1 1
node 6 3 0 2
node 7 2 0 2
gene 2 1 6 3.57509 0 1 3.57509 1
gene 3 2 6 -2.03682 0 2 -2.03682 1
gene 3 3 6 3.33399 0 3 3.33399 1
gene 3 4 6 -3.97604 0 4 -3.97604 1
gene 2 5 6 -3.37749 0 5 -3.37749 1
gene 2 1 7 -1.58851 0 6 -1.58851 1
gene 3 2 7 4.49551 0 7 4.49551 1
gene 1 3 7 -3.11158 0 8 -3.11158 1
gene 3 4 7 2.64456 0 9 2.64456 1
gene 3 5 7 1.4368 0 10 1.4368 1
gene 2 6 7 -0.282863 0 55 0 1
genomeend 95

/* Species #110 : (Size 1) (AF 13) (Age 4)  */


/* Organism #96 Fitness: 13 Error: 0 */
genomestart 96
node 1 2 1 3
node 2 2 1 1
node 3 3 1 1
node 4 2 1 1
node 5 2 1 1
node 6 1 0 2
node 7 1 0 2
gene 2 1 6 4.36229 0 1 4.36229 1
gene 2 2 6 -1.34249 0 2 -1.34249 1
gene 1 3 6 3.26144 0 3 3.26144 1
gene 1 4 6 -1.82605 0 4 -1.82605 1
gene 1 5 6 -1.53973 0 5 -1.53973 1
gene 1 1 7 3.39507 0 6 3.39507 1
gene 1 2 7 0.71691 0 7 0.71691 1
gene 2 3 7 0.0162178 0 8 0.0162178 1
gene 3 4 7 1.15276 0 9 1.15276 1
gene 3 5 7 -4.48984 0 10 -4.48984 1
gene 2 7 6 2.48165 0 17 2.48165 1
gene 2 6 6 0.126373 1 26 0.126373 1
genomeend 96

/* Species #113 : (Size 1) (AF 10) (Age 4)  */


/* Organism #97 Fitness: 10 Error: 0 */
genomestart 97
node 1 2 1 3
node 2 2 1 1
node 3 3 1 1
node 4 2 1 1
node 5 2 1 1
node 6 1 0 2
node 7 1 0 2
gene 2 1 6 -0.380605 0 1 -0.380605 1
gene 1 2 6 2.09355 0 2 2.09355 1
gene 3 3 6 -5.357 0 3 -5.357 1
gene 3 4 6 -0.322554 0 4 -0.322554 1
gene 2 5 6 -1.80605 0 5 -1.80605 1
gene 2 1 7 2.28859 0 6 2.28859 1
gene 2 2 7 -4.53366 0 7 -4.53366 1
gene 2 3 7 -8 0 8 -8 1
gene 3 4 7 -3.01312 0 9 -3.01312 1
gene 3 5 7 1.45093 0 10 1.45093 1
gene 2 7 6 -0.33384 0 17 -0.33384 1
genomeend 97

/* Species #114 : (Size 1) (AF 6) (Age 4)  */


/* Organism #98 Fitness: 6 Error: 0 */
genomestart 98
node 1 3 1 3
node 2 2 1 1
node 3 1 1 1
node 4 1 1 1
node 5 2 1 1
node 6 1 0 2
node 7 3 0 2
gene 3 1 6 1.39378 0 1 1.39378 1
gene 3 2 6 2.60815 0 2 2.60815 1
gene 3 3 6 -4.98496 0 3 -4.98496 1
gene 3 4 6 1.47937 0 4 1.47937 1
gene 3 5 6 3.38833 0 5 3.38833 1
gene 3 1 7 -0.713568 0 6 -0.713568 1
gene 2 2 7 2.09787 0 7 2.09787 1
gene 2 3 7 -5.29491 0 8 -5.29491 1
gene 2 4 7 -2.56238 0 9 -2.56238 1
gene 2 5 7 0.801773 0 10 0.801773 1
gene 3 7 7 -2.93844 1 24 -2.93844 1
gene 3 6 7 -0.850714 0 35 -0.850714 1
genomeend 98

/* Species #115 : (Size 1) (AF 29) (Age 4)  */


/* Organism #99 Fitness: 29 Error: 0 */
genomestart 99
node 1 3 1 3
node 2 2 1 1
node 3 1 1 1
node 4 1 1 1
node 5 2 1 1
node 6 2 0 2
node 7 3 0 2
gene 2 1 6 8 0 1 8 1
gene 3 2 6 3.68057 0 2 3.68057 1
gene 3 3 6 -0.0177536 0 3 -0.0177536 1
gene 1 4 6 -0.425103 0 4 -0.425103 1
gene 2 5 6 -1.68089 0 5 -1.68089 1
gene 1 1 7 0.998244 0 6 0.998244 1
gene 1 2 7 2.41148 0 7 2.41148 1
gene 2 3 7 -4.04898 0 8 -4.04898 1
gene 1 4 7 -3.66058 0 9 -3.66058 1
gene 1 5 7 5.68095 0 10 5.68095 1
gene 1 7 6 -2.67997 0 27 -2.67997 1
genomeend 99

/* Species #119 : (Size 6) (AF 19.8333) (Age 4)  */


/* Organism #100 Fitness: 7 Error: 0 */
genomestart 100
node 1 3 1 3
node 2 1 1 1
node 3 2 1 1
node 4 1 1 1
node 5 1 1 1
node 6 3 0 2
node 7 1 0 2
gene 2 1 6 5.07094 0 1 5.07094 1
gene 2 2 6 4.37353 0 2 4.37353 1
gene 3 3 6 -1.13172 0 3 -1.13172 1
gene 1 4 6 -5.57988 0 4 -5.57988 1
gene 2 5 6 -5.03176 0 5 -5.03176 1
gene 1 1 7 -0.294602 0 6 -0.294602 1
gene 1 2 7 -3.7391 0 7 -3.7391 1
gene 2 3 7 0.889732 0 8 0.889732 1
gene 1 4 7 -1.16997 0 9 -1.16997 1
gene 1 5 7 2.86657 0 10 2.86657 1
genomeend 100

/* Organism #101 Fitness: 2 Error: 0 */
genomestart 101
node 1 3 1 3
node 2 1 1 1
node 3 2 1 1
node 4 1 1 1
node 5 1 1 1
node 6 3 0 2
node 7 1 0 2
gene 2 1 6 4.06724 0 1 4.06724 1
gene 2 2 6 4.15209 0 2 4.15209 1
gene 3 3 6 -1.29726 0 3 -1.29726 1
gene 1 4 6 -5.57988 0 4 -5.57988 1
gene 2 5 6 -7.19922 0 5 -7.19922 1
gene 1 1 7 1.40674 0 6 1.40674 1
gene 1 2 7 -1.79373 0 7 -1.79373 1
gene 2 3 7 0.392104 0 8 0.392104 1
gene 1 4 7 0.183487 0 9 0.183487 1
gene 1 5 7 5.32147 0 10 5.32147 1
genomeend 101

/* Organism #102 Fitness: 35 Error: 0 */
genomestart 102
node 1 3 1 3
node 2 1 1 1
node 3 2 1 1
node 4 1 1 1
node 5 1 1 1
node 6 3 0 2
node 7 1 0 2
gene 2 1 6 3.38658 0 1 3.38658 1
gene 2 2 6 2.41006 0 2 2.41006 1
gene 3 3 6 -1.13172 0 3 -1.13172 1
gene 3 4 6 -7.73158 0 4 -7.73158 1
gene 2 5 6 -5.03176 0 5 -5.03176 1
gene 1 1 7 -0.0108336 0 6 -0.0108336 1
gene 1 2 7 -3.7391 0 7 -3.7391 1
gene 1 3 7 0.293302 0 8 0.293302 1
gene 1 4 7 1.09046 0 9 1.09046 1
gene 1 5 7 2.86657 0 10 2.86657 1
genomeend 102

/* Organism #103 Fitness: 5 Error: 0 */
genomestart 103
node 1 3 1 3
node 2 1 1 1
node 3 2 1 1
node 4 1 1 1
node 5 1 1 1
node 6 3 0 2
node 7 1 0 2
gene 2 1 6 2.33284 0 1 2.33284 1
gene 2 2 6 4.33143 0 2 4.33143 1
gene 3 3 6 -0.57554 0 3 -0.57554 1
gene 1 4 6 -5.47377 0 4 -5.47377 1
gene 2 5 6 -2.80623 0 5 -2.80623 1
gene 1 1 7 -0.382505 0 6 -0.382505 1
gene 1 2 7 -1.3586 0 7 -1.3586 1
gene 2 3 7 0.890826 0 8 0.890826 1
gene 1 4 7 -2.49652 0 9 -2.49652 1
gene 1 5 7 0.114781 0 10 0.114781 1
genomeend 103

/* Organism #104 Fitness: 67 Error: 0 */
genomestart 104
node 1 3 1 3
node 2 1 1 1
node 3 2 1 1
node 4 1 1 1
node 5 1 1 1
node 6 3 0 2
node 7 1 0 2
gene 2 1 6 4.22876 0 1 4.22876 1
gene 2 2 6 3.39179 0 2 3.39179 1
gene 3 3 6 -0.86716 0 3 -0.86716 1
gene 3 4 6 -6.65573 0 4 -6.65573 1
gene 2 5 6 -3.6503 0 5 -3.6503 1
gene 1 1 7 -0.152718 0 6 -0.152718 1
gene 1 2 7 -1.76298 0 7 -1.76298 1
gene 1 3 7 0.591517 0 8 0.591517 1
gene 1 4 7 -0.0397587 0 9 -0.0397587 1
gene 1 5 7 2.41098 0 10 2.41098 1
genomeend 104

/* Organism #105 Fitness: 3 Error: 0 */
genomestart 105
node 1 3 1 3
node 2 1 1 1
node 3 2 1 1
node 4 1 1 1
node 5 1 1 1
node 6 1 0 2
node 7 1 0 2
gene 2 1 6 4.11479 0 1 4.11479 1
gene 2 2 6 6.82278 0 2 6.82278 1
gene 3 3 6 -2.93795 0 3 -2.93795 1
gene 1 4 6 -3.9992 0 4 -3.9992 1
gene 2 5 6 -5.26479 0 5 -5.26479 1
gene 1 1 7 0.0041163 0 6 0.0041163 1
gene 1 2 7 -4.25313 0 7 -4.25313 1
gene 2 3 7 -1.58766 0 8 -1.58766 1
gene 1 4 7 -2.60549 0 9 -2.60549 1
gene 1 5 7 2.86657 0 10 2.86657 1
genomeend 105

/* Species #120 : (Size 5) (AF 11) (Age 4)  */


/* Organism #106 Fitness: 14 Error: 0 */
genomestart 106
node 1 3 1 3
node 2 1 1 1
node 3 2 1 1
node 4 1 1 1
node 5 1 1 1
node 6 3 0 2
node 7 1 0 2
gene 2 1 6 3.37919 0 1 3.37919 1
gene 2 2 6 8 0 2 8 1
gene 3 3 6 -8 0 3 -8 1
gene 1 4 6 -5.92354 0 4 -5.92354 1
gene 2 5 6 0.605733 0 5 0.605733 1
gene 1 1 7 3.19091 0 6 3.19091 1
gene 1 2 7 -2.25544 0 7 -2.25544 1
gene 2 3 7 -5.3019 0 8 -5.3019 1
gene 1 4 7 -1.22398 0 9 -1.22398 1
gene 1 5 7 5.36086 0 10 5.36086 1
genomeend 106

/* Organism #107 Fitness: 8 Error: 0 */
genomestart 107
node 1 3 1 3
node 2 1 1 1
node 3 2 1 1
node 4 1 1 1
node 5 1 1 1
node 6 3 0 2
node 7 1 0 2
gene 2 1 6 4.33339 0 1 4.33339 1
gene 2 2 6 8 0 2 8 1
gene 3 3 6 -7.15415 0 3 -7.15415 1
gene 1 4 6 -4.74109 0 4 -4.74109 1
gene 2 5 6 0.605733 0 5 0.605733 1
gene 1 1 7 4.35186 0 6 4.35186 1
gene 1 2 7 -2.76802 0 7 -2.76802 1
gene 2 3 7 -3.55258 0 8 -3.55258 1
gene 1 4 7 -1.22398 0 9 -1.22398 1
gene 1 5 7 4.44692 0 10 4.44692 1
genomeend 107

/* Organism #108 Fitness: 10 Error: 0 */
genomestart 108
node 1 3 1 3
node 2 1 1 1
node 3 2 1 1
node 4 1 1 1
node 5 1 1 1
node 6 3 0 2
node 7 1 0 2
gene 2 1 6 3.79892 0 1 3.79892 1
gene 2 2 6 8 0 2 8 1
gene 3 3 6 -8 0 3 -8 1
gene 1 4 6 -7.4827 0 4 -7.4827 1
gene 2 5 6 0.605733 0 5 0.605733 1
gene 1 1 7 2.40401 0 6 2.40401 1
gene 1 2 7 0.111759 0 7 0.111759 1
gene 2 3 7 0.545475 0 8 0.545475 1
gene 1 4 7 0.846721 0 9 0.846721 1
gene 1 5 7 6.51897 0 10 6.51897 1
genomeend 108

/* Organism #109 Fitness: 12 Error: 0 */
genomestart 109
node 1 3 1 3
node 2 1 1 1
node 3 2 1 1
node 4 1 1 1
node 5 1 1 1
node 6 3 0 2
node 7 1 0 2
gene 2 1 6 3.37919 0 1 3.37919 1
gene 2 2 6 8 0 2 8 1
gene 3 3 6 -8 0 3 -8 1
gene 1 4 6 -5.92354 0 4 -5.92354 1
gene 2 5 6 0.605733 0 5 0.605733 1
gene 1 1 7 3.19091 0 6 3.19091 1
gene 1 2 7 -2.25544 0 7 -2.25544 1
gene 2 3 7 -5.3019 0 8 -5.3019 1
gene 1 4 7 -1.22398 0 9 -1.22398 1
gene 1 5 7 5.36086 0 10 5.36086 1
gene 2 6 7 -0.282863 0 55 0 1
genomeend 109

/* Organism #110 Fitness: 11 Error: 0 */
genomestart 110
node 1 3 1 3
node 2 1 1 1
node 3 2 1 1
node 4 1 1 1
node 5 1 1 1
node 6 3 0 2
node 7 1 0 2
gene 2 1 6 4.96149 0 1 4.96149 1
gene 2 2 6 8 0 2 8 1
gene 3 3 6 -7.07294 0 3 -7.07294 1
gene 1 4 6 -4.99825 0 4 -4.99825 1
gene 2 5 6 0.858599 0 5 0.858599 1
gene 1 1 7 3.3633 0 6 3.3633 1
gene 1 2 7 -2.21281 0 7 -2.21281 1
gene 2 3 7 -4.03449 0 8 -4.03449 1
gene 1 4 7 0.0263463 0 9 0.0263463 1
gene 1 5 7 5.36086 0 10 5.36086 1
genomeend 110

/* Species #121 : (Size 5) (AF 27.4) (Age 4)  */


/* Organism #111 Fitness: 10 Error: 0 */
genomestart 111
node 1 3 1 3
node 2 1 1 1
node 3 2 1 1
node 4 1 1 1
node 5 1 1 1
node 6 3 0 2
node 7 1 0 2
gene 2 1 6 3.22489 0 1 3.22489 1
gene 2 2 6 3.8656 0 2 3.8656 1
gene 3 3 6 -3.36702 0 3 -3.36702 1
gene 1 4 6 -4.08928 0 4 -4.08928 1
gene 2 5 6 -3.41375 0 5 -3.41375 1
gene 1 1 7 4.02319 0 6 4.02319 1
gene 1 2 7 -0.697993 0 7 -0.697993 1
gene 2 3 7 0.45448 0 8 0.45448 1
gene 1 4 7 2.59183 0 9 2.59183 1
gene 1 5 7 -0.168669 0 10 -0.168669 1
genomeend 111

/* Organism #112 Fitness: 99 Error: 0 */
genomestart 112
node 1 3 1 3
node 2 1 1 1
node 3 2 1 1
node 4 1 1 1
node 5 1 1 1
node 6 3 0 2
node 7 1 0 2
gene 2 1 6 6.65782 0 1 6.65782 1
gene 2 2 6 3.83278 0 2 3.83278 1
gene 3 3 6 -3.32281 0 3 -3.32281 1
gene 1 4 6 -3.75706 0 4 -3.75706 1
gene 2 5 6 -6.67715 0 5 -6.67715 1
gene 1 1 7 3.40951 0 6 3.40951 1
gene 1 2 7 -1.30192 0 7 -1.30192 1
gene 2 3 7 -0.944248 0 8 -0.944248 1
gene 1 4 7 2.59392 0 9 2.59392 1
gene 1 5 7 -2.0815 0 10 -2.0815 1
genomeend 112

/* Organism #113 Fitness: 16 Error: 0 */
genomestart 113
node 1 3 1 3
node 2 1 1 1
node 3 2 1 1
node 4 1 1 1
node 5 1 1 1
node 6 3 0 2
node 7 1 0 2
gene 2 1 6 3.22489 0 1 3.22489 1
gene 2 2 6 3.83278 0 2 3.83278 1
gene 3 3 6 -3.36702 0 3 -3.36702 1
gene 1 4 6 -4.08928 0 4 -4.08928 1
gene 2 5 6 -6.67715 0 5 -6.67715 1
gene 1 1 7 3.40951 0 6 3.40951 1
gene 1 2 7 -1.30192 0 7 -1.30192 1
gene 2 3 7 0.45448 0 8 0.45448 1
gene 1 4 7 2.59392 0 9 2.59392 1
gene 1 5 7 -0.168669 0 10 -0.168669 1
genomeend 113

/* Organism #114 Fitness: 11 Error: 0 */
genomestart 114
node 1 3 1 3
node 2 1 1 1
node 3 2 1 1
node 4 1 1 1
node 5 1 1 1
node 6 3 0 2
node 7 1 0 2
gene 2 1 6 3.68863 0 1 3.68863 1
gene 2 2 6 3.83106 0 2 3.83106 1
gene 3 3 6 -3.44953 0 3 -3.44953 1
gene 1 4 6 -5.52176 0 4 -5.52176 1
gene 2 5 6 -4.28953 0 5 -4.28953 1
gene 1 1 7 1.93297 0 6 1.93297 1
gene 1 2 7 -0.571653 0 7 -0.571653 1
gene 2 3 7 -1.1873 0 8 -1.1873 1
gene 1 4 7 2.37679 0 9 2.37679 1
gene 1 5 7 0.0815038 0 10 0.0815038 1
genomeend 114

/* Organism #115 Fitness: 1 Error: 0 */
genomestart 115
node 1 3 1 3
node 2 1 1 1
node 3 2 1 1
node 4 1 1 1
node 5 1 1 1
node 6 3 0 2
node 7 1 0 2
gene 2 1 6 7.20374 0 1 7.20374 1
gene 2 2 6 -0.212183 0 2 -0.212183 1
gene 3 3 6 -5.6747 0 3 -5.6747 1
gene 1 4 6 -4.88055 0 4 -4.88055 1
gene 2 5 6 -4.89728 0 5 -4.89728 1
gene 1 1 7 1.0821 0 6 1.0821 1
gene 1 2 7 -0.1575 0 7 -0.1575 1
gene 2 3 7 -1.81394 0 8 -1.81394 1
gene 1 4 7 1.22457 0 9 1.22457 1
gene 1 5 7 4.0535 0 10 4.0535 1
genomeend 115

/* Species #122 : (Size 1) (AF 13) (Age 4)  */


/* Organism #116 Fitness: 13 Error: 0 */
genomestart 116
node 1 3 1 3
node 2 1 1 1
node 3 2 1 1
node 4 1 1 1
node 5 1 1 1
node 6 1 0 2
node 7 2 0 2
gene 2 1 6 8 0 1 8 1
gene 2 2 6 3.16857 0 2 3.16857 1
gene 3 3 6 -8 0 3 -8 1
gene 1 4 6 -7.05576 0 4 -7.05576 1
gene 2 5 6 -1.86516 0 5 -1.86516 1
gene 1 1 7 -1.99442 0 6 -1.99442 1
gene 1 2 7 -2.01339 0 7 -2.01339 1
gene 2 3 7 -2.67869 0 8 -2.67869 1
gene 1 4 7 -0.402835 0 9 -0.402835 1
gene 1 5 7 0.778886 0 10 0.778886 1
genomeend 116

/* Species #125 : (Size 1) (AF 9) (Age 4)  */


/* Organism #117 Fitness: 9 Error: 0 */
genomestart 117
node 1 3 1 3
node 2 2 1 1
node 3 1 1 1
node 4 1 1 1
node 5 2 1 1
node 6 2 0 2
node 7 3 0 2
gene 2 1 6 4.59151 0 1 4.59151 1
gene 3 2 6 2.17843 0 2 2.17843 1
gene 3 3 6 -5.47133 0 3 -5.47133 1
gene 3 4 6 -3.97027 0 4 -3.97027 1
gene 2 5 6 0.358799 0 5 0.358799 1
gene 2 1 7 -2.35696 0 6 -2.35696 1
gene 2 2 7 3.62865 0 7 3.62865 1
gene 2 3 7 -5.90255 0 8 -5.90255 1
gene 2 4 7 -4.62542 0 9 -4.62542 1
gene 1 5 7 0.385301 0 10 0.385301 1
genomeend 117

/* Species #126 : (Size 1) (AF 2) (Age 4)  */


/* Organism #118 Fitness: 2 Error: 0 */
genomestart 118
node 1 3 1 3
node 2 2 1 1
node 3 1 1 1
node 4 1 1 1
node 5 2 1 1
node 6 2 0 2
node 7 3 0 2
gene 2 1 6 -3.85665 0 1 -3.85665 1
gene 3 2 6 0.0453947 0 2 0.0453947 1
gene 3 3 6 -8 0 3 -8 1
gene 3 4 6 -4.48011 0 4 -4.48011 1
gene 2 5 6 2.07105 0 5 2.07105 1
gene 2 1 7 -0.703489 0 6 -0.703489 1
gene 2 2 7 2.31028 0 7 2.31028 1
gene 2 3 7 -2.63394 0 8 -2.63394 1
gene 2 4 7 -2.10124 0 9 -2.10124 1
gene 1 5 7 -1.51415 0 10 -1.51415 1
gene 1 6 7 0.64413 0 45 0.64413 1
genomeend 118

/* Species #127 : (Size 1) (AF 13) (Age 4)  */


/* Organism #119 Fitness: 13 Error: 0 */
genomestart 119
node 1 3 1 3
node 2 2 1 1
node 3 1 1 1
node 4 1 1 1
node 5 2 1 1
node 6 2 0 2
node 7 3 0 2
gene 2 1 6 8 0 1 8 1
gene 3 2 6 -0.906655 0 2 -0.906655 1
gene 3 3 6 -4.6179 0 3 -4.6179 1
gene 1 4 6 2.19703 0 4 2.19703 1
gene 2 5 6 2.63868 0 5 2.63868 1
gene 1 1 7 5.44622 0 6 5.44622 1
gene 2 2 7 0.610869 0 7 0.610869 1
gene 2 3 7 3.34598 0 8 3.34598 1
gene 2 4 7 1.83411 0 9 1.83411 1
gene 1 5 7 -1.14914 0 10 -1.14914 1
genomeend 119

/* Species #131 : (Size 1) (AF 7) (Age 4)  */


/* Organism #120 Fitness: 7 Error: 0 */
genomestart 120
node 1 1 1 3
node 2 3 1 1
node 3 2 1 1
node 4 1 1 1
node 5 3 1 1
node 6 1 0 2
node 7 1 0 2
gene 2 1 6 -4.43612 0 1 -4.43612 1
gene 2 2 6 2.18507 0 2 2.18507 1
gene 3 3 6 -0.414024 0 3 -0.414024 1
gene 1 4 6 2.07805 0 4 2.07805 1
gene 3 5 6 -0.942098 0 5 -0.942098 1
gene 1 1 7 7.10807 0 6 7.10807 1
gene 3 2 7 1.19055 0 7 1.19055 1
gene 1 3 7 -5.31448 0 8 -5.31448 1
gene 1 4 7 -1.53174 0 9 -1.53174 1
gene 1 5 7 2.41121 0 10 2.41121 1
gene 3 7 6 0.00353955 0 46 0.00353955 1
genomeend 120

/* Species #132 : (Size 1) (AF 18) (Age 4)  */


/* Organism #121 Fitness: 18 Error: 0 */
genomestart 121
node 1 3 1 3
node 2 3 1 1
node 3 1 1 1
node 4 1 1 1
node 5 3 1 1
node 6 3 0 2
node 7 2 0 2
gene 1 1 6 -0.313395 0 1 -0.313395 1
gene 1 2 6 0.229613 0 2 0.229613 1
gene 3 3 6 0.833442 0 3 0.833442 1
gene 1 4 6 -4.57151 0 4 -4.57151 1
gene 2 5 6 -6.94285 0 5 -6.94285 1
gene 2 1 7 -6.81129 0 6 -6.81129 1
gene 1 2 7 2.33182 0 7 2.33182 1
gene 1 3 7 3.90394 0 8 3.90394 1
gene 3 4 7 -2.74457 0 9 -2.74457 1
gene 1 5 7 -2.0269 0 10 -2.0269 1
genomeend 121

/* Species #133 : (Size 1) (AF 2) (Age 4)  */


/* Organism #122 Fitness: 2 Error: 0 */
genomestart 122
node 1 3 1 3
node 2 2 1 1
node 3 1 1 1
node 4 3 1 1
node 5 1 1 1
node 6 2 0 2
node 7 3 0 2
gene 2 1 6 -1.98542 0 1 -1.98542 1
gene 1 2 6 -2.88257 0 2 -2.88257 1
gene 1 3 6 1.08969 0 3 1.08969 1
gene 1 4 6 4.59074 0 4 4.59074 1
gene 2 5 6 4.88425 0 5 4.88425 1
gene 1 1 7 1.76067 0 6 1.76067 1
gene 1 2 7 -2.49558 0 7 -2.49558 1
gene 2 3 7 -5.45035 0 8 -5.45035 1
gene 3 4 7 -2.79252 0 9 -2.79252 1
gene 3 5 7 0.0755949 0 10 0.0755949 1
gene 3 7 6 -0.884492 0 57 0 1
genomeend 122

/* Species #136 : (Size 9) (AF 52.3333) (Age 3)  */


/* Organism #123 Fitness: 136 Error: 0 */
genomestart 123
node 1 3 1 3
node 2 1 1 1
node 3 2 1 1
node 4 1 1 1
node 5 3 1 1
node 6 2 0 2
node 7 2 0 2
gene 1 1 6 3.70608 0 1 3.70608 1
gene 2 2 6 0.586292 0 2 0.586292 1
gene 1 3 6 0.983587 0 3 0.983587 1
gene 2 4 6 0.583855 0 4 0.583855 1
gene 1 5 6 -1.48775 0 5 -1.48775 1
gene 1 1 7 -1.26179 0 6 -1.26179 1
gene 1 2 7 0.143129 0 7 0.143129 1
gene 2 3 7 2.08829 0 8 2.08829 1
gene 2 4 7 3.2926 0 9 3.2926 1
gene 3 5 7 6.66415 0 10 6.66415 1
gene 1 6 7 -1.95805 0 33 -1.95805 1
genomeend 123

/* Organism #124 Fitness: 122 Error: 0 */
genomestart 124
node 1 3 1 3
node 2 1 1 1
node 3 2 1 1
node 4 1 1 1
node 5 3 1 1
node 6 2 0 2
node 7 2 0 2
gene 1 1 6 3.70608 0 1 3.70608 1
gene 2 2 6 0.586292 0 2 0.586292 1
gene 1 3 6 0.983587 0 3 0.983587 1
gene 2 4 6 0.583855 0 4 0.583855 1
gene 1 5 6 -1.48775 0 5 -1.48775 1
gene 1 1 7 -1.26179 0 6 -1.26179 1
gene 1 2 7 0.143129 0 7 0.143129 1
gene 2 3 7 2.08829 0 8 2.08829 1
gene 2 4 7 3.2926 0 9 3.2926 1
gene 3 5 7 6.66415 0 10 6.66415 1
gene 1 6 7 -1.95805 0 33 -1.95805 1
genomeend 124

/* Organism #125 Fitness: 23 Error: 0 */
genomestart 125
node 1 3 1 3
node 2 1 1 1
node 3 2 1 1
node 4 1 1 1
node 5 3 1 1
node 6 2 0 2
node 7 2 0 2
gene 1 1 6 2.02135 0 1 2.02135 1
gene 2 2 6 1.0475 0 2 1.0475 1
gene 1 3 6 0.983587 0 3 0.983587 1
gene 2 4 6 1.70612 0 4 1.70612 1
gene 1 5 6 1.12386 0 5 1.12386 1
gene 1 1 7 -2.78078 0 6 -2.78078 1
gene 1 2 7 -1.07684 0 7 -1.07684 1
gene 2 3 7 0.465725 0 8 0.465725 1
gene 2 4 7 2.33122 0 9 2.33122 1
gene 3 5 7 4.92158 0 10 4.92158 1
gene 1 6 7 0.533945 0 33 0.533945 1
genomeend 125

/* Organism #126 Fitness: 1 Error: 0 */
genomestart 126
node 1 3 1 3
node 2 1 1 1
node 3 2 1 1
node 4 1 1 1
node 5 3 1 1
node 6 2 0 2
node 7 2 0 2
gene 1 1 6 1.98909 0 1 1.98909 1
gene 2 2 6 1.16957 0 2 1.16957 1
gene 1 3 6 2.49053 0 3 2.49053 1
gene 2 4 6 -0.0232407 0 4 -0.0232407 1
gene 1 5 6 -1.22528 0 5 -1.22528 1
gene 1 1 7 0.493601 0 6 0.493601 1
gene 1 2 7 -1.37593 0 7 -1.37593 1
gene 2 3 7 2.59429 0 8 2.59429 1
gene 2 4 7 2.32071 0 9 2.32071 1
gene 3 5 7 6.66415 0 10 6.66415 1
gene 1 6 7 -4.02834 0 33 -4.02834 1
genomeend 126

/* Organism #127 Fitness: 57 Error: 0 */
genomestart 127
node 1 3 1 3
node 2 1 1 1
node 3 2 1 1
node 4 1 1 1
node 5 3 1 1
node 6 2 0 2
node 7 2 0 2
gene 1 1 6 3.53462 0 1 3.53462 1
gene 2 2 6 1.18825 0 2 1.18825 1
gene 1 3 6 2.65788 0 3 2.65788 1
gene 2 4 6 0.704263 0 4 0.704263 1
gene 1 5 6 -3.75226 0 5 -3.75226 1
gene 1 1 7 1.22594 0 6 1.22594 1
gene 1 2 7 1.17397 0 7 1.17397 1
gene 2 3 7 -0.072574 0 8 -0.072574 1
gene 2 4 7 5.55238 0 9 5.55238 1
gene 3 5 7 6.65011 0 10 6.65011 1
gene 1 6 7 -1.95805 0 33 -1.95805 1
genomeend 127

/* Organism #128 Fitness: 13 Error: 0 */
genomestart 128
node 1 3 1 3
node 2 1 1 1
node 3 2 1 1
node 4 1 1 1
node 5 3 1 1
node 6 2 0 2
node 7 2 0 2
gene 1 1 6 4.07218 0 1 4.07218 1
gene 2 2 6 1.03518 0 2 1.03518 1
gene 1 3 6 3.06035 0 3 3.06035 1
gene 2 4 6 0.938138 0 4 0.938138 1
gene 1 5 6 -1.48775 0 5 -1.48775 1
gene 1 1 7 1.08265 0 6 1.08265 1
gene 1 2 7 -0.686293 0 7 -0.686293 1
gene 2 3 7 0.862424 0 8 0.862424 1
gene 2 4 7 1.22615 0 9 1.22615 1
gene 3 5 7 8 0 10 8 1
gene 1 6 7 -3.34368 0 33 -3.34368 1
genomeend 128

/* Organism #129 Fitness: 82 Error: 0 */
genomestart 129
node 1 3 1 3
node 2 1 1 1
node 3 2 1 1
node 4 1 1 1
node 5 3 1 1
node 6 2 0 2
node 7 2 0 2
gene 1 1 6 4.38285 0 1 4.38285 1
gene 2 2 6 0.058162 0 2 0.058162 1
gene 1 3 6 1.46593 0 3 1.46593 1
gene 2 4 6 -1.51607 0 4 -1.51607 1
gene 1 5 6 -3.79828 0 5 -3.79828 1
gene 1 1 7 -0.946058 0 6 -0.946058 1
gene 1 2 7 2.02339 0 7 2.02339 1
gene 2 3 7 -0.0395435 0 8 -0.0395435 1
gene 2 4 7 3.82399 0 9 3.82399 1
gene 3 5 7 6.66415 0 10 6.66415 1
gene 1 6 7 -1.95805 0 33 -1.95805 1
genomeend 129

/* Organism #130 Fitness: 13 Error: 0 */
genomestart 130
node 1 3 1 3
node 2 1 1 1
node 3 2 1 1
node 4 1 1 1
node 5 3 1 1
node 6 2 0 2
node 7 2 0 2
gene 1 1 6 1.64012 0 1 1.64012 1
gene 2 2 6 -0.29801 0 2 -0.29801 1
gene 1 3 6 -0.543519 0 3 -0.543519 1
gene 2 4 6 2.37961 0 4 2.37961 1
gene 1 5 6 -0.174652 0 5 -0.174652 1
gene 1 1 7 -1.47715 0 6 -1.47715 1
gene 1 2 7 2.50328 0 7 2.50328 1
gene 2 3 7 0.953119 0 8 0.953119 1
gene 2 4 7 3.0806 0 9 3.0806 1
gene 3 5 7 8 0 10 8 1
gene 1 6 7 -1.95805 0 33 -1.95805 1
genomeend 130

/* Organism #131 Fitness: 24 Error: 0 */
genomestart 131
node 1 3 1 3
node 2 1 1 1
node 3 2 1 1
node 4 1 1 1
node 5 3 1 1
node 6 2 0 2
node 7 2 0 2
gene 1 1 6 3.11566 0 1 3.11566 1
gene 2 2 6 -0.894189 0 2 -0.894189 1
gene 1 3 6 0.355152 0 3 0.355152 1
gene 2 4 6 0.93991 0 4 0.93991 1
gene 1 5 6 -2.48867 0 5 -2.48867 1
gene 1 1 7 -1.26179 0 6 -1.26179 1
gene 1 2 7 1.19167 0 7 1.19167 1
gene 2 3 7 3.55985 0 8 3.55985 1
gene 2 4 7 1.25782 0 9 1.25782 1
gene 3 5 7 6.66415 0 10 6.66415 1
gene 1 6 7 -1.95805 0 33 -1.95805 1
genomeend 131

/* Species #141 : (Size 1) (AF 142) (Age 3)  */


/* Organism #132 Fitness: 142 Error: 0 */
genomestart 132
node 1 3 1 3
node 2 3 1 1
node 3 3 1 1
node 4 1 1 1
node 5 3 1 1
node 6 2 0 2
node 7 1 0 2
node 11 1 0 0
gene 2 1 6 0.446587 0 1 0.446587 1
gene 3 2 6 -5.7686 0 2 -5.7686 1
gene 1 3 6 2.66793 0 3 2.66793 1
gene 3 4 6 0.76267 0 4 0.76267 1
gene 2 5 6 -0.586764 0 5 -0.586764 1
gene 1 1 7 -0.487634 0 6 -0.487634 1
gene 2 2 7 -2.50615 0 7 -2.50615 1
gene 1 3 7 -1.70839 0 8 -1.70839 0
gene 2 4 7 3.39205 0 9 3.39205 1
gene 2 5 7 4.88917 0 10 4.88917 1
gene 2 7 6 3.71325 0 17 3.71325 1
gene 1 3 11 1 0 52 1 1
gene 1 11 7 0.818806 0 53 0.818806 1
genomeend 132

/* Species #142 : (Size 1) (AF 14) (Age 3)  */


/* Organism #133 Fitness: 14 Error: 0 */
genomestart 133
node 1 3 1 3
node 2 2 1 1
node 3 1 1 1
node 4 1 1 1
node 5 2 1 1
node 6 2 0 2
node 7 3 0 2
gene 2 1 6 3.29705 0 1 3.29705 1
gene 3 2 6 -7.79988 0 2 -7.79988 1
gene 1 3 6 -1.83119 0 3 -1.83119 1
gene 3 4 6 0.801648 0 4 0.801648 1
gene 2 5 6 3.33532 0 5 3.33532 1
gene 3 1 7 3.18759 0 6 3.18759 1
gene 3 2 7 -3.6419 0 7 -3.6419 1
gene 1 3 7 -4.45729 0 8 -4.45729 1
gene 2 4 7 -0.302287 0 9 -0.302287 1
gene 2 5 7 -0.539251 0 10 -0.539251 1
genomeend 133

/* Species #147 : (Size 2) (AF 43.5) (Age 3)  */


/* Organism #134 Fitness: 54 Error: 0 */
genomestart 134
node 1 1 1 3
node 2 3 1 1
node 3 2 1 1
node 4 1 1 1
node 5 3 1 1
node 6 1 0 2
node 7 1 0 2
gene 2 1 6 -1.03677 0 1 -1.03677 1
gene 3 2 6 -1.61449 0 2 -1.61449 1
gene 3 3 6 -2.43683 0 3 -2.43683 1
gene 2 4 6 -2.37872 0 4 -2.37872 1
gene 3 5 6 -7.06785 0 5 -7.06785 1
gene 1 1 7 -0.194998 0 6 -0.194998 1
gene 1 2 7 -4.02047 0 7 -4.02047 1
gene 1 3 7 -5.60183 0 8 -5.60183 1
gene 3 4 7 -2.11185 0 9 -2.11185 1
gene 1 5 7 0.266537 0 10 0.266537 1
gene 1 6 7 2.41697 0 45 2.41697 1
genomeend 134

/* Organism #135 Fitness: 33 Error: 0 */
genomestart 135
node 1 1 1 3
node 2 3 1 1
node 3 2 1 1
node 4 1 1 1
node 5 3 1 1
node 6 1 0 2
node 7 1 0 2
gene 2 1 6 -0.700157 0 1 -0.700157 1
gene 3 2 6 -0.983612 0 2 -0.983612 1
gene 3 3 6 -0.296951 0 3 -0.296951 1
gene 2 4 6 -0.679531 0 4 -0.679531 1
gene 3 5 6 -8 0 5 -8 1
gene 1 1 7 -0.373689 0 6 -0.373689 1
gene 1 2 7 -1.13053 0 7 -1.13053 1
gene 1 3 7 -3.15748 0 8 -3.15748 1
gene 3 4 7 -1.4432 0 9 -1.4432 1
gene 1 5 7 1.67137 0 10 1.67137 1
gene 1 6 7 -0.309641 0 45 -0.309641 1
genomeend 135

/* Species #148 : (Size 2) (AF 13) (Age 3)  */


/* Organism #136 Fitness: 6 Error: 0 */
genomestart 136
node 1 2 1 3
node 2 2 1 1
node 3 3 1 1
node 4 2 1 1
node 5 2 1 1
node 6 1 0 2
node 7 1 0 2
gene 3 1 6 -6.38019 0 1 -6.38019 1
gene 1 2 6 1.89184 0 2 1.89184 1
gene 3 3 6 -2.29283 0 3 -2.29283 1
gene 3 4 6 -2.84305 0 4 -2.84305 1
gene 3 5 6 0.0571418 0 5 0.0571418 1
gene 3 1 7 -5.1326 0 6 -5.1326 1
gene 2 2 7 1.60068 0 7 1.60068 1
gene 2 3 7 1.38999 0 8 1.38999 1
gene 2 4 7 -1.1032 0 9 -1.1032 1
gene 2 5 7 3.70787 0 10 3.70787 1
gene 1 7 7 1.16264 1 54 1.16264 1
genomeend 136

/* Organism #137 Fitness: 20 Error: 0 */
genomestart 137
node 1 2 1 3
node 2 2 1 1
node 3 3 1 1
node 4 2 1 1
node 5 2 1 1
node 6 1 0 2
node 7 1 0 2
gene 3 1 6 -5.24482 0 1 -5.24482 1
gene 1 2 6 3.34661 0 2 3.34661 1
gene 3 3 6 -0.731599 0 3 -0.731599 1
gene 3 4 6 -2.55724 0 4 -2.55724 1
gene 3 5 6 0.222659 0 5 0.222659 1
gene 3 1 7 -6.21831 0 6 -6.21831 1
gene 2 2 7 0.767838 0 7 0.767838 1
gene 2 3 7 0.947688 0 8 0.947688 1
gene 2 4 7 1.22317 0 9 1.22317 1
gene 2 5 7 5.09778 0 10 5.09778 1
gene 1 7 7 0.0327705 1 54 0.0327705 1
gene 2 6 6 0.422025 1 58 0.422025 1
genomeend 137

/* Species #149 : (Size 1) (AF 93) (Age 3)  */


/* Organism #138 Fitness: 93 Error: 0 */
genomestart 138
node 1 3 1 3
node 2 1 1 1
node 3 2 1 1
node 4 1 1 1
node 5 3 1 1
node 6 2 0 2
node 7 2 0 2
gene 1 1 6 0.10734 0 1 0.10734 1
gene 2 2 6 1.28558 0 2 1.28558 1
gene 3 3 6 2.6029 0 3 2.6029 1
gene 1 4 6 -2.8008 0 4 -2.8008 1
gene 1 5 6 -1.80119 0 5 -1.80119 1
gene 1 1 7 -1.72571 0 6 -1.72571 1
gene 1 2 7 1.71549 0 7 1.71549 1
gene 2 3 7 -1.8062 0 8 -1.8062 1
gene 2 4 7 4.77286 0 9 4.77286 1
gene 3 5 7 1.53627 0 10 1.53627 1
gene 2 7 6 -0.511787 0 17 -0.511787 1
genomeend 138

/* Species #152 : (Size 2) (AF 10) (Age 3)  */


/* Organism #139 Fitness: 10 Error: 0 */
genomestart 139
node 1 3 1 3
node 2 2 1 1
node 3 1 1 1
node 4 1 1 1
node 5 2 1 1
node 6 2 0 2
node 7 3 0 2
gene 3 1 6 1.91077 0 1 1.91077 1
gene 3 2 6 -1.47377 0 2 -1.47377 1
gene 3 3 6 -2.48222 0 3 -2.48222 1
gene 3 4 6 -1.06263 0 4 -1.06263 1
gene 3 5 6 3.01297 0 5 3.01297 1
gene 3 1 7 -4.71226 0 6 -4.71226 1
gene 2 2 7 1.31662 0 7 1.31662 1
gene 2 3 7 3.77193 0 8 3.77193 1
gene 2 4 7 -2.92563 0 9 -2.92563 1
gene 2 5 7 4.24463 0 10 4.24463 1
gene 3 7 7 -0.245 1 24 -0.245 1
genomeend 139

/* Organism #140 Fitness: 10 Error: 0 */
genomestart 140
node 1 3 1 3
node 2 2 1 1
node 3 1 1 1
node 4 1 1 1
node 5 2 1 1
node 6 2 0 2
node 7 3 0 2
gene 3 1 6 1.55139 0 1 1.55139 1
gene 3 2 6 -2.59608 0 2 -2.59608 1
gene 3 3 6 -0.526901 0 3 -0.526901 1
gene 3 4 6 -1.6177 0 4 -1.6177 1
gene 3 5 6 2.21998 0 5 2.21998 1
gene 3 1 7 -4.25772 0 6 -4.25772 1
gene 2 2 7 2.90039 0 7 2.90039 1
gene 2 3 7 2.02016 0 8 2.02016 1
gene 2 4 7 -1.11898 0 9 -1.11898 1
gene 2 5 7 4.24463 0 10 4.24463 1
gene 3 7 7 -0.830238 1 24 -0.830238 1
genomeend 140

/* Species #153 : (Size 1) (AF 243) (Age 3)  */


/* Organism #141 Fitness: 243 Error: 0 */
genomestart 141
node 1 3 1 3
node 2 1 1 1
node 3 2 1 1
node 4 1 1 1
node 5 3 1 1
node 6 3 0 2
node 7 1 0 2
gene 2 1 6 8 0 1 8 1
gene 2 2 6 6.68201 0 2 6.68201 1
gene 3 3 6 -4.18284 0 3 -4.18284 1
gene 1 4 6 1.64577 0 4 1.64577 1
gene 2 5 6 -0.70583 0 5 -0.70583 1
gene 1 1 7 2.54788 0 6 2.54788 1
gene 1 2 7 1.009 0 7 1.009 1
gene 2 3 7 0.590005 0 8 0.590005 1
gene 1 4 7 1.98583 0 9 1.98583 1
gene 1 5 7 3.86416 0 10 3.86416 1
genomeend 141

/* Species #154 : (Size 3) (AF 17) (Age 3)  */


/* Organism #142 Fitness: 48 Error: 0 */
genomestart 142
node 1 3 1 3
node 2 1 1 1
node 3 2 1 1
node 4 1 1 1
node 5 3 1 1
node 6 3 0 2
node 7 1 0 2
gene 2 1 6 6.58038 0 1 6.58038 1
gene 2 2 6 6.79979 0 2 6.79979 1
gene 3 3 6 -4.18284 0 3 -4.18284 1
gene 1 4 6 -7.18652 0 4 -7.18652 1
gene 2 5 6 0.988067 0 5 0.988067 1
gene 1 1 7 0.321387 0 6 0.321387 1
gene 1 2 7 3.12679 0 7 3.12679 1
gene 2 3 7 -1.36864 0 8 -1.36864 1
gene 1 4 7 1.98583 0 9 1.98583 1
gene 1 5 7 3.26124 0 10 3.26124 1
genomeend 142

/* Organism #143 Fitness: 1 Error: 0 */
genomestart 143
node 1 3 1 3
node 2 1 1 1
node 3 2 1 1
node 4 1 1 1
node 5 3 1 1
node 6 3 0 2
node 7 1 0 2
gene 2 1 6 6.58038 0 1 6.58038 1
gene 2 2 6 6.79979 0 2 6.79979 1
gene 3 3 6 -4.18284 0 3 -4.18284 1
gene 1 4 6 -7.18652 0 4 -7.18652 1
gene 2 5 6 0.988067 0 5 0.988067 1
gene 1 1 7 0.321387 0 6 0.321387 1
gene 1 2 7 3.12679 0 7 3.12679 1
gene 2 3 7 -1.36864 0 8 -1.36864 1
gene 1 4 7 1.98583 0 9 1.98583 1
gene 1 5 7 3.26124 0 10 3.26124 1
genomeend 143

/* Organism #144 Fitness: 2 Error: 0 */
genomestart 144
node 1 3 1 3
node 2 1 1 1
node 3 2 1 1
node 4 1 1 1
node 5 3 1 1
node 6 3 0 2
node 7 1 0 2
gene 2 1 6 6.58038 0 1 6.58038 1
gene 2 2 6 6.79979 0 2 6.79979 1
gene 3 3 6 -4.18284 0 3 -4.18284 1
gene 1 4 6 -6.34459 0 4 -6.34459 1
gene 2 5 6 0.988067 0 5 0.988067 1
gene 1 1 7 0.321387 0 6 0.321387 1
gene 1 2 7 3.12679 0 7 3.12679 1
gene 2 3 7 -1.36864 0 8 -1.36864 1
gene 1 4 7 1.98583 0 9 1.98583 1
gene 1 5 7 2.19406 0 10 2.19406 1
gene 2 6 7 -0.282863 0 55 0 1
genomeend 144

/* Species #157 : (Size 1) (AF 15) (Age 3)  */


/* Organism #145 Fitness: 15 Error: 0 */
genomestart 145
node 1 3 1 3
node 2 1 1 1
node 3 2 1 1
node 4 1 1 1
node 5 1 1 1
node 6 3 0 2
node 7 1 0 2
gene 2 1 6 8 0 1 8 1
gene 2 2 6 0.0192935 0 2 0.0192935 1
gene 3 3 6 -4.06498 0 3 -4.06498 1
gene 1 4 6 -0.419078 0 4 -0.419078 1
gene 2 5 6 -3.34761 0 5 -3.34761 1
gene 1 1 7 2.24462 0 6 2.24462 1
gene 1 2 7 -4.34352 0 7 -4.34352 1
gene 2 3 7 -4.84039 0 8 -4.84039 1
gene 1 4 7 3.12382 0 9 3.12382 1
gene 1 5 7 5.54373 0 10 5.54373 1
gene 3 7 6 -0.884492 0 57 0 1
genomeend 145

/* Species #161 : (Size 1) (AF 10) (Age 3)  */


/* Organism #146 Fitness: 10 Error: 0 */
genomestart 146
node 1 3 1 3
node 2 1 1 1
node 3 2 1 1
node 4 1 1 1
node 5 3 1 1
node 6 2 0 2
node 7 2 0 2
gene 1 1 6 -0.767813 0 1 -0.767813 1
gene 2 2 6 -0.427171 0 2 -0.427171 1
gene 1 3 6 5.05846 0 3 5.05846 1
gene 2 4 6 1.12482 0 4 1.12482 1
gene 1 5 6 -1.95845 0 5 -1.95845 1
gene 1 1 7 -2.36808 0 6 -2.36808 1
gene 1 2 7 -1.56977 0 7 -1.56977 1
gene 2 3 7 3.15214 0 8 3.15214 1
gene 2 4 7 -4.8343 0 9 -4.8343 1
gene 3 5 7 5.89399 0 10 5.89399 1
gene 3 7 6 -0.710198 0 46 -0.710198 1
genomeend 146

/* Species #166 : (Size 4) (AF 25064.3) (Age 3)  */


/* Organism #147 Fitness: 60 Error: 0 */
genomestart 147
node 1 3 1 3
node 2 2 1 1
node 3 1 1 1
node 4 1 1 1
node 5 2 1 1
node 6 2 0 2
node 7 3 0 2
gene 2 1 6 6.70605 0 1 6.70605 1
gene 3 2 6 -1.28676 0 2 -1.28676 1
gene 3 3 6 -4.01267 0 3 -4.01267 1
gene 3 4 6 -4.30966 0 4 -4.30966 1
gene 2 5 6 -8 0 5 -8 1
gene 2 1 7 -0.469689 0 6 -0.469689 1
gene 2 2 7 -2.68656 0 7 -2.68656 1
gene 2 3 7 -4.3736 0 8 -4.3736 1
gene 2 4 7 -1.39652 0 9 -1.39652 1
gene 1 5 7 1.55732 0 10 1.55732 1
gene 1 6 7 -2.27948 0 18 -2.27948 1
genomeend 147

/* Organism #148 Fitness: 8 Error: 0 */
genomestart 148
node 1 3 1 3
node 2 2 1 1
node 3 1 1 1
node 4 1 1 1
node 5 2 1 1
node 6 2 0 2
node 7 3 0 2
gene 2 1 6 8 0 1 8 1
gene 3 2 6 -0.815147 0 2 -0.815147 1
gene 3 3 6 -0.466532 0 3 -0.466532 1
gene 3 4 6 -3.66374 0 4 -3.66374 1
gene 2 5 6 -8 0 5 -8 1
gene 2 1 7 -0.890543 0 6 -0.890543 1
gene 2 2 7 -1.09833 0 7 -1.09833 1
gene 2 3 7 -5.28608 0 8 -5.28608 1
gene 2 4 7 -1.80446 0 9 -1.80446 1
gene 1 5 7 -1.99715 0 10 -1.99715 1
gene 1 6 7 -4.57014 0 18 -4.57014 1
genomeend 148

/* Organism #149 Fitness: 188 Error: 0 */
genomestart 149
node 1 3 1 3
node 2 2 1 1
node 3 1 1 1
node 4 1 1 1
node 5 2 1 1
node 6 2 0 2
node 7 3 0 2
gene 2 1 6 8 0 1 8 1
gene 3 2 6 -4.06917 0 2 -4.06917 1
gene 3 3 6 -3.64364 0 3 -3.64364 1
gene 3 4 6 -6.73885 0 4 -6.73885 1
gene 2 5 6 -7.71345 0 5 -7.71345 1
gene 2 1 7 -2.47299 0 6 -2.47299 1
gene 2 2 7 -2.28672 0 7 -2.28672 1
gene 2 3 7 -0.76568 0 8 -0.76568 1
gene 2 4 7 -3.01505 0 9 -3.01505 1
gene 1 5 7 2.37401 0 10 2.37401 1
gene 1 6 7 -4.27226 0 18 -4.27226 1
genomeend 149

/* Organism #150 Fitness: 100001 Error: 0 */
/* ##------$ WINNER 150 SPECIES #166 $------## */
genomestart 150
node 1 3 1 3
node 2 2 1 1
node 3 1 1 1
node 4 1 1 1
node 5 2 1 1
node 6 2 0 2
node 7 3 0 2
gene 2 1 6 6.51549 0 1 6.51549 1
gene 3 2 6 -4.99729 0 2 -4.99729 1
gene 3 3 6 -4.69092 0 3 -4.69092 1
gene 3 4 6 -3.7671 0 4 -3.7671 1
gene 2 5 6 -6.01218 0 5 -6.01218 1
gene 2 1 7 0.174697 0 6 0.174697 1
gene 2 2 7 -2.01511 0 7 -2.01511 1
gene 2 3 7 -3.70488 0 8 -3.70488 1
gene 2 4 7 -1.5355 0 9 -1.5355 1
gene 1 5 7 0.606696 0 10 0.606696 1
gene 1 6 7 -4.27226 0 18 -4.27226 1
genomeend 150

/* Species #169 : (Size 1) (AF 7) (Age 3)  */


/* Organism #151 Fitness: 7 Error: 0 */
genomestart 151
node 1 2 1 3
node 2 2 1 1
node 3 3 1 1
node 4 2 1 1
node 5 2 1 1
node 6 1 0 2
node 7 1 0 2
gene 2 1 6 2.92364 0 1 2.92364 1
gene 3 2 6 0.725545 0 2 0.725545 1
gene 3 3 6 1.81071 0 3 1.81071 1
gene 3 4 6 1.9142 0 4 1.9142 1
gene 2 5 6 0.23458 0 5 0.23458 1
gene 1 1 7 2.60701 0 6 2.60701 1
gene 2 2 7 -0.493905 0 7 -0.493905 1
gene 2 3 7 -4.7557 0 8 -4.7557 1
gene 2 4 7 4.11993 0 9 4.11993 1
gene 3 5 7 -1.182 0 10 -1.182 1
gene 2 7 6 -3.099 0 17 -3.099 1
genomeend 151

/* Species #172 : (Size 2) (AF 5.5) (Age 3)  */


/* Organism #152 Fitness: 9 Error: 0 */
genomestart 152
node 1 2 1 3
node 2 2 1 1
node 3 3 1 1
node 4 2 1 1
node 5 2 1 1
node 6 1 0 2
node 7 1 0 2
gene 3 1 6 -3.65204 0 1 -3.65204 1
gene 1 2 6 4.43176 0 2 4.43176 1
gene 3 3 6 -4.44696 0 3 -4.44696 1
gene 3 4 6 0.0978635 0 4 0.0978635 1
gene 3 5 6 -2.47463 0 5 -2.47463 1
gene 3 1 7 1.17946 0 6 1.17946 1
gene 2 2 7 -2.02712 0 7 -2.02712 1
gene 2 3 7 1.57714 0 8 1.57714 1
gene 2 4 7 4.2021 0 9 4.2021 1
gene 2 5 7 -3.29611 0 10 -3.29611 1
genomeend 152

/* Organism #153 Fitness: 2 Error: 0 */
genomestart 153
node 1 2 1 3
node 2 2 1 1
node 3 3 1 1
node 4 2 1 1
node 5 2 1 1
node 6 1 0 2
node 7 1 0 2
gene 3 1 6 -3.96569 0 1 -3.96569 1
gene 1 2 6 3.66216 0 2 3.66216 1
gene 3 3 6 -3.92327 0 3 -3.92327 1
gene 3 4 6 0.261314 0 4 0.261314 1
gene 3 5 6 -2.6612 0 5 -2.6612 1
gene 3 1 7 -7.79003 0 6 -7.79003 1
gene 2 2 7 -0.0890935 0 7 -0.0890935 1
gene 2 3 7 1.16497 0 8 1.16497 1
gene 2 4 7 5.92388 0 9 5.92388 1
gene 2 5 7 -1.99214 0 10 -1.99214 1
genomeend 153

/* Species #174 : (Size 2) (AF 16) (Age 3)  */


/* Organism #154 Fitness: 23 Error: 0 */
genomestart 154
node 1 3 1 3
node 2 1 1 1
node 3 2 1 1
node 4 1 1 1
node 5 1 1 1
node 6 3 0 2
node 7 1 0 2
gene 1 1 6 0.787163 0 1 0.787163 1
gene 2 2 6 3.29968 0 2 3.29968 1
gene 1 3 6 6.61055 0 3 6.61055 1
gene 1 4 6 -2.12402 0 4 -2.12402 1
gene 1 5 6 -2.52563 0 5 -2.52563 1
gene 1 1 7 -2.66957 0 6 -2.66957 1
gene 1 2 7 -2.58621 0 7 -2.58621 1
gene 2 3 7 2.94664 0 8 2.94664 1
gene 3 4 7 1.23778 0 9 1.23778 1
gene 1 5 7 2.7002 0 10 2.7002 1
gene 2 7 6 -2.00432 0 17 -2.00432 1
gene 2 6 6 -1.45568 1 26 -1.45568 1
genomeend 154

/* Organism #155 Fitness: 9 Error: 0 */
genomestart 155
node 1 3 1 3
node 2 1 1 1
node 3 2 1 1
node 4 1 1 1
node 5 1 1 1
node 6 3 0 2
node 7 1 0 2
gene 1 1 6 -2.69579 0 1 -2.69579 1
gene 2 2 6 2.65965 0 2 2.65965 1
gene 1 3 6 2.21242 0 3 2.21242 1
gene 1 4 6 0.38267 0 4 0.38267 1
gene 1 5 6 -2.61559 0 5 -2.61559 1
gene 1 1 7 -2.92942 0 6 -2.92942 1
gene 1 2 7 -1.62455 0 7 -1.62455 1
gene 2 3 7 -0.0581628 0 8 -0.0581628 1
gene 3 4 7 -0.950818 0 9 -0.950818 1
gene 1 5 7 3.5776 0 10 3.5776 1
gene 2 7 6 -2.42665 0 17 -2.42665 1
gene 2 6 6 -4.10818 1 26 -4.10818 1
genomeend 155

/* Species #177 : (Size 1) (AF 4) (Age 3)  */


/* Organism #156 Fitness: 4 Error: 0 */
genomestart 156
node 1 3 1 3
node 2 1 1 1
node 3 2 1 1
node 4 1 1 1
node 5 1 1 1
node 6 3 0 2
node 7 1 0 2
gene 2 1 6 5.77773 0 1 5.77773 1
gene 2 2 6 6.3508 0 2 6.3508 1
gene 3 3 6 2.13035 0 3 2.13035 1
gene 1 4 6 -7.28259 0 4 -7.28259 1
gene 2 5 6 2.85508 0 5 2.85508 1
gene 1 1 7 3.61262 0 6 3.61262 1
gene 1 2 7 -6.31625 0 7 -6.31625 1
gene 2 3 7 3.20461 0 8 3.20461 1
gene 1 4 7 -0.13548 0 9 -0.13548 1
gene 1 5 7 3.34547 0 10 3.34547 1
genomeend 156

/* Species #180 : (Size 1) (AF 10) (Age 3)  */


/* Organism #157 Fitness: 10 Error: 0 */
genomestart 157
node 1 3 1 3
node 2 1 1 1
node 3 2 1 1
node 4 1 1 1
node 5 1 1 1
node 6 3 0 2
node 7 1 0 2
gene 2 1 6 1.16451 0 1 1.16451 1
gene 2 2 6 5.03742 0 2 5.03742 1
gene 3 3 6 -6.69964 0 3 -6.69964 1
gene 1 4 6 0.762728 0 4 0.762728 1
gene 2 5 6 0.080117 0 5 0.080117 1
gene 1 1 7 5.06657 0 6 5.06657 1
gene 1 2 7 -0.363754 0 7 -0.363754 1
gene 2 3 7 2.82814 0 8 2.82814 1
gene 1 4 7 2.53037 0 9 2.53037 1
gene 1 5 7 2.24782 0 10 2.24782 1
genomeend 157

/* Species #181 : (Size 4) (AF 118.75) (Age 3)  */


/* Organism #158 Fitness: 146 Error: 0 */
genomestart 158
node 1 3 1 3
node 2 1 1 1
node 3 2 1 1
node 4 1 1 1
node 5 1 1 1
node 6 3 0 2
node 7 1 0 2
gene 2 1 6 2.25156 0 1 2.25156 1
gene 2 2 6 0.637133 0 2 0.637133 1
gene 3 3 6 1.19785 0 3 1.19785 1
gene 1 4 6 -8 0 4 -8 1
gene 2 5 6 -3.06761 0 5 -3.06761 1
gene 1 1 7 0.163741 0 6 0.163741 1
gene 1 2 7 -5.49838 0 7 -5.49838 1
gene 2 3 7 0.0372539 0 8 0.0372539 1
gene 1 4 7 3.3058 0 9 3.3058 1
gene 1 5 7 2.31075 0 10 2.31075 1
genomeend 158

/* Organism #159 Fitness: 126 Error: 0 */
genomestart 159
node 1 3 1 3
node 2 1 1 1
node 3 2 1 1
node 4 1 1 1
node 5 1 1 1
node 6 3 0 2
node 7 1 0 2
gene 2 1 6 -0.039877 0 1 -0.039877 1
gene 2 2 6 -0.123173 0 2 -0.123173 1
gene 3 3 6 2.08919 0 3 2.08919 1
gene 1 4 6 -8 0 4 -8 1
gene 2 5 6 -0.135127 0 5 -0.135127 1
gene 1 1 7 0.163741 0 6 0.163741 1
gene 1 2 7 -3.71401 0 7 -3.71401 1
gene 2 3 7 -0.213627 0 8 -0.213627 1
gene 1 4 7 5.66281 0 9 5.66281 1
gene 1 5 7 2.06306 0 10 2.06306 1
genomeend 159

/* Organism #160 Fitness: 200 Error: 0 */
genomestart 160
node 1 3 1 3
node 2 1 1 1
node 3 2 1 1
node 4 1 1 1
node 5 1 1 1
node 6 3 0 2
node 7 1 0 2
gene 2 1 6 1.76095 0 1 1.76095 1
gene 2 2 6 -0.265713 0 2 -0.265713 1
gene 3 3 6 2.43886 0 3 2.43886 1
gene 1 4 6 -5.81302 0 4 -5.81302 1
gene 2 5 6 -4.23823 0 5 -4.23823 1
gene 1 1 7 -1.17389 0 6 -1.17389 1
gene 1 2 7 -3.68971 0 7 -3.68971 1
gene 2 3 7 1.44538 0 8 1.44538 1
gene 1 4 7 2.01866 0 9 2.01866 1
gene 1 5 7 1.88103 0 10 1.88103 1
genomeend 160

/* Organism #161 Fitness: 3 Error: 0 */
genomestart 161
node 1 3 1 3
node 2 1 1 1
node 3 2 1 1
node 4 1 1 1
node 5 1 1 1
node 6 3 0 2
node 7 1 0 2
gene 2 1 6 2.30788 0 1 2.30788 1
gene 2 2 6 0.718649 0 2 0.718649 1
gene 3 3 6 0.987482 0 3 0.987482 1
gene 1 4 6 -8 0 4 -8 1
gene 2 5 6 -2.49516 0 5 -2.49516 1
gene 1 1 7 -0.461392 0 6 -0.461392 1
gene 1 2 7 -3.49496 0 7 -3.49496 1
gene 2 3 7 -1.14394 0 8 -1.14394 1
gene 1 4 7 5.62214 0 9 5.62214 1
gene 1 5 7 4.69413 0 10 4.69413 1
genomeend 161

/* Species #183 : (Size 2) (AF 21) (Age 3)  */


/* Organism #162 Fitness: 6 Error: 0 */
genomestart 162
node 1 3 1 3
node 2 2 1 1
node 3 1 1 1
node 4 1 1 1
node 5 2 1 1
node 6 2 0 2
node 7 3 0 2
gene 2 1 6 0.718902 0 1 0.718902 1
gene 3 2 6 2.43239 0 2 2.43239 1
gene 3 3 6 -3.88459 0 3 -3.88459 1
gene 3 4 6 -4.17983 0 4 -4.17983 1
gene 2 5 6 3.51093 0 5 3.51093 1
gene 2 1 7 4.37901 0 6 4.37901 1
gene 2 2 7 -4.83557 0 7 -4.83557 1
gene 2 3 7 -8 0 8 -8 1
gene 2 4 7 1.3392 0 9 1.3392 1
gene 1 5 7 3.52044 0 10 3.52044 1
genomeend 162

/* Organism #163 Fitness: 36 Error: 0 */
genomestart 163
node 1 3 1 3
node 2 2 1 1
node 3 1 1 1
node 4 1 1 1
node 5 2 1 1
node 6 2 0 2
node 7 3 0 2
gene 2 1 6 2.68948 0 1 2.68948 1
gene 3 2 6 1.38375 0 2 1.38375 1
gene 3 3 6 -2.01944 0 3 -2.01944 1
gene 3 4 6 -5.19645 0 4 -5.19645 1
gene 2 5 6 1.94562 0 5 1.94562 1
gene 2 1 7 2.19072 0 6 2.19072 1
gene 2 2 7 -2.51153 0 7 -2.51153 1
gene 2 3 7 -7.97185 0 8 -7.97185 1
gene 2 4 7 2.33974 0 9 2.33974 1
gene 1 5 7 3.52044 0 10 3.52044 1
genomeend 163

/* Species #184 : (Size 1) (AF 14) (Age 3)  */


/* Organism #164 Fitness: 14 Error: 0 */
genomestart 164
node 1 3 1 3
node 2 2 1 1
node 3 1 1 1
node 4 1 1 1
node 5 2 1 1
node 6 2 0 2
node 7 3 0 2
gene 2 1 6 -1.39983 0 1 -1.39983 1
gene 3 2 6 2.4513 0 2 2.4513 1
gene 3 3 6 -6.94641 0 3 -6.94641 1
gene 3 4 6 -3.21339 0 4 -3.21339 1
gene 2 5 6 -2.01388 0 5 -2.01388 1
gene 2 1 7 0.585718 0 6 0.585718 1
gene 2 2 7 3.73898 0 7 3.73898 1
gene 2 3 7 0.888408 0 8 0.888408 1
gene 2 4 7 -3.74183 0 9 -3.74183 1
gene 1 5 7 -0.111979 0 10 -0.111979 1
genomeend 164

/* Species #185 : (Size 1) (AF 17) (Age 3)  */


/* Organism #165 Fitness: 17 Error: 0 */
genomestart 165
node 1 3 1 3
node 2 3 1 1
node 3 1 1 1
node 4 1 1 1
node 5 3 1 1
node 6 3 0 2
node 7 2 0 2
gene 1 1 6 1.59562 0 1 1.59562 1
gene 1 2 6 1.21469 0 2 1.21469 1
gene 3 3 6 -0.217484 0 3 -0.217484 1
gene 1 4 6 -6.30401 0 4 -6.30401 1
gene 2 5 6 -2.37025 0 5 -2.37025 1
gene 2 1 7 0.0491282 0 6 0.0491282 1
gene 1 2 7 -3.00341 0 7 -3.00341 1
gene 1 3 7 2.10718 0 8 2.10718 1
gene 3 4 7 3.34006 0 9 3.34006 1
gene 1 5 7 -5.13057 0 10 -5.13057 1
genomeend 165

/* Species #190 : (Size 1) (AF 5) (Age 2)  */


/* Organism #166 Fitness: 5 Error: 0 */
genomestart 166
node 1 3 1 3
node 2 2 1 1
node 3 1 1 1
node 4 3 1 1
node 5 1 1 1
node 6 2 0 2
node 7 3 0 2
node 10 1 0 0
gene 2 1 6 -0.547491 0 1 -0.547491 1
gene 1 2 6 4.6738 0 2 4.6738 1
gene 1 3 6 0.96203 0 3 0.96203 1
gene 1 4 6 0.400331 0 4 0.400331 1
gene 2 5 6 4.74411 0 5 4.74411 1
gene 1 1 7 1.30245 0 6 1.30245 1
gene 1 2 7 5.28295 0 7 5.28295 1
gene 2 3 7 5.31257 0 8 5.31257 1
gene 3 4 7 2.89465 0 9 2.89465 0
gene 3 5 7 2.9405 0 10 2.9405 1
gene 3 4 10 -0.653572 0 38 -0.653572 1
gene 3 10 7 2.00193 0 39 2.00193 1
genomeend 166

/* Species #191 : (Size 1) (AF 9) (Age 2)  */


/* Organism #167 Fitness: 9 Error: 0 */
genomestart 167
node 1 1 1 3
node 2 3 1 1
node 3 2 1 1
node 4 1 1 1
node 5 3 1 1
node 6 1 0 2
node 7 1 0 2
gene 2 1 6 2.18268 0 1 2.18268 1
gene 3 2 6 -4.34698 0 2 -4.34698 1
gene 3 3 6 -3.37918 0 3 -3.37918 1
gene 2 4 6 -0.591249 0 4 -0.591249 1
gene 3 5 6 0.970858 0 5 0.970858 1
gene 1 1 7 -0.251083 0 6 -0.251083 1
gene 3 2 7 3.86644 0 7 3.86644 1
gene 3 3 7 -4.35706 0 8 -4.35706 1
gene 1 4 7 -1.62349 0 9 -1.62349 1
gene 1 5 7 2.74959 0 10 2.74959 1
gene 2 6 7 -0.282863 0 55 0 1
genomeend 167

/* Species #193 : (Size 2) (AF 9.5) (Age 2)  */


/* Organism #168 Fitness: 5 Error: 0 */
genomestart 168
node 1 1 1 3
node 2 1 1 1
node 3 3 1 1
node 4 2 1 1
node 5 3 1 1
node 6 3 0 2
node 7 2 0 2
gene 2 1 6 0.736031 0 1 0.736031 1
gene 3 2 6 -6.6941 0 2 -6.6941 1
gene 3 3 6 2.97767 0 3 2.97767 1
gene 3 4 6 4.18527 0 4 4.18527 1
gene 3 5 6 -2.94748 0 5 -2.94748 1
gene 1 1 7 -2.03914 0 6 -2.03914 1
gene 2 2 7 4.38659 0 7 4.38659 1
gene 2 3 7 3.55831 0 8 3.55831 1
gene 2 4 7 5.0067 0 9 5.0067 1
gene 3 5 7 2.64244 0 10 2.64244 1
genomeend 168

/* Organism #169 Fitness: 14 Error: 0 */
genomestart 169
node 1 1 1 3
node 2 1 1 1
node 3 3 1 1
node 4 2 1 1
node 5 3 1 1
node 6 3 0 2
node 7 2 0 2
gene 2 1 6 1.60213 0 1 1.60213 1
gene 3 2 6 -5.39197 0 2 -5.39197 1
gene 3 3 6 0.252818 0 3 0.252818 1
gene 3 4 6 -1.62765 0 4 -1.62765 1
gene 3 5 6 -1.37233 0 5 -1.37233 1
gene 1 1 7 -1.05053 0 6 -1.05053 1
gene 2 2 7 0.459599 0 7 0.459599 1
gene 2 3 7 1.08151 0 8 1.08151 1
gene 2 4 7 4.95581 0 9 4.95581 1
gene 3 5 7 2.11376 0 10 2.11376 1
genomeend 169

/* Species #194 : (Size 1) (AF 11) (Age 2)  */


/* Organism #170 Fitness: 11 Error: 0 */
genomestart 170
node 1 1 1 3
node 2 3 1 1
node 3 2 1 1
node 4 1 1 1
node 5 3 1 1
node 6 1 0 2
node 7 1 0 2
gene 2 1 6 -4.49199 0 1 -4.49199 1
gene 2 2 6 0.734102 0 2 0.734102 1
gene 3 3 6 0.209056 0 3 0.209056 1
gene 1 4 6 -2.23026 0 4 -2.23026 1
gene 3 5 6 0.549644 0 5 0.549644 1
gene 1 1 7 1.31871 0 6 1.31871 1
gene 3 2 7 -1.60175 0 7 -1.60175 1
gene 3 3 7 2.20046 0 8 2.20046 1
gene 1 4 7 -2.84736 0 9 -2.84736 1
gene 1 5 7 -1.68635 0 10 -1.68635 1
gene 1 7 6 2.36585 0 32 2.36585 1
genomeend 170

/* Species #195 : (Size 1) (AF 1) (Age 2)  */


/* Organism #171 Fitness: 1 Error: 0 */
genomestart 171
node 1 1 1 3
node 2 2 1 1
node 3 2 1 1
node 4 1 1 1
node 5 3 1 1
node 6 1 0 2
node 7 1 0 2
gene 2 1 6 -6.82022 0 1 -6.82022 1
gene 3 2 6 -1.85034 0 2 -1.85034 1
gene 3 3 6 -0.510365 0 3 -0.510365 1
gene 2 4 6 1.87648 0 4 1.87648 1
gene 1 5 6 -0.599976 0 5 -0.599976 1
gene 1 1 7 5.80072 0 6 5.80072 1
gene 1 2 7 -6.05541 0 7 -6.05541 1
gene 1 3 7 -6.21569 0 8 -6.21569 1
gene 3 4 7 3.84071 0 9 3.84071 1
gene 1 5 7 4.86371 0 10 4.86371 1
genomeend 171

/* Species #196 : (Size 1) (AF 17) (Age 2)  */


/* Organism #172 Fitness: 17 Error: 0 */
genomestart 172
node 1 3 1 3
node 2 3 1 1
node 3 1 1 1
node 4 1 1 1
node 5 2 1 1
node 6 3 0 2
node 7 2 0 2
gene 1 1 6 3.53136 0 1 3.53136 1
gene 1 2 6 -3.16588 0 2 -3.16588 1
gene 3 3 6 1.29489 0 3 1.29489 1
gene 1 4 6 -0.0810433 0 4 -0.0810433 1
gene 2 5 6 -3.45944 0 5 -3.45944 1
gene 2 1 7 0.152402 0 6 0.152402 1
gene 1 2 7 -3.57169 0 7 -3.57169 1
gene 1 3 7 -1.63547 0 8 -1.63547 1
gene 3 4 7 -2.37317 0 9 -2.37317 1
gene 1 5 7 -1.89614 0 10 -1.89614 1
gene 2 7 6 2.017 0 36 2.017 1
genomeend 172

/* Species #197 : (Size 1) (AF 11) (Age 2)  */


/* Organism #173 Fitness: 11 Error: 0 */
genomestart 173
node 1 1 1 3
node 2 2 1 1
node 3 1 1 1
node 4 1 1 1
node 5 2 1 1
node 6 2 0 2
node 7 3 0 2
gene 2 1 6 5.35917 0 1 5.35917 1
gene 3 2 6 -1.49533 0 2 -1.49533 1
gene 3 3 6 -0.496115 0 3 -0.496115 1
gene 3 4 6 -4.39564 0 4 -4.39564 1
gene 2 5 6 -4.28468 0 5 -4.28468 1
gene 2 1 7 5.25162 0 6 5.25162 1
gene 2 2 7 -7.52471 0 7 -7.52471 1
gene 2 3 7 2.0062 0 8 2.0062 1
gene 2 4 7 -1.86332 0 9 -1.86332 1
gene 1 5 7 -5.51545 0 10 -5.51545 1
genomeend 173

/* Species #198 : (Size 1) (AF 9) (Age 2)  */


/* Organism #174 Fitness: 9 Error: 0 */
genomestart 174
node 1 2 1 3
node 2 3 1 1
node 3 2 1 1
node 4 1 1 1
node 5 1 1 1
node 6 2 0 2
node 7 2 0 2
gene 2 1 6 2.06638 0 1 2.06638 1
gene 2 2 6 2.09644 0 2 2.09644 1
gene 1 3 6 -0.866069 0 3 -0.866069 1
gene 2 4 6 0.332016 0 4 0.332016 1
gene 2 5 6 -3.57803 0 5 -3.57803 1
gene 1 1 7 -3.32291 0 6 -3.32291 1
gene 1 2 7 -0.935862 0 7 -0.935862 1
gene 3 3 7 -3.02461 0 8 -3.02461 1
gene 1 4 7 1.64307 0 9 1.64307 1
gene 1 5 7 -2.79316 0 10 -2.79316 1
genomeend 174

/* Species #199 : (Size 2) (AF 9) (Age 2)  */


/* Organism #175 Fitness: 8 Error: 0 */
genomestart 175
node 1 2 1 3
node 2 2 1 1
node 3 3 1 1
node 4 2 1 1
node 5 2 1 1
node 6 1 0 2
node 7 1 0 2
gene 2 1 6 3.72945 0 1 3.72945 1
gene 1 2 6 -2.26094 0 2 -2.26094 1
gene 3 3 6 0.882808 0 3 0.882808 1
gene 2 4 6 -0.667607 0 4 -0.667607 1
gene 2 5 6 2.06583 0 5 2.06583 1
gene 2 1 7 -0.790679 0 6 -0.790679 1
gene 2 2 7 -1.96323 0 7 -1.96323 1
gene 2 3 7 2.30375 0 8 2.30375 1
gene 3 4 7 -2.85297 0 9 -2.85297 1
gene 3 5 7 -0.106034 0 10 -0.106034 1
gene 2 7 6 -4.63494 0 17 -4.63494 1
genomeend 175

/* Organism #176 Fitness: 10 Error: 0 */
genomestart 176
node 1 2 1 3
node 2 2 1 1
node 3 3 1 1
node 4 2 1 1
node 5 2 1 1
node 6 1 0 2
node 7 1 0 2
gene 2 1 6 3.58412 0 1 3.58412 1
gene 1 2 6 -2.30502 0 2 -2.30502 1
gene 3 3 6 0.34078 0 3 0.34078 1
gene 3 4 6 -2.26486 0 4 -2.26486 1
gene 2 5 6 1.89972 0 5 1.89972 1
gene 2 1 7 0.651604 0 6 0.651604 1
gene 2 2 7 -2.1883 0 7 -2.1883 1
gene 2 3 7 1.06352 0 8 1.06352 1
gene 3 4 7 -2.74448 0 9 -2.74448 1
gene 3 5 7 4.45362 0 10 4.45362 1
gene 2 7 6 -2.43047 0 17 -2.43047 1
genomeend 176

/* Species #200 : (Size 1) (AF 11) (Age 2)  */


/* Organism #177 Fitness: 11 Error: 0 */
genomestart 177
node 1 3 1 3
node 2 2 1 1
node 3 1 1 1
node 4 1 1 1
node 5 2 1 1
node 6 3 0 2
node 7 3 0 2
gene 3 1 6 -0.264891 0 1 -0.264891 1
gene 3 2 6 1.90357 0 2 1.90357 1
gene 3 3 6 -0.676902 0 3 -0.676902 1
gene 3 4 6 1.5084 0 4 1.5084 1
gene 3 5 6 3.63169 0 5 3.63169 1
gene 3 1 7 -3.16567 0 6 -3.16567 1
gene 2 2 7 2.66157 0 7 2.66157 1
gene 2 3 7 1.15477 0 8 1.15477 1
gene 2 4 7 -1.88583 0 9 -1.88583 1
gene 2 5 7 -0.837404 0 10 -0.837404 1
gene 3 7 7 -1.90579 1 24 -1.90579 1
gene 3 6 7 2.44922 0 35 2.44922 1
genomeend 177

/* Species #201 : (Size 6) (AF 16.6667) (Age 2)  */


/* Organism #178 Fitness: 23 Error: 0 */
genomestart 178
node 1 3 1 3
node 2 1 1 1
node 3 2 1 1
node 4 1 1 1
node 5 1 1 1
node 6 3 0 2
node 7 1 0 2
gene 2 1 6 0.787708 0 1 0.787708 1
gene 2 2 6 8 0 2 8 1
gene 3 3 6 -0.143807 0 3 -0.143807 1
gene 1 4 6 -3.77741 0 4 -3.77741 1
gene 2 5 6 -0.126075 0 5 -0.126075 1
gene 1 1 7 3.01901 0 6 3.01901 1
gene 1 2 7 -2.61073 0 7 -2.61073 1
gene 2 3 7 -3.34045 0 8 -3.34045 1
gene 1 4 7 -1.83248 0 9 -1.83248 1
gene 1 5 7 4.69343 0 10 4.69343 1
genomeend 178

/* Organism #179 Fitness: 14 Error: 0 */
genomestart 179
node 1 3 1 3
node 2 1 1 1
node 3 2 1 1
node 4 1 1 1
node 5 1 1 1
node 6 3 0 2
node 7 1 0 2
gene 2 1 6 -0.721304 0 1 -0.721304 1
gene 2 2 6 5.44545 0 2 5.44545 1
gene 3 3 6 0.980733 0 3 0.980733 1
gene 3 4 6 -5.52686 0 4 -5.52686 1
gene 2 5 6 -0.608738 0 5 -0.608738 1
gene 1 1 7 2.77986 0 6 2.77986 1
gene 3 2 7 -1.59411 0 7 -1.59411 1
gene 1 3 7 -1.37482 0 8 -1.37482 1
gene 3 4 7 -2.01994 0 9 -2.01994 1
gene 1 5 7 2.25188 0 10 2.25188 1
genomeend 179

/* Organism #180 Fitness: 24 Error: 0 */
genomestart 180
node 1 3 1 3
node 2 1 1 1
node 3 2 1 1
node 4 1 1 1
node 5 1 1 1
node 6 3 0 2
node 7 1 0 2
gene 2 1 6 0.955386 0 1 0.955386 1
gene 2 2 6 3.72981 0 2 3.72981 1
gene 3 3 6 -0.272804 0 3 -0.272804 1
gene 1 4 6 -3.12948 0 4 -3.12948 1
gene 2 5 6 -2.00522 0 5 -2.00522 1
gene 1 1 7 2.31002 0 6 2.31002 1
gene 1 2 7 -1.68991 0 7 -1.68991 1
gene 1 3 7 -3.57042 0 8 -3.57042 1
gene 3 4 7 -1.64662 0 9 -1.64662 1
gene 1 5 7 1.79843 0 10 1.79843 1
genomeend 180

/* Organism #181 Fitness: 16 Error: 0 */
genomestart 181
node 1 3 1 3
node 2 1 1 1
node 3 2 1 1
node 4 1 1 1
node 5 1 1 1
node 6 3 0 2
node 7 1 0 2
gene 2 1 6 -0.721304 0 1 -0.721304 1
gene 2 2 6 8 0 2 8 1
gene 3 3 6 0.980733 0 3 0.980733 1
