
/* Species #1 : (Size 209) (AF 493.809) (Age 2)  */


/* Organism #0 Fitness: 50 Error: 0 */
genomestart 0
node 1 3 1 3
node 2 2 1 1
node 3 3 1 1
node 4 1 1 1
node 5 1 1 1
node 6 1 0 2
node 7 1 0 2
gene 2 1 6 0.562734 0 1 0.562734 1
gene 1 2 6 -0.431494 0 2 -0.431494 1
gene 3 3 6 0.728665 0 3 0.728665 1
gene 2 4 6 -0.51879 0 4 -0.51879 1
gene 1 5 6 -0.330313 0 5 -0.330313 1
gene 1 1 7 -0.0840409 0 6 -0.0840409 1
gene 3 2 7 -0.786887 0 7 -0.786887 1
gene 2 3 7 -0.351464 0 8 -0.351464 1
gene 1 4 7 0.548675 0 9 0.548675 1
gene 1 5 7 0.846278 0 10 0.846278 1
genomeend 0

/* Organism #1 Fitness: 3 Error: 0 */
genomestart 1
node 1 3 1 3
node 2 3 1 1
node 3 3 1 1
node 4 2 1 1
node 5 3 1 1
node 6 3 0 2
node 7 1 0 2
gene 3 1 6 -0.537844 0 1 -0.537844 1
gene 3 2 6 0.307604 0 2 0.307604 1
gene 1 3 6 -0.670227 0 3 -0.670227 1
gene 1 4 6 -0.202664 0 4 -0.202664 1
gene 1 5 6 -0.278092 0 5 -0.278092 1
gene 2 1 7 -0.782571 0 6 -0.782571 1
gene 2 2 7 0.779507 0 7 0.779507 1
gene 1 3 7 0.0764303 0 8 0.0764303 1
gene 1 4 7 0.141122 0 9 0.141122 1
gene 1 5 7 -0.635038 0 10 -0.635038 1
genomeend 1

/* Organism #2 Fitness: 11 Error: 0 */
genomestart 2
node 1 3 1 3
node 2 3 1 1
node 3 3 1 1
node 4 2 1 1
node 5 3 1 1
node 6 2 0 2
node 7 1 0 2
gene 3 1 6 -0.641822 0 1 -0.641822 1
gene 2 2 6 -0.571933 0 2 -0.571933 1
gene 1 3 6 0.134864 0 3 0.134864 1
gene 3 4 6 0.419712 0 4 0.419712 1
gene 2 5 6 0.0313776 0 5 0.0313776 1
gene 1 1 7 -0.651581 0 6 -0.651581 1
gene 3 2 7 -0.570042 0 7 -0.570042 1
gene 1 3 7 0.414845 0 8 0.414845 1
gene 3 4 7 0.911619 0 9 0.911619 1
gene 1 5 7 0.905006 0 10 0.905006 1
genomeend 2

/* Organism #3 Fitness: 13 Error: 0 */
genomestart 3
node 1 3 1 3
node 2 2 1 1
node 3 3 1 1
node 4 3 1 1
node 5 1 1 1
node 6 1 0 2
node 7 3 0 2
gene 1 1 6 -0.95181 0 1 -0.95181 1
gene 1 2 6 -0.892582 0 2 -0.892582 1
gene 1 3 6 -1.14795 0 3 -1.14795 1
gene 2 4 6 0.818853 0 4 0.818853 1
gene 2 5 6 -1.71923 0 5 -1.71923 1
gene 3 1 7 -2.73705 0 6 -2.73705 1
gene 3 2 7 -1.11221 0 7 -1.11221 1
gene 1 3 7 -1.51273 0 8 -1.51273 1
gene 3 4 7 0.377368 0 9 0.377368 1
gene 3 5 7 -1.62241 0 10 -1.62241 1
genomeend 3

/* Organism #4 Fitness: 10 Error: 0 */
genomestart 4
node 1 3 1 3
node 2 1 1 1
node 3 2 1 1
node 4 1 1 1
node 5 2 1 1
node 6 3 0 2
node 7 3 0 2
gene 3 1 6 3.07021 0 1 3.07021 1
gene 3 2 6 -1.89932 0 2 -1.89932 1
gene 1 3 6 0.277855 0 3 0.277855 1
gene 1 4 6 -0.117818 0 4 -0.117818 1
gene 2 5 6 -1.12249 0 5 -1.12249 1
gene 1 1 7 0.534468 0 6 0.534468 1
gene 2 2 7 -2.05081 0 7 -2.05081 1
gene 1 3 7 0.380904 0 8 0.380904 1
gene 1 4 7 -0.725153 0 9 -0.725153 1
gene 3 5 7 0.956683 0 10 0.956683 1
genomeend 4

/* Organism #5 Fitness: 15 Error: 0 */
genomestart 5
node 1 2 1 3
node 2 1 1 1
node 3 2 1 1
node 4 2 1 1
node 5 2 1 1
node 6 2 0 2
node 7 2 0 2
gene 1 1 6 -0.690803 0 1 -0.690803 1
gene 1 2 6 0.788652 0 2 0.788652 1
gene 1 3 6 0.128468 0 3 0.128468 1
gene 1 4 6 -0.481728 0 4 -0.481728 1
gene 2 5 6 0.491242 0 5 0.491242 1
gene 2 1 7 -0.811062 0 6 -0.811062 1
gene 1 2 7 -0.787665 0 7 -0.787665 1
gene 2 3 7 0.224564 0 8 0.224564 1
gene 2 4 7 0.377916 0 9 0.377916 1
gene 3 5 7 0.990724 0 10 0.990724 1
genomeend 5

/* Organism #6 Fitness: 7 Error: 0 */
genomestart 6
node 1 3 1 3
node 2 2 1 1
node 3 3 1 1
node 4 3 1 1
node 5 1 1 1
node 6 2 0 2
node 7 2 0 2
gene 2 1 6 -0.373747 0 1 -0.373747 1
gene 3 2 6 0.567991 0 2 0.567991 1
gene 2 3 6 0.0398436 0 3 0.0398436 1
gene 1 4 6 0.719891 0 4 0.719891 1
gene 2 5 6 -0.47336 0 5 -0.47336 1
gene 2 1 7 -0.307712 0 6 -0.307712 1
gene 3 2 7 -0.705436 0 7 -0.705436 1
gene 3 3 7 0.0607828 0 8 0.0607828 1
gene 3 4 7 0.256335 0 9 0.256335 1
gene 1 5 7 0.650602 0 10 0.650602 1
gene 3 7 6 0.370768 0 11 0.370768 1
genomeend 6

/* Organism #7 Fitness: 15 Error: 0 */
genomestart 7
node 1 3 1 3
node 2 2 1 1
node 3 3 1 1
node 4 3 1 1
node 5 1 1 1
node 6 1 0 2
node 7 3 0 2
gene 3 1 6 -0.340991 0 1 -0.340991 1
gene 3 2 6 -1.77494 0 2 -1.77494 1
gene 1 3 6 1.89116 0 3 1.89116 1
gene 1 4 6 -0.898263 0 4 -0.898263 1
gene 2 5 6 -0.373443 0 5 -0.373443 1
gene 1 1 7 0.314591 0 6 0.314591 1
gene 2 2 7 0.591822 0 7 0.591822 1
gene 1 3 7 1.32041 0 8 1.32041 1
gene 3 4 7 1.35902 0 9 1.35902 1
gene 1 5 7 1.5958 0 10 1.5958 1
genomeend 7

/* Organism #8 Fitness: 16 Error: 0 */
genomestart 8
node 1 2 1 3
node 2 2 1 1
node 3 2 1 1
node 4 3 1 1
node 5 2 1 1
node 6 3 0 2
node 7 2 0 2
gene 1 1 6 1.239 0 1 1.239 1
gene 2 2 6 -1.49551 0 2 -1.49551 1
gene 2 3 6 -0.373193 0 3 -0.373193 1
gene 1 4 6 0.333126 0 4 0.333126 1
gene 1 5 6 -1.37932 0 5 -1.37932 1
gene 2 1 7 2.55586 0 6 2.55586 1
gene 2 2 7 0.563854 0 7 0.563854 1
gene 1 3 7 0.402725 0 8 0.402725 1
gene 2 4 7 1.29683 0 9 1.29683 1
gene 3 5 7 -2.57025 0 10 -2.57025 1
genomeend 8

/* Organism #9 Fitness: 10 Error: 0 */
genomestart 9
node 1 1 1 3
node 2 3 1 1
node 3 2 1 1
node 4 3 1 1
node 5 3 1 1
node 6 2 0 2
node 7 3 0 2
gene 2 1 6 -0.364719 0 1 -0.364719 1
gene 1 2 6 0.656054 0 2 0.656054 1
gene 3 3 6 0.178433 0 3 0.178433 1
gene 2 4 6 -0.753629 0 4 -0.753629 1
gene 1 5 6 0.777613 0 5 0.777613 1
gene 1 1 7 -0.556144 0 6 -0.556144 1
gene 2 2 7 -0.109309 0 7 -0.109309 1
gene 2 3 7 0.114137 0 8 0.114137 1
gene 2 4 7 -0.626059 0 9 -0.626059 1
gene 1 5 7 -0.154056 0 10 -0.154056 1
genomeend 9

/* Organism #10 Fitness: 8 Error: 0 */
genomestart 10
node 1 2 1 3
node 2 3 1 1
node 3 1 1 1
node 4 2 1 1
node 5 3 1 1
node 6 1 0 2
node 7 2 0 2
gene 3 1 6 0.313482 0 1 0.313482 1
gene 1 2 6 1.907 0 2 1.907 1
gene 2 3 6 -0.830852 0 3 -0.830852 1
gene 2 4 6 1.513 0 4 1.513 1
gene 2 5 6 0.355119 0 5 0.355119 1
gene 2 1 7 2.06517 0 6 2.06517 1
gene 1 2 7 -0.719501 0 7 -0.719501 1
gene 2 3 7 1.67243 0 8 1.67243 1
gene 2 4 7 -0.34594 0 9 -0.34594 1
gene 3 5 7 0.0948316 0 10 0.0948316 1
genomeend 10

/* Organism #11 Fitness: 30 Error: 0 */
genomestart 11
node 1 3 1 3
node 2 1 1 1
node 3 3 1 1
node 4 2 1 1
node 5 3 1 1
node 6 3 0 2
node 7 3 0 2
gene 3 1 6 -1.59159 0 1 -1.59159 1
gene 2 2 6 2.48204 0 2 2.48204 1
gene 1 3 6 1.01066 0 3 1.01066 1
gene 2 4 6 -1.95623 0 4 -1.95623 1
gene 1 5 6 -2.63753 0 5 -2.63753 1
gene 1 1 7 -0.726009 0 6 -0.726009 1
gene 3 2 7 0.348932 0 7 0.348932 1
gene 1 3 7 -1.94461 0 8 -1.94461 1
gene 3 4 7 0.745038 0 9 0.745038 1
gene 3 5 7 -0.734852 0 10 -0.734852 1
genomeend 11

/* Organism #12 Fitness: 15 Error: 0 */
genomestart 12
node 1 3 1 3
node 2 2 1 1
node 3 1 1 1
node 4 1 1 1
node 5 2 1 1
node 6 1 0 2
node 7 1 0 2
gene 2 1 6 0.791058 0 1 0.791058 1
gene 2 2 6 -0.610641 0 2 -0.610641 1
gene 3 3 6 0.63184 0 3 0.63184 1
gene 1 4 6 -0.241955 0 4 -0.241955 1
gene 2 5 6 -1.19694 0 5 -1.19694 1
gene 3 1 7 2.25768 0 6 2.25768 1
gene 2 2 7 2.70223 0 7 2.70223 1
gene 2 3 7 0.742028 0 8 0.742028 1
gene 1 4 7 -1.1461 0 9 -1.1461 1
gene 1 5 7 1.53331 0 10 1.53331 1
genomeend 12

/* Organism #13 Fitness: 35 Error: 0 */
genomestart 13
node 1 1 1 3
node 2 3 1 1
node 3 1 1 1
node 4 1 1 1
node 5 3 1 1
node 6 2 0 2
node 7 1 0 2
gene 3 1 6 2.42572 0 1 2.42572 1
gene 3 2 6 0.0926701 0 2 0.0926701 1
gene 2 3 6 -1.07414 0 3 -1.07414 1
gene 1 4 6 -1.41751 0 4 -1.41751 1
gene 3 5 6 -1.20425 0 5 -1.20425 1
gene 1 1 7 2.10797 0 6 2.10797 1
gene 2 2 7 -1.44428 0 7 -1.44428 1
gene 3 3 7 0.129943 0 8 0.129943 1
gene 2 4 7 1.7361 0 9 1.7361 1
gene 3 5 7 0.0862919 0 10 0.0862919 1
genomeend 13

/* Organism #14 Fitness: 1 Error: 0 */
genomestart 14
node 1 2 1 3
node 2 2 1 1
node 3 2 1 1
node 4 3 1 1
node 5 3 1 1
node 6 3 0 2
node 7 3 0 2
gene 1 1 6 0.876162 0 1 0.876162 1
gene 3 2 6 0.580249 0 2 0.580249 1
gene 2 3 6 0.216017 0 3 0.216017 1
gene 1 4 6 -0.665621 0 4 -0.665621 1
gene 3 5 6 -0.32689 0 5 -0.32689 1
gene 1 1 7 -0.386843 0 6 -0.386843 1
gene 1 2 7 0.620032 0 7 0.620032 1
gene 2 3 7 0.767162 0 8 0.767162 1
gene 3 4 7 -0.818175 0 9 -0.818175 1
gene 2 5 7 0.897849 0 10 0.897849 1
gene 3 7 6 0.370768 0 11 0 1
genomeend 14

/* Organism #15 Fitness: 55 Error: 0 */
genomestart 15
node 1 2 1 3
node 2 3 1 1
node 3 3 1 1
node 4 3 1 1
node 5 3 1 1
node 6 3 0 2
node 7 3 0 2
gene 3 1 6 -0.0887625 0 1 -0.0887625 1
gene 2 2 6 -0.571933 0 2 -0.571933 1
gene 1 3 6 -0.286735 0 3 -0.286735 1
gene 2 4 6 -0.530646 0 4 -0.530646 1
gene 2 5 6 -0.423707 0 5 -0.423707 1
gene 1 1 7 -0.651581 0 6 -0.651581 1
gene 2 2 7 -0.0119204 0 7 -0.0119204 1
gene 3 3 7 -0.889344 0 8 -0.889344 1
gene 1 4 7 0.818308 0 9 0.818308 1
gene 1 5 7 0.905006 0 10 0.905006 1
genomeend 15

/* Organism #16 Fitness: 2 Error: 0 */
genomestart 16
node 1 2 1 3
node 2 3 1 1
node 3 3 1 1
node 4 3 1 1
node 5 3 1 1
node 6 3 0 2
node 7 3 0 2
gene 3 1 6 -0.476919 0 1 -0.476919 1
gene 2 2 6 -0.0318208 0 2 -0.0318208 1
gene 1 3 6 -0.286735 0 3 -0.286735 1
gene 1 4 6 0.839795 0 4 0.839795 1
gene 1 5 6 -0.410853 0 5 -0.410853 1
gene 1 1 7 -0.651581 0 6 -0.651581 1
gene 2 2 7 0.413466 0 7 0.413466 1
gene 3 3 7 0.997727 0 8 0.997727 1
gene 3 4 7 -0.533738 0 9 -0.533738 1
gene 3 5 7 -0.800324 0 10 -0.800324 1
gene 1 7 7 0.872546 1 12 0.872546 1
genomeend 16

/* Organism #17 Fitness: 4 Error: 0 */
genomestart 17
node 1 2 1 3
node 2 2 1 1
node 3 1 1 1
node 4 2 1 1
node 5 3 1 1
node 6 3 0 2
node 7 1 0 2
gene 2 1 6 -0.806741 0 1 -0.806741 1
gene 3 2 6 -0.203043 0 2 -0.203043 1
gene 2 3 6 0.282371 0 3 0.282371 1
gene 2 4 6 -2.89641 0 4 -2.89641 1
gene 3 5 6 2.0291 0 5 2.0291 1
gene 1 1 7 -0.279092 0 6 -0.279092 1
gene 2 2 7 -0.99372 0 7 -0.99372 1
gene 2 3 7 -0.938797 0 8 -0.938797 1
gene 1 4 7 1.76959 0 9 1.76959 1
gene 3 5 7 -1.55938 0 10 -1.55938 1
genomeend 17

/* Organism #18 Fitness: 8 Error: 0 */
genomestart 18
node 1 2 1 3
node 2 2 1 1
node 3 2 1 1
node 4 3 1 1
node 5 2 1 1
node 6 3 0 2
node 7 2 0 2
gene 2 1 6 -0.841629 0 1 -0.841629 1
gene 3 2 6 0.0840462 0 2 0.0840462 1
gene 3 3 6 -0.578685 0 3 -0.578685 1
gene 1 4 6 -0.847732 0 4 -0.847732 1
gene 1 5 6 -0.0889892 0 5 -0.0889892 1
gene 2 1 7 -0.889056 0 6 -0.889056 1
gene 2 2 7 0.962757 0 7 0.962757 1
gene 1 3 7 0.712613 0 8 0.712613 1
gene 1 4 7 0.53125 0 9 0.53125 1
gene 2 5 7 -0.817896 0 10 -0.817896 1
gene 3 7 7 0.761928 1 13 0.761928 1
genomeend 18

/* Organism #19 Fitness: 7 Error: 0 */
genomestart 19
node 1 3 1 3
node 2 2 1 1
node 3 2 1 1
node 4 2 1 1
node 5 3 1 1
node 6 2 0 2
node 7 3 0 2
gene 2 1 6 0.517155 0 1 0.517155 1
gene 1 2 6 -0.552802 0 2 -0.552802 1
gene 2 3 6 0.389396 0 3 0.389396 1
gene 1 4 6 0.519302 0 4 0.519302 1
gene 2 5 6 -0.445512 0 5 -0.445512 1
gene 3 1 7 -0.831696 0 6 -0.831696 1
gene 2 2 7 0.53158 0 7 0.53158 1
gene 3 3 7 0.174585 0 8 0.174585 1
gene 2 4 7 0.10028 0 9 0.10028 1
gene 2 5 7 0.721628 0 10 0.721628 1
genomeend 19

/* Organism #20 Fitness: 6 Error: 0 */
genomestart 20
node 1 3 1 3
node 2 1 1 1
node 3 3 1 1
node 4 1 1 1
node 5 1 1 1
node 6 1 0 2
node 7 3 0 2
gene 3 1 6 2.5467 0 1 2.5467 1
gene 3 2 6 -0.372369 0 2 -0.372369 1
gene 3 3 6 -1.54255 0 3 -1.54255 1
gene 2 4 6 1.15221 0 4 1.15221 1
gene 3 5 6 0.0774129 0 5 0.0774129 1
gene 1 1 7 0.210297 0 6 0.210297 1
gene 2 2 7 1.63251 0 7 1.63251 1
gene 3 3 7 1.31415 0 8 1.31415 1
gene 2 4 7 -2.11597 0 9 -2.11597 1
gene 2 5 7 0.429333 0 10 0.429333 1
genomeend 20

/* Organism #21 Fitness: 5 Error: 0 */
genomestart 21
node 1 3 1 3
node 2 2 1 1
node 3 3 1 1
node 4 2 1 1
node 5 3 1 1
node 6 1 0 2
node 7 3 0 2
gene 1 1 6 1.09489 0 1 1.09489 1
gene 3 2 6 -0.70788 0 2 -0.70788 1
gene 3 3 6 0.381423 0 3 0.381423 1
gene 1 4 6 0.634157 0 4 0.634157 1
gene 2 5 6 -1.09096 0 5 -1.09096 1
gene 1 1 7 1.69319 0 6 1.69319 1
gene 1 2 7 0.214613 0 7 0.214613 1
gene 1 3 7 0.633758 0 8 0.633758 1
gene 1 4 7 0.496918 0 9 0.496918 1
gene 2 5 7 -0.502533 0 10 -0.502533 1
genomeend 21

/* Organism #22 Fitness: 17 Error: 0 */
genomestart 22
node 1 1 1 3
node 2 3 1 1
node 3 1 1 1
node 4 3 1 1
node 5 1 1 1
node 6 3 0 2
node 7 3 0 2
gene 1 1 6 0.359918 0 1 0.359918 1
gene 1 2 6 0.0805917 0 2 0.0805917 1
gene 3 3 6 0.150781 0 3 0.150781 1
gene 1 4 6 0.597897 0 4 0.597897 1
gene 3 5 6 -0.386899 0 5 -0.386899 1
gene 3 1 7 0.265871 0 6 0.265871 1
gene 2 2 7 -0.734695 0 7 -0.734695 1
gene 2 3 7 0.0315865 0 8 0.0315865 1
gene 3 4 7 0.49105 0 9 0.49105 1
gene 1 5 7 0.0291483 0 10 0.0291483 1
genomeend 22

/* Organism #23 Fitness: 4 Error: 0 */
genomestart 23
node 1 1 1 3
node 2 3 1 1
node 3 2 1 1
node 4 1 1 1
node 5 3 1 1
node 6 2 0 2
node 7 3 0 2
gene 2 1 6 -1.13484 0 1 -1.13484 1
gene 1 2 6 0.622166 0 2 0.622166 1
gene 3 3 6 -1.36104 0 3 -1.36104 1
gene 1 4 6 0.476819 0 4 0.476819 1
gene 1 5 6 0.299151 0 5 0.299151 1
gene 1 1 7 -1.70291 0 6 -1.70291 1
gene 2 2 7 -0.501349 0 7 -0.501349 1
gene 2 3 7 1.11003 0 8 1.11003 1
gene 3 4 7 -0.275517 0 9 -0.275517 1
gene 1 5 7 -1.1433 0 10 -1.1433 1
genomeend 23

/* Organism #24 Fitness: 6 Error: 0 */
genomestart 24
node 1 1 1 3
node 2 3 1 1
node 3 2 1 1
node 4 1 1 1
node 5 3 1 1
node 6 2 0 2
node 7 3 0 2
gene 2 1 6 -1.7974 0 1 -1.7974 1
gene 1 2 6 -0.772228 0 2 -0.772228 1
gene 3 3 6 -1.13327 0 3 -1.13327 1
gene 1 4 6 -2.7942 0 4 -2.7942 1
gene 1 5 6 2.55339 0 5 2.55339 1
gene 1 1 7 -1.40575 0 6 -1.40575 1
gene 3 2 7 -0.291118 0 7 -0.291118 1
gene 2 3 7 0.145434 0 8 0.145434 1
gene 2 4 7 -0.600917 0 9 -0.600917 1
gene 3 5 7 0.948317 0 10 0.948317 1
genomeend 24

/* Organism #25 Fitness: 5 Error: 0 */
genomestart 25
node 1 2 1 3
node 2 1 1 1
node 3 2 1 1
node 4 2 1 1
node 5 2 1 1
node 6 2 0 2
node 7 2 0 2
gene 2 1 6 -0.0350583 0 1 -0.0350583 1
gene 3 2 6 -0.169524 0 2 -0.169524 1
gene 2 3 6 0.267184 0 3 0.267184 1
gene 3 4 6 0.932275 0 4 0.932275 1
gene 2 5 6 2.91015 0 5 2.91015 1
gene 2 1 7 0.871483 0 6 0.871483 1
gene 3 2 7 1.96242 0 7 1.96242 1
gene 2 3 7 0.15401 0 8 0.15401 1
gene 2 4 7 -1.24141 0 9 -1.24141 1
gene 3 5 7 0.990724 0 10 0.990724 1
genomeend 25

/* Organism #26 Fitness: 9 Error: 0 */
genomestart 26
node 1 3 1 3
node 2 3 1 1
node 3 3 1 1
node 4 2 1 1
node 5 3 1 1
node 6 2 0 2
node 7 1 0 2
gene 3 1 6 0.0323455 0 1 0.0323455 1
gene 3 2 6 -0.515228 0 2 -0.515228 1
gene 1 3 6 0.0627195 0 3 0.0627195 1
gene 3 4 6 0.227703 0 4 0.227703 1
gene 3 5 6 0.0488697 0 5 0.0488697 1
gene 1 1 7 0.330714 0 6 0.330714 1
gene 2 2 7 -0.143621 0 7 -0.143621 1
gene 1 3 7 0.342786 0 8 0.342786 1
gene 1 4 7 0.0184406 0 9 0.0184406 1
gene 2 5 7 0.913854 0 10 0.913854 1
genomeend 26

/* Organism #27 Fitness: 26 Error: 0 */
genomestart 27
node 1 2 1 3
node 2 2 1 1
node 3 1 1 1
node 4 2 1 1
node 5 3 1 1
node 6 3 0 2
node 7 1 0 2
gene 2 1 6 -0.419081 0 1 -0.419081 1
gene 1 2 6 0.656096 0 2 0.656096 1
gene 1 3 6 0.613827 0 3 0.613827 1
gene 2 4 6 -0.604357 0 4 -0.604357 1
gene 1 5 6 -0.787353 0 5 -0.787353 1
gene 3 1 7 0.997906 0 6 0.997906 1
gene 1 2 7 -0.600043 0 7 -0.600043 1
gene 3 3 7 -0.965057 0 8 -0.965057 1
gene 1 4 7 0.814342 0 9 0.814342 1
gene 3 5 7 0.0225455 0 10 0.0225455 1
genomeend 27

/* Organism #28 Fitness: 9 Error: 0 */
genomestart 28
node 1 1 1 3
node 2 2 1 1
node 3 3 1 1
node 4 1 1 1
node 5 1 1 1
node 6 1 0 2
node 7 1 0 2
gene 2 1 6 0.294346 0 1 0.294346 1
gene 2 2 6 -0.0254849 0 2 -0.0254849 1
gene 1 3 6 0.463935 0 3 0.463935 1
gene 1 4 6 -0.198894 0 4 -0.198894 1
gene 2 5 6 -0.420582 0 5 -0.420582 1
gene 3 1 7 0.408691 0 6 0.408691 1
gene 2 2 7 0.430919 0 7 0.430919 1
gene 2 3 7 -0.301466 0 8 -0.301466 1
gene 3 4 7 0.168082 0 9 0.168082 1
gene 2 5 7 -0.402709 0 10 -0.402709 1
genomeend 28

/* Organism #29 Fitness: 2 Error: 0 */
genomestart 29
node 1 3 1 3
node 2 2 1 1
node 3 3 1 1
node 4 3 1 1
node 5 1 1 1
node 6 2 0 2
node 7 2 0 2
gene 2 1 6 0.6604 0 1 0.6604 1
gene 2 2 6 0.590676 0 2 0.590676 1
gene 2 3 6 1.23649 0 3 1.23649 1
gene 1 4 6 -1.60188 0 4 -1.60188 1
gene 2 5 6 0.119346 0 5 0.119346 1
gene 2 1 7 1.05846 0 6 1.05846 1
gene 3 2 7 -1.97772 0 7 -1.97772 1
gene 2 3 7 -1.90456 0 8 -1.90456 1
gene 1 4 7 -1.53516 0 9 -1.53516 1
gene 3 5 7 -0.312544 0 10 -0.312544 1
genomeend 29

/* Organism #30 Fitness: 21 Error: 0 */
genomestart 30
node 1 3 1 3
node 2 3 1 1
node 3 1 1 1
node 4 1 1 1
node 5 2 1 1
node 6 1 0 2
node 7 1 0 2
gene 3 1 6 -0.630555 0 1 -0.630555 1
gene 1 2 6 1.03126 0 2 1.03126 1
gene 1 3 6 1.17921 0 3 1.17921 1
gene 1 4 6 -1.05926 0 4 -1.05926 1
gene 3 5 6 0.134801 0 5 0.134801 1
gene 2 1 7 1.00589 0 6 1.00589 1
gene 3 2 7 0.703976 0 7 0.703976 1
gene 2 3 7 0.446485 0 8 0.446485 1
gene 2 4 7 -1.58959 0 9 -1.58959 1
gene 2 5 7 0.71454 0 10 0.71454 1
genomeend 30

/* Organism #31 Fitness: 4 Error: 0 */
genomestart 31
node 1 1 1 3
node 2 1 1 1
node 3 3 1 1
node 4 1 1 1
node 5 1 1 1
node 6 1 0 2
node 7 3 0 2
gene 2 1 6 0.958748 0 1 0.958748 1
gene 2 2 6 0.135328 0 2 0.135328 1
gene 2 3 6 -0.0909589 0 3 -0.0909589 1
gene 3 4 6 0.769824 0 4 0.769824 1
gene 1 5 6 0.178814 0 5 0.178814 1
gene 1 1 7 -0.52551 0 6 -0.52551 1
gene 2 2 7 0.583708 0 7 0.583708 1
gene 3 3 7 -0.224476 0 8 -0.224476 1
gene 3 4 7 -0.389116 0 9 -0.389116 1
gene 3 5 7 0.387356 0 10 0.387356 1
genomeend 31

/* Organism #32 Fitness: 5 Error: 0 */
genomestart 32
node 1 3 1 3
node 2 3 1 1
node 3 3 1 1
node 4 2 1 1
node 5 3 1 1
node 6 3 0 2
node 7 2 0 2
gene 3 1 6 0.935352 0 1 0.935352 1
gene 1 2 6 -0.13367 0 2 -0.13367 1
gene 1 3 6 -3.03679 0 3 -3.03679 1
gene 1 4 6 0.551496 0 4 0.551496 1
gene 1 5 6 0.64389 0 5 0.64389 1
gene 1 1 7 1.0781 0 6 1.0781 1
gene 3 2 7 -1.5597 0 7 -1.5597 1
gene 1 3 7 -1.0294 0 8 -1.0294 1
gene 2 4 7 -0.657941 0 9 -0.657941 1
gene 1 5 7 -1.43276 0 10 -1.43276 1
genomeend 32

/* Organism #33 Fitness: 15 Error: 0 */
genomestart 33
node 1 2 1 3
node 2 2 1 1
node 3 3 1 1
node 4 2 1 1
node 5 1 1 1
node 6 1 0 2
node 7 3 0 2
gene 3 1 6 0.803083 0 1 0.803083 1
gene 2 2 6 0.259012 0 2 0.259012 1
gene 1 3 6 -2.66683 0 3 -2.66683 1
gene 3 4 6 -0.697938 0 4 -0.697938 1
gene 3 5 6 -0.6094 0 5 -0.6094 1
gene 2 1 7 1.24931 0 6 1.24931 1
gene 3 2 7 -1.06685 0 7 -1.06685 1
gene 3 3 7 2.25433 0 8 2.25433 1
gene 3 4 7 1.80568 0 9 1.80568 1
gene 1 5 7 -0.0255489 0 10 -0.0255489 1
genomeend 33

/* Organism #34 Fitness: 11 Error: 0 */
genomestart 34
node 1 2 1 3
node 2 3 1 1
node 3 1 1 1
node 4 2 1 1
node 5 3 1 1
node 6 1 0 2
node 7 2 0 2
gene 3 1 6 0.445549 0 1 0.445549 1
gene 1 2 6 0.061616 0 2 0.061616 1
gene 3 3 6 0.350312 0 3 0.350312 1
gene 2 4 6 -0.890055 0 4 -0.890055 1
gene 2 5 6 -0.713814 0 5 -0.713814 1
gene 2 1 7 0.966071 0 6 0.966071 1
gene 1 2 7 0.848022 0 7 0.848022 1
gene 2 3 7 -0.224521 0 8 -0.224521 1
gene 2 4 7 -0.216869 0 9 -0.216869 1
gene 3 5 7 -0.620217 0 10 -0.620217 1
gene 3 7 6 0.370768 0 11 0 1
genomeend 34

/* Organism #35 Fitness: 8 Error: 0 */
genomestart 35
node 1 3 1 3
node 2 1 1 1
node 3 2 1 1
node 4 1 1 1
node 5 2 1 1
node 6 3 0 2
node 7 3 0 2
gene 3 1 6 -0.437715 0 1 -0.437715 1
gene 3 2 6 1.68915 0 2 1.68915 1
gene 1 3 6 -1.10539 0 3 -1.10539 1
gene 3 4 6 -0.584379 0 4 -0.584379 1
gene 2 5 6 -0.258065 0 5 -0.258065 1
gene 1 1 7 -0.225751 0 6 -0.225751 1
gene 3 2 7 -0.315684 0 7 -0.315684 1
gene 3 3 7 0.0249373 0 8 0.0249373 1
gene 3 4 7 0.0954246 0 9 0.0954246 1
gene 3 5 7 -0.105689 0 10 -0.105689 1
genomeend 35

/* Organism #36 Fitness: 10 Error: 0 */
genomestart 36
node 1 1 1 3
node 2 1 1 1
node 3 3 1 1
node 4 1 1 1
node 5 1 1 1
node 6 1 0 2
node 7 3 0 2
gene 2 1 6 0.355681 0 1 0.355681 1
gene 2 2 6 -0.28561 0 2 -0.28561 1
gene 3 3 6 -0.0573809 0 3 -0.0573809 1
gene 1 4 6 -0.0705749 0 4 -0.0705749 1
gene 1 5 6 -0.321897 0 5 -0.321897 1
gene 2 1 7 0.232793 0 6 0.232793 1
gene 3 2 7 -0.418877 0 7 -0.418877 1
gene 1 3 7 0.076247 0 8 0.076247 1
gene 2 4 7 -0.115936 0 9 -0.115936 1
gene 3 5 7 -0.120961 0 10 -0.120961 1
genomeend 36

/* Organism #37 Fitness: 7 Error: 0 */
genomestart 37
node 1 2 1 3
node 2 2 1 1
node 3 3 1 1
node 4 2 1 1
node 5 1 1 1
node 6 1 0 2
node 7 3 0 2
gene 3 1 6 0.0162777 0 1 0.0162777 1
gene 3 2 6 2.21315 0 2 2.21315 1
gene 3 3 6 0.647779 0 3 0.647779 1
gene 1 4 6 0.908873 0 4 0.908873 1
gene 3 5 6 -0.742953 0 5 -0.742953 1
gene 2 1 7 0.853458 0 6 0.853458 1
gene 1 2 7 0.772028 0 7 0.772028 1
gene 1 3 7 -0.408506 0 8 -0.408506 1
gene 2 4 7 -0.94503 0 9 -0.94503 1
gene 1 5 7 1.65243 0 10 1.65243 1
genomeend 37

/* Organism #38 Fitness: 3 Error: 0 */
genomestart 38
node 1 3 1 3
node 2 2 1 1
node 3 2 1 1
node 4 3 1 1
node 5 3 1 1
node 6 1 0 2
node 7 1 0 2
gene 2 1 6 -0.269137 0 1 -0.269137 1
gene 3 2 6 0.533613 0 2 0.533613 1
gene 3 3 6 -0.0878235 0 3 -0.0878235 1
gene 2 4 6 -2.72455 0 4 -2.72455 1
gene 2 5 6 -0.585983 0 5 -0.585983 1
gene 1 1 7 -2.52355 0 6 -2.52355 1
gene 2 2 7 -1.49679 0 7 -1.49679 1
gene 1 3 7 1.92355 0 8 1.92355 1
gene 2 4 7 -1.76235 0 9 -1.76235 1
gene 1 5 7 1.87105 0 10 1.87105 1
genomeend 38

/* Organism #39 Fitness: 16 Error: 0 */
genomestart 39
node 1 3 1 3
node 2 2 1 1
node 3 3 1 1
node 4 1 1 1
node 5 1 1 1
node 6 1 0 2
node 7 1 0 2
gene 2 1 6 1.93693 0 1 1.93693 1
gene 3 2 6 0.270189 0 2 0.270189 1
gene 3 3 6 2.24652 0 3 2.24652 1
gene 1 4 6 -2.36104 0 4 -2.36104 1
gene 1 5 6 -1.80175 0 5 -1.80175 1
gene 1 1 7 -0.627957 0 6 -0.627957 1
gene 3 2 7 0.0879349 0 7 0.0879349 1
gene 2 3 7 -1.24157 0 8 -1.24157 1
gene 1 4 7 3.01529 0 9 3.01529 1
gene 2 5 7 0.014191 0 10 0.014191 1
genomeend 39

/* Organism #40 Fitness: 8 Error: 0 */
genomestart 40
node 1 1 1 3
node 2 2 1 1
node 3 3 1 1
node 4 1 1 1
node 5 1 1 1
node 6 1 0 2
node 7 1 0 2
gene 2 1 6 -0.17534 0 1 -0.17534 1
gene 1 2 6 0.0963467 0 2 0.0963467 1
gene 3 3 6 0.0526185 0 3 0.0526185 1
gene 1 4 6 0.397433 0 4 0.397433 1
gene 2 5 6 -0.356535 0 5 -0.356535 1
gene 1 1 7 -0.208463 0 6 -0.208463 1
gene 2 2 7 0.403865 0 7 0.403865 1
gene 2 3 7 -0.86532 0 8 -0.86532 1
gene 3 4 7 -0.319948 0 9 -0.319948 1
gene 3 5 7 0.190049 0 10 0.190049 1
gene 1 6 7 -0.585038 0 14 -0.585038 1
genomeend 40

/* Organism #41 Fitness: 11 Error: 0 */
genomestart 41
node 1 1 1 3
node 2 3 1 1
node 3 1 1 1
node 4 3 1 1
node 5 1 1 1
node 6 3 0 2
node 7 3 0 2
gene 3 1 6 -0.0917817 0 1 -0.0917817 1
gene 3 2 6 -0.0951947 0 2 -0.0951947 1
gene 1 3 6 0.279081 0 3 0.279081 1
gene 1 4 6 0.745996 0 4 0.745996 1
gene 3 5 6 0.0126603 0 5 0.0126603 1
gene 3 1 7 0.959028 0 6 0.959028 1
gene 3 2 7 -0.640811 0 7 -0.640811 1
gene 2 3 7 0.410434 0 8 0.410434 1
gene 1 4 7 -0.356805 0 9 -0.356805 1
gene 2 5 7 0.159011 0 10 0.159011 1
genomeend 41

/* Organism #42 Fitness: 12 Error: 0 */
genomestart 42
node 1 2 1 3
node 2 3 1 1
node 3 3 1 1
node 4 3 1 1
node 5 3 1 1
node 6 3 0 2
node 7 3 0 2
gene 3 1 6 0.341317 0 1 0.341317 1
gene 2 2 6 -3.0393 0 2 -3.0393 1
gene 1 3 6 -2.40348 0 3 -2.40348 1
gene 3 4 6 0.928374 0 4 0.928374 1
gene 3 5 6 1.99815 0 5 1.99815 1
gene 1 1 7 -0.705091 0 6 -0.705091 1
gene 3 2 7 -0.30156 0 7 -0.30156 1
gene 3 3 7 0.997727 0 8 0.997727 1
gene 3 4 7 0.301332 0 9 0.301332 1
gene 1 5 7 0.905006 0 10 0.905006 1
genomeend 42

/* Organism #43 Fitness: 8 Error: 0 */
genomestart 43
node 1 3 1 3
node 2 2 1 1
node 3 3 1 1
node 4 1 1 1
node 5 1 1 1
node 6 1 0 2
node 7 1 0 2
gene 2 1 6 0.571298 0 1 0.571298 1
gene 3 2 6 -0.353001 0 2 -0.353001 1
gene 1 3 6 1.26309 0 3 1.26309 1
gene 2 4 6 1.02507 0 4 1.02507 1
gene 1 5 6 -2.31983 0 5 -2.31983 1
gene 1 1 7 -2.11665 0 6 -2.11665 1
gene 2 2 7 -1.06632 0 7 -1.06632 1
gene 2 3 7 0.831657 0 8 0.831657 1
gene 3 4 7 -1.39029 0 9 -1.39029 1
gene 1 5 7 0.846278 0 10 0.846278 1
genomeend 43

/* Organism #44 Fitness: 8 Error: 0 */
genomestart 44
node 1 3 1 3
node 2 3 1 1
node 3 2 1 1
node 4 3 1 1
node 5 1 1 1
node 6 1 0 2
node 7 3 0 2
gene 3 1 6 0.0926456 0 1 0.0926456 1
gene 3 2 6 0.158187 0 2 0.158187 1
gene 1 3 6 0.903325 0 3 0.903325 1
gene 3 4 6 -0.678101 0 4 -0.678101 1
gene 2 5 6 -0.0797463 0 5 -0.0797463 1
gene 3 1 7 0.114769 0 6 0.114769 1
gene 2 2 7 0.361625 0 7 0.361625 1
gene 3 3 7 0.258878 0 8 0.258878 1
gene 2 4 7 -0.11535 0 9 -0.11535 1
gene 3 5 7 -0.604392 0 10 -0.604392 1
genomeend 44

/* Organism #45 Fitness: 5 Error: 0 */
genomestart 45
node 1 2 1 3
node 2 3 1 1
node 3 3 1 1
node 4 1 1 1
node 5 3 1 1
node 6 3 0 2
node 7 1 0 2
gene 2 1 6 -0.0127348 0 1 -0.0127348 1
gene 1 2 6 -0.820342 0 2 -0.820342 1
gene 3 3 6 -0.134633 0 3 -0.134633 1
gene 2 4 6 0.8688 0 4 0.8688 1
gene 3 5 6 -0.0889554 0 5 -0.0889554 1
gene 3 1 7 0.733808 0 6 0.733808 1
gene 3 2 7 -0.135878 0 7 -0.135878 1
gene 3 3 7 -0.944154 0 8 -0.944154 1
gene 2 4 7 0.334444 0 9 0.334444 1
gene 3 5 7 0.386243 0 10 0.386243 1
genomeend 45

/* Organism #46 Fitness: 34 Error: 0 */
genomestart 46
node 1 1 1 3
node 2 3 1 1
node 3 3 1 1
node 4 2 1 1
node 5 3 1 1
node 6 2 0 2
node 7 1 0 2
gene 1 1 6 0.668041 0 1 0.668041 1
gene 2 2 6 1.77694 0 2 1.77694 1
gene 2 3 6 2.05786 0 3 2.05786 1
gene 1 4 6 -2.54185 0 4 -2.54185 1
gene 1 5 6 1.33308 0 5 1.33308 1
gene 1 1 7 -0.100612 0 6 -0.100612 1
gene 1 2 7 0.882098 0 7 0.882098 1
gene 2 3 7 0.843145 0 8 0.843145 1
gene 3 4 7 -0.401077 0 9 -0.401077 1
gene 2 5 7 0.897849 0 10 0.897849 1
genomeend 46

/* Organism #47 Fitness: 8 Error: 0 */
genomestart 47
node 1 2 1 3
node 2 1 1 1
node 3 1 1 1
node 4 3 1 1
node 5 1 1 1
node 6 2 0 2
node 7 3 0 2
gene 2 1 6 -0.0127348 0 1 -0.0127348 1
gene 3 2 6 2.7306 0 2 2.7306 1
gene 2 3 6 -0.940827 0 3 -0.940827 1
gene 3 4 6 0.590843 0 4 0.590843 1
gene 3 5 6 2.28082 0 5 2.28082 1
gene 3 1 7 0.312719 0 6 0.312719 1
gene 1 2 7 -0.673025 0 7 -0.673025 1
gene 1 3 7 -0.113287 0 8 -0.113287 1
gene 3 4 7 0.206737 0 9 0.206737 1
gene 3 5 7 1.52036 0 10 1.52036 1
genomeend 47

/* Organism #48 Fitness: 5 Error: 0 */
genomestart 48
node 1 3 1 3
node 2 3 1 1
node 3 2 1 1
node 4 2 1 1
node 5 1 1 1
node 6 3 0 2
node 7 3 0 2
gene 1 1 6 0.742635 0 1 0.742635 1
gene 3 2 6 0.0847899 0 2 0.0847899 1
gene 1 3 6 0.0893157 0 3 0.0893157 1
gene 1 4 6 0.0834385 0 4 0.0834385 1
gene 2 5 6 0.0142591 0 5 0.0142591 1
gene 3 1 7 -0.833738 0 6 -0.833738 1
gene 1 2 7 0.660822 0 7 0.660822 1
gene 2 3 7 0.223863 0 8 0.223863 1
gene 3 4 7 -0.225982 0 9 -0.225982 1
gene 1 5 7 0.340546 0 10 0.340546 1
genomeend 48

/* Organism #49 Fitness: 113 Error: 0 */
genomestart 49
node 1 2 1 3
node 2 2 1 1
node 3 1 1 1
node 4 2 1 1
node 5 3 1 1
node 6 3 0 2
node 7 1 0 2
gene 2 1 6 0.461316 0 1 0.461316 1
gene 1 2 6 -0.180672 0 2 -0.180672 1
gene 3 3 6 1.8037 0 3 1.8037 1
gene 2 4 6 -1.44414 0 4 -1.44414 1
gene 1 5 6 -1.41 0 5 -1.41 1
gene 2 1 7 2.12502 0 6 2.12502 1
gene 3 2 7 -2.83195 0 7 -2.83195 1
gene 2 3 7 -0.697929 0 8 -0.697929 1
gene 1 4 7 0.534368 0 9 0.534368 1
gene 1 5 7 -0.310175 0 10 -0.310175 1
genomeend 49

/* Organism #50 Fitness: 11 Error: 0 */
genomestart 50
node 1 3 1 3
node 2 2 1 1
node 3 2 1 1
node 4 3 1 1
node 5 3 1 1
node 6 1 0 2
node 7 1 0 2
gene 2 1 6 -0.628126 0 1 -0.628126 1
gene 3 2 6 -0.0613069 0 2 -0.0613069 1
gene 3 3 6 -0.155759 0 3 -0.155759 1
gene 2 4 6 0.0291368 0 4 0.0291368 1
gene 2 5 6 0.491123 0 5 0.491123 1
gene 1 1 7 0.0322047 0 6 0.0322047 1
gene 2 2 7 -0.248771 0 7 -0.248771 1
gene 1 3 7 0.22661 0 8 0.22661 1
gene 2 4 7 -0.76325 0 9 -0.76325 1
gene 2 5 7 0.696582 0 10 0.696582 1
genomeend 50

/* Organism #51 Fitness: 11 Error: 0 */
genomestart 51
node 1 3 1 3
node 2 2 1 1
node 3 2 1 1
node 4 2 1 1
node 5 1 1 1
node 6 3 0 2
node 7 1 0 2
gene 3 1 6 -0.552197 0 1 -0.552197 1
gene 2 2 6 1.60941 0 2 1.60941 1
gene 2 3 6 0.436437 0 3 0.436437 1
gene 1 4 6 -1.14357 0 4 -1.14357 1
gene 3 5 6 0.414173 0 5 0.414173 1
gene 1 1 7 2.10053 0 6 2.10053 1
gene 2 2 7 0.805192 0 7 0.805192 1
gene 3 3 7 -1.9869 0 8 -1.9869 1
gene 3 4 7 -3.03039 0 9 -3.03039 1
gene 2 5 7 0.933406 0 10 0.933406 1
genomeend 51

/* Organism #52 Fitness: 2 Error: 0 */
genomestart 52
node 1 2 1 3
node 2 2 1 1
node 3 3 1 1
node 4 2 1 1
node 5 1 1 1
node 6 3 0 2
node 7 2 0 2
gene 1 1 6 1.5001 0 1 1.5001 1
gene 2 2 6 1.8935 0 2 1.8935 1
gene 2 3 6 0.962205 0 3 0.962205 1
gene 2 4 6 1.45313 0 4 1.45313 1
gene 2 5 6 -0.518007 0 5 -0.518007 1
gene 2 1 7 0.412244 0 6 0.412244 1
gene 2 2 7 1.91649 0 7 1.91649 1
gene 1 3 7 -1.26131 0 8 -1.26131 1
gene 2 4 7 -1.91781 0 9 -1.91781 1
gene 3 5 7 -0.393118 0 10 -0.393118 1
genomeend 52

/* Organism #53 Fitness: 5 Error: 0 */
genomestart 53
node 1 3 1 3
node 2 2 1 1
node 3 3 1 1
node 4 1 1 1
node 5 1 1 1
node 6 1 0 2
node 7 1 0 2
gene 2 1 6 0.744483 0 1 0.744483 1
gene 3 2 6 0.0331857 0 2 0.0331857 1
gene 3 3 6 0.537863 0 3 0.537863 1
gene 2 4 6 -0.0648437 0 4 -0.0648437 1
gene 2 5 6 -0.359214 0 5 -0.359214 1
gene 1 1 7 -0.358808 0 6 -0.358808 1
gene 2 2 7 -0.217061 0 7 -0.217061 1
gene 2 3 7 0.321087 0 8 0.321087 1
gene 1 4 7 -0.0860475 0 9 -0.0860475 1
gene 1 5 7 0.90148 0 10 0.90148 1
genomeend 53

/* Organism #54 Fitness: 96 Error: 0 */
genomestart 54
node 1 1 1 3
node 2 3 1 1
node 3 1 1 1
node 4 3 1 1
node 5 1 1 1
node 6 1 0 2
node 7 2 0 2
gene 1 1 6 0.324577 0 1 0.324577 1
gene 3 2 6 -0.400709 0 2 -0.400709 1
gene 3 3 6 -1.77029 0 3 -1.77029 1
gene 2 4 6 0.232094 0 4 0.232094 1
gene 2 5 6 -1.39482 0 5 -1.39482 1
gene 2 1 7 -1.52561 0 6 -1.52561 1
gene 2 2 7 -1.95343 0 7 -1.95343 1
gene 3 3 7 -2.17088 0 8 -2.17088 1
gene 1 4 7 2.08047 0 9 2.08047 1
gene 2 5 7 -0.045023 0 10 -0.045023 1
genomeend 54

/* Organism #55 Fitness: 14 Error: 0 */
genomestart 55
node 1 1 1 3
node 2 1 1 1
node 3 3 1 1
node 4 1 1 1
node 5 1 1 1
node 6 1 0 2
node 7 2 0 2
gene 3 1 6 1.87494 0 1 1.87494 1
gene 2 2 6 1.69425 0 2 1.69425 1
gene 2 3 6 0.216017 0 3 0.216017 1
gene 1 4 6 0.431544 0 4 0.431544 1
gene 1 5 6 -0.786911 0 5 -0.786911 1
gene 2 1 7 0.124594 0 6 0.124594 1
gene 2 2 7 0.754171 0 7 0.754171 1
gene 2 3 7 -0.70513 0 8 -0.70513 1
gene 3 4 7 0.32771 0 9 0.32771 1
gene 2 5 7 2.84333 0 10 2.84333 1
genomeend 55

/* Organism #56 Fitness: 6 Error: 0 */
genomestart 56
node 1 3 1 3
node 2 2 1 1
node 3 3 1 1
node 4 3 1 1
node 5 1 1 1
node 6 2 0 2
node 7 2 0 2
gene 2 1 6 -0.509238 0 1 -0.509238 1
gene 3 2 6 -0.436542 0 2 -0.436542 1
gene 1 3 6 -1.16493 0 3 -1.16493 1
gene 1 4 6 0.717057 0 4 0.717057 1
gene 2 5 6 1.04579 0 5 1.04579 1
gene 3 1 7 1.1255 0 6 1.1255 1
gene 3 2 7 0.757014 0 7 0.757014 1
gene 3 3 7 1.44836 0 8 1.44836 1
gene 3 4 7 2.25771 0 9 2.25771 1
gene 1 5 7 -0.192018 0 10 -0.192018 1
genomeend 56

/* Organism #57 Fitness: 8 Error: 0 */
genomestart 57
node 1 1 1 3
node 2 2 1 1
node 3 3 1 1
node 4 1 1 1
node 5 1 1 1
node 6 1 0 2
node 7 1 0 2
gene 2 1 6 2.84137 0 1 2.84137 1
gene 3 2 6 1.02439 0 2 1.02439 1
gene 2 3 6 0.381181 0 3 0.381181 1
gene 3 4 6 2.39776 0 4 2.39776 1
gene 1 5 6 -1.00542 0 5 -1.00542 1
gene 1 1 7 -1.10084 0 6 -1.10084 1
gene 3 2 7 0.563916 0 7 0.563916 1
gene 3 3 7 0.60682 0 8 0.60682 1
gene 2 4 7 -0.5629 0 9 -0.5629 1
gene 1 5 7 2.17873 0 10 2.17873 1
genomeend 57

/* Organism #58 Fitness: 6 Error: 0 */
genomestart 58
node 1 1 1 3
node 2 3 1 1
node 3 1 1 1
node 4 3 1 1
node 5 1 1 1
node 6 3 0 2
node 7 3 0 2
gene 1 1 6 2.22473 0 1 2.22473 1
gene 1 2 6 1.25259 0 2 1.25259 1
gene 3 3 6 -1.01182 0 3 -1.01182 1
gene 1 4 6 1.42268 0 4 1.42268 1
gene 3 5 6 0.411461 0 5 0.411461 1
gene 3 1 7 -0.190555 0 6 -0.190555 1
gene 2 2 7 1.31343 0 7 1.31343 1
gene 2 3 7 -0.19898 0 8 -0.19898 1
gene 3 4 7 -0.483396 0 9 -0.483396 1
gene 1 5 7 -2.15977 0 10 -2.15977 1
genomeend 58

/* Organism #59 Fitness: 8 Error: 0 */
genomestart 59
node 1 2 1 3
node 2 2 1 1
node 3 3 1 1
node 4 2 1 1
node 5 1 1 1
node 6 1 0 2
node 7 3 0 2
gene 3 1 6 -1.47286 0 1 -1.47286 1
gene 3 2 6 -0.884598 0 2 -0.884598 1
gene 3 3 6 0.616499 0 3 0.616499 1
gene 1 4 6 -0.186084 0 4 -0.186084 1
gene 3 5 6 1.15887 0 5 1.15887 1
gene 2 1 7 0.794693 0 6 0.794693 1
gene 1 2 7 -1.43006 0 7 -1.43006 1
gene 1 3 7 -1.99308 0 8 -1.99308 1
gene 2 4 7 0.416902 0 9 0.416902 1
gene 1 5 7 -0.819774 0 10 -0.819774 1
genomeend 59

/* Organism #60 Fitness: 17 Error: 0 */
genomestart 60
node 1 3 1 3
node 2 3 1 1
node 3 3 1 1
node 4 2 1 1
node 5 3 1 1
node 6 3 0 2
node 7 1 0 2
gene 3 1 6 0.424664 0 1 0.424664 1
gene 1 2 6 -1.8336 0 2 -1.8336 1
gene 1 3 6 -1.14832 0 3 -1.14832 1
gene 2 4 6 -1.21875 0 4 -1.21875 1
gene 1 5 6 -1.13109 0 5 -1.13109 1
gene 1 1 7 -2.76293 0 6 -2.76293 1
gene 1 2 7 1.71411 0 7 1.71411 1
gene 2 3 7 -1.51475 0 8 -1.51475 1
gene 3 4 7 -1.83728 0 9 -1.83728 1
gene 1 5 7 1.5507 0 10 1.5507 1
genomeend 60

/* Organism #61 Fitness: 9 Error: 0 */
genomestart 61
node 1 1 1 3
node 2 1 1 1
node 3 3 1 1
node 4 2 1 1
node 5 3 1 1
node 6 1 0 2
node 7 3 0 2
gene 3 1 6 0.448972 0 1 0.448972 1
gene 2 2 6 -0.245375 0 2 -0.245375 1
gene 3 3 6 0.0509915 0 3 0.0509915 1
gene 2 4 6 -0.790343 0 4 -0.790343 1
gene 3 5 6 0.732376 0 5 0.732376 1
gene 2 1 7 -0.430005 0 6 -0.430005 1
gene 3 2 7 -0.781271 0 7 -0.781271 1
gene 1 3 7 -0.264065 0 8 -0.264065 1
gene 2 4 7 0.343919 0 9 0.343919 1
gene 2 5 7 0.659179 0 10 0.659179 1
genomeend 61

/* Organism #62 Fitness: 11 Error: 0 */
genomestart 62
node 1 3 1 3
node 2 2 1 1
node 3 2 1 1
node 4 3 1 1
node 5 3 1 1
node 6 1 0 2
node 7 1 0 2
gene 2 1 6 -0.61443 0 1 -0.61443 1
gene 3 2 6 -1.59896 0 2 -1.59896 1
gene 2 3 6 0.170016 0 3 0.170016 1
gene 1 4 6 2.79977 0 4 2.79977 1
gene 2 5 6 -1.13353 0 5 -1.13353 1
gene 2 1 7 -1.4492 0 6 -1.4492 1
gene 3 2 7 0.332504 0 7 0.332504 1
gene 1 3 7 0.13895 0 8 0.13895 1
gene 2 4 7 0.140955 0 9 0.140955 1
gene 1 5 7 -0.100341 0 10 -0.100341 1
genomeend 62

/* Organism #63 Fitness: 14 Error: 0 */
genomestart 63
node 1 1 1 3
node 2 1 1 1
node 3 3 1 1
node 4 1 1 1
node 5 1 1 1
node 6 1 0 2
node 7 3 0 2
gene 3 1 6 0.202552 0 1 0.202552 1
gene 2 2 6 -0.366695 0 2 -0.366695 1
gene 1 3 6 -0.0200135 0 3 -0.0200135 1
gene 3 4 6 0.260265 0 4 0.260265 1
gene 3 5 6 0.198456 0 5 0.198456 1
gene 1 1 7 -0.482862 0 6 -0.482862 1
gene 3 2 7 -0.043959 0 7 -0.043959 1
gene 3 3 7 0.386625 0 8 0.386625 1
gene 2 4 7 0.459747 0 9 0.459747 1
gene 1 5 7 0.646181 0 10 0.646181 1
genomeend 63

/* Organism #64 Fitness: 17 Error: 0 */
genomestart 64
node 1 3 1 3
node 2 3 1 1
node 3 1 1 1
node 4 2 1 1
node 5 1 1 1
node 6 3 0 2
node 7 1 0 2
gene 1 1 6 1.65547 0 1 1.65547 1
gene 1 2 6 2.31264 0 2 2.31264 1
gene 1 3 6 2.0313 0 3 2.0313 1
gene 1 4 6 -0.41116 0 4 -0.41116 1
gene 1 5 6 0.803339 0 5 0.803339 1
gene 2 1 7 1.02351 0 6 1.02351 1
gene 1 2 7 0.414043 0 7 0.414043 1
gene 1 3 7 -1.94712 0 8 -1.94712 1
gene 2 4 7 0.141166 0 9 0.141166 1
gene 2 5 7 0.830241 0 10 0.830241 1
genomeend 64

/* Organism #65 Fitness: 12 Error: 0 */
genomestart 65
node 1 2 1 3
node 2 2 1 1
node 3 2 1 1
node 4 3 1 1
node 5 3 1 1
node 6 3 0 2
node 7 3 0 2
gene 2 1 6 -0.421122 0 1 -0.421122 1
gene 1 2 6 0.531162 0 2 0.531162 1
gene 3 3 6 0.123282 0 3 0.123282 1
gene 2 4 6 0.209933 0 4 0.209933 1
gene 1 5 6 -0.467194 0 5 -0.467194 1
gene 1 1 7 -0.386843 0 6 -0.386843 1
gene 1 2 7 0.620032 0 7 0.620032 1
gene 2 3 7 -0.559752 0 8 -0.559752 1
gene 2 4 7 -0.979366 0 9 -0.979366 1
gene 1 5 7 -0.452181 0 10 -0.452181 1
genomeend 65

/* Organism #66 Fitness: 171 Error: 0 */
genomestart 66
node 1 3 1 3
node 2 2 1 1
node 3 3 1 1
node 4 1 1 1
node 5 1 1 1
node 6 1 0 2
node 7 1 0 2
gene 2 1 6 0.634624 0 1 0.634624 1
gene 1 2 6 -0.319123 0 2 -0.319123 1
gene 3 3 6 0.35962 0 3 0.35962 1
gene 2 4 6 -0.470024 0 4 -0.470024 1
gene 1 5 6 -0.131976 0 5 -0.131976 1
gene 1 1 7 -0.170598 0 6 -0.170598 1
gene 3 2 7 -0.252044 0 7 -0.252044 1
gene 2 3 7 -0.040369 0 8 -0.040369 1
gene 1 4 7 0.730427 0 9 0.730427 1
gene 1 5 7 0.87847 0 10 0.87847 1
genomeend 66

/* Organism #67 Fitness: 9 Error: 0 */
genomestart 67
node 1 3 1 3
node 2 2 1 1
node 3 1 1 1
node 4 1 1 1
node 5 2 1 1
node 6 1 0 2
node 7 1 0 2
gene 2 1 6 -0.953935 0 1 -0.953935 1
gene 2 2 6 -0.755549 0 2 -0.755549 1
gene 3 3 6 -0.723473 0 3 -0.723473 1
gene 2 4 6 -0.283795 0 4 -0.283795 1
gene 2 5 6 0.37426 0 5 0.37426 1
gene 3 1 7 0.997906 0 6 0.997906 1
gene 2 2 7 0.98806 0 7 0.98806 1
gene 2 3 7 -0.731938 0 8 -0.731938 1
gene 1 4 7 0.203905 0 9 0.203905 1
gene 1 5 7 -0.021847 0 10 -0.021847 1
genomeend 67

/* Organism #68 Fitness: 6 Error: 0 */
genomestart 68
node 1 3 1 3
node 2 3 1 1
node 3 3 1 1
node 4 2 1 1
node 5 3 1 1
node 6 2 0 2
node 7 1 0 2
gene 2 1 6 -0.344702 0 1 -0.344702 1
gene 2 2 6 -0.625451 0 2 -0.625451 1
gene 3 3 6 -0.0240476 0 3 -0.0240476 1
gene 2 4 6 0.0344735 0 4 0.0344735 1
gene 3 5 6 0.347471 0 5 0.347471 1
gene 3 1 7 0.368697 0 6 0.368697 1
gene 3 2 7 -0.724139 0 7 -0.724139 1
gene 1 3 7 0.252903 0 8 0.252903 1
gene 1 4 7 -0.288566 0 9 -0.288566 1
gene 1 5 7 0.760432 0 10 0.760432 1
genomeend 68

/* Organism #69 Fitness: 100001 Error: 0 */
/* ##------$ WINNER 69 SPECIES #1 $------## */
genomestart 69
node 1 1 1 3
node 2 1 1 1
node 3 1 1 1
node 4 2 1 1
node 5 1 1 1
node 6 3 0 2
node 7 2 0 2
gene 2 1 6 2.49592 0 1 2.49592 1
gene 1 2 6 -2.35225 0 2 -2.35225 1
gene 3 3 6 -0.834497 0 3 -0.834497 1
gene 1 4 6 -1.48085 0 4 -1.48085 1
gene 2 5 6 -2.43807 0 5 -2.43807 1
gene 2 1 7 -1.01234 0 6 -1.01234 1
gene 1 2 7 0.265738 0 7 0.265738 1
gene 3 3 7 -0.0814065 0 8 -0.0814065 1
gene 2 4 7 1.79175 0 9 1.79175 1
gene 3 5 7 -0.386115 0 10 -0.386115 1
genomeend 69

/* Organism #70 Fitness: 6 Error: 0 */
genomestart 70
node 1 1 1 3
node 2 3 1 1
node 3 1 1 1
node 4 3 1 1
node 5 3 1 1
node 6 2 0 2
node 7 1 0 2
gene 3 1 6 -1.9233 0 1 -1.9233 1
gene 2 2 6 2.05203 0 2 2.05203 1
gene 3 3 6 -0.566187 0 3 -0.566187 1
gene 2 4 6 1.41383 0 4 1.41383 1
gene 2 5 6 0.529795 0 5 0.529795 1
gene 3 1 7 -0.848985 0 6 -0.848985 1
gene 2 2 7 0.0766942 0 7 0.0766942 1
gene 2 3 7 -0.0505961 0 8 -0.0505961 1
gene 1 4 7 1.555 0 9 1.555 1
gene 3 5 7 -1.97593 0 10 -1.97593 1
genomeend 70

/* Organism #71 Fitness: 7 Error: 0 */
genomestart 71
node 1 3 1 3
node 2 2 1 1
node 3 3 1 1
node 4 1 1 1
node 5 1 1 1
node 6 1 0 2
node 7 1 0 2
gene 2 1 6 -1.20007 0 1 -1.20007 1
gene 1 2 6 1.59964 0 2 1.59964 1
gene 3 3 6 1.61586 0 3 1.61586 1
gene 2 4 6 -0.0693873 0 4 -0.0693873 1
gene 1 5 6 -2.32285 0 5 -2.32285 1
gene 1 1 7 1.67186 0 6 1.67186 1
gene 3 2 7 -1.70001 0 7 -1.70001 1
gene 2 3 7 -1.25768 0 8 -1.25768 1
gene 1 4 7 -1.0796 0 9 -1.0796 1
gene 1 5 7 0.846278 0 10 0.846278 1
genomeend 71

/* Organism #72 Fitness: 11 Error: 0 */
genomestart 72
node 1 1 1 3
node 2 3 1 1
node 3 3 1 1
node 4 2 1 1
node 5 3 1 1
node 6 2 0 2
node 7 1 0 2
gene 2 1 6 3.19413 0 1 3.19413 1
gene 2 2 6 2.03055 0 2 2.03055 1
gene 2 3 6 1.85201 0 3 1.85201 1
gene 3 4 6 -1.31642 0 4 -1.31642 1
gene 1 5 6 0.178814 0 5 0.178814 1
gene 1 1 7 -1.15365 0 6 -1.15365 1
gene 2 2 7 1.3738 0 7 1.3738 1
gene 1 3 7 -0.858781 0 8 -0.858781 1
gene 3 4 7 -1.67536 0 9 -1.67536 1
gene 2 5 7 -0.109234 0 10 -0.109234 1
genomeend 72

/* Organism #73 Fitness: 42 Error: 0 */
genomestart 73
node 1 3 1 3
node 2 2 1 1
node 3 3 1 1
node 4 2 1 1
node 5 1 1 1
node 6 2 0 2
node 7 1 0 2
gene 1 1 6 0.84257 0 1 0.84257 1
gene 1 2 6 -0.0139151 0 2 -0.0139151 1
gene 3 3 6 1.44613 0 3 1.44613 1
gene 2 4 6 -1.37723 0 4 -1.37723 1
gene 2 5 6 -0.300161 0 5 -0.300161 1
gene 3 1 7 0.356397 0 6 0.356397 1
gene 1 2 7 0.619881 0 7 0.619881 1
gene 1 3 7 -1.09051 0 8 -1.09051 1
gene 3 4 7 1.36571 0 9 1.36571 1
gene 2 5 7 -0.979389 0 10 -0.979389 1
genomeend 73

/* Organism #74 Fitness: 6 Error: 0 */
genomestart 74
node 1 2 1 3
node 2 1 1 1
node 3 1 1 1
node 4 3 1 1
node 5 1 1 1
node 6 2 0 2
node 7 3 0 2
gene 2 1 6 -0.0127348 0 1 -0.0127348 1
gene 2 2 6 -0.161456 0 2 -0.161456 1
gene 3 3 6 0.246708 0 3 0.246708 1
gene 3 4 6 0.110729 0 4 0.110729 1
gene 1 5 6 -0.0795716 0 5 -0.0795716 1
gene 3 1 7 0.733808 0 6 0.733808 1
gene 3 2 7 -0.236048 0 7 -0.236048 1
gene 1 3 7 0.0364322 0 8 0.0364322 1
gene 3 4 7 0.990516 0 9 0.990516 1
gene 3 5 7 0.386243 0 10 0.386243 1
genomeend 74

/* Organism #75 Fitness: 11 Error: 0 */
genomestart 75
node 1 3 1 3
node 2 2 1 1
node 3 1 1 1
node 4 1 1 1
node 5 3 1 1
node 6 1 0 2
node 7 1 0 2
gene 3 1 6 -1.33664 0 1 -1.33664 1
gene 3 2 6 2.05019 0 2 2.05019 1
gene 2 3 6 2.08049 0 3 2.08049 1
gene 2 4 6 -1.41358 0 4 -1.41358 1
gene 3 5 6 2.03084 0 5 2.03084 1
gene 1 1 7 -2.43964 0 6 -2.43964 1
gene 2 2 7 -1.61292 0 7 -1.61292 1
gene 3 3 7 -0.352939 0 8 -0.352939 1
gene 3 4 7 -0.258089 0 9 -0.258089 1
gene 3 5 7 -0.450964 0 10 -0.450964 1
genomeend 75

/* Organism #76 Fitness: 11 Error: 0 */
genomestart 76
node 1 3 1 3
node 2 2 1 1
node 3 1 1 1
node 4 1 1 1
node 5 2 1 1
node 6 1 0 2
node 7 1 0 2
gene 2 1 6 0.772436 0 1 0.772436 1
gene 1 2 6 -0.289374 0 2 -0.289374 1
gene 3 3 6 -2.50957 0 3 -2.50957 1
gene 1 4 6 -3.15399 0 4 -3.15399 1
gene 2 5 6 0.831727 0 5 0.831727 1
gene 1 1 7 -1.07117 0 6 -1.07117 1
gene 3 2 7 -2.0326 0 7 -2.0326 1
gene 2 3 7 -1.70918 0 8 -1.70918 1
gene 2 4 7 0.485736 0 9 0.485736 1
gene 3 5 7 -0.400632 0 10 -0.400632 1
genomeend 76

/* Organism #77 Fitness: 10 Error: 0 */
genomestart 77
node 1 1 1 3
node 2 3 1 1
node 3 1 1 1
node 4 1 1 1
node 5 3 1 1
node 6 2 0 2
node 7 1 0 2
gene 3 1 6 -2.13089 0 1 -2.13089 1
gene 1 2 6 0.682784 0 2 0.682784 1
gene 1 3 6 -0.100831 0 3 -0.100831 1
gene 1 4 6 -0.280519 0 4 -0.280519 1
gene 3 5 6 -0.954374 0 5 -0.954374 1
gene 1 1 7 1.75373 0 6 1.75373 1
gene 2 2 7 -0.658695 0 7 -0.658695 1
gene 2 3 7 -0.0671632 0 8 -0.0671632 1
gene 3 4 7 2.22028 0 9 2.22028 1
gene 3 5 7 -0.0519973 0 10 -0.0519973 1
genomeend 77

/* Organism #78 Fitness: 75 Error: 0 */
genomestart 78
node 1 3 1 3
node 2 2 1 1
node 3 3 1 1
node 4 1 1 1
node 5 1 1 1
node 6 1 0 2
node 7 1 0 2
gene 2 1 6 0.562734 0 1 0.562734 1
gene 3 2 6 0.36017 0 2 0.36017 1
gene 3 3 6 0.728665 0 3 0.728665 1
gene 2 4 6 -0.51879 0 4 -0.51879 1
gene 1 5 6 -0.330313 0 5 -0.330313 1
gene 1 1 7 -0.0840409 0 6 -0.0840409 1
gene 2 2 7 -0.0580415 0 7 -0.0580415 1
gene 1 3 7 0.0364322 0 8 0.0364322 1
gene 3 4 7 0.990516 0 9 0.990516 1
gene 3 5 7 0.386243 0 10 0.386243 1
genomeend 78

/* Organism #79 Fitness: 3 Error: 0 */
genomestart 79
node 1 1 1 3
node 2 3 1 1
node 3 1 1 1
node 4 2 1 1
node 5 2 1 1
node 6 3 0 2
node 7 3 0 2
gene 1 1 6 0.116595 0 1 0.116595 1
gene 2 2 6 -0.0318208 0 2 -0.0318208 1
gene 3 3 6 -0.508922 0 3 -0.508922 1
gene 1 4 6 0.839795 0 4 0.839795 1
gene 1 5 6 -0.410853 0 5 -0.410853 1
gene 3 1 7 -0.0901833 0 6 -0.0901833 1
gene 2 2 7 0.413466 0 7 0.413466 1
gene 2 3 7 0.296704 0 8 0.296704 1
gene 1 4 7 0.157786 0 9 0.157786 1
gene 3 5 7 -0.448391 0 10 -0.448391 1
genomeend 79

/* Organism #80 Fitness: 16 Error: 0 */
genomestart 80
node 1 1 1 3
node 2 2 1 1
node 3 1 1 1
node 4 2 1 1
node 5 1 1 1
node 6 2 0 2
node 7 1 0 2
gene 2 1 6 1.30073 0 1 1.30073 1
gene 3 2 6 -0.180781 0 2 -0.180781 1
gene 3 3 6 1.88397 0 3 1.88397 1
gene 2 4 6 -2.64903 0 4 -2.64903 1
gene 2 5 6 0.148719 0 5 0.148719 1
gene 1 1 7 -0.743308 0 6 -0.743308 1
gene 1 2 7 -0.840896 0 7 -0.840896 1
gene 1 3 7 0.0773547 0 8 0.0773547 1
gene 1 4 7 -1.90592 0 9 -1.90592 1
gene 2 5 7 -0.829349 0 10 -0.829349 1
genomeend 80

/* Organism #81 Fitness: 8 Error: 0 */
genomestart 81
node 1 2 1 3
node 2 2 1 1
node 3 3 1 1
node 4 2 1 1
node 5 1 1 1
node 6 1 0 2
node 7 3 0 2
gene 3 1 6 1.63123 0 1 1.63123 1
gene 3 2 6 -1.14246 0 2 -1.14246 1
gene 3 3 6 0.314793 0 3 0.314793 1
gene 2 4 6 -2.34417 0 4 -2.34417 1
gene 3 5 6 2.46909 0 5 2.46909 1
gene 2 1 7 -1.26277 0 6 -1.26277 1
gene 1 2 7 0.56137 0 7 0.56137 1
gene 3 3 7 -1.87883 0 8 -1.87883 1
gene 1 4 7 0.541584 0 9 0.541584 1
gene 1 5 7 -2.22953 0 10 -2.22953 1
genomeend 81

/* Organism #82 Fitness: 4 Error: 0 */
genomestart 82
node 1 1 1 3
node 2 2 1 1
node 3 2 1 1
node 4 1 1 1
node 5 1 1 1
node 6 2 0 2
node 7 2 0 2
gene 3 1 6 0.493867 0 1 0.493867 1
gene 2 2 6 -0.161456 0 2 -0.161456 1
gene 3 3 6 0.246708 0 3 0.246708 1
gene 1 4 6 0.57446 0 4 0.57446 1
gene 1 5 6 -0.0795716 0 5 -0.0795716 1
gene 2 1 7 -0.314143 0 6 -0.314143 1
gene 2 2 7 -0.236048 0 7 -0.236048 1
gene 3 3 7 -0.224476 0 8 -0.224476 1
gene 2 4 7 0.570729 0 9 0.570729 1
gene 2 5 7 0.331471 0 10 0.331471 1
genomeend 82

/* Organism #83 Fitness: 12 Error: 0 */
genomestart 83
node 1 3 1 3
node 2 2 1 1
node 3 1 1 1
node 4 1 1 1
node 5 2 1 1
node 6 1 0 2
node 7 1 0 2
gene 2 1 6 -0.856191 0 1 -0.856191 1
gene 2 2 6 -0.410572 0 2 -0.410572 1
gene 3 3 6 -1.72587 0 3 -1.72587 1
gene 1 4 6 0.477149 0 4 0.477149 1
gene 1 5 6 2.43801 0 5 2.43801 1
gene 3 1 7 0.732301 0 6 0.732301 1
gene 2 2 7 1.52733 0 7 1.52733 1
gene 2 3 7 -2.23124 0 8 -2.23124 1
gene 1 4 7 1.24519 0 9 1.24519 1
gene 1 5 7 0.876851 0 10 0.876851 1
genomeend 83

/* Organism #84 Fitness: 10 Error: 0 */
genomestart 84
node 1 1 1 3
node 2 3 1 1
node 3 1 1 1
node 4 3 1 1
node 5 1 1 1
node 6 3 0 2
node 7 3 0 2
gene 1 1 6 0.22922 0 1 0.22922 1
gene 1 2 6 2.18123 0 2 2.18123 1
gene 3 3 6 -1.72243 0 3 -1.72243 1
gene 1 4 6 -0.88884 0 4 -0.88884 1
gene 3 5 6 -0.0240419 0 5 -0.0240419 1
gene 3 1 7 3.08995 0 6 3.08995 1
gene 2 2 7 0.621249 0 7 0.621249 1
gene 2 3 7 -1.47499 0 8 -1.47499 1
gene 3 4 7 -0.662022 0 9 -0.662022 1
gene 1 5 7 1.63302 0 10 1.63302 1
genomeend 84

/* Organism #85 Fitness: 8 Error: 0 */
genomestart 85
node 1 2 1 3
node 2 3 1 1
node 3 1 1 1
node 4 2 1 1
node 5 3 1 1
node 6 1 0 2
node 7 2 0 2
gene 3 1 6 2.5083 0 1 2.5083 1
gene 1 2 6 -0.586871 0 2 -0.586871 1
gene 3 3 6 -0.0589022 0 3 -0.0589022 1
gene 2 4 6 1.55646 0 4 1.55646 1
gene 2 5 6 -2.0675 0 5 -2.0675 1
gene 2 1 7 -0.519545 0 6 -0.519545 1
gene 1 2 7 -0.0467138 0 7 -0.0467138 1
gene 2 3 7 -2.57761 0 8 -2.57761 1
gene 2 4 7 -0.266736 0 9 -0.266736 1
gene 3 5 7 -0.620217 0 10 -0.620217 1
genomeend 85

/* Organism #86 Fitness: 2 Error: 0 */
genomestart 86
node 1 1 1 3
node 2 3 1 1
node 3 1 1 1
node 4 2 1 1
node 5 1 1 1
node 6 3 0 2
node 7 3 0 2
gene 1 1 6 1.05973 0 1 1.05973 1
gene 2 2 6 0.820326 0 2 0.820326 1
gene 2 3 6 -1.55328 0 3 -1.55328 1
gene 1 4 6 -0.240932 0 4 -0.240932 1
gene 2 5 6 -1.0425 0 5 -1.0425 1
gene 3 1 7 -1.96937 0 6 -1.96937 1
gene 3 2 7 -1.81804 0 7 -1.81804 1
gene 2 3 7 -1.83998 0 8 -1.83998 1
gene 3 4 7 -1.68247 0 9 -1.68247 1
gene 1 5 7 0.846473 0 10 0.846473 1
genomeend 86

/* Organism #87 Fitness: 15 Error: 0 */
genomestart 87
node 1 1 1 3
node 2 1 1 1
node 3 1 1 1
node 4 2 1 1
node 5 1 1 1
node 6 3 0 2
node 7 2 0 2
gene 2 1 6 0.517155 0 1 0.517155 1
gene 3 2 6 0.719176 0 2 0.719176 1
gene 1 3 6 -0.264597 0 3 -0.264597 1
gene 1 4 6 0.519302 0 4 0.519302 1
gene 2 5 6 -0.445512 0 5 -0.445512 1
gene 1 1 7 -0.0535384 0 6 -0.0535384 1
gene 2 2 7 -0.486705 0 7 -0.486705 1
gene 3 3 7 0.174585 0 8 0.174585 1
gene 3 4 7 0.399946 0 9 0.399946 1
gene 3 5 7 0.631687 0 10 0.631687 1
genomeend 87

/* Organism #88 Fitness: 2 Error: 0 */
genomestart 88
node 1 3 1 3
node 2 2 1 1
node 3 3 1 1
node 4 1 1 1
node 5 1 1 1
node 6 1 0 2
node 7 1 0 2
gene 2 1 6 0.450749 0 1 0.450749 1
gene 3 2 6 0.03936 0 2 0.03936 1
gene 2 3 6 0.526016 0 3 0.526016 1
gene 2 4 6 -0.562897 0 4 -0.562897 1
gene 1 5 6 0.0756123 0 5 0.0756123 1
gene 3 1 7 0.0983202 0 6 0.0983202 1
gene 3 2 7 -0.732839 0 7 -0.732839 1
gene 2 3 7 -0.597114 0 8 -0.597114 1
gene 1 4 7 0.14422 0 9 0.14422 1
gene 2 5 7 0.810375 0 10 0.810375 1
gene 3 6 6 -0.341717 1 15 -0.341717 1
genomeend 88

/* Organism #89 Fitness: 6 Error: 0 */
genomestart 89
node 1 1 1 3
node 2 3 1 1
node 3 3 1 1
node 4 2 1 1
node 5 3 1 1
node 6 2 0 2
node 7 1 0 2
gene 2 1 6 2.8266 0 1 2.8266 1
gene 3 2 6 -2.45449 0 2 -2.45449 1
gene 2 3 6 -2.11116 0 3 -2.11116 1
gene 3 4 6 -1.29066 0 4 -1.29066 1
gene 1 5 6 0.178814 0 5 0.178814 1
gene 1 1 7 -0.814549 0 6 -0.814549 1
gene 2 2 7 0.0491101 0 7 0.0491101 1
gene 1 3 7 1.26801 0 8 1.26801 1
gene 3 4 7 -0.389116 0 9 -0.389116 1
gene 3 5 7 -0.314554 0 10 -0.314554 1
genomeend 89

/* Organism #90 Fitness: 102 Error: 0 */
genomestart 90
node 1 3 1 3
node 2 2 1 1
node 3 3 1 1
node 4 2 1 1
node 5 1 1 1
node 6 2 0 2
node 7 1 0 2
gene 1 1 6 0.420573 0 1 0.420573 1
gene 1 2 6 -0.698798 0 2 -0.698798 1
gene 2 3 6 -0.344638 0 3 -0.344638 1
gene 3 4 6 -1.59652 0 4 -1.59652 1
gene 3 5 6 -1.24535 0 5 -1.24535 1
gene 3 1 7 -2.63131 0 6 -2.63131 1
gene 1 2 7 0.958224 0 7 0.958224 1
gene 2 3 7 0.903207 0 8 0.903207 1
gene 3 4 7 2.23593 0 9 2.23593 1
gene 2 5 7 2.49011 0 10 2.49011 1
genomeend 90

/* Organism #91 Fitness: 10 Error: 0 */
genomestart 91
node 1 1 1 3
node 2 2 1 1
node 3 3 1 1
node 4 1 1 1
node 5 1 1 1
node 6 1 0 2
node 7 1 0 2
gene 3 1 6 0.170926 0 1 0.170926 1
gene 1 2 6 -1.97417 0 2 -1.97417 1
gene 2 3 6 -0.270446 0 3 -0.270446 1
gene 2 4 6 0.472545 0 4 0.472545 1
gene 2 5 6 -2.68135 0 5 -2.68135 1
gene 2 1 7 0.156695 0 6 0.156695 1
gene 2 2 7 2.49158 0 7 2.49158 1
gene 1 3 7 1.69269 0 8 1.69269 1
gene 2 4 7 1.75069 0 9 1.75069 1
gene 3 5 7 0.711717 0 10 0.711717 1
genomeend 91

/* Organism #92 Fitness: 15 Error: 0 */
genomestart 92
node 1 1 1 3
node 2 3 1 1
node 3 2 1 1
node 4 1 1 1
node 5 3 1 1
node 6 2 0 2
node 7 3 0 2
gene 2 1 6 -0.115008 0 1 -0.115008 1
gene 3 2 6 0.497866 0 2 0.497866 1
gene 3 3 6 0.803247 0 3 0.803247 1
gene 1 4 6 -0.688869 0 4 -0.688869 1
gene 1 5 6 0.604359 0 5 0.604359 1
gene 1 1 7 -0.633574 0 6 -0.633574 1
gene 2 2 7 0.352765 0 7 0.352765 1
gene 1 3 7 0.993639 0 8 0.993639 1
gene 2 4 7 -0.600917 0 9 -0.600917 1
gene 3 5 7 0.956683 0 10 0.956683 1
genomeend 92

/* Organism #93 Fitness: 5 Error: 0 */
genomestart 93
node 1 1 1 3
node 2 2 1 1
node 3 1 1 1
node 4 3 1 1
node 5 3 1 1
node 6 1 0 2
node 7 2 0 2
gene 2 1 6 -1.81756 0 1 -1.81756 1
gene 1 2 6 -0.339645 0 2 -0.339645 1
gene 2 3 6 1.76385 0 3 1.76385 1
gene 1 4 6 0.0532331 0 4 0.0532331 1
gene 2 5 6 0.32531 0 5 0.32531 1
gene 1 1 7 0.418752 0 6 0.418752 1
gene 1 2 7 0.426481 0 7 0.426481 1
gene 3 3 7 0.530084 0 8 0.530084 1
gene 1 4 7 -1.65495 0 9 -1.65495 1
gene 3 5 7 0.116447 0 10 0.116447 1
genomeend 93

/* Organism #94 Fitness: 8 Error: 0 */
genomestart 94
node 1 1 1 3
node 2 3 1 1
node 3 3 1 1
node 4 1 1 1
node 5 1 1 1
node 6 3 0 2
node 7 2 0 2
gene 3 1 6 -0.780541 0 1 -0.780541 1
gene 2 2 6 -0.792178 0 2 -0.792178 1
gene 2 3 6 -0.630233 0 3 -0.630233 1
gene 2 4 6 0.259534 0 4 0.259534 1
gene 1 5 6 -0.127868 0 5 -0.127868 1
gene 3 1 7 0.454722 0 6 0.454722 1
gene 1 2 7 0.263364 0 7 0.263364 1
gene 1 3 7 -0.951001 0 8 -0.951001 1
gene 1 4 7 -0.352643 0 9 -0.352643 1
gene 2 5 7 0.114052 0 10 0.114052 1
genomeend 94

/* Organism #95 Fitness: 7 Error: 0 */
genomestart 95
node 1 3 1 3
node 2 3 1 1
node 3 3 1 1
node 4 2 1 1
node 5 3 1 1
node 6 3 0 2
node 7 1 0 2
gene 3 1 6 -0.283508 0 1 -0.283508 1
gene 1 2 6 0.255475 0 2 0.255475 1
gene 1 3 6 0.0494836 0 3 0.0494836 1
gene 3 4 6 0.0344613 0 4 0.0344613 1
gene 1 5 6 -0.085852 0 5 -0.085852 1
gene 1 1 7 -0.647006 0 6 -0.647006 1
gene 1 2 7 0.322684 0 7 0.322684 1
gene 3 3 7 -0.184014 0 8 -0.184014 1
gene 2 4 7 -0.2382 0 9 -0.2382 1
gene 3 5 7 -0.425275 0 10 -0.425275 1
genomeend 95

/* Organism #96 Fitness: 11 Error: 0 */
genomestart 96
node 1 3 1 3
node 2 1 1 1
node 3 2 1 1
node 4 2 1 1
node 5 3 1 1
node 6 1 0 2
node 7 3 0 2
gene 3 1 6 1.79565 0 1 1.79565 1
gene 2 2 6 2.58692 0 2 2.58692 1
gene 3 3 6 -0.0443918 0 3 -0.0443918 1
gene 2 4 6 1.26166 0 4 1.26166 1
gene 3 5 6 -2.04344 0 5 -2.04344 1
gene 2 1 7 1.04205 0 6 1.04205 1
gene 1 2 7 0.880669 0 7 0.880669 1
gene 1 3 7 -0.716173 0 8 -0.716173 1
gene 2 4 7 -0.100236 0 9 -0.100236 1
gene 3 5 7 -0.463297 0 10 -0.463297 1
genomeend 96

/* Organism #97 Fitness: 7 Error: 0 */
genomestart 97
node 1 3 1 3
node 2 2 1 1
node 3 3 1 1
node 4 1 1 1
node 5 1 1 1
node 6 1 0 2
node 7 1 0 2
gene 3 1 6 -0.0170823 0 1 -0.0170823 1
gene 1 2 6 0.234367 0 2 0.234367 1
gene 1 3 6 0.24069 0 3 0.24069 1
gene 2 4 6 0.217901 0 4 0.217901 1
gene 1 5 6 -0.146661 0 5 -0.146661 1
gene 1 1 7 -0.533192 0 6 -0.533192 1
gene 3 2 7 -0.355096 0 7 -0.355096 1
gene 2 3 7 -0.579365 0 8 -0.579365 1
gene 1 4 7 0.160432 0 9 0.160432 1
gene 3 5 7 0.00292537 0 10 0.00292537 1
genomeend 97

/* Organism #98 Fitness: 10 Error: 0 */
genomestart 98
node 1 2 1 3
node 2 1 1 1
node 3 1 1 1
node 4 3 1 1
node 5 1 1 1
node 6 2 0 2
node 7 3 0 2
gene 3 1 6 -2.16385 0 1 -2.16385 1
gene 3 2 6 -1.00232 0 2 -1.00232 1
gene 2 3 6 1.46304 0 3 1.46304 1
gene 3 4 6 0.595025 0 4 0.595025 1
gene 3 5 6 1.80801 0 5 1.80801 1
gene 3 1 7 1.44437 0 6 1.44437 1
gene 1 2 7 -0.932495 0 7 -0.932495 1
gene 1 3 7 0.0364322 0 8 0.0364322 1
gene 3 4 7 0.990516 0 9 0.990516 1
gene 3 5 7 0.386243 0 10 0.386243 1
genomeend 98

/* Organism #99 Fitness: 4 Error: 0 */
genomestart 99
node 1 3 1 3
node 2 3 1 1
node 3 3 1 1
node 4 3 1 1
node 5 2 1 1
node 6 3 0 2
node 7 3 0 2
gene 1 1 6 0.338763 0 1 0.338763 1
gene 3 2 6 0.510214 0 2 0.510214 1
gene 2 3 6 0.323366 0 3 0.323366 1
gene 3 4 6 -0.607003 0 4 -0.607003 1
gene 3 5 6 0.481538 0 5 0.481538 1
gene 3 1 7 0.280681 0 6 0.280681 1
gene 1 2 7 -0.43727 0 7 -0.43727 1
gene 3 3 7 -0.796005 0 8 -0.796005 1
gene 3 4 7 -0.260235 0 9 -0.260235 1
gene 2 5 7 0.774473 0 10 0.774473 1
genomeend 99

/* Organism #100 Fitness: 10 Error: 0 */
genomestart 100
node 1 3 1 3
node 2 1 1 1
node 3 2 1 1
node 4 1 1 1
node 5 2 1 1
node 6 3 0 2
node 7 3 0 2
gene 3 1 6 2.29259 0 1 2.29259 1
gene 1 2 6 1.33921 0 2 1.33921 1
gene 1 3 6 -0.0611677 0 3 -0.0611677 1
gene 1 4 6 -0.547577 0 4 -0.547577 1
gene 2 5 6 -0.719804 0 5 -0.719804 1
gene 3 1 7 -1.7366 0 6 -1.7366 1
gene 2 2 7 2.62023 0 7 2.62023 1
gene 2 3 7 0.140242 0 8 0.140242 1
gene 3 4 7 0.860714 0 9 0.860714 1
gene 3 5 7 -0.588029 0 10 -0.588029 1
genomeend 100

/* Organism #101 Fitness: 11 Error: 0 */
genomestart 101
node 1 3 1 3
node 2 2 1 1
node 3 1 1 1
node 4 1 1 1
node 5 2 1 1
node 6 1 0 2
node 7 1 0 2
gene 2 1 6 -0.419081 0 1 -0.419081 1
gene 2 2 6 -0.755549 0 2 -0.755549 1
gene 2 3 6 0.903313 0 3 0.903313 1
gene 2 4 6 -0.283795 0 4 -0.283795 1
gene 2 5 6 0.37426 0 5 0.37426 1
gene 3 1 7 0.397434 0 6 0.397434 1
gene 2 2 7 0.98806 0 7 0.98806 1
gene 3 3 7 -0.965057 0 8 -0.965057 1
gene 1 4 7 0.814342 0 9 0.814342 1
gene 1 5 7 -0.021847 0 10 -0.021847 1
genomeend 101

/* Organism #102 Fitness: 14 Error: 0 */
genomestart 102
node 1 2 1 3
node 2 2 1 1
node 3 3 1 1
node 4 2 1 1
node 5 1 1 1
node 6 1 0 2
node 7 3 0 2
gene 3 1 6 0.649285 0 1 0.649285 1
gene 3 2 6 0.0348525 0 2 0.0348525 1
gene 3 3 6 -0.314769 0 3 -0.314769 1
gene 2 4 6 0.407147 0 4 0.407147 1
gene 3 5 6 -0.779501 0 5 -0.779501 1
gene 2 1 7 -0.632442 0 6 -0.632442 1
gene 1 2 7 -0.921011 0 7 -0.921011 1
gene 1 3 7 -0.154942 0 8 -0.154942 1
gene 1 4 7 -0.56831 0 9 -0.56831 1
gene 2 5 7 0.431397 0 10 0.431397 1
gene 1 6 7 -0.585038 0 14 0 1
genomeend 102

/* Organism #103 Fitness: 5 Error: 0 */
genomestart 103
node 1 1 1 3
node 2 1 1 1
node 3 3 1 1
node 4 1 1 1
node 5 1 1 1
node 6 1 0 2
node 7 3 0 2
gene 3 1 6 0.240566 0 1 0.240566 1
gene 2 2 6 0.0993569 0 2 0.0993569 1
gene 2 3 6 -0.34706 0 3 -0.34706 1
gene 2 4 6 0.105774 0 4 0.105774 1
gene 1 5 6 -0.0842635 0 5 -0.0842635 1
gene 2 1 7 0.209833 0 6 0.209833 1
gene 3 2 7 -0.147045 0 7 -0.147045 1
gene 1 3 7 -0.0940217 0 8 -0.0940217 1
gene 3 4 7 0.499195 0 9 0.499195 1
gene 3 5 7 0.386799 0 10 0.386799 1
genomeend 103

/* Organism #104 Fitness: 3 Error: 0 */
genomestart 104
node 1 1 1 3
node 2 3 1 1
node 3 3 1 1
node 4 2 1 1
node 5 3 1 1
node 6 2 0 2
node 7 1 0 2
gene 1 1 6 -0.620771 0 1 -0.620771 1
gene 3 2 6 2.48261 0 2 2.48261 1
gene 2 3 6 -0.164474 0 3 -0.164474 1
gene 3 4 6 2.26061 0 4 2.26061 1
gene 1 5 6 2.1127 0 5 2.1127 1
gene 1 1 7 -0.318376 0 6 -0.318376 1
gene 1 2 7 -0.486656 0 7 -0.486656 1
gene 1 3 7 -0.568593 0 8 -0.568593 1
gene 3 4 7 0.392038 0 9 0.392038 1
gene 2 5 7 0.332619 0 10 0.332619 1
genomeend 104

/* Organism #105 Fitness: 6 Error: 0 */
genomestart 105
node 1 2 1 3
node 2 2 1 1
node 3 1 1 1
node 4 2 1 1
node 5 3 1 1
node 6 3 0 2
node 7 1 0 2
gene 2 1 6 -1.31581 0 1 -1.31581 1
gene 1 2 6 -0.860919 0 2 -0.860919 1
gene 1 3 6 2.77038 0 3 2.77038 1
gene 2 4 6 -2.51349 0 4 -2.51349 1
gene 1 5 6 0.423232 0 5 0.423232 1
gene 2 1 7 1.79918 0 6 1.79918 1
gene 1 2 7 -1.24905 0 7 -1.24905 1
gene 2 3 7 -0.248065 0 8 -0.248065 1
gene 2 4 7 -1.64782 0 9 -1.64782 1
gene 3 5 7 2.20033 0 10 2.20033 1
genomeend 105

/* Organism #106 Fitness: 68 Error: 0 */
genomestart 106
node 1 3 1 3
node 2 3 1 1
node 3 2 1 1
node 4 3 1 1
node 5 1 1 1
node 6 1 0 2
node 7 3 0 2
gene 2 1 6 0.235334 0 1 0.235334 1
gene 2 2 6 -0.045306 0 2 -0.045306 1
gene 3 3 6 0.381477 0 3 0.381477 1
gene 2 4 6 -0.895218 0 4 -0.895218 1
gene 2 5 6 0.104291 0 5 0.104291 1
gene 3 1 7 0.333138 0 6 0.333138 1
gene 3 2 7 -0.102048 0 7 -0.102048 1
gene 1 3 7 0.208496 0 8 0.208496 1
gene 2 4 7 0.14743 0 9 0.14743 1
gene 1 5 7 -0.103297 0 10 -0.103297 1
gene 1 6 7 -0.585038 0 14 0 1
genomeend 106

/* Organism #107 Fitness: 12 Error: 0 */
genomestart 107
node 1 1 1 3
node 2 1 1 1
node 3 3 1 1
node 4 1 1 1
node 5 1 1 1
node 6 1 0 2
node 7 3 0 2
gene 3 1 6 0.398392 0 1 0.398392 1
gene 2 2 6 0.20194 0 2 0.20194 1
gene 3 3 6 0.591824 0 3 0.591824 1
gene 2 4 6 -0.207515 0 4 -0.207515 1
gene 3 5 6 -0.30488 0 5 -0.30488 1
gene 2 1 7 -0.252116 0 6 -0.252116 1
gene 3 2 7 -0.105237 0 7 -0.105237 1
gene 3 3 7 -0.459518 0 8 -0.459518 1
gene 2 4 7 0.411933 0 9 0.411933 1
gene 3 5 7 -0.0379706 0 10 -0.0379706 1
genomeend 107

/* Organism #108 Fitness: 21 Error: 0 */
genomestart 108
node 1 3 1 3
node 2 2 1 1
node 3 3 1 1
node 4 1 1 1
node 5 1 1 1
node 6 1 0 2
node 7 1 0 2
gene 3 1 6 -0.0395437 0 1 -0.0395437 1
gene 1 2 6 -0.6276 0 2 -0.6276 1
gene 3 3 6 0.431764 0 3 0.431764 1
gene 3 4 6 0.178936 0 4 0.178936 1
gene 1 5 6 -0.149468 0 5 -0.149468 1
gene 1 1 7 0.417271 0 6 0.417271 1
gene 3 2 7 -0.678464 0 7 -0.678464 1
gene 2 3 7 0.0316903 0 8 0.0316903 1
gene 1 4 7 -0.163311 0 9 -0.163311 1
gene 2 5 7 0.881662 0 10 0.881662 1
genomeend 108

/* Organism #109 Fitness: 58 Error: 0 */
genomestart 109
node 1 3 1 3
node 2 3 1 1
node 3 1 1 1
node 4 2 1 1
node 5 1 1 1
node 6 3 0 2
node 7 1 0 2
gene 1 1 6 -0.474902 0 1 -0.474902 1
gene 1 2 6 1.52833 0 2 1.52833 1
gene 1 3 6 -0.0736631 0 3 -0.0736631 1
gene 1 4 6 -2.88614 0 4 -2.88614 1
gene 1 5 6 0.824993 0 5 0.824993 1
gene 2 1 7 -1.73471 0 6 -1.73471 1
gene 1 2 7 1.64402 0 7 1.64402 1
gene 1 3 7 -0.591067 0 8 -0.591067 1
gene 2 4 7 0.0290037 0 9 0.0290037 1
gene 2 5 7 3.02968 0 10 3.02968 1
genomeend 109

/* Organism #110 Fitness: 3 Error: 0 */
genomestart 110
node 1 3 1 3
node 2 3 1 1
node 3 3 1 1
node 4 2 1 1
node 5 3 1 1
node 6 2 0 2
node 7 1 0 2
gene 3 1 6 -0.169453 0 1 -0.169453 1
gene 2 2 6 -0.129185 0 2 -0.129185 1
gene 1 3 6 0.535902 0 3 0.535902 1
gene 2 4 6 0.180408 0 4 0.180408 1
gene 3 5 6 -0.249405 0 5 -0.249405 1
gene 1 1 7 0.364247 0 6 0.364247 1
gene 3 2 7 -0.272233 0 7 -0.272233 1
gene 1 3 7 -0.139858 0 8 -0.139858 1
gene 1 4 7 -0.0296534 0 9 -0.0296534 1
gene 3 5 7 0.226874 0 10 0.226874 1
genomeend 110

/* Organism #111 Fitness: 8 Error: 0 */
genomestart 111
node 1 2 1 3
node 2 3 1 1
node 3 1 1 1
node 4 2 1 1
node 5 3 1 1
node 6 1 0 2
node 7 2 0 2
gene 3 1 6 0.741755 0 1 0.741755 1
gene 1 2 6 1.80189 0 2 1.80189 1
gene 3 3 6 0.305166 0 3 0.305166 1
gene 2 4 6 0.783794 0 4 0.783794 1
gene 2 5 6 0.217072 0 5 0.217072 1
gene 2 1 7 0.348085 0 6 0.348085 1
gene 1 2 7 0.8052 0 7 0.8052 1
gene 2 3 7 -0.758791 0 8 -0.758791 1
gene 2 4 7 -0.216869 0 9 -0.216869 1
gene 3 5 7 -1.03534 0 10 -1.03534 1
genomeend 111

/* Organism #112 Fitness: 20 Error: 0 */
genomestart 112
node 1 3 1 3
node 2 2 1 1
node 3 3 1 1
node 4 3 1 1
node 5 1 1 1
node 6 2 0 2
node 7 2 0 2
gene 1 1 6 -0.860996 0 1 -0.860996 1
gene 3 2 6 1.37611 0 2 1.37611 1
gene 2 3 6 0.704837 0 3 0.704837 1
gene 1 4 6 -0.294472 0 4 -0.294472 1
gene 2 5 6 0.00451354 0 5 0.00451354 1
gene 2 1 7 -1.08829 0 6 -1.08829 1
gene 3 2 7 1.42292 0 7 1.42292 1
gene 3 3 7 -1.24065 0 8 -1.24065 1
gene 3 4 7 0.591468 0 9 0.591468 1
gene 1 5 7 0.650602 0 10 0.650602 1
genomeend 112

/* Organism #113 Fitness: 18 Error: 0 */
genomestart 113
node 1 1 1 3
node 2 1 1 1
node 3 3 1 1
node 4 2 1 1
node 5 3 1 1
node 6 1 0 2
node 7 3 0 2
gene 2 1 6 0.235334 0 1 0.235334 1
gene 2 2 6 -0.045306 0 2 -0.045306 1
gene 1 3 6 0.381477 0 3 0.381477 1
gene 3 4 6 -0.895218 0 4 -0.895218 1
gene 3 5 6 0.104291 0 5 0.104291 1
gene 3 1 7 0.333138 0 6 0.333138 1
gene 2 2 7 -0.102048 0 7 -0.102048 1
gene 2 3 7 0.208496 0 8 0.208496 1
gene 2 4 7 0.14743 0 9 0.14743 1
gene 1 5 7 -0.103297 0 10 -0.103297 1
genomeend 113

/* Organism #114 Fitness: 11 Error: 0 */
genomestart 114
node 1 2 1 3
node 2 1 1 1
node 3 1 1 1
node 4 3 1 1
node 5 1 1 1
node 6 2 0 2
node 7 3 0 2
gene 1 1 6 -0.198755 0 1 -0.198755 1
gene 3 2 6 -0.173855 0 2 -0.173855 1
gene 2 3 6 -0.114815 0 3 -0.114815 1
gene 1 4 6 0.353821 0 4 0.353821 1
gene 2 5 6 -0.234658 0 5 -0.234658 1
gene 3 1 7 0.493278 0 6 0.493278 1
gene 1 2 7 -0.391278 0 7 -0.391278 1
gene 1 3 7 -0.0269977 0 8 -0.0269977 1
gene 3 4 7 0.195443 0 9 0.195443 1
gene 2 5 7 0.542072 0 10 0.542072 1
genomeend 114

/* Organism #115 Fitness: 7 Error: 0 */
genomestart 115
node 1 3 1 3
node 2 2 1 1
node 3 2 1 1
node 4 3 1 1
node 5 3 1 1
node 6 1 0 2
node 7 1 0 2
gene 2 1 6 -0.61443 0 1 -0.61443 1
gene 3 2 6 0.701091 0 2 0.701091 1
gene 1 3 6 -0.446382 0 3 -0.446382 1
gene 2 4 6 -0.818389 0 4 -0.818389 1
gene 2 5 6 0.950868 0 5 0.950868 1
gene 1 1 7 -0.854173 0 6 -0.854173 1
gene 2 2 7 0.072499 0 7 0.072499 1
gene 1 3 7 0.0383757 0 8 0.0383757 1
gene 2 4 7 -0.651201 0 9 -0.651201 1
gene 1 5 7 0.476118 0 10 0.476118 1
genomeend 115

/* Organism #116 Fitness: 14 Error: 0 */
genomestart 116
node 1 3 1 3
node 2 2 1 1
node 3 2 1 1
node 4 2 1 1
node 5 1 1 1
node 6 3 0 2
node 7 1 0 2
gene 3 1 6 2.10653 0 1 2.10653 1
gene 2 2 6 -1.35097 0 2 -1.35097 1
gene 2 3 6 2.5229 0 3 2.5229 1
gene 2 4 6 -0.210546 0 4 -0.210546 1
gene 1 5 6 1.95276 0 5 1.95276 1
gene 2 1 7 1.35523 0 6 1.35523 1
gene 2 2 7 -0.846085 0 7 -0.846085 1
gene 1 3 7 0.410295 0 8 0.410295 1
gene 2 4 7 -1.43572 0 9 -1.43572 1
gene 3 5 7 -0.596721 0 10 -0.596721 1
genomeend 116

/* Organism #117 Fitness: 8 Error: 0 */
genomestart 117
node 1 2 1 3
node 2 1 1 1
node 3 2 1 1
node 4 2 1 1
node 5 2 1 1
node 6 2 0 2
node 7 2 0 2
gene 2 1 6 -1.48856 0 1 -1.48856 1
gene 3 2 6 -2.32991 0 2 -2.32991 1
gene 2 3 6 -0.344733 0 3 -0.344733 1
gene 3 4 6 -1.22226 0 4 -1.22226 1
gene 2 5 6 0.994508 0 5 0.994508 1
gene 3 1 7 1.04842 0 6 1.04842 1
gene 3 2 7 -0.626093 0 7 -0.626093 1
gene 2 3 7 2.28005 0 8 2.28005 1
gene 2 4 7 0.377916 0 9 0.377916 1
gene 3 5 7 -0.810414 0 10 -0.810414 1
genomeend 117

/* Organism #118 Fitness: 11 Error: 0 */
genomestart 118
node 1 1 1 3
node 2 2 1 1
node 3 1 1 1
node 4 2 1 1
node 5 1 1 1
node 6 2 0 2
node 7 1 0 2
gene 2 1 6 -0.468083 0 1 -0.468083 1
gene 1 2 6 -0.304037 0 2 -0.304037 1
gene 2 3 6 -0.325496 0 3 -0.325496 1
gene 2 4 6 0.578844 0 4 0.578844 1
gene 3 5 6 -0.514355 0 5 -0.514355 1
gene 2 1 7 -0.463594 0 6 -0.463594 1
gene 1 2 7 0.569404 0 7 0.569404 1
gene 1 3 7 -0.441281 0 8 -0.441281 1
gene 2 4 7 -0.0283267 0 9 -0.0283267 1
gene 3 5 7 0.435198 0 10 0.435198 1
genomeend 118

/* Organism #119 Fitness: 9 Error: 0 */
genomestart 119
node 1 1 1 3
node 2 3 1 1
node 3 3 1 1
node 4 2 1 1
node 5 3 1 1
node 6 2 0 2
node 7 1 0 2
gene 2 1 6 0.958748 0 1 0.958748 1
gene 2 2 6 0.135328 0 2 0.135328 1
gene 2 3 6 -0.0909589 0 3 -0.0909589 1
gene 3 4 6 0.769824 0 4 0.769824 1
gene 3 5 6 -0.779501 0 5 -0.779501 1
gene 2 1 7 -0.632442 0 6 -0.632442 1
gene 1 2 7 0.77897 0 7 0.77897 1
gene 1 3 7 -0.154942 0 8 -0.154942 1
gene 1 4 7 -0.56831 0 9 -0.56831 1
gene 2 5 7 -0.109234 0 10 -0.109234 1
genomeend 119

/* Organism #120 Fitness: 13 Error: 0 */
genomestart 120
node 1 2 1 3
node 2 2 1 1
node 3 1 1 1
node 4 2 1 1
node 5 1 1 1
node 6 2 0 2
node 7 1 0 2
gene 2 1 6 -0.948792 0 1 -0.948792 1
gene 3 2 6 0.0348525 0 2 0.0348525 1
gene 1 3 6 -0.137476 0 3 -0.137476 1
gene 1 4 6 0.839795 0 4 0.839795 1
gene 3 5 6 -0.779501 0 5 -0.779501 1
gene 2 1 7 -0.98546 0 6 -0.98546 1
gene 2 2 7 0.413466 0 7 0.413466 1
gene 1 3 7 -0.694788 0 8 -0.694788 1
gene 1 4 7 -0.56831 0 9 -0.56831 1
gene 3 5 7 -0.800324 0 10 -0.800324 1
genomeend 120

/* Organism #121 Fitness: 99 Error: 0 */
genomestart 121
node 1 3 1 3
node 2 2 1 1
node 3 3 1 1
node 4 1 1 1
node 5 1 1 1
node 6 1 0 2
node 7 1 0 2
gene 2 1 6 0.562734 0 1 0.562734 1
gene 1 2 6 -0.431494 0 2 -0.431494 1
gene 3 3 6 0.728665 0 3 0.728665 1
gene 2 4 6 -0.51879 0 4 -0.51879 1
gene 1 5 6 -0.330313 0 5 -0.330313 1
gene 1 1 7 -0.0840409 0 6 -0.0840409 1
gene 3 2 7 -0.786887 0 7 -0.786887 1
gene 2 3 7 -0.351464 0 8 -0.351464 1
gene 1 4 7 0.548675 0 9 0.548675 1
gene 1 5 7 0.846278 0 10 0.846278 1
genomeend 121

/* Organism #122 Fitness: 11 Error: 0 */
genomestart 122
node 1 3 1 3
node 2 2 1 1
node 3 2 1 1
node 4 3 1 1
node 5 3 1 1
node 6 1 0 2
node 7 1 0 2
gene 2 1 6 -0.61443 0 1 -0.61443 1
gene 3 2 6 0.701091 0 2 0.701091 1
gene 3 3 6 -0.446382 0 3 -0.446382 1
gene 2 4 6 -0.818389 0 4 -0.818389 1
gene 2 5 6 0.950868 0 5 0.950868 1
gene 1 1 7 -0.854173 0 6 -0.854173 1
gene 2 2 7 0.072499 0 7 0.072499 1
gene 1 3 7 0.0383757 0 8 0.0383757 1
gene 2 4 7 -0.651201 0 9 -0.651201 1
gene 1 5 7 0.476118 0 10 0.476118 1
gene 3 7 7 0.215191 1 16 0.215191 1
genomeend 122

/* Organism #123 Fitness: 1 Error: 0 */
genomestart 123
node 1 1 1 3
node 2 2 1 1
node 3 1 1 1
node 4 3 1 1
node 5 3 1 1
node 6 1 0 2
node 7 2 0 2
gene 2 1 6 -0.884444 0 1 -0.884444 1
gene 2 2 6 -0.648282 0 2 -0.648282 1
gene 2 3 6 0.0206121 0 3 0.0206121 1
gene 2 4 6 0.358804 0 4 0.358804 1
gene 2 5 6 -0.149907 0 5 -0.149907 1
gene 1 1 7 0.436053 0 6 0.436053 1
gene 1 2 7 -0.0869527 0 7 -0.0869527 1
gene 1 3 7 -0.873503 0 8 -0.873503 1
gene 1 4 7 -0.510861 0 9 -0.510861 1
gene 3 5 7 0.139005 0 10 0.139005 1
gene 3 6 6 0.624772 1 17 0.624772 1
genomeend 123

/* Organism #124 Fitness: 8 Error: 0 */
genomestart 124
node 1 3 1 3
node 2 3 1 1
node 3 2 1 1
node 4 2 1 1
node 5 3 1 1
node 6 1 0 2
node 7 3 0 2
gene 1 1 6 0.261578 0 1 0.261578 1
gene 1 2 6 -0.472132 0 2 -0.472132 1
gene 2 3 6 -0.121735 0 3 -0.121735 1
gene 2 4 6 -0.515848 0 4 -0.515848 1
gene 3 5 6 -0.767742 0 5 -0.767742 1
gene 3 1 7 -0.467732 0 6 -0.467732 1
gene 1 2 7 0.0255752 0 7 0.0255752 1
gene 1 3 7 -0.694561 0 8 -0.694561 1
gene 2 4 7 0.815991 0 9 0.815991 1
gene 2 5 7 0.65732 0 10 0.65732 1
gene 3 7 6 0.370768 0 11 0 1
genomeend 124

/* Organism #125 Fitness: 24 Error: 0 */
genomestart 125
node 1 1 1 3
node 2 2 1 1
node 3 2 1 1
node 4 1 1 1
node 5 1 1 1
node 6 2 0 2
node 7 2 0 2
gene 1 1 6 0.964493 0 1 0.964493 1
gene 2 2 6 -1.42626 0 2 -1.42626 1
gene 3 3 6 2.3598 0 3 2.3598 1
gene 1 4 6 0.414345 0 4 0.414345 1
gene 3 5 6 -0.943873 0 5 -0.943873 1
gene 2 1 7 -0.388645 0 6 -0.388645 1
gene 3 2 7 -0.513729 0 7 -0.513729 1
gene 1 3 7 0.246758 0 8 0.246758 1
gene 2 4 7 1.35048 0 9 1.35048 1
gene 2 5 7 1.53457 0 10 1.53457 1
genomeend 125

/* Organism #126 Fitness: 14 Error: 0 */
genomestart 126
node 1 2 1 3
node 2 3 1 1
node 3 3 1 1
node 4 1 1 1
node 5 3 1 1
node 6 3 0 2
node 7 1 0 2
gene 1 1 6 -1.82449 0 1 -1.82449 1
gene 2 2 6 0.485396 0 2 0.485396 1
gene 3 3 6 0.720524 0 3 0.720524 1
gene 1 4 6 -0.791157 0 4 -0.791157 1
gene 2 5 6 1.02578 0 5 1.02578 1
gene 1 1 7 -0.969786 0 6 -0.969786 1
gene 3 2 7 1.74235 0 7 1.74235 1
gene 2 3 7 -0.983229 0 8 -0.983229 1
gene 2 4 7 2.81151 0 9 2.81151 1
gene 1 5 7 -1.61067 0 10 -1.61067 1
genomeend 126

/* Organism #127 Fitness: 19 Error: 0 */
genomestart 127
node 1 3 1 3
node 2 2 1 1
node 3 3 1 1
node 4 3 1 1
node 5 1 1 1
node 6 1 0 2
node 7 3 0 2
gene 2 1 6 0.609107 0 1 0.609107 1
gene 1 2 6 -0.552802 0 2 -0.552802 1
gene 1 3 6 -0.0373861 0 3 -0.0373861 1
gene 1 4 6 0.832498 0 4 0.832498 1
gene 2 5 6 -0.445512 0 5 -0.445512 1
gene 3 1 7 -0.998301 0 6 -0.998301 1
gene 1 2 7 0.789998 0 7 0.789998 1
gene 3 3 7 0.174585 0 8 0.174585 1
gene 2 4 7 0.10028 0 9 0.10028 1
gene 3 5 7 -0.308932 0 10 -0.308932 1
genomeend 127

/* Organism #128 Fitness: 8 Error: 0 */
genomestart 128
node 1 2 1 3
node 2 3 1 1
node 3 3 1 1
node 4 3 1 1
node 5 3 1 1
node 6 3 0 2
node 7 3 0 2
gene 1 1 6 -1.88263 0 1 -1.88263 1
gene 2 2 6 -1.1427 0 2 -1.1427 1
gene 1 3 6 -1.17304 0 3 -1.17304 1
gene 2 4 6 0.859489 0 4 0.859489 1
gene 3 5 6 -0.103279 0 5 -0.103279 1
gene 2 1 7 -1.30918 0 6 -1.30918 1
gene 2 2 7 0.648517 0 7 0.648517 1
gene 3 3 7 0.997727 0 8 0.997727 1
gene 3 4 7 1.61986 0 9 1.61986 1
gene 3 5 7 -2.29704 0 10 -2.29704 1
genomeend 128

/* Organism #129 Fitness: 5 Error: 0 */
genomestart 129
node 1 3 1 3
node 2 2 1 1
node 3 3 1 1
node 4 2 1 1
node 5 3 1 1
node 6 1 0 2
node 7 3 0 2
gene 1 1 6 -2.32567 0 1 -2.32567 1
gene 3 2 6 0.81099 0 2 0.81099 1
gene 3 3 6 1.65251 0 3 1.65251 1
gene 1 4 6 -0.201436 0 4 -0.201436 1
gene 2 5 6 -1.21313 0 5 -1.21313 1
gene 1 1 7 -0.927222 0 6 -0.927222 1
gene 1 2 7 -2.58299 0 7 -2.58299 1
gene 1 3 7 0.475977 0 8 0.475977 1
gene 1 4 7 -0.59963 0 9 -0.59963 1
gene 2 5 7 -1.53175 0 10 -1.53175 1
genomeend 129

/* Organism #130 Fitness: 7 Error: 0 */
genomestart 130
node 1 3 1 3
node 2 2 1 1
node 3 1 1 1
node 4 1 1 1
node 5 3 1 1
node 6 1 0 2
node 7 1 0 2
gene 1 1 6 -0.616356 0 1 -0.616356 1
gene 1 2 6 -0.431494 0 2 -0.431494 1
gene 1 3 6 -0.262093 0 3 -0.262093 1
gene 2 4 6 -0.463217 0 4 -0.463217 1
gene 3 5 6 0.00530868 0 5 0.00530868 1
gene 1 1 7 -0.0840409 0 6 -0.0840409 1
gene 1 2 7 0.56137 0 7 0.56137 1
gene 2 3 7 -0.351464 0 8 -0.351464 1
gene 1 4 7 0.83834 0 9 0.83834 1
gene 1 5 7 0.846278 0 10 0.846278 1
genomeend 130

/* Organism #131 Fitness: 8 Error: 0 */
genomestart 131
node 1 1 1 3
node 2 2 1 1
node 3 3 1 1
node 4 1 1 1
node 5 1 1 1
node 6 1 0 2
node 7 1 0 2
gene 3 1 6 -0.680218 0 1 -0.680218 1
gene 1 2 6 -1.65612 0 2 -1.65612 1
gene 2 3 6 -0.25846 0 3 -0.25846 1
gene 1 4 6 2.0872 0 4 2.0872 1
gene 2 5 6 0.0738004 0 5 0.0738004 1
gene 3 1 7 0.765532 0 6 0.765532 1
gene 2 2 7 -1.01341 0 7 -1.01341 1
gene 2 3 7 -1.78102 0 8 -1.78102 1
gene 3 4 7 -0.728927 0 9 -0.728927 1
gene 2 5 7 -1.74403 0 10 -1.74403 1
genomeend 131

/* Organism #132 Fitness: 31 Error: 0 */
genomestart 132
node 1 3 1 3
node 2 3 1 1
node 3 2 1 1
node 4 3 1 1
node 5 1 1 1
node 6 1 0 2
node 7 3 0 2
gene 2 1 6 0.518249 0 1 0.518249 1
gene 2 2 6 0.336586 0 2 0.336586 1
gene 1 3 6 0.945914 0 3 0.945914 1
gene 3 4 6 -0.98272 0 4 -0.98272 1
gene 1 5 6 -0.330313 0 5 -0.330313 1
gene 1 1 7 -0.0840409 0 6 -0.0840409 1
gene 2 2 7 0.67414 0 7 0.67414 1
gene 2 3 7 -0.351464 0 8 -0.351464 1
gene 1 4 7 0.548675 0 9 0.548675 1
gene 1 5 7 0.846278 0 10 0.846278 1
genomeend 132

/* Organism #133 Fitness: 274 Error: 0 */
genomestart 133
node 1 3 1 3
node 2 1 1 1
node 3 3 1 1
node 4 1 1 1
node 5 1 1 1
node 6 1 0 2
node 7 3 0 2
gene 3 1 6 0.706513 0 1 0.706513 1
gene 2 2 6 -0.161456 0 2 -0.161456 1
gene 3 3 6 0.246708 0 3 0.246708 1
gene 2 4 6 -0.421258 0 4 -0.421258 1
gene 3 5 6 0.0663618 0 5 0.0663618 1
gene 2 1 7 -0.314143 0 6 -0.314143 1
gene 3 2 7 -0.236048 0 7 -0.236048 1
gene 3 3 7 0.270726 0 8 0.270726 1
gene 1 4 7 0.912179 0 9 0.912179 1
gene 3 5 7 0.387356 0 10 0.387356 1
genomeend 133

/* Organism #134 Fitness: 17 Error: 0 */
genomestart 134
node 1 1 1 3
node 2 2 1 1
node 3 1 1 1
node 4 3 1 1
node 5 3 1 1
node 6 1 0 2
node 7 2 0 2
gene 2 1 6 -0.988346 0 1 -0.988346 1
gene 1 2 6 -0.504387 0 2 -0.504387 1
gene 2 3 6 0.671458 0 3 0.671458 1
gene 1 4 6 0.458073 0 4 0.458073 1
gene 2 5 6 -0.171946 0 5 -0.171946 1
gene 1 1 7 0.417383 0 6 0.417383 1
gene 1 2 7 -0.43727 0 7 -0.43727 1
gene 3 3 7 -0.796005 0 8 -0.796005 1
gene 1 4 7 -0.669079 0 9 -0.669079 1
gene 3 5 7 0.163957 0 10 0.163957 1
gene 3 7 6 0.370768 0 11 0 1
genomeend 134

/* Organism #135 Fitness: 12 Error: 0 */
genomestart 135
node 1 3 1 3
node 2 2 1 1
node 3 2 1 1
node 4 3 1 1
node 5 3 1 1
node 6 1 0 2
node 7 1 0 2
gene 2 1 6 1.06845 0 1 1.06845 1
gene 3 2 6 -1.28931 0 2 -1.28931 1
gene 3 3 6 -0.446382 0 3 -0.446382 1
gene 2 4 6 -2.00242 0 4 -2.00242 1
gene 2 5 6 2.79479 0 5 2.79479 1
gene 1 1 7 -0.0832262 0 6 -0.0832262 1
gene 2 2 7 1.54402 0 7 1.54402 1
gene 1 3 7 -0.816257 0 8 -0.816257 1
gene 2 4 7 1.16825 0 9 1.16825 1
gene 1 5 7 0.476118 0 10 0.476118 1
genomeend 135

/* Organism #136 Fitness: 6 Error: 0 */
genomestart 136
node 1 1 1 3
node 2 3 1 1
node 3 3 1 1
node 4 2 1 1
node 5 3 1 1
node 6 2 0 2
node 7 1 0 2
gene 3 1 6 1.78316 0 1 1.78316 1
gene 3 2 6 0.0798264 0 2 0.0798264 1
gene 2 3 6 2.0335 0 3 2.0335 1
gene 3 4 6 -1.49935 0 4 -1.49935 1
gene 3 5 6 2.33396 0 5 2.33396 1
gene 1 1 7 -2.03846 0 6 -2.03846 1
gene 2 2 7 1.9716 0 7 1.9716 1
gene 3 3 7 -1.23716 0 8 -1.23716 1
gene 3 4 7 -1.02138 0 9 -1.02138 1
gene 2 5 7 -0.0852182 0 10 -0.0852182 1
genomeend 136

/* Organism #137 Fitness: 5 Error: 0 */
genomestart 137
node 1 3 1 3
node 2 3 1 1
node 3 2 1 1
node 4 2 1 1
node 5 1 1 1
node 6 3 0 2
node 7 1 0 2
gene 1 1 6 -2.68643 0 1 -2.68643 1
gene 1 2 6 0.788652 0 2 0.788652 1
gene 1 3 6 -0.550305 0 3 -0.550305 1
gene 1 4 6 -2.61271 0 4 -2.61271 1
gene 1 5 6 0.0613232 0 5 0.0613232 1
gene 2 1 7 0.512614 0 6 0.512614 1
gene 1 2 7 -0.787665 0 7 -0.787665 1
gene 1 3 7 1.80343 0 8 1.80343 1
gene 2 4 7 -0.343812 0 9 -0.343812 1
gene 2 5 7 0.323821 0 10 0.323821 1
genomeend 137

/* Organism #138 Fitness: 21 Error: 0 */
genomestart 138
node 1 3 1 3
node 2 2 1 1
node 3 3 1 1
node 4 2 1 1
node 5 3 1 1
node 6 1 0 2
node 7 3 0 2
gene 1 1 6 -0.569688 0 1 -0.569688 1
gene 3 2 6 1.38166 0 2 1.38166 1
gene 3 3 6 2.3504 0 3 2.3504 1
gene 1 4 6 1.32388 0 4 1.32388 1
gene 3 5 6 -2.52509 0 5 -2.52509 1
gene 1 1 7 0.205845 0 6 0.205845 1
gene 1 2 7 1.92375 0 7 1.92375 1
gene 1 3 7 0.620341 0 8 0.620341 1
gene 1 4 7 0.264965 0 9 0.264965 1
gene 2 5 7 -0.268042 0 10 -0.268042 1
genomeend 138

/* Organism #139 Fitness: 12 Error: 0 */
genomestart 139
node 1 1 1 3
node 2 3 1 1
node 3 1 1 1
node 4 1 1 1
node 5 3 1 1
node 6 2 0 2
node 7 1 0 2
gene 3 1 6 0.945526 0 1 0.945526 1
gene 3 2 6 -0.67645 0 2 -0.67645 1
gene 1 3 6 0.284942 0 3 0.284942 1
gene 3 4 6 -0.77297 0 4 -0.77297 1
gene 3 5 6 -0.881163 0 5 -0.881163 1
gene 1 1 7 0.107933 0 6 0.107933 1
gene 2 2 7 -0.871086 0 7 -0.871086 1
gene 2 3 7 -0.619091 0 8 -0.619091 1
gene 2 4 7 -0.560765 0 9 -0.560765 1
gene 3 5 7 -0.0519973 0 10 -0.0519973 1
genomeend 139

/* Organism #140 Fitness: 9 Error: 0 */
genomestart 140
node 1 1 1 3
node 2 1 1 1
node 3 3 1 1
node 4 2 1 1
node 5 3 1 1
node 6 1 0 2
node 7 3 0 2
gene 3 1 6 -0.491739 0 1 -0.491739 1
gene 1 2 6 -1.36716 0 2 -1.36716 1
gene 3 3 6 0.58817 0 3 0.58817 1
gene 2 4 6 -0.219925 0 4 -0.219925 1
gene 2 5 6 0.368595 0 5 0.368595 1
gene 2 1 7 0.746376 0 6 0.746376 1
gene 3 2 7 -2.78728 0 7 -2.78728 1
gene 1 3 7 0.560871 0 8 0.560871 1
gene 2 4 7 1.40192 0 9 1.40192 1
gene 3 5 7 -0.378957 0 10 -0.378957 1
genomeend 140

/* Organism #141 Fitness: 3 Error: 0 */
genomestart 141
node 1 2 1 3
node 2 1 1 1
node 3 2 1 1
node 4 2 1 1
node 5 2 1 1
node 6 2 0 2
node 7 2 0 2
gene 2 1 6 0.265517 0 1 0.265517 1
gene 2 2 6 -0.571933 0 2 -0.571933 1
gene 1 3 6 -0.286735 0 3 -0.286735 1
gene 3 4 6 0.087458 0 4 0.087458 1
gene 3 5 6 0.476483 0 5 0.476483 1
gene 2 1 7 -0.811062 0 6 -0.811062 1
gene 3 2 7 0.0181209 0 7 0.0181209 1
gene 2 3 7 0.224564 0 8 0.224564 1
gene 3 4 7 0.911619 0 9 0.911619 1
gene 3 5 7 0.990724 0 10 0.990724 1
genomeend 141

/* Organism #142 Fitness: 16 Error: 0 */
genomestart 142
node 1 2 1 3
node 2 1 1 1
node 3 3 1 1
node 4 2 1 1
node 5 1 1 1
node 6 3 0 2
node 7 2 0 2
gene 1 1 6 0.288618 0 1 0.288618 1
gene 3 2 6 0.316946 0 2 0.316946 1
gene 1 3 6 -0.0373861 0 3 -0.0373861 1
gene 1 4 6 0.832498 0 4 0.832498 1
gene 2 5 6 -0.518007 0 5 -0.518007 1
gene 3 1 7 -0.998301 0 6 -0.998301 1
gene 1 2 7 0.789998 0 7 0.789998 1
gene 1 3 7 -0.319436 0 8 -0.319436 1
gene 3 4 7 0.366211 0 9 0.366211 1
gene 1 5 7 -0.216756 0 10 -0.216756 1
gene 1 6 7 -0.585038 0 14 0 1
genomeend 142

/* Organism #143 Fitness: 4 Error: 0 */
genomestart 143
node 1 3 1 3
node 2 3 1 1
node 3 1 1 1
node 4 2 1 1
node 5 1 1 1
node 6 3 0 2
node 7 1 0 2
gene 1 1 6 -2.50819 0 1 -2.50819 1
gene 1 2 6 0.35663 0 2 0.35663 1
gene 1 3 6 1.77941 0 3 1.77941 1
gene 1 4 6 -2.30819 0 4 -2.30819 1
gene 1 5 6 -1.07694 0 5 -1.07694 1
gene 2 1 7 -1.97598 0 6 -1.97598 1
gene 1 2 7 1.28622 0 7 1.28622 1
gene 1 3 7 1.24921 0 8 1.24921 1
gene 2 4 7 0.368789 0 9 0.368789 1
gene 2 5 7 0.830241 0 10 0.830241 1
genomeend 143

/* Organism #144 Fitness: 9 Error: 0 */
genomestart 144
node 1 3 1 3
node 2 2 1 1
node 3 3 1 1
node 4 2 1 1
node 5 1 1 1
node 6 2 0 2
node 7 1 0 2
gene 3 1 6 0.377722 0 1 0.377722 1
gene 2 2 6 -0.316794 0 2 -0.316794 1
gene 3 3 6 0.0624864 0 3 0.0624864 1
gene 2 4 6 0.340642 0 4 0.340642 1
gene 3 5 6 -0.423657 0 5 -0.423657 1
gene 2 1 7 -0.390938 0 6 -0.390938 1
gene 3 2 7 -0.496929 0 7 -0.496929 1
gene 2 3 7 -0.283663 0 8 -0.283663 1
gene 3 4 7 0.414144 0 9 0.414144 1
gene 2 5 7 0.522338 0 10 0.522338 1
gene 3 7 6 0.370768 0 11 0 1
genomeend 144

/* Organism #145 Fitness: 4 Error: 0 */
genomestart 145
node 1 3 1 3
node 2 2 1 1
node 3 3 1 1
node 4 1 1 1
node 5 1 1 1
node 6 1 0 2
node 7 1 0 2
gene 2 1 6 -0.970479 0 1 -0.970479 1
gene 3 2 6 2.77355 0 2 2.77355 1
gene 1 3 6 0.787595 0 3 0.787595 1
gene 2 4 6 -1.87864 0 4 -1.87864 1
gene 1 5 6 1.24764 0 5 1.24764 1
gene 1 1 7 -1.27841 0 6 -1.27841 1
gene 2 2 7 1.64937 0 7 1.64937 1
gene 2 3 7 0.172942 0 8 0.172942 1
gene 3 4 7 2.49554 0 9 2.49554 1
gene 3 5 7 0.867991 0 10 0.867991 1
genomeend 145

/* Organism #146 Fitness: 4 Error: 0 */
genomestart 146
node 1 1 1 3
node 2 2 1 1
node 3 2 1 1
node 4 1 1 1
node 5 1 1 1
node 6 2 0 2
node 7 2 0 2
gene 1 1 6 -0.277773 0 1 -0.277773 1
gene 2 2 6 1.68907 0 2 1.68907 1
gene 1 3 6 -0.597899 0 3 -0.597899 1
gene 1 4 6 0.166246 0 4 0.166246 1
gene 3 5 6 1.37532 0 5 1.37532 1
gene 2 1 7 1.87816 0 6 1.87816 1
gene 3 2 7 -2.31602 0 7 -2.31602 1
gene 1 3 7 -1.42254 0 8 -1.42254 1
gene 2 4 7 1.18093 0 9 1.18093 1
gene 2 5 7 -0.148903 0 10 -0.148903 1
genomeend 146

/* Organism #147 Fitness: 6 Error: 0 */
genomestart 147
node 1 3 1 3
node 2 2 1 1
node 3 3 1 1
node 4 2 1 1
node 5 3 1 1
node 6 1 0 2
node 7 3 0 2
gene 1 1 6 1.60507 0 1 1.60507 1
gene 3 2 6 0.252526 0 2 0.252526 1
gene 3 3 6 0.627468 0 3 0.627468 1
gene 1 4 6 -1.19129 0 4 -1.19129 1
gene 2 5 6 -1.39214 0 5 -1.39214 1
gene 1 1 7 -0.511366 0 6 -0.511366 1
gene 3 2 7 -1.5101 0 7 -1.5101 1
gene 2 3 7 -1.62595 0 8 -1.62595 1
gene 1 4 7 1.6535 0 9 1.6535 1
gene 2 5 7 -2.0657 0 10 -2.0657 1
genomeend 147

/* Organism #148 Fitness: 10 Error: 0 */
genomestart 148
node 1 3 1 3
node 2 2 1 1
node 3 3 1 1
node 4 1 1 1
node 5 1 1 1
node 6 1 0 2
node 7 1 0 2
gene 2 1 6 3.22448 0 1 3.22448 1
gene 1 2 6 -0.52112 0 2 -0.52112 1
gene 3 3 6 -0.0875507 0 3 -0.0875507 1
gene 2 4 6 -0.660681 0 4 -0.660681 1
gene 1 5 6 1.23347 0 5 1.23347 1
gene 2 1 7 -1.26869 0 6 -1.26869 1
gene 3 2 7 -2.87854 0 7 -2.87854 1
gene 2 3 7 0.331515 0 8 0.331515 1
gene 2 4 7 2.43676 0 9 2.43676 1
gene 1 5 7 0.434412 0 10 0.434412 1
genomeend 148

/* Organism #149 Fitness: 9 Error: 0 */
genomestart 149
node 1 3 1 3
node 2 3 1 1
node 3 3 1 1
node 4 2 1 1
node 5 3 1 1
node 6 2 0 2
node 7 1 0 2
gene 2 1 6 -0.948792 0 1 -0.948792 1
gene 3 2 6 0.0348525 0 2 0.0348525 1
gene 1 3 6 0.134864 0 3 0.134864 1
gene 2 4 6 0.407147 0 4 0.407147 1
gene 2 5 6 0.0313776 0 5 0.0313776 1
gene 2 1 7 -0.632442 0 6 -0.632442 1
gene 1 2 7 0.77897 0 7 0.77897 1
gene 1 3 7 -0.154942 0 8 -0.154942 1
gene 1 4 7 -0.56831 0 9 -0.56831 1
gene 2 5 7 0.431397 0 10 0.431397 1
genomeend 149

/* Organism #150 Fitness: 6 Error: 0 */
genomestart 150
node 1 2 1 3
node 2 2 1 1
node 3 3 1 1
node 4 3 1 1
node 5 2 1 1
node 6 3 0 2
node 7 2 0 2
gene 2 1 6 -0.497377 0 1 -0.497377 1
gene 3 2 6 1.0642 0 2 1.0642 1
gene 2 3 6 0.314425 0 3 0.314425 1
gene 3 4 6 1.31398 0 4 1.31398 1
gene 1 5 6 -1.35019 0 5 -1.35019 1
gene 1 1 7 -0.309 0 6 -0.309 1
gene 1 2 7 0.490169 0 7 0.490169 1
gene 3 3 7 2.24308 0 8 2.24308 1
gene 2 4 7 1.52996 0 9 1.52996 1
gene 3 5 7 -2.60903 0 10 -2.60903 1
genomeend 150

/* Organism #151 Fitness: 18 Error: 0 */
genomestart 151
node 1 3 1 3
node 2 2 1 1
node 3 3 1 1
node 4 2 1 1
node 5 1 1 1
node 6 2 0 2
node 7 1 0 2
gene 1 1 6 1.45524 0 1 1.45524 1
gene 1 2 6 -1.38798 0 2 -1.38798 1
gene 2 3 6 1.13331 0 3 1.13331 1
gene 2 4 6 -0.488898 0 4 -0.488898 1
gene 3 5 6 -2.04271 0 5 -2.04271 1
gene 3 1 7 -0.375646 0 6 -0.375646 1
gene 2 2 7 -1.16553 0 7 -1.16553 1
gene 3 3 7 -2.30613 0 8 -2.30613 1
gene 2 4 7 1.56473 0 9 1.56473 1
gene 3 5 7 1.8746 0 10 1.8746 1
genomeend 151

/* Organism #152 Fitness: 9 Error: 0 */
genomestart 152
node 1 3 1 3
node 2 2 1 1
node 3 3 1 1
node 4 2 1 1
node 5 3 1 1
node 6 1 0 2
node 7 3 0 2
gene 1 1 6 0.116595 0 1 0.116595 1
gene 2 2 6 0.613361 0 2 0.613361 1
gene 3 3 6 -0.508922 0 3 -0.508922 1
gene 1 4 6 0.596912 0 4 0.596912 1
gene 2 5 6 -0.38036 0 5 -0.38036 1
gene 1 1 7 0.252747 0 6 0.252747 1
gene 1 2 7 -0.183838 0 7 -0.183838 1
gene 2 3 7 0.296704 0 8 0.296704 1
gene 1 4 7 -0.59963 0 9 -0.59963 1
gene 3 5 7 -0.448391 0 10 -0.448391 1
gene 3 7 6 0.370768 0 11 0 1
genomeend 152

/* Organism #153 Fitness: 14 Error: 0 */
genomestart 153
node 1 3 1 3
node 2 2 1 1
node 3 1 1 1
node 4 1 1 1
node 5 2 1 1
node 6 1 0 2
node 7 1 0 2
gene 2 1 6 -0.953935 0 1 -0.953935 1
gene 2 2 6 0.857345 0 2 0.857345 1
gene 3 3 6 -0.723473 0 3 -0.723473 1
gene 3 4 6 -0.373482 0 4 -0.373482 1
gene 1 5 6 0.29549 0 5 0.29549 1
gene 1 1 7 -0.617927 0 6 -0.617927 1
gene 2 2 7 0.0491101 0 7 0.0491101 1
gene 3 3 7 0.191724 0 8 0.191724 1
gene 2 4 7 -0.227395 0 9 -0.227395 1
gene 3 5 7 -0.39837 0 10 -0.39837 1
genomeend 153

/* Organism #154 Fitness: 7 Error: 0 */
genomestart 154
node 1 1 1 3
node 2 3 1 1
node 3 1 1 1
node 4 1 1 1
node 5 3 1 1
node 6 2 0 2
node 7 1 0 2
gene 3 1 6 -0.191593 0 1 -0.191593 1
gene 3 2 6 0.497866 0 2 0.497866 1
gene 3 3 6 -0.448636 0 3 -0.448636 1
gene 1 4 6 0.389103 0 4 0.389103 1
gene 2 5 6 -0.388115 0 5 -0.388115 1
gene 1 1 7 0.107933 0 6 0.107933 1
gene 2 2 7 -0.871086 0 7 -0.871086 1
gene 1 3 7 0.993639 0 8 0.993639 1
gene 2 4 7 -0.560765 0 9 -0.560765 1
gene 3 5 7 -0.0519973 0 10 -0.0519973 1
genomeend 154

/* Organism #155 Fitness: 9 Error: 0 */
genomestart 155
node 1 3 1 3
node 2 2 1 1
node 3 3 1 1
node 4 1 1 1
node 5 1 1 1
node 6 1 0 2
node 7 1 0 2
gene 2 1 6 -0.405505 0 1 -0.405505 1
gene 1 2 6 -0.763983 0 2 -0.763983 1
gene 3 3 6 -1.30335 0 3 -1.30335 1
gene 2 4 6 0.48804 0 4 0.48804 1
gene 1 5 6 -0.727036 0 5 -0.727036 1
gene 1 1 7 -0.0840409 0 6 -0.0840409 1
gene 3 2 7 -1.83397 0 7 -1.83397 1
gene 2 3 7 -1.02464 0 8 -1.02464 1
gene 1 4 7 -1.80196 0 9 -1.80196 1
gene 1 5 7 0.846278 0 10 0.846278 1
genomeend 155

/* Organism #156 Fitness: 4 Error: 0 */
genomestart 156
node 1 1 1 3
node 2 1 1 1
node 3 1 1 1
node 4 2 1 1
node 5 1 1 1
node 6 3 0 2
node 7 2 0 2
gene 2 1 6 0.0342091 0 1 0.0342091 1
gene 1 2 6 -0.552802 0 2 -0.552802 1
gene 1 3 6 -0.265945 0 3 -0.265945 1
gene 1 4 6 2.80875 0 4 2.80875 1
gene 2 5 6 1.52232 0 5 1.52232 1
gene 2 1 7 2.81778 0 6 2.81778 1
gene 3 2 7 -0.601706 0 7 -0.601706 1
gene 1 3 7 0.37697 0 8 0.37697 1
gene 2 4 7 1.36938 0 9 1.36938 1
gene 3 5 7 -0.308932 0 10 -0.308932 1
genomeend 156

/* Organism #157 Fitness: 8 Error: 0 */
genomestart 157
node 1 1 1 3
node 2 1 1 1
node 3 2 1 1
node 4 2 1 1
node 5 2 1 1
node 6 3 0 2
node 7 2 0 2
gene 1 1 6 -0.20233 0 1 -0.20233 1
gene 1 2 6 0.393885 0 2 0.393885 1
gene 1 3 6 -2.99321 0 3 -2.99321 1
gene 2 4 6 0.863888 0 4 0.863888 1
gene 2 5 6 -0.633416 0 5 -0.633416 1
gene 1 1 7 0.158573 0 6 0.158573 1
gene 3 2 7 -2.23991 0 7 -2.23991 1
gene 1 3 7 -2.27259 0 8 -2.27259 1
gene 3 4 7 2.14263 0 9 2.14263 1
gene 3 5 7 -1.64299 0 10 -1.64299 1
genomeend 157

/* Organism #158 Fitness: 5 Error: 0 */
genomestart 158
node 1 1 1 3
node 2 1 1 1
node 3 2 1 1
node 4 2 1 1
node 5 2 1 1
node 6 3 0 2
node 7 2 0 2
gene 1 1 6 -0.20233 0 1 -0.20233 1
gene 1 2 6 0.444302 0 2 0.444302 1
gene 3 3 6 0.911228 0 3 0.911228 1
gene 2 4 6 0.860076 0 4 0.860076 1
gene 2 5 6 0.101292 0 5 0.101292 1
gene 2 1 7 -0.927349 0 6 -0.927349 1
gene 3 2 7 -0.783477 0 7 -0.783477 1
gene 1 3 7 -0.826485 0 8 -0.826485 1
gene 3 4 7 0.388525 0 9 0.388525 1
gene 3 5 7 -0.868164 0 10 -0.868164 1
gene 1 6 7 -0.585038 0 14 0 1
genomeend 158

/* Organism #159 Fitness: 10 Error: 0 */
genomestart 159
node 1 3 1 3
node 2 2 1 1
node 3 3 1 1
node 4 2 1 1
node 5 1 1 1
node 6 2 0 2
node 7 1 0 2
gene 1 1 6 1.22189 0 1 1.22189 1
gene 1 2 6 -0.742359 0 2 -0.742359 1
gene 2 3 6 2.37602 0 3 2.37602 1
gene 2 4 6 -2.61303 0 4 -2.61303 1
gene 3 5 6 2.43221 0 5 2.43221 1
gene 3 1 7 -1.22957 0 6 -1.22957 1
gene 1 2 7 -1.67881 0 7 -1.67881 1
gene 3 3 7 -0.160474 0 8 -0.160474 1
gene 1 4 7 0.382746 0 9 0.382746 1
gene 3 5 7 0.676347 0 10 0.676347 1
genomeend 159

/* Organism #160 Fitness: 11 Error: 0 */
genomestart 160
node 1 1 1 3
node 2 3 1 1
node 3 3 1 1
node 4 2 1 1
node 5 3 1 1
node 6 2 0 2
node 7 1 0 2
gene 3 1 6 0.726308 0 1 0.726308 1
gene 2 2 6 -0.406904 0 2 -0.406904 1
gene 2 3 6 -0.837437 0 3 -0.837437 1
gene 3 4 6 -1.02348 0 4 -1.02348 1
gene 1 5 6 -1.5003 0 5 -1.5003 1
gene 2 1 7 2.30857 0 6 2.30857 1
gene 2 2 7 -2.06645 0 7 -2.06645 1
gene 1 3 7 0.276632 0 8 0.276632 1
gene 3 4 7 -0.190621 0 9 -0.190621 1
gene 2 5 7 0.589816 0 10 0.589816 1
genomeend 160

/* Organism #161 Fitness: 7 Error: 0 */
genomestart 161
node 1 2 1 3
node 2 2 1 1
node 3 3 1 1
node 4 2 1 1
node 5 1 1 1
node 6 1 0 2
node 7 1 0 2
gene 3 1 6 -2.68112 0 1 -2.68112 1
gene 1 2 6 0.325212 0 2 0.325212 1
gene 2 3 6 1.46394 0 3 1.46394 1
gene 2 4 6 0.50926 0 4 0.50926 1
gene 1 5 6 -1.84501 0 5 -1.84501 1
gene 1 1 7 1.82748 0 6 1.82748 1
gene 1 2 7 1.45459 0 7 1.45459 1
gene 2 3 7 1.1873 0 8 1.1873 1
gene 2 4 7 0.511657 0 9 0.511657 1
gene 3 5 7 2.72003 0 10 2.72003 1
genomeend 161

/* Organism #162 Fitness: 11 Error: 0 */
genomestart 162
node 1 2 1 3
node 2 2 1 1
node 3 3 1 1
node 4 2 1 1
node 5 1 1 1
node 6 1 0 2
node 7 3 0 2
gene 3 1 6 0.649285 0 1 0.649285 1
gene 2 2 6 -0.409764 0 2 -0.409764 1
gene 1 3 6 -0.36147 0 3 -0.36147 1
gene 1 4 6 -0.241968 0 4 -0.241968 1
gene 1 5 6 -0.564223 0 5 -0.564223 1
gene 2 1 7 0.794693 0 6 0.794693 1
gene 3 2 7 -0.601706 0 7 -0.601706 1
gene 1 3 7 -0.254444 0 8 -0.254444 1
gene 2 4 7 -0.239747 0 9 -0.239747 1
gene 1 5 7 -0.0255489 0 10 -0.0255489 1
genomeend 162

/* Organism #163 Fitness: 9 Error: 0 */
genomestart 163
node 1 3 1 3
node 2 3 1 1
node 3 3 1 1
node 4 2 1 1
node 5 3 1 1
node 6 2 0 2
node 7 1 0 2
gene 2 1 6 -0.373747 0 1 -0.373747 1
gene 3 2 6 -0.823705 0 2 -0.823705 1
gene 1 3 6 0.134864 0 3 0.134864 1
gene 3 4 6 0.876663 0 4 0.876663 1
gene 2 5 6 0.0313776 0 5 0.0313776 1
gene 1 1 7 0.918582 0 6 0.918582 1
gene 3 2 7 -0.705436 0 7 -0.705436 1
gene 3 3 7 0.0607828 0 8 0.0607828 1
gene 3 4 7 0.256335 0 9 0.256335 1
gene 2 5 7 0.917046 0 10 0.917046 1
genomeend 163

/* Organism #164 Fitness: 9 Error: 0 */
genomestart 164
node 1 2 1 3
node 2 3 1 1
node 3 2 1 1
node 4 3 1 1
node 5 3 1 1
node 6 3 0 2
node 7 3 0 2
gene 3 1 6 -0.726034 0 1 -0.726034 1
gene 3 2 6 2.28121 0 2 2.28121 1
gene 2 3 6 -0.235313 0 3 -0.235313 1
gene 2 4 6 2.07016 0 4 2.07016 1
gene 1 5 6 -0.567074 0 5 -0.567074 1
gene 3 1 7 0.795339 0 6 0.795339 1
gene 2 2 7 -1.55573 0 7 -1.55573 1
gene 1 3 7 -1.86344 0 8 -1.86344 1
gene 1 4 7 1.34568 0 9 1.34568 1
gene 3 5 7 0.255679 0 10 0.255679 1
genomeend 164

/* Organism #165 Fitness: 6 Error: 0 */
genomestart 165
node 1 3 1 3
node 2 3 1 1
node 3 3 1 1
node 4 2 1 1
node 5 3 1 1
node 6 3 0 2
node 7 1 0 2
gene 3 1 6 -0.425207 0 1 -0.425207 1
gene 1 2 6 0.752237 0 2 0.752237 1
gene 1 3 6 -0.511931 0 3 -0.511931 1
gene 2 4 6 -0.010406 0 4 -0.010406 1
gene 3 5 6 -0.230943 0 5 -0.230943 1
gene 1 1 7 -0.306211 0 6 -0.306211 1
gene 1 2 7 0.578814 0 7 0.578814 1
gene 3 3 7 -0.447262 0 8 -0.447262 1
gene 1 4 7 0.294667 0 9 0.294667 1
gene 3 5 7 0.112083 0 10 0.112083 1
genomeend 165

/* Organism #166 Fitness: 6 Error: 0 */
genomestart 166
node 1 3 1 3
node 2 2 1 1
node 3 3 1 1
node 4 3 1 1
node 5 1 1 1
node 6 2 0 2
node 7 2 0 2
gene 2 1 6 -2.35451 0 1 -2.35451 1
gene 3 2 6 0.294847 0 2 0.294847 1
gene 2 3 6 1.76585 0 3 1.76585 1
gene 1 4 6 -1.50418 0 4 -1.50418 1
gene 2 5 6 -0.159272 0 5 -0.159272 1
gene 2 1 7 -2.77457 0 6 -2.77457 1
gene 3 2 7 0.836159 0 7 0.836159 1
gene 3 3 7 -1.02063 0 8 -1.02063 1
gene 3 4 7 1.09189 0 9 1.09189 1
gene 1 5 7 -0.930952 0 10 -0.930952 1
genomeend 166

/* Organism #167 Fitness: 14 Error: 0 */
genomestart 167
node 1 2 1 3
node 2 3 1 1
node 3 1 1 1
node 4 2 1 1
node 5 3 1 1
node 6 1 0 2
node 7 2 0 2
gene 3 1 6 0.445549 0 1 0.445549 1
gene 1 2 6 0.061616 0 2 0.061616 1
gene 3 3 6 0.350312 0 3 0.350312 1
gene 2 4 6 -0.890055 0 4 -0.890055 1
gene 2 5 6 -0.713814 0 5 -0.713814 1
gene 2 1 7 0.966071 0 6 0.966071 1
gene 1 2 7 0.848022 0 7 0.848022 1
gene 2 3 7 -0.224521 0 8 -0.224521 1
gene 2 4 7 -0.216869 0 9 -0.216869 1
gene 3 5 7 -0.620217 0 10 -0.620217 1
gene 2 7 7 0.81691 1 18 0.81691 1
genomeend 167

/* Organism #168 Fitness: 13 Error: 0 */
genomestart 168
node 1 1 1 3
node 2 3 1 1
node 3 1 1 1
node 4 3 1 1
node 5 3 1 1
node 6 2 0 2
node 7 1 0 2
gene 2 1 6 -0.605665 0 1 -0.605665 1
gene 3 2 6 0.80066 0 2 0.80066 1
gene 1 3 6 -0.346833 0 3 -0.346833 1
gene 2 4 6 0.0681014 0 4 0.0681014 1
gene 2 5 6 0.493929 0 5 0.493929 1
gene 1 1 7 -0.918258 0 6 -0.918258 1
gene 2 2 7 0.0745966 0 7 0.0745966 1
gene 1 3 7 -0.384445 0 8 -0.384445 1
gene 3 4 7 -0.439506 0 9 -0.439506 1
gene 3 5 7 -0.182154 0 10 -0.182154 1
genomeend 168

/* Organism #169 Fitness: 7 Error: 0 */
genomestart 169
node 1 3 1 3
node 2 1 1 1
node 3 2 1 1
node 4 1 1 1
node 5 2 1 1
node 6 3 0 2
node 7 3 0 2
gene 3 1 6 0.710049 0 1 0.710049 1
gene 3 2 6 0.168205 0 2 0.168205 1
gene 1 3 6 0.296885 0 3 0.296885 1
gene 2 4 6 0.24496 0 4 0.24496 1
gene 1 5 6 -0.233843 0 5 -0.233843 1
gene 1 1 7 -0.473859 0 6 -0.473859 1
gene 3 2 7 0.0583586 0 7 0.0583586 1
gene 1 3 7 0.384582 0 8 0.384582 1
gene 1 4 7 -0.356448 0 9 -0.356448 1
gene 3 5 7 0.67202 0 10 0.67202 1
genomeend 169

/* Organism #170 Fitness: 16 Error: 0 */
genomestart 170
node 1 2 1 3
node 2 1 1 1
node 3 1 1 1
node 4 3 1 1
node 5 1 1 1
node 6 2 0 2
node 7 3 0 2
gene 1 1 6 0.0975468 0 1 0.0975468 1
gene 1 2 6 -2.14048 0 2 -2.14048 1
gene 2 3 6 0.673364 0 3 0.673364 1
gene 2 4 6 0.8688 0 4 0.8688 1
gene 2 5 6 -1.05951 0 5 -1.05951 1
gene 3 1 7 0.384636 0 6 0.384636 1
gene 1 2 7 -0.167808 0 7 -0.167808 1
gene 3 3 7 1.41938 0 8 1.41938 1
gene 2 4 7 -0.0104582 0 9 -0.0104582 1
gene 3 5 7 -2.34238 0 10 -2.34238 1
genomeend 170

/* Organism #171 Fitness: 12 Error: 0 */
genomestart 171
node 1 1 1 3
node 2 3 1 1
node 3 1 1 1
node 4 3 1 1
node 5 3 1 1
node 6 2 0 2
node 7 1 0 2
gene 1 1 6 0.444781 0 1 0.444781 1
gene 2 2 6 1.05604 0 2 1.05604 1
gene 2 3 6 -1.55037 0 3 -1.55037 1
gene 2 4 6 1.78962 0 4 1.78962 1
gene 2 5 6 0.671476 0 5 0.671476 1
gene 2 1 7 -1.95449 0 6 -1.95449 1
gene 2 2 7 -1.85031 0 7 -1.85031 1
gene 1 3 7 -1.81731 0 8 -1.81731 1
gene 2 4 7 0.870419 0 9 0.870419 1
gene 3 5 7 0.392928 0 10 0.392928 1
genomeend 171

/* Organism #172 Fitness: 8 Error: 0 */
genomestart 172
node 1 3 1 3
node 2 3 1 1
node 3 2 1 1
node 4 3 1 1
node 5 1 1 1
node 6 1 0 2
node 7 3 0 2
gene 2 1 6 0.518249 0 1 0.518249 1
gene 2 2 6 0.336586 0 2 0.336586 1
gene 1 3 6 0.945914 0 3 0.945914 1
gene 3 4 6 -0.98272 0 4 -0.98272 1
gene 2 5 6 0.0369906 0 5 0.0369906 1
gene 1 1 7 -0.982342 0 6 -0.982342 1
gene 2 2 7 0.0766942 0 7 0.0766942 1
gene 2 3 7 0.326031 0 8 0.326031 1
gene 3 4 7 -0.22781 0 9 -0.22781 1
gene 3 5 7 -0.840427 0 10 -0.840427 1
genomeend 172

/* Organism #173 Fitness: 11 Error: 0 */
genomestart 173
node 1 1 1 3
node 2 3 1 1
node 3 2 1 1
node 4 1 1 1
node 5 1 1 1
node 6 3 0 2
node 7 2 0 2
gene 3 1 6 1.18976 0 1 1.18976 1
gene 2 2 6 0.498659 0 2 0.498659 1
gene 2 3 6 0.844429 0 3 0.844429 1
gene 2 4 6 -0.617381 0 4 -0.617381 1
gene 2 5 6 -0.454983 0 5 -0.454983 1
gene 3 1 7 -0.820877 0 6 -0.820877 1
gene 2 2 7 0.6071 0 7 0.6071 1
gene 2 3 7 2.72201 0 8 2.72201 1
gene 1 4 7 -0.352643 0 9 -0.352643 1
gene 3 5 7 -0.906511 0 10 -0.906511 1
genomeend 173

/* Organism #174 Fitness: 52 Error: 0 */
genomestart 174
node 1 3 1 3
node 2 2 1 1
node 3 3 1 1
node 4 2 1 1
node 5 3 1 1
node 6 1 0 2
node 7 3 0 2
gene 1 1 6 -0.191004 0 1 -0.191004 1
gene 3 2 6 1.1803 0 2 1.1803 1
gene 3 3 6 1.95899 0 3 1.95899 1
gene 1 4 6 1.17755 0 4 1.17755 1
gene 2 5 6 0.972748 0 5 0.972748 1
gene 1 1 7 -0.405042 0 6 -0.405042 1
gene 1 2 7 -1.83614 0 7 -1.83614 1
gene 1 3 7 -1.27717 0 8 -1.27717 1
gene 1 4 7 -0.0456461 0 9 -0.0456461 1
gene 2 5 7 1.17687 0 10 1.17687 1
genomeend 174

/* Organism #175 Fitness: 13 Error: 0 */
genomestart 175
node 1 3 1 3
node 2 3 1 1
node 3 3 1 1
node 4 1 1 1
node 5 3 1 1
node 6 1 0 2
node 7 1 0 2
gene 3 1 6 -0.949254 0 1 -0.949254 1
gene 3 2 6 0.0840462 0 2 0.0840462 1
gene 3 3 6 -0.717452 0 3 -0.717452 1
gene 1 4 6 -0.847732 0 4 -0.847732 1
gene 3 5 6 0.980473 0 5 0.980473 1
gene 1 1 7 0.43868 0 6 0.43868 1
gene 3 2 7 0.608349 0 7 0.608349 1
gene 1 3 7 0.712613 0 8 0.712613 1
gene 2 4 7 0.329872 0 9 0.329872 1
gene 2 5 7 -0.817896 0 10 -0.817896 1
genomeend 175

/* Organism #176 Fitness: 12 Error: 0 */
genomestart 176
node 1 3 1 3
node 2 3 1 1
node 3 3 1 1
node 4 3 1 1
node 5 2 1 1
node 6 3 0 2
node 7 3 0 2
gene 3 1 6 0.493867 0 1 0.493867 1
gene 2 2 6 -0.161456 0 2 -0.161456 1
gene 2 3 6 0.323366 0 3 0.323366 1
gene 3 4 6 -0.607003 0 4 -0.607003 1
gene 1 5 6 -0.0795716 0 5 -0.0795716 1
gene 3 1 7 0.280681 0 6 0.280681 1
gene 3 2 7 -0.236048 0 7 -0.236048 1
gene 3 3 7 -0.224476 0 8 -0.224476 1
gene 2 4 7 0.00787478 0 9 0.00787478 1
gene 3 5 7 0.387356 0 10 0.387356 1
gene 3 7 6 0.370768 0 11 0 1
genomeend 176

/* Organism #177 Fitness: 9 Error: 0 */
genomestart 177
node 1 3 1 3
node 2 3 1 1
node 3 3 1 1
node 4 2 1 1
node 5 3 1 1
node 6 3 0 2
node 7 1 0 2
gene 3 1 6 -1.71007 0 1 -1.71007 1
gene 1 2 6 2.76373 0 2 2.76373 1
gene 1 3 6 0.576308 0 3 0.576308 1
gene 1 4 6 -1.71375 0 4 -1.71375 1
gene 1 5 6 1.83368 0 5 1.83368 1
gene 1 1 7 1.08206 0 6 1.08206 1
gene 1 2 7 -1.82291 0 7 -1.82291 1
gene 2 3 7 0.572336 0 8 0.572336 1
gene 3 4 7 -0.522483 0 9 -0.522483 1
gene 1 5 7 -0.452181 0 10 -0.452181 1
genomeend 177

/* Organism #178 Fitness: 17 Error: 0 */
genomestart 178
node 1 3 1 3
node 2 1 1 1
node 3 3 1 1
node 4 1 1 1
node 5 1 1 1
node 6 1 0 2
node 7 3 0 2
gene 1 1 6 -0.0784499 0 1 -0.0784499 1
gene 3 2 6 0.968383 0 2 0.968383 1
gene 2 3 6 -0.0094249 0 3 -0.0094249 1
gene 1 4 6 -1.63014 0 4 -1.63014 1
gene 2 5 6 -1.98453 0 5 -1.98453 1
gene 1 1 7 0.499188 0 6 0.499188 1
gene 1 2 7 -3.11164 0 7 -3.11164 1
gene 3 3 7 0.523102 0 8 0.523102 1
gene 1 4 7 0.658377 0 9 0.658377 1
gene 2 5 7 0.727768 0 10 0.727768 1
genomeend 178

/* Organism #179 Fitness: 8 Error: 0 */
genomestart 179
node 1 2 1 3
node 2 3 1 1
node 3 3 1 1
node 4 1 1 1
node 5 3 1 1
node 6 3 0 2
node 7 1 0 2
gene 1 1 6 1.02757 0 1 1.02757 1
gene 1 2 6 -0.528175 0 2 -0.528175 1
gene 3 3 6 1.47507 0 3 1.47507 1
gene 1 4 6 1.89243 0 4 1.89243 1
gene 2 5 6 2.60735 0 5 2.60735 1
gene 2 1 7 1.86062 0 6 1.86062 1
gene 3 2 7 -0.315741 0 7 -0.315741 1
gene 3 3 7 -1.33148 0 8 -1.33148 1
gene 2 4 7 -0.681053 0 9 -0.681053 1
gene 3 5 7 -0.988978 0 10 -0.988978 1
genomeend 179

/* Organism #180 Fitness: 4 Error: 0 */
genomestart 180
node 1 2 1 3
node 2 2 1 1
node 3 1 1 1
node 4 2 1 1
node 5 1 1 1
node 6 1 0 2
node 7 1 0 2
gene 3 1 6 2.28154 0 1 2.28154 1
gene 1 2 6 1.08654 0 2 1.08654 1
gene 2 3 6 0.497372 0 3 0.497372 1
gene 2 4 6 -0.421258 0 4 -0.421258 1
gene 3 5 6 0.478304 0 5 0.478304 1
gene 1 1 7 -2.59659 0 6 -2.59659 1
gene 2 2 7 1.23544 0 7 1.23544 1
gene 2 3 7 -0.72762 0 8 -0.72762 1
gene 1 4 7 0.659379 0 9 0.659379 1
gene 3 5 7 2.63154 0 10 2.63154 1
genomeend 180

/* Organism #181 Fitness: 10 Error: 0 */
genomestart 181
node 1 2 1 3
node 2 3 1 1
node 3 2 1 1
node 4 3 1 1
node 5 3 1 1
node 6 3 0 2
node 7 3 0 2
gene 1 1 6 0.288618 0 1 0.288618 1
gene 3 2 6 0.719176 0 2 0.719176 1
gene 1 3 6 -0.264597 0 3 -0.264597 1
gene 1 4 6 0.896457 0 4 0.896457 1
gene 1 5 6 0.182068 0 5 0.182068 1
gene 1 1 7 -0.0535384 0 6 -0.0535384 1
gene 2 2 7 -0.486705 0 7 -0.486705 1
gene 1 3 7 0.468625 0 8 0.468625 1
gene 3 4 7 0.399946 0 9 0.399946 1
gene 3 5 7 -0.393118 0 10 -0.393118 1
genomeend 181

/* Organism #182 Fitness: 9 Error: 0 */
genomestart 182
node 1 1 1 3
node 2 3 1 1
node 3 3 1 1
node 4 2 1 1
node 5 3 1 1
node 6 2 0 2
node 7 1 0 2
gene 3 1 6 0.409545 0 1 0.409545 1
gene 2 2 6 -1.53525 0 2 -1.53525 1
gene 2 3 6 -0.360596 0 3 -0.360596 1
gene 2 4 6 -0.905354 0 4 -0.905354 1
gene 1 5 6 -1.76106 0 5 -1.76106 1
gene 1 1 7 0.348731 0 6 0.348731 1
gene 1 2 7 -1.94771 0 7 -1.94771 1
gene 1 3 7 2.16303 0 8 2.16303 1
gene 1 4 7 1.44268 0 9 1.44268 1
gene 2 5 7 0.00329995 0 10 0.00329995 1
genomeend 182

/* Organism #183 Fitness: 7 Error: 0 */
genomestart 183
node 1 1 1 3
node 2 3 1 1
node 3 1 1 1
node 4 3 1 1
node 5 3 1 1
node 6 2 0 2
node 7 1 0 2
gene 1 1 6 -0.333631 0 1 -0.333631 1
gene 1 2 6 0.0399433 0 2 0.0399433 1
gene 3 3 6 -0.190959 0 3 -0.190959 1
gene 2 4 6 0.911696 0 4 0.911696 1
gene 2 5 6 0.199973 0 5 0.199973 1
gene 1 1 7 -0.467851 0 6 -0.467851 1
gene 2 2 7 -0.0295921 0 7 -0.0295921 1
gene 2 3 7 -0.87571 0 8 -0.87571 1
gene 2 4 7 0.053317 0 9 0.053317 1
gene 3 5 7 -0.590768 0 10 -0.590768 1
genomeend 183

/* Organism #184 Fitness: 5 Error: 0 */
genomestart 184
node 1 1 1 3
node 2 3 1 1
node 3 3 1 1
node 4 2 1 1
node 5 3 1 1
node 6 2 0 2
node 7 1 0 2
gene 2 1 6 -0.0624325 0 1 -0.0624325 1
gene 2 2 6 -1.70272 0 2 -1.70272 1
gene 2 3 6 -0.282777 0 3 -0.282777 1
gene 3 4 6 0.869559 0 4 0.869559 1
gene 1 5 6 1.46357 0 5 1.46357 1
gene 1 1 7 -1.50192 0 6 -1.50192 1
gene 2 2 7 0.583708 0 7 0.583708 1
gene 1 3 7 0.0617528 0 8 0.0617528 1
gene 3 4 7 -0.327158 0 9 -0.327158 1
gene 2 5 7 -1.1379 0 10 -1.1379 1
genomeend 184

/* Organism #185 Fitness: 9 Error: 0 */
genomestart 185
node 1 2 1 3
node 2 2 1 1
node 3 1 1 1
node 4 3 1 1
node 5 3 1 1
node 6 3 0 2
node 7 3 0 2
gene 2 1 6 1.32194 0 1 1.32194 1
gene 2 2 6 -2.10795 0 2 -2.10795 1
gene 2 3 6 2.07934 0 3 2.07934 1
gene 2 4 6 -0.231518 0 4 -0.231518 1
gene 1 5 6 -1.65868 0 5 -1.65868 1
gene 1 1 7 1.08512 0 6 1.08512 1
gene 1 2 7 -1.10956 0 7 -1.10956 1
gene 1 3 7 -0.3635 0 8 -0.3635 1
gene 3 4 7 2.28087 0 9 2.28087 1
gene 2 5 7 -2.60517 0 10 -2.60517 1
genomeend 185

/* Organism #186 Fitness: 11 Error: 0 */
genomestart 186
node 1 3 1 3
node 2 3 1 1
node 3 2 1 1
node 4 3 1 1
node 5 1 1 1
node 6 1 0 2
node 7 3 0 2
gene 2 1 6 0.518249 0 1 0.518249 1
gene 2 2 6 0.336586 0 2 0.336586 1
gene 2 3 6 -0.121735 0 3 -0.121735 1
gene 3 4 6 -0.98272 0 4 -0.98272 1
gene 2 5 6 -0.454983 0 5 -0.454983 1
gene 3 1 7 0.847465 0 6 0.847465 1
gene 2 2 7 0.67414 0 7 0.67414 1
gene 2 3 7 0.326031 0 8 0.326031 1
gene 2 4 7 -0.00330505 0 9 -0.00330505 1
gene 2 5 7 0.65732 0 10 0.65732 1
genomeend 186

/* Organism #187 Fitness: 9 Error: 0 */
genomestart 187
node 1 3 1 3
node 2 3 1 1
node 3 1 1 1
node 4 1 1 1
node 5 2 1 1
node 6 1 0 2
node 7 1 0 2
gene 3 1 6 -1.02677 0 1 -1.02677 1
gene 3 2 6 -0.34265 0 2 -0.34265 1
gene 1 3 6 1.20885 0 3 1.20885 1
gene 2 4 6 -2.47782 0 4 -2.47782 1
gene 3 5 6 -0.871929 0 5 -0.871929 1
gene 1 1 7 0.94951 0 6 0.94951 1
gene 1 2 7 -1.29227 0 7 -1.29227 1
gene 2 3 7 1.2342 0 8 1.2342 1
gene 2 4 7 -2.72934 0 9 -2.72934 1
gene 3 5 7 1.67397 0 10 1.67397 1
genomeend 187

/* Organism #188 Fitness: 16 Error: 0 */
genomestart 188
node 1 2 1 3
node 2 3 1 1
node 3 2 1 1
node 4 3 1 1
node 5 3 1 1
node 6 3 0 2
node 7 3 0 2
gene 2 1 6 0.466147 0 1 0.466147 1
gene 1 2 6 -1.13406 0 2 -1.13406 1
gene 1 3 6 -1.23797 0 3 -1.23797 1
gene 1 4 6 -0.103911 0 4 -0.103911 1
gene 1 5 6 0.773049 0 5 0.773049 1
gene 1 1 7 1.50437 0 6 1.50437 1
gene 2 2 7 -1.23346 0 7 -1.23346 1
gene 2 3 7 1.62387 0 8 1.62387 1
gene 1 4 7 2.49696 0 9 2.49696 1
gene 1 5 7 -0.156128 0 10 -0.156128 1
genomeend 188

/* Organism #189 Fitness: 8 Error: 0 */
genomestart 189
node 1 2 1 3
node 2 2 1 1
node 3 2 1 1
node 4 3 1 1
node 5 2 1 1
node 6 3 0 2
node 7 2 0 2
gene 3 1 6 -0.19804 0 1 -0.19804 1
gene 3 2 6 0.0728311 0 2 0.0728311 1
gene 3 3 6 -0.114186 0 3 -0.114186 1
gene 1 4 6 -0.868893 0 4 -0.868893 1
gene 1 5 6 -0.401402 0 5 -0.401402 1
gene 2 1 7 0.0385078 0 6 0.0385078 1
gene 2 2 7 0.905389 0 7 0.905389 1
gene 2 3 7 0.244046 0 8 0.244046 1
gene 1 4 7 0.15719 0 9 0.15719 1
gene 3 5 7 -0.719056 0 10 -0.719056 1
genomeend 189

/* Organism #190 Fitness: 7 Error: 0 */
genomestart 190
node 1 1 1 3
node 2 2 1 1
node 3 1 1 1
node 4 3 1 1
node 5 3 1 1
node 6 1 0 2
node 7 2 0 2
gene 2 1 6 -1.1906 0 1 -1.1906 1
gene 1 2 6 0.820232 0 2 0.820232 1
gene 1 3 6 1.76428 0 3 1.76428 1
gene 1 4 6 -0.376637 0 4 -0.376637 1
gene 2 5 6 2.02049 0 5 2.02049 1
gene 1 1 7 2.79715 0 6 2.79715 1
gene 1 2 7 -1.32633 0 7 -1.32633 1
gene 3 3 7 1.4668 0 8 1.4668 1
gene 2 4 7 1.41987 0 9 1.41987 1
gene 3 5 7 0.163957 0 10 0.163957 1
genomeend 190

/* Organism #191 Fitness: 6 Error: 0 */
genomestart 191
node 1 3 1 3
node 2 2 1 1
node 3 3 1 1
node 4 3 1 1
node 5 1 1 1
node 6 1 0 2
node 7 3 0 2
gene 2 1 6 1.17812 0 1 1.17812 1
gene 3 2 6 2.50551 0 2 2.50551 1
gene 1 3 6 -1.341 0 3 -1.341 1
gene 1 4 6 0.913453 0 4 0.913453 1
gene 2 5 6 -0.957846 0 5 -0.957846 1
gene 3 1 7 0.0327592 0 6 0.0327592 1
gene 1 2 7 0.873115 0 7 0.873115 1
gene 1 3 7 -1.82717 0 8 -1.82717 1
gene 3 4 7 1.39781 0 9 1.39781 1
gene 1 5 7 -0.216756 0 10 -0.216756 1
genomeend 191

/* Organism #192 Fitness: 22 Error: 0 */
genomestart 192
node 1 3 1 3
node 2 3 1 1
node 3 3 1 1
node 4 2 1 1
node 5 3 1 1
node 6 3 0 2
node 7 1 0 2
gene 3 1 6 -0.234059 0 1 -0.234059 1
gene 1 2 6 -0.431494 0 2 -0.431494 1
gene 3 3 6 0.728665 0 3 0.728665 1
