
/* Species #163 : (Size 3) (AF 26.6667) (Age 7)  */


/* Organism #0 Fitness: 0 Error: 0 */
genomestart 0
trait 1 1 0 0 0 0 0 0 0 
trait 2 0 0 0 11414 0 0 0 0 
trait 3 3 0 2636 2403 0 0 0 0 
node 1 2 1 3
node 2 3 1 1
node 3 1 1 1
node 4 3 1 1
node 5 1 0 2
node 6 2 0 2
node 9 1 0 0
gene 2 1 5 -279897 0 1 -279897 1
gene 2 2 5 -350480 0 2 -350480 0
gene 1 3 5 531319 0 3 531319 1
gene 1 4 5 -800000 0 4 -800000 1
gene 2 1 6 -679383 0 5 -679383 1
gene 3 2 6 -69679 0 6 -69679 1
gene 1 3 6 -119415 0 7 -119415 1
gene 1 4 6 294444 0 8 294444 1
gene 2 2 9 -298751 0 25 -298751 1
gene 2 9 5 261114 0 26 261114 1
gene 3 6 6 22061 1 53 22061 1
gene 1 5 6 -104991 0 61 -104991 1
gene 1 5 5 70868 1 87 70868 1
genomeend 0

/* Organism #1 Fitness: 0 Error: 0 */
genomestart 1
trait 1 1 0 0 0 0 0 0 0 
trait 2 0 0 0 11414 0 0 0 0 
trait 3 3 0 2636 2403 0 0 0 0 
node 1 2 1 3
node 2 3 1 1
node 3 1 1 1
node 4 3 1 1
node 5 1 0 2
node 6 2 0 2
node 9 1 0 0
gene 2 1 5 -282540 0 1 -282540 1
gene 2 2 5 -443990 0 2 -443990 0
gene 1 3 5 396898 0 3 396898 1
gene 1 4 5 -764753 0 4 -764753 1
gene 2 1 6 -800000 0 5 -800000 1
gene 3 2 6 134174 0 6 134174 1
gene 1 3 6 -310428 0 7 -310428 1
gene 1 4 6 284661 0 8 284661 1
gene 2 2 9 -529694 0 25 -529694 1
gene 2 9 5 -4350 0 26 -4350 1
gene 3 6 6 -157431 1 53 -157431 1
gene 1 5 6 -104991 0 61 -104991 1
genomeend 1

/* Organism #2 Fitness: 80 Error: 0 */
genomestart 2
trait 1 1 0 0 0 0 0 0 0 
trait 2 0 0 0 11414 0 0 0 0 
trait 3 3 0 2636 2403 0 0 0 0 
node 1 2 1 3
node 2 3 1 1
node 3 1 1 1
node 4 3 1 1
node 5 1 0 2
node 6 2 0 2
node 9 1 0 0
gene 2 1 5 -211764 0 1 -211764 1
gene 2 2 5 -350480 0 2 -350480 0
gene 1 3 5 328531 0 3 328531 1
gene 1 4 5 -676601 0 4 -676601 1
gene 2 1 6 -389004 0 5 -389004 1
gene 3 2 6 -69679 0 6 -69679 1
gene 1 3 6 -24219 0 7 -24219 1
gene 1 4 6 142059 0 8 142059 1
gene 2 2 9 -147678 0 25 -147678 1
gene 2 9 5 53298 0 26 53298 1
gene 3 6 6 30765 1 53 30765 1
gene 1 5 6 -116766 0 61 -116766 1
genomeend 2

/* Species #221 : (Size 2) (AF 60) (Age 5)  */


/* Organism #3 Fitness: 120 Error: 0 */
genomestart 3
trait 1 0 0 0 0 10417 0 0 24037 
trait 2 2 0 0 0 0 0 0 0 
trait 3 3 0 2636 2403 0 0 0 0 
node 1 2 1 3
node 2 2 1 1
node 3 1 1 1
node 4 3 1 1
node 5 1 0 2
node 6 2 0 2
node 9 1 0 0
gene 2 1 5 -177036 0 1 -177036 1
gene 2 2 5 -459353 0 2 -459353 0
gene 1 3 5 800000 0 3 800000 1
gene 1 4 5 -800000 0 4 -800000 1
gene 2 1 6 -175770 0 5 -175770 1
gene 1 2 6 -143064 0 6 -143064 1
gene 1 3 6 800000 0 7 800000 1
gene 1 4 6 -474035 0 8 -474035 1
gene 2 2 9 -282647 0 25 -282647 1
gene 2 9 5 74199 0 26 74199 1
genomeend 3

/* Organism #4 Fitness: 0 Error: 0 */
genomestart 4
trait 1 0 0 0 0 63438 0 5297 24037 
trait 2 2 0 0 0 0 0 0 0 
trait 3 3 0 2636 2403 0 0 0 0 
node 1 2 1 3
node 2 2 1 1
node 3 1 1 1
node 4 3 1 1
node 5 1 0 2
node 6 2 0 2
node 9 1 0 0
gene 2 1 5 86538 0 1 86538 1
gene 2 2 5 -266393 0 2 -266393 0
gene 1 3 5 779942 0 3 779942 1
gene 1 4 5 -800000 0 4 -800000 1
gene 2 1 6 141603 0 5 141603 1
gene 3 2 6 -476542 0 6 -476542 1
gene 1 3 6 618698 0 7 618698 1
gene 1 4 6 -421199 0 8 -421199 1
gene 2 2 9 -654458 0 25 -654458 1
gene 2 9 5 22884 0 26 22884 1
genomeend 4

/* Species #257 : (Size 2) (AF 100) (Age 4)  */


/* Organism #5 Fitness: 40 Error: 0 */
genomestart 5
trait 1 1 0 0 0 0 0 0 0 
trait 2 2 0 0 0 0 0 0 0 
trait 3 3 33518 2636 5886 9879 0 0 83419 
node 1 2 1 3
node 2 2 1 1
node 3 1 1 1
node 4 1 1 1
node 5 1 0 2
node 6 2 0 2
node 9 1 0 0
gene 2 1 5 -350442 0 1 -350442 1
gene 2 2 5 222426 0 2 222426 0
gene 1 3 5 800000 0 3 800000 1
gene 1 4 5 -571142 0 4 -571142 1
gene 2 1 6 85230 0 5 85230 1
gene 1 2 6 -51853 0 6 -51853 1
gene 1 3 6 -497715 0 7 -497715 1
gene 3 4 6 -148278 0 8 -148278 1
gene 1 2 9 599934 0 25 599934 1
gene 2 9 5 -272916 0 26 -272916 1
gene 1 9 6 -73773 0 83 -73773 1
genomeend 5

/* Organism #6 Fitness: 160 Error: 0 */
genomestart 6
trait 1 1 0 0 0 0 0 0 0 
trait 2 2 0 0 0 0 0 0 0 
trait 3 3 33518 2636 5886 9879 0 0 83419 
node 1 2 1 3
node 2 2 1 1
node 3 1 1 1
node 4 3 1 1
node 5 1 0 2
node 6 2 0 2
node 9 1 0 0
gene 2 1 5 -333720 0 1 -333720 1
gene 2 2 5 205176 0 2 205176 0
gene 1 3 5 742767 0 3 742767 1
gene 1 4 5 -452546 0 4 -452546 1
gene 2 1 6 -153042 0 5 -153042 1
gene 1 2 6 -264415 0 6 -264415 1
gene 1 3 6 -469314 0 7 -469314 1
gene 3 4 6 -168123 0 8 -168123 1
gene 1 2 9 604629 0 25 604629 1
gene 2 9 5 227974 0 26 227974 1
gene 1 9 6 18794 0 83 18794 1
gene 1 4 9 -78147 0 88 -78147 1
genomeend 6

/* Species #276 : (Size 2) (AF 60) (Age 4)  */


/* Organism #7 Fitness: 40 Error: 0 */
genomestart 7
trait 1 1 0 0 0 0 0 0 0 
trait 2 2 0 0 0 0 0 0 0 
trait 3 3 0 2636 2403 0 0 0 0 
node 1 2 1 3
node 2 2 1 1
node 3 1 1 1
node 4 3 1 1
node 5 1 0 2
node 6 2 0 2
node 9 1 0 0
gene 2 1 5 -371859 0 1 -371859 1
gene 2 2 5 800000 0 2 800000 0
gene 1 3 5 376925 0 3 376925 1
gene 1 4 5 -536687 0 4 -536687 1
gene 2 1 6 -800000 0 5 -800000 1
gene 1 2 6 -43812 0 6 -43812 1
gene 1 3 6 -56415 0 7 -56415 1
gene 1 4 6 73606 0 8 73606 1
gene 2 2 9 -106217 0 25 -106217 1
gene 2 9 5 -422129 0 26 -422129 1
gene 3 5 6 272290 0 74 272290 1
genomeend 7

/* Organism #8 Fitness: 80 Error: 0 */
genomestart 8
trait 1 1 0 0 0 0 0 0 0 
trait 2 2 0 0 0 0 0 0 0 
trait 3 3 0 2636 2403 0 0 0 0 
node 1 2 1 3
node 2 2 1 1
node 3 1 1 1
node 4 3 1 1
node 5 1 0 2
node 6 2 0 2
node 9 1 0 0
gene 2 1 5 -392685 0 1 -392685 1
gene 2 2 5 671608 0 2 671608 0
gene 1 3 5 620963 0 3 620963 1
gene 1 4 5 -542135 0 4 -542135 1
gene 2 1 6 -800000 0 5 -800000 1
gene 1 2 6 -186714 0 6 -186714 1
gene 1 3 6 -168729 0 7 -168729 1
gene 1 4 6 -91277 0 8 -91277 1
gene 2 2 9 -266630 0 25 -266630 1
gene 2 9 5 -422129 0 26 -422129 1
gene 3 5 6 272290 0 74 272290 1
gene 2 3 9 22348 0 89 22348 1
genomeend 8

/* Species #282 : (Size 1) (AF 0) (Age 4)  */


/* Organism #9 Fitness: 0 Error: 0 */
genomestart 9
trait 1 23347 0 701 6891 0 9032 18841 0 
trait 2 2 0 0 0 0 0 0 0 
trait 3 3 0 2636 2403 0 0 0 0 
node 1 2 1 3
node 2 2 1 1
node 3 2 1 1
node 4 3 1 1
node 5 1 0 2
node 6 2 0 2
node 9 1 0 0
gene 2 1 5 -245916 0 1 -245916 1
gene 2 2 5 89590 0 2 89590 0
gene 1 3 5 366321 0 3 366321 1
gene 1 4 5 -362810 0 4 -362810 1
gene 1 1 6 -288624 0 5 -288624 1
gene 1 2 6 -751166 0 6 -751166 1
gene 1 3 6 158013 0 7 158013 1
gene 3 4 6 257421 0 8 257421 1
gene 2 2 9 -45972 0 25 -45972 1
gene 2 9 5 347730 0 26 347730 1
gene 1 6 5 -186405 0 41 -186405 1
genomeend 9

/* Species #291 : (Size 4) (AF 20) (Age 4)  */


/* Organism #10 Fitness: 0 Error: 0 */
genomestart 10
trait 1 1 0 0 0 0 0 0 0 
trait 2 2 0 0 0 0 0 0 0 
trait 3 3 0 2636 30916 12021 33055 0 0 
node 1 2 1 3
node 2 2 1 1
node 3 1 1 1
node 4 3 1 1
node 5 1 0 2
node 6 3 0 2
node 9 1 0 0
gene 2 1 5 323643 0 1 323643 1
gene 2 2 5 -7803 0 2 -7803 0
gene 1 3 5 577139 0 3 577139 1
gene 1 4 5 -580760 0 4 -580760 1
gene 2 1 6 67035 0 5 67035 1
gene 1 2 6 -800000 0 6 -800000 1
gene 1 3 6 606809 0 7 606809 1
gene 1 4 6 -233712 0 8 -233712 1
gene 2 2 9 437611 0 25 437611 1
gene 2 9 5 273495 0 26 273495 1
gene 2 6 6 144067 1 79 144067 1
genomeend 10

/* Organism #11 Fitness: 0 Error: 0 */
genomestart 11
trait 1 1 0 0 0 0 0 0 0 
trait 2 2 0 0 0 0 0 0 0 
trait 3 3 0 2636 30916 12021 33055 0 0 
node 1 2 1 3
node 2 2 1 1
node 3 1 1 1
node 4 3 1 1
node 5 1 0 2
node 6 2 0 2
node 9 1 0 0
gene 2 1 5 276537 0 1 276537 1
gene 2 2 5 50913 0 2 50913 0
gene 1 3 5 244631 0 3 244631 1
gene 1 4 5 -484847 0 4 -484847 1
gene 2 1 6 -196125 0 5 -196125 1
gene 1 2 6 -779467 0 6 -779467 1
gene 1 3 6 762269 0 7 762269 1
gene 1 4 6 -324771 0 8 -324771 1
gene 2 2 9 -2363 0 25 -2363 1
gene 2 9 5 -16227 0 26 -16227 1
gene 2 6 6 -237485 1 79 -237485 1
genomeend 11

/* Organism #12 Fitness: 80 Error: 0 */
genomestart 12
trait 1 1 0 0 0 0 0 0 0 
trait 2 2 0 0 0 0 0 0 0 
trait 3 3 0 2636 30916 12021 33055 0 0 
node 1 2 1 3
node 2 2 1 1
node 3 1 1 1
node 4 3 1 1
node 5 1 0 2
node 6 2 0 2
node 9 1 0 0
gene 2 1 5 213513 0 1 213513 1
gene 2 2 5 65856 0 2 65856 0
gene 1 3 5 385238 0 3 385238 1
gene 1 4 5 -780413 0 4 -780413 1
gene 2 1 6 67035 0 5 67035 1
gene 1 2 6 -788563 0 6 -788563 1
gene 1 3 6 606809 0 7 606809 1
gene 1 4 6 -233712 0 8 -233712 1
gene 2 2 9 207103 0 25 207103 1
gene 2 9 5 -143148 0 26 -143148 1
gene 2 6 6 -94544 1 79 -94544 1
gene 2 3 9 22348 0 89 0 1
genomeend 12

/* Organism #13 Fitness: 0 Error: 0 */
genomestart 13
trait 1 1 0 0 0 0 0 0 0 
trait 2 2 0 0 0 0 0 0 0 
trait 3 3 0 2636 30916 12021 33055 0 0 
node 1 2 1 3
node 2 2 1 1
node 3 1 1 1
node 4 3 1 1
node 5 1 0 2
node 6 2 0 2
node 9 1 0 0
gene 2 1 5 346551 0 1 346551 1
gene 2 2 5 -139491 0 2 -139491 0
gene 1 3 5 100886 0 3 100886 1
gene 1 4 5 -791324 0 4 -791324 1
gene 2 1 6 179853 0 5 179853 1
gene 1 2 6 -613261 0 6 -613261 1
gene 1 3 6 635903 0 7 635903 1
gene 1 4 6 -247869 0 8 -247869 1
gene 2 2 9 225487 0 25 225487 1
gene 2 9 5 78396 0 26 78396 1
gene 2 6 6 -102401 1 79 -102401 1
genomeend 13

/* Species #295 : (Size 2) (AF 0) (Age 3)  */


/* Organism #14 Fitness: 0 Error: 0 */
genomestart 14
trait 1 1 0 0 0 0 0 0 0 
trait 2 2 0 0 0 0 0 0 0 
trait 3 3 0 2636 2403 0 0 0 0 
node 1 2 1 3
node 2 2 1 1
node 3 1 1 1
node 4 3 1 1
node 5 1 0 2
node 6 2 0 2
node 9 1 0 0
gene 2 1 5 -86211 0 1 -86211 1
gene 2 2 5 -414701 0 2 -414701 0
gene 1 3 5 306010 0 3 306010 1
gene 1 4 5 -377597 0 4 -377597 1
gene 2 1 6 -70308 0 5 -70308 1
gene 3 2 6 -40032 0 6 -40032 1
gene 1 3 6 116133 0 7 116133 1
gene 1 4 6 143226 0 8 143226 1
gene 2 2 9 -260298 0 25 -260298 1
gene 2 9 5 70773 0 26 70773 1
gene 3 6 6 263921 1 53 263921 1
gene 1 5 6 142334 0 61 142334 1
gene 1 5 5 66255 1 90 66255 1
genomeend 14

/* Organism #15 Fitness: 0 Error: 0 */
genomestart 15
trait 1 1 0 0 0 0 0 0 0 
trait 2 2 0 0 0 0 0 0 0 
trait 3 3 0 2636 2403 0 0 0 0 
node 1 2 1 3
node 2 2 1 1
node 3 1 1 1
node 4 3 1 1
node 5 1 0 2
node 6 2 0 2
node 9 1 0 0
gene 2 1 5 147642 0 1 147642 1
gene 2 2 5 -414701 0 2 -414701 0
gene 1 3 5 342565 0 3 342565 1
gene 1 4 5 223833 0 4 223833 1
gene 2 1 6 46017 0 5 46017 1
gene 3 2 6 -326100 0 6 -326100 1
gene 2 3 6 -40377 0 7 -40377 1
gene 1 4 6 104223 0 8 104223 1
gene 2 2 9 -328866 0 25 -328866 1
gene 2 9 5 49935 0 26 49935 1
gene 3 6 6 329633 1 53 329633 1
gene 1 5 6 267350 0 61 267350 1
genomeend 15

/* Species #303 : (Size 1) (AF 120) (Age 3)  */


/* Organism #16 Fitness: 120 Error: 0 */
genomestart 16
trait 1 1 0 0 0 0 0 0 0 
trait 2 2 0 0 0 0 0 0 0 
trait 3 3 0 2636 2403 0 0 0 0 
node 1 2 1 3
node 2 2 1 1
node 3 1 1 1
node 4 3 1 1
node 5 1 0 2
node 6 2 0 2
node 9 1 0 0
node 10 1 0 0
gene 2 1 5 -221982 0 1 -221982 1
gene 2 2 5 -135945 0 2 -135945 0
gene 1 3 5 624674 0 3 624674 1
gene 1 4 5 -302886 0 4 -302886 1
gene 2 1 6 348817 0 5 348817 1
gene 1 2 6 -187118 0 6 -187118 1
gene 1 3 6 162688 0 7 162688 0
gene 1 4 6 282616 0 8 282616 1
gene 2 2 9 -404178 0 25 -404178 1
gene 2 9 5 -64258 0 26 -64258 1
gene 1 3 10 -131162 0 43 -131162 1
gene 1 10 6 170179 0 44 170179 1
genomeend 16

/* Species #309 : (Size 2) (AF 40) (Age 3)  */


/* Organism #17 Fitness: 0 Error: 0 */
genomestart 17
trait 1 1 0 0 0 0 0 0 0 
trait 2 2 0 0 0 0 0 0 0 
trait 3 3 0 2636 2403 0 0 0 0 
node 1 2 1 3
node 2 2 1 1
node 3 1 1 1
node 4 3 1 1
node 5 1 0 2
node 6 2 0 2
node 9 1 0 0
gene 2 1 5 -185229 0 1 -185229 1
gene 2 2 5 800000 0 2 800000 0
gene 1 3 5 489215 0 3 489215 1
gene 1 4 5 -800000 0 4 -800000 1
gene 2 1 6 -800000 0 5 -800000 1
gene 1 2 6 -385470 0 6 -385470 1
gene 1 3 6 -575387 0 7 -575387 1
gene 1 4 6 42387 0 8 42387 1
gene 2 2 9 -41489 0 25 -41489 1
gene 2 9 5 -342135 0 26 -342135 1
genomeend 17

/* Organism #18 Fitness: 80 Error: 0 */
genomestart 18
trait 1 1 0 0 0 0 0 0 0 
trait 2 2 0 0 0 0 0 0 0 
trait 3 3 0 2636 2403 0 0 0 0 
node 1 2 1 3
node 2 2 1 1
node 3 1 1 1
node 4 3 1 1
node 5 1 0 2
node 6 2 0 2
node 9 1 0 0
gene 2 1 5 -89370 0 1 -89370 1
gene 2 2 5 800000 0 2 800000 0
gene 1 3 5 526475 0 3 526475 1
gene 1 4 5 -800000 0 4 -800000 1
gene 2 1 6 -536416 0 5 -536416 1
gene 1 2 6 -382431 0 6 -382431 1
gene 1 3 6 -348428 0 7 -348428 1
gene 1 4 6 -71661 0 8 -71661 1
gene 2 2 9 -311894 0 25 -311894 1
gene 2 9 5 -58722 0 26 -58722 1
genomeend 18

/* Species #310 : (Size 1) (AF 80) (Age 3)  */


/* Organism #19 Fitness: 80 Error: 0 */
genomestart 19
trait 1 1 0 0 0 0 0 0 0 
trait 2 2 0 0 0 0 0 0 0 
trait 3 3 0 2636 2403 0 0 0 0 
node 1 2 1 3
node 2 2 1 1
node 3 1 1 1
node 4 3 1 1
node 5 1 0 2
node 6 2 0 2
node 9 1 0 0
gene 2 1 5 -186510 0 1 -186510 1
gene 2 2 5 698776 0 2 698776 0
gene 1 3 5 743849 0 3 743849 1
gene 1 4 5 -296390 0 4 -296390 1
gene 2 1 6 -443859 0 5 -443859 1
gene 1 2 6 -209022 0 6 -209022 1
gene 1 3 6 -195234 0 7 -195234 1
gene 1 4 6 -60599 0 8 -60599 1
gene 2 2 9 -237365 0 25 -237365 1
gene 2 9 5 -144890 0 26 -144890 1
gene 1 6 9 31652 0 76 31652 1
genomeend 19

/* Species #311 : (Size 1) (AF 0) (Age 3)  */


/* Organism #20 Fitness: 0 Error: 0 */
genomestart 20
trait 1 1 0 0 0 0 0 0 0 
trait 2 2 0 0 0 57835 0 75669 57127 
trait 3 3 0 2636 2403 0 0 0 0 
node 1 2 1 3
node 2 2 1 1
node 3 1 1 1
node 4 3 1 1
node 5 1 0 2
node 6 2 0 2
node 9 1 0 0
gene 2 1 5 -28191 0 1 -28191 1
gene 2 2 5 294214 0 2 294214 0
gene 1 3 5 699845 0 3 699845 1
gene 1 4 5 -444173 0 4 -444173 1
gene 2 1 6 -315324 0 5 -315324 1
gene 1 2 6 -393342 0 6 -393342 1
gene 1 3 6 347511 0 7 347511 1
gene 1 4 6 -515504 0 8 -515504 1
gene 2 2 9 -37166 0 25 -37166 1
gene 2 9 5 -397640 0 26 -397640 1
gene 1 6 5 33598 0 66 33598 1
gene 3 9 9 228978 1 85 228978 1
genomeend 20

/* Species #314 : (Size 3) (AF 0) (Age 3)  */


/* Organism #21 Fitness: 0 Error: 0 */
genomestart 21
trait 1 1 0 0 0 0 0 0 0 
trait 2 2 0 0 0 0 0 0 0 
trait 3 3 33518 2636 5886 9879 0 0 83419 
node 1 2 1 3
node 2 2 1 1
node 3 1 1 1
node 4 3 1 1
node 5 1 0 2
node 6 2 0 2
node 9 1 0 0
gene 2 1 5 -365877 0 1 -365877 1
gene 2 2 5 490098 0 2 490098 0
gene 1 3 5 700050 0 3 700050 1
gene 1 4 5 -318191 0 4 -318191 1
gene 2 1 6 -359700 0 5 -359700 1
gene 1 2 6 -413536 0 6 -413536 1
gene 1 3 6 -358905 0 7 -358905 1
gene 3 4 6 298605 0 8 298605 1
gene 1 2 9 123954 0 25 123954 1
gene 2 9 5 314689 0 26 314689 1
gene 2 9 9 84921 1 91 84921 1
genomeend 21

/* Organism #22 Fitness: 0 Error: 0 */
genomestart 22
trait 1 1 0 0 0 0 0 0 0 
trait 2 2 0 0 0 0 0 0 0 
trait 3 3 33518 2636 5886 9879 0 0 83419 
node 1 2 1 3
node 2 2 1 1
node 3 1 1 1
node 4 3 1 1
node 5 1 0 2
node 6 2 0 2
node 9 1 0 0
gene 2 1 5 -365877 0 1 -365877 1
gene 2 2 5 490098 0 2 490098 0
gene 1 3 5 700050 0 3 700050 1
gene 1 4 5 -318191 0 4 -318191 1
gene 2 1 6 -359700 0 5 -359700 1
gene 1 2 6 -413536 0 6 -413536 1
gene 1 3 6 -358905 0 7 -358905 1
gene 3 4 6 298605 0 8 298605 1
gene 1 2 9 123954 0 25 123954 1
gene 2 9 5 314689 0 26 314689 1
gene 2 3 9 22348 0 89 0 1
genomeend 22

/* Organism #23 Fitness: 0 Error: 0 */
genomestart 23
trait 1 1 0 0 0 0 0 0 0 
trait 2 2 0 0 0 0 0 0 0 
trait 3 3 33518 2636 5886 9879 0 0 83419 
node 1 2 1 3
node 2 2 1 1
node 3 1 1 1
node 4 3 1 1
node 5 1 0 2
node 6 2 0 2
node 9 1 0 0
gene 2 1 5 -175788 0 1 -175788 1
gene 2 2 5 512550 0 2 512550 0
gene 1 3 5 480195 0 3 480195 1
gene 1 4 5 -285563 0 4 -285563 1
gene 2 1 6 -289656 0 5 -289656 1
gene 1 2 6 -371077 0 6 -371077 1
gene 1 3 6 -278106 0 7 -278106 1
gene 3 4 6 181314 0 8 181314 1
gene 1 2 9 174885 0 25 174885 1
gene 2 9 5 262699 0 26 262699 1
genomeend 23

/* Species #322 : (Size 2) (AF 0) (Age 3)  */


/* Organism #24 Fitness: 0 Error: 0 */
genomestart 24
trait 1 1 0 0 0 0 0 0 0 
trait 2 2 0 0 0 0 0 0 0 
trait 3 3 33518 2636 5886 9879 0 0 83419 
node 1 2 1 3
node 2 2 1 1
node 3 1 1 1
node 4 3 1 1
node 5 1 0 2
node 6 2 0 2
node 9 1 0 0
gene 2 1 5 -359745 0 1 -359745 1
gene 2 2 5 -291102 0 2 -291102 0
gene 1 3 5 306189 0 3 306189 1
gene 1 4 5 -195731 0 4 -195731 1
gene 2 1 6 -17235 0 5 -17235 1
gene 1 2 6 -271264 0 6 -271264 1
gene 1 3 6 -396510 0 7 -396510 1
gene 3 4 6 -608844 0 8 -608844 1
gene 2 2 9 290499 0 25 290499 1
gene 2 9 5 -362861 0 26 -362861 1
gene 2 6 6 -70944 1 86 -70944 1
genomeend 24

/* Organism #25 Fitness: 0 Error: 0 */
genomestart 25
trait 1 1 0 0 0 0 0 0 0 
trait 2 2 0 0 0 0 0 0 0 
trait 3 3 33518 2636 5886 9879 0 0 83419 
node 1 2 1 3
node 2 2 1 1
node 3 1 1 1
node 4 3 1 1
node 5 1 0 2
node 6 2 0 2
node 9 1 0 0
gene 2 1 5 -146799 0 1 -146799 1
gene 2 2 5 -431907 0 2 -431907 0
gene 1 3 5 456618 0 3 456618 1
gene 1 4 5 -416942 0 4 -416942 1
gene 2 1 6 45819 0 5 45819 1
gene 1 2 6 -363454 0 6 -363454 1
gene 1 3 6 -663267 0 7 -663267 1
gene 3 4 6 -373125 0 8 -373125 1
gene 2 2 9 197388 0 25 197388 1
gene 2 9 5 -362861 0 26 -362861 1
gene 2 6 6 -96666 1 86 -96666 1
genomeend 25

/* Species #327 : (Size 1) (AF 120) (Age 2)  */


/* Organism #26 Fitness: 120 Error: 0 */
genomestart 26
trait 1 1 0 0 0 0 0 0 0 
trait 2 2 0 0 0 0 0 0 0 
trait 3 3 33518 2636 5886 9879 0 0 83419 
node 1 2 1 3
node 2 2 1 1
node 3 3 1 1
node 4 3 1 1
node 5 1 0 2
node 6 2 0 2
node 9 1 0 0
gene 2 1 5 -125397 0 1 -125397 1
gene 1 2 5 170367 0 2 170367 0
gene 1 3 5 789410 0 3 789410 1
gene 1 4 5 -313016 0 4 -313016 1
gene 2 1 6 -97632 0 5 -97632 1
gene 1 2 6 -257455 0 6 -257455 1
gene 1 3 6 261264 0 7 261264 1
gene 3 4 6 -450387 0 8 -450387 1
gene 1 2 9 -11304 0 25 -11304 1
gene 2 9 5 -52677 0 26 -52677 1
genomeend 26

/* Species #329 : (Size 4) (AF 50) (Age 2)  */


/* Organism #27 Fitness: 0 Error: 0 */
genomestart 27
trait 1 0 0 15805 0 0 399 41778 0 
trait 2 2 0 0 0 0 0 0 0 
trait 3 3 33518 2636 5886 9879 0 0 83419 
node 1 2 1 3
node 2 2 1 1
node 3 1 1 1
node 4 3 1 1
node 5 1 0 2
node 6 2 0 2
node 9 1 0 0
gene 2 1 5 -158757 0 1 -158757 1
gene 2 2 5 230073 0 2 230073 0
gene 1 3 5 800000 0 3 800000 1
gene 1 4 5 -173939 0 4 -173939 1
gene 2 1 6 -330801 0 5 -330801 1
gene 1 2 6 -250120 0 6 -250120 1
gene 1 3 6 17373 0 7 17373 1
gene 3 4 6 13296 0 8 13296 1
gene 1 2 9 260112 0 25 260112 1
gene 2 9 5 -354836 0 26 -354836 1
gene 1 4 9 -78147 0 88 0 1
genomeend 27

/* Organism #28 Fitness: 120 Error: 0 */
genomestart 28
trait 1 0 0 15805 0 0 399 41778 0 
trait 2 2 0 0 0 0 0 0 0 
trait 3 3 33518 2636 5886 9879 0 0 83419 
node 1 2 1 3
node 2 2 1 1
node 3 1 1 1
node 4 3 1 1
node 5 1 0 2
node 6 2 0 2
node 9 1 0 0
gene 2 1 5 -38829 0 1 -38829 1
gene 2 2 5 353343 0 2 353343 0
gene 1 3 5 799475 0 3 799475 1
gene 1 4 5 -173939 0 4 -173939 1
gene 2 1 6 -576990 0 5 -576990 1
gene 1 2 6 -122062 0 6 -122062 1
gene 1 3 6 -161220 0 7 -161220 1
gene 3 4 6 -114081 0 8 -114081 1
gene 1 2 9 454803 0 25 454803 1
gene 2 9 5 -336914 0 26 -336914 1
genomeend 28

/* Organism #29 Fitness: 80 Error: 0 */
genomestart 29
trait 1 60614 47181 15805 41874 0 65700 0 0 
trait 2 2 0 0 0 0 0 0 0 
trait 3 3 33518 2636 5886 9879 0 0 83419 
node 1 2 1 3
node 2 2 1 1
node 3 1 1 1
node 4 3 1 1
node 5 1 0 2
node 6 2 0 2
node 9 1 0 0
gene 2 1 5 -3474 0 1 -3474 1
gene 2 2 5 468744 0 2 468744 0
gene 1 3 5 800000 0 3 800000 1
gene 1 4 5 97867 0 4 97867 1
gene 2 1 6 -393198 0 5 -393198 1
gene 1 2 6 -195568 0 6 -195568 1
gene 1 3 6 210183 0 7 210183 1
gene 3 4 6 52854 0 8 52854 1
gene 1 2 9 259563 0 25 259563 1
gene 2 9 5 -428741 0 26 -428741 1
genomeend 29

/* Organism #30 Fitness: 0 Error: 0 */
genomestart 30
trait 1 0 0 15805 0 0 399 41778 0 
trait 2 2 0 0 0 0 0 0 0 
trait 3 3 33518 2636 5886 9879 0 0 83419 
node 1 2 1 3
node 2 2 1 1
node 3 1 1 1
node 4 3 1 1
node 5 1 0 2
node 6 2 0 2
node 9 1 0 0
gene 2 1 5 -232275 0 1 -232275 1
gene 2 2 5 437436 0 2 437436 0
gene 1 3 5 618695 0 3 618695 1
gene 1 4 5 85204 0 4 85204 1
gene 2 1 6 -326616 0 5 -326616 1
gene 1 2 6 -291753 0 6 -291753 1
gene 1 3 6 18021 0 7 18021 1
gene 3 4 6 13296 0 8 13296 1
gene 1 2 9 343029 0 25 343029 1
gene 2 9 5 -521219 0 26 -521219 1
genomeend 30

/* Species #333 : (Size 2) (AF 40) (Age 2)  */


/* Organism #31 Fitness: 80 Error: 0 */
genomestart 31
trait 1 0 0 0 0 10417 0 0 24037 
trait 2 2 0 0 0 0 0 0 0 
trait 3 3 0 2636 2403 0 0 0 0 
node 1 2 1 3
node 2 2 1 1
node 3 1 1 1
node 4 3 1 1
node 5 1 0 2
node 6 2 0 2
node 9 1 0 0
gene 2 1 5 -144843 0 1 -144843 1
gene 2 2 5 -177950 0 2 -177950 0
gene 1 3 5 742355 0 3 742355 1
gene 1 4 5 -800000 0 4 -800000 1
gene 2 1 6 188967 0 5 188967 1
gene 3 2 6 -526840 0 6 -526840 1
gene 1 3 6 742031 0 7 742031 1
gene 1 4 6 -197861 0 8 -197861 1
gene 2 2 9 -259931 0 25 -259931 1
gene 2 9 5 304890 0 26 304890 1
genomeend 31

/* Organism #32 Fitness: 0 Error: 0 */
genomestart 32
trait 1 0 0 0 0 10417 0 0 24037 
trait 2 2 0 0 0 0 0 0 0 
trait 3 3 0 2636 2403 0 0 0 0 
node 1 2 1 3
node 2 2 1 1
node 3 1 1 1
node 4 3 1 1
node 5 1 0 2
node 6 2 0 2
node 9 1 0 0
gene 2 1 5 290280 0 1 290280 1
gene 2 2 5 -263528 0 2 -263528 0
gene 1 3 5 728630 0 3 728630 1
gene 1 4 5 -800000 0 4 -800000 1
gene 2 1 6 96693 0 5 96693 1
gene 3 2 6 -640813 0 6 -640813 1
gene 1 3 6 692828 0 7 692828 1
gene 1 4 6 -421199 0 8 -421199 1
gene 2 2 9 46914 0 25 46914 1
gene 2 9 5 455295 0 26 455295 1
genomeend 32

/* Species #334 : (Size 1) (AF 120) (Age 2)  */


/* Organism #33 Fitness: 120 Error: 0 */
genomestart 33
trait 1 0 0 22954 0 78732 0 46857 0 
trait 2 2 0 0 0 0 0 0 0 
trait 3 3 0 2636 30916 12021 33055 0 0 
node 1 2 1 3
node 2 2 1 1
node 3 1 1 1
node 4 3 1 1
node 5 1 0 2
node 6 2 0 2
node 9 1 0 0
gene 2 1 5 -476928 0 1 -476928 1
gene 2 2 5 -562007 0 2 -562007 0
gene 1 3 5 750884 0 3 750884 1
gene 1 4 5 -250118 0 4 -250118 1
gene 2 1 6 -320169 0 5 -320169 1
gene 1 2 6 -335087 0 6 -335087 1
gene 1 3 6 292553 0 7 292553 1
gene 1 4 6 100179 0 8 100179 1
gene 2 2 9 252592 0 25 252592 1
gene 2 9 5 102501 0 26 102501 1
gene 3 6 9 285681 0 71 285681 1
genomeend 33

/* Species #335 : (Size 1) (AF 0) (Age 2)  */


/* Organism #34 Fitness: 0 Error: 0 */
genomestart 34
trait 1 0 46409 0 0 60929 89602 88407 0 
trait 2 2 0 0 0 0 0 0 0 
trait 3 3 33518 2636 5886 9879 0 0 83419 
node 1 2 1 3
node 2 2 1 1
node 3 1 1 1
node 4 3 1 1
node 5 1 0 2
node 6 2 0 2
node 9 1 0 0
gene 2 1 5 -302358 0 1 -302358 1
gene 2 2 5 350352 0 2 350352 0
gene 1 3 5 -78321 0 3 -78321 1
gene 1 4 5 -603638 0 4 -603638 1
gene 2 1 6 127881 0 5 127881 1
gene 1 2 6 45287 0 6 45287 1
gene 1 3 6 -574062 0 7 -574062 1
gene 3 4 6 -70854 0 8 -70854 1
gene 1 2 9 331695 0 25 331695 1
gene 2 9 5 -88839 0 26 -88839 1
genomeend 34

/* Species #340 : (Size 2) (AF 20) (Age 2)  */


/* Organism #35 Fitness: 0 Error: 0 */
genomestart 35
trait 1 1 0 0 0 0 0 0 0 
trait 2 2 0 0 0 0 0 0 0 
trait 3 3 0 2636 2403 0 0 0 0 
node 1 2 1 3
node 2 2 1 1
node 3 1 1 1
node 4 3 1 1
node 5 1 0 2
node 6 2 0 2
node 9 1 0 0
gene 2 1 5 -419184 0 1 -419184 1
gene 2 2 5 621856 0 2 621856 0
gene 1 3 5 684686 0 3 684686 1
gene 1 4 5 -491363 0 4 -491363 1
gene 2 1 6 -614738 0 5 -614738 1
gene 1 2 6 -541011 0 6 -541011 1
gene 1 3 6 30081 0 7 30081 1
gene 1 4 6 102460 0 8 102460 1
gene 2 2 9 49147 0 25 49147 1
gene 2 9 5 -406109 0 26 -406109 1
gene 3 5 6 13279 0 74 13279 1
gene 3 9 6 -32167 0 92 -32167 1
genomeend 35

/* Organism #36 Fitness: 40 Error: 0 */
genomestart 36
trait 1 1 0 0 0 0 0 0 0 
trait 2 2 0 0 0 0 0 0 0 
trait 3 3 0 2636 2403 0 0 0 0 
node 1 2 1 3
node 2 2 1 1
node 3 1 1 1
node 4 3 1 1
node 5 1 0 2
node 6 2 0 2
node 9 1 0 0
gene 2 1 5 -228099 0 1 -228099 1
gene 2 2 5 775528 0 2 775528 0
gene 1 3 5 800000 0 3 800000 1
gene 1 4 5 -506327 0 4 -506327 1
gene 2 1 6 -669416 0 5 -669416 1
gene 1 2 6 -598695 0 6 -598695 1
gene 1 3 6 -27051 0 7 -27051 1
gene 1 4 6 294550 0 8 294550 1
gene 2 2 9 250327 0 25 250327 1
gene 2 9 5 -330557 0 26 -330557 1
gene 3 5 6 13279 0 74 13279 1
genomeend 36

/* Species #344 : (Size 2) (AF 20) (Age 2)  */


/* Organism #37 Fitness: 0 Error: 0 */
genomestart 37
trait 1 23347 0 701 6891 0 9032 18841 0 
trait 2 2 0 0 0 0 0 0 0 
trait 3 3 0 2636 2403 0 0 0 0 
node 1 2 1 3
node 2 2 1 1
node 3 1 1 1
node 4 3 1 1
node 5 1 0 2
node 6 2 0 2
node 9 1 0 0
gene 2 1 5 -115680 0 1 -115680 1
gene 2 2 5 -178181 0 2 -178181 0
gene 1 3 5 142635 0 3 142635 1
gene 1 4 5 -362810 0 4 -362810 1
gene 1 1 6 299790 0 5 299790 1
gene 1 2 6 -144051 0 6 -144051 1
gene 1 3 6 116766 0 7 116766 1
gene 3 4 6 509253 0 8 509253 1
gene 2 2 9 -512208 0 25 -512208 1
gene 2 9 5 -224346 0 26 -224346 1
gene 1 6 5 96717 0 41 96717 1
genomeend 37

/* Organism #38 Fitness: 40 Error: 0 */
genomestart 38
trait 1 23347 0 701 6891 0 9032 18841 0 
trait 2 2 0 0 0 0 0 0 0 
trait 3 3 0 2636 2403 0 0 0 0 
node 1 2 1 3
node 2 2 1 1
node 3 1 1 1
node 4 3 1 1
node 5 1 0 2
node 6 2 0 2
node 9 1 0 0
gene 2 1 5 -115680 0 1 -115680 1
gene 2 2 5 -178181 0 2 -178181 0
gene 1 3 5 142635 0 3 142635 1
gene 1 4 5 -362810 0 4 -362810 1
gene 1 1 6 299790 0 5 299790 1
gene 1 2 6 -144051 0 6 -144051 1
gene 1 3 6 116766 0 7 116766 1
gene 3 4 6 509253 0 8 509253 1
gene 2 2 9 -512208 0 25 -512208 1
gene 2 9 5 -224346 0 26 -224346 1
gene 1 6 5 96717 0 41 96717 1
gene 2 5 6 -9735 1 93 -9735 1
genomeend 38

/* Species #347 : (Size 3) (AF 40) (Age 2)  */


/* Organism #39 Fitness: 0 Error: 0 */
genomestart 39
trait 1 1 0 0 0 0 0 0 0 
trait 2 2 0 0 0 0 0 0 0 
trait 3 3 33518 2636 5886 9879 0 0 83419 
node 1 2 1 3
node 2 2 1 1
node 3 3 1 1
node 4 3 1 1
node 5 1 0 2
node 6 2 0 2
node 9 1 0 0
gene 2 1 5 -31938 0 1 -31938 1
gene 2 2 5 -653247 0 2 -653247 0
gene 1 3 5 800000 0 3 800000 1
gene 1 4 5 -364232 0 4 -364232 1
gene 2 1 6 -313218 0 5 -313218 1
gene 1 2 6 -379930 0 6 -379930 1
gene 1 3 6 -51987 0 7 -51987 1
gene 3 4 6 -224655 0 8 -224655 1
gene 1 2 9 -109029 0 25 -109029 1
gene 2 9 5 -302232 0 26 -302232 1
gene 3 9 6 -32167 0 92 0 1
genomeend 39

/* Organism #40 Fitness: 120 Error: 0 */
genomestart 40
trait 1 1 0 0 0 0 0 0 0 
trait 2 2 0 0 0 0 0 0 0 
trait 3 3 33518 2636 5886 9879 0 0 83419 
node 1 2 1 3
node 2 2 1 1
node 3 3 1 1
node 4 3 1 1
node 5 1 0 2
node 6 2 0 2
node 9 1 0 0
gene 2 1 5 -31938 0 1 -31938 1
gene 2 2 5 -653247 0 2 -653247 0
gene 1 3 5 800000 0 3 800000 1
gene 1 4 5 -364232 0 4 -364232 1
gene 2 1 6 -313218 0 5 -313218 1
gene 1 2 6 -379930 0 6 -379930 1
gene 1 3 6 -51987 0 7 -51987 1
gene 3 4 6 -224655 0 8 -224655 1
gene 1 2 9 -109029 0 25 -109029 1
gene 2 9 5 -302232 0 26 -302232 1
gene 2 3 9 22348 0 89 0 1
genomeend 40

/* Organism #41 Fitness: 0 Error: 0 */
genomestart 41
trait 1 1 0 0 0 0 0 0 0 
trait 2 2 0 0 0 0 0 0 0 
trait 3 3 33518 2636 5886 9879 0 0 83419 
node 1 2 1 3
node 2 2 1 1
node 3 3 1 1
node 4 3 1 1
node 5 1 0 2
node 6 2 0 2
node 9 1 0 0
gene 2 1 5 23628 0 1 23628 1
gene 2 2 5 -508833 0 2 -508833 0
gene 1 3 5 800000 0 3 800000 1
gene 1 4 5 -193556 0 4 -193556 1
gene 2 1 6 -271926 0 5 -271926 1
gene 1 2 6 -602170 0 6 -602170 1
gene 1 3 6 -213270 0 7 -213270 1
gene 3 4 6 -200583 0 8 -200583 1
gene 1 2 9 -270663 0 25 -270663 1
gene 2 9 5 -109926 0 26 -109926 1
genomeend 41

/* Species #353 : (Size 1) (AF 0) (Age 2)  */


/* Organism #42 Fitness: 0 Error: 0 */
genomestart 42
trait 1 23347 0 701 6891 0 9032 18841 0 
trait 2 2 0 0 0 0 0 0 0 
trait 3 3 0 2636 2403 0 0 0 0 
node 1 2 1 3
node 2 2 1 1
node 3 1 1 1
node 4 3 1 1
node 5 1 0 2
node 6 2 0 2
node 9 1 0 0
gene 2 1 5 -81729 0 1 -81729 1
gene 2 2 5 -59822 0 2 -59822 0
gene 1 3 5 447381 0 3 447381 1
gene 1 4 5 -627455 0 4 -627455 1
gene 1 1 6 296667 0 5 296667 1
gene 1 2 6 -190572 0 6 -190572 1
gene 1 3 6 109698 0 7 109698 1
gene 3 4 6 -155146 0 8 -155146 1
gene 2 2 9 -3321 0 25 -3321 1
gene 2 9 5 31452 0 26 31452 1
gene 1 6 5 379707 0 41 379707 1
genomeend 42

/* Species #354 : (Size 2) (AF 80) (Age 2)  */


/* Organism #43 Fitness: 0 Error: 0 */
genomestart 43
trait 1 23347 0 701 6891 0 9032 18841 0 
trait 2 2 0 0 0 0 0 0 0 
trait 3 3 0 2636 2403 0 0 0 0 
node 1 2 1 3
node 2 2 1 1
node 3 1 1 1
node 4 3 1 1
node 5 1 0 2
node 6 2 0 2
node 9 1 0 0
gene 2 1 5 34152 0 1 34152 1
gene 2 2 5 -51482 0 2 -51482 0
gene 1 3 5 732585 0 3 732585 1
gene 1 4 5 -666812 0 4 -666812 1
gene 1 1 6 655107 0 5 655107 1
gene 1 2 6 -398585 0 6 -398585 1
gene 1 3 6 -279495 0 7 -279495 1
gene 3 4 6 -222022 0 8 -222022 1
gene 2 2 9 24105 0 25 24105 1
gene 3 9 5 -294117 0 26 -294117 1
gene 1 6 5 17643 0 41 17643 1
genomeend 43

/* Organism #44 Fitness: 160 Error: 0 */
genomestart 44
trait 1 23347 0 701 6891 0 9032 18841 0 
trait 2 2 0 0 0 0 0 0 0 
trait 3 3 0 2636 2403 0 0 0 0 
node 1 2 1 3
node 2 2 1 1
node 3 1 1 1
node 4 3 1 1
node 5 1 0 2
node 6 2 0 2
node 9 1 0 0
gene 2 1 5 76773 0 1 76773 1
gene 2 2 5 9013 0 2 9013 0
gene 1 3 5 461436 0 3 461436 1
gene 1 4 5 -614678 0 4 -614678 1
gene 1 1 6 598632 0 5 598632 1
gene 1 2 6 -392963 0 6 -392963 1
gene 1 3 6 -35997 0 7 -35997 1
gene 3 4 6 -268231 0 8 -268231 1
gene 2 2 9 44394 0 25 44394 1
gene 3 9 5 -294117 0 26 -294117 1
gene 1 6 5 17643 0 41 17643 1
genomeend 44

/* Species #355 : (Size 1) (AF 0) (Age 2)  */


/* Organism #45 Fitness: 0 Error: 0 */
genomestart 45
trait 1 1 0 0 0 0 0 0 0 
trait 2 2 0 0 0 0 0 0 0 
trait 3 3 0 2636 2403 0 0 0 0 
node 1 2 1 3
node 2 2 1 1
node 3 1 1 1
node 4 3 1 1
node 5 3 0 2
node 6 2 0 2
node 9 1 0 0
node 10 1 0 0
gene 2 1 5 -576969 0 1 -576969 1
gene 2 2 5 -271014 0 2 -271014 0
gene 1 3 5 -7773 0 3 -7773 1
gene 1 4 5 -255162 0 4 -255162 1
gene 2 1 6 256824 0 5 256824 1
gene 1 2 6 -310876 0 6 -310876 1
gene 1 3 6 235122 0 7 235122 0
gene 1 4 6 368748 0 8 368748 1
gene 2 2 9 -379055 0 25 -379055 1
gene 2 9 5 84177 0 26 84177 1
gene 1 3 10 329997 0 43 329997 1
gene 1 10 6 485412 0 44 485412 1
genomeend 45

/* Species #356 : (Size 1) (AF 40) (Age 2)  */


/* Organism #46 Fitness: 40 Error: 0 */
genomestart 46
trait 1 1 0 0 0 0 0 0 0 
trait 2 2 0 0 0 0 0 0 0 
trait 3 3 0 2636 2403 0 0 0 0 
node 1 2 1 3
node 2 2 1 1
node 3 1 1 1
node 4 3 1 1
node 5 1 0 2
node 6 2 0 2
node 9 1 0 0
gene 2 1 5 83826 0 1 83826 1
gene 2 2 5 528368 0 2 528368 0
gene 1 3 5 -137067 0 3 -137067 1
gene 1 4 5 -511556 0 4 -511556 1
gene 2 1 6 -269530 0 5 -269530 1
gene 1 2 6 -187923 0 6 -187923 1
gene 1 3 6 -274122 0 7 -274122 1
gene 1 4 6 -37431 0 8 -37431 1
gene 2 2 9 196374 0 25 196374 1
gene 2 9 5 -15315 0 26 -15315 1
genomeend 46

/* Species #359 : (Size 3) (AF 332010) (Age 2)  */


/* Organism #47 Fitness: 0 Error: 0 */
genomestart 47
trait 1 1 0 0 0 0 0 0 0 
trait 2 2 0 0 0 0 0 0 0 
trait 3 3 0 44700 27139 0 0 0 0 
node 1 2 1 3
node 2 2 1 1
node 3 1 1 1
node 4 3 1 1
node 5 1 0 2
node 6 2 0 2
node 9 1 0 0
gene 2 1 5 -159558 0 1 -159558 1
gene 2 2 5 800000 0 2 800000 0
gene 1 3 5 484472 0 3 484472 1
gene 1 4 5 -703619 0 4 -703619 1
gene 2 1 6 -765561 0 5 -765561 1
gene 1 2 6 -65565 0 6 -65565 1
gene 1 3 6 -212325 0 7 -212325 1
gene 1 4 6 198727 0 8 198727 1
gene 2 2 9 -103193 0 25 -103193 1
gene 2 9 5 -378311 0 26 -378311 1
gene 1 6 9 256641 0 76 256641 1
genomeend 47

/* Organism #48 Fitness: 996029 Error: 0 */
/* ##------$ WINNER 48 SPECIES #359 $------## */
genomestart 48
trait 1 1 0 0 0 0 0 0 0 
trait 2 2 0 0 0 0 0 0 0 
trait 3 3 0 2636 2403 0 0 0 0 
node 1 2 1 3
node 2 2 1 1
node 3 1 1 1
node 4 3 1 1
node 5 1 0 2
node 6 2 0 2
node 9 1 0 0
gene 2 1 5 21288 0 1 21288 1
gene 2 2 5 750686 0 2 750686 0
gene 1 3 5 674528 0 3 674528 1
gene 1 4 5 -693860 0 4 -693860 1
gene 2 1 6 -549738 0 5 -549738 1
gene 1 2 6 9702 0 6 9702 1
gene 1 3 6 -447633 0 7 -447633 1
gene 1 4 6 483133 0 8 483133 1
gene 2 2 9 -334145 0 25 -334145 1
gene 2 9 5 -364511 0 26 -364511 1
gene 1 6 9 256641 0 76 256641 1
genomeend 48

/* Organism #49 Fitness: 0 Error: 0 */
genomestart 49
trait 1 1 0 0 0 0 0 0 0 
trait 2 2 0 0 0 0 0 0 0 
trait 3 3 0 2636 2403 0 0 0 0 
node 1 2 1 3
node 2 2 1 1
node 3 1 1 1
node 4 3 1 1
node 5 1 0 2
node 6 2 0 2
node 9 1 0 0
gene 2 1 5 -203781 0 1 -203781 1
gene 2 2 5 800000 0 2 800000 0
gene 1 3 5 657890 0 3 657890 1
gene 1 4 5 -635546 0 4 -635546 1
gene 2 1 6 -800000 0 5 -800000 1
gene 1 2 6 185697 0 6 185697 1
gene 1 3 6 -137880 0 7 -137880 1
gene 1 4 6 292594 0 8 292594 1
gene 2 2 9 -305120 0 25 -305120 1
gene 2 9 5 -391199 0 26 -391199 1
gene 1 6 9 109290 0 76 109290 1
genomeend 49

/* Species #360 : (Size 3) (AF 66.6667) (Age 2)  */


/* Organism #50 Fitness: 0 Error: 0 */
genomestart 50
trait 1 1 0 0 0 0 0 0 0 
trait 2 2 0 0 0 0 0 0 0 
trait 3 3 0 2636 2403 0 0 0 0 
node 1 2 1 3
node 2 2 1 1
node 3 1 1 1
node 4 3 1 1
node 5 1 0 2
node 6 2 0 2
node 9 1 0 0
gene 2 1 5 -208995 0 1 -208995 1
gene 2 2 5 29017 0 2 29017 0
gene 2 3 5 793244 0 3 793244 1
gene 1 4 5 -187224 0 4 -187224 1
gene 2 1 6 -81354 0 5 -81354 1
gene 1 2 6 -447969 0 6 -447969 1
gene 1 3 6 434127 0 7 434127 1
gene 1 4 6 -436139 0 8 -436139 1
gene 2 2 9 -89193 0 25 -89193 1
gene 2 9 5 292287 0 26 292287 1
gene 1 6 5 103714 0 66 103714 1
genomeend 50

/* Organism #51 Fitness: 80 Error: 0 */
genomestart 51
trait 1 1 0 0 0 0 0 0 0 
trait 2 2 0 0 0 0 0 0 0 
trait 3 3 0 2636 2403 0 0 0 0 
node 1 2 1 3
node 2 2 1 1
node 3 1 1 1
node 4 3 1 1
node 5 1 0 2
node 6 2 0 2
node 9 1 0 0
gene 2 1 5 -360639 0 1 -360639 1
gene 2 2 5 -201944 0 2 -201944 0
gene 1 3 5 740141 0 3 740141 1
gene 1 4 5 148062 0 4 148062 1
gene 2 1 6 -16434 0 5 -16434 1
gene 1 2 6 -513015 0 6 -513015 1
gene 1 3 6 264132 0 7 264132 1
gene 1 4 6 -635864 0 8 -635864 1
gene 2 2 9 87189 0 25 87189 1
gene 2 9 5 -238095 0 26 -238095 1
gene 1 6 5 103714 0 66 103714 1
genomeend 51

/* Organism #52 Fitness: 120 Error: 0 */
genomestart 52
trait 1 1 0 0 0 0 0 0 0 
trait 2 2 0 0 0 0 0 0 0 
trait 3 3 0 2636 2403 0 0 0 0 
node 1 2 1 3
node 2 2 1 1
node 3 1 1 1
node 4 3 1 1
node 5 1 0 2
node 6 2 0 2
node 9 1 0 0
gene 2 1 5 -97686 0 1 -97686 1
gene 2 2 5 -254 0 2 -254 0
gene 1 3 5 800000 0 3 800000 1
gene 1 4 5 57354 0 4 57354 1
gene 2 1 6 -92691 0 5 -92691 1
gene 1 2 6 -626748 0 6 -626748 1
gene 1 3 6 387699 0 7 387699 1
gene 1 4 6 -515594 0 8 -515594 1
gene 2 2 9 10311 0 25 10311 1
gene 2 9 5 -62736 0 26 -62736 1
gene 1 6 5 103714 0 66 103714 1
genomeend 52

/* Species #362 : (Size 2) (AF 0) (Age 2)  */


/* Organism #53 Fitness: 0 Error: 0 */
genomestart 53
trait 1 1 0 0 0 0 0 0 0 
trait 2 2 0 0 0 0 0 0 0 
trait 3 3 33518 2636 5886 9879 0 0 83419 
node 1 2 1 3
node 2 2 1 1
node 3 1 1 1
node 4 3 1 1
node 5 1 0 2
node 6 2 0 2
node 9 1 0 0
gene 3 1 5 -614682 0 1 -614682 1
gene 2 2 5 531933 0 2 531933 0
gene 1 3 5 637302 0 3 637302 1
gene 1 4 5 -25853 0 4 -25853 1
gene 2 1 6 -74556 0 5 -74556 1
gene 1 2 6 -680308 0 6 -680308 1
gene 1 3 6 -180534 0 7 -180534 1
gene 3 4 6 64584 0 8 64584 1
gene 1 2 9 405315 0 25 405315 1
gene 2 9 5 314689 0 26 314689 1
genomeend 53

/* Organism #54 Fitness: 0 Error: 0 */
genomestart 54
trait 1 1 0 0 0 0 0 0 0 
trait 2 2 0 0 0 0 0 0 0 
trait 3 3 33518 2636 5886 9879 0 0 83419 
node 1 2 1 3
node 2 2 1 1
node 3 1 1 1
node 4 3 1 1
node 5 1 0 2
node 6 2 0 2
node 9 1 0 0
gene 3 1 5 -580572 0 1 -580572 1
gene 2 2 5 531933 0 2 531933 0
gene 1 3 5 592278 0 3 592278 1
gene 1 4 5 16612 0 4 16612 1
gene 2 1 6 132927 0 5 132927 1
gene 1 2 6 -492964 0 6 -492964 1
gene 1 3 6 -422592 0 7 -422592 1
gene 3 4 6 64584 0 8 64584 1
gene 1 2 9 680916 0 25 680916 1
gene 2 9 5 314689 0 26 314689 1
genomeend 54

/* Species #363 : (Size 2) (AF 0) (Age 2)  */


/* Organism #55 Fitness: 0 Error: 0 */
genomestart 55
trait 1 1 0 0 0 0 0 0 0 
trait 2 2 0 0 0 0 0 0 0 
trait 3 0 33518 2636 0 84823 0 0 87799 
node 1 2 1 3
node 2 2 1 1
node 3 3 1 1
node 4 3 1 1
node 5 1 0 2
node 6 2 0 2
node 9 1 0 0
gene 2 1 5 125901 0 1 125901 1
gene 2 2 5 270069 0 2 270069 0
gene 1 3 5 345359 0 3 345359 1
gene 1 4 5 -324824 0 4 -324824 1
gene 2 1 6 -485478 0 5 -485478 1
gene 1 2 6 -124048 0 6 -124048 1
gene 1 3 6 -70770 0 7 -70770 1
gene 3 4 6 15468 0 8 15468 1
gene 1 2 9 200280 0 25 200280 1
gene 2 9 5 83367 0 26 83367 1
genomeend 55

/* Organism #56 Fitness: 0 Error: 0 */
genomestart 56
trait 1 1 0 0 0 0 0 0 0 
trait 2 2 0 0 0 0 0 0 0 
trait 3 1 33518 2636 2943 47351 0 0 85609 
node 1 2 1 3
node 2 2 1 1
node 3 3 1 1
node 4 3 1 1
node 5 1 0 2
node 6 2 0 2
node 9 1 0 0
gene 2 1 5 -189267 0 1 -189267 1
gene 2 2 5 -81666 0 2 -81666 0
gene 1 3 5 443009 0 3 443009 1
gene 1 4 5 11139 0 4 11139 1
gene 2 1 6 -304710 0 5 -304710 1
gene 1 2 6 -614804 0 6 -614804 1
gene 1 3 6 -239382 0 7 -239382 1
gene 3 4 6 -191598 0 8 -191598 1
gene 1 2 9 474525 0 25 474525 1
gene 2 9 5 239367 0 26 239367 1
genomeend 56

/* Species #367 : (Size 2) (AF 40) (Age 2)  */


/* Organism #57 Fitness: 0 Error: 0 */
genomestart 57
trait 1 1 0 0 0 0 0 0 0 
trait 2 2 0 0 0 0 0 0 0 
trait 3 3 0 2636 2403 0 0 0 0 
node 1 2 1 3
node 2 2 1 1
node 3 1 1 1
node 4 3 1 1
node 5 1 0 2
node 6 2 0 2
node 9 1 0 0
node 10 1 0 0
gene 2 1 5 -238959 0 1 -238959 1
gene 2 2 5 -59547 0 2 -59547 0
gene 1 3 5 787624 0 3 787624 1
gene 1 4 5 -245568 0 4 -245568 1
gene 2 1 6 210849 0 5 210849 1
gene 1 2 6 -800000 0 6 -800000 1
gene 1 3 6 222012 0 7 222012 0
gene 1 4 6 -275064 0 8 -275064 1
gene 2 2 9 -300290 0 25 -300290 1
gene 2 9 5 -128871 0 26 -128871 1
gene 1 3 10 113940 0 43 113940 1
gene 1 10 6 287816 0 44 287816 1
genomeend 57

/* Organism #58 Fitness: 80 Error: 0 */
genomestart 58
trait 1 1 0 0 0 0 0 0 0 
trait 2 2 0 0 0 0 0 0 0 
trait 3 3 0 2636 2403 0 0 0 0 
node 1 2 1 3
node 2 2 1 1
node 3 1 1 1
node 4 3 1 1
node 5 1 0 2
node 6 3 0 2
node 9 1 0 0
node 10 1 0 0
gene 2 1 5 -114384 0 1 -114384 1
gene 2 2 5 -312477 0 2 -312477 0
gene 1 3 5 800000 0 3 800000 1
gene 1 4 5 -523830 0 4 -523830 1
gene 2 1 6 -10545 0 5 -10545 1
gene 1 2 6 -672311 0 6 -672311 1
gene 1 3 6 203940 0 7 203940 0
gene 1 4 6 -550509 0 8 -550509 1
gene 2 2 9 -272636 0 25 -272636 1
gene 2 9 5 -28179 0 26 -28179 1
gene 1 3 10 -22941 0 43 -22941 1
gene 1 10 6 498770 0 44 498770 1
genomeend 58

/* Species #368 : (Size 1) (AF 0) (Age 1)  */


/* Organism #59 Fitness: 0 Error: 0 */
genomestart 59
trait 1 1 0 0 0 0 0 0 0 
trait 2 2 0 0 0 0 53918 0 0 
trait 3 3 33518 2636 5886 9879 0 0 83419 
node 1 2 1 3
node 2 2 1 1
node 3 1 1 1
node 4 3 1 1
node 5 1 0 2
node 6 2 0 2
node 9 1 0 0
gene 2 1 5 -350847 0 1 -350847 1
gene 2 2 5 245337 0 2 245337 0
gene 1 3 5 135312 0 3 135312 1
gene 1 4 5 -626321 0 4 -626321 1
gene 2 1 6 3726 0 5 3726 1
gene 1 2 6 148523 0 6 148523 1
gene 1 3 6 -309951 0 7 -309951 1
gene 3 4 6 -327609 0 8 -327609 1
gene 2 2 9 -246690 0 25 -246690 1
gene 2 9 5 157531 0 26 157531 1
gene 3 6 5 -274449 0 82 -274449 1
genomeend 59

/* Species #369 : (Size 1) (AF 0) (Age 1)  */


/* Organism #60 Fitness: 0 Error: 0 */
genomestart 60
trait 1 1 0 0 0 0 0 0 0 
trait 2 2 0 0 0 0 0 0 0 
trait 3 3 0 2636 2403 0 0 0 0 
node 1 2 1 3
node 2 2 1 1
node 3 1 1 1
node 4 3 1 1
node 5 1 0 2
node 6 2 0 2
node 9 1 0 0
node 10 1 0 0
gene 2 1 5 -261069 0 1 -261069 1
gene 2 2 5 311437 0 2 311437 0
gene 1 3 5 54780 0 3 54780 1
gene 1 4 5 -510071 0 4 -510071 1
gene 2 1 6 442608 0 5 442608 1
gene 1 2 6 299775 0 6 299775 1
gene 1 3 6 -11746 0 7 -11746 0
gene 1 4 6 -113816 0 8 -113816 1
gene 2 2 9 -370676 0 25 -370676 1
gene 2 9 5 102795 0 26 102795 1
gene 1 3 10 -329120 0 43 -329120 1
gene 1 10 6 334904 0 44 334904 1
gene 3 5 6 290899 0 74 290899 1
genomeend 60

/* Species #370 : (Size 1) (AF 0) (Age 1)  */


/* Organism #61 Fitness: 0 Error: 0 */
genomestart 61
trait 1 1 0 0 0 0 0 0 0 
trait 2 2 0 0 0 0 0 0 0 
trait 3 3 92371 2636 30916 0 100000 60251 0 
node 1 2 1 3
node 2 2 1 1
node 3 1 1 1
node 4 3 1 1
node 5 1 0 2
node 6 2 0 2
node 9 1 0 0
gene 2 1 5 -292908 0 1 -292908 1
gene 2 2 5 -800000 0 2 -800000 0
gene 1 3 5 469528 0 3 469528 1
gene 1 4 5 -96069 0 4 -96069 1
gene 2 1 6 392130 0 5 392130 1
gene 1 2 6 -379942 0 6 -379942 1
gene 1 3 6 750236 0 7 750236 1
gene 1 4 6 -218918 0 8 -218918 1
gene 2 2 9 64501 0 25 64501 1
gene 2 9 5 -141765 0 26 -141765 1
genomeend 61

/* Species #371 : (Size 1) (AF 40) (Age 1)  */


/* Organism #62 Fitness: 40 Error: 0 */
genomestart 62
trait 1 1 0 0 0 0 0 0 0 
trait 2 2 0 0 0 0 0 0 0 
trait 3 3 92371 2636 30916 0 100000 60251 0 
node 1 2 1 3
node 2 2 1 1
node 3 1 1 1
node 4 3 1 1
node 5 1 0 2
node 6 2 0 2
node 9 1 0 0
gene 2 1 5 -315453 0 1 -315453 1
gene 2 2 5 -800000 0 2 -800000 0
gene 1 3 5 444094 0 3 444094 1
gene 1 4 5 -344307 0 4 -344307 1
gene 2 1 6 424593 0 5 424593 1
gene 1 2 6 -748981 0 6 -748981 1
gene 1 3 6 226832 0 7 226832 1
gene 1 4 6 -386648 0 8 -386648 1
gene 2 2 9 172648 0 25 172648 1
gene 2 9 5 -4335 0 26 -4335 1
genomeend 62

/* Species #372 : (Size 1) (AF 0) (Age 1)  */


/* Organism #63 Fitness: 0 Error: 0 */
genomestart 63
trait 1 0 0 0 0 10417 0 0 24037 
trait 2 2 0 0 0 0 0 0 0 
trait 3 3 0 2636 2403 0 0 0 0 
node 1 2 1 3
node 2 2 1 1
node 3 1 1 1
node 4 3 1 1
node 5 1 0 2
node 6 2 0 2
node 9 1 0 0
gene 2 1 5 -150471 0 1 -150471 1
gene 2 2 5 -383414 0 2 -383414 0
gene 1 3 5 142965 0 3 142965 1
gene 1 4 5 -627983 0 4 -627983 1
gene 2 1 6 -263370 0 5 -263370 1
gene 1 2 6 -133222 0 6 -133222 1
gene 1 3 6 800000 0 7 800000 1
gene 1 4 6 -476051 0 8 -476051 1
gene 2 2 9 -233046 0 25 -233046 1
gene 2 9 5 -167910 0 26 -167910 1
genomeend 63

/* Species #373 : (Size 1) (AF 0) (Age 1)  */


/* Organism #64 Fitness: 0 Error: 0 */
genomestart 64
trait 1 0 0 0 0 10417 0 0 24037 
trait 2 2 0 0 0 0 0 0 0 
trait 3 3 0 2636 2403 0 0 0 0 
node 1 2 1 3
node 2 2 1 1
node 3 1 1 1
node 4 3 1 1
node 5 1 0 2
node 6 2 0 2
node 9 1 0 0
gene 2 1 5 -295386 0 1 -295386 1
gene 2 2 5 -437753 0 2 -437753 0
gene 1 3 5 425225 0 3 425225 1
gene 1 4 5 -551060 0 4 -551060 1
gene 2 1 6 66414 0 5 66414 1
gene 1 2 6 73629 0 6 73629 1
gene 1 3 6 479249 0 7 479249 1
gene 1 4 6 -297591 0 8 -297591 1
gene 2 2 9 -559379 0 25 -559379 1
gene 2 9 5 -167910 0 26 -167910 1
genomeend 64

/* Species #374 : (Size 1) (AF 0) (Age 1)  */


/* Organism #65 Fitness: 0 Error: 0 */
genomestart 65
trait 1 1 0 0 0 0 0 0 0 
trait 2 2 0 0 0 0 0 0 0 
trait 3 3 33518 2636 5886 9879 0 0 83419 
node 1 2 1 3
node 2 2 1 1
node 3 1 1 1
node 4 3 1 1
node 5 2 0 2
node 6 2 0 2
node 9 1 0 0
gene 2 1 5 -377853 0 1 -377853 1
gene 2 2 5 109209 0 2 109209 0
gene 1 3 5 -13146 0 3 -13146 1
gene 1 4 5 -725240 0 4 -725240 1
gene 2 1 6 -442893 0 5 -442893 1
gene 1 2 6 -380071 0 6 -380071 1
gene 1 3 6 -193011 0 7 -193011 1
gene 3 4 6 40551 0 8 40551 1
gene 1 2 9 604629 0 25 604629 1
gene 2 9 5 270318 0 26 270318 1
gene 1 9 6 18794 0 83 18794 1
genomeend 65

/* Species #375 : (Size 1) (AF 80) (Age 1)  */


/* Organism #66 Fitness: 80 Error: 0 */
genomestart 66
trait 1 1 0 0 0 0 0 0 0 
trait 2 2 0 0 0 0 0 0 0 
trait 3 3 33518 2636 5886 9879 0 0 83419 
node 1 2 1 3
node 2 2 1 1
node 3 1 1 1
node 4 3 1 1
node 5 1 0 2
node 6 2 0 2
node 9 1 0 0
gene 2 1 5 -577935 0 1 -577935 1
gene 2 2 5 46476 0 2 46476 0
gene 1 3 5 800000 0 3 800000 1
gene 1 4 5 -631646 0 4 -631646 1
gene 2 1 6 97542 0 5 97542 1
gene 1 2 6 -491491 0 6 -491491 1
gene 1 3 6 -468330 0 7 -468330 1
gene 3 4 6 -275997 0 8 -275997 1
gene 1 2 9 800000 0 25 800000 1
gene 2 9 5 259957 0 26 259957 1
gene 1 9 6 -266235 0 83 -266235 1
genomeend 66

/* Species #376 : (Size 1) (AF 0) (Age 1)  */


/* Organism #67 Fitness: 0 Error: 0 */
genomestart 67
trait 1 1 0 0 0 0 0 0 0 
trait 2 2 0 0 0 0 0 0 0 
trait 3 3 0 2636 2403 0 0 0 0 
node 1 2 1 3
node 2 2 1 1
node 3 1 1 1
node 4 3 1 1
node 5 1 0 2
node 6 2 0 2
node 9 1 0 0
gene 2 1 5 -589092 0 1 -589092 1
gene 2 2 5 394126 0 2 394126 0
gene 1 3 5 732356 0 3 732356 1
gene 1 4 5 -662111 0 4 -662111 1
gene 2 1 6 -800000 0 5 -800000 1
gene 1 2 6 -59862 0 6 -59862 1
gene 1 3 6 -122493 0 7 -122493 1
gene 1 4 6 101254 0 8 101254 1
gene 2 2 9 -137387 0 25 -137387 1
gene 2 9 5 235839 0 26 235839 1
gene 3 5 6 429892 0 74 429892 1
genomeend 67

/* Species #377 : (Size 1) (AF 0) (Age 1)  */


/* Organism #68 Fitness: 0 Error: 0 */
genomestart 68
trait 1 23347 0 701 6891 0 9032 18841 0 
trait 2 2 0 0 0 0 0 0 0 
trait 3 3 0 2636 2403 0 0 0 0 
node 1 2 1 3
node 2 2 1 1
node 3 1 1 1
node 4 3 1 1
node 5 1 0 2
node 6 2 0 2
node 9 1 0 0
gene 2 1 5 -8856 0 1 -8856 1
gene 2 2 5 388516 0 2 388516 0
gene 1 3 5 382899 0 3 382899 1
gene 1 4 5 -558269 0 4 -558269 1
gene 1 1 6 -76836 0 5 -76836 1
gene 1 2 6 -578060 0 6 -578060 1
gene 1 3 6 -330159 0 7 -330159 1
gene 3 4 6 1257 0 8 1257 1
gene 2 2 9 56295 0 25 56295 1
gene 2 9 5 386301 0 26 386301 1
gene 1 6 5 87819 0 41 87819 1
genomeend 68

/* Species #378 : (Size 1) (AF 0) (Age 1)  */


/* Organism #69 Fitness: 0 Error: 0 */
genomestart 69
trait 1 1 0 0 0 0 0 0 0 
trait 2 2 0 0 0 0 0 0 0 
trait 3 3 0 2636 30916 12021 33055 0 0 
node 1 2 1 3
node 2 2 1 1
node 3 1 1 1
node 4 3 1 1
node 5 1 0 2
node 6 2 0 2
node 9 1 0 0
gene 2 1 5 -78927 0 1 -78927 1
gene 2 2 5 -9576 0 2 -9576 0
gene 1 3 5 669527 0 3 669527 1
gene 1 4 5 -631796 0 4 -631796 1
gene 2 1 6 243327 0 5 243327 1
gene 1 2 6 -680929 0 6 -680929 1
gene 1 3 6 680144 0 7 680144 1
gene 1 4 6 -378747 0 8 -378747 1
gene 2 2 9 484699 0 25 484699 1
gene 2 9 5 277008 0 26 277008 1
gene 2 6 6 129154 1 79 129154 1
genomeend 69

/* Species #379 : (Size 1) (AF 0) (Age 1)  */


/* Organism #70 Fitness: 0 Error: 0 */
genomestart 70
trait 1 1 0 0 0 0 0 0 0 
trait 2 2 0 0 0 0 0 0 0 
trait 3 3 33518 2636 5886 9879 0 0 83419 
node 1 2 1 3
node 2 2 1 1
node 3 3 1 1
node 4 3 1 1
node 5 1 0 2
node 6 2 0 2
node 9 1 0 0
gene 2 1 5 -111867 0 1 -111867 1
gene 1 2 5 -506811 0 2 -506811 0
gene 1 3 5 469817 0 3 469817 1
gene 1 4 5 245580 0 4 245580 1
gene 2 1 6 -432747 0 5 -432747 1
gene 1 2 6 -206777 0 6 -206777 1
gene 1 3 6 373468 0 7 373468 1
gene 3 4 6 -273331 0 8 -273331 1
gene 1 2 9 157519 0 25 157519 1
gene 2 9 5 -428965 0 26 -428965 1
genomeend 70

/* Species #380 : (Size 1) (AF 0) (Age 1)  */


/* Organism #71 Fitness: 0 Error: 0 */
genomestart 71
trait 1 1 0 0 0 0 0 0 0 
trait 2 0 0 0 71145 0 13742 0 0 
trait 3 3 0 2636 2403 0 0 0 0 
node 1 2 1 3
node 2 2 1 1
node 3 1 1 1
node 4 3 1 1
node 5 1 0 2
node 6 2 0 2
node 9 1 0 0
gene 2 1 5 -314619 0 1 -314619 1
gene 2 2 5 -277230 0 2 -277230 0
gene 1 3 5 368872 0 3 368872 1
gene 1 4 5 -652988 0 4 -652988 1
gene 2 1 6 198423 0 5 198423 1
gene 3 2 6 252678 0 6 252678 1
gene 1 3 6 -167604 0 7 -167604 1
gene 1 4 6 143226 0 8 143226 1
gene 2 2 9 -522222 0 25 -522222 1
gene 2 9 5 -2391 0 26 -2391 1
gene 3 6 6 344885 1 53 344885 1
gene 1 5 6 92750 0 61 92750 1
genomeend 71

/* Species #381 : (Size 1) (AF 0) (Age 1)  */


/* Organism #72 Fitness: 0 Error: 0 */
genomestart 72
trait 1 23347 0 701 6891 0 9032 18841 0 
trait 2 2 0 0 0 0 0 0 0 
trait 3 3 0 2636 2403 0 0 0 0 
node 1 2 1 3
node 2 2 1 1
node 3 1 1 1
node 4 3 1 1
node 5 1 0 2
node 6 2 0 2
node 9 1 0 0
gene 2 1 5 -224586 0 1 -224586 1
gene 2 2 5 -75891 0 2 -75891 0
gene 1 3 5 366864 0 3 366864 1
gene 1 4 5 -800000 0 4 -800000 1
gene 1 1 6 88929 0 5 88929 1
gene 1 2 6 -333455 0 6 -333455 1
gene 1 3 6 243036 0 7 243036 1
gene 3 4 6 181103 0 8 181103 1
gene 2 2 9 113466 0 25 113466 1
gene 2 9 5 238719 0 26 238719 1
gene 1 6 5 -133635 0 41 -133635 1
genomeend 72

/* Species #382 : (Size 1) (AF 0) (Age 1)  */


/* Organism #73 Fitness: 0 Error: 0 */
genomestart 73
trait 1 1 0 0 0 0 0 0 0 
trait 2 2 0 0 0 0 0 0 0 
trait 3 3 0 2636 2403 0 0 0 0 
node 1 2 1 3
node 2 2 1 1
node 3 1 1 1
node 4 3 1 1
node 5 1 0 2
node 6 2 0 2
node 9 1 0 0
node 10 1 0 0
gene 2 1 5 -4716 0 1 -4716 1
gene 2 2 5 -155496 0 2 -155496 1
gene 1 3 5 502123 0 3 502123 1
gene 1 4 5 -243278 0 4 -243278 1
gene 2 1 6 424062 0 5 424062 1
gene 1 2 6 -105625 0 6 -105625 1
gene 1 3 6 521022 0 7 521022 0
gene 1 4 6 354351 0 8 354351 1
gene 2 2 9 -508073 0 25 -508073 1
gene 2 9 5 189045 0 26 189045 1
gene 1 3 10 -131151 0 43 -131151 1
gene 1 10 6 269376 0 44 269376 1
genomeend 73

/* Species #383 : (Size 1) (AF 0) (Age 1)  */


/* Organism #74 Fitness: 0 Error: 0 */
genomestart 74
trait 1 1 0 0 0 0 0 0 0 
trait 2 2 0 0 0 0 0 0 0 
trait 3 3 0 2636 30916 12021 33055 0 0 
node 1 2 1 3
node 2 2 1 1
node 3 1 1 1
node 4 3 1 1
node 5 1 0 2
node 6 2 0 2
node 9 1 0 0
gene 2 1 5 66360 0 1 66360 1
gene 2 2 5 -525404 0 2 -525404 0
gene 1 3 5 575497 0 3 575497 1
gene 1 4 5 -589749 0 4 -589749 1
gene 2 1 6 266637 0 5 266637 1
gene 1 2 6 -66027 0 6 -66027 1
gene 1 3 6 800000 0 7 800000 1
gene 1 4 6 -164841 0 8 -164841 1
gene 2 2 9 -186155 0 25 -186155 1
gene 2 9 5 -262104 0 26 -262104 1
genomeend 74

/* Species #384 : (Size 1) (AF 80) (Age 1)  */


/* Organism #75 Fitness: 80 Error: 0 */
genomestart 75
trait 1 1 0 0 0 0 0 0 0 
trait 2 2 0 0 0 0 0 0 0 
trait 3 3 0 2636 2403 0 0 0 0 
node 1 2 1 3
node 2 2 1 1
node 3 1 1 1
node 4 3 1 1
node 5 1 0 2
node 6 2 0 2
node 9 1 0 0
gene 2 1 5 -263760 0 1 -263760 1
gene 2 2 5 655262 0 2 655262 0
gene 1 3 5 787820 0 3 787820 1
gene 1 4 5 -758681 0 4 -758681 1
gene 2 1 6 -800000 0 5 -800000 1
gene 1 2 6 -184137 0 6 -184137 1
gene 1 3 6 -79556 0 7 -79556 1
gene 1 4 6 -234504 0 8 -234504 1
gene 2 2 9 -14141 0 25 -14141 1
gene 2 9 5 176160 0 26 176160 1
genomeend 75

/* Species #385 : (Size 2) (AF 40) (Age 1)  */


/* Organism #76 Fitness: 0 Error: 0 */
genomestart 76
trait 1 1 0 73821 0 16000 0 30510 0 
trait 2 2 0 0 0 0 0 0 0 
trait 3 3 0 2636 2403 0 0 0 0 
node 1 2 1 3
node 2 2 1 1
node 3 1 1 1
node 4 3 1 1
node 5 1 0 2
node 6 2 0 2
node 9 1 0 0
gene 2 1 5 -353127 0 1 -353127 1
gene 2 2 5 705484 0 2 705484 0
gene 1 3 5 800000 0 3 800000 1
gene 1 4 5 -574943 0 4 -574943 1
gene 2 1 6 -182457 0 5 -182457 1
gene 1 2 6 -419007 0 6 -419007 1
gene 1 3 6 -20673 0 7 -20673 1
gene 1 4 6 173617 0 8 173617 1
gene 2 2 9 61657 0 25 61657 1
gene 2 9 5 -26493 0 26 -26493 1
gene 1 6 9 31652 0 76 31652 1
genomeend 76

/* Organism #77 Fitness: 80 Error: 0 */
genomestart 77
trait 1 1 0 0 0 0 0 0 0 
trait 2 2 0 0 0 0 0 0 0 
trait 3 3 0 2636 2403 0 0 0 0 
node 1 2 1 3
node 2 2 1 1
node 3 1 1 1
node 4 3 1 1
node 5 1 0 2
node 6 2 0 2
node 9 1 0 0
gene 2 1 5 -482988 0 1 -482988 1
gene 2 2 5 650722 0 2 650722 0
gene 1 3 5 800000 0 3 800000 1
gene 1 4 5 -565190 0 4 -565190 1
gene 2 1 6 -145566 0 5 -145566 1
gene 1 2 6 -382158 0 6 -382158 1
gene 1 3 6 -23907 0 7 -23907 1
gene 1 4 6 128620 0 8 128620 1
gene 2 2 9 -446237 0 25 -446237 1
gene 2 9 5 -144890 0 26 -144890 1
gene 1 6 9 111717 0 76 111717 1
genomeend 77

/* Species #386 : (Size 1) (AF 0) (Age 1)  */


/* Organism #78 Fitness: 0 Error: 0 */
genomestart 78
trait 1 1 0 0 0 0 0 0 0 
trait 2 2 0 0 0 0 0 0 0 
trait 3 3 33518 2636 5886 9879 0 0 83419 
node 1 2 1 3
node 2 2 1 1
node 3 1 1 1
node 4 3 1 1
node 5 1 0 2
node 6 2 0 2
node 9 1 0 0
gene 2 1 5 -414099 0 1 -414099 1
gene 2 2 5 -518955 0 2 -518955 0
gene 1 3 5 183549 0 3 183549 1
gene 1 4 5 -404189 0 4 -404189 1
gene 2 1 6 33027 0 5 33027 1
gene 1 2 6 -73312 0 6 -73312 1
gene 1 3 6 -562497 0 7 -562497 1
gene 3 4 6 -800000 0 8 -800000 1
gene 2 2 9 410334 0 25 410334 1
gene 2 9 5 -167300 0 26 -167300 1
gene 2 6 6 -356115 1 86 -356115 1
genomeend 78

/* Species #387 : (Size 1) (AF 40) (Age 1)  */


/* Organism #79 Fitness: 40 Error: 0 */
genomestart 79
trait 1 1 0 0 0 0 0 0 0 
trait 2 2 0 0 0 0 0 0 0 
trait 3 3 33518 2636 5886 9879 0 0 83419 
node 1 2 1 3
node 2 2 1 1
node 3 1 1 1
node 4 3 1 1
node 5 1 0 2
node 6 2 0 2
node 9 1 0 0
gene 2 1 5 -395376 0 1 -395376 1
gene 2 2 5 -511467 0 2 -511467 0
gene 1 3 5 562917 0 3 562917 1
gene 1 4 5 -309314 0 4 -309314 1
gene 2 1 6 88413 0 5 88413 1
gene 1 2 6 -109831 0 6 -109831 1
gene 1 3 6 -288636 0 7 -288636 1
gene 3 4 6 -800000 0 8 -800000 1
gene 2 2 9 -3675 0 25 -3675 1
gene 2 9 5 -526697 0 26 -526697 1
gene 1 6 6 -70944 1 86 -70944 1
genomeend 79

/* Species #388 : (Size 1) (AF 0) (Age 1)  */


/* Organism #80 Fitness: 0 Error: 0 */
genomestart 80
trait 1 0 0 15805 0 0 399 41778 0 
trait 2 2 0 0 0 0 0 0 0 
trait 3 3 33518 2636 5886 9879 0 0 83419 
node 1 2 1 3
node 2 2 1 1
node 3 1 1 1
node 4 3 1 1
node 5 1 0 2
node 6 2 0 2
node 9 1 0 0
gene 2 1 5 -451143 0 1 -451143 1
gene 2 2 5 527511 0 2 527511 0
gene 1 3 5 800000 0 3 800000 1
gene 1 4 5 11479 0 4 11479 1
gene 2 1 6 -518736 0 5 -518736 1
gene 1 2 6 -386317 0 6 -386317 1
gene 1 3 6 267252 0 7 267252 1
gene 3 4 6 -246168 0 8 -246168 1
gene 1 2 9 454158 0 25 454158 1
gene 2 9 5 -151079 0 26 -151079 1
genomeend 80

/* Species #389 : (Size 1) (AF 0) (Age 1)  */


/* Organism #81 Fitness: 0 Error: 0 */
genomestart 81
trait 1 0 0 22954 0 78732 0 46857 0 
trait 2 2 0 0 0 0 0 0 0 
trait 3 3 0 2636 30916 12021 33055 0 0 
node 1 2 1 3
node 2 2 1 1
node 3 1 1 1
node 4 3 1 1
node 5 1 0 2
node 6 2 0 2
node 9 1 0 0
gene 2 1 5 -798753 0 1 -798753 1
gene 2 2 5 -146969 0 2 -146969 0
gene 1 3 5 460928 0 3 460928 1
gene 1 4 5 -317027 0 4 -317027 1
gene 2 1 6 -285261 0 5 -285261 1
gene 1 2 6 -394475 0 6 -394475 1
gene 1 3 6 92558 0 7 92558 1
gene 1 4 6 22284 0 8 22284 1
gene 2 2 9 -77903 0 25 -77903 1
gene 2 9 5 478461 0 26 478461 1
gene 3 6 9 285681 0 71 285681 1
genomeend 81

/* Species #390 : (Size 1) (AF 120) (Age 1)  */


/* Organism #82 Fitness: 120 Error: 0 */
genomestart 82
trait 1 0 0 22954 0 78732 0 46857 0 
trait 2 2 0 0 0 0 0 0 0 
trait 3 3 0 2636 30916 12021 33055 0 0 
node 1 2 1 3
node 2 2 1 1
node 3 1 1 1
node 4 3 1 1
node 5 1 0 2
node 6 2 0 2
node 9 1 0 0
gene 2 1 5 -464805 0 1 -464805 1
gene 2 2 5 -167234 0 2 -167234 0
gene 1 3 5 378629 0 3 378629 1
gene 1 4 5 -203657 0 4 -203657 1
gene 2 1 6 -557091 0 5 -557091 1
gene 1 2 6 -291473 0 6 -291473 1
gene 1 3 6 -7483 0 7 -7483 1
gene 1 4 6 -48186 0 8 -48186 1
gene 2 2 9 220725 0 25 220725 1
gene 2 9 5 219276 0 26 219276 1
gene 3 6 9 185010 0 71 185010 1
genomeend 82

/* Species #391 : (Size 1) (AF 0) (Age 1)  */


/* Organism #83 Fitness: 0 Error: 0 */
genomestart 83
trait 1 0 0 22954 0 78732 0 46857 0 
trait 2 2 0 0 0 0 0 0 0 
trait 3 3 0 2636 30916 12021 33055 0 0 
node 1 2 1 3
node 2 2 1 1
node 3 1 1 1
node 4 3 1 1
node 5 1 0 2
node 6 2 0 2
node 9 1 0 0
gene 2 1 5 285048 0 1 285048 1
gene 2 2 5 -237737 0 2 -237737 0
gene 1 3 5 331244 0 3 331244 1
gene 1 4 5 -443258 0 4 -443258 1
gene 2 1 6 -463209 0 5 -463209 1
gene 1 2 6 -265601 0 6 -265601 1
gene 1 3 6 288488 0 7 288488 1
gene 1 4 6 118392 0 8 118392 1
gene 2 2 9 268315 0 25 268315 1
gene 2 9 5 176637 0 26 176637 1
gene 3 6 9 285681 0 71 285681 1
genomeend 83

/* Species #392 : (Size 1) (AF 80) (Age 1)  */


/* Organism #84 Fitness: 80 Error: 0 */
genomestart 84
trait 1 23347 0 701 6891 0 9032 18841 0 
trait 2 2 0 0 0 0 0 0 0 
trait 3 3 0 2636 2403 0 0 0 0 
node 1 2 1 3
node 2 2 1 1
node 3 1 1 1
node 4 3 1 1
node 5 1 0 2
node 6 2 0 2
node 9 1 0 0
gene 2 1 5 -3768 0 1 -3768 1
gene 2 2 5 233721 0 2 233721 0
gene 1 3 5 288528 0 3 288528 1
gene 1 4 5 -552974 0 4 -552974 1
gene 1 1 6 274722 0 5 274722 1
gene 1 2 6 -292677 0 6 -292677 1
gene 1 3 6 58329 0 7 58329 1
gene 3 4 6 -80434 0 8 -80434 1
gene 2 2 9 187248 0 25 187248 1
gene 2 9 5 -173562 0 26 -173562 1
gene 1 6 5 623595 0 41 623595 1
genomeend 84

/* Species #393 : (Size 1) (AF 120) (Age 1)  */


/* Organism #85 Fitness: 120 Error: 0 */
genomestart 85
trait 1 23347 0 701 6891 0 9032 18841 0 
trait 2 2 0 0 0 0 0 0 0 
trait 3 3 0 2636 2403 0 0 0 0 
node 1 2 1 3
node 2 2 1 1
node 3 2 1 1
node 4 3 1 1
node 5 1 0 2
node 6 2 0 2
node 9 1 0 0
gene 2 1 5 -146109 0 1 -146109 1
gene 2 2 5 -275936 0 2 -275936 0
gene 1 3 5 329598 0 3 329598 1
gene 1 4 5 -647441 0 4 -647441 1
gene 1 1 6 477906 0 5 477906 1
gene 1 2 6 -624176 0 6 -624176 1
gene 1 3 6 101772 0 7 101772 1
gene 3 4 6 -358813 0 8 -358813 1
gene 2 2 9 261774 0 25 261774 1
gene 3 9 5 -44262 0 26 -44262 1
gene 1 6 5 102342 0 41 102342 1
genomeend 85

/* Species #394 : (Size 1) (AF 80) (Age 1)  */


/* Organism #86 Fitness: 80 Error: 0 */
genomestart 86
trait 1 23347 0 701 6891 0 9032 18841 0 
trait 2 2 0 0 0 0 0 0 0 
trait 3 3 0 2636 2403 0 0 0 0 
node 1 2 1 3
node 2 2 1 1
node 3 1 1 1
node 4 3 1 1
node 5 1 0 2
node 6 2 0 2
node 9 1 0 0
gene 2 1 5 -194286 0 1 -194286 1
gene 2 2 5 226381 0 2 226381 0
gene 1 3 5 440583 0 3 440583 1
gene 1 4 5 -289299 0 4 -289299 1
gene 1 1 6 598632 0 5 598632 1
gene 1 2 6 -392963 0 6 -392963 1
gene 1 3 6 -197823 0 7 -197823 1
gene 3 4 6 -74632 0 8 -74632 1
gene 2 2 9 26508 0 25 26508 1
gene 3 9 5 124590 0 26 124590 1
gene 1 6 5 127302 0 41 127302 1
genomeend 86

/* Species #395 : (Size 1) (AF 0) (Age 1)  */


/* Organism #87 Fitness: 0 Error: 0 */
genomestart 87
trait 1 1 0 0 0 0 0 0 0 
trait 2 2 0 0 0 0 0 0 0 
trait 3 3 0 2636 2403 0 0 0 0 
node 1 2 1 3
node 2 2 1 1
node 3 1 1 1
node 4 3 1 1
node 5 3 0 2
node 6 2 0 2
node 9 1 0 0
node 10 1 0 0
gene 2 1 5 -632928 0 1 -632928 1
gene 2 2 5 -305340 0 2 -305340 0
gene 1 3 5 584773 0 3 584773 1
gene 1 4 5 -363740 0 4 -363740 1
gene 2 1 6 -141255 0 5 -141255 1
gene 1 2 6 170999 0 6 170999 1
gene 1 3 6 137076 0 7 137076 0
gene 1 4 6 424509 0 8 424509 1
gene 2 2 9 -597725 0 25 -597725 1
gene 2 9 5 -442563 0 26 -442563 1
gene 1 3 10 66669 0 43 66669 1
gene 1 10 6 282741 0 44 282741 1
genomeend 87

/* Species #396 : (Size 1) (AF 0) (Age 1)  */


/* Organism #88 Fitness: 0 Error: 0 */
genomestart 88
trait 1 1 0 0 0 0 0 0 0 
trait 2 2 0 0 0 0 0 0 0 
trait 3 3 0 2636 2403 0 0 0 0 
node 1 2 1 3
node 2 2 1 1
node 3 1 1 1
node 4 3 1 1
node 5 3 0 2
node 6 2 0 2
node 9 1 0 0
node 10 1 0 0
gene 2 1 5 -512631 0 1 -512631 1
gene 2 2 5 -174144 0 2 -174144 0
gene 1 3 5 -245829 0 3 -245829 1
gene 1 4 5 -81182 0 4 -81182 1
gene 2 1 6 238050 0 5 238050 1
gene 1 2 6 -3925 0 6 -3925 1
gene 1 3 6 300357 0 7 300357 0
gene 1 4 6 199380 0 8 199380 1
gene 2 2 9 -134807 0 25 -134807 1
gene 2 9 5 291195 0 26 291195 1
gene 1 3 10 -49569 0 43 -49569 1
gene 1 10 6 467715 0 44 467715 1
genomeend 88

/* Species #397 : (Size 1) (AF 0) (Age 1)  */


/* Organism #89 Fitness: 0 Error: 0 */
genomestart 89
trait 1 1 0 0 0 0 0 0 0 
trait 2 2 0 0 0 0 0 0 0 
trait 3 3 0 2636 2403 0 0 0 0 
node 1 2 1 3
node 2 2 1 1
node 3 1 1 1
node 4 3 1 1
node 5 1 0 2
node 6 2 0 2
node 9 1 0 0
gene 2 1 5 -363105 0 1 -363105 1
gene 2 2 5 467102 0 2 467102 0
gene 1 3 5 11427 0 3 11427 1
gene 1 4 5 -684500 0 4 -684500 1
gene 2 1 6 -183970 0 5 -183970 1
gene 1 2 6 110118 0 6 110118 1
gene 1 3 6 -365394 0 7 -365394 1
gene 1 4 6 113217 0 8 113217 1
gene 2 2 9 -374100 0 25 -374100 1
gene 2 9 5 160326 0 26 160326 1
genomeend 89

/* Species #398 : (Size 1) (AF 0) (Age 1)  */


/* Organism #90 Fitness: 0 Error: 0 */
genomestart 90
trait 1 1 0 0 0 0 0 0 0 
trait 2 2 0 0 0 0 0 0 0 
trait 3 3 0 2636 2403 0 0 0 0 
node 1 2 1 3
node 2 2 1 1
node 3 1 1 1
node 4 3 1 1
node 5 1 0 2
node 6 2 0 2
node 9 1 0 0
gene 2 1 5 122070 0 1 122070 1
gene 2 2 5 -231245 0 2 -231245 0
gene 1 3 5 572645 0 3 572645 1
gene 1 4 5 -183408 0 4 -183408 1
gene 2 1 6 -133659 0 5 -133659 1
gene 1 2 6 -698910 0 6 -698910 1
gene 1 3 6 660369 0 7 660369 1
gene 1 4 6 -243323 0 8 -243323 1
gene 2 2 9 175227 0 25 175227 1
gene 2 9 5 216288 0 26 216288 1
gene 1 6 5 144378 0 66 144378 1
genomeend 90

/* Species #399 : (Size 1) (AF 40) (Age 1)  */


/* Organism #91 Fitness: 40 Error: 0 */
genomestart 91
trait 1 1 0 0 0 0 0 0 0 
trait 2 2 0 0 0 0 0 0 0 
trait 3 3 33518 2636 5886 9879 0 0 83419 
node 1 2 1 3
node 2 2 1 1
node 3 1 1 1
node 4 3 1 1
node 5 1 0 2
node 6 2 0 2
node 9 1 0 0
gene 3 1 5 -800000 0 1 -800000 1
gene 2 2 5 32535 0 2 32535 0
gene 1 3 5 626241 0 3 626241 1
gene 1 4 5 -258513 0 4 -258513 1
gene 2 1 6 -74556 0 5 -74556 1
gene 1 2 6 -730096 0 6 -730096 1
gene 1 3 6 -247536 0 7 -247536 1
gene 3 4 6 -212433 0 8 -212433 1
gene 1 2 9 65877 0 25 65877 1
gene 2 9 5 220099 0 26 220099 1
genomeend 91

/* Species #400 : (Size 1) (AF 0) (Age 1)  */


/* Organism #92 Fitness: 0 Error: 0 */
genomestart 92
trait 1 1 0 0 0 0 0 0 0 
trait 2 2 0 0 0 0 0 0 0 
trait 3 0 33518 2636 0 84823 0 0 87799 
node 1 2 1 3
node 2 2 1 1
node 3 3 1 1
node 4 3 1 1
node 5 1 0 2
node 6 2 0 2
node 9 1 0 0
gene 2 1 5 258819 0 1 258819 1
gene 2 2 5 20253 0 2 20253 0
gene 1 3 5 188156 0 3 188156 1
gene 1 4 5 -65552 0 4 -65552 1
gene 2 1 6 -383223 0 5 -383223 1
gene 1 2 6 -97261 0 6 -97261 1
gene 1 3 6 -50295 0 7 -50295 1
gene 3 4 6 -216801 0 8 -216801 1
gene 1 2 9 246522 0 25 246522 1
gene 2 9 5 255912 0 26 255912 1
genomeend 92

/* Species #401 : (Size 1) (AF 120) (Age 1)  */


/* Organism #93 Fitness: 120 Error: 0 */
genomestart 93
trait 1 1 0 0 0 0 0 0 0 
trait 2 2 0 0 0 0 0 0 0 
trait 3 3 33518 2636 5886 9879 0 0 83419 
node 1 2 1 3
node 2 2 1 1
node 3 1 1 1
node 4 3 1 1
node 5 1 0 2
node 6 2 0 2
node 9 1 0 0
gene 2 1 5 -491043 0 1 -491043 1
gene 2 2 5 90498 0 2 90498 0
gene 1 3 5 691611 0 3 691611 1
gene 1 4 5 -625406 0 4 -625406 1
gene 2 1 6 -164271 0 5 -164271 1
gene 1 2 6 -643660 0 6 -643660 1
gene 1 3 6 -344205 0 7 -344205 1
gene 3 4 6 194958 0 8 194958 1
gene 1 2 9 190305 0 25 190305 1
gene 2 9 5 385063 0 26 385063 1
genomeend 93

/* Species #402 : (Size 1) (AF 0) (Age 1)  */


/* Organism #94 Fitness: 0 Error: 0 */
genomestart 94
trait 1 1 0 0 0 0 0 0 0 
trait 2 2 0 0 0 0 0 0 0 
trait 3 1 33518 2636 2943 47351 0 0 85609 
node 1 2 1 3
node 2 2 1 1
node 3 3 1 1
node 4 3 1 1
node 5 1 0 2
node 6 2 0 2
node 9 1 0 0
gene 2 1 5 141642 0 1 141642 1
gene 2 2 5 345735 0 2 345735 0
gene 1 3 5 459569 0 3 459569 1
gene 1 4 5 -119289 0 4 -119289 1
gene 2 1 6 -221541 0 5 -221541 1
gene 1 2 6 -178436 0 6 -178436 1
gene 1 3 6 -196494 0 7 -196494 1
gene 3 4 6 75168 0 8 75168 1
gene 1 2 9 232665 0 25 232665 1
gene 2 9 5 137955 0 26 137955 1
genomeend 94

/* Species #403 : (Size 1) (AF 120) (Age 1)  */


/* Organism #95 Fitness: 120 Error: 0 */
genomestart 95
trait 1 1 0 0 0 0 0 0 0 
trait 2 2 0 0 0 0 0 0 0 
trait 3 3 33518 2636 5886 9879 0 0 83419 
node 1 2 1 3
node 2 2 1 1
node 3 1 1 1
node 4 3 1 1
node 5 1 0 2
node 6 2 0 2
node 9 1 0 0
gene 2 1 5 -36366 0 1 -36366 1
gene 2 2 5 506472 0 2 506472 0
gene 1 3 5 705993 0 3 705993 1
gene 1 4 5 -418808 0 4 -418808 1
gene 2 1 6 -231051 0 5 -231051 1
gene 1 2 6 -652558 0 6 -652558 1
gene 1 3 6 -507303 0 7 -507303 1
gene 3 4 6 -207090 0 8 -207090 1
gene 1 2 9 269079 0 25 269079 1
gene 2 9 5 -68903 0 26 -68903 1
genomeend 95

/* Species #404 : (Size 1) (AF 120) (Age 1)  */


/* Organism #96 Fitness: 120 Error: 0 */
genomestart 96
trait 1 1 0 0 0 0 0 0 0 
trait 2 2 0 0 0 0 0 0 0 
trait 3 3 0 2636 2403 0 0 0 0 
node 1 2 1 3
node 2 2 1 1
node 3 1 1 1
node 4 3 1 1
node 5 1 0 2
node 6 2 0 2
node 9 1 0 0
node 10 1 0 0
gene 2 1 5 -373644 0 1 -373644 1
gene 2 2 5 -257040 0 2 -257040 0
gene 1 3 5 800000 0 3 800000 1
gene 1 4 5 -435606 0 4 -435606 1
gene 2 1 6 259731 0 5 259731 1
gene 1 2 6 -800000 0 6 -800000 1
gene 1 3 6 390801 0 7 390801 0
gene 1 4 6 162429 0 8 162429 1
gene 2 2 9 146904 0 25 146904 1
gene 2 9 5 52464 0 26 52464 1
gene 1 3 10 113940 0 43 113940 1
gene 1 10 6 54386 0 44 54386 1
genomeend 96

/* Species #405 : (Size 1) (AF 0) (Age 1)  */


/* Organism #97 Fitness: 0 Error: 0 */
genomestart 97
trait 1 1 0 0 0 0 0 0 0 
trait 2 2 0 0 0 0 0 0 0 
trait 3 3 0 2636 2403 0 0 0 0 
node 1 2 1 3
node 2 2 1 1
node 3 1 1 1
node 4 3 1 1
node 5 1 0 2
node 6 2 0 2
node 9 1 0 0
node 10 1 0 0
gene 2 1 5 -491988 0 1 -491988 1
gene 2 2 5 -222162 0 2 -222162 0
gene 1 3 5 -248484 0 3 -248484 1
gene 1 4 5 -360315 0 4 -360315 1
gene 2 1 6 145167 0 5 145167 1
gene 1 2 6 -800000 0 6 -800000 1
gene 1 3 6 123738 0 7 123738 0
gene 1 4 6 297123 0 8 297123 1
gene 2 2 9 -14732 0 25 -14732 1
gene 2 9 5 44205 0 26 44205 1
gene 1 3 10 105189 0 43 105189 1
gene 1 10 6 61851 0 44 61851 1
genomeend 97

/* Species #406 : (Size 1) (AF 0) (Age 1)  */


/* Organism #98 Fitness: 0 Error: 0 */
genomestart 98
trait 1 1 0 0 0 0 0 0 0 
trait 2 2 0 0 0 0 0 0 0 
trait 3 3 0 2636 2403 0 0 0 0 
node 1 2 1 3
node 2 2 1 1
node 3 1 1 1
node 4 3 1 1
node 5 1 0 2
node 6 2 0 2
node 9 1 0 0
node 10 1 0 0
gene 2 1 5 32583 0 1 32583 1
gene 2 2 5 -236661 0 2 -236661 0
gene 1 3 5 800000 0 3 800000 1
gene 1 4 5 31923 0 4 31923 1
gene 2 1 6 123936 0 5 123936 1
gene 1 2 6 -691286 0 6 -691286 1
gene 1 3 6 258234 0 7 258234 0
gene 1 4 6 -508428 0 8 -508428 1
gene 2 2 9 -444299 0 25 -444299 1
gene 2 9 5 21162 0 26 21162 1
gene 1 3 10 259824 0 43 259824 1
gene 1 10 6 12534 0 44 12534 1
genomeend 98

/* Species #407 : (Size 1) (AF 80) (Age 1)  */


/* Organism #99 Fitness: 80 Error: 0 */
genomestart 99
trait 1 1 0 0 0 0 0 0 0 
trait 2 2 0 0 0 0 0 0 0 
trait 3 3 0 2636 2403 0 0 0 0 
node 1 2 1 3
node 2 2 1 1
node 3 1 1 1
node 4 3 1 1
node 5 1 0 2
node 6 2 0 2
node 9 1 0 0
node 10 1 0 0
gene 2 1 5 -40101 0 1 -40101 1
gene 2 2 5 -322278 0 2 -322278 0
gene 1 3 5 623167 0 3 623167 1
gene 1 4 5 -336219 0 4 -336219 1
gene 2 1 6 350646 0 5 350646 1
gene 1 2 6 -800000 0 6 -800000 1
gene 1 3 6 516507 0 7 516507 0
gene 1 4 6 -435423 0 8 -435423 1
gene 2 2 9 -592958 0 25 -592958 1
gene 2 9 5 92097 0 26 92097 1
gene 1 3 10 304737 0 43 304737 1
gene 1 10 6 447140 0 44 447140 1
genomeend 99
