
/* Species #1 : (Size 59) (AF 0) (Age 2)  */


/* Organism #0 Fitness: 0 Error: 0 */
genomestart 0
trait 1 1 0 0 0 0 0 0 0 
trait 2 2 0 0 0 0 0 0 0 
trait 3 3 0 0 0 0 0 0 0 
node 1 3 1 3
node 2 2 1 1
node 3 1 1 1
node 4 2 1 1
node 5 3 0 2
node 6 3 0 2
gene 1 1 5 -28853 0 1 -28853 1
gene 1 2 5 -26683 0 2 -26683 1
gene 3 3 5 89393 0 3 89393 1
gene 2 4 5 23131 0 4 23131 1
gene 1 1 6 -50510 0 5 -50510 1
gene 2 2 6 36313 0 6 36313 1
gene 1 3 6 -31659 0 7 -31659 1
gene 2 4 6 -51992 0 8 -51992 1
genomeend 0

/* Organism #1 Fitness: 0 Error: 0 */
genomestart 1
trait 1 1 0 0 0 0 0 0 0 
trait 2 2 0 0 0 0 0 0 0 
trait 3 3 0 0 0 0 0 0 0 
node 1 2 1 3
node 2 3 1 1
node 3 2 1 1
node 4 3 1 1
node 5 1 0 2
node 6 3 0 2
gene 3 1 5 -152110 0 1 -152110 1
gene 1 2 5 262162 0 2 262162 1
gene 3 3 5 -57491 0 3 -57491 1
gene 1 4 5 -125579 0 4 -125579 1
gene 2 1 6 52737 0 5 52737 1
gene 3 2 6 -21706 0 6 -21706 1
gene 3 3 6 -42457 0 7 -42457 1
gene 2 4 6 93105 0 8 93105 1
genomeend 1

/* Organism #2 Fitness: 0 Error: 0 */
genomestart 2
trait 1 1 0 0 0 0 0 0 0 
trait 2 2 0 0 0 0 0 0 0 
trait 3 3 0 0 0 0 0 0 0 
node 1 2 1 3
node 2 1 1 1
node 3 3 1 1
node 4 2 1 1
node 5 1 0 2
node 6 3 0 2
gene 2 1 5 -171624 0 1 -171624 1
gene 3 2 5 -11176 0 2 -11176 1
gene 3 3 5 -13737 0 3 -13737 1
gene 2 4 5 91754 0 4 91754 1
gene 2 1 6 237279 0 5 237279 1
gene 3 2 6 34114 0 6 34114 1
gene 1 3 6 40950 0 7 40950 1
gene 1 4 6 232101 0 8 232101 1
genomeend 2

/* Organism #3 Fitness: 0 Error: 0 */
genomestart 3
trait 1 1 0 0 0 0 0 0 0 
trait 2 2 0 0 0 0 0 0 0 
trait 3 3 0 0 0 0 0 0 0 
node 1 2 1 3
node 2 1 1 1
node 3 3 1 1
node 4 2 1 1
node 5 1 0 2
node 6 3 0 2
gene 2 1 5 -12568 0 1 -12568 1
gene 3 2 5 33916 0 2 33916 1
gene 1 3 5 -238258 0 3 -238258 1
gene 1 4 5 48312 0 4 48312 1
gene 2 1 6 -92805 0 5 -92805 1
gene 2 2 6 121337 0 6 121337 1
gene 1 3 6 -292035 0 7 -292035 1
gene 3 4 6 132897 0 8 132897 1
genomeend 3

/* Organism #4 Fitness: 0 Error: 0 */
genomestart 4
trait 1 1 0 0 0 0 0 0 0 
trait 2 2 0 0 0 0 0 0 0 
trait 3 46475 41489 0 0 0 0 0 0 
node 1 1 1 3
node 2 2 1 1
node 3 2 1 1
node 4 1 1 1
node 5 3 0 2
node 6 1 0 2
gene 1 1 5 -258514 0 1 -258514 1
gene 1 2 5 192766 0 2 192766 1
gene 3 3 5 30918 0 3 30918 1
gene 2 4 5 22897 0 4 22897 1
gene 3 1 6 -283907 0 5 -283907 1
gene 3 2 6 -4525 0 6 -4525 1
gene 1 3 6 -268434 0 7 -268434 1
gene 3 4 6 3066 0 8 3066 1
genomeend 4

/* Organism #5 Fitness: 0 Error: 0 */
genomestart 5
trait 1 1 0 0 0 0 0 0 0 
trait 2 2 0 0 0 0 0 0 0 
trait 3 3 0 0 0 0 0 0 0 
node 1 2 1 3
node 2 3 1 1
node 3 2 1 1
node 4 3 1 1
node 5 1 0 2
node 6 3 0 2
gene 3 1 5 216260 0 1 216260 1
gene 1 2 5 278758 0 2 278758 1
gene 3 3 5 225532 0 3 225532 1
gene 1 4 5 -7913 0 4 -7913 1
gene 2 1 6 -89616 0 5 -89616 1
gene 3 2 6 -69103 0 6 -69103 1
gene 3 3 6 125699 0 7 125699 1
gene 2 4 6 -111675 0 8 -111675 1
genomeend 5

/* Organism #6 Fitness: 0 Error: 0 */
genomestart 6
trait 1 1 0 0 0 0 0 0 0 
trait 2 2 0 0 0 0 0 0 0 
trait 3 3 0 0 0 0 0 0 0 
node 1 3 1 3
node 2 3 1 1
node 3 2 1 1
node 4 3 1 1
node 5 1 0 2
node 6 2 0 2
gene 1 1 5 -90976 0 1 -90976 1
gene 2 2 5 157947 0 2 157947 1
gene 3 3 5 236952 0 3 236952 1
gene 3 4 5 219666 0 4 219666 1
gene 2 1 6 -191069 0 5 -191069 1
gene 3 2 6 -137486 0 6 -137486 1
gene 3 3 6 -74640 0 7 -74640 1
gene 1 4 6 37333 0 8 37333 1
genomeend 6

/* Organism #7 Fitness: 0 Error: 0 */
genomestart 7
trait 1 1 0 0 0 0 0 0 0 
trait 2 2 0 0 0 0 0 0 0 
trait 3 0 97784 61049 0 0 0 0 0 
node 1 2 1 3
node 2 1 1 1
node 3 1 1 1
node 4 1 1 1
node 5 2 0 2
node 6 3 0 2
gene 3 1 5 7367 0 1 7367 1
gene 2 2 5 50167 0 2 50167 1
gene 2 3 5 146330 0 3 146330 1
gene 3 4 5 83142 0 4 83142 1
gene 1 1 6 46451 0 5 46451 1
gene 3 2 6 248328 0 6 248328 1
gene 2 3 6 -102101 0 7 -102101 1
gene 2 4 6 -81010 0 8 -81010 1
genomeend 7

/* Organism #8 Fitness: 0 Error: 0 */
genomestart 8
trait 1 1 0 0 0 0 0 0 0 
trait 2 2 0 0 0 0 0 0 0 
trait 3 3 0 0 0 0 0 0 0 
node 1 2 1 3
node 2 2 1 1
node 3 1 1 1
node 4 3 1 1
node 5 1 0 2
node 6 2 0 2
gene 1 1 5 -96169 0 1 -96169 1
gene 3 2 5 -100077 0 2 -100077 1
gene 3 3 5 -125743 0 3 -125743 1
gene 3 4 5 186826 0 4 186826 1
gene 3 1 6 -58697 0 5 -58697 1
gene 3 2 6 -48596 0 6 -48596 1
gene 3 3 6 -75079 0 7 -75079 1
gene 3 4 6 -237425 0 8 -237425 1
genomeend 8

/* Organism #9 Fitness: 0 Error: 0 */
genomestart 9
trait 1 1 0 0 0 0 0 0 0 
trait 2 2 0 0 0 0 0 0 0 
trait 3 3 0 0 0 0 0 0 0 
node 1 2 1 3
node 2 2 1 1
node 3 1 1 1
node 4 3 1 1
node 5 1 0 2
node 6 2 0 2
gene 1 1 5 -22152 0 1 -22152 1
gene 2 2 5 19551 0 2 19551 1
gene 3 3 5 33444 0 3 33444 1
gene 2 4 5 44945 0 4 44945 1
gene 3 1 6 -53912 0 5 -53912 1
gene 3 2 6 45100 0 6 45100 1
gene 3 3 6 16411 0 7 16411 1
gene 3 4 6 51106 0 8 51106 1
gene 1 6 5 53533 0 9 53533 1
genomeend 9

/* Organism #10 Fitness: 0 Error: 0 */
genomestart 10
trait 1 1 0 0 0 0 0 0 0 
trait 2 2 0 0 0 0 0 0 0 
trait 3 3 0 0 0 0 0 0 0 
node 1 3 1 3
node 2 2 1 1
node 3 1 1 1
node 4 2 1 1
node 5 3 0 2
node 6 3 0 2
gene 1 1 5 -9757 0 1 -9757 1
gene 1 2 5 -26683 0 2 -26683 1
gene 3 3 5 89393 0 3 89393 1
gene 2 4 5 78379 0 4 78379 1
gene 3 1 6 -17090 0 5 -17090 1
gene 2 2 6 36313 0 6 36313 1
gene 3 3 6 6204 0 7 6204 1
gene 3 4 6 3066 0 8 3066 1
genomeend 10

/* Organism #11 Fitness: 0 Error: 0 */
genomestart 11
trait 1 1 0 0 0 0 0 0 0 
trait 2 2 0 0 0 0 0 0 711 
trait 3 3 0 0 0 0 0 0 0 
node 1 3 1 3
node 2 1 1 1
node 3 3 1 1
node 4 1 1 1
node 5 2 0 2
node 6 3 0 2
gene 1 1 5 -38373 0 1 -38373 1
gene 1 2 5 -10645 0 2 -10645 1
gene 2 3 5 77299 0 3 77299 1
gene 2 4 5 6593 0 4 6593 1
gene 1 1 6 2677 0 5 2677 1
gene 2 2 6 -13610 0 6 -13610 1
gene 1 3 6 -21255 0 7 -21255 1
gene 2 4 6 -46162 0 8 -46162 1
genomeend 11

/* Organism #12 Fitness: 0 Error: 0 */
genomestart 12
trait 1 1 0 0 0 0 0 0 0 
trait 2 2 0 0 0 0 0 0 0 
trait 3 3 0 0 0 0 0 0 0 
node 1 3 1 3
node 2 1 1 1
node 3 3 1 1
node 4 3 1 1
node 5 1 0 2
node 6 3 0 2
gene 3 1 5 -33168 0 1 -33168 1
gene 2 2 5 17898 0 2 17898 1
gene 3 3 5 -7110 0 3 -7110 1
gene 3 4 5 24906 0 4 24906 1
gene 1 1 6 43467 0 5 43467 1
gene 3 2 6 56875 0 6 56875 1
gene 3 3 6 63310 0 7 63310 1
gene 1 4 6 -46387 0 8 -46387 1
genomeend 12

/* Organism #13 Fitness: 0 Error: 0 */
genomestart 13
trait 1 1 0 0 0 0 0 0 0 
trait 2 2 0 0 0 0 0 0 0 
trait 3 3 0 0 0 0 0 0 0 
node 1 2 1 3
node 2 2 1 1
node 3 1 1 1
node 4 3 1 1
node 5 1 0 2
node 6 2 0 2
gene 2 1 5 46185 0 1 46185 1
gene 2 2 5 50643 0 2 50643 1
gene 2 3 5 35971 0 3 35971 1
gene 3 4 5 11512 0 4 11512 1
gene 3 1 6 -90734 0 5 -90734 1
gene 3 2 6 73640 0 6 73640 1
gene 3 3 6 26618 0 7 26618 1
gene 3 4 6 -79980 0 8 -79980 1
gene 1 5 5 -74452 1 10 -74452 1
genomeend 13

/* Organism #14 Fitness: 0 Error: 0 */
genomestart 14
trait 1 1 0 0 0 0 0 0 0 
trait 2 2 0 0 0 0 0 0 0 
trait 3 3 0 0 0 0 0 0 0 
node 1 3 1 3
node 2 2 1 1
node 3 1 1 1
node 4 2 1 1
node 5 3 0 2
node 6 3 0 2
gene 2 1 5 -61506 0 1 -61506 1
gene 1 2 5 -35488 0 2 -35488 1
gene 3 3 5 74910 0 3 74910 1
gene 1 4 5 16910 0 4 16910 1
gene 1 1 6 3409 0 5 3409 1
gene 3 2 6 52462 0 6 52462 1
gene 1 3 6 -12642 0 7 -12642 1
gene 2 4 6 -56716 0 8 -56716 1
gene 1 6 5 53533 0 9 0 1
genomeend 14

/* Organism #15 Fitness: 0 Error: 0 */
genomestart 15
trait 1 1 0 0 0 0 0 0 0 
trait 2 2 0 0 0 0 0 0 0 
trait 3 3 0 0 0 0 0 0 0 
node 1 3 1 3
node 2 3 1 1
node 3 2 1 1
node 4 3 1 1
node 5 1 0 2
node 6 2 0 2
gene 1 1 5 -21529 0 1 -21529 1
gene 1 2 5 73323 0 2 73323 1
gene 2 3 5 71272 0 3 71272 1
gene 3 4 5 -141846 0 4 -141846 1
gene 2 1 6 -339224 0 5 -339224 1
gene 2 2 6 163139 0 6 163139 1
gene 3 3 6 88014 0 7 88014 1
gene 3 4 6 -216642 0 8 -216642 1
genomeend 15

/* Organism #16 Fitness: 0 Error: 0 */
genomestart 16
trait 1 1 0 0 0 0 0 0 0 
trait 2 2 0 0 0 0 0 0 0 
trait 3 3 0 0 0 0 0 0 0 
node 1 3 1 3
node 2 2 1 1
node 3 3 1 1
node 4 3 1 1
node 5 3 0 2
node 6 2 0 2
gene 1 1 5 12506 0 1 12506 1
gene 2 2 5 79827 0 2 79827 1
gene 2 3 5 1849 0 3 1849 1
gene 3 4 5 -32664 0 4 -32664 1
gene 2 1 6 -62492 0 5 -62492 1
gene 2 2 6 67706 0 6 67706 1
gene 1 3 6 -608 0 7 -608 1
gene 2 4 6 51042 0 8 51042 1
genomeend 16

/* Organism #17 Fitness: 0 Error: 0 */
genomestart 17
trait 1 1 0 0 0 0 0 0 0 
trait 2 2 0 0 0 0 0 0 0 
trait 3 3 0 0 0 0 0 0 0 
node 1 2 1 3
node 2 3 1 1
node 3 3 1 1
node 4 1 1 1
node 5 1 0 2
node 6 3 0 2
gene 2 1 5 338025 0 1 338025 1
gene 3 2 5 -21368 0 2 -21368 1
gene 3 3 5 -164538 0 3 -164538 1
gene 1 4 5 15524 0 4 15524 1
gene 2 1 6 -40676 0 5 -40676 1
gene 2 2 6 -123982 0 6 -123982 1
gene 2 3 6 -306121 0 7 -306121 1
gene 3 4 6 -4767 0 8 -4767 1
genomeend 17

/* Organism #18 Fitness: 0 Error: 0 */
genomestart 18
trait 1 1 0 0 0 0 0 0 0 
trait 2 2 0 0 0 0 0 0 0 
trait 3 3 0 0 0 0 0 0 0 
node 1 2 1 3
node 2 1 1 1
node 3 3 1 1
node 4 2 1 1
node 5 1 0 2
node 6 3 0 2
gene 1 1 5 -11777 0 1 -11777 1
gene 3 2 5 15481 0 2 15481 1
gene 1 3 5 54464 0 3 54464 1
gene 2 4 5 66957 0 4 66957 1
gene 3 1 6 -7615 0 5 -7615 1
gene 3 2 6 -10533 0 6 -10533 1
gene 1 3 6 -24721 0 7 -24721 1
gene 1 4 6 38251 0 8 38251 1
gene 1 6 5 53533 0 9 0 1
genomeend 18

/* Organism #19 Fitness: 0 Error: 0 */
genomestart 19
trait 1 1 0 0 0 0 0 0 0 
trait 2 2 0 0 0 0 0 0 0 
trait 3 3 0 0 0 0 0 0 0 
node 1 2 1 3
node 2 1 1 1
node 3 3 1 1
node 4 2 1 1
node 5 1 0 2
node 6 3 0 2
gene 2 1 5 134403 0 1 134403 1
gene 1 2 5 139855 0 2 139855 1
gene 3 3 5 135204 0 3 135204 1
gene 2 4 5 -108254 0 4 -108254 1
gene 2 1 6 39960 0 5 39960 1
gene 1 2 6 -189341 0 6 -189341 1
gene 3 3 6 78222 0 7 78222 1
gene 1 4 6 153012 0 8 153012 1
genomeend 19

/* Organism #20 Fitness: 0 Error: 0 */
genomestart 20
trait 1 1 0 0 0 0 0 0 0 
trait 2 0 0 0 0 0 0 0 49436 
trait 3 3 0 0 0 0 0 0 0 
node 1 2 1 3
node 2 1 1 1
node 3 3 1 1
node 4 2 1 1
node 5 1 0 2
node 6 3 0 2
gene 2 1 5 -13797 0 1 -13797 1
gene 3 2 5 42503 0 2 42503 1
gene 1 3 5 78010 0 3 78010 1
gene 2 4 5 55536 0 4 55536 1
gene 2 1 6 1860 0 5 1860 1
gene 1 2 6 -80252 0 6 -80252 1
gene 1 3 6 -55647 0 7 -55647 1
gene 1 4 6 73437 0 8 73437 1
genomeend 20

/* Organism #21 Fitness: 0 Error: 0 */
genomestart 21
trait 1 1 0 0 0 0 0 0 0 
trait 2 2 0 0 0 0 0 0 0 
trait 3 3 0 0 0 0 0 0 0 
node 1 3 1 3
node 2 2 1 1
node 3 1 1 1
node 4 2 1 1
node 5 3 0 2
node 6 3 0 2
gene 2 1 5 90759 0 1 90759 1
gene 1 2 5 237638 0 2 237638 1
gene 1 3 5 -92597 0 3 -92597 1
gene 2 4 5 -228101 0 4 -228101 1
gene 1 1 6 38878 0 5 38878 1
gene 2 2 6 75755 0 6 75755 1
gene 1 3 6 64140 0 7 64140 1
gene 3 4 6 -151164 0 8 -151164 1
genomeend 21

/* Organism #22 Fitness: 0 Error: 0 */
genomestart 22
trait 1 1 0 0 0 0 0 0 0 
trait 2 2 0 0 0 0 0 0 0 
trait 3 3 0 0 0 0 0 0 0 
node 1 2 1 3
node 2 2 1 1
node 3 1 1 1
node 4 2 1 1
node 5 2 0 2
node 6 2 0 2
gene 1 1 5 142932 0 1 142932 1
gene 2 2 5 97662 0 2 97662 1
gene 3 3 5 41391 0 3 41391 1
gene 1 4 5 -20780 0 4 -20780 1
gene 1 1 6 -271870 0 5 -271870 1
gene 2 2 6 -208717 0 6 -208717 1
gene 2 3 6 218080 0 7 218080 1
gene 1 4 6 -81726 0 8 -81726 1
genomeend 22

/* Organism #23 Fitness: 0 Error: 0 */
genomestart 23
trait 1 1 0 0 0 0 0 0 0 
trait 2 2 0 0 0 0 0 0 0 
trait 3 3 0 0 0 0 0 0 0 
node 1 2 1 3
node 2 3 1 1
node 3 2 1 1
node 4 2 1 1
node 5 3 0 2
node 6 3 0 2
gene 2 1 5 -53329 0 1 -53329 1
gene 2 2 5 18482 0 2 18482 1
gene 2 3 5 70787 0 3 70787 1
gene 1 4 5 43299 0 4 43299 1
gene 2 1 6 65586 0 5 65586 1
gene 2 2 6 67687 0 6 67687 1
gene 3 3 6 12889 0 7 12889 1
gene 2 4 6 9158 0 8 9158 1
gene 2 6 6 50042 1 11 50042 1
genomeend 23

/* Organism #24 Fitness: 0 Error: 0 */
genomestart 24
trait 1 1 0 0 0 0 0 0 0 
trait 2 2 0 0 0 0 0 0 0 
trait 3 3 0 0 0 0 0 0 0 
node 1 2 1 3
node 2 3 1 1
node 3 2 1 1
node 4 2 1 1
node 5 3 0 2
node 6 3 0 2
gene 2 1 5 -94160 0 1 -94160 1
gene 1 2 5 5393 0 2 5393 1
gene 2 3 5 60428 0 3 60428 1
gene 1 4 5 10690 0 4 10690 1
gene 2 1 6 57329 0 5 57329 1
gene 3 2 6 68612 0 6 68612 1
gene 3 3 6 6375 0 7 6375 1
gene 2 4 6 -40332 0 8 -40332 1
genomeend 24

/* Organism #25 Fitness: 0 Error: 0 */
genomestart 25
trait 1 1 0 0 0 0 0 0 0 
trait 2 2 0 0 0 0 0 0 0 
trait 3 3 0 0 0 0 0 0 0 
node 1 1 1 3
node 2 1 1 1
node 3 2 1 1
node 4 1 1 1
node 5 3 0 2
node 6 1 0 2
gene 1 1 5 -161593 0 1 -161593 1
gene 1 2 5 -91718 0 2 -91718 1
gene 3 3 5 -163179 0 3 -163179 1
gene 2 4 5 123856 0 4 123856 1
gene 3 1 6 47047 0 5 47047 1
gene 3 2 6 -60952 0 6 -60952 1
gene 2 3 6 -223579 0 7 -223579 1
gene 2 4 6 -247320 0 8 -247320 1
genomeend 25

/* Organism #26 Fitness: 0 Error: 0 */
genomestart 26
trait 1 1 0 0 0 0 0 0 0 
trait 2 2 0 0 0 0 0 0 0 
trait 3 3 0 0 0 0 0 0 0 
node 1 1 1 3
node 2 1 1 1
node 3 2 1 1
node 4 1 1 1
node 5 3 0 2
node 6 1 0 2
gene 2 1 5 6360 0 1 6360 1
gene 1 2 5 -165329 0 2 -165329 1
gene 3 3 5 30918 0 3 30918 1
gene 2 4 5 -47528 0 4 -47528 1
gene 3 1 6 67087 0 5 67087 1
gene 3 2 6 299794 0 6 299794 1
gene 2 3 6 82053 0 7 82053 1
gene 1 4 6 62341 0 8 62341 1
genomeend 26

/* Organism #27 Fitness: 0 Error: 0 */
genomestart 27
trait 1 1 0 0 0 0 0 0 0 
trait 2 2 0 0 0 0 0 0 0 
trait 3 3 0 0 0 0 0 0 0 
node 1 1 1 3
node 2 1 1 1
node 3 2 1 1
node 4 1 1 1
node 5 3 0 2
node 6 1 0 2
gene 1 1 5 214487 0 1 214487 1
gene 1 2 5 255756 0 2 255756 1
gene 3 3 5 128361 0 3 128361 1
gene 2 4 5 -52352 0 4 -52352 1
gene 3 1 6 -52274 0 5 -52274 1
gene 3 2 6 59186 0 6 59186 1
gene 3 3 6 89532 0 7 89532 1
gene 3 4 6 -220644 0 8 -220644 1
genomeend 27

/* Organism #28 Fitness: 0 Error: 0 */
genomestart 28
trait 1 1 0 0 0 0 0 0 0 
trait 2 2 0 0 0 0 0 0 0 
trait 3 3 0 0 0 0 0 0 0 
node 1 3 1 3
node 2 3 1 1
node 3 2 1 1
node 4 3 1 1
node 5 1 0 2
node 6 2 0 2
gene 1 1 5 -148215 0 1 -148215 1
gene 3 2 5 -237765 0 2 -237765 1
gene 2 3 5 4829 0 3 4829 1
gene 3 4 5 -159684 0 4 -159684 1
gene 2 1 6 -37318 0 5 -37318 1
gene 1 2 6 -156951 0 6 -156951 1
gene 1 3 6 171411 0 7 171411 1
gene 3 4 6 8019 0 8 8019 1
genomeend 28

/* Organism #29 Fitness: 0 Error: 0 */
genomestart 29
trait 1 1 0 0 0 0 0 0 0 
trait 2 2 0 0 0 0 0 0 0 
trait 3 3 0 0 0 0 0 0 0 
node 1 2 1 3
node 2 3 1 1
node 3 2 1 1
node 4 3 1 1
node 5 3 0 2
node 6 1 0 2
gene 1 1 5 -323696 0 1 -323696 1
gene 1 2 5 -116433 0 2 -116433 1
gene 3 3 5 7386 0 3 7386 1
gene 3 4 5 -89984 0 4 -89984 1
gene 1 1 6 -153206 0 5 -153206 1
gene 3 2 6 80093 0 6 80093 1
gene 1 3 6 75835 0 7 75835 1
gene 2 4 6 143007 0 8 143007 1
genomeend 29

/* Organism #30 Fitness: 0 Error: 0 */
genomestart 30
trait 1 1 0 0 0 0 0 0 0 
trait 2 2 0 0 0 0 0 0 0 
trait 3 3 0 0 0 0 0 0 0 
node 1 2 1 3
node 2 3 1 1
node 3 3 1 1
node 4 1 1 1
node 5 1 0 2
node 6 3 0 2
gene 2 1 5 46185 0 1 46185 1
gene 3 2 5 -7874 0 2 -7874 1
gene 2 3 5 35971 0 3 35971 1
gene 3 4 5 11512 0 4 11512 1
gene 2 1 6 -21134 0 5 -21134 1
gene 3 2 6 31014 0 6 31014 1
gene 2 3 6 -80806 0 7 -80806 1
gene 3 4 6 -79980 0 8 -79980 1
genomeend 30

/* Organism #31 Fitness: 0 Error: 0 */
genomestart 31
trait 1 1 0 0 0 0 0 0 0 
trait 2 2 0 0 0 0 0 0 0 
trait 3 3 0 0 0 0 0 0 0 
node 1 1 1 3
node 2 1 1 1
node 3 3 1 1
node 4 2 1 1
node 5 3 0 2
node 6 1 0 2
gene 2 1 5 -11340 0 1 -11340 1
gene 3 2 5 25329 0 2 25329 1
gene 1 3 5 25261 0 3 25261 1
gene 1 4 5 41089 0 4 41089 1
gene 2 1 6 -49242 0 5 -49242 1
gene 2 2 6 -68161 0 6 -68161 1
gene 2 3 6 -22895 0 7 -22895 1
gene 3 4 6 53313 0 8 53313 1
gene 1 6 5 53533 0 9 0 1
genomeend 31

/* Organism #32 Fitness: 0 Error: 0 */
genomestart 32
trait 1 1 0 0 0 0 0 0 0 
trait 2 2 0 0 0 0 0 0 0 
trait 3 3 0 0 0 0 0 0 0 
node 1 3 1 3
node 2 1 1 1
node 3 3 1 1
node 4 3 1 1
node 5 3 0 2
node 6 3 0 2
gene 1 1 5 -16334 0 1 -16334 1
gene 3 2 5 -55364 0 2 -55364 1
gene 1 3 5 8452 0 3 8452 1
gene 2 4 5 41678 0 4 41678 1
gene 3 1 6 26278 0 5 26278 1
gene 2 2 6 50556 0 6 50556 1
gene 3 3 6 -19540 0 7 -19540 1
gene 3 4 6 47855 0 8 47855 1
gene 3 6 6 14786 1 12 14786 1
genomeend 32

/* Organism #33 Fitness: 0 Error: 0 */
genomestart 33
trait 1 1 0 0 0 0 0 0 0 
trait 2 2 0 0 0 0 0 0 0 
trait 3 3 0 0 0 0 0 0 0 
node 1 3 1 3
node 2 1 1 1
node 3 3 1 1
node 4 3 1 1
node 5 1 0 2
node 6 3 0 2
gene 3 1 5 -32900 0 1 -32900 1
gene 2 2 5 -14371 0 2 -14371 1
gene 3 3 5 -5790 0 3 -5790 1
gene 1 4 5 -51828 0 4 -51828 1
gene 1 1 6 37475 0 5 37475 1
gene 1 2 6 95669 0 6 95669 1
gene 3 3 6 50735 0 7 50735 1
gene 1 4 6 -72964 0 8 -72964 1
genomeend 33

/* Organism #34 Fitness: 0 Error: 0 */
genomestart 34
trait 1 1 0 0 0 0 0 0 0 
trait 2 2 0 0 0 0 0 0 0 
trait 3 3 0 0 0 0 0 0 0 
node 1 3 1 3
node 2 2 1 1
node 3 1 1 1
node 4 2 1 1
node 5 3 0 2
node 6 3 0 2
gene 1 1 5 29734 0 1 29734 1
gene 1 2 5 132710 0 2 132710 1
gene 2 3 5 106351 0 3 106351 1
gene 1 4 5 -225165 0 4 -225165 1
gene 1 1 6 -64441 0 5 -64441 1
gene 2 2 6 303487 0 6 303487 1
gene 2 3 6 -137227 0 7 -137227 1
gene 2 4 6 -202886 0 8 -202886 1
genomeend 34

/* Organism #35 Fitness: 0 Error: 0 */
genomestart 35
trait 1 1 0 0 0 0 0 0 0 
trait 2 2 0 0 0 0 0 0 0 
trait 3 3 0 0 0 0 0 0 0 
node 1 3 1 3
node 2 2 1 1
node 3 1 1 1
node 4 2 1 1
node 5 3 0 2
node 6 3 0 2
gene 1 1 5 -28853 0 1 -28853 1
gene 1 2 5 214489 0 2 214489 1
gene 3 3 5 93231 0 3 93231 1
gene 2 4 5 258352 0 4 258352 1
gene 3 1 6 16066 0 5 16066 1
gene 3 2 6 -161863 0 6 -161863 1
gene 1 3 6 200700 0 7 200700 1
gene 3 4 6 78543 0 8 78543 1
genomeend 35

/* Organism #36 Fitness: 0 Error: 0 */
genomestart 36
trait 1 1 0 0 56041 0 0 19096 0 
trait 2 2 0 0 0 0 0 0 0 
trait 3 3 0 0 0 0 0 0 0 
node 1 1 1 3
node 2 3 1 1
node 3 1 1 1
node 4 2 1 1
node 5 2 0 2
node 6 2 0 2
gene 2 1 5 57966 0 1 57966 1
gene 1 2 5 56048 0 2 56048 1
gene 1 3 5 -76443 0 3 -76443 1
gene 2 4 5 -42607 0 4 -42607 1
gene 2 1 6 -98228 0 5 -98228 1
gene 2 2 6 34419 0 6 34419 1
gene 3 3 6 -73100 0 7 -73100 1
gene 3 4 6 -41393 0 8 -41393 1
genomeend 36

/* Organism #37 Fitness: 0 Error: 0 */
genomestart 37
trait 1 1 0 0 0 0 0 0 0 
trait 2 2 0 0 0 0 0 0 0 
trait 3 3 0 0 0 0 0 0 0 
node 1 2 1 3
node 2 3 1 1
node 3 2 1 1
node 4 2 1 1
node 5 3 0 2
node 6 3 0 2
gene 2 1 5 -8165 0 1 -8165 1
gene 2 2 5 -37139 0 2 -37139 1
gene 2 3 5 38664 0 3 38664 1
gene 1 4 5 89440 0 4 89440 1
gene 3 1 6 -3811 0 5 -3811 1
gene 1 2 6 32914 0 6 32914 1
gene 3 3 6 -129041 0 7 -129041 1
gene 2 4 6 77472 0 8 77472 1
genomeend 37

/* Organism #38 Fitness: 0 Error: 0 */
genomestart 38
trait 1 1 0 0 0 0 0 0 0 
trait 2 2 0 0 0 0 0 0 0 
trait 3 3 0 0 0 0 0 0 0 
node 1 3 1 3
node 2 1 1 1
node 3 3 1 1
node 4 3 1 1
node 5 3 0 2
node 6 3 0 2
gene 1 1 5 91544 0 1 91544 1
gene 3 2 5 174601 0 2 174601 1
gene 1 3 5 131552 0 3 131552 1
gene 2 4 5 4977 0 4 4977 1
gene 2 1 6 -42207 0 5 -42207 1
gene 2 2 6 -246930 0 6 -246930 1
gene 3 3 6 171252 0 7 171252 1
gene 1 4 6 218333 0 8 218333 1
genomeend 38

/* Organism #39 Fitness: 0 Error: 0 */
genomestart 39
trait 1 1 0 0 0 0 0 0 0 
trait 2 2 0 0 0 0 0 0 0 
trait 3 3 0 0 0 0 0 0 0 
node 1 2 1 3
node 2 3 1 1
node 3 2 1 1
node 4 2 1 1
node 5 3 0 2
node 6 3 0 2
gene 2 1 5 -30786 0 1 -30786 1
gene 2 2 5 264975 0 2 264975 1
gene 2 3 5 -123630 0 3 -123630 1
gene 1 4 5 -25171 0 4 -25171 1
gene 1 1 6 -124015 0 5 -124015 1
gene 3 2 6 -107092 0 6 -107092 1
gene 3 3 6 88314 0 7 88314 1
gene 2 4 6 -23822 0 8 -23822 1
genomeend 39

/* Organism #40 Fitness: 0 Error: 0 */
genomestart 40
trait 1 1 0 0 0 0 0 0 0 
trait 2 2 0 0 0 0 0 0 0 
trait 3 3 0 0 0 0 0 0 0 
node 1 3 1 3
node 2 1 1 1
node 3 3 1 1
node 4 3 1 1
node 5 3 0 2
node 6 3 0 2
gene 2 1 5 -112704 0 1 -112704 1
gene 1 2 5 34196 0 2 34196 1
gene 1 3 5 165225 0 3 165225 1
gene 2 4 5 -61884 0 4 -61884 1
gene 2 1 6 69646 0 5 69646 1
gene 2 2 6 -118226 0 6 -118226 1
gene 3 3 6 -45284 0 7 -45284 1
gene 3 4 6 -41393 0 8 -41393 1
genomeend 40

/* Organism #41 Fitness: 0 Error: 0 */
genomestart 41
trait 1 1 0 0 0 0 0 0 0 
trait 2 2 0 0 0 0 0 0 0 
trait 3 3 0 0 0 0 0 0 0 
node 1 1 1 3
node 2 1 1 1
node 3 2 1 1
node 4 1 1 1
node 5 3 0 2
node 6 1 0 2
gene 2 1 5 18214 0 1 18214 1
gene 1 2 5 -9707 0 2 -9707 1
gene 3 3 5 -33268 0 3 -33268 1
gene 2 4 5 44457 0 4 44457 1
gene 3 1 6 -19112 0 5 -19112 1
gene 3 2 6 66413 0 6 66413 1
gene 2 3 6 -37301 0 7 -37301 1
gene 3 4 6 -38457 0 8 -38457 1
genomeend 41

/* Organism #42 Fitness: 0 Error: 0 */
genomestart 42
trait 1 1 0 0 0 0 0 0 0 
trait 2 2 0 0 0 0 0 0 0 
trait 3 3 0 0 0 0 0 0 0 
node 1 2 1 3
node 2 3 1 1
node 3 2 1 1
node 4 3 1 1
node 5 3 0 2
node 6 1 0 2
gene 1 1 5 31612 0 1 31612 1
gene 1 2 5 -49691 0 2 -49691 1
gene 3 3 5 89393 0 3 89393 1
gene 2 4 5 23131 0 4 23131 1
gene 3 1 6 10786 0 5 10786 1
gene 3 2 6 80093 0 6 80093 1
gene 1 3 6 -31659 0 7 -31659 1
gene 2 4 6 -51992 0 8 -51992 1
genomeend 42

/* Organism #43 Fitness: 0 Error: 0 */
genomestart 43
trait 1 1 0 0 0 0 0 0 0 
trait 2 2 0 0 0 0 0 0 0 
trait 3 3 0 0 0 0 0 0 0 
node 1 2 1 3
node 2 3 1 1
node 3 3 1 1
node 4 1 1 1
node 5 1 0 2
node 6 3 0 2
gene 3 1 5 60346 0 1 60346 1
gene 3 2 5 38670 0 2 38670 1
gene 3 3 5 -15577 0 3 -15577 1
gene 1 4 5 10535 0 4 10535 1
gene 2 1 6 -21134 0 5 -21134 1
gene 3 2 6 73640 0 6 73640 1
gene 1 3 6 -37208 0 7 -37208 1
gene 3 4 6 -79980 0 8 -79980 1
genomeend 43

/* Organism #44 Fitness: 0 Error: 0 */
genomestart 44
trait 1 1 0 0 0 0 0 0 0 
trait 2 2 0 0 0 0 0 0 0 
trait 3 3 0 0 0 0 0 0 0 
node 1 1 1 3
node 2 1 1 1
node 3 3 1 1
node 4 2 1 1
node 5 3 0 2
node 6 1 0 2
gene 2 1 5 210697 0 1 210697 1
gene 2 2 5 216357 0 2 216357 1
gene 1 3 5 -103090 0 3 -103090 1
gene 1 4 5 -145772 0 4 -145772 1
gene 2 1 6 -51465 0 5 -51465 1
gene 2 2 6 -86590 0 6 -86590 1
gene 2 3 6 1065 0 7 1065 1
gene 2 4 6 52177 0 8 52177 1
genomeend 44

/* Organism #45 Fitness: 0 Error: 0 */
genomestart 45
trait 1 1 0 0 0 0 0 0 0 
trait 2 2 0 0 0 0 0 0 0 
trait 3 3 0 0 0 0 0 0 0 
node 1 2 1 3
node 2 2 1 1
node 3 1 1 1
node 4 3 1 1
node 5 1 0 2
node 6 2 0 2
gene 1 1 5 60148 0 1 60148 1
gene 2 2 5 178638 0 2 178638 1
gene 2 3 5 188776 0 3 188776 1
gene 3 4 5 113521 0 4 113521 1
gene 3 1 6 -224630 0 5 -224630 1
gene 3 2 6 -24519 0 6 -24519 1
gene 3 3 6 -92977 0 7 -92977 1
gene 3 4 6 272423 0 8 272423 1
genomeend 45

/* Organism #46 Fitness: 0 Error: 0 */
genomestart 46
trait 1 1 0 0 0 0 0 0 0 
trait 2 2 0 0 0 0 0 0 0 
trait 3 3 0 0 0 0 0 0 0 
node 1 1 1 3
node 2 1 1 1
node 3 3 1 1
node 4 2 1 1
node 5 3 0 2
node 6 1 0 2
gene 2 1 5 -11340 0 1 -11340 1
gene 3 2 5 25329 0 2 25329 1
gene 1 3 5 25261 0 3 25261 1
gene 1 4 5 41089 0 4 41089 1
gene 2 1 6 -49242 0 5 -49242 1
gene 2 2 6 -68161 0 6 -68161 1
gene 2 3 6 -22895 0 7 -22895 1
gene 3 4 6 53313 0 8 53313 1
genomeend 46

/* Organism #47 Fitness: 0 Error: 0 */
genomestart 47
trait 1 1 0 0 0 0 0 0 0 
trait 2 2 0 0 0 0 0 0 0 
trait 3 3 0 0 0 0 0 0 0 
node 1 2 1 3
node 2 1 1 1
node 3 3 1 1
node 4 2 1 1
node 5 1 0 2
node 6 3 0 2
gene 2 1 5 111045 0 1 111045 1
gene 3 2 5 -159637 0 2 -159637 1
gene 1 3 5 14239 0 3 14239 1
gene 2 4 5 343479 0 4 343479 1
gene 2 1 6 105948 0 5 105948 1
gene 1 2 6 -197714 0 6 -197714 1
gene 1 3 6 -88506 0 7 -88506 1
gene 1 4 6 -135546 0 8 -135546 1
genomeend 47

/* Organism #48 Fitness: 0 Error: 0 */
genomestart 48
trait 1 1 0 0 0 0 0 0 0 
trait 2 2 0 0 0 0 0 0 0 
trait 3 3 0 0 0 0 0 0 0 
node 1 2 1 3
node 2 2 1 1
node 3 1 1 1
node 4 2 1 1
node 5 2 0 2
node 6 2 0 2
gene 1 1 5 48273 0 1 48273 1
gene 2 2 5 -182820 0 2 -182820 1
gene 3 3 5 -229218 0 3 -229218 1
gene 1 4 5 75908 0 4 75908 1
gene 2 1 6 -5417 0 5 -5417 1
gene 3 2 6 28670 0 6 28670 1
gene 2 3 6 -170923 0 7 -170923 1
gene 2 4 6 -217720 0 8 -217720 1
genomeend 48

/* Organism #49 Fitness: 0 Error: 0 */
genomestart 49
trait 1 1 0 0 0 0 0 0 0 
trait 2 2 0 0 0 0 0 0 0 
trait 3 3 0 0 0 0 0 0 0 
node 1 2 1 3
node 2 3 1 1
node 3 3 1 1
node 4 1 1 1
node 5 1 0 2
node 6 3 0 2
gene 2 1 5 46185 0 1 46185 1
gene 3 2 5 -7874 0 2 -7874 1
gene 3 3 5 -97455 0 3 -97455 1
gene 1 4 5 10535 0 4 10535 1
gene 2 1 6 -21134 0 5 -21134 1
gene 3 2 6 73640 0 6 73640 1
gene 2 3 6 -80806 0 7 -80806 1
gene 3 4 6 -79980 0 8 -79980 1
gene 2 5 6 -85654 0 13 -85654 1
genomeend 49

/* Organism #50 Fitness: 0 Error: 0 */
genomestart 50
trait 1 1 0 0 0 0 0 0 0 
trait 2 2 0 0 0 0 0 0 0 
trait 3 3 0 0 0 0 0 0 0 
node 1 1 1 3
node 2 3 1 1
node 3 1 1 1
node 4 2 1 1
node 5 2 0 2
node 6 2 0 2
gene 2 1 5 -288858 0 1 -288858 1
gene 1 2 5 86751 0 2 86751 1
gene 1 3 5 207739 0 3 207739 1
gene 1 4 5 66965 0 4 66965 1
gene 2 1 6 85179 0 5 85179 1
gene 1 2 6 -174807 0 6 -174807 1
gene 3 3 6 -73358 0 7 -73358 1
gene 1 4 6 186132 0 8 186132 1
genomeend 50

/* Organism #51 Fitness: 0 Error: 0 */
genomestart 51
trait 1 1 0 0 0 22172 0 0 0 
trait 2 2 0 0 0 0 0 0 0 
trait 3 3 0 0 0 0 0 0 0 
node 1 1 1 3
node 2 1 1 1
node 3 3 1 1
node 4 2 1 1
node 5 3 0 2
node 6 1 0 2
gene 2 1 5 -11340 0 1 -11340 1
gene 3 2 5 25329 0 2 25329 1
gene 1 3 5 25261 0 3 25261 1
gene 1 4 5 41089 0 4 41089 1
gene 2 1 6 -49242 0 5 -49242 1
gene 2 2 6 -68161 0 6 -68161 1
gene 2 3 6 -22895 0 7 -22895 1
gene 3 4 6 53313 0 8 53313 1
genomeend 51

/* Organism #52 Fitness: 0 Error: 0 */
genomestart 52
trait 1 1 0 0 0 0 0 0 0 
trait 2 2 0 0 0 0 0 0 0 
trait 3 3 0 0 0 0 0 0 0 
node 1 2 1 3
node 2 3 1 1
node 3 2 1 1
node 4 2 1 1
node 5 3 0 2
node 6 3 0 2
gene 2 1 5 -43310 0 1 -43310 1
gene 2 2 5 -17365 0 2 -17365 1
gene 2 3 5 -176806 0 3 -176806 1
gene 1 4 5 -136784 0 4 -136784 1
gene 2 1 6 -219601 0 5 -219601 1
gene 3 2 6 68612 0 6 68612 1
gene 3 3 6 78363 0 7 78363 1
gene 2 4 6 290382 0 8 290382 1
genomeend 52

/* Organism #53 Fitness: 0 Error: 0 */
genomestart 53
trait 1 1 0 0 0 0 0 0 0 
trait 2 2 0 0 0 0 0 0 0 
trait 3 3 0 0 0 0 0 0 0 
node 1 3 1 3
node 2 1 1 1
node 3 3 1 1
node 4 3 1 1
node 5 3 0 2
node 6 3 0 2
gene 3 1 5 89739 0 1 89739 1
gene 3 2 5 -132148 0 2 -132148 1
gene 3 3 5 164905 0 3 164905 1
gene 3 4 5 -13751 0 4 -13751 1
gene 2 1 6 -6943 0 5 -6943 1
gene 3 2 6 202012 0 6 202012 1
gene 1 3 6 -56345 0 7 -56345 1
gene 1 4 6 -184185 0 8 -184185 1
genomeend 53

/* Organism #54 Fitness: 0 Error: 0 */
genomestart 54
trait 1 1 0 0 0 0 0 0 0 
trait 2 2 0 0 0 0 0 0 0 
trait 3 3 0 0 0 0 0 0 0 
node 1 3 1 3
node 2 1 1 1
node 3 3 1 1
node 4 3 1 1
node 5 1 0 2
node 6 3 0 2
gene 2 1 5 -30572 0 1 -30572 1
gene 2 2 5 -29332 0 2 -29332 1
gene 3 3 5 27319 0 3 27319 1
gene 1 4 5 14279 0 4 14279 1
gene 1 1 6 68190 0 5 68190 1
gene 1 2 6 82140 0 6 82140 1
gene 3 3 6 28555 0 7 28555 1
gene 2 4 6 -67202 0 8 -67202 1
genomeend 54

/* Organism #55 Fitness: 0 Error: 0 */
genomestart 55
trait 1 1 0 0 0 0 0 0 0 
trait 2 2 0 0 0 0 0 0 0 
trait 3 3 0 0 0 0 0 0 0 
node 1 2 1 3
node 2 1 1 1
node 3 1 1 1
node 4 1 1 1
node 5 2 0 2
node 6 3 0 2
gene 3 1 5 -242611 0 1 -242611 1
gene 2 2 5 -56567 0 2 -56567 1
gene 2 3 5 135545 0 3 135545 1
gene 3 4 5 166182 0 4 166182 1
gene 1 1 6 -167323 0 5 -167323 1
gene 3 2 6 211017 0 6 211017 1
gene 2 3 6 5641 0 7 5641 1
gene 2 4 6 -121801 0 8 -121801 1
genomeend 55

/* Organism #56 Fitness: 0 Error: 0 */
genomestart 56
trait 1 1 0 0 0 0 0 0 0 
trait 2 2 0 0 0 61519 0 0 0 
trait 3 3 0 0 0 0 0 0 0 
node 1 2 1 3
node 2 3 1 1
node 3 2 1 1
node 4 3 1 1
node 5 3 0 2
node 6 1 0 2
gene 1 1 5 25210 0 1 25210 1
gene 1 2 5 -49691 0 2 -49691 1
gene 1 3 5 -36565 0 3 -36565 1
gene 2 4 5 -91661 0 4 -91661 1
gene 3 1 6 137808 0 5 137808 1
gene 3 2 6 125495 0 6 125495 1
gene 1 3 6 -127196 0 7 -127196 1
gene 2 4 6 -297429 0 8 -297429 1
genomeend 56

/* Organism #57 Fitness: 0 Error: 0 */
genomestart 57
trait 1 1 0 0 0 0 0 0 0 
trait 2 2 0 0 0 0 0 0 0 
trait 3 3 0 0 0 0 0 0 0 
node 1 2 1 3
node 2 2 1 1
node 3 1 1 1
node 4 3 1 1
node 5 1 0 2
node 6 2 0 2
gene 2 1 5 -55841 0 1 -55841 1
gene 2 2 5 30580 0 2 30580 1
gene 3 3 5 11117 0 3 11117 1
gene 2 4 5 -38242 0 4 -38242 1
gene 1 1 6 -64904 0 5 -64904 1
gene 3 2 6 32564 0 6 32564 1
gene 2 3 6 54335 0 7 54335 1
gene 1 4 6 80743 0 8 80743 1
genomeend 57

/* Organism #58 Fitness: 0 Error: 0 */
genomestart 58
trait 1 1 0 0 0 0 0 0 0 
trait 2 2 0 0 0 0 0 0 0 
trait 3 3 0 0 0 0 0 0 0 
node 1 1 1 3
node 2 2 1 1
node 3 2 1 1
node 4 1 1 1
node 5 1 0 2
node 6 1 0 2
gene 3 1 5 266607 0 1 266607 1
gene 3 2 5 38670 0 2 38670 1
gene 3 3 5 -48697 0 3 -48697 1
gene 3 4 5 -84246 0 4 -84246 1
gene 3 1 6 88212 0 5 88212 1
gene 3 2 6 163516 0 6 163516 1
gene 1 3 6 157873 0 7 157873 1
gene 2 4 6 40070 0 8 40070 1
genomeend 58

/* Species #2 : (Size 4) (AF 0) (Age 1)  */


/* Organism #59 Fitness: 0 Error: 0 */
genomestart 59
trait 1 1 0 0 0 0 0 0 0 
trait 2 2 0 0 0 0 0 0 0 
trait 3 3 0 0 0 0 0 0 0 
node 1 1 1 3
node 2 1 1 1
node 3 2 1 1
node 4 1 1 1
node 5 3 0 2
node 6 1 0 2
gene 1 1 5 119213 0 1 119213 1
gene 2 2 5 314265 0 2 314265 1
gene 3 3 5 254187 0 3 254187 1
gene 3 4 5 -223313 0 4 -223313 1
gene 3 1 6 237085 0 5 237085 1
gene 3 2 6 313691 0 6 313691 1
gene 3 3 6 -162682 0 7 -162682 1
gene 3 4 6 192339 0 8 192339 1
genomeend 59

/* Organism #60 Fitness: 0 Error: 0 */
genomestart 60
trait 1 1 0 0 0 0 0 0 0 
trait 2 2 0 0 0 0 0 0 0 
trait 3 3 0 0 0 0 0 0 0 
node 1 2 1 3
node 2 2 1 1
node 3 1 1 1
node 4 2 1 1
node 5 2 0 2
node 6 2 0 2
gene 1 1 5 -5939 0 1 -5939 1
gene 1 2 5 166235 0 2 166235 1
gene 2 3 5 246142 0 3 246142 1
gene 1 4 5 -134957 0 4 -134957 1
gene 2 1 6 192335 0 5 192335 1
gene 2 2 6 208189 0 6 208189 1
gene 1 3 6 -190988 0 7 -190988 1
gene 2 4 6 229057 0 8 229057 1
genomeend 60

/* Organism #61 Fitness: 0 Error: 0 */
genomestart 61
trait 1 1 0 0 0 0 0 0 0 
trait 2 2 0 0 0 0 0 0 0 
trait 3 3 0 0 0 0 0 0 0 
node 1 2 1 3
node 2 3 1 1
node 3 3 1 1
node 4 1 1 1
node 5 1 0 2
node 6 3 0 2
gene 2 1 5 10209 0 1 10209 1
gene 3 2 5 205870 0 2 205870 1
gene 3 3 5 161037 0 3 161037 1
gene 1 4 5 -230842 0 4 -230842 1
gene 2 1 6 -240179 0 5 -240179 1
gene 3 2 6 214193 0 6 214193 1
gene 2 3 6 -93172 0 7 -93172 1
gene 3 4 6 190788 0 8 190788 1
genomeend 61

/* Organism #62 Fitness: 0 Error: 0 */
genomestart 62
trait 1 1 0 0 0 0 0 0 0 
trait 2 2 0 0 0 0 0 0 0 
trait 3 3 0 0 0 0 0 0 0 
node 1 3 1 3
node 2 3 1 1
node 3 2 1 1
node 4 3 1 1
node 5 1 0 2
node 6 2 0 2
gene 1 1 5 299063 0 1 299063 1
gene 2 2 5 -163389 0 2 -163389 1
gene 2 3 5 233956 0 3 233956 1
gene 3 4 5 -150333 0 4 -150333 1
gene 3 1 6 111156 0 5 111156 1
gene 3 2 6 153954 0 6 153954 1
gene 3 3 6 -172035 0 7 -172035 1
gene 3 4 6 238310 0 8 238310 1
genomeend 62

/* Species #3 : (Size 3) (AF 0) (Age 1)  */


/* Organism #63 Fitness: 0 Error: 0 */
genomestart 63
trait 1 1 0 0 0 0 0 0 0 
trait 2 2 0 0 0 0 0 0 0 
trait 3 3 0 0 0 0 0 0 0 
node 1 1 1 3
node 2 2 1 1
node 3 3 1 1
node 4 1 1 1
node 5 2 0 2
node 6 2 0 2
gene 2 1 5 -316134 0 1 -316134 1
gene 2 2 5 162960 0 2 162960 1
gene 3 3 5 -100557 0 3 -100557 1
gene 2 4 5 192264 0 4 192264 1
gene 1 1 6 29196 0 5 29196 1
gene 3 2 6 226651 0 6 226651 1
gene 2 3 6 -162372 0 7 -162372 1
gene 1 4 6 -212791 0 8 -212791 1
genomeend 63

/* Organism #64 Fitness: 0 Error: 0 */
genomestart 64
trait 1 1 0 0 0 0 0 0 0 
trait 2 2 0 0 0 0 0 0 0 
trait 3 3 0 0 0 0 0 0 0 
node 1 2 1 3
node 2 3 1 1
node 3 3 1 1
node 4 1 1 1
node 5 1 0 2
node 6 3 0 2
gene 1 1 5 65112 0 1 65112 1
gene 1 2 5 139794 0 2 139794 1
gene 3 3 5 -146673 0 3 -146673 1
gene 1 4 5 196398 0 4 196398 1
gene 2 1 6 102169 0 5 102169 1
gene 3 2 6 207112 0 6 207112 1
gene 2 3 6 -322362 0 7 -322362 1
gene 3 4 6 -63105 0 8 -63105 1
genomeend 64

/* Organism #65 Fitness: 0 Error: 0 */
genomestart 65
trait 1 1 0 0 0 0 0 0 0 
trait 2 2 0 0 0 0 0 0 0 
trait 3 3 0 0 0 0 0 0 0 
node 1 3 1 3
node 2 1 1 1
node 3 1 1 1
node 4 1 1 1
node 5 1 0 2
node 6 2 0 2
gene 2 1 5 -203954 0 1 -203954 1
gene 1 2 5 122289 0 2 122289 1
gene 2 3 5 -318675 0 3 -318675 1
gene 2 4 5 94526 0 4 94526 1
gene 3 1 6 -107522 0 5 -107522 1
gene 1 2 6 116477 0 6 116477 1
gene 2 3 6 -254422 0 7 -254422 1
gene 2 4 6 135838 0 8 135838 1
genomeend 65

/* Species #4 : (Size 2) (AF 0) (Age 1)  */


/* Organism #66 Fitness: 0 Error: 0 */
genomestart 66
trait 1 1 0 0 0 0 0 0 0 
trait 2 2 0 0 0 0 0 0 0 
trait 3 3 0 0 0 0 0 0 0 
node 1 2 1 3
node 2 3 1 1
node 3 3 1 1
node 4 1 1 1
node 5 1 0 2
node 6 3 0 2
gene 1 1 5 -47057 0 1 -47057 1
gene 3 2 5 280573 0 2 280573 1
gene 2 3 5 175990 0 3 175990 1
gene 1 4 5 -197263 0 4 -197263 1
gene 2 1 6 250858 0 5 250858 1
gene 3 2 6 -233406 0 6 -233406 1
gene 3 3 6 54371 0 7 54371 1
gene 3 4 6 -306111 0 8 -306111 1
genomeend 66

/* Organism #67 Fitness: 0 Error: 0 */
genomestart 67
trait 1 1 0 0 0 0 0 0 0 
trait 2 2 0 0 0 0 0 0 0 
trait 3 3 0 0 0 0 0 0 0 
node 1 3 1 3
node 2 1 1 1
node 3 3 1 1
node 4 1 1 1
node 5 2 0 2
node 6 3 0 2
gene 2 1 5 97746 0 1 97746 1
gene 1 2 5 198368 0 2 198368 1
gene 2 3 5 38688 0 3 38688 1
gene 1 4 5 -83753 0 4 -83753 1
gene 3 1 6 -232954 0 5 -232954 1
gene 2 2 6 -282557 0 6 -282557 1
gene 3 3 6 3111 0 7 3111 1
gene 2 4 6 -226683 0 8 -226683 1
genomeend 67

/* Species #5 : (Size 8) (AF 0) (Age 1)  */


/* Organism #68 Fitness: 0 Error: 0 */
genomestart 68
trait 1 1 0 0 0 0 0 0 0 
trait 2 2 0 0 0 0 0 0 0 
trait 3 3 0 0 0 0 0 0 0 
node 1 1 1 3
node 2 1 1 1
node 3 3 1 1
node 4 2 1 1
node 5 3 0 2
node 6 1 0 2
gene 2 1 5 -63954 0 1 -63954 1
gene 3 2 5 243801 0 2 243801 1
gene 1 3 5 -218468 0 3 -218468 1
gene 1 4 5 -243404 0 4 -243404 1
gene 2 1 6 -68043 0 5 -68043 1
gene 2 2 6 -246859 0 6 -246859 1
gene 2 3 6 108088 0 7 108088 1
gene 3 4 6 125295 0 8 125295 1
genomeend 68

/* Organism #69 Fitness: 0 Error: 0 */
genomestart 69
trait 1 1 0 0 0 0 0 0 0 
trait 2 2 0 0 0 0 0 0 0 
trait 3 3 0 0 0 0 0 0 0 
node 1 1 1 3
node 2 2 1 1
node 3 3 1 1
node 4 1 1 1
node 5 2 0 2
node 6 2 0 2
gene 2 1 5 15427 0 1 15427 1
gene 2 2 5 216253 0 2 216253 1
gene 3 3 5 -66003 0 3 -66003 1
gene 2 4 5 -186948 0 4 -186948 1
gene 2 1 6 111940 0 5 111940 1
gene 3 2 6 -50888 0 6 -50888 1
gene 2 3 6 239124 0 7 239124 1
gene 2 4 6 66219 0 8 66219 1
genomeend 69

/* Organism #70 Fitness: 0 Error: 0 */
genomestart 70
trait 1 1 0 0 0 0 0 0 0 
trait 2 2 0 0 0 0 0 0 0 
trait 3 3 0 0 0 0 0 0 0 
node 1 3 1 3
node 2 2 1 1
node 3 1 1 1
node 4 3 1 1
node 5 3 0 2
node 6 2 0 2
gene 1 1 5 -223216 0 1 -223216 1
gene 2 2 5 -44883 0 2 -44883 1
gene 1 3 5 -248176 0 3 -248176 1
gene 1 4 5 -198360 0 4 -198360 1
gene 3 1 6 49797 0 5 49797 1
gene 2 2 6 133822 0 6 133822 1
gene 1 3 6 26740 0 7 26740 1
gene 2 4 6 161013 0 8 161013 1
genomeend 70

/* Organism #71 Fitness: 0 Error: 0 */
genomestart 71
trait 1 1 0 0 0 0 0 0 0 
trait 2 2 0 0 0 0 0 0 0 
trait 3 3 0 0 0 0 0 0 0 
node 1 1 1 3
node 2 2 1 1
node 3 2 1 1
node 4 1 1 1
node 5 1 0 2
node 6 1 0 2
gene 3 1 5 -91601 0 1 -91601 1
gene 3 2 5 288777 0 2 288777 1
gene 3 3 5 -33415 0 3 -33415 1
gene 3 4 5 -128382 0 4 -128382 1
gene 3 1 6 -136368 0 5 -136368 1
gene 3 2 6 -214742 0 6 -214742 1
gene 1 3 6 29419 0 7 29419 1
gene 2 4 6 206006 0 8 206006 1
genomeend 71

/* Organism #72 Fitness: 0 Error: 0 */
genomestart 72
trait 1 1 0 0 0 0 0 0 0 
trait 2 2 0 0 0 0 0 0 0 
trait 3 3 0 0 0 0 0 0 0 
node 1 1 1 3
node 2 2 1 1
node 3 3 1 1
node 4 1 1 1
node 5 2 0 2
node 6 2 0 2
gene 2 1 5 145473 0 1 145473 1
gene 1 2 5 223198 0 2 223198 1
gene 3 3 5 -223890 0 3 -223890 1
gene 2 4 5 -209480 0 4 -209480 1
gene 3 1 6 18253 0 5 18253 1
gene 3 2 6 -23754 0 6 -23754 1
gene 3 3 6 85467 0 7 85467 1
gene 1 4 6 -233208 0 8 -233208 1
genomeend 72

/* Organism #73 Fitness: 0 Error: 0 */
genomestart 73
trait 1 1 0 0 0 0 0 0 0 
trait 2 2 0 0 0 0 0 0 0 
trait 3 3 0 0 0 0 0 0 0 
node 1 3 1 3
node 2 1 1 1
node 3 3 1 1
node 4 2 1 1
node 5 3 0 2
node 6 3 0 2
gene 2 1 5 -97599 0 1 -97599 1
gene 3 2 5 161760 0 2 161760 1
gene 1 3 5 -230467 0 3 -230467 1
gene 1 4 5 -223355 0 4 -223355 1
gene 2 1 6 24144 0 5 24144 1
gene 2 2 6 41926 0 6 41926 1
gene 2 3 6 -18101 0 7 -18101 1
gene 1 4 6 253226 0 8 253226 1
genomeend 73

/* Organism #74 Fitness: 0 Error: 0 */
genomestart 74
trait 1 1 0 0 0 0 0 0 0 
trait 2 2 0 0 0 0 0 0 0 
trait 3 3 0 0 0 0 0 0 0 
node 1 2 1 3
node 2 3 1 1
node 3 3 1 1
node 4 1 1 1
node 5 1 0 2
node 6 3 0 2
gene 2 1 5 -161033 0 1 -161033 1
gene 1 2 5 144474 0 2 144474 1
gene 3 3 5 9954 0 3 9954 1
gene 2 4 5 34487 0 4 34487 1
gene 2 1 6 122688 0 5 122688 1
gene 3 2 6 -228036 0 6 -228036 1
gene 2 3 6 279920 0 7 279920 1
gene 2 4 6 199306 0 8 199306 1
genomeend 74

/* Organism #75 Fitness: 0 Error: 0 */
genomestart 75
trait 1 1 0 0 0 0 0 0 0 
trait 2 2 0 0 0 0 0 0 0 
trait 3 3 0 0 0 0 0 0 0 
node 1 1 1 3
node 2 1 1 1
node 3 3 1 1
node 4 2 1 1
node 5 3 0 2
node 6 1 0 2
gene 2 1 5 -103698 0 1 -103698 1
gene 3 2 5 210637 0 2 210637 1
gene 1 3 5 -243055 0 3 -243055 1
gene 2 4 5 -141663 0 4 -141663 1
gene 2 1 6 11930 0 5 11930 1
gene 2 2 6 116738 0 6 116738 1
gene 2 3 6 -243520 0 7 -243520 1
gene 3 4 6 261830 0 8 261830 1
genomeend 75

/* Species #6 : (Size 6) (AF 0) (Age 1)  */


/* Organism #76 Fitness: 0 Error: 0 */
genomestart 76
trait 1 1 0 0 0 0 0 0 0 
trait 2 2 0 0 0 0 0 0 0 
trait 3 3 0 0 0 0 0 0 0 
node 1 2 1 3
node 2 3 1 1
node 3 2 1 1
node 4 3 1 1
node 5 1 0 2
node 6 3 0 2
gene 3 1 5 84011 0 1 84011 1
gene 3 2 5 -253323 0 2 -253323 1
gene 3 3 5 -172293 0 3 -172293 1
gene 1 4 5 284130 0 4 284130 1
gene 2 1 6 187257 0 5 187257 1
gene 3 2 6 32207 0 6 32207 1
gene 3 3 6 152990 0 7 152990 1
gene 2 4 6 254433 0 8 254433 1
genomeend 76

/* Organism #77 Fitness: 0 Error: 0 */
genomestart 77
trait 1 1 0 0 0 0 0 0 0 
trait 2 2 0 0 0 0 0 0 0 
trait 3 3 0 0 0 0 0 0 0 
node 1 3 1 3
node 2 1 1 1
node 3 3 1 1
node 4 2 1 1
node 5 1 0 2
node 6 3 0 2
gene 3 1 5 90009 0 1 90009 1
gene 2 2 5 -187812 0 2 -187812 1
gene 2 3 5 -122262 0 3 -122262 1
gene 2 4 5 -271638 0 4 -271638 1
gene 2 1 6 77857 0 5 77857 1
gene 2 2 6 -74816 0 6 -74816 1
gene 2 3 6 197537 0 7 197537 1
gene 2 4 6 245117 0 8 245117 1
genomeend 77

/* Organism #78 Fitness: 0 Error: 0 */
genomestart 78
trait 1 1 0 0 0 0 0 0 0 
trait 2 2 0 0 0 0 0 0 0 
trait 3 3 0 0 0 0 0 0 0 
node 1 3 1 3
node 2 1 1 1
node 3 3 1 1
node 4 3 1 1
node 5 3 0 2
node 6 3 0 2
gene 3 1 5 288840 0 1 288840 1
gene 3 2 5 -187236 0 2 -187236 1
gene 1 3 5 -80407 0 3 -80407 1
gene 2 4 5 251892 0 4 251892 1
gene 1 1 6 79051 0 5 79051 1
gene 2 2 6 280545 0 6 280545 1
gene 3 3 6 -19166 0 7 -19166 1
gene 1 4 6 142401 0 8 142401 1
genomeend 78

/* Organism #79 Fitness: 0 Error: 0 */
genomestart 79
trait 1 1 0 0 0 0 0 0 0 
trait 2 2 0 0 0 0 0 0 0 
trait 3 3 0 0 0 0 0 0 0 
node 1 2 1 3
node 2 3 1 1
node 3 2 1 1
node 4 2 1 1
node 5 3 0 2
node 6 3 0 2
gene 2 1 5 45957 0 1 45957 1
gene 2 2 5 78308 0 2 78308 1
gene 2 3 5 -194425 0 3 -194425 1
gene 1 4 5 295837 0 4 295837 1
gene 2 1 6 229886 0 5 229886 1
gene 3 2 6 68612 0 6 68612 1
gene 3 3 6 73794 0 7 73794 1
gene 2 4 6 -209134 0 8 -209134 1
genomeend 79

/* Organism #80 Fitness: 0 Error: 0 */
genomestart 80
trait 1 1 0 0 0 0 0 0 0 
trait 2 2 0 0 0 0 0 0 0 
trait 3 3 0 0 0 0 0 0 0 
node 1 3 1 3
node 2 1 1 1
node 3 1 1 1
node 4 1 1 1
node 5 1 0 2
node 6 2 0 2
gene 2 1 5 229642 0 1 229642 1
gene 1 2 5 78609 0 2 78609 1
gene 2 3 5 -144846 0 3 -144846 1
gene 2 4 5 229586 0 4 229586 1
gene 3 1 6 74811 0 5 74811 1
gene 1 2 6 54254 0 6 54254 1
gene 2 3 6 137297 0 7 137297 1
gene 2 4 6 354499 0 8 354499 1
genomeend 80

/* Organism #81 Fitness: 0 Error: 0 */
genomestart 81
trait 1 1 0 0 0 0 0 0 0 
trait 2 2 0 0 0 0 0 0 0 
trait 3 3 0 0 0 0 0 0 0 
node 1 3 1 3
node 2 1 1 1
node 3 3 1 1
node 4 3 1 1
node 5 1 0 2
node 6 3 0 2
gene 2 1 5 156357 0 1 156357 1
gene 3 2 5 -120813 0 2 -120813 1
gene 1 3 5 91618 0 3 91618 1
gene 1 4 5 -133454 0 4 -133454 1
gene 1 1 6 181027 0 5 181027 1
gene 2 2 6 -138220 0 6 -138220 1
gene 3 3 6 188810 0 7 188810 1
gene 3 4 6 153612 0 8 153612 1
genomeend 81

/* Species #7 : (Size 1) (AF 0) (Age 1)  */


/* Organism #82 Fitness: 0 Error: 0 */
genomestart 82
trait 1 1 0 0 0 0 0 0 0 
trait 2 2 0 0 0 0 0 0 0 
trait 3 3 0 0 0 0 0 0 0 
node 1 2 1 3
node 2 3 1 1
node 3 2 1 1
node 4 3 1 1
node 5 1 0 2
node 6 3 0 2
gene 1 1 5 174255 0 1 174255 1
gene 1 2 5 237870 0 2 237870 1
gene 1 3 5 -210322 0 3 -210322 1
gene 1 4 5 -255569 0 4 -255569 1
gene 2 1 6 315220 0 5 315220 1
gene 3 2 6 -104821 0 6 -104821 1
gene 3 3 6 -262423 0 7 -262423 1
gene 2 4 6 2515 0 8 2515 1
genomeend 82

/* Species #8 : (Size 3) (AF 0) (Age 1)  */


/* Organism #83 Fitness: 0 Error: 0 */
genomestart 83
trait 1 1 0 0 0 0 0 0 0 
trait 2 2 0 0 0 0 0 0 0 
trait 3 3 0 0 0 0 0 0 0 
node 1 1 1 3
node 2 3 1 1
node 3 1 1 1
node 4 2 1 1
node 5 2 0 2
node 6 2 0 2
gene 2 1 5 21309 0 1 21309 1
gene 1 2 5 66965 0 2 66965 1
gene 1 3 5 94470 0 3 94470 1
gene 2 4 5 250706 0 4 250706 1
gene 2 1 6 95521 0 5 95521 1
gene 2 2 6 -217140 0 6 -217140 1
gene 3 3 6 -339341 0 7 -339341 1
gene 3 4 6 -180851 0 8 -180851 1
genomeend 83

/* Organism #84 Fitness: 0 Error: 0 */
genomestart 84
trait 1 1 0 0 0 0 0 0 0 
trait 2 2 0 0 0 0 0 0 0 
trait 3 3 0 0 0 0 0 0 0 
node 1 3 1 3
node 2 1 1 1
node 3 3 1 1
node 4 3 1 1
node 5 3 0 2
node 6 3 0 2
gene 1 1 5 164076 0 1 164076 1
gene 2 2 5 -202041 0 2 -202041 1
gene 1 3 5 152231 0 3 152231 1
gene 3 4 5 304209 0 4 304209 1
gene 2 1 6 271009 0 5 271009 1
gene 2 2 6 -109235 0 6 -109235 1
gene 3 3 6 -187610 0 7 -187610 1
gene 1 4 6 -129427 0 8 -129427 1
genomeend 84

/* Organism #85 Fitness: 0 Error: 0 */
genomestart 85
trait 1 1 0 0 0 0 0 0 0 
trait 2 2 0 0 0 0 0 0 0 
trait 3 3 0 0 0 0 0 0 0 
node 1 3 1 3
node 2 1 1 1
node 3 1 1 1
node 4 1 1 1
node 5 1 0 2
node 6 2 0 2
gene 2 1 5 105751 0 1 105751 1
gene 1 2 5 78609 0 2 78609 1
gene 2 3 5 -95949 0 3 -95949 1
gene 2 4 5 147059 0 4 147059 1
gene 3 1 6 230475 0 5 230475 1
gene 1 2 6 -317785 0 6 -317785 1
gene 2 3 6 124892 0 7 124892 1
gene 2 4 6 -226938 0 8 -226938 1
genomeend 85

/* Species #9 : (Size 2) (AF 0) (Age 1)  */


/* Organism #86 Fitness: 0 Error: 0 */
genomestart 86
trait 1 1 0 0 0 0 0 0 0 
trait 2 2 0 0 0 0 0 0 0 
trait 3 3 0 0 0 0 0 0 0 
node 1 3 1 3
node 2 1 1 1
node 3 1 1 1
node 4 1 1 1
node 5 1 0 2
node 6 2 0 2
gene 2 1 5 36051 0 1 36051 1
gene 1 2 5 -258174 0 2 -258174 1
gene 2 3 5 -276435 0 3 -276435 1
gene 2 4 5 -122578 0 4 -122578 1
gene 3 1 6 134758 0 5 134758 1
gene 1 2 6 -204949 0 6 -204949 1
gene 2 3 6 -141634 0 7 -141634 1
gene 2 4 6 182320 0 8 182320 1
genomeend 86

/* Organism #87 Fitness: 0 Error: 0 */
genomestart 87
trait 1 1 0 0 0 0 0 0 0 
trait 2 2 0 0 0 0 0 0 0 
trait 3 3 0 0 0 0 0 0 0 
node 1 1 1 3
node 2 2 1 1
node 3 3 1 1
node 4 1 1 1
node 5 2 0 2
node 6 2 0 2
gene 2 1 5 30694 0 1 30694 1
gene 2 2 5 -220136 0 2 -220136 1
gene 3 3 5 -46290 0 3 -46290 1
gene 2 4 5 -344646 0 4 -344646 1
gene 3 1 6 -698 0 5 -698 1
gene 2 2 6 -32690 0 6 -32690 1
gene 1 3 6 176712 0 7 176712 1
gene 2 4 6 163668 0 8 163668 1
genomeend 87

/* Species #10 : (Size 5) (AF 0) (Age 1)  */


/* Organism #88 Fitness: 0 Error: 0 */
genomestart 88
trait 1 1 0 0 0 0 0 0 0 
trait 2 2 0 0 0 0 0 0 0 
trait 3 3 0 0 0 0 0 0 0 
node 1 1 1 3
node 2 2 1 1
node 3 3 1 1
node 4 1 1 1
node 5 2 0 2
node 6 2 0 2
gene 2 1 5 108480 0 1 108480 1
gene 2 2 5 74232 0 2 74232 1
gene 3 3 5 171759 0 3 171759 1
gene 2 4 5 -367372 0 4 -367372 1
gene 1 1 6 -248589 0 5 -248589 1
gene 3 2 6 -191858 0 6 -191858 1
gene 2 3 6 -214707 0 7 -214707 1
gene 1 4 6 165379 0 8 165379 1
genomeend 88

/* Organism #89 Fitness: 0 Error: 0 */
genomestart 89
trait 1 1 0 0 0 0 0 0 0 
trait 2 2 0 0 0 0 0 0 0 
trait 3 3 0 0 0 0 0 0 0 
node 1 2 1 3
node 2 2 1 1
node 3 1 1 1
node 4 2 1 1
node 5 2 0 2
node 6 2 0 2
gene 2 1 5 75354 0 1 75354 1
gene 3 2 5 169003 0 2 169003 1
gene 1 3 5 214385 0 3 214385 1
gene 1 4 5 187495 0 4 187495 1
gene 2 1 6 -246795 0 5 -246795 1
gene 2 2 6 -221157 0 6 -221157 1
gene 2 3 6 85374 0 7 85374 1
gene 3 4 6 209386 0 8 209386 1
genomeend 89

/* Organism #90 Fitness: 0 Error: 0 */
genomestart 90
trait 1 1 0 0 0 0 0 0 0 
trait 2 2 0 0 0 0 0 0 0 
trait 3 3 0 0 0 0 0 0 0 
node 1 2 1 3
node 2 3 1 1
node 3 2 1 1
node 4 2 1 1
node 5 3 0 2
node 6 3 0 2
gene 2 1 5 -188040 0 1 -188040 1
gene 2 2 5 217062 0 2 217062 1
gene 2 3 5 186031 0 3 186031 1
gene 3 4 5 -194176 0 4 -194176 1
gene 2 1 6 -196366 0 5 -196366 1
gene 3 2 6 -151381 0 6 -151381 1
gene 3 3 6 -191865 0 7 -191865 1
gene 3 4 6 5659 0 8 5659 1
genomeend 90

/* Organism #91 Fitness: 0 Error: 0 */
genomestart 91
trait 1 1 0 0 0 0 0 0 0 
trait 2 2 0 0 0 0 0 0 0 
trait 3 3 0 0 0 0 0 0 0 
node 1 3 1 3
node 2 3 1 1
node 3 2 1 1
node 4 3 1 1
node 5 1 0 2
node 6 2 0 2
gene 1 1 5 -140047 0 1 -140047 1
gene 1 2 5 257339 0 2 257339 1
gene 2 3 5 142351 0 3 142351 1
gene 2 4 5 -286993 0 4 -286993 1
gene 2 1 6 -251927 0 5 -251927 1
gene 2 2 6 -140382 0 6 -140382 1
gene 3 3 6 -258297 0 7 -258297 1
gene 3 4 6 13036 0 8 13036 1
genomeend 91

/* Organism #92 Fitness: 0 Error: 0 */
genomestart 92
trait 1 1 0 0 0 0 0 0 0 
trait 2 2 0 0 0 0 0 0 0 
trait 3 3 0 0 0 0 0 0 0 
node 1 3 1 3
node 2 2 1 1
node 3 1 1 1
node 4 2 1 1
node 5 3 0 2
node 6 3 0 2
gene 1 1 5 91405 0 1 91405 1
gene 1 2 5 -15643 0 2 -15643 1
gene 3 3 5 281846 0 3 281846 1
gene 2 4 5 -125822 0 4 -125822 1
gene 1 1 6 -184205 0 5 -184205 1
gene 2 2 6 -58166 0 6 -58166 1
gene 1 3 6 211857 0 7 211857 1
gene 2 4 6 234595 0 8 234595 1
genomeend 92

/* Species #11 : (Size 1) (AF 0) (Age 1)  */


/* Organism #93 Fitness: 0 Error: 0 */
genomestart 93
trait 1 1 0 0 0 0 0 0 0 
trait 2 2 0 0 0 0 0 0 0 
trait 3 3 0 0 0 0 0 0 0 
node 1 2 1 3
node 2 1 1 1
node 3 3 1 1
node 4 2 1 1
node 5 3 0 2
node 6 1 0 2
gene 1 1 5 291950 0 1 291950 1
gene 2 2 5 331581 0 2 331581 1
gene 1 3 5 198170 0 3 198170 1
gene 1 4 5 -250689 0 4 -250689 1
gene 1 1 6 -112875 0 5 -112875 1
gene 2 2 6 179122 0 6 179122 1
gene 2 3 6 178008 0 7 178008 1
gene 2 4 6 55575 0 8 55575 1
genomeend 93

/* Species #12 : (Size 1) (AF 0) (Age 1)  */


/* Organism #94 Fitness: 0 Error: 0 */
genomestart 94
trait 1 1 0 0 0 0 0 0 0 
trait 2 2 0 0 0 0 0 0 0 
trait 3 3 0 0 0 0 0 0 0 
node 1 3 1 3
node 2 2 1 1
node 3 1 1 1
node 4 2 1 1
node 5 3 0 2
node 6 3 0 2
gene 1 1 5 183550 0 1 183550 1
gene 2 2 5 236907 0 2 236907 1
gene 3 3 5 -55354 0 3 -55354 1
gene 2 4 5 299281 0 4 299281 1
gene 1 1 6 -274215 0 5 -274215 1
gene 2 2 6 71260 0 6 71260 1
gene 2 3 6 205098 0 7 205098 1
gene 2 4 6 -8027 0 8 -8027 1
genomeend 94

/* Species #13 : (Size 1) (AF 0) (Age 1)  */


/* Organism #95 Fitness: 0 Error: 0 */
genomestart 95
trait 1 1 0 0 0 0 0 0 0 
trait 2 2 0 0 0 0 0 0 0 
trait 3 3 0 0 0 0 0 0 0 
node 1 1 1 3
node 2 1 1 1
node 3 3 1 1
node 4 2 1 1
node 5 3 0 2
node 6 1 0 2
gene 2 1 5 -1557 0 1 -1557 1
gene 3 2 5 301353 0 2 301353 1
gene 1 3 5 319447 0 3 319447 1
gene 1 4 5 302893 0 4 302893 1
gene 2 1 6 -36594 0 5 -36594 1
gene 2 2 6 -306256 0 6 -306256 1
gene 2 3 6 252037 0 7 252037 1
gene 3 4 6 334554 0 8 334554 1
genomeend 95

/* Species #14 : (Size 1) (AF 0) (Age 1)  */


/* Organism #96 Fitness: 0 Error: 0 */
genomestart 96
trait 1 1 0 0 0 0 0 0 0 
trait 2 2 0 0 0 0 0 0 0 
trait 3 3 0 0 0 0 0 0 0 
node 1 1 1 3
node 2 1 1 1
node 3 2 1 1
node 4 1 1 1
node 5 3 0 2
node 6 2 0 2
gene 2 1 5 312212 0 1 312212 1
gene 1 2 5 66222 0 2 66222 1
gene 3 3 5 -237537 0 3 -237537 1
gene 2 4 5 -140196 0 4 -140196 1
gene 3 1 6 -57659 0 5 -57659 1
gene 3 2 6 221735 0 6 221735 1
gene 3 3 6 -250107 0 7 -250107 1
gene 3 4 6 -297977 0 8 -297977 1
genomeend 96

/* Species #15 : (Size 1) (AF 0) (Age 1)  */


/* Organism #97 Fitness: 0 Error: 0 */
genomestart 97
trait 1 1 0 0 0 0 0 0 0 
trait 2 2 0 0 0 0 0 0 0 
trait 3 3 0 0 0 0 0 0 0 
node 1 3 1 3
node 2 2 1 1
node 3 3 1 1
node 4 3 1 1
node 5 3 0 2
node 6 2 0 2
gene 1 1 5 40425 0 1 40425 1
gene 1 2 5 33435 0 2 33435 1
gene 2 3 5 -106083 0 3 -106083 1
gene 1 4 5 -194288 0 4 -194288 1
gene 3 1 6 353819 0 5 353819 1
gene 2 2 6 185401 0 6 185401 1
gene 3 3 6 236919 0 7 236919 1
gene 2 4 6 148737 0 8 148737 1
genomeend 97

/* Species #16 : (Size 1) (AF 0) (Age 1)  */


/* Organism #98 Fitness: 0 Error: 0 */
genomestart 98
trait 1 1 0 0 0 0 0 0 0 
trait 2 2 0 0 0 0 0 0 0 
trait 3 3 0 0 0 0 0 0 0 
node 1 2 1 3
node 2 1 1 1
node 3 3 1 1
node 4 2 1 1
node 5 1 0 2
node 6 3 0 2
gene 2 1 5 253341 0 1 253341 1
gene 1 2 5 -214696 0 2 -214696 1
gene 1 3 5 321415 0 3 321415 1
gene 2 4 5 20544 0 4 20544 1
gene 2 1 6 201993 0 5 201993 1
gene 1 2 6 2134 0 6 2134 1
gene 1 3 6 128469 0 7 128469 1
gene 2 4 6 39547 0 8 39547 1
genomeend 98

/* Species #17 : (Size 1) (AF 0) (Age 1)  */


/* Organism #99 Fitness: 0 Error: 0 */
genomestart 99
trait 1 1 0 0 0 0 0 0 0 
trait 2 2 0 0 0 0 0 0 0 
trait 3 3 0 0 0 0 0 0 0 
node 1 1 1 3
node 2 1 1 1
node 3 2 1 1
node 4 1 1 1
node 5 3 0 2
node 6 1 0 2
gene 1 1 5 50039 0 1 50039 1
gene 1 2 5 125647 0 2 125647 1
gene 1 3 5 -290742 0 3 -290742 1
gene 2 4 5 -161120 0 4 -161120 1
gene 2 1 6 -94625 0 5 -94625 1
gene 2 2 6 262696 0 6 262696 1
gene 3 3 6 -130709 0 7 -130709 1
gene 1 4 6 359738 0 8 359738 1
genomeend 99
