
/* Species #14 : (Size 2) (AF 19.5) (Age 18)  */


/* Organism #0 Fitness: 0 Error: 0 */
genomestart 0
trait 1 0.1 0 0 0 0 0 0 0 
trait 2 0.2 0 0 0.714563 0.620401 0 0.778491 0 
trait 3 0 0.592699 0 0.413789 0.332206 0.444425 0.374919 0.0643479 
node 1 2 1 3
node 2 1 1 1
node 3 2 1 1
node 4 1 1 1
node 5 3 0 2
node 6 2 0 2
gene 3 1 5 1.86938 0 1 1.86938 1
gene 1 2 5 0.0738538 0 2 0.0738538 1
gene 2 3 5 -2.74344 0 3 -2.74344 1
gene 2 4 5 -0.52325 0 4 -0.52325 1
gene 2 1 6 -3.60628 0 5 -3.60628 1
gene 3 2 6 0.458714 0 6 0.458714 1
gene 1 3 6 4.37034 0 7 4.37034 1
gene 3 4 6 4.5796 0 8 4.5796 1
gene 2 6 5 8 0 33 8 1
genomeend 0

/* Organism #1 Fitness: 39 Error: 0 */
genomestart 1
trait 1 0.1 0 0 0 0 0 0 0 
trait 2 0.2 0 0 0.714563 0.620401 0 0.778491 0 
trait 3 0 0.592699 0 0.413789 0.332206 0.444425 0.374919 0.0643479 
node 1 2 1 3
node 2 3 1 1
node 3 2 1 1
node 4 1 1 1
node 5 3 0 2
node 6 2 0 2
gene 3 1 5 0.828675 0 1 0.828675 1
gene 1 2 5 -3.3355 0 2 -3.3355 1
gene 2 3 5 -2.64488 0 3 -2.64488 1
gene 2 4 5 1.51749 0 4 1.51749 1
gene 2 1 6 -2.94592 0 5 -2.94592 1
gene 3 2 6 3.84966 0 6 3.84966 1
gene 1 3 6 3.5242 0 7 3.5242 1
gene 3 4 6 2.66305 0 8 2.66305 1
gene 2 6 5 8 0 33 8 1
genomeend 1

/* Species #41 : (Size 2) (AF 19) (Age 16)  */


/* Organism #2 Fitness: 0 Error: 0 */
genomestart 2
trait 1 0.1 0 0 0 0 0 0 0 
trait 2 0.2 0 0.941688 0.021937 0 0.406624 0 0.855567 
trait 3 0.3 0 0 0 0 0 0 0 
node 1 3 1 3
node 2 2 1 1
node 3 2 1 1
node 4 1 1 1
node 5 3 0 2
node 6 1 0 2
gene 1 1 5 1.93822 0 1 1.93822 1
gene 1 2 5 -2.25866 0 2 -2.25866 1
gene 3 3 5 -5.85284 0 3 -5.85284 1
gene 2 4 5 3.44412 0 4 3.44412 1
gene 3 1 6 -3.99773 0 5 -3.99773 1
gene 2 2 6 3.72376 0 6 3.72376 1
gene 2 3 6 0.380217 0 7 0.380217 1
gene 3 4 6 -5.02155 0 8 -5.02155 1
gene 1 5 6 -2.42154 0 9 -2.42154 1
gene 1 6 6 -0.230659 1 17 -0.230659 1
genomeend 2

/* Organism #3 Fitness: 38 Error: 0 */
genomestart 3
trait 1 0.1 0 0 0 0 0 0 0 
trait 2 0.2 0 0.941688 0.021937 0 0.406624 0 0.855567 
trait 3 0.3 0 0 0 0 0 0 0 
node 1 3 1 3
node 2 2 1 1
node 3 1 1 1
node 4 1 1 1
node 5 3 0 2
node 6 1 0 2
gene 1 1 5 3.36758 0 1 3.36758 1
gene 1 2 5 -3.72791 0 2 -3.72791 1
gene 3 3 5 -1.62676 0 3 -1.62676 1
gene 2 4 5 -0.476 0 4 -0.476 1
gene 3 1 6 -5.50464 0 5 -5.50464 1
gene 2 2 6 4.74983 0 6 4.74983 1
gene 2 3 6 -0.714872 0 7 -0.714872 1
gene 3 4 6 -4.97478 0 8 -4.97478 1
gene 1 5 6 -1.86038 0 9 -1.86038 1
gene 1 6 6 -0.793392 1 17 -0.793392 1
genomeend 3

/* Species #64 : (Size 1) (AF 0) (Age 15)  */


/* Organism #4 Fitness: 0 Error: 0 */
genomestart 4
trait 1 0.1 0 0 0 0 0 0 0 
trait 2 0.2 0 0 0 0 0 0 0 
trait 3 0.414792 0 0 0 0 0 0.849866 0 
node 1 2 1 3
node 2 1 1 1
node 3 2 1 1
node 4 1 1 1
node 5 3 0 2
node 6 2 0 2
gene 2 1 5 5.02905 0 1 5.02905 1
gene 1 2 5 -6.32787 0 2 -6.32787 1
gene 1 3 5 -2.6388 0 3 -2.6388 1
gene 1 4 5 -5.45488 0 4 -5.45488 1
gene 3 1 6 -0.751286 0 5 -0.751286 1
gene 2 2 6 -1.35131 0 6 -1.35131 1
gene 3 3 6 -5.82886 0 7 -5.82886 1
gene 3 4 6 0.944622 0 8 0.944622 1
genomeend 4

/* Species #192 : (Size 2) (AF 19.5) (Age 8)  */


/* Organism #5 Fitness: 0 Error: 0 */
genomestart 5
trait 1 0.1 0 0.259132 0.126735 0 0 0 0 
trait 2 0.2 0 0.038424 0 0.152127 0 0 0.0479083 
trait 3 0.215972 0 0 0 0.00683032 0 0 0 
node 1 3 1 3
node 2 3 1 1
node 3 3 1 1
node 4 3 1 1
node 5 1 0 2
node 6 1 0 2
gene 1 1 5 -3.40514 0 1 -3.40514 1
gene 1 2 5 -2.62213 0 2 -2.62213 1
gene 1 3 5 -3.33184 0 3 -3.33184 1
gene 1 4 5 -5.32233 0 4 -5.32233 1
gene 1 1 6 -8 0 5 -8 1
gene 2 2 6 -0.226673 0 6 -0.226673 1
gene 2 3 6 3.9839 0 7 3.9839 1
gene 2 4 6 -0.978619 0 8 -0.978619 1
genomeend 5

/* Organism #6 Fitness: 39 Error: 0 */
genomestart 6
trait 1 0.1 0 0.259132 0.126735 0 0 0 0 
trait 2 0.2 0 0.038424 0 0.152127 0 0 0.0479083 
trait 3 0.215972 0 0 0 0.00683032 0 0 0 
node 1 3 1 3
node 2 3 1 1
node 3 3 1 1
node 4 3 1 1
node 5 1 0 2
node 6 1 0 2
gene 1 1 5 -1.67295 0 1 -1.67295 1
gene 1 2 5 -5.17317 0 2 -5.17317 1
gene 1 3 5 -3.26633 0 3 -3.26633 1
gene 1 4 5 -3.77404 0 4 -3.77404 1
gene 1 1 6 -8 0 5 -8 1
gene 2 2 6 -0.896449 0 6 -0.896449 1
gene 2 3 6 3.53631 0 7 3.53631 1
gene 2 4 6 -2.39758 0 8 -2.39758 1
genomeend 6

/* Species #197 : (Size 6) (AF 25.3333) (Age 8)  */


/* Organism #7 Fitness: 0 Error: 0 */
genomestart 7
trait 1 0.1 0 0 0 0 0 0 0 
trait 2 0.2 0 0 0.714563 0.620401 0 0.778491 0 
trait 3 0 0.592699 0 0.413789 0.332206 0.444425 0.374919 0.0643479 
node 1 2 1 3
node 2 3 1 1
node 3 2 1 1
node 4 1 1 1
node 5 3 0 2
node 6 2 0 2
gene 3 1 5 3.62798 0 1 3.62798 1
gene 1 2 5 -3.60248 0 2 -3.60248 1
gene 2 3 5 -1.68648 0 3 -1.68648 1
gene 2 4 5 1.27693 0 4 1.27693 1
gene 2 1 6 -7.88289 0 5 -7.88289 1
gene 3 2 6 2.69302 0 6 2.69302 1
gene 1 3 6 8 0 7 8 1
gene 3 4 6 -2.25948 0 8 -2.25948 1
gene 2 6 5 7.01356 0 33 7.01356 1
genomeend 7

/* Organism #8 Fitness: 0 Error: 0 */
genomestart 8
trait 1 0.1 0 0 0 0 0 0 0 
trait 2 0.2 0 0 0.714563 0.620401 0 0.778491 0 
trait 3 0 0.592699 0 0.413789 0.332206 0.444425 0.374919 0.0643479 
node 1 2 1 3
node 2 3 1 1
node 3 2 1 1
node 4 1 1 1
node 5 3 0 2
node 6 2 0 2
gene 3 1 5 4.46678 0 1 4.46678 1
gene 1 2 5 1.95254 0 2 1.95254 1
gene 2 3 5 -1.19805 0 3 -1.19805 1
gene 2 4 5 3.51287 0 4 3.51287 1
gene 2 1 6 -8 0 5 -8 1
gene 3 2 6 3.92455 0 6 3.92455 1
gene 1 3 6 7.27852 0 7 7.27852 1
gene 3 4 6 -2.25948 0 8 -2.25948 1
gene 2 6 5 6.64151 0 33 6.64151 1
genomeend 8

/* Organism #9 Fitness: 38 Error: 0 */
genomestart 9
trait 1 0.1 0 0 0 0 0 0 0 
trait 2 0.2 0 0 0.714563 0.620401 0 0.778491 0 
trait 3 0 0.592699 0 0.413789 0.332206 0.444425 0.374919 0.0643479 
node 1 2 1 3
node 2 3 1 1
node 3 2 1 1
node 4 1 1 1
node 5 3 0 2
node 6 2 0 2
gene 3 1 5 3.62798 0 1 3.62798 1
gene 1 2 5 -3.60248 0 2 -3.60248 1
gene 2 3 5 -1.68648 0 3 -1.68648 1
gene 2 4 5 1.27693 0 4 1.27693 1
gene 2 1 6 -7.88289 0 5 -7.88289 1
gene 3 2 6 2.69302 0 6 2.69302 1
gene 1 3 6 8 0 7 8 1
gene 3 4 6 -2.25948 0 8 -2.25948 1
gene 2 6 5 7.01356 0 33 7.01356 1
genomeend 9

/* Organism #10 Fitness: 38 Error: 0 */
genomestart 10
trait 1 0.1 0 0 0 0 0 0 0 
trait 2 1 0.0184287 0 0.714563 0.031301 0 0.778491 0 
trait 3 0 0.592699 0 0.413789 0.332206 0.444425 0.374919 0.0643479 
node 1 2 1 3
node 2 3 1 1
node 3 2 1 1
node 4 1 1 1
node 5 3 0 2
node 6 2 0 2
gene 3 1 5 1.33715 0 1 1.33715 1
gene 1 2 5 -5.64292 0 2 -5.64292 1
gene 2 3 5 -1.84887 0 3 -1.84887 1
gene 2 4 5 3.24868 0 4 3.24868 1
gene 2 1 6 -7.88289 0 5 -7.88289 1
gene 3 2 6 2.4482 0 6 2.4482 1
gene 1 3 6 7.1611 0 7 7.1611 1
gene 3 4 6 -1.55199 0 8 -1.55199 1
gene 2 6 5 5.40654 0 33 5.40654 1
genomeend 10

/* Organism #11 Fitness: 38 Error: 0 */
genomestart 11
trait 1 0.1 0 0 0 0 0 0 0 
trait 2 0.2 0 0 0.714563 0.620401 0 0.778491 0 
trait 3 0 0.592699 0 0.413789 0.332206 0.444425 0.374919 0.0643479 
node 1 2 1 3
node 2 3 1 1
node 3 2 1 1
node 4 1 1 1
node 5 3 0 2
node 6 2 0 2
gene 3 1 5 2.64908 0 1 2.64908 1
gene 1 2 5 -2.86536 0 2 -2.86536 1
gene 2 3 5 -3.35469 0 3 -3.35469 1
gene 2 4 5 1.41437 0 4 1.41437 1
gene 2 1 6 -7.69923 0 5 -7.69923 1
gene 3 2 6 2.83718 0 6 2.83718 1
gene 1 3 6 6.79515 0 7 6.79515 1
gene 3 4 6 -1.57702 0 8 -1.57702 1
gene 2 6 5 7.81237 0 33 7.81237 1
genomeend 11

/* Organism #12 Fitness: 38 Error: 0 */
genomestart 12
trait 1 0.1 0 0 0 0 0 0 0 
trait 2 0.2 0 0 0.714563 0.620401 0 0.778491 0 
trait 3 0 0.592699 0 0.413789 0.332206 0.444425 0.374919 0.0643479 
node 1 2 1 3
node 2 3 1 1
node 3 2 1 1
node 4 1 1 1
node 5 3 0 2
node 6 2 0 2
gene 3 1 5 5.29433 0 1 5.29433 1
gene 1 2 5 -4.78232 0 2 -4.78232 1
gene 2 3 5 -0.634305 0 3 -0.634305 1
gene 2 4 5 0.324179 0 4 0.324179 1
gene 2 1 6 -6.04201 0 5 -6.04201 1
gene 3 2 6 2.71142 0 6 2.71142 1
gene 1 3 6 8 0 7 8 1
gene 3 4 6 -3.02628 0 8 -3.02628 1
gene 2 6 5 5.57773 0 33 5.57773 1
genomeend 12

/* Species #202 : (Size 5) (AF 30.4) (Age 7)  */


/* Organism #13 Fitness: 0 Error: 0 */
genomestart 13
trait 1 0.1 0 0.259132 0.126735 0 0 0 0 
trait 2 0.2 0 0.038424 0 0.152127 0 0 0.0479083 
trait 3 0.215972 0 0 0 0.00683032 0 0 0 
node 1 3 1 3
node 2 2 1 1
node 3 3 1 1
node 4 2 1 1
node 5 3 0 2
node 6 1 0 2
gene 1 1 5 2.26347 0 1 2.26347 1
gene 1 2 5 -3.60748 0 2 -3.60748 1
gene 1 3 5 -0.847143 0 3 -0.847143 1
gene 1 4 5 -5.63199 0 4 -5.63199 1
gene 1 1 6 -7.1066 0 5 -7.1066 1
gene 2 2 6 8 0 6 8 1
gene 2 3 6 -1.69093 0 7 -1.69093 1
gene 2 4 6 1.33065 0 8 1.33065 1
gene 1 6 5 1.84381 0 40 1.84381 1
genomeend 13

/* Organism #14 Fitness: 38 Error: 0 */
genomestart 14
trait 1 0.1 0 0.259132 0.126735 0 0 0 0 
trait 2 0.2 0 0.038424 0 0.152127 0 0 0.0479083 
trait 3 0.215972 0 0 0 0.00683032 0 0 0 
node 1 3 1 3
node 2 2 1 1
node 3 3 1 1
node 4 1 1 1
node 5 3 0 2
node 6 1 0 2
gene 1 1 5 -0.769791 0 1 -0.769791 1
gene 1 2 5 -4.85585 0 2 -4.85585 1
gene 1 3 5 -1.34091 0 3 -1.34091 1
gene 1 4 5 -5.32599 0 4 -5.32599 1
gene 1 1 6 -8 0 5 -8 1
gene 2 2 6 8 0 6 8 1
gene 2 3 6 -0.698726 0 7 -0.698726 1
gene 2 4 6 2.21708 0 8 2.21708 1
gene 1 6 5 -0.962132 0 40 -0.962132 1
genomeend 14

/* Organism #15 Fitness: 38 Error: 0 */
genomestart 15
trait 1 0.1 0 0.259132 0.126735 0 0 0 0 
trait 2 0.2 0 0.038424 0 0.152127 0 0 0.0479083 
trait 3 0.215972 0 0 0 0.00683032 0 0 0 
node 1 3 1 3
node 2 2 1 1
node 3 3 1 1
node 4 1 1 1
node 5 3 0 2
node 6 1 0 2
gene 1 1 5 1.19772 0 1 1.19772 1
gene 1 2 5 -4.90838 0 2 -4.90838 1
gene 1 3 5 -1.36467 0 3 -1.36467 1
gene 1 4 5 -7.40231 0 4 -7.40231 1
gene 1 1 6 -8 0 5 -8 1
gene 2 2 6 8 0 6 8 1
gene 2 3 6 -0.881565 0 7 -0.881565 1
gene 2 4 6 3.91368 0 8 3.91368 1
gene 1 6 5 1.27509 0 40 1.27509 1
genomeend 15

/* Organism #16 Fitness: 38 Error: 0 */
genomestart 16
trait 1 0.1 0 0.259132 0.126735 0 0 0 0 
trait 2 0.2 0 0.038424 0 0.152127 0 0 0.0479083 
trait 3 0.215972 0 0 0 0.00683032 0 0 0 
node 1 3 1 3
node 2 2 1 1
node 3 3 1 1
node 4 1 1 1
node 5 3 0 2
node 6 1 0 2
gene 1 1 5 0.466089 0 1 0.466089 1
gene 1 2 5 -5.93483 0 2 -5.93483 1
gene 1 3 5 -2.23488 0 3 -2.23488 1
gene 1 4 5 -4.73662 0 4 -4.73662 1
gene 1 1 6 -5.88521 0 5 -5.88521 1
gene 2 2 6 8 0 6 8 1
gene 2 3 6 -2.95482 0 7 -2.95482 1
gene 2 4 6 4.74598 0 8 4.74598 1
gene 1 6 5 0.171356 0 40 0.171356 1
genomeend 16

/* Organism #17 Fitness: 38 Error: 0 */
genomestart 17
trait 1 0.1 0 0.259132 0.126735 0 0 0 0 
trait 2 0.2 0 0.038424 0 0.152127 0 0 0.0479083 
trait 3 0.215972 0 0 0 0.00683032 0 0 0 
node 1 3 1 3
node 2 2 1 1
node 3 3 1 1
node 4 1 1 1
node 5 3 0 2
node 6 1 0 2
gene 1 1 5 1.78174 0 1 1.78174 1
gene 1 2 5 -7.66859 0 2 -7.66859 1
gene 1 3 5 -0.658564 0 3 -0.658564 1
gene 1 4 5 -4.5542 0 4 -4.5542 1
gene 1 1 6 -5.80909 0 5 -5.80909 1
gene 2 2 6 8 0 6 8 1
gene 2 3 6 -4.33436 0 7 -4.33436 1
gene 2 4 6 2.67354 0 8 2.67354 1
gene 1 6 5 0.762008 0 40 0.762008 1
genomeend 17

/* Species #213 : (Size 2) (AF 19) (Age 7)  */


/* Organism #18 Fitness: 0 Error: 0 */
genomestart 18
trait 1 0.909318 0 0 0.536838 0.298301 0 0 0.0737577 
trait 2 0.2 0 0 0 0 0 0 0 
trait 3 0.3 0 0 0 0 0 0 0 
node 1 2 1 3
node 2 1 1 1
node 3 2 1 1
node 4 1 1 1
node 5 3 0 2
node 6 2 0 2
gene 2 1 5 7.09234 0 1 7.09234 1
gene 1 2 5 -3.84888 0 2 -3.84888 1
gene 3 3 5 -1.56674 0 3 -1.56674 1
gene 1 4 5 1.53321 0 4 1.53321 1
gene 3 1 6 -6.87657 0 5 -6.87657 1
gene 2 2 6 -2.60365 0 6 -2.60365 1
gene 3 3 6 -6.50967 0 7 -6.50967 1
gene 3 4 6 0.18947 0 8 0.18947 1
gene 1 6 5 -0.102588 0 43 -0.102588 1
gene 1 5 5 0.0154558 1 62 0.0154558 1
genomeend 18

/* Organism #19 Fitness: 38 Error: 0 */
genomestart 19
trait 1 0.720044 0.433418 0.129566 0.268419 0.450902 0 0 0.0368789 
trait 2 0.2 0 0.019212 0 0.0760636 0 0 0.0239542 
trait 3 0.257986 0 0 0 0.00341516 0 0 0 
node 1 2 1 3
node 2 1 1 1
node 3 2 1 1
node 4 1 1 1
node 5 3 0 2
node 6 2 0 2
gene 2 1 5 4.23973 0 1 4.23973 1
gene 1 2 5 -4.13118 0 2 -4.13118 1
gene 3 3 5 -3.1599 0 3 -3.1599 1
gene 1 4 5 -0.613018 0 4 -0.613018 1
gene 1 1 6 -6.65819 0 5 -6.65819 1
gene 2 2 6 0.164432 0 6 0.164432 1
gene 3 3 6 -1.55676 0 7 -1.55676 1
gene 2 4 6 0.839458 0 8 0.839458 1
gene 1 6 5 -0.102588 0 43 -0.102588 1
gene 1 5 5 0.0154558 1 62 0.0154558 1
genomeend 19

/* Species #221 : (Size 2) (AF 19) (Age 7)  */


/* Organism #20 Fitness: 0 Error: 0 */
genomestart 20
trait 1 0.1 0 0.259132 0.126735 0 0 0 0 
trait 2 0.2 0 0.038424 0 0.152127 0 0 0.0479083 
trait 3 1 0 0 0 0.00683032 0.446524 0.827072 0 
node 1 3 1 3
node 2 3 1 1
node 3 3 1 1
node 4 3 1 1
node 5 3 0 2
node 6 1 0 2
gene 1 1 5 0.640006 0 1 0.640006 1
gene 1 2 5 -8 0 2 -8 1
gene 1 3 5 -0.0550801 0 3 -0.0550801 1
gene 1 4 5 -7.1535 0 4 -7.1535 1
gene 1 1 6 -6.81541 0 5 -6.81541 1
gene 2 2 6 -1.70109 0 6 -1.70109 1
gene 2 3 6 1.64705 0 7 1.64705 1
gene 2 4 6 2.70173 0 8 2.70173 1
gene 1 6 5 0.863252 0 63 0.863252 1
genomeend 20

/* Organism #21 Fitness: 38 Error: 0 */
genomestart 21
trait 1 0.1 0 0.259132 0.126735 0 0 0 0 
trait 2 0.2 0 0.038424 0 0.152127 0 0 0.0479083 
trait 3 1 0 0 0 0.00683032 0.446524 0.827072 0 
node 1 3 1 3
node 2 3 1 1
node 3 3 1 1
node 4 3 1 1
node 5 3 0 2
node 6 1 0 2
gene 1 1 5 0.122099 0 1 0.122099 1
gene 1 2 5 -8 0 2 -8 1
gene 1 3 5 -3.76745 0 3 -3.76745 1
gene 1 4 5 -3.95439 0 4 -3.95439 1
gene 1 1 6 -7.5352 0 5 -7.5352 1
gene 2 2 6 1.42303 0 6 1.42303 1
gene 2 3 6 2.01474 0 7 2.01474 1
gene 2 4 6 3.91604 0 8 3.91604 1
gene 1 6 5 0.0426081 0 63 0.0426081 1
genomeend 21

/* Species #224 : (Size 3) (AF 25.6667) (Age 6)  */


/* Organism #22 Fitness: 0 Error: 0 */
genomestart 22
trait 1 0.1 0 0 0.276883 0 0 0.0967773 0.464179 
trait 2 0.2 0 0 0 0 0 0 0 
trait 3 0.3 0 0 0 0 0 0 0 
node 1 2 1 3
node 2 1 1 1
node 3 2 1 1
node 4 1 1 1
node 5 3 0 2
node 6 2 0 2
gene 2 1 5 4.93872 0 1 4.93872 1
gene 1 2 5 -2.95076 0 2 -2.95076 1
gene 3 3 5 0.250126 0 3 0.250126 1
gene 1 4 5 -2.18661 0 4 -2.18661 1
gene 3 1 6 -1.43055 0 5 -1.43055 1
gene 2 2 6 1.90039 0 6 1.90039 1
gene 3 3 6 2.93142 0 7 2.93142 1
gene 2 4 6 2.70938 0 8 2.70938 1
gene 1 6 5 2.3227 0 43 2.3227 1
genomeend 22

/* Organism #23 Fitness: 39 Error: 0 */
genomestart 23
trait 1 0.1 0 0 0.276883 0 0 0.0967773 0.464179 
trait 2 0.2 0 0 0 0 0 0 0 
trait 3 0.3 0 0 0 0 0 0 0 
node 1 2 1 3
node 2 1 1 1
node 3 2 1 1
node 4 1 1 1
node 5 3 0 2
node 6 2 0 2
gene 2 1 5 4.77731 0 1 4.77731 1
gene 1 2 5 -3.94742 0 2 -3.94742 1
gene 3 3 5 -0.452752 0 3 -0.452752 1
gene 1 4 5 -0.156943 0 4 -0.156943 1
gene 3 1 6 -2.99226 0 5 -2.99226 1
gene 2 2 6 -0.038112 0 6 -0.038112 1
gene 3 3 6 1.07645 0 7 1.07645 1
gene 3 4 6 1.60282 0 8 1.60282 1
gene 1 6 5 2.49162 0 43 2.49162 1
genomeend 23

/* Organism #24 Fitness: 38 Error: 0 */
genomestart 24
trait 1 0.1 0 0 0.276883 0 0 0.0967773 0.464179 
trait 2 0.2 0 0 0 0 0 0 0 
trait 3 0.3 0 0 0 0 0 0 0 
node 1 2 1 3
node 2 1 1 1
node 3 2 1 1
node 4 1 1 1
node 5 3 0 2
node 6 2 0 2
gene 2 1 5 6.37265 0 1 6.37265 1
gene 1 2 5 -6.38669 0 2 -6.38669 1
gene 3 3 5 1.47873 0 3 1.47873 1
gene 1 4 5 1.81734 0 4 1.81734 1
gene 3 1 6 -4.15618 0 5 -4.15618 1
gene 2 2 6 -0.038112 0 6 -0.038112 1
gene 3 3 6 0.951759 0 7 0.951759 1
gene 3 4 6 -1.09321 0 8 -1.09321 1
gene 1 6 5 3.49256 0 43 3.49256 1
genomeend 24

/* Species #232 : (Size 7) (AF 27.5714) (Age 6)  */


/* Organism #25 Fitness: 0 Error: 0 */
genomestart 25
trait 1 0 0.298641 0.259132 0.126735 0.662046 0 0 0 
trait 2 0.2 0 0.038424 0 0.152127 0 0 0.0479083 
trait 3 0.215972 0 0 0 0.00683032 0 0 0 
node 1 3 1 3
node 2 3 1 1
node 3 3 1 1
node 4 1 1 1
node 5 3 0 2
node 6 1 0 2
gene 1 1 5 0.423496 0 1 0.423496 1
gene 1 2 5 -7.31623 0 2 -7.31623 1
gene 1 3 5 0.121381 0 3 0.121381 1
gene 1 4 5 -3.00717 0 4 -3.00717 1
gene 1 1 6 -6.71386 0 5 -6.71386 1
gene 2 2 6 -4.91761 0 6 -4.91761 1
gene 2 3 6 1.31442 0 7 1.31442 1
gene 1 4 6 -8 0 8 -8 1
gene 3 6 5 -0.59757 0 59 -0.59757 1
genomeend 25

/* Organism #26 Fitness: 39 Error: 0 */
genomestart 26
trait 1 0 0.298641 0.259132 0.126735 0.662046 0 0 0 
trait 2 0.2 0 0.038424 0 0.152127 0 0 0.0479083 
trait 3 0.215972 0 0 0 0.00683032 0 0 0 
node 1 3 1 3
node 2 3 1 1
node 3 3 1 1
node 4 1 1 1
node 5 3 0 2
node 6 1 0 2
gene 1 1 5 4.06008 0 1 4.06008 1
gene 1 2 5 -7.19122 0 2 -7.19122 1
gene 1 3 5 4.26452 0 3 4.26452 1
gene 1 4 5 -3.345 0 4 -3.345 1
gene 1 1 6 -7.6768 0 5 -7.6768 1
gene 2 2 6 -1.71879 0 6 -1.71879 1
gene 2 3 6 -1.51435 0 7 -1.51435 1
gene 1 4 6 -6.61027 0 8 -6.61027 1
gene 3 6 5 -0.0294463 0 59 -0.0294463 1
genomeend 26

/* Organism #27 Fitness: 38 Error: 0 */
genomestart 27
trait 1 0 0.298641 0.259132 0.126735 0.662046 0 0 0 
trait 2 0.2 0 0.038424 0 0.152127 0 0 0.0479083 
trait 3 0.215972 0 0 0 0.00683032 0 0 0 
node 1 3 1 3
node 2 3 1 1
node 3 3 1 1
node 4 1 1 1
node 5 3 0 2
node 6 1 0 2
gene 1 1 5 2.18578 0 1 2.18578 1
gene 1 2 5 -6.70411 0 2 -6.70411 1
gene 1 3 5 1.79993 0 3 1.79993 1
gene 1 4 5 -1.10866 0 4 -1.10866 1
gene 1 1 6 -6.71386 0 5 -6.71386 1
gene 2 2 6 -3.27355 0 6 -3.27355 1
gene 2 3 6 0.537981 0 7 0.537981 1
gene 1 4 6 -7.28333 0 8 -7.28333 1
gene 3 6 5 -0.337647 0 59 0 1
genomeend 27

/* Organism #28 Fitness: 0 Error: 0 */
genomestart 28
trait 1 0 0.298641 0.259132 0.126735 0.662046 0 0 0 
trait 2 0.2 0 0.038424 0 0.152127 0 0 0.0479083 
trait 3 0.215972 0 0 0 0.00683032 0 0 0 
node 1 3 1 3
node 2 3 1 1
node 3 1 1 1
node 4 1 1 1
node 5 3 0 2
node 6 1 0 2
gene 1 1 5 1.51333 0 1 1.51333 1
gene 1 2 5 -6.16352 0 2 -6.16352 1
gene 1 3 5 3.01148 0 3 3.01148 1
gene 1 4 5 0.520885 0 4 0.520885 1
gene 1 1 6 -7.39168 0 5 -7.39168 1
gene 2 2 6 -1.50451 0 6 -1.50451 1
gene 2 3 6 -1.03411 0 7 -1.03411 1
gene 1 4 6 -8 0 8 -8 1
gene 3 6 5 -2.72885 0 59 -2.72885 1
genomeend 28

/* Organism #29 Fitness: 39 Error: 0 */
genomestart 29
trait 1 0 0.298641 0.259132 0.126735 0.662046 0 0 0 
trait 2 0.2 0 0.038424 0 0.152127 0 0 0.0479083 
trait 3 0.215972 0 0 0 0.00683032 0 0 0 
node 1 3 1 3
node 2 3 1 1
node 3 1 1 1
node 4 1 1 1
node 5 3 0 2
node 6 1 0 2
gene 1 1 5 1.51333 0 1 1.51333 1
gene 1 2 5 -6.16352 0 2 -6.16352 1
gene 1 3 5 3.01148 0 3 3.01148 1
gene 1 4 5 0.520885 0 4 0.520885 1
gene 1 1 6 -7.39168 0 5 -7.39168 1
gene 2 2 6 -1.50451 0 6 -1.50451 1
gene 2 3 6 -1.03411 0 7 -1.03411 1
gene 1 4 6 -8 0 8 -8 1
gene 3 6 5 -2.72885 0 59 -2.72885 1
genomeend 29

/* Organism #30 Fitness: 39 Error: 0 */
genomestart 30
trait 1 0 0.298641 0.259132 0.126735 0.662046 0 0 0 
trait 2 0.2 0 0.038424 0 0.152127 0 0 0.0479083 
trait 3 0.215972 0 0 0 0.00683032 0 0 0 
node 1 3 1 3
node 2 3 1 1
node 3 1 1 1
node 4 1 1 1
node 5 3 0 2
node 6 1 0 2
gene 1 1 5 3.38441 0 1 3.38441 1
gene 1 2 5 -6.16352 0 2 -6.16352 1
gene 1 3 5 4.58475 0 3 4.58475 1
gene 1 4 5 0.520885 0 4 0.520885 1
gene 1 1 6 -8 0 5 -8 1
gene 2 2 6 1.63282 0 6 1.63282 1
gene 2 3 6 0.445269 0 7 0.445269 1
gene 1 4 6 -7.25977 0 8 -7.25977 1
gene 3 6 5 -0.480769 0 59 -0.480769 1
genomeend 30

/* Organism #31 Fitness: 38 Error: 0 */
genomestart 31
trait 1 0 0.298641 0.259132 0.126735 0.662046 0 0 0 
trait 2 0.2 0 0.038424 0 0.152127 0 0 0.0479083 
trait 3 0.215972 0 0 0 0.00683032 0 0 0 
node 1 3 1 3
node 2 3 1 1
node 3 1 1 1
node 4 1 1 1
node 5 3 0 2
node 6 1 0 2
gene 1 1 5 1.51333 0 1 1.51333 1
gene 1 2 5 -6.16352 0 2 -6.16352 1
gene 1 3 5 3.01148 0 3 3.01148 1
gene 1 4 5 0.520885 0 4 0.520885 1
gene 1 1 6 -7.39168 0 5 -7.39168 1
gene 2 2 6 -1.50451 0 6 -1.50451 1
gene 2 3 6 -1.03411 0 7 -1.03411 1
gene 1 4 6 -8 0 8 -8 1
gene 3 6 5 -2.72885 0 59 -2.72885 1
genomeend 31

/* Species #247 : (Size 2) (AF 38) (Age 5)  */


/* Organism #32 Fitness: 38 Error: 0 */
genomestart 32
trait 1 0.1 0 0.259132 0.126735 0 0 0 0 
trait 2 0.2 0 0.038424 0 0.152127 0 0 0.0479083 
trait 3 0.215972 0 0 0 0.00683032 0 0 0 
node 1 3 1 3
node 2 2 1 1
node 3 3 1 1
node 4 1 1 1
node 5 3 0 2
node 6 1 0 2
gene 1 1 5 3.80672 0 1 3.80672 1
gene 1 2 5 -7.51336 0 2 -7.51336 1
gene 1 3 5 1.49652 0 3 1.49652 1
gene 1 4 5 0.873597 0 4 0.873597 1
gene 1 1 6 -8 0 5 -8 1
gene 2 2 6 1.59786 0 6 1.59786 1
gene 2 3 6 -0.0657339 0 7 -0.0657339 1
gene 2 4 6 -3.29677 0 8 -3.29677 1
gene 1 6 5 1.71055 0 40 1.71055 1
genomeend 32

/* Organism #33 Fitness: 38 Error: 0 */
genomestart 33
trait 1 0.1 0 0.259132 0.126735 0 0 0 0 
trait 2 0.2 0 0.038424 0 0.152127 0 0 0.0479083 
trait 3 0.215972 0 0 0 0.00683032 0 0 0 
node 1 3 1 3
node 2 2 1 1
node 3 3 1 1
node 4 1 1 1
node 5 3 0 2
node 6 1 0 2
gene 1 1 5 0.149545 0 1 0.149545 1
gene 1 2 5 -7.17938 0 2 -7.17938 1
gene 1 3 5 2.24641 0 3 2.24641 1
gene 1 4 5 -0.0401691 0 4 -0.0401691 1
gene 1 1 6 -8 0 5 -8 1
gene 2 2 6 0.799326 0 6 0.799326 1
gene 2 3 6 -2.97261 0 7 -2.97261 1
gene 2 4 6 -4.20766 0 8 -4.20766 1
gene 1 6 5 -1.99199 0 40 -1.99199 1
genomeend 33

/* Species #257 : (Size 4) (AF 9.75) (Age 5)  */


/* Organism #34 Fitness: 0 Error: 0 */
genomestart 34
trait 1 0.1 0 0 0 0 0 0 0 
trait 2 0.2 0 0 0.714563 0.620401 0 0.778491 0 
trait 3 0.854381 0.576818 0 0 0.767175 0.535423 0.21514 0 
node 1 2 1 3
node 2 1 1 1
node 3 2 1 1
node 4 1 1 1
node 5 3 0 2
node 6 2 0 2
gene 3 1 5 3.36117 0 1 3.36117 1
gene 1 2 5 -2.29771 0 2 -2.29771 1
gene 2 3 5 -1.85589 0 3 -1.85589 1
gene 2 4 5 0.546419 0 4 0.546419 1
gene 2 1 6 -2.33488 0 5 -2.33488 1
gene 3 2 6 -1.40296 0 6 -1.40296 1
gene 1 3 6 1.08779 0 7 1.08779 1
gene 3 4 6 -2.00066 0 8 -2.00066 1
gene 2 6 5 -3.06888 0 33 -3.06888 1
genomeend 34

/* Organism #35 Fitness: 39 Error: 0 */
genomestart 35
trait 1 0.1 0 0 0 0 0 0 0 
trait 2 0.2 0 0 0.714563 0.620401 0 0.778491 0 
trait 3 0.854381 0.576818 0 0 0.767175 0.535423 0.21514 0 
node 1 2 1 3
node 2 1 1 1
node 3 2 1 1
node 4 1 1 1
node 5 3 0 2
node 6 2 0 2
gene 3 1 5 5.67004 0 1 5.67004 1
gene 1 2 5 -2.556 0 2 -2.556 1
gene 2 3 5 0.578796 0 3 0.578796 1
gene 2 4 5 2.51325 0 4 2.51325 1
gene 2 1 6 -3.57339 0 5 -3.57339 1
gene 3 2 6 0.91478 0 6 0.91478 1
gene 1 3 6 2.01058 0 7 2.01058 1
gene 3 4 6 -1.58003 0 8 -1.58003 1
gene 2 6 5 -4.0293 0 33 -4.0293 1
genomeend 35

/* Organism #36 Fitness: 0 Error: 0 */
genomestart 36
trait 1 0.1 0 0 0 0 0 0 0 
trait 2 0.2 0 0 0.714563 0.620401 0 0.778491 0 
trait 3 0.854381 0.576818 0 0 0.767175 0.535423 0.21514 0 
node 1 2 1 3
node 2 1 1 1
node 3 2 1 1
node 4 1 1 1
node 5 3 0 2
node 6 2 0 2
gene 3 1 5 1.96023 0 1 1.96023 1
gene 1 2 5 -0.480965 0 2 -0.480965 1
gene 2 3 5 -2.32527 0 3 -2.32527 1
gene 2 4 5 -1.52391 0 4 -1.52391 1
gene 2 1 6 -1.59071 0 5 -1.59071 1
gene 3 2 6 -1.40296 0 6 -1.40296 1
gene 1 3 6 -1.41185 0 7 -1.41185 1
gene 3 4 6 -2.00066 0 8 -2.00066 1
gene 2 6 5 -1.18627 0 33 -1.18627 1
genomeend 36

/* Organism #37 Fitness: 0 Error: 0 */
genomestart 37
trait 1 0.1 0 0 0 0 0 0 0 
trait 2 0.2 0 0 0.714563 0.620401 0 0.778491 0 
trait 3 0.854381 0.576818 0 0 0.167231 0 0.21514 0 
node 1 2 1 3
node 2 1 1 1
node 3 2 1 1
node 4 1 1 1
node 5 3 0 2
node 6 2 0 2
gene 3 1 5 3.5759 0 1 3.5759 1
gene 1 2 5 -3.31875 0 2 -3.31875 1
gene 2 3 5 -1.54673 0 3 -1.54673 1
gene 2 4 5 -2.14138 0 4 -2.14138 1
gene 2 1 6 -3.04868 0 5 -3.04868 1
gene 3 2 6 -3.5236 0 6 -3.5236 1
gene 1 3 6 2.6394 0 7 2.6394 1
gene 3 4 6 -1.97791 0 8 -1.97791 1
gene 2 6 5 -6.42141 0 33 -6.42141 1
genomeend 37

/* Species #258 : (Size 1) (AF 0) (Age 5)  */


/* Organism #38 Fitness: 0 Error: 0 */
genomestart 38
trait 1 0.1 0 0.259132 0.126735 0 0 0 0 
trait 2 0.2 0.736881 0.68297 0 0.152127 0 0 0.494848 
trait 3 0.215972 0 0 0 0.00683032 0 0 0 
node 1 3 1 3
node 2 2 1 1
node 3 3 1 1
node 4 1 1 1
node 5 3 0 2
node 6 1 0 2
gene 1 1 5 -2.24982 0 1 -2.24982 1
gene 1 2 5 -4.85149 0 2 -4.85149 1
gene 1 3 5 -0.567243 0 3 -0.567243 1
gene 1 4 5 -0.115211 0 4 -0.115211 1
gene 1 1 6 -6.01024 0 5 -6.01024 1
gene 2 2 6 -0.883662 0 6 -0.883662 1
gene 2 3 6 -2.55433 0 7 -2.55433 1
gene 2 4 6 -0.652861 0 8 -0.652861 1
gene 1 6 5 3.26806 0 40 3.26806 1
genomeend 38

/* Species #271 : (Size 4) (AF 29) (Age 4)  */


/* Organism #39 Fitness: 0 Error: 0 */
genomestart 39
trait 1 0.1 0 0.259132 0.126735 0 0 0 0 
trait 2 0.2 0 0.038424 0 0.152127 0 0 0.0479083 
trait 3 0.215972 0 0 0 0.00683032 0 0 0 
node 1 3 1 3
node 2 2 1 1
node 3 3 1 1
node 4 1 1 1
node 5 3 0 2
node 6 1 0 2
gene 1 1 5 -0.258041 0 1 -0.258041 1
gene 1 2 5 -6.63372 0 2 -6.63372 1
gene 1 3 5 -1.5791 0 3 -1.5791 1
gene 1 4 5 1.77654 0 4 1.77654 1
gene 1 1 6 -8 0 5 -8 1
gene 2 2 6 0.470745 0 6 0.470745 1
gene 2 3 6 -0.360807 0 7 -0.360807 1
gene 2 4 6 4.16926 0 8 4.16926 1
gene 1 6 5 2.20377 0 40 2.20377 1
genomeend 39

/* Organism #40 Fitness: 39 Error: 0 */
genomestart 40
trait 1 0.1 0 0.259132 0.126735 0 0 0 0 
trait 2 0.2 0 0.038424 0 0.152127 0 0 0.0479083 
trait 3 0.215972 0 0 0 0.00683032 0 0 0 
node 1 3 1 3
node 2 2 1 1
node 3 3 1 1
node 4 1 1 1
node 5 3 0 2
node 6 1 0 2
gene 1 1 5 -0.258041 0 1 -0.258041 1
gene 1 2 5 -6.63372 0 2 -6.63372 1
gene 1 3 5 -1.5791 0 3 -1.5791 1
gene 1 4 5 1.77654 0 4 1.77654 1
gene 1 1 6 -8 0 5 -8 1
gene 2 2 6 0.470745 0 6 0.470745 1
gene 2 3 6 -0.360807 0 7 -0.360807 1
gene 2 4 6 4.16926 0 8 4.16926 1
gene 1 6 5 2.20377 0 40 2.20377 1
genomeend 40

/* Organism #41 Fitness: 38 Error: 0 */
genomestart 41
trait 1 0.1 0 0.259132 0.126735 0 0 0 0 
trait 2 0.2 0 0.038424 0 0.152127 0 0 0.0479083 
trait 3 0.215972 0 0 0 0.00683032 0 0 0 
node 1 3 1 3
node 2 2 1 1
node 3 3 1 1
node 4 1 1 1
node 5 2 0 2
node 6 1 0 2
gene 1 1 5 -2.19564 0 1 -2.19564 1
gene 1 2 5 -8 0 2 -8 1
gene 1 3 5 0.0973739 0 3 0.0973739 1
gene 1 4 5 1.68614 0 4 1.68614 1
gene 1 1 6 -8 0 5 -8 1
gene 2 2 6 -1.26682 0 6 -1.26682 1
gene 2 3 6 -2.00646 0 7 -2.00646 1
gene 2 4 6 4.78385 0 8 4.78385 1
gene 1 6 5 3.47792 0 40 3.47792 1
genomeend 41

/* Organism #42 Fitness: 39 Error: 0 */
genomestart 42
trait 1 0.1 0 0.259132 0.126735 0 0 0 0 
trait 2 0.2 0 0.038424 0 0.152127 0 0 0.0479083 
trait 3 0.215972 0 0 0 0.00683032 0 0 0 
node 1 3 1 3
node 2 2 1 1
node 3 3 1 1
node 4 1 1 1
node 5 3 0 2
node 6 1 0 2
gene 1 1 5 -0.260196 0 1 -0.260196 1
gene 1 2 5 -8 0 2 -8 1
gene 1 3 5 -3.50369 0 3 -3.50369 1
gene 1 4 5 2.94668 0 4 2.94668 1
gene 1 1 6 -8 0 5 -8 1
gene 2 2 6 -0.950655 0 6 -0.950655 1
gene 2 3 6 0.541229 0 7 0.541229 1
gene 2 4 6 2.2285 0 8 2.2285 1
gene 1 6 5 2.63735 0 40 2.63735 1
genomeend 42

/* Species #279 : (Size 2) (AF 19.5) (Age 4)  */


/* Organism #43 Fitness: 0 Error: 0 */
genomestart 43
trait 1 0.1 0 0 0 0 0 0 0 
trait 2 0.2 0 0.244292 0 0.217926 0 0 0 
trait 3 0.3 0 0 0 0 0 0 0 
node 1 2 1 3
node 2 1 1 1
node 3 2 1 1
node 4 1 1 1
node 5 3 0 2
node 6 2 0 2
gene 3 1 5 2.72635 0 1 2.72635 1
gene 1 2 5 -3.64099 0 2 -3.64099 1
gene 2 3 5 -1.43871 0 3 -1.43871 1
gene 2 4 5 -5.01366 0 4 -5.01366 1
gene 2 1 6 -8 0 5 -8 1
gene 2 2 6 -0.497095 0 6 -0.497095 1
gene 1 3 6 1.52921 0 7 1.52921 1
gene 3 4 6 4.2661 0 8 4.2661 1
gene 2 5 6 -5.03196 0 39 -5.03196 1
genomeend 43

/* Organism #44 Fitness: 39 Error: 0 */
genomestart 44
trait 1 0.1 0 0 0 0 0 0 0 
trait 2 0.2 0 0.244292 0 0.217926 0 0 0 
trait 3 0.3 0 0 0 0 0 0 0 
node 1 2 1 3
node 2 1 1 1
node 3 2 1 1
node 4 1 1 1
node 5 3 0 2
node 6 2 0 2
gene 3 1 5 1.69597 0 1 1.69597 1
gene 1 2 5 -3.26959 0 2 -3.26959 1
gene 2 3 5 -2.41221 0 3 -2.41221 1
gene 2 4 5 -3.34903 0 4 -3.34903 1
gene 2 1 6 -6.18884 0 5 -6.18884 1
gene 2 2 6 2.73694 0 6 2.73694 1
gene 1 3 6 0.31367 0 7 0.31367 1
gene 3 4 6 4.04306 0 8 4.04306 1
gene 2 5 6 -2.64141 0 39 -2.64141 1
genomeend 44

/* Species #285 : (Size 3) (AF 0) (Age 4)  */


/* Organism #45 Fitness: 0 Error: 0 */
genomestart 45
trait 1 0.1 0 0 0 0 0 0 0 
trait 2 0.2 0 0 0 0 0 0 0 
trait 3 0.3 0 0 0 0 0 0 0 
node 1 2 1 3
node 2 1 1 1
node 3 1 1 1
node 4 1 1 1
node 5 3 0 2
node 6 2 0 2
gene 3 1 5 -0.242696 0 1 -0.242696 1
gene 1 2 5 -6.64502 0 2 -6.64502 1
gene 2 3 5 -0.015594 0 3 -0.015594 1
gene 2 4 5 6.537 0 4 6.537 1
gene 2 1 6 2.03007 0 5 2.03007 1
gene 2 2 6 -4.05498 0 6 -4.05498 1
gene 1 3 6 -2.10363 0 7 -2.10363 1
gene 3 4 6 -0.422144 0 8 -0.422144 1
gene 3 6 5 -0.358756 0 66 -0.358756 1
genomeend 45

/* Organism #46 Fitness: 0 Error: 0 */
genomestart 46
trait 1 0.1 0 0 0 0 0 0 0 
trait 2 0.2 0 0 0 0 0 0 0 
trait 3 0.3 0 0 0 0 0 0 0 
node 1 2 1 3
node 2 1 1 1
node 3 1 1 1
node 4 1 1 1
node 5 3 0 2
node 6 2 0 2
gene 3 1 5 1.70099 0 1 1.70099 1
gene 1 2 5 -5.56768 0 2 -5.56768 1
gene 2 3 5 -0.933945 0 3 -0.933945 1
gene 2 4 5 4.21069 0 4 4.21069 1
gene 2 1 6 0.96472 0 5 0.96472 1
gene 2 2 6 -0.568177 0 6 -0.568177 1
gene 1 3 6 -4.82783 0 7 -4.82783 1
gene 3 4 6 -2.87454 0 8 -2.87454 1
gene 3 6 5 0.172136 0 66 0.172136 1
genomeend 46

/* Organism #47 Fitness: 0 Error: 0 */
genomestart 47
trait 1 0.603508 0.207561 0 0 0.333593 0 0.280958 0.0411817 
trait 2 0.2 0 0 0 0 0 0 0 
trait 3 0.3 0 0 0 0 0 0 0 
node 1 2 1 3
node 2 1 1 1
node 3 1 1 1
node 4 1 1 1
node 5 3 0 2
node 6 2 0 2
gene 3 1 5 1.64361 0 1 1.64361 1
gene 1 2 5 -4.29679 0 2 -4.29679 1
gene 2 3 5 -1.43316 0 3 -1.43316 1
gene 2 4 5 3.87207 0 4 3.87207 1
gene 2 1 6 0.897929 0 5 0.897929 1
gene 2 2 6 -0.370034 0 6 -0.370034 1
gene 1 3 6 -4.34964 0 7 -4.34964 1
gene 3 4 6 -1.09472 0 8 -1.09472 1
gene 3 6 5 -1.48223 0 66 -1.48223 1
genomeend 47

/* Species #294 : (Size 2) (AF 39) (Age 3)  */


/* Organism #48 Fitness: 39 Error: 0 */
genomestart 48
trait 1 0.53077 0.866836 0.259132 0 0.603504 0 0 0 
trait 2 0.2 0.237289 0.038424 0 0.152127 0.219775 0 0 
trait 3 0.215972 0 0 0 0.00683032 0 0 0 
node 1 3 1 3
node 2 3 1 1
node 3 3 1 1
node 4 3 1 1
node 5 1 0 2
node 6 1 0 2
gene 1 1 5 1.13505 0 1 1.13505 1
gene 1 2 5 -3.48369 0 2 -3.48369 1
gene 1 3 5 -4.26782 0 3 -4.26782 1
gene 1 4 5 -4.47949 0 4 -4.47949 1
gene 1 1 6 -6.55918 0 5 -6.55918 1
gene 2 2 6 1.32636 0 6 1.32636 1
gene 2 3 6 3.5876 0 7 3.5876 1
gene 2 4 6 -0.44542 0 8 -0.44542 1
gene 3 5 6 0.87893 0 69 0.87893 1
genomeend 48

/* Organism #49 Fitness: 39 Error: 0 */
genomestart 49
trait 1 0.53077 0.866836 0.259132 0 0.603504 0 0 0 
trait 2 0.2 0 0.038424 0 0.152127 0 0 0.0479083 
trait 3 0.215972 0 0 0 0.00683032 0 0 0 
node 1 3 1 3
node 2 3 1 1
node 3 3 1 1
node 4 3 1 1
node 5 1 0 2
node 6 1 0 2
gene 1 1 5 1.38711 0 1 1.38711 1
gene 1 2 5 -4.41347 0 2 -4.41347 1
gene 1 3 5 -4.01045 0 3 -4.01045 1
gene 1 4 5 -2.75925 0 4 -2.75925 1
gene 1 1 6 -6.43982 0 5 -6.43982 1
gene 2 2 6 1.32362 0 6 1.32362 1
gene 2 3 6 1.98178 0 7 1.98178 1
gene 2 4 6 -0.291093 0 8 -0.291093 1
gene 3 5 6 -0.0338335 0 69 -0.0338335 1
genomeend 49

/* Species #296 : (Size 1) (AF 39) (Age 3)  */


/* Organism #50 Fitness: 39 Error: 0 */
genomestart 50
trait 1 0.1 0 0.259132 0.126735 0 0 0 0 
trait 2 0.2 0 0.038424 0 0.152127 0 0 0.0479083 
trait 3 0.215972 0 0 0 0.00683032 0 0 0 
node 1 3 1 3
node 2 3 1 1
node 3 3 1 1
node 4 3 1 1
node 5 3 0 2
node 6 1 0 2
gene 1 1 5 5.27031 0 1 5.27031 1
gene 1 2 5 -6.6449 0 2 -6.6449 1
gene 1 3 5 -3.94094 0 3 -3.94094 1
gene 1 4 5 -6.63585 0 4 -6.63585 1
gene 1 1 6 -5.38672 0 5 -5.38672 1
gene 2 2 6 -1.1512 0 6 -1.1512 1
gene 2 3 6 -0.943316 0 7 -0.943316 1
gene 2 4 6 0.366694 0 8 0.366694 1
gene 1 6 5 -0.186674 0 63 -0.186674 1
genomeend 50

/* Species #299 : (Size 3) (AF 141) (Age 3)  */


/* Organism #51 Fitness: 335 Error: 0 */
genomestart 51
trait 1 0 0.298641 0.259132 0.126735 0.662046 0 0 0 
trait 2 0.2 0 0.038424 0 0.152127 0 0 0.0479083 
trait 3 0.215972 0 0 0 0 0 0 0 
node 1 3 1 3
node 2 3 1 1
node 3 3 1 1
node 4 1 1 1
node 5 3 0 2
node 6 1 0 2
gene 1 1 5 1.79817 0 1 1.79817 1
gene 1 2 5 -0.919401 0 2 -0.919401 1
gene 1 3 5 4.57023 0 3 4.57023 1
gene 1 4 5 -1.37902 0 4 -1.37902 1
gene 1 1 6 -6.16667 0 5 -6.16667 1
gene 2 2 6 0.872731 0 6 0.872731 1
gene 2 3 6 -2.57987 0 7 -2.57987 1
gene 1 4 6 0.56339 0 8 0.56339 1
gene 3 6 5 -6.1803 0 59 -6.1803 1
genomeend 51

/* Organism #52 Fitness: 38 Error: 0 */
genomestart 52
trait 1 0 0.8434 0 0 0.662046 0 0.497697 0 
trait 2 0.2 0 0.038424 0 0.152127 0 0 0.0479083 
trait 3 0.215972 0 0 0 0 0 0 0 
node 1 3 1 3
node 2 3 1 1
node 3 3 1 1
node 4 1 1 1
node 5 3 0 2
node 6 1 0 2
gene 1 1 5 -2.21497 0 1 -2.21497 1
gene 1 2 5 -2.36089 0 2 -2.36089 1
gene 1 3 5 4.91165 0 3 4.91165 1
gene 1 4 5 0.871969 0 4 0.871969 1
gene 1 1 6 -7.62694 0 5 -7.62694 1
gene 2 2 6 3.77803 0 6 3.77803 1
gene 2 3 6 -6.46105 0 7 -6.46105 1
gene 1 4 6 -0.264992 0 8 -0.264992 1
gene 3 6 5 -4.85804 0 59 -4.85804 1
genomeend 52

/* Organism #53 Fitness: 50 Error: 0 */
genomestart 53
trait 1 0 0.298641 0.259132 0.126735 0.662046 0 0 0 
trait 2 0.2 0 0.038424 0 0 0 0 0.326655 
trait 3 0.215972 0 0 0 0 0 0 0 
node 1 3 1 3
node 2 3 1 1
node 3 3 1 1
node 4 1 1 1
node 5 3 0 2
node 6 1 0 2
gene 1 1 5 -0.705216 0 1 -0.705216 1
gene 1 2 5 0.953553 0 2 0.953553 1
gene 1 3 5 1.45772 0 3 1.45772 1
gene 1 4 5 -0.175592 0 4 -0.175592 1
gene 1 1 6 -8 0 5 -8 1
gene 2 2 6 1.57382 0 6 1.57382 1
gene 2 3 6 -4.37128 0 7 -4.37128 1
gene 1 4 6 1.819 0 8 1.819 1
gene 3 6 5 -4.98802 0 59 -4.98802 1
genomeend 53

/* Species #303 : (Size 2) (AF 19.5) (Age 3)  */


/* Organism #54 Fitness: 0 Error: 0 */
genomestart 54
trait 1 0.1 0 1 0.126735 0.776584 0 0 0 
trait 2 0.2 0.0150006 0.038424 0 0 0 0.539533 0.0479083 
trait 3 0.215972 0 0 0 0.00683032 0 0 0 
node 1 3 1 3
node 2 2 1 1
node 3 3 1 1
node 4 1 1 1
node 5 3 0 2
node 6 1 0 2
gene 1 1 5 -1.59147 0 1 -1.59147 1
gene 1 2 5 -3.17708 0 2 -3.17708 1
gene 1 3 5 1.31961 0 3 1.31961 1
gene 1 4 5 2.64174 0 4 2.64174 1
gene 1 1 6 -4.16522 0 5 -4.16522 1
gene 2 2 6 -2.57699 0 6 -2.57699 1
gene 2 3 6 6.00868 0 7 6.00868 1
gene 2 4 6 0.964338 0 8 0.964338 1
gene 1 6 5 4.37269 0 40 4.37269 1
genomeend 54

/* Organism #55 Fitness: 39 Error: 0 */
genomestart 55
trait 1 0.1 0 1 0.126735 0.776584 0 0 0 
trait 2 0.2 0.0150006 0.038424 0 0 0 0.539533 0.0479083 
trait 3 0.215972 0 0 0 0.00683032 0 0 0 
node 1 3 1 3
node 2 2 1 1
node 3 3 1 1
node 4 1 1 1
node 5 3 0 2
node 6 1 0 2
gene 1 1 5 -1.01785 0 1 -1.01785 1
gene 1 2 5 -4.47601 0 2 -4.47601 1
gene 1 3 5 1.31961 0 3 1.31961 1
gene 1 4 5 2.10492 0 4 2.10492 1
gene 1 1 6 -6.12688 0 5 -6.12688 1
gene 2 2 6 -2.57699 0 6 -2.57699 1
gene 2 3 6 5.32987 0 7 5.32987 1
gene 2 4 6 0.773419 0 8 0.773419 1
gene 1 6 5 4.37269 0 40 4.37269 1
genomeend 55

/* Species #305 : (Size 3) (AF 26) (Age 3)  */


/* Organism #56 Fitness: 39 Error: 0 */
genomestart 56
trait 1 0.1 0 0.259132 0.126735 0 0 0 0 
trait 2 0.2 0.736881 0.68297 0 0.152127 0 0 0.494848 
trait 3 0.215972 0 0 0 0.00683032 0 0 0 
node 1 3 1 3
node 2 2 1 1
node 3 3 1 1
node 4 1 1 1
node 5 3 0 2
node 6 1 0 2
gene 1 1 5 -1.18541 0 1 -1.18541 1
gene 1 2 5 -4.3428 0 2 -4.3428 1
gene 1 3 5 -1.01108 0 3 -1.01108 1
gene 1 4 5 -1.82463 0 4 -1.82463 1
gene 1 1 6 -8 0 5 -8 1
gene 2 2 6 -1.8088 0 6 -1.8088 1
gene 2 3 6 -2.37592 0 7 -2.37592 1
gene 2 4 6 0.523735 0 8 0.523735 1
gene 1 6 5 3.11674 0 40 3.11674 1
genomeend 56

/* Organism #57 Fitness: 39 Error: 0 */
genomestart 57
trait 1 0.1 0 0.259132 0.126735 0 0 0 0 
trait 2 0.2 0.736881 0.68297 0 0.152127 0 0 0.494848 
trait 3 0.215972 0.024344 0 0 0.00683032 0.451885 0 0 
node 1 3 1 3
node 2 2 1 1
node 3 3 1 1
node 4 1 1 1
node 5 3 0 2
node 6 1 0 2
gene 1 1 5 -1.18541 0 1 -1.18541 1
gene 1 2 5 -5.49697 0 2 -5.49697 1
gene 1 3 5 -0.409538 0 3 -0.409538 1
gene 1 4 5 2.31993 0 4 2.31993 1
gene 1 1 6 -6.37427 0 5 -6.37427 1
gene 2 2 6 -0.163863 0 6 -0.163863 1
gene 2 3 6 -3.79522 0 7 -3.79522 1
gene 2 4 6 -1.54429 0 8 -1.54429 1
gene 1 6 5 3.11674 0 40 3.11674 1
genomeend 57

/* Organism #58 Fitness: 0 Error: 0 */
genomestart 58
trait 1 0.1 0 0.259132 0.126735 0 0 0 0 
trait 2 0.2 0.736881 0.68297 0 0.152127 0 0 0.494848 
trait 3 0.215972 0 0 0 0.00683032 0 0 0 
node 1 3 1 3
node 2 2 1 1
node 3 3 1 1
node 4 1 1 1
node 5 3 0 2
node 6 1 0 2
gene 1 1 5 -0.380702 0 1 -0.380702 1
gene 1 2 5 -2.72576 0 2 -2.72576 1
gene 1 3 5 -2.61926 0 3 -2.61926 1
gene 1 4 5 -1.37178 0 4 -1.37178 1
gene 1 1 6 -7.46379 0 5 -7.46379 1
gene 2 2 6 -3.53526 0 6 -3.53526 1
gene 2 3 6 -2.17619 0 7 -2.17619 1
gene 2 4 6 0.949033 0 8 0.949033 1
gene 1 6 5 0.874319 0 40 0.874319 1
genomeend 58

/* Species #307 : (Size 1) (AF 0) (Age 3)  */


/* Organism #59 Fitness: 0 Error: 0 */
genomestart 59
trait 1 0.1 0 0 0 0 0 0 0 
trait 2 0.2 0 0 0 0 0 0 0 
trait 3 0.3 0 0 0 0 0 0 0 
node 1 2 1 3
node 2 1 1 1
node 3 1 1 1
node 4 1 1 1
node 5 3 0 2
node 6 2 0 2
gene 3 1 5 5.23733 0 1 5.23733 1
gene 1 2 5 -4.96836 0 2 -4.96836 1
gene 2 3 5 1.98004 0 3 1.98004 1
gene 2 4 5 -2.17989 0 4 -2.17989 1
gene 2 1 6 1.08489 0 5 1.08489 1
gene 2 2 6 -3.27996 0 6 -3.27996 1
gene 1 3 6 -7.52838 0 7 -7.52838 1
gene 3 4 6 -2.14032 0 8 -2.14032 1
genomeend 59

/* Species #309 : (Size 1) (AF 0) (Age 2)  */


/* Organism #60 Fitness: 0 Error: 0 */
genomestart 60
trait 1 0.1 0 0 0 0 0 0 0 
trait 2 0.2 0 0 0.714563 0.620401 0 0.778491 0 
trait 3 0 0.592699 0 0.413789 0.332206 0.444425 0.374919 0.0643479 
node 1 2 1 3
node 2 3 1 1
node 3 1 1 1
node 4 1 1 1
node 5 3 0 2
node 6 2 0 2
gene 3 1 5 0.181769 0 1 0.181769 1
gene 1 2 5 -4.5073 0 2 -4.5073 1
gene 2 3 5 0.232148 0 3 0.232148 1
gene 2 4 5 -0.828511 0 4 -0.828511 1
gene 2 1 6 1.03092 0 5 1.03092 1
gene 3 2 6 4.84711 0 6 4.84711 1
gene 1 3 6 3.65477 0 7 3.65477 1
gene 3 4 6 3.22173 0 8 3.22173 1
gene 2 6 5 8 0 33 8 1
genomeend 60

/* Species #310 : (Size 5) (AF 30.8) (Age 2)  */


/* Organism #61 Fitness: 0 Error: 0 */
genomestart 61
trait 1 0.1 0 0 0 0 0 0.0499664 0 
trait 2 0.2 0 0 0 0 0 0 0 
trait 3 0.3 0 0 0 0 0 0 0 
node 1 2 1 3
node 2 1 1 1
node 3 1 1 1
node 4 1 1 1
node 5 3 0 2
node 6 2 0 2
gene 3 1 5 2.43483 0 1 2.43483 1
gene 1 2 5 -5.35188 0 2 -5.35188 1
gene 2 3 5 2.44117 0 3 2.44117 1
gene 2 4 5 3.9848 0 4 3.9848 1
gene 2 1 6 0.639886 0 5 0.639886 1
gene 2 2 6 2.02069 0 6 2.02069 1
gene 1 3 6 -3.24027 0 7 -3.24027 1
gene 3 4 6 3.63574 0 8 3.63574 1
genomeend 61

/* Organism #62 Fitness: 38 Error: 0 */
genomestart 62
trait 1 0.1 0 0 0 0 0 0.0499664 0 
trait 2 0.2 0 0 0 0 0 0 0 
trait 3 0.3 0 0 0 0 0 0 0 
node 1 2 1 3
node 2 1 1 1
node 3 1 1 1
node 4 1 1 1
node 5 3 0 2
node 6 2 0 2
gene 3 1 5 2.43483 0 1 2.43483 1
gene 1 2 5 -5.35188 0 2 -5.35188 1
gene 2 3 5 2.44117 0 3 2.44117 1
gene 2 4 5 3.9848 0 4 3.9848 1
gene 2 1 6 0.639886 0 5 0.639886 1
gene 2 2 6 2.02069 0 6 2.02069 1
gene 1 3 6 -3.24027 0 7 -3.24027 1
gene 3 4 6 3.63574 0 8 3.63574 1
gene 3 6 5 0.585019 0 70 0.585019 1
genomeend 62

/* Organism #63 Fitness: 39 Error: 0 */
genomestart 63
trait 1 0.1 0 0 0 0 0 0.0499664 0 
trait 2 0.2 0 0 0 0 0 0 0 
trait 3 0.3 0 0 0 0 0 0 0 
node 1 2 1 3
node 2 1 1 1
node 3 1 1 1
node 4 1 1 1
node 5 3 0 2
node 6 2 0 2
gene 3 1 5 2.43483 0 1 2.43483 1
gene 1 2 5 -5.35188 0 2 -5.35188 1
gene 2 3 5 2.44117 0 3 2.44117 1
gene 2 4 5 3.9848 0 4 3.9848 1
gene 2 1 6 0.639886 0 5 0.639886 1
gene 2 2 6 2.02069 0 6 2.02069 1
gene 1 3 6 -3.24027 0 7 -3.24027 1
gene 3 4 6 3.63574 0 8 3.63574 1
genomeend 63

/* Organism #64 Fitness: 39 Error: 0 */
genomestart 64
trait 1 0.1 0 0 0 0 0 0.0499664 0 
trait 2 0.2 0 0 0 0 0 0 0 
trait 3 0.3 0 0 0 0 0 0 0 
node 1 2 1 3
node 2 1 1 1
node 3 1 1 1
node 4 1 1 1
node 5 3 0 2
node 6 2 0 2
gene 3 1 5 2.43483 0 1 2.43483 1
gene 1 2 5 -5.35188 0 2 -5.35188 1
gene 2 3 5 2.44117 0 3 2.44117 1
gene 2 4 5 3.9848 0 4 3.9848 1
gene 2 1 6 0.639886 0 5 0.639886 1
gene 2 2 6 2.02069 0 6 2.02069 1
gene 1 3 6 -3.24027 0 7 -3.24027 1
gene 3 4 6 3.63574 0 8 3.63574 1
gene 1 5 5 -0.496308 1 71 -0.496308 1
genomeend 64

/* Organism #65 Fitness: 38 Error: 0 */
genomestart 65
trait 1 0.1 0 0 0 0 0 0.0499664 0 
trait 2 0.2 0 0 0 0 0 0 0 
trait 3 0.3 0 0 0 0 0 0 0 
node 1 2 1 3
node 2 1 1 1
node 3 1 1 1
node 4 1 1 1
node 5 3 0 2
node 6 2 0 2
gene 3 1 5 2.09403 0 1 2.09403 1
gene 1 2 5 -4.85932 0 2 -4.85932 1
gene 2 3 5 1.55926 0 3 1.55926 1
gene 2 4 5 3.24795 0 4 3.24795 1
gene 2 1 6 0.893181 0 5 0.893181 1
gene 2 2 6 -0.0877268 0 6 -0.0877268 1
gene 1 3 6 -5.28501 0 7 -5.28501 1
gene 3 4 6 3.63574 0 8 3.63574 1
genomeend 65

/* Species #317 : (Size 5) (AF 23) (Age 2)  */


/* Organism #66 Fitness: 0 Error: 0 */
genomestart 66
trait 1 0.1 0 0 0 0 0 0 0 
trait 2 0.2 0 0 0.714563 0.620401 0 0.778491 0 
trait 3 0.854381 0.576818 0 0 0.767175 0.535423 0.21514 0 
node 1 2 1 3
node 2 1 1 1
node 3 2 1 1
node 4 1 1 1
node 5 3 0 2
node 6 2 0 2
gene 3 1 5 1.62261 0 1 1.62261 1
gene 1 2 5 -4.78557 0 2 -4.78557 1
gene 2 3 5 -2.31397 0 3 -2.31397 1
gene 2 4 5 -0.585671 0 4 -0.585671 1
gene 2 1 6 -3.89028 0 5 -3.89028 1
gene 3 2 6 -2.17474 0 6 -2.17474 1
gene 1 3 6 3.32004 0 7 3.32004 1
gene 3 4 6 -3.75976 0 8 -3.75976 1
gene 2 6 5 -4.65662 0 33 -4.65662 1
genomeend 66

/* Organism #67 Fitness: 38 Error: 0 */
genomestart 67
trait 1 0.1 0 0 0 0 0 0 0 
trait 2 0.2 0 0 0.714563 0.620401 0 0.778491 0 
trait 3 0.854381 0.576818 0 0 0.767175 0.535423 0.21514 0 
node 1 2 1 3
node 2 1 1 1
node 3 2 1 1
node 4 1 1 1
node 5 3 0 2
node 6 2 0 2
gene 3 1 5 2.5154 0 1 2.5154 1
gene 1 2 5 -6.68991 0 2 -6.68991 1
gene 2 3 5 0.392815 0 3 0.392815 1
gene 2 4 5 -1.86858 0 4 -1.86858 1
gene 2 1 6 -1.69349 0 5 -1.69349 1
gene 3 2 6 -1.32359 0 6 -1.32359 1
gene 1 3 6 3.32004 0 7 3.32004 1
gene 3 4 6 -2.38048 0 8 -2.38048 1
gene 2 6 5 -2.45215 0 33 -2.45215 1
genomeend 67

/* Organism #68 Fitness: 0 Error: 0 */
genomestart 68
trait 1 0.1 0.264516 0.908295 0.589438 0 0 0 0 
trait 2 0.2 0 0 0.714563 0.620401 0 0.778491 0 
trait 3 0.854381 0.576818 0 0 0.767175 0.535423 0.21514 0 
node 1 2 1 3
node 2 1 1 1
node 3 2 1 1
node 4 1 1 1
node 5 3 0 2
node 6 1 0 2
gene 3 1 5 0.874159 0 1 0.874159 1
gene 1 2 5 -5.02963 0 2 -5.02963 1
gene 2 3 5 -3.23833 0 3 -3.23833 1
gene 2 4 5 -1.87668 0 4 -1.87668 1
gene 2 1 6 -3.51688 0 5 -3.51688 1
gene 3 2 6 -4.34411 0 6 -4.34411 1
gene 1 3 6 1.50101 0 7 1.50101 1
gene 3 4 6 -2.15404 0 8 -2.15404 1
gene 2 6 5 -2.50269 0 33 -2.50269 1
genomeend 68

/* Organism #69 Fitness: 38 Error: 0 */
genomestart 69
trait 1 0.1 0 0 0 0 0 0 0 
trait 2 0.2 0 0 0.714563 0.620401 0 0.778491 0 
trait 3 0.854381 0.576818 0 0 0.767175 0.535423 0.21514 0 
node 1 2 1 3
node 2 1 1 1
node 3 2 1 1
node 4 1 1 1
node 5 3 0 2
node 6 2 0 2
gene 3 1 5 3.51298 0 1 3.51298 1
gene 1 2 5 -6.70128 0 2 -6.70128 1
gene 2 3 5 -0.719687 0 3 -0.719687 1
gene 2 4 5 -2.0392 0 4 -2.0392 1
gene 2 1 6 -3.29912 0 5 -3.29912 1
gene 3 2 6 -0.721596 0 6 -0.721596 1
gene 1 3 6 5.54497 0 7 5.54497 1
gene 3 4 6 -2.06902 0 8 -2.06902 1
gene 2 6 5 -4.21887 0 33 -4.21887 1
genomeend 69

/* Organism #70 Fitness: 39 Error: 0 */
genomestart 70
trait 1 0.1 0 0 0 0 0 0 0 
trait 2 0.2 0 0 0.714563 0.620401 0 0.778491 0 
trait 3 0.854381 0.576818 0 0 0.767175 0.535423 0.21514 0 
node 1 2 1 3
node 2 1 1 1
node 3 2 1 1
node 4 1 1 1
node 5 3 0 2
node 6 2 0 2
gene 3 1 5 0.368589 0 1 0.368589 1
gene 1 2 5 -5.54588 0 2 -5.54588 1
gene 2 3 5 -4.02445 0 3 -4.02445 1
gene 2 4 5 -0.599776 0 4 -0.599776 1
gene 2 1 6 -4.20746 0 5 -4.20746 1
gene 3 2 6 -0.0439571 0 6 -0.0439571 1
gene 1 3 6 5.18519 0 7 5.18519 1
gene 3 4 6 -5.6432 0 8 -5.6432 1
gene 2 6 5 -3.42605 0 33 -3.42605 1
genomeend 70

/* Species #318 : (Size 6) (AF 31.6667) (Age 2)  */


/* Organism #71 Fitness: 0 Error: 0 */
genomestart 71
trait 1 0.1 0 0.259132 0.126735 0 0 0 0 
trait 2 0.2 0.0150006 0.038424 0 0 0 0.539533 0.0479083 
trait 3 0.215972 0 0 0 0.00683032 0 0 0 
node 1 3 1 3
node 2 2 1 1
node 3 3 1 1
node 4 1 1 1
node 5 3 0 2
node 6 1 0 2
gene 1 1 5 2.29416 0 1 2.29416 1
gene 1 2 5 -8 0 2 -8 1
gene 1 3 5 -0.837088 0 3 -0.837088 1
gene 1 4 5 0.383652 0 4 0.383652 1
gene 1 1 6 -6.44872 0 5 -6.44872 1
gene 2 2 6 0.000828251 0 6 0.000828251 1
gene 2 3 6 4.57581 0 7 4.57581 1
gene 2 4 6 2.10429 0 8 2.10429 1
gene 1 6 5 8 0 40 8 1
genomeend 71

/* Organism #72 Fitness: 38 Error: 0 */
genomestart 72
trait 1 0.1 0 0.259132 0.126735 0 0 0 0 
trait 2 0.2 0.0150006 0.038424 0 0 0 0.539533 0.0479083 
trait 3 0.215972 0 0 0 0.00683032 0 0 0 
node 1 3 1 3
node 2 2 1 1
node 3 3 1 1
node 4 1 1 1
node 5 3 0 2
node 6 2 0 2
gene 1 1 5 2.29416 0 1 2.29416 1
gene 1 2 5 -8 0 2 -8 1
gene 1 3 5 -0.837088 0 3 -0.837088 1
gene 1 4 5 0.383652 0 4 0.383652 1
gene 1 1 6 -6.44872 0 5 -6.44872 1
gene 2 2 6 0.000828251 0 6 0.000828251 1
gene 2 3 6 4.57581 0 7 4.57581 1
gene 2 4 6 2.10429 0 8 2.10429 1
gene 1 6 5 8 0 40 8 1
genomeend 72

/* Organism #73 Fitness: 38 Error: 0 */
genomestart 73
trait 1 0.1 0 0.259132 0.126735 0 0 0 0 
trait 2 0.2 0.0150006 0.038424 0 0 0 0.539533 0.0479083 
trait 3 0.215972 0 0 0 0.00683032 0 0 0 
node 1 3 1 3
node 2 2 1 1
node 3 3 1 1
node 4 1 1 1
node 5 3 0 2
node 6 1 0 2
gene 1 1 5 -0.0718574 0 1 -0.0718574 1
gene 1 2 5 -5.64999 0 2 -5.64999 1
gene 1 3 5 -1.50901 0 3 -1.50901 1
gene 1 4 5 -1.92033 0 4 -1.92033 1
gene 1 1 6 -6.12538 0 5 -6.12538 1
gene 2 2 6 -0.206127 0 6 -0.206127 1
gene 2 3 6 5.21598 0 7 5.21598 1
gene 2 4 6 4.28604 0 8 4.28604 1
gene 1 6 5 6.54889 0 40 6.54889 1
genomeend 73

/* Organism #74 Fitness: 38 Error: 0 */
genomestart 74
trait 1 0.1 0 0.259132 0.126735 0 0 0 0 
trait 2 0.2 0.0150006 0.038424 0 0 0 0.539533 0.0479083 
trait 3 0.215972 0 0 0 0.00683032 0 0 0 
node 1 3 1 3
node 2 2 1 1
node 3 3 1 1
node 4 1 1 1
node 5 3 0 2
node 6 1 0 2
gene 1 1 5 1.88195 0 1 1.88195 1
gene 1 2 5 -7.87558 0 2 -7.87558 1
gene 1 3 5 0.09658 0 3 0.09658 1
gene 1 4 5 0.253973 0 4 0.253973 1
gene 1 1 6 -8 0 5 -8 1
gene 2 2 6 0.44671 0 6 0.44671 1
gene 2 3 6 4.27183 0 7 4.27183 1
gene 2 4 6 3.84841 0 8 3.84841 1
gene 1 6 5 5.58093 0 40 5.58093 1
genomeend 74

/* Organism #75 Fitness: 38 Error: 0 */
genomestart 75
trait 1 0.1 0 0.259132 0.126735 0 0 0 0 
trait 2 0.2 0.0150006 0.038424 0 0 0 0.539533 0.0479083 
trait 3 0.215972 0 0 0 0.00683032 0 0 0 
node 1 3 1 3
node 2 2 1 1
node 3 3 1 1
node 4 1 1 1
node 5 3 0 2
node 6 1 0 2
gene 1 1 5 3.16381 0 1 3.16381 1
gene 1 2 5 -7.42833 0 2 -7.42833 1
gene 1 3 5 0.332311 0 3 0.332311 1
gene 1 4 5 0.173614 0 4 0.173614 1
gene 1 1 6 -6.67775 0 5 -6.67775 1
gene 2 2 6 2.17594 0 6 2.17594 1
gene 2 3 6 6.95564 0 7 6.95564 1
gene 2 4 6 1.49214 0 8 1.49214 1
gene 1 6 5 8 0 40 8 1
genomeend 75

/* Organism #76 Fitness: 38 Error: 0 */
genomestart 76
trait 1 0.1 0 0.259132 0.126735 0 0 0 0 
trait 2 0.2 0.0150006 0.038424 0 0 0 0.539533 0.0479083 
trait 3 0.215972 0 0 0 0.00683032 0 0 0 
node 1 3 1 3
node 2 2 1 1
node 3 3 1 1
node 4 1 1 1
node 5 3 0 2
node 6 1 0 2
gene 1 1 5 -0.018007 0 1 -0.018007 1
gene 1 2 5 -8 0 2 -8 1
gene 1 3 5 -1.14151 0 3 -1.14151 1
gene 1 4 5 1.83151 0 4 1.83151 1
gene 1 1 6 -7.17557 0 5 -7.17557 1
gene 2 2 6 2.37461 0 6 2.37461 1
gene 2 3 6 3.58976 0 7 3.58976 1
gene 2 4 6 -0.330683 0 8 -0.330683 1
gene 1 6 5 6.01249 0 40 6.01249 1
genomeend 76

/* Species #322 : (Size 1) (AF 38) (Age 1)  */


/* Organism #77 Fitness: 38 Error: 0 */
genomestart 77
trait 1 0.1 0 0 0 0 0 0 0 
trait 2 0.2 0 0 0.714563 0.620401 0 0.778491 0 
trait 3 0 0.592699 0 0.413789 0.332206 0.444425 0.374919 0.0643479 
node 1 2 1 3
node 2 3 1 1
node 3 2 1 1
node 4 1 1 1
node 5 3 0 2
node 6 2 0 2
gene 3 1 5 1.86034 0 1 1.86034 1
gene 1 2 5 -3.87684 0 2 -3.87684 1
gene 2 3 5 -3.88651 0 3 -3.88651 1
gene 2 4 5 -1.44221 0 4 -1.44221 1
gene 2 1 6 -5.53657 0 5 -5.53657 1
gene 3 2 6 0.779461 0 6 0.779461 1
gene 1 3 6 4.94358 0 7 4.94358 1
gene 3 4 6 0.799163 0 8 0.799163 1
gene 2 6 5 8 0 33 8 1
genomeend 77

/* Species #323 : (Size 1) (AF 38) (Age 1)  */


/* Organism #78 Fitness: 38 Error: 0 */
genomestart 78
trait 1 0.1 0 0 0 0 0 0 0 
trait 2 0.2 0 0.941688 0.021937 0 0.406624 0 0.855567 
trait 3 0.3 0 0 0 0 0 0 0 
node 1 3 1 3
node 2 2 1 1
node 3 1 1 1
node 4 1 1 1
node 5 3 0 2
node 6 1 0 2
gene 1 1 5 2.17824 0 1 2.17824 1
gene 1 2 5 -5.14776 0 2 -5.14776 1
gene 3 3 5 2.25246 0 3 2.25246 1
gene 2 4 5 2.20839 0 4 2.20839 1
gene 3 1 6 -6.82597 0 5 -6.82597 1
gene 2 2 6 5.14698 0 6 5.14698 1
gene 2 3 6 0.877166 0 7 0.877166 1
gene 3 4 6 -1.08512 0 8 -1.08512 1
gene 1 5 6 -1.44814 0 9 -1.44814 1
gene 1 6 6 0.327085 1 17 0.327085 1
genomeend 78

/* Species #324 : (Size 1) (AF 39) (Age 1)  */


/* Organism #79 Fitness: 39 Error: 0 */
genomestart 79
trait 1 0.1 0 0 0 0 0 0 0 
trait 2 0.2 0 0 0 0 0 0 0 
trait 3 0.414792 0 0 0 0 0 0.849866 0 
node 1 2 1 3
node 2 1 1 1
node 3 2 1 1
node 4 1 1 1
node 5 3 0 2
node 6 2 0 2
gene 2 1 5 0.986432 0 1 0.986432 1
gene 1 2 5 -4.39244 0 2 -4.39244 1
gene 1 3 5 -0.817005 0 3 -0.817005 1
gene 1 4 5 -2.12056 0 4 -2.12056 1
gene 3 1 6 0.679587 0 5 0.679587 1
gene 2 2 6 -3.27229 0 6 -3.27229 1
gene 3 3 6 -2.63197 0 7 -2.63197 1
gene 3 4 6 -1.79 0 8 -1.79 1
genomeend 79

/* Species #325 : (Size 1) (AF 0) (Age 1)  */


/* Organism #80 Fitness: 0 Error: 0 */
genomestart 80
trait 1 0.1 0 0.259132 0.126735 0 0 0 0 
trait 2 0.2 0 0.038424 0 0.152127 0 0 0.0479083 
trait 3 0.215972 0 0 0 0.00683032 0 0 0 
node 1 3 1 3
node 2 3 1 1
node 3 3 1 1
node 4 3 1 1
node 5 1 0 2
node 6 1 0 2
gene 3 1 5 -2.15486 0 1 -2.15486 1
gene 1 2 5 -2.07425 0 2 -2.07425 1
gene 1 3 5 -4.38589 0 3 -4.38589 1
gene 1 4 5 -6.98097 0 4 -6.98097 1
gene 1 1 6 -6.18242 0 5 -6.18242 1
gene 2 2 6 -2.51862 0 6 -2.51862 1
gene 2 3 6 1.69672 0 7 1.69672 1
gene 2 4 6 -2.32947 0 8 -2.32947 1
genomeend 80

/* Species #326 : (Size 1) (AF 0) (Age 1)  */


/* Organism #81 Fitness: 0 Error: 0 */
genomestart 81
trait 1 0.909318 0 0 0.536838 0.298301 0 0 0.0737577 
trait 2 0.2 0 0 0 0 0 0 0 
trait 3 0.3 0 0 0 0 0 0 0 
node 1 2 1 3
node 2 1 1 1
node 3 2 1 1
node 4 1 1 1
node 5 3 0 2
node 6 2 0 2
gene 2 1 5 5.91075 0 1 5.91075 1
gene 1 2 5 -5.83375 0 2 -5.83375 1
gene 3 3 5 -2.85622 0 3 -2.85622 1
gene 1 4 5 1.53321 0 4 1.53321 1
gene 3 1 6 -0.0408249 0 5 -0.0408249 1
gene 2 2 6 -0.943091 0 6 -0.943091 1
gene 1 3 6 2.47307 0 7 2.47307 1
gene 3 4 6 -1.9274 0 8 -1.9274 1
gene 1 6 5 4.30656 0 43 4.30656 1
gene 1 5 5 2.03617 1 62 2.03617 1
genomeend 81

/* Species #327 : (Size 1) (AF 0) (Age 1)  */


/* Organism #82 Fitness: 0 Error: 0 */
genomestart 82
trait 1 0.909318 0 0 0.536838 0.298301 0 0 0.0737577 
trait 2 0.2 0 0 0 0 0 0 0 
trait 3 0.3 0 0 0 0 0 0 0 
node 1 2 1 3
node 2 1 1 1
node 3 2 1 1
node 4 1 1 1
node 5 3 0 2
node 6 2 0 2
gene 2 1 5 -1.87772 0 1 -1.87772 1
gene 1 2 5 1.88659 0 2 1.88659 1
gene 3 3 5 -0.62058 0 3 -0.62058 1
gene 1 4 5 3.0306 0 4 3.0306 1
gene 3 1 6 -6.32943 0 5 -6.32943 1
gene 2 2 6 -1.13235 0 6 -1.13235 1
gene 3 3 6 -7.96097 0 7 -7.96097 1
gene 3 4 6 0.888812 0 8 0.888812 1
gene 1 6 5 0.842805 0 43 0.842805 1
gene 1 5 5 1.63159 1 62 1.63159 1
genomeend 82

/* Species #328 : (Size 1) (AF 38) (Age 1)  */


/* Organism #83 Fitness: 38 Error: 0 */
genomestart 83
trait 1 0.909318 0 0 0.536838 0.298301 0 0 0.0737577 
trait 2 0.2 0 0 0 0 0 0 0 
trait 3 0.3 0 0 0 0 0 0 0 
node 1 2 1 3
node 2 1 1 1
node 3 2 1 1
node 4 1 1 1
node 5 3 0 2
node 6 2 0 2
gene 2 1 5 -0.34099 0 1 -0.34099 1
gene 1 2 5 -3.84888 0 2 -3.84888 1
gene 3 3 5 -2.58132 0 3 -2.58132 1
gene 1 4 5 -0.218038 0 4 -0.218038 1
gene 3 1 6 -6.87657 0 5 -6.87657 1
gene 2 2 6 -0.266876 0 6 -0.266876 1
gene 3 3 6 -2.96135 0 7 -2.96135 1
gene 3 4 6 3.11086 0 8 3.11086 1
gene 1 6 5 -0.66581 0 43 -0.66581 1
gene 1 5 5 1.35734 1 62 1.35734 1
genomeend 83

/* Species #329 : (Size 1) (AF 38) (Age 1)  */


/* Organism #84 Fitness: 38 Error: 0 */
genomestart 84
trait 1 0.1 0 0.259132 0.126735 0 0 0 0 
trait 2 0.2 0 0.038424 0 0.152127 0 0 0.0479083 
trait 3 1 0 0 0 0.00683032 0.446524 0.827072 0 
node 1 3 1 3
node 2 3 1 1
node 3 3 1 1
node 4 3 1 1
node 5 3 0 2
node 6 1 0 2
gene 1 1 5 0.870515 0 1 0.870515 1
gene 1 2 5 -4.91 0 2 -4.91 1
gene 1 3 5 -1.8201 0 3 -1.8201 1
gene 1 4 5 -5.0904 0 4 -5.0904 1
gene 1 1 6 -0.199843 0 5 -0.199843 1
gene 2 2 6 1.14511 0 6 1.14511 1
gene 2 3 6 1.42997 0 7 1.42997 1
gene 2 4 6 1.15373 0 8 1.15373 1
gene 1 6 5 0.169427 0 63 0.169427 1
genomeend 84

/* Species #330 : (Size 1) (AF 0) (Age 1)  */


/* Organism #85 Fitness: 0 Error: 0 */
genomestart 85
trait 1 0.1 0 0.259132 0.126735 0 0 0 0 
trait 2 0.2 0 0.038424 0 0.152127 0 0 0.0479083 
trait 3 0.215972 0 0 0 0.00683032 0 0 0 
node 1 3 1 3
node 2 2 1 1
node 3 3 1 1
node 4 1 1 1
node 5 3 0 2
node 6 1 0 2
gene 1 1 5 3.81332 0 1 3.81332 1
gene 1 2 5 -4.94308 0 2 -4.94308 1
gene 1 3 5 2.01913 0 3 2.01913 1
gene 1 4 5 2.48155 0 4 2.48155 1
gene 1 1 6 -6.45032 0 5 -6.45032 1
gene 2 2 6 -0.978408 0 6 -0.978408 1
gene 2 3 6 1.00228 0 7 1.00228 1
gene 2 4 6 -5.77383 0 8 -5.77383 1
gene 1 6 5 1.5142 0 40 1.5142 1
genomeend 85

/* Species #331 : (Size 1) (AF 0) (Age 1)  */


/* Organism #86 Fitness: 0 Error: 0 */
genomestart 86
trait 1 0.1 0 0 0 0 0 0 0 
trait 2 0.2 0 0 0.714563 0 0 0.778491 0 
trait 3 0.854381 0.576818 0 0 0.767175 0.535423 0.21514 0 
node 1 2 1 3
node 2 1 1 1
node 3 2 1 1
node 4 1 1 1
node 5 3 0 2
node 6 2 0 2
gene 3 1 5 -1.76205 0 1 -1.76205 1
gene 1 2 5 -4.31111 0 2 -4.31111 1
gene 2 3 5 -0.44258 0 3 -0.44258 1
gene 2 4 5 0.758342 0 4 0.758342 1
gene 2 1 6 -0.762041 0 5 -0.762041 1
gene 3 2 6 0.184327 0 6 0.184327 1
gene 1 3 6 -0.676087 0 7 -0.676087 1
gene 3 4 6 -4.20013 0 8 -4.20013 1
gene 2 6 5 -5.53071 0 33 -5.53071 1
genomeend 86

/* Species #332 : (Size 1) (AF 38) (Age 1)  */


/* Organism #87 Fitness: 38 Error: 0 */
genomestart 87
trait 1 0.1 0 0 0 0 0 0 0 
trait 2 0.2 0 0 0.714563 0.620401 0 0.778491 0 
trait 3 0.854381 0.576818 0 0 0.767175 0.535423 0.21514 0 
node 1 2 1 3
node 2 1 1 1
node 3 3 1 1
node 4 1 1 1
node 5 3 0 2
node 6 2 0 2
gene 3 1 5 3.72724 0 1 3.72724 1
gene 1 2 5 -3.87885 0 2 -3.87885 1
gene 2 3 5 0.14345 0 3 0.14345 1
gene 2 4 5 -1.37568 0 4 -1.37568 1
gene 2 1 6 -2.97069 0 5 -2.97069 1
gene 3 2 6 1.90599 0 6 1.90599 1
gene 1 3 6 2.71433 0 7 2.71433 1
gene 3 4 6 0.506819 0 8 0.506819 1
gene 2 6 5 -1.42687 0 33 -1.42687 1
genomeend 87

/* Species #333 : (Size 1) (AF 38) (Age 1)  */


/* Organism #88 Fitness: 38 Error: 0 */
genomestart 88
trait 1 0.1 0 0 0 0 0 0 0 
trait 2 0.2 0 0 0.714563 0.620401 0 0.778491 0 
trait 3 0.854381 0.576818 0 0 0.767175 0.535423 0.21514 0 
node 1 2 1 3
node 2 1 1 1
node 3 2 1 1
node 4 1 1 1
node 5 3 0 2
node 6 2 0 2
gene 3 1 5 4.99521 0 1 4.99521 1
gene 1 2 5 -1.86867 0 2 -1.86867 1
gene 2 3 5 -2.03764 0 3 -2.03764 1
gene 2 4 5 -1.10483 0 4 -1.10483 1
gene 2 1 6 -2.11473 0 5 -2.11473 1
gene 3 2 6 0.460427 0 6 0.460427 1
gene 1 3 6 -0.84887 0 7 -0.84887 1
gene 3 4 6 -0.0390317 0 8 -0.0390317 1
gene 2 6 5 1.82226 0 33 1.82226 1
genomeend 88

/* Species #334 : (Size 1) (AF 39) (Age 1)  */


/* Organism #89 Fitness: 39 Error: 0 */
genomestart 89
trait 1 0.1 0 0.259132 0.126735 0 0 0 0 
trait 2 0.2 0 0.038424 0 0.152127 0 0 0.0479083 
trait 3 0.215972 0 0 0 0.00683032 0 0 0 
node 1 3 1 3
node 2 2 1 1
node 3 3 1 1
node 4 1 1 1
node 5 3 0 2
node 6 1 0 2
gene 1 1 5 -0.649935 0 1 -0.649935 1
gene 1 2 5 -8 0 2 -8 1
gene 1 3 5 -3.26703 0 3 -3.26703 1
gene 1 4 5 3.4556 0 4 3.4556 1
gene 1 1 6 -6.82054 0 5 -6.82054 1
gene 2 2 6 -1.05357 0 6 -1.05357 1
gene 2 3 6 -2.43409 0 7 -2.43409 1
gene 2 4 6 6.4095 0 8 6.4095 1
gene 1 6 5 0.356884 0 40 0.356884 1
genomeend 89

/* Species #335 : (Size 1) (AF 0) (Age 1)  */


/* Organism #90 Fitness: 0 Error: 0 */
genomestart 90
trait 1 0.53077 0.866836 0.259132 0 0.603504 0 0 0 
trait 2 0.2 0 0.038424 0 0.152127 0 0 0.0479083 
trait 3 0.215972 0 0 0 0.00683032 0 0 0 
node 1 3 1 3
node 2 3 1 1
node 3 3 1 1
node 4 3 1 1
node 5 1 0 2
node 6 1 0 2
gene 1 1 5 3.22602 0 1 3.22602 1
gene 1 2 5 -3.10998 0 2 -3.10998 1
gene 1 3 5 -2.01112 0 3 -2.01112 1
gene 1 4 5 -4.40385 0 4 -4.40385 1
gene 1 1 6 -4.70783 0 5 -4.70783 1
gene 2 2 6 -0.72109 0 6 -0.72109 1
gene 2 3 6 0.435291 0 7 0.435291 1
gene 2 4 6 2.18575 0 8 2.18575 1
gene 3 5 6 0.741746 0 69 0.741746 1
genomeend 90

/* Species #336 : (Size 1) (AF 39) (Age 1)  */


/* Organism #91 Fitness: 39 Error: 0 */
genomestart 91
trait 1 0.53077 0.866836 0.259132 0 0.603504 0 0 0 
trait 2 0.2 0 0.038424 0 0.152127 0 0 0.0479083 
trait 3 0.215972 0 0 0 0.00683032 0 0 0 
node 1 3 1 3
node 2 3 1 1
node 3 3 1 1
node 4 3 1 1
node 5 1 0 2
node 6 1 0 2
gene 3 1 5 2.11368 0 1 2.11368 1
gene 1 2 5 -4.99581 0 2 -4.99581 1
gene 1 3 5 -3.05572 0 3 -3.05572 1
gene 1 4 5 -4.4151 0 4 -4.4151 1
gene 1 1 6 -7.78708 0 5 -7.78708 1
gene 2 2 6 -0.783928 0 6 -0.783928 1
gene 2 3 6 1.06245 0 7 1.06245 1
gene 2 4 6 2.82021 0 8 2.82021 1
genomeend 91

/* Species #337 : (Size 1) (AF 0) (Age 1)  */


/* Organism #92 Fitness: 0 Error: 0 */
genomestart 92
trait 1 0.1 0 0.259132 0.126735 0 0 0 0 
trait 2 0.2 0 0.038424 0 0.152127 0 0 0.0479083 
trait 3 0.215972 0 0 0 0.00683032 0 0 0 
node 1 3 1 3
node 2 3 1 1
node 3 3 1 1
node 4 3 1 1
node 5 3 0 2
node 6 1 0 2
gene 1 1 5 1.32319 0 1 1.32319 1
gene 1 2 5 -1.32442 0 2 -1.32442 1
gene 1 3 5 0.404791 0 3 0.404791 1
gene 1 4 5 -6.80424 0 4 -6.80424 1
gene 1 1 6 -4.81842 0 5 -4.81842 1
gene 2 2 6 -1.49586 0 6 -1.49586 1
gene 2 3 6 -1.64274 0 7 -1.64274 1
gene 2 4 6 1.86138 0 8 1.86138 1
gene 1 6 5 1.18618 0 63 1.18618 1
genomeend 92

/* Species #338 : (Size 1) (AF 0) (Age 1)  */


/* Organism #93 Fitness: 0 Error: 0 */
genomestart 93
trait 1 0 0.298641 0.259132 0.126735 0.662046 0 0 0 
trait 2 0.2 0 0.038424 0 0.152127 0 0 0.0479083 
trait 3 0.215972 0 0 0 0.00683032 0 0 0 
node 1 3 1 3
node 2 3 1 1
node 3 2 1 1
node 4 1 1 1
node 5 3 0 2
node 6 1 0 2
gene 1 1 5 1.78935 0 1 1.78935 1
gene 1 2 5 1.65999 0 2 1.65999 1
gene 1 3 5 5.23587 0 3 5.23587 1
gene 1 4 5 -0.202175 0 4 -0.202175 1
gene 1 1 6 -1.98262 0 5 -1.98262 1
gene 2 2 6 -0.296449 0 6 -0.296449 1
gene 2 3 6 0.187895 0 7 0.187895 1
gene 1 4 6 -8 0 8 -8 1
gene 3 6 5 -4.25848 0 59 -4.25848 1
genomeend 93

/* Species #339 : (Size 1) (AF 0) (Age 1)  */


/* Organism #94 Fitness: 0 Error: 0 */
genomestart 94
trait 1 0 0.298641 0.259132 0.126735 0.662046 0 0 0 
trait 2 0.2 0 0.038424 0 0.152127 0 0 0.0479083 
trait 3 0.215972 0 0 0 0 0 0 0 
node 1 3 1 3
node 2 3 1 1
node 3 3 1 1
node 4 1 1 1
node 5 3 0 2
node 6 1 0 2
gene 1 1 5 -1.69113 0 1 -1.69113 1
gene 1 2 5 -1.48089 0 2 -1.48089 1
gene 1 3 5 5.52612 0 3 5.52612 1
gene 1 4 5 -2.78793 0 4 -2.78793 1
gene 1 1 6 -4.9054 0 5 -4.9054 1
gene 2 2 6 2.2907 0 6 2.2907 1
gene 2 3 6 -6.03847 0 7 -6.03847 1
gene 1 4 6 2.13479 0 8 2.13479 1
gene 3 6 5 -2.14256 0 59 -2.14256 1
genomeend 94

/* Species #340 : (Size 1) (AF 0) (Age 1)  */


/* Organism #95 Fitness: 0 Error: 0 */
genomestart 95
trait 1 0 0.298641 0.259132 0.126735 0.662046 0 0 0 
trait 2 0.2 0 0.038424 0 0.152127 0 0 0.0479083 
trait 3 0.215972 0 0.314966 0 0 0 0 0 
node 1 3 1 3
node 2 3 1 1
node 3 3 1 1
node 4 1 1 1
node 5 3 0 2
node 6 1 0 2
gene 1 1 5 0.0533856 0 1 0.0533856 1
gene 1 2 5 -0.019015 0 2 -0.019015 1
gene 1 3 5 5.41455 0 3 5.41455 1
gene 1 4 5 -1.28362 0 4 -1.28362 1
gene 1 1 6 -1.75071 0 5 -1.75071 1
gene 2 2 6 -0.362927 0 6 -0.362927 1
gene 2 3 6 2.40858 0 7 2.40858 1
gene 1 4 6 -1.05219 0 8 -1.05219 1
gene 3 6 5 -3.92802 0 59 -3.92802 1
genomeend 95

/* Species #341 : (Size 1) (AF 39) (Age 1)  */


/* Organism #96 Fitness: 39 Error: 0 */
genomestart 96
trait 1 0.1 0 0.259132 0.126735 0 0 0 0 
trait 2 0.2 0.736881 0.68297 0 0.152127 0 0 0.494848 
trait 3 0.215972 0 0 0 0.00683032 0 0 0 
node 1 3 1 3
node 2 2 1 1
node 3 3 1 1
node 4 1 1 1
node 5 3 0 2
node 6 1 0 2
gene 1 1 5 -0.394609 0 1 -0.394609 1
gene 1 2 5 -4.3428 0 2 -4.3428 1
gene 1 3 5 -3.14469 0 3 -3.14469 1
gene 1 4 5 -1.82463 0 4 -1.82463 1
gene 1 1 6 -2.12329 0 5 -2.12329 1
gene 2 2 6 -1.4456 0 6 -1.4456 1
gene 2 3 6 -1.47876 0 7 -1.47876 1
gene 2 4 6 2.15206 0 8 2.15206 1
gene 1 6 5 5.54482 0 40 5.54482 1
genomeend 96

/* Species #342 : (Size 1) (AF 37) (Age 1)  */


/* Organism #97 Fitness: 37 Error: 0 */
genomestart 97
trait 1 0.1 0 0 0 0 0 0 0 
trait 2 0.2 0 0 0 0 0 0 0 
trait 3 0.3 0 0 0 0 0 0 0 
node 1 2 1 3
node 2 1 1 1
node 3 1 1 1
node 4 1 1 1
node 5 3 0 2
node 6 2 0 2
gene 3 1 5 5.23733 0 1 5.23733 1
gene 1 2 5 -2.34024 0 2 -2.34024 1
gene 2 3 5 0.445265 0 3 0.445265 1
gene 2 4 5 -2.17989 0 4 -2.17989 1
gene 2 1 6 3.46896 0 5 3.46896 1
gene 2 2 6 -2.13158 0 6 -2.13158 1
gene 1 3 6 0.479331 0 7 0.479331 1
gene 3 4 6 -0.554215 0 8 -0.554215 1
genomeend 97

/* Species #343 : (Size 1) (AF 39) (Age 1)  */


/* Organism #98 Fitness: 39 Error: 0 */
genomestart 98
trait 1 0.1 0 0 0 0 0 0.0499664 0 
trait 2 0.2 0 0 0 0 0 0 0 
trait 3 0.3 0 0 0 0 0 0 0 
node 1 2 1 3
node 2 1 1 1
node 3 1 1 1
node 4 1 1 1
node 5 3 0 2
node 6 2 0 2
gene 3 1 5 1.09609 0 1 1.09609 1
gene 3 2 5 -3.62647 0 2 -3.62647 1
gene 2 3 5 0.389107 0 3 0.389107 1
gene 2 4 5 -2.14653 0 4 -2.14653 1
gene 2 1 6 0.477421 0 5 0.477421 1
gene 2 2 6 0.266938 0 6 0.266938 1
gene 1 3 6 -2.27347 0 7 -2.27347 1
gene 3 4 6 4.59803 0 8 4.59803 1
genomeend 98

/* Species #344 : (Size 1) (AF 0) (Age 1)  */


/* Organism #99 Fitness: 0 Error: 0 */
genomestart 99
trait 1 0.1 0 0.259132 0.126735 0 0 0 0 
trait 2 0.2 0.0150006 0.038424 0 0 0 0.539533 0.0479083 
trait 3 0.215972 0 0 0 0.00683032 0 0 0 
node 1 3 1 3
node 2 2 1 1
node 3 3 1 1
node 4 1 1 1
node 5 3 0 2
node 6 1 0 2
gene 1 1 5 3.66722 0 1 3.66722 1
gene 1 2 5 1.80573 0 2 1.80573 1
gene 1 3 5 0.627182 0 3 0.627182 1
gene 1 4 5 1.67197 0 4 1.67197 1
gene 1 1 6 -5.88597 0 5 -5.88597 1
gene 2 2 6 1.3094 0 6 1.3094 1
gene 2 3 6 3.74219 0 7 3.74219 1
gene 2 4 6 2.5068 0 8 2.5068 1
gene 1 6 5 8 0 40 8 1
genomeend 99
