
/* Species #156 : (Size 1) (AF 0) (Age 10)  */


/* Organism #0 Fitness: 0 Error: 0 */
genomestart 0
trait 1 0.1 0 0 0 0 0 0 0 
trait 2 0.2 0 0 0 0 0 0 0 
trait 3 0.3 0 0 0 0 0 0 0 
node 1 3 1 3
node 2 3 1 1
node 3 3 1 1
node 4 1 1 1
node 5 3 0 2
node 6 3 0 2
gene 1 1 5 0.49732 0 1 0.49732 1
gene 1 2 5 -0.206453 0 2 -0.206453 1
gene 3 3 5 3.88906 0 3 3.88906 1
gene 2 4 5 0.699546 0 4 0.699546 1
gene 1 1 6 -8 0 5 -8 1
gene 3 2 6 3.85183 0 6 3.85183 1
gene 1 3 6 -8 0 7 -8 1
gene 3 4 6 -6.00181 0 8 -6.00181 1
gene 3 6 5 0.550801 0 44 0.550801 1
gene 1 5 5 1.62963 1 64 1.62963 1
genomeend 0

/* Species #191 : (Size 2) (AF 16.5) (Age 8)  */


/* Organism #1 Fitness: 0 Error: 0 */
genomestart 1
trait 1 0.1 0 0 0 0 0 0 0 
trait 2 0.2 0 0 0 0 0 0 0 
trait 3 0.3 0 0 0.538583 0 0 0 0.744982 
node 1 3 1 3
node 2 3 1 1
node 3 2 1 1
node 4 1 1 1
node 5 3 0 2
node 6 3 0 2
gene 3 1 5 1.88949 0 1 1.88949 1
gene 3 2 5 -3.65296 0 2 -3.65296 1
gene 3 3 5 -7.5576 0 3 -7.5576 1
gene 2 4 5 0.351054 0 4 0.351054 1
gene 2 1 6 -5.11557 0 5 -5.11557 1
gene 3 2 6 0.0704539 0 6 0.0704539 1
gene 2 3 6 3.44264 0 7 3.44264 1
gene 3 4 6 -0.775329 0 8 -0.775329 1
gene 1 5 6 0.560237 0 57 0.560237 1
genomeend 1

/* Organism #2 Fitness: 33 Error: 0 */
genomestart 2
trait 1 0.1 0 0 0 0 0 0 0 
trait 2 0.2 0 0 0 0 0 0 0 
trait 3 0.3 0 0 0.538583 0 0 0 0.744982 
node 1 3 1 3
node 2 3 1 1
node 3 2 1 1
node 4 1 1 1
node 5 3 0 2
node 6 3 0 2
gene 3 1 5 -0.824973 0 1 -0.824973 1
gene 3 2 5 -2.22913 0 2 -2.22913 1
gene 3 3 5 -5.64342 0 3 -5.64342 1
gene 2 4 5 -1.91943 0 4 -1.91943 1
gene 2 1 6 -4.07059 0 5 -4.07059 1
gene 3 2 6 -0.0702114 0 6 -0.0702114 1
gene 2 3 6 1.76638 0 7 1.76638 1
gene 3 4 6 -0.0727418 0 8 -0.0727418 1
gene 1 5 6 1.97541 0 57 1.97541 1
genomeend 2

/* Species #203 : (Size 1) (AF 0) (Age 8)  */


/* Organism #3 Fitness: 0 Error: 0 */
genomestart 3
trait 1 0.1 0 0.254675 0 0 0 0 0 
trait 2 0 0 0.20066 0.460291 0 0 0.486727 0 
trait 3 0.3 0 0 0 0 0 0 0 
node 1 3 1 3
node 2 3 1 1
node 3 3 1 1
node 4 1 1 1
node 5 3 0 2
node 6 1 0 2
gene 1 1 5 -1.81621 0 1 -1.81621 1
gene 1 2 5 -0.33665 0 2 -0.33665 1
gene 3 3 5 -1.24077 0 3 -1.24077 1
gene 2 4 5 1.54518 0 4 1.54518 1
gene 1 1 6 -8 0 5 -8 1
gene 3 2 6 3.25736 0 6 3.25736 1
gene 1 3 6 3.57197 0 7 3.57197 1
gene 3 4 6 -8 0 8 -8 1
genomeend 3

/* Species #207 : (Size 2) (AF 19) (Age 8)  */


/* Organism #4 Fitness: 0 Error: 0 */
genomestart 4
trait 1 0.1 0 0 0 0 0 0 0 
trait 2 0.2 0 0 0 0 0 0 0 
trait 3 0.3 0 0 0 0 0 0 0 
node 1 3 1 3
node 2 1 1 1
node 3 3 1 1
node 4 1 1 1
node 5 2 0 2
node 6 3 0 2
gene 2 1 5 -3.02628 0 1 -3.02628 1
gene 3 2 5 -0.494553 0 2 -0.494553 1
gene 1 3 5 1.30557 0 3 1.30557 1
gene 2 4 5 6.11303 0 4 6.11303 1
gene 3 1 6 -6.3374 0 5 -6.3374 1
gene 1 2 6 0.636045 0 6 0.636045 1
gene 1 3 6 -0.0831838 0 7 -0.0831838 1
gene 1 4 6 -3.02957 0 8 -3.02957 1
gene 1 6 5 -8 0 21 -8 1
genomeend 4

/* Organism #5 Fitness: 38 Error: 0 */
genomestart 5
trait 1 0.1 0 0 0 0 0 0 0 
trait 2 0.2 0 0 0 0 0 0 0 
trait 3 0.3 0 0 0 0 0 0 0 
node 1 3 1 3
node 2 1 1 1
node 3 3 1 1
node 4 1 1 1
node 5 2 0 2
node 6 3 0 2
gene 2 1 5 -1.6779 0 1 -1.6779 1
gene 3 2 5 -0.611493 0 2 -0.611493 1
gene 1 3 5 -1.00619 0 3 -1.00619 1
gene 2 4 5 8 0 4 8 1
gene 3 1 6 -5.84546 0 5 -5.84546 1
gene 1 2 6 1.66953 0 6 1.66953 1
gene 1 3 6 0.268877 0 7 0.268877 1
gene 1 4 6 -5.31647 0 8 -5.31647 1
gene 1 6 5 -8 0 21 -8 1
genomeend 5

/* Species #208 : (Size 1) (AF 0) (Age 8)  */


/* Organism #6 Fitness: 0 Error: 0 */
genomestart 6
trait 1 0.1 0 0 0 0 0 0 0 
trait 2 0.2 0 0 0 0 0 0 0 
trait 3 0.3 0 0 0 0 0 0 0 
node 1 3 1 3
node 2 3 1 1
node 3 2 1 1
node 4 3 1 1
node 5 3 0 2
node 6 3 0 2
gene 1 1 5 1.15283 0 1 1.15283 1
gene 1 2 5 -8 0 2 -8 1
gene 3 3 5 -3.72707 0 3 -3.72707 1
gene 2 4 5 -6.35394 0 4 -6.35394 1
gene 1 1 6 -5.78419 0 5 -5.78419 1
gene 3 2 6 3.00305 0 6 3.00305 1
gene 1 3 6 -8 0 7 -8 1
gene 3 4 6 2.50686 0 8 2.50686 1
gene 1 6 6 -3.95089 1 60 -3.95089 1
gene 2 6 5 -0.473537 0 69 -0.473537 1
genomeend 6

/* Species #218 : (Size 1) (AF 0) (Age 7)  */


/* Organism #7 Fitness: 0 Error: 0 */
genomestart 7
trait 1 0.1 0 0 0 0 0 0 0 
trait 2 0.2 0 0 0 0 0 0 0 
trait 3 1 0 0 0 0 0.636782 0 0 
node 1 3 1 3
node 2 3 1 1
node 3 3 1 1
node 4 3 1 1
node 5 3 0 2
node 6 3 0 2
gene 1 1 5 0.737284 0 1 0.737284 1
gene 1 2 5 -7.45921 0 2 -7.45921 1
gene 3 3 5 -2.91841 0 3 -2.91841 1
gene 2 4 5 3.42048 0 4 3.42048 1
gene 1 1 6 -5.57007 0 5 -5.57007 1
gene 3 2 6 -1.14954 0 6 -1.14954 1
gene 1 3 6 2.56504 0 7 2.56504 1
gene 3 4 6 1.56395 0 8 1.56395 1
genomeend 7

/* Species #241 : (Size 3) (AF 0) (Age 7)  */


/* Organism #8 Fitness: 0 Error: 0 */
genomestart 8
trait 1 0.1 0 0 0 0 0 0 0 
trait 2 0.2 0 0 0 0 0 0 0 
trait 3 0.3 0 0 0 0 0 0 0 
node 1 3 1 3
node 2 3 1 1
node 3 2 1 1
node 4 2 1 1
node 5 3 0 2
node 6 3 0 2
gene 1 1 5 0.662812 0 1 0.662812 1
gene 1 2 5 0.963328 0 2 0.963328 1
gene 3 3 5 1.9725 0 3 1.9725 1
gene 2 4 5 4.56966 0 4 4.56966 1
gene 1 1 6 -1.4771 0 5 -1.4771 1
gene 3 2 6 0.466042 0 6 0.466042 1
gene 1 3 6 -7.9862 0 7 -7.9862 1
gene 3 4 6 5.62662 0 8 5.62662 1
gene 3 6 5 7.57439 0 44 7.57439 1
genomeend 8

/* Organism #9 Fitness: 0 Error: 0 */
genomestart 9
trait 1 0.1 0 0 0 0 0 0 0 
trait 2 0.2 0 0 0 0 0 0 0 
trait 3 0.3 0 0 0 0 0 0 0 
node 1 3 1 3
node 2 3 1 1
node 3 2 1 1
node 4 2 1 1
node 5 3 0 2
node 6 1 0 2
gene 1 1 5 2.59876 0 1 2.59876 1
gene 1 2 5 3.09173 0 2 3.09173 1
gene 3 3 5 3.34816 0 3 3.34816 1
gene 2 4 5 3.43974 0 4 3.43974 1
gene 1 1 6 0.863781 0 5 0.863781 1
gene 3 2 6 0.630677 0 6 0.630677 1
gene 1 3 6 -8 0 7 -8 1
gene 3 4 6 3.57306 0 8 3.57306 1
gene 3 6 5 8 0 44 8 1
genomeend 9

/* Organism #10 Fitness: 0 Error: 0 */
genomestart 10
trait 1 0.1 0 0 0 0 0 0 0 
trait 2 0.2 0 0 0 0 0 0 0 
trait 3 0.3 0 0 0 0 0 0 0 
node 1 3 1 3
node 2 3 1 1
node 3 2 1 1
node 4 2 1 1
node 5 3 0 2
node 6 3 0 2
gene 1 1 5 -1.55184 0 1 -1.55184 1
gene 1 2 5 1.04349 0 2 1.04349 1
gene 3 3 5 3.08904 0 3 3.08904 1
gene 2 4 5 6.68558 0 4 6.68558 1
gene 1 1 6 -0.857863 0 5 -0.857863 1
gene 3 2 6 -1.10893 0 6 -1.10893 1
gene 1 3 6 -7.85531 0 7 -7.85531 1
gene 3 4 6 5.55113 0 8 5.55113 1
gene 3 6 5 8 0 44 8 1
genomeend 10

/* Species #244 : (Size 4) (AF 29.25) (Age 6)  */


/* Organism #11 Fitness: 0 Error: 0 */
genomestart 11
trait 1 0.1 0 0 0 0 0 0 0 
trait 2 0.2 0 0 0 0 0 0 0 
trait 3 1 0 0 0 0 0 0.78253 0.620821 
node 1 3 1 3
node 2 3 1 1
node 3 3 1 1
node 4 1 1 1
node 5 1 0 2
node 6 1 0 2
gene 1 1 5 4.23682 0 1 4.23682 1
gene 1 2 5 -1.5062 0 2 -1.5062 1
gene 3 3 5 2.9168 0 3 2.9168 1
gene 2 4 5 8 0 4 8 1
gene 1 1 6 -4.57544 0 5 -4.57544 1
gene 3 2 6 -2.45019 0 6 -2.45019 1
gene 1 3 6 0.579688 0 7 0.579688 1
gene 3 4 6 -8 0 8 -8 1
genomeend 11

/* Organism #12 Fitness: 39 Error: 0 */
genomestart 12
trait 1 0.1 0 0 0 0 0 0 0 
trait 2 0.2 0 0 0 0 0 0 0 
trait 3 1 0 0 0 0 0 0.78253 0.620821 
node 1 3 1 3
node 2 3 1 1
node 3 3 1 1
node 4 1 1 1
node 5 1 0 2
node 6 1 0 2
gene 1 1 5 2.01539 0 1 2.01539 1
gene 1 2 5 -8 0 2 -8 1
gene 3 3 5 2.9168 0 3 2.9168 1
gene 2 4 5 8 0 4 8 1
gene 1 1 6 -5.17301 0 5 -5.17301 1
gene 3 2 6 -0.965276 0 6 -0.965276 1
gene 1 3 6 1.43133 0 7 1.43133 1
gene 3 4 6 -8 0 8 -8 1
genomeend 12

/* Organism #13 Fitness: 39 Error: 0 */
genomestart 13
trait 1 0.1 0 0 0 0 0 0 0 
trait 2 0.2 0 0 0 0 0 0 0 
trait 3 1 0 0 0 0 0 0.78253 0.620821 
node 1 3 1 3
node 2 3 1 1
node 3 3 1 1
node 4 1 1 1
node 5 1 0 2
node 6 1 0 2
gene 1 1 5 0.826674 0 1 0.826674 1
gene 1 2 5 -6.07465 0 2 -6.07465 1
gene 1 3 5 3.63282 0 3 3.63282 1
gene 2 4 5 6.45246 0 4 6.45246 1
gene 1 1 6 -5.17301 0 5 -5.17301 1
gene 3 2 6 0.0545383 0 6 0.0545383 1
gene 1 3 6 1.81951 0 7 1.81951 1
gene 3 4 6 -7.7957 0 8 -7.7957 1
genomeend 13

/* Organism #14 Fitness: 39 Error: 0 */
genomestart 14
trait 1 0.1 0 0 0 0 0 0 0 
trait 2 0.2 0 0 0 0 0 0 0 
trait 3 1 0 0 0 0 0 0.78253 0.620821 
node 1 3 1 3
node 2 3 1 1
node 3 3 1 1
node 4 1 1 1
node 5 1 0 2
node 6 1 0 2
gene 1 1 5 3.94911 0 1 3.94911 1
gene 1 2 5 -7.17161 0 2 -7.17161 1
gene 3 3 5 4.42853 0 3 4.42853 1
gene 2 4 5 6.85591 0 4 6.85591 1
gene 1 1 6 -5.43698 0 5 -5.43698 1
gene 3 2 6 0.830873 0 6 0.830873 1
gene 1 3 6 1.37143 0 7 1.37143 1
gene 3 4 6 -8 0 8 -8 1
genomeend 14

/* Species #249 : (Size 3) (AF 37) (Age 6)  */


/* Organism #15 Fitness: 0 Error: 0 */
genomestart 15
trait 1 0.1 0 0 0 0.404112 0 0 0.494138 
trait 2 0.222579 0 0.10859 0.379901 0.00635746 0 0.21486 0 
trait 3 0.3 0 0 0 0 0 0 0 
node 1 1 1 3
node 2 2 1 1
node 3 1 1 1
node 4 2 1 1
node 5 1 0 2
node 6 3 0 2
gene 2 1 5 1.26137 0 1 1.26137 1
gene 3 2 5 0.891315 0 2 0.891315 1
gene 3 3 5 -4.28924 0 3 -4.28924 1
gene 1 4 5 2.73248 0 4 2.73248 1
gene 2 1 6 0.0290362 0 5 0.0290362 1
gene 3 2 6 2.76026 0 6 2.76026 1
gene 3 3 6 -5.37522 0 7 -5.37522 1
gene 2 4 6 8 0 8 8 1
gene 1 6 5 4.7437 0 29 4.7437 1
genomeend 15

/* Organism #16 Fitness: 38 Error: 0 */
genomestart 16
trait 1 0.1 0 0.183913 0 0.404112 0 0 0.747069 
trait 2 0.222579 0 0.10859 0.379901 0.00635746 0 0.21486 0 
trait 3 0.3 0 0 0 0 0 0 0 
node 1 1 1 3
node 2 2 1 1
node 3 1 1 1
node 4 2 1 1
node 5 1 0 2
node 6 3 0 2
gene 2 1 5 3.90611 0 1 3.90611 1
gene 3 2 5 -0.71247 0 2 -0.71247 1
gene 3 3 5 -2.14991 0 3 -2.14991 1
gene 1 4 5 4.64761 0 4 4.64761 1
gene 2 1 6 -1.68571 0 5 -1.68571 1
gene 3 2 6 1.08657 0 6 1.08657 1
gene 3 3 6 -2.53262 0 7 -2.53262 1
gene 2 4 6 7.78434 0 8 7.78434 1
gene 1 6 5 0.466183 0 29 0.466183 1
genomeend 16

/* Organism #17 Fitness: 73 Error: 0 */
genomestart 17
trait 1 0.1 0 0 0 0.404112 0 0 0.494138 
trait 2 0.222579 0 0.10859 0.379901 0.00635746 0 0.21486 0 
trait 3 0.3 0 0 0 0 0 0 0 
node 1 1 1 3
node 2 2 1 1
node 3 1 1 1
node 4 2 1 1
node 5 1 0 2
node 6 3 0 2
gene 2 1 5 1.80734 0 1 1.80734 1
gene 3 2 5 -0.26475 0 2 -0.26475 1
gene 3 3 5 -1.90801 0 3 -1.90801 1
gene 1 4 5 2.69907 0 4 2.69907 1
gene 2 1 6 -1.68571 0 5 -1.68571 1
gene 3 2 6 0.279433 0 6 0.279433 1
gene 3 3 6 -3.38938 0 7 -3.38938 1
gene 2 4 6 7.78434 0 8 7.78434 1
gene 1 6 5 2.49423 0 29 2.49423 1
genomeend 17

/* Species #254 : (Size 1) (AF 38) (Age 6)  */


/* Organism #18 Fitness: 38 Error: 0 */
genomestart 18
trait 1 0.1 0 0 0 0.404112 0 0 0.494138 
trait 2 0.2 0 0 0 0 0 0 0 
trait 3 0.3 0 0 0 0 0 0 0 
node 1 1 1 3
node 2 2 1 1
node 3 1 1 1
node 4 2 1 1
node 5 1 0 2
node 6 3 0 2
gene 2 1 5 0.323753 0 1 0.323753 1
gene 3 2 5 -3.01159 0 2 -3.01159 1
gene 3 3 5 -1.06649 0 3 -1.06649 1
gene 1 4 5 -5.41819 0 4 -5.41819 1
gene 2 1 6 -1.40295 0 5 -1.40295 1
gene 3 2 6 2.49183 0 6 2.49183 1
gene 3 3 6 0.141406 0 7 0.141406 1
gene 2 4 6 -2.16958 0 8 -2.16958 1
gene 1 5 6 -0.720109 0 57 -0.720109 1
genomeend 18

/* Species #258 : (Size 3) (AF 25) (Age 6)  */


/* Organism #19 Fitness: 0 Error: 0 */
genomestart 19
trait 1 0.1 0 0 0 0 0 0 0 
trait 2 0.2 0 0 0 0 0 0 0 
trait 3 0.3 0 0 0 0 0 0 0 
node 1 3 1 3
node 2 1 1 1
node 3 3 1 1
node 4 1 1 1
node 5 3 0 2
node 6 3 0 2
gene 3 1 5 1.77804 0 1 1.77804 1
gene 3 2 5 -4.06029 0 2 -4.06029 1
gene 1 3 5 2.57575 0 3 2.57575 1
gene 2 4 5 -1.54061 0 4 -1.54061 1
gene 3 1 6 -1.5675 0 5 -1.5675 1
gene 2 2 6 4.19533 0 6 4.19533 1
gene 1 3 6 -2.11924 0 7 -2.11924 1
gene 1 4 6 2.9804 0 8 2.9804 1
gene 1 6 5 0.104575 0 21 0.104575 1
gene 2 5 5 -0.259685 1 72 -0.259685 1
genomeend 19

/* Organism #20 Fitness: 37 Error: 0 */
genomestart 20
trait 1 0.1 0 0 0 0 0 0 0 
trait 2 0.2 0 0 0 0 0 0 0 
trait 3 0.3 0 0 0 0 0 0 0 
node 1 3 1 3
node 2 1 1 1
node 3 3 1 1
node 4 1 1 1
node 5 3 0 2
node 6 3 0 2
gene 3 1 5 3.13748 0 1 3.13748 1
gene 3 2 5 -7.97121 0 2 -7.97121 1
gene 1 3 5 0.239494 0 3 0.239494 1
gene 2 4 5 -1.52489 0 4 -1.52489 1
gene 3 1 6 -2.72801 0 5 -2.72801 1
gene 2 2 6 5.77916 0 6 5.77916 1
gene 1 3 6 -2.87345 0 7 -2.87345 1
gene 1 4 6 0.34558 0 8 0.34558 1
gene 1 6 5 -0.71364 0 21 -0.71364 1
gene 2 5 5 -2.12393 1 72 -2.12393 1
genomeend 20

/* Organism #21 Fitness: 38 Error: 0 */
genomestart 21
trait 1 0.1 0 0 0 0 0 0 0 
trait 2 0.2 0 0 0 0 0 0 0 
trait 3 0.3 0 0 0 0 0 0 0 
node 1 3 1 3
node 2 1 1 1
node 3 3 1 1
node 4 1 1 1
node 5 3 0 2
node 6 3 0 2
gene 3 1 5 0.69509 0 1 0.69509 1
gene 3 2 5 -5.66907 0 2 -5.66907 1
gene 1 3 5 -0.148003 0 3 -0.148003 1
gene 2 4 5 0.43 0 4 0.43 1
gene 3 1 6 -3.68143 0 5 -3.68143 1
gene 2 2 6 6.98351 0 6 6.98351 1
gene 1 3 6 -2.06845 0 7 -2.06845 1
gene 1 4 6 1.99196 0 8 1.99196 1
gene 1 6 5 3.45292 0 21 3.45292 1
gene 2 5 5 -1.51591 1 72 -1.51591 1
genomeend 21

/* Species #268 : (Size 2) (AF 38.5) (Age 5)  */


/* Organism #22 Fitness: 38 Error: 0 */
genomestart 22
trait 1 0.1 0 0 0 0.202056 0 0 0.247069 
trait 2 0.21129 0 0.0542948 0.189951 0.00317873 0 0.10743 0 
trait 3 0.31865 0 0 0.56556 0 0.451666 0.0813476 0.372491 
node 1 3 1 3
node 2 3 1 1
node 3 2 1 1
node 4 1 1 1
node 5 1 0 2
node 6 3 0 2
gene 3 1 5 6.91905 0 1 6.91905 1
gene 3 2 5 -4.89205 0 2 -4.89205 1
gene 3 3 5 -0.171094 0 3 -0.171094 1
gene 2 4 5 1.79068 0 4 1.79068 1
gene 2 1 6 -2.33436 0 5 -2.33436 1
gene 3 2 6 1.95687 0 6 1.95687 1
gene 2 3 6 3.00835 0 7 3.00835 1
gene 3 4 6 4.38904 0 8 4.38904 1
gene 2 6 5 2.36806 0 59 2.36806 1
genomeend 22

/* Organism #23 Fitness: 39 Error: 0 */
genomestart 23
trait 1 0.1 0 0 0 0.202056 0 0 0.247069 
trait 2 0.21129 0 0.0542948 0.189951 0.00317873 0 0.10743 0 
trait 3 0.31865 0 0 0.56556 0 0.451666 0.0813476 0.372491 
node 1 3 1 3
node 2 3 1 1
node 3 2 1 1
node 4 1 1 1
node 5 1 0 2
node 6 3 0 2
gene 3 1 5 6.30842 0 1 6.30842 1
gene 3 2 5 -7.66222 0 2 -7.66222 1
gene 3 3 5 -3.65139 0 3 -3.65139 1
gene 2 4 5 1.90812 0 4 1.90812 1
gene 2 1 6 -1.55729 0 5 -1.55729 1
gene 3 2 6 -2.3512 0 6 -2.3512 1
gene 2 3 6 4.41721 0 7 4.41721 1
gene 3 4 6 2.09106 0 8 2.09106 1
gene 2 6 5 0.721866 0 59 0.721866 1
genomeend 23

/* Species #278 : (Size 1) (AF 0) (Age 5)  */


/* Organism #24 Fitness: 0 Error: 0 */
genomestart 24
trait 1 0.1 0 0.460439 0 0.206529 0 0 0.247069 
trait 2 0.222579 0 0.10859 0.379901 0.00635746 0 0.21486 0 
trait 3 0.3 0 0.761578 0 0 0 0 0 
node 1 1 1 3
node 2 2 1 1
node 3 1 1 1
node 4 2 1 1
node 5 1 0 2
node 6 3 0 2
gene 2 1 5 -0.432784 0 1 -0.432784 1
gene 3 2 5 -3.42316 0 2 -3.42316 1
gene 3 3 5 -0.175403 0 3 -0.175403 1
gene 1 4 5 -4.03005 0 4 -4.03005 1
gene 2 1 6 -4.63681 0 5 -4.63681 1
gene 3 2 6 2.04361 0 6 2.04361 1
gene 3 3 6 -5.16783 0 7 -5.16783 1
gene 2 4 6 -3.9638 0 8 -3.9638 1
gene 1 6 5 -2.70035 0 29 -2.70035 1
genomeend 24

/* Species #326 : (Size 3) (AF 25.3333) (Age 3)  */


/* Organism #25 Fitness: 0 Error: 0 */
genomestart 25
trait 1 0.1 0 0 0 0 0 0 0 
trait 2 0.2 0 0 0 0 0 0 0 
trait 3 1 0 0 0 0 0.636782 0 0 
node 1 3 1 3
node 2 3 1 1
node 3 3 1 1
node 4 1 1 1
node 5 3 0 2
node 6 3 0 2
gene 3 1 5 2.60295 0 1 2.60295 1
gene 1 2 5 -4.14652 0 2 -4.14652 1
gene 3 3 5 -2.17973 0 3 -2.17973 1
gene 2 4 5 5.61696 0 4 5.61696 1
gene 1 1 6 -3.93507 0 5 -3.93507 1
gene 3 2 6 -0.199922 0 6 -0.199922 1
gene 1 3 6 1.02193 0 7 1.02193 1
gene 3 4 6 -2.14841 0 8 -2.14841 1
genomeend 25

/* Organism #26 Fitness: 38 Error: 0 */
genomestart 26
trait 1 0.1 0 0 0 0 0 0 0 
trait 2 0.2 0 0 0 0 0 0 0 
trait 3 1 0 0 0 0 0.636782 0 0 
node 1 3 1 3
node 2 3 1 1
node 3 3 1 1
node 4 1 1 1
node 5 3 0 2
node 6 3 0 2
gene 3 1 5 2.10145 0 1 2.10145 1
gene 1 2 5 -4.8005 0 2 -4.8005 1
gene 3 3 5 -2.07333 0 3 -2.07333 1
gene 2 4 5 3.20779 0 4 3.20779 1
gene 1 1 6 -6.48423 0 5 -6.48423 1
gene 3 2 6 0.0521007 0 6 0.0521007 1
gene 1 3 6 0.97408 0 7 0.97408 1
gene 3 4 6 -4.80211 0 8 -4.80211 1
genomeend 26

/* Organism #27 Fitness: 38 Error: 0 */
genomestart 27
trait 1 0.1 0 0 0 0 0 0 0 
trait 2 0.2 0 0 0 0 0 0 0 
trait 3 1 0 0 0 0 0.636782 0 0 
node 1 3 1 3
node 2 3 1 1
node 3 3 1 1
node 4 1 1 1
node 5 3 0 2
node 6 3 0 2
gene 3 1 5 0.0522573 0 1 0.0522573 1
gene 1 2 5 -5.67666 0 2 -5.67666 1
gene 3 3 5 0.370706 0 3 0.370706 1
gene 2 4 5 1.49261 0 4 1.49261 1
gene 1 1 6 -4.30416 0 5 -4.30416 1
gene 3 2 6 1.74808 0 6 1.74808 1
gene 3 3 6 2.65913 0 7 2.65913 1
gene 3 4 6 -3.27477 0 8 -3.27477 1
genomeend 27

/* Species #327 : (Size 4) (AF 29) (Age 3)  */


/* Organism #28 Fitness: 0 Error: 0 */
genomestart 28
trait 1 0.1 0 0 0 0 0 0 0 
trait 2 0.2 0 0 0 0 0 0 0 
trait 3 1 0 0 0 0 0.636782 0 0 
node 1 3 1 3
node 2 3 1 1
node 3 3 1 1
node 4 1 1 1
node 5 3 0 2
node 6 3 0 2
gene 3 1 5 1.3932 0 1 1.3932 1
gene 1 2 5 -6.13318 0 2 -6.13318 1
gene 3 3 5 6.37489 0 3 6.37489 1
gene 2 4 5 1.00391 0 4 1.00391 1
gene 1 1 6 -8 0 5 -8 1
gene 3 2 6 -0.367652 0 6 -0.367652 1
gene 1 3 6 1.39551 0 7 1.39551 1
gene 3 4 6 -2.63303 0 8 -2.63303 1
gene 2 5 6 -0.404418 0 75 -0.404418 1
genomeend 28

/* Organism #29 Fitness: 39 Error: 0 */
genomestart 29
trait 1 0.1 0 0 0 0 0 0 0 
trait 2 0.2 0 0 0 0 0 0 0 
trait 3 1 0 0 0 0 0.636782 0 0 
node 1 3 1 3
node 2 3 1 1
node 3 3 1 1
node 4 1 1 1
node 5 3 0 2
node 6 3 0 2
gene 3 1 5 2.51684 0 1 2.51684 1
gene 1 2 5 -4.21601 0 2 -4.21601 1
gene 3 3 5 6.24425 0 3 6.24425 1
gene 2 4 5 -0.384436 0 4 -0.384436 1
gene 1 1 6 -8 0 5 -8 1
gene 3 2 6 1.84941 0 6 1.84941 1
gene 1 3 6 2.32039 0 7 2.32039 1
gene 3 4 6 -2.5619 0 8 -2.5619 1
genomeend 29

/* Organism #30 Fitness: 38 Error: 0 */
genomestart 30
trait 1 0.1 0 0 0 0 0 0 0 
trait 2 0.2 0 0 0 0 0 0 0 
trait 3 1 0 0 0 0 0.636782 0 0 
node 1 3 1 3
node 2 3 1 1
node 3 3 1 1
node 4 1 1 1
node 5 3 0 2
node 6 3 0 2
gene 3 1 5 1.3932 0 1 1.3932 1
gene 1 2 5 -6.13318 0 2 -6.13318 1
gene 3 3 5 6.37489 0 3 6.37489 1
gene 2 4 5 1.00391 0 4 1.00391 1
gene 1 1 6 -8 0 5 -8 1
gene 3 2 6 -0.367652 0 6 -0.367652 1
gene 1 3 6 1.39551 0 7 1.39551 1
gene 3 4 6 -2.63303 0 8 -2.63303 1
genomeend 30

/* Organism #31 Fitness: 39 Error: 0 */
genomestart 31
trait 1 0.1 0 0 0 0 0 0 0 
trait 2 0.2 0 0 0 0 0 0 0 
trait 3 1 0 0 0 0 0.636782 0 0 
node 1 3 1 3
node 2 3 1 1
node 3 3 1 1
node 4 1 1 1
node 5 3 0 2
node 6 3 0 2
gene 3 1 5 1.3932 0 1 1.3932 1
gene 1 2 5 -6.13318 0 2 -6.13318 1
gene 3 3 5 6.37489 0 3 6.37489 1
gene 2 4 5 1.00391 0 4 1.00391 1
gene 1 1 6 -8 0 5 -8 1
gene 3 2 6 -0.367652 0 6 -0.367652 1
gene 1 3 6 1.39551 0 7 1.39551 1
gene 3 4 6 -2.63303 0 8 -2.63303 1
genomeend 31

/* Species #329 : (Size 1) (AF 0) (Age 3)  */


/* Organism #32 Fitness: 0 Error: 0 */
genomestart 32
trait 1 0.1 0 0 0 0.202056 0 0 0.247069 
trait 2 0.21129 0 0.0542948 0.189951 0.00317873 0 0.10743 0 
trait 3 0.31865 0 0 0.56556 0 0.451666 0.0813476 0.372491 
node 1 3 1 3
node 2 3 1 1
node 3 2 1 1
node 4 1 1 1
node 5 1 0 2
node 6 3 0 2
gene 3 1 5 6.00962 0 1 6.00962 1
gene 3 2 5 -8 0 2 -8 1
gene 3 3 5 -2.70892 0 3 -2.70892 1
gene 2 4 5 4.33429 0 4 4.33429 1
gene 2 1 6 -0.14453 0 5 -0.14453 1
gene 3 2 6 -0.846504 0 6 -0.846504 1
gene 2 3 6 0.687714 0 7 0.687714 1
gene 3 4 6 6.69127 0 8 6.69127 1
gene 2 6 5 -1.86051 0 59 -1.86051 1
genomeend 32

/* Species #331 : (Size 4) (AF 24.5) (Age 2)  */


/* Organism #33 Fitness: 0 Error: 0 */
genomestart 33
trait 1 0.1 0 0 0 0 0 0 0 
trait 2 0.2 0 0 0 0 0 0 0 
trait 3 0.3 0 0 0 0 0 0 0 
node 1 3 1 3
node 2 3 1 1
node 3 3 1 1
node 4 1 1 1
node 5 3 0 2
node 6 3 0 2
gene 1 1 5 3.01149 0 1 3.01149 1
gene 1 2 5 -7.67234 0 2 -7.67234 1
gene 3 3 5 7.44202 0 3 7.44202 1
gene 2 4 5 -1.31058 0 4 -1.31058 1
gene 1 1 6 -5.68306 0 5 -5.68306 1
gene 3 2 6 4.35334 0 6 4.35334 1
gene 1 3 6 -7.36131 0 7 -7.36131 1
gene 3 4 6 -7.50735 0 8 -7.50735 1
gene 3 6 5 -3.31216 0 44 -3.31216 1
gene 1 5 5 -1.12618 1 64 -1.12618 1
genomeend 33

/* Organism #34 Fitness: 38 Error: 0 */
genomestart 34
trait 1 0.1 0 0 0 0 0 0 0 
trait 2 0.2 0 0 0 0 0 0 0 
trait 3 0.3 0 0 0 0 0 0 0 
node 1 3 1 3
node 2 3 1 1
node 3 3 1 1
node 4 1 1 1
node 5 3 0 2
node 6 3 0 2
gene 1 1 5 2.77464 0 1 2.77464 1
gene 1 2 5 -3.23503 0 2 -3.23503 1
gene 3 3 5 4.83292 0 3 4.83292 1
gene 2 4 5 -0.302881 0 4 -0.302881 1
gene 1 1 6 -4.43104 0 5 -4.43104 1
gene 3 2 6 5.46459 0 6 5.46459 1
gene 1 3 6 -7.93201 0 7 -7.93201 1
gene 3 4 6 -8 0 8 -8 1
gene 3 6 5 -3.39158 0 44 -3.39158 1
gene 1 5 5 3.56316 1 64 3.56316 1
genomeend 34

/* Organism #35 Fitness: 36 Error: 0 */
genomestart 35
trait 1 0.1 0 0 0 0 0 0 0 
trait 2 0.2 0 0 0 0 0 0 0 
trait 3 0.3 0 0 0 0 0 0 0 
node 1 3 1 3
node 2 3 1 1
node 3 3 1 1
node 4 1 1 1
node 5 3 0 2
node 6 3 0 2
gene 1 1 5 5.65076 0 1 5.65076 1
gene 1 2 5 -6.5273 0 2 -6.5273 1
gene 3 3 5 5.37326 0 3 5.37326 1
gene 2 4 5 -0.43377 0 4 -0.43377 1
gene 1 1 6 -3.12205 0 5 -3.12205 1
gene 3 2 6 5.56854 0 6 5.56854 1
gene 1 3 6 -4.57815 0 7 -4.57815 1
gene 3 4 6 -6.57714 0 8 -6.57714 1
gene 3 6 5 0.245135 0 44 0.245135 1
gene 1 5 5 3.64063 1 64 3.64063 1
genomeend 35

/* Organism #36 Fitness: 24 Error: 0 */
genomestart 36
trait 1 0.1 0 0 0 0 0 0 0 
trait 2 0.2 0 0 0 0 0 0 0 
trait 3 0.3 0 0 0 0 0 0 0 
node 1 3 1 3
node 2 3 1 1
node 3 3 1 1
node 4 1 1 1
node 5 3 0 2
node 6 3 0 2
gene 2 1 5 5.95936 0 1 5.95936 1
gene 1 2 5 -4.3357 0 2 -4.3357 1
gene 3 3 5 5.64719 0 3 5.64719 1
gene 2 4 5 -1.02587 0 4 -1.02587 1
gene 1 1 6 -5.17358 0 5 -5.17358 1
gene 3 2 6 6.26736 0 6 6.26736 1
gene 1 3 6 -6.4941 0 7 -6.4941 1
gene 3 4 6 -8 0 8 -8 1
gene 3 6 5 -2.27146 0 44 -2.27146 1
gene 1 5 5 1.21488 1 64 1.21488 1
genomeend 36

/* Species #335 : (Size 2) (AF 19.5) (Age 2)  */


/* Organism #37 Fitness: 0 Error: 0 */
genomestart 37
trait 1 0.1 0 0 0 0 0 0 0 
trait 2 0.2 0 0 0 0 0 0 0 
trait 3 0.3 0 0 0 0 0 0 0 
node 1 3 1 3
node 2 3 1 1
node 3 2 1 1
node 4 2 1 1
node 5 3 0 2
node 6 3 0 2
gene 1 1 5 0.29977 0 1 0.29977 1
gene 1 2 5 -3.96554 0 2 -3.96554 1
gene 3 3 5 0.527517 0 3 0.527517 1
gene 2 4 5 4.0856 0 4 4.0856 1
gene 1 1 6 -0.936769 0 5 -0.936769 1
gene 3 2 6 2.89929 0 6 2.89929 1
gene 1 3 6 -7.13503 0 7 -7.13503 1
gene 3 4 6 3.89925 0 8 3.89925 1
gene 3 6 5 1.36443 0 44 1.36443 1
genomeend 37

/* Organism #38 Fitness: 39 Error: 0 */
genomestart 38
trait 1 0.1 0 0 0 0 0 0 0 
trait 2 0.2 0 0 0 0 0 0 0 
trait 3 0.3 0 0 0 0 0 0 0 
node 1 3 1 3
node 2 3 1 1
node 3 2 1 1
node 4 2 1 1
node 5 3 0 2
node 6 3 0 2
gene 1 1 5 1.27257 0 1 1.27257 1
gene 1 2 5 -2.96566 0 2 -2.96566 1
gene 3 3 5 0.324316 0 3 0.324316 1
gene 2 4 5 1.61839 0 4 1.61839 1
gene 1 1 6 -1.39936 0 5 -1.39936 1
gene 3 2 6 1.87693 0 6 1.87693 1
gene 1 3 6 -4.74306 0 7 -4.74306 1
gene 3 4 6 -0.285834 0 8 -0.285834 1
gene 1 6 5 1.59072 0 44 1.59072 1
genomeend 38

/* Species #337 : (Size 1) (AF 0) (Age 2)  */


/* Organism #39 Fitness: 0 Error: 0 */
genomestart 39
trait 1 0.1 0 0 0 0 0 0 0 
trait 2 0.2 0 0 0 0 0 0 0 
trait 3 1 0 0 0 0 0.636782 0 0 
node 1 3 1 3
node 2 3 1 1
node 3 3 1 1
node 4 1 1 1
node 5 3 0 2
node 6 3 0 2
gene 3 1 5 -2.44419 0 1 -2.44419 1
gene 1 2 5 -8 0 2 -8 1
gene 3 3 5 -2.22795 0 3 -2.22795 1
gene 2 4 5 2.92678 0 4 2.92678 1
gene 1 1 6 -4.77791 0 5 -4.77791 1
gene 3 2 6 1.67208 0 6 1.67208 1
gene 1 3 6 -3.33964 0 7 -3.33964 1
gene 3 4 6 -6.94291 0 8 -6.94291 1
genomeend 39

/* Species #339 : (Size 2) (AF 19) (Age 2)  */


/* Organism #40 Fitness: 0 Error: 0 */
genomestart 40
trait 1 0.1 0 0 0 0.404112 0 0 0.494138 
trait 2 0.2 0 0 0 0 0 0 0 
trait 3 0.3 0 0 0 0 0 0 0 
node 1 1 1 3
node 2 2 1 1
node 3 1 1 1
node 4 2 1 1
node 5 1 0 2
node 6 3 0 2
gene 2 1 5 -1.64375 0 1 -1.64375 1
gene 3 2 5 -0.745173 0 2 -0.745173 1
gene 3 3 5 -1.93509 0 3 -1.93509 1
gene 1 4 5 -2.77851 0 4 -2.77851 1
gene 2 1 6 -6.76287 0 5 -6.76287 1
gene 3 2 6 6.60821 0 6 6.60821 1
gene 3 3 6 0.504458 0 7 0.504458 1
gene 2 4 6 0.214748 0 8 0.214748 1
gene 1 5 6 2.96286 0 57 2.96286 1
genomeend 40

/* Organism #41 Fitness: 38 Error: 0 */
genomestart 41
trait 1 0.1 0 0 0 0.404112 0 0 0.494138 
trait 2 0.2 0 0 0 0 0 0 0 
trait 3 0.3 0 0 0 0 0 0 0 
node 1 1 1 3
node 2 2 1 1
node 3 1 1 1
node 4 2 1 1
node 5 1 0 2
node 6 3 0 2
gene 2 1 5 -1.86147 0 1 -1.86147 1
gene 3 2 5 0.431986 0 2 0.431986 1
gene 3 3 5 -1.93509 0 3 -1.93509 1
gene 1 4 5 -3.30649 0 4 -3.30649 1
gene 2 1 6 -8 0 5 -8 1
gene 3 2 6 6.06226 0 6 6.06226 1
gene 3 3 6 2.47413 0 7 2.47413 1
gene 2 4 6 -0.377669 0 8 -0.377669 1
gene 1 5 6 2.56243 0 57 2.56243 1
genomeend 41

/* Species #345 : (Size 24) (AF 72.9583) (Age 2)  */


/* Organism #42 Fitness: 0 Error: 0 */
genomestart 42
trait 1 0.1 0 0 0 0 0 0 0 
trait 2 0.2 0 0 0.125192 0 0 0 0 
trait 3 0.3 0 0 0 0 0 0 0 
node 1 3 1 3
node 2 3 1 1
node 3 2 1 1
node 4 3 1 1
node 5 3 0 2
node 6 3 0 2
gene 1 1 5 4.63715 0 1 4.63715 1
gene 1 2 5 -4.16984 0 2 -4.16984 1
gene 3 3 5 2.49195 0 3 2.49195 1
gene 2 4 5 -1.62307 0 4 -1.62307 1
gene 1 1 6 2.22747 0 5 2.22747 1
gene 3 2 6 -3.51108 0 6 -3.51108 1
gene 1 3 6 -6.43926 0 7 -6.43926 1
gene 3 4 6 -0.443295 0 8 -0.443295 1
gene 3 6 5 -0.652521 0 44 -0.652521 1
genomeend 42

/* Organism #43 Fitness: 0 Error: 0 */
genomestart 43
trait 1 0.1 0.864268 0 0 0 0 0 0 
trait 2 0.2 0 0 0.125192 0 0 0 0 
trait 3 0.3 0 0 0 0 0 0 0 
node 1 3 1 3
node 2 3 1 1
node 3 2 1 1
node 4 3 1 1
node 5 3 0 2
node 6 3 0 2
gene 1 1 5 2.91134 0 1 2.91134 1
gene 1 2 5 -3.5982 0 2 -3.5982 1
gene 3 3 5 1.58335 0 3 1.58335 1
gene 2 4 5 -3.24186 0 4 -3.24186 1
gene 1 1 6 3.49545 0 5 3.49545 1
gene 3 2 6 -5.79273 0 6 -5.79273 1
gene 1 3 6 -4.4179 0 7 -4.4179 1
gene 3 4 6 1.28932 0 8 1.28932 1
gene 3 6 5 0.655325 0 44 0.655325 1
genomeend 43

/* Organism #44 Fitness: 0 Error: 0 */
genomestart 44
trait 1 0.1 0 0 0 0 0 0 0 
trait 2 0.2 0 0 0.125192 0 0 0 0 
trait 3 0.3 0 0 0 0 0 0 0 
node 1 3 1 3
node 2 3 1 1
node 3 2 1 1
node 4 3 1 1
node 5 3 0 2
node 6 3 0 2
gene 1 1 5 4.5623 0 1 4.5623 1
gene 1 2 5 -3.76702 0 2 -3.76702 1
gene 3 3 5 1.52951 0 3 1.52951 1
gene 2 4 5 -0.309373 0 4 -0.309373 1
gene 1 1 6 4.70986 0 5 4.70986 1
gene 3 2 6 -4.10496 0 6 -4.10496 1
gene 1 3 6 -4.30739 0 7 -4.30739 1
gene 3 4 6 1.0236 0 8 1.0236 1
gene 3 6 5 0.53698 0 44 0.53698 1
genomeend 44

/* Organism #45 Fitness: 0 Error: 0 */
genomestart 45
trait 1 0.1 0 0 0 0 0 0 0 
trait 2 0.2 0 0 0.125192 0 0 0 0 
trait 3 0.3 0 0 0 0 0 0 0 
node 1 3 1 3
node 2 3 1 1
node 3 2 1 1
node 4 3 1 1
node 5 3 0 2
node 6 3 0 2
gene 1 1 5 3.37581 0 1 3.37581 1
gene 1 2 5 -2.79476 0 2 -2.79476 1
gene 3 3 5 4.032 0 3 4.032 1
gene 2 4 5 0.454734 0 4 0.454734 1
gene 1 1 6 3.09581 0 5 3.09581 1
gene 3 2 6 -3.76718 0 6 -3.76718 1
gene 1 3 6 -4.26278 0 7 -4.26278 1
gene 3 4 6 0.893996 0 8 0.893996 1
gene 3 6 5 -3.10633 0 44 -3.10633 1
genomeend 45

/* Organism #46 Fitness: 35 Error: 0 */
genomestart 46
trait 1 0.1 0 0 0 0 0 0 0 
trait 2 0.2 0 0 0.125192 0 0 0 0 
trait 3 0.3 0 0 0 0 0 0 0 
node 1 3 1 3
node 2 3 1 1
node 3 2 1 1
node 4 3 1 1
node 5 3 0 2
node 6 3 0 2
gene 1 1 5 5.19891 0 1 5.19891 1
gene 1 2 5 -3.33389 0 2 -3.33389 1
gene 3 3 5 3.11861 0 3 3.11861 1
gene 2 4 5 -0.453763 0 4 -0.453763 1
gene 1 1 6 0.606063 0 5 0.606063 1
gene 3 2 6 -2.75332 0 6 -2.75332 1
gene 1 3 6 -5.14216 0 7 -5.14216 1
gene 3 4 6 -0.819614 0 8 -0.819614 1
gene 3 6 5 -0.101187 0 44 -0.101187 1
genomeend 46

/* Organism #47 Fitness: 39 Error: 0 */
genomestart 47
trait 1 0.1 0 0 0 0 0 0 0 
trait 2 0.2 0 0 0.125192 0 0 0 0 
trait 3 0.3 0 0 0 0 0 0 0 
node 1 3 1 3
node 2 3 1 1
node 3 2 1 1
node 4 3 1 1
node 5 3 0 2
node 6 3 0 2
gene 1 1 5 5.08304 0 1 5.08304 1
gene 1 2 5 -5.87094 0 2 -5.87094 1
gene 3 3 5 2.99044 0 3 2.99044 1
gene 2 4 5 -1.38056 0 4 -1.38056 1
gene 1 1 6 2.76833 0 5 2.76833 1
gene 3 2 6 -2.61136 0 6 -2.61136 1
gene 1 3 6 -8 0 7 -8 1
gene 3 4 6 -0.923818 0 8 -0.923818 1
gene 3 6 5 -3.04679 0 44 -3.04679 1
genomeend 47

/* Organism #48 Fitness: 327 Error: 0 */
genomestart 48
trait 1 0.1 0 0 0 0 0 0 0 
trait 2 0.2 0 0 0.125192 0 0 0 0 
trait 3 0.3 0 0 0 0 0 0 0 
node 1 3 1 3
node 2 3 1 1
node 3 2 1 1
node 4 3 1 1
node 5 3 0 2
node 6 3 0 2
gene 1 1 5 4.63715 0 1 4.63715 1
gene 1 2 5 -4.16984 0 2 -4.16984 1
gene 3 3 5 2.49195 0 3 2.49195 1
gene 2 4 5 -1.62307 0 4 -1.62307 1
gene 1 1 6 2.22747 0 5 2.22747 1
gene 3 2 6 -3.51108 0 6 -3.51108 1
gene 1 3 6 -6.43926 0 7 -6.43926 1
gene 3 4 6 -0.443295 0 8 -0.443295 1
gene 3 6 5 -0.652521 0 44 -0.652521 1
genomeend 48

/* Organism #49 Fitness: 0 Error: 0 */
genomestart 49
trait 1 0.1 0 0 0 0 0 0 0 
trait 2 0.2 0 0 0.125192 0 0 0 0 
trait 3 0.3 0 0 0 0 0 0 0 
node 1 3 1 3
node 2 3 1 1
node 3 2 1 1
node 4 3 1 1
node 5 3 0 2
node 6 3 0 2
gene 1 1 5 4.63715 0 1 4.63715 1
gene 1 2 5 -1.12882 0 2 -1.12882 1
gene 3 3 5 2.49195 0 3 2.49195 1
gene 2 4 5 -1.62307 0 4 -1.62307 1
gene 1 1 6 2.22747 0 5 2.22747 1
gene 3 2 6 -5.81568 0 6 -5.81568 1
gene 1 3 6 -8 0 7 -8 1
gene 3 4 6 -0.42738 0 8 -0.42738 1
gene 3 6 5 0.406499 0 44 0.406499 1
genomeend 49

/* Organism #50 Fitness: 0 Error: 0 */
genomestart 50
trait 1 0.1 0 0 0 0 0 0 0 
trait 2 0.2 0 0 0.125192 0 0 0 0 
trait 3 0.3 0 0 0 0 0 0 0 
node 1 3 1 3
node 2 3 1 1
node 3 2 1 1
node 4 3 1 1
node 5 3 0 2
node 6 2 0 2
gene 1 1 5 2.37451 0 1 2.37451 1
gene 1 2 5 0.587496 0 2 0.587496 1
gene 3 3 5 3.05527 0 3 3.05527 1
gene 2 4 5 -3.21757 0 4 -3.21757 1
gene 1 1 6 0.923162 0 5 0.923162 1
gene 3 2 6 -3.94406 0 6 -3.94406 1
gene 1 3 6 -7.70247 0 7 -7.70247 1
gene 3 4 6 -0.443295 0 8 -0.443295 1
gene 3 6 5 -0.685128 0 44 -0.685128 1
genomeend 50

/* Organism #51 Fitness: 339 Error: 0 */
genomestart 51
trait 1 0.1 0 0 0 0 0 0 0 
trait 2 0.2 0 0 0.125192 0 0 0 0 
trait 3 0.35371 0 0 0 0 0 0.77062 0 
node 1 3 1 3
node 2 3 1 1
node 3 2 1 1
node 4 3 1 1
node 5 3 0 2
node 6 3 0 2
gene 1 1 5 4.63715 0 1 4.63715 1
gene 1 2 5 -4.16984 0 2 -4.16984 1
gene 3 3 5 2.49195 0 3 2.49195 1
gene 2 4 5 -1.62307 0 4 -1.62307 1
gene 1 1 6 2.22747 0 5 2.22747 1
gene 3 2 6 -3.51108 0 6 -3.51108 1
gene 1 3 6 -6.43926 0 7 -6.43926 1
gene 3 4 6 -0.443295 0 8 -0.443295 1
gene 3 6 5 -0.652521 0 44 -0.652521 1
genomeend 51

/* Organism #52 Fitness: 38 Error: 0 */
genomestart 52
trait 1 0.1 0 0 0 0 0 0 0 
trait 2 0.2 0 0 0.125192 0 0 0 0 
trait 3 0.3 0 0 0 0 0 0 0 
node 1 3 1 3
node 2 3 1 1
node 3 2 1 1
node 4 3 1 1
node 5 3 0 2
node 6 3 0 2
gene 1 1 5 6.2371 0 1 6.2371 1
gene 1 2 5 -5.98026 0 2 -5.98026 1
gene 3 3 5 0.379425 0 3 0.379425 1
gene 2 4 5 -2.62435 0 4 -2.62435 1
gene 1 1 6 0.404914 0 5 0.404914 1
gene 3 2 6 -4.41585 0 6 -4.41585 1
gene 1 3 6 -5.26151 0 7 -5.26151 1
gene 3 4 6 -2.03906 0 8 -2.03906 1
gene 3 6 5 -1.62084 0 44 -1.62084 1
genomeend 52

/* Organism #53 Fitness: 0 Error: 0 */
genomestart 53
trait 1 0.1 0 0 0 0 0 0 0 
trait 2 0.2 0 0.175501 0.125192 0 0 0 0.788197 
trait 3 0.3 0 0 0 0 0 0 0 
node 1 3 1 3
node 2 3 1 1
node 3 2 1 1
node 4 3 1 1
node 5 3 0 2
node 6 3 0 2
gene 1 1 5 3.44843 0 1 3.44843 1
gene 1 2 5 -5.90661 0 2 -5.90661 1
gene 3 3 5 0.30882 0 3 0.30882 1
gene 2 4 5 0.797572 0 4 0.797572 1
gene 1 1 6 3.77492 0 5 3.77492 1
gene 3 2 6 -2.32265 0 6 -2.32265 1
gene 1 3 6 -6.81329 0 7 -6.81329 1
gene 3 4 6 0.147296 0 8 0.147296 1
gene 3 6 5 0.540582 0 44 0.540582 1
genomeend 53

/* Organism #54 Fitness: 166 Error: 0 */
genomestart 54
trait 1 0.1 0 0 0 0 0 0 0 
trait 2 0.2 0 0 0.125192 0 0 0 0 
trait 3 0.3 0 0 0 0 0 0 0 
node 1 3 1 3
node 2 3 1 1
node 3 2 1 1
node 4 3 1 1
node 5 3 0 2
node 6 3 0 2
gene 1 1 5 6.75275 0 1 6.75275 1
gene 1 2 5 -2.21795 0 2 -2.21795 1
gene 3 3 5 1.34082 0 3 1.34082 1
gene 2 4 5 -0.286934 0 4 -0.286934 1
gene 1 1 6 2.69062 0 5 2.69062 1
gene 3 2 6 -1.56799 0 6 -1.56799 1
gene 1 3 6 -7.32977 0 7 -7.32977 1
gene 3 4 6 0.805531 0 8 0.805531 1
gene 3 6 5 -2.75871 0 44 -2.75871 1
genomeend 54

/* Organism #55 Fitness: 38 Error: 0 */
genomestart 55
trait 1 0.1 0 0 0 0 0 0 0 
trait 2 0.2 0 0 0.125192 0 0 0 0 
trait 3 0.3 0 0 0 0 0 0 0 
node 1 3 1 3
node 2 3 1 1
node 3 2 1 1
node 4 3 1 1
node 5 3 0 2
node 6 3 0 2
gene 1 1 5 2.38561 0 1 2.38561 1
gene 1 2 5 -6.61212 0 2 -6.61212 1
gene 3 3 5 4.8695 0 3 4.8695 1
gene 2 4 5 0.641034 0 4 0.641034 1
gene 1 1 6 2.22747 0 5 2.22747 1
gene 3 2 6 -3.60238 0 6 -3.60238 1
gene 1 3 6 -6.43926 0 7 -6.43926 1
gene 3 4 6 0.442781 0 8 0.442781 1
gene 3 6 5 0.386081 0 44 0.386081 1
genomeend 55

/* Organism #56 Fitness: 326 Error: 0 */
genomestart 56
trait 1 0.1 0 0 0 0 0 0 0 
trait 2 0.2 0 0 0.125192 0 0 0 0 
trait 3 0.3 0 0 0 0 0 0 0 
node 1 3 1 3
node 2 3 1 1
node 3 2 1 1
node 4 3 1 1
node 5 3 0 2
node 6 3 0 2
gene 1 1 5 5.85163 0 1 5.85163 1
gene 1 2 5 -5.08591 0 2 -5.08591 1
gene 3 3 5 1.2306 0 3 1.2306 1
gene 2 4 5 -2.7495 0 4 -2.7495 1
gene 1 1 6 -0.0959156 0 5 -0.0959156 1
gene 3 2 6 -3.67925 0 6 -3.67925 1
gene 1 3 6 -8 0 7 -8 1
gene 3 4 6 -1.30933 0 8 -1.30933 1
gene 3 6 5 -2.72091 0 44 -2.72091 1
genomeend 56

/* Organism #57 Fitness: 37 Error: 0 */
genomestart 57
trait 1 0.1 0 0.108412 0 0 0.114973 0 0 
trait 2 0.2 0 0 0.125192 0 0 0 0 
trait 3 0.3 0 0 0 0 0 0 0 
node 1 3 1 3
node 2 3 1 1
node 3 2 1 1
node 4 3 1 1
node 5 3 0 2
node 6 3 0 2
gene 1 1 5 3.7518 0 1 3.7518 1
gene 1 2 5 -3.63838 0 2 -3.63838 1
gene 3 3 5 0.738985 0 3 0.738985 1
gene 2 4 5 -0.0337547 0 4 -0.0337547 1
gene 1 1 6 2.92226 0 5 2.92226 1
gene 3 2 6 -1.55502 0 6 -1.55502 1
gene 1 3 6 -7.50487 0 7 -7.50487 1
gene 3 4 6 1.04958 0 8 1.04958 1
gene 3 6 5 -1.22251 0 44 -1.22251 1
genomeend 57

/* Organism #58 Fitness: 38 Error: 0 */
genomestart 58
trait 1 0.1 0 0 0 0 0 0 0 
trait 2 0.2 0 0 0.125192 0 0 0 0 
trait 3 0.3 0 0 0 0 0 0 0 
node 1 3 1 3
node 2 3 1 1
node 3 2 1 1
node 4 3 1 1
node 5 3 0 2
node 6 3 0 2
gene 1 1 5 5.63911 0 1 5.63911 1
gene 1 2 5 -5.36228 0 2 -5.36228 1
gene 3 3 5 4.64669 0 3 4.64669 1
gene 2 4 5 -3.1136 0 4 -3.1136 1
gene 1 1 6 1.88641 0 5 1.88641 1
gene 3 2 6 -1.19935 0 6 -1.19935 1
gene 1 3 6 -6.43783 0 7 -6.43783 1
gene 3 4 6 1.62835 0 8 1.62835 1
gene 3 6 5 0.0395116 0 44 0.0395116 1
genomeend 58

/* Organism #59 Fitness: 0 Error: 0 */
genomestart 59
trait 1 0.1 0 0 0 0 0 0 0 
trait 2 0.2 0 0 0.125192 0 0 0 0 
trait 3 0.3 0 0 0 0 0 0 0 
node 1 3 1 3
node 2 3 1 1
node 3 2 1 1
node 4 3 1 1
node 5 3 0 2
node 6 3 0 2
gene 1 1 5 3.61612 0 1 3.61612 1
gene 1 2 5 -3.17034 0 2 -3.17034 1
gene 3 3 5 2.99995 0 3 2.99995 1
gene 2 4 5 0.536345 0 4 0.536345 1
gene 1 1 6 4.69846 0 5 4.69846 1
gene 3 2 6 -3.67292 0 6 -3.67292 1
gene 1 3 6 -5.50158 0 7 -5.50158 1
gene 3 4 6 -1.33899 0 8 -1.33899 1
gene 3 6 5 -0.563409 0 44 -0.563409 1
genomeend 59

/* Organism #60 Fitness: 0 Error: 0 */
genomestart 60
trait 1 0.1 0 0 0 0 0 0 0 
trait 2 0.2 0 0 0.125192 0 0 0 0 
trait 3 0.3 0 0 0 0 0 0 0 
node 1 3 1 3
node 2 3 1 1
node 3 2 1 1
node 4 3 1 1
node 5 3 0 2
node 6 3 0 2
gene 1 1 5 2.50495 0 1 2.50495 1
gene 1 2 5 -3.81223 0 2 -3.81223 1
gene 3 3 5 3.73889 0 3 3.73889 1
gene 2 4 5 -3.24912 0 4 -3.24912 1
gene 1 1 6 3.83597 0 5 3.83597 1
gene 3 2 6 -5.32743 0 6 -5.32743 1
gene 1 3 6 -7.67461 0 7 -7.67461 1
gene 3 4 6 -2.28955 0 8 -2.28955 1
gene 3 6 5 0.163136 0 44 0.163136 1
genomeend 60

/* Organism #61 Fitness: 330 Error: 0 */
genomestart 61
trait 1 0.1 0 0 0 0 0 0 0 
trait 2 0.2 0 0 0.125192 0 0 0 0 
trait 3 0.3 0 0 0 0 0 0 0 
node 1 3 1 3
node 2 3 1 1
node 3 2 1 1
node 4 3 1 1
node 5 3 0 2
node 6 3 0 2
gene 1 1 5 4.63715 0 1 4.63715 1
gene 1 2 5 -4.16984 0 2 -4.16984 1
gene 3 3 5 2.49195 0 3 2.49195 1
gene 2 4 5 -1.62307 0 4 -1.62307 1
gene 1 1 6 2.22747 0 5 2.22747 1
gene 3 2 6 -3.51108 0 6 -3.51108 1
gene 1 3 6 -6.43926 0 7 -6.43926 1
gene 3 4 6 -0.443295 0 8 -0.443295 1
gene 3 6 5 -0.652521 0 44 -0.652521 1
genomeend 61

/* Organism #62 Fitness: 38 Error: 0 */
genomestart 62
trait 1 0.1 0 0 0 0 0 0 0 
trait 2 0.2 0 0 0.125192 0 0 0 0 
trait 3 0.3 0 0 0 0 0 0 0 
node 1 3 1 3
node 2 3 1 1
node 3 2 1 1
node 4 3 1 1
node 5 3 0 2
node 6 3 0 2
gene 1 1 5 6.17398 0 1 6.17398 1
gene 1 2 5 -5.83521 0 2 -5.83521 1
gene 3 3 5 0.12605 0 3 0.12605 1
gene 2 4 5 -2.09268 0 4 -2.09268 1
gene 1 1 6 3.72793 0 5 3.72793 1
gene 3 2 6 -4.69342 0 6 -4.69342 1
gene 1 3 6 -7.67772 0 7 -7.67772 1
gene 3 4 6 -1.83744 0 8 -1.83744 1
gene 3 6 5 -1.53652 0 44 -1.53652 1
genomeend 62

/* Organism #63 Fitness: 0 Error: 0 */
genomestart 63
trait 1 0.1 0 0 0 0 0 0 0 
trait 2 0.2 0 0 0.125192 0 0 0 0 
trait 3 0.3 0 0 0 0 0 0 0 
node 1 3 1 3
node 2 3 1 1
node 3 2 1 1
node 4 3 1 1
node 5 3 0 2
node 6 3 0 2
gene 1 1 5 6.48966 0 1 6.48966 1
gene 1 2 5 -3.2161 0 2 -3.2161 1
gene 3 3 5 4.74682 0 3 4.74682 1
gene 2 4 5 0.758462 0 4 0.758462 1
gene 1 1 6 2.64625 0 5 2.64625 1
gene 3 2 6 -3.9541 0 6 -3.9541 1
gene 1 3 6 -5.524 0 7 -5.524 1
gene 3 4 6 1.7116 0 8 1.7116 1
gene 3 6 5 0.753396 0 44 0.753396 1
genomeend 63

/* Organism #64 Fitness: 0 Error: 0 */
genomestart 64
trait 1 0.1 0 0 0 0 0 0 0 
trait 2 0.2 0 0 0.125192 0 0 0 0 
trait 3 0.3 0 0 0 0 0 0 0 
node 1 3 1 3
node 2 3 1 1
node 3 2 1 1
node 4 3 1 1
node 5 3 0 2
node 6 3 0 2
gene 1 1 5 6.64494 0 1 6.64494 1
gene 1 2 5 -4.16984 0 2 -4.16984 1
gene 3 3 5 2.50337 0 3 2.50337 1
gene 2 4 5 -1.68538 0 4 -1.68538 1
gene 1 1 6 -0.200735 0 5 -0.200735 1
gene 3 2 6 -3.51108 0 6 -3.51108 1
gene 1 3 6 -7.74614 0 7 -7.74614 1
gene 3 4 6 -0.443295 0 8 -0.443295 1
gene 3 6 5 -0.577776 0 44 -0.577776 1
genomeend 64

/* Organism #65 Fitness: 0 Error: 0 */
genomestart 65
trait 1 0.1 0 0 0 0 0 0 0 
trait 2 0.2 0 0 0.125192 0 0 0 0 
trait 3 0.3 0 0 0 0 0 0 0 
node 1 3 1 3
node 2 3 1 1
node 3 2 1 1
node 4 3 1 1
node 5 3 0 2
node 6 3 0 2
gene 1 1 5 4.63715 0 1 4.63715 1
gene 1 2 5 -2.98983 0 2 -2.98983 1
gene 3 3 5 -1.48984 0 3 -1.48984 1
gene 2 4 5 -0.670597 0 4 -0.670597 1
gene 1 1 6 1.33623 0 5 1.33623 1
gene 3 2 6 -5.50567 0 6 -5.50567 1
gene 1 3 6 -5.58036 0 7 -5.58036 1
gene 3 4 6 0.105819 0 8 0.105819 1
gene 3 6 5 -0.774046 0 44 -0.774046 1
genomeend 65

/* Species #348 : (Size 3) (AF 25.3333) (Age 2)  */


/* Organism #66 Fitness: 0 Error: 0 */
genomestart 66
trait 1 0.1 0 0 0 0 0 0 0 
trait 2 0.2 0 0 0 0 0 0 0 
trait 3 0.3 0 0 0 0 0 0 0 
node 1 3 1 3
node 2 3 1 1
node 3 2 1 1
node 4 2 1 1
node 5 3 0 2
node 6 3 0 2
gene 1 1 5 2.25517 0 1 2.25517 1
gene 1 2 5 -5.4672 0 2 -5.4672 1
gene 3 3 5 0.868459 0 3 0.868459 1
gene 2 4 5 2.58398 0 4 2.58398 1
gene 1 1 6 -2.38384 0 5 -2.38384 1
gene 3 2 6 -2.89573 0 6 -2.89573 1
gene 1 3 6 5.23383 0 7 5.23383 1
gene 3 4 6 5.8115 0 8 5.8115 1
gene 3 6 5 4.18072 0 44 4.18072 1
genomeend 66

/* Organism #67 Fitness: 37 Error: 0 */
genomestart 67
trait 1 0.1 0 0 0 0 0 0 0 
trait 2 0.2 0 0 0 0 0 0 0 
trait 3 0.3 0 0 0 0 0 0 0 
node 1 3 1 3
node 2 3 1 1
node 3 2 1 1
node 4 2 1 1
node 5 3 0 2
node 6 3 0 2
gene 1 1 5 2.06544 0 1 2.06544 1
gene 1 2 5 -2.85855 0 2 -2.85855 1
gene 3 3 5 1.82064 0 3 1.82064 1
gene 2 4 5 4.92357 0 4 4.92357 1
gene 1 1 6 -1.14101 0 5 -1.14101 1
gene 3 2 6 -2.51123 0 6 -2.51123 1
gene 1 3 6 3.96947 0 7 3.96947 1
gene 3 4 6 6.11318 0 8 6.11318 1
gene 3 6 5 2.45071 0 44 2.45071 1
genomeend 67

/* Organism #68 Fitness: 39 Error: 0 */
genomestart 68
trait 1 0.1 0 0 0 0 0 0 0 
trait 2 0.2 0 0 0 0 0 0 0 
trait 3 0.3 0 0 0 0 0 0 0 
node 1 3 1 3
node 2 3 1 1
node 3 2 1 1
node 4 2 1 1
node 5 3 0 2
node 6 3 0 2
gene 1 1 5 3.33987 0 1 3.33987 1
gene 1 2 5 -4.08274 0 2 -4.08274 1
gene 3 3 5 2.14842 0 3 2.14842 1
gene 2 4 5 0.949671 0 4 0.949671 1
gene 1 1 6 -2.70976 0 5 -2.70976 1
gene 3 2 6 -2.46137 0 6 -2.46137 1
gene 1 3 6 4.78109 0 7 4.78109 1
gene 3 4 6 5.34339 0 8 5.34339 1
gene 3 6 5 0.128516 0 44 0.128516 1
genomeend 68

/* Species #350 : (Size 2) (AF 19.5) (Age 2)  */


/* Organism #69 Fitness: 0 Error: 0 */
genomestart 69
trait 1 0.1 0 0 0 0 0 0 0 
trait 2 0.2 0 0 0 0 0 0 0 
trait 3 1 0 0 0 0 0.636782 0 0 
node 1 3 1 3
node 2 3 1 1
node 3 1 1 1
node 4 1 1 1
node 5 3 0 2
node 6 3 0 2
gene 3 1 5 2.09795 0 1 2.09795 1
gene 1 2 5 -6.86108 0 2 -6.86108 1
gene 3 3 5 7.66518 0 3 7.66518 1
gene 2 4 5 1.6707 0 4 1.6707 1
gene 1 1 6 -2.44772 0 5 -2.44772 1
gene 3 2 6 1.86772 0 6 1.86772 1
gene 1 3 6 0.276495 0 7 0.276495 1
gene 3 4 6 1.47411 0 8 1.47411 1
genomeend 69

/* Organism #70 Fitness: 39 Error: 0 */
genomestart 70
trait 1 0.1 0 0 0 0 0 0 0 
trait 2 0.2 0 0 0 0 0 0 0 
trait 3 1 0 0 0 0 0.636782 0 0 
node 1 3 1 3
node 2 3 1 1
node 3 1 1 1
node 4 1 1 1
node 5 3 0 2
node 6 3 0 2
gene 3 1 5 2.46739 0 1 2.46739 1
gene 1 2 5 -8 0 2 -8 1
gene 3 3 5 8 0 3 8 1
gene 2 4 5 0.185047 0 4 0.185047 1
gene 1 1 6 -4.61714 0 5 -4.61714 1
gene 3 2 6 4.07084 0 6 4.07084 1
gene 1 3 6 -2.10337 0 7 -2.10337 1
gene 3 4 6 2.698 0 8 2.698 1
genomeend 70

/* Species #352 : (Size 3) (AF 25.6667) (Age 2)  */


/* Organism #71 Fitness: 0 Error: 0 */
genomestart 71
trait 1 0.1 0 0 0 0.202056 0 0 0.247069 
trait 2 0.21129 0 0.0542948 0.189951 0.00317873 0 0.10743 0 
trait 3 0.31865 0 0 0.56556 0 0.451666 0.0813476 0.372491 
node 1 3 1 3
node 2 3 1 1
node 3 2 1 1
node 4 1 1 1
node 5 3 0 2
node 6 3 0 2
gene 3 1 5 8 0 1 8 1
gene 3 2 5 -8 0 2 -8 1
gene 3 3 5 -1.8829 0 3 -1.8829 1
gene 2 4 5 1.30542 0 4 1.30542 1
gene 2 1 6 0.528207 0 5 0.528207 1
gene 3 2 6 -1.48584 0 6 -1.48584 1
gene 2 3 6 2.37908 0 7 2.37908 1
gene 3 4 6 7.49604 0 8 7.49604 1
gene 2 6 5 0.913205 0 59 0.913205 1
genomeend 71

/* Organism #72 Fitness: 38 Error: 0 */
genomestart 72
trait 1 0.1 0 0 0 0.202056 0 0 0.247069 
trait 2 0.21129 0 0.0542948 0.189951 0.00317873 0 0.10743 0 
trait 3 0.31865 0 0 0.56556 0 0.451666 0.0813476 0.372491 
node 1 3 1 3
node 2 3 1 1
node 3 2 1 1
node 4 1 1 1
node 5 1 0 2
node 6 3 0 2
gene 3 1 5 7.71244 0 1 7.71244 1
gene 3 2 5 -8 0 2 -8 1
gene 3 3 5 -4.33903 0 3 -4.33903 1
gene 2 4 5 -0.15625 0 4 -0.15625 1
gene 2 1 6 -3.51527 0 5 -3.51527 1
gene 3 2 6 -3.11664 0 6 -3.11664 1
gene 2 3 6 -0.629436 0 7 -0.629436 1
gene 3 4 6 7.10798 0 8 7.10798 1
gene 2 6 5 -0.828057 0 59 -0.828057 1
genomeend 72

/* Organism #73 Fitness: 39 Error: 0 */
genomestart 73
trait 1 0.1 0 0 0 0.202056 0 0 0.247069 
trait 2 0.21129 0 0.0542948 0.189951 0.00317873 0 0.10743 0 
trait 3 0.31865 0 0 0.56556 0 0.451666 0.0813476 0.372491 
node 1 3 1 3
node 2 3 1 1
node 3 2 1 1
node 4 1 1 1
node 5 1 0 2
node 6 3 0 2
gene 3 1 5 7.5533 0 1 7.5533 1
gene 3 2 5 -8 0 2 -8 1
gene 3 3 5 -4.17667 0 3 -4.17667 1
gene 2 4 5 1.88632 0 4 1.88632 1
gene 2 1 6 -1.74911 0 5 -1.74911 1
gene 3 2 6 -2.2236 0 6 -2.2236 1
gene 2 3 6 -0.0275927 0 7 -0.0275927 1
gene 3 4 6 5.6037 0 8 5.6037 1
gene 2 6 5 0.913205 0 59 0.913205 1
genomeend 73

/* Species #353 : (Size 1) (AF 0) (Age 1)  */


/* Organism #74 Fitness: 0 Error: 0 */
genomestart 74
trait 1 0.1 0 0.254675 0 0 0 0 0 
trait 2 0 0 0.20066 0.460291 0 0 0.486727 0 
trait 3 0.3 0 0 0 0 0 0 0 
node 1 3 1 3
node 2 3 1 1
node 3 3 1 1
node 4 1 1 1
node 5 3 0 2
node 6 3 0 2
gene 1 1 5 -4.54228 0 1 -4.54228 1
gene 1 2 5 1.55393 0 2 1.55393 1
gene 3 3 5 1.72887 0 3 1.72887 1
gene 2 4 5 2.17274 0 4 2.17274 1
gene 1 1 6 0.0653726 0 5 0.0653726 1
gene 3 2 6 7.11941 0 6 7.11941 1
gene 1 3 6 1.44788 0 7 1.44788 1
gene 3 4 6 2.37507 0 8 2.37507 1
genomeend 74

/* Species #354 : (Size 1) (AF 0) (Age 1)  */


/* Organism #75 Fitness: 0 Error: 0 */
genomestart 75
trait 1 0.1 0 0 0 0 0 0 0 
trait 2 0.2 0 0 0 0 0 0 0 
trait 3 0.3 0 0 0 0 0 0 0 
node 1 3 1 3
node 2 3 1 1
node 3 2 1 1
node 4 3 1 1
node 5 3 0 2
node 6 3 0 2
gene 1 1 5 -1.51446 0 1 -1.51446 1
gene 1 2 5 2.12151 0 2 2.12151 1
gene 3 3 5 -4.16402 0 3 -4.16402 1
gene 2 4 5 -7.29225 0 4 -7.29225 1
gene 1 1 6 -6.14032 0 5 -6.14032 1
gene 3 2 6 2.75655 0 6 2.75655 1
gene 1 3 6 -7.9146 0 7 -7.9146 1
gene 3 4 6 4.82961 0 8 4.82961 1
gene 1 6 6 -2.68757 1 60 -2.68757 1
gene 2 6 5 0.868718 0 69 0.868718 1
genomeend 75

/* Species #355 : (Size 1) (AF 39) (Age 1)  */


/* Organism #76 Fitness: 39 Error: 0 */
genomestart 76
trait 1 0.1 0 0 0 0 0 0 0 
trait 2 0.2 0 0 0 0 0 0 0 
trait 3 1 0 0 0 0 0.636782 0 0 
node 1 3 1 3
node 2 3 1 1
node 3 3 1 1
node 4 1 1 1
node 5 3 0 2
node 6 3 0 2
gene 1 1 5 -2.31886 0 1 -2.31886 1
gene 1 2 5 -8 0 2 -8 1
gene 3 3 5 -4.90839 0 3 -4.90839 1
gene 2 4 5 1.04115 0 4 1.04115 1
gene 1 1 6 -8 0 5 -8 1
gene 3 2 6 -1.15897 0 6 -1.15897 1
gene 1 3 6 -1.63622 0 7 -1.63622 1
gene 3 4 6 0.382116 0 8 0.382116 1
genomeend 76

/* Species #356 : (Size 1) (AF 0) (Age 1)  */


/* Organism #77 Fitness: 0 Error: 0 */
genomestart 77
trait 1 0.1 0 0.183913 0 0.404112 0 0 0.747069 
trait 2 0.222579 0 0.10859 0.379901 0.00635746 0 0.21486 0 
trait 3 0.3 0 0 0 0 0 0 0 
node 1 1 1 3
node 2 2 1 1
node 3 1 1 1
node 4 2 1 1
node 5 1 0 2
node 6 3 0 2
gene 2 1 5 -0.291578 0 1 -0.291578 1
gene 3 2 5 -0.26475 0 2 -0.26475 1
gene 3 3 5 -0.570369 0 3 -0.570369 1
gene 1 4 5 -2.46443 0 4 -2.46443 1
gene 2 1 6 -2.46623 0 5 -2.46623 1
gene 3 2 6 -0.88458 0 6 -0.88458 1
gene 3 3 6 -0.0971062 0 7 -0.0971062 1
gene 2 4 6 8 0 8 8 1
gene 1 6 5 2.23879 0 29 2.23879 1
genomeend 77

/* Species #357 : (Size 1) (AF 0) (Age 1)  */


/* Organism #78 Fitness: 0 Error: 0 */
genomestart 78
trait 1 0.1 0 0 0 0.404112 0 0 0.494138 
trait 2 0.2 0 0 0 0 0 0 0 
trait 3 0.3 0 0 0 0 0 0 0 
node 1 1 1 3
node 2 2 1 1
node 3 1 1 1
node 4 2 1 1
node 5 1 0 2
node 6 3 0 2
gene 2 1 5 3.42243 0 1 3.42243 1
gene 3 2 5 -1.7779 0 2 -1.7779 1
gene 3 3 5 2.46873 0 3 2.46873 1
gene 1 4 5 -3.47403 0 4 -3.47403 1
gene 2 1 6 1.44998 0 5 1.44998 1
gene 3 2 6 4.15074 0 6 4.15074 1
gene 2 3 6 3.32828 0 7 3.32828 1
gene 2 4 6 -0.210543 0 8 -0.210543 1
gene 1 5 6 -1.51048 0 57 -1.51048 1
genomeend 78

/* Species #358 : (Size 1) (AF 0) (Age 1)  */


/* Organism #79 Fitness: 0 Error: 0 */
genomestart 79
trait 1 0.1 0 0 0 0 0 0 0 
trait 2 0.2 0 0 0 0 0 0 0 
trait 3 0.3 0 0 0 0 0 0 0 
node 1 3 1 3
node 2 1 1 1
node 3 3 1 1
node 4 1 1 1
node 5 3 0 2
node 6 3 0 2
gene 3 1 5 3.61535 0 1 3.61535 1
gene 3 2 5 -0.655337 0 2 -0.655337 1
gene 1 3 5 0.123887 0 3 0.123887 1
gene 2 4 5 2.38677 0 4 2.38677 1
gene 3 1 6 -0.18556 0 5 -0.18556 1
gene 2 2 6 6.93267 0 6 6.93267 1
gene 1 3 6 -0.96225 0 7 -0.96225 1
gene 1 4 6 3.71524 0 8 3.71524 1
gene 1 6 5 3.08348 0 21 3.08348 1
gene 2 5 5 -2.6898 1 72 -2.6898 1
genomeend 79

/* Species #359 : (Size 1) (AF 0) (Age 1)  */


/* Organism #80 Fitness: 0 Error: 0 */
genomestart 80
trait 1 0.1 0 0 0 0.202056 0 0 0.247069 
trait 2 0.21129 0 0.0542948 0.189951 0.00317873 0 0.10743 0 
trait 3 0.31865 0 0 0.56556 0 0.451666 0.0813476 0.372491 
node 1 3 1 3
node 2 3 1 1
node 3 2 1 1
node 4 1 1 1
node 5 1 0 2
node 6 3 0 2
gene 3 1 5 7.07644 0 1 7.07644 1
gene 3 2 5 1.32198 0 2 1.32198 1
gene 3 3 5 -0.0346167 0 3 -0.0346167 1
gene 2 4 5 2.27038 0 4 2.27038 1
gene 2 1 6 -1.21766 0 5 -1.21766 1
gene 3 2 6 -5.76255 0 6 -5.76255 1
gene 2 3 6 -0.125059 0 7 -0.125059 1
gene 3 4 6 2.38423 0 8 2.38423 1
gene 2 6 5 0.304291 0 59 0.304291 1
genomeend 80

/* Species #360 : (Size 1) (AF 0) (Age 1)  */


/* Organism #81 Fitness: 0 Error: 0 */
genomestart 81
trait 1 0.1 0 0.460439 0 0.206529 0 0 0.247069 
trait 2 0.222579 0 0.10859 0.379901 0.00635746 0 0.21486 0 
trait 3 0.3 0 0 0 0 0 0 0 
node 1 1 1 3
node 2 2 1 1
node 3 1 1 1
node 4 2 1 1
node 5 1 0 2
node 6 3 0 2
gene 2 1 5 -2.63132 0 1 -2.63132 1
gene 3 2 5 -4.69963 0 2 -4.69963 1
gene 3 3 5 -2.23808 0 3 -2.23808 1
gene 1 4 5 -3.57873 0 4 -3.57873 1
gene 2 1 6 -1.34571 0 5 -1.34571 1
gene 3 2 6 -0.380633 0 6 -0.380633 1
gene 3 3 6 -5.70485 0 7 -5.70485 1
gene 2 4 6 1.63077 0 8 1.63077 1
gene 1 6 5 0.635323 0 29 0.635323 1
genomeend 81

/* Species #361 : (Size 1) (AF 0) (Age 1)  */


/* Organism #82 Fitness: 0 Error: 0 */
genomestart 82
trait 1 0.1 0 0.460439 0 0.206529 0 0 0.247069 
trait 2 0.222579 0 0.10859 0.379901 0.00635746 0 0.21486 0 
trait 3 0.3 0 0 0 0 0 0 0 
node 1 1 1 3
node 2 2 1 1
node 3 1 1 1
node 4 2 1 1
node 5 1 0 2
node 6 3 0 2
gene 2 1 5 -0.432784 0 1 -0.432784 1
gene 3 2 5 -0.623925 0 2 -0.623925 1
gene 3 3 5 -1.7412 0 3 -1.7412 1
gene 1 4 5 0.604689 0 4 0.604689 1
gene 2 1 6 2.24781 0 5 2.24781 1
gene 3 2 6 0.514123 0 6 0.514123 1
gene 3 3 6 -6.05047 0 7 -6.05047 1
gene 2 4 6 -4.68495 0 8 -4.68495 1
gene 1 6 5 -0.325209 0 29 -0.325209 1
genomeend 82

/* Species #362 : (Size 1) (AF 0) (Age 1)  */


/* Organism #83 Fitness: 0 Error: 0 */
genomestart 83
trait 1 0.1 0 0 0 0 0 0 0 
trait 2 0.2 0 0 0 0 0 0 0 
trait 3 0.3 0 0 0 0 0 0 0 
node 1 1 1 3
node 2 1 1 1
node 3 3 1 1
node 4 1 1 1
node 5 2 0 2
node 6 3 0 2
gene 2 1 5 8 0 1 8 1
gene 3 2 5 -0.450958 0 2 -0.450958 1
gene 1 3 5 -0.698209 0 3 -0.698209 1
gene 2 4 5 0.299995 0 4 0.299995 1
gene 3 1 6 -2.69907 0 5 -2.69907 1
gene 2 2 6 -0.183902 0 6 -0.183902 1
gene 1 3 6 0.80807 0 7 0.80807 1
gene 1 4 6 -0.483218 0 8 -0.483218 1
gene 1 6 5 -1.12207 0 21 -1.12207 1
genomeend 83

/* Species #363 : (Size 1) (AF 0) (Age 1)  */


/* Organism #84 Fitness: 0 Error: 0 */
genomestart 84
trait 1 0.1 0 0 0 0 0 0 0 
trait 2 0.2 0 0 0 0 0 0 0 
trait 3 0.3 0 0 0 0 0 0 0 
node 1 1 1 3
node 2 1 1 1
node 3 3 1 1
node 4 1 1 1
node 5 2 0 2
node 6 3 0 2
gene 2 1 5 5.97987 0 1 5.97987 1
gene 3 2 5 1.25213 0 2 1.25213 1
gene 1 3 5 -4.82665 0 3 -4.82665 1
gene 2 4 5 -2.39483 0 4 -2.39483 1
gene 3 1 6 0.474054 0 5 0.474054 1
gene 2 2 6 -3.5302 0 6 -3.5302 1
gene 1 3 6 0.80807 0 7 0.80807 1
gene 1 4 6 -2.42877 0 8 -2.42877 1
gene 1 6 5 -1.37985 0 21 -1.37985 1
genomeend 84

/* Species #364 : (Size 1) (AF 38) (Age 1)  */


/* Organism #85 Fitness: 38 Error: 0 */
genomestart 85
trait 1 0.1 0 0 0 0 0 0 0 
trait 2 0.2 0 0 0 0 0 0 0 
trait 3 1 0 0 0 0 0.636782 0 0 
node 1 3 1 3
node 2 3 1 1
node 3 3 1 1
node 4 1 1 1
node 5 3 0 2
node 6 3 0 2
gene 3 1 5 -0.0763767 0 1 -0.0763767 1
gene 1 2 5 -1.84422 0 2 -1.84422 1
gene 3 3 5 1.53835 0 3 1.53835 1
gene 2 4 5 5.53266 0 4 5.53266 1
gene 1 1 6 -4.50796 0 5 -4.50796 1
gene 3 2 6 0.909203 0 6 0.909203 1
gene 1 3 6 2.74114 0 7 2.74114 1
gene 3 4 6 1.61079 0 8 1.61079 1
genomeend 85

/* Species #365 : (Size 1) (AF 0) (Age 1)  */


/* Organism #86 Fitness: 0 Error: 0 */
genomestart 86
trait 1 0.1 0 0 0 0.202056 0 0 0.247069 
trait 2 0.21129 0 0.0542948 0.189951 0.00317873 0 0.10743 0 
trait 3 0.31865 0 0 0.56556 0 0.451666 0.0813476 0.372491 
node 1 2 1 3
node 2 3 1 1
node 3 2 1 1
node 4 1 1 1
node 5 1 0 2
node 6 3 0 2
gene 3 1 5 5.07785 0 1 5.07785 1
gene 3 2 5 -6.46955 0 2 -6.46955 1
gene 3 3 5 0.830594 0 3 0.830594 1
gene 2 4 5 -0.768538 0 4 -0.768538 1
gene 2 1 6 -3.21982 0 5 -3.21982 1
gene 3 2 6 -1.99943 0 6 -1.99943 1
gene 2 3 6 -1.31072 0 7 -1.31072 1
gene 3 4 6 -6.49151 0 8 -6.49151 1
gene 2 6 5 -3.55057 0 59 -3.55057 1
genomeend 86

/* Species #366 : (Size 1) (AF 11) (Age 1)  */


/* Organism #87 Fitness: 11 Error: 0 */
genomestart 87
trait 1 0.1 0 0 0 0.202056 0 0 0.247069 
trait 2 0.21129 0 0.0542948 0.189951 0.00317873 0 0.10743 0 
trait 3 0.31865 0 0 0.56556 0 0.451666 0.0813476 0.372491 
node 1 2 1 3
node 2 3 1 1
node 3 2 1 1
node 4 1 1 1
node 5 1 0 2
node 6 3 0 2
gene 3 1 5 -0.449433 0 1 -0.449433 1
gene 3 2 5 -7.94899 0 2 -7.94899 1
gene 3 3 5 0.389921 0 3 0.389921 1
gene 2 4 5 -1.21638 0 4 -1.21638 1
gene 2 1 6 -2.03401 0 5 -2.03401 1
gene 3 2 6 -2.11623 0 6 -2.11623 1
gene 2 3 6 1.43157 0 7 1.43157 1
gene 3 4 6 -4.30987 0 8 -4.30987 1
gene 2 6 5 -3.06606 0 59 -3.06606 1
genomeend 87

/* Species #367 : (Size 1) (AF 27) (Age 1)  */


/* Organism #88 Fitness: 27 Error: 0 */
genomestart 88
trait 1 0.1 0 0 0 0.202056 0 0 0.247069 
trait 2 0.21129 0 0.0542948 0.189951 0.00317873 0 0.10743 0 
trait 3 0.31865 0 0 0.56556 0 0.451666 0.0813476 0.372491 
node 1 3 1 3
node 2 3 1 1
node 3 2 1 1
node 4 1 1 1
node 5 1 0 2
node 6 3 0 2
gene 3 1 5 8 0 1 8 1
gene 3 2 5 -5.52926 0 2 -5.52926 1
gene 3 3 5 -4.88941 0 3 -4.88941 1
gene 2 4 5 6.10171 0 4 6.10171 1
gene 2 1 6 0.450108 0 5 0.450108 1
gene 3 2 6 -1.73419 0 6 -1.73419 1
gene 2 3 6 4.07647 0 7 4.07647 1
gene 3 4 6 5.49729 0 8 5.49729 1
gene 2 6 5 -1.35449 0 59 -1.35449 1
genomeend 88

/* Species #368 : (Size 1) (AF 0) (Age 1)  */


/* Organism #89 Fitness: 0 Error: 0 */
genomestart 89
trait 1 0.1 0 0 0 0 0 0 0 
trait 2 0.2 0 0 0 0 0 0 0 
trait 3 0.3 0 0 0 0 0 0 0 
node 1 3 1 3
node 2 3 1 1
node 3 2 1 1
node 4 2 1 1
node 5 3 0 2
node 6 3 0 2
gene 1 1 5 -0.689083 0 1 -0.689083 1
gene 1 2 5 -0.460098 0 2 -0.460098 1
gene 3 3 5 -1.43655 0 3 -1.43655 1
gene 2 4 5 2.77358 0 4 2.77358 1
gene 1 1 6 -1.862 0 5 -1.862 1
gene 3 2 6 -1.56935 0 6 -1.56935 1
gene 1 3 6 1.03564 0 7 1.03564 1
gene 3 4 6 2.50432 0 8 2.50432 1
gene 3 6 5 4.59551 0 44 4.59551 1
genomeend 89

/* Species #369 : (Size 2) (AF 19) (Age 1)  */


/* Organism #90 Fitness: 38 Error: 0 */
genomestart 90
trait 1 0.1 0 0 0 0 0 0 0 
trait 2 0.2 0 0 0.125192 0 0 0 0 
trait 3 0.3 0 0 0 0 0 0 0 
node 1 3 1 3
node 2 3 1 1
node 3 2 1 1
node 4 3 1 1
node 5 3 0 2
node 6 3 0 2
gene 1 1 5 3.24688 0 1 3.24688 1
gene 1 2 5 -2.77279 0 2 -2.77279 1
gene 3 3 5 4.91647 0 3 4.91647 1
gene 2 4 5 -0.971935 0 4 -0.971935 1
gene 1 1 6 1.66844 0 5 1.66844 1
gene 3 2 6 -1.11707 0 6 -1.11707 1
gene 1 3 6 -2.31314 0 7 -2.31314 1
gene 3 4 6 -0.935361 0 8 -0.935361 1
gene 3 6 5 1.08756 0 44 1.08756 1
genomeend 90

/* Organism #91 Fitness: 0 Error: 0 */
genomestart 91
trait 1 0.1 0 0 0 0 0 0 0 
trait 2 0.2 0 0 0.125192 0 0 0 0 
trait 3 0.3 0 0 0 0 0 0 0 
node 1 3 1 3
node 2 3 1 1
node 3 2 1 1
node 4 3 1 1
node 5 3 0 2
node 6 3 0 2
gene 1 1 5 3.91357 0 1 3.91357 1
gene 1 2 5 -2.14356 0 2 -2.14356 1
gene 3 3 5 1.49125 0 3 1.49125 1
gene 2 4 5 -1.2078 0 4 -1.2078 1
gene 1 1 6 0.696233 0 5 0.696233 1
gene 3 2 6 -2.31728 0 6 -2.31728 1
gene 1 3 6 0.246032 0 7 0.246032 1
gene 3 4 6 1.51499 0 8 1.51499 1
gene 3 6 5 1.28416 0 44 1.28416 1
genomeend 91

/* Species #370 : (Size 1) (AF 0) (Age 1)  */


/* Organism #92 Fitness: 0 Error: 0 */
genomestart 92
trait 1 0.1 0 0 0 0 0 0 0 
trait 2 0.2 0 0 0.125192 0 0 0 0 
trait 3 0.3 0 0 0 0 0 0 0 
node 1 3 1 3
node 2 3 1 1
node 3 2 1 1
node 4 3 1 1
node 5 3 0 2
node 6 3 0 2
gene 1 1 5 2.34081 0 1 2.34081 1
gene 1 2 5 -0.73719 0 2 -0.73719 1
gene 3 3 5 1.3252 0 3 1.3252 1
gene 2 4 5 0.76622 0 4 0.76622 1
gene 1 1 6 3.64347 0 5 3.64347 1
gene 3 2 6 2.15409 0 6 2.15409 1
gene 1 3 6 -8 0 7 -8 1
gene 3 4 6 -2.15865 0 8 -2.15865 1
gene 3 6 5 -1.71604 0 44 -1.71604 1
genomeend 92

/* Species #371 : (Size 1) (AF 73) (Age 1)  */


/* Organism #93 Fitness: 73 Error: 0 */
genomestart 93
trait 1 0.1 0 0 0 0 0 0 0 
trait 2 0.2 0 0 0.125192 0 0 0 0 
trait 3 0.3 0 0 0 0 0 0 0 
node 1 3 1 3
node 2 3 1 1
node 3 2 1 1
node 4 3 1 1
node 5 3 0 2
node 6 3 0 2
gene 1 1 5 7.10949 0 1 7.10949 1
gene 1 2 5 -3.1243 0 2 -3.1243 1
gene 3 3 5 0.95157 0 3 0.95157 1
gene 2 4 5 0.550859 0 4 0.550859 1
gene 1 1 6 0.887029 0 5 0.887029 1
gene 3 2 6 -2.11236 0 6 -2.11236 1
gene 1 3 6 -4.06519 0 7 -4.06519 1
gene 3 4 6 -1.10898 0 8 -1.10898 1
gene 3 6 5 0.745044 0 44 0.745044 1
genomeend 93

/* Species #372 : (Size 1) (AF 80) (Age 1)  */


/* Organism #94 Fitness: 80 Error: 0 */
genomestart 94
trait 1 0.1 0 0 0 0 0 0 0 
trait 2 0.2 0 0 0.125192 0 0 0 0 
trait 3 0.3 0 0 0 0 0 0 0 
node 1 3 1 3
node 2 3 1 1
node 3 2 1 1
node 4 3 1 1
node 5 3 0 2
node 6 3 0 2
gene 1 1 5 6.57991 0 1 6.57991 1
gene 1 2 5 -2.89728 0 2 -2.89728 1
gene 3 3 5 4.77068 0 3 4.77068 1
gene 2 4 5 -1.15892 0 4 -1.15892 1
gene 1 1 6 1.56522 0 5 1.56522 1
gene 3 2 6 -1.84733 0 6 -1.84733 1
gene 1 3 6 2.40763 0 7 2.40763 1
gene 3 4 6 -1.9432 0 8 -1.9432 1
gene 3 6 5 -2.26745 0 44 -2.26745 1
genomeend 94

/* Species #373 : (Size 1) (AF 0) (Age 1)  */


/* Organism #95 Fitness: 0 Error: 0 */
genomestart 95
trait 1 0.1 0 0 0 0 0 0 0 
trait 2 0.2 0 0 0.125192 0 0 0 0 
trait 3 0.3 0 0 0 0 0 0 0 
node 1 3 1 3
node 2 3 1 1
node 3 2 1 1
node 4 3 1 1
node 5 3 0 2
node 6 3 0 2
gene 1 1 5 0.880968 0 1 0.880968 1
gene 1 2 5 -6.6003 0 2 -6.6003 1
gene 3 3 5 4.09698 0 3 4.09698 1
gene 2 4 5 -1.62307 0 4 -1.62307 1
gene 1 1 6 4.6394 0 5 4.6394 1
gene 3 2 6 -5.25841 0 6 -5.25841 1
gene 1 3 6 -6.33749 0 7 -6.33749 1
gene 3 4 6 0.375962 0 8 0.375962 1
gene 3 6 5 0.0720984 0 44 0.0720984 1
genomeend 95

/* Species #374 : (Size 1) (AF 38) (Age 1)  */


/* Organism #96 Fitness: 38 Error: 0 */
genomestart 96
trait 1 0.1 0 0 0 0 0 0 0 
trait 2 0.2 0 0 0.125192 0 0 0 0 
trait 3 0.3 0 0 0 0 0 0 0 
node 1 3 1 3
node 2 3 1 1
node 3 2 1 1
node 4 3 1 1
node 5 3 0 2
node 6 3 0 2
gene 1 1 5 6.97857 0 1 6.97857 1
gene 1 2 5 -5.51643 0 2 -5.51643 1
gene 3 3 5 1.02199 0 3 1.02199 1
gene 2 4 5 -3.73697 0 4 -3.73697 1
gene 1 1 6 3.83012 0 5 3.83012 1
gene 3 2 6 -2.79456 0 6 -2.79456 1
gene 1 3 6 -4.31206 0 7 -4.31206 1
gene 3 4 6 1.48021 0 8 1.48021 1
gene 3 6 5 1.52773 0 44 1.52773 1
genomeend 96

/* Species #375 : (Size 1) (AF 39) (Age 1)  */


/* Organism #97 Fitness: 39 Error: 0 */
genomestart 97
trait 1 0.1 0 0 0 0 0 0 0 
trait 2 0.2 0 0 0 0 0 0 0 
trait 3 1 0 0 0 0 0.636782 0 0 
node 1 3 1 3
node 2 3 1 1
node 3 1 1 1
node 4 1 1 1
node 5 3 0 2
node 6 3 0 2
gene 3 1 5 4.40441 0 1 4.40441 1
gene 1 2 5 -5.60244 0 2 -5.60244 1
gene 3 3 5 6.92224 0 3 6.92224 1
gene 2 4 5 -0.397598 0 4 -0.397598 1
gene 1 1 6 -2.44772 0 5 -2.44772 1
gene 3 2 6 3.36721 0 6 3.36721 1
gene 1 3 6 -2.21224 0 7 -2.21224 1
gene 3 4 6 3.81711 0 8 3.81711 1
genomeend 97

/* Species #376 : (Size 1) (AF 38) (Age 1)  */


/* Organism #98 Fitness: 38 Error: 0 */
genomestart 98
trait 1 0.1 0 0 0 0 0 0 0 
trait 2 0.2 0 0 0 0 0 0 0 
trait 3 1 0 0 0 0 0.636782 0 0 
node 1 3 1 3
node 2 3 1 1
node 3 1 1 1
node 4 1 1 1
node 5 3 0 2
node 6 3 0 2
gene 3 1 5 2.90795 0 1 2.90795 1
gene 1 2 5 -8 0 2 -8 1
gene 3 3 5 -0.398748 0 3 -0.398748 1
gene 2 4 5 2.07109 0 4 2.07109 1
gene 1 1 6 -4.50061 0 5 -4.50061 1
gene 3 2 6 2.77636 0 6 2.77636 1
gene 1 3 6 -1.1073 0 7 -1.1073 1
gene 3 4 6 -0.153335 0 8 -0.153335 1
genomeend 98

/* Species #377 : (Size 1) (AF 39) (Age 1)  */


/* Organism #99 Fitness: 39 Error: 0 */
genomestart 99
trait 1 0.1 0 0 0 0.202056 0 0 0.247069 
trait 2 0.21129 0 0.0542948 0.189951 0.00317873 0 0.10743 0 
trait 3 0.31865 0 0 0.56556 0 0.451666 0.0813476 0.372491 
node 1 3 1 3
node 2 3 1 1
node 3 2 1 1
node 4 1 1 1
node 5 1 0 2
node 6 3 0 2
gene 3 1 5 2.47893 0 1 2.47893 1
gene 3 2 5 -6.3286 0 2 -6.3286 1
gene 3 3 5 -2.61442 0 3 -2.61442 1
gene 2 4 5 0.0736652 0 4 0.0736652 1
gene 2 1 6 -0.735493 0 5 -0.735493 1
gene 3 2 6 -3.83086 0 6 -3.83086 1
gene 2 3 6 -1.0363 0 7 -1.0363 1
gene 3 4 6 7.31008 0 8 7.31008 1
gene 2 6 5 -1.17959 0 59 -1.17959 1
genomeend 99
