
/* Species #242 : (Size 1) (AF 0) (Age 10)  */


/* Organism #0 Fitness: 0 Error: 0 */
genomestart 0
node 1 1 1 3
node 2 3 1 1
node 3 3 1 1
node 4 2 1 1
node 5 3 0 2
node 6 2 0 2
gene 2 1 5 3.43479 0 1 3.43479 1
gene 1 2 5 -1.29424 0 2 -1.29424 1
gene 1 3 5 6.16706 0 3 6.16706 1
gene 2 4 5 -0.34613 0 4 -0.34613 1
gene 3 1 6 -7.00901 0 5 -7.00901 1
gene 2 2 6 -0.225384 0 6 -0.225384 1
gene 3 3 6 -4.32251 0 7 -4.32251 1
gene 3 4 6 5.02072 0 8 5.02072 1
gene 1 5 6 0.737429 0 58 0.737429 1
genomeend 0

/* Species #369 : (Size 19) (AF 29688.8) (Age 4)  */


/* Organism #1 Fitness: 0 Error: 0 */
genomestart 1
node 1 1 1 3
node 2 3 1 1
node 3 3 1 1
node 4 2 1 1
node 5 3 0 2
node 6 2 0 2
gene 2 1 5 7.69201 0 1 7.69201 1
gene 1 2 5 -1.40922 0 2 -1.40922 1
gene 1 3 5 -0.79455 0 3 -0.79455 1
gene 2 4 5 -6.19503 0 4 -6.19503 1
gene 3 1 6 -3.08272 0 5 -3.08272 1
gene 2 2 6 -1.28484 0 6 -1.28484 1
gene 3 3 6 -0.756555 0 7 -0.756555 1
gene 3 4 6 -0.615716 0 8 -0.615716 1
gene 1 5 6 -3.93341 0 58 -3.93341 1
genomeend 1

/* Organism #2 Fitness: 176 Error: 0 */
genomestart 2
node 1 1 1 3
node 2 3 1 1
node 3 3 1 1
node 4 2 1 1
node 5 3 0 2
node 6 2 0 2
gene 2 1 5 7.69201 0 1 7.69201 1
gene 1 2 5 -1.40922 0 2 -1.40922 1
gene 1 3 5 -0.79455 0 3 -0.79455 1
gene 2 4 5 -6.19503 0 4 -6.19503 1
gene 3 1 6 -3.08272 0 5 -3.08272 1
gene 2 2 6 -1.28484 0 6 -1.28484 1
gene 3 3 6 -0.756555 0 7 -0.756555 1
gene 3 4 6 -0.615716 0 8 -0.615716 1
gene 1 5 6 -3.93341 0 58 -3.93341 1
genomeend 2

/* Organism #3 Fitness: 0 Error: 0 */
genomestart 3
node 1 1 1 3
node 2 3 1 1
node 3 3 1 1
node 4 2 1 1
node 5 3 0 2
node 6 2 0 2
gene 2 1 5 8 0 1 8 1
gene 1 2 5 0.504606 0 2 0.504606 1
gene 1 3 5 -2.67605 0 3 -2.67605 1
gene 2 4 5 -6.28995 0 4 -6.28995 1
gene 3 1 6 -3.88305 0 5 -3.88305 1
gene 2 2 6 -3.0039 0 6 -3.0039 1
gene 3 3 6 0.222819 0 7 0.222819 1
gene 3 4 6 1.02196 0 8 1.02196 1
gene 1 5 6 -6.09387 0 58 -6.09387 1
genomeend 3

/* Organism #4 Fitness: 0 Error: 0 */
genomestart 4
node 1 1 1 3
node 2 3 1 1
node 3 3 1 1
node 4 2 1 1
node 5 3 0 2
node 6 2 0 2
gene 2 1 5 8 0 1 8 1
gene 1 2 5 0.000712083 0 2 0.000712083 1
gene 1 3 5 -0.79455 0 3 -0.79455 1
gene 2 4 5 -4.82489 0 4 -4.82489 1
gene 3 1 6 -3.08272 0 5 -3.08272 1
gene 2 2 6 -0.859914 0 6 -0.859914 1
gene 3 3 6 -0.857078 0 7 -0.857078 1
gene 3 4 6 -2.87813 0 8 -2.87813 1
gene 1 5 6 0.20226 0 58 0.20226 1
genomeend 4

/* Organism #5 Fitness: 0 Error: 0 */
genomestart 5
node 1 1 1 3
node 2 3 1 1
node 3 3 1 1
node 4 2 1 1
node 5 3 0 2
node 6 2 0 2
gene 2 1 5 6.29958 0 1 6.29958 1
gene 1 2 5 1.45423 0 2 1.45423 1
gene 1 3 5 -0.0542181 0 3 -0.0542181 1
gene 2 4 5 -6.2749 0 4 -6.2749 1
gene 3 1 6 -3.83825 0 5 -3.83825 1
gene 2 2 6 -0.58096 0 6 -0.58096 1
gene 3 3 6 -0.470724 0 7 -0.470724 1
gene 3 4 6 -2.21718 0 8 -2.21718 1
gene 1 5 6 -3.49356 0 58 -3.49356 1
genomeend 5

/* Organism #6 Fitness: 562730 Error: 0 */
/* ##------$ WINNER 6 SPECIES #369 $------## */
genomestart 6
node 1 1 1 3
node 2 3 1 1
node 3 3 1 1
node 4 2 1 1
node 5 3 0 2
node 6 2 0 2
gene 2 1 5 7.69201 0 1 7.69201 1
gene 1 2 5 -1.40922 0 2 -1.40922 1
gene 1 3 5 -0.79455 0 3 -0.79455 1
gene 2 4 5 -8 0 4 -8 1
gene 3 1 6 -3.08272 0 5 -3.08272 1
gene 2 2 6 -1.28484 0 6 -1.28484 1
gene 3 3 6 -2.33087 0 7 -2.33087 1
gene 3 4 6 -0.615716 0 8 -0.615716 1
gene 1 5 6 -2.19801 0 58 -2.19801 1
genomeend 6

/* Organism #7 Fitness: 185 Error: 0 */
genomestart 7
node 1 1 1 3
node 2 3 1 1
node 3 3 1 1
node 4 2 1 1
node 5 3 0 2
node 6 2 0 2
gene 2 1 5 7.69201 0 1 7.69201 1
gene 1 2 5 -1.40922 0 2 -1.40922 1
gene 1 3 5 -0.79455 0 3 -0.79455 1
gene 2 4 5 -6.19503 0 4 -6.19503 1
gene 3 1 6 -3.08272 0 5 -3.08272 1
gene 2 2 6 -1.28484 0 6 -1.28484 1
gene 3 3 6 -0.756555 0 7 -0.756555 1
gene 3 4 6 -0.615716 0 8 -0.615716 1
gene 1 5 6 -3.93341 0 58 -3.93341 1
gene 2 5 5 -0.356517 1 94 -0.356517 1
genomeend 7

/* Organism #8 Fitness: 181 Error: 0 */
genomestart 8
node 1 1 1 3
node 2 3 1 1
node 3 3 1 1
node 4 2 1 1
node 5 3 0 2
node 6 2 0 2
gene 2 1 5 5.48345 0 1 5.48345 1
gene 1 2 5 -2.6058 0 2 -2.6058 1
gene 1 3 5 0.025185 0 3 0.025185 1
gene 2 4 5 -6.52296 0 4 -6.52296 1
gene 3 1 6 -2.60476 0 5 -2.60476 1
gene 2 2 6 -2.37442 0 6 -2.37442 1
gene 3 3 6 -0.178467 0 7 -0.178467 1
gene 3 4 6 -0.368681 0 8 -0.368681 1
gene 1 5 6 -5.34038 0 58 -5.34038 1
genomeend 8

/* Organism #9 Fitness: 0 Error: 0 */
genomestart 9
node 1 1 1 3
node 2 3 1 1
node 3 3 1 1
node 4 2 1 1
node 5 3 0 2
node 6 2 0 2
gene 2 1 5 8 0 1 8 1
gene 1 2 5 0.729229 0 2 0.729229 1
gene 1 3 5 -1.24252 0 3 -1.24252 1
gene 2 4 5 -4.48614 0 4 -4.48614 1
gene 3 1 6 -1.45487 0 5 -1.45487 1
gene 2 2 6 0.849622 0 6 0.849622 1
gene 3 3 6 1.62546 0 7 1.62546 1
gene 3 4 6 -1.44147 0 8 -1.44147 1
gene 1 5 6 -4.89133 0 58 -4.89133 1
genomeend 9

/* Organism #10 Fitness: 533 Error: 0 */
genomestart 10
node 1 1 1 3
node 2 3 1 1
node 3 3 1 1
node 4 2 1 1
node 5 3 0 2
node 6 2 0 2
gene 2 1 5 7.69201 0 1 7.69201 1
gene 1 2 5 -1.40922 0 2 -1.40922 1
gene 1 3 5 -0.79455 0 3 -0.79455 1
gene 2 4 5 -6.19503 0 4 -6.19503 1
gene 3 1 6 -3.08272 0 5 -3.08272 1
gene 2 2 6 -1.28484 0 6 -1.28484 1
gene 3 3 6 -0.756555 0 7 -0.756555 1
gene 3 4 6 -0.615716 0 8 -0.615716 1
gene 1 5 6 -3.93341 0 58 -3.93341 1
genomeend 10

/* Organism #11 Fitness: 14 Error: 0 */
genomestart 11
node 1 1 1 3
node 2 3 1 1
node 3 3 1 1
node 4 2 1 1
node 5 3 0 2
node 6 2 0 2
gene 2 1 5 7.06151 0 1 7.06151 1
gene 1 2 5 -1.33356 0 2 -1.33356 1
gene 1 3 5 -1.39955 0 3 -1.39955 1
gene 2 4 5 -8 0 4 -8 1
gene 3 1 6 -3.97895 0 5 -3.97895 1
gene 2 2 6 -1.28484 0 6 -1.28484 1
gene 3 3 6 -2.33087 0 7 -2.33087 1
gene 3 4 6 -0.615716 0 8 -0.615716 1
gene 1 5 6 -2.19801 0 58 -2.19801 1
genomeend 11

/* Organism #12 Fitness: 0 Error: 0 */
genomestart 12
node 1 1 1 3
node 2 3 1 1
node 3 3 1 1
node 4 2 1 1
node 5 3 0 2
node 6 2 0 2
gene 2 1 5 8 0 1 8 1
gene 1 2 5 0.0415382 0 2 0.0415382 1
gene 1 3 5 2.12266 0 3 2.12266 1
gene 2 4 5 -2.00143 0 4 -2.00143 1
gene 3 1 6 -3.63463 0 5 -3.63463 1
gene 2 2 6 -1.50896 0 6 -1.50896 1
gene 3 3 6 -0.849197 0 7 -0.849197 1
gene 3 4 6 -0.615716 0 8 -0.615716 1
gene 1 5 6 -0.52445 0 58 -0.52445 1
genomeend 12

/* Organism #13 Fitness: 0 Error: 0 */
genomestart 13
node 1 1 1 3
node 2 3 1 1
node 3 3 1 1
node 4 2 1 1
node 5 3 0 2
node 6 2 0 2
gene 2 1 5 7.61354 0 1 7.61354 1
gene 1 2 5 -1.26747 0 2 -1.26747 1
gene 1 3 5 0.320329 0 3 0.320329 1
gene 2 4 5 -3.97168 0 4 -3.97168 1
gene 3 1 6 -3.81828 0 5 -3.81828 1
gene 2 2 6 -2.89708 0 6 -2.89708 1
gene 3 3 6 -1.2992 0 7 -1.2992 1
gene 3 4 6 -0.968489 0 8 -0.968489 1
gene 1 5 6 -1.56564 0 58 -1.56564 1
genomeend 13

/* Organism #14 Fitness: 35 Error: 0 */
genomestart 14
node 1 1 1 3
node 2 3 1 1
node 3 3 1 1
node 4 2 1 1
node 5 3 0 2
node 6 2 0 2
gene 2 1 5 8 0 1 8 1
gene 1 2 5 -0.571146 0 2 -0.571146 1
gene 1 3 5 1.38318 0 3 1.38318 1
gene 2 4 5 -4.92321 0 4 -4.92321 1
gene 3 1 6 -4.95283 0 5 -4.95283 1
gene 2 2 6 -0.0543472 0 6 -0.0543472 1
gene 3 3 6 -0.756555 0 7 -0.756555 1
gene 3 4 6 -1.78704 0 8 -1.78704 1
gene 1 5 6 -1.6395 0 58 -1.6395 1
genomeend 14

/* Organism #15 Fitness: 0 Error: 0 */
genomestart 15
node 1 1 1 3
node 2 3 1 1
node 3 3 1 1
node 4 2 1 1
node 5 3 0 2
node 6 2 0 2
gene 2 1 5 7.23486 0 1 7.23486 1
gene 1 2 5 0.469856 0 2 0.469856 1
gene 1 3 5 -2.16158 0 3 -2.16158 1
gene 2 4 5 -5.78345 0 4 -5.78345 1
gene 3 1 6 -1.58541 0 5 -1.58541 1
gene 2 2 6 -2.91511 0 6 -2.91511 1
gene 3 3 6 0.922608 0 7 0.922608 1
gene 3 4 6 -1.86201 0 8 -1.86201 1
gene 1 5 6 -3.99591 0 58 -3.99591 1
genomeend 15

/* Organism #16 Fitness: 9 Error: 0 */
genomestart 16
node 1 1 1 3
node 2 3 1 1
node 3 3 1 1
node 4 2 1 1
node 5 3 0 2
node 6 2 0 2
gene 2 1 5 7.37676 0 1 7.37676 1
gene 1 2 5 -1.37139 0 2 -1.37139 1
gene 1 3 5 -1.09705 0 3 -1.09705 1
gene 2 4 5 -7.09751 0 4 -7.09751 1
gene 3 1 6 -3.53084 0 5 -3.53084 1
gene 2 2 6 -1.28484 0 6 -1.28484 1
gene 3 3 6 -1.54371 0 7 -1.54371 1
gene 3 4 6 -0.615716 0 8 -0.615716 1
gene 1 5 6 -3.06571 0 58 -3.06571 1
genomeend 16

/* Organism #17 Fitness: 0 Error: 0 */
genomestart 17
node 1 1 1 3
node 2 3 1 1
node 3 3 1 1
node 4 2 1 1
node 5 3 0 2
node 6 2 0 2
gene 2 1 5 7.06151 0 1 7.06151 1
gene 1 2 5 1.05575 0 2 1.05575 1
gene 1 3 5 -0.495146 0 3 -0.495146 1
gene 2 4 5 -8 0 4 -8 1
gene 3 1 6 -1.47353 0 5 -1.47353 1
gene 2 2 6 -0.264831 0 6 -0.264831 1
gene 3 3 6 -1.2684 0 7 -1.2684 1
gene 3 4 6 1.69229 0 8 1.69229 1
gene 1 5 6 -2.19801 0 58 -2.19801 1
genomeend 17

/* Organism #18 Fitness: 187 Error: 0 */
genomestart 18
node 1 1 1 3
node 2 3 1 1
node 3 3 1 1
node 4 2 1 1
node 5 3 0 2
node 6 2 0 2
gene 2 1 5 7.06151 0 1 7.06151 1
gene 1 2 5 -1.33356 0 2 -1.33356 1
gene 1 3 5 -1.39955 0 3 -1.39955 1
gene 2 4 5 -8 0 4 -8 1
gene 3 1 6 -3.97895 0 5 -3.97895 1
gene 2 2 6 -1.28484 0 6 -1.28484 1
gene 3 3 6 -2.33087 0 7 -2.33087 1
gene 3 4 6 -0.615716 0 8 -0.615716 1
gene 1 5 6 -2.19801 0 58 -2.19801 1
genomeend 18

/* Organism #19 Fitness: 37 Error: 0 */
genomestart 19
node 1 1 1 3
node 2 3 1 1
node 3 3 1 1
node 4 2 1 1
node 5 3 0 2
node 6 2 0 2
gene 2 1 5 6.5917 0 1 6.5917 1
gene 1 2 5 -3.68649 0 2 -3.68649 1
gene 1 3 5 -1.55813 0 3 -1.55813 1
gene 2 4 5 -7.42206 0 4 -7.42206 1
gene 3 1 6 -0.866294 0 5 -0.866294 1
gene 2 2 6 -1.28484 0 6 -1.28484 1
gene 3 3 6 0.550955 0 7 0.550955 1
gene 3 4 6 -0.317438 0 8 -0.317438 1
gene 1 5 6 -5.36503 0 58 -5.36503 1
genomeend 19

/* Species #374 : (Size 1) (AF 0) (Age 4)  */


/* Organism #20 Fitness: 0 Error: 0 */
genomestart 20
node 1 1 1 3
node 2 3 1 1
node 3 3 1 1
node 4 2 1 1
node 5 3 0 2
node 6 2 0 2
gene 2 1 5 0.252052 0 1 0.252052 1
gene 1 2 5 -2.94964 0 2 -2.94964 1
gene 1 3 5 0.339751 0 3 0.339751 1
gene 2 4 5 0.945923 0 4 0.945923 1
gene 3 1 6 -8 0 5 -8 1
gene 2 2 6 -0.852021 0 6 -0.852021 1
gene 3 3 6 -3.84609 0 7 -3.84609 1
gene 3 4 6 7.49747 0 8 7.49747 1
gene 1 5 6 0.543284 0 58 0.543284 1
genomeend 20

/* Species #386 : (Size 2) (AF 18) (Age 3)  */


/* Organism #21 Fitness: 0 Error: 0 */
genomestart 21
node 1 1 1 3
node 2 3 1 1
node 3 1 1 1
node 4 2 1 1
node 5 3 0 2
node 6 2 0 2
gene 2 1 5 3.63316 0 1 3.63316 1
gene 1 2 5 -0.920496 0 2 -0.920496 1
gene 2 3 5 -5.18424 0 3 -5.18424 1
gene 2 4 5 -7.3768 0 4 -7.3768 1
gene 3 1 6 -8 0 5 -8 1
gene 3 2 6 1.89724 0 6 1.89724 1
gene 3 3 6 -3.98796 0 7 -3.98796 1
gene 3 4 6 -1.77119 0 8 -1.77119 1
gene 1 5 6 3.16005 0 58 3.16005 1
genomeend 21

/* Organism #22 Fitness: 36 Error: 0 */
genomestart 22
node 1 1 1 3
node 2 3 1 1
node 3 1 1 1
node 4 2 1 1
node 5 3 0 2
node 6 1 0 2
gene 2 1 5 -0.00242906 0 1 -0.00242906 1
gene 1 2 5 -2.31912 0 2 -2.31912 1
gene 2 3 5 -2.78247 0 3 -2.78247 1
gene 2 4 5 -8 0 4 -8 1
gene 3 1 6 -6.93508 0 5 -6.93508 1
gene 3 2 6 1.32005 0 6 1.32005 1
gene 3 3 6 -2.43074 0 7 -2.43074 1
gene 3 4 6 -2.12998 0 8 -2.12998 1
gene 1 5 6 2.57767 0 58 2.57767 1
genomeend 22

/* Species #389 : (Size 1) (AF 37) (Age 3)  */


/* Organism #23 Fitness: 37 Error: 0 */
genomestart 23
node 1 1 1 3
node 2 3 1 1
node 3 3 1 1
node 4 2 1 1
node 5 3 0 2
node 6 2 0 2
gene 2 1 5 2.43543 0 1 2.43543 1
gene 1 2 5 -0.820047 0 2 -0.820047 1
gene 1 3 5 0.147511 0 3 0.147511 1
gene 2 4 5 1.85033 0 4 1.85033 1
gene 3 1 6 -3.42277 0 5 -3.42277 1
gene 2 2 6 1.09333 0 6 1.09333 1
gene 3 3 6 0.0108094 0 7 0.0108094 1
gene 1 4 6 -0.146318 0 8 -0.146318 1
gene 1 5 6 -0.388143 0 58 -0.388143 1
genomeend 23

/* Species #391 : (Size 1) (AF 0) (Age 3)  */


/* Organism #24 Fitness: 0 Error: 0 */
genomestart 24
node 1 1 1 3
node 2 3 1 1
node 3 3 1 1
node 4 2 1 1
node 5 3 0 2
node 6 2 0 2
gene 2 1 5 8 0 1 8 1
gene 1 2 5 -4.19604 0 2 -4.19604 1
gene 1 3 5 -6.87272 0 3 -6.87272 1
gene 2 4 5 1.36752 0 4 1.36752 1
gene 3 1 6 -8 0 5 -8 1
gene 2 2 6 -1.00167 0 6 -1.00167 1
gene 3 3 6 -0.894142 0 7 -0.894142 1
gene 3 4 6 6.27503 0 8 6.27503 1
gene 1 5 6 5.66714 0 58 5.66714 1
genomeend 24

/* Species #395 : (Size 1) (AF 0) (Age 3)  */


/* Organism #25 Fitness: 0 Error: 0 */
genomestart 25
node 1 1 1 3
node 2 3 1 1
node 3 3 1 1
node 4 2 1 1
node 5 2 0 2
node 6 2 0 2
gene 2 1 5 5.93014 0 1 5.93014 1
gene 1 2 5 -5.62768 0 2 -5.62768 1
gene 1 3 5 1.81659 0 3 1.81659 1
gene 2 4 5 -7.31309 0 4 -7.31309 1
gene 3 1 6 -1.18855 0 5 -1.18855 1
gene 2 2 6 -0.641031 0 6 -0.641031 1
gene 3 3 6 -5.19135 0 7 -5.19135 1
gene 3 4 6 -2.48237 0 8 -2.48237 1
gene 1 5 6 -3.05 0 58 -3.05 1
genomeend 25

/* Species #397 : (Size 3) (AF 121.333) (Age 3)  */


/* Organism #26 Fitness: 0 Error: 0 */
genomestart 26
node 1 1 1 3
node 2 3 1 1
node 3 3 1 1
node 4 2 1 1
node 5 3 0 2
node 6 2 0 2
gene 2 1 5 -1.0413 0 1 -1.0413 1
gene 1 2 5 -0.0402487 0 2 -0.0402487 1
gene 1 3 5 2.39358 0 3 2.39358 1
gene 2 4 5 -4.4202 0 4 -4.4202 1
gene 3 1 6 -8 0 5 -8 1
gene 2 2 6 0.00145708 0 6 0.00145708 1
gene 3 3 6 -3.2106 0 7 -3.2106 1
gene 3 4 6 3.25804 0 8 3.25804 1
gene 1 5 6 2.01073 0 58 2.01073 1
genomeend 26

/* Organism #27 Fitness: 185 Error: 0 */
genomestart 27
node 1 1 1 3
node 2 3 1 1
node 3 3 1 1
node 4 2 1 1
node 5 3 0 2
node 6 2 0 2
gene 2 1 5 -1.0413 0 1 -1.0413 1
gene 1 2 5 -0.0402487 0 2 -0.0402487 1
gene 1 3 5 2.39358 0 3 2.39358 1
gene 2 4 5 -4.4202 0 4 -4.4202 1
gene 3 1 6 -8 0 5 -8 1
gene 2 2 6 0.00145708 0 6 0.00145708 1
gene 3 3 6 -3.2106 0 7 -3.2106 1
gene 3 4 6 3.25804 0 8 3.25804 1
gene 1 5 6 2.01073 0 58 2.01073 1
genomeend 27

/* Organism #28 Fitness: 179 Error: 0 */
genomestart 28
node 1 1 1 3
node 2 3 1 1
node 3 3 1 1
node 4 2 1 1
node 5 3 0 2
node 6 2 0 2
gene 2 1 5 -1.0413 0 1 -1.0413 1
gene 1 2 5 -0.0402487 0 2 -0.0402487 1
gene 1 3 5 2.39358 0 3 2.39358 1
gene 2 4 5 -4.4202 0 4 -4.4202 1
gene 3 1 6 -8 0 5 -8 1
gene 2 2 6 0.00145708 0 6 0.00145708 1
gene 3 3 6 -3.2106 0 7 -3.2106 1
gene 3 4 6 3.25804 0 8 3.25804 1
gene 1 5 6 2.01073 0 58 2.01073 1
genomeend 28

/* Species #400 : (Size 2) (AF 6.5) (Age 3)  */


/* Organism #29 Fitness: 0 Error: 0 */
genomestart 29
node 1 1 1 3
node 2 3 1 1
node 3 3 1 1
node 4 2 1 1
node 5 3 0 2
node 6 2 0 2
gene 2 1 5 8 0 1 8 1
gene 1 2 5 -1.01131 0 2 -1.01131 1
gene 1 3 5 -1.2501 0 3 -1.2501 1
gene 2 4 5 -5.12551 0 4 -5.12551 1
gene 3 1 6 -1.07251 0 5 -1.07251 1
gene 2 2 6 -1.01767 0 6 -1.01767 1
gene 3 3 6 -1.74164 0 7 -1.74164 1
gene 3 4 6 -4.00231 0 8 -4.00231 1
gene 1 5 6 3.04662 0 58 3.04662 1
genomeend 29

/* Organism #30 Fitness: 13 Error: 0 */
genomestart 30
node 1 1 1 3
node 2 3 1 1
node 3 3 1 1
node 4 2 1 1
node 5 3 0 2
node 6 2 0 2
gene 2 1 5 5.648 0 1 5.648 1
gene 1 2 5 -0.11841 0 2 -0.11841 1
gene 1 3 5 -1.18318 0 3 -1.18318 1
gene 2 4 5 -5.14343 0 4 -5.14343 1
gene 3 1 6 -2.34616 0 5 -2.34616 1
gene 2 2 6 1.72201 0 6 1.72201 1
gene 3 3 6 -0.577535 0 7 -0.577535 1
gene 3 4 6 -5.08811 0 8 -5.08811 1
gene 1 5 6 0.74591 0 58 0.74591 1
genomeend 30

/* Species #401 : (Size 40) (AF 94.125) (Age 3)  */


/* Organism #31 Fitness: 0 Error: 0 */
genomestart 31
node 1 1 1 3
node 2 3 1 1
node 3 3 1 1
node 4 2 1 1
node 5 3 0 2
node 6 2 0 2
gene 2 1 5 8 0 1 8 1
gene 1 2 5 -1.77468 0 2 -1.77468 1
gene 1 3 5 1.52131 0 3 1.52131 1
gene 2 4 5 -0.0548261 0 4 -0.0548261 1
gene 3 1 6 -1.15839 0 5 -1.15839 1
gene 2 2 6 -1.28484 0 6 -1.28484 1
gene 3 3 6 -2.19653 0 7 -2.19653 1
gene 3 4 6 1.10194 0 8 1.10194 1
gene 1 5 6 -1.95301 0 58 -1.95301 1
genomeend 31

/* Organism #32 Fitness: 36 Error: 0 */
genomestart 32
node 1 1 1 3
node 2 3 1 1
node 3 3 1 1
node 4 2 1 1
node 5 3 0 2
node 6 2 0 2
gene 2 1 5 6.48758 0 1 6.48758 1
gene 1 2 5 -2.32629 0 2 -2.32629 1
gene 1 3 5 2.698 0 3 2.698 1
gene 2 4 5 -1.70317 0 4 -1.70317 1
gene 3 1 6 -0.931687 0 5 -0.931687 1
gene 2 2 6 1.58049 0 6 1.58049 1
gene 3 3 6 -4.00252 0 7 -4.00252 1
gene 3 4 6 0.0642947 0 8 0.0642947 1
gene 1 5 6 -0.858929 0 58 -0.858929 1
genomeend 32

/* Organism #33 Fitness: 532 Error: 0 */
genomestart 33
node 1 1 1 3
node 2 3 1 1
node 3 3 1 1
node 4 2 1 1
node 5 3 0 2
node 6 2 0 2
gene 2 1 5 8 0 1 8 1
gene 1 2 5 -3.10232 0 2 -3.10232 1
gene 1 3 5 2.07079 0 3 2.07079 1
gene 2 4 5 -1.28522 0 4 -1.28522 1
gene 3 1 6 -0.820061 0 5 -0.820061 1
gene 2 2 6 -2.56506 0 6 -2.56506 1
gene 3 3 6 -3.25014 0 7 -3.25014 1
gene 3 4 6 -0.27688 0 8 -0.27688 1
gene 1 5 6 -0.133232 0 58 -0.133232 1
genomeend 33

/* Organism #34 Fitness: 36 Error: 0 */
genomestart 34
node 1 1 1 3
node 2 3 1 1
node 3 3 1 1
node 4 2 1 1
node 5 3 0 2
node 6 2 0 2
gene 2 1 5 6.57211 0 1 6.57211 1
gene 1 2 5 -1.7543 0 2 -1.7543 1
gene 3 3 5 2.85627 0 3 2.85627 1
gene 2 4 5 1.68494 0 4 1.68494 1
gene 3 1 6 0.432075 0 5 0.432075 1
gene 2 2 6 -0.147749 0 6 -0.147749 1
gene 3 3 6 -0.92794 0 7 -0.92794 1
gene 3 4 6 0.0966531 0 8 0.0966531 1
gene 1 5 6 0.0739375 0 58 0.0739375 1
genomeend 34

/* Organism #35 Fitness: 37 Error: 0 */
genomestart 35
node 1 1 1 3
node 2 3 1 1
node 3 3 1 1
node 4 2 1 1
node 5 3 0 2
node 6 2 0 2
gene 2 1 5 8 0 1 8 1
gene 1 2 5 -4.2622 0 2 -4.2622 1
gene 1 3 5 0.563154 0 3 0.563154 1
gene 2 4 5 -0.324529 0 4 -0.324529 1
gene 3 1 6 0.442201 0 5 0.442201 1
gene 2 2 6 -0.564925 0 6 -0.564925 1
gene 3 3 6 -0.753519 0 7 -0.753519 1
gene 3 4 6 -1.32774 0 8 -1.32774 1
gene 1 5 6 -3.68935 0 58 -3.68935 1
genomeend 35

/* Organism #36 Fitness: 0 Error: 0 */
genomestart 36
node 1 1 1 3
node 2 3 1 1
node 3 3 1 1
node 4 2 1 1
node 5 3 0 2
node 6 2 0 2
gene 2 1 5 8 0 1 8 1
gene 1 2 5 -0.593731 0 2 -0.593731 1
gene 1 3 5 3.59898 0 3 3.59898 1
gene 2 4 5 -0.464153 0 4 -0.464153 1
gene 3 1 6 0.735738 0 5 0.735738 1
gene 2 2 6 -2.0651 0 6 -2.0651 1
gene 3 3 6 -3.9694 0 7 -3.9694 1
gene 3 4 6 2.45693 0 8 2.45693 1
gene 1 5 6 -2.48431 0 58 -2.48431 1
genomeend 36

/* Organism #37 Fitness: 0 Error: 0 */
genomestart 37
node 1 1 1 3
node 2 3 1 1
node 3 3 1 1
node 4 2 1 1
node 5 3 0 2
node 6 2 0 2
gene 2 1 5 6.85361 0 1 6.85361 1
gene 1 2 5 -2.31894 0 2 -2.31894 1
gene 1 3 5 3.608 0 3 3.608 1
gene 2 4 5 0.38563 0 4 0.38563 1
gene 3 1 6 -0.80071 0 5 -0.80071 1
gene 2 2 6 -2.80704 0 6 -2.80704 1
gene 3 3 6 -0.0312338 0 7 -0.0312338 1
gene 3 4 6 2.17772 0 8 2.17772 1
gene 1 5 6 -1.82617 0 58 -1.82617 1
genomeend 37

/* Organism #38 Fitness: 0 Error: 0 */
genomestart 38
node 1 1 1 3
node 2 3 1 1
node 3 3 1 1
node 4 2 1 1
node 5 3 0 2
node 6 2 0 2
gene 2 1 5 6.059 0 1 6.059 1
gene 1 2 5 -0.119331 0 2 -0.119331 1
gene 1 3 5 0.94131 0 3 0.94131 1
gene 2 4 5 -1.41533 0 4 -1.41533 1
gene 3 1 6 -1.60926 0 5 -1.60926 1
gene 2 2 6 -0.402274 0 6 -0.402274 1
gene 3 3 6 -3.81207 0 7 -3.81207 1
gene 3 4 6 0.559817 0 8 0.559817 1
gene 1 5 6 -3.5635 0 58 -3.5635 1
genomeend 38

/* Organism #39 Fitness: 0 Error: 0 */
genomestart 39
node 1 1 1 3
node 2 3 1 1
node 3 3 1 1
node 4 2 1 1
node 5 3 0 2
node 6 2 0 2
gene 2 1 5 5.90251 0 1 5.90251 1
gene 1 2 5 0.359985 0 2 0.359985 1
gene 1 3 5 1.52131 0 3 1.52131 1
gene 2 4 5 -0.969341 0 4 -0.969341 1
gene 3 1 6 -2.33679 0 5 -2.33679 1
gene 2 2 6 -1.28484 0 6 -1.28484 1
gene 3 3 6 -0.649958 0 7 -0.649958 1
gene 3 4 6 1.22438 0 8 1.22438 1
gene 1 5 6 -1.07428 0 58 -1.07428 1
genomeend 39

/* Organism #40 Fitness: 36 Error: 0 */
genomestart 40
node 1 1 1 3
node 2 3 1 1
node 3 3 1 1
node 4 2 1 1
node 5 3 0 2
node 6 2 0 2
gene 2 1 5 8 0 1 8 1
gene 1 2 5 -1.49519 0 2 -1.49519 1
gene 1 3 5 1.21364 0 3 1.21364 1
gene 2 4 5 1.8893 0 4 1.8893 1
gene 3 1 6 -1.82145 0 5 -1.82145 1
gene 2 2 6 -0.11201 0 6 -0.11201 1
gene 3 3 6 -4.14629 0 7 -4.14629 1
gene 3 4 6 0.729147 0 8 0.729147 1
gene 1 5 6 -4.2297 0 58 -4.2297 1
genomeend 40

/* Organism #41 Fitness: 183 Error: 0 */
genomestart 41
node 1 1 1 3
node 2 3 1 1
node 3 3 1 1
node 4 2 1 1
node 5 3 0 2
node 6 2 0 2
gene 2 1 5 8 0 1 8 1
gene 1 2 5 -1.77468 0 2 -1.77468 1
gene 1 3 5 1.52131 0 3 1.52131 1
gene 2 4 5 -0.0548261 0 4 -0.0548261 1
gene 3 1 6 -1.15839 0 5 -1.15839 1
gene 2 2 6 -1.28484 0 6 -1.28484 1
gene 3 3 6 -2.19653 0 7 -2.19653 1
gene 3 4 6 1.10194 0 8 1.10194 1
gene 1 5 6 -1.95301 0 58 -1.95301 1
genomeend 41

/* Organism #42 Fitness: 0 Error: 0 */
genomestart 42
node 1 1 1 3
node 2 3 1 1
node 3 3 1 1
node 4 2 1 1
node 5 3 0 2
node 6 2 0 2
gene 2 1 5 8 0 1 8 1
gene 1 2 5 0.0617049 0 2 0.0617049 1
gene 1 3 5 1.97949 0 3 1.97949 1
gene 2 4 5 -0.314502 0 4 -0.314502 1
gene 3 1 6 0.0551054 0 5 0.0551054 1
gene 2 2 6 -1.99024 0 6 -1.99024 1
gene 3 3 6 -4.47116 0 7 -4.47116 1
gene 3 4 6 1.82175 0 8 1.82175 1
gene 1 5 6 0.291882 0 58 0.291882 1
genomeend 42

/* Organism #43 Fitness: 181 Error: 0 */
genomestart 43
node 1 1 1 3
node 2 3 1 1
node 3 3 1 1
node 4 2 1 1
node 5 3 0 2
node 6 2 0 2
gene 2 1 5 8 0 1 8 1
gene 1 2 5 -1.77468 0 2 -1.77468 1
gene 1 3 5 1.52131 0 3 1.52131 1
gene 2 4 5 -0.0548261 0 4 -0.0548261 1
gene 3 1 6 -1.15839 0 5 -1.15839 1
gene 2 2 6 -1.28484 0 6 -1.28484 1
gene 3 3 6 -2.19653 0 7 -2.19653 1
gene 3 4 6 1.10194 0 8 1.10194 1
gene 1 5 6 -1.95301 0 58 -1.95301 1
genomeend 43

/* Organism #44 Fitness: 34 Error: 0 */
genomestart 44
node 1 1 1 3
node 2 3 1 1
node 3 3 1 1
node 4 2 1 1
node 5 3 0 2
node 6 2 0 2
gene 2 1 5 7.02031 0 1 7.02031 1
gene 1 2 5 -1.77468 0 2 -1.77468 1
gene 1 3 5 1.47415 0 3 1.47415 1
gene 2 4 5 2.36001 0 4 2.36001 1
gene 3 1 6 -2.73472 0 5 -2.73472 1
gene 2 2 6 -1.35524 0 6 -1.35524 1
gene 3 3 6 -3.68686 0 7 -3.68686 1
gene 3 4 6 -1.03529 0 8 -1.03529 1
gene 1 5 6 -0.624114 0 58 -0.624114 1
genomeend 44

/* Organism #45 Fitness: 36 Error: 0 */
genomestart 45
node 1 1 1 3
node 2 3 1 1
node 3 3 1 1
node 4 2 1 1
node 5 3 0 2
node 6 2 0 2
gene 2 1 5 8 0 1 8 1
gene 1 2 5 -1.77468 0 2 -1.77468 1
gene 1 3 5 1.52131 0 3 1.52131 1
gene 2 4 5 -0.0548261 0 4 -0.0548261 1
gene 3 1 6 -1.15839 0 5 -1.15839 1
gene 2 2 6 -1.28484 0 6 -1.28484 1
gene 3 3 6 -2.19653 0 7 -2.19653 1
gene 3 4 6 1.10194 0 8 1.10194 1
gene 1 5 6 -1.95301 0 58 -1.95301 1
genomeend 45

/* Organism #46 Fitness: 35 Error: 0 */
genomestart 46
node 1 1 1 3
node 2 3 1 1
node 3 3 1 1
node 4 2 1 1
node 5 3 0 2
node 6 2 0 2
gene 2 1 5 8 0 1 8 1
gene 1 2 5 -3.53718 0 2 -3.53718 1
gene 1 3 5 0.513652 0 3 0.513652 1
gene 2 4 5 -0.421185 0 4 -0.421185 1
gene 3 1 6 -0.983751 0 5 -0.983751 1
gene 2 2 6 -2.70845 0 6 -2.70845 1
gene 3 3 6 -1.07202 0 7 -1.07202 1
gene 3 4 6 0.857526 0 8 0.857526 1
gene 1 5 6 -3.4676 0 58 -3.4676 1
genomeend 46

/* Organism #47 Fitness: 36 Error: 0 */
genomestart 47
node 1 1 1 3
node 2 3 1 1
node 3 1 1 1
node 4 2 1 1
node 5 3 0 2
node 6 2 0 2
gene 2 1 5 8 0 1 8 1
gene 1 2 5 -2.32048 0 2 -2.32048 1
gene 1 3 5 0.902344 0 3 0.902344 1
gene 2 4 5 -1.40583 0 4 -1.40583 1
gene 3 1 6 -2.63768 0 5 -2.63768 1
gene 2 2 6 -1.63848 0 6 -1.63848 1
gene 3 3 6 -1.9477 0 7 -1.9477 1
gene 3 4 6 3.15253 0 8 3.15253 1
gene 2 5 6 -1.25506 0 58 -1.25506 1
genomeend 47

/* Organism #48 Fitness: 33 Error: 0 */
genomestart 48
node 1 1 1 3
node 2 3 1 1
node 3 3 1 1
node 4 2 1 1
node 5 3 0 2
node 6 2 0 2
gene 2 1 5 8 0 1 8 1
gene 1 2 5 -2.21447 0 2 -2.21447 1
gene 1 3 5 0.0341529 0 3 0.0341529 1
gene 2 4 5 2.19478 0 4 2.19478 1
gene 3 1 6 -3.29938 0 5 -3.29938 1
gene 2 2 6 -1.79493 0 6 -1.79493 1
gene 3 3 6 -2.44797 0 7 -2.44797 1
gene 3 4 6 3.48476 0 8 3.48476 1
gene 1 5 6 -1.27081 0 58 -1.27081 1
genomeend 48

/* Organism #49 Fitness: 0 Error: 0 */
genomestart 49
node 1 1 1 3
node 2 3 1 1
node 3 3 1 1
node 4 2 1 1
node 5 3 0 2
node 6 2 0 2
gene 2 1 5 8 0 1 8 1
gene 1 2 5 0.663144 0 2 0.663144 1
gene 1 3 5 2.52688 0 3 2.52688 1
gene 2 4 5 -0.842141 0 4 -0.842141 1
gene 3 1 6 1.24564 0 5 1.24564 1
gene 2 2 6 -2.89671 0 6 -2.89671 1
gene 3 3 6 0.242437 0 7 0.242437 1
gene 3 4 6 2.26984 0 8 2.26984 1
gene 1 5 6 -1.85493 0 58 -1.85493 1
genomeend 49

/* Organism #50 Fitness: 0 Error: 0 */
genomestart 50
node 1 1 1 3
node 2 3 1 1
node 3 3 1 1
node 4 2 1 1
node 5 3 0 2
node 6 2 0 2
gene 2 1 5 8 0 1 8 1
gene 1 2 5 -1.1042 0 2 -1.1042 1
gene 1 3 5 2.44755 0 3 2.44755 1
gene 2 4 5 -0.503448 0 4 -0.503448 1
gene 3 1 6 -2.64451 0 5 -2.64451 1
gene 2 2 6 -2.29804 0 6 -2.29804 1
gene 3 3 6 0.114543 0 7 0.114543 1
gene 3 4 6 0.307086 0 8 0.307086 1
gene 1 5 6 -1.21809 0 58 -1.21809 1
genomeend 50

/* Organism #51 Fitness: 36 Error: 0 */
genomestart 51
node 1 1 1 3
node 2 3 1 1
node 3 3 1 1
node 4 2 1 1
node 5 3 0 2
node 6 2 0 2
gene 2 1 5 8 0 1 8 1
gene 1 2 5 -1.77468 0 2 -1.77468 1
gene 1 3 5 1.52131 0 3 1.52131 1
gene 2 4 5 -0.0548261 0 4 -0.0548261 1
gene 3 1 6 -1.15839 0 5 -1.15839 1
gene 2 2 6 -1.28484 0 6 -1.28484 1
gene 3 3 6 -2.19653 0 7 -2.19653 1
gene 3 4 6 1.10194 0 8 1.10194 1
gene 1 5 6 -1.95301 0 58 -1.95301 1
genomeend 51

/* Organism #52 Fitness: 192 Error: 0 */
genomestart 52
node 1 1 1 3
node 2 3 1 1
node 3 3 1 1
node 4 2 1 1
node 5 3 0 2
node 6 2 0 2
gene 2 1 5 8 0 1 8 1
gene 1 2 5 -1.77468 0 2 -1.77468 1
gene 1 3 5 1.52131 0 3 1.52131 1
gene 2 4 5 -0.0548261 0 4 -0.0548261 1
gene 3 1 6 -1.15839 0 5 -1.15839 1
gene 2 2 6 -1.28484 0 6 -1.28484 1
gene 3 3 6 -2.19653 0 7 -2.19653 1
gene 3 4 6 1.10194 0 8 1.10194 1
gene 1 5 6 -1.95301 0 58 -1.95301 1
genomeend 52

/* Organism #53 Fitness: 0 Error: 0 */
genomestart 53
node 1 1 1 3
node 2 3 1 1
node 3 3 1 1
node 4 2 1 1
node 5 3 0 2
node 6 2 0 2
gene 2 1 5 8 0 1 8 1
gene 1 2 5 0.632152 0 2 0.632152 1
gene 1 3 5 1.15343 0 3 1.15343 1
gene 2 4 5 -1.4144 0 4 -1.4144 1
gene 3 1 6 -2.84686 0 5 -2.84686 1
gene 2 2 6 -1.45251 0 6 -1.45251 1
gene 3 3 6 -0.276321 0 7 -0.276321 1
gene 3 4 6 2.13877 0 8 2.13877 1
gene 1 5 6 -2.19312 0 58 -2.19312 1
genomeend 53

/* Organism #54 Fitness: 37 Error: 0 */
genomestart 54
node 1 3 1 3
node 2 3 1 1
node 3 3 1 1
node 4 2 1 1
node 5 3 0 2
node 6 2 0 2
gene 2 1 5 8 0 1 8 1
gene 1 2 5 -3.94012 0 2 -3.94012 1
gene 1 3 5 0.789174 0 3 0.789174 1
gene 2 4 5 0.278112 0 4 0.278112 1
gene 3 1 6 -2.25608 0 5 -2.25608 1
gene 2 2 6 -2.84052 0 6 -2.84052 1
gene 3 3 6 -0.926601 0 7 -0.926601 1
gene 3 4 6 0.941628 0 8 0.941628 1
gene 1 5 6 -3.21182 0 58 -3.21182 1
genomeend 54

/* Organism #55 Fitness: 1142 Error: 0 */
genomestart 55
node 1 1 1 3
node 2 3 1 1
node 3 3 1 1
node 4 2 1 1
node 5 3 0 2
node 6 2 0 2
gene 2 1 5 8 0 1 8 1
gene 1 2 5 -1.77468 0 2 -1.77468 1
gene 1 3 5 1.52131 0 3 1.52131 1
gene 2 4 5 -0.0548261 0 4 -0.0548261 1
gene 3 1 6 -1.15839 0 5 -1.15839 1
gene 2 2 6 -1.28484 0 6 -1.28484 1
gene 3 3 6 -2.19653 0 7 -2.19653 1
gene 3 4 6 1.10194 0 8 1.10194 1
gene 1 5 6 -1.95301 0 58 -1.95301 1
genomeend 55

/* Organism #56 Fitness: 527 Error: 0 */
genomestart 56
node 1 1 1 3
node 2 3 1 1
node 3 3 1 1
node 4 2 1 1
node 5 3 0 2
node 6 2 0 2
gene 2 1 5 8 0 1 8 1
gene 1 2 5 -1.77468 0 2 -1.77468 1
gene 1 3 5 1.52131 0 3 1.52131 1
gene 2 4 5 -0.0548261 0 4 -0.0548261 1
gene 3 1 6 -1.15839 0 5 -1.15839 1
gene 2 2 6 -1.28484 0 6 -1.28484 1
gene 3 3 6 -2.19653 0 7 -2.19653 1
gene 3 4 6 1.10194 0 8 1.10194 1
gene 1 5 6 -1.95301 0 58 -1.95301 1
genomeend 56

/* Organism #57 Fitness: 0 Error: 0 */
genomestart 57
node 1 1 1 3
node 2 3 1 1
node 3 3 1 1
node 4 2 1 1
node 5 3 0 2
node 6 2 0 2
gene 2 1 5 6.69246 0 1 6.69246 1
gene 1 2 5 -2.12738 0 2 -2.12738 1
gene 1 3 5 3.55157 0 3 3.55157 1
gene 2 4 5 -0.408212 0 4 -0.408212 1
gene 3 1 6 1.04525 0 5 1.04525 1
gene 2 2 6 -3.06746 0 6 -3.06746 1
gene 3 3 6 -4.08694 0 7 -4.08694 1
gene 3 4 6 1.84667 0 8 1.84667 1
gene 1 5 6 -2.22702 0 58 -2.22702 1
genomeend 57

/* Organism #58 Fitness: 37 Error: 0 */
genomestart 58
node 1 1 1 3
node 2 3 1 1
node 3 3 1 1
node 4 2 1 1
node 5 3 0 2
node 6 2 0 2
gene 2 1 5 8 0 1 8 1
gene 1 2 5 -2.00678 0 2 -2.00678 1
gene 1 3 5 1.43789 0 3 1.43789 1
gene 2 4 5 1.25016 0 4 1.25016 1
gene 3 1 6 -1.9501 0 5 -1.9501 1
gene 2 2 6 1.00656 0 6 1.00656 1
gene 3 3 6 -3.35136 0 7 -3.35136 1
gene 3 4 6 0.525313 0 8 0.525313 1
gene 1 5 6 -3.25839 0 58 -3.25839 1
genomeend 58

/* Organism #59 Fitness: 35 Error: 0 */
genomestart 59
node 1 1 1 3
node 2 3 1 1
node 3 3 1 1
node 4 2 1 1
node 5 3 0 2
node 6 2 0 2
gene 2 1 5 8 0 1 8 1
gene 1 2 5 -3.09962 0 2 -3.09962 1
gene 1 3 5 2.26684 0 3 2.26684 1
gene 2 4 5 -0.738853 0 4 -0.738853 1
gene 3 1 6 0.398753 0 5 0.398753 1
gene 2 2 6 -2.90392 0 6 -2.90392 1
gene 3 3 6 -2.38404 0 7 -2.38404 1
gene 3 4 6 0.818467 0 8 0.818467 1
gene 1 5 6 -2.89988 0 58 -2.89988 1
genomeend 59

/* Organism #60 Fitness: 37 Error: 0 */
genomestart 60
node 1 1 1 3
node 2 3 1 1
node 3 3 1 1
node 4 2 1 1
node 5 3 0 2
node 6 2 0 2
gene 2 1 5 8 0 1 8 1
gene 1 2 5 -1.57587 0 2 -1.57587 1
gene 1 3 5 2.76149 0 3 2.76149 1
gene 2 4 5 1.7213 0 4 1.7213 1
gene 3 1 6 -1.57079 0 5 -1.57079 1
gene 2 2 6 0.670637 0 6 0.670637 1
gene 3 3 6 -4.3167 0 7 -4.3167 1
gene 3 4 6 0.109209 0 8 0.109209 1
gene 1 5 6 -0.292776 0 58 -0.292776 1
genomeend 60

/* Organism #61 Fitness: 36 Error: 0 */
genomestart 61
node 1 1 1 3
node 2 3 1 1
node 3 3 1 1
node 4 2 1 1
node 5 3 0 2
node 6 2 0 2
gene 2 1 5 6.63217 0 1 6.63217 1
gene 1 2 5 -2.48636 0 2 -2.48636 1
gene 1 3 5 2.2077 0 3 2.2077 1
gene 2 4 5 -2.09346 0 4 -2.09346 1
gene 3 1 6 -2.96181 0 5 -2.96181 1
gene 2 2 6 -0.772296 0 6 -0.772296 1
gene 3 3 6 -2.04375 0 7 -2.04375 1
gene 3 4 6 2.48539 0 8 2.48539 1
gene 1 5 6 -0.650668 0 58 -0.650668 1
genomeend 61

/* Organism #62 Fitness: 36 Error: 0 */
genomestart 62
node 1 1 1 3
node 2 3 1 1
node 3 3 1 1
node 4 2 1 1
node 5 3 0 2
node 6 2 0 2
gene 2 1 5 5.83257 0 1 5.83257 1
gene 1 2 5 -3.90125 0 2 -3.90125 1
gene 1 3 5 2.22032 0 3 2.22032 1
gene 2 4 5 -0.662486 0 4 -0.662486 1
gene 3 1 6 -0.378444 0 5 -0.378444 1
gene 2 2 6 -0.1499 0 6 -0.1499 1
gene 3 3 6 -0.171074 0 7 -0.171074 1
gene 3 4 6 1.43398 0 8 1.43398 1
gene 1 5 6 -1.95301 0 58 -1.95301 1
genomeend 62

/* Organism #63 Fitness: 182 Error: 0 */
genomestart 63
node 1 1 1 3
node 2 3 1 1
node 3 3 1 1
node 4 2 1 1
node 5 3 0 2
node 6 2 0 2
gene 2 1 5 8 0 1 8 1
gene 1 2 5 -1.77468 0 2 -1.77468 1
gene 1 3 5 1.52131 0 3 1.52131 1
gene 2 4 5 -0.0548261 0 4 -0.0548261 1
gene 3 1 6 -1.15839 0 5 -1.15839 1
gene 2 2 6 -1.28484 0 6 -1.28484 1
gene 3 3 6 -2.19653 0 7 -2.19653 1
gene 3 4 6 1.10194 0 8 1.10194 1
gene 1 5 6 -1.95301 0 58 -1.95301 1
genomeend 63

/* Organism #64 Fitness: 0 Error: 0 */
genomestart 64
node 1 1 1 3
node 2 3 1 1
node 3 3 1 1
node 4 2 1 1
node 5 3 0 2
node 6 2 0 2
gene 2 1 5 6.26982 0 1 6.26982 1
gene 1 2 5 -1.63541 0 2 -1.63541 1
gene 1 3 5 2.21834 0 3 2.21834 1
gene 2 4 5 -0.57831 0 4 -0.57831 1
gene 3 1 6 -0.256387 0 5 -0.256387 1
gene 2 2 6 -1.85529 0 6 -1.85529 1
gene 3 3 6 -1.44568 0 7 -1.44568 1
gene 3 4 6 -0.76144 0 8 -0.76144 1
gene 1 5 6 -1.28175 0 58 -1.28175 1
genomeend 64

/* Organism #65 Fitness: 0 Error: 0 */
genomestart 65
node 1 1 1 3
node 2 3 1 1
node 3 3 1 1
node 4 2 1 1
node 5 3 0 2
node 6 2 0 2
gene 2 1 5 8 0 1 8 1
gene 1 2 5 -0.820232 0 2 -0.820232 1
gene 1 3 5 0.477523 0 3 0.477523 1
gene 2 4 5 -0.869953 0 4 -0.869953 1
gene 3 1 6 -3.10244 0 5 -3.10244 1
gene 2 2 6 -3.27235 0 6 -3.27235 1
gene 3 3 6 -4.3127 0 7 -4.3127 1
gene 3 4 6 -0.757721 0 8 -0.757721 1
gene 1 5 6 -0.442008 0 58 -0.442008 1
genomeend 65

/* Organism #66 Fitness: 181 Error: 0 */
genomestart 66
node 1 1 1 3
node 2 3 1 1
node 3 3 1 1
node 4 2 1 1
node 5 3 0 2
node 6 2 0 2
gene 2 1 5 8 0 1 8 1
gene 1 2 5 -1.77468 0 2 -1.77468 1
gene 1 3 5 1.52131 0 3 1.52131 1
gene 2 4 5 -0.0548261 0 4 -0.0548261 1
gene 3 1 6 -1.15839 0 5 -1.15839 1
gene 2 2 6 -1.28484 0 6 -1.28484 1
gene 3 3 6 -2.19653 0 7 -2.19653 1
gene 3 4 6 1.10194 0 8 1.10194 1
gene 1 5 6 -1.95301 0 58 -1.95301 1
genomeend 66

/* Organism #67 Fitness: 0 Error: 0 */
genomestart 67
node 1 1 1 3
node 2 3 1 1
node 3 3 1 1
node 4 2 1 1
node 5 3 0 2
node 6 2 0 2
gene 2 1 5 8 0 1 8 1
gene 1 2 5 -1.7728 0 2 -1.7728 1
gene 1 3 5 3.48985 0 3 3.48985 1
gene 2 4 5 0.65155 0 4 0.65155 1
gene 3 1 6 0.612748 0 5 0.612748 1
gene 2 2 6 -2.18342 0 6 -2.18342 1
gene 1 3 6 -1.19824 0 7 -1.19824 1
gene 3 4 6 2.55646 0 8 2.55646 1
gene 1 5 6 0.175594 0 58 0.175594 1
genomeend 67

/* Organism #68 Fitness: 35 Error: 0 */
genomestart 68
node 1 1 1 3
node 2 3 1 1
node 3 3 1 1
node 4 2 1 1
node 5 3 0 2
node 6 2 0 2
gene 3 1 5 8 0 1 8 1
gene 1 2 5 -0.61663 0 2 -0.61663 1
gene 1 3 5 -0.0937322 0 3 -0.0937322 1
gene 2 4 5 2.2021 0 4 2.2021 1
gene 3 1 6 -2.23184 0 5 -2.23184 1
gene 2 2 6 -0.456547 0 6 -0.456547 1
gene 3 3 6 -2.77448 0 7 -2.77448 1
gene 3 4 6 -0.834515 0 8 -0.834515 1
gene 1 5 6 0.385028 0 58 0.385028 1
genomeend 68

/* Organism #69 Fitness: 0 Error: 0 */
genomestart 69
node 1 1 1 3
node 2 3 1 1
node 3 3 1 1
node 4 2 1 1
node 5 3 0 2
node 6 2 0 2
gene 2 1 5 8 0 1 8 1
gene 1 2 5 -1.46364 0 2 -1.46364 1
gene 1 3 5 -0.228793 0 3 -0.228793 1
gene 2 4 5 -1.31016 0 4 -1.31016 1
gene 3 1 6 1.29411 0 5 1.29411 1
gene 2 2 6 -1.89239 0 6 -1.89239 1
gene 3 3 6 -1.96756 0 7 -1.96756 1
gene 3 4 6 -0.590971 0 8 -0.590971 1
gene 1 5 6 -0.886065 0 58 -0.886065 1
genomeend 69

/* Organism #70 Fitness: 37 Error: 0 */
genomestart 70
node 1 1 1 3
node 2 3 1 1
node 3 3 1 1
node 4 2 1 1
node 5 3 0 2
node 6 2 0 2
gene 2 1 5 8 0 1 8 1
gene 1 2 5 -4.1827 0 2 -4.1827 1
gene 1 3 5 2.13672 0 3 2.13672 1
gene 2 4 5 -2.07635 0 4 -2.07635 1
gene 3 1 6 -1.53721 0 5 -1.53721 1
gene 2 2 6 -0.520574 0 6 -0.520574 1
gene 3 3 6 -1.89476 0 7 -1.89476 1
gene 3 4 6 -1.23655 0 8 -1.23655 1
gene 1 5 6 -2.14613 0 58 -2.14613 1
genomeend 70

/* Species #403 : (Size 1) (AF 0) (Age 3)  */


/* Organism #71 Fitness: 0 Error: 0 */
genomestart 71
node 1 1 1 3
node 2 3 1 1
node 3 3 1 1
node 4 2 1 1
node 5 3 0 2
node 6 2 0 2
gene 2 1 5 1.58146 0 1 1.58146 1
gene 1 2 5 -2.72546 0 2 -2.72546 1
gene 1 3 5 -2.08681 0 3 -2.08681 1
gene 2 4 5 4.15184 0 4 4.15184 1
gene 3 1 6 -5.64798 0 5 -5.64798 1
gene 2 2 6 3.28625 0 6 3.28625 1
gene 3 3 6 -0.609822 0 7 -0.609822 1
gene 3 4 6 6.3083 0 8 6.3083 1
gene 1 5 6 -1.66337 0 58 -1.66337 1
genomeend 71

/* Species #409 : (Size 1) (AF 37) (Age 2)  */


/* Organism #72 Fitness: 37 Error: 0 */
genomestart 72
node 1 1 1 3
node 2 3 1 1
node 3 3 1 1
node 4 2 1 1
node 5 3 0 2
node 6 2 0 2
gene 2 1 5 5.93689 0 1 5.93689 1
gene 1 2 5 -3.80108 0 2 -3.80108 1
gene 1 3 5 0.610132 0 3 0.610132 1
gene 2 4 5 2.32067 0 4 2.32067 1
gene 3 1 6 -2.7592 0 5 -2.7592 1
gene 2 2 6 -3.0735 0 6 -3.0735 1
gene 3 3 6 -1.85677 0 7 -1.85677 1
gene 3 4 6 0.108126 0 8 0.108126 1
gene 1 5 6 -0.165639 0 58 -0.165639 1
genomeend 72

/* Species #410 : (Size 1) (AF 35) (Age 2)  */


/* Organism #73 Fitness: 35 Error: 0 */
genomestart 73
node 1 1 1 3
node 2 3 1 1
node 3 3 1 1
node 4 2 1 1
node 5 3 0 2
node 6 2 0 2
gene 2 1 5 1.48597 0 1 1.48597 1
gene 1 2 5 -0.285578 0 2 -0.285578 1
gene 1 3 5 0.167451 0 3 0.167451 1
gene 2 4 5 -6.19503 0 4 -6.19503 1
gene 3 1 6 -2.11405 0 5 -2.11405 1
gene 2 2 6 1.64261 0 6 1.64261 1
gene 3 3 6 -1.7625 0 7 -1.7625 1
gene 3 4 6 1.17955 0 8 1.17955 1
gene 1 5 6 -2.2784 0 58 -2.2784 1
genomeend 73

/* Species #412 : (Size 1) (AF 0) (Age 2)  */


/* Organism #74 Fitness: 0 Error: 0 */
genomestart 74
node 1 1 1 3
node 2 3 1 1
node 3 3 1 1
node 4 2 1 1
node 5 3 0 2
node 6 2 0 2
gene 2 1 5 -1.59181 0 1 -1.59181 1
gene 1 2 5 0.454325 0 2 0.454325 1
gene 1 3 5 -1.56939 0 3 -1.56939 1
gene 2 4 5 -1.67432 0 4 -1.67432 1
gene 3 1 6 0.216138 0 5 0.216138 1
gene 2 2 6 -1.71917 0 6 -1.71917 1
gene 3 3 6 0.268295 0 7 0.268295 1
gene 3 4 6 0.495574 0 8 0.495574 1
gene 1 5 6 -0.495825 0 58 -0.495825 1
genomeend 74

/* Species #413 : (Size 3) (AF 24.6667) (Age 2)  */


/* Organism #75 Fitness: 0 Error: 0 */
genomestart 75
node 1 1 1 3
node 2 3 1 1
node 3 3 1 1
node 4 2 1 1
node 5 3 0 2
node 6 2 0 2
gene 2 1 5 -0.576784 0 1 -0.576784 1
gene 1 2 5 1.76088 0 2 1.76088 1
gene 1 3 5 0.68408 0 3 0.68408 1
gene 2 4 5 0.181463 0 4 0.181463 1
gene 3 1 6 -3.71441 0 5 -3.71441 1
gene 2 2 6 1.0182 0 6 1.0182 1
gene 3 3 6 1.02059 0 7 1.02059 1
gene 3 4 6 0.76738 0 8 0.76738 1
gene 1 5 6 -2.57099 0 58 -2.57099 1
genomeend 75

/* Organism #76 Fitness: 37 Error: 0 */
genomestart 76
node 1 1 1 3
node 2 3 1 1
node 3 3 1 1
node 4 2 1 1
node 5 3 0 2
node 6 2 0 2
gene 2 1 5 -1.90182 0 1 -1.90182 1
gene 1 2 5 -2.96303 0 2 -2.96303 1
gene 1 3 5 0.459439 0 3 0.459439 1
gene 2 4 5 -0.419654 0 4 -0.419654 1
gene 3 1 6 -1.67779 0 5 -1.67779 1
gene 2 2 6 -0.520976 0 6 -0.520976 1
gene 3 3 6 -0.168587 0 7 -0.168587 1
gene 3 4 6 2.52792 0 8 2.52792 1
gene 1 5 6 -5.38724 0 58 -5.38724 1
genomeend 76

/* Organism #77 Fitness: 37 Error: 0 */
genomestart 77
node 1 1 1 3
node 2 3 1 1
node 3 3 1 1
node 4 2 1 1
node 5 3 0 2
node 6 2 0 2
gene 2 1 5 -1.28549 0 1 -1.28549 1
gene 1 2 5 -3.42634 0 2 -3.42634 1
gene 1 3 5 0.459439 0 3 0.459439 1
gene 2 4 5 -0.370051 0 4 -0.370051 1
gene 3 1 6 -3.71441 0 5 -3.71441 1
gene 2 2 6 1.0182 0 6 1.0182 1
gene 3 3 6 1.02059 0 7 1.02059 1
gene 3 4 6 0.839298 0 8 0.839298 1
gene 1 5 6 -3.97283 0 58 -3.97283 1
genomeend 77

/* Species #415 : (Size 1) (AF 0) (Age 2)  */


/* Organism #78 Fitness: 0 Error: 0 */
genomestart 78
node 1 1 1 3
node 2 3 1 1
node 3 3 1 1
node 4 2 1 1
node 5 3 0 2
node 6 2 0 2
gene 2 1 5 6.12322 0 1 6.12322 1
gene 1 2 5 0.770452 0 2 0.770452 1
gene 1 3 5 -1.29643 0 3 -1.29643 1
gene 2 4 5 -5.96259 0 4 -5.96259 1
gene 3 1 6 2.07068 0 5 2.07068 1
gene 2 2 6 0.441197 0 6 0.441197 1
gene 3 3 6 0.106433 0 7 0.106433 1
gene 3 4 6 0.275255 0 8 0.275255 1
gene 1 5 6 -2.21869 0 58 -2.21869 1
genomeend 78

/* Species #416 : (Size 6) (AF 24.5) (Age 2)  */


/* Organism #79 Fitness: 0 Error: 0 */
genomestart 79
node 1 1 1 3
node 2 3 1 1
node 3 3 1 1
node 4 2 1 1
node 5 3 0 2
node 6 2 0 2
gene 2 1 5 8 0 1 8 1
gene 1 2 5 -0.842614 0 2 -0.842614 1
gene 1 3 5 -2.31652 0 3 -2.31652 1
gene 2 4 5 -6.88178 0 4 -6.88178 1
gene 3 1 6 1.98487 0 5 1.98487 1
gene 2 2 6 -0.745892 0 6 -0.745892 1
gene 3 3 6 -1.24532 0 7 -1.24532 1
gene 3 4 6 1.52394 0 8 1.52394 1
gene 1 5 6 2.10396 0 58 2.10396 1
genomeend 79

/* Organism #80 Fitness: 36 Error: 0 */
genomestart 80
node 1 1 1 3
node 2 3 1 1
node 3 3 1 1
node 4 2 1 1
node 5 3 0 2
node 6 2 0 2
gene 2 1 5 5.66336 0 1 5.66336 1
gene 1 2 5 -0.949259 0 2 -0.949259 1
gene 1 3 5 -4.31278 0 3 -4.31278 1
gene 2 4 5 -7.42198 0 4 -7.42198 1
gene 3 1 6 2.06989 0 5 2.06989 1
gene 2 2 6 -0.0427129 0 6 -0.0427129 1
gene 3 3 6 0.860993 0 7 0.860993 1
gene 3 4 6 1.82522 0 8 1.82522 1
gene 1 5 6 3.66142 0 58 3.66142 1
genomeend 80

/* Organism #81 Fitness: 37 Error: 0 */
genomestart 81
node 1 1 1 3
node 2 3 1 1
node 3 3 1 1
node 4 2 1 1
node 5 3 0 2
node 6 2 0 2
gene 2 1 5 8 0 1 8 1
gene 1 2 5 -1.98156 0 2 -1.98156 1
gene 1 3 5 -1.57365 0 3 -1.57365 1
gene 2 4 5 -6.75679 0 4 -6.75679 1
gene 3 1 6 3.23769 0 5 3.23769 1
gene 2 2 6 -0.645463 0 6 -0.645463 1
gene 3 3 6 -2.22993 0 7 -2.22993 1
gene 3 4 6 -0.218239 0 8 -0.218239 1
gene 1 5 6 -0.68836 0 58 -0.68836 1
genomeend 81

/* Organism #82 Fitness: 0 Error: 0 */
genomestart 82
node 1 1 1 3
node 2 3 1 1
node 3 3 1 1
node 4 2 1 1
node 5 3 0 2
node 6 2 0 2
gene 2 1 5 8 0 1 8 1
gene 1 2 5 0.165675 0 2 0.165675 1
gene 1 3 5 -2.67779 0 3 -2.67779 1
gene 2 4 5 -5.34863 0 4 -5.34863 1
gene 3 1 6 1.88953 0 5 1.88953 1
gene 2 2 6 -0.745892 0 6 -0.745892 1
gene 3 3 6 0.268614 0 7 0.268614 1
gene 3 4 6 2.77616 0 8 2.77616 1
gene 1 5 6 0.0536422 0 58 0.0536422 1
genomeend 82

/* Organism #83 Fitness: 37 Error: 0 */
genomestart 83
node 1 1 1 3
node 2 3 1 1
node 3 3 1 1
node 4 2 1 1
node 5 3 0 2
node 6 2 0 2
gene 2 1 5 5.91117 0 1 5.91117 1
gene 3 2 5 -1.22453 0 2 -1.22453 1
gene 1 3 5 -4.62926 0 3 -4.62926 1
gene 2 4 5 -7.04297 0 4 -7.04297 1
gene 3 1 6 1.61628 0 5 1.61628 1
gene 2 2 6 1.21044 0 6 1.21044 1
gene 3 3 6 -3.21868 0 7 -3.21868 1
gene 3 4 6 2.5805 0 8 2.5805 1
gene 1 5 6 3.85905 0 58 3.85905 1
genomeend 83

/* Organism #84 Fitness: 37 Error: 0 */
genomestart 84
node 1 1 1 3
node 2 3 1 1
node 3 3 1 1
node 4 2 1 1
node 5 3 0 2
node 6 2 0 2
gene 2 1 5 8 0 1 8 1
gene 1 2 5 -2.67632 0 2 -2.67632 1
gene 1 3 5 0.133142 0 3 0.133142 1
gene 2 4 5 -8 0 4 -8 1
gene 3 1 6 0.17038 0 5 0.17038 1
gene 2 2 6 -2.00407 0 6 -2.00407 1
gene 3 3 6 0.655257 0 7 0.655257 1
gene 3 4 6 2.67441 0 8 2.67441 1
gene 1 5 6 2.62286 0 58 2.62286 1
genomeend 84

/* Species #417 : (Size 2) (AF 0) (Age 2)  */


/* Organism #85 Fitness: 0 Error: 0 */
genomestart 85
node 1 1 1 3
node 2 3 1 1
node 3 3 1 1
node 4 2 1 1
node 5 3 0 2
node 6 2 0 2
gene 2 1 5 -0.990831 0 1 -0.990831 1
gene 1 2 5 0.0206753 0 2 0.0206753 1
gene 1 3 5 -2.86086 0 3 -2.86086 1
gene 2 4 5 -2.25982 0 4 -2.25982 1
gene 3 1 6 -4.88361 0 5 -4.88361 1
gene 2 2 6 0.155827 0 6 0.155827 1
gene 3 3 6 -0.756555 0 7 -0.756555 1
gene 3 4 6 -0.615716 0 8 -0.615716 1
gene 3 5 6 -1.14663 0 58 -1.14663 1
genomeend 85

/* Organism #86 Fitness: 0 Error: 0 */
genomestart 86
node 1 1 1 3
node 2 3 1 1
node 3 3 1 1
node 4 2 1 1
node 5 3 0 2
node 6 2 0 2
gene 2 1 5 -1.71177 0 1 -1.71177 1
gene 1 2 5 1.19232 0 2 1.19232 1
gene 1 3 5 -1.09683 0 3 -1.09683 1
gene 2 4 5 -1.1963 0 4 -1.1963 1
gene 3 1 6 -3.73494 0 5 -3.73494 1
gene 2 2 6 -0.938933 0 6 -0.938933 1
gene 3 3 6 -0.664165 0 7 -0.664165 1
gene 3 4 6 1.87732 0 8 1.87732 1
gene 3 5 6 0.27832 0 58 0.27832 1
genomeend 86

/* Species #419 : (Size 3) (AF 24.6667) (Age 2)  */


/* Organism #87 Fitness: 0 Error: 0 */
genomestart 87
node 1 1 1 3
node 2 3 1 1
node 3 3 1 1
node 4 2 1 1
node 5 3 0 2
node 6 3 0 2
gene 2 1 5 -0.90147 0 1 -0.90147 1
gene 1 2 5 -1.11622 0 2 -1.11622 1
gene 1 3 5 3.46487 0 3 3.46487 1
gene 2 4 5 -8 0 4 -8 1
gene 3 1 6 -1.59322 0 5 -1.59322 1
gene 3 2 6 -0.779934 0 6 -0.779934 1
gene 3 3 6 -6.07452 0 7 -6.07452 1
gene 3 4 6 -1.86545 0 8 -1.86545 1
gene 1 5 6 -2.19248 0 58 -2.19248 1
genomeend 87

/* Organism #88 Fitness: 37 Error: 0 */
genomestart 88
node 1 1 1 3
node 2 3 1 1
node 3 3 1 1
node 4 2 1 1
node 5 3 0 2
node 6 3 0 2
gene 2 1 5 -2.91075 0 1 -2.91075 1
gene 1 2 5 -2.28157 0 2 -2.28157 1
gene 2 3 5 4.19227 0 3 4.19227 1
gene 2 4 5 -7.31058 0 4 -7.31058 1
gene 3 1 6 -1.15186 0 5 -1.15186 1
gene 3 2 6 -0.651712 0 6 -0.651712 1
gene 3 3 6 -7.08492 0 7 -7.08492 1
gene 3 4 6 -1.13877 0 8 -1.13877 1
gene 1 5 6 -2.09396 0 58 -2.09396 1
genomeend 88

/* Organism #89 Fitness: 37 Error: 0 */
genomestart 89
node 1 1 1 3
node 2 3 1 1
node 3 3 1 1
node 4 2 1 1
node 5 3 0 2
node 6 3 0 2
gene 2 1 5 -0.874661 0 1 -0.874661 1
gene 1 2 5 -1.96448 0 2 -1.96448 1
gene 1 3 5 5.02861 0 3 5.02861 1
gene 2 4 5 -8 0 4 -8 1
gene 3 1 6 -0.182443 0 5 -0.182443 1
gene 3 2 6 -0.539549 0 6 -0.539549 1
gene 3 3 6 -6.3397 0 7 -6.3397 1
gene 3 4 6 0.59785 0 8 0.59785 1
gene 1 5 6 -1.10095 0 58 -1.10095 1
genomeend 89

/* Species #421 : (Size 2) (AF 0) (Age 2)  */


/* Organism #90 Fitness: 0 Error: 0 */
genomestart 90
node 1 1 1 3
node 2 3 1 1
node 3 3 1 1
node 4 2 1 1
node 5 3 0 2
node 6 2 0 2
gene 2 1 5 1.30586 0 1 1.30586 1
gene 1 2 5 -2.58626 0 2 -2.58626 1
gene 1 3 5 0.47466 0 3 0.47466 1
gene 1 4 5 -5.59007 0 4 -5.59007 1
gene 3 1 6 1.46605 0 5 1.46605 1
gene 2 2 6 -0.578213 0 6 -0.578213 1
gene 3 3 6 -1.53088 0 7 -1.53088 1
gene 3 4 6 2.64781 0 8 2.64781 1
gene 1 5 6 1.56951 0 58 1.56951 1
genomeend 90

/* Organism #91 Fitness: 0 Error: 0 */
genomestart 91
node 1 1 1 3
node 2 3 1 1
node 3 3 1 1
node 4 2 1 1
node 5 3 0 2
node 6 2 0 2
gene 2 1 5 -1.39061 0 1 -1.39061 1
gene 1 2 5 0.332636 0 2 0.332636 1
gene 1 3 5 0.0375958 0 3 0.0375958 1
gene 1 4 5 -4.60001 0 4 -4.60001 1
gene 3 1 6 3.00417 0 5 3.00417 1
gene 2 2 6 -0.743236 0 6 -0.743236 1
gene 3 3 6 -5.35155 0 7 -5.35155 1
gene 3 4 6 0.885535 0 8 0.885535 1
gene 1 5 6 4.15577 0 58 4.15577 1
genomeend 91

/* Species #422 : (Size 1) (AF 0) (Age 1)  */


/* Organism #92 Fitness: 0 Error: 0 */
genomestart 92
node 1 1 1 3
node 2 3 1 1
node 3 3 1 1
node 4 2 1 1
node 5 3 0 2
node 6 2 0 2
gene 2 1 5 -2.35242 0 1 -2.35242 1
gene 1 2 5 -1.68758 0 2 -1.68758 1
gene 1 3 5 -0.79455 0 3 -0.79455 1
gene 2 4 5 -7.66323 0 4 -7.66323 1
gene 3 1 6 -5.06954 0 5 -5.06954 1
gene 2 2 6 -3.04106 0 6 -3.04106 1
gene 3 3 6 1.65025 0 7 1.65025 1
gene 3 4 6 -1.08512 0 8 -1.08512 1
gene 1 5 6 -5.92437 0 58 -5.92437 1
genomeend 92

/* Species #423 : (Size 1) (AF 0) (Age 1)  */


/* Organism #93 Fitness: 0 Error: 0 */
genomestart 93
node 1 1 1 3
node 2 3 1 1
node 3 3 1 1
node 4 2 1 1
node 5 3 0 2
node 6 2 0 2
gene 2 1 5 7.67705 0 1 7.67705 1
gene 1 2 5 0.348846 0 2 0.348846 1
gene 1 3 5 -2.95838 0 3 -2.95838 1
gene 2 4 5 -8 0 4 -8 1
gene 3 1 6 -6.77683 0 5 -6.77683 1
gene 2 2 6 -1.59651 0 6 -1.59651 1
gene 3 3 6 -2.17529 0 7 -2.17529 1
gene 3 4 6 0.986485 0 8 0.986485 1
gene 1 5 6 -1.70456 0 58 -1.70456 1
genomeend 93

/* Species #424 : (Size 1) (AF 0) (Age 1)  */


/* Organism #94 Fitness: 0 Error: 0 */
genomestart 94
node 1 1 1 3
node 2 3 1 1
node 3 3 1 1
node 4 2 1 1
node 5 3 0 2
node 6 2 0 2
gene 2 1 5 5.14629 0 1 5.14629 1
gene 1 2 5 -3.04882 0 2 -3.04882 1
gene 1 3 5 1.44983 0 3 1.44983 1
gene 2 4 5 -5.68776 0 4 -5.68776 1
gene 3 1 6 -5.36728 0 5 -5.36728 1
gene 2 2 6 -3.27647 0 6 -3.27647 1
gene 3 3 6 -1.8386 0 7 -1.8386 1
gene 3 4 6 -1.44084 0 8 -1.44084 1
gene 1 5 6 0.108205 0 58 0.108205 1
genomeend 94

/* Species #425 : (Size 1) (AF 37) (Age 1)  */


/* Organism #95 Fitness: 37 Error: 0 */
genomestart 95
node 1 1 1 3
node 2 3 1 1
node 3 3 1 1
node 4 2 1 1
node 5 3 0 2
node 6 2 0 2
gene 2 1 5 3.34944 0 1 3.34944 1
gene 1 2 5 -5.61285 0 2 -5.61285 1
gene 1 3 5 -1.83714 0 3 -1.83714 1
gene 2 4 5 0.247646 0 4 0.247646 1
gene 3 1 6 -5.03332 0 5 -5.03332 1
gene 2 2 6 -2.4524 0 6 -2.4524 1
gene 3 3 6 -7.50593 0 7 -7.50593 1
gene 3 4 6 5.78699 0 8 5.78699 1
gene 1 5 6 1.19352 0 58 1.19352 1
genomeend 95

/* Species #426 : (Size 1) (AF 0) (Age 1)  */


/* Organism #96 Fitness: 0 Error: 0 */
genomestart 96
node 1 1 1 3
node 2 3 1 1
node 3 3 1 1
node 4 2 1 1
node 5 3 0 2
node 6 2 0 2
gene 2 1 5 -2.27035 0 1 -2.27035 1
gene 1 2 5 2.14071 0 2 2.14071 1
gene 1 3 5 2.30637 0 3 2.30637 1
gene 2 4 5 -1.33546 0 4 -1.33546 1
gene 3 1 6 0.212111 0 5 0.212111 1
gene 2 2 6 -1.28484 0 6 -1.28484 1
gene 3 3 6 -2.02144 0 7 -2.02144 1
gene 3 4 6 -1.83273 0 8 -1.83273 1
gene 1 5 6 -2.6285 0 58 -2.6285 1
genomeend 96

/* Species #427 : (Size 1) (AF 0) (Age 1)  */


/* Organism #97 Fitness: 0 Error: 0 */
genomestart 97
node 1 1 1 3
node 2 3 1 1
node 3 3 1 1
node 4 2 1 1
node 5 3 0 2
node 6 2 0 2
gene 2 1 5 0.0489137 0 1 0.0489137 1
gene 1 2 5 1.52194 0 2 1.52194 1
gene 1 3 5 -1.10939 0 3 -1.10939 1
gene 2 4 5 3.02264 0 4 3.02264 1
gene 3 1 6 -6.92403 0 5 -6.92403 1
gene 2 2 6 2.95639 0 6 2.95639 1
gene 3 3 6 -1.74861 0 7 -1.74861 1
gene 3 4 6 2.25204 0 8 2.25204 1
gene 1 5 6 -0.305681 0 58 -0.305681 1
genomeend 97

/* Species #428 : (Size 1) (AF 0) (Age 1)  */


/* Organism #98 Fitness: 0 Error: 0 */
genomestart 98
node 1 1 1 3
node 2 3 1 1
node 3 3 1 1
node 4 2 1 1
node 5 3 0 2
node 6 2 0 2
gene 2 1 5 -0.643881 0 1 -0.643881 1
gene 1 2 5 -5.00758 0 2 -5.00758 1
gene 1 3 5 -5.11118 0 3 -5.11118 1
gene 2 4 5 -6.89199 0 4 -6.89199 1
gene 3 1 6 -0.12229 0 5 -0.12229 1
gene 2 2 6 -2.14119 0 6 -2.14119 1
gene 3 3 6 1.44097 0 7 1.44097 1
gene 3 4 6 -0.947801 0 8 -0.947801 1
gene 1 5 6 -1.76442 0 58 -1.76442 1
genomeend 98

/* Species #429 : (Size 1) (AF 0) (Age 1)  */


/* Organism #99 Fitness: 0 Error: 0 */
genomestart 99
node 1 1 1 3
node 2 3 1 1
node 3 3 1 1
node 4 2 1 1
node 5 3 0 2
node 6 2 0 2
gene 2 1 5 -1.93897 0 1 -1.93897 1
gene 1 2 5 2.134 0 2 2.134 1
gene 1 3 5 -4.16983 0 3 -4.16983 1
gene 2 4 5 -3.17414 0 4 -3.17414 1
gene 3 1 6 -7.09532 0 5 -7.09532 1
gene 2 2 6 -0.810102 0 6 -0.810102 1
gene 3 3 6 -1.96546 0 7 -1.96546 1
gene 3 4 6 -2.61365 0 8 -2.61365 1
gene 3 5 6 -3.18019 0 58 -3.18019 1
genomeend 99
